svm_type c_svc
kernel_type rbf
gamma 6.10352e-005
nr_class 2
total_sv 127
rho -10.4218
label 3 1
nr_sv 64 63
SV
8 1:1 2:0 3:-1 4:-5 5:0 6:1 7:4 8:0 9:4 10:3 11:0 12:0 13:0 14:0 15:0 16:-4 17:0 18:-1 19:5 20:0 21:0 22:1 23:0 24:0 25:0 26:0 27:0 28:5 29:0 30:1 31:-1 32:0 33:-1 34:1 35:0 36:0 37:1 38:0 39:1 40:0 41:0 42:0 43:2 44:0 45:0 46:1 47:0 48:0 49:-1 50:0 51:2 52:4 53:0 54:-1 55:-6 56:0 57:-1 58:-3 59:0 60:1 
8 1:0 2:0 3:0 4:-6 5:0 6:0 7:8 8:0 9:1 10:1 11:0 12:0 13:0 14:0 15:0 16:3 17:0 18:2 19:2 20:0 21:0 22:1 23:0 24:0 25:1 26:0 27:1 28:-2 29:0 30:1 31:5 32:0 33:1 34:1 35:0 36:0 37:-1 38:0 39:2 40:2 41:0 42:0 43:-3 44:0 45:0 46:-3 47:0 48:1 49:0 50:0 51:0 52:2 53:0 54:-1 55:-12 56:0 57:0 58:0 59:0 60:0 
8 1:0 2:0 3:0 4:1 5:0 6:2 7:7 8:0 9:-1 10:2 11:0 12:0 13:1 14:0 15:1 16:-4 17:0 18:1 19:10 20:0 21:0 22:2 23:0 24:0 25:-1 26:0 27:2 28:0 29:0 30:0 31:2 32:0 33:-1 34:-2 35:0 36:1 37:0 38:0 39:0 40:0 41:0 42:-1 43:-7 44:0 45:-1 46:1 47:0 48:0 49:0 50:0 51:0 52:3 53:0 54:-2 55:-11 56:0 57:5 58:0 59:0 60:1 
8 1:1 2:0 3:0 4:-3 5:0 6:3 7:6 8:0 9:-7 10:3 11:0 12:0 13:1 14:0 15:0 16:0 17:0 18:2 19:2 20:0 21:-1 22:2 23:0 24:1 25:0 26:0 27:1 28:2 29:0 30:0 31:2 32:0 33:7 34:0 35:0 36:1 37:-1 38:0 39:0 40:-3 41:0 42:-2 43:-1 44:0 45:7 46:-2 47:0 48:1 49:-1 50:0 51:-1 52:1 53:0 54:-3 55:-5 56:0 57:-4 58:-3 59:0 60:0 
8 1:2 2:0 3:1 4:0 5:0 6:4 7:5 8:0 9:0 10:4 11:0 12:1 13:1 14:0 15:2 16:2 17:0 18:2 19:5 20:0 21:8 22:2 23:0 24:1 25:0 26:0 27:1 28:-3 29:0 30:0 31:2 32:0 33:8 34:0 35:0 36:1 37:0 38:0 39:0 40:1 41:0 42:-1 43:-2 44:0 45:-3 46:-1 47:0 48:0 49:0 50:0 51:-1 52:1 53:0 54:-5 55:-6 56:0 57:-13 58:-3 59:0 60:-1 
6.436656643234672 1:1 2:0 3:2 4:2 5:0 6:5 7:7 8:0 9:12 10:4 11:0 12:2 13:0 14:0 15:1 16:-3 17:0 18:3 19:4 20:0 21:12 22:2 23:0 24:2 25:0 26:0 27:0 28:1 29:0 30:2 31:0 32:0 33:1 34:1 35:0 36:1 37:0 38:0 39:-1 40:1 41:0 42:-2 43:-4 44:0 45:-9 46:-1 47:0 48:0 49:0 50:0 51:-2 52:2 53:0 54:-5 55:-4 56:0 57:-12 58:-2 59:0 60:-2 
8 1:1 2:0 3:2 4:-3 5:0 6:5 7:6 8:0 9:17 10:3 11:0 12:3 13:1 14:0 15:1 16:1 17:0 18:4 19:2 20:0 21:6 22:2 23:0 24:2 25:1 26:0 27:0 28:1 29:0 30:0 31:-2 32:0 33:-4 34:0 35:0 36:1 37:1 38:0 39:-1 40:2 41:0 42:-3 43:-2 44:0 45:-7 46:-1 47:0 48:-1 49:0 50:0 51:-1 52:2 53:0 54:-3 55:-2 56:0 57:-8 58:-2 59:0 60:-2 
8 1:1 2:0 3:2 4:0 5:0 6:5 7:4 8:0 9:11 10:3 11:0 12:3 13:1 14:0 15:1 16:0 17:0 18:1 19:0 20:0 21:1 22:1 23:0 24:2 25:1 26:0 27:0 28:1 29:0 30:-2 31:0 32:0 33:-2 34:0 35:0 36:0 37:0 38:0 39:0 40:1 41:0 42:-2 43:0 44:0 45:-3 46:-1 47:0 48:-1 49:-1 50:0 51:-1 52:1 53:0 54:-2 55:0 56:0 57:-3 58:-1 59:0 60:-1 
8 1:2 2:0 3:1 4:-1 5:0 6:3 7:0 8:0 9:3 10:2 11:0 12:3 13:2 14:0 15:0 16:0 17:0 18:0 19:0 20:0 21:0 22:1 23:0 24:1 25:1 26:0 27:0 28:0 29:0 30:0 31:0 32:0 33:-1 34:0 35:0 36:0 37:0 38:0 39:-1 40:0 41:0 42:0 43:0 44:0 45:-1 46:0 47:0 48:0 49:-1 50:0 51:0 52:1 53:0 54:1 55:3 56:0 57:0 58:0 59:0 60:-1 
8 1:3 2:0 3:0 4:0 5:0 6:-1 7:-1 8:0 9:0 10:1 11:0 12:2 13:2 14:0 15:0 16:0 17:0 18:-1 19:-1 20:0 21:-1 22:0 23:0 24:1 25:1 26:0 27:-1 28:0 29:0 30:-1 31:-1 32:0 33:-1 34:0 35:0 36:1 37:0 38:0 39:0 40:1 41:0 42:0 43:2 44:0 45:0 46:0 47:0 48:0 49:-2 50:0 51:1 52:0 53:0 54:3 55:4 56:0 57:2 58:0 59:0 60:0 
8 1:3 2:0 3:0 4:1 5:0 6:-2 7:-3 8:0 9:-2 10:0 11:0 12:1 13:2 14:0 15:-1 16:1 17:0 18:-2 19:-3 20:0 21:-2 22:0 23:0 24:1 25:1 26:0 27:0 28:2 29:0 30:-1 31:0 32:0 33:-1 34:0 35:0 36:0 37:-1 38:0 39:1 40:1 41:0 42:2 43:2 44:0 45:1 46:0 47:0 48:0 49:-3 50:0 51:3 52:-2 53:0 54:5 55:7 56:0 57:6 58:1 59:0 60:2 
8 1:3 2:0 3:-2 4:2 5:0 6:-4 7:-7 8:0 9:-5 10:0 11:0 12:0 13:2 14:0 15:-1 16:3 17:0 18:-3 19:-4 20:0 21:-4 22:0 23:0 24:-1 25:0 26:0 27:0 28:2 29:0 30:0 31:-2 32:0 33:-2 34:0 35:0 36:-1 37:-2 38:0 39:2 40:-1 41:0 42:3 43:3 44:0 45:3 46:1 47:0 48:1 49:-3 50:0 51:3 52:-9 53:0 54:7 55:11 56:0 57:10 58:2 59:0 60:3 
3.653706772480438 1:2 2:0 3:-1 4:11 5:0 6:-6 7:-10 8:0 9:-8 10:-1 11:0 12:-3 13:1 14:0 15:0 16:3 17:0 18:-2 19:-2 20:0 21:-1 22:0 23:0 24:-1 25:0 26:0 27:1 28:-1 29:0 30:1 31:3 32:0 33:2 34:1 35:0 36:1 37:0 38:0 39:1 40:-6 41:0 42:3 43:5 44:0 45:4 46:2 47:0 48:2 49:0 50:0 51:2 52:-10 53:0 54:5 55:8 56:0 57:7 58:2 59:0 60:3 
8 1:1 2:0 3:-1 4:8 5:0 6:-4 7:-7 8:0 9:-5 10:-1 11:0 12:-2 13:0 14:0 15:0 16:4 17:0 18:-1 19:-2 20:0 21:-2 22:0 23:0 24:0 25:0 26:0 27:0 28:-1 29:0 30:1 31:0 32:0 33:0 34:1 35:0 36:1 37:0 38:0 39:1 40:-5 41:0 42:3 43:3 44:0 45:3 46:1 47:0 48:2 49:0 50:0 51:1 52:-9 53:0 54:5 55:7 56:0 57:5 58:1 59:0 60:2 
8 1:0 2:0 3:0 4:8 5:0 6:-4 7:-5 8:0 9:-4 10:0 11:0 12:-1 13:0 14:0 15:0 16:3 17:0 18:-2 19:-3 20:0 21:-2 22:1 23:0 24:0 25:0 26:0 27:1 28:-1 29:0 30:0 31:0 32:0 33:1 34:1 35:0 36:1 37:0 38:0 39:1 40:-5 41:0 42:2 43:4 44:0 45:3 46:1 47:0 48:1 49:0 50:0 51:1 52:-7 53:0 54:4 55:6 56:0 57:4 58:1 59:0 60:2 
8 1:1 2:0 3:-1 4:-5 5:0 6:1 7:4 8:0 9:4 10:3 11:0 12:0 13:0 14:0 15:0 16:-4 17:0 18:-1 19:5 20:0 21:0 22:1 23:0 24:0 25:0 26:0 27:0 28:5 29:0 30:1 31:-1 32:0 33:-1 34:1 35:0 36:0 37:1 38:0 39:1 40:0 41:0 42:0 43:2 44:0 45:0 46:1 47:0 48:0 49:-1 50:0 51:2 52:4 53:0 54:-1 55:-6 56:0 57:-1 58:-3 59:0 60:1 
8 1:0 2:0 3:0 4:-6 5:0 6:0 7:8 8:0 9:1 10:1 11:0 12:0 13:0 14:0 15:0 16:3 17:0 18:2 19:2 20:0 21:0 22:1 23:0 24:0 25:1 26:0 27:1 28:-2 29:0 30:1 31:5 32:0 33:1 34:1 35:0 36:0 37:-1 38:0 39:2 40:2 41:0 42:0 43:-3 44:0 45:0 46:-3 47:0 48:1 49:0 50:0 51:0 52:2 53:0 54:-1 55:-12 56:0 57:0 58:0 59:0 60:0 
8 1:0 2:0 3:0 4:1 5:0 6:2 7:7 8:0 9:-1 10:2 11:0 12:0 13:1 14:0 15:1 16:-4 17:0 18:1 19:10 20:0 21:0 22:2 23:0 24:0 25:-1 26:0 27:2 28:0 29:0 30:0 31:2 32:0 33:-1 34:-2 35:0 36:1 37:0 38:0 39:0 40:0 41:0 42:-1 43:-7 44:0 45:-1 46:1 47:0 48:0 49:0 50:0 51:0 52:3 53:0 54:-2 55:-11 56:0 57:5 58:0 59:0 60:1 
2.812647549893914 1:0 2:0 3:2 4:-2 5:0 6:3 7:11 8:0 9:-6 10:0 11:0 12:1 13:1 14:0 15:0 16:-2 17:0 18:2 19:2 20:0 21:-6 22:3 23:0 24:0 25:1 26:0 27:0 28:1 29:0 30:1 31:-2 32:0 33:0 34:2 35:0 36:1 37:0 38:0 39:1 40:3 41:0 42:-1 43:-2 44:0 45:8 46:0 47:0 48:1 49:-1 50:0 51:0 52:-2 53:0 54:-3 55:-5 56:0 57:8 58:-2 59:0 60:1 
8 1:1 2:0 3:0 4:-3 5:0 6:3 7:6 8:0 9:-7 10:3 11:0 12:0 13:1 14:0 15:0 16:0 17:0 18:2 19:2 20:0 21:-1 22:2 23:0 24:1 25:0 26:0 27:1 28:2 29:0 30:0 31:2 32:0 33:7 34:0 35:0 36:1 37:-1 38:0 39:0 40:-3 41:0 42:-2 43:-1 44:0 45:7 46:-2 47:0 48:1 49:-1 50:0 51:-1 52:1 53:0 54:-3 55:-5 56:0 57:-4 58:-3 59:0 60:0 
8 1:2 2:0 3:1 4:0 5:0 6:4 7:5 8:0 9:0 10:4 11:0 12:1 13:1 14:0 15:2 16:2 17:0 18:2 19:5 20:0 21:8 22:2 23:0 24:1 25:0 26:0 27:1 28:-3 29:0 30:0 31:2 32:0 33:8 34:0 35:0 36:1 37:0 38:0 39:0 40:1 41:0 42:-1 43:-2 44:0 45:-3 46:-1 47:0 48:0 49:0 50:0 51:-1 52:1 53:0 54:-5 55:-6 56:0 57:-13 58:-3 59:0 60:-1 
8 1:1 2:0 3:2 4:2 5:0 6:5 7:7 8:0 9:12 10:4 11:0 12:2 13:0 14:0 15:1 16:-3 17:0 18:3 19:4 20:0 21:12 22:2 23:0 24:2 25:0 26:0 27:0 28:1 29:0 30:2 31:0 32:0 33:1 34:1 35:0 36:1 37:0 38:0 39:-1 40:1 41:0 42:-2 43:-4 44:0 45:-9 46:-1 47:0 48:0 49:0 50:0 51:-2 52:2 53:0 54:-5 55:-4 56:0 57:-12 58:-2 59:0 60:-2 
8 1:1 2:0 3:2 4:-3 5:0 6:5 7:6 8:0 9:17 10:3 11:0 12:3 13:1 14:0 15:1 16:1 17:0 18:4 19:2 20:0 21:6 22:2 23:0 24:2 25:1 26:0 27:0 28:1 29:0 30:0 31:-2 32:0 33:-4 34:0 35:0 36:1 37:1 38:0 39:-1 40:2 41:0 42:-3 43:-2 44:0 45:-7 46:-1 47:0 48:-1 49:0 50:0 51:-1 52:2 53:0 54:-3 55:-2 56:0 57:-8 58:-2 59:0 60:-2 
8 1:1 2:0 3:2 4:0 5:0 6:5 7:4 8:0 9:11 10:3 11:0 12:3 13:1 14:0 15:1 16:0 17:0 18:1 19:0 20:0 21:1 22:1 23:0 24:2 25:1 26:0 27:0 28:1 29:0 30:-2 31:0 32:0 33:-2 34:0 35:0 36:0 37:0 38:0 39:0 40:1 41:0 42:-2 43:0 44:0 45:-3 46:-1 47:0 48:-1 49:-1 50:0 51:-1 52:1 53:0 54:-2 55:0 56:0 57:-3 58:-1 59:0 60:-1 
8 1:2 2:0 3:1 4:-1 5:0 6:3 7:0 8:0 9:3 10:2 11:0 12:3 13:2 14:0 15:0 16:0 17:0 18:0 19:0 20:0 21:0 22:1 23:0 24:1 25:1 26:0 27:0 28:0 29:0 30:0 31:0 32:0 33:-1 34:0 35:0 36:0 37:0 38:0 39:-1 40:0 41:0 42:0 43:0 44:0 45:-1 46:0 47:0 48:0 49:-1 50:0 51:0 52:1 53:0 54:1 55:3 56:0 57:0 58:0 59:0 60:-1 
8 1:3 2:0 3:0 4:0 5:0 6:-1 7:-1 8:0 9:0 10:1 11:0 12:2 13:2 14:0 15:0 16:0 17:0 18:-1 19:-1 20:0 21:-1 22:0 23:0 24:1 25:1 26:0 27:-1 28:0 29:0 30:-1 31:-1 32:0 33:-1 34:0 35:0 36:1 37:0 38:0 39:0 40:1 41:0 42:0 43:2 44:0 45:0 46:0 47:0 48:0 49:-2 50:0 51:1 52:0 53:0 54:3 55:4 56:0 57:2 58:0 59:0 60:0 
8 1:3 2:0 3:0 4:1 5:0 6:-2 7:-3 8:0 9:-2 10:0 11:0 12:1 13:2 14:0 15:-1 16:1 17:0 18:-2 19:-3 20:0 21:-2 22:0 23:0 24:1 25:1 26:0 27:0 28:2 29:0 30:-1 31:0 32:0 33:-1 34:0 35:0 36:0 37:-1 38:0 39:1 40:1 41:0 42:2 43:2 44:0 45:1 46:0 47:0 48:0 49:-3 50:0 51:3 52:-2 53:0 54:5 55:7 56:0 57:6 58:1 59:0 60:2 
8 1:3 2:0 3:-2 4:2 5:0 6:-4 7:-7 8:0 9:-5 10:0 11:0 12:0 13:2 14:0 15:-1 16:3 17:0 18:-3 19:-4 20:0 21:-4 22:0 23:0 24:-1 25:0 26:0 27:0 28:2 29:0 30:0 31:-2 32:0 33:-2 34:0 35:0 36:-1 37:-2 38:0 39:2 40:-1 41:0 42:3 43:3 44:0 45:3 46:1 47:0 48:1 49:-3 50:0 51:3 52:-9 53:0 54:7 55:11 56:0 57:10 58:2 59:0 60:3 
8 1:2 2:0 3:-1 4:11 5:0 6:-6 7:-10 8:0 9:-8 10:-1 11:0 12:-3 13:1 14:0 15:0 16:3 17:0 18:-2 19:-2 20:0 21:-1 22:0 23:0 24:-1 25:0 26:0 27:1 28:-1 29:0 30:1 31:3 32:0 33:2 34:1 35:0 36:1 37:0 38:0 39:1 40:-6 41:0 42:3 43:5 44:0 45:4 46:2 47:0 48:2 49:0 50:0 51:2 52:-10 53:0 54:5 55:8 56:0 57:7 58:2 59:0 60:3 
8 1:1 2:0 3:-1 4:8 5:0 6:-4 7:-7 8:0 9:-5 10:-1 11:0 12:-2 13:0 14:0 15:0 16:4 17:0 18:-1 19:-2 20:0 21:-2 22:0 23:0 24:0 25:0 26:0 27:0 28:-1 29:0 30:1 31:0 32:0 33:0 34:1 35:0 36:1 37:0 38:0 39:1 40:-5 41:0 42:3 43:3 44:0 45:3 46:1 47:0 48:2 49:0 50:0 51:1 52:-9 53:0 54:5 55:7 56:0 57:5 58:1 59:0 60:2 
8 1:0 2:0 3:0 4:8 5:0 6:-4 7:-5 8:0 9:-4 10:0 11:0 12:-1 13:0 14:0 15:0 16:3 17:0 18:-2 19:-3 20:0 21:-2 22:1 23:0 24:0 25:0 26:0 27:1 28:-1 29:0 30:0 31:0 32:0 33:1 34:1 35:0 36:1 37:0 38:0 39:1 40:-5 41:0 42:2 43:4 44:0 45:3 46:1 47:0 48:1 49:0 50:0 51:1 52:-7 53:0 54:4 55:6 56:0 57:4 58:1 59:0 60:2 
8 1:1 2:0 3:-1 4:-5 5:0 6:1 7:4 8:0 9:4 10:3 11:0 12:0 13:0 14:0 15:0 16:-4 17:0 18:-1 19:5 20:0 21:0 22:1 23:0 24:0 25:0 26:0 27:0 28:5 29:0 30:1 31:-1 32:0 33:-1 34:1 35:0 36:0 37:1 38:0 39:1 40:0 41:0 42:0 43:2 44:0 45:0 46:1 47:0 48:0 49:-1 50:0 51:2 52:4 53:0 54:-1 55:-6 56:0 57:-1 58:-3 59:0 60:1 
8 1:0 2:0 3:0 4:-6 5:0 6:0 7:8 8:0 9:1 10:1 11:0 12:0 13:0 14:0 15:0 16:3 17:0 18:2 19:2 20:0 21:0 22:1 23:0 24:0 25:1 26:0 27:1 28:-2 29:0 30:1 31:5 32:0 33:1 34:1 35:0 36:0 37:-1 38:0 39:2 40:2 41:0 42:0 43:-3 44:0 45:0 46:-3 47:0 48:1 49:0 50:0 51:0 52:2 53:0 54:-1 55:-12 56:0 57:0 58:0 59:0 60:0 
8 1:0 2:0 3:0 4:1 5:0 6:2 7:7 8:0 9:-1 10:2 11:0 12:0 13:1 14:0 15:1 16:-4 17:0 18:1 19:10 20:0 21:0 22:2 23:0 24:0 25:-1 26:0 27:2 28:0 29:0 30:0 31:2 32:0 33:-1 34:-2 35:0 36:1 37:0 38:0 39:0 40:0 41:0 42:-1 43:-7 44:0 45:-1 46:1 47:0 48:0 49:0 50:0 51:0 52:3 53:0 54:-2 55:-11 56:0 57:5 58:0 59:0 60:1 
8 1:0 2:0 3:2 4:-2 5:0 6:3 7:11 8:0 9:-6 10:0 11:0 12:1 13:1 14:0 15:0 16:-2 17:0 18:2 19:2 20:0 21:-6 22:3 23:0 24:0 25:1 26:0 27:0 28:1 29:0 30:1 31:-2 32:0 33:0 34:2 35:0 36:1 37:0 38:0 39:1 40:3 41:0 42:-1 43:-2 44:0 45:8 46:0 47:0 48:1 49:-1 50:0 51:0 52:-2 53:0 54:-3 55:-5 56:0 57:8 58:-2 59:0 60:1 
8 1:1 2:0 3:0 4:-3 5:0 6:3 7:6 8:0 9:-7 10:3 11:0 12:0 13:1 14:0 15:0 16:0 17:0 18:2 19:2 20:0 21:-1 22:2 23:0 24:1 25:0 26:0 27:1 28:2 29:0 30:0 31:2 32:0 33:7 34:0 35:0 36:1 37:-1 38:0 39:0 40:-3 41:0 42:-2 43:-1 44:0 45:7 46:-2 47:0 48:1 49:-1 50:0 51:-1 52:1 53:0 54:-3 55:-5 56:0 57:-4 58:-3 59:0 60:0 
8 1:2 2:0 3:1 4:0 5:0 6:4 7:5 8:0 9:0 10:4 11:0 12:1 13:1 14:0 15:2 16:2 17:0 18:2 19:5 20:0 21:8 22:2 23:0 24:1 25:0 26:0 27:1 28:-3 29:0 30:0 31:2 32:0 33:8 34:0 35:0 36:1 37:0 38:0 39:0 40:1 41:0 42:-1 43:-2 44:0 45:-3 46:-1 47:0 48:0 49:0 50:0 51:-1 52:1 53:0 54:-5 55:-6 56:0 57:-13 58:-3 59:0 60:-1 
8 1:1 2:0 3:2 4:2 5:0 6:5 7:7 8:0 9:12 10:4 11:0 12:2 13:0 14:0 15:1 16:-3 17:0 18:3 19:4 20:0 21:12 22:2 23:0 24:2 25:0 26:0 27:0 28:1 29:0 30:2 31:0 32:0 33:1 34:1 35:0 36:1 37:0 38:0 39:-1 40:1 41:0 42:-2 43:-4 44:0 45:-9 46:-1 47:0 48:0 49:0 50:0 51:-2 52:2 53:0 54:-5 55:-4 56:0 57:-12 58:-2 59:0 60:-2 
8 1:1 2:0 3:2 4:-3 5:0 6:5 7:6 8:0 9:17 10:3 11:0 12:3 13:1 14:0 15:1 16:1 17:0 18:4 19:2 20:0 21:6 22:2 23:0 24:2 25:1 26:0 27:0 28:1 29:0 30:0 31:-2 32:0 33:-4 34:0 35:0 36:1 37:1 38:0 39:-1 40:2 41:0 42:-3 43:-2 44:0 45:-7 46:-1 47:0 48:-1 49:0 50:0 51:-1 52:2 53:0 54:-3 55:-2 56:0 57:-8 58:-2 59:0 60:-2 
8 1:1 2:0 3:2 4:0 5:0 6:5 7:4 8:0 9:11 10:3 11:0 12:3 13:1 14:0 15:1 16:0 17:0 18:1 19:0 20:0 21:1 22:1 23:0 24:2 25:1 26:0 27:0 28:1 29:0 30:-2 31:0 32:0 33:-2 34:0 35:0 36:0 37:0 38:0 39:0 40:1 41:0 42:-2 43:0 44:0 45:-3 46:-1 47:0 48:-1 49:-1 50:0 51:-1 52:1 53:0 54:-2 55:0 56:0 57:-3 58:-1 59:0 60:-1 
8 1:2 2:0 3:1 4:-1 5:0 6:3 7:0 8:0 9:3 10:2 11:0 12:3 13:2 14:0 15:0 16:0 17:0 18:0 19:0 20:0 21:0 22:1 23:0 24:1 25:1 26:0 27:0 28:0 29:0 30:0 31:0 32:0 33:-1 34:0 35:0 36:0 37:0 38:0 39:-1 40:0 41:0 42:0 43:0 44:0 45:-1 46:0 47:0 48:0 49:-1 50:0 51:0 52:1 53:0 54:1 55:3 56:0 57:0 58:0 59:0 60:-1 
8 1:3 2:0 3:0 4:0 5:0 6:-1 7:-1 8:0 9:0 10:1 11:0 12:2 13:2 14:0 15:0 16:0 17:0 18:-1 19:-1 20:0 21:-1 22:0 23:0 24:1 25:1 26:0 27:-1 28:0 29:0 30:-1 31:-1 32:0 33:-1 34:0 35:0 36:1 37:0 38:0 39:0 40:1 41:0 42:0 43:2 44:0 45:0 46:0 47:0 48:0 49:-2 50:0 51:1 52:0 53:0 54:3 55:4 56:0 57:2 58:0 59:0 60:0 
8 1:3 2:0 3:0 4:1 5:0 6:-2 7:-3 8:0 9:-2 10:0 11:0 12:1 13:2 14:0 15:-1 16:1 17:0 18:-2 19:-3 20:0 21:-2 22:0 23:0 24:1 25:1 26:0 27:0 28:2 29:0 30:-1 31:0 32:0 33:-1 34:0 35:0 36:0 37:-1 38:0 39:1 40:1 41:0 42:2 43:2 44:0 45:1 46:0 47:0 48:0 49:-3 50:0 51:3 52:-2 53:0 54:5 55:7 56:0 57:6 58:1 59:0 60:2 
8 1:3 2:0 3:-2 4:2 5:0 6:-4 7:-7 8:0 9:-5 10:0 11:0 12:0 13:2 14:0 15:-1 16:3 17:0 18:-3 19:-4 20:0 21:-4 22:0 23:0 24:-1 25:0 26:0 27:0 28:2 29:0 30:0 31:-2 32:0 33:-2 34:0 35:0 36:-1 37:-2 38:0 39:2 40:-1 41:0 42:3 43:3 44:0 45:3 46:1 47:0 48:1 49:-3 50:0 51:3 52:-9 53:0 54:7 55:11 56:0 57:10 58:2 59:0 60:3 
8 1:2 2:0 3:-1 4:11 5:0 6:-6 7:-10 8:0 9:-8 10:-1 11:0 12:-3 13:1 14:0 15:0 16:3 17:0 18:-2 19:-2 20:0 21:-1 22:0 23:0 24:-1 25:0 26:0 27:1 28:-1 29:0 30:1 31:3 32:0 33:2 34:1 35:0 36:1 37:0 38:0 39:1 40:-6 41:0 42:3 43:5 44:0 45:4 46:2 47:0 48:2 49:0 50:0 51:2 52:-10 53:0 54:5 55:8 56:0 57:7 58:2 59:0 60:3 
8 1:1 2:0 3:-1 4:8 5:0 6:-4 7:-7 8:0 9:-5 10:-1 11:0 12:-2 13:0 14:0 15:0 16:4 17:0 18:-1 19:-2 20:0 21:-2 22:0 23:0 24:0 25:0 26:0 27:0 28:-1 29:0 30:1 31:0 32:0 33:0 34:1 35:0 36:1 37:0 38:0 39:1 40:-5 41:0 42:3 43:3 44:0 45:3 46:1 47:0 48:2 49:0 50:0 51:1 52:-9 53:0 54:5 55:7 56:0 57:5 58:1 59:0 60:2 
8 1:0 2:0 3:0 4:8 5:0 6:-4 7:-5 8:0 9:-4 10:0 11:0 12:-1 13:0 14:0 15:0 16:3 17:0 18:-2 19:-3 20:0 21:-2 22:1 23:0 24:0 25:0 26:0 27:1 28:-1 29:0 30:0 31:0 32:0 33:1 34:1 35:0 36:1 37:0 38:0 39:1 40:-5 41:0 42:2 43:4 44:0 45:3 46:1 47:0 48:1 49:0 50:0 51:1 52:-7 53:0 54:4 55:6 56:0 57:4 58:1 59:0 60:2 
8 1:1 2:0 3:-1 4:-5 5:0 6:1 7:4 8:0 9:4 10:3 11:0 12:0 13:0 14:0 15:0 16:-4 17:0 18:-1 19:5 20:0 21:0 22:1 23:0 24:0 25:0 26:0 27:0 28:5 29:0 30:1 31:-1 32:0 33:-1 34:1 35:0 36:0 37:1 38:0 39:1 40:0 41:0 42:0 43:2 44:0 45:0 46:1 47:0 48:0 49:-1 50:0 51:2 52:4 53:0 54:-1 55:-6 56:0 57:-1 58:-3 59:0 60:1 
8 1:0 2:0 3:0 4:-6 5:0 6:0 7:8 8:0 9:1 10:1 11:0 12:0 13:0 14:0 15:0 16:3 17:0 18:2 19:2 20:0 21:0 22:1 23:0 24:0 25:1 26:0 27:1 28:-2 29:0 30:1 31:5 32:0 33:1 34:1 35:0 36:0 37:-1 38:0 39:2 40:2 41:0 42:0 43:-3 44:0 45:0 46:-3 47:0 48:1 49:0 50:0 51:0 52:2 53:0 54:-1 55:-12 56:0 57:0 58:0 59:0 60:0 
8 1:0 2:0 3:0 4:1 5:0 6:2 7:7 8:0 9:-1 10:2 11:0 12:0 13:1 14:0 15:1 16:-4 17:0 18:1 19:10 20:0 21:0 22:2 23:0 24:0 25:-1 26:0 27:2 28:0 29:0 30:0 31:2 32:0 33:-1 34:-2 35:0 36:1 37:0 38:0 39:0 40:0 41:0 42:-1 43:-7 44:0 45:-1 46:1 47:0 48:0 49:0 50:0 51:0 52:3 53:0 54:-2 55:-11 56:0 57:5 58:0 59:0 60:1 
3.228578914707259 1:2 2:0 3:1 4:-5 5:0 6:3 7:14 8:0 9:-3 10:3 11:0 12:0 13:0 14:0 15:2 16:-1 17:0 18:2 19:6 20:0 21:-4 22:-1 23:0 24:1 25:1 26:0 27:0 28:-1 29:0 30:1 31:-3 32:0 33:-4 34:2 35:0 36:0 37:1 38:0 39:0 40:2 41:0 42:0 43:-7 44:0 45:2 46:1 47:0 48:1 49:0 50:0 51:1 52:4 53:0 54:-2 55:-7 56:0 57:10 58:-1 59:0 60:1 
8 1:0 2:0 3:2 4:-2 5:0 6:3 7:11 8:0 9:-6 10:0 11:0 12:1 13:1 14:0 15:0 16:-2 17:0 18:2 19:2 20:0 21:-6 22:3 23:0 24:0 25:1 26:0 27:0 28:1 29:0 30:1 31:-2 32:0 33:0 34:2 35:0 36:1 37:0 38:0 39:1 40:3 41:0 42:-1 43:-2 44:0 45:8 46:0 47:0 48:1 49:-1 50:0 51:0 52:-2 53:0 54:-3 55:-5 56:0 57:8 58:-2 59:0 60:1 
8 1:1 2:0 3:0 4:-3 5:0 6:3 7:6 8:0 9:-7 10:3 11:0 12:0 13:1 14:0 15:0 16:0 17:0 18:2 19:2 20:0 21:-1 22:2 23:0 24:1 25:0 26:0 27:1 28:2 29:0 30:0 31:2 32:0 33:7 34:0 35:0 36:1 37:-1 38:0 39:0 40:-3 41:0 42:-2 43:-1 44:0 45:7 46:-2 47:0 48:1 49:-1 50:0 51:-1 52:1 53:0 54:-3 55:-5 56:0 57:-4 58:-3 59:0 60:0 
8 1:2 2:0 3:1 4:0 5:0 6:4 7:5 8:0 9:0 10:4 11:0 12:1 13:1 14:0 15:2 16:2 17:0 18:2 19:5 20:0 21:8 22:2 23:0 24:1 25:0 26:0 27:1 28:-3 29:0 30:0 31:2 32:0 33:8 34:0 35:0 36:1 37:0 38:0 39:0 40:1 41:0 42:-1 43:-2 44:0 45:-3 46:-1 47:0 48:0 49:0 50:0 51:-1 52:1 53:0 54:-5 55:-6 56:0 57:-13 58:-3 59:0 60:-1 
8 1:1 2:0 3:2 4:2 5:0 6:5 7:7 8:0 9:12 10:4 11:0 12:2 13:0 14:0 15:1 16:-3 17:0 18:3 19:4 20:0 21:12 22:2 23:0 24:2 25:0 26:0 27:0 28:1 29:0 30:2 31:0 32:0 33:1 34:1 35:0 36:1 37:0 38:0 39:-1 40:1 41:0 42:-2 43:-4 44:0 45:-9 46:-1 47:0 48:0 49:0 50:0 51:-2 52:2 53:0 54:-5 55:-4 56:0 57:-12 58:-2 59:0 60:-2 
8 1:1 2:0 3:2 4:-3 5:0 6:5 7:6 8:0 9:17 10:3 11:0 12:3 13:1 14:0 15:1 16:1 17:0 18:4 19:2 20:0 21:6 22:2 23:0 24:2 25:1 26:0 27:0 28:1 29:0 30:0 31:-2 32:0 33:-4 34:0 35:0 36:1 37:1 38:0 39:-1 40:2 41:0 42:-3 43:-2 44:0 45:-7 46:-1 47:0 48:-1 49:0 50:0 51:-1 52:2 53:0 54:-3 55:-2 56:0 57:-8 58:-2 59:0 60:-2 
8 1:1 2:0 3:2 4:0 5:0 6:5 7:4 8:0 9:11 10:3 11:0 12:3 13:1 14:0 15:1 16:0 17:0 18:1 19:0 20:0 21:1 22:1 23:0 24:2 25:1 26:0 27:0 28:1 29:0 30:-2 31:0 32:0 33:-2 34:0 35:0 36:0 37:0 38:0 39:0 40:1 41:0 42:-2 43:0 44:0 45:-3 46:-1 47:0 48:-1 49:-1 50:0 51:-1 52:1 53:0 54:-2 55:0 56:0 57:-3 58:-1 59:0 60:-1 
8 1:2 2:0 3:1 4:-1 5:0 6:3 7:0 8:0 9:3 10:2 11:0 12:3 13:2 14:0 15:0 16:0 17:0 18:0 19:0 20:0 21:0 22:1 23:0 24:1 25:1 26:0 27:0 28:0 29:0 30:0 31:0 32:0 33:-1 34:0 35:0 36:0 37:0 38:0 39:-1 40:0 41:0 42:0 43:0 44:0 45:-1 46:0 47:0 48:0 49:-1 50:0 51:0 52:1 53:0 54:1 55:3 56:0 57:0 58:0 59:0 60:-1 
8 1:3 2:0 3:0 4:0 5:0 6:-1 7:-1 8:0 9:0 10:1 11:0 12:2 13:2 14:0 15:0 16:0 17:0 18:-1 19:-1 20:0 21:-1 22:0 23:0 24:1 25:1 26:0 27:-1 28:0 29:0 30:-1 31:-1 32:0 33:-1 34:0 35:0 36:1 37:0 38:0 39:0 40:1 41:0 42:0 43:2 44:0 45:0 46:0 47:0 48:0 49:-2 50:0 51:1 52:0 53:0 54:3 55:4 56:0 57:2 58:0 59:0 60:0 
8 1:3 2:0 3:0 4:1 5:0 6:-2 7:-3 8:0 9:-2 10:0 11:0 12:1 13:2 14:0 15:-1 16:1 17:0 18:-2 19:-3 20:0 21:-2 22:0 23:0 24:1 25:1 26:0 27:0 28:2 29:0 30:-1 31:0 32:0 33:-1 34:0 35:0 36:0 37:-1 38:0 39:1 40:1 41:0 42:2 43:2 44:0 45:1 46:0 47:0 48:0 49:-3 50:0 51:3 52:-2 53:0 54:5 55:7 56:0 57:6 58:1 59:0 60:2 
8 1:3 2:0 3:-2 4:2 5:0 6:-4 7:-7 8:0 9:-5 10:0 11:0 12:0 13:2 14:0 15:-1 16:3 17:0 18:-3 19:-4 20:0 21:-4 22:0 23:0 24:-1 25:0 26:0 27:0 28:2 29:0 30:0 31:-2 32:0 33:-2 34:0 35:0 36:-1 37:-2 38:0 39:2 40:-1 41:0 42:3 43:3 44:0 45:3 46:1 47:0 48:1 49:-3 50:0 51:3 52:-9 53:0 54:7 55:11 56:0 57:10 58:2 59:0 60:3 
8 1:2 2:0 3:-1 4:11 5:0 6:-6 7:-10 8:0 9:-8 10:-1 11:0 12:-3 13:1 14:0 15:0 16:3 17:0 18:-2 19:-2 20:0 21:-1 22:0 23:0 24:-1 25:0 26:0 27:1 28:-1 29:0 30:1 31:3 32:0 33:2 34:1 35:0 36:1 37:0 38:0 39:1 40:-6 41:0 42:3 43:5 44:0 45:4 46:2 47:0 48:2 49:0 50:0 51:2 52:-10 53:0 54:5 55:8 56:0 57:7 58:2 59:0 60:3 
8 1:1 2:0 3:-1 4:8 5:0 6:-4 7:-7 8:0 9:-5 10:-1 11:0 12:-2 13:0 14:0 15:0 16:4 17:0 18:-1 19:-2 20:0 21:-2 22:0 23:0 24:0 25:0 26:0 27:0 28:-1 29:0 30:1 31:0 32:0 33:0 34:1 35:0 36:1 37:0 38:0 39:1 40:-5 41:0 42:3 43:3 44:0 45:3 46:1 47:0 48:2 49:0 50:0 51:1 52:-9 53:0 54:5 55:7 56:0 57:5 58:1 59:0 60:2 
8 1:0 2:0 3:0 4:8 5:0 6:-4 7:-5 8:0 9:-4 10:0 11:0 12:-1 13:0 14:0 15:0 16:3 17:0 18:-2 19:-3 20:0 21:-2 22:1 23:0 24:0 25:0 26:0 27:1 28:-1 29:0 30:0 31:0 32:0 33:1 34:1 35:0 36:1 37:0 38:0 39:1 40:-5 41:0 42:2 43:4 44:0 45:3 46:1 47:0 48:1 49:0 50:0 51:1 52:-7 53:0 54:4 55:6 56:0 57:4 58:1 59:0 60:2 
-8 1:0 2:0 3:0 4:0 5:0 6:0 7:4 8:0 9:1 10:0 11:0 12:0 13:0 14:0 15:0 16:0 17:0 18:0 19:1 20:0 21:1 22:0 23:0 24:0 25:0 26:0 27:0 28:0 29:0 30:0 31:0 32:0 33:1 34:0 35:0 36:0 37:0 38:0 39:0 40:0 41:0 42:0 43:-1 44:0 45:0 46:0 47:0 48:0 49:0 50:0 51:0 52:0 53:0 54:0 55:-1 56:0 57:0 58:0 59:0 60:0 
-8 1:0 2:0 3:0 4:0 5:0 6:0 7:2 8:0 9:1 10:0 11:0 12:0 13:0 14:0 15:0 16:0 17:0 18:0 19:1 20:0 21:1 22:0 23:0 24:0 25:0 26:0 27:0 28:0 29:0 30:0 31:0 32:0 33:0 34:0 35:0 36:0 37:0 38:0 39:0 40:0 41:0 42:0 43:0 44:0 45:0 46:0 47:0 48:0 49:0 50:0 51:0 52:0 53:0 54:0 55:0 56:0 57:0 58:0 59:0 60:0 
-8 1:0 2:0 3:0 4:0 5:0 6:1 7:1 8:0 9:1 10:0 11:0 12:0 13:0 14:0 15:0 16:0 17:0 18:1 19:0 20:0 21:0 22:0 23:0 24:0 25:0 26:0 27:0 28:0 29:0 30:1 31:0 32:0 33:0 34:0 35:0 36:0 37:0 38:0 39:0 40:0 41:0 42:1 43:0 44:0 45:0 46:0 47:0 48:0 49:0 50:0 51:0 52:0 53:0 54:0 55:0 56:0 57:0 58:0 59:0 60:0 
-8 1:0 2:0 3:0 4:0 5:0 6:1 7:0 8:0 9:0 10:0 11:0 12:0 13:0 14:0 15:0 16:0 17:0 18:1 19:0 20:0 21:0 22:0 23:0 24:0 25:0 26:0 27:0 28:0 29:0 30:1 31:0 32:0 33:0 34:0 35:0 36:0 37:0 38:0 39:0 40:0 41:0 42:0 43:0 44:0 45:0 46:0 47:0 48:0 49:1 50:0 51:0 52:0 53:0 54:0 55:0 56:0 57:0 58:0 59:0 60:0 
-8 1:0 2:0 3:1 4:0 5:0 6:1 7:0 8:0 9:0 10:0 11:0 12:0 13:0 14:0 15:1 16:0 17:0 18:1 19:0 20:0 21:0 22:0 23:0 24:0 25:0 26:0 27:1 28:0 29:0 30:0 31:0 32:0 33:0 34:0 35:0 36:0 37:1 38:0 39:1 40:0 41:0 42:0 43:0 44:0 45:0 46:0 47:0 48:0 49:1 50:0 51:0 52:0 53:0 54:0 55:0 56:0 57:0 58:0 59:0 60:0 
-8 1:0 2:0 3:1 4:0 5:0 6:1 7:0 8:0 9:0 10:0 11:0 12:0 13:0 14:0 15:0 16:0 17:0 18:1 19:0 20:0 21:0 22:0 23:0 24:0 25:1 26:0 27:0 28:0 29:0 30:0 31:1 32:0 33:0 34:0 35:0 36:0 37:1 38:0 39:0 40:0 41:0 42:0 43:1 44:0 45:0 46:0 47:0 48:0 49:1 50:0 51:0 52:0 53:0 54:0 55:1 56:0 57:0 58:0 59:0 60:0 
-8 1:0 2:0 3:0 4:0 5:0 6:1 7:0 8:0 9:0 10:0 11:0 12:0 13:1 14:0 15:0 16:0 17:0 18:0 19:1 20:0 21:0 22:0 23:0 24:0 25:1 26:0 27:0 28:0 29:0 30:0 31:1 32:0 33:0 34:0 35:0 36:0 37:1 38:0 39:0 40:0 41:0 42:0 43:1 44:0 45:0 46:0 47:0 48:0 49:1 50:0 51:0 52:0 53:0 54:0 55:1 56:0 57:0 58:0 59:0 60:0 
-8 1:0 2:0 3:0 4:0 5:0 6:0 7:0 8:0 9:1 10:0 11:0 12:0 13:0 14:0 15:0 16:0 17:0 18:0 19:0 20:0 21:1 22:0 23:0 24:0 25:0 26:0 27:0 28:0 29:0 30:0 31:0 32:0 33:1 34:0 35:0 36:0 37:0 38:0 39:0 40:0 41:0 42:0 43:0 44:0 45:1 46:0 47:0 48:0 49:0 50:0 51:0 52:0 53:0 54:0 55:0 56:0 57:0 58:0 59:0 60:0 
-8 1:0 2:0 3:0 4:0 5:0 6:0 7:0 8:0 9:1 10:0 11:0 12:0 13:0 14:0 15:0 16:0 17:0 18:0 19:0 20:0 21:1 22:0 23:0 24:0 25:0 26:0 27:0 28:0 29:0 30:0 31:0 32:0 33:1 34:0 35:0 36:0 37:0 38:0 39:0 40:0 41:0 42:0 43:0 44:0 45:0 46:0 47:0 48:0 49:0 50:0 51:0 52:0 53:0 54:0 55:0 56:0 57:-2 58:0 59:0 60:0 
-8 1:0 2:0 3:0 4:0 5:0 6:0 7:0 8:0 9:2 10:0 11:0 12:0 13:0 14:0 15:0 16:0 17:0 18:0 19:0 20:0 21:2 22:0 23:0 24:0 25:0 26:0 27:0 28:0 29:0 30:0 31:0 32:0 33:1 34:0 35:0 36:0 37:0 38:0 39:0 40:0 41:0 42:0 43:0 44:0 45:-1 46:0 47:0 48:0 49:0 50:0 51:0 52:0 53:0 54:0 55:0 56:0 57:-1 58:0 59:0 60:0 
-8 1:0 2:0 3:0 4:0 5:0 6:0 7:0 8:0 9:2 10:0 11:0 12:0 13:0 14:0 15:0 16:0 17:0 18:0 19:0 20:0 21:1 22:0 23:0 24:0 25:0 26:0 27:0 28:0 29:0 30:0 31:0 32:0 33:-1 34:0 35:0 36:0 37:0 38:0 39:0 40:0 41:0 42:0 43:0 44:0 45:-1 46:0 47:0 48:0 49:0 50:0 51:0 52:0 53:0 54:0 55:0 56:0 57:-1 58:0 59:0 60:0 
-8 1:0 2:0 3:0 4:0 5:0 6:0 7:0 8:0 9:2 10:0 11:0 12:0 13:0 14:0 15:0 16:0 17:0 18:0 19:0 20:0 21:0 22:0 23:0 24:0 25:0 26:0 27:0 28:0 29:0 30:0 31:0 32:0 33:0 34:0 35:0 36:0 37:0 38:0 39:0 40:0 41:0 42:0 43:0 44:0 45:0 46:0 47:0 48:0 49:0 50:0 51:0 52:0 53:0 54:0 55:0 56:0 57:0 58:0 59:0 60:0 
-8 1:0 2:0 3:0 4:0 5:0 6:0 7:0 8:0 9:0 10:0 11:0 12:0 13:0 14:0 15:0 16:0 17:0 18:0 19:0 20:0 21:0 22:0 23:0 24:0 25:0 26:0 27:0 28:0 29:0 30:0 31:0 32:0 33:0 34:0 35:0 36:0 37:0 38:0 39:0 40:0 41:0 42:0 43:0 44:0 45:0 46:0 47:0 48:0 49:0 50:0 51:0 52:0 53:0 54:0 55:0 56:0 57:0 58:0 59:0 60:0 
-8 1:0 2:0 3:0 4:0 5:0 6:0 7:0 8:0 9:0 10:0 11:0 12:0 13:0 14:0 15:0 16:0 17:0 18:0 19:0 20:0 21:0 22:0 23:0 24:0 25:0 26:0 27:0 28:0 29:0 30:0 31:0 32:0 33:0 34:0 35:0 36:0 37:0 38:0 39:0 40:0 41:0 42:0 43:0 44:0 45:0 46:0 47:0 48:0 49:0 50:0 51:0 52:0 53:0 54:0 55:0 56:0 57:0 58:0 59:0 60:0 
-8 1:0 2:0 3:0 4:0 5:0 6:0 7:0 8:0 9:0 10:0 11:0 12:0 13:0 14:0 15:0 16:0 17:0 18:0 19:0 20:0 21:0 22:0 23:0 24:0 25:0 26:0 27:0 28:0 29:0 30:0 31:0 32:0 33:0 34:0 35:0 36:0 37:0 38:0 39:0 40:0 41:0 42:0 43:0 44:0 45:0 46:0 47:0 48:0 49:0 50:0 51:0 52:0 53:0 54:0 55:0 56:0 57:0 58:0 59:0 60:0 
-8 1:0 2:0 3:0 4:0 5:0 6:0 7:4 8:0 9:1 10:0 11:0 12:0 13:0 14:0 15:0 16:0 17:0 18:0 19:1 20:0 21:1 22:0 23:0 24:0 25:0 26:0 27:0 28:0 29:0 30:0 31:0 32:0 33:1 34:0 35:0 36:0 37:0 38:0 39:0 40:0 41:0 42:0 43:-1 44:0 45:0 46:0 47:0 48:0 49:0 50:0 51:0 52:0 53:0 54:0 55:-1 56:0 57:0 58:0 59:0 60:0 
-8 1:0 2:0 3:0 4:0 5:0 6:0 7:2 8:0 9:1 10:0 11:0 12:0 13:0 14:0 15:0 16:0 17:0 18:0 19:1 20:0 21:1 22:0 23:0 24:0 25:0 26:0 27:0 28:0 29:0 30:0 31:0 32:0 33:0 34:0 35:0 36:0 37:0 38:0 39:0 40:0 41:0 42:0 43:0 44:0 45:0 46:0 47:0 48:0 49:0 50:0 51:0 52:0 53:0 54:0 55:0 56:0 57:0 58:0 59:0 60:0 
-8 1:0 2:0 3:0 4:0 5:0 6:1 7:1 8:0 9:1 10:0 11:0 12:0 13:0 14:0 15:0 16:0 17:0 18:1 19:0 20:0 21:0 22:0 23:0 24:0 25:0 26:0 27:0 28:0 29:0 30:1 31:0 32:0 33:0 34:0 35:0 36:0 37:0 38:0 39:0 40:0 41:0 42:1 43:0 44:0 45:0 46:0 47:0 48:0 49:0 50:0 51:0 52:0 53:0 54:0 55:0 56:0 57:0 58:0 59:0 60:0 
-8 1:0 2:0 3:0 4:0 5:0 6:1 7:0 8:0 9:0 10:0 11:0 12:0 13:0 14:0 15:0 16:0 17:0 18:1 19:0 20:0 21:0 22:0 23:0 24:0 25:0 26:0 27:0 28:0 29:0 30:1 31:0 32:0 33:0 34:0 35:0 36:0 37:0 38:0 39:0 40:0 41:0 42:0 43:0 44:0 45:0 46:0 47:0 48:0 49:1 50:0 51:0 52:0 53:0 54:0 55:0 56:0 57:0 58:0 59:0 60:0 
-8 1:0 2:0 3:1 4:0 5:0 6:1 7:0 8:0 9:0 10:0 11:0 12:0 13:0 14:0 15:1 16:0 17:0 18:1 19:0 20:0 21:0 22:0 23:0 24:0 25:0 26:0 27:1 28:0 29:0 30:0 31:0 32:0 33:0 34:0 35:0 36:0 37:1 38:0 39:1 40:0 41:0 42:0 43:0 44:0 45:0 46:0 47:0 48:0 49:1 50:0 51:0 52:0 53:0 54:0 55:0 56:0 57:0 58:0 59:0 60:0 
-8 1:0 2:0 3:1 4:0 5:0 6:1 7:0 8:0 9:0 10:0 11:0 12:0 13:0 14:0 15:0 16:0 17:0 18:1 19:0 20:0 21:0 22:0 23:0 24:0 25:1 26:0 27:0 28:0 29:0 30:0 31:1 32:0 33:0 34:0 35:0 36:0 37:1 38:0 39:0 40:0 41:0 42:0 43:1 44:0 45:0 46:0 47:0 48:0 49:1 50:0 51:0 52:0 53:0 54:0 55:1 56:0 57:0 58:0 59:0 60:0 
-8 1:0 2:0 3:0 4:0 5:0 6:1 7:0 8:0 9:0 10:0 11:0 12:0 13:1 14:0 15:0 16:0 17:0 18:0 19:1 20:0 21:0 22:0 23:0 24:0 25:1 26:0 27:0 28:0 29:0 30:0 31:1 32:0 33:0 34:0 35:0 36:0 37:1 38:0 39:0 40:0 41:0 42:0 43:1 44:0 45:0 46:0 47:0 48:0 49:1 50:0 51:0 52:0 53:0 54:0 55:1 56:0 57:0 58:0 59:0 60:0 
-8 1:0 2:0 3:0 4:0 5:0 6:0 7:0 8:0 9:1 10:0 11:0 12:0 13:0 14:0 15:0 16:0 17:0 18:0 19:0 20:0 21:1 22:0 23:0 24:0 25:0 26:0 27:0 28:0 29:0 30:0 31:0 32:0 33:1 34:0 35:0 36:0 37:0 38:0 39:0 40:0 41:0 42:0 43:0 44:0 45:1 46:0 47:0 48:0 49:0 50:0 51:0 52:0 53:0 54:0 55:0 56:0 57:0 58:0 59:0 60:0 
-8 1:0 2:0 3:0 4:0 5:0 6:0 7:0 8:0 9:1 10:0 11:0 12:0 13:0 14:0 15:0 16:0 17:0 18:0 19:0 20:0 21:1 22:0 23:0 24:0 25:0 26:0 27:0 28:0 29:0 30:0 31:0 32:0 33:1 34:0 35:0 36:0 37:0 38:0 39:0 40:0 41:0 42:0 43:0 44:0 45:0 46:0 47:0 48:0 49:0 50:0 51:0 52:0 53:0 54:0 55:0 56:0 57:-2 58:0 59:0 60:0 
-8 1:0 2:0 3:0 4:0 5:0 6:0 7:0 8:0 9:2 10:0 11:0 12:0 13:0 14:0 15:0 16:0 17:0 18:0 19:0 20:0 21:2 22:0 23:0 24:0 25:0 26:0 27:0 28:0 29:0 30:0 31:0 32:0 33:1 34:0 35:0 36:0 37:0 38:0 39:0 40:0 41:0 42:0 43:0 44:0 45:-1 46:0 47:0 48:0 49:0 50:0 51:0 52:0 53:0 54:0 55:0 56:0 57:-1 58:0 59:0 60:0 
-8 1:0 2:0 3:0 4:0 5:0 6:0 7:0 8:0 9:2 10:0 11:0 12:0 13:0 14:0 15:0 16:0 17:0 18:0 19:0 20:0 21:1 22:0 23:0 24:0 25:0 26:0 27:0 28:0 29:0 30:0 31:0 32:0 33:-1 34:0 35:0 36:0 37:0 38:0 39:0 40:0 41:0 42:0 43:0 44:0 45:-1 46:0 47:0 48:0 49:0 50:0 51:0 52:0 53:0 54:0 55:0 56:0 57:-1 58:0 59:0 60:0 
-8 1:0 2:0 3:0 4:0 5:0 6:0 7:0 8:0 9:2 10:0 11:0 12:0 13:0 14:0 15:0 16:0 17:0 18:0 19:0 20:0 21:0 22:0 23:0 24:0 25:0 26:0 27:0 28:0 29:0 30:0 31:0 32:0 33:0 34:0 35:0 36:0 37:0 38:0 39:0 40:0 41:0 42:0 43:0 44:0 45:0 46:0 47:0 48:0 49:0 50:0 51:0 52:0 53:0 54:0 55:0 56:0 57:0 58:0 59:0 60:0 
-8 1:0 2:0 3:0 4:0 5:0 6:0 7:0 8:0 9:0 10:0 11:0 12:0 13:0 14:0 15:0 16:0 17:0 18:0 19:0 20:0 21:0 22:0 23:0 24:0 25:0 26:0 27:0 28:0 29:0 30:0 31:0 32:0 33:0 34:0 35:0 36:0 37:0 38:0 39:0 40:0 41:0 42:0 43:0 44:0 45:0 46:0 47:0 48:0 49:0 50:0 51:0 52:0 53:0 54:0 55:0 56:0 57:0 58:0 59:0 60:0 
-8 1:0 2:0 3:0 4:0 5:0 6:0 7:0 8:0 9:0 10:0 11:0 12:0 13:0 14:0 15:0 16:0 17:0 18:0 19:0 20:0 21:0 22:0 23:0 24:0 25:0 26:0 27:0 28:0 29:0 30:0 31:0 32:0 33:0 34:0 35:0 36:0 37:0 38:0 39:0 40:0 41:0 42:0 43:0 44:0 45:0 46:0 47:0 48:0 49:0 50:0 51:0 52:0 53:0 54:0 55:0 56:0 57:0 58:0 59:0 60:0 
-8 1:0 2:0 3:0 4:0 5:0 6:0 7:0 8:0 9:0 10:0 11:0 12:0 13:0 14:0 15:0 16:0 17:0 18:0 19:0 20:0 21:0 22:0 23:0 24:0 25:0 26:0 27:0 28:0 29:0 30:0 31:0 32:0 33:0 34:0 35:0 36:0 37:0 38:0 39:0 40:0 41:0 42:0 43:0 44:0 45:0 46:0 47:0 48:0 49:0 50:0 51:0 52:0 53:0 54:0 55:0 56:0 57:0 58:0 59:0 60:0 
-0.1315898803162834 1:0 2:0 3:0 4:-1 5:0 6:0 7:0 8:0 9:0 10:0 11:0 12:0 13:0 14:0 15:0 16:-1 17:0 18:0 19:0 20:0 21:0 22:0 23:0 24:0 25:0 26:0 27:0 28:-1 29:0 30:0 31:0 32:0 33:0 34:0 35:0 36:0 37:0 38:0 39:0 40:-1 41:0 42:0 43:0 44:0 45:0 46:0 47:0 48:0 49:0 50:0 51:0 52:0 53:0 54:0 55:0 56:0 57:0 58:0 59:0 60:0 
-8 1:0 2:0 3:0 4:0 5:0 6:0 7:4 8:0 9:1 10:0 11:0 12:0 13:0 14:0 15:0 16:0 17:0 18:0 19:1 20:0 21:1 22:0 23:0 24:0 25:0 26:0 27:0 28:0 29:0 30:0 31:0 32:0 33:1 34:0 35:0 36:0 37:0 38:0 39:0 40:0 41:0 42:0 43:-1 44:0 45:0 46:0 47:0 48:0 49:0 50:0 51:0 52:0 53:0 54:0 55:-1 56:0 57:0 58:0 59:0 60:0 
-8 1:0 2:0 3:0 4:0 5:0 6:0 7:2 8:0 9:1 10:0 11:0 12:0 13:0 14:0 15:0 16:0 17:0 18:0 19:1 20:0 21:1 22:0 23:0 24:0 25:0 26:0 27:0 28:0 29:0 30:0 31:0 32:0 33:0 34:0 35:0 36:0 37:0 38:0 39:0 40:0 41:0 42:0 43:0 44:0 45:0 46:0 47:0 48:0 49:0 50:0 51:0 52:0 53:0 54:0 55:0 56:0 57:0 58:0 59:0 60:0 
-8 1:0 2:0 3:0 4:0 5:0 6:1 7:1 8:0 9:1 10:0 11:0 12:0 13:0 14:0 15:0 16:0 17:0 18:1 19:0 20:0 21:0 22:0 23:0 24:0 25:0 26:0 27:0 28:0 29:0 30:1 31:0 32:0 33:0 34:0 35:0 36:0 37:0 38:0 39:0 40:0 41:0 42:1 43:0 44:0 45:0 46:0 47:0 48:0 49:0 50:0 51:0 52:0 53:0 54:0 55:0 56:0 57:0 58:0 59:0 60:0 
-8 1:0 2:0 3:0 4:0 5:0 6:1 7:0 8:0 9:0 10:0 11:0 12:0 13:0 14:0 15:0 16:0 17:0 18:1 19:0 20:0 21:0 22:0 23:0 24:0 25:0 26:0 27:0 28:0 29:0 30:1 31:0 32:0 33:0 34:0 35:0 36:0 37:0 38:0 39:0 40:0 41:0 42:0 43:0 44:0 45:0 46:0 47:0 48:0 49:1 50:0 51:0 52:0 53:0 54:0 55:0 56:0 57:0 58:0 59:0 60:0 
-8 1:0 2:0 3:1 4:0 5:0 6:1 7:0 8:0 9:0 10:0 11:0 12:0 13:0 14:0 15:1 16:0 17:0 18:1 19:0 20:0 21:0 22:0 23:0 24:0 25:0 26:0 27:1 28:0 29:0 30:0 31:0 32:0 33:0 34:0 35:0 36:0 37:1 38:0 39:1 40:0 41:0 42:0 43:0 44:0 45:0 46:0 47:0 48:0 49:1 50:0 51:0 52:0 53:0 54:0 55:0 56:0 57:0 58:0 59:0 60:0 
-8 1:0 2:0 3:1 4:0 5:0 6:1 7:0 8:0 9:0 10:0 11:0 12:0 13:0 14:0 15:0 16:0 17:0 18:1 19:0 20:0 21:0 22:0 23:0 24:0 25:1 26:0 27:0 28:0 29:0 30:0 31:1 32:0 33:0 34:0 35:0 36:0 37:1 38:0 39:0 40:0 41:0 42:0 43:1 44:0 45:0 46:0 47:0 48:0 49:1 50:0 51:0 52:0 53:0 54:0 55:1 56:0 57:0 58:0 59:0 60:0 
-8 1:0 2:0 3:0 4:0 5:0 6:1 7:0 8:0 9:0 10:0 11:0 12:0 13:1 14:0 15:0 16:0 17:0 18:0 19:1 20:0 21:0 22:0 23:0 24:0 25:1 26:0 27:0 28:0 29:0 30:0 31:1 32:0 33:0 34:0 35:0 36:0 37:1 38:0 39:0 40:0 41:0 42:0 43:1 44:0 45:0 46:0 47:0 48:0 49:1 50:0 51:0 52:0 53:0 54:0 55:1 56:0 57:0 58:0 59:0 60:0 
-8 1:0 2:0 3:0 4:0 5:0 6:0 7:0 8:0 9:1 10:0 11:0 12:0 13:0 14:0 15:0 16:0 17:0 18:0 19:0 20:0 21:1 22:0 23:0 24:0 25:0 26:0 27:0 28:0 29:0 30:0 31:0 32:0 33:1 34:0 35:0 36:0 37:0 38:0 39:0 40:0 41:0 42:0 43:0 44:0 45:1 46:0 47:0 48:0 49:0 50:0 51:0 52:0 53:0 54:0 55:0 56:0 57:0 58:0 59:0 60:0 
-8 1:0 2:0 3:0 4:0 5:0 6:0 7:0 8:0 9:1 10:0 11:0 12:0 13:0 14:0 15:0 16:0 17:0 18:0 19:0 20:0 21:1 22:0 23:0 24:0 25:0 26:0 27:0 28:0 29:0 30:0 31:0 32:0 33:1 34:0 35:0 36:0 37:0 38:0 39:0 40:0 41:0 42:0 43:0 44:0 45:0 46:0 47:0 48:0 49:0 50:0 51:0 52:0 53:0 54:0 55:0 56:0 57:-2 58:0 59:0 60:0 
-8 1:0 2:0 3:0 4:0 5:0 6:0 7:0 8:0 9:2 10:0 11:0 12:0 13:0 14:0 15:0 16:0 17:0 18:0 19:0 20:0 21:2 22:0 23:0 24:0 25:0 26:0 27:0 28:0 29:0 30:0 31:0 32:0 33:1 34:0 35:0 36:0 37:0 38:0 39:0 40:0 41:0 42:0 43:0 44:0 45:-1 46:0 47:0 48:0 49:0 50:0 51:0 52:0 53:0 54:0 55:0 56:0 57:-1 58:0 59:0 60:0 
-8 1:0 2:0 3:0 4:0 5:0 6:0 7:0 8:0 9:2 10:0 11:0 12:0 13:0 14:0 15:0 16:0 17:0 18:0 19:0 20:0 21:1 22:0 23:0 24:0 25:0 26:0 27:0 28:0 29:0 30:0 31:0 32:0 33:-1 34:0 35:0 36:0 37:0 38:0 39:0 40:0 41:0 42:0 43:0 44:0 45:-1 46:0 47:0 48:0 49:0 50:0 51:0 52:0 53:0 54:0 55:0 56:0 57:-1 58:0 59:0 60:0 
-8 1:0 2:0 3:0 4:0 5:0 6:0 7:0 8:0 9:2 10:0 11:0 12:0 13:0 14:0 15:0 16:0 17:0 18:0 19:0 20:0 21:0 22:0 23:0 24:0 25:0 26:0 27:0 28:0 29:0 30:0 31:0 32:0 33:0 34:0 35:0 36:0 37:0 38:0 39:0 40:0 41:0 42:0 43:0 44:0 45:0 46:0 47:0 48:0 49:0 50:0 51:0 52:0 53:0 54:0 55:0 56:0 57:0 58:0 59:0 60:0 
-8 1:0 2:0 3:0 4:0 5:0 6:0 7:0 8:0 9:0 10:0 11:0 12:0 13:0 14:0 15:0 16:0 17:0 18:0 19:0 20:0 21:0 22:0 23:0 24:0 25:0 26:0 27:0 28:0 29:0 30:0 31:0 32:0 33:0 34:0 35:0 36:0 37:0 38:0 39:0 40:0 41:0 42:0 43:0 44:0 45:0 46:0 47:0 48:0 49:0 50:0 51:0 52:0 53:0 54:0 55:0 56:0 57:0 58:0 59:0 60:0 
-8 1:0 2:0 3:0 4:0 5:0 6:0 7:0 8:0 9:0 10:0 11:0 12:0 13:0 14:0 15:0 16:0 17:0 18:0 19:0 20:0 21:0 22:0 23:0 24:0 25:0 26:0 27:0 28:0 29:0 30:0 31:0 32:0 33:0 34:0 35:0 36:0 37:0 38:0 39:0 40:0 41:0 42:0 43:0 44:0 45:0 46:0 47:0 48:0 49:0 50:0 51:0 52:0 53:0 54:0 55:0 56:0 57:0 58:0 59:0 60:0 
-8 1:0 2:0 3:0 4:0 5:0 6:0 7:0 8:0 9:0 10:0 11:0 12:0 13:0 14:0 15:0 16:0 17:0 18:0 19:0 20:0 21:0 22:0 23:0 24:0 25:0 26:0 27:0 28:0 29:0 30:0 31:0 32:0 33:0 34:0 35:0 36:0 37:0 38:0 39:0 40:0 41:0 42:0 43:0 44:0 45:0 46:0 47:0 48:0 49:0 50:0 51:0 52:0 53:0 54:0 55:0 56:0 57:0 58:0 59:0 60:0 
-8 1:0 2:0 3:0 4:-1 5:0 6:0 7:0 8:0 9:0 10:0 11:0 12:0 13:0 14:0 15:0 16:-1 17:0 18:0 19:0 20:0 21:0 22:0 23:0 24:0 25:0 26:0 27:0 28:-1 29:0 30:0 31:0 32:0 33:0 34:0 35:0 36:0 37:0 38:0 39:0 40:-1 41:0 42:0 43:0 44:0 45:0 46:0 47:0 48:0 49:0 50:0 51:0 52:0 53:0 54:0 55:0 56:0 57:0 58:0 59:0 60:0 
-8 1:0 2:0 3:0 4:0 5:0 6:0 7:4 8:0 9:1 10:0 11:0 12:0 13:0 14:0 15:0 16:0 17:0 18:0 19:1 20:0 21:1 22:0 23:0 24:0 25:0 26:0 27:0 28:0 29:0 30:0 31:0 32:0 33:1 34:0 35:0 36:0 37:0 38:0 39:0 40:0 41:0 42:0 43:-1 44:0 45:0 46:0 47:0 48:0 49:0 50:0 51:0 52:0 53:0 54:0 55:-1 56:0 57:0 58:0 59:0 60:0 
-8 1:0 2:0 3:0 4:0 5:0 6:0 7:2 8:0 9:1 10:0 11:0 12:0 13:0 14:0 15:0 16:0 17:0 18:0 19:1 20:0 21:1 22:0 23:0 24:0 25:0 26:0 27:0 28:0 29:0 30:0 31:0 32:0 33:0 34:0 35:0 36:0 37:0 38:0 39:0 40:0 41:0 42:0 43:0 44:0 45:0 46:0 47:0 48:0 49:0 50:0 51:0 52:0 53:0 54:0 55:0 56:0 57:0 58:0 59:0 60:0 
-8 1:0 2:0 3:0 4:0 5:0 6:1 7:1 8:0 9:1 10:0 11:0 12:0 13:0 14:0 15:0 16:0 17:0 18:1 19:0 20:0 21:0 22:0 23:0 24:0 25:0 26:0 27:0 28:0 29:0 30:1 31:0 32:0 33:0 34:0 35:0 36:0 37:0 38:0 39:0 40:0 41:0 42:1 43:0 44:0 45:0 46:0 47:0 48:0 49:0 50:0 51:0 52:0 53:0 54:0 55:0 56:0 57:0 58:0 59:0 60:0 
-8 1:0 2:0 3:0 4:0 5:0 6:1 7:0 8:0 9:0 10:0 11:0 12:0 13:0 14:0 15:0 16:0 17:0 18:1 19:0 20:0 21:0 22:0 23:0 24:0 25:0 26:0 27:0 28:0 29:0 30:1 31:0 32:0 33:0 34:0 35:0 36:0 37:0 38:0 39:0 40:0 41:0 42:0 43:0 44:0 45:0 46:0 47:0 48:0 49:1 50:0 51:0 52:0 53:0 54:0 55:0 56:0 57:0 58:0 59:0 60:0 
-8 1:0 2:0 3:1 4:0 5:0 6:1 7:0 8:0 9:0 10:0 11:0 12:0 13:0 14:0 15:1 16:0 17:0 18:1 19:0 20:0 21:0 22:0 23:0 24:0 25:0 26:0 27:1 28:0 29:0 30:0 31:0 32:0 33:0 34:0 35:0 36:0 37:1 38:0 39:1 40:0 41:0 42:0 43:0 44:0 45:0 46:0 47:0 48:0 49:1 50:0 51:0 52:0 53:0 54:0 55:0 56:0 57:0 58:0 59:0 60:0 
-8 1:0 2:0 3:1 4:0 5:0 6:1 7:0 8:0 9:0 10:0 11:0 12:0 13:0 14:0 15:0 16:0 17:0 18:1 19:0 20:0 21:0 22:0 23:0 24:0 25:1 26:0 27:0 28:0 29:0 30:0 31:1 32:0 33:0 34:0 35:0 36:0 37:1 38:0 39:0 40:0 41:0 42:0 43:1 44:0 45:0 46:0 47:0 48:0 49:1 50:0 51:0 52:0 53:0 54:0 55:1 56:0 57:0 58:0 59:0 60:0 
-8 1:0 2:0 3:0 4:0 5:0 6:1 7:0 8:0 9:0 10:0 11:0 12:0 13:1 14:0 15:0 16:0 17:0 18:0 19:1 20:0 21:0 22:0 23:0 24:0 25:1 26:0 27:0 28:0 29:0 30:0 31:1 32:0 33:0 34:0 35:0 36:0 37:1 38:0 39:0 40:0 41:0 42:0 43:1 44:0 45:0 46:0 47:0 48:0 49:1 50:0 51:0 52:0 53:0 54:0 55:1 56:0 57:0 58:0 59:0 60:0 
-8 1:0 2:0 3:0 4:0 5:0 6:0 7:0 8:0 9:1 10:0 11:0 12:0 13:0 14:0 15:0 16:0 17:0 18:0 19:0 20:0 21:1 22:0 23:0 24:0 25:0 26:0 27:0 28:0 29:0 30:0 31:0 32:0 33:1 34:0 35:0 36:0 37:0 38:0 39:0 40:0 41:0 42:0 43:0 44:0 45:1 46:0 47:0 48:0 49:0 50:0 51:0 52:0 53:0 54:0 55:0 56:0 57:0 58:0 59:0 60:0 
-8 1:0 2:0 3:0 4:0 5:0 6:0 7:0 8:0 9:1 10:0 11:0 12:0 13:0 14:0 15:0 16:0 17:0 18:0 19:0 20:0 21:1 22:0 23:0 24:0 25:0 26:0 27:0 28:0 29:0 30:0 31:0 32:0 33:1 34:0 35:0 36:0 37:0 38:0 39:0 40:0 41:0 42:0 43:0 44:0 45:0 46:0 47:0 48:0 49:0 50:0 51:0 52:0 53:0 54:0 55:0 56:0 57:-2 58:0 59:0 60:0 
-8 1:0 2:0 3:0 4:0 5:0 6:0 7:0 8:0 9:2 10:0 11:0 12:0 13:0 14:0 15:0 16:0 17:0 18:0 19:0 20:0 21:2 22:0 23:0 24:0 25:0 26:0 27:0 28:0 29:0 30:0 31:0 32:0 33:1 34:0 35:0 36:0 37:0 38:0 39:0 40:0 41:0 42:0 43:0 44:0 45:-1 46:0 47:0 48:0 49:0 50:0 51:0 52:0 53:0 54:0 55:0 56:0 57:-1 58:0 59:0 60:0 
-8 1:0 2:0 3:0 4:0 5:0 6:0 7:0 8:0 9:2 10:0 11:0 12:0 13:0 14:0 15:0 16:0 17:0 18:0 19:0 20:0 21:1 22:0 23:0 24:0 25:0 26:0 27:0 28:0 29:0 30:0 31:0 32:0 33:-1 34:0 35:0 36:0 37:0 38:0 39:0 40:0 41:0 42:0 43:0 44:0 45:-1 46:0 47:0 48:0 49:0 50:0 51:0 52:0 53:0 54:0 55:0 56:0 57:-1 58:0 59:0 60:0 
-8 1:0 2:0 3:0 4:0 5:0 6:0 7:0 8:0 9:2 10:0 11:0 12:0 13:0 14:0 15:0 16:0 17:0 18:0 19:0 20:0 21:0 22:0 23:0 24:0 25:0 26:0 27:0 28:0 29:0 30:0 31:0 32:0 33:0 34:0 35:0 36:0 37:0 38:0 39:0 40:0 41:0 42:0 43:0 44:0 45:0 46:0 47:0 48:0 49:0 50:0 51:0 52:0 53:0 54:0 55:0 56:0 57:0 58:0 59:0 60:0 
-8 1:0 2:0 3:0 4:0 5:0 6:0 7:0 8:0 9:0 10:0 11:0 12:0 13:0 14:0 15:0 16:0 17:0 18:0 19:0 20:0 21:0 22:0 23:0 24:0 25:0 26:0 27:0 28:0 29:0 30:0 31:0 32:0 33:0 34:0 35:0 36:0 37:0 38:0 39:0 40:0 41:0 42:0 43:0 44:0 45:0 46:0 47:0 48:0 49:0 50:0 51:0 52:0 53:0 54:0 55:0 56:0 57:0 58:0 59:0 60:0 
-8 1:0 2:0 3:0 4:0 5:0 6:0 7:0 8:0 9:0 10:0 11:0 12:0 13:0 14:0 15:0 16:0 17:0 18:0 19:0 20:0 21:0 22:0 23:0 24:0 25:0 26:0 27:0 28:0 29:0 30:0 31:0 32:0 33:0 34:0 35:0 36:0 37:0 38:0 39:0 40:0 41:0 42:0 43:0 44:0 45:0 46:0 47:0 48:0 49:0 50:0 51:0 52:0 53:0 54:0 55:0 56:0 57:0 58:0 59:0 60:0 
-8 1:0 2:0 3:0 4:0 5:0 6:0 7:0 8:0 9:0 10:0 11:0 12:0 13:0 14:0 15:0 16:0 17:0 18:0 19:0 20:0 21:0 22:0 23:0 24:0 25:0 26:0 27:0 28:0 29:0 30:0 31:0 32:0 33:0 34:0 35:0 36:0 37:0 38:0 39:0 40:0 41:0 42:0 43:0 44:0 45:0 46:0 47:0 48:0 49:0 50:0 51:0 52:0 53:0 54:0 55:0 56:0 57:0 58:0 59:0 60:0 
-8 1:0 2:0 3:0 4:-1 5:0 6:0 7:0 8:0 9:0 10:0 11:0 12:0 13:0 14:0 15:0 16:-1 17:0 18:0 19:0 20:0 21:0 22:0 23:0 24:0 25:0 26:0 27:0 28:-1 29:0 30:0 31:0 32:0 33:0 34:0 35:0 36:0 37:0 38:0 39:0 40:-1 41:0 42:0 43:0 44:0 45:0 46:0 47:0 48:0 49:0 50:0 51:0 52:0 53:0 54:0 55:0 56:0 57:0 58:0 59:0 60:0 
