svm_type c_svc
kernel_type rbf
gamma 6.10352e-005
nr_class 3
total_sv 98
rho 2.85268 -4.02567 -0.767918
label 1 2 3
nr_sv 54 33 11
SV
81.71601125480905 0 1:3 2:-40 3:-3 4:-62 5:-59 6:8 7:42 8:28 9:-9 10:1 11:34 12:-5 
81.71601125480905 0 1:3 2:-40 3:-4 4:-63 5:-54 6:8 7:41 8:30 9:-10 10:1 11:34 12:-5 
81.71601125480905 0 1:-9 2:-42 3:-7 4:-37 5:42 6:-9 7:48 8:-53 9:-3 10:3 11:34 12:-1 
81.71601125480905 0 1:-10 2:-41 3:-8 4:-34 5:44 6:-7 7:45 8:-53 9:-2 10:3 11:34 12:-1 
47.6366729002491 0 1:-11 2:-41 3:-8 4:-30 5:45 6:-6 7:44 8:-55 9:-4 10:2 11:34 12:-1 
49.82136378175662 0 1:-12 2:-43 3:3 4:-43 5:38 6:-13 7:52 8:-50 9:-7 10:3 11:34 12:-2 
0 11.81277472582624 1:-4 2:-42 3:-4 4:-60 5:-5 6:-6 7:63 8:-18 9:-17 10:3 11:33 12:-3 
0 9.750693159771148 1:-4 2:-42 3:-4 4:-66 5:-14 6:-6 7:61 8:-6 9:-19 10:3 11:33 12:-3 
2.862954498352761 0 1:-2 2:-42 3:-4 4:-65 5:-17 6:-6 7:59 8:5 9:-20 10:3 11:33 12:-3 
81.71601125480905 0 1:1 2:-41 3:-3 4:-62 5:-57 6:3 7:43 8:25 9:-16 10:2 11:33 12:-2 
49.55807915812471 0 1:1 2:-41 3:-3 4:-57 5:-60 6:5 7:37 8:30 9:-12 10:1 11:33 12:-2 
81.71601125480905 0 1:-11 2:-34 3:-4 4:-54 5:35 6:-15 7:57 8:-46 9:-7 10:4 11:29 12:-4 
81.71601125480905 0 1:-9 2:-35 3:-5 4:-56 5:27 6:-16 7:60 8:-44 9:-10 10:4 11:29 12:-3 
81.71601125480905 0 1:-9 2:-36 3:-5 4:-58 5:13 6:-16 7:64 8:-38 9:-13 10:5 11:29 12:-2 
0 18.46399018180211 1:-5 2:-36 3:-5 4:-68 5:-9 6:-11 7:65 8:-16 9:-19 10:4 11:29 12:-3 
21.8669883240721 0 1:-4 2:-37 3:-4 4:-70 5:-31 6:-3 7:58 8:10 9:-17 10:3 11:30 12:-3 
81.71601125480905 0 1:-1 2:-37 3:-4 4:-65 5:-48 6:3 7:46 8:27 9:-10 10:2 11:30 12:-3 
81.71601125480905 0 1:0 2:-37 3:-4 4:-60 5:-53 6:3 7:39 8:32 9:-6 10:2 11:30 12:-2 
55.95817047643683 0 1:5 2:-37 3:-1 4:-58 5:-42 6:-4 7:38 8:38 9:-9 10:0 11:30 12:-3 
81.71601125480905 81.71601125480905 1:-1 2:-43 3:-2 4:-33 5:-36 6:7 7:23 8:-32 9:-16 10:1 11:34 12:-4 
81.71601125480905 28.15426570832295 1:-1 2:-43 3:-1 4:-32 5:-36 6:5 7:21 8:-32 9:-16 10:1 11:34 12:-4 
81.71601125480905 0 1:-2 2:-43 3:-1 4:-31 5:-29 6:0 7:14 8:-31 9:-16 10:1 11:34 12:-4 
81.71601125480905 0 1:-3 2:-43 3:1 4:-27 5:-22 6:1 7:6 8:-26 9:-18 10:1 11:34 12:-4 
81.71601125480905 0 1:-4 2:-42 3:2 4:-23 5:-19 6:-5 7:7 8:-24 9:-21 10:2 11:33 12:-5 
81.71601125480905 0 1:-6 2:-42 3:3 4:-23 5:-16 6:-9 7:10 8:-24 9:-21 10:1 11:33 12:-5 
81.71601125480905 0 1:-7 2:-42 3:4 4:-21 5:-16 6:-11 7:14 8:-25 9:-22 10:2 11:33 12:-5 
81.71601125480905 0 1:-8 2:-41 3:3 4:-21 5:-10 6:-11 7:18 8:-24 9:-23 10:2 11:33 12:-6 
0 52.2082672327811 1:-11 2:-38 3:1 4:-16 5:-3 6:-13 7:21 8:-21 9:-28 10:3 11:32 12:-6 
81.71601125480905 0 1:-7 2:-38 3:6 4:-30 5:-33 6:0 7:9 8:-36 9:-21 10:3 11:30 12:-6 
7.813527842042864 0 1:-7 2:-38 3:5 4:-32 5:-34 6:1 7:12 8:-36 9:-20 10:3 11:30 12:-6 
0 19.23140045500352 1:-6 2:-38 3:4 4:-32 5:-35 6:3 7:15 8:-38 9:-20 10:2 11:30 12:-6 
35.04745040999457 0 1:1 2:-36 3:-1 4:-28 5:-28 6:-8 7:32 8:-27 9:-7 10:1 11:29 12:-5 
81.71601125480905 0 1:1 2:-43 3:1 4:-38 5:-34 6:-5 7:50 8:-28 9:0 10:1 11:34 12:-4 
81.71601125480905 0 1:1 2:-43 3:1 4:-41 5:-31 6:-5 7:50 8:-26 9:0 10:1 11:33 12:-4 
81.71601125480905 0 1:1 2:-43 3:1 4:-41 5:-31 6:-5 7:50 8:-26 9:-1 10:1 11:33 12:-4 
81.71601125480905 0 1:2 2:-43 3:1 4:-42 5:-31 6:-5 7:50 8:-26 9:-3 10:1 11:33 12:-4 
81.71601125480905 0 1:3 2:-42 3:1 4:-41 5:-33 6:-7 7:50 8:-27 9:-4 10:1 11:33 12:-3 
81.71601125480905 0 1:4 2:-42 3:1 4:-37 5:-35 6:-8 7:49 8:-29 9:-5 10:1 11:33 12:-3 
0 47.64531033272035 1:5 2:-41 3:1 4:-31 5:-38 6:-9 7:48 8:-29 9:-8 10:1 11:33 12:-3 
0 81.71601125480905 1:6 2:-41 3:1 4:-26 5:-39 6:-12 7:44 8:-30 9:-11 10:1 11:32 12:-3 
81.71601125480905 81.71601125480905 1:6 2:-41 3:2 4:-19 5:-40 6:-13 7:38 8:-32 9:-13 10:0 11:32 12:-3 
81.71601125480905 81.71601125480905 1:7 2:-40 3:2 4:-16 5:-40 6:-15 7:32 8:-33 9:-14 10:0 11:32 12:-4 
81.71601125480905 2.615692177406423 1:7 2:-40 3:3 4:-14 5:-39 6:-17 7:29 8:-31 9:-15 10:0 11:32 12:-4 
81.71601125480905 59.22679080334308 1:7 2:-40 3:3 4:-14 5:-39 6:-17 7:29 8:-31 9:-15 10:0 11:32 12:-4 
81.71601125480905 0 1:8 2:-39 3:3 4:-9 5:-33 6:-16 7:23 8:-28 9:-14 10:-1 11:31 12:-4 
81.71601125480905 0 1:10 2:-38 3:2 4:-5 5:-24 6:-18 7:16 8:-20 9:-14 10:-1 11:31 12:-4 
81.71601125480905 0 1:10 2:-37 3:1 4:-4 5:-18 6:-21 7:15 8:-8 9:-16 10:-1 11:31 12:-4 
81.71601125480905 0 1:11 2:-37 3:2 4:-6 5:-18 6:-23 7:14 8:-3 9:-16 10:-2 11:31 12:-4 
81.71601125480905 0 1:12 2:-36 3:1 4:-5 5:-12 6:-26 7:13 8:0 9:-21 10:-3 11:30 12:-5 
29.9980582793409 0 1:12 2:-35 3:0 4:-5 5:-10 6:-26 7:13 8:1 9:-21 10:-3 11:30 12:-5 
0 33.78456892234235 1:13 2:-34 3:2 4:-5 5:-20 6:-23 7:20 8:-10 9:-20 10:-3 11:29 12:-5 
0 2.384484572730949 1:12 2:-34 3:3 4:-8 5:-22 6:-24 7:21 8:-11 9:-19 10:-2 11:29 12:-5 
0 81.71601125480905 1:3 2:-36 3:0 4:-34 5:-32 6:-8 7:36 8:-31 9:-10 10:0 11:29 12:-5 
0 18.67403551562369 1:3 2:-35 3:0 4:-34 5:-32 6:-8 7:36 8:-31 9:-10 10:0 11:29 12:-5 
-106.4410873194115 0 1:1 2:-41 3:-3 4:-58 5:-60 6:6 7:36 8:32 9:-7 10:1 11:32 12:-2 
-106.4410873194115 0 1:2 2:-41 3:-4 4:-58 5:-59 6:5 7:36 8:34 9:-7 10:1 11:32 12:-2 
-106.4410873194115 0 1:2 2:-40 3:-4 4:-64 5:-54 6:1 7:42 8:31 9:-7 10:1 11:32 12:-2 
-106.4410873194115 1.589024492414133 1:2 2:-40 3:-4 4:-68 5:-48 6:0 7:50 8:25 9:-8 10:1 11:32 12:-2 
-106.4410873194115 0 1:2 2:-40 3:-4 4:-69 5:-42 6:-2 7:54 8:22 9:-8 10:1 11:32 12:-2 
-55.99035238627342 0 1:-1 2:-40 3:-3 4:-70 5:-21 6:-7 7:61 8:-5 9:-5 10:2 11:31 12:-2 
-0 38.63530878604381 1:-2 2:-40 3:-4 4:-70 5:-16 6:-11 7:64 8:-10 9:-5 10:2 11:31 12:-2 
-11.82487729807786 0 1:-4 2:-39 3:-4 4:-70 5:-5 6:-11 7:69 8:-13 9:-6 10:2 11:31 12:-2 
-106.4410873194115 0.8508693843078595 1:-6 2:-37 3:-5 4:-58 5:19 6:-15 7:67 8:-29 9:-6 10:3 11:30 12:-3 
-57.94333385526407 0 1:-12 2:-33 3:-4 4:-32 5:48 6:-10 7:48 8:-54 9:-1 10:4 11:29 12:-4 
-106.4410873194115 0 1:-12 2:-33 3:-3 4:-38 5:45 6:-10 7:52 8:-52 9:-2 10:3 11:29 12:-4 
-106.4410873194115 0 1:-12 2:-33 3:-3 4:-44 5:42 6:-12 7:55 8:-51 9:-3 10:3 11:29 12:-4 
-106.4410873194115 0 1:-11 2:-34 3:-4 4:-50 5:38 6:-14 7:56 8:-48 9:-5 10:4 11:29 12:-4 
-106.4410873194115 0 1:-1 2:-42 3:1 4:-31 5:-30 6:-7 7:25 8:-33 9:-12 10:0 11:33 12:-5 
-106.4410873194115 48.50998269888564 1:1 2:-41 3:-2 4:-31 5:-26 6:-7 7:26 8:-29 9:-11 10:2 11:33 12:-5 
-106.4410873194115 0 1:1 2:-41 3:-2 4:-26 5:-28 6:-7 7:25 8:-29 9:-12 10:3 11:33 12:-5 
-106.4410873194115 0 1:-1 2:-42 3:-1 4:-21 5:-30 6:-7 7:23 8:-31 9:-16 10:1 11:34 12:-5 
-106.4410873194115 49.22362107302897 1:-3 2:-42 3:-1 4:-22 5:-23 6:-11 7:18 8:-26 9:-23 10:0 11:34 12:-5 
-106.4410873194115 0 1:-4 2:-41 3:-2 4:-21 5:-19 6:-13 7:12 8:-22 9:-25 10:1 11:34 12:-5 
-52.2246374216855 0 1:-8 2:-41 3:-3 4:-17 5:5 6:-15 7:2 8:-1 9:-25 10:3 11:33 12:-4 
-106.4410873194115 106.4410873194115 1:-3 2:-42 3:-2 4:-34 5:-35 6:1 7:16 8:-35 9:-21 10:2 11:33 12:-4 
-106.4410873194115 28.49865819957658 1:-3 2:-42 3:-2 4:-34 5:-37 6:6 7:20 8:-34 9:-17 10:2 11:34 12:-4 
-106.4410873194115 0 1:-2 2:-42 3:-2 4:-34 5:-36 6:7 7:23 8:-33 9:-15 10:2 11:34 12:-4 
-106.4410873194115 0 1:4 2:-42 3:3 4:-29 5:-34 6:-10 7:37 8:-33 9:-5 10:2 11:34 12:-4 
-106.4410873194115 106.4410873194115 1:4 2:-42 3:3 4:-25 5:-40 6:-13 7:39 8:-31 9:-10 10:1 11:34 12:-5 
-106.4410873194115 0 1:4 2:-42 3:3 4:-17 5:-39 6:-11 7:34 8:-33 9:-11 10:1 11:34 12:-5 
-106.4410873194115 106.4410873194115 1:5 2:-42 3:4 4:-22 5:-39 6:-12 7:36 8:-32 9:-10 10:1 11:34 12:-5 
-89.97691582472429 0 1:9 2:-42 3:3 4:-6 5:-13 6:-24 7:11 8:-6 9:-18 10:-2 11:33 12:-5 
-106.4410873194115 0 1:9 2:-42 3:3 4:-5 5:-15 6:-23 7:12 8:-9 9:-19 10:-2 11:33 12:-5 
-106.4410873194115 0 1:8 2:-41 3:3 4:-5 5:-15 6:-23 7:13 8:-10 9:-19 10:-2 11:33 12:-6 
-106.4410873194115 0 1:7 2:-42 3:4 4:-4 5:-19 6:-22 7:15 8:-14 9:-17 10:-2 11:33 12:-6 
-43.47926124315286 0 1:2 2:-42 3:3 4:-34 5:-40 6:-9 7:47 8:-35 9:1 10:2 11:33 12:-5 
-106.4410873194115 0 1:2 2:-43 3:2 4:-36 5:-38 6:-6 7:48 8:-31 9:1 10:2 11:34 12:-4 
-105.8428999952679 -105.8428999952679 1:2 2:-41 3:-1 4:-42 5:-36 6:-2 7:30 8:-39 9:-11 10:1 11:33 12:-5 
-47.59164718013584 -0.5673569519492577 1:1 2:-42 3:-1 4:-45 5:-36 6:-2 7:27 8:-40 9:-15 10:0 11:33 12:-5 
-105.8428999952679 -105.8428999952679 1:1 2:-41 3:-2 4:-44 5:-36 6:-2 7:28 8:-39 9:-13 10:1 11:33 12:-5 
-0 -14.46426679581607 1:-6 2:-44 3:2 4:-76 5:-18 6:16 7:-21 8:-12 9:-23 10:2 11:34 12:-2 
-8.320360127667318 -0 1:-6 2:-41 3:-3 4:-78 5:-17 6:21 7:-27 8:-12 9:-20 10:2 11:33 12:-4 
-44.3663824667211 -36.17574707707637 1:3 2:-40 3:0 4:-30 5:-36 6:-12 7:27 8:-27 9:-22 10:0 11:32 12:-4 
-105.8428999952679 -105.8428999952679 1:4 2:-40 3:1 4:-24 5:-34 6:-13 7:33 8:-25 9:-20 10:0 11:32 12:-5 
-105.8428999952679 -105.8428999952679 1:4 2:-40 3:1 4:-16 5:-32 6:-15 7:38 8:-23 9:-20 10:0 11:31 12:-5 
-105.8428999952679 -0 1:5 2:-39 3:1 4:-11 5:-31 6:-16 7:42 8:-23 9:-19 10:0 11:31 12:-4 
-71.68672459548284 -0 1:7 2:-39 3:0 4:-7 5:-25 6:-18 7:45 8:-23 9:-18 10:0 11:31 12:-4 
-11.35271571537223 -12.05175578657816 1:4 2:-38 3:-4 4:15 5:-9 6:-20 7:70 8:-13 9:-1 10:-1 11:31 12:-3 
