svm_type c_svc
kernel_type rbf
gamma 6.10352e-005
nr_class 2
total_sv 52
rho -0.0653179
label 3 1
nr_sv 34 18
SV
16.92307692307692 1:0 2:0 3:0 4:-2 5:0 6:1 7:-1 8:0 9:0 10:0 11:0 12:0 13:0 14:0 15:0 16:-1 17:0 18:0 19:-1 20:0 21:0 22:0 23:0 24:0 25:0 26:0 27:0 28:1 29:-1 30:-2 31:0 32:0 33:-1 34:0 35:0 36:0 
16.92307692307692 1:0 2:0 3:0 4:-2 5:0 6:1 7:-1 8:1 9:1 10:0 11:0 12:0 13:0 14:0 15:0 16:0 17:-1 18:-1 19:0 20:1 21:0 22:0 23:0 24:0 25:0 26:0 27:0 28:0 29:-1 30:-2 31:1 32:0 33:-1 34:0 35:0 36:0 
16.92307692307692 1:0 2:0 3:0 4:-1 5:0 6:1 7:-1 8:1 9:1 10:0 11:0 12:0 13:0 14:0 15:0 16:-1 17:0 18:0 19:0 20:0 21:0 22:0 23:0 24:0 25:0 26:-1 27:0 28:1 29:-1 30:-1 31:1 32:-1 33:-2 34:0 35:0 36:0 
16.92307692307692 1:1 2:0 3:0 4:-3 5:1 6:0 7:-1 8:1 9:2 10:0 11:0 12:0 13:1 14:-1 15:0 16:-1 17:0 18:-1 19:0 20:0 21:0 22:0 23:0 24:0 25:0 26:-1 27:0 28:3 29:-2 30:-1 31:1 32:0 33:-2 34:-1 35:0 36:0 
16.92307692307692 1:0 2:0 3:0 4:-3 5:-1 6:1 7:0 8:0 9:1 10:0 11:0 12:-1 13:1 14:0 15:0 16:1 17:-1 18:0 19:0 20:0 21:0 22:0 23:0 24:-1 25:0 26:0 27:0 28:2 29:2 30:-2 31:-2 32:0 33:-2 34:0 35:0 36:0 
16.92307692307692 1:1 2:0 3:0 4:-1 5:-3 6:2 7:1 8:0 9:1 10:0 11:0 12:-1 13:0 14:0 15:0 16:0 17:0 18:0 19:-1 20:0 21:-1 22:0 23:0 24:0 25:0 26:0 27:1 28:2 29:2 30:-4 31:-1 32:1 33:-1 34:0 35:0 36:0 
16.92307692307692 1:0 2:0 3:0 4:-1 5:-1 6:3 7:0 8:1 9:0 10:0 11:0 12:0 13:0 14:0 15:0 16:1 17:0 18:-1 19:0 20:1 21:-1 22:0 23:0 24:0 25:1 26:0 27:0 28:2 29:1 30:-3 31:0 32:-1 33:-1 34:0 35:0 36:0 
16.92307692307692 1:0 2:0 3:0 4:-2 5:0 6:1 7:-1 8:0 9:0 10:0 11:0 12:0 13:0 14:0 15:0 16:-1 17:0 18:0 19:-1 20:0 21:0 22:0 23:0 24:0 25:0 26:0 27:0 28:1 29:-1 30:-2 31:0 32:0 33:-1 34:0 35:0 36:0 
16.92307692307692 1:0 2:0 3:0 4:-2 5:0 6:1 7:-1 8:1 9:1 10:0 11:0 12:0 13:0 14:0 15:0 16:0 17:-1 18:-1 19:0 20:1 21:0 22:0 23:0 24:0 25:0 26:0 27:0 28:0 29:-1 30:-2 31:1 32:0 33:-1 34:0 35:0 36:0 
16.92307692307692 1:0 2:0 3:0 4:-1 5:0 6:1 7:-1 8:1 9:1 10:0 11:0 12:0 13:0 14:0 15:0 16:-1 17:0 18:0 19:0 20:0 21:0 22:0 23:0 24:0 25:0 26:-1 27:0 28:1 29:-1 30:-1 31:1 32:-1 33:-2 34:0 35:0 36:0 
16.92307692307692 1:1 2:0 3:0 4:-3 5:1 6:0 7:-1 8:1 9:2 10:0 11:0 12:0 13:1 14:-1 15:0 16:-1 17:0 18:-1 19:0 20:0 21:0 22:0 23:0 24:0 25:0 26:-1 27:0 28:3 29:-2 30:-1 31:1 32:0 33:-2 34:-1 35:0 36:0 
12.97742370789215 1:0 2:0 3:0 4:-3 5:0 6:1 7:-1 8:0 9:0 10:0 11:0 12:0 13:0 14:0 15:0 16:0 17:0 18:0 19:0 20:0 21:0 22:0 23:0 24:0 25:1 26:0 27:1 28:3 29:0 30:-2 31:0 32:0 33:-1 34:0 35:0 36:0 
16.92307692307692 1:0 2:0 3:0 4:-3 5:-1 6:1 7:0 8:0 9:1 10:0 11:0 12:-1 13:1 14:0 15:0 16:1 17:-1 18:0 19:0 20:0 21:0 22:0 23:0 24:-1 25:0 26:0 27:0 28:2 29:2 30:-2 31:-2 32:0 33:-2 34:0 35:0 36:0 
16.92307692307692 1:1 2:0 3:0 4:-1 5:-3 6:2 7:1 8:0 9:1 10:0 11:0 12:-1 13:0 14:0 15:0 16:0 17:0 18:0 19:-1 20:0 21:-1 22:0 23:0 24:0 25:0 26:0 27:1 28:2 29:2 30:-4 31:-1 32:1 33:-1 34:0 35:0 36:0 
16.92307692307692 1:0 2:0 3:0 4:-1 5:-1 6:3 7:0 8:1 9:0 10:0 11:0 12:0 13:0 14:0 15:0 16:1 17:0 18:-1 19:0 20:1 21:-1 22:0 23:0 24:0 25:1 26:0 27:0 28:2 29:1 30:-3 31:0 32:-1 33:-1 34:0 35:0 36:0 
16.92307692307692 1:0 2:0 3:0 4:-2 5:0 6:1 7:-1 8:0 9:0 10:0 11:0 12:0 13:0 14:0 15:0 16:-1 17:0 18:0 19:-1 20:0 21:0 22:0 23:0 24:0 25:0 26:0 27:0 28:1 29:-1 30:-2 31:0 32:0 33:-1 34:0 35:0 36:0 
16.92307692307692 1:0 2:0 3:0 4:-2 5:0 6:1 7:-1 8:1 9:1 10:0 11:0 12:0 13:0 14:0 15:0 16:0 17:-1 18:-1 19:0 20:1 21:0 22:0 23:0 24:0 25:0 26:0 27:0 28:0 29:-1 30:-2 31:1 32:0 33:-1 34:0 35:0 36:0 
16.92307692307692 1:0 2:0 3:0 4:-1 5:0 6:1 7:-1 8:1 9:1 10:0 11:0 12:0 13:0 14:0 15:0 16:-1 17:0 18:0 19:0 20:0 21:0 22:0 23:0 24:0 25:0 26:-1 27:0 28:1 29:-1 30:-1 31:1 32:-1 33:-2 34:0 35:0 36:0 
16.92307692307692 1:1 2:0 3:0 4:-3 5:1 6:0 7:-1 8:1 9:2 10:0 11:0 12:0 13:1 14:-1 15:0 16:-1 17:0 18:-1 19:0 20:0 21:0 22:0 23:0 24:0 25:0 26:-1 27:0 28:3 29:-2 30:-1 31:1 32:0 33:-2 34:-1 35:0 36:0 
16.92307692307692 1:1 2:0 3:0 4:-4 5:1 6:0 7:-1 8:0 9:1 10:0 11:0 12:0 13:0 14:0 15:0 16:0 17:-1 18:0 19:0 20:0 21:-1 22:-1 23:0 24:0 25:0 26:0 27:0 28:3 29:-1 30:-1 31:1 32:0 33:-1 34:-1 35:0 36:0 
16.92307692307692 1:0 2:0 3:0 4:-3 5:0 6:1 7:-1 8:0 9:0 10:0 11:0 12:0 13:0 14:0 15:0 16:0 17:0 18:0 19:0 20:0 21:0 22:0 23:0 24:0 25:1 26:0 27:1 28:3 29:0 30:-2 31:0 32:0 33:-1 34:0 35:0 36:0 
16.92307692307692 1:0 2:0 3:0 4:-3 5:-1 6:1 7:0 8:0 9:1 10:0 11:0 12:-1 13:1 14:0 15:0 16:1 17:-1 18:0 19:0 20:0 21:0 22:0 23:0 24:-1 25:0 26:0 27:0 28:2 29:2 30:-2 31:-2 32:0 33:-2 34:0 35:0 36:0 
16.92307692307692 1:1 2:0 3:0 4:-1 5:-3 6:2 7:1 8:0 9:1 10:0 11:0 12:-1 13:0 14:0 15:0 16:0 17:0 18:0 19:-1 20:0 21:-1 22:0 23:0 24:0 25:0 26:0 27:1 28:2 29:2 30:-4 31:-1 32:1 33:-1 34:0 35:0 36:0 
16.92307692307692 1:0 2:0 3:0 4:-1 5:-1 6:3 7:0 8:1 9:0 10:0 11:0 12:0 13:0 14:0 15:0 16:1 17:0 18:-1 19:0 20:1 21:-1 22:0 23:0 24:0 25:1 26:0 27:0 28:2 29:1 30:-3 31:0 32:-1 33:-1 34:0 35:0 36:0 
16.92307692307692 1:0 2:0 3:0 4:-2 5:0 6:1 7:-1 8:0 9:0 10:0 11:0 12:0 13:0 14:0 15:0 16:-1 17:0 18:0 19:-1 20:0 21:0 22:0 23:0 24:0 25:0 26:0 27:0 28:1 29:-1 30:-2 31:0 32:0 33:-1 34:0 35:0 36:0 
16.92307692307692 1:0 2:0 3:0 4:-2 5:0 6:1 7:-1 8:1 9:1 10:0 11:0 12:0 13:0 14:0 15:0 16:0 17:-1 18:-1 19:0 20:1 21:0 22:0 23:0 24:0 25:0 26:0 27:0 28:0 29:-1 30:-2 31:1 32:0 33:-1 34:0 35:0 36:0 
16.92307692307692 1:0 2:0 3:0 4:-1 5:0 6:1 7:-1 8:1 9:1 10:0 11:0 12:0 13:0 14:0 15:0 16:-1 17:0 18:0 19:0 20:0 21:0 22:0 23:0 24:0 25:0 26:-1 27:0 28:1 29:-1 30:-1 31:1 32:-1 33:-2 34:0 35:0 36:0 
16.92307692307692 1:1 2:0 3:0 4:-3 5:1 6:0 7:-1 8:1 9:2 10:0 11:0 12:0 13:1 14:-1 15:0 16:-1 17:0 18:-1 19:0 20:0 21:0 22:0 23:0 24:0 25:0 26:-1 27:0 28:3 29:-2 30:-1 31:1 32:0 33:-2 34:-1 35:0 36:0 
6.593058847446623 1:1 2:0 3:0 4:-4 5:1 6:0 7:-1 8:0 9:1 10:0 11:0 12:0 13:0 14:0 15:0 16:0 17:-1 18:0 19:0 20:0 21:-1 22:-1 23:0 24:0 25:0 26:0 27:0 28:3 29:-1 30:-1 31:1 32:0 33:-1 34:-1 35:0 36:0 
16.92307692307692 1:0 2:0 3:0 4:-3 5:0 6:1 7:-1 8:0 9:0 10:0 11:0 12:0 13:0 14:0 15:0 16:0 17:0 18:0 19:0 20:0 21:0 22:0 23:0 24:0 25:1 26:0 27:1 28:3 29:0 30:-2 31:0 32:0 33:-1 34:0 35:0 36:0 
15.8312285112756 1:-1 2:-1 3:1 4:-1 5:0 6:3 7:-3 8:1 9:0 10:0 11:1 12:0 13:0 14:-1 15:1 16:0 17:0 18:0 19:0 20:1 21:0 22:0 23:1 24:0 25:1 26:0 27:0 28:1 29:0 30:-3 31:2 32:0 33:-2 34:0 35:0 36:0 
16.92307692307692 1:0 2:0 3:0 4:-3 5:-1 6:1 7:0 8:0 9:1 10:0 11:0 12:-1 13:1 14:0 15:0 16:1 17:-1 18:0 19:0 20:0 21:0 22:0 23:0 24:-1 25:0 26:0 27:0 28:2 29:2 30:-2 31:-2 32:0 33:-2 34:0 35:0 36:0 
16.92307692307692 1:1 2:0 3:0 4:-1 5:-3 6:2 7:1 8:0 9:1 10:0 11:0 12:-1 13:0 14:0 15:0 16:0 17:0 18:0 19:-1 20:0 21:-1 22:0 23:0 24:0 25:0 26:0 27:1 28:2 29:2 30:-4 31:-1 32:1 33:-1 34:0 35:0 36:0 
16.92307692307692 1:0 2:0 3:0 4:-1 5:-1 6:3 7:0 8:1 9:0 10:0 11:0 12:0 13:0 14:0 15:0 16:1 17:0 18:-1 19:0 20:1 21:-1 22:0 23:0 24:0 25:1 26:0 27:0 28:2 29:1 30:-3 31:0 32:-1 33:-1 34:0 35:0 36:0 
-33.07692307692307 1:0 2:-1 3:1 4:0 5:0 6:-1 7:0 8:0 9:0 10:0 11:0 12:0 13:1 14:-1 15:1 16:0 17:0 18:0 19:-1 20:0 21:0 22:0 23:0 24:0 25:1 26:0 27:0 28:0 29:0 30:-1 31:-1 32:0 33:-1 34:0 35:0 36:0 
-33.07692307692307 1:0 2:-1 3:1 4:1 5:0 6:0 7:0 8:0 9:0 10:0 11:0 12:0 13:0 14:0 15:0 16:1 17:0 18:-1 19:0 20:0 21:-1 22:0 23:0 24:0 25:0 26:-1 27:0 28:0 29:0 30:-1 31:0 32:0 33:-1 34:-1 35:0 36:0 
-33.07692307692307 1:0 2:0 3:0 4:1 5:0 6:0 7:0 8:1 9:0 10:0 11:0 12:0 13:0 14:-1 15:0 16:0 17:0 18:0 19:0 20:1 21:0 22:-1 23:0 24:0 25:0 26:-1 27:0 28:-1 29:0 30:0 31:-2 32:0 33:0 34:-1 35:0 36:0 
-16.92307692307692 1:0 2:0 3:0 4:1 5:0 6:-1 7:1 8:1 9:0 10:0 11:0 12:0 13:0 14:0 15:0 16:0 17:0 18:-1 19:-1 20:0 21:0 22:0 23:0 24:0 25:0 26:0 27:0 28:0 29:-1 30:0 31:-2 32:0 33:-1 34:0 35:0 36:0 
-33.07692307692307 1:0 2:-1 3:1 4:0 5:0 6:-1 7:0 8:0 9:0 10:0 11:0 12:0 13:1 14:-1 15:1 16:0 17:0 18:0 19:-1 20:0 21:0 22:0 23:0 24:0 25:1 26:0 27:0 28:0 29:0 30:-1 31:-1 32:0 33:-1 34:0 35:0 36:0 
-33.07692307692307 1:0 2:-1 3:1 4:1 5:0 6:0 7:0 8:0 9:0 10:0 11:0 12:0 13:0 14:0 15:0 16:1 17:0 18:-1 19:0 20:0 21:-1 22:0 23:0 24:0 25:0 26:-1 27:0 28:0 29:0 30:-1 31:0 32:0 33:-1 34:-1 35:0 36:0 
-33.07692307692307 1:0 2:0 3:0 4:1 5:0 6:0 7:0 8:1 9:0 10:0 11:0 12:0 13:0 14:-1 15:0 16:0 17:0 18:0 19:0 20:1 21:0 22:-1 23:0 24:0 25:0 26:-1 27:0 28:-1 29:0 30:0 31:-2 32:0 33:0 34:-1 35:0 36:0 
-33.07692307692307 1:0 2:0 3:0 4:1 5:0 6:-1 7:1 8:1 9:0 10:0 11:0 12:0 13:0 14:0 15:0 16:0 17:0 18:-1 19:-1 20:0 21:0 22:0 23:0 24:0 25:0 26:0 27:0 28:0 29:-1 30:0 31:-2 32:0 33:-1 34:0 35:0 36:0 
-25.38461538461535 1:0 2:0 3:0 4:0 5:0 6:-1 7:5 8:2 9:4 10:0 11:0 12:0 13:0 14:0 15:0 16:1 17:0 18:-1 19:-1 20:0 21:-2 22:-1 23:0 24:0 25:1 26:0 27:0 28:1 29:0 30:0 31:-2 32:0 33:-2 34:-1 35:0 36:0 
-33.07692307692307 1:0 2:-1 3:1 4:0 5:0 6:-1 7:0 8:0 9:0 10:0 11:0 12:0 13:1 14:-1 15:1 16:0 17:0 18:0 19:-1 20:0 21:0 22:0 23:0 24:0 25:1 26:0 27:0 28:0 29:0 30:-1 31:-1 32:0 33:-1 34:0 35:0 36:0 
-33.07692307692307 1:0 2:-1 3:1 4:1 5:0 6:0 7:0 8:0 9:0 10:0 11:0 12:0 13:0 14:0 15:0 16:1 17:0 18:-1 19:0 20:0 21:-1 22:0 23:0 24:0 25:0 26:-1 27:0 28:0 29:0 30:-1 31:0 32:0 33:-1 34:-1 35:0 36:0 
-33.07692307692307 1:0 2:0 3:0 4:1 5:0 6:0 7:0 8:1 9:0 10:0 11:0 12:0 13:0 14:-1 15:0 16:0 17:0 18:0 19:0 20:1 21:0 22:-1 23:0 24:0 25:0 26:-1 27:0 28:-1 29:0 30:0 31:-2 32:0 33:0 34:-1 35:0 36:0 
-33.07692307692307 1:0 2:0 3:0 4:1 5:0 6:-1 7:1 8:1 9:0 10:0 11:0 12:0 13:0 14:0 15:0 16:0 17:0 18:-1 19:-1 20:0 21:0 22:0 23:0 24:0 25:0 26:0 27:0 28:0 29:-1 30:0 31:-2 32:0 33:-1 34:0 35:0 36:0 
-30.52229332921861 1:0 2:0 3:0 4:0 5:0 6:-1 7:5 8:2 9:4 10:0 11:0 12:0 13:0 14:0 15:0 16:1 17:0 18:-1 19:-1 20:0 21:-2 22:-1 23:0 24:0 25:1 26:0 27:0 28:1 29:0 30:0 31:-2 32:0 33:-2 34:-1 35:0 36:0 
-33.07692307692307 1:0 2:-1 3:1 4:0 5:0 6:-1 7:0 8:0 9:0 10:0 11:0 12:0 13:1 14:-1 15:1 16:0 17:0 18:0 19:-1 20:0 21:0 22:0 23:0 24:0 25:1 26:0 27:0 28:0 29:0 30:-1 31:-1 32:0 33:-1 34:0 35:0 36:0 
-33.07692307692307 1:0 2:-1 3:1 4:1 5:0 6:0 7:0 8:0 9:0 10:0 11:0 12:0 13:0 14:0 15:0 16:1 17:0 18:-1 19:0 20:0 21:-1 22:0 23:0 24:0 25:0 26:-1 27:0 28:0 29:0 30:-1 31:0 32:0 33:-1 34:-1 35:0 36:0 
-33.07692307692307 1:0 2:0 3:0 4:1 5:0 6:0 7:0 8:1 9:0 10:0 11:0 12:0 13:0 14:-1 15:0 16:0 17:0 18:0 19:0 20:1 21:0 22:-1 23:0 24:0 25:0 26:-1 27:0 28:-1 29:0 30:0 31:-2 32:0 33:0 34:-1 35:0 36:0 
-24.11018696816499 1:0 2:0 3:0 4:1 5:0 6:-1 7:1 8:1 9:0 10:0 11:0 12:0 13:0 14:0 15:0 16:0 17:0 18:-1 19:-1 20:0 21:0 22:0 23:0 24:0 25:0 26:0 27:0 28:0 29:-1 30:0 31:-2 32:0 33:-1 34:0 35:0 36:0 
