svm_type c_svc
kernel_type rbf
gamma 6.10352e-005
nr_class 2
total_sv 48
rho -0.535845
label 3 2
nr_sv 25 23
SV
24.48275862068965 1:0 2:0 3:1 4:0 5:1 6:0 7:0 8:0 9:1 10:1 11:1 12:0 13:0 14:0 15:1 16:0 17:0 18:0 19:0 20:0 21:0 22:1 23:0 24:0 25:0 26:0 27:0 28:0 29:0 30:0 31:1 32:0 33:0 34:0 35:0 36:0 
24.48275862068965 1:0 2:0 3:1 4:1 5:0 6:1 7:-1 8:0 9:1 10:1 11:0 12:0 13:0 14:0 15:0 16:1 17:0 18:1 19:0 20:0 21:1 22:0 23:0 24:0 25:0 26:0 27:-1 28:0 29:0 30:0 31:2 32:0 33:-1 34:0 35:0 36:0 
24.48275862068965 1:-1 2:-1 3:1 4:1 5:0 6:1 7:-3 8:0 9:2 10:0 11:0 12:0 13:-1 14:-1 15:0 16:0 17:0 18:0 19:-1 20:0 21:0 22:0 23:0 24:0 25:0 26:0 27:-1 28:-1 29:0 30:-1 31:4 32:0 33:-1 34:0 35:0 36:0 
24.48275862068965 1:-1 2:-1 3:0 4:-3 5:-1 6:-1 7:-4 8:-3 9:0 10:0 11:1 12:0 13:0 14:-1 15:0 16:0 17:1 18:0 19:1 20:0 21:0 22:0 23:1 24:0 25:-1 26:0 27:1 28:3 29:0 30:1 31:3 32:3 33:0 34:0 35:0 36:0 
24.48275862068965 1:0 2:-1 3:0 4:2 5:0 6:-1 7:1 8:-3 9:-1 10:0 11:1 12:0 13:0 14:0 15:0 16:0 17:0 18:-1 19:0 20:0 21:-1 22:1 23:0 24:0 25:0 26:0 27:0 28:-1 29:0 30:2 31:-1 32:3 33:0 34:0 35:0 36:-1 
24.48275862068965 1:0 2:0 3:1 4:0 5:1 6:0 7:0 8:0 9:1 10:1 11:1 12:0 13:0 14:0 15:1 16:0 17:0 18:0 19:0 20:0 21:0 22:1 23:0 24:0 25:0 26:0 27:0 28:0 29:0 30:0 31:1 32:0 33:0 34:0 35:0 36:0 
24.48275862068965 1:0 2:0 3:1 4:1 5:0 6:1 7:-1 8:0 9:1 10:1 11:0 12:0 13:0 14:0 15:0 16:1 17:0 18:1 19:0 20:0 21:1 22:0 23:0 24:0 25:0 26:0 27:-1 28:0 29:0 30:0 31:2 32:0 33:-1 34:0 35:0 36:0 
24.48275862068965 1:-1 2:-1 3:1 4:1 5:0 6:1 7:-3 8:0 9:2 10:0 11:0 12:0 13:-1 14:-1 15:0 16:0 17:0 18:0 19:-1 20:0 21:0 22:0 23:0 24:0 25:0 26:0 27:-1 28:-1 29:0 30:-1 31:4 32:0 33:-1 34:0 35:0 36:0 
24.48275862068965 1:-1 2:-1 3:0 4:-3 5:-1 6:-1 7:-4 8:-3 9:0 10:0 11:1 12:0 13:0 14:-1 15:0 16:0 17:1 18:0 19:1 20:0 21:0 22:0 23:1 24:0 25:-1 26:0 27:1 28:3 29:0 30:1 31:3 32:3 33:0 34:0 35:0 36:0 
24.48275862068965 1:0 2:-1 3:0 4:2 5:0 6:-1 7:1 8:-3 9:-1 10:0 11:1 12:0 13:0 14:0 15:0 16:0 17:0 18:-1 19:0 20:0 21:-1 22:1 23:0 24:0 25:0 26:0 27:0 28:-1 29:0 30:2 31:-1 32:3 33:0 34:0 35:0 36:-1 
10.53577162320609 1:0 2:0 3:0 4:2 5:1 6:-3 7:1 8:-2 9:-1 10:1 11:0 12:0 13:0 14:0 15:0 16:1 17:1 18:0 19:0 20:1 21:0 22:0 23:0 24:-1 25:0 26:0 27:1 28:-1 29:0 30:3 31:0 32:3 33:0 34:0 35:0 36:-1 
24.48275862068965 1:0 2:0 3:1 4:0 5:1 6:0 7:0 8:0 9:1 10:1 11:1 12:0 13:0 14:0 15:1 16:0 17:0 18:0 19:0 20:0 21:0 22:1 23:0 24:0 25:0 26:0 27:0 28:0 29:0 30:0 31:1 32:0 33:0 34:0 35:0 36:0 
24.48275862068965 1:0 2:0 3:1 4:1 5:0 6:1 7:-1 8:0 9:1 10:1 11:0 12:0 13:0 14:0 15:0 16:1 17:0 18:1 19:0 20:0 21:1 22:0 23:0 24:0 25:0 26:0 27:-1 28:0 29:0 30:0 31:2 32:0 33:-1 34:0 35:0 36:0 
24.48275862068965 1:-1 2:-1 3:1 4:1 5:0 6:1 7:-3 8:0 9:2 10:0 11:0 12:0 13:-1 14:-1 15:0 16:0 17:0 18:0 19:-1 20:0 21:0 22:0 23:0 24:0 25:0 26:0 27:-1 28:-1 29:0 30:-1 31:4 32:0 33:-1 34:0 35:0 36:0 
6.66699062916988 1:0 2:0 3:0 4:0 5:0 6:0 7:-4 8:-2 9:1 10:0 11:1 12:-1 13:0 14:0 15:-1 16:0 17:-1 18:0 19:0 20:-1 21:0 22:0 23:1 24:0 25:0 26:0 27:0 28:2 29:1 30:-1 31:4 32:2 33:-1 34:0 35:0 36:-1 
24.48275862068965 1:-1 2:-1 3:0 4:-3 5:-1 6:-1 7:-4 8:-3 9:0 10:0 11:1 12:0 13:0 14:-1 15:0 16:0 17:1 18:0 19:1 20:0 21:0 22:0 23:1 24:0 25:-1 26:0 27:1 28:3 29:0 30:1 31:3 32:3 33:0 34:0 35:0 36:0 
24.48275862068965 1:0 2:-1 3:0 4:2 5:0 6:-1 7:1 8:-3 9:-1 10:0 11:1 12:0 13:0 14:0 15:0 16:0 17:0 18:-1 19:0 20:0 21:-1 22:1 23:0 24:0 25:0 26:0 27:0 28:-1 29:0 30:2 31:-1 32:3 33:0 34:0 35:0 36:-1 
24.48275862068965 1:0 2:0 3:0 4:2 5:1 6:-3 7:1 8:-2 9:-1 10:1 11:0 12:0 13:0 14:0 15:0 16:1 17:1 18:0 19:0 20:1 21:0 22:0 23:0 24:-1 25:0 26:0 27:1 28:-1 29:0 30:3 31:0 32:3 33:0 34:0 35:0 36:-1 
24.48275862068965 1:0 2:0 3:1 4:0 5:1 6:0 7:0 8:0 9:1 10:1 11:1 12:0 13:0 14:0 15:1 16:0 17:0 18:0 19:0 20:0 21:0 22:1 23:0 24:0 25:0 26:0 27:0 28:0 29:0 30:0 31:1 32:0 33:0 34:0 35:0 36:0 
24.48275862068965 1:0 2:0 3:1 4:1 5:0 6:1 7:-1 8:0 9:1 10:1 11:0 12:0 13:0 14:0 15:0 16:1 17:0 18:1 19:0 20:0 21:1 22:0 23:0 24:0 25:0 26:0 27:-1 28:0 29:0 30:0 31:2 32:0 33:-1 34:0 35:0 36:0 
24.48275862068965 1:-1 2:-1 3:1 4:1 5:0 6:1 7:-3 8:0 9:2 10:0 11:0 12:0 13:-1 14:-1 15:0 16:0 17:0 18:0 19:-1 20:0 21:0 22:0 23:0 24:0 25:0 26:0 27:-1 28:-1 29:0 30:-1 31:4 32:0 33:-1 34:0 35:0 36:0 
24.48275862068965 1:0 2:0 3:0 4:0 5:0 6:0 7:-4 8:-2 9:1 10:0 11:1 12:-1 13:0 14:0 15:-1 16:0 17:-1 18:0 19:0 20:-1 21:0 22:0 23:1 24:0 25:0 26:0 27:0 28:2 29:1 30:-1 31:4 32:2 33:-1 34:0 35:0 36:-1 
24.48275862068965 1:-1 2:-1 3:0 4:-3 5:-1 6:-1 7:-4 8:-3 9:0 10:0 11:1 12:0 13:0 14:-1 15:0 16:0 17:1 18:0 19:1 20:0 21:0 22:0 23:1 24:0 25:-1 26:0 27:1 28:3 29:0 30:1 31:3 32:3 33:0 34:0 35:0 36:0 
24.48275862068965 1:0 2:-1 3:0 4:2 5:0 6:-1 7:1 8:-3 9:-1 10:0 11:1 12:0 13:0 14:0 15:0 16:0 17:0 18:-1 19:0 20:0 21:-1 22:1 23:0 24:0 25:0 26:0 27:0 28:-1 29:0 30:2 31:-1 32:3 33:0 34:0 35:0 36:-1 
20.90719603306684 1:0 2:0 3:0 4:2 5:1 6:-3 7:1 8:-2 9:-1 10:1 11:0 12:0 13:0 14:0 15:0 16:1 17:1 18:0 19:0 20:1 21:0 22:0 23:0 24:-1 25:0 26:0 27:1 28:-1 29:0 30:3 31:0 32:3 33:0 34:0 35:0 36:-1 
-25.51724137931035 1:0 2:-1 3:0 4:0 5:-1 6:-1 7:0 8:0 9:0 10:0 11:0 12:0 13:0 14:0 15:0 16:-1 17:1 18:1 19:0 20:0 21:0 22:0 23:0 24:0 25:0 26:0 27:0 28:-1 29:0 30:0 31:0 32:0 33:0 34:0 35:0 36:0 
-25.51724137931035 1:0 2:0 3:0 4:-1 5:0 6:1 7:0 8:0 9:0 10:0 11:0 12:0 13:0 14:0 15:0 16:-1 17:-1 18:0 19:0 20:0 21:0 22:0 23:0 24:0 25:0 26:0 27:0 28:0 29:0 30:-3 31:0 32:0 33:0 34:0 35:0 36:0 
-25.51724137931035 1:0 2:0 3:0 4:-1 5:-1 6:2 7:0 8:0 9:0 10:0 11:0 12:0 13:0 14:0 15:0 16:0 17:0 18:-1 19:0 20:0 21:0 22:0 23:0 24:0 25:0 26:0 27:0 28:0 29:0 30:-2 31:0 32:0 33:0 34:0 35:0 36:0 
-25.51724137931035 1:0 2:0 3:0 4:-1 5:0 6:1 7:0 8:0 9:0 10:0 11:0 12:0 13:0 14:0 15:0 16:-1 17:0 18:0 19:0 20:0 21:0 22:0 23:0 24:0 25:0 26:0 27:0 28:1 29:0 30:-1 31:0 32:0 33:0 34:0 35:0 36:0 
-25.51724137931035 1:0 2:0 3:0 4:-3 5:0 6:-2 7:0 8:0 9:0 10:0 11:0 12:0 13:0 14:0 15:0 16:0 17:0 18:-1 19:0 20:0 21:0 22:0 23:0 24:0 25:0 26:0 27:0 28:3 29:-1 30:2 31:0 32:0 33:0 34:0 35:0 36:0 
-25.51724137931035 1:0 2:-1 3:0 4:0 5:-1 6:-1 7:0 8:0 9:0 10:0 11:0 12:0 13:0 14:0 15:0 16:-1 17:1 18:1 19:0 20:0 21:0 22:0 23:0 24:0 25:0 26:0 27:0 28:-1 29:0 30:0 31:0 32:0 33:0 34:0 35:0 36:0 
-25.51724137931035 1:0 2:0 3:0 4:-1 5:0 6:1 7:0 8:0 9:0 10:0 11:0 12:0 13:0 14:0 15:0 16:-1 17:-1 18:0 19:0 20:0 21:0 22:0 23:0 24:0 25:0 26:0 27:0 28:0 29:0 30:-3 31:0 32:0 33:0 34:0 35:0 36:0 
-25.51724137931035 1:0 2:0 3:0 4:-1 5:-1 6:2 7:0 8:0 9:0 10:0 11:0 12:0 13:0 14:0 15:0 16:0 17:0 18:-1 19:0 20:0 21:0 22:0 23:0 24:0 25:0 26:0 27:0 28:0 29:0 30:-2 31:0 32:0 33:0 34:0 35:0 36:0 
-25.51724137931035 1:0 2:0 3:0 4:-1 5:0 6:1 7:0 8:0 9:0 10:0 11:0 12:0 13:0 14:0 15:0 16:-1 17:0 18:0 19:0 20:0 21:0 22:0 23:0 24:0 25:0 26:0 27:0 28:1 29:0 30:-1 31:0 32:0 33:0 34:0 35:0 36:0 
-15.78671518641361 1:0 2:0 3:0 4:-5 5:0 6:-1 7:0 8:0 9:0 10:0 11:0 12:0 13:0 14:0 15:0 16:1 17:-1 18:0 19:0 20:0 21:0 22:0 23:0 24:0 25:0 26:0 27:0 28:4 29:-1 30:1 31:0 32:0 33:0 34:0 35:0 36:0 
-25.51724137931035 1:0 2:0 3:0 4:-3 5:0 6:-2 7:0 8:0 9:0 10:0 11:0 12:0 13:0 14:0 15:0 16:0 17:0 18:-1 19:0 20:0 21:0 22:0 23:0 24:0 25:0 26:0 27:0 28:3 29:-1 30:2 31:0 32:0 33:0 34:0 35:0 36:0 
-25.51724137931035 1:0 2:-1 3:0 4:0 5:-1 6:-1 7:0 8:0 9:0 10:0 11:0 12:0 13:0 14:0 15:0 16:-1 17:1 18:1 19:0 20:0 21:0 22:0 23:0 24:0 25:0 26:0 27:0 28:-1 29:0 30:0 31:0 32:0 33:0 34:0 35:0 36:0 
-25.51724137931035 1:0 2:0 3:0 4:-1 5:0 6:1 7:0 8:0 9:0 10:0 11:0 12:0 13:0 14:0 15:0 16:-1 17:-1 18:0 19:0 20:0 21:0 22:0 23:0 24:0 25:0 26:0 27:0 28:0 29:0 30:-3 31:0 32:0 33:0 34:0 35:0 36:0 
-25.51724137931035 1:0 2:0 3:0 4:-1 5:-1 6:2 7:0 8:0 9:0 10:0 11:0 12:0 13:0 14:0 15:0 16:0 17:0 18:-1 19:0 20:0 21:0 22:0 23:0 24:0 25:0 26:0 27:0 28:0 29:0 30:-2 31:0 32:0 33:0 34:0 35:0 36:0 
-25.51724137931035 1:0 2:0 3:0 4:-1 5:0 6:1 7:0 8:0 9:0 10:0 11:0 12:0 13:0 14:0 15:0 16:-1 17:0 18:0 19:0 20:0 21:0 22:0 23:0 24:0 25:0 26:0 27:0 28:1 29:0 30:-1 31:0 32:0 33:0 34:0 35:0 36:0 
-25.51724137931035 1:0 2:0 3:0 4:-5 5:0 6:-1 7:0 8:0 9:0 10:0 11:0 12:0 13:0 14:0 15:0 16:1 17:-1 18:0 19:0 20:0 21:0 22:0 23:0 24:0 25:0 26:0 27:0 28:4 29:-1 30:1 31:0 32:0 33:0 34:0 35:0 36:0 
-25.51724137931035 1:0 2:0 3:0 4:-3 5:0 6:-2 7:0 8:0 9:0 10:0 11:0 12:0 13:0 14:0 15:0 16:0 17:0 18:-1 19:0 20:0 21:0 22:0 23:0 24:0 25:0 26:0 27:0 28:3 29:-1 30:2 31:0 32:0 33:0 34:0 35:0 36:0 
-25.51724137931035 1:0 2:-1 3:0 4:0 5:-1 6:-1 7:0 8:0 9:0 10:0 11:0 12:0 13:0 14:0 15:0 16:-1 17:1 18:1 19:0 20:0 21:0 22:0 23:0 24:0 25:0 26:0 27:0 28:-1 29:0 30:0 31:0 32:0 33:0 34:0 35:0 36:0 
-25.51724137931035 1:0 2:0 3:0 4:-1 5:0 6:1 7:0 8:0 9:0 10:0 11:0 12:0 13:0 14:0 15:0 16:-1 17:-1 18:0 19:0 20:0 21:0 22:0 23:0 24:0 25:0 26:0 27:0 28:0 29:0 30:-3 31:0 32:0 33:0 34:0 35:0 36:0 
-25.51724137931035 1:0 2:0 3:0 4:-1 5:-1 6:2 7:0 8:0 9:0 10:0 11:0 12:0 13:0 14:0 15:0 16:0 17:0 18:-1 19:0 20:0 21:0 22:0 23:0 24:0 25:0 26:0 27:0 28:0 29:0 30:-2 31:0 32:0 33:0 34:0 35:0 36:0 
-25.51724137931035 1:0 2:0 3:0 4:-1 5:0 6:1 7:0 8:0 9:0 10:0 11:0 12:0 13:0 14:0 15:0 16:-1 17:0 18:0 19:0 20:0 21:0 22:0 23:0 24:0 25:0 26:0 27:0 28:1 29:0 30:-1 31:0 32:0 33:0 34:0 35:0 36:0 
-25.0818637886842 1:0 2:0 3:0 4:-5 5:0 6:-1 7:0 8:0 9:0 10:0 11:0 12:0 13:0 14:0 15:0 16:1 17:-1 18:0 19:0 20:0 21:0 22:0 23:0 24:0 25:0 26:0 27:0 28:4 29:-1 30:1 31:0 32:0 33:0 34:0 35:0 36:0 
-25.51724137931035 1:0 2:0 3:0 4:-3 5:0 6:-2 7:0 8:0 9:0 10:0 11:0 12:0 13:0 14:0 15:0 16:0 17:0 18:-1 19:0 20:0 21:0 22:0 23:0 24:0 25:0 26:0 27:0 28:3 29:-1 30:2 31:0 32:0 33:0 34:0 35:0 36:0 
