svm_type c_svc
kernel_type rbf
gamma 0.00012207
nr_class 2
total_sv 74
rho 18.7909
label 3 1
nr_sv 26 48
SV
157.9012336554351 1:1 2:0 3:-2 4:-4 5:-2 6:-2 7:0 8:1 9:0 10:0 11:0 12:-1 13:1 14:1 15:-2 16:0 17:-1 18:-1 19:0 20:1 21:-1 22:0 23:0 24:-1 25:1 26:0 27:-1 28:1 29:0 30:0 31:0 32:1 33:-1 34:0 35:0 36:-1 37:1 38:-1 39:0 40:2 41:0 42:1 43:0 44:0 45:0 46:0 47:0 48:-1 49:0 50:-2 51:2 52:2 53:0 54:2 55:0 56:0 57:1 58:0 59:0 60:0 
157.9012336554351 1:1 2:0 3:-2 4:-4 5:-2 6:-2 7:0 8:1 9:0 10:0 11:0 12:-1 13:1 14:1 15:-2 16:0 17:-1 18:-1 19:0 20:1 21:-1 22:0 23:0 24:-1 25:1 26:0 27:-1 28:1 29:0 30:0 31:0 32:1 33:-1 34:0 35:0 36:-1 37:1 38:-1 39:0 40:2 41:0 42:1 43:0 44:0 45:0 46:0 47:0 48:-1 49:0 50:-2 51:2 52:2 53:0 54:2 55:0 56:0 57:1 58:0 59:0 60:0 
63.52169156583745 1:1 2:1 3:-2 4:2 5:0 6:0 7:0 8:1 9:-2 10:0 11:1 12:-1 13:1 14:0 15:-1 16:3 17:0 18:1 19:0 20:0 21:-1 22:0 23:1 24:-1 25:0 26:-1 27:1 28:3 29:0 30:2 31:0 32:0 33:0 34:0 35:1 36:0 37:0 38:-1 39:1 40:-1 41:0 42:0 43:0 44:0 45:0 46:0 47:0 48:1 49:0 50:-1 51:1 52:-5 53:0 54:-3 55:0 56:0 57:0 58:0 59:0 60:1 
106.6251170813778 1:1 2:-1 3:-1 4:4 5:1 6:3 7:1 8:1 9:0 10:1 11:0 12:1 13:1 14:-1 15:-1 16:0 17:1 18:0 19:1 20:1 21:0 22:1 23:0 24:1 25:1 26:-1 27:0 28:-1 29:0 30:-1 31:1 32:0 33:0 34:0 35:0 36:0 37:0 38:0 39:-1 40:-3 41:-1 42:-2 43:1 44:-1 45:0 46:-1 47:0 48:-1 49:1 50:0 51:-1 52:-3 53:-1 54:-2 55:0 56:-1 57:-1 58:-1 59:0 60:-1 
156.2322638043316 1:1 2:-1 3:0 4:1 5:1 6:1 7:1 8:2 9:0 10:1 11:0 12:1 13:1 14:-1 15:1 16:0 17:0 18:0 19:1 20:1 21:0 22:0 23:0 24:0 25:0 26:0 27:0 28:-2 29:-1 30:-1 31:1 32:0 33:0 34:-1 35:0 36:-1 37:1 38:0 39:0 40:-2 41:-1 42:-1 43:0 44:0 45:-1 46:-1 47:0 48:-1 49:1 50:1 51:-1 52:-1 53:-2 54:-1 55:0 56:0 57:-1 58:-1 59:0 60:-1 
43.11384233380912 1:0 2:-1 3:0 4:-6 5:0 6:-3 7:0 8:0 9:0 10:0 11:0 12:0 13:0 14:-1 15:0 16:-4 17:0 18:-2 19:0 20:0 21:0 22:0 23:0 24:0 25:0 26:-1 27:0 28:-2 29:-1 30:-1 31:0 32:0 33:0 34:0 35:0 36:0 37:0 38:0 39:-2 40:3 41:0 42:0 43:0 44:0 45:0 46:0 47:0 48:0 49:0 50:-1 51:-1 52:7 53:-1 54:2 55:0 56:0 57:0 58:0 59:0 60:0 
152.32683327939 1:0 2:-1 3:0 4:-8 5:0 6:-3 7:0 8:0 9:0 10:0 11:0 12:0 13:0 14:-1 15:0 16:-6 17:-1 18:-2 19:0 20:0 21:0 22:0 23:0 24:0 25:0 26:0 27:-2 28:-1 29:0 30:-1 31:0 32:0 33:0 34:0 35:0 36:0 37:0 38:-1 39:-1 40:3 41:-1 42:1 43:0 44:0 45:0 46:0 47:0 48:0 49:0 50:-1 51:-1 52:9 53:-2 54:3 55:0 56:0 57:0 58:0 59:0 60:0 
157.9012336554351 1:1 2:0 3:-2 4:-4 5:-2 6:-2 7:0 8:1 9:0 10:0 11:0 12:-1 13:1 14:1 15:-2 16:0 17:-1 18:-1 19:0 20:1 21:-1 22:0 23:0 24:-1 25:1 26:0 27:-1 28:1 29:0 30:0 31:0 32:1 33:-1 34:0 35:0 36:-1 37:1 38:-1 39:0 40:2 41:0 42:1 43:0 44:0 45:0 46:0 47:0 48:-1 49:0 50:-2 51:2 52:2 53:0 54:2 55:0 56:0 57:1 58:0 59:0 60:0 
157.9012336554351 1:1 2:1 3:-2 4:2 5:0 6:0 7:0 8:1 9:-2 10:0 11:1 12:-1 13:1 14:0 15:-1 16:3 17:0 18:1 19:0 20:0 21:-1 22:0 23:1 24:-1 25:0 26:-1 27:1 28:3 29:0 30:2 31:0 32:0 33:0 34:0 35:1 36:0 37:0 38:-1 39:1 40:-1 41:0 42:0 43:0 44:0 45:0 46:0 47:0 48:1 49:0 50:-1 51:1 52:-5 53:0 54:-3 55:0 56:0 57:0 58:0 59:0 60:1 
96.73547120584671 1:1 2:0 3:-2 4:5 5:0 6:2 7:0 8:1 9:-1 10:1 11:1 12:-2 13:0 14:-1 15:0 16:5 17:0 18:3 19:0 20:1 21:0 22:1 23:1 24:-1 25:0 26:-1 27:0 28:1 29:0 30:1 31:0 32:1 33:0 34:1 35:0 36:0 37:0 38:-1 39:0 40:-3 41:0 42:-2 43:0 44:1 45:0 46:1 47:0 48:0 49:0 50:-1 51:1 52:-4 53:-1 54:-3 55:0 56:0 57:0 58:0 59:0 60:-1 
157.9012336554351 1:1 2:-1 3:-1 4:4 5:1 6:3 7:1 8:1 9:0 10:1 11:0 12:1 13:1 14:-1 15:-1 16:0 17:1 18:0 19:1 20:1 21:0 22:1 23:0 24:1 25:1 26:-1 27:0 28:-1 29:0 30:-1 31:1 32:0 33:0 34:0 35:0 36:0 37:0 38:0 39:-1 40:-3 41:-1 42:-2 43:1 44:-1 45:0 46:-1 47:0 48:-1 49:1 50:0 51:-1 52:-3 53:-1 54:-2 55:0 56:-1 57:-1 58:-1 59:0 60:-1 
157.9012336554351 1:1 2:-1 3:0 4:1 5:1 6:1 7:1 8:2 9:0 10:1 11:0 12:1 13:1 14:-1 15:1 16:0 17:0 18:0 19:1 20:1 21:0 22:0 23:0 24:0 25:0 26:0 27:0 28:-2 29:-1 30:-1 31:1 32:0 33:0 34:-1 35:0 36:-1 37:1 38:0 39:0 40:-2 41:-1 42:-1 43:0 44:0 45:-1 46:-1 47:0 48:-1 49:1 50:1 51:-1 52:-1 53:-2 54:-1 55:0 56:0 57:-1 58:-1 59:0 60:-1 
30.65128567282982 1:0 2:-2 3:1 4:1 5:1 6:0 7:1 8:1 9:0 10:0 11:1 12:0 13:-1 14:-1 15:0 16:-1 17:0 18:-1 19:1 20:0 21:0 22:-1 23:1 24:-1 25:0 26:-1 27:0 28:-1 29:0 30:-1 31:0 32:0 33:-1 34:-1 35:1 36:-1 37:0 38:0 39:-1 40:0 41:-1 42:-1 43:0 44:0 45:-1 46:-1 47:1 48:-1 49:1 50:0 51:-2 52:0 53:-1 54:-1 55:0 56:0 57:-1 58:-1 59:0 60:-1 
55.09850033121103 1:0 2:0 3:0 4:0 5:0 6:0 7:0 8:0 9:0 10:0 11:0 12:0 13:0 14:0 15:0 16:1 17:3 18:0 19:0 20:0 21:0 22:0 23:0 24:0 25:0 26:0 27:0 28:0 29:1 30:-1 31:0 32:0 33:0 34:0 35:0 36:0 37:0 38:0 39:0 40:-1 41:-1 42:0 43:0 44:0 45:0 46:0 47:0 48:0 49:0 50:0 51:0 52:0 53:-3 54:-1 55:0 56:0 57:0 58:0 59:0 60:0 
65.57555688878165 1:0 2:0 3:0 4:1 5:4 6:0 7:0 8:0 9:0 10:0 11:0 12:0 13:0 14:0 15:0 16:0 17:2 18:-1 19:0 20:0 21:0 22:0 23:0 24:0 25:0 26:0 27:0 28:-1 29:0 30:0 31:0 32:0 33:0 34:0 35:0 36:0 37:0 38:0 39:0 40:0 41:-2 42:-1 43:0 44:0 45:0 46:0 47:0 48:0 49:0 50:0 51:0 52:-1 53:-4 54:-2 55:0 56:0 57:0 58:0 59:0 60:0 
157.9012336554351 1:0 2:-1 3:0 4:-6 5:0 6:-3 7:0 8:0 9:0 10:0 11:0 12:0 13:0 14:-1 15:0 16:-4 17:0 18:-2 19:0 20:0 21:0 22:0 23:0 24:0 25:0 26:-1 27:0 28:-2 29:-1 30:-1 31:0 32:0 33:0 34:0 35:0 36:0 37:0 38:0 39:-2 40:3 41:0 42:0 43:0 44:0 45:0 46:0 47:0 48:0 49:0 50:-1 51:-1 52:7 53:-1 54:2 55:0 56:0 57:0 58:0 59:0 60:0 
157.7599264151955 1:0 2:-1 3:0 4:-8 5:0 6:-3 7:0 8:0 9:0 10:0 11:0 12:0 13:0 14:-1 15:0 16:-6 17:-1 18:-2 19:0 20:0 21:0 22:0 23:0 24:0 25:0 26:0 27:-2 28:-1 29:0 30:-1 31:0 32:0 33:0 34:0 35:0 36:0 37:0 38:-1 39:-1 40:3 41:-1 42:1 43:0 44:0 45:0 46:0 47:0 48:0 49:0 50:-1 51:-1 52:9 53:-2 54:3 55:0 56:0 57:0 58:0 59:0 60:0 
3.86145907881155 1:0 2:-1 3:1 4:-12 5:0 6:-4 7:0 8:0 9:0 10:0 11:0 12:0 13:0 14:0 15:-1 16:-7 17:1 18:-3 19:0 20:0 21:0 22:0 23:0 24:0 25:0 26:-1 27:0 28:-3 29:0 30:-1 31:0 32:0 33:0 34:0 35:0 36:0 37:0 38:-1 39:0 40:3 41:-1 42:1 43:0 44:0 45:0 46:0 47:0 48:0 49:0 50:0 51:0 52:15 53:-2 54:7 55:0 56:0 57:0 58:0 59:0 60:0 
99.94742580749518 1:0 2:0 3:0 4:-11 5:-1 6:-5 7:0 8:1 9:0 10:0 11:0 12:0 13:0 14:0 15:-1 16:0 17:-2 18:-1 19:0 20:1 21:0 22:0 23:0 24:0 25:0 26:1 27:-1 28:4 29:-1 30:0 31:0 32:1 33:-1 34:0 35:0 36:0 37:0 38:0 39:0 40:5 41:0 42:1 43:0 44:1 45:-1 46:0 47:0 48:0 49:0 50:-1 51:1 52:6 53:0 54:2 55:0 56:0 57:0 58:0 59:0 60:0 
157.9012336554351 1:1 2:0 3:-2 4:-4 5:-2 6:-2 7:0 8:1 9:0 10:0 11:0 12:-1 13:1 14:1 15:-2 16:0 17:-1 18:-1 19:0 20:1 21:-1 22:0 23:0 24:-1 25:1 26:0 27:-1 28:1 29:0 30:0 31:0 32:1 33:-1 34:0 35:0 36:-1 37:1 38:-1 39:0 40:2 41:0 42:1 43:0 44:0 45:0 46:0 47:0 48:-1 49:0 50:-2 51:2 52:2 53:0 54:2 55:0 56:0 57:1 58:0 59:0 60:0 
157.9012336554351 1:1 2:1 3:-2 4:2 5:0 6:0 7:0 8:1 9:-2 10:0 11:1 12:-1 13:1 14:0 15:-1 16:3 17:0 18:1 19:0 20:0 21:-1 22:0 23:1 24:-1 25:0 26:-1 27:1 28:3 29:0 30:2 31:0 32:0 33:0 34:0 35:1 36:0 37:0 38:-1 39:1 40:-1 41:0 42:0 43:0 44:0 45:0 46:0 47:0 48:1 49:0 50:-1 51:1 52:-5 53:0 54:-3 55:0 56:0 57:0 58:0 59:0 60:1 
157.3188494531804 1:1 2:0 3:-2 4:5 5:0 6:2 7:0 8:1 9:-1 10:1 11:1 12:-2 13:0 14:-1 15:0 16:5 17:0 18:3 19:0 20:1 21:0 22:1 23:1 24:-1 25:0 26:-1 27:0 28:1 29:0 30:1 31:0 32:1 33:0 34:1 35:0 36:0 37:0 38:-1 39:0 40:-3 41:0 42:-2 43:0 44:1 45:0 46:1 47:0 48:0 49:0 50:-1 51:1 52:-4 53:-1 54:-3 55:0 56:0 57:0 58:0 59:0 60:-1 
157.9012336554351 1:1 2:-1 3:-1 4:4 5:1 6:3 7:1 8:1 9:0 10:1 11:0 12:1 13:1 14:-1 15:-1 16:0 17:1 18:0 19:1 20:1 21:0 22:1 23:0 24:1 25:1 26:-1 27:0 28:-1 29:0 30:-1 31:1 32:0 33:0 34:0 35:0 36:0 37:0 38:0 39:-1 40:-3 41:-1 42:-2 43:1 44:-1 45:0 46:-1 47:0 48:-1 49:1 50:0 51:-1 52:-3 53:-1 54:-2 55:0 56:-1 57:-1 58:-1 59:0 60:-1 
157.9012336554351 1:1 2:-1 3:0 4:1 5:1 6:1 7:1 8:2 9:0 10:1 11:0 12:1 13:1 14:-1 15:1 16:0 17:0 18:0 19:1 20:1 21:0 22:0 23:0 24:0 25:0 26:0 27:0 28:-2 29:-1 30:-1 31:1 32:0 33:0 34:-1 35:0 36:-1 37:1 38:0 39:0 40:-2 41:-1 42:-1 43:0 44:0 45:-1 46:-1 47:0 48:-1 49:1 50:1 51:-1 52:-1 53:-2 54:-1 55:0 56:0 57:-1 58:-1 59:0 60:-1 
147.6184246517987 1:0 2:-2 3:1 4:1 5:1 6:0 7:1 8:1 9:0 10:0 11:1 12:0 13:-1 14:-1 15:0 16:-1 17:0 18:-1 19:1 20:0 21:0 22:-1 23:1 24:-1 25:0 26:-1 27:0 28:-1 29:0 30:-1 31:0 32:0 33:-1 34:-1 35:1 36:-1 37:0 38:0 39:-1 40:0 41:-1 42:-1 43:0 44:0 45:-1 46:-1 47:1 48:-1 49:1 50:0 51:-2 52:0 53:-1 54:-1 55:0 56:0 57:-1 58:-1 59:0 60:-1 
136.9998968099215 1:-1 2:-2 3:1 4:-1 5:0 6:0 7:1 8:2 9:0 10:0 11:1 12:0 13:-1 14:-1 15:0 16:0 17:-1 18:0 19:1 20:2 21:0 22:0 23:1 24:0 25:0 26:-1 27:-1 28:0 29:-1 30:0 31:1 32:2 33:0 34:0 35:0 36:0 37:1 38:0 39:-1 40:-1 41:-1 42:0 43:1 44:1 45:0 46:0 47:0 48:0 49:1 50:2 51:-3 52:-2 53:3 54:0 55:0 56:-3 57:-2 58:0 59:0 60:0 
-0.3528331355235855 1:-3 2:-5 3:1 4:-1 5:-8 6:-1 7:2 8:5 9:2 10:-1 11:0 12:-1 13:-3 14:-3 15:-1 16:-2 17:-4 18:-1 19:1 20:1 21:0 22:-1 23:0 24:-1 25:-1 26:-1 27:-2 28:-1 29:0 30:-1 31:-1 32:-4 33:-2 34:0 35:0 36:-1 37:4 38:2 39:-2 40:0 41:4 42:0 43:0 44:0 45:-1 46:1 47:0 48:0 49:7 50:5 51:1 52:1 53:5 54:1 55:2 56:1 57:0 58:2 59:0 60:1 
-1.765462211976924 1:-5 2:-4 3:-3 4:-2 5:-4 6:-2 7:-2 8:-3 9:-2 10:-1 11:1 12:-2 13:0 14:-1 15:-3 16:-1 17:0 18:-1 19:-1 20:1 21:-1 22:0 23:1 24:-1 25:3 26:2 27:0 28:0 29:1 30:0 31:1 32:2 33:0 34:1 35:1 36:0 37:3 38:2 39:1 40:1 41:1 42:0 43:1 44:2 45:0 46:1 47:0 48:0 49:1 50:-1 51:1 52:1 53:-2 54:0 55:1 56:-1 57:0 58:1 59:0 60:0 
-1.419743168367778 1:5 2:4 3:0 4:-2 5:5 6:-1 7:2 8:5 9:1 10:2 11:0 12:1 13:3 14:1 15:0 16:-2 17:2 18:-1 19:2 20:2 21:1 22:2 23:0 24:1 25:0 26:-2 27:-1 28:1 29:-1 30:0 31:1 32:0 33:0 34:1 35:0 36:0 37:-3 38:-3 39:-1 40:2 41:-5 42:0 43:0 44:-3 45:-1 46:0 47:0 48:-1 49:-5 50:-3 51:-2 52:1 53:-5 54:-1 55:-1 56:-4 57:-1 58:-1 59:0 60:-1 
-42.1080138034701 1:6 2:3 3:0 4:-2 5:5 6:0 7:2 8:5 9:1 10:2 11:0 12:1 13:3 14:0 15:-1 16:1 17:2 18:1 19:1 20:3 21:0 22:1 23:0 24:0 25:0 26:-1 27:-1 28:2 29:-2 30:1 31:0 32:0 33:-1 34:0 35:0 36:-1 37:-2 38:-1 39:-2 40:1 41:-2 42:0 43:-1 44:-1 45:-1 46:-1 47:0 48:-1 49:-3 50:-2 51:0 52:-1 53:-4 54:-2 55:-2 56:-4 57:-2 58:-1 59:0 60:-1 
-26.2798026337917 1:5 2:1 3:-1 4:1 5:3 6:1 7:2 8:4 9:1 10:1 11:1 12:0 13:2 14:0 15:-1 16:2 17:-1 18:1 19:1 20:1 21:0 22:0 23:1 24:-1 25:0 26:0 27:-2 28:1 29:-1 30:0 31:0 32:0 33:0 34:-1 35:1 36:-1 37:-1 38:-1 39:0 40:-1 41:-3 42:-2 43:-1 44:-3 45:-1 46:-1 47:1 48:-1 49:-2 50:-1 51:1 52:-2 53:-1 54:-2 55:-1 56:-2 57:-1 58:-1 59:0 60:-1 
-132.0987639603791 1:-1 2:-2 3:1 4:-2 5:0 6:0 7:1 8:0 9:-2 10:0 11:0 12:0 13:-1 14:-1 15:1 16:-3 17:0 18:-1 19:1 20:0 21:-1 22:0 23:0 24:0 25:0 26:-1 27:0 28:-3 29:0 30:-1 31:1 32:0 33:-2 34:0 35:0 36:0 37:0 38:0 39:0 40:0 41:-1 42:-1 43:1 44:2 45:1 46:0 47:0 48:0 49:2 50:1 51:-2 52:5 53:-2 54:1 55:0 56:2 57:1 58:0 59:0 60:0 
-0.1508496657134106 1:-1 2:-2 3:1 4:-5 5:1 6:-1 7:3 8:15 9:-3 10:0 11:0 12:0 13:-1 14:-1 15:1 16:-2 17:0 18:-1 19:3 20:17 21:0 22:0 23:0 24:0 25:1 26:0 27:-1 28:3 29:-1 30:1 31:2 32:17 33:0 34:0 35:0 36:0 37:1 38:0 39:-1 40:3 41:-1 42:1 43:-3 44:-22 45:0 46:0 47:0 48:0 49:1 50:0 51:-1 52:1 53:-1 54:0 55:-3 56:-24 57:-1 58:0 59:0 60:0 
-2.261333754968733 1:1 2:0 3:-1 4:0 5:-2 6:0 7:0 8:-1 9:-1 10:-1 11:0 12:0 13:0 14:0 15:-1 16:1 17:-1 18:-1 19:-1 20:0 21:0 22:-1 23:0 24:0 25:-1 26:0 27:-2 28:0 29:0 30:-1 31:0 32:0 33:0 34:0 35:0 36:0 37:0 38:0 39:0 40:0 41:0 42:-1 43:2 44:0 45:0 46:0 47:0 48:0 49:0 50:0 51:1 52:0 53:1 54:0 55:1 56:1 57:0 58:0 59:0 60:0 
-3.234053627357027 1:0 2:0 3:-2 4:1 5:-3 6:0 7:1 8:-2 9:-1 10:0 11:0 12:0 13:0 14:0 15:-1 16:1 17:-2 18:1 19:0 20:-1 21:-1 22:0 23:0 24:0 25:0 26:0 27:0 28:-1 29:0 30:-1 31:0 32:0 33:0 34:0 35:0 36:0 37:1 38:0 39:0 40:-2 41:2 42:-1 43:0 44:1 45:0 46:-1 47:0 48:0 49:1 50:0 51:1 52:-1 53:3 54:-1 55:0 56:2 57:0 58:-1 59:0 60:-1 
-0.09340391035391209 1:0 2:-2 3:1 4:2 5:-2 6:2 7:4 8:20 9:2 10:0 11:1 12:0 13:0 14:-1 15:0 16:2 17:2 18:2 19:-2 20:-14 21:-3 22:0 23:1 24:0 25:1 26:-1 27:0 28:2 29:2 30:1 31:-2 32:-14 33:-3 34:0 35:1 36:0 37:1 38:0 39:-1 40:-1 41:-1 42:-3 43:-2 44:-14 45:-3 46:0 47:0 48:0 49:1 50:0 51:-1 52:-3 53:-2 54:-5 55:5 56:20 57:4 58:0 59:0 60:0 
-0.05632550565543396 1:1 2:-1 3:1 4:0 5:-5 6:-4 7:1 8:0 9:-1 10:0 11:0 12:0 13:1 14:-1 15:0 16:0 17:-1 18:-2 19:1 20:0 21:0 22:0 23:0 24:0 25:1 26:-1 27:-1 28:-1 29:2 30:0 31:0 32:1 33:0 34:-1 35:0 36:0 37:0 38:0 39:-1 40:0 41:3 42:1 43:0 44:1 45:0 46:-1 47:0 48:0 49:0 50:0 51:-2 52:-1 53:3 54:2 55:0 56:2 57:1 58:-1 59:0 60:0 
-1.879236497050179 1:2 2:-1 3:1 4:-1 5:-1 6:-2 7:0 8:-1 9:-1 10:-1 11:0 12:-1 13:1 14:0 15:1 16:0 17:0 18:-1 19:0 20:-1 21:-1 22:-1 23:0 24:-1 25:1 26:0 27:0 28:-1 29:0 30:0 31:0 32:0 33:0 34:-1 35:0 36:-1 37:0 38:0 39:-1 40:-1 41:1 42:0 43:0 44:1 45:0 46:0 47:0 48:0 49:0 50:0 51:-2 52:0 53:2 54:1 55:1 56:1 57:0 58:0 59:0 60:0 
-0.055180871643048 1:1 2:-1 3:1 4:1 5:-2 6:-6 7:-2 8:2 9:-2 10:-1 11:0 12:-1 13:0 14:-1 15:0 16:1 17:-1 18:-6 19:-2 20:3 21:-2 22:0 23:0 24:0 25:0 26:-1 27:-1 28:2 29:0 30:-5 31:-1 32:3 33:-2 34:0 35:0 36:0 37:0 38:-1 39:-2 40:-1 41:2 42:3 43:0 44:3 45:0 46:-1 47:0 48:0 49:0 50:0 51:-2 52:-3 53:3 54:11 55:8 56:-7 57:6 58:-1 59:0 60:1 
-0.3520019236250356 1:0 2:-1 3:-1 4:0 5:-1 6:-9 7:-4 8:8 9:-2 10:0 11:0 12:-1 13:0 14:0 15:-1 16:-2 17:0 18:-1 19:4 20:-2 21:4 22:0 23:0 24:0 25:1 26:0 27:0 28:-1 29:1 30:1 31:3 32:-4 33:3 34:0 35:0 36:-1 37:1 38:0 39:0 40:0 41:1 42:3 43:4 44:-4 45:2 46:0 47:0 48:-1 49:1 50:0 51:1 52:-1 53:0 54:3 55:-3 56:4 57:-9 58:0 59:0 60:-1 
-132.0987639603791 1:6 2:3 3:0 4:-2 5:5 6:0 7:2 8:5 9:1 10:2 11:0 12:1 13:3 14:0 15:-1 16:1 17:2 18:1 19:1 20:3 21:0 22:1 23:0 24:0 25:0 26:-1 27:-1 28:2 29:-2 30:1 31:0 32:0 33:-1 34:0 35:0 36:-1 37:-2 38:-1 39:-2 40:1 41:-2 42:0 43:-1 44:-1 45:-1 46:-1 47:0 48:-1 49:-3 50:-2 51:0 52:-1 53:-4 54:-2 55:-2 56:-4 57:-2 58:-1 59:0 60:-1 
-132.0987639603791 1:5 2:1 3:-1 4:1 5:3 6:1 7:2 8:4 9:1 10:1 11:1 12:0 13:2 14:0 15:-1 16:2 17:-1 18:1 19:1 20:1 21:0 22:0 23:1 24:-1 25:0 26:0 27:-2 28:1 29:-1 30:0 31:0 32:0 33:0 34:-1 35:1 36:-1 37:-1 38:-1 39:0 40:-1 41:-3 42:-2 43:-1 44:-3 45:-1 46:-1 47:1 48:-1 49:-2 50:-1 51:1 52:-2 53:-1 54:-2 55:-1 56:-2 57:-1 58:-1 59:0 60:-1 
-132.0987639603791 1:-1 2:-2 3:1 4:-2 5:0 6:0 7:1 8:0 9:-2 10:0 11:0 12:0 13:-1 14:-1 15:1 16:-3 17:0 18:-1 19:1 20:0 21:-1 22:0 23:0 24:0 25:0 26:-1 27:0 28:-3 29:0 30:-1 31:1 32:0 33:-2 34:0 35:0 36:0 37:0 38:0 39:0 40:0 41:-1 42:-1 43:1 44:2 45:1 46:0 47:0 48:0 49:2 50:1 51:-2 52:5 53:-2 54:1 55:0 56:2 57:1 58:0 59:0 60:0 
-63.73162870153521 1:-1 2:0 3:-3 4:1 5:-2 6:0 7:-1 8:-1 9:-1 10:0 11:0 12:0 13:0 14:0 15:-1 16:1 17:-2 18:0 19:1 20:-1 21:-1 22:0 23:0 24:0 25:0 26:0 27:0 28:1 29:-1 30:1 31:0 32:0 33:-1 34:0 35:0 36:0 37:0 38:0 39:1 40:-1 41:1 42:-1 43:0 44:1 45:0 46:0 47:0 48:0 49:1 50:0 51:1 52:-2 53:3 54:-1 55:0 56:2 57:0 58:-1 59:0 60:0 
-3.847196656810053 1:-3 2:-5 3:1 4:-1 5:-8 6:-1 7:2 8:5 9:2 10:-1 11:0 12:-1 13:-3 14:-3 15:-1 16:-2 17:-4 18:-1 19:1 20:1 21:0 22:-1 23:0 24:-1 25:-1 26:-1 27:-2 28:-1 29:0 30:-1 31:-1 32:-4 33:-2 34:0 35:0 36:-1 37:4 38:2 39:-2 40:0 41:4 42:0 43:0 44:0 45:-1 46:1 47:0 48:0 49:7 50:5 51:1 52:1 53:5 54:1 55:2 56:1 57:0 58:2 59:0 60:1 
-127.1064230460119 1:-5 2:-4 3:-3 4:-2 5:-4 6:-2 7:-2 8:-3 9:-2 10:-1 11:1 12:-2 13:0 14:-1 15:-3 16:-1 17:0 18:-1 19:-1 20:1 21:-1 22:0 23:1 24:-1 25:3 26:2 27:0 28:0 29:1 30:0 31:1 32:2 33:0 34:1 35:1 36:0 37:3 38:2 39:1 40:1 41:1 42:0 43:1 44:2 45:0 46:1 47:0 48:0 49:1 50:-1 51:1 52:1 53:-2 54:0 55:1 56:-1 57:0 58:1 59:0 60:0 
-119.933926546485 1:-1 2:-1 3:-3 4:-2 5:1 6:-1 7:-1 8:1 9:-1 10:0 11:1 12:-1 13:2 14:2 15:0 16:-1 17:2 18:0 19:1 20:2 21:0 22:1 23:1 24:0 25:2 26:2 27:1 28:0 29:2 30:0 31:1 32:2 33:0 34:1 35:0 36:0 37:0 38:-1 39:1 40:0 41:-1 42:0 43:1 44:-1 45:0 46:1 47:0 48:0 49:-3 50:-4 51:0 52:3 53:-4 54:1 55:0 56:-3 57:-1 58:0 59:0 60:-1 
-132.0987639603791 1:6 2:3 3:0 4:-2 5:5 6:0 7:2 8:5 9:1 10:2 11:0 12:1 13:3 14:0 15:-1 16:1 17:2 18:1 19:1 20:3 21:0 22:1 23:0 24:0 25:0 26:-1 27:-1 28:2 29:-2 30:1 31:0 32:0 33:-1 34:0 35:0 36:-1 37:-2 38:-1 39:-2 40:1 41:-2 42:0 43:-1 44:-1 45:-1 46:-1 47:0 48:-1 49:-3 50:-2 51:0 52:-1 53:-4 54:-2 55:-2 56:-4 57:-2 58:-1 59:0 60:-1 
-132.0987639603791 1:5 2:1 3:-1 4:1 5:3 6:1 7:2 8:4 9:1 10:1 11:1 12:0 13:2 14:0 15:-1 16:2 17:-1 18:1 19:1 20:1 21:0 22:0 23:1 24:-1 25:0 26:0 27:-2 28:1 29:-1 30:0 31:0 32:0 33:0 34:-1 35:1 36:-1 37:-1 38:-1 39:0 40:-1 41:-3 42:-2 43:-1 44:-3 45:-1 46:-1 47:1 48:-1 49:-2 50:-1 51:1 52:-2 53:-1 54:-2 55:-1 56:-2 57:-1 58:-1 59:0 60:-1 
-132.0987639603791 1:-1 2:-2 3:1 4:-2 5:0 6:0 7:1 8:0 9:-2 10:0 11:0 12:0 13:-1 14:-1 15:1 16:-3 17:0 18:-1 19:1 20:0 21:-1 22:0 23:0 24:0 25:0 26:-1 27:0 28:-3 29:0 30:-1 31:1 32:0 33:-2 34:0 35:0 36:0 37:0 38:0 39:0 40:0 41:-1 42:-1 43:1 44:2 45:1 46:0 47:0 48:0 49:2 50:1 51:-2 52:5 53:-2 54:1 55:0 56:2 57:1 58:0 59:0 60:0 
-60.85384985761395 1:1 2:0 3:-1 4:0 5:-2 6:0 7:0 8:-1 9:-1 10:-1 11:0 12:0 13:0 14:0 15:-1 16:1 17:-1 18:-1 19:-1 20:0 21:0 22:-1 23:0 24:0 25:-1 26:0 27:-2 28:0 29:0 30:-1 31:0 32:0 33:0 34:0 35:0 36:0 37:0 38:0 39:0 40:0 41:0 42:-1 43:2 44:0 45:0 46:0 47:0 48:0 49:0 50:0 51:1 52:0 53:1 54:0 55:1 56:1 57:0 58:0 59:0 60:0 
-132.0987639603791 1:-1 2:0 3:-3 4:1 5:-2 6:0 7:-1 8:-1 9:-1 10:0 11:0 12:0 13:0 14:0 15:-1 16:1 17:-2 18:0 19:1 20:-1 21:-1 22:0 23:0 24:0 25:0 26:0 27:0 28:1 29:-1 30:1 31:0 32:0 33:-1 34:0 35:0 36:0 37:0 38:0 39:1 40:-1 41:1 42:-1 43:0 44:1 45:0 46:0 47:0 48:0 49:1 50:0 51:1 52:-2 53:3 54:-1 55:0 56:2 57:0 58:-1 59:0 60:0 
-19.75994411104814 1:2 2:-1 3:1 4:-1 5:-1 6:-2 7:0 8:-1 9:-1 10:-1 11:0 12:-1 13:1 14:0 15:1 16:0 17:0 18:-1 19:0 20:-1 21:-1 22:-1 23:0 24:-1 25:1 26:0 27:0 28:-1 29:0 30:0 31:0 32:0 33:0 34:-1 35:0 36:-1 37:0 38:0 39:-1 40:-1 41:1 42:0 43:0 44:1 45:0 46:0 47:0 48:0 49:0 50:0 51:-2 52:0 53:2 54:1 55:1 56:1 57:0 58:0 59:0 60:0 
-132.0987639603791 1:-3 2:-5 3:1 4:-1 5:-8 6:-1 7:2 8:5 9:2 10:-1 11:0 12:-1 13:-3 14:-3 15:-1 16:-2 17:-4 18:-1 19:1 20:1 21:0 22:-1 23:0 24:-1 25:-1 26:-1 27:-2 28:-1 29:0 30:-1 31:-1 32:-4 33:-2 34:0 35:0 36:-1 37:4 38:2 39:-2 40:0 41:4 42:0 43:0 44:0 45:-1 46:1 47:0 48:0 49:7 50:5 51:1 52:1 53:5 54:1 55:2 56:1 57:0 58:2 59:0 60:1 
-20.39871878345326 1:-5 2:-5 3:-1 4:-2 5:-6 6:-1 7:1 8:2 9:0 10:-1 11:1 12:-1 13:-3 14:-3 15:-2 16:-1 17:-2 18:-1 19:-1 20:-3 21:-2 22:0 23:1 24:-1 25:2 26:0 27:-2 28:0 29:2 30:0 31:0 32:1 33:-1 34:1 35:1 36:0 37:5 38:3 39:1 40:1 41:3 42:1 43:2 44:2 45:0 46:2 47:1 48:1 49:5 50:3 51:2 52:2 53:3 54:1 55:2 56:2 57:0 58:2 59:0 60:1 
-132.0987639603791 1:-5 2:-4 3:-3 4:-2 5:-4 6:-2 7:-2 8:-3 9:-2 10:-1 11:1 12:-2 13:0 14:-1 15:-3 16:-1 17:0 18:-1 19:-1 20:1 21:-1 22:0 23:1 24:-1 25:3 26:2 27:0 28:0 29:1 30:0 31:1 32:2 33:0 34:1 35:1 36:0 37:3 38:2 39:1 40:1 41:1 42:0 43:1 44:2 45:0 46:1 47:0 48:0 49:1 50:-1 51:1 52:1 53:-2 54:0 55:1 56:-1 57:0 58:1 59:0 60:0 
-127.0475530965095 1:-1 2:-1 3:-3 4:-2 5:1 6:-1 7:-1 8:1 9:-1 10:0 11:1 12:-1 13:2 14:2 15:0 16:-1 17:2 18:0 19:1 20:2 21:0 22:1 23:1 24:0 25:2 26:2 27:1 28:0 29:2 30:0 31:1 32:2 33:0 34:1 35:0 36:0 37:0 38:-1 39:1 40:0 41:-1 42:0 43:1 44:-1 45:0 46:1 47:0 48:0 49:-3 50:-4 51:0 52:3 53:-4 54:1 55:0 56:-3 57:-1 58:0 59:0 60:-1 
-48.17308325275528 1:5 2:4 3:0 4:-2 5:5 6:-1 7:2 8:5 9:1 10:2 11:0 12:1 13:3 14:1 15:0 16:-2 17:2 18:-1 19:2 20:2 21:1 22:2 23:0 24:1 25:0 26:-2 27:-1 28:1 29:-1 30:0 31:1 32:0 33:0 34:1 35:0 36:0 37:-3 38:-3 39:-1 40:2 41:-5 42:0 43:0 44:-3 45:-1 46:0 47:0 48:-1 49:-5 50:-3 51:-2 52:1 53:-5 54:-1 55:-1 56:-4 57:-1 58:-1 59:0 60:-1 
-132.0987639603791 1:6 2:3 3:0 4:-2 5:5 6:0 7:2 8:5 9:1 10:2 11:0 12:1 13:3 14:0 15:-1 16:1 17:2 18:1 19:1 20:3 21:0 22:1 23:0 24:0 25:0 26:-1 27:-1 28:2 29:-2 30:1 31:0 32:0 33:-1 34:0 35:0 36:-1 37:-2 38:-1 39:-2 40:1 41:-2 42:0 43:-1 44:-1 45:-1 46:-1 47:0 48:-1 49:-3 50:-2 51:0 52:-1 53:-4 54:-2 55:-2 56:-4 57:-2 58:-1 59:0 60:-1 
-127.0959452503466 1:5 2:1 3:-1 4:1 5:3 6:1 7:2 8:4 9:1 10:1 11:1 12:0 13:2 14:0 15:-1 16:2 17:-1 18:1 19:1 20:1 21:0 22:0 23:1 24:-1 25:0 26:0 27:-2 28:1 29:-1 30:0 31:0 32:0 33:0 34:-1 35:1 36:-1 37:-1 38:-1 39:0 40:-1 41:-3 42:-2 43:-1 44:-3 45:-1 46:-1 47:1 48:-1 49:-2 50:-1 51:1 52:-2 53:-1 54:-2 55:-1 56:-2 57:-1 58:-1 59:0 60:-1 
-79.44927166990773 1:0 2:-1 3:0 4:0 5:0 6:0 7:-2 8:-9 9:-2 10:0 11:0 12:0 13:0 14:-1 15:0 16:-1 17:0 18:0 19:1 20:2 21:-1 22:0 23:0 24:0 25:0 26:0 27:0 28:-2 29:0 30:-1 31:1 32:2 33:0 34:0 35:0 36:0 37:1 38:0 39:-1 40:-2 41:0 42:-1 43:1 44:2 45:-1 46:0 47:0 48:0 49:1 50:1 51:-1 52:1 53:-1 54:-1 55:1 56:4 57:2 58:0 59:0 60:0 
-132.0987639603791 1:-1 2:-2 3:1 4:-2 5:0 6:0 7:1 8:0 9:-2 10:0 11:0 12:0 13:-1 14:-1 15:1 16:-3 17:0 18:-1 19:1 20:0 21:-1 22:0 23:0 24:0 25:0 26:-1 27:0 28:-3 29:0 30:-1 31:1 32:0 33:-2 34:0 35:0 36:0 37:0 38:0 39:0 40:0 41:-1 42:-1 43:1 44:2 45:1 46:0 47:0 48:0 49:2 50:1 51:-2 52:5 53:-2 54:1 55:0 56:2 57:1 58:0 59:0 60:0 
-5.5735279262833 1:-1 2:-2 3:1 4:-5 5:1 6:-1 7:3 8:15 9:-3 10:0 11:0 12:0 13:-1 14:-1 15:1 16:-2 17:0 18:-1 19:3 20:17 21:0 22:0 23:0 24:0 25:1 26:0 27:-1 28:3 29:-1 30:1 31:2 32:17 33:0 34:0 35:0 36:0 37:1 38:0 39:-1 40:3 41:-1 42:1 43:-3 44:-22 45:0 46:0 47:0 48:0 49:1 50:0 51:-1 52:1 53:-1 54:0 55:-3 56:-24 57:-1 58:0 59:0 60:0 
-132.0987639603791 1:1 2:0 3:-1 4:0 5:-2 6:0 7:0 8:-1 9:-1 10:-1 11:0 12:0 13:0 14:0 15:-1 16:1 17:-1 18:-1 19:-1 20:0 21:0 22:-1 23:0 24:0 25:-1 26:0 27:-2 28:0 29:0 30:-1 31:0 32:0 33:0 34:0 35:0 36:0 37:0 38:0 39:0 40:0 41:0 42:-1 43:2 44:0 45:0 46:0 47:0 48:0 49:0 50:0 51:1 52:0 53:1 54:0 55:1 56:1 57:0 58:0 59:0 60:0 
-96.39966509386599 1:1 2:0 3:-1 4:1 5:-2 6:0 7:-1 8:0 9:-1 10:-1 11:0 12:0 13:0 14:0 15:-2 16:0 17:-1 18:0 19:0 20:0 21:-1 22:0 23:0 24:0 25:1 26:0 27:0 28:0 29:-1 30:0 31:2 32:0 33:-1 34:0 35:0 36:0 37:1 38:0 39:1 40:0 41:0 42:1 43:1 44:1 45:-1 46:0 47:0 48:0 49:1 50:0 51:2 52:-2 53:2 54:-1 55:1 56:2 57:0 58:0 59:0 60:0 
-132.0987639603791 1:-1 2:0 3:-3 4:1 5:-2 6:0 7:-1 8:-1 9:-1 10:0 11:0 12:0 13:0 14:0 15:-1 16:1 17:-2 18:0 19:1 20:-1 21:-1 22:0 23:0 24:0 25:0 26:0 27:0 28:1 29:-1 30:1 31:0 32:0 33:-1 34:0 35:0 36:0 37:0 38:0 39:1 40:-1 41:1 42:-1 43:0 44:1 45:0 46:0 47:0 48:0 49:1 50:0 51:1 52:-2 53:3 54:-1 55:0 56:2 57:0 58:-1 59:0 60:0 
-116.2146858050968 1:0 2:0 3:-2 4:1 5:-3 6:0 7:1 8:-2 9:-1 10:0 11:0 12:0 13:0 14:0 15:-1 16:1 17:-2 18:1 19:0 20:-1 21:-1 22:0 23:0 24:0 25:0 26:0 27:0 28:-1 29:0 30:-1 31:0 32:0 33:0 34:0 35:0 36:0 37:1 38:0 39:0 40:-2 41:2 42:-1 43:0 44:1 45:0 46:-1 47:0 48:0 49:1 50:0 51:1 52:-1 53:3 54:-1 55:0 56:2 57:0 58:-1 59:0 60:-1 
-3.506501367437962 1:0 2:-2 3:1 4:2 5:-2 6:2 7:4 8:20 9:2 10:0 11:1 12:0 13:0 14:-1 15:0 16:2 17:2 18:2 19:-2 20:-14 21:-3 22:0 23:1 24:0 25:1 26:-1 27:0 28:2 29:2 30:1 31:-2 32:-14 33:-3 34:0 35:1 36:0 37:1 38:0 39:-1 40:-1 41:-1 42:-3 43:-2 44:-14 45:-3 46:0 47:0 48:0 49:1 50:0 51:-1 52:-3 53:-2 54:-5 55:5 56:20 57:4 58:0 59:0 60:0 
-6.309826192122254 1:1 2:-1 3:1 4:0 5:-5 6:-4 7:1 8:0 9:-1 10:0 11:0 12:0 13:1 14:-1 15:0 16:0 17:-1 18:-2 19:1 20:0 21:0 22:0 23:0 24:0 25:1 26:-1 27:-1 28:-1 29:2 30:0 31:0 32:1 33:0 34:-1 35:0 36:0 37:0 38:0 39:-1 40:0 41:3 42:1 43:0 44:1 45:0 46:-1 47:0 48:0 49:0 50:0 51:-2 52:-1 53:3 54:2 55:0 56:2 57:1 58:-1 59:0 60:0 
-132.0987639603791 1:2 2:-1 3:1 4:-1 5:-1 6:-2 7:0 8:-1 9:-1 10:-1 11:0 12:-1 13:1 14:0 15:1 16:0 17:0 18:-1 19:0 20:-1 21:-1 22:-1 23:0 24:-1 25:1 26:0 27:0 28:-1 29:0 30:0 31:0 32:0 33:0 34:-1 35:0 36:-1 37:0 38:0 39:-1 40:-1 41:1 42:0 43:0 44:1 45:0 46:0 47:0 48:0 49:0 50:0 51:-2 52:0 53:2 54:1 55:1 56:1 57:0 58:0 59:0 60:0 
-48.16858097776424 1:1 2:-1 3:1 4:1 5:-2 6:-6 7:-2 8:2 9:-2 10:-1 11:0 12:-1 13:0 14:-1 15:0 16:1 17:-1 18:-6 19:-2 20:3 21:-2 22:0 23:0 24:0 25:0 26:-1 27:-1 28:2 29:0 30:-5 31:-1 32:3 33:-2 34:0 35:0 36:0 37:0 38:-1 39:-2 40:-1 41:2 42:3 43:0 44:3 45:0 46:-1 47:0 48:0 49:0 50:0 51:-2 52:-3 53:3 54:11 55:8 56:-7 57:6 58:-1 59:0 60:1 
-15.10416948100225 1:0 2:-1 3:1 4:1 5:-2 6:-10 7:-4 8:5 9:-4 10:0 11:0 12:-1 13:0 14:-1 15:0 16:2 17:-1 18:-9 19:-3 20:5 21:-4 22:0 23:0 24:-1 25:0 26:-1 27:-1 28:-1 29:1 30:-1 31:-2 32:5 33:-2 34:-1 35:0 36:-1 37:0 38:0 39:-1 40:-3 41:2 42:7 43:6 44:-5 45:4 46:-1 47:0 48:0 49:1 50:0 51:0 52:-2 53:3 54:9 55:5 56:-7 57:3 58:-1 59:0 60:-1 
-8.621321874757014 1:0 2:-1 3:-1 4:0 5:-1 6:-9 7:-4 8:8 9:-2 10:0 11:0 12:-1 13:0 14:0 15:-1 16:-2 17:0 18:-1 19:4 20:-2 21:4 22:0 23:0 24:0 25:1 26:0 27:0 28:-1 29:1 30:1 31:3 32:-4 33:3 34:0 35:0 36:-1 37:1 38:0 39:0 40:0 41:1 42:3 43:4 44:-4 45:2 46:0 47:0 48:-1 49:1 50:0 51:1 52:-1 53:0 54:3 55:-3 56:4 57:-9 58:0 59:0 60:-1 
-51.51459478361377 1:0 2:0 3:-2 4:-2 5:0 6:-3 7:4 8:-1 9:6 10:0 11:0 12:1 13:1 14:0 15:-1 16:-1 17:1 18:-1 19:3 20:-3 21:5 22:0 23:0 24:0 25:1 26:0 27:-1 28:0 29:1 30:1 31:4 32:-3 33:4 34:0 35:0 36:0 37:1 38:0 39:0 40:-1 41:0 42:1 43:-3 44:5 45:-7 46:0 47:0 48:0 49:1 50:0 51:1 52:0 53:0 54:-1 55:-4 56:6 57:-8 58:0 59:0 60:-1 
