svm_type c_svc
kernel_type rbf
gamma 6.10352e-005
nr_class 2
total_sv 72
rho -0.370187
label 2 3
nr_sv 39 33
SV
23.44827586206897 1:0 2:0 3:0 4:0 5:1 6:0 7:0 8:0 9:1 10:0 11:1 12:0 13:0 14:0 15:0 16:0 17:0 18:0 19:0 20:0 21:0 22:0 23:0 24:0 
23.44827586206897 1:0 2:0 3:1 4:0 5:0 6:0 7:0 8:0 9:0 10:1 11:0 12:0 13:0 14:0 15:0 16:0 17:0 18:0 19:1 20:0 21:0 22:0 23:0 24:0 
23.44827586206897 1:0 2:0 3:1 4:1 5:0 6:1 7:-1 8:0 9:1 10:0 11:0 12:0 13:0 14:0 15:0 16:0 17:0 18:0 19:1 20:0 21:-1 22:0 23:0 24:0 
23.44827586206897 1:0 2:0 3:0 4:0 5:1 6:0 7:-2 8:-1 9:1 10:0 11:0 12:-1 13:0 14:0 15:-1 16:0 17:0 18:0 19:2 20:0 21:0 22:0 23:0 24:0 
23.44827586206897 1:0 2:-1 3:0 4:-1 5:1 6:0 7:-1 8:-2 9:0 10:0 11:1 12:0 13:-1 14:0 15:1 16:2 17:0 18:1 19:1 20:1 21:0 22:0 23:0 24:0 
2.522975650616568 1:1 2:0 3:0 4:2 5:0 6:0 7:1 8:-4 9:0 10:0 11:0 12:0 13:-1 14:0 15:0 16:-1 17:1 18:1 19:-1 20:3 21:0 22:0 23:0 24:-1 
23.44827586206897 1:0 2:-1 3:0 4:1 5:0 6:0 7:1 8:-1 9:0 10:0 11:1 12:0 13:0 14:0 15:0 16:-1 17:0 18:0 19:0 20:2 21:0 22:1 23:0 24:0 
23.44827586206897 1:0 2:0 3:0 4:1 5:0 6:-1 7:1 8:-1 9:-1 10:1 11:0 12:0 13:0 14:0 15:0 16:0 17:0 18:2 19:0 20:2 21:0 22:0 23:0 24:-1 
23.44827586206897 1:0 2:0 3:0 4:1 5:1 6:-1 7:0 8:-1 9:0 10:0 11:0 12:0 13:0 14:0 15:1 16:-1 17:0 18:2 19:0 20:1 21:0 22:0 23:0 24:0 
23.44827586206897 1:0 2:0 3:0 4:0 5:1 6:0 7:0 8:0 9:1 10:0 11:1 12:0 13:0 14:0 15:0 16:0 17:0 18:0 19:0 20:0 21:0 22:0 23:0 24:0 
23.44827586206897 1:0 2:0 3:1 4:0 5:0 6:0 7:0 8:0 9:0 10:1 11:0 12:0 13:0 14:0 15:0 16:0 17:0 18:0 19:1 20:0 21:0 22:0 23:0 24:0 
23.44827586206897 1:0 2:0 3:1 4:1 5:0 6:1 7:-1 8:0 9:1 10:0 11:0 12:0 13:0 14:0 15:0 16:0 17:0 18:0 19:1 20:0 21:-1 22:0 23:0 24:0 
23.44827586206897 1:0 2:0 3:0 4:0 5:1 6:0 7:-2 8:-1 9:1 10:0 11:0 12:-1 13:0 14:0 15:-1 16:0 17:0 18:0 19:2 20:0 21:0 22:0 23:0 24:0 
23.44827586206897 1:0 2:-1 3:0 4:-1 5:1 6:0 7:-1 8:-2 9:0 10:0 11:1 12:0 13:-1 14:0 15:1 16:2 17:0 18:1 19:1 20:1 21:0 22:0 23:0 24:0 
23.44827586206897 1:1 2:0 3:0 4:2 5:0 6:0 7:1 8:-4 9:0 10:0 11:0 12:0 13:-1 14:0 15:0 16:-1 17:1 18:1 19:-1 20:3 21:0 22:0 23:0 24:-1 
23.44827586206897 1:0 2:-1 3:0 4:1 5:0 6:0 7:1 8:-1 9:0 10:0 11:1 12:0 13:0 14:0 15:0 16:-1 17:0 18:0 19:0 20:2 21:0 22:1 23:0 24:0 
23.44827586206897 1:0 2:0 3:0 4:1 5:0 6:-1 7:1 8:-1 9:-1 10:1 11:0 12:0 13:0 14:0 15:0 16:0 17:0 18:2 19:0 20:2 21:0 22:0 23:0 24:-1 
23.44827586206897 1:0 2:0 3:0 4:1 5:1 6:-1 7:0 8:-1 9:0 10:0 11:0 12:0 13:0 14:0 15:1 16:-1 17:0 18:2 19:0 20:1 21:0 22:0 23:0 24:0 
23.44827586206897 1:0 2:0 3:0 4:0 5:1 6:0 7:0 8:0 9:1 10:0 11:1 12:0 13:0 14:0 15:0 16:0 17:0 18:0 19:0 20:0 21:0 22:0 23:0 24:0 
23.44827586206897 1:0 2:0 3:1 4:0 5:0 6:0 7:0 8:0 9:0 10:1 11:0 12:0 13:0 14:0 15:0 16:0 17:0 18:0 19:1 20:0 21:0 22:0 23:0 24:0 
23.44827586206897 1:0 2:0 3:1 4:1 5:0 6:1 7:-1 8:0 9:1 10:0 11:0 12:0 13:0 14:0 15:0 16:0 17:0 18:0 19:1 20:0 21:-1 22:0 23:0 24:0 
23.44827586206897 1:0 2:0 3:0 4:0 5:1 6:0 7:-2 8:-1 9:1 10:0 11:0 12:-1 13:0 14:0 15:-1 16:0 17:0 18:0 19:2 20:0 21:0 22:0 23:0 24:0 
23.44827586206897 1:-1 2:-1 3:0 4:0 5:0 6:-1 7:-1 8:-2 9:0 10:0 11:0 12:0 13:0 14:0 15:0 16:1 17:0 18:0 19:2 20:1 21:0 22:0 23:0 24:0 
23.44827586206897 1:0 2:-1 3:0 4:-1 5:1 6:0 7:-1 8:-2 9:0 10:0 11:1 12:0 13:-1 14:0 15:1 16:2 17:0 18:1 19:1 20:1 21:0 22:0 23:0 24:0 
23.44827586206897 1:1 2:0 3:0 4:2 5:0 6:0 7:1 8:-4 9:0 10:0 11:0 12:0 13:-1 14:0 15:0 16:-1 17:1 18:1 19:-1 20:3 21:0 22:0 23:0 24:-1 
23.44827586206897 1:0 2:-1 3:0 4:1 5:0 6:0 7:1 8:-1 9:0 10:0 11:1 12:0 13:0 14:0 15:0 16:-1 17:0 18:0 19:0 20:2 21:0 22:1 23:0 24:0 
23.44827586206897 1:0 2:0 3:0 4:1 5:0 6:-1 7:1 8:-1 9:-1 10:1 11:0 12:0 13:0 14:0 15:0 16:0 17:0 18:2 19:0 20:2 21:0 22:0 23:0 24:-1 
23.44827586206897 1:0 2:0 3:0 4:1 5:1 6:-1 7:0 8:-1 9:0 10:0 11:0 12:0 13:0 14:0 15:1 16:-1 17:0 18:2 19:0 20:1 21:0 22:0 23:0 24:0 
23.44827586206897 1:0 2:0 3:0 4:0 5:1 6:0 7:0 8:0 9:1 10:0 11:1 12:0 13:0 14:0 15:0 16:0 17:0 18:0 19:0 20:0 21:0 22:0 23:0 24:0 
23.44827586206897 1:0 2:0 3:1 4:0 5:0 6:0 7:0 8:0 9:0 10:1 11:0 12:0 13:0 14:0 15:0 16:0 17:0 18:0 19:1 20:0 21:0 22:0 23:0 24:0 
23.44827586206897 1:0 2:0 3:1 4:1 5:0 6:1 7:-1 8:0 9:1 10:0 11:0 12:0 13:0 14:0 15:0 16:0 17:0 18:0 19:1 20:0 21:-1 22:0 23:0 24:0 
5.321179994769683 1:-1 2:-1 3:1 4:1 5:0 6:0 7:-2 8:0 9:1 10:0 11:0 12:0 13:0 14:0 15:0 16:0 17:0 18:-1 19:3 20:0 21:0 22:0 23:0 24:0 
23.44827586206897 1:0 2:0 3:0 4:0 5:1 6:0 7:-2 8:-1 9:1 10:0 11:0 12:-1 13:0 14:0 15:-1 16:0 17:0 18:0 19:2 20:0 21:0 22:0 23:0 24:0 
14.37693875362714 1:-1 2:-1 3:0 4:0 5:0 6:-1 7:-1 8:-2 9:0 10:0 11:0 12:0 13:0 14:0 15:0 16:1 17:0 18:0 19:2 20:1 21:0 22:0 23:0 24:0 
23.44827586206897 1:0 2:-1 3:0 4:-1 5:1 6:0 7:-1 8:-2 9:0 10:0 11:1 12:0 13:-1 14:0 15:1 16:2 17:0 18:1 19:1 20:1 21:0 22:0 23:0 24:0 
23.44827586206897 1:1 2:0 3:0 4:2 5:0 6:0 7:1 8:-4 9:0 10:0 11:0 12:0 13:-1 14:0 15:0 16:-1 17:1 18:1 19:-1 20:3 21:0 22:0 23:0 24:-1 
23.44827586206897 1:0 2:-1 3:0 4:1 5:0 6:0 7:1 8:-1 9:0 10:0 11:1 12:0 13:0 14:0 15:0 16:-1 17:0 18:0 19:0 20:2 21:0 22:1 23:0 24:0 
23.44827586206897 1:0 2:0 3:0 4:1 5:0 6:-1 7:1 8:-1 9:-1 10:1 11:0 12:0 13:0 14:0 15:0 16:0 17:0 18:2 19:0 20:2 21:0 22:0 23:0 24:-1 
23.44827586206897 1:0 2:0 3:0 4:1 5:1 6:-1 7:0 8:-1 9:0 10:0 11:0 12:0 13:0 14:0 15:1 16:-1 17:0 18:2 19:0 20:1 21:0 22:0 23:0 24:0 
-26.55172413793103 1:0 2:0 3:0 4:0 5:0 6:0 7:0 8:-2 9:-1 10:0 11:0 12:0 13:0 14:0 15:0 16:0 17:0 18:0 19:1 20:1 21:1 22:0 23:0 24:-1 
-26.55172413793103 1:0 2:0 3:0 4:0 5:0 6:0 7:1 8:1 9:0 10:0 11:0 12:0 13:0 14:0 15:0 16:0 17:0 18:0 19:-1 20:-1 21:0 22:0 23:0 24:0 
-26.55172413793103 1:0 2:0 3:0 4:0 5:0 6:0 7:2 8:0 9:-1 10:0 11:0 12:0 13:0 14:0 15:0 16:0 17:0 18:0 19:-2 20:-1 21:0 22:0 23:0 24:0 
-26.55172413793103 1:0 2:0 3:0 4:0 5:0 6:0 7:2 8:1 9:-1 10:0 11:0 12:0 13:0 14:0 15:0 16:0 17:0 18:0 19:-2 20:-1 21:0 22:0 23:0 24:0 
-26.55172413793103 1:0 2:0 3:0 4:0 5:0 6:0 7:1 8:1 9:-1 10:0 11:0 12:0 13:0 14:0 15:0 16:0 17:0 18:0 19:0 20:-1 21:1 22:0 23:0 24:0 
-26.55172413793103 1:0 2:0 3:0 4:0 5:0 6:0 7:1 8:0 9:-1 10:0 11:0 12:0 13:0 14:0 15:0 16:0 17:0 18:0 19:-1 20:-1 21:1 22:0 23:0 24:0 
-26.55172413793103 1:0 2:0 3:0 4:0 5:0 6:0 7:1 8:0 9:-1 10:0 11:0 12:0 13:0 14:0 15:0 16:0 17:0 18:0 19:0 20:0 21:0 22:0 23:0 24:0 
-26.55172413793103 1:0 2:0 3:0 4:0 5:0 6:0 7:2 8:0 9:-1 10:0 11:0 12:0 13:0 14:0 15:0 16:0 17:0 18:0 19:-2 20:-1 21:0 22:0 23:0 24:0 
-26.55172413793103 1:0 2:0 3:0 4:0 5:0 6:0 7:0 8:-2 9:-1 10:0 11:0 12:0 13:0 14:0 15:0 16:0 17:0 18:0 19:1 20:1 21:1 22:0 23:0 24:-1 
-26.55172413793103 1:0 2:0 3:0 4:0 5:0 6:0 7:1 8:1 9:0 10:0 11:0 12:0 13:0 14:0 15:0 16:0 17:0 18:0 19:-1 20:-1 21:0 22:0 23:0 24:0 
-26.55172413793103 1:0 2:0 3:0 4:0 5:0 6:0 7:2 8:0 9:-1 10:0 11:0 12:0 13:0 14:0 15:0 16:0 17:0 18:0 19:-2 20:-1 21:0 22:0 23:0 24:0 
-26.55172413793103 1:0 2:0 3:0 4:0 5:0 6:0 7:2 8:1 9:-1 10:0 11:0 12:0 13:0 14:0 15:0 16:0 17:0 18:0 19:-2 20:-1 21:0 22:0 23:0 24:0 
-26.55172413793103 1:0 2:0 3:0 4:0 5:0 6:0 7:1 8:1 9:-1 10:0 11:0 12:0 13:0 14:0 15:0 16:0 17:0 18:0 19:0 20:-1 21:1 22:0 23:0 24:0 
-26.55172413793103 1:0 2:0 3:0 4:0 5:0 6:0 7:1 8:0 9:-1 10:0 11:0 12:0 13:0 14:0 15:0 16:0 17:0 18:0 19:-1 20:-1 21:1 22:0 23:0 24:0 
-26.55172413793103 1:0 2:0 3:0 4:0 5:0 6:0 7:1 8:0 9:-1 10:0 11:0 12:0 13:0 14:0 15:0 16:0 17:0 18:0 19:0 20:0 21:0 22:0 23:0 24:0 
-26.55172413793103 1:0 2:0 3:0 4:0 5:0 6:0 7:2 8:0 9:-1 10:0 11:0 12:0 13:0 14:0 15:0 16:0 17:0 18:0 19:-2 20:-1 21:0 22:0 23:0 24:0 
-26.55172413793103 1:0 2:0 3:0 4:0 5:0 6:0 7:0 8:-2 9:-1 10:0 11:0 12:0 13:0 14:0 15:0 16:0 17:0 18:0 19:1 20:1 21:1 22:0 23:0 24:-1 
-26.55172413793103 1:0 2:0 3:0 4:0 5:0 6:0 7:1 8:1 9:0 10:0 11:0 12:0 13:0 14:0 15:0 16:0 17:0 18:0 19:-1 20:-1 21:0 22:0 23:0 24:0 
-26.55172413793103 1:0 2:0 3:0 4:0 5:0 6:0 7:2 8:0 9:-1 10:0 11:0 12:0 13:0 14:0 15:0 16:0 17:0 18:0 19:-2 20:-1 21:0 22:0 23:0 24:0 
-26.55172413793103 1:0 2:0 3:0 4:0 5:0 6:0 7:2 8:1 9:-1 10:0 11:0 12:0 13:0 14:0 15:0 16:0 17:0 18:0 19:-2 20:-1 21:0 22:0 23:0 24:0 
-26.55172413793103 1:0 2:0 3:0 4:0 5:0 6:0 7:1 8:1 9:-1 10:0 11:0 12:0 13:0 14:0 15:0 16:0 17:0 18:0 19:0 20:-1 21:1 22:0 23:0 24:0 
-26.55172413793103 1:0 2:0 3:0 4:0 5:0 6:0 7:1 8:0 9:-1 10:0 11:0 12:0 13:0 14:0 15:0 16:0 17:0 18:0 19:-1 20:-1 21:1 22:0 23:0 24:0 
-26.55172413793103 1:0 2:0 3:0 4:0 5:0 6:0 7:1 8:0 9:-1 10:0 11:0 12:0 13:0 14:0 15:0 16:0 17:0 18:0 19:0 20:0 21:0 22:0 23:0 24:0 
-26.55172413793103 1:0 2:0 3:0 4:0 5:0 6:0 7:2 8:0 9:-1 10:0 11:0 12:0 13:0 14:0 15:0 16:0 17:0 18:0 19:-2 20:-1 21:0 22:0 23:0 24:0 
-26.55172413793103 1:0 2:0 3:0 4:0 5:0 6:0 7:0 8:-2 9:-1 10:0 11:0 12:0 13:0 14:0 15:0 16:0 17:0 18:0 19:1 20:1 21:1 22:0 23:0 24:-1 
-26.55172413793103 1:0 2:0 3:0 4:0 5:0 6:0 7:1 8:1 9:0 10:0 11:0 12:0 13:0 14:0 15:0 16:0 17:0 18:0 19:-1 20:-1 21:0 22:0 23:0 24:0 
-26.55172413793103 1:0 2:0 3:0 4:0 5:0 6:0 7:2 8:0 9:-1 10:0 11:0 12:0 13:0 14:0 15:0 16:0 17:0 18:0 19:-2 20:-1 21:0 22:0 23:0 24:0 
-26.55172413793103 1:0 2:0 3:0 4:0 5:0 6:0 7:2 8:1 9:-1 10:0 11:0 12:0 13:0 14:0 15:0 16:0 17:0 18:0 19:-2 20:-1 21:0 22:0 23:0 24:0 
-26.55172413793103 1:0 2:0 3:0 4:0 5:0 6:0 7:1 8:1 9:-1 10:0 11:0 12:0 13:0 14:0 15:0 16:0 17:0 18:0 19:0 20:-1 21:1 22:0 23:0 24:0 
-16.70385301970321 1:0 2:0 3:0 4:0 5:0 6:0 7:2 8:1 9:-1 10:0 11:0 12:0 13:0 14:0 15:0 16:0 17:0 18:0 19:-2 20:-1 21:1 22:0 23:0 24:0 
-26.55172413793103 1:0 2:0 3:0 4:0 5:0 6:0 7:1 8:0 9:-1 10:0 11:0 12:0 13:0 14:0 15:0 16:0 17:0 18:0 19:-1 20:-1 21:1 22:0 23:0 24:0 
-26.55172413793103 1:0 2:0 3:0 4:0 5:0 6:0 7:1 8:0 9:-1 10:0 11:0 12:0 13:0 14:0 15:0 16:0 17:0 18:0 19:0 20:0 21:0 22:0 23:0 24:0 
-26.55172413793103 1:0 2:0 3:0 4:0 5:0 6:0 7:2 8:0 9:-1 10:0 11:0 12:0 13:0 14:0 15:0 16:0 17:0 18:0 19:-2 20:-1 21:0 22:0 23:0 24:0 
