svm_type c_svc
kernel_type rbf
gamma 6.10352e-005
nr_class 2
total_sv 25
rho -0.6308
label 2 3
nr_sv 10 15
SV
27 1:-1 2:-1 3:2 4:1 5:1 6:1 7:-2 8:0 9:2 10:1 11:1 12:0 13:-1 14:-1 15:2 16:1 17:0 18:1 19:-2 20:0 21:1 22:1 23:0 24:0 25:-1 26:-1 27:1 28:1 29:0 30:1 31:-1 32:0 33:1 34:0 35:0 36:0 37:-1 38:-1 39:0 40:0 41:0 42:0 43:1 44:0 45:-1 46:0 47:0 48:0 49:0 50:0 51:-1 52:-1 53:0 54:-1 55:6 56:0 57:-2 58:0 59:0 60:0 
18.27247836138687 1:1 2:-1 3:0 4:5 5:0 6:-2 7:3 8:-9 9:-1 10:0 11:1 12:1 13:-1 14:-1 15:0 16:2 17:1 18:-1 19:1 20:-2 21:-1 22:0 23:1 24:0 25:-1 26:0 27:0 28:0 29:1 30:-1 31:0 32:1 33:-1 34:1 35:0 36:0 37:-1 38:0 39:0 40:-1 41:1 42:2 43:-1 44:4 45:0 46:0 47:0 48:-1 49:-1 50:0 51:1 52:-3 53:0 54:5 55:-1 56:6 57:0 58:0 59:0 60:-1 
27 1:-1 2:-1 3:2 4:1 5:1 6:1 7:-2 8:0 9:2 10:1 11:1 12:0 13:-1 14:-1 15:2 16:1 17:0 18:1 19:-2 20:0 21:1 22:1 23:0 24:0 25:-1 26:-1 27:1 28:1 29:0 30:1 31:-1 32:0 33:1 34:0 35:0 36:0 37:-1 38:-1 39:0 40:0 41:0 42:0 43:1 44:0 45:-1 46:0 47:0 48:0 49:0 50:0 51:-1 52:-1 53:0 54:-1 55:6 56:0 57:-2 58:0 59:0 60:0 
27 1:1 2:-1 3:0 4:5 5:0 6:-2 7:3 8:-9 9:-1 10:0 11:1 12:1 13:-1 14:-1 15:0 16:2 17:1 18:-1 19:1 20:-2 21:-1 22:0 23:1 24:0 25:-1 26:0 27:0 28:0 29:1 30:-1 31:0 32:1 33:-1 34:1 35:0 36:0 37:-1 38:0 39:0 40:-1 41:1 42:2 43:-1 44:4 45:0 46:0 47:0 48:-1 49:-1 50:0 51:1 52:-3 53:0 54:5 55:-1 56:6 57:0 58:0 59:0 60:-1 
27 1:-1 2:-1 3:2 4:1 5:1 6:1 7:-2 8:0 9:2 10:1 11:1 12:0 13:-1 14:-1 15:2 16:1 17:0 18:1 19:-2 20:0 21:1 22:1 23:0 24:0 25:-1 26:-1 27:1 28:1 29:0 30:1 31:-1 32:0 33:1 34:0 35:0 36:0 37:-1 38:-1 39:0 40:0 41:0 42:0 43:1 44:0 45:-1 46:0 47:0 48:0 49:0 50:0 51:-1 52:-1 53:0 54:-1 55:6 56:0 57:-2 58:0 59:0 60:0 
24.91009689141408 1:-1 2:-1 3:2 4:1 5:1 6:1 7:-4 8:-1 9:2 10:1 11:0 12:-1 13:-1 14:-1 15:1 16:1 17:1 18:1 19:-3 20:-1 21:2 22:0 23:0 24:-1 25:-1 26:-1 27:0 28:0 29:1 30:0 31:-1 32:-1 33:0 34:0 35:0 36:-1 37:0 38:0 39:-1 40:-1 41:1 42:-1 43:4 44:-1 45:-1 46:0 47:0 48:-1 49:0 50:0 51:-2 52:-1 53:0 54:-1 55:8 56:0 57:-2 58:0 59:0 60:0 
27 1:1 2:-1 3:0 4:5 5:0 6:-2 7:3 8:-9 9:-1 10:0 11:1 12:1 13:-1 14:-1 15:0 16:2 17:1 18:-1 19:1 20:-2 21:-1 22:0 23:1 24:0 25:-1 26:0 27:0 28:0 29:1 30:-1 31:0 32:1 33:-1 34:1 35:0 36:0 37:-1 38:0 39:0 40:-1 41:1 42:2 43:-1 44:4 45:0 46:0 47:0 48:-1 49:-1 50:0 51:1 52:-3 53:0 54:5 55:-1 56:6 57:0 58:0 59:0 60:-1 
27 1:-1 2:-1 3:2 4:1 5:1 6:1 7:-2 8:0 9:2 10:1 11:1 12:0 13:-1 14:-1 15:2 16:1 17:0 18:1 19:-2 20:0 21:1 22:1 23:0 24:0 25:-1 26:-1 27:1 28:1 29:0 30:1 31:-1 32:0 33:1 34:0 35:0 36:0 37:-1 38:-1 39:0 40:0 41:0 42:0 43:1 44:0 45:-1 46:0 47:0 48:0 49:0 50:0 51:-1 52:-1 53:0 54:-1 55:6 56:0 57:-2 58:0 59:0 60:0 
26.57151724790938 1:-1 2:-1 3:2 4:1 5:1 6:1 7:-4 8:-1 9:2 10:1 11:0 12:-1 13:-1 14:-1 15:1 16:1 17:1 18:1 19:-3 20:-1 21:2 22:0 23:0 24:-1 25:-1 26:-1 27:0 28:0 29:1 30:0 31:-1 32:-1 33:0 34:0 35:0 36:-1 37:0 38:0 39:-1 40:-1 41:1 42:-1 43:4 44:-1 45:-1 46:0 47:0 48:-1 49:0 50:0 51:-2 52:-1 53:0 54:-1 55:8 56:0 57:-2 58:0 59:0 60:0 
23.15090440755478 1:1 2:-1 3:0 4:5 5:0 6:-2 7:3 8:-9 9:-1 10:0 11:1 12:1 13:-1 14:-1 15:0 16:2 17:1 18:-1 19:1 20:-2 21:-1 22:0 23:1 24:0 25:-1 26:0 27:0 28:0 29:1 30:-1 31:0 32:1 33:-1 34:1 35:0 36:0 37:-1 38:0 39:0 40:-1 41:1 42:2 43:-1 44:4 45:0 46:0 47:0 48:-1 49:-1 50:0 51:1 52:-3 53:0 54:5 55:-1 56:6 57:0 58:0 59:0 60:-1 
-23 1:0 2:-1 3:0 4:1 5:0 6:1 7:0 8:0 9:0 10:0 11:1 12:-1 13:1 14:0 15:0 16:1 17:0 18:0 19:0 20:0 21:0 22:0 23:1 24:0 25:1 26:0 27:1 28:0 29:0 30:0 31:0 32:0 33:0 34:0 35:1 36:0 37:1 38:0 39:1 40:-1 41:0 42:-1 43:1 44:0 45:0 46:0 47:0 48:0 49:1 50:0 51:1 52:-3 53:0 54:-1 55:1 56:0 57:0 58:0 59:0 60:0 
-23 1:1 2:0 3:1 4:1 5:-1 6:0 7:0 8:0 9:-1 10:0 11:1 12:-1 13:0 14:0 15:0 16:0 17:0 18:0 19:0 20:0 21:-1 22:0 23:0 24:-1 25:1 26:0 27:0 28:0 29:0 30:0 31:0 32:0 33:-1 34:0 35:0 36:-1 37:0 38:0 39:-1 40:-1 41:0 42:0 43:0 44:0 45:-1 46:0 47:0 48:-1 49:0 50:0 51:0 52:0 53:-1 54:-1 55:0 56:0 57:0 58:0 59:0 60:0 
-23 1:0 2:-1 3:0 4:1 5:0 6:1 7:0 8:0 9:0 10:0 11:1 12:-1 13:1 14:0 15:0 16:1 17:0 18:0 19:0 20:0 21:0 22:0 23:1 24:0 25:1 26:0 27:1 28:0 29:0 30:0 31:0 32:0 33:0 34:0 35:1 36:0 37:1 38:0 39:1 40:-1 41:0 42:-1 43:1 44:0 45:0 46:0 47:0 48:0 49:1 50:0 51:1 52:-3 53:0 54:-1 55:1 56:0 57:0 58:0 59:0 60:0 
-23 1:1 2:0 3:1 4:1 5:-1 6:0 7:0 8:0 9:-1 10:0 11:1 12:-1 13:0 14:0 15:0 16:0 17:0 18:0 19:0 20:0 21:-1 22:0 23:0 24:-1 25:1 26:0 27:0 28:0 29:0 30:0 31:0 32:0 33:-1 34:0 35:0 36:-1 37:0 38:0 39:-1 40:-1 41:0 42:0 43:0 44:0 45:-1 46:0 47:0 48:-1 49:0 50:0 51:0 52:0 53:-1 54:-1 55:0 56:0 57:0 58:0 59:0 60:0 
-23 1:0 2:-1 3:0 4:1 5:0 6:1 7:0 8:0 9:0 10:0 11:1 12:-1 13:1 14:0 15:0 16:1 17:0 18:0 19:0 20:0 21:0 22:0 23:1 24:0 25:1 26:0 27:1 28:0 29:0 30:0 31:0 32:0 33:0 34:0 35:1 36:0 37:1 38:0 39:1 40:-1 41:0 42:-1 43:1 44:0 45:0 46:0 47:0 48:0 49:1 50:0 51:1 52:-3 53:0 54:-1 55:1 56:0 57:0 58:0 59:0 60:0 
-2.977305883991408 1:0 2:-1 3:0 4:4 5:0 6:-1 7:1 8:1 9:0 10:0 11:0 12:0 13:0 14:-1 15:0 16:2 17:0 18:-1 19:1 20:1 21:0 22:0 23:0 24:0 25:0 26:0 27:0 28:-1 29:-1 30:-1 31:1 32:0 33:0 34:0 35:0 36:0 37:0 38:0 39:0 40:-2 41:0 42:1 43:0 44:0 45:0 46:0 47:0 48:0 49:0 50:0 51:0 52:-3 53:-2 54:2 55:0 56:0 57:0 58:0 59:0 60:0 
-9.309693940879305 1:0 2:-1 3:0 4:8 5:-1 6:-3 7:1 8:0 9:0 10:1 11:0 12:0 13:1 14:-1 15:-1 16:2 17:-1 18:-1 19:1 20:1 21:0 22:1 23:0 24:0 25:0 26:-1 27:-1 28:-2 29:1 30:0 31:0 32:1 33:0 34:0 35:0 36:0 37:0 38:-1 39:0 40:-5 41:0 42:1 43:0 44:1 45:0 46:0 47:0 48:0 49:0 50:0 51:0 52:-6 53:1 54:3 55:1 56:0 57:0 58:1 59:0 60:0 
-23 1:1 2:0 3:1 4:1 5:-1 6:0 7:0 8:0 9:-1 10:0 11:1 12:-1 13:0 14:0 15:0 16:0 17:0 18:0 19:0 20:0 21:-1 22:0 23:0 24:-1 25:1 26:0 27:0 28:0 29:0 30:0 31:0 32:0 33:-1 34:0 35:0 36:-1 37:0 38:0 39:-1 40:-1 41:0 42:0 43:0 44:0 45:-1 46:0 47:0 48:-1 49:0 50:0 51:0 52:0 53:-1 54:-1 55:0 56:0 57:0 58:0 59:0 60:0 
-5.889647101732158 1:0 2:-1 3:0 4:1 5:-1 6:0 7:0 8:0 9:0 10:0 11:1 12:-1 13:0 14:-1 15:0 16:0 17:0 18:0 19:0 20:0 21:0 22:1 23:1 24:-1 25:1 26:0 27:0 28:0 29:0 30:-1 31:0 32:0 33:0 34:1 35:1 36:0 37:1 38:0 39:1 40:-1 41:0 42:-1 43:0 44:0 45:0 46:1 47:1 48:0 49:1 50:0 51:1 52:-2 53:0 54:-2 55:1 56:0 57:0 58:1 59:0 60:0 
-18.67640361475713 1:0 2:-1 3:0 4:1 5:0 6:1 7:0 8:0 9:0 10:0 11:1 12:-1 13:1 14:0 15:0 16:1 17:0 18:0 19:0 20:0 21:0 22:0 23:1 24:0 25:1 26:0 27:1 28:0 29:0 30:0 31:0 32:0 33:0 34:0 35:1 36:0 37:1 38:0 39:1 40:-1 41:0 42:-1 43:1 44:0 45:0 46:0 47:0 48:0 49:1 50:0 51:1 52:-3 53:0 54:-1 55:1 56:0 57:0 58:0 59:0 60:0 
-13.04849214727887 1:0 2:-1 3:0 4:2 5:0 6:0 7:0 8:1 9:0 10:0 11:1 12:0 13:0 14:-1 15:1 16:1 17:0 18:0 19:0 20:1 21:0 22:0 23:1 24:0 25:0 26:-1 27:1 28:0 29:0 30:-1 31:1 32:1 33:0 34:0 35:0 36:0 37:0 38:-1 39:1 40:-2 41:0 42:-1 43:1 44:1 45:0 46:0 47:0 48:0 49:0 50:0 51:1 52:-5 53:-1 54:-1 55:1 56:0 57:0 58:0 59:0 60:0 
-15.28135944977392 1:1 2:-1 3:1 4:10 5:-1 6:-2 7:0 8:-1 9:0 10:0 11:1 12:0 13:0 14:-1 15:1 16:8 17:-1 18:-2 19:0 20:-1 21:0 22:0 23:1 24:0 25:0 26:-1 27:1 28:4 29:-1 30:-2 31:0 32:-1 33:0 34:0 35:0 36:0 37:0 38:0 39:0 40:-6 41:1 42:0 43:0 44:1 45:0 46:0 47:0 48:0 49:0 50:0 51:0 52:-17 53:2 54:4 55:0 56:2 57:-1 58:0 59:0 60:0 
-21.9432101692619 1:0 2:-1 3:0 4:8 5:-1 6:-3 7:1 8:0 9:0 10:1 11:0 12:0 13:1 14:-1 15:-1 16:2 17:-1 18:-1 19:1 20:1 21:0 22:1 23:0 24:0 25:0 26:-1 27:-1 28:-2 29:1 30:0 31:0 32:1 33:0 34:0 35:0 36:0 37:0 38:-1 39:0 40:-5 41:0 42:1 43:0 44:1 45:0 46:0 47:0 48:0 49:0 50:0 51:0 52:-6 53:1 54:3 55:1 56:0 57:0 58:1 59:0 60:0 
-6.778884600590413 1:1 2:-1 3:0 4:1 5:-2 6:-2 7:0 8:1 9:0 10:0 11:1 12:0 13:1 14:0 15:0 16:0 17:-1 18:0 19:1 20:0 21:0 22:1 23:1 24:0 25:0 26:0 27:-1 28:-1 29:0 30:0 31:1 32:0 33:0 34:1 35:0 36:0 37:1 38:0 39:-1 40:-1 41:0 42:0 43:1 44:0 45:0 46:1 47:0 48:0 49:0 50:0 51:-2 52:-2 53:0 54:0 55:1 56:0 57:0 58:1 59:0 60:0 
-23 1:1 2:0 3:1 4:1 5:-1 6:0 7:0 8:0 9:-1 10:0 11:1 12:-1 13:0 14:0 15:0 16:0 17:0 18:0 19:0 20:0 21:-1 22:0 23:0 24:-1 25:1 26:0 27:0 28:0 29:0 30:0 31:0 32:0 33:-1 34:0 35:0 36:-1 37:0 38:0 39:-1 40:-1 41:0 42:0 43:0 44:0 45:-1 46:0 47:0 48:-1 49:0 50:0 51:0 52:0 53:-1 54:-1 55:0 56:0 57:0 58:0 59:0 60:0 
