svm_type c_svc
kernel_type rbf
gamma 6.10352e-005
nr_class 2
total_sv 216
rho 3.76763
label 3 1
nr_sv 92 124
SV
32.66666650772095 1:0 2:0 3:1 4:1 5:-1 6:1 7:8 8:-1 9:5 10:0 11:0 12:0 13:0 14:0 15:1 16:0 17:0 18:0 19:3 20:-2 21:3 22:0 23:0 24:0 25:0 26:0 27:1 28:-1 29:1 30:0 31:0 32:-2 33:0 34:0 35:0 36:0 37:0 38:0 39:1 40:0 41:1 42:0 43:-2 44:0 45:-3 46:0 47:0 48:0 49:-1 50:0 51:-1 52:0 53:0 54:-1 55:-5 56:1 57:-6 58:0 59:0 60:0 
32.66666650772095 1:0 2:0 3:1 4:0 5:0 6:0 7:6 8:-2 9:5 10:0 11:0 12:0 13:0 14:0 15:1 16:-1 17:1 18:0 19:3 20:-2 21:2 22:0 23:0 24:0 25:0 26:0 27:1 28:0 29:1 30:0 31:1 32:0 33:-1 34:0 35:0 36:0 37:-1 38:0 39:-1 40:0 41:0 42:-1 43:-2 44:1 45:-4 46:0 47:0 48:0 49:-1 50:0 51:-2 52:1 53:-1 54:0 55:-4 56:1 57:-5 58:0 59:0 60:0 
32.66666650772095 1:0 2:0 3:2 4:-1 5:1 6:0 7:5 8:-3 9:5 10:0 11:0 12:0 13:0 14:0 15:2 16:0 17:1 18:0 19:3 20:-1 21:2 22:0 23:0 24:0 25:-1 26:0 27:0 28:0 29:0 30:-1 31:0 32:0 33:-1 34:0 35:0 36:0 37:-1 38:0 39:-1 40:1 41:-1 42:0 43:-2 44:0 45:-2 46:0 47:0 48:0 49:-2 50:0 51:-2 52:1 53:-1 54:0 55:-4 56:2 57:-5 58:0 59:0 60:0 
32.66666650772095 1:1 2:0 3:3 4:0 5:2 6:0 7:5 8:-2 9:4 10:0 11:0 12:0 13:0 14:0 15:1 16:0 17:1 18:-1 19:2 20:-1 21:1 22:0 23:0 24:0 25:0 26:0 27:0 28:1 29:0 30:0 31:0 32:-1 33:0 34:0 35:0 36:0 37:-1 38:0 39:-1 40:1 41:0 42:0 43:-2 44:1 45:-3 46:0 47:0 48:0 49:-1 50:0 51:-1 52:0 53:1 54:-1 55:-4 56:2 57:-5 58:0 59:0 60:0 
32.66666650772095 1:0 2:0 3:2 4:1 5:1 6:0 7:5 8:-2 9:3 10:0 11:0 12:0 13:0 14:0 15:1 16:2 17:0 18:1 19:3 20:-2 21:2 22:0 23:0 24:0 25:-1 26:0 27:0 28:2 29:0 30:1 31:1 32:0 33:-1 34:0 35:0 36:0 37:-1 38:0 39:0 40:1 41:1 42:0 43:-1 44:1 45:-3 46:0 47:0 48:0 49:0 50:0 51:1 52:-2 53:2 54:-2 55:-4 56:2 57:-5 58:0 59:0 60:0 
32.66666650772095 1:0 2:0 3:1 4:2 5:-1 6:1 7:5 8:-3 9:5 10:0 11:0 12:0 13:-1 14:0 15:0 16:2 17:-1 18:1 19:3 20:-1 21:2 22:0 23:0 24:0 25:-1 26:0 27:0 28:1 29:0 30:0 31:1 32:0 33:0 34:0 35:0 36:0 37:0 38:0 39:1 40:-2 41:1 42:-2 43:-2 44:1 45:-2 46:0 47:0 48:0 49:-1 50:0 51:2 52:-3 53:1 54:-3 55:-3 56:2 57:-5 58:0 59:0 60:0 
32.66666650772095 1:-1 2:0 3:-1 4:4 5:-1 6:2 7:4 8:-2 9:4 10:0 11:0 12:0 13:-1 14:0 15:-1 16:3 17:0 18:1 19:2 20:-1 21:2 22:0 23:0 24:0 25:0 26:0 27:0 28:0 29:1 30:-1 31:-1 32:0 33:0 34:0 35:0 36:0 37:-1 38:0 39:1 40:-1 41:1 42:-2 43:-2 44:1 45:-3 46:0 47:0 48:0 49:-1 50:0 51:1 52:-2 53:0 54:-2 55:-3 56:2 57:-5 58:0 59:0 60:0 
32.66666650772095 1:-1 2:0 3:-1 4:4 5:0 6:2 7:4 8:-2 9:4 10:1 11:0 12:0 13:0 14:0 15:0 16:1 17:1 18:0 19:1 20:-1 21:2 22:1 23:0 24:0 25:-1 26:0 27:1 28:0 29:1 30:-1 31:0 32:0 33:-1 34:1 35:0 36:0 37:-1 38:0 39:1 40:-1 41:0 42:-1 43:-1 44:1 45:-3 46:1 47:0 48:0 49:-1 50:0 51:2 52:-3 53:-2 54:-2 55:-3 56:2 57:-6 58:0 59:0 60:0 
32.66666650772095 1:0 2:0 3:-1 4:3 5:2 6:1 7:3 8:-2 9:5 10:1 11:0 12:0 13:-1 14:0 15:0 16:2 17:2 18:0 19:2 20:-1 21:2 22:1 23:0 24:0 25:-1 26:0 27:0 28:1 29:1 30:0 31:1 32:0 33:0 34:1 35:0 36:0 37:-1 38:0 39:1 40:-1 41:-1 42:-1 43:-1 44:1 45:-3 46:0 47:0 48:0 49:-1 50:0 51:1 52:-4 53:-1 54:-3 55:-2 56:1 57:-4 58:0 59:0 60:0 
32.66666650772095 1:0 2:0 3:0 4:4 5:2 6:1 7:3 8:-2 9:4 10:1 11:0 12:0 13:0 14:0 15:0 16:3 17:1 18:1 19:2 20:-1 21:2 22:1 23:0 24:0 25:0 26:0 27:1 28:1 29:-1 30:0 31:0 32:0 33:-1 34:0 35:0 36:0 37:0 38:0 39:1 40:-2 41:-1 42:-2 43:-1 44:0 45:-2 46:0 47:0 48:0 49:0 50:0 51:-1 52:-2 53:-1 54:-2 55:-1 56:1 57:-4 58:1 59:0 60:0 
32.66666650772095 1:0 2:0 3:1 4:3 5:3 6:2 7:3 8:-2 9:4 10:1 11:0 12:0 13:0 14:0 15:2 16:1 17:1 18:1 19:1 20:-1 21:1 22:0 23:0 24:0 25:0 26:0 27:2 28:-2 29:1 30:-1 31:0 32:-1 33:0 34:0 35:0 36:0 37:0 38:0 39:0 40:-2 41:1 42:-1 43:0 44:0 45:-2 46:1 47:0 48:0 49:0 50:0 51:-1 52:1 53:-2 54:-2 55:-2 56:1 57:-4 58:1 59:0 60:0 
32.66666650772095 1:-1 2:0 3:2 4:1 5:2 6:2 7:2 8:-2 9:3 10:0 11:0 12:0 13:-1 14:0 15:2 16:-2 17:2 18:0 19:1 20:-2 21:2 22:0 23:0 24:0 25:-1 26:0 27:0 28:-2 29:2 30:0 31:1 32:-1 33:0 34:1 35:0 36:0 37:-1 38:0 39:-1 40:1 41:-1 42:-1 43:-1 44:0 45:-2 46:1 47:0 48:0 49:0 50:0 51:-1 52:4 53:-3 54:-1 55:-1 56:1 57:-3 58:1 59:0 60:0 
32.66666650772095 1:-1 2:0 3:3 4:-3 5:3 6:0 7:2 8:-2 9:3 10:0 11:0 12:0 13:-1 14:0 15:1 16:-3 17:3 18:0 19:2 20:-1 21:1 22:1 23:0 24:0 25:-1 26:0 27:0 28:0 29:0 30:-1 31:0 32:0 33:-1 34:1 35:0 36:0 37:0 38:0 39:0 40:3 41:-2 42:-1 43:0 44:1 45:-2 46:1 47:0 48:0 49:0 50:0 51:0 52:4 53:-2 54:-1 55:0 56:1 57:-2 58:1 59:0 60:0 
32.66666650772095 1:-1 2:0 3:1 4:-4 5:4 6:0 7:2 8:-2 9:2 10:0 11:0 12:0 13:-1 14:0 15:0 16:-1 17:1 18:-1 19:0 20:-1 21:0 22:0 23:0 24:0 25:0 26:0 27:0 28:2 29:-1 30:-1 31:0 32:0 33:-1 34:0 35:0 36:0 37:0 38:0 39:0 40:3 41:-1 42:-1 43:0 44:0 45:-1 46:0 47:0 48:0 49:0 50:0 51:0 52:4 53:-1 54:-1 55:0 56:0 57:-2 58:1 59:0 60:0 
32.66666650772095 1:-1 2:0 3:0 4:-3 5:2 6:-1 7:0 8:-1 9:1 10:0 11:0 12:0 13:0 14:0 15:0 16:0 17:0 18:-1 19:0 20:0 21:0 22:0 23:0 24:0 25:0 26:0 27:0 28:1 29:0 30:-1 31:0 32:0 33:0 34:0 35:0 36:0 37:0 38:0 39:0 40:2 41:0 42:-1 43:0 44:0 45:-1 46:1 47:0 48:0 49:0 50:0 51:0 52:1 53:-1 54:0 55:0 56:0 57:-2 58:1 59:0 60:0 
32.66666650772095 1:0 2:-1 3:0 4:0 5:1 6:-1 7:1 8:0 9:1 10:0 11:0 12:0 13:0 14:-1 15:0 16:1 17:1 18:-1 19:1 20:0 21:1 22:0 23:0 24:0 25:0 26:-1 27:0 28:2 29:1 30:-1 31:1 32:0 33:0 34:1 35:0 36:0 37:0 38:-1 39:0 40:1 41:0 42:0 43:1 44:0 45:-1 46:1 47:0 48:0 49:0 50:0 51:0 52:0 53:0 54:0 55:0 56:0 57:-1 58:1 59:0 60:0 
32.66666650772095 1:0 2:-1 3:0 4:1 5:1 6:-1 7:1 8:0 9:1 10:0 11:1 12:0 13:0 14:-1 15:0 16:2 17:1 18:-1 19:1 20:0 21:0 22:1 23:1 24:0 25:0 26:-1 27:0 28:1 29:0 30:0 31:1 32:0 33:-1 34:1 35:1 36:0 37:0 38:0 39:0 40:0 41:0 42:0 43:0 44:0 45:-1 46:1 47:1 48:0 49:-1 50:0 51:0 52:-1 53:0 54:0 55:0 56:0 57:-2 58:0 59:0 60:0 
32.66666650772095 1:0 2:-1 3:0 4:2 5:1 6:-1 7:1 8:0 9:1 10:1 11:1 12:0 13:0 14:-1 15:0 16:1 17:0 18:0 19:1 20:0 21:0 22:1 23:1 24:0 25:0 26:0 27:0 28:0 29:0 30:0 31:0 32:0 33:0 34:1 35:1 36:0 37:-1 38:0 39:0 40:-1 41:0 42:0 43:0 44:0 45:-1 46:0 47:0 48:0 49:-1 50:0 51:0 52:-1 53:0 54:0 55:-1 56:0 57:-1 58:0 59:0 60:0 
32.66666650772095 1:0 2:-1 3:0 4:2 5:1 6:0 7:1 8:0 9:0 10:1 11:1 12:0 13:0 14:0 15:0 16:1 17:1 18:0 19:0 20:0 21:0 22:1 23:1 24:0 25:-1 26:0 27:0 28:0 29:1 30:0 31:0 32:0 33:-1 34:0 35:0 36:0 37:-1 38:0 39:0 40:0 41:1 42:0 43:-1 44:0 45:-1 46:0 47:0 48:0 49:-1 50:0 51:0 52:1 53:0 54:0 55:0 56:0 57:-1 58:0 59:0 60:0 
32.66666650772095 1:0 2:-1 3:0 4:1 5:1 6:0 7:0 8:0 9:0 10:1 11:1 12:0 13:-1 14:-1 15:0 16:0 17:1 18:0 19:0 20:0 21:-1 22:0 23:0 24:0 25:-1 26:-1 27:0 28:0 29:1 30:0 31:-1 32:0 33:-1 34:0 35:0 36:0 37:-1 38:-1 39:0 40:1 41:0 42:0 43:0 44:0 45:-1 46:0 47:0 48:0 49:-1 50:0 51:0 52:1 53:0 54:0 55:1 56:0 57:0 58:0 59:0 60:0 
32.66666650772095 1:0 2:-1 3:0 4:0 5:0 6:0 7:0 8:0 9:-1 10:0 11:0 12:0 13:0 14:-1 15:0 16:0 17:0 18:0 19:-1 20:0 21:-1 22:0 23:0 24:0 25:0 26:-1 27:0 28:1 29:-1 30:0 31:0 32:0 33:-1 34:0 35:0 36:0 37:0 38:0 39:0 40:1 41:-1 42:0 43:1 44:0 45:0 46:0 47:0 48:0 49:0 50:0 51:0 52:-2 53:2 54:0 55:1 56:-1 57:1 58:0 59:0 60:0 
32.66666650772095 1:0 2:-1 3:0 4:1 5:0 6:-1 7:-1 8:0 9:-2 10:0 11:0 12:0 13:0 14:-1 15:0 16:2 17:-1 18:-1 19:0 20:0 21:-2 22:0 23:0 24:0 25:0 26:0 27:0 28:2 29:-1 30:-1 31:1 32:0 33:-1 34:0 35:0 36:0 37:0 38:0 39:0 40:-1 41:2 42:-1 43:1 44:-1 45:0 46:0 47:0 48:0 49:0 50:0 51:0 52:-1 53:2 54:0 55:3 56:-3 57:3 58:0 59:0 60:0 
32.66666650772095 1:0 2:-1 3:0 4:2 5:-2 6:-1 7:-1 8:2 9:-4 10:0 11:0 12:0 13:0 14:0 15:0 16:2 17:-2 18:-1 19:0 20:2 21:-3 22:0 23:0 24:0 25:0 26:0 27:0 28:-1 29:1 30:-1 31:0 32:1 33:-2 34:0 35:0 36:0 37:0 38:0 39:0 40:-1 41:1 42:0 43:2 44:-1 45:1 46:0 47:0 48:0 49:-1 50:0 51:0 52:-1 53:3 54:2 55:3 56:-4 57:8 58:0 59:0 60:0 
32.66666650772095 1:0 2:0 3:1 4:1 5:-1 6:1 7:8 8:-1 9:5 10:0 11:0 12:0 13:0 14:0 15:1 16:0 17:0 18:0 19:3 20:-2 21:3 22:0 23:0 24:0 25:0 26:0 27:1 28:-1 29:1 30:0 31:0 32:-2 33:0 34:0 35:0 36:0 37:0 38:0 39:1 40:0 41:1 42:0 43:-2 44:0 45:-3 46:0 47:0 48:0 49:-1 50:0 51:-1 52:0 53:0 54:-1 55:-5 56:1 57:-6 58:0 59:0 60:0 
32.66666650772095 1:0 2:0 3:1 4:0 5:0 6:0 7:6 8:-2 9:5 10:0 11:0 12:0 13:0 14:0 15:1 16:-1 17:1 18:0 19:3 20:-2 21:2 22:0 23:0 24:0 25:0 26:0 27:1 28:0 29:1 30:0 31:1 32:0 33:-1 34:0 35:0 36:0 37:-1 38:0 39:-1 40:0 41:0 42:-1 43:-2 44:1 45:-4 46:0 47:0 48:0 49:-1 50:0 51:-2 52:1 53:-1 54:0 55:-4 56:1 57:-5 58:0 59:0 60:0 
32.66666650772095 1:0 2:0 3:2 4:-1 5:1 6:0 7:5 8:-3 9:5 10:0 11:0 12:0 13:0 14:0 15:2 16:0 17:1 18:0 19:3 20:-1 21:2 22:0 23:0 24:0 25:-1 26:0 27:0 28:0 29:0 30:-1 31:0 32:0 33:-1 34:0 35:0 36:0 37:-1 38:0 39:-1 40:1 41:-1 42:0 43:-2 44:0 45:-2 46:0 47:0 48:0 49:-2 50:0 51:-2 52:1 53:-1 54:0 55:-4 56:2 57:-5 58:0 59:0 60:0 
32.66666650772095 1:1 2:0 3:3 4:0 5:2 6:0 7:5 8:-2 9:4 10:0 11:0 12:0 13:0 14:0 15:1 16:0 17:1 18:-1 19:2 20:-1 21:1 22:0 23:0 24:0 25:0 26:0 27:0 28:1 29:0 30:0 31:0 32:-1 33:0 34:0 35:0 36:0 37:-1 38:0 39:-1 40:1 41:0 42:0 43:-2 44:1 45:-3 46:0 47:0 48:0 49:-1 50:0 51:-1 52:0 53:1 54:-1 55:-4 56:2 57:-5 58:0 59:0 60:0 
32.66666650772095 1:0 2:0 3:2 4:1 5:1 6:0 7:5 8:-2 9:3 10:0 11:0 12:0 13:0 14:0 15:1 16:2 17:0 18:1 19:3 20:-2 21:2 22:0 23:0 24:0 25:-1 26:0 27:0 28:2 29:0 30:1 31:1 32:0 33:-1 34:0 35:0 36:0 37:-1 38:0 39:0 40:1 41:1 42:0 43:-1 44:1 45:-3 46:0 47:0 48:0 49:0 50:0 51:1 52:-2 53:2 54:-2 55:-4 56:2 57:-5 58:0 59:0 60:0 
32.66666650772095 1:0 2:0 3:1 4:2 5:-1 6:1 7:5 8:-3 9:5 10:0 11:0 12:0 13:-1 14:0 15:0 16:2 17:-1 18:1 19:3 20:-1 21:2 22:0 23:0 24:0 25:-1 26:0 27:0 28:1 29:0 30:0 31:1 32:0 33:0 34:0 35:0 36:0 37:0 38:0 39:1 40:-2 41:1 42:-2 43:-2 44:1 45:-2 46:0 47:0 48:0 49:-1 50:0 51:2 52:-3 53:1 54:-3 55:-3 56:2 57:-5 58:0 59:0 60:0 
32.66666650772095 1:-1 2:0 3:-1 4:4 5:-1 6:2 7:4 8:-2 9:4 10:0 11:0 12:0 13:-1 14:0 15:-1 16:3 17:0 18:1 19:2 20:-1 21:2 22:0 23:0 24:0 25:0 26:0 27:0 28:0 29:1 30:-1 31:-1 32:0 33:0 34:0 35:0 36:0 37:-1 38:0 39:1 40:-1 41:1 42:-2 43:-2 44:1 45:-3 46:0 47:0 48:0 49:-1 50:0 51:1 52:-2 53:0 54:-2 55:-3 56:2 57:-5 58:0 59:0 60:0 
32.66666650772095 1:-1 2:0 3:-1 4:4 5:0 6:2 7:4 8:-2 9:4 10:1 11:0 12:0 13:0 14:0 15:0 16:1 17:1 18:0 19:1 20:-1 21:2 22:1 23:0 24:0 25:-1 26:0 27:1 28:0 29:1 30:-1 31:0 32:0 33:-1 34:1 35:0 36:0 37:-1 38:0 39:1 40:-1 41:0 42:-1 43:-1 44:1 45:-3 46:1 47:0 48:0 49:-1 50:0 51:2 52:-3 53:-2 54:-2 55:-3 56:2 57:-6 58:0 59:0 60:0 
32.66666650772095 1:0 2:0 3:-1 4:3 5:2 6:1 7:3 8:-2 9:5 10:1 11:0 12:0 13:-1 14:0 15:0 16:2 17:2 18:0 19:2 20:-1 21:2 22:1 23:0 24:0 25:-1 26:0 27:0 28:1 29:1 30:0 31:1 32:0 33:0 34:1 35:0 36:0 37:-1 38:0 39:1 40:-1 41:-1 42:-1 43:-1 44:1 45:-3 46:0 47:0 48:0 49:-1 50:0 51:1 52:-4 53:-1 54:-3 55:-2 56:1 57:-4 58:0 59:0 60:0 
32.66666650772095 1:0 2:0 3:0 4:4 5:2 6:1 7:3 8:-2 9:4 10:1 11:0 12:0 13:0 14:0 15:0 16:3 17:1 18:1 19:2 20:-1 21:2 22:1 23:0 24:0 25:0 26:0 27:1 28:1 29:-1 30:0 31:0 32:0 33:-1 34:0 35:0 36:0 37:0 38:0 39:1 40:-2 41:-1 42:-2 43:-1 44:0 45:-2 46:0 47:0 48:0 49:0 50:0 51:-1 52:-2 53:-1 54:-2 55:-1 56:1 57:-4 58:1 59:0 60:0 
32.66666650772095 1:0 2:0 3:1 4:3 5:3 6:2 7:3 8:-2 9:4 10:1 11:0 12:0 13:0 14:0 15:2 16:1 17:1 18:1 19:1 20:-1 21:1 22:0 23:0 24:0 25:0 26:0 27:2 28:-2 29:1 30:-1 31:0 32:-1 33:0 34:0 35:0 36:0 37:0 38:0 39:0 40:-2 41:1 42:-1 43:0 44:0 45:-2 46:1 47:0 48:0 49:0 50:0 51:-1 52:1 53:-2 54:-2 55:-2 56:1 57:-4 58:1 59:0 60:0 
32.66666650772095 1:-1 2:0 3:2 4:1 5:2 6:2 7:2 8:-2 9:3 10:0 11:0 12:0 13:-1 14:0 15:2 16:-2 17:2 18:0 19:1 20:-2 21:2 22:0 23:0 24:0 25:-1 26:0 27:0 28:-2 29:2 30:0 31:1 32:-1 33:0 34:1 35:0 36:0 37:-1 38:0 39:-1 40:1 41:-1 42:-1 43:-1 44:0 45:-2 46:1 47:0 48:0 49:0 50:0 51:-1 52:4 53:-3 54:-1 55:-1 56:1 57:-3 58:1 59:0 60:0 
32.66666650772095 1:-1 2:0 3:3 4:-3 5:3 6:0 7:2 8:-2 9:3 10:0 11:0 12:0 13:-1 14:0 15:1 16:-3 17:3 18:0 19:2 20:-1 21:1 22:1 23:0 24:0 25:-1 26:0 27:0 28:0 29:0 30:-1 31:0 32:0 33:-1 34:1 35:0 36:0 37:0 38:0 39:0 40:3 41:-2 42:-1 43:0 44:1 45:-2 46:1 47:0 48:0 49:0 50:0 51:0 52:4 53:-2 54:-1 55:0 56:1 57:-2 58:1 59:0 60:0 
32.66666650772095 1:-1 2:0 3:1 4:-4 5:4 6:0 7:2 8:-2 9:2 10:0 11:0 12:0 13:-1 14:0 15:0 16:-1 17:1 18:-1 19:0 20:-1 21:0 22:0 23:0 24:0 25:0 26:0 27:0 28:2 29:-1 30:-1 31:0 32:0 33:-1 34:0 35:0 36:0 37:0 38:0 39:0 40:3 41:-1 42:-1 43:0 44:0 45:-1 46:0 47:0 48:0 49:0 50:0 51:0 52:4 53:-1 54:-1 55:0 56:0 57:-2 58:1 59:0 60:0 
32.66666650772095 1:-1 2:0 3:0 4:-3 5:2 6:-1 7:0 8:-1 9:1 10:0 11:0 12:0 13:0 14:0 15:0 16:0 17:0 18:-1 19:0 20:0 21:0 22:0 23:0 24:0 25:0 26:0 27:0 28:1 29:0 30:-1 31:0 32:0 33:0 34:0 35:0 36:0 37:0 38:0 39:0 40:2 41:0 42:-1 43:0 44:0 45:-1 46:1 47:0 48:0 49:0 50:0 51:0 52:1 53:-1 54:0 55:0 56:0 57:-2 58:1 59:0 60:0 
32.66666650772095 1:0 2:-1 3:0 4:0 5:1 6:-1 7:1 8:0 9:1 10:0 11:0 12:0 13:0 14:-1 15:0 16:1 17:1 18:-1 19:1 20:0 21:1 22:0 23:0 24:0 25:0 26:-1 27:0 28:2 29:1 30:-1 31:1 32:0 33:0 34:1 35:0 36:0 37:0 38:-1 39:0 40:1 41:0 42:0 43:1 44:0 45:-1 46:1 47:0 48:0 49:0 50:0 51:0 52:0 53:0 54:0 55:0 56:0 57:-1 58:1 59:0 60:0 
32.66666650772095 1:0 2:-1 3:0 4:1 5:1 6:-1 7:1 8:0 9:1 10:0 11:1 12:0 13:0 14:-1 15:0 16:2 17:1 18:-1 19:1 20:0 21:0 22:1 23:1 24:0 25:0 26:-1 27:0 28:1 29:0 30:0 31:1 32:0 33:-1 34:1 35:1 36:0 37:0 38:0 39:0 40:0 41:0 42:0 43:0 44:0 45:-1 46:1 47:1 48:0 49:-1 50:0 51:0 52:-1 53:0 54:0 55:0 56:0 57:-2 58:0 59:0 60:0 
32.66666650772095 1:0 2:-1 3:0 4:2 5:1 6:-1 7:1 8:0 9:1 10:1 11:1 12:0 13:0 14:-1 15:0 16:1 17:0 18:0 19:1 20:0 21:0 22:1 23:1 24:0 25:0 26:0 27:0 28:0 29:0 30:0 31:0 32:0 33:0 34:1 35:1 36:0 37:-1 38:0 39:0 40:-1 41:0 42:0 43:0 44:0 45:-1 46:0 47:0 48:0 49:-1 50:0 51:0 52:-1 53:0 54:0 55:-1 56:0 57:-1 58:0 59:0 60:0 
32.66666650772095 1:0 2:-1 3:0 4:2 5:1 6:0 7:1 8:0 9:0 10:1 11:1 12:0 13:0 14:0 15:0 16:1 17:1 18:0 19:0 20:0 21:0 22:1 23:1 24:0 25:-1 26:0 27:0 28:0 29:1 30:0 31:0 32:0 33:-1 34:0 35:0 36:0 37:-1 38:0 39:0 40:0 41:1 42:0 43:-1 44:0 45:-1 46:0 47:0 48:0 49:-1 50:0 51:0 52:1 53:0 54:0 55:0 56:0 57:-1 58:0 59:0 60:0 
32.66666650772095 1:0 2:-1 3:0 4:1 5:1 6:0 7:0 8:0 9:0 10:1 11:1 12:0 13:-1 14:-1 15:0 16:0 17:1 18:0 19:0 20:0 21:-1 22:0 23:0 24:0 25:-1 26:-1 27:0 28:0 29:1 30:0 31:-1 32:0 33:-1 34:0 35:0 36:0 37:-1 38:-1 39:0 40:1 41:0 42:0 43:0 44:0 45:-1 46:0 47:0 48:0 49:-1 50:0 51:0 52:1 53:0 54:0 55:1 56:0 57:0 58:0 59:0 60:0 
32.66666650772095 1:0 2:-1 3:0 4:0 5:0 6:0 7:0 8:0 9:-1 10:0 11:0 12:0 13:0 14:-1 15:0 16:0 17:0 18:0 19:-1 20:0 21:-1 22:0 23:0 24:0 25:0 26:-1 27:0 28:1 29:-1 30:0 31:0 32:0 33:-1 34:0 35:0 36:0 37:0 38:0 39:0 40:1 41:-1 42:0 43:1 44:0 45:0 46:0 47:0 48:0 49:0 50:0 51:0 52:-2 53:2 54:0 55:1 56:-1 57:1 58:0 59:0 60:0 
32.66666650772095 1:0 2:-1 3:0 4:1 5:0 6:-1 7:-1 8:0 9:-2 10:0 11:0 12:0 13:0 14:-1 15:0 16:2 17:-1 18:-1 19:0 20:0 21:-2 22:0 23:0 24:0 25:0 26:0 27:0 28:2 29:-1 30:-1 31:1 32:0 33:-1 34:0 35:0 36:0 37:0 38:0 39:0 40:-1 41:2 42:-1 43:1 44:-1 45:0 46:0 47:0 48:0 49:0 50:0 51:0 52:-1 53:2 54:0 55:3 56:-3 57:3 58:0 59:0 60:0 
32.66666650772095 1:0 2:-1 3:0 4:2 5:-2 6:-1 7:-1 8:2 9:-4 10:0 11:0 12:0 13:0 14:0 15:0 16:2 17:-2 18:-1 19:0 20:2 21:-3 22:0 23:0 24:0 25:0 26:0 27:0 28:-1 29:1 30:-1 31:0 32:1 33:-2 34:0 35:0 36:0 37:0 38:0 39:0 40:-1 41:1 42:0 43:2 44:-1 45:1 46:0 47:0 48:0 49:-1 50:0 51:0 52:-1 53:3 54:2 55:3 56:-4 57:8 58:0 59:0 60:0 
32.66666650772095 1:0 2:0 3:1 4:1 5:-1 6:1 7:8 8:-1 9:5 10:0 11:0 12:0 13:0 14:0 15:1 16:0 17:0 18:0 19:3 20:-2 21:3 22:0 23:0 24:0 25:0 26:0 27:1 28:-1 29:1 30:0 31:0 32:-2 33:0 34:0 35:0 36:0 37:0 38:0 39:1 40:0 41:1 42:0 43:-2 44:0 45:-3 46:0 47:0 48:0 49:-1 50:0 51:-1 52:0 53:0 54:-1 55:-5 56:1 57:-6 58:0 59:0 60:0 
32.66666650772095 1:0 2:0 3:1 4:0 5:0 6:0 7:6 8:-2 9:5 10:0 11:0 12:0 13:0 14:0 15:1 16:-1 17:1 18:0 19:3 20:-2 21:2 22:0 23:0 24:0 25:0 26:0 27:1 28:0 29:1 30:0 31:1 32:0 33:-1 34:0 35:0 36:0 37:-1 38:0 39:-1 40:0 41:0 42:-1 43:-2 44:1 45:-4 46:0 47:0 48:0 49:-1 50:0 51:-2 52:1 53:-1 54:0 55:-4 56:1 57:-5 58:0 59:0 60:0 
32.66666650772095 1:0 2:0 3:2 4:-1 5:1 6:0 7:5 8:-3 9:5 10:0 11:0 12:0 13:0 14:0 15:2 16:0 17:1 18:0 19:3 20:-1 21:2 22:0 23:0 24:0 25:-1 26:0 27:0 28:0 29:0 30:-1 31:0 32:0 33:-1 34:0 35:0 36:0 37:-1 38:0 39:-1 40:1 41:-1 42:0 43:-2 44:0 45:-2 46:0 47:0 48:0 49:-2 50:0 51:-2 52:1 53:-1 54:0 55:-4 56:2 57:-5 58:0 59:0 60:0 
32.66666650772095 1:1 2:0 3:3 4:0 5:2 6:0 7:5 8:-2 9:4 10:0 11:0 12:0 13:0 14:0 15:1 16:0 17:1 18:-1 19:2 20:-1 21:1 22:0 23:0 24:0 25:0 26:0 27:0 28:1 29:0 30:0 31:0 32:-1 33:0 34:0 35:0 36:0 37:-1 38:0 39:-1 40:1 41:0 42:0 43:-2 44:1 45:-3 46:0 47:0 48:0 49:-1 50:0 51:-1 52:0 53:1 54:-1 55:-4 56:2 57:-5 58:0 59:0 60:0 
32.66666650772095 1:0 2:0 3:2 4:1 5:1 6:0 7:5 8:-2 9:3 10:0 11:0 12:0 13:0 14:0 15:1 16:2 17:0 18:1 19:3 20:-2 21:2 22:0 23:0 24:0 25:-1 26:0 27:0 28:2 29:0 30:1 31:1 32:0 33:-1 34:0 35:0 36:0 37:-1 38:0 39:0 40:1 41:1 42:0 43:-1 44:1 45:-3 46:0 47:0 48:0 49:0 50:0 51:1 52:-2 53:2 54:-2 55:-4 56:2 57:-5 58:0 59:0 60:0 
32.66666650772095 1:0 2:0 3:1 4:2 5:-1 6:1 7:5 8:-3 9:5 10:0 11:0 12:0 13:-1 14:0 15:0 16:2 17:-1 18:1 19:3 20:-1 21:2 22:0 23:0 24:0 25:-1 26:0 27:0 28:1 29:0 30:0 31:1 32:0 33:0 34:0 35:0 36:0 37:0 38:0 39:1 40:-2 41:1 42:-2 43:-2 44:1 45:-2 46:0 47:0 48:0 49:-1 50:0 51:2 52:-3 53:1 54:-3 55:-3 56:2 57:-5 58:0 59:0 60:0 
32.66666650772095 1:-1 2:0 3:-1 4:4 5:-1 6:2 7:4 8:-2 9:4 10:0 11:0 12:0 13:-1 14:0 15:-1 16:3 17:0 18:1 19:2 20:-1 21:2 22:0 23:0 24:0 25:0 26:0 27:0 28:0 29:1 30:-1 31:-1 32:0 33:0 34:0 35:0 36:0 37:-1 38:0 39:1 40:-1 41:1 42:-2 43:-2 44:1 45:-3 46:0 47:0 48:0 49:-1 50:0 51:1 52:-2 53:0 54:-2 55:-3 56:2 57:-5 58:0 59:0 60:0 
32.66666650772095 1:-1 2:0 3:-1 4:4 5:0 6:2 7:4 8:-2 9:4 10:1 11:0 12:0 13:0 14:0 15:0 16:1 17:1 18:0 19:1 20:-1 21:2 22:1 23:0 24:0 25:-1 26:0 27:1 28:0 29:1 30:-1 31:0 32:0 33:-1 34:1 35:0 36:0 37:-1 38:0 39:1 40:-1 41:0 42:-1 43:-1 44:1 45:-3 46:1 47:0 48:0 49:-1 50:0 51:2 52:-3 53:-2 54:-2 55:-3 56:2 57:-6 58:0 59:0 60:0 
32.66666650772095 1:0 2:0 3:-1 4:3 5:2 6:1 7:3 8:-2 9:5 10:1 11:0 12:0 13:-1 14:0 15:0 16:2 17:2 18:0 19:2 20:-1 21:2 22:1 23:0 24:0 25:-1 26:0 27:0 28:1 29:1 30:0 31:1 32:0 33:0 34:1 35:0 36:0 37:-1 38:0 39:1 40:-1 41:-1 42:-1 43:-1 44:1 45:-3 46:0 47:0 48:0 49:-1 50:0 51:1 52:-4 53:-1 54:-3 55:-2 56:1 57:-4 58:0 59:0 60:0 
32.66666650772095 1:0 2:0 3:0 4:4 5:2 6:1 7:3 8:-2 9:4 10:1 11:0 12:0 13:0 14:0 15:0 16:3 17:1 18:1 19:2 20:-1 21:2 22:1 23:0 24:0 25:0 26:0 27:1 28:1 29:-1 30:0 31:0 32:0 33:-1 34:0 35:0 36:0 37:0 38:0 39:1 40:-2 41:-1 42:-2 43:-1 44:0 45:-2 46:0 47:0 48:0 49:0 50:0 51:-1 52:-2 53:-1 54:-2 55:-1 56:1 57:-4 58:1 59:0 60:0 
32.66666650772095 1:0 2:0 3:1 4:3 5:3 6:2 7:3 8:-2 9:4 10:1 11:0 12:0 13:0 14:0 15:2 16:1 17:1 18:1 19:1 20:-1 21:1 22:0 23:0 24:0 25:0 26:0 27:2 28:-2 29:1 30:-1 31:0 32:-1 33:0 34:0 35:0 36:0 37:0 38:0 39:0 40:-2 41:1 42:-1 43:0 44:0 45:-2 46:1 47:0 48:0 49:0 50:0 51:-1 52:1 53:-2 54:-2 55:-2 56:1 57:-4 58:1 59:0 60:0 
32.66666650772095 1:-1 2:0 3:2 4:1 5:2 6:2 7:2 8:-2 9:3 10:0 11:0 12:0 13:-1 14:0 15:2 16:-2 17:2 18:0 19:1 20:-2 21:2 22:0 23:0 24:0 25:-1 26:0 27:0 28:-2 29:2 30:0 31:1 32:-1 33:0 34:1 35:0 36:0 37:-1 38:0 39:-1 40:1 41:-1 42:-1 43:-1 44:0 45:-2 46:1 47:0 48:0 49:0 50:0 51:-1 52:4 53:-3 54:-1 55:-1 56:1 57:-3 58:1 59:0 60:0 
32.66666650772095 1:-1 2:0 3:3 4:-3 5:3 6:0 7:2 8:-2 9:3 10:0 11:0 12:0 13:-1 14:0 15:1 16:-3 17:3 18:0 19:2 20:-1 21:1 22:1 23:0 24:0 25:-1 26:0 27:0 28:0 29:0 30:-1 31:0 32:0 33:-1 34:1 35:0 36:0 37:0 38:0 39:0 40:3 41:-2 42:-1 43:0 44:1 45:-2 46:1 47:0 48:0 49:0 50:0 51:0 52:4 53:-2 54:-1 55:0 56:1 57:-2 58:1 59:0 60:0 
32.66666650772095 1:-1 2:0 3:1 4:-4 5:4 6:0 7:2 8:-2 9:2 10:0 11:0 12:0 13:-1 14:0 15:0 16:-1 17:1 18:-1 19:0 20:-1 21:0 22:0 23:0 24:0 25:0 26:0 27:0 28:2 29:-1 30:-1 31:0 32:0 33:-1 34:0 35:0 36:0 37:0 38:0 39:0 40:3 41:-1 42:-1 43:0 44:0 45:-1 46:0 47:0 48:0 49:0 50:0 51:0 52:4 53:-1 54:-1 55:0 56:0 57:-2 58:1 59:0 60:0 
32.66666650772095 1:-1 2:0 3:0 4:-3 5:2 6:-1 7:0 8:-1 9:1 10:0 11:0 12:0 13:0 14:0 15:0 16:0 17:0 18:-1 19:0 20:0 21:0 22:0 23:0 24:0 25:0 26:0 27:0 28:1 29:0 30:-1 31:0 32:0 33:0 34:0 35:0 36:0 37:0 38:0 39:0 40:2 41:0 42:-1 43:0 44:0 45:-1 46:1 47:0 48:0 49:0 50:0 51:0 52:1 53:-1 54:0 55:0 56:0 57:-2 58:1 59:0 60:0 
32.66666650772095 1:0 2:-1 3:0 4:0 5:1 6:-1 7:1 8:0 9:1 10:0 11:0 12:0 13:0 14:-1 15:0 16:1 17:1 18:-1 19:1 20:0 21:1 22:0 23:0 24:0 25:0 26:-1 27:0 28:2 29:1 30:-1 31:1 32:0 33:0 34:1 35:0 36:0 37:0 38:-1 39:0 40:1 41:0 42:0 43:1 44:0 45:-1 46:1 47:0 48:0 49:0 50:0 51:0 52:0 53:0 54:0 55:0 56:0 57:-1 58:1 59:0 60:0 
32.66666650772095 1:0 2:-1 3:0 4:1 5:1 6:-1 7:1 8:0 9:1 10:0 11:1 12:0 13:0 14:-1 15:0 16:2 17:1 18:-1 19:1 20:0 21:0 22:1 23:1 24:0 25:0 26:-1 27:0 28:1 29:0 30:0 31:1 32:0 33:-1 34:1 35:1 36:0 37:0 38:0 39:0 40:0 41:0 42:0 43:0 44:0 45:-1 46:1 47:1 48:0 49:-1 50:0 51:0 52:-1 53:0 54:0 55:0 56:0 57:-2 58:0 59:0 60:0 
32.66666650772095 1:0 2:-1 3:0 4:2 5:1 6:-1 7:1 8:0 9:1 10:1 11:1 12:0 13:0 14:-1 15:0 16:1 17:0 18:0 19:1 20:0 21:0 22:1 23:1 24:0 25:0 26:0 27:0 28:0 29:0 30:0 31:0 32:0 33:0 34:1 35:1 36:0 37:-1 38:0 39:0 40:-1 41:0 42:0 43:0 44:0 45:-1 46:0 47:0 48:0 49:-1 50:0 51:0 52:-1 53:0 54:0 55:-1 56:0 57:-1 58:0 59:0 60:0 
32.66666650772095 1:0 2:-1 3:0 4:2 5:1 6:0 7:1 8:0 9:0 10:1 11:1 12:0 13:0 14:0 15:0 16:1 17:1 18:0 19:0 20:0 21:0 22:1 23:1 24:0 25:-1 26:0 27:0 28:0 29:1 30:0 31:0 32:0 33:-1 34:0 35:0 36:0 37:-1 38:0 39:0 40:0 41:1 42:0 43:-1 44:0 45:-1 46:0 47:0 48:0 49:-1 50:0 51:0 52:1 53:0 54:0 55:0 56:0 57:-1 58:0 59:0 60:0 
32.66666650772095 1:0 2:-1 3:0 4:1 5:1 6:0 7:0 8:0 9:0 10:1 11:1 12:0 13:-1 14:-1 15:0 16:0 17:1 18:0 19:0 20:0 21:-1 22:0 23:0 24:0 25:-1 26:-1 27:0 28:0 29:1 30:0 31:-1 32:0 33:-1 34:0 35:0 36:0 37:-1 38:-1 39:0 40:1 41:0 42:0 43:0 44:0 45:-1 46:0 47:0 48:0 49:-1 50:0 51:0 52:1 53:0 54:0 55:1 56:0 57:0 58:0 59:0 60:0 
32.66666650772095 1:0 2:-1 3:0 4:0 5:0 6:0 7:0 8:0 9:-1 10:0 11:0 12:0 13:0 14:-1 15:0 16:0 17:0 18:0 19:-1 20:0 21:-1 22:0 23:0 24:0 25:0 26:-1 27:0 28:1 29:-1 30:0 31:0 32:0 33:-1 34:0 35:0 36:0 37:0 38:0 39:0 40:1 41:-1 42:0 43:1 44:0 45:0 46:0 47:0 48:0 49:0 50:0 51:0 52:-2 53:2 54:0 55:1 56:-1 57:1 58:0 59:0 60:0 
32.66666650772095 1:0 2:-1 3:0 4:1 5:0 6:-1 7:-1 8:0 9:-2 10:0 11:0 12:0 13:0 14:-1 15:0 16:2 17:-1 18:-1 19:0 20:0 21:-2 22:0 23:0 24:0 25:0 26:0 27:0 28:2 29:-1 30:-1 31:1 32:0 33:-1 34:0 35:0 36:0 37:0 38:0 39:0 40:-1 41:2 42:-1 43:1 44:-1 45:0 46:0 47:0 48:0 49:0 50:0 51:0 52:-1 53:2 54:0 55:3 56:-3 57:3 58:0 59:0 60:0 
32.66666650772095 1:0 2:-1 3:0 4:2 5:-2 6:-1 7:-1 8:2 9:-4 10:0 11:0 12:0 13:0 14:0 15:0 16:2 17:-2 18:-1 19:0 20:2 21:-3 22:0 23:0 24:0 25:0 26:0 27:0 28:-1 29:1 30:-1 31:0 32:1 33:-2 34:0 35:0 36:0 37:0 38:0 39:0 40:-1 41:1 42:0 43:2 44:-1 45:1 46:0 47:0 48:0 49:-1 50:0 51:0 52:-1 53:3 54:2 55:3 56:-4 57:8 58:0 59:0 60:0 
32.66666650772095 1:0 2:0 3:1 4:1 5:-1 6:1 7:8 8:-1 9:5 10:0 11:0 12:0 13:0 14:0 15:1 16:0 17:0 18:0 19:3 20:-2 21:3 22:0 23:0 24:0 25:0 26:0 27:1 28:-1 29:1 30:0 31:0 32:-2 33:0 34:0 35:0 36:0 37:0 38:0 39:1 40:0 41:1 42:0 43:-2 44:0 45:-3 46:0 47:0 48:0 49:-1 50:0 51:-1 52:0 53:0 54:-1 55:-5 56:1 57:-6 58:0 59:0 60:0 
32.66666650772095 1:0 2:0 3:1 4:0 5:0 6:0 7:6 8:-2 9:5 10:0 11:0 12:0 13:0 14:0 15:1 16:-1 17:1 18:0 19:3 20:-2 21:2 22:0 23:0 24:0 25:0 26:0 27:1 28:0 29:1 30:0 31:1 32:0 33:-1 34:0 35:0 36:0 37:-1 38:0 39:-1 40:0 41:0 42:-1 43:-2 44:1 45:-4 46:0 47:0 48:0 49:-1 50:0 51:-2 52:1 53:-1 54:0 55:-4 56:1 57:-5 58:0 59:0 60:0 
32.66666650772095 1:0 2:0 3:2 4:-1 5:1 6:0 7:5 8:-3 9:5 10:0 11:0 12:0 13:0 14:0 15:2 16:0 17:1 18:0 19:3 20:-1 21:2 22:0 23:0 24:0 25:-1 26:0 27:0 28:0 29:0 30:-1 31:0 32:0 33:-1 34:0 35:0 36:0 37:-1 38:0 39:-1 40:1 41:-1 42:0 43:-2 44:0 45:-2 46:0 47:0 48:0 49:-2 50:0 51:-2 52:1 53:-1 54:0 55:-4 56:2 57:-5 58:0 59:0 60:0 
32.66666650772095 1:1 2:0 3:3 4:0 5:2 6:0 7:5 8:-2 9:4 10:0 11:0 12:0 13:0 14:0 15:1 16:0 17:1 18:-1 19:2 20:-1 21:1 22:0 23:0 24:0 25:0 26:0 27:0 28:1 29:0 30:0 31:0 32:-1 33:0 34:0 35:0 36:0 37:-1 38:0 39:-1 40:1 41:0 42:0 43:-2 44:1 45:-3 46:0 47:0 48:0 49:-1 50:0 51:-1 52:0 53:1 54:-1 55:-4 56:2 57:-5 58:0 59:0 60:0 
32.66666650772095 1:0 2:0 3:2 4:1 5:1 6:0 7:5 8:-2 9:3 10:0 11:0 12:0 13:0 14:0 15:1 16:2 17:0 18:1 19:3 20:-2 21:2 22:0 23:0 24:0 25:-1 26:0 27:0 28:2 29:0 30:1 31:1 32:0 33:-1 34:0 35:0 36:0 37:-1 38:0 39:0 40:1 41:1 42:0 43:-1 44:1 45:-3 46:0 47:0 48:0 49:0 50:0 51:1 52:-2 53:2 54:-2 55:-4 56:2 57:-5 58:0 59:0 60:0 
32.66666650772095 1:0 2:0 3:1 4:2 5:-1 6:1 7:5 8:-3 9:5 10:0 11:0 12:0 13:-1 14:0 15:0 16:2 17:-1 18:1 19:3 20:-1 21:2 22:0 23:0 24:0 25:-1 26:0 27:0 28:1 29:0 30:0 31:1 32:0 33:0 34:0 35:0 36:0 37:0 38:0 39:1 40:-2 41:1 42:-2 43:-2 44:1 45:-2 46:0 47:0 48:0 49:-1 50:0 51:2 52:-3 53:1 54:-3 55:-3 56:2 57:-5 58:0 59:0 60:0 
32.66666650772095 1:-1 2:0 3:-1 4:4 5:-1 6:2 7:4 8:-2 9:4 10:0 11:0 12:0 13:-1 14:0 15:-1 16:3 17:0 18:1 19:2 20:-1 21:2 22:0 23:0 24:0 25:0 26:0 27:0 28:0 29:1 30:-1 31:-1 32:0 33:0 34:0 35:0 36:0 37:-1 38:0 39:1 40:-1 41:1 42:-2 43:-2 44:1 45:-3 46:0 47:0 48:0 49:-1 50:0 51:1 52:-2 53:0 54:-2 55:-3 56:2 57:-5 58:0 59:0 60:0 
32.66666650772095 1:-1 2:0 3:-1 4:4 5:0 6:2 7:4 8:-2 9:4 10:1 11:0 12:0 13:0 14:0 15:0 16:1 17:1 18:0 19:1 20:-1 21:2 22:1 23:0 24:0 25:-1 26:0 27:1 28:0 29:1 30:-1 31:0 32:0 33:-1 34:1 35:0 36:0 37:-1 38:0 39:1 40:-1 41:0 42:-1 43:-1 44:1 45:-3 46:1 47:0 48:0 49:-1 50:0 51:2 52:-3 53:-2 54:-2 55:-3 56:2 57:-6 58:0 59:0 60:0 
32.66666650772095 1:0 2:0 3:-1 4:3 5:2 6:1 7:3 8:-2 9:5 10:1 11:0 12:0 13:-1 14:0 15:0 16:2 17:2 18:0 19:2 20:-1 21:2 22:1 23:0 24:0 25:-1 26:0 27:0 28:1 29:1 30:0 31:1 32:0 33:0 34:1 35:0 36:0 37:-1 38:0 39:1 40:-1 41:-1 42:-1 43:-1 44:1 45:-3 46:0 47:0 48:0 49:-1 50:0 51:1 52:-4 53:-1 54:-3 55:-2 56:1 57:-4 58:0 59:0 60:0 
32.66666650772095 1:0 2:0 3:0 4:4 5:2 6:1 7:3 8:-2 9:4 10:1 11:0 12:0 13:0 14:0 15:0 16:3 17:1 18:1 19:2 20:-1 21:2 22:1 23:0 24:0 25:0 26:0 27:1 28:1 29:-1 30:0 31:0 32:0 33:-1 34:0 35:0 36:0 37:0 38:0 39:1 40:-2 41:-1 42:-2 43:-1 44:0 45:-2 46:0 47:0 48:0 49:0 50:0 51:-1 52:-2 53:-1 54:-2 55:-1 56:1 57:-4 58:1 59:0 60:0 
32.66666650772095 1:0 2:0 3:1 4:3 5:3 6:2 7:3 8:-2 9:4 10:1 11:0 12:0 13:0 14:0 15:2 16:1 17:1 18:1 19:1 20:-1 21:1 22:0 23:0 24:0 25:0 26:0 27:2 28:-2 29:1 30:-1 31:0 32:-1 33:0 34:0 35:0 36:0 37:0 38:0 39:0 40:-2 41:1 42:-1 43:0 44:0 45:-2 46:1 47:0 48:0 49:0 50:0 51:-1 52:1 53:-2 54:-2 55:-2 56:1 57:-4 58:1 59:0 60:0 
32.66666650772095 1:-1 2:0 3:2 4:1 5:2 6:2 7:2 8:-2 9:3 10:0 11:0 12:0 13:-1 14:0 15:2 16:-2 17:2 18:0 19:1 20:-2 21:2 22:0 23:0 24:0 25:-1 26:0 27:0 28:-2 29:2 30:0 31:1 32:-1 33:0 34:1 35:0 36:0 37:-1 38:0 39:-1 40:1 41:-1 42:-1 43:-1 44:0 45:-2 46:1 47:0 48:0 49:0 50:0 51:-1 52:4 53:-3 54:-1 55:-1 56:1 57:-3 58:1 59:0 60:0 
32.66666650772095 1:-1 2:0 3:3 4:-3 5:3 6:0 7:2 8:-2 9:3 10:0 11:0 12:0 13:-1 14:0 15:1 16:-3 17:3 18:0 19:2 20:-1 21:1 22:1 23:0 24:0 25:-1 26:0 27:0 28:0 29:0 30:-1 31:0 32:0 33:-1 34:1 35:0 36:0 37:0 38:0 39:0 40:3 41:-2 42:-1 43:0 44:1 45:-2 46:1 47:0 48:0 49:0 50:0 51:0 52:4 53:-2 54:-1 55:0 56:1 57:-2 58:1 59:0 60:0 
32.66666650772095 1:-1 2:0 3:1 4:-4 5:4 6:0 7:2 8:-2 9:2 10:0 11:0 12:0 13:-1 14:0 15:0 16:-1 17:1 18:-1 19:0 20:-1 21:0 22:0 23:0 24:0 25:0 26:0 27:0 28:2 29:-1 30:-1 31:0 32:0 33:-1 34:0 35:0 36:0 37:0 38:0 39:0 40:3 41:-1 42:-1 43:0 44:0 45:-1 46:0 47:0 48:0 49:0 50:0 51:0 52:4 53:-1 54:-1 55:0 56:0 57:-2 58:1 59:0 60:0 
32.66666650772095 1:-1 2:0 3:0 4:-3 5:2 6:-1 7:0 8:-1 9:1 10:0 11:0 12:0 13:0 14:0 15:0 16:0 17:0 18:-1 19:0 20:0 21:0 22:0 23:0 24:0 25:0 26:0 27:0 28:1 29:0 30:-1 31:0 32:0 33:0 34:0 35:0 36:0 37:0 38:0 39:0 40:2 41:0 42:-1 43:0 44:0 45:-1 46:1 47:0 48:0 49:0 50:0 51:0 52:1 53:-1 54:0 55:0 56:0 57:-2 58:1 59:0 60:0 
32.66666650772095 1:0 2:-1 3:0 4:0 5:1 6:-1 7:1 8:0 9:1 10:0 11:0 12:0 13:0 14:-1 15:0 16:1 17:1 18:-1 19:1 20:0 21:1 22:0 23:0 24:0 25:0 26:-1 27:0 28:2 29:1 30:-1 31:1 32:0 33:0 34:1 35:0 36:0 37:0 38:-1 39:0 40:1 41:0 42:0 43:1 44:0 45:-1 46:1 47:0 48:0 49:0 50:0 51:0 52:0 53:0 54:0 55:0 56:0 57:-1 58:1 59:0 60:0 
32.66666650772095 1:0 2:-1 3:0 4:1 5:1 6:-1 7:1 8:0 9:1 10:0 11:1 12:0 13:0 14:-1 15:0 16:2 17:1 18:-1 19:1 20:0 21:0 22:1 23:1 24:0 25:0 26:-1 27:0 28:1 29:0 30:0 31:1 32:0 33:-1 34:1 35:1 36:0 37:0 38:0 39:0 40:0 41:0 42:0 43:0 44:0 45:-1 46:1 47:1 48:0 49:-1 50:0 51:0 52:-1 53:0 54:0 55:0 56:0 57:-2 58:0 59:0 60:0 
32.66666650772095 1:0 2:-1 3:0 4:2 5:1 6:-1 7:1 8:0 9:1 10:1 11:1 12:0 13:0 14:-1 15:0 16:1 17:0 18:0 19:1 20:0 21:0 22:1 23:1 24:0 25:0 26:0 27:0 28:0 29:0 30:0 31:0 32:0 33:0 34:1 35:1 36:0 37:-1 38:0 39:0 40:-1 41:0 42:0 43:0 44:0 45:-1 46:0 47:0 48:0 49:-1 50:0 51:0 52:-1 53:0 54:0 55:-1 56:0 57:-1 58:0 59:0 60:0 
32.66666650772095 1:0 2:-1 3:0 4:2 5:1 6:0 7:1 8:0 9:0 10:1 11:1 12:0 13:0 14:0 15:0 16:1 17:1 18:0 19:0 20:0 21:0 22:1 23:1 24:0 25:-1 26:0 27:0 28:0 29:1 30:0 31:0 32:0 33:-1 34:0 35:0 36:0 37:-1 38:0 39:0 40:0 41:1 42:0 43:-1 44:0 45:-1 46:0 47:0 48:0 49:-1 50:0 51:0 52:1 53:0 54:0 55:0 56:0 57:-1 58:0 59:0 60:0 
32.66666650772095 1:0 2:-1 3:0 4:1 5:1 6:0 7:0 8:0 9:0 10:1 11:1 12:0 13:-1 14:-1 15:0 16:0 17:1 18:0 19:0 20:0 21:-1 22:0 23:0 24:0 25:-1 26:-1 27:0 28:0 29:1 30:0 31:-1 32:0 33:-1 34:0 35:0 36:0 37:-1 38:-1 39:0 40:1 41:0 42:0 43:0 44:0 45:-1 46:0 47:0 48:0 49:-1 50:0 51:0 52:1 53:0 54:0 55:1 56:0 57:0 58:0 59:0 60:0 
32.66666650772095 1:0 2:-1 3:0 4:0 5:0 6:0 7:0 8:0 9:-1 10:0 11:0 12:0 13:0 14:-1 15:0 16:0 17:0 18:0 19:-1 20:0 21:-1 22:0 23:0 24:0 25:0 26:-1 27:0 28:1 29:-1 30:0 31:0 32:0 33:-1 34:0 35:0 36:0 37:0 38:0 39:0 40:1 41:-1 42:0 43:1 44:0 45:0 46:0 47:0 48:0 49:0 50:0 51:0 52:-2 53:2 54:0 55:1 56:-1 57:1 58:0 59:0 60:0 
32.66666650772095 1:0 2:-1 3:0 4:1 5:0 6:-1 7:-1 8:0 9:-2 10:0 11:0 12:0 13:0 14:-1 15:0 16:2 17:-1 18:-1 19:0 20:0 21:-2 22:0 23:0 24:0 25:0 26:0 27:0 28:2 29:-1 30:-1 31:1 32:0 33:-1 34:0 35:0 36:0 37:0 38:0 39:0 40:-1 41:2 42:-1 43:1 44:-1 45:0 46:0 47:0 48:0 49:0 50:0 51:0 52:-1 53:2 54:0 55:3 56:-3 57:3 58:0 59:0 60:0 
32.66666650772095 1:0 2:-1 3:0 4:2 5:-2 6:-1 7:-1 8:2 9:-4 10:0 11:0 12:0 13:0 14:0 15:0 16:2 17:-2 18:-1 19:0 20:2 21:-3 22:0 23:0 24:0 25:0 26:0 27:0 28:-1 29:1 30:-1 31:0 32:1 33:-2 34:0 35:0 36:0 37:0 38:0 39:0 40:-1 41:1 42:0 43:2 44:-1 45:1 46:0 47:0 48:0 49:-1 50:0 51:0 52:-1 53:3 54:2 55:3 56:-4 57:8 58:0 59:0 60:0 
-25.3333330154419 1:-1 2:-1 3:0 4:4 5:-1 6:0 7:-5 8:3 9:-7 10:0 11:0 12:0 13:-1 14:-1 15:0 16:0 17:1 18:-1 19:-3 20:1 21:-4 22:0 23:0 24:0 25:-1 26:0 27:0 28:-2 29:1 30:0 31:0 32:0 33:0 34:0 35:0 36:0 37:0 38:0 39:2 40:-1 41:1 42:0 43:3 44:-2 45:3 46:0 47:0 48:0 49:1 50:0 51:0 52:-1 53:1 54:0 55:6 56:-3 57:6 58:0 59:0 60:0 
-25.3333330154419 1:-1 2:-1 3:1 4:1 5:-5 6:0 7:-1 8:-4 9:-2 10:1 11:1 12:0 13:0 14:-1 15:1 16:0 17:0 18:-1 19:0 20:-1 21:-1 22:1 23:0 24:0 25:-1 26:0 27:0 28:0 29:1 30:-1 31:1 32:1 33:-1 34:1 35:0 36:0 37:-1 38:0 39:0 40:1 41:2 42:0 43:2 44:2 45:0 46:0 47:0 48:0 49:-1 50:0 51:0 52:1 53:2 54:0 55:2 56:2 57:1 58:0 59:0 60:-1 
-25.3333330154419 1:0 2:-1 3:1 4:0 5:-1 6:-1 7:-1 8:-3 9:-1 10:1 11:0 12:0 13:-1 14:0 15:0 16:0 17:0 18:-1 19:0 20:-1 21:-1 22:1 23:0 24:0 25:-1 26:0 27:0 28:1 29:1 30:0 31:1 32:0 33:0 34:0 35:0 36:0 37:-1 38:0 39:0 40:1 41:1 42:0 43:1 44:0 45:1 46:0 47:0 48:-1 49:-1 50:1 51:0 52:1 53:0 54:0 55:0 56:0 57:1 58:0 59:0 60:0 
-25.3333330154419 1:0 2:-1 3:0 4:0 5:0 6:-1 7:0 8:-1 9:-2 10:1 11:0 12:0 13:0 14:-1 15:0 16:1 17:1 18:0 19:1 20:0 21:-1 22:0 23:0 24:0 25:0 26:-1 27:0 28:1 29:1 30:0 31:1 32:0 33:0 34:0 35:0 36:-1 37:0 38:0 39:0 40:1 41:0 42:0 43:0 44:0 45:0 46:0 47:0 48:0 49:0 50:0 51:0 52:1 53:0 54:0 55:1 56:-1 57:-1 58:0 59:0 60:0 
-25.3333330154419 1:0 2:-1 3:0 4:0 5:1 6:0 7:1 8:0 9:-1 10:0 11:1 12:0 13:0 14:-1 15:0 16:0 17:1 18:0 19:1 20:0 21:0 22:0 23:1 24:-1 25:0 26:0 27:0 28:0 29:0 30:0 31:0 32:0 33:0 34:0 35:1 36:0 37:0 38:0 39:0 40:0 41:0 42:0 43:1 44:-1 45:-1 46:0 47:1 48:0 49:0 50:0 51:0 52:0 53:0 54:0 55:0 56:0 57:-1 58:0 59:0 60:0 
-25.3333330154419 1:0 2:-1 3:0 4:1 5:2 6:0 7:1 8:0 9:0 10:0 11:1 12:-1 13:0 14:0 15:0 16:1 17:1 18:0 19:0 20:0 21:0 22:0 23:1 24:0 25:0 26:0 27:0 28:1 29:1 30:0 31:1 32:-1 33:-1 34:0 35:1 36:0 37:0 38:0 39:0 40:1 41:1 42:0 43:0 44:0 45:-1 46:0 47:0 48:0 49:0 50:0 51:0 52:0 53:-1 54:0 55:0 56:0 57:-2 58:0 59:0 60:0 
-25.3333330154419 1:0 2:0 3:0 4:1 5:2 6:0 7:0 8:0 9:1 10:0 11:1 12:0 13:0 14:0 15:0 16:1 17:2 18:0 19:1 20:-1 21:0 22:0 23:1 24:0 25:0 26:0 27:0 28:1 29:2 30:0 31:0 32:0 33:0 34:0 35:0 36:0 37:0 38:0 39:0 40:0 41:0 42:0 43:0 44:0 45:-1 46:0 47:0 48:0 49:0 50:0 51:0 52:0 53:-2 54:0 55:0 56:0 57:-2 58:0 59:0 60:0 
-25.3333330154419 1:-1 2:0 3:0 4:1 5:2 6:0 7:1 8:-1 9:1 10:0 11:1 12:0 13:-1 14:0 15:0 16:1 17:2 18:0 19:0 20:0 21:1 22:0 23:0 24:0 25:-1 26:0 27:0 28:0 29:0 30:0 31:0 32:0 33:0 34:0 35:0 36:0 37:-1 38:0 39:0 40:0 41:-2 42:0 43:0 44:0 45:-1 46:0 47:0 48:0 49:0 50:0 51:1 52:0 53:-2 54:0 55:-1 56:0 57:-2 58:1 59:0 60:0 
-25.3333330154419 1:-1 2:0 3:0 4:1 5:3 6:0 7:1 8:0 9:1 10:0 11:0 12:0 13:-1 14:0 15:0 16:0 17:1 18:0 19:1 20:0 21:0 22:0 23:0 24:0 25:-1 26:0 27:0 28:0 29:-1 30:0 31:1 32:0 33:-1 34:0 35:0 36:0 37:0 38:0 39:1 40:0 41:-1 42:0 43:0 44:0 45:-2 46:1 47:0 48:0 49:0 50:0 51:1 52:0 53:-1 54:0 55:-2 56:-2 57:-2 58:1 59:0 60:0 
-25.3333330154419 1:-1 2:0 3:0 4:1 5:1 6:-1 7:2 8:1 9:1 10:0 11:0 12:0 13:-1 14:0 15:0 16:1 17:-1 18:-1 19:2 20:1 21:0 22:0 23:0 24:0 25:0 26:0 27:1 28:1 29:-1 30:-1 31:1 32:1 33:-1 34:1 35:0 36:0 37:0 38:0 39:1 40:1 41:-1 42:-1 43:-1 44:-1 45:-1 46:1 47:0 48:0 49:0 50:0 51:1 52:-2 53:2 54:0 55:-3 56:-2 57:-1 58:1 59:0 60:0 
-25.3333330154419 1:0 2:0 3:0 4:1 5:0 6:2 7:5 8:1 9:4 10:0 11:0 12:0 13:0 14:0 15:0 16:-1 17:1 18:2 19:2 20:0 21:2 22:0 23:0 24:0 25:0 26:0 27:0 28:-1 29:2 30:1 31:0 32:0 33:0 34:0 35:0 36:0 37:0 38:0 39:0 40:0 41:0 42:-2 43:-1 44:0 45:-2 46:0 47:0 48:0 49:0 50:0 51:0 52:2 53:-1 54:-4 55:-4 56:-1 57:-4 58:0 59:0 60:0 
-25.3333330154419 1:0 2:0 3:0 4:-2 5:4 6:4 7:5 8:0 9:3 10:0 11:0 12:0 13:0 14:0 15:0 16:-1 17:2 18:1 19:4 20:0 21:1 22:0 23:0 24:0 25:0 26:0 27:0 28:1 29:1 30:-1 31:1 32:-1 33:-1 34:0 35:0 36:0 37:0 38:0 39:0 40:2 41:-1 42:-2 43:-4 44:-1 45:-2 46:0 47:0 48:0 49:0 50:0 51:0 52:2 53:-3 54:-2 55:-6 56:-1 57:-3 58:0 59:0 60:0 
-25.3333330154419 1:0 2:-1 3:1 4:-2 5:3 6:2 7:7 8:0 9:3 10:0 11:0 12:0 13:0 14:-1 15:1 16:0 17:2 18:0 19:4 20:-1 21:1 22:0 23:0 24:0 25:0 26:-1 27:1 28:1 29:0 30:-1 31:-1 32:-1 33:0 34:0 35:0 36:0 37:0 38:-1 39:1 40:1 41:-2 42:-1 43:-3 44:-1 45:-1 46:0 47:0 48:0 49:0 50:0 51:0 52:2 53:0 54:-3 55:-4 56:2 57:-3 58:0 59:0 60:0 
-25.3333330154419 1:0 2:-1 3:1 4:0 5:2 6:1 7:6 8:-2 9:2 10:0 11:0 12:0 13:0 14:-1 15:1 16:1 17:0 18:0 19:1 20:-2 21:1 22:0 23:0 24:0 25:0 26:-1 27:1 28:1 29:-2 30:0 31:-1 32:-2 33:0 34:0 35:0 36:0 37:0 38:0 39:0 40:2 41:0 42:-2 43:-2 44:1 45:-2 46:0 47:0 48:0 49:0 50:0 51:-1 52:-2 53:3 54:-3 55:-4 56:5 57:-5 58:0 59:0 60:0 
-25.3333330154419 1:-1 2:-1 3:2 4:1 5:-1 6:1 7:4 8:-4 9:3 10:0 11:0 12:0 13:-1 14:-1 15:2 16:1 17:-3 18:1 19:2 20:-4 21:2 22:0 23:0 24:0 25:-1 26:0 27:1 28:2 29:-1 30:-1 31:1 32:-1 33:0 34:0 35:0 36:0 37:-1 38:0 39:0 40:-2 41:2 42:-2 43:-1 44:3 45:-3 46:0 47:0 48:0 49:0 50:1 51:-1 52:-2 53:4 54:-2 55:-3 56:6 57:-5 58:0 59:0 60:0 
-25.3333330154419 1:-1 2:-2 3:3 4:3 5:-4 6:2 7:4 8:-7 9:4 10:0 11:0 12:0 13:-1 14:-1 15:2 16:4 17:-2 18:0 19:3 20:-4 21:2 22:0 23:0 24:0 25:-1 26:-1 27:1 28:0 29:1 30:-1 31:1 32:0 33:-1 34:0 35:0 36:0 37:0 38:0 39:0 40:0 41:3 42:-1 43:-1 44:3 45:-3 46:0 47:0 48:0 49:1 50:1 51:-3 52:-3 53:6 54:-2 55:-3 56:6 57:-5 58:0 59:0 60:0 
-25.3333330154419 1:-1 2:-1 3:2 4:3 5:-3 6:1 7:4 8:-5 9:4 10:1 11:0 12:0 13:0 14:0 15:1 16:3 17:-1 18:1 19:2 20:-2 21:2 22:1 23:0 24:0 25:1 26:1 27:-2 28:0 29:2 30:0 31:0 32:1 33:0 34:1 35:0 36:0 37:1 38:1 39:-2 40:-1 41:2 42:-1 43:-2 44:3 45:-4 46:1 47:0 48:0 49:-1 50:-1 51:1 52:-3 53:1 54:-2 55:-3 56:2 57:-6 58:0 59:0 60:0 
-25.3333330154419 1:0 2:0 3:1 4:4 5:-1 6:1 7:4 8:-3 9:5 10:1 11:0 12:0 13:1 14:1 15:-2 16:1 17:2 18:0 19:2 20:0 21:3 22:1 23:0 24:0 25:1 26:1 27:-2 28:0 29:2 30:-1 31:0 32:2 33:-1 34:1 35:0 36:0 37:-1 38:-1 39:1 40:-2 41:1 42:-2 43:-1 44:1 45:-3 46:0 47:0 48:0 49:-1 50:-1 51:1 52:-3 53:-1 54:-2 55:-4 56:0 57:-5 58:1 59:0 60:0 
-25.3333330154419 1:1 2:1 3:-3 4:3 5:2 6:1 7:4 8:-1 9:5 10:1 11:0 12:-1 13:1 14:1 15:-3 16:2 17:2 18:0 19:2 20:1 21:1 22:1 23:0 24:-1 25:-1 26:-1 27:0 28:0 29:1 30:-1 31:1 32:0 33:-1 34:0 35:0 36:-1 37:-1 38:-1 39:0 40:-1 41:-1 42:-1 43:-2 44:-1 45:-3 46:1 47:0 48:-1 49:0 50:-1 51:2 52:-1 53:-3 54:-1 55:-4 56:-1 57:-6 58:1 59:0 60:0 
-25.3333330154419 1:1 2:1 3:-3 4:3 5:4 6:0 7:4 8:1 9:4 10:1 11:0 12:-1 13:-1 14:-1 15:0 16:1 17:3 18:-1 19:3 20:0 21:2 22:0 23:0 24:-1 25:-1 26:-1 27:0 28:0 29:1 30:-1 31:0 32:-1 33:0 34:1 35:0 36:-1 37:0 38:-1 39:2 40:0 41:-1 42:-1 43:-2 44:-1 45:-3 46:1 47:0 48:0 49:1 50:-1 51:1 52:0 53:-3 54:0 55:-4 56:-2 57:-5 58:1 59:0 60:0 
-25.3333330154419 1:-1 2:0 3:0 4:1 5:4 6:0 7:5 8:1 9:4 10:0 11:0 12:-1 13:-1 14:0 15:0 16:0 17:2 18:0 19:2 20:0 21:2 22:1 23:0 24:-1 25:0 26:0 27:2 28:0 29:0 30:0 31:0 32:0 33:-1 34:1 35:0 36:0 37:1 38:0 39:1 40:0 41:-2 42:1 43:-2 44:-1 45:-3 46:1 47:0 48:0 49:1 50:0 51:0 52:2 53:-1 54:-1 55:-4 56:0 57:-5 58:1 59:0 60:0 
-25.3333330154419 1:-2 2:0 3:0 4:-1 5:3 6:0 7:4 8:0 9:4 10:0 11:1 12:-1 13:-1 14:0 15:2 16:-1 17:1 18:0 19:2 20:0 21:1 22:0 23:1 24:0 25:0 26:0 27:1 28:-1 29:-1 30:1 31:0 32:-1 33:-1 34:0 35:1 36:0 37:0 38:0 39:0 40:1 41:0 42:-1 43:-2 44:0 45:-3 46:0 47:1 48:0 49:-1 50:0 51:0 52:4 53:1 54:-3 55:-2 56:0 57:-5 58:0 59:0 60:-1 
-25.3333330154419 1:-1 2:0 3:2 4:-2 5:1 6:1 7:3 8:0 9:4 10:0 11:1 12:0 13:0 14:0 15:1 16:-2 17:-1 18:2 19:1 20:-1 21:2 22:0 23:1 24:0 25:0 26:0 27:0 28:0 29:0 30:0 31:-1 32:0 33:0 34:0 35:1 36:0 37:-1 38:0 39:0 40:3 41:1 42:-2 43:-1 44:0 45:-2 46:0 47:0 48:-1 49:-1 50:0 51:0 52:3 53:1 54:-2 55:-2 56:1 57:-4 58:0 59:0 60:-1 
-25.3333330154419 1:0 2:-1 3:0 4:1 5:0 6:-1 7:1 8:-3 9:4 10:0 11:0 12:0 13:0 14:-1 15:0 16:1 17:0 18:-1 19:0 20:-2 21:2 22:0 23:0 24:0 25:0 26:0 27:0 28:1 29:0 30:0 31:-1 32:0 33:-2 34:0 35:0 36:0 37:-1 38:-1 39:1 40:0 41:0 42:0 43:-1 44:0 45:-3 46:0 47:0 48:0 49:-1 50:-1 51:1 52:0 53:0 54:0 55:-2 56:1 57:-4 58:0 59:0 60:0 
-25.3333330154419 1:0 2:-1 3:0 4:1 5:1 6:-1 7:1 8:-3 9:4 10:0 11:0 12:0 13:0 14:0 15:0 16:1 17:1 18:0 19:0 20:-1 21:0 22:0 23:0 24:0 25:-1 26:-1 27:1 28:0 29:1 30:0 31:0 32:-1 33:-1 34:0 35:0 36:0 37:-1 38:-1 39:1 40:0 41:1 42:0 43:-1 44:0 45:-2 46:0 47:0 48:0 49:-1 50:-1 51:1 52:0 53:0 54:0 55:-2 56:1 57:-3 58:0 59:0 60:0 
-25.3333330154419 1:0 2:0 3:0 4:1 5:1 6:0 7:1 8:-1 9:2 10:0 11:0 12:0 13:-1 14:-1 15:1 16:0 17:1 18:0 19:1 20:-1 21:1 22:0 23:0 24:0 25:-1 26:-1 27:1 28:0 29:1 30:0 31:0 32:0 33:0 34:0 35:0 36:0 37:-1 38:-1 39:1 40:0 41:0 42:0 43:-1 44:1 45:-1 46:0 47:0 48:0 49:-1 50:-1 51:1 52:0 53:0 54:0 55:-1 56:1 57:-3 58:0 59:0 60:0 
-25.3333330154419 1:0 2:0 3:0 4:0 5:1 6:-1 7:1 8:-2 9:2 10:0 11:0 12:-1 13:0 14:0 15:0 16:0 17:1 18:-1 19:0 20:-1 21:1 22:0 23:0 24:-1 25:0 26:0 27:0 28:0 29:0 30:-1 31:-1 32:0 33:0 34:0 35:0 36:-1 37:0 38:0 39:0 40:0 41:0 42:-1 43:-1 44:0 45:-2 46:0 47:0 48:-1 49:0 50:0 51:1 52:0 53:0 54:0 55:-1 56:0 57:-2 58:0 59:0 60:0 
-25.3333330154419 1:-1 2:-1 3:0 4:4 5:-1 6:0 7:-5 8:3 9:-7 10:0 11:0 12:0 13:-1 14:-1 15:0 16:0 17:1 18:-1 19:-3 20:1 21:-4 22:0 23:0 24:0 25:-1 26:0 27:0 28:-2 29:1 30:0 31:0 32:0 33:0 34:0 35:0 36:0 37:0 38:0 39:2 40:-1 41:1 42:0 43:3 44:-2 45:3 46:0 47:0 48:0 49:1 50:0 51:0 52:-1 53:1 54:0 55:6 56:-3 57:6 58:0 59:0 60:0 
-15.81267174914182 1:-2 2:0 3:0 4:-1 5:0 6:-1 7:-6 8:2 9:-6 10:0 11:1 12:0 13:-1 14:0 15:2 16:0 17:0 18:-1 19:-3 20:0 21:-3 22:0 23:1 24:0 25:0 26:0 27:0 28:0 29:0 30:-1 31:0 32:-1 33:0 34:0 35:1 36:0 37:0 38:0 39:0 40:0 41:0 42:-1 43:3 44:-1 45:3 46:0 47:0 48:0 49:0 50:0 51:0 52:4 53:0 54:2 55:6 56:-1 57:5 58:0 59:0 60:0 
-25.3333330154419 1:-1 2:-1 3:1 4:1 5:-5 6:0 7:-1 8:-4 9:-2 10:1 11:1 12:0 13:0 14:-1 15:1 16:0 17:0 18:-1 19:0 20:-1 21:-1 22:1 23:0 24:0 25:-1 26:0 27:0 28:0 29:1 30:-1 31:1 32:1 33:-1 34:1 35:0 36:0 37:-1 38:0 39:0 40:1 41:2 42:0 43:2 44:2 45:0 46:0 47:0 48:0 49:-1 50:0 51:0 52:1 53:2 54:0 55:2 56:2 57:1 58:0 59:0 60:-1 
-25.3333330154419 1:0 2:-1 3:1 4:0 5:-1 6:-1 7:-1 8:-3 9:-1 10:1 11:0 12:0 13:-1 14:0 15:0 16:0 17:0 18:-1 19:0 20:-1 21:-1 22:1 23:0 24:0 25:-1 26:0 27:0 28:1 29:1 30:0 31:1 32:0 33:0 34:0 35:0 36:0 37:-1 38:0 39:0 40:1 41:1 42:0 43:1 44:0 45:1 46:0 47:0 48:-1 49:-1 50:1 51:0 52:1 53:0 54:0 55:0 56:0 57:1 58:0 59:0 60:0 
-25.3333330154419 1:0 2:-1 3:0 4:0 5:0 6:-1 7:0 8:-1 9:-2 10:1 11:0 12:0 13:0 14:-1 15:0 16:1 17:1 18:0 19:1 20:0 21:-1 22:0 23:0 24:0 25:0 26:-1 27:0 28:1 29:1 30:0 31:1 32:0 33:0 34:0 35:0 36:-1 37:0 38:0 39:0 40:1 41:0 42:0 43:0 44:0 45:0 46:0 47:0 48:0 49:0 50:0 51:0 52:1 53:0 54:0 55:1 56:-1 57:-1 58:0 59:0 60:0 
-25.3333330154419 1:0 2:-1 3:0 4:0 5:1 6:0 7:1 8:0 9:-1 10:0 11:1 12:0 13:0 14:-1 15:0 16:0 17:1 18:0 19:1 20:0 21:0 22:0 23:1 24:-1 25:0 26:0 27:0 28:0 29:0 30:0 31:0 32:0 33:0 34:0 35:1 36:0 37:0 38:0 39:0 40:0 41:0 42:0 43:1 44:-1 45:-1 46:0 47:1 48:0 49:0 50:0 51:0 52:0 53:0 54:0 55:0 56:0 57:-1 58:0 59:0 60:0 
-25.3333330154419 1:0 2:-1 3:0 4:1 5:2 6:0 7:1 8:0 9:0 10:0 11:1 12:-1 13:0 14:0 15:0 16:1 17:1 18:0 19:0 20:0 21:0 22:0 23:1 24:0 25:0 26:0 27:0 28:1 29:1 30:0 31:1 32:-1 33:-1 34:0 35:1 36:0 37:0 38:0 39:0 40:1 41:1 42:0 43:0 44:0 45:-1 46:0 47:0 48:0 49:0 50:0 51:0 52:0 53:-1 54:0 55:0 56:0 57:-2 58:0 59:0 60:0 
-25.3333330154419 1:0 2:0 3:0 4:1 5:2 6:0 7:0 8:0 9:1 10:0 11:1 12:0 13:0 14:0 15:0 16:1 17:2 18:0 19:1 20:-1 21:0 22:0 23:1 24:0 25:0 26:0 27:0 28:1 29:2 30:0 31:0 32:0 33:0 34:0 35:0 36:0 37:0 38:0 39:0 40:0 41:0 42:0 43:0 44:0 45:-1 46:0 47:0 48:0 49:0 50:0 51:0 52:0 53:-2 54:0 55:0 56:0 57:-2 58:0 59:0 60:0 
-25.3333330154419 1:-1 2:0 3:0 4:1 5:2 6:0 7:1 8:-1 9:1 10:0 11:1 12:0 13:-1 14:0 15:0 16:1 17:2 18:0 19:0 20:0 21:1 22:0 23:0 24:0 25:-1 26:0 27:0 28:0 29:0 30:0 31:0 32:0 33:0 34:0 35:0 36:0 37:-1 38:0 39:0 40:0 41:-2 42:0 43:0 44:0 45:-1 46:0 47:0 48:0 49:0 50:0 51:1 52:0 53:-2 54:0 55:-1 56:0 57:-2 58:1 59:0 60:0 
-25.3333330154419 1:-1 2:0 3:0 4:1 5:3 6:0 7:1 8:0 9:1 10:0 11:0 12:0 13:-1 14:0 15:0 16:0 17:1 18:0 19:1 20:0 21:0 22:0 23:0 24:0 25:-1 26:0 27:0 28:0 29:-1 30:0 31:1 32:0 33:-1 34:0 35:0 36:0 37:0 38:0 39:1 40:0 41:-1 42:0 43:0 44:0 45:-2 46:1 47:0 48:0 49:0 50:0 51:1 52:0 53:-1 54:0 55:-2 56:-2 57:-2 58:1 59:0 60:0 
-25.3333330154419 1:-1 2:0 3:0 4:1 5:1 6:-1 7:2 8:1 9:1 10:0 11:0 12:0 13:-1 14:0 15:0 16:1 17:-1 18:-1 19:2 20:1 21:0 22:0 23:0 24:0 25:0 26:0 27:1 28:1 29:-1 30:-1 31:1 32:1 33:-1 34:1 35:0 36:0 37:0 38:0 39:1 40:1 41:-1 42:-1 43:-1 44:-1 45:-1 46:1 47:0 48:0 49:0 50:0 51:1 52:-2 53:2 54:0 55:-3 56:-2 57:-1 58:1 59:0 60:0 
-1.3448083652176 1:-1 2:0 3:0 4:2 5:-1 6:-1 7:4 8:1 9:1 10:0 11:0 12:0 13:0 14:0 15:1 16:2 17:-1 18:-1 19:3 20:1 21:0 22:1 23:0 24:0 25:0 26:0 27:1 28:2 29:-1 30:-1 31:1 32:-1 33:0 34:1 35:0 36:0 37:0 38:0 39:1 40:-1 41:2 42:0 43:-1 44:-2 45:0 46:1 47:0 48:0 49:0 50:0 51:1 52:-3 53:3 54:0 55:-4 56:-3 57:-2 58:1 59:0 60:0 
-7.333333492279053 1:0 2:0 3:0 4:4 5:-3 6:0 7:5 8:1 9:2 10:0 11:0 12:0 13:0 14:0 15:0 16:1 17:0 18:1 19:3 20:0 21:2 22:0 23:0 24:0 25:0 26:0 27:0 28:-1 29:1 30:1 31:0 32:-1 33:0 34:0 35:0 36:0 37:0 38:0 39:0 40:-1 41:2 42:0 43:-2 44:-1 45:-2 46:0 47:0 48:0 49:0 50:0 51:0 52:0 53:0 54:-3 55:-3 56:-1 57:-4 58:0 59:0 60:0 
-25.3333330154419 1:0 2:0 3:0 4:1 5:0 6:2 7:5 8:1 9:4 10:0 11:0 12:0 13:0 14:0 15:0 16:-1 17:1 18:2 19:2 20:0 21:2 22:0 23:0 24:0 25:0 26:0 27:0 28:-1 29:2 30:1 31:0 32:0 33:0 34:0 35:0 36:0 37:0 38:0 39:0 40:0 41:0 42:-2 43:-1 44:0 45:-2 46:0 47:0 48:0 49:0 50:0 51:0 52:2 53:-1 54:-4 55:-4 56:-1 57:-4 58:0 59:0 60:0 
-25.3333330154419 1:0 2:0 3:0 4:-2 5:4 6:4 7:5 8:0 9:3 10:0 11:0 12:0 13:0 14:0 15:0 16:-1 17:2 18:1 19:4 20:0 21:1 22:0 23:0 24:0 25:0 26:0 27:0 28:1 29:1 30:-1 31:1 32:-1 33:-1 34:0 35:0 36:0 37:0 38:0 39:0 40:2 41:-1 42:-2 43:-4 44:-1 45:-2 46:0 47:0 48:0 49:0 50:0 51:0 52:2 53:-3 54:-2 55:-6 56:-1 57:-3 58:0 59:0 60:0 
-25.3333330154419 1:0 2:-1 3:1 4:-2 5:3 6:2 7:7 8:0 9:3 10:0 11:0 12:0 13:0 14:-1 15:1 16:0 17:2 18:0 19:4 20:-1 21:1 22:0 23:0 24:0 25:0 26:-1 27:1 28:1 29:0 30:-1 31:-1 32:-1 33:0 34:0 35:0 36:0 37:0 38:-1 39:1 40:1 41:-2 42:-1 43:-3 44:-1 45:-1 46:0 47:0 48:0 49:0 50:0 51:0 52:2 53:0 54:-3 55:-4 56:2 57:-3 58:0 59:0 60:0 
-25.3333330154419 1:0 2:-1 3:1 4:0 5:2 6:1 7:6 8:-2 9:2 10:0 11:0 12:0 13:0 14:-1 15:1 16:1 17:0 18:0 19:1 20:-2 21:1 22:0 23:0 24:0 25:0 26:-1 27:1 28:1 29:-2 30:0 31:-1 32:-2 33:0 34:0 35:0 36:0 37:0 38:0 39:0 40:2 41:0 42:-2 43:-2 44:1 45:-2 46:0 47:0 48:0 49:0 50:0 51:-1 52:-2 53:3 54:-3 55:-4 56:5 57:-5 58:0 59:0 60:0 
-25.3333330154419 1:-1 2:-1 3:2 4:1 5:-1 6:1 7:4 8:-4 9:3 10:0 11:0 12:0 13:-1 14:-1 15:2 16:1 17:-3 18:1 19:2 20:-4 21:2 22:0 23:0 24:0 25:-1 26:0 27:1 28:2 29:-1 30:-1 31:1 32:-1 33:0 34:0 35:0 36:0 37:-1 38:0 39:0 40:-2 41:2 42:-2 43:-1 44:3 45:-3 46:0 47:0 48:0 49:0 50:1 51:-1 52:-2 53:4 54:-2 55:-3 56:6 57:-5 58:0 59:0 60:0 
-25.3333330154419 1:-1 2:-2 3:3 4:3 5:-4 6:2 7:4 8:-7 9:4 10:0 11:0 12:0 13:-1 14:-1 15:2 16:4 17:-2 18:0 19:3 20:-4 21:2 22:0 23:0 24:0 25:-1 26:-1 27:1 28:0 29:1 30:-1 31:1 32:0 33:-1 34:0 35:0 36:0 37:0 38:0 39:0 40:0 41:3 42:-1 43:-1 44:3 45:-3 46:0 47:0 48:0 49:1 50:1 51:-3 52:-3 53:6 54:-2 55:-3 56:6 57:-5 58:0 59:0 60:0 
-25.3333330154419 1:-1 2:-1 3:2 4:3 5:-3 6:1 7:4 8:-5 9:4 10:1 11:0 12:0 13:0 14:0 15:1 16:3 17:-1 18:1 19:2 20:-2 21:2 22:1 23:0 24:0 25:1 26:1 27:-2 28:0 29:2 30:0 31:0 32:1 33:0 34:1 35:0 36:0 37:1 38:1 39:-2 40:-1 41:2 42:-1 43:-2 44:3 45:-4 46:1 47:0 48:0 49:-1 50:-1 51:1 52:-3 53:1 54:-2 55:-3 56:2 57:-6 58:0 59:0 60:0 
-25.3333330154419 1:0 2:0 3:1 4:4 5:-1 6:1 7:4 8:-3 9:5 10:1 11:0 12:0 13:1 14:1 15:-2 16:1 17:2 18:0 19:2 20:0 21:3 22:1 23:0 24:0 25:1 26:1 27:-2 28:0 29:2 30:-1 31:0 32:2 33:-1 34:1 35:0 36:0 37:-1 38:-1 39:1 40:-2 41:1 42:-2 43:-1 44:1 45:-3 46:0 47:0 48:0 49:-1 50:-1 51:1 52:-3 53:-1 54:-2 55:-4 56:0 57:-5 58:1 59:0 60:0 
-25.3333330154419 1:1 2:1 3:-3 4:3 5:2 6:1 7:4 8:-1 9:5 10:1 11:0 12:-1 13:1 14:1 15:-3 16:2 17:2 18:0 19:2 20:1 21:1 22:1 23:0 24:-1 25:-1 26:-1 27:0 28:0 29:1 30:-1 31:1 32:0 33:-1 34:0 35:0 36:-1 37:-1 38:-1 39:0 40:-1 41:-1 42:-1 43:-2 44:-1 45:-3 46:1 47:0 48:-1 49:0 50:-1 51:2 52:-1 53:-3 54:-1 55:-4 56:-1 57:-6 58:1 59:0 60:0 
-25.3333330154419 1:1 2:1 3:-3 4:3 5:4 6:0 7:4 8:1 9:4 10:1 11:0 12:-1 13:-1 14:-1 15:0 16:1 17:3 18:-1 19:3 20:0 21:2 22:0 23:0 24:-1 25:-1 26:-1 27:0 28:0 29:1 30:-1 31:0 32:-1 33:0 34:1 35:0 36:-1 37:0 38:-1 39:2 40:0 41:-1 42:-1 43:-2 44:-1 45:-3 46:1 47:0 48:0 49:1 50:-1 51:1 52:0 53:-3 54:0 55:-4 56:-2 57:-5 58:1 59:0 60:0 
-25.3333330154419 1:-1 2:0 3:0 4:1 5:4 6:0 7:5 8:1 9:4 10:0 11:0 12:-1 13:-1 14:0 15:0 16:0 17:2 18:0 19:2 20:0 21:2 22:1 23:0 24:-1 25:0 26:0 27:2 28:0 29:0 30:0 31:0 32:0 33:-1 34:1 35:0 36:0 37:1 38:0 39:1 40:0 41:-2 42:1 43:-2 44:-1 45:-3 46:1 47:0 48:0 49:1 50:0 51:0 52:2 53:-1 54:-1 55:-4 56:0 57:-5 58:1 59:0 60:0 
-25.3333330154419 1:-2 2:0 3:0 4:-1 5:3 6:0 7:4 8:0 9:4 10:0 11:1 12:-1 13:-1 14:0 15:2 16:-1 17:1 18:0 19:2 20:0 21:1 22:0 23:1 24:0 25:0 26:0 27:1 28:-1 29:-1 30:1 31:0 32:-1 33:-1 34:0 35:1 36:0 37:0 38:0 39:0 40:1 41:0 42:-1 43:-2 44:0 45:-3 46:0 47:1 48:0 49:-1 50:0 51:0 52:4 53:1 54:-3 55:-2 56:0 57:-5 58:0 59:0 60:-1 
-25.3333330154419 1:-1 2:0 3:2 4:-2 5:1 6:1 7:3 8:0 9:4 10:0 11:1 12:0 13:0 14:0 15:1 16:-2 17:-1 18:2 19:1 20:-1 21:2 22:0 23:1 24:0 25:0 26:0 27:0 28:0 29:0 30:0 31:-1 32:0 33:0 34:0 35:1 36:0 37:-1 38:0 39:0 40:3 41:1 42:-2 43:-1 44:0 45:-2 46:0 47:0 48:-1 49:-1 50:0 51:0 52:3 53:1 54:-2 55:-2 56:1 57:-4 58:0 59:0 60:-1 
-25.3333330154419 1:0 2:-1 3:0 4:1 5:0 6:-1 7:1 8:-3 9:4 10:0 11:0 12:0 13:0 14:-1 15:0 16:1 17:0 18:-1 19:0 20:-2 21:2 22:0 23:0 24:0 25:0 26:0 27:0 28:1 29:0 30:0 31:-1 32:0 33:-2 34:0 35:0 36:0 37:-1 38:-1 39:1 40:0 41:0 42:0 43:-1 44:0 45:-3 46:0 47:0 48:0 49:-1 50:-1 51:1 52:0 53:0 54:0 55:-2 56:1 57:-4 58:0 59:0 60:0 
-25.3333330154419 1:0 2:-1 3:0 4:1 5:1 6:-1 7:1 8:-3 9:4 10:0 11:0 12:0 13:0 14:0 15:0 16:1 17:1 18:0 19:0 20:-1 21:0 22:0 23:0 24:0 25:-1 26:-1 27:1 28:0 29:1 30:0 31:0 32:-1 33:-1 34:0 35:0 36:0 37:-1 38:-1 39:1 40:0 41:1 42:0 43:-1 44:0 45:-2 46:0 47:0 48:0 49:-1 50:-1 51:1 52:0 53:0 54:0 55:-2 56:1 57:-3 58:0 59:0 60:0 
-25.3333330154419 1:0 2:0 3:0 4:1 5:1 6:0 7:1 8:-1 9:2 10:0 11:0 12:0 13:-1 14:-1 15:1 16:0 17:1 18:0 19:1 20:-1 21:1 22:0 23:0 24:0 25:-1 26:-1 27:1 28:0 29:1 30:0 31:0 32:0 33:0 34:0 35:0 36:0 37:-1 38:-1 39:1 40:0 41:0 42:0 43:-1 44:1 45:-1 46:0 47:0 48:0 49:-1 50:-1 51:1 52:0 53:0 54:0 55:-1 56:1 57:-3 58:0 59:0 60:0 
-25.3333330154419 1:0 2:0 3:0 4:0 5:1 6:-1 7:1 8:-2 9:2 10:0 11:0 12:-1 13:0 14:0 15:0 16:0 17:1 18:-1 19:0 20:-1 21:1 22:0 23:0 24:-1 25:0 26:0 27:0 28:0 29:0 30:-1 31:-1 32:0 33:0 34:0 35:0 36:-1 37:0 38:0 39:0 40:0 41:0 42:-1 43:-1 44:0 45:-2 46:0 47:0 48:-1 49:0 50:0 51:1 52:0 53:0 54:0 55:-1 56:0 57:-2 58:0 59:0 60:0 
-25.3333330154419 1:0 2:0 3:0 4:0 5:1 6:-1 7:0 8:-1 9:2 10:0 11:0 12:-1 13:0 14:0 15:0 16:0 17:0 18:-1 19:-1 20:0 21:1 22:0 23:0 24:-1 25:0 26:0 27:0 28:0 29:0 30:-1 31:-1 32:0 33:-1 34:0 35:0 36:-1 37:0 38:0 39:1 40:0 41:0 42:0 43:-1 44:0 45:-1 46:0 47:0 48:0 49:0 50:0 51:2 52:0 53:0 54:0 55:-1 56:0 57:-1 58:0 59:0 60:0 
-13.65999432719349 1:-1 2:-1 3:0 4:4 5:-1 6:0 7:-5 8:3 9:-7 10:0 11:0 12:0 13:-1 14:-1 15:0 16:0 17:1 18:-1 19:-3 20:1 21:-4 22:0 23:0 24:0 25:-1 26:0 27:0 28:-2 29:1 30:0 31:0 32:0 33:0 34:0 35:0 36:0 37:0 38:0 39:2 40:-1 41:1 42:0 43:3 44:-2 45:3 46:0 47:0 48:0 49:1 50:0 51:0 52:-1 53:1 54:0 55:6 56:-3 57:6 58:0 59:0 60:0 
-25.3333330154419 1:-2 2:0 3:0 4:-1 5:0 6:-1 7:-6 8:2 9:-6 10:0 11:1 12:0 13:-1 14:0 15:2 16:0 17:0 18:-1 19:-3 20:0 21:-3 22:0 23:1 24:0 25:0 26:0 27:0 28:0 29:0 30:-1 31:0 32:-1 33:0 34:0 35:1 36:0 37:0 38:0 39:0 40:0 41:0 42:-1 43:3 44:-1 45:3 46:0 47:0 48:0 49:0 50:0 51:0 52:4 53:0 54:2 55:6 56:-1 57:5 58:0 59:0 60:0 
-25.3333330154419 1:-1 2:-1 3:1 4:1 5:-5 6:0 7:-1 8:-4 9:-2 10:1 11:1 12:0 13:0 14:-1 15:1 16:0 17:0 18:-1 19:0 20:-1 21:-1 22:1 23:0 24:0 25:-1 26:0 27:0 28:0 29:1 30:-1 31:1 32:1 33:-1 34:1 35:0 36:0 37:-1 38:0 39:0 40:1 41:2 42:0 43:2 44:2 45:0 46:0 47:0 48:0 49:-1 50:0 51:0 52:1 53:2 54:0 55:2 56:2 57:1 58:0 59:0 60:-1 
-25.3333330154419 1:0 2:-1 3:1 4:0 5:-1 6:-1 7:-1 8:-3 9:-1 10:1 11:0 12:0 13:-1 14:0 15:0 16:0 17:0 18:-1 19:0 20:-1 21:-1 22:1 23:0 24:0 25:-1 26:0 27:0 28:1 29:1 30:0 31:1 32:0 33:0 34:0 35:0 36:0 37:-1 38:0 39:0 40:1 41:1 42:0 43:1 44:0 45:1 46:0 47:0 48:-1 49:-1 50:1 51:0 52:1 53:0 54:0 55:0 56:0 57:1 58:0 59:0 60:0 
-25.3333330154419 1:0 2:-1 3:0 4:0 5:0 6:-1 7:0 8:-1 9:-2 10:1 11:0 12:0 13:0 14:-1 15:0 16:1 17:1 18:0 19:1 20:0 21:-1 22:0 23:0 24:0 25:0 26:-1 27:0 28:1 29:1 30:0 31:1 32:0 33:0 34:0 35:0 36:-1 37:0 38:0 39:0 40:1 41:0 42:0 43:0 44:0 45:0 46:0 47:0 48:0 49:0 50:0 51:0 52:1 53:0 54:0 55:1 56:-1 57:-1 58:0 59:0 60:0 
-25.3333330154419 1:0 2:-1 3:0 4:0 5:1 6:0 7:1 8:0 9:-1 10:0 11:1 12:0 13:0 14:-1 15:0 16:0 17:1 18:0 19:1 20:0 21:0 22:0 23:1 24:-1 25:0 26:0 27:0 28:0 29:0 30:0 31:0 32:0 33:0 34:0 35:1 36:0 37:0 38:0 39:0 40:0 41:0 42:0 43:1 44:-1 45:-1 46:0 47:1 48:0 49:0 50:0 51:0 52:0 53:0 54:0 55:0 56:0 57:-1 58:0 59:0 60:0 
-25.3333330154419 1:0 2:-1 3:0 4:1 5:2 6:0 7:1 8:0 9:0 10:0 11:1 12:-1 13:0 14:0 15:0 16:1 17:1 18:0 19:0 20:0 21:0 22:0 23:1 24:0 25:0 26:0 27:0 28:1 29:1 30:0 31:1 32:-1 33:-1 34:0 35:1 36:0 37:0 38:0 39:0 40:1 41:1 42:0 43:0 44:0 45:-1 46:0 47:0 48:0 49:0 50:0 51:0 52:0 53:-1 54:0 55:0 56:0 57:-2 58:0 59:0 60:0 
-25.3333330154419 1:0 2:0 3:0 4:1 5:2 6:0 7:0 8:0 9:1 10:0 11:1 12:0 13:0 14:0 15:0 16:1 17:2 18:0 19:1 20:-1 21:0 22:0 23:1 24:0 25:0 26:0 27:0 28:1 29:2 30:0 31:0 32:0 33:0 34:0 35:0 36:0 37:0 38:0 39:0 40:0 41:0 42:0 43:0 44:0 45:-1 46:0 47:0 48:0 49:0 50:0 51:0 52:0 53:-2 54:0 55:0 56:0 57:-2 58:0 59:0 60:0 
-25.3333330154419 1:-1 2:0 3:0 4:1 5:2 6:0 7:1 8:-1 9:1 10:0 11:1 12:0 13:-1 14:0 15:0 16:1 17:2 18:0 19:0 20:0 21:1 22:0 23:0 24:0 25:-1 26:0 27:0 28:0 29:0 30:0 31:0 32:0 33:0 34:0 35:0 36:0 37:-1 38:0 39:0 40:0 41:-2 42:0 43:0 44:0 45:-1 46:0 47:0 48:0 49:0 50:0 51:1 52:0 53:-2 54:0 55:-1 56:0 57:-2 58:1 59:0 60:0 
-25.3333330154419 1:-1 2:0 3:0 4:1 5:3 6:0 7:1 8:0 9:1 10:0 11:0 12:0 13:-1 14:0 15:0 16:0 17:1 18:0 19:1 20:0 21:0 22:0 23:0 24:0 25:-1 26:0 27:0 28:0 29:-1 30:0 31:1 32:0 33:-1 34:0 35:0 36:0 37:0 38:0 39:1 40:0 41:-1 42:0 43:0 44:0 45:-2 46:1 47:0 48:0 49:0 50:0 51:1 52:0 53:-1 54:0 55:-2 56:-2 57:-2 58:1 59:0 60:0 
-25.3333330154419 1:-1 2:0 3:0 4:1 5:1 6:-1 7:2 8:1 9:1 10:0 11:0 12:0 13:-1 14:0 15:0 16:1 17:-1 18:-1 19:2 20:1 21:0 22:0 23:0 24:0 25:0 26:0 27:1 28:1 29:-1 30:-1 31:1 32:1 33:-1 34:1 35:0 36:0 37:0 38:0 39:1 40:1 41:-1 42:-1 43:-1 44:-1 45:-1 46:1 47:0 48:0 49:0 50:0 51:1 52:-2 53:2 54:0 55:-3 56:-2 57:-1 58:1 59:0 60:0 
-25.3333330154419 1:-1 2:0 3:0 4:2 5:-1 6:-1 7:4 8:1 9:1 10:0 11:0 12:0 13:0 14:0 15:1 16:2 17:-1 18:-1 19:3 20:1 21:0 22:1 23:0 24:0 25:0 26:0 27:1 28:2 29:-1 30:-1 31:1 32:-1 33:0 34:1 35:0 36:0 37:0 38:0 39:1 40:-1 41:2 42:0 43:-1 44:-2 45:0 46:1 47:0 48:0 49:0 50:0 51:1 52:-3 53:3 54:0 55:-4 56:-3 57:-2 58:1 59:0 60:0 
-7.010580392940693 1:0 2:0 3:0 4:4 5:-3 6:0 7:5 8:1 9:2 10:0 11:0 12:0 13:0 14:0 15:0 16:1 17:0 18:1 19:3 20:0 21:2 22:0 23:0 24:0 25:0 26:0 27:0 28:-1 29:1 30:1 31:0 32:-1 33:0 34:0 35:0 36:0 37:0 38:0 39:0 40:-1 41:2 42:0 43:-2 44:-1 45:-2 46:0 47:0 48:0 49:0 50:0 51:0 52:0 53:0 54:-3 55:-3 56:-1 57:-4 58:0 59:0 60:0 
-25.3333330154419 1:0 2:0 3:0 4:1 5:0 6:2 7:5 8:1 9:4 10:0 11:0 12:0 13:0 14:0 15:0 16:-1 17:1 18:2 19:2 20:0 21:2 22:0 23:0 24:0 25:0 26:0 27:0 28:-1 29:2 30:1 31:0 32:0 33:0 34:0 35:0 36:0 37:0 38:0 39:0 40:0 41:0 42:-2 43:-1 44:0 45:-2 46:0 47:0 48:0 49:0 50:0 51:0 52:2 53:-1 54:-4 55:-4 56:-1 57:-4 58:0 59:0 60:0 
-25.3333330154419 1:0 2:0 3:0 4:-2 5:4 6:4 7:5 8:0 9:3 10:0 11:0 12:0 13:0 14:0 15:0 16:-1 17:2 18:1 19:4 20:0 21:1 22:0 23:0 24:0 25:0 26:0 27:0 28:1 29:1 30:-1 31:1 32:-1 33:-1 34:0 35:0 36:0 37:0 38:0 39:0 40:2 41:-1 42:-2 43:-4 44:-1 45:-2 46:0 47:0 48:0 49:0 50:0 51:0 52:2 53:-3 54:-2 55:-6 56:-1 57:-3 58:0 59:0 60:0 
-25.3333330154419 1:0 2:-1 3:1 4:-2 5:3 6:2 7:7 8:0 9:3 10:0 11:0 12:0 13:0 14:-1 15:1 16:0 17:2 18:0 19:4 20:-1 21:1 22:0 23:0 24:0 25:0 26:-1 27:1 28:1 29:0 30:-1 31:-1 32:-1 33:0 34:0 35:0 36:0 37:0 38:-1 39:1 40:1 41:-2 42:-1 43:-3 44:-1 45:-1 46:0 47:0 48:0 49:0 50:0 51:0 52:2 53:0 54:-3 55:-4 56:2 57:-3 58:0 59:0 60:0 
-25.3333330154419 1:0 2:-1 3:1 4:0 5:2 6:1 7:6 8:-2 9:2 10:0 11:0 12:0 13:0 14:-1 15:1 16:1 17:0 18:0 19:1 20:-2 21:1 22:0 23:0 24:0 25:0 26:-1 27:1 28:1 29:-2 30:0 31:-1 32:-2 33:0 34:0 35:0 36:0 37:0 38:0 39:0 40:2 41:0 42:-2 43:-2 44:1 45:-2 46:0 47:0 48:0 49:0 50:0 51:-1 52:-2 53:3 54:-3 55:-4 56:5 57:-5 58:0 59:0 60:0 
-25.3333330154419 1:-1 2:-1 3:2 4:1 5:-1 6:1 7:4 8:-4 9:3 10:0 11:0 12:0 13:-1 14:-1 15:2 16:1 17:-3 18:1 19:2 20:-4 21:2 22:0 23:0 24:0 25:-1 26:0 27:1 28:2 29:-1 30:-1 31:1 32:-1 33:0 34:0 35:0 36:0 37:-1 38:0 39:0 40:-2 41:2 42:-2 43:-1 44:3 45:-3 46:0 47:0 48:0 49:0 50:1 51:-1 52:-2 53:4 54:-2 55:-3 56:6 57:-5 58:0 59:0 60:0 
-25.3333330154419 1:-1 2:-2 3:3 4:3 5:-4 6:2 7:4 8:-7 9:4 10:0 11:0 12:0 13:-1 14:-1 15:2 16:4 17:-2 18:0 19:3 20:-4 21:2 22:0 23:0 24:0 25:-1 26:-1 27:1 28:0 29:1 30:-1 31:1 32:0 33:-1 34:0 35:0 36:0 37:0 38:0 39:0 40:0 41:3 42:-1 43:-1 44:3 45:-3 46:0 47:0 48:0 49:1 50:1 51:-3 52:-3 53:6 54:-2 55:-3 56:6 57:-5 58:0 59:0 60:0 
-18.09061302111452 1:-1 2:-1 3:2 4:5 5:-4 6:1 7:4 8:-7 9:5 10:0 11:0 12:0 13:-1 14:-1 15:1 16:1 17:-1 18:0 19:2 20:-3 21:2 22:0 23:0 24:0 25:0 26:0 27:0 28:1 29:1 30:0 31:0 32:0 33:0 34:0 35:0 36:0 37:1 38:1 39:-3 40:-2 41:4 42:-1 43:-2 44:3 45:-2 46:0 47:0 48:0 49:1 50:1 51:-3 52:-3 53:4 54:-2 55:-4 56:5 57:-6 58:0 59:0 60:0 
-25.3333330154419 1:-1 2:-1 3:2 4:3 5:-3 6:1 7:4 8:-5 9:4 10:1 11:0 12:0 13:0 14:0 15:1 16:3 17:-1 18:1 19:2 20:-2 21:2 22:1 23:0 24:0 25:1 26:1 27:-2 28:0 29:2 30:0 31:0 32:1 33:0 34:1 35:0 36:0 37:1 38:1 39:-2 40:-1 41:2 42:-1 43:-2 44:3 45:-4 46:1 47:0 48:0 49:-1 50:-1 51:1 52:-3 53:1 54:-2 55:-3 56:2 57:-6 58:0 59:0 60:0 
-25.3333330154419 1:0 2:0 3:1 4:4 5:-1 6:1 7:4 8:-3 9:5 10:1 11:0 12:0 13:1 14:1 15:-2 16:1 17:2 18:0 19:2 20:0 21:3 22:1 23:0 24:0 25:1 26:1 27:-2 28:0 29:2 30:-1 31:0 32:2 33:-1 34:1 35:0 36:0 37:-1 38:-1 39:1 40:-2 41:1 42:-2 43:-1 44:1 45:-3 46:0 47:0 48:0 49:-1 50:-1 51:1 52:-3 53:-1 54:-2 55:-4 56:0 57:-5 58:1 59:0 60:0 
-25.3333330154419 1:1 2:1 3:-3 4:3 5:2 6:1 7:4 8:-1 9:5 10:1 11:0 12:-1 13:1 14:1 15:-3 16:2 17:2 18:0 19:2 20:1 21:1 22:1 23:0 24:-1 25:-1 26:-1 27:0 28:0 29:1 30:-1 31:1 32:0 33:-1 34:0 35:0 36:-1 37:-1 38:-1 39:0 40:-1 41:-1 42:-1 43:-2 44:-1 45:-3 46:1 47:0 48:-1 49:0 50:-1 51:2 52:-1 53:-3 54:-1 55:-4 56:-1 57:-6 58:1 59:0 60:0 
-25.3333330154419 1:1 2:1 3:-3 4:3 5:4 6:0 7:4 8:1 9:4 10:1 11:0 12:-1 13:-1 14:-1 15:0 16:1 17:3 18:-1 19:3 20:0 21:2 22:0 23:0 24:-1 25:-1 26:-1 27:0 28:0 29:1 30:-1 31:0 32:-1 33:0 34:1 35:0 36:-1 37:0 38:-1 39:2 40:0 41:-1 42:-1 43:-2 44:-1 45:-3 46:1 47:0 48:0 49:1 50:-1 51:1 52:0 53:-3 54:0 55:-4 56:-2 57:-5 58:1 59:0 60:0 
-25.3333330154419 1:-1 2:0 3:0 4:1 5:4 6:0 7:5 8:1 9:4 10:0 11:0 12:-1 13:-1 14:0 15:0 16:0 17:2 18:0 19:2 20:0 21:2 22:1 23:0 24:-1 25:0 26:0 27:2 28:0 29:0 30:0 31:0 32:0 33:-1 34:1 35:0 36:0 37:1 38:0 39:1 40:0 41:-2 42:1 43:-2 44:-1 45:-3 46:1 47:0 48:0 49:1 50:0 51:0 52:2 53:-1 54:-1 55:-4 56:0 57:-5 58:1 59:0 60:0 
-25.3333330154419 1:-2 2:0 3:0 4:-1 5:3 6:0 7:4 8:0 9:4 10:0 11:1 12:-1 13:-1 14:0 15:2 16:-1 17:1 18:0 19:2 20:0 21:1 22:0 23:1 24:0 25:0 26:0 27:1 28:-1 29:-1 30:1 31:0 32:-1 33:-1 34:0 35:1 36:0 37:0 38:0 39:0 40:1 41:0 42:-1 43:-2 44:0 45:-3 46:0 47:1 48:0 49:-1 50:0 51:0 52:4 53:1 54:-3 55:-2 56:0 57:-5 58:0 59:0 60:-1 
-25.3333330154419 1:-1 2:0 3:2 4:-2 5:1 6:1 7:3 8:0 9:4 10:0 11:1 12:0 13:0 14:0 15:1 16:-2 17:-1 18:2 19:1 20:-1 21:2 22:0 23:1 24:0 25:0 26:0 27:0 28:0 29:0 30:0 31:-1 32:0 33:0 34:0 35:1 36:0 37:-1 38:0 39:0 40:3 41:1 42:-2 43:-1 44:0 45:-2 46:0 47:0 48:-1 49:-1 50:0 51:0 52:3 53:1 54:-2 55:-2 56:1 57:-4 58:0 59:0 60:-1 
-25.3333330154419 1:1 2:-1 3:0 4:-2 5:0 6:1 7:1 8:-2 9:4 10:0 11:1 12:0 13:0 14:-1 15:0 16:1 17:1 18:-1 19:1 20:-2 21:2 22:0 23:0 24:-1 25:0 26:-1 27:0 28:1 29:1 30:-1 31:0 32:-1 33:0 34:0 35:0 36:-1 37:0 38:0 39:0 40:1 41:1 42:0 43:-1 44:1 45:-4 46:0 47:0 48:-1 49:-1 50:-1 51:1 52:0 53:1 54:0 55:-1 56:1 57:-5 58:0 59:0 60:-1 
-25.3333330154419 1:0 2:-1 3:0 4:1 5:0 6:-1 7:1 8:-3 9:4 10:0 11:0 12:0 13:0 14:-1 15:0 16:1 17:0 18:-1 19:0 20:-2 21:2 22:0 23:0 24:0 25:0 26:0 27:0 28:1 29:0 30:0 31:-1 32:0 33:-2 34:0 35:0 36:0 37:-1 38:-1 39:1 40:0 41:0 42:0 43:-1 44:0 45:-3 46:0 47:0 48:0 49:-1 50:-1 51:1 52:0 53:0 54:0 55:-2 56:1 57:-4 58:0 59:0 60:0 
-25.3333330154419 1:0 2:-1 3:0 4:1 5:1 6:-1 7:1 8:-3 9:4 10:0 11:0 12:0 13:0 14:0 15:0 16:1 17:1 18:0 19:0 20:-1 21:0 22:0 23:0 24:0 25:-1 26:-1 27:1 28:0 29:1 30:0 31:0 32:-1 33:-1 34:0 35:0 36:0 37:-1 38:-1 39:1 40:0 41:1 42:0 43:-1 44:0 45:-2 46:0 47:0 48:0 49:-1 50:-1 51:1 52:0 53:0 54:0 55:-2 56:1 57:-3 58:0 59:0 60:0 
-25.3333330154419 1:0 2:0 3:0 4:1 5:1 6:0 7:1 8:-1 9:2 10:0 11:0 12:0 13:-1 14:-1 15:1 16:0 17:1 18:0 19:1 20:-1 21:1 22:0 23:0 24:0 25:-1 26:-1 27:1 28:0 29:1 30:0 31:0 32:0 33:0 34:0 35:0 36:0 37:-1 38:-1 39:1 40:0 41:0 42:0 43:-1 44:1 45:-1 46:0 47:0 48:0 49:-1 50:-1 51:1 52:0 53:0 54:0 55:-1 56:1 57:-3 58:0 59:0 60:0 
-25.3333330154419 1:0 2:0 3:0 4:0 5:1 6:-1 7:1 8:-2 9:2 10:0 11:0 12:-1 13:0 14:0 15:0 16:0 17:1 18:-1 19:0 20:-1 21:1 22:0 23:0 24:-1 25:0 26:0 27:0 28:0 29:0 30:-1 31:-1 32:0 33:0 34:0 35:0 36:-1 37:0 38:0 39:0 40:0 41:0 42:-1 43:-1 44:0 45:-2 46:0 47:0 48:-1 49:0 50:0 51:1 52:0 53:0 54:0 55:-1 56:0 57:-2 58:0 59:0 60:0 
-25.3333330154419 1:0 2:0 3:0 4:0 5:1 6:-1 7:0 8:-1 9:2 10:0 11:0 12:-1 13:0 14:0 15:0 16:0 17:0 18:-1 19:-1 20:0 21:1 22:0 23:0 24:-1 25:0 26:0 27:0 28:0 29:0 30:-1 31:-1 32:0 33:-1 34:0 35:0 36:-1 37:0 38:0 39:1 40:0 41:0 42:0 43:-1 44:0 45:-1 46:0 47:0 48:0 49:0 50:0 51:2 52:0 53:0 54:0 55:-1 56:0 57:-1 58:0 59:0 60:0 
-25.3333330154419 1:-2 2:0 3:0 4:-1 5:0 6:-1 7:-6 8:2 9:-6 10:0 11:1 12:0 13:-1 14:0 15:2 16:0 17:0 18:-1 19:-3 20:0 21:-3 22:0 23:1 24:0 25:0 26:0 27:0 28:0 29:0 30:-1 31:0 32:-1 33:0 34:0 35:1 36:0 37:0 38:0 39:0 40:0 41:0 42:-1 43:3 44:-1 45:3 46:0 47:0 48:0 49:0 50:0 51:0 52:4 53:0 54:2 55:6 56:-1 57:5 58:0 59:0 60:0 
-14.89514793213222 1:0 2:-1 3:0 4:-7 5:1 6:-5 7:-4 8:-1 9:-4 10:0 11:0 12:0 13:0 14:-1 15:0 16:-3 17:1 18:-2 19:-1 20:-1 21:-2 22:0 23:0 24:0 25:-1 26:0 27:0 28:3 29:-1 30:1 31:0 32:-1 33:0 34:0 35:0 36:0 37:-1 38:0 39:1 40:4 41:0 42:1 43:1 44:0 45:2 46:0 47:0 48:0 49:-2 50:0 51:1 52:4 53:0 54:1 55:4 56:0 57:4 58:0 59:0 60:0 
-25.3333330154419 1:-1 2:-1 3:1 4:1 5:-5 6:0 7:-1 8:-4 9:-2 10:1 11:1 12:0 13:0 14:-1 15:1 16:0 17:0 18:-1 19:0 20:-1 21:-1 22:1 23:0 24:0 25:-1 26:0 27:0 28:0 29:1 30:-1 31:1 32:1 33:-1 34:1 35:0 36:0 37:-1 38:0 39:0 40:1 41:2 42:0 43:2 44:2 45:0 46:0 47:0 48:0 49:-1 50:0 51:0 52:1 53:2 54:0 55:2 56:2 57:1 58:0 59:0 60:-1 
-25.3333330154419 1:0 2:-1 3:1 4:0 5:-1 6:-1 7:-1 8:-3 9:-1 10:1 11:0 12:0 13:-1 14:0 15:0 16:0 17:0 18:-1 19:0 20:-1 21:-1 22:1 23:0 24:0 25:-1 26:0 27:0 28:1 29:1 30:0 31:1 32:0 33:0 34:0 35:0 36:0 37:-1 38:0 39:0 40:1 41:1 42:0 43:1 44:0 45:1 46:0 47:0 48:-1 49:-1 50:1 51:0 52:1 53:0 54:0 55:0 56:0 57:1 58:0 59:0 60:0 
-25.3333330154419 1:0 2:-1 3:0 4:0 5:0 6:-1 7:0 8:-1 9:-2 10:1 11:0 12:0 13:0 14:-1 15:0 16:1 17:1 18:0 19:1 20:0 21:-1 22:0 23:0 24:0 25:0 26:-1 27:0 28:1 29:1 30:0 31:1 32:0 33:0 34:0 35:0 36:-1 37:0 38:0 39:0 40:1 41:0 42:0 43:0 44:0 45:0 46:0 47:0 48:0 49:0 50:0 51:0 52:1 53:0 54:0 55:1 56:-1 57:-1 58:0 59:0 60:0 
-25.3333330154419 1:0 2:-1 3:0 4:0 5:1 6:0 7:1 8:0 9:-1 10:0 11:1 12:0 13:0 14:-1 15:0 16:0 17:1 18:0 19:1 20:0 21:0 22:0 23:1 24:-1 25:0 26:0 27:0 28:0 29:0 30:0 31:0 32:0 33:0 34:0 35:1 36:0 37:0 38:0 39:0 40:0 41:0 42:0 43:1 44:-1 45:-1 46:0 47:1 48:0 49:0 50:0 51:0 52:0 53:0 54:0 55:0 56:0 57:-1 58:0 59:0 60:0 
-25.3333330154419 1:0 2:-1 3:0 4:1 5:2 6:0 7:1 8:0 9:0 10:0 11:1 12:-1 13:0 14:0 15:0 16:1 17:1 18:0 19:0 20:0 21:0 22:0 23:1 24:0 25:0 26:0 27:0 28:1 29:1 30:0 31:1 32:-1 33:-1 34:0 35:1 36:0 37:0 38:0 39:0 40:1 41:1 42:0 43:0 44:0 45:-1 46:0 47:0 48:0 49:0 50:0 51:0 52:0 53:-1 54:0 55:0 56:0 57:-2 58:0 59:0 60:0 
-25.3333330154419 1:0 2:0 3:0 4:1 5:2 6:0 7:0 8:0 9:1 10:0 11:1 12:0 13:0 14:0 15:0 16:1 17:2 18:0 19:1 20:-1 21:0 22:0 23:1 24:0 25:0 26:0 27:0 28:1 29:2 30:0 31:0 32:0 33:0 34:0 35:0 36:0 37:0 38:0 39:0 40:0 41:0 42:0 43:0 44:0 45:-1 46:0 47:0 48:0 49:0 50:0 51:0 52:0 53:-2 54:0 55:0 56:0 57:-2 58:0 59:0 60:0 
-25.3333330154419 1:-1 2:0 3:0 4:1 5:2 6:0 7:1 8:-1 9:1 10:0 11:1 12:0 13:-1 14:0 15:0 16:1 17:2 18:0 19:0 20:0 21:1 22:0 23:0 24:0 25:-1 26:0 27:0 28:0 29:0 30:0 31:0 32:0 33:0 34:0 35:0 36:0 37:-1 38:0 39:0 40:0 41:-2 42:0 43:0 44:0 45:-1 46:0 47:0 48:0 49:0 50:0 51:1 52:0 53:-2 54:0 55:-1 56:0 57:-2 58:1 59:0 60:0 
-25.3333330154419 1:-1 2:0 3:0 4:1 5:3 6:0 7:1 8:0 9:1 10:0 11:0 12:0 13:-1 14:0 15:0 16:0 17:1 18:0 19:1 20:0 21:0 22:0 23:0 24:0 25:-1 26:0 27:0 28:0 29:-1 30:0 31:1 32:0 33:-1 34:0 35:0 36:0 37:0 38:0 39:1 40:0 41:-1 42:0 43:0 44:0 45:-2 46:1 47:0 48:0 49:0 50:0 51:1 52:0 53:-1 54:0 55:-2 56:-2 57:-2 58:1 59:0 60:0 
-25.3333330154419 1:-1 2:0 3:0 4:1 5:1 6:-1 7:2 8:1 9:1 10:0 11:0 12:0 13:-1 14:0 15:0 16:1 17:-1 18:-1 19:2 20:1 21:0 22:0 23:0 24:0 25:0 26:0 27:1 28:1 29:-1 30:-1 31:1 32:1 33:-1 34:1 35:0 36:0 37:0 38:0 39:1 40:1 41:-1 42:-1 43:-1 44:-1 45:-1 46:1 47:0 48:0 49:0 50:0 51:1 52:-2 53:2 54:0 55:-3 56:-2 57:-1 58:1 59:0 60:0 
-25.3333330154419 1:-1 2:0 3:0 4:2 5:-1 6:-1 7:4 8:1 9:1 10:0 11:0 12:0 13:0 14:0 15:1 16:2 17:-1 18:-1 19:3 20:1 21:0 22:1 23:0 24:0 25:0 26:0 27:1 28:2 29:-1 30:-1 31:1 32:-1 33:0 34:1 35:0 36:0 37:0 38:0 39:1 40:-1 41:2 42:0 43:-1 44:-2 45:0 46:1 47:0 48:0 49:0 50:0 51:1 52:-3 53:3 54:0 55:-4 56:-3 57:-2 58:1 59:0 60:0 
-25.3333330154419 1:0 2:0 3:0 4:1 5:0 6:2 7:5 8:1 9:4 10:0 11:0 12:0 13:0 14:0 15:0 16:-1 17:1 18:2 19:2 20:0 21:2 22:0 23:0 24:0 25:0 26:0 27:0 28:-1 29:2 30:1 31:0 32:0 33:0 34:0 35:0 36:0 37:0 38:0 39:0 40:0 41:0 42:-2 43:-1 44:0 45:-2 46:0 47:0 48:0 49:0 50:0 51:0 52:2 53:-1 54:-4 55:-4 56:-1 57:-4 58:0 59:0 60:0 
-10.84204659858886 1:0 2:0 3:0 4:-1 5:2 6:3 7:5 8:0 9:3 10:0 11:0 12:0 13:0 14:0 15:0 16:-1 17:3 18:2 19:3 20:0 21:1 22:0 23:0 24:0 25:0 26:0 27:0 28:0 29:1 30:-1 31:2 32:0 33:-1 34:0 35:0 36:0 37:0 38:0 39:0 40:2 41:0 42:-3 43:-1 44:-1 45:-3 46:0 47:0 48:0 49:0 50:0 51:0 52:3 53:-2 54:-4 55:-6 56:-1 57:-4 58:0 59:0 60:0 
-25.3333330154419 1:0 2:0 3:0 4:-2 5:4 6:4 7:5 8:0 9:3 10:0 11:0 12:0 13:0 14:0 15:0 16:-1 17:2 18:1 19:4 20:0 21:1 22:0 23:0 24:0 25:0 26:0 27:0 28:1 29:1 30:-1 31:1 32:-1 33:-1 34:0 35:0 36:0 37:0 38:0 39:0 40:2 41:-1 42:-2 43:-4 44:-1 45:-2 46:0 47:0 48:0 49:0 50:0 51:0 52:2 53:-3 54:-2 55:-6 56:-1 57:-3 58:0 59:0 60:0 
-25.3333330154419 1:0 2:-1 3:1 4:-2 5:3 6:2 7:7 8:0 9:3 10:0 11:0 12:0 13:0 14:-1 15:1 16:0 17:2 18:0 19:4 20:-1 21:1 22:0 23:0 24:0 25:0 26:-1 27:1 28:1 29:0 30:-1 31:-1 32:-1 33:0 34:0 35:0 36:0 37:0 38:-1 39:1 40:1 41:-2 42:-1 43:-3 44:-1 45:-1 46:0 47:0 48:0 49:0 50:0 51:0 52:2 53:0 54:-3 55:-4 56:2 57:-3 58:0 59:0 60:0 
-25.3333330154419 1:0 2:-1 3:1 4:0 5:2 6:1 7:6 8:-2 9:2 10:0 11:0 12:0 13:0 14:-1 15:1 16:1 17:0 18:0 19:1 20:-2 21:1 22:0 23:0 24:0 25:0 26:-1 27:1 28:1 29:-2 30:0 31:-1 32:-2 33:0 34:0 35:0 36:0 37:0 38:0 39:0 40:2 41:0 42:-2 43:-2 44:1 45:-2 46:0 47:0 48:0 49:0 50:0 51:-1 52:-2 53:3 54:-3 55:-4 56:5 57:-5 58:0 59:0 60:0 
-25.3333330154419 1:-1 2:-1 3:2 4:1 5:-1 6:1 7:4 8:-4 9:3 10:0 11:0 12:0 13:-1 14:-1 15:2 16:1 17:-3 18:1 19:2 20:-4 21:2 22:0 23:0 24:0 25:-1 26:0 27:1 28:2 29:-1 30:-1 31:1 32:-1 33:0 34:0 35:0 36:0 37:-1 38:0 39:0 40:-2 41:2 42:-2 43:-1 44:3 45:-3 46:0 47:0 48:0 49:0 50:1 51:-1 52:-2 53:4 54:-2 55:-3 56:6 57:-5 58:0 59:0 60:0 
-25.3333330154419 1:-1 2:-2 3:3 4:3 5:-4 6:2 7:4 8:-7 9:4 10:0 11:0 12:0 13:-1 14:-1 15:2 16:4 17:-2 18:0 19:3 20:-4 21:2 22:0 23:0 24:0 25:-1 26:-1 27:1 28:0 29:1 30:-1 31:1 32:0 33:-1 34:0 35:0 36:0 37:0 38:0 39:0 40:0 41:3 42:-1 43:-1 44:3 45:-3 46:0 47:0 48:0 49:1 50:1 51:-3 52:-3 53:6 54:-2 55:-3 56:6 57:-5 58:0 59:0 60:0 
-25.3333330154419 1:-1 2:-1 3:2 4:5 5:-4 6:1 7:4 8:-7 9:5 10:0 11:0 12:0 13:-1 14:-1 15:1 16:1 17:-1 18:0 19:2 20:-3 21:2 22:0 23:0 24:0 25:0 26:0 27:0 28:1 29:1 30:0 31:0 32:0 33:0 34:0 35:0 36:0 37:1 38:1 39:-3 40:-2 41:4 42:-1 43:-2 44:3 45:-2 46:0 47:0 48:0 49:1 50:1 51:-3 52:-3 53:4 54:-2 55:-4 56:5 57:-6 58:0 59:0 60:0 
-25.3333330154419 1:-1 2:-1 3:2 4:3 5:-3 6:1 7:4 8:-5 9:4 10:1 11:0 12:0 13:0 14:0 15:1 16:3 17:-1 18:1 19:2 20:-2 21:2 22:1 23:0 24:0 25:1 26:1 27:-2 28:0 29:2 30:0 31:0 32:1 33:0 34:1 35:0 36:0 37:1 38:1 39:-2 40:-1 41:2 42:-1 43:-2 44:3 45:-4 46:1 47:0 48:0 49:-1 50:-1 51:1 52:-3 53:1 54:-2 55:-3 56:2 57:-6 58:0 59:0 60:0 
-25.3333330154419 1:0 2:0 3:1 4:4 5:-1 6:1 7:4 8:-3 9:5 10:1 11:0 12:0 13:1 14:1 15:-2 16:1 17:2 18:0 19:2 20:0 21:3 22:1 23:0 24:0 25:1 26:1 27:-2 28:0 29:2 30:-1 31:0 32:2 33:-1 34:1 35:0 36:0 37:-1 38:-1 39:1 40:-2 41:1 42:-2 43:-1 44:1 45:-3 46:0 47:0 48:0 49:-1 50:-1 51:1 52:-3 53:-1 54:-2 55:-4 56:0 57:-5 58:1 59:0 60:0 
-25.3333330154419 1:1 2:1 3:-3 4:3 5:2 6:1 7:4 8:-1 9:5 10:1 11:0 12:-1 13:1 14:1 15:-3 16:2 17:2 18:0 19:2 20:1 21:1 22:1 23:0 24:-1 25:-1 26:-1 27:0 28:0 29:1 30:-1 31:1 32:0 33:-1 34:0 35:0 36:-1 37:-1 38:-1 39:0 40:-1 41:-1 42:-1 43:-2 44:-1 45:-3 46:1 47:0 48:-1 49:0 50:-1 51:2 52:-1 53:-3 54:-1 55:-4 56:-1 57:-6 58:1 59:0 60:0 
-25.3333330154419 1:1 2:1 3:-3 4:3 5:4 6:0 7:4 8:1 9:4 10:1 11:0 12:-1 13:-1 14:-1 15:0 16:1 17:3 18:-1 19:3 20:0 21:2 22:0 23:0 24:-1 25:-1 26:-1 27:0 28:0 29:1 30:-1 31:0 32:-1 33:0 34:1 35:0 36:-1 37:0 38:-1 39:2 40:0 41:-1 42:-1 43:-2 44:-1 45:-3 46:1 47:0 48:0 49:1 50:-1 51:1 52:0 53:-3 54:0 55:-4 56:-2 57:-5 58:1 59:0 60:0 
-25.3333330154419 1:-1 2:0 3:0 4:1 5:4 6:0 7:5 8:1 9:4 10:0 11:0 12:-1 13:-1 14:0 15:0 16:0 17:2 18:0 19:2 20:0 21:2 22:1 23:0 24:-1 25:0 26:0 27:2 28:0 29:0 30:0 31:0 32:0 33:-1 34:1 35:0 36:0 37:1 38:0 39:1 40:0 41:-2 42:1 43:-2 44:-1 45:-3 46:1 47:0 48:0 49:1 50:0 51:0 52:2 53:-1 54:-1 55:-4 56:0 57:-5 58:1 59:0 60:0 
-25.3333330154419 1:-2 2:0 3:0 4:-1 5:3 6:0 7:4 8:0 9:4 10:0 11:1 12:-1 13:-1 14:0 15:2 16:-1 17:1 18:0 19:2 20:0 21:1 22:0 23:1 24:0 25:0 26:0 27:1 28:-1 29:-1 30:1 31:0 32:-1 33:-1 34:0 35:1 36:0 37:0 38:0 39:0 40:1 41:0 42:-1 43:-2 44:0 45:-3 46:0 47:1 48:0 49:-1 50:0 51:0 52:4 53:1 54:-3 55:-2 56:0 57:-5 58:0 59:0 60:-1 
-25.3333330154419 1:-1 2:0 3:2 4:-2 5:1 6:1 7:3 8:0 9:4 10:0 11:1 12:0 13:0 14:0 15:1 16:-2 17:-1 18:2 19:1 20:-1 21:2 22:0 23:1 24:0 25:0 26:0 27:0 28:0 29:0 30:0 31:-1 32:0 33:0 34:0 35:1 36:0 37:-1 38:0 39:0 40:3 41:1 42:-2 43:-1 44:0 45:-2 46:0 47:0 48:-1 49:-1 50:0 51:0 52:3 53:1 54:-2 55:-2 56:1 57:-4 58:0 59:0 60:-1 
-20.219610334352 1:1 2:-1 3:0 4:-2 5:0 6:1 7:1 8:-2 9:4 10:0 11:1 12:0 13:0 14:-1 15:0 16:1 17:1 18:-1 19:1 20:-2 21:2 22:0 23:0 24:-1 25:0 26:-1 27:0 28:1 29:1 30:-1 31:0 32:-1 33:0 34:0 35:0 36:-1 37:0 38:0 39:0 40:1 41:1 42:0 43:-1 44:1 45:-4 46:0 47:0 48:-1 49:-1 50:-1 51:1 52:0 53:1 54:0 55:-1 56:1 57:-5 58:0 59:0 60:-1 
-25.3333330154419 1:0 2:-1 3:0 4:1 5:0 6:-1 7:1 8:-3 9:4 10:0 11:0 12:0 13:0 14:-1 15:0 16:1 17:0 18:-1 19:0 20:-2 21:2 22:0 23:0 24:0 25:0 26:0 27:0 28:1 29:0 30:0 31:-1 32:0 33:-2 34:0 35:0 36:0 37:-1 38:-1 39:1 40:0 41:0 42:0 43:-1 44:0 45:-3 46:0 47:0 48:0 49:-1 50:-1 51:1 52:0 53:0 54:0 55:-2 56:1 57:-4 58:0 59:0 60:0 
-25.3333330154419 1:0 2:-1 3:0 4:1 5:1 6:-1 7:1 8:-3 9:4 10:0 11:0 12:0 13:0 14:0 15:0 16:1 17:1 18:0 19:0 20:-1 21:0 22:0 23:0 24:0 25:-1 26:-1 27:1 28:0 29:1 30:0 31:0 32:-1 33:-1 34:0 35:0 36:0 37:-1 38:-1 39:1 40:0 41:1 42:0 43:-1 44:0 45:-2 46:0 47:0 48:0 49:-1 50:-1 51:1 52:0 53:0 54:0 55:-2 56:1 57:-3 58:0 59:0 60:0 
-25.3333330154419 1:0 2:0 3:0 4:1 5:1 6:0 7:1 8:-1 9:2 10:0 11:0 12:0 13:-1 14:-1 15:1 16:0 17:1 18:0 19:1 20:-1 21:1 22:0 23:0 24:0 25:-1 26:-1 27:1 28:0 29:1 30:0 31:0 32:0 33:0 34:0 35:0 36:0 37:-1 38:-1 39:1 40:0 41:0 42:0 43:-1 44:1 45:-1 46:0 47:0 48:0 49:-1 50:-1 51:1 52:0 53:0 54:0 55:-1 56:1 57:-3 58:0 59:0 60:0 
-25.3333330154419 1:0 2:0 3:0 4:0 5:1 6:-1 7:1 8:-2 9:2 10:0 11:0 12:-1 13:0 14:0 15:0 16:0 17:1 18:-1 19:0 20:-1 21:1 22:0 23:0 24:-1 25:0 26:0 27:0 28:0 29:0 30:-1 31:-1 32:0 33:0 34:0 35:0 36:-1 37:0 38:0 39:0 40:0 41:0 42:-1 43:-1 44:0 45:-2 46:0 47:0 48:-1 49:0 50:0 51:1 52:0 53:0 54:0 55:-1 56:0 57:-2 58:0 59:0 60:0 
-8.124548736990915 1:0 2:0 3:0 4:0 5:1 6:-1 7:0 8:-1 9:2 10:0 11:0 12:-1 13:0 14:0 15:0 16:0 17:0 18:-1 19:-1 20:0 21:1 22:0 23:0 24:-1 25:0 26:0 27:0 28:0 29:0 30:-1 31:-1 32:0 33:-1 34:0 35:0 36:-1 37:0 38:0 39:1 40:0 41:0 42:0 43:-1 44:0 45:-1 46:0 47:0 48:0 49:0 50:0 51:2 52:0 53:0 54:0 55:-1 56:0 57:-1 58:0 59:0 60:0 
