svm_type c_svc
kernel_type rbf
gamma 6.10352e-005
nr_class 2
total_sv 204
rho -13.7622
label 1 3
nr_sv 146 58
SV
25.76686964444588 1:-1 2:0 3:1 4:4 5:1 6:1 7:0 8:2 9:2 10:0 11:1 12:1 13:-1 14:-1 15:0 16:-1 17:0 18:1 19:0 20:1 21:1 22:0 23:-1 24:0 25:-1 26:-1 27:0 28:-1 29:0 30:0 31:1 32:0 33:1 34:0 35:-1 36:0 37:-1 38:0 39:0 40:-2 41:-2 42:0 43:1 44:-1 45:-1 46:0 47:-1 48:0 49:0 50:0 51:1 52:0 53:-3 54:-1 55:1 56:-2 57:-2 58:0 59:-1 60:0 
25.76686964444588 1:-2 2:0 3:0 4:-2 5:0 6:2 7:1 8:-1 9:2 10:0 11:1 12:0 13:-1 14:0 15:1 16:0 17:-1 18:1 19:1 20:-2 21:1 22:0 23:1 24:0 25:0 26:-1 27:0 28:0 29:-1 30:0 31:1 32:-1 33:1 34:0 35:0 36:0 37:0 38:-1 39:0 40:-1 41:0 42:-1 43:0 44:0 45:0 46:0 47:-1 48:0 49:0 50:-1 51:0 52:-1 53:0 54:-2 55:-2 56:1 57:-2 58:0 59:-1 60:0 
25.76686964444588 1:-1 2:0 3:1 4:0 5:-1 6:2 7:2 8:-2 9:2 10:1 11:1 12:0 13:0 14:-1 15:0 16:0 17:-1 18:1 19:2 20:-1 21:2 22:1 23:0 24:0 25:0 26:-1 27:0 28:-1 29:0 30:0 31:1 32:0 33:1 34:1 35:-1 36:0 37:0 38:-1 39:0 40:-1 41:0 42:-1 43:-1 44:1 45:-1 46:1 47:-1 48:0 49:-1 50:-1 51:0 52:-1 53:-2 54:-2 55:-1 56:1 57:-3 58:0 59:-1 60:0 
25.76686964444588 1:0 2:1 3:-1 4:-1 5:2 6:3 7:3 8:-1 9:4 10:1 11:0 12:0 13:-1 14:1 15:-1 16:-1 17:0 18:2 19:3 20:-1 21:2 22:0 23:0 24:0 25:-1 26:0 27:0 28:0 29:-1 30:0 31:2 32:-1 33:0 34:0 35:0 36:0 37:-1 38:-1 39:1 40:0 41:-2 42:-1 43:-1 44:-1 45:-2 46:0 47:0 48:0 49:-1 50:-1 51:2 52:-2 53:-2 54:-2 55:-4 56:0 57:-4 58:0 59:0 60:0 
25.76686964444588 1:-1 2:-3 3:1 4:-2 5:5 6:-2 7:8 8:1 9:-8 10:1 11:-2 12:0 13:-1 14:-1 15:1 16:-2 17:3 18:0 19:3 20:0 21:-3 22:1 23:-1 24:0 25:-1 26:0 27:1 28:-1 29:1 30:0 31:-1 32:-1 33:0 34:0 35:0 36:0 37:-1 38:0 39:1 40:0 41:-4 42:1 43:-5 44:-1 45:4 46:0 47:-1 48:0 49:0 50:1 51:0 52:2 53:-6 54:2 55:-9 56:-1 57:8 58:0 59:0 60:0 
25.76686964444588 1:-1 2:-3 3:1 4:-3 5:-1 6:-1 7:0 8:1 9:-4 10:0 11:-2 12:1 13:0 14:-2 15:0 16:0 17:-2 18:0 19:-1 20:-1 21:0 22:0 23:-2 24:1 25:0 26:0 27:0 28:1 29:-1 30:1 31:-1 32:0 33:2 34:0 35:0 36:1 37:0 38:0 39:1 40:0 41:0 42:1 43:-1 44:0 45:3 46:0 47:1 48:1 49:0 50:2 51:2 52:0 53:0 54:1 55:0 56:0 57:3 58:0 59:3 60:0 
25.76686964444588 1:-1 2:0 3:1 4:-1 5:-3 6:0 7:-3 8:-2 9:1 10:0 11:0 12:1 13:-1 14:0 15:0 16:0 17:-1 18:0 19:-1 20:-1 21:0 22:0 23:0 24:1 25:0 26:0 27:0 28:0 29:0 30:0 31:1 32:0 33:0 34:0 35:0 36:0 37:0 38:1 39:0 40:-1 41:1 42:0 43:1 44:2 45:0 46:0 47:1 48:0 49:0 50:-1 51:0 52:0 53:0 54:0 55:-1 56:1 57:3 58:0 59:-1 60:0 
25.76686964444588 1:0 2:-1 3:1 4:-1 5:-1 6:1 7:2 8:-2 9:-3 10:0 11:0 12:0 13:0 14:0 15:1 16:-2 17:0 18:1 19:2 20:0 21:-3 22:0 23:1 24:0 25:0 26:-2 27:1 28:-1 29:-1 30:1 31:0 32:-1 33:0 34:0 35:-1 36:0 37:-1 38:0 39:1 40:0 41:0 42:0 43:-4 44:1 45:3 46:0 47:-1 48:0 49:-1 50:1 51:0 52:0 53:1 54:0 55:-4 56:1 57:3 58:0 59:0 60:0 
25.76686964444588 1:0 2:-1 3:1 4:-2 5:-1 6:1 7:3 8:-1 9:-4 10:0 11:1 12:0 13:0 14:-3 15:1 16:-1 17:-2 18:1 19:1 20:-2 21:-1 22:0 23:-1 24:0 25:-1 26:-1 27:1 28:0 29:-1 30:0 31:-3 32:0 33:2 34:0 35:-1 36:0 37:-1 38:0 39:0 40:0 41:0 42:0 43:-3 44:0 45:2 46:0 47:0 48:0 49:-2 50:2 51:-1 52:1 53:1 54:-1 55:-2 56:1 57:2 58:0 59:1 60:0 
25.76686964444588 1:0 2:-4 3:1 4:0 5:-2 6:1 7:-1 8:-2 9:0 10:0 11:-2 12:0 13:-1 14:-2 15:0 16:1 17:-1 18:0 19:0 20:-1 21:0 22:0 23:-1 24:0 25:-1 26:0 27:0 28:1 29:0 30:0 31:0 32:0 33:0 34:0 35:0 36:0 37:-1 38:1 39:0 40:0 41:1 42:1 43:0 44:1 45:0 46:0 47:1 48:0 49:-1 50:1 51:0 52:-2 53:2 54:1 55:0 56:2 57:0 58:0 59:2 60:0 
25.76686964444588 1:0 2:-1 3:0 4:2 5:-3 6:0 7:0 8:-2 9:0 10:0 11:-2 12:0 13:0 14:-1 15:0 16:0 17:-2 18:0 19:0 20:-1 21:0 22:0 23:-1 24:0 25:0 26:0 27:0 28:-2 29:0 30:0 31:0 32:0 33:0 34:0 35:0 36:0 37:0 38:1 39:0 40:-2 41:1 42:0 43:0 44:0 45:0 46:0 47:0 48:0 49:0 50:1 51:0 52:0 53:1 54:0 55:0 56:0 57:0 58:1 59:0 60:0 
25.76686964444588 1:0 2:-2 3:0 4:0 5:-3 6:0 7:0 8:-1 9:0 10:0 11:-1 12:0 13:0 14:-1 15:0 16:-2 17:-1 18:0 19:0 20:0 21:0 22:0 23:0 24:0 25:0 26:0 27:0 28:-2 29:0 30:0 31:0 32:0 33:0 34:0 35:0 36:0 37:0 38:0 39:0 40:0 41:0 42:0 43:0 44:0 45:0 46:1 47:0 48:0 49:0 50:0 51:0 52:1 53:0 54:0 55:0 56:0 57:0 58:1 59:0 60:0 
25.76686964444588 1:0 2:-1 3:0 4:-2 5:-1 6:0 7:0 8:0 9:0 10:0 11:0 12:0 13:0 14:0 15:0 16:-2 17:0 18:0 19:0 20:0 21:0 22:0 23:0 24:0 25:0 26:0 27:0 28:0 29:0 30:0 31:0 32:0 33:0 34:1 35:0 36:0 37:0 38:0 39:0 40:1 41:0 42:0 43:0 44:0 45:0 46:1 47:0 48:0 49:0 50:0 51:0 52:1 53:0 54:1 55:0 56:0 57:0 58:1 59:0 60:0 
25.76686964444588 1:0 2:0 3:0 4:-3 5:0 6:0 7:-1 8:0 9:0 10:0 11:0 12:0 13:0 14:0 15:0 16:-1 17:0 18:0 19:-1 20:0 21:0 22:1 23:0 24:0 25:0 26:0 27:0 28:0 29:0 30:0 31:-1 32:0 33:0 34:1 35:0 36:0 37:0 38:0 39:0 40:0 41:0 42:1 43:-1 44:0 45:0 46:1 47:0 48:0 49:0 50:0 51:0 52:0 53:0 54:1 55:0 56:0 57:0 58:1 59:0 60:0 
25.76686964444588 1:0 2:-1 3:0 4:-1 5:0 6:0 7:-1 8:0 9:0 10:0 11:0 12:0 13:0 14:-1 15:0 16:0 17:0 18:0 19:-1 20:0 21:0 22:0 23:0 24:0 25:0 26:-1 27:0 28:0 29:0 30:1 31:-1 32:0 33:0 34:0 35:0 36:0 37:0 38:-1 39:0 40:0 41:0 42:1 43:0 44:0 45:0 46:0 47:0 48:0 49:0 50:0 51:0 52:0 53:0 54:1 55:0 56:0 57:0 58:0 59:0 60:0 
25.76686964444588 1:0 2:-1 3:0 4:0 5:0 6:0 7:-1 8:0 9:0 10:0 11:0 12:0 13:0 14:-1 15:0 16:0 17:0 18:1 19:-1 20:0 21:0 22:0 23:0 24:0 25:0 26:-1 27:0 28:0 29:0 30:1 31:0 32:0 33:0 34:0 35:0 36:0 37:0 38:0 39:0 40:0 41:0 42:1 43:0 44:0 45:0 46:0 47:0 48:0 49:0 50:0 51:0 52:0 53:0 54:1 55:0 56:0 57:0 58:0 59:0 60:0 
25.76686964444588 1:0 2:-1 3:0 4:0 5:0 6:0 7:-1 8:0 9:0 10:0 11:0 12:0 13:0 14:-1 15:0 16:0 17:0 18:0 19:0 20:0 21:0 22:0 23:0 24:0 25:0 26:0 27:0 28:0 29:0 30:0 31:0 32:0 33:0 34:0 35:0 36:0 37:0 38:0 39:0 40:0 41:0 42:0 43:0 44:0 45:0 46:0 47:0 48:0 49:0 50:0 51:0 52:0 53:0 54:0 55:0 56:0 57:0 58:0 59:0 60:0 
25.76686964444588 1:0 2:-1 3:0 4:0 5:0 6:0 7:0 8:0 9:0 10:0 11:0 12:0 13:0 14:0 15:0 16:0 17:0 18:0 19:0 20:0 21:0 22:0 23:0 24:0 25:0 26:0 27:0 28:0 29:0 30:0 31:0 32:0 33:0 34:0 35:0 36:0 37:0 38:0 39:0 40:0 41:0 42:0 43:0 44:0 45:0 46:0 47:0 48:0 49:0 50:0 51:0 52:0 53:0 54:0 55:0 56:0 57:0 58:0 59:0 60:0 
25.76686964444588 1:0 2:0 3:0 4:0 5:0 6:0 7:0 8:0 9:0 10:0 11:0 12:0 13:0 14:0 15:0 16:0 17:0 18:0 19:0 20:0 21:0 22:0 23:0 24:0 25:0 26:0 27:0 28:0 29:0 30:0 31:0 32:0 33:0 34:0 35:0 36:0 37:0 38:0 39:0 40:0 41:0 42:0 43:0 44:0 45:0 46:0 47:0 48:0 49:0 50:0 51:0 52:0 53:0 54:0 55:0 56:0 57:0 58:0 59:0 60:0 
25.76686964444588 1:0 2:0 3:0 4:0 5:0 6:0 7:0 8:0 9:0 10:0 11:0 12:0 13:0 14:0 15:0 16:0 17:0 18:0 19:0 20:0 21:0 22:0 23:0 24:0 25:0 26:0 27:0 28:0 29:0 30:0 31:0 32:0 33:0 34:0 35:0 36:0 37:0 38:0 39:0 40:0 41:0 42:0 43:0 44:0 45:0 46:0 47:0 48:0 49:0 50:0 51:0 52:0 53:0 54:0 55:0 56:0 57:0 58:0 59:0 60:0 
25.76686964444588 1:0 2:0 3:0 4:0 5:-1 6:0 7:0 8:0 9:0 10:0 11:0 12:0 13:0 14:0 15:0 16:0 17:-1 18:0 19:0 20:0 21:0 22:0 23:0 24:0 25:0 26:0 27:0 28:0 29:-1 30:0 31:0 32:0 33:0 34:0 35:0 36:0 37:0 38:0 39:0 40:0 41:-1 42:0 43:0 44:0 45:0 46:0 47:0 48:0 49:0 50:0 51:0 52:0 53:0 54:0 55:0 56:0 57:0 58:0 59:0 60:0 
25.76686964444588 1:0 2:0 3:0 4:0 5:-1 6:0 7:-2 8:0 9:2 10:0 11:0 12:0 13:0 14:0 15:0 16:0 17:-1 18:0 19:-2 20:0 21:2 22:0 23:0 24:0 25:0 26:0 27:0 28:0 29:-1 30:0 31:-2 32:0 33:2 34:0 35:0 36:0 37:0 38:0 39:0 40:0 41:0 42:0 43:-2 44:0 45:2 46:0 47:0 48:0 49:0 50:0 51:0 52:0 53:0 54:0 55:7 56:-2 57:-7 58:0 59:0 60:0 
25.76686964444588 1:0 2:-1 3:0 4:0 5:-1 6:-1 7:-9 8:2 9:9 10:0 11:-1 12:0 13:0 14:-1 15:0 16:0 17:-1 18:0 19:1 20:-1 21:-1 22:0 23:-1 24:0 25:0 26:0 27:0 28:0 29:0 30:0 31:1 32:-1 33:-1 34:0 35:0 36:0 37:0 38:0 39:0 40:0 41:0 42:1 43:1 44:-1 45:-1 46:0 47:0 48:0 49:0 50:0 51:1 52:0 53:0 54:1 55:3 56:-1 57:-2 58:0 59:0 60:0 
25.76686964444588 1:0 2:-1 3:0 4:0 5:-1 6:0 7:-2 8:0 9:1 10:0 11:-1 12:0 13:0 14:0 15:0 16:0 17:0 18:0 19:-2 20:0 21:1 22:0 23:0 24:0 25:0 26:0 27:0 28:0 29:0 30:1 31:-2 32:0 33:1 34:0 35:0 36:0 37:0 38:0 39:1 40:0 41:0 42:1 43:0 44:0 45:0 46:0 47:0 48:0 49:0 50:0 51:1 52:0 53:0 54:1 55:2 56:-1 57:-1 58:0 59:0 60:0 
25.76686964444588 1:0 2:0 3:0 4:0 5:0 6:0 7:-2 8:0 9:1 10:0 11:0 12:0 13:0 14:0 15:0 16:0 17:0 18:1 19:-2 20:0 21:1 22:0 23:0 24:0 25:0 26:0 27:1 28:0 29:0 30:1 31:0 32:0 33:0 34:0 35:0 36:0 37:0 38:0 39:1 40:0 41:0 42:1 43:2 44:-1 45:-1 46:0 47:0 48:0 49:0 50:0 51:1 52:0 53:0 54:1 55:2 56:-1 57:-1 58:0 59:0 60:0 
25.76686964444588 1:0 2:0 3:0 4:0 5:-1 6:0 7:-3 8:0 9:2 10:0 11:0 12:0 13:0 14:0 15:1 16:0 17:-1 18:0 19:-1 20:0 21:1 22:0 23:0 24:0 25:0 26:0 27:1 28:0 29:-1 30:0 31:1 32:-1 33:0 34:0 35:0 36:0 37:0 38:0 39:1 40:0 41:-1 42:0 43:1 44:-1 45:0 46:0 47:0 48:0 49:0 50:0 51:1 52:0 53:0 54:0 55:1 56:-1 57:0 58:0 59:0 60:0 
25.76686964444588 1:0 2:0 3:0 4:0 5:-1 6:0 7:-2 8:0 9:1 10:0 11:0 12:0 13:0 14:0 15:0 16:0 17:-1 18:0 19:0 20:-1 21:0 22:0 23:0 24:0 25:0 26:0 27:0 28:0 29:-1 30:0 31:0 32:-1 33:0 34:0 35:0 36:0 37:0 38:0 39:0 40:0 41:0 42:0 43:0 44:-1 45:0 46:0 47:0 48:0 49:0 50:0 51:0 52:-1 53:0 54:0 55:0 56:-1 57:0 58:0 59:0 60:0 
25.76686964444588 1:0 2:-1 3:0 4:0 5:-1 6:0 7:0 8:0 9:0 10:0 11:0 12:0 13:0 14:-1 15:0 16:0 17:-1 18:0 19:0 20:0 21:0 22:0 23:0 24:0 25:0 26:-1 27:0 28:0 29:0 30:0 31:0 32:0 33:0 34:0 35:0 36:0 37:0 38:-1 39:0 40:-1 41:0 42:0 43:0 44:0 45:0 46:0 47:0 48:0 49:0 50:0 51:0 52:-1 53:0 54:0 55:0 56:0 57:0 58:0 59:0 60:0 
25.76686964444588 1:0 2:-1 3:0 4:0 5:0 6:0 7:0 8:-1 9:0 10:0 11:-1 12:0 13:0 14:-1 15:0 16:-1 17:0 18:0 19:0 20:-1 21:0 22:0 23:-1 24:0 25:0 26:0 27:0 28:-1 29:0 30:0 31:0 32:-1 33:0 34:0 35:-1 36:0 37:0 38:0 39:0 40:-1 41:0 42:0 43:0 44:0 45:0 46:0 47:0 48:0 49:0 50:0 51:0 52:-1 53:0 54:0 55:0 56:0 57:0 58:0 59:0 60:0 
25.76686964444588 1:-1 2:-1 3:0 4:-1 5:-1 6:0 7:-1 8:-1 9:0 10:0 11:-1 12:0 13:-1 14:0 15:0 16:-1 17:-1 18:0 19:-1 20:-1 21:0 22:0 23:-1 24:0 25:-1 26:0 27:0 28:-1 29:-1 30:0 31:-1 32:0 33:0 34:0 35:0 36:0 37:-1 38:0 39:0 40:-1 41:-1 42:0 43:-1 44:0 45:0 46:0 47:0 48:0 49:0 50:1 51:0 52:0 53:0 54:0 55:0 56:0 57:0 58:0 59:1 60:0 
25.76686964444588 1:-1 2:-1 3:0 4:-1 5:-1 6:0 7:-1 8:-1 9:0 10:0 11:-2 12:0 13:-1 14:-1 15:0 16:-1 17:-1 18:0 19:-1 20:0 21:0 22:0 23:-1 24:0 25:-1 26:-1 27:0 28:-1 29:-1 30:0 31:-1 32:0 33:0 34:0 35:-1 36:0 37:0 38:0 39:0 40:0 41:0 42:0 43:0 44:0 45:0 46:0 47:0 48:0 49:0 50:0 51:0 52:0 53:0 54:0 55:0 56:0 57:0 58:0 59:0 60:0 
25.76686964444588 1:-1 2:-1 3:0 4:-1 5:-1 6:0 7:-1 8:-1 9:0 10:0 11:-1 12:0 13:-1 14:-1 15:0 16:-1 17:-1 18:0 19:-1 20:-1 21:0 22:0 23:-1 24:0 25:0 26:0 27:0 28:0 29:0 30:0 31:0 32:-1 33:0 34:0 35:0 36:0 37:0 38:0 39:0 40:0 41:0 42:0 43:0 44:-1 45:0 46:0 47:0 48:0 49:0 50:0 51:0 52:0 53:0 54:0 55:0 56:0 57:0 58:0 59:0 60:0 
25.76686964444588 1:-1 2:-1 3:0 4:-1 5:-1 6:1 7:-1 8:-1 9:0 10:0 11:-1 12:0 13:0 14:0 15:0 16:0 17:0 18:1 19:0 20:-1 21:0 22:0 23:0 24:0 25:0 26:0 27:0 28:0 29:0 30:1 31:0 32:-1 33:0 34:0 35:0 36:0 37:0 38:0 39:0 40:0 41:0 42:1 43:0 44:0 45:0 46:0 47:0 48:0 49:0 50:1 51:0 52:0 53:1 54:0 55:0 56:0 57:0 58:0 59:1 60:0 
25.76686964444588 1:0 2:-1 3:0 4:0 5:-1 6:0 7:4 8:-2 9:-4 10:0 11:-1 12:0 13:0 14:-1 15:0 16:0 17:-1 18:0 19:-1 20:0 21:1 22:0 23:-1 24:0 25:0 26:0 27:0 28:0 29:-1 30:0 31:-1 32:0 33:1 34:0 35:-1 36:0 37:0 38:0 39:0 40:0 41:0 42:0 43:-1 44:0 45:1 46:0 47:-1 48:0 49:0 50:0 51:0 52:0 53:0 54:0 55:-1 56:0 57:1 58:0 59:0 60:0 
25.76686964444588 1:0 2:-1 3:0 4:0 5:-1 6:0 7:0 8:-1 9:0 10:0 11:-1 12:0 13:0 14:0 15:0 16:0 17:-1 18:0 19:0 20:-1 21:0 22:0 23:-1 24:0 25:0 26:0 27:0 28:0 29:0 30:0 31:0 32:-1 33:0 34:0 35:-1 36:0 37:0 38:0 39:0 40:0 41:0 42:0 43:0 44:-1 45:0 46:0 47:0 48:0 49:0 50:0 51:0 52:0 53:0 54:0 55:0 56:0 57:0 58:0 59:0 60:0 
25.76686964444588 1:0 2:-1 3:0 4:0 5:-1 6:0 7:0 8:-1 9:0 10:0 11:-1 12:0 13:0 14:-1 15:0 16:0 17:-1 18:0 19:0 20:-1 21:0 22:0 23:0 24:0 25:0 26:-1 27:0 28:0 29:-1 30:0 31:0 32:0 33:0 34:0 35:0 36:0 37:0 38:0 39:0 40:0 41:-1 42:0 43:0 44:0 45:0 46:0 47:0 48:0 49:0 50:0 51:0 52:0 53:0 54:0 55:0 56:0 57:0 58:0 59:0 60:0 
14.74982584591816 1:0 2:-1 3:0 4:0 5:-1 6:0 7:0 8:-1 9:1 10:0 11:-1 12:0 13:0 14:-1 15:0 16:0 17:-1 18:0 19:0 20:0 21:1 22:0 23:-1 24:0 25:0 26:0 27:0 28:0 29:-1 30:0 31:0 32:0 33:1 34:0 35:-1 36:0 37:0 38:0 39:0 40:0 41:0 42:0 43:0 44:0 45:1 46:0 47:-1 48:0 49:0 50:0 51:0 52:0 53:-1 54:2 55:0 56:0 57:0 58:0 59:0 60:0 
25.76686964444588 1:0 2:-1 3:0 4:0 5:-1 6:0 7:0 8:0 9:1 10:0 11:-1 12:0 13:0 14:0 15:0 16:0 17:-1 18:0 19:0 20:0 21:1 22:0 23:-1 24:0 25:0 26:0 27:0 28:0 29:0 30:0 31:0 32:0 33:1 34:0 35:-1 36:0 37:0 38:0 39:0 40:0 41:-1 42:2 43:0 44:0 45:0 46:0 47:0 48:0 49:0 50:1 51:0 52:0 53:-1 54:2 55:0 56:-1 57:-2 58:0 59:0 60:0 
25.76686964444588 1:0 2:-1 3:0 4:0 5:-1 6:-1 7:0 8:0 9:2 10:0 11:-1 12:0 13:0 14:-1 15:0 16:0 17:0 18:-1 19:0 20:0 21:2 22:0 23:-1 24:0 25:0 26:-1 27:0 28:0 29:-1 30:1 31:0 32:0 33:1 34:0 35:0 36:0 37:0 38:0 39:0 40:0 41:-1 42:1 43:0 44:-1 45:-1 46:0 47:0 48:0 49:0 50:0 51:0 52:0 53:0 54:1 55:0 56:-1 57:-1 58:0 59:0 60:0 
25.76686964444588 1:0 2:-1 3:0 4:0 5:0 6:-1 7:0 8:0 9:2 10:0 11:-1 12:0 13:0 14:-1 15:0 16:0 17:-1 18:1 19:0 20:0 21:1 22:0 23:0 24:0 25:0 26:0 27:0 28:0 29:-1 30:1 31:0 32:-1 33:-1 34:0 35:0 36:0 37:0 38:0 39:0 40:0 41:0 42:1 43:0 44:-1 45:-1 46:0 47:0 48:0 49:0 50:0 51:0 52:0 53:0 54:1 55:0 56:-1 57:-1 58:0 59:0 60:0 
25.76686964444588 1:0 2:-1 3:0 4:0 5:-1 6:0 7:0 8:0 9:2 10:0 11:0 12:0 13:0 14:0 15:0 16:0 17:-1 18:0 19:0 20:-1 21:0 22:0 23:0 24:0 25:0 26:0 27:0 28:0 29:0 30:0 31:0 32:-1 33:0 34:0 35:0 36:0 37:0 38:0 39:0 40:0 41:0 42:0 43:0 44:-1 45:0 46:0 47:0 48:0 49:0 50:1 51:0 52:0 53:0 54:0 55:0 56:-1 57:0 58:0 59:0 60:0 
25.76686964444588 1:0 2:-1 3:0 4:0 5:0 6:0 7:0 8:-1 9:0 10:0 11:-1 12:0 13:0 14:-1 15:0 16:0 17:0 18:0 19:0 20:-1 21:0 22:0 23:-1 24:0 25:0 26:0 27:0 28:0 29:0 30:0 31:0 32:-1 33:0 34:0 35:-1 36:0 37:0 38:0 39:1 40:0 41:0 42:0 43:0 44:0 45:0 46:0 47:0 48:0 49:0 50:0 51:1 52:0 53:0 54:1 55:0 56:0 57:0 58:0 59:0 60:0 
25.76686964444588 1:0 2:-1 3:0 4:0 5:-1 6:0 7:0 8:-1 9:0 10:0 11:-1 12:0 13:0 14:0 15:0 16:0 17:-1 18:0 19:0 20:-1 21:0 22:0 23:-1 24:0 25:0 26:0 27:1 28:0 29:-1 30:0 31:0 32:0 33:0 34:0 35:0 36:0 37:0 38:0 39:1 40:0 41:-1 42:1 43:0 44:0 45:0 46:0 47:0 48:0 49:0 50:0 51:1 52:0 53:0 54:1 55:0 56:0 57:0 58:0 59:0 60:0 
25.76686964444588 1:0 2:-1 3:0 4:0 5:-1 6:0 7:0 8:0 9:0 10:0 11:-1 12:0 13:0 14:-1 15:0 16:0 17:-1 18:1 19:0 20:0 21:0 22:0 23:-1 24:0 25:0 26:-1 27:0 28:0 29:0 30:1 31:0 32:0 33:0 34:0 35:-1 36:0 37:0 38:0 39:0 40:0 41:0 42:1 43:0 44:0 45:0 46:0 47:-1 48:0 49:0 50:0 51:0 52:0 53:1 54:-1 55:0 56:0 57:0 58:0 59:0 60:0 
25.76686964444588 1:0 2:-1 3:0 4:0 5:-2 6:1 7:0 8:-1 9:0 10:0 11:-1 12:0 13:0 14:-1 15:0 16:0 17:-1 18:1 19:0 20:-1 21:0 22:0 23:-1 24:0 25:0 26:0 27:0 28:0 29:-1 30:1 31:0 32:-1 33:0 34:0 35:-1 36:0 37:0 38:0 39:0 40:0 41:0 42:-1 43:0 44:-1 45:0 46:0 47:0 48:0 49:0 50:0 51:0 52:0 53:0 54:-1 55:0 56:0 57:0 58:0 59:0 60:0 
25.76686964444588 1:-1 2:-1 3:0 4:0 5:-1 6:2 7:0 8:-1 9:1 10:0 11:-1 12:0 13:-1 14:0 15:0 16:0 17:-1 18:2 19:0 20:-1 21:1 22:0 23:-1 24:0 25:-1 26:0 27:0 28:0 29:0 30:0 31:0 32:-1 33:1 34:0 35:0 36:0 37:-1 38:0 39:0 40:0 41:0 42:0 43:0 44:0 45:1 46:0 47:0 48:0 49:0 50:0 51:0 52:0 53:1 54:0 55:0 56:0 57:0 58:0 59:0 60:0 
25.76686964444588 1:-1 2:0 3:0 4:0 5:-2 6:2 7:0 8:-1 9:1 10:0 11:-1 12:0 13:-1 14:0 15:0 16:0 17:-1 18:0 19:0 20:-1 21:1 22:0 23:0 24:0 25:-1 26:0 27:0 28:0 29:-1 30:0 31:0 32:0 33:1 34:0 35:0 36:0 37:0 38:0 39:0 40:0 41:0 42:0 43:0 44:0 45:0 46:0 47:0 48:0 49:0 50:0 51:0 52:0 53:0 54:0 55:0 56:0 57:0 58:0 59:0 60:0 
25.76686964444588 1:-1 2:0 3:0 4:0 5:-1 6:0 7:0 8:-1 9:1 10:0 11:0 12:0 13:-1 14:0 15:0 16:0 17:-1 18:0 19:0 20:0 21:1 22:0 23:0 24:0 25:0 26:0 27:0 28:0 29:0 30:0 31:0 32:0 33:0 34:0 35:0 36:0 37:0 38:0 39:0 40:0 41:0 42:0 43:0 44:0 45:0 46:0 47:0 48:0 49:0 50:0 51:0 52:0 53:0 54:0 55:0 56:0 57:0 58:0 59:0 60:0 
0.005278975235139703 1:0 2:-2 3:0 4:-1 5:3 6:12 7:0 8:1 9:1 10:0 11:-3 12:-1 13:0 14:0 15:1 16:18 17:-11 18:-39 19:0 20:0 21:1 22:1 23:1 24:1 25:0 26:0 27:1 28:-3 29:2 30:10 31:1 32:0 33:0 34:1 35:1 36:1 37:0 38:-1 39:0 40:-8 41:1 42:10 43:1 44:-1 45:-1 46:1 47:-1 48:0 49:0 50:-1 51:0 52:-8 53:1 54:9 55:2 56:-2 57:-1 58:1 59:-1 60:0 
25.76686964444588 1:-1 2:0 3:1 4:4 5:1 6:1 7:0 8:2 9:2 10:0 11:1 12:1 13:-1 14:-1 15:0 16:-1 17:0 18:1 19:0 20:1 21:1 22:0 23:-1 24:0 25:-1 26:-1 27:0 28:-1 29:0 30:0 31:1 32:0 33:1 34:0 35:-1 36:0 37:-1 38:0 39:0 40:-2 41:-2 42:0 43:1 44:-1 45:-1 46:0 47:-1 48:0 49:0 50:0 51:1 52:0 53:-3 54:-1 55:1 56:-2 57:-2 58:0 59:-1 60:0 
11.37232108178256 1:-1 2:-1 3:0 4:-1 5:1 6:2 7:0 8:1 9:2 10:0 11:0 12:0 13:-1 14:-1 15:0 16:-1 17:1 18:1 19:1 20:0 21:2 22:0 23:0 24:0 25:-1 26:0 27:0 28:-2 29:-1 30:1 31:1 32:-1 33:0 34:0 35:0 36:0 37:0 38:0 39:1 40:0 41:-2 42:0 43:1 44:-2 45:-1 46:0 47:0 48:0 49:1 50:-1 51:0 52:0 53:-2 54:-1 55:1 56:-1 57:-1 58:0 59:-1 60:0 
25.76686964444588 1:-2 2:0 3:0 4:-2 5:0 6:2 7:1 8:-1 9:2 10:0 11:1 12:0 13:-1 14:0 15:1 16:0 17:-1 18:1 19:1 20:-2 21:1 22:0 23:1 24:0 25:0 26:-1 27:0 28:0 29:-1 30:0 31:1 32:-1 33:1 34:0 35:0 36:0 37:0 38:-1 39:0 40:-1 41:0 42:-1 43:0 44:0 45:0 46:0 47:-1 48:0 49:0 50:-1 51:0 52:-1 53:0 54:-2 55:-2 56:1 57:-2 58:0 59:-1 60:0 
25.76686964444588 1:-1 2:0 3:1 4:0 5:-1 6:2 7:2 8:-2 9:2 10:1 11:1 12:0 13:0 14:-1 15:0 16:0 17:-1 18:1 19:2 20:-1 21:2 22:1 23:0 24:0 25:0 26:-1 27:0 28:-1 29:0 30:0 31:1 32:0 33:1 34:1 35:-1 36:0 37:0 38:-1 39:0 40:-1 41:0 42:-1 43:-1 44:1 45:-1 46:1 47:-1 48:0 49:-1 50:-1 51:0 52:-1 53:-2 54:-2 55:-1 56:1 57:-3 58:0 59:-1 60:0 
25.76686964444588 1:0 2:1 3:-1 4:-1 5:2 6:3 7:3 8:-1 9:4 10:1 11:0 12:0 13:-1 14:1 15:-1 16:-1 17:0 18:2 19:3 20:-1 21:2 22:0 23:0 24:0 25:-1 26:0 27:0 28:0 29:-1 30:0 31:2 32:-1 33:0 34:0 35:0 36:0 37:-1 38:-1 39:1 40:0 41:-2 42:-1 43:-1 44:-1 45:-2 46:0 47:0 48:0 49:-1 50:-1 51:2 52:-2 53:-2 54:-2 55:-4 56:0 57:-4 58:0 59:0 60:0 
25.76686964444588 1:-1 2:-3 3:1 4:-2 5:5 6:-2 7:8 8:1 9:-8 10:1 11:-2 12:0 13:-1 14:-1 15:1 16:-2 17:3 18:0 19:3 20:0 21:-3 22:1 23:-1 24:0 25:-1 26:0 27:1 28:-1 29:1 30:0 31:-1 32:-1 33:0 34:0 35:0 36:0 37:-1 38:0 39:1 40:0 41:-4 42:1 43:-5 44:-1 45:4 46:0 47:-1 48:0 49:0 50:1 51:0 52:2 53:-6 54:2 55:-9 56:-1 57:8 58:0 59:0 60:0 
25.69653521695657 1:-1 2:-2 3:1 4:-4 5:5 6:-2 7:6 8:0 9:-7 10:0 11:-1 12:0 13:-1 14:-2 15:1 16:-3 17:0 18:-1 19:2 20:0 21:-3 22:0 23:-2 24:0 25:0 26:-1 27:0 28:-1 29:-2 30:0 31:-2 32:0 33:1 34:0 35:-1 36:0 37:1 38:0 39:-1 40:2 41:-3 42:1 43:-3 44:-2 45:5 46:0 47:-1 48:0 49:1 50:2 51:-1 52:3 53:-2 54:2 55:-3 56:-1 57:7 58:0 59:1 60:0 
25.76686964444588 1:-1 2:-3 3:1 4:-3 5:-1 6:-1 7:0 8:1 9:-4 10:0 11:-2 12:1 13:0 14:-2 15:0 16:0 17:-2 18:0 19:-1 20:-1 21:0 22:0 23:-2 24:1 25:0 26:0 27:0 28:1 29:-1 30:1 31:-1 32:0 33:2 34:0 35:0 36:1 37:0 38:0 39:1 40:0 41:0 42:1 43:-1 44:0 45:3 46:0 47:1 48:1 49:0 50:2 51:2 52:0 53:0 54:1 55:0 56:0 57:3 58:0 59:3 60:0 
14.64589696245673 1:0 2:-3 3:-1 4:0 5:-2 6:0 7:-1 8:-1 9:-2 10:0 11:-4 12:1 13:0 14:-1 15:-1 16:1 17:-1 18:1 19:-1 20:0 21:0 22:0 23:-2 24:1 25:0 26:-1 27:0 28:0 29:0 30:1 31:-1 32:0 33:1 34:0 35:-1 36:1 37:0 38:1 39:1 40:0 41:0 42:1 43:0 44:0 45:1 46:0 47:1 48:0 49:0 50:2 51:2 52:-1 53:1 54:1 55:0 56:1 57:2 58:0 59:2 60:0 
25.76686964444588 1:-1 2:0 3:1 4:-1 5:-3 6:0 7:-3 8:-2 9:1 10:0 11:0 12:1 13:-1 14:0 15:0 16:0 17:-1 18:0 19:-1 20:-1 21:0 22:0 23:0 24:1 25:0 26:0 27:0 28:0 29:0 30:0 31:1 32:0 33:0 34:0 35:0 36:0 37:0 38:1 39:0 40:-1 41:1 42:0 43:1 44:2 45:0 46:0 47:1 48:0 49:0 50:-1 51:0 52:0 53:0 54:0 55:-1 56:1 57:3 58:0 59:-1 60:0 
25.76686964444588 1:0 2:-3 3:2 4:-1 5:-2 6:1 7:-1 8:-2 9:0 10:0 11:-2 12:0 13:0 14:-2 15:1 16:-1 17:-1 18:1 19:-1 20:-2 21:0 22:0 23:-1 24:0 25:-1 26:0 27:0 28:0 29:0 30:0 31:0 32:-1 33:0 34:0 35:0 36:0 37:-1 38:2 39:0 40:0 41:1 42:0 43:0 44:0 45:0 46:0 47:1 48:0 49:-1 50:3 51:0 52:-1 53:2 54:1 55:0 56:1 57:0 58:0 59:2 60:0 
25.76686964444588 1:0 2:-1 3:0 4:2 5:-3 6:0 7:0 8:-2 9:0 10:0 11:-2 12:0 13:0 14:-1 15:0 16:0 17:-2 18:0 19:0 20:-1 21:0 22:0 23:-1 24:0 25:0 26:0 27:0 28:-2 29:0 30:0 31:0 32:0 33:0 34:0 35:0 36:0 37:0 38:1 39:0 40:-2 41:1 42:0 43:0 44:0 45:0 46:0 47:0 48:0 49:0 50:1 51:0 52:0 53:1 54:0 55:0 56:0 57:0 58:1 59:0 60:0 
25.76686964444588 1:0 2:-1 3:0 4:-2 5:-1 6:0 7:0 8:0 9:0 10:0 11:0 12:0 13:0 14:0 15:0 16:-2 17:0 18:0 19:0 20:0 21:0 22:0 23:0 24:0 25:0 26:0 27:0 28:0 29:0 30:0 31:0 32:0 33:0 34:1 35:0 36:0 37:0 38:0 39:0 40:1 41:0 42:0 43:0 44:0 45:0 46:1 47:0 48:0 49:0 50:0 51:0 52:1 53:0 54:1 55:0 56:0 57:0 58:1 59:0 60:0 
25.76686964444588 1:0 2:0 3:0 4:-3 5:0 6:0 7:-1 8:0 9:0 10:0 11:0 12:0 13:0 14:0 15:0 16:-1 17:0 18:0 19:-1 20:0 21:0 22:1 23:0 24:0 25:0 26:0 27:0 28:0 29:0 30:0 31:-1 32:0 33:0 34:1 35:0 36:0 37:0 38:0 39:0 40:0 41:0 42:1 43:-1 44:0 45:0 46:1 47:0 48:0 49:0 50:0 51:0 52:0 53:0 54:1 55:0 56:0 57:0 58:1 59:0 60:0 
25.76686964444588 1:0 2:-1 3:0 4:-1 5:0 6:0 7:-1 8:0 9:0 10:0 11:0 12:0 13:0 14:-1 15:0 16:0 17:0 18:0 19:-1 20:0 21:0 22:0 23:0 24:0 25:0 26:-1 27:0 28:0 29:0 30:1 31:-1 32:0 33:0 34:0 35:0 36:0 37:0 38:-1 39:0 40:0 41:0 42:1 43:0 44:0 45:0 46:0 47:0 48:0 49:0 50:0 51:0 52:0 53:0 54:1 55:0 56:0 57:0 58:0 59:0 60:0 
25.76686964444588 1:0 2:-1 3:0 4:0 5:0 6:0 7:-1 8:0 9:0 10:0 11:0 12:0 13:0 14:-1 15:0 16:0 17:0 18:1 19:-1 20:0 21:0 22:0 23:0 24:0 25:0 26:-1 27:0 28:0 29:0 30:1 31:0 32:0 33:0 34:0 35:0 36:0 37:0 38:0 39:0 40:0 41:0 42:1 43:0 44:0 45:0 46:0 47:0 48:0 49:0 50:0 51:0 52:0 53:0 54:1 55:0 56:0 57:0 58:0 59:0 60:0 
25.76686964444588 1:0 2:-1 3:0 4:0 5:0 6:0 7:-1 8:0 9:0 10:0 11:0 12:0 13:0 14:-1 15:0 16:0 17:0 18:0 19:0 20:0 21:0 22:0 23:0 24:0 25:0 26:0 27:0 28:0 29:0 30:0 31:0 32:0 33:0 34:0 35:0 36:0 37:0 38:0 39:0 40:0 41:0 42:0 43:0 44:0 45:0 46:0 47:0 48:0 49:0 50:0 51:0 52:0 53:0 54:0 55:0 56:0 57:0 58:0 59:0 60:0 
25.76686964444588 1:0 2:-1 3:0 4:0 5:0 6:0 7:0 8:0 9:0 10:0 11:0 12:0 13:0 14:0 15:0 16:0 17:0 18:0 19:0 20:0 21:0 22:0 23:0 24:0 25:0 26:0 27:0 28:0 29:0 30:0 31:0 32:0 33:0 34:0 35:0 36:0 37:0 38:0 39:0 40:0 41:0 42:0 43:0 44:0 45:0 46:0 47:0 48:0 49:0 50:0 51:0 52:0 53:0 54:0 55:0 56:0 57:0 58:0 59:0 60:0 
25.76686964444588 1:0 2:0 3:0 4:0 5:0 6:0 7:0 8:0 9:0 10:0 11:0 12:0 13:0 14:0 15:0 16:0 17:0 18:0 19:0 20:0 21:0 22:0 23:0 24:0 25:0 26:0 27:0 28:0 29:0 30:0 31:0 32:0 33:0 34:0 35:0 36:0 37:0 38:0 39:0 40:0 41:0 42:0 43:0 44:0 45:0 46:0 47:0 48:0 49:0 50:0 51:0 52:0 53:0 54:0 55:0 56:0 57:0 58:0 59:0 60:0 
25.76686964444588 1:0 2:0 3:0 4:0 5:0 6:0 7:0 8:0 9:0 10:0 11:0 12:0 13:0 14:0 15:0 16:0 17:0 18:0 19:0 20:0 21:0 22:0 23:0 24:0 25:0 26:0 27:0 28:0 29:0 30:0 31:0 32:0 33:0 34:0 35:0 36:0 37:0 38:0 39:0 40:0 41:0 42:0 43:0 44:0 45:0 46:0 47:0 48:0 49:0 50:0 51:0 52:0 53:0 54:0 55:0 56:0 57:0 58:0 59:0 60:0 
25.76686964444588 1:0 2:0 3:0 4:0 5:0 6:0 7:0 8:0 9:0 10:0 11:0 12:0 13:0 14:0 15:0 16:0 17:0 18:0 19:0 20:0 21:0 22:0 23:0 24:0 25:0 26:0 27:0 28:0 29:0 30:0 31:0 32:0 33:0 34:0 35:0 36:0 37:0 38:0 39:0 40:0 41:0 42:0 43:0 44:0 45:0 46:0 47:0 48:0 49:0 50:0 51:0 52:0 53:0 54:0 55:0 56:0 57:0 58:0 59:0 60:0 
25.76686964444588 1:0 2:-1 3:0 4:0 5:0 6:0 7:0 8:0 9:0 10:0 11:0 12:0 13:0 14:-1 15:0 16:0 17:0 18:0 19:0 20:0 21:0 22:0 23:0 24:0 25:0 26:0 27:0 28:0 29:0 30:0 31:0 32:0 33:0 34:0 35:0 36:0 37:0 38:0 39:0 40:0 41:0 42:0 43:0 44:0 45:0 46:0 47:0 48:0 49:0 50:0 51:0 52:0 53:0 54:0 55:0 56:0 57:0 58:0 59:0 60:0 
25.76686964444588 1:0 2:-1 3:0 4:0 5:0 6:0 7:0 8:0 9:0 10:0 11:0 12:0 13:0 14:0 15:0 16:0 17:0 18:0 19:0 20:0 21:0 22:0 23:0 24:0 25:0 26:0 27:0 28:0 29:0 30:0 31:0 32:0 33:0 34:0 35:0 36:0 37:0 38:0 39:0 40:0 41:0 42:0 43:0 44:0 45:0 46:0 47:0 48:0 49:0 50:0 51:0 52:0 53:0 54:0 55:0 56:0 57:0 58:0 59:0 60:0 
25.76686964444588 1:0 2:-1 3:0 4:0 5:-1 6:-1 7:-9 8:2 9:9 10:0 11:-1 12:0 13:0 14:-1 15:0 16:0 17:-1 18:0 19:1 20:-1 21:-1 22:0 23:-1 24:0 25:0 26:0 27:0 28:0 29:0 30:0 31:1 32:-1 33:-1 34:0 35:0 36:0 37:0 38:0 39:0 40:0 41:0 42:1 43:1 44:-1 45:-1 46:0 47:0 48:0 49:0 50:0 51:1 52:0 53:0 54:1 55:3 56:-1 57:-2 58:0 59:0 60:0 
25.76686964444588 1:0 2:-1 3:0 4:0 5:-1 6:0 7:-2 8:0 9:1 10:0 11:-1 12:0 13:0 14:0 15:0 16:0 17:0 18:0 19:-2 20:0 21:1 22:0 23:0 24:0 25:0 26:0 27:0 28:0 29:0 30:1 31:-2 32:0 33:1 34:0 35:0 36:0 37:0 38:0 39:1 40:0 41:0 42:1 43:0 44:0 45:0 46:0 47:0 48:0 49:0 50:0 51:1 52:0 53:0 54:1 55:2 56:-1 57:-1 58:0 59:0 60:0 
25.76686964444588 1:0 2:0 3:0 4:0 5:0 6:0 7:-2 8:0 9:1 10:0 11:0 12:0 13:0 14:0 15:0 16:0 17:0 18:1 19:-2 20:0 21:1 22:0 23:0 24:0 25:0 26:0 27:1 28:0 29:0 30:1 31:0 32:0 33:0 34:0 35:0 36:0 37:0 38:0 39:1 40:0 41:0 42:1 43:2 44:-1 45:-1 46:0 47:0 48:0 49:0 50:0 51:1 52:0 53:0 54:1 55:2 56:-1 57:-1 58:0 59:0 60:0 
25.76686964444588 1:0 2:0 3:0 4:0 5:-1 6:0 7:-2 8:0 9:1 10:0 11:0 12:0 13:0 14:0 15:0 16:0 17:-1 18:0 19:0 20:-1 21:0 22:0 23:0 24:0 25:0 26:0 27:0 28:0 29:-1 30:0 31:0 32:-1 33:0 34:0 35:0 36:0 37:0 38:0 39:0 40:0 41:0 42:0 43:0 44:-1 45:0 46:0 47:0 48:0 49:0 50:0 51:0 52:-1 53:0 54:0 55:0 56:-1 57:0 58:0 59:0 60:0 
25.76686964444588 1:0 2:-1 3:0 4:0 5:-1 6:0 7:0 8:0 9:0 10:0 11:0 12:0 13:0 14:-1 15:0 16:0 17:-1 18:0 19:0 20:0 21:0 22:0 23:0 24:0 25:0 26:-1 27:0 28:0 29:0 30:0 31:0 32:0 33:0 34:0 35:0 36:0 37:0 38:-1 39:0 40:-1 41:0 42:0 43:0 44:0 45:0 46:0 47:0 48:0 49:0 50:0 51:0 52:-1 53:0 54:0 55:0 56:0 57:0 58:0 59:0 60:0 
25.76686964444588 1:0 2:-1 3:0 4:0 5:-1 6:0 7:0 8:-1 9:0 10:0 11:-1 12:0 13:0 14:-1 15:0 16:0 17:0 18:0 19:0 20:-1 21:0 22:0 23:-1 24:0 25:0 26:-1 27:0 28:-1 29:0 30:0 31:0 32:-1 33:0 34:0 35:-1 36:0 37:0 38:0 39:0 40:-1 41:0 42:0 43:0 44:-1 45:0 46:0 47:-1 48:0 49:0 50:0 51:0 52:-1 53:0 54:0 55:0 56:0 57:0 58:0 59:0 60:0 
25.76686964444588 1:0 2:-1 3:0 4:0 5:0 6:0 7:0 8:-1 9:0 10:0 11:-1 12:0 13:0 14:-1 15:0 16:-1 17:0 18:0 19:0 20:-1 21:0 22:0 23:-1 24:0 25:0 26:0 27:0 28:-1 29:0 30:0 31:0 32:-1 33:0 34:0 35:-1 36:0 37:0 38:0 39:0 40:-1 41:0 42:0 43:0 44:0 45:0 46:0 47:0 48:0 49:0 50:0 51:0 52:-1 53:0 54:0 55:0 56:0 57:0 58:0 59:0 60:0 
25.76686964444588 1:-1 2:-1 3:0 4:-1 5:-1 6:0 7:-1 8:-1 9:0 10:0 11:-1 12:0 13:-1 14:0 15:0 16:-1 17:-1 18:0 19:-1 20:-1 21:0 22:0 23:-1 24:0 25:-1 26:0 27:0 28:-1 29:-1 30:0 31:-1 32:0 33:0 34:0 35:0 36:0 37:-1 38:0 39:0 40:-1 41:-1 42:0 43:-1 44:0 45:0 46:0 47:0 48:0 49:0 50:1 51:0 52:0 53:0 54:0 55:0 56:0 57:0 58:0 59:1 60:0 
25.76686964444588 1:-1 2:-1 3:0 4:-1 5:-1 6:0 7:-1 8:-1 9:0 10:0 11:-2 12:0 13:-1 14:-1 15:0 16:-1 17:-1 18:0 19:-1 20:0 21:0 22:0 23:-1 24:0 25:-1 26:-1 27:0 28:-1 29:-1 30:0 31:-1 32:0 33:0 34:0 35:-1 36:0 37:0 38:0 39:0 40:0 41:0 42:0 43:0 44:0 45:0 46:0 47:0 48:0 49:0 50:0 51:0 52:0 53:0 54:0 55:0 56:0 57:0 58:0 59:0 60:0 
25.76686964444588 1:-1 2:-1 3:0 4:-1 5:-1 6:0 7:-1 8:-1 9:0 10:0 11:-1 12:0 13:-1 14:-1 15:0 16:-1 17:-1 18:0 19:-1 20:-1 21:0 22:0 23:-1 24:0 25:0 26:0 27:0 28:0 29:0 30:0 31:0 32:-1 33:0 34:0 35:0 36:0 37:0 38:0 39:0 40:0 41:0 42:0 43:0 44:-1 45:0 46:0 47:0 48:0 49:0 50:0 51:0 52:0 53:0 54:0 55:0 56:0 57:0 58:0 59:0 60:0 
25.76686964444588 1:-1 2:-1 3:0 4:-1 5:-1 6:1 7:-1 8:-1 9:0 10:0 11:-1 12:0 13:0 14:0 15:0 16:0 17:0 18:1 19:0 20:-1 21:0 22:0 23:0 24:0 25:0 26:0 27:0 28:0 29:0 30:1 31:0 32:-1 33:0 34:0 35:0 36:0 37:0 38:0 39:0 40:0 41:0 42:1 43:0 44:0 45:0 46:0 47:0 48:0 49:0 50:1 51:0 52:0 53:1 54:0 55:0 56:0 57:0 58:0 59:1 60:0 
24.65614759338707 1:0 2:-1 3:0 4:0 5:-1 6:1 7:3 8:-3 9:-3 10:0 11:-1 12:0 13:0 14:-1 15:0 16:0 17:-1 18:1 19:3 20:-2 21:-3 22:0 23:-1 24:0 25:0 26:0 27:0 28:0 29:0 30:0 31:3 32:-2 33:-3 34:0 35:0 36:0 37:0 38:0 39:0 40:0 41:0 42:0 43:-3 44:1 45:2 46:0 47:0 48:0 49:0 50:0 51:0 52:0 53:0 54:0 55:-8 56:3 57:7 58:0 59:0 60:0 
8.762473788937276 1:0 2:-1 3:0 4:0 5:-1 6:1 7:5 8:-3 9:-5 10:0 11:-1 12:0 13:0 14:0 15:0 16:0 17:0 18:0 19:5 20:-3 21:-5 22:0 23:0 24:0 25:0 26:0 27:0 28:0 29:0 30:0 31:-1 32:0 33:0 34:0 35:0 36:0 37:0 38:0 39:0 40:0 41:0 42:0 43:-6 44:2 45:5 46:0 47:0 48:0 49:0 50:1 51:0 52:0 53:0 54:0 55:-6 56:2 57:5 58:0 59:0 60:0 
25.76686964444588 1:0 2:-1 3:0 4:0 5:-1 6:0 7:0 8:-1 9:0 10:0 11:-1 12:0 13:0 14:0 15:0 16:0 17:-1 18:0 19:0 20:-1 21:0 22:0 23:-1 24:0 25:0 26:0 27:0 28:0 29:0 30:0 31:0 32:-1 33:0 34:0 35:-1 36:0 37:0 38:0 39:0 40:0 41:0 42:0 43:0 44:-1 45:0 46:0 47:0 48:0 49:0 50:0 51:0 52:0 53:0 54:0 55:0 56:0 57:0 58:0 59:0 60:0 
25.76686964444588 1:0 2:-1 3:0 4:0 5:-1 6:0 7:0 8:-1 9:0 10:0 11:-1 12:0 13:0 14:-1 15:0 16:0 17:0 18:0 19:0 20:-1 21:0 22:0 23:-1 24:0 25:0 26:-1 27:0 28:0 29:0 30:0 31:0 32:-1 33:0 34:0 35:0 36:0 37:0 38:-1 39:0 40:0 41:0 42:0 43:0 44:0 45:0 46:0 47:0 48:0 49:0 50:0 51:0 52:0 53:0 54:0 55:0 56:0 57:0 58:0 59:0 60:0 
25.76686964444588 1:0 2:-1 3:0 4:0 5:-1 6:0 7:0 8:-1 9:1 10:0 11:-1 12:0 13:0 14:-1 15:0 16:0 17:-1 18:0 19:0 20:0 21:1 22:0 23:-1 24:0 25:0 26:0 27:0 28:0 29:-1 30:0 31:0 32:0 33:1 34:0 35:-1 36:0 37:0 38:0 39:0 40:0 41:0 42:0 43:0 44:0 45:1 46:0 47:-1 48:0 49:0 50:0 51:0 52:0 53:-1 54:2 55:0 56:0 57:0 58:0 59:0 60:0 
25.76686964444588 1:0 2:-1 3:0 4:0 5:-1 6:-1 7:0 8:0 9:2 10:0 11:-1 12:0 13:0 14:-1 15:0 16:0 17:0 18:-1 19:0 20:0 21:2 22:0 23:-1 24:0 25:0 26:-1 27:0 28:0 29:-1 30:1 31:0 32:0 33:1 34:0 35:0 36:0 37:0 38:0 39:0 40:0 41:-1 42:1 43:0 44:-1 45:-1 46:0 47:0 48:0 49:0 50:0 51:0 52:0 53:0 54:1 55:0 56:-1 57:-1 58:0 59:0 60:0 
25.76686964444588 1:0 2:-1 3:0 4:0 5:0 6:-1 7:0 8:0 9:2 10:0 11:-1 12:0 13:0 14:-1 15:0 16:0 17:-1 18:1 19:0 20:0 21:1 22:0 23:0 24:0 25:0 26:0 27:0 28:0 29:-1 30:1 31:0 32:-1 33:-1 34:0 35:0 36:0 37:0 38:0 39:0 40:0 41:0 42:1 43:0 44:-1 45:-1 46:0 47:0 48:0 49:0 50:0 51:0 52:0 53:0 54:1 55:0 56:-1 57:-1 58:0 59:0 60:0 
25.76686964444588 1:0 2:-1 3:0 4:0 5:-1 6:0 7:0 8:0 9:2 10:0 11:0 12:0 13:0 14:0 15:0 16:0 17:-1 18:0 19:0 20:-1 21:0 22:0 23:0 24:0 25:0 26:0 27:0 28:0 29:0 30:0 31:0 32:-1 33:0 34:0 35:0 36:0 37:0 38:0 39:0 40:0 41:0 42:0 43:0 44:-1 45:0 46:0 47:0 48:0 49:0 50:1 51:0 52:0 53:0 54:0 55:0 56:-1 57:0 58:0 59:0 60:0 
25.76686964444588 1:0 2:-1 3:0 4:0 5:-1 6:0 7:0 8:-1 9:0 10:0 11:-1 12:0 13:0 14:-1 15:0 16:0 17:0 18:0 19:0 20:-1 21:0 22:0 23:-1 24:0 25:0 26:-1 27:0 28:0 29:0 30:0 31:0 32:-1 33:0 34:0 35:-1 36:0 37:0 38:0 39:0 40:0 41:0 42:0 43:0 44:-1 45:0 46:0 47:-1 48:0 49:0 50:0 51:1 52:0 53:0 54:0 55:0 56:0 57:0 58:0 59:0 60:0 
25.76686964444588 1:0 2:-1 3:0 4:0 5:0 6:0 7:0 8:-1 9:0 10:0 11:-1 12:0 13:0 14:-1 15:0 16:0 17:0 18:0 19:0 20:-1 21:0 22:0 23:-1 24:0 25:0 26:0 27:0 28:0 29:0 30:0 31:0 32:-1 33:0 34:0 35:-1 36:0 37:0 38:0 39:1 40:0 41:0 42:0 43:0 44:0 45:0 46:0 47:0 48:0 49:0 50:0 51:1 52:0 53:0 54:1 55:0 56:0 57:0 58:0 59:0 60:0 
25.76686964444588 1:0 2:-1 3:0 4:0 5:-1 6:0 7:0 8:-1 9:0 10:0 11:-1 12:0 13:0 14:-1 15:1 16:0 17:-1 18:0 19:0 20:0 21:0 22:0 23:0 24:0 25:0 26:-1 27:1 28:0 29:-1 30:1 31:0 32:0 33:0 34:0 35:0 36:0 37:0 38:-1 39:1 40:0 41:0 42:1 43:0 44:0 45:0 46:0 47:0 48:0 49:0 50:0 51:1 52:0 53:0 54:1 55:0 56:0 57:0 58:0 59:0 60:0 
25.76686964444588 1:0 2:-1 3:0 4:0 5:-1 6:0 7:0 8:0 9:0 10:0 11:-1 12:0 13:0 14:-1 15:0 16:0 17:-1 18:1 19:0 20:0 21:0 22:0 23:-1 24:0 25:0 26:-1 27:0 28:0 29:0 30:1 31:0 32:0 33:0 34:0 35:-1 36:0 37:0 38:0 39:0 40:0 41:0 42:1 43:0 44:0 45:0 46:0 47:-1 48:0 49:0 50:0 51:0 52:0 53:1 54:-1 55:0 56:0 57:0 58:0 59:0 60:0 
25.76686964444588 1:0 2:-1 3:0 4:0 5:-2 6:1 7:0 8:-1 9:0 10:0 11:-1 12:0 13:0 14:-1 15:0 16:0 17:-1 18:1 19:0 20:-1 21:0 22:0 23:-1 24:0 25:0 26:0 27:0 28:0 29:-1 30:1 31:0 32:-1 33:0 34:0 35:-1 36:0 37:0 38:0 39:0 40:0 41:0 42:-1 43:0 44:-1 45:0 46:0 47:0 48:0 49:0 50:0 51:0 52:0 53:0 54:-1 55:0 56:0 57:0 58:0 59:0 60:0 
25.76686964444588 1:-1 2:0 3:0 4:0 5:-2 6:2 7:0 8:-1 9:1 10:0 11:-1 12:0 13:-1 14:0 15:0 16:0 17:-1 18:0 19:0 20:-1 21:1 22:0 23:0 24:0 25:-1 26:0 27:0 28:0 29:-1 30:0 31:0 32:0 33:1 34:0 35:0 36:0 37:0 38:0 39:0 40:0 41:0 42:0 43:0 44:0 45:0 46:0 47:0 48:0 49:0 50:0 51:0 52:0 53:0 54:0 55:0 56:0 57:0 58:0 59:0 60:0 
25.76686964444588 1:-2 2:7 3:4 4:1 5:5 6:5 7:-1 8:-10 9:-2 10:-1 11:8 12:1 13:1 14:7 15:1 16:1 17:10 18:2 19:0 20:3 21:-2 22:-2 23:8 24:0 25:2 26:4 27:-2 28:-1 29:-5 30:-1 31:-1 32:7 33:0 34:1 35:2 36:0 37:1 38:-8 39:-1 40:-2 41:-6 42:-2 43:2 44:0 45:2 46:0 47:-8 48:0 49:1 50:-13 51:-1 52:-2 53:-5 54:-2 55:2 56:-1 57:3 58:-1 59:-12 60:0 
16.74792112921525 1:0 2:11 3:2 4:2 5:12 6:3 7:4 8:7 9:-3 10:-2 11:12 12:0 13:1 14:8 15:-1 16:0 17:-3 18:0 19:3 20:11 21:-1 22:1 23:6 24:0 25:0 26:-4 27:0 28:-1 29:-4 30:-1 31:6 32:4 33:1 34:0 35:-4 36:0 37:0 38:-9 39:0 40:-1 41:-3 42:-1 43:6 44:3 45:2 46:-1 47:-8 48:0 49:0 50:-9 51:1 52:-1 53:-3 54:-1 55:-19 56:-29 57:2 58:-1 59:-8 60:0 
3.135443141351299 1:0 2:-2 3:0 4:-1 5:3 6:12 7:0 8:1 9:1 10:0 11:-3 12:-1 13:0 14:0 15:1 16:18 17:-11 18:-39 19:0 20:0 21:1 22:1 23:1 24:1 25:0 26:0 27:1 28:-3 29:2 30:10 31:1 32:0 33:0 34:1 35:1 36:1 37:0 38:-1 39:0 40:-8 41:1 42:10 43:1 44:-1 45:-1 46:1 47:-1 48:0 49:0 50:-1 51:0 52:-8 53:1 54:9 55:2 56:-2 57:-1 58:1 59:-1 60:0 
25.76686964444588 1:-1 2:0 3:1 4:4 5:1 6:1 7:0 8:2 9:2 10:0 11:1 12:1 13:-1 14:-1 15:0 16:-1 17:0 18:1 19:0 20:1 21:1 22:0 23:-1 24:0 25:-1 26:-1 27:0 28:-1 29:0 30:0 31:1 32:0 33:1 34:0 35:-1 36:0 37:-1 38:0 39:0 40:-2 41:-2 42:0 43:1 44:-1 45:-1 46:0 47:-1 48:0 49:0 50:0 51:1 52:0 53:-3 54:-1 55:1 56:-2 57:-2 58:0 59:-1 60:0 
25.76686964444588 1:-2 2:0 3:0 4:-2 5:0 6:2 7:1 8:-1 9:2 10:0 11:1 12:0 13:-1 14:0 15:1 16:0 17:-1 18:1 19:1 20:-2 21:1 22:0 23:1 24:0 25:0 26:-1 27:0 28:0 29:-1 30:0 31:1 32:-1 33:1 34:0 35:0 36:0 37:0 38:-1 39:0 40:-1 41:0 42:-1 43:0 44:0 45:0 46:0 47:-1 48:0 49:0 50:-1 51:0 52:-1 53:0 54:-2 55:-2 56:1 57:-2 58:0 59:-1 60:0 
25.76686964444588 1:-1 2:0 3:1 4:0 5:-1 6:2 7:2 8:-2 9:2 10:1 11:1 12:0 13:0 14:-1 15:0 16:0 17:-1 18:1 19:2 20:-1 21:2 22:1 23:0 24:0 25:0 26:-1 27:0 28:-1 29:0 30:0 31:1 32:0 33:1 34:1 35:-1 36:0 37:0 38:-1 39:0 40:-1 41:0 42:-1 43:-1 44:1 45:-1 46:1 47:-1 48:0 49:-1 50:-1 51:0 52:-1 53:-2 54:-2 55:-1 56:1 57:-3 58:0 59:-1 60:0 
23.19294789726006 1:0 2:0 3:0 4:-1 5:1 6:3 7:3 8:-1 9:4 10:1 11:0 12:0 13:0 14:0 15:0 16:-1 17:1 18:2 19:1 20:0 21:2 22:1 23:0 24:0 25:-1 26:0 27:0 28:-1 29:-1 30:1 31:1 32:0 33:0 34:0 35:0 36:0 37:-1 38:-1 39:1 40:0 41:-2 42:-1 43:0 44:0 45:-2 46:0 47:0 48:0 49:-1 50:-2 51:2 52:0 53:-3 54:-2 55:-3 56:0 57:-4 58:0 59:0 60:0 
25.76686964444588 1:0 2:1 3:-1 4:-1 5:2 6:3 7:3 8:-1 9:4 10:1 11:0 12:0 13:-1 14:1 15:-1 16:-1 17:0 18:2 19:3 20:-1 21:2 22:0 23:0 24:0 25:-1 26:0 27:0 28:0 29:-1 30:0 31:2 32:-1 33:0 34:0 35:0 36:0 37:-1 38:-1 39:1 40:0 41:-2 42:-1 43:-1 44:-1 45:-2 46:0 47:0 48:0 49:-1 50:-1 51:2 52:-2 53:-2 54:-2 55:-4 56:0 57:-4 58:0 59:0 60:0 
11.68937770406437 1:-1 2:-2 3:1 4:-4 5:5 6:-2 7:6 8:0 9:-7 10:0 11:-1 12:0 13:-1 14:-2 15:1 16:-3 17:0 18:-1 19:2 20:0 21:-3 22:0 23:-2 24:0 25:0 26:-1 27:0 28:-1 29:-2 30:0 31:-2 32:0 33:1 34:0 35:-1 36:0 37:1 38:0 39:-1 40:2 41:-3 42:1 43:-3 44:-2 45:5 46:0 47:-1 48:0 49:1 50:2 51:-1 52:3 53:-2 54:2 55:-3 56:-1 57:7 58:0 59:1 60:0 
25.76686964444588 1:-1 2:-3 3:1 4:-3 5:-1 6:-1 7:0 8:1 9:-4 10:0 11:-2 12:1 13:0 14:-2 15:0 16:0 17:-2 18:0 19:-1 20:-1 21:0 22:0 23:-2 24:1 25:0 26:0 27:0 28:1 29:-1 30:1 31:-1 32:0 33:2 34:0 35:0 36:1 37:0 38:0 39:1 40:0 41:0 42:1 43:-1 44:0 45:3 46:0 47:1 48:1 49:0 50:2 51:2 52:0 53:0 54:1 55:0 56:0 57:3 58:0 59:3 60:0 
25.76686964444588 1:-1 2:0 3:1 4:-1 5:-3 6:0 7:-3 8:-2 9:1 10:0 11:0 12:1 13:-1 14:0 15:0 16:0 17:-1 18:0 19:-1 20:-1 21:0 22:0 23:0 24:1 25:0 26:0 27:0 28:0 29:0 30:0 31:1 32:0 33:0 34:0 35:0 36:0 37:0 38:1 39:0 40:-1 41:1 42:0 43:1 44:2 45:0 46:0 47:1 48:0 49:0 50:-1 51:0 52:0 53:0 54:0 55:-1 56:1 57:3 58:0 59:-1 60:0 
25.76686964444588 1:0 2:-1 3:1 4:-1 5:-1 6:1 7:2 8:-2 9:-3 10:0 11:0 12:0 13:0 14:0 15:1 16:-2 17:0 18:1 19:2 20:0 21:-3 22:0 23:1 24:0 25:0 26:-2 27:1 28:-1 29:-1 30:1 31:0 32:-1 33:0 34:0 35:-1 36:0 37:-1 38:0 39:1 40:0 41:0 42:0 43:-4 44:1 45:3 46:0 47:-1 48:0 49:-1 50:1 51:0 52:0 53:1 54:0 55:-4 56:1 57:3 58:0 59:0 60:0 
25.76686964444588 1:0 2:-1 3:1 4:-2 5:-1 6:1 7:3 8:-1 9:-4 10:0 11:1 12:0 13:0 14:-3 15:1 16:-1 17:-2 18:1 19:1 20:-2 21:-1 22:0 23:-1 24:0 25:-1 26:-1 27:1 28:0 29:-1 30:0 31:-3 32:0 33:2 34:0 35:-1 36:0 37:-1 38:0 39:0 40:0 41:0 42:0 43:-3 44:0 45:2 46:0 47:0 48:0 49:-2 50:2 51:-1 52:1 53:1 54:-1 55:-2 56:1 57:2 58:0 59:1 60:0 
25.76686964444588 1:0 2:-1 3:0 4:2 5:-3 6:0 7:0 8:-2 9:0 10:0 11:-2 12:0 13:0 14:-1 15:0 16:0 17:-2 18:0 19:0 20:-1 21:0 22:0 23:-1 24:0 25:0 26:0 27:0 28:-2 29:0 30:0 31:0 32:0 33:0 34:0 35:0 36:0 37:0 38:1 39:0 40:-2 41:1 42:0 43:0 44:0 45:0 46:0 47:0 48:0 49:0 50:1 51:0 52:0 53:1 54:0 55:0 56:0 57:0 58:1 59:0 60:0 
25.76686964444588 1:0 2:-2 3:0 4:0 5:-3 6:0 7:0 8:-1 9:0 10:0 11:-1 12:0 13:0 14:-1 15:0 16:-2 17:-1 18:0 19:0 20:0 21:0 22:0 23:0 24:0 25:0 26:0 27:0 28:-2 29:0 30:0 31:0 32:0 33:0 34:0 35:0 36:0 37:0 38:0 39:0 40:0 41:0 42:0 43:0 44:0 45:0 46:1 47:0 48:0 49:0 50:0 51:0 52:1 53:0 54:0 55:0 56:0 57:0 58:1 59:0 60:0 
25.76686964444588 1:0 2:-1 3:0 4:-2 5:-1 6:0 7:0 8:0 9:0 10:0 11:0 12:0 13:0 14:0 15:0 16:-2 17:0 18:0 19:0 20:0 21:0 22:0 23:0 24:0 25:0 26:0 27:0 28:0 29:0 30:0 31:0 32:0 33:0 34:1 35:0 36:0 37:0 38:0 39:0 40:1 41:0 42:0 43:0 44:0 45:0 46:1 47:0 48:0 49:0 50:0 51:0 52:1 53:0 54:1 55:0 56:0 57:0 58:1 59:0 60:0 
25.76686964444588 1:0 2:-1 3:0 4:-1 5:0 6:0 7:-1 8:0 9:0 10:0 11:0 12:0 13:0 14:-1 15:0 16:0 17:0 18:0 19:-1 20:0 21:0 22:0 23:0 24:0 25:0 26:-1 27:0 28:0 29:0 30:1 31:-1 32:0 33:0 34:0 35:0 36:0 37:0 38:-1 39:0 40:0 41:0 42:1 43:0 44:0 45:0 46:0 47:0 48:0 49:0 50:0 51:0 52:0 53:0 54:1 55:0 56:0 57:0 58:0 59:0 60:0 
25.76686964444588 1:0 2:-1 3:0 4:0 5:0 6:0 7:-1 8:0 9:0 10:0 11:0 12:0 13:0 14:-1 15:0 16:0 17:0 18:1 19:-1 20:0 21:0 22:0 23:0 24:0 25:0 26:-1 27:0 28:0 29:0 30:1 31:0 32:0 33:0 34:0 35:0 36:0 37:0 38:0 39:0 40:0 41:0 42:1 43:0 44:0 45:0 46:0 47:0 48:0 49:0 50:0 51:0 52:0 53:0 54:1 55:0 56:0 57:0 58:0 59:0 60:0 
25.76686964444588 1:0 2:-1 3:0 4:0 5:0 6:0 7:-1 8:0 9:0 10:0 11:0 12:0 13:0 14:-1 15:0 16:0 17:0 18:0 19:0 20:0 21:0 22:0 23:0 24:0 25:0 26:0 27:0 28:0 29:0 30:0 31:0 32:0 33:0 34:0 35:0 36:0 37:0 38:0 39:0 40:0 41:0 42:0 43:0 44:0 45:0 46:0 47:0 48:0 49:0 50:0 51:0 52:0 53:0 54:0 55:0 56:0 57:0 58:0 59:0 60:0 
25.76686964444588 1:0 2:-1 3:0 4:0 5:0 6:0 7:0 8:0 9:0 10:0 11:0 12:0 13:0 14:0 15:0 16:0 17:0 18:0 19:0 20:0 21:0 22:0 23:0 24:0 25:0 26:0 27:0 28:0 29:0 30:0 31:0 32:0 33:0 34:0 35:0 36:0 37:0 38:0 39:0 40:0 41:0 42:0 43:0 44:0 45:0 46:0 47:0 48:0 49:0 50:0 51:0 52:0 53:0 54:0 55:0 56:0 57:0 58:0 59:0 60:0 
25.76686964444588 1:0 2:0 3:0 4:0 5:0 6:0 7:0 8:0 9:0 10:0 11:0 12:0 13:0 14:0 15:0 16:0 17:0 18:0 19:0 20:0 21:0 22:0 23:0 24:0 25:0 26:0 27:0 28:0 29:0 30:0 31:0 32:0 33:0 34:0 35:0 36:0 37:0 38:0 39:0 40:0 41:0 42:0 43:0 44:0 45:0 46:0 47:0 48:0 49:0 50:0 51:0 52:0 53:0 54:0 55:0 56:0 57:0 58:0 59:0 60:0 
25.76686964444588 1:0 2:0 3:0 4:0 5:0 6:0 7:0 8:0 9:0 10:0 11:0 12:0 13:0 14:0 15:0 16:0 17:0 18:0 19:0 20:0 21:0 22:0 23:0 24:0 25:0 26:0 27:0 28:0 29:0 30:0 31:0 32:0 33:0 34:0 35:0 36:0 37:0 38:0 39:0 40:0 41:0 42:0 43:0 44:0 45:0 46:0 47:0 48:0 49:0 50:0 51:0 52:0 53:0 54:0 55:0 56:0 57:0 58:0 59:0 60:0 
25.76686964444588 1:0 2:-1 3:0 4:0 5:0 6:0 7:0 8:0 9:0 10:0 11:0 12:0 13:0 14:-1 15:0 16:0 17:0 18:0 19:0 20:0 21:0 22:0 23:0 24:0 25:0 26:0 27:0 28:0 29:0 30:0 31:0 32:0 33:0 34:0 35:0 36:0 37:0 38:0 39:0 40:0 41:0 42:0 43:0 44:0 45:0 46:0 47:0 48:0 49:0 50:0 51:0 52:0 53:0 54:0 55:0 56:0 57:0 58:0 59:0 60:0 
25.76686964444588 1:0 2:0 3:0 4:0 5:-1 6:0 7:0 8:0 9:0 10:0 11:0 12:0 13:0 14:0 15:0 16:0 17:-1 18:0 19:0 20:0 21:0 22:0 23:0 24:0 25:0 26:0 27:0 28:0 29:-1 30:0 31:0 32:0 33:0 34:0 35:0 36:0 37:0 38:0 39:0 40:0 41:-1 42:0 43:0 44:0 45:0 46:0 47:0 48:0 49:0 50:0 51:0 52:0 53:0 54:0 55:0 56:0 57:0 58:0 59:0 60:0 
8.393521477779757 1:0 2:-1 3:0 4:0 5:-1 6:0 7:-10 8:2 9:10 10:0 11:-1 12:0 13:0 14:-1 15:0 16:0 17:0 18:0 19:-10 20:2 21:10 22:0 23:-1 24:0 25:0 26:-1 27:0 28:0 29:0 30:0 31:-1 32:0 33:1 34:0 35:-1 36:0 37:0 38:-1 39:0 40:0 41:0 42:1 43:9 44:-3 45:-9 46:0 47:-1 48:0 49:0 50:0 51:0 52:0 53:1 54:1 55:9 56:-3 57:-9 58:0 59:0 60:0 
25.76686964444588 1:0 2:-1 3:0 4:0 5:-1 6:-1 7:-9 8:2 9:9 10:0 11:-1 12:0 13:0 14:-1 15:0 16:0 17:-1 18:0 19:1 20:-1 21:-1 22:0 23:-1 24:0 25:0 26:0 27:0 28:0 29:0 30:0 31:1 32:-1 33:-1 34:0 35:0 36:0 37:0 38:0 39:0 40:0 41:0 42:1 43:1 44:-1 45:-1 46:0 47:0 48:0 49:0 50:0 51:1 52:0 53:0 54:1 55:3 56:-1 57:-2 58:0 59:0 60:0 
25.76686964444588 1:0 2:-1 3:0 4:0 5:-1 6:0 7:-2 8:0 9:1 10:0 11:-1 12:0 13:0 14:0 15:0 16:0 17:0 18:0 19:-2 20:0 21:1 22:0 23:0 24:0 25:0 26:0 27:0 28:0 29:0 30:1 31:-2 32:0 33:1 34:0 35:0 36:0 37:0 38:0 39:1 40:0 41:0 42:1 43:0 44:0 45:0 46:0 47:0 48:0 49:0 50:0 51:1 52:0 53:0 54:1 55:2 56:-1 57:-1 58:0 59:0 60:0 
25.76686964444588 1:0 2:0 3:0 4:0 5:0 6:0 7:-2 8:0 9:1 10:0 11:0 12:0 13:0 14:0 15:0 16:0 17:0 18:1 19:-2 20:0 21:1 22:0 23:0 24:0 25:0 26:0 27:1 28:0 29:0 30:1 31:0 32:0 33:0 34:0 35:0 36:0 37:0 38:0 39:1 40:0 41:0 42:1 43:2 44:-1 45:-1 46:0 47:0 48:0 49:0 50:0 51:1 52:0 53:0 54:1 55:2 56:-1 57:-1 58:0 59:0 60:0 
25.76686964444588 1:0 2:0 3:0 4:0 5:-1 6:0 7:-3 8:0 9:2 10:0 11:0 12:0 13:0 14:0 15:1 16:0 17:-1 18:0 19:-1 20:0 21:1 22:0 23:0 24:0 25:0 26:0 27:1 28:0 29:-1 30:0 31:1 32:-1 33:0 34:0 35:0 36:0 37:0 38:0 39:1 40:0 41:-1 42:0 43:1 44:-1 45:0 46:0 47:0 48:0 49:0 50:0 51:1 52:0 53:0 54:0 55:1 56:-1 57:0 58:0 59:0 60:0 
25.76686964444588 1:0 2:-1 3:0 4:0 5:-1 6:0 7:0 8:0 9:0 10:0 11:0 12:0 13:0 14:-1 15:0 16:0 17:-1 18:0 19:0 20:0 21:0 22:0 23:0 24:0 25:0 26:-1 27:0 28:0 29:0 30:0 31:0 32:0 33:0 34:0 35:0 36:0 37:0 38:-1 39:0 40:-1 41:0 42:0 43:0 44:0 45:0 46:0 47:0 48:0 49:0 50:0 51:0 52:-1 53:0 54:0 55:0 56:0 57:0 58:0 59:0 60:0 
25.76686964444588 1:0 2:-1 3:0 4:0 5:-1 6:0 7:0 8:-1 9:0 10:0 11:-1 12:0 13:0 14:-1 15:0 16:0 17:0 18:0 19:0 20:-1 21:0 22:0 23:-1 24:0 25:0 26:-1 27:0 28:-1 29:0 30:0 31:0 32:-1 33:0 34:0 35:-1 36:0 37:0 38:0 39:0 40:-1 41:0 42:0 43:0 44:-1 45:0 46:0 47:-1 48:0 49:0 50:0 51:0 52:-1 53:0 54:0 55:0 56:0 57:0 58:0 59:0 60:0 
25.76686964444588 1:0 2:-1 3:0 4:0 5:0 6:0 7:0 8:-1 9:0 10:0 11:-1 12:0 13:0 14:-1 15:0 16:-1 17:0 18:0 19:0 20:-1 21:0 22:0 23:-1 24:0 25:0 26:0 27:0 28:-1 29:0 30:0 31:0 32:-1 33:0 34:0 35:-1 36:0 37:0 38:0 39:0 40:-1 41:0 42:0 43:0 44:0 45:0 46:0 47:0 48:0 49:0 50:0 51:0 52:-1 53:0 54:0 55:0 56:0 57:0 58:0 59:0 60:0 
25.76686964444588 1:-1 2:-1 3:0 4:-1 5:-1 6:0 7:-1 8:-1 9:0 10:0 11:-1 12:0 13:-1 14:0 15:0 16:-1 17:-1 18:0 19:-1 20:-1 21:0 22:0 23:-1 24:0 25:-1 26:0 27:0 28:-1 29:-1 30:0 31:-1 32:0 33:0 34:0 35:0 36:0 37:-1 38:0 39:0 40:-1 41:-1 42:0 43:-1 44:0 45:0 46:0 47:0 48:0 49:0 50:1 51:0 52:0 53:0 54:0 55:0 56:0 57:0 58:0 59:1 60:0 
25.76686964444588 1:-1 2:-1 3:0 4:-1 5:-1 6:0 7:-1 8:-1 9:0 10:0 11:-2 12:0 13:-1 14:-1 15:0 16:-1 17:-1 18:0 19:-1 20:0 21:0 22:0 23:-1 24:0 25:-1 26:-1 27:0 28:-1 29:-1 30:0 31:-1 32:0 33:0 34:0 35:-1 36:0 37:0 38:0 39:0 40:0 41:0 42:0 43:0 44:0 45:0 46:0 47:0 48:0 49:0 50:0 51:0 52:0 53:0 54:0 55:0 56:0 57:0 58:0 59:0 60:0 
25.76686964444588 1:-1 2:-1 3:0 4:-1 5:-1 6:0 7:-1 8:-1 9:0 10:0 11:-1 12:0 13:-1 14:-1 15:0 16:-1 17:-1 18:0 19:-1 20:-1 21:0 22:0 23:-1 24:0 25:0 26:0 27:0 28:0 29:0 30:0 31:0 32:-1 33:0 34:0 35:0 36:0 37:0 38:0 39:0 40:0 41:0 42:0 43:0 44:-1 45:0 46:0 47:0 48:0 49:0 50:0 51:0 52:0 53:0 54:0 55:0 56:0 57:0 58:0 59:0 60:0 
25.76686964444588 1:0 2:-1 3:0 4:0 5:-1 6:0 7:0 8:-1 9:0 10:0 11:-1 12:0 13:0 14:-1 15:0 16:0 17:-1 18:0 19:0 20:-1 21:0 22:0 23:0 24:0 25:0 26:-1 27:0 28:0 29:-1 30:0 31:0 32:0 33:0 34:0 35:0 36:0 37:0 38:0 39:0 40:0 41:-1 42:0 43:0 44:0 45:0 46:0 47:0 48:0 49:0 50:0 51:0 52:0 53:0 54:0 55:0 56:0 57:0 58:0 59:0 60:0 
25.76686964444588 1:0 2:-1 3:0 4:0 5:-1 6:0 7:0 8:-1 9:1 10:0 11:-1 12:0 13:0 14:-1 15:0 16:0 17:-1 18:0 19:0 20:0 21:1 22:0 23:-1 24:0 25:0 26:0 27:0 28:0 29:-1 30:0 31:0 32:0 33:1 34:0 35:-1 36:0 37:0 38:0 39:0 40:0 41:0 42:0 43:0 44:0 45:1 46:0 47:-1 48:0 49:0 50:0 51:0 52:0 53:-1 54:2 55:0 56:0 57:0 58:0 59:0 60:0 
25.76686964444588 1:0 2:-1 3:0 4:0 5:-1 6:0 7:0 8:0 9:1 10:0 11:-1 12:0 13:0 14:0 15:0 16:0 17:-1 18:0 19:0 20:0 21:1 22:0 23:-1 24:0 25:0 26:0 27:0 28:0 29:0 30:0 31:0 32:0 33:1 34:0 35:-1 36:0 37:0 38:0 39:0 40:0 41:-1 42:2 43:0 44:0 45:0 46:0 47:0 48:0 49:0 50:1 51:0 52:0 53:-1 54:2 55:0 56:-1 57:-2 58:0 59:0 60:0 
25.76686964444588 1:0 2:-1 3:0 4:0 5:0 6:-1 7:0 8:0 9:2 10:0 11:-1 12:0 13:0 14:-1 15:0 16:0 17:-1 18:1 19:0 20:0 21:1 22:0 23:0 24:0 25:0 26:0 27:0 28:0 29:-1 30:1 31:0 32:-1 33:-1 34:0 35:0 36:0 37:0 38:0 39:0 40:0 41:0 42:1 43:0 44:-1 45:-1 46:0 47:0 48:0 49:0 50:0 51:0 52:0 53:0 54:1 55:0 56:-1 57:-1 58:0 59:0 60:0 
25.76686964444588 1:0 2:-1 3:0 4:0 5:-1 6:0 7:0 8:0 9:2 10:0 11:0 12:0 13:0 14:0 15:0 16:0 17:-1 18:0 19:0 20:-1 21:0 22:0 23:0 24:0 25:0 26:0 27:0 28:0 29:0 30:0 31:0 32:-1 33:0 34:0 35:0 36:0 37:0 38:0 39:0 40:0 41:0 42:0 43:0 44:-1 45:0 46:0 47:0 48:0 49:0 50:1 51:0 52:0 53:0 54:0 55:0 56:-1 57:0 58:0 59:0 60:0 
25.76686964444588 1:0 2:-1 3:0 4:0 5:0 6:0 7:0 8:-1 9:0 10:0 11:-1 12:0 13:0 14:-1 15:0 16:0 17:0 18:0 19:0 20:-1 21:0 22:0 23:-1 24:0 25:0 26:0 27:0 28:0 29:0 30:0 31:0 32:-1 33:0 34:0 35:-1 36:0 37:0 38:0 39:1 40:0 41:0 42:0 43:0 44:0 45:0 46:0 47:0 48:0 49:0 50:0 51:1 52:0 53:0 54:1 55:0 56:0 57:0 58:0 59:0 60:0 
25.76686964444588 1:0 2:-1 3:0 4:0 5:-1 6:0 7:0 8:-1 9:0 10:0 11:-1 12:0 13:0 14:-1 15:1 16:0 17:-1 18:0 19:0 20:0 21:0 22:0 23:0 24:0 25:0 26:-1 27:1 28:0 29:-1 30:1 31:0 32:0 33:0 34:0 35:0 36:0 37:0 38:-1 39:1 40:0 41:0 42:1 43:0 44:0 45:0 46:0 47:0 48:0 49:0 50:0 51:1 52:0 53:0 54:1 55:0 56:0 57:0 58:0 59:0 60:0 
25.76686964444588 1:0 2:-1 3:0 4:0 5:-1 6:0 7:0 8:0 9:0 10:0 11:-1 12:0 13:0 14:-1 15:0 16:0 17:-1 18:1 19:0 20:0 21:0 22:0 23:-1 24:0 25:0 26:-1 27:0 28:0 29:0 30:1 31:0 32:0 33:0 34:0 35:-1 36:0 37:0 38:0 39:0 40:0 41:0 42:1 43:0 44:0 45:0 46:0 47:-1 48:0 49:0 50:0 51:0 52:0 53:1 54:-1 55:0 56:0 57:0 58:0 59:0 60:0 
25.76686964444588 1:0 2:-1 3:0 4:0 5:-2 6:1 7:0 8:-1 9:0 10:0 11:-1 12:0 13:0 14:-1 15:0 16:0 17:-1 18:1 19:0 20:-1 21:0 22:0 23:-1 24:0 25:0 26:0 27:0 28:0 29:-1 30:1 31:0 32:-1 33:0 34:0 35:-1 36:0 37:0 38:0 39:0 40:0 41:0 42:-1 43:0 44:-1 45:0 46:0 47:0 48:0 49:0 50:0 51:0 52:0 53:0 54:-1 55:0 56:0 57:0 58:0 59:0 60:0 
25.76686964444588 1:-1 2:-1 3:0 4:0 5:-1 6:2 7:0 8:-1 9:1 10:0 11:-1 12:0 13:-1 14:0 15:0 16:0 17:-1 18:2 19:0 20:-1 21:1 22:0 23:-1 24:0 25:-1 26:0 27:0 28:0 29:0 30:0 31:0 32:-1 33:1 34:0 35:0 36:0 37:-1 38:0 39:0 40:0 41:0 42:0 43:0 44:0 45:1 46:0 47:0 48:0 49:0 50:0 51:0 52:0 53:1 54:0 55:0 56:0 57:0 58:0 59:0 60:0 
25.76686964444588 1:-1 2:0 3:0 4:0 5:-2 6:2 7:0 8:-1 9:1 10:0 11:-1 12:0 13:-1 14:0 15:0 16:0 17:-1 18:0 19:0 20:-1 21:1 22:0 23:0 24:0 25:-1 26:0 27:0 28:0 29:-1 30:0 31:0 32:0 33:1 34:0 35:0 36:0 37:0 38:0 39:0 40:0 41:0 42:0 43:0 44:0 45:0 46:0 47:0 48:0 49:0 50:0 51:0 52:0 53:0 54:0 55:0 56:0 57:0 58:0 59:0 60:0 
25.76686964444588 1:-1 2:0 3:0 4:0 5:-1 6:0 7:0 8:-1 9:1 10:0 11:0 12:0 13:-1 14:0 15:0 16:0 17:-1 18:0 19:0 20:0 21:1 22:0 23:0 24:0 25:0 26:0 27:0 28:0 29:0 30:0 31:0 32:0 33:0 34:0 35:0 36:0 37:0 38:0 39:0 40:0 41:0 42:0 43:0 44:0 45:0 46:0 47:0 48:0 49:0 50:0 51:0 52:0 53:0 54:0 55:0 56:0 57:0 58:0 59:0 60:0 
25.76686964444588 1:-2 2:7 3:4 4:1 5:5 6:5 7:-1 8:-10 9:-2 10:-1 11:8 12:1 13:1 14:7 15:1 16:1 17:10 18:2 19:0 20:3 21:-2 22:-2 23:8 24:0 25:2 26:4 27:-2 28:-1 29:-5 30:-1 31:-1 32:7 33:0 34:1 35:2 36:0 37:1 38:-8 39:-1 40:-2 41:-6 42:-2 43:2 44:0 45:2 46:0 47:-8 48:0 49:1 50:-13 51:-1 52:-2 53:-5 54:-2 55:2 56:-1 57:3 58:-1 59:-12 60:0 
2.622714390473136 1:1 2:-1 3:2 4:25 5:-8 6:2 7:-14 8:16 9:2 10:-1 11:-1 12:-1 13:1 14:-1 15:1 16:12 17:-8 18:2 19:-7 20:4 21:0 22:-1 23:-1 24:-1 25:1 26:-1 27:1 28:-11 29:3 30:1 31:6 32:-8 33:0 34:-1 35:-1 36:0 37:1 38:-1 39:0 40:-14 41:4 42:0 43:7 44:-9 45:0 46:0 47:-1 48:1 49:0 50:0 51:-2 52:-16 53:5 54:-2 55:6 56:-5 57:-2 58:-1 59:0 60:1 
-66.23312844820549 1:-1 2:0 3:0 4:-1 5:0 6:0 7:0 8:0 9:0 10:0 11:-1 12:0 13:-1 14:0 15:0 16:-1 17:0 18:0 19:0 20:0 21:0 22:0 23:-1 24:0 25:-1 26:0 27:0 28:-1 29:0 30:0 31:0 32:0 33:0 34:0 35:-1 36:0 37:-1 38:-1 39:0 40:-1 41:0 42:0 43:0 44:0 45:0 46:0 47:-1 48:0 49:0 50:0 51:1 52:0 53:0 54:0 55:0 56:0 57:0 58:0 59:0 60:1 
-66.23312844820549 1:-1 2:0 3:0 4:-1 5:0 6:0 7:0 8:0 9:0 10:0 11:-1 12:0 13:-1 14:0 15:0 16:-1 17:0 18:0 19:0 20:0 21:0 22:0 23:-1 24:0 25:-1 26:-1 27:0 28:-1 29:0 30:0 31:0 32:0 33:0 34:0 35:-1 36:0 37:0 38:0 39:1 40:0 41:0 42:0 43:0 44:0 45:0 46:0 47:0 48:1 49:0 50:0 51:1 52:0 53:0 54:0 55:0 56:0 57:0 58:0 59:0 60:1 
-66.23312844820549 1:-1 2:-1 3:0 4:-1 5:0 6:0 7:0 8:0 9:0 10:1 11:-1 12:0 13:0 14:0 15:1 16:0 17:0 18:0 19:0 20:0 21:0 22:1 23:0 24:1 25:0 26:0 27:1 28:0 29:0 30:0 31:0 32:0 33:0 34:1 35:0 36:1 37:-1 38:0 39:1 40:-1 41:0 42:0 43:0 44:0 45:0 46:0 47:0 48:1 49:-1 50:0 51:1 52:-1 53:0 54:0 55:0 56:0 57:0 58:0 59:0 60:1 
-17.07816747296075 1:0 2:0 3:0 4:0 5:0 6:0 7:0 8:0 9:0 10:1 11:0 12:0 13:0 14:0 15:0 16:0 17:0 18:0 19:0 20:0 21:0 22:1 23:0 24:0 25:-1 26:0 27:0 28:-1 29:0 30:0 31:0 32:0 33:0 34:0 35:0 36:0 37:-1 38:0 39:0 40:-1 41:0 42:0 43:0 44:0 45:0 46:0 47:0 48:0 49:-1 50:0 51:0 52:0 53:0 54:0 55:0 56:0 57:0 58:1 59:0 60:0 
-0.4934391063751013 1:0 2:0 3:0 4:0 5:0 6:0 7:0 8:0 9:0 10:1 11:0 12:0 13:-1 14:0 15:0 16:-1 17:0 18:0 19:0 20:0 21:0 22:0 23:0 24:0 25:-1 26:0 27:0 28:-1 29:0 30:0 31:0 32:0 33:0 34:0 35:0 36:0 37:-1 38:0 39:0 40:0 41:0 42:0 43:0 44:0 45:0 46:1 47:0 48:0 49:-1 50:0 51:0 52:0 53:0 54:0 55:0 56:0 57:0 58:1 59:0 60:0 
-66.23312844820549 1:0 2:0 3:0 4:-1 5:0 6:0 7:0 8:0 9:0 10:0 11:0 12:0 13:0 14:0 15:0 16:-1 17:0 18:0 19:0 20:0 21:0 22:0 23:0 24:0 25:0 26:0 27:0 28:0 29:0 30:0 31:0 32:0 33:0 34:1 35:0 36:0 37:0 38:0 39:0 40:0 41:0 42:0 43:0 44:0 45:0 46:1 47:0 48:0 49:0 50:0 51:0 52:0 53:0 54:0 55:0 56:0 57:0 58:1 59:0 60:0 
-66.23312844820549 1:0 2:0 3:0 4:-1 5:0 6:0 7:0 8:0 9:0 10:0 11:0 12:0 13:0 14:0 15:0 16:0 17:0 18:0 19:0 20:0 21:0 22:1 23:0 24:0 25:0 26:0 27:0 28:0 29:0 30:0 31:0 32:0 33:0 34:1 35:0 36:0 37:0 38:0 39:0 40:0 41:0 42:0 43:0 44:0 45:0 46:1 47:0 48:0 49:0 50:0 51:0 52:0 53:0 54:0 55:0 56:0 57:0 58:1 59:0 60:0 
-66.23312844820549 1:0 2:0 3:0 4:0 5:0 6:0 7:0 8:0 9:0 10:0 11:0 12:0 13:0 14:0 15:0 16:0 17:0 18:0 19:0 20:0 21:0 22:0 23:0 24:0 25:0 26:0 27:0 28:0 29:0 30:0 31:0 32:0 33:0 34:0 35:0 36:0 37:0 38:0 39:0 40:0 41:0 42:0 43:0 44:0 45:0 46:0 47:0 48:0 49:-1 50:-1 51:0 52:-3 53:0 54:0 55:-1 56:0 57:0 58:0 59:-2 60:0 
-40.06175540551848 1:0 2:0 3:0 4:1 5:0 6:0 7:0 8:0 9:0 10:0 11:0 12:0 13:0 14:0 15:0 16:1 17:0 18:0 19:0 20:0 21:0 22:0 23:0 24:0 25:0 26:0 27:0 28:1 29:0 30:0 31:0 32:0 33:0 34:0 35:0 36:0 37:-1 38:-1 39:0 40:-2 41:0 42:0 43:-1 44:0 45:0 46:0 47:-2 48:0 49:-1 50:-2 51:0 52:-3 53:0 54:0 55:-2 56:0 57:0 58:1 59:-2 60:0 
-66.23312844820549 1:1 2:0 3:1 4:0 5:0 6:0 7:-2 8:1 9:0 10:0 11:1 12:0 13:0 14:0 15:0 16:0 17:0 18:0 19:-1 20:0 21:0 22:0 23:0 24:0 25:0 26:0 27:0 28:-1 29:0 30:0 31:0 32:-1 33:0 34:0 35:-1 36:0 37:-1 38:0 39:0 40:-1 41:0 42:0 43:0 44:0 45:0 46:0 47:0 48:0 49:-1 50:0 51:0 52:0 53:0 54:0 55:0 56:0 57:0 58:0 59:0 60:0 
-66.23312844820549 1:0 2:0 3:0 4:0 5:0 6:0 7:-1 8:0 9:0 10:0 11:0 12:0 13:0 14:0 15:0 16:-1 17:0 18:0 19:0 20:-1 21:0 22:0 23:-1 24:0 25:-1 26:0 27:0 28:-1 29:0 30:0 31:0 32:0 33:0 34:0 35:0 36:0 37:-1 38:0 39:0 40:0 41:0 42:0 43:0 44:0 45:0 46:0 47:0 48:0 49:-1 50:0 51:0 52:1 53:0 54:0 55:0 56:0 57:0 58:0 59:0 60:0 
-66.23312844820549 1:0 2:-1 3:0 4:-1 5:0 6:0 7:0 8:-1 9:0 10:0 11:-1 12:0 13:-1 14:-1 15:0 16:-1 17:0 18:0 19:0 20:0 21:0 22:0 23:0 24:0 25:-1 26:-1 27:0 28:0 29:0 30:0 31:0 32:0 33:0 34:0 35:0 36:0 37:-1 38:-1 39:0 40:1 41:0 42:0 43:0 44:0 45:0 46:0 47:0 48:0 49:-1 50:0 51:0 52:1 53:0 54:0 55:0 56:0 57:0 58:0 59:0 60:0 
-66.23312844820549 1:0 2:-1 3:0 4:-2 5:-1 6:0 7:0 8:0 9:0 10:0 11:0 12:0 13:0 14:-1 15:0 16:-1 17:-1 18:0 19:0 20:0 21:0 22:0 23:0 24:0 25:0 26:-1 27:0 28:0 29:-1 30:0 31:0 32:0 33:0 34:0 35:0 36:0 37:0 38:0 39:0 40:0 41:-1 42:0 43:0 44:0 45:0 46:0 47:0 48:0 49:0 50:0 51:0 52:0 53:0 54:0 55:0 56:0 57:0 58:0 59:0 60:0 
-66.23312844820549 1:0 2:-1 3:0 4:-1 5:-1 6:0 7:0 8:0 9:0 10:0 11:0 12:0 13:0 14:-1 15:0 16:0 17:-1 18:0 19:0 20:0 21:0 22:0 23:0 24:0 25:0 26:0 27:0 28:0 29:-1 30:0 31:0 32:0 33:0 34:0 35:0 36:0 37:0 38:0 39:0 40:0 41:0 42:0 43:0 44:0 45:0 46:0 47:0 48:0 49:0 50:0 51:0 52:0 53:0 54:0 55:0 56:0 57:0 58:0 59:0 60:0 
-66.23312844820549 1:0 2:-1 3:0 4:0 5:-1 6:0 7:0 8:0 9:0 10:0 11:0 12:0 13:0 14:0 15:0 16:0 17:-1 18:0 19:0 20:0 21:0 22:0 23:0 24:0 25:0 26:0 27:0 28:0 29:0 30:0 31:0 32:0 33:0 34:0 35:0 36:0 37:0 38:0 39:0 40:0 41:0 42:0 43:0 44:0 45:0 46:0 47:0 48:0 49:0 50:0 51:0 52:0 53:0 54:0 55:0 56:0 57:0 58:0 59:0 60:0 
-66.23312844820549 1:0 2:0 3:0 4:0 5:-1 6:0 7:0 8:-1 9:0 10:0 11:-1 12:0 13:0 14:0 15:0 16:0 17:0 18:0 19:0 20:-1 21:0 22:0 23:-1 24:0 25:0 26:0 27:0 28:0 29:0 30:0 31:0 32:-1 33:0 34:0 35:-1 36:0 37:0 38:0 39:0 40:0 41:0 42:0 43:0 44:-1 45:0 46:0 47:-1 48:0 49:0 50:0 51:0 52:0 53:0 54:0 55:0 56:0 57:0 58:0 59:0 60:0 
-66.23312844820549 1:0 2:0 3:0 4:0 5:0 6:0 7:0 8:-1 9:0 10:0 11:-1 12:0 13:0 14:0 15:0 16:0 17:0 18:0 19:0 20:-1 21:0 22:0 23:-1 24:0 25:0 26:0 27:0 28:0 29:0 30:0 31:0 32:-1 33:0 34:0 35:-1 36:0 37:0 38:0 39:0 40:0 41:0 42:0 43:0 44:0 45:0 46:0 47:0 48:0 49:0 50:0 51:0 52:0 53:0 54:0 55:0 56:0 57:0 58:0 59:0 60:0 
-66.23312844820549 1:0 2:0 3:0 4:0 5:0 6:0 7:0 8:-1 9:0 10:0 11:-1 12:0 13:0 14:0 15:0 16:0 17:0 18:0 19:0 20:-1 21:0 22:0 23:-1 24:0 25:0 26:0 27:0 28:0 29:0 30:0 31:0 32:0 33:0 34:0 35:0 36:0 37:0 38:0 39:0 40:0 41:0 42:0 43:0 44:0 45:0 46:0 47:0 48:0 49:0 50:0 51:0 52:0 53:0 54:0 55:0 56:0 57:0 58:0 59:0 60:0 
-66.23312844820549 1:-1 2:0 3:0 4:-1 5:0 6:0 7:0 8:0 9:0 10:0 11:-1 12:0 13:-1 14:0 15:0 16:-1 17:0 18:0 19:0 20:0 21:0 22:0 23:-1 24:0 25:-1 26:0 27:0 28:-1 29:0 30:0 31:0 32:0 33:0 34:0 35:-1 36:0 37:-1 38:-1 39:0 40:-1 41:0 42:0 43:0 44:0 45:0 46:0 47:-1 48:0 49:0 50:0 51:1 52:0 53:0 54:0 55:0 56:0 57:0 58:0 59:0 60:1 
-66.23312844820549 1:-1 2:0 3:0 4:-1 5:0 6:0 7:0 8:0 9:0 10:0 11:-1 12:0 13:-1 14:0 15:0 16:-1 17:0 18:0 19:0 20:0 21:0 22:0 23:-1 24:0 25:-1 26:-1 27:0 28:-1 29:0 30:0 31:0 32:0 33:0 34:0 35:-1 36:0 37:0 38:0 39:1 40:0 41:0 42:0 43:0 44:0 45:0 46:0 47:0 48:1 49:0 50:0 51:1 52:0 53:0 54:0 55:0 56:0 57:0 58:0 59:0 60:1 
-65.76753995137082 1:-1 2:0 3:0 4:-1 5:0 6:0 7:0 8:0 9:0 10:1 11:-1 12:0 13:-1 14:-1 15:0 16:-1 17:0 18:0 19:0 20:0 21:0 22:1 23:-1 24:0 25:0 26:0 27:1 28:0 29:0 30:0 31:0 32:0 33:0 34:1 35:0 36:1 37:0 38:0 39:1 40:0 41:0 42:0 43:0 44:0 45:0 46:1 47:0 48:1 49:-1 50:0 51:1 52:-1 53:0 54:0 55:0 56:0 57:0 58:0 59:0 60:1 
-66.23312844820549 1:-1 2:-1 3:0 4:-1 5:0 6:0 7:0 8:0 9:0 10:1 11:-1 12:0 13:0 14:0 15:1 16:0 17:0 18:0 19:0 20:0 21:0 22:1 23:0 24:1 25:0 26:0 27:1 28:0 29:0 30:0 31:0 32:0 33:0 34:1 35:0 36:1 37:-1 38:0 39:1 40:-1 41:0 42:0 43:0 44:0 45:0 46:0 47:0 48:1 49:-1 50:0 51:1 52:-1 53:0 54:0 55:0 56:0 57:0 58:0 59:0 60:1 
-66.23312844820549 1:0 2:0 3:0 4:0 5:0 6:0 7:0 8:0 9:0 10:1 11:0 12:0 13:0 14:0 15:0 16:0 17:0 18:0 19:0 20:0 21:0 22:1 23:0 24:0 25:-1 26:0 27:0 28:-1 29:0 30:0 31:0 32:0 33:0 34:0 35:0 36:0 37:-1 38:0 39:0 40:-1 41:0 42:0 43:0 44:0 45:0 46:0 47:0 48:0 49:-1 50:0 51:0 52:0 53:0 54:0 55:0 56:0 57:0 58:1 59:0 60:0 
-27.80495313324359 1:0 2:0 3:0 4:0 5:0 6:0 7:0 8:0 9:0 10:1 11:0 12:0 13:-1 14:0 15:0 16:-1 17:0 18:0 19:0 20:0 21:0 22:0 23:0 24:0 25:-1 26:0 27:0 28:-1 29:0 30:0 31:0 32:0 33:0 34:0 35:0 36:0 37:-1 38:0 39:0 40:0 41:0 42:0 43:0 44:0 45:0 46:1 47:0 48:0 49:-1 50:0 51:0 52:0 53:0 54:0 55:0 56:0 57:0 58:1 59:0 60:0 
-66.23312844820549 1:0 2:0 3:0 4:-1 5:0 6:0 7:0 8:0 9:0 10:0 11:0 12:0 13:0 14:0 15:0 16:-1 17:0 18:0 19:0 20:0 21:0 22:0 23:0 24:0 25:0 26:0 27:0 28:0 29:0 30:0 31:0 32:0 33:0 34:1 35:0 36:0 37:0 38:0 39:0 40:0 41:0 42:0 43:0 44:0 45:0 46:1 47:0 48:0 49:0 50:0 51:0 52:0 53:0 54:0 55:0 56:0 57:0 58:1 59:0 60:0 
-66.23312844820549 1:0 2:0 3:0 4:-1 5:0 6:0 7:0 8:0 9:0 10:0 11:0 12:0 13:0 14:0 15:0 16:0 17:0 18:0 19:0 20:0 21:0 22:1 23:0 24:0 25:0 26:0 27:0 28:0 29:0 30:0 31:0 32:0 33:0 34:1 35:0 36:0 37:0 38:0 39:0 40:0 41:0 42:0 43:0 44:0 45:0 46:1 47:0 48:0 49:0 50:0 51:0 52:0 53:0 54:0 55:0 56:0 57:0 58:1 59:0 60:0 
-66.23312844820549 1:0 2:0 3:0 4:0 5:0 6:0 7:0 8:0 9:0 10:0 11:0 12:0 13:0 14:0 15:0 16:0 17:0 18:0 19:0 20:0 21:0 22:0 23:0 24:0 25:0 26:0 27:0 28:0 29:0 30:0 31:0 32:0 33:0 34:0 35:0 36:0 37:0 38:0 39:0 40:0 41:0 42:0 43:0 44:0 45:0 46:0 47:0 48:0 49:-1 50:-1 51:0 52:-3 53:0 54:0 55:-1 56:0 57:0 58:0 59:-2 60:0 
-66.23312844820549 1:0 2:0 3:0 4:1 5:0 6:0 7:0 8:0 9:0 10:0 11:0 12:0 13:0 14:0 15:0 16:1 17:0 18:0 19:0 20:0 21:0 22:0 23:0 24:0 25:0 26:0 27:0 28:1 29:0 30:0 31:0 32:0 33:0 34:0 35:0 36:0 37:-1 38:-1 39:0 40:-2 41:0 42:0 43:-1 44:0 45:0 46:0 47:-2 48:0 49:-1 50:-2 51:0 52:-3 53:0 54:0 55:-2 56:0 57:0 58:1 59:-2 60:0 
-37.84524238951727 1:1 2:1 3:1 4:3 5:0 6:0 7:0 8:0 9:0 10:0 11:2 12:0 13:0 14:0 15:1 16:0 17:0 18:0 19:-1 20:0 21:0 22:0 23:0 24:0 25:0 26:-1 27:1 28:-1 29:0 30:0 31:-2 32:0 33:0 34:1 35:0 36:0 37:-1 38:-1 39:0 40:-1 41:0 42:0 43:-1 44:-1 45:0 46:1 47:-1 48:0 49:-1 50:-1 51:0 52:-2 53:0 54:0 55:0 56:-2 57:0 58:1 59:-2 60:0 
-66.23312844820549 1:1 2:0 3:1 4:0 5:0 6:0 7:-2 8:1 9:0 10:0 11:1 12:0 13:0 14:0 15:0 16:0 17:0 18:0 19:-1 20:0 21:0 22:0 23:0 24:0 25:0 26:0 27:0 28:-1 29:0 30:0 31:0 32:-1 33:0 34:0 35:-1 36:0 37:-1 38:0 39:0 40:-1 41:0 42:0 43:0 44:0 45:0 46:0 47:0 48:0 49:-1 50:0 51:0 52:0 53:0 54:0 55:0 56:0 57:0 58:0 59:0 60:0 
-66.23312844820549 1:0 2:0 3:0 4:0 5:0 6:0 7:-1 8:0 9:0 10:0 11:0 12:0 13:0 14:0 15:0 16:-1 17:0 18:0 19:0 20:-1 21:0 22:0 23:-1 24:0 25:-1 26:0 27:0 28:-1 29:0 30:0 31:0 32:0 33:0 34:0 35:0 36:0 37:-1 38:0 39:0 40:0 41:0 42:0 43:0 44:0 45:0 46:0 47:0 48:0 49:-1 50:0 51:0 52:1 53:0 54:0 55:0 56:0 57:0 58:0 59:0 60:0 
-66.23312844820549 1:0 2:-1 3:0 4:-1 5:0 6:0 7:0 8:-1 9:0 10:0 11:-1 12:0 13:-1 14:-1 15:0 16:-1 17:0 18:0 19:0 20:0 21:0 22:0 23:0 24:0 25:-1 26:-1 27:0 28:0 29:0 30:0 31:0 32:0 33:0 34:0 35:0 36:0 37:-1 38:-1 39:0 40:1 41:0 42:0 43:0 44:0 45:0 46:0 47:0 48:0 49:-1 50:0 51:0 52:1 53:0 54:0 55:0 56:0 57:0 58:0 59:0 60:0 
-66.23312844820549 1:0 2:-1 3:0 4:-2 5:-1 6:0 7:0 8:0 9:0 10:0 11:0 12:0 13:0 14:-1 15:0 16:-1 17:-1 18:0 19:0 20:0 21:0 22:0 23:0 24:0 25:0 26:-1 27:0 28:0 29:-1 30:0 31:0 32:0 33:0 34:0 35:0 36:0 37:0 38:0 39:0 40:0 41:-1 42:0 43:0 44:0 45:0 46:0 47:0 48:0 49:0 50:0 51:0 52:0 53:0 54:0 55:0 56:0 57:0 58:0 59:0 60:0 
-66.23312844820549 1:0 2:-1 3:0 4:-1 5:-1 6:0 7:0 8:0 9:0 10:0 11:0 12:0 13:0 14:-1 15:0 16:0 17:-1 18:0 19:0 20:0 21:0 22:0 23:0 24:0 25:0 26:0 27:0 28:0 29:-1 30:0 31:0 32:0 33:0 34:0 35:0 36:0 37:0 38:0 39:0 40:0 41:0 42:0 43:0 44:0 45:0 46:0 47:0 48:0 49:0 50:0 51:0 52:0 53:0 54:0 55:0 56:0 57:0 58:0 59:0 60:0 
-66.23312844820549 1:0 2:-1 3:0 4:0 5:-1 6:0 7:0 8:0 9:0 10:0 11:0 12:0 13:0 14:0 15:0 16:0 17:-1 18:0 19:0 20:0 21:0 22:0 23:0 24:0 25:0 26:0 27:0 28:0 29:0 30:0 31:0 32:0 33:0 34:0 35:0 36:0 37:0 38:0 39:0 40:0 41:0 42:0 43:0 44:0 45:0 46:0 47:0 48:0 49:0 50:0 51:0 52:0 53:0 54:0 55:0 56:0 57:0 58:0 59:0 60:0 
-66.23312844820549 1:0 2:0 3:0 4:0 5:-1 6:0 7:0 8:-1 9:0 10:0 11:-1 12:0 13:0 14:0 15:0 16:0 17:0 18:0 19:0 20:-1 21:0 22:0 23:-1 24:0 25:0 26:0 27:0 28:0 29:0 30:0 31:0 32:-1 33:0 34:0 35:-1 36:0 37:0 38:0 39:0 40:0 41:0 42:0 43:0 44:-1 45:0 46:0 47:-1 48:0 49:0 50:0 51:0 52:0 53:0 54:0 55:0 56:0 57:0 58:0 59:0 60:0 
-66.23312844820549 1:0 2:0 3:0 4:0 5:0 6:0 7:0 8:-1 9:0 10:0 11:-1 12:0 13:0 14:0 15:0 16:0 17:0 18:0 19:0 20:-1 21:0 22:0 23:-1 24:0 25:0 26:0 27:0 28:0 29:0 30:0 31:0 32:-1 33:0 34:0 35:-1 36:0 37:0 38:0 39:0 40:0 41:0 42:0 43:0 44:0 45:0 46:0 47:0 48:0 49:0 50:0 51:0 52:0 53:0 54:0 55:0 56:0 57:0 58:0 59:0 60:0 
-66.23312844820549 1:0 2:0 3:0 4:0 5:0 6:0 7:0 8:-1 9:0 10:0 11:-1 12:0 13:0 14:0 15:0 16:0 17:0 18:0 19:0 20:-1 21:0 22:0 23:-1 24:0 25:0 26:0 27:0 28:0 29:0 30:0 31:0 32:0 33:0 34:0 35:0 36:0 37:0 38:0 39:0 40:0 41:0 42:0 43:0 44:0 45:0 46:0 47:0 48:0 49:0 50:0 51:0 52:0 53:0 54:0 55:0 56:0 57:0 58:0 59:0 60:0 
-66.23312844820549 1:-1 2:0 3:0 4:-1 5:0 6:0 7:0 8:0 9:0 10:0 11:-1 12:0 13:-1 14:0 15:0 16:-1 17:0 18:0 19:0 20:0 21:0 22:0 23:-1 24:0 25:-1 26:0 27:0 28:-1 29:0 30:0 31:0 32:0 33:0 34:0 35:-1 36:0 37:-1 38:-1 39:0 40:-1 41:0 42:0 43:0 44:0 45:0 46:0 47:-1 48:0 49:0 50:0 51:1 52:0 53:0 54:0 55:0 56:0 57:0 58:0 59:0 60:1 
-66.23312844820549 1:-1 2:0 3:0 4:-1 5:0 6:0 7:0 8:0 9:0 10:0 11:-1 12:0 13:-1 14:0 15:0 16:-1 17:0 18:0 19:0 20:0 21:0 22:0 23:-1 24:0 25:-1 26:-1 27:0 28:-1 29:0 30:0 31:0 32:0 33:0 34:0 35:-1 36:0 37:0 38:0 39:1 40:0 41:0 42:0 43:0 44:0 45:0 46:0 47:0 48:1 49:0 50:0 51:1 52:0 53:0 54:0 55:0 56:0 57:0 58:0 59:0 60:1 
-62.27653616836219 1:-1 2:0 3:0 4:-1 5:0 6:0 7:0 8:0 9:0 10:1 11:-1 12:0 13:-1 14:-1 15:0 16:-1 17:0 18:0 19:0 20:0 21:0 22:1 23:-1 24:0 25:0 26:0 27:1 28:0 29:0 30:0 31:0 32:0 33:0 34:1 35:0 36:1 37:0 38:0 39:1 40:0 41:0 42:0 43:0 44:0 45:0 46:1 47:0 48:1 49:-1 50:0 51:1 52:-1 53:0 54:0 55:0 56:0 57:0 58:0 59:0 60:1 
-66.23312844820549 1:-1 2:-1 3:0 4:-1 5:0 6:0 7:0 8:0 9:0 10:1 11:-1 12:0 13:0 14:0 15:1 16:0 17:0 18:0 19:0 20:0 21:0 22:1 23:0 24:1 25:0 26:0 27:1 28:0 29:0 30:0 31:0 32:0 33:0 34:1 35:0 36:1 37:-1 38:0 39:1 40:-1 41:0 42:0 43:0 44:0 45:0 46:0 47:0 48:1 49:-1 50:0 51:1 52:-1 53:0 54:0 55:0 56:0 57:0 58:0 59:0 60:1 
-44.30616738672083 1:0 2:0 3:0 4:0 5:0 6:0 7:0 8:0 9:0 10:1 11:0 12:0 13:0 14:0 15:0 16:0 17:0 18:0 19:0 20:0 21:0 22:1 23:0 24:0 25:-1 26:0 27:0 28:-1 29:0 30:0 31:0 32:0 33:0 34:0 35:0 36:0 37:-1 38:0 39:0 40:-1 41:0 42:0 43:0 44:0 45:0 46:0 47:0 48:0 49:-1 50:0 51:0 52:0 53:0 54:0 55:0 56:0 57:0 58:1 59:0 60:0 
-66.23312844820549 1:0 2:0 3:0 4:0 5:0 6:0 7:0 8:0 9:0 10:1 11:0 12:0 13:-1 14:0 15:0 16:-1 17:0 18:0 19:0 20:0 21:0 22:0 23:0 24:0 25:-1 26:0 27:0 28:-1 29:0 30:0 31:0 32:0 33:0 34:0 35:0 36:0 37:-1 38:0 39:0 40:0 41:0 42:0 43:0 44:0 45:0 46:1 47:0 48:0 49:-1 50:0 51:0 52:0 53:0 54:0 55:0 56:0 57:0 58:1 59:0 60:0 
-66.23312844820549 1:0 2:0 3:0 4:-1 5:0 6:0 7:0 8:0 9:0 10:0 11:0 12:0 13:0 14:0 15:0 16:-1 17:0 18:0 19:0 20:0 21:0 22:0 23:0 24:0 25:0 26:0 27:0 28:0 29:0 30:0 31:0 32:0 33:0 34:1 35:0 36:0 37:0 38:0 39:0 40:0 41:0 42:0 43:0 44:0 45:0 46:1 47:0 48:0 49:0 50:0 51:0 52:0 53:0 54:0 55:0 56:0 57:0 58:1 59:0 60:0 
-66.23312844820549 1:0 2:0 3:0 4:-1 5:0 6:0 7:0 8:0 9:0 10:0 11:0 12:0 13:0 14:0 15:0 16:0 17:0 18:0 19:0 20:0 21:0 22:1 23:0 24:0 25:0 26:0 27:0 28:0 29:0 30:0 31:0 32:0 33:0 34:1 35:0 36:0 37:0 38:0 39:0 40:0 41:0 42:0 43:0 44:0 45:0 46:1 47:0 48:0 49:0 50:0 51:0 52:0 53:0 54:0 55:0 56:0 57:0 58:1 59:0 60:0 
-66.23312844820549 1:0 2:0 3:0 4:0 5:0 6:0 7:0 8:0 9:0 10:0 11:0 12:0 13:0 14:0 15:0 16:0 17:0 18:0 19:0 20:0 21:0 22:0 23:0 24:0 25:0 26:0 27:0 28:0 29:0 30:0 31:0 32:0 33:0 34:0 35:0 36:0 37:0 38:0 39:0 40:0 41:0 42:0 43:0 44:0 45:0 46:0 47:0 48:0 49:-1 50:-1 51:0 52:-3 53:0 54:0 55:-1 56:0 57:0 58:0 59:-2 60:0 
-66.23312844820549 1:0 2:0 3:0 4:1 5:0 6:0 7:0 8:0 9:0 10:0 11:0 12:0 13:0 14:0 15:0 16:1 17:0 18:0 19:0 20:0 21:0 22:0 23:0 24:0 25:0 26:0 27:0 28:1 29:0 30:0 31:0 32:0 33:0 34:0 35:0 36:0 37:-1 38:-1 39:0 40:-2 41:0 42:0 43:-1 44:0 45:0 46:0 47:-2 48:0 49:-1 50:-2 51:0 52:-3 53:0 54:0 55:-2 56:0 57:0 58:1 59:-2 60:0 
-51.60697293998079 1:0 2:0 3:1 4:1 5:0 6:0 7:-1 8:0 9:0 10:0 11:0 12:0 13:0 14:-1 15:1 16:0 17:0 18:0 19:-2 20:0 21:0 22:1 23:0 24:0 25:-1 26:-1 27:0 28:0 29:0 30:0 31:-1 32:-1 33:0 34:1 35:-1 36:0 37:-1 38:-1 39:0 40:-1 41:0 42:0 43:0 44:-2 45:0 46:1 47:-2 48:0 49:-2 50:-1 51:0 52:-1 53:0 54:0 55:0 56:-1 57:0 58:1 59:-1 60:0 
-66.23312844820549 1:1 2:0 3:1 4:0 5:0 6:0 7:-2 8:1 9:0 10:0 11:1 12:0 13:0 14:0 15:0 16:0 17:0 18:0 19:-1 20:0 21:0 22:0 23:0 24:0 25:0 26:0 27:0 28:-1 29:0 30:0 31:0 32:-1 33:0 34:0 35:-1 36:0 37:-1 38:0 39:0 40:-1 41:0 42:0 43:0 44:0 45:0 46:0 47:0 48:0 49:-1 50:0 51:0 52:0 53:0 54:0 55:0 56:0 57:0 58:0 59:0 60:0 
-66.23312844820549 1:0 2:0 3:0 4:0 5:0 6:0 7:-1 8:0 9:0 10:0 11:0 12:0 13:0 14:0 15:0 16:-1 17:0 18:0 19:0 20:-1 21:0 22:0 23:-1 24:0 25:-1 26:0 27:0 28:-1 29:0 30:0 31:0 32:0 33:0 34:0 35:0 36:0 37:-1 38:0 39:0 40:0 41:0 42:0 43:0 44:0 45:0 46:0 47:0 48:0 49:-1 50:0 51:0 52:1 53:0 54:0 55:0 56:0 57:0 58:0 59:0 60:0 
-66.23312844820549 1:0 2:-1 3:0 4:-1 5:0 6:0 7:0 8:-1 9:0 10:0 11:-1 12:0 13:-1 14:-1 15:0 16:-1 17:0 18:0 19:0 20:0 21:0 22:0 23:0 24:0 25:-1 26:-1 27:0 28:0 29:0 30:0 31:0 32:0 33:0 34:0 35:0 36:0 37:-1 38:-1 39:0 40:1 41:0 42:0 43:0 44:0 45:0 46:0 47:0 48:0 49:-1 50:0 51:0 52:1 53:0 54:0 55:0 56:0 57:0 58:0 59:0 60:0 
-66.23312844820549 1:0 2:-1 3:0 4:-2 5:-1 6:0 7:0 8:0 9:0 10:0 11:0 12:0 13:0 14:-1 15:0 16:-1 17:-1 18:0 19:0 20:0 21:0 22:0 23:0 24:0 25:0 26:-1 27:0 28:0 29:-1 30:0 31:0 32:0 33:0 34:0 35:0 36:0 37:0 38:0 39:0 40:0 41:-1 42:0 43:0 44:0 45:0 46:0 47:0 48:0 49:0 50:0 51:0 52:0 53:0 54:0 55:0 56:0 57:0 58:0 59:0 60:0 
-66.23312844820549 1:0 2:-1 3:0 4:-1 5:-1 6:0 7:0 8:0 9:0 10:0 11:0 12:0 13:0 14:-1 15:0 16:0 17:-1 18:0 19:0 20:0 21:0 22:0 23:0 24:0 25:0 26:0 27:0 28:0 29:-1 30:0 31:0 32:0 33:0 34:0 35:0 36:0 37:0 38:0 39:0 40:0 41:0 42:0 43:0 44:0 45:0 46:0 47:0 48:0 49:0 50:0 51:0 52:0 53:0 54:0 55:0 56:0 57:0 58:0 59:0 60:0 
-66.23312844820549 1:0 2:-1 3:0 4:0 5:-1 6:0 7:0 8:0 9:0 10:0 11:0 12:0 13:0 14:0 15:0 16:0 17:-1 18:0 19:0 20:0 21:0 22:0 23:0 24:0 25:0 26:0 27:0 28:0 29:0 30:0 31:0 32:0 33:0 34:0 35:0 36:0 37:0 38:0 39:0 40:0 41:0 42:0 43:0 44:0 45:0 46:0 47:0 48:0 49:0 50:0 51:0 52:0 53:0 54:0 55:0 56:0 57:0 58:0 59:0 60:0 
-66.23312844820549 1:0 2:0 3:0 4:0 5:-1 6:0 7:0 8:-1 9:0 10:0 11:-1 12:0 13:0 14:0 15:0 16:0 17:0 18:0 19:0 20:-1 21:0 22:0 23:-1 24:0 25:0 26:0 27:0 28:0 29:0 30:0 31:0 32:-1 33:0 34:0 35:-1 36:0 37:0 38:0 39:0 40:0 41:0 42:0 43:0 44:-1 45:0 46:0 47:-1 48:0 49:0 50:0 51:0 52:0 53:0 54:0 55:0 56:0 57:0 58:0 59:0 60:0 
-66.23312844820549 1:0 2:0 3:0 4:0 5:0 6:0 7:0 8:-1 9:0 10:0 11:-1 12:0 13:0 14:0 15:0 16:0 17:0 18:0 19:0 20:-1 21:0 22:0 23:-1 24:0 25:0 26:0 27:0 28:0 29:0 30:0 31:0 32:-1 33:0 34:0 35:-1 36:0 37:0 38:0 39:0 40:0 41:0 42:0 43:0 44:0 45:0 46:0 47:0 48:0 49:0 50:0 51:0 52:0 53:0 54:0 55:0 56:0 57:0 58:0 59:0 60:0 
-66.23312844820549 1:0 2:0 3:0 4:0 5:0 6:0 7:0 8:-1 9:0 10:0 11:-1 12:0 13:0 14:0 15:0 16:0 17:0 18:0 19:0 20:-1 21:0 22:0 23:-1 24:0 25:0 26:0 27:0 28:0 29:0 30:0 31:0 32:0 33:0 34:0 35:0 36:0 37:0 38:0 39:0 40:0 41:0 42:0 43:0 44:0 45:0 46:0 47:0 48:0 49:0 50:0 51:0 52:0 53:0 54:0 55:0 56:0 57:0 58:0 59:0 60:0 
