svm_type c_svc
kernel_type rbf
gamma 0.00012207
nr_class 2
total_sv 34
rho -1.21938
label 1 3
nr_sv 22 12
SV
5.218495666609878 1:1 2:-43 3:-3 4:-62 5:1 6:-17 7:-32 8:14 9:-9 10:-1 11:34 12:-3 13:2 14:-42 15:-4 16:-63 17:1 18:-16 19:-31 20:14 21:-9 22:-1 23:34 24:-3 25:3 26:-42 27:-4 28:-65 29:1 30:-16 31:-30 32:15 33:-8 34:-1 35:34 36:-3 37:4 38:-42 39:-4 40:-64 41:1 42:-16 43:-30 44:17 45:-8 46:-1 47:34 48:-3 49:5 50:-42 51:-4 52:-64 53:4 54:-16 55:-30 56:18 57:-8 58:-1 59:34 60:-3 
19.171974522293 1:1 2:-35 3:-4 4:34 5:18 6:-2 7:64 8:8 9:10 10:0 11:29 12:-4 13:1 14:-35 15:-4 16:33 17:18 18:-3 19:64 20:9 21:10 22:0 23:29 24:-4 25:2 26:-36 27:-3 28:33 29:18 30:-2 31:64 32:8 33:10 34:0 35:29 36:-4 37:3 38:-36 39:-3 40:33 41:18 42:-2 43:64 44:8 45:10 46:0 47:29 48:-3 49:3 50:-36 51:-3 52:33 53:18 54:-2 55:64 56:9 57:9 58:0 59:29 60:-3 
19.171974522293 1:1 2:-35 3:-4 4:33 5:18 6:-3 7:64 8:9 9:10 10:0 11:29 12:-4 13:2 14:-36 15:-3 16:33 17:18 18:-2 19:64 20:8 21:10 22:0 23:29 24:-4 25:3 26:-36 27:-3 28:33 29:18 30:-2 31:64 32:8 33:10 34:0 35:29 36:-3 37:3 38:-36 39:-3 40:33 41:18 42:-2 43:64 44:9 45:9 46:0 47:29 48:-3 49:3 50:-36 51:-3 52:33 53:19 54:-2 55:65 56:10 57:7 58:0 59:29 60:-3 
4.463335666513693 1:2 2:-36 3:-3 4:33 5:18 6:-2 7:64 8:8 9:10 10:0 11:29 12:-4 13:3 14:-36 15:-3 16:33 17:18 18:-2 19:64 20:8 21:10 22:0 23:29 24:-3 25:3 26:-36 27:-3 28:33 29:18 30:-2 31:64 32:9 33:9 34:0 35:29 36:-3 37:3 38:-36 39:-3 40:33 41:19 42:-2 43:65 44:10 45:7 46:0 47:29 48:-3 49:3 50:-36 51:-3 52:33 53:20 54:-2 55:65 56:11 57:7 58:0 59:29 60:-3 
19.171974522293 1:1 2:-43 3:-3 4:-62 5:1 6:-17 7:-32 8:14 9:-9 10:-1 11:34 12:-3 13:2 14:-42 15:-4 16:-63 17:1 18:-16 19:-31 20:14 21:-9 22:-1 23:34 24:-3 25:3 26:-42 27:-4 28:-65 29:1 30:-16 31:-30 32:15 33:-8 34:-1 35:34 36:-3 37:4 38:-42 39:-4 40:-64 41:1 42:-16 43:-30 44:17 45:-8 46:-1 47:34 48:-3 49:5 50:-42 51:-4 52:-64 53:4 54:-16 55:-30 56:18 57:-8 58:-1 59:34 60:-3 
19.171974522293 1:1 2:-35 3:-4 4:34 5:18 6:-2 7:64 8:8 9:10 10:0 11:29 12:-4 13:1 14:-35 15:-4 16:33 17:18 18:-3 19:64 20:9 21:10 22:0 23:29 24:-4 25:2 26:-36 27:-3 28:33 29:18 30:-2 31:64 32:8 33:10 34:0 35:29 36:-4 37:3 38:-36 39:-3 40:33 41:18 42:-2 43:64 44:8 45:10 46:0 47:29 48:-3 49:3 50:-36 51:-3 52:33 53:18 54:-2 55:64 56:9 57:9 58:0 59:29 60:-3 
19.171974522293 1:1 2:-35 3:-4 4:33 5:18 6:-3 7:64 8:9 9:10 10:0 11:29 12:-4 13:2 14:-36 15:-3 16:33 17:18 18:-2 19:64 20:8 21:10 22:0 23:29 24:-4 25:3 26:-36 27:-3 28:33 29:18 30:-2 31:64 32:8 33:10 34:0 35:29 36:-3 37:3 38:-36 39:-3 40:33 41:18 42:-2 43:64 44:9 45:9 46:0 47:29 48:-3 49:3 50:-36 51:-3 52:33 53:19 54:-2 55:65 56:10 57:7 58:0 59:29 60:-3 
19.171974522293 1:2 2:-36 3:-3 4:33 5:18 6:-2 7:64 8:8 9:10 10:0 11:29 12:-4 13:3 14:-36 15:-3 16:33 17:18 18:-2 19:64 20:8 21:10 22:0 23:29 24:-3 25:3 26:-36 27:-3 28:33 29:18 30:-2 31:64 32:9 33:9 34:0 35:29 36:-3 37:3 38:-36 39:-3 40:33 41:19 42:-2 43:65 44:10 45:7 46:0 47:29 48:-3 49:3 50:-36 51:-3 52:33 53:20 54:-2 55:65 56:11 57:7 58:0 59:29 60:-3 
0.09638567742197869 1:4 2:-42 3:-4 4:-54 5:10 6:-17 7:14 8:16 9:-43 10:-1 11:34 12:-4 13:4 14:-42 15:-4 16:-56 17:8 18:-16 19:13 20:21 21:-39 22:-1 23:34 24:-4 25:4 26:-42 27:-4 28:-57 29:7 30:-15 31:-3 32:25 33:-31 34:-1 35:34 36:-4 37:4 38:-42 39:-4 40:-58 41:5 42:-15 43:-23 44:20 45:-17 46:-1 47:34 48:-4 49:4 50:-42 51:-4 52:-61 53:3 54:-14 55:-24 56:19 57:-16 58:-1 59:34 60:-4 
0.9392033079952911 1:4 2:-42 3:-4 4:-56 5:8 6:-16 7:13 8:21 9:-39 10:-1 11:34 12:-4 13:4 14:-42 15:-4 16:-57 17:7 18:-15 19:-3 20:25 21:-31 22:-1 23:34 24:-4 25:4 26:-42 27:-4 28:-58 29:5 30:-15 31:-23 32:20 33:-17 34:-1 35:34 36:-4 37:4 38:-42 39:-4 40:-61 41:3 42:-14 43:-24 44:19 45:-16 46:-1 47:34 48:-4 49:4 50:-42 51:-4 52:-63 53:1 54:-13 55:-25 56:19 57:-16 58:-1 59:34 60:-4 
9.49089254236708 1:4 2:-42 3:-4 4:-58 5:5 6:-15 7:-23 8:20 9:-17 10:-1 11:34 12:-4 13:4 14:-42 15:-4 16:-61 17:3 18:-14 19:-24 20:19 21:-16 22:-1 23:34 24:-4 25:4 26:-42 27:-4 28:-63 29:1 30:-13 31:-25 32:19 33:-16 34:-1 35:34 36:-4 37:4 38:-42 39:-4 40:-63 41:1 42:-13 43:-26 44:18 45:-15 46:-1 47:34 48:-4 49:4 50:-42 51:-4 52:-63 53:0 54:-13 55:-28 56:17 57:-15 58:-1 59:34 60:-4 
18.37241316463323 1:3 2:-42 3:-3 4:-63 5:-1 6:-16 7:-31 8:14 9:-10 10:0 11:34 12:-3 13:2 14:-43 15:-3 16:-63 17:1 18:-16 19:-31 20:14 21:-9 22:0 23:34 24:-3 25:2 26:-43 27:-3 28:-62 29:1 30:-16 31:-32 32:15 33:-9 34:-1 35:34 36:-3 37:1 38:-43 39:-3 40:-62 41:1 42:-17 43:-32 44:14 45:-9 46:-1 47:34 48:-3 49:2 50:-42 51:-4 52:-63 53:1 54:-16 55:-31 56:14 57:-9 58:-1 59:34 60:-3 
1.34680366002029 1:2 2:-43 3:-3 4:-63 5:1 6:-16 7:-31 8:14 9:-9 10:0 11:34 12:-3 13:2 14:-43 15:-3 16:-62 17:1 18:-16 19:-32 20:15 21:-9 22:-1 23:34 24:-3 25:1 26:-43 27:-3 28:-62 29:1 30:-17 31:-32 32:14 33:-9 34:-1 35:34 36:-3 37:2 38:-42 39:-4 40:-63 41:1 42:-16 43:-31 44:14 45:-9 46:-1 47:34 48:-3 49:3 50:-42 51:-4 52:-65 53:1 54:-16 55:-30 56:15 57:-8 58:-1 59:34 60:-3 
18.95027581515161 1:1 2:-43 3:-3 4:-62 5:1 6:-17 7:-32 8:14 9:-9 10:-1 11:34 12:-3 13:2 14:-42 15:-4 16:-63 17:1 18:-16 19:-31 20:14 21:-9 22:-1 23:34 24:-3 25:3 26:-42 27:-4 28:-65 29:1 30:-16 31:-30 32:15 33:-8 34:-1 35:34 36:-3 37:4 38:-42 39:-4 40:-64 41:1 42:-16 43:-30 44:17 45:-8 46:-1 47:34 48:-3 49:5 50:-42 51:-4 52:-64 53:4 54:-16 55:-30 56:18 57:-8 58:-1 59:34 60:-3 
16.77539498751007 1:3 2:-36 3:-1 4:-44 5:28 6:-22 7:-11 8:33 9:-16 10:0 11:29 12:-4 13:3 14:-36 15:-1 16:-43 17:29 18:-22 19:-10 20:33 21:-16 22:0 23:29 24:-4 25:3 26:-36 27:-1 28:-42 29:30 30:-22 31:-9 32:34 33:-14 34:0 35:29 36:-4 37:3 38:-36 39:-1 40:-40 41:32 42:-22 43:-7 44:34 45:-13 46:0 47:29 48:-4 49:3 50:-36 51:-2 52:-36 53:34 54:-22 55:-7 56:34 57:-13 58:0 59:29 60:-4 
3.828183258366002 1:2 2:-36 3:-2 4:3 5:40 6:-18 7:40 8:39 9:-4 10:0 11:29 12:-4 13:3 14:-36 15:-2 16:3 17:40 18:-18 19:44 20:36 21:-3 22:0 23:29 24:-4 25:3 26:-36 27:-3 28:13 29:39 30:-14 31:48 32:31 33:-1 34:0 35:29 36:-4 37:3 38:-35 39:-3 40:24 41:33 42:-7 43:50 44:25 45:3 46:0 47:29 48:-4 49:3 50:-35 51:-3 52:27 53:30 54:-6 55:51 56:22 57:4 58:1 59:29 60:-4 
19.171974522293 1:1 2:-35 3:-4 4:34 5:18 6:-2 7:64 8:8 9:10 10:0 11:29 12:-4 13:1 14:-35 15:-4 16:33 17:18 18:-3 19:64 20:9 21:10 22:0 23:29 24:-4 25:2 26:-36 27:-3 28:33 29:18 30:-2 31:64 32:8 33:10 34:0 35:29 36:-4 37:3 38:-36 39:-3 40:33 41:18 42:-2 43:64 44:8 45:10 46:0 47:29 48:-3 49:3 50:-36 51:-3 52:33 53:18 54:-2 55:64 56:9 57:9 58:0 59:29 60:-3 
19.171974522293 1:1 2:-35 3:-4 4:33 5:18 6:-3 7:64 8:9 9:10 10:0 11:29 12:-4 13:2 14:-36 15:-3 16:33 17:18 18:-2 19:64 20:8 21:10 22:0 23:29 24:-4 25:3 26:-36 27:-3 28:33 29:18 30:-2 31:64 32:8 33:10 34:0 35:29 36:-3 37:3 38:-36 39:-3 40:33 41:18 42:-2 43:64 44:9 45:9 46:0 47:29 48:-3 49:3 50:-36 51:-3 52:33 53:19 54:-2 55:65 56:10 57:7 58:0 59:29 60:-3 
19.171974522293 1:2 2:-36 3:-3 4:33 5:18 6:-2 7:64 8:8 9:10 10:0 11:29 12:-4 13:3 14:-36 15:-3 16:33 17:18 18:-2 19:64 20:8 21:10 22:0 23:29 24:-3 25:3 26:-36 27:-3 28:33 29:18 30:-2 31:64 32:9 33:9 34:0 35:29 36:-3 37:3 38:-36 39:-3 40:33 41:19 42:-2 43:65 44:10 45:7 46:0 47:29 48:-3 49:3 50:-36 51:-3 52:33 53:20 54:-2 55:65 56:11 57:7 58:0 59:29 60:-3 
10.93298991875992 1:3 2:-36 3:-3 4:33 5:18 6:-2 7:64 8:9 9:9 10:0 11:29 12:-3 13:3 14:-36 15:-3 16:33 17:19 18:-2 19:65 20:10 21:7 22:0 23:29 24:-3 25:3 26:-36 27:-3 28:33 29:20 30:-2 31:65 32:11 33:7 34:0 35:29 36:-3 37:3 38:-36 39:-3 40:33 41:20 42:-2 43:65 44:11 45:7 46:0 47:29 48:-3 49:3 50:-36 51:-3 52:33 53:20 54:-2 55:65 56:11 57:7 58:1 59:29 60:-3 
1.713676807755778 1:3 2:-37 3:-1 4:22 5:34 6:-11 7:47 8:34 9:6 10:1 11:29 12:-3 13:4 14:-37 15:-1 16:22 17:34 18:-13 19:42 20:36 21:7 22:0 23:29 24:-3 25:4 26:-36 27:-1 28:23 29:34 30:-15 31:37 32:34 33:8 34:1 35:29 36:-3 37:4 38:-36 39:-1 40:24 41:33 42:-16 43:34 44:34 45:7 46:1 47:29 48:-3 49:4 50:-36 51:-1 52:23 53:32 54:-17 55:33 56:36 57:7 58:1 59:29 60:-4 
0.02919088816505511 1:4 2:-34 3:-5 4:-16 5:40 6:6 7:10 8:-19 9:-3 10:-3 11:29 12:-4 13:4 14:-33 15:-5 16:-16 17:40 18:6 19:10 20:-19 21:-3 22:-3 23:29 24:-4 25:4 26:-33 27:-5 28:-16 29:40 30:7 31:10 32:-19 33:-3 34:-3 35:29 36:-4 37:4 38:-33 39:-5 40:-16 41:40 42:7 43:10 44:-19 45:-3 46:-3 47:29 48:-4 49:4 50:-33 51:-5 52:-16 53:40 54:7 55:10 56:-19 57:-3 58:-3 59:29 60:-4 
-30.82802547770701 1:1 2:-35 3:-4 4:34 5:17 6:-2 7:64 8:6 9:9 10:0 11:29 12:-4 13:1 14:-35 15:-4 16:34 17:17 18:-2 19:64 20:6 21:9 22:0 23:29 24:-4 25:1 26:-35 27:-4 28:34 29:17 30:-2 31:64 32:8 33:10 34:0 35:29 36:-4 37:1 38:-35 39:-4 40:34 41:18 42:-2 43:64 44:8 45:10 46:0 47:29 48:-4 49:1 50:-35 51:-4 52:33 53:18 54:-3 55:64 56:9 57:10 58:0 59:29 60:-4 
-24.01342885931461 1:4 2:-42 3:-4 4:-64 5:1 6:-16 7:-30 8:17 9:-8 10:-1 11:34 12:-3 13:5 14:-42 15:-4 16:-64 17:4 18:-16 19:-30 20:18 21:-8 22:-1 23:34 24:-3 25:5 26:-42 27:-4 28:-64 29:5 30:-15 31:-30 32:17 33:-8 34:0 35:34 36:-3 37:4 38:-42 39:-3 40:-64 41:5 42:-16 43:-29 44:16 45:-8 46:0 47:33 48:-3 49:3 50:-42 51:-3 52:-64 53:5 54:-16 55:-29 56:14 57:-7 58:0 59:33 60:-3 
-14.22407942390781 1:1 2:-35 3:-4 4:34 5:19 6:-1 7:63 8:10 9:8 10:0 11:29 12:-4 13:1 14:-35 15:-4 16:34 17:18 18:-1 19:63 20:9 21:9 22:0 23:29 24:-4 25:1 26:-35 27:-4 28:34 29:18 30:-1 31:63 32:9 33:9 34:0 35:29 36:-4 37:1 38:-35 39:-4 40:34 41:18 42:-2 43:63 44:9 45:9 46:0 47:29 48:-4 49:1 50:-35 51:-4 52:34 53:18 54:-2 55:63 56:7 57:9 58:0 59:29 60:-4 
-2.371316853444067 1:1 2:-35 3:-4 4:34 5:17 6:-2 7:64 8:5 9:9 10:0 11:29 12:-4 13:1 14:-35 15:-4 16:34 17:17 18:-2 19:64 20:6 21:9 22:0 23:29 24:-4 25:1 26:-35 27:-4 28:34 29:17 30:-2 31:64 32:6 33:9 34:0 35:29 36:-4 37:1 38:-35 39:-4 40:34 41:17 42:-2 43:64 44:8 45:10 46:0 47:29 48:-4 49:1 50:-35 51:-4 52:34 53:18 54:-2 55:64 56:8 57:10 58:0 59:29 60:-4 
-30.82802547770701 1:1 2:-35 3:-4 4:34 5:17 6:-2 7:64 8:6 9:9 10:0 11:29 12:-4 13:1 14:-35 15:-4 16:34 17:17 18:-2 19:64 20:6 21:9 22:0 23:29 24:-4 25:1 26:-35 27:-4 28:34 29:17 30:-2 31:64 32:8 33:10 34:0 35:29 36:-4 37:1 38:-35 39:-4 40:34 41:18 42:-2 43:64 44:8 45:10 46:0 47:29 48:-4 49:1 50:-35 51:-4 52:33 53:18 54:-3 55:64 56:9 57:10 58:0 59:29 60:-4 
-29.58362552374677 1:4 2:-42 3:-4 4:-64 5:1 6:-16 7:-30 8:17 9:-8 10:-1 11:34 12:-3 13:5 14:-42 15:-4 16:-64 17:4 18:-16 19:-30 20:18 21:-8 22:-1 23:34 24:-3 25:5 26:-42 27:-4 28:-64 29:5 30:-15 31:-30 32:17 33:-8 34:0 35:34 36:-3 37:4 38:-42 39:-3 40:-64 41:5 42:-16 43:-29 44:16 45:-8 46:0 47:33 48:-3 49:3 50:-42 51:-3 52:-64 53:5 54:-16 55:-29 56:14 57:-7 58:0 59:33 60:-3 
-18.7782094740074 1:2 2:-42 3:-2 4:-63 5:4 6:-16 7:-27 8:14 9:-7 10:0 11:33 12:-3 13:2 14:-41 15:-2 16:-63 17:4 18:-15 19:-27 20:14 21:-8 22:0 23:32 24:-3 25:2 26:-41 27:-1 28:-63 29:3 30:-15 31:-26 32:14 33:-8 34:0 35:32 36:-3 37:2 38:-41 39:-1 40:-63 41:3 42:-15 43:-26 44:14 45:-8 46:0 47:32 48:-3 49:2 50:-41 51:-1 52:-62 53:4 54:-16 55:-26 56:13 57:-8 58:0 59:32 60:-3 
-16.28555995643652 1:2 2:-37 3:0 4:-51 5:23 6:-21 7:-9 8:27 9:-13 10:0 11:29 12:-4 13:3 14:-36 15:-1 16:-49 17:25 18:-22 19:-5 20:27 21:-14 22:0 23:29 24:-4 25:3 26:-36 27:-1 28:-46 29:27 30:-22 31:-11 32:33 33:-16 34:0 35:29 36:-4 37:3 38:-36 39:-1 40:-44 41:28 42:-22 43:-11 44:33 45:-16 46:0 47:29 48:-4 49:3 50:-36 51:-1 52:-43 53:29 54:-22 55:-10 56:33 57:-16 58:0 59:29 60:-4 
-17.59149585554163 1:3 2:-35 3:-3 4:24 5:33 6:-7 7:50 8:25 9:3 10:0 11:29 12:-4 13:3 14:-35 15:-3 16:27 17:30 18:-6 19:51 20:22 21:4 22:1 23:29 24:-4 25:2 26:-35 27:-4 28:28 29:29 30:-5 31:54 32:19 33:4 34:1 35:29 36:-4 37:2 38:-35 39:-4 40:29 41:27 42:-5 43:57 44:16 45:5 46:1 47:29 48:-4 49:2 50:-35 51:-4 52:31 53:25 54:-3 55:58 56:14 57:6 58:1 59:29 60:-4 
-18.54519420468002 1:1 2:-35 3:-4 4:34 5:19 6:-1 7:63 8:10 9:8 10:0 11:29 12:-4 13:1 14:-35 15:-4 16:34 17:18 18:-1 19:63 20:9 21:9 22:0 23:29 24:-4 25:1 26:-35 27:-4 28:34 29:18 30:-1 31:63 32:9 33:9 34:0 35:29 36:-4 37:1 38:-35 39:-4 40:34 41:18 42:-2 43:63 44:9 45:9 46:0 47:29 48:-4 49:1 50:-35 51:-4 52:34 53:18 54:-2 55:63 56:7 57:9 58:0 59:29 60:-4 
-30.82802547770701 1:1 2:-35 3:-4 4:34 5:17 6:-2 7:64 8:5 9:9 10:0 11:29 12:-4 13:1 14:-35 15:-4 16:34 17:17 18:-2 19:64 20:6 21:9 22:0 23:29 24:-4 25:1 26:-35 27:-4 28:34 29:17 30:-2 31:64 32:6 33:9 34:0 35:29 36:-4 37:1 38:-35 39:-4 40:34 41:17 42:-2 43:64 44:8 45:10 46:0 47:29 48:-4 49:1 50:-35 51:-4 52:34 53:18 54:-2 55:64 56:8 57:10 58:0 59:29 60:-4 
-30.82802547770701 1:1 2:-35 3:-4 4:34 5:17 6:-2 7:64 8:6 9:9 10:0 11:29 12:-4 13:1 14:-35 15:-4 16:34 17:17 18:-2 19:64 20:6 21:9 22:0 23:29 24:-4 25:1 26:-35 27:-4 28:34 29:17 30:-2 31:64 32:8 33:10 34:0 35:29 36:-4 37:1 38:-35 39:-4 40:34 41:18 42:-2 43:64 44:8 45:10 46:0 47:29 48:-4 49:1 50:-35 51:-4 52:33 53:18 54:-3 55:64 56:9 57:10 58:0 59:29 60:-4 
