svm_type c_svc
kernel_type rbf
gamma 6.10352e-005
nr_class 2
total_sv 20
rho -0.0407403
label 1 3
nr_sv 9 11
SV
50.17777713139851 1:4 2:-37 3:-1 4:-11 5:33 6:-9 7:12 8:29 9:-4 10:0 11:29 12:-3 13:4 14:-37 15:-1 16:-11 17:34 18:-9 19:12 20:30 21:-4 22:0 23:29 24:-3 25:5 26:-36 27:-2 28:-11 29:35 30:-9 31:13 32:31 33:-5 34:0 35:29 36:-3 37:5 38:-36 39:-2 40:-12 41:36 42:-9 43:13 44:32 45:-5 46:0 47:29 48:-3 49:5 50:-35 51:-2 52:-13 53:36 54:-8 55:13 56:32 57:-5 58:0 59:29 60:-4 
50.17777713139851 1:4 2:-37 3:-1 4:-11 5:34 6:-9 7:12 8:30 9:-4 10:0 11:29 12:-3 13:5 14:-36 15:-2 16:-11 17:35 18:-9 19:13 20:31 21:-5 22:0 23:29 24:-3 25:5 26:-36 27:-2 28:-12 29:36 30:-9 31:13 32:32 33:-5 34:0 35:29 36:-3 37:5 38:-35 39:-2 40:-13 41:36 42:-8 43:13 44:32 45:-5 46:0 47:29 48:-4 49:5 50:-35 51:-2 52:-13 53:36 54:-8 55:12 56:30 57:-4 58:0 59:29 60:-4 
50.17777713139851 1:5 2:-36 3:-2 4:-11 5:35 6:-9 7:13 8:31 9:-5 10:0 11:29 12:-3 13:5 14:-36 15:-2 16:-12 17:36 18:-9 19:13 20:32 21:-5 22:0 23:29 24:-3 25:5 26:-35 27:-2 28:-13 29:36 30:-8 31:13 32:32 33:-5 34:0 35:29 36:-4 37:5 38:-35 39:-2 40:-13 41:36 42:-8 43:12 44:30 45:-4 46:0 47:29 48:-4 49:5 50:-35 51:-2 52:-13 53:36 54:-8 55:11 56:29 57:-4 58:0 59:29 60:-4 
50.17777713139851 1:5 2:-36 3:-2 4:-12 5:36 6:-9 7:13 8:32 9:-5 10:0 11:29 12:-3 13:5 14:-35 15:-2 16:-13 17:36 18:-8 19:13 20:32 21:-5 22:0 23:29 24:-4 25:5 26:-35 27:-2 28:-13 29:36 30:-8 31:12 32:30 33:-4 34:0 35:29 36:-4 37:5 38:-35 39:-2 40:-13 41:36 42:-8 43:11 44:29 45:-4 46:0 47:29 48:-4 49:5 50:-35 51:-2 52:-13 53:36 54:-8 55:11 56:29 57:-4 58:0 59:29 60:-4 
21.84896380149504 1:4 2:-37 3:-1 4:-15 5:28 6:-6 7:13 8:28 9:-2 10:0 11:29 12:-3 13:4 14:-37 15:-1 16:-11 17:33 18:-9 19:12 20:29 21:-4 22:0 23:29 24:-3 25:4 26:-37 27:-1 28:-11 29:34 30:-9 31:12 32:30 33:-4 34:0 35:29 36:-3 37:5 38:-36 39:-2 40:-11 41:35 42:-9 43:13 44:31 45:-5 46:0 47:29 48:-3 49:5 50:-36 51:-2 52:-12 53:36 54:-9 55:13 56:32 57:-5 58:0 59:29 60:-3 
50.17777713139851 1:4 2:-37 3:-1 4:-11 5:33 6:-9 7:12 8:29 9:-4 10:0 11:29 12:-3 13:4 14:-37 15:-1 16:-11 17:34 18:-9 19:12 20:30 21:-4 22:0 23:29 24:-3 25:5 26:-36 27:-2 28:-11 29:35 30:-9 31:13 32:31 33:-5 34:0 35:29 36:-3 37:5 38:-36 39:-2 40:-12 41:36 42:-9 43:13 44:32 45:-5 46:0 47:29 48:-3 49:5 50:-35 51:-2 52:-13 53:36 54:-8 55:13 56:32 57:-5 58:0 59:29 60:-4 
50.17777713139851 1:4 2:-37 3:-1 4:-11 5:34 6:-9 7:12 8:30 9:-4 10:0 11:29 12:-3 13:5 14:-36 15:-2 16:-11 17:35 18:-9 19:13 20:31 21:-5 22:0 23:29 24:-3 25:5 26:-36 27:-2 28:-12 29:36 30:-9 31:13 32:32 33:-5 34:0 35:29 36:-3 37:5 38:-35 39:-2 40:-13 41:36 42:-8 43:13 44:32 45:-5 46:0 47:29 48:-4 49:5 50:-35 51:-2 52:-13 53:36 54:-8 55:12 56:30 57:-4 58:0 59:29 60:-4 
50.17777713139851 1:5 2:-36 3:-2 4:-11 5:35 6:-9 7:13 8:31 9:-5 10:0 11:29 12:-3 13:5 14:-36 15:-2 16:-12 17:36 18:-9 19:13 20:32 21:-5 22:0 23:29 24:-3 25:5 26:-35 27:-2 28:-13 29:36 30:-8 31:13 32:32 33:-5 34:0 35:29 36:-4 37:5 38:-35 39:-2 40:-13 41:36 42:-8 43:12 44:30 45:-4 46:0 47:29 48:-4 49:5 50:-35 51:-2 52:-13 53:36 54:-8 55:11 56:29 57:-4 58:0 59:29 60:-4 
50.17777713139851 1:5 2:-36 3:-2 4:-12 5:36 6:-9 7:13 8:32 9:-5 10:0 11:29 12:-3 13:5 14:-35 15:-2 16:-13 17:36 18:-8 19:13 20:32 21:-5 22:0 23:29 24:-4 25:5 26:-35 27:-2 28:-13 29:36 30:-8 31:12 32:30 33:-4 34:0 35:29 36:-4 37:5 38:-35 39:-2 40:-13 41:36 42:-8 43:11 44:29 45:-4 46:0 47:29 48:-4 49:5 50:-35 51:-2 52:-13 53:36 54:-8 55:11 56:29 57:-4 58:0 59:29 60:-4 
-65.82222191492717 1:6 2:-35 3:-2 4:-12 5:36 6:-8 7:11 8:30 9:-4 10:1 11:29 12:-3 13:6 14:-35 15:-2 16:-12 17:36 18:-8 19:12 20:30 21:-5 22:1 23:29 24:-3 25:6 26:-35 27:-2 28:-12 29:36 30:-8 31:11 32:30 33:-5 34:1 35:29 36:-4 37:5 38:-35 39:-2 40:-12 41:36 42:-8 43:11 44:30 45:-5 46:0 47:29 48:-4 49:5 50:-35 51:-3 52:-13 53:36 54:-9 55:11 56:30 57:-5 58:0 59:29 60:-4 
-50.17777713139851 1:6 2:-35 3:-2 4:-12 5:36 6:-8 7:12 8:30 9:-5 10:1 11:29 12:-3 13:6 14:-35 15:-2 16:-12 17:36 18:-8 19:11 20:30 21:-5 22:1 23:29 24:-4 25:5 26:-35 27:-2 28:-12 29:36 30:-8 31:11 32:30 33:-5 34:0 35:29 36:-4 37:5 38:-35 39:-3 40:-13 41:36 42:-9 43:11 44:30 45:-5 46:0 47:29 48:-4 49:4 50:-35 51:-3 52:-13 53:36 54:-9 55:10 56:30 57:-5 58:0 59:29 60:-4 
-10.77984410113841 1:4 2:-35 3:-3 4:-13 5:36 6:-9 7:10 8:30 9:-5 10:0 11:29 12:-4 13:4 14:-35 15:-3 16:-13 17:36 18:-9 19:10 20:30 21:-5 22:0 23:29 24:-4 25:4 26:-35 27:-3 28:-13 29:36 30:-9 31:11 32:30 33:-5 34:0 35:29 36:-4 37:5 38:-34 39:-2 40:-12 41:36 42:-8 43:11 44:30 45:-5 46:1 47:29 48:-4 49:6 50:-34 51:-2 52:-11 53:36 54:-8 55:12 56:30 57:-5 58:1 59:29 60:-4 
-32.63443454470114 1:6 2:-35 3:-2 4:-12 5:36 6:-8 7:11 8:29 9:-3 10:0 11:29 12:-3 13:6 14:-35 15:-2 16:-13 17:36 18:-8 19:11 20:30 21:-4 22:0 23:29 24:-3 25:6 26:-35 27:-2 28:-12 29:36 30:-8 31:11 32:30 33:-4 34:0 35:29 36:-3 37:6 38:-35 39:-2 40:-12 41:36 42:-8 43:11 44:30 45:-4 46:1 47:29 48:-3 49:6 50:-35 51:-2 52:-12 53:36 54:-8 55:11 56:30 57:-4 58:1 59:29 60:-3 
-5.859276971509186 1:6 2:-35 3:-2 4:-13 5:36 6:-8 7:11 8:30 9:-4 10:0 11:29 12:-3 13:6 14:-35 15:-2 16:-12 17:36 18:-8 19:11 20:30 21:-4 22:0 23:29 24:-3 25:6 26:-35 27:-2 28:-12 29:36 30:-8 31:11 32:30 33:-4 34:1 35:29 36:-3 37:6 38:-35 39:-2 40:-12 41:36 42:-8 43:11 44:30 45:-4 46:1 47:29 48:-3 49:6 50:-35 51:-2 52:-12 53:36 54:-8 55:12 56:30 57:-5 58:1 59:29 60:-3 
-34.74640135010323 1:6 2:-35 3:-2 4:-12 5:36 6:-8 7:11 8:30 9:-4 10:0 11:29 12:-3 13:6 14:-35 15:-2 16:-12 17:36 18:-8 19:11 20:30 21:-4 22:1 23:29 24:-3 25:6 26:-35 27:-2 28:-12 29:36 30:-8 31:11 32:30 33:-4 34:1 35:29 36:-3 37:6 38:-35 39:-2 40:-12 41:36 42:-8 43:12 44:30 45:-5 46:1 47:29 48:-3 49:6 50:-35 51:-2 52:-12 53:36 54:-8 55:11 56:30 57:-5 58:1 59:29 60:-4 
-42.10627078604171 1:6 2:-35 3:-2 4:-12 5:36 6:-8 7:11 8:30 9:-4 10:1 11:29 12:-3 13:6 14:-35 15:-2 16:-12 17:36 18:-8 19:11 20:30 21:-4 22:1 23:29 24:-3 25:6 26:-35 27:-2 28:-12 29:36 30:-8 31:12 32:30 33:-5 34:1 35:29 36:-3 37:6 38:-35 39:-2 40:-12 41:36 42:-8 43:11 44:30 45:-5 46:1 47:29 48:-4 49:5 50:-35 51:-2 52:-12 53:36 54:-8 55:11 56:30 57:-5 58:0 59:29 60:-4 
-55.07154171566639 1:6 2:-35 3:-2 4:-12 5:36 6:-8 7:11 8:30 9:-4 10:1 11:29 12:-3 13:6 14:-35 15:-2 16:-12 17:36 18:-8 19:12 20:30 21:-5 22:1 23:29 24:-3 25:6 26:-35 27:-2 28:-12 29:36 30:-8 31:11 32:30 33:-5 34:1 35:29 36:-4 37:5 38:-35 39:-2 40:-12 41:36 42:-8 43:11 44:30 45:-5 46:0 47:29 48:-4 49:5 50:-35 51:-3 52:-13 53:36 54:-9 55:11 56:30 57:-5 58:0 59:29 60:-4 
-59.86487628106243 1:6 2:-35 3:-2 4:-12 5:36 6:-8 7:12 8:30 9:-5 10:1 11:29 12:-3 13:6 14:-35 15:-2 16:-12 17:36 18:-8 19:11 20:30 21:-5 22:1 23:29 24:-4 25:5 26:-35 27:-2 28:-12 29:36 30:-8 31:11 32:30 33:-5 34:0 35:29 36:-4 37:5 38:-35 39:-3 40:-13 41:36 42:-9 43:11 44:30 45:-5 46:0 47:29 48:-4 49:4 50:-35 51:-3 52:-13 53:36 54:-9 55:10 56:30 57:-5 58:0 59:29 60:-4 
-59.41158742032496 1:4 2:-35 3:-3 4:-13 5:36 6:-9 7:10 8:30 9:-5 10:0 11:29 12:-4 13:4 14:-35 15:-3 16:-13 17:36 18:-9 19:10 20:30 21:-5 22:0 23:29 24:-4 25:4 26:-35 27:-3 28:-13 29:36 30:-9 31:11 32:30 33:-5 34:0 35:29 36:-4 37:5 38:-34 39:-2 40:-12 41:36 42:-8 43:11 44:30 45:-5 46:1 47:29 48:-4 49:6 50:-34 51:-2 52:-11 53:36 54:-8 55:12 56:30 57:-5 58:1 59:29 60:-4 
-6.796948635810016 1:4 2:-35 3:-3 4:-13 5:36 6:-9 7:10 8:30 9:-5 10:0 11:29 12:-4 13:4 14:-35 15:-3 16:-13 17:36 18:-9 19:11 20:30 21:-5 22:0 23:29 24:-4 25:5 26:-34 27:-2 28:-12 29:36 30:-8 31:11 32:30 33:-5 34:1 35:29 36:-4 37:6 38:-34 39:-2 40:-11 41:36 42:-8 43:12 44:30 45:-5 46:1 47:29 48:-4 49:6 50:-34 51:-2 52:-11 53:36 54:-8 55:12 56:30 57:-5 58:2 59:29 60:-4 
