svm_type c_svc
kernel_type rbf
gamma 0.00012207
nr_class 2
total_sv 275
rho -25.3546
label 1 3
nr_sv 147 128
SV
184.6496387985049 1:0 2:0 3:-2 4:0 5:0 6:-2 7:-2 8:0 9:-2 10:0 11:0 12:-2 13:0 14:-1 15:0 16:0 17:-1 18:0 19:-1 20:-1 21:0 22:0 23:0 24:0 25:0 26:-1 27:1 28:0 29:-1 30:1 31:0 32:-1 33:1 34:0 35:0 36:1 37:0 38:-1 39:2 40:0 41:-1 42:2 43:1 44:-1 45:2 46:0 47:0 48:2 49:0 50:-1 51:3 52:0 53:-1 54:3 55:2 56:-1 57:3 58:0 59:0 60:3 
404.4806926393118 1:1 2:-2 3:2 4:-7 5:1 6:0 7:-1 8:-3 9:-1 10:0 11:-3 12:0 13:0 14:-1 15:1 16:-6 17:0 18:0 19:-1 20:0 21:0 22:0 23:-1 24:0 25:0 26:0 27:1 28:-4 29:0 30:0 31:0 32:1 33:0 34:-1 35:0 36:0 37:0 38:1 39:0 40:3 41:-1 42:1 43:0 44:1 45:1 46:-1 47:1 48:0 49:-2 50:2 51:0 52:10 53:-4 54:1 55:0 56:0 57:2 58:-2 59:2 60:1 
404.4806926393118 1:-1 2:-2 3:1 4:-3 5:-3 6:-4 7:-1 8:-4 9:0 10:0 11:0 12:1 13:-1 14:-2 15:1 16:-2 17:-1 18:-2 19:0 20:-3 21:0 22:0 23:-1 24:0 25:-1 26:-1 27:0 28:0 29:0 30:1 31:0 32:0 33:1 34:0 35:0 36:0 37:-1 38:0 39:0 40:2 41:1 42:3 43:0 44:2 45:1 46:-1 47:0 48:0 49:0 50:1 51:0 52:3 53:3 54:5 55:1 56:4 57:2 58:-1 59:0 60:0 
404.4806926393118 1:-1 2:-3 3:1 4:-2 5:-3 6:-3 7:-1 8:-4 9:0 10:0 11:-1 12:1 13:-1 14:-2 15:1 16:0 17:-2 18:-1 19:-1 20:-2 21:0 22:-1 23:-1 24:1 25:0 26:-1 27:1 28:1 29:0 30:1 31:0 32:0 33:1 34:-1 35:-1 36:1 37:0 38:0 39:0 40:1 41:1 42:2 43:0 44:1 45:1 46:-1 47:0 48:1 49:0 50:2 51:0 52:1 53:3 54:4 55:0 56:3 57:2 58:0 59:1 60:0 
404.4806926393118 1:0 2:-3 3:0 4:0 5:-5 6:-3 7:0 8:-3 9:0 10:-1 11:-1 12:2 13:0 14:-1 15:0 16:0 17:-3 18:-1 19:0 20:-1 21:1 22:0 23:0 24:1 25:0 26:0 27:0 28:1 29:-1 30:1 31:0 32:0 33:1 34:0 35:0 36:0 37:-2 38:0 39:0 40:1 41:1 42:2 43:0 44:0 45:1 46:0 47:-1 48:0 49:-2 50:2 51:0 52:2 53:5 54:4 55:0 56:2 57:1 58:0 59:1 60:0 
404.4806926393118 1:1 2:0 3:2 4:0 5:-1 6:2 7:-2 8:4 9:2 10:0 11:0 12:0 13:0 14:0 15:1 16:0 17:-1 18:1 19:0 20:1 21:1 22:0 23:0 24:0 25:0 26:0 27:1 28:0 29:0 30:0 31:1 32:0 33:1 34:0 35:-1 36:0 37:-1 38:0 39:0 40:0 41:-1 42:0 43:2 44:-2 45:0 46:0 47:-1 48:0 49:-1 50:-1 51:0 52:0 53:-1 54:0 55:3 56:-3 57:-1 58:0 59:-1 60:0 
404.4806926393118 1:0 2:0 3:1 4:0 5:1 6:1 7:-2 8:3 9:2 10:0 11:0 12:0 13:-1 14:0 15:0 16:0 17:0 18:1 19:-1 20:1 21:1 22:0 23:0 24:0 25:-1 26:-1 27:0 28:0 29:0 30:1 31:0 32:0 33:0 34:0 35:0 36:0 37:-1 38:-1 39:0 40:0 41:-1 42:0 43:1 44:-1 45:-1 46:0 47:-1 48:0 49:-1 50:-2 51:0 52:0 53:-1 54:0 55:2 56:-3 57:-1 58:0 59:-1 60:0 
404.4806926393118 1:0 2:1 3:0 4:-1 5:-1 6:2 7:-1 8:2 9:1 10:0 11:0 12:0 13:0 14:0 15:0 16:-1 17:-1 18:2 19:0 20:0 21:1 22:0 23:0 24:0 25:0 26:0 27:0 28:-1 29:0 30:1 31:0 32:-1 33:1 34:0 35:0 36:0 37:0 38:0 39:0 40:-1 41:0 42:-1 43:1 44:-1 45:0 46:0 47:0 48:0 49:0 50:-1 51:0 52:0 53:0 54:-3 55:2 56:-1 57:0 58:0 59:-1 60:0 
236.4449305804427 1:-1 2:1 3:-1 4:-1 5:0 6:3 7:1 8:2 9:1 10:0 11:0 12:0 13:-1 14:1 15:-1 16:0 17:-1 18:2 19:1 20:0 21:1 22:0 23:0 24:0 25:0 26:0 27:0 28:-1 29:-1 30:1 31:0 32:0 33:1 34:0 35:0 36:0 37:1 38:-1 39:1 40:-1 41:-1 42:-1 43:0 44:-1 45:0 46:0 47:-1 48:0 49:1 50:-1 51:2 52:0 53:0 54:-4 55:0 56:-2 57:-1 58:0 59:-1 60:0 
227.6568101862662 1:-4 2:-1 3:2 4:-3 5:-3 6:3 7:-1 8:-3 9:1 10:-2 11:0 12:1 13:-2 14:0 15:2 16:-1 17:-2 18:3 19:0 20:-1 21:0 22:-2 23:1 24:1 25:0 26:-1 27:0 28:-1 29:-2 30:2 31:0 32:0 33:0 34:0 35:-1 36:0 37:2 38:0 39:-1 40:1 41:1 42:-1 43:1 44:0 45:0 46:1 47:-2 48:0 49:3 50:1 51:-1 52:3 53:3 54:-3 55:1 56:1 57:-1 58:1 59:-2 60:1 
154.6160761482753 1:1 2:1 3:-3 4:-7 5:4 6:-10 7:2 8:1 9:6 10:0 11:0 12:0 13:1 14:0 15:-1 16:-3 17:2 18:-4 19:1 20:1 21:2 22:0 23:0 24:0 25:0 26:0 27:0 28:2 29:-1 30:1 31:0 32:1 33:0 34:0 35:0 36:0 37:-1 38:-1 39:1 40:4 41:-2 42:6 43:0 44:-1 45:-2 46:0 47:0 48:0 49:-2 50:-1 51:3 52:6 53:-3 54:10 55:0 56:-2 57:-4 58:0 59:0 60:0 
404.4806926393118 1:0 2:0 3:0 4:1 5:-1 6:0 7:-2 8:0 9:-13 10:0 11:0 12:0 13:0 14:0 15:0 16:1 17:-1 18:0 19:0 20:0 21:-3 22:0 23:0 24:0 25:0 26:0 27:0 28:1 29:-1 30:0 31:2 32:0 33:6 34:0 35:0 36:0 37:-1 38:0 39:1 40:0 41:-1 42:0 43:2 44:0 45:6 46:0 47:0 48:0 49:-1 50:0 51:1 52:0 53:0 54:0 55:2 56:0 57:6 58:0 59:0 60:0 
213.0929890498106 1:0 2:0 3:0 4:1 5:-1 6:0 7:-1 8:-1 9:-5 10:0 11:0 12:0 13:0 14:0 15:0 16:1 17:-1 18:0 19:1 20:-1 21:4 22:0 23:0 24:0 25:-1 26:0 27:1 28:0 29:-1 30:0 31:1 32:-1 33:4 34:0 35:0 36:0 37:-1 38:0 39:1 40:0 41:0 42:0 43:1 44:-1 45:4 46:0 47:0 48:0 49:-1 50:0 51:1 52:0 53:1 54:0 55:-2 56:0 57:-5 58:0 59:0 60:0 
247.0624627190709 1:0 2:0 3:0 4:0 5:0 6:0 7:6 8:1 9:2 10:0 11:0 12:0 13:0 14:0 15:0 16:0 17:0 18:0 19:2 20:0 21:1 22:0 23:0 24:0 25:0 26:0 27:0 28:0 29:0 30:0 31:-2 32:-1 33:-1 34:0 35:0 36:0 37:0 38:0 39:0 40:0 41:0 42:0 43:-2 44:-1 45:-1 46:0 47:0 48:0 49:0 50:0 51:0 52:0 53:0 54:0 55:-2 56:-1 57:-1 58:0 59:0 60:0 
404.4806926393118 1:-1 2:0 3:0 4:-1 5:1 6:1 7:0 8:-1 9:1 10:0 11:0 12:0 13:-1 14:0 15:0 16:2 17:1 18:1 19:0 20:-1 21:1 22:0 23:0 24:0 25:-1 26:0 27:0 28:2 29:0 30:1 31:0 32:-1 33:1 34:0 35:0 36:0 37:0 38:0 39:2 40:-1 41:-2 42:1 43:1 44:0 45:0 46:0 47:0 48:0 49:0 50:0 51:2 52:-4 53:-4 54:0 55:1 56:1 57:-2 58:0 59:0 60:0 
211.1865873618559 1:0 2:0 3:0 4:-3 5:-2 6:0 7:0 8:-2 9:1 10:0 11:0 12:0 13:0 14:0 15:0 16:-3 17:-2 18:0 19:0 20:-1 21:1 22:0 23:0 24:0 25:0 26:0 27:0 28:0 29:-1 30:0 31:0 32:0 33:0 34:0 35:0 36:0 37:0 38:0 39:0 40:3 41:1 42:0 43:0 44:0 45:0 46:0 47:0 48:0 49:0 50:0 51:0 52:3 53:1 54:0 55:0 56:0 57:0 58:0 59:0 60:0 
404.4806926393118 1:0 2:0 3:0 4:-5 5:-2 6:0 7:0 8:-1 9:1 10:0 11:0 12:0 13:0 14:0 15:0 16:-2 17:-1 18:0 19:0 20:0 21:0 22:0 23:0 24:0 25:0 26:0 27:0 28:1 29:1 30:0 31:0 32:0 33:0 34:0 35:0 36:0 37:0 38:0 39:0 40:1 41:1 42:0 43:0 44:0 45:0 46:0 47:0 48:0 49:0 50:0 51:0 52:1 53:1 54:0 55:0 56:-1 57:2 58:0 59:0 60:0 
404.4806926393118 1:0 2:0 3:0 4:0 5:0 6:0 7:1 8:1 9:-1 10:0 11:0 12:0 13:0 14:0 15:0 16:0 17:0 18:0 19:1 20:1 21:-1 22:0 23:0 24:0 25:0 26:0 27:0 28:0 29:0 30:0 31:1 32:0 33:1 34:0 35:0 36:0 37:0 38:0 39:0 40:0 41:0 42:0 43:-1 44:-1 45:2 46:0 47:0 48:0 49:0 50:0 51:0 52:0 53:0 54:0 55:-1 56:-1 57:2 58:0 59:0 60:0 
404.4806926393118 1:0 2:0 3:0 4:0 5:0 6:0 7:2 8:0 9:0 10:0 11:0 12:0 13:0 14:0 15:0 16:0 17:0 18:0 19:0 20:-1 21:1 22:0 23:0 24:0 25:0 26:0 27:0 28:0 29:0 30:0 31:0 32:-1 33:1 34:0 35:0 36:0 37:0 38:0 39:0 40:0 41:0 42:0 43:0 44:-1 45:1 46:0 47:0 48:0 49:0 50:0 51:0 52:0 53:0 54:0 55:2 56:-1 57:1 58:0 59:0 60:0 
404.4806926393118 1:0 2:0 3:0 4:0 5:0 6:0 7:-1 8:0 9:0 10:0 11:0 12:0 13:0 14:0 15:0 16:0 17:0 18:0 19:1 20:0 21:0 22:0 23:0 24:0 25:0 26:0 27:0 28:0 29:0 30:0 31:1 32:0 33:0 34:0 35:0 36:0 37:0 38:0 39:0 40:0 41:0 42:0 43:1 44:0 45:0 46:0 47:0 48:0 49:0 50:0 51:0 52:-1 53:0 54:1 55:1 56:0 57:0 58:0 59:0 60:0 
404.4806926393118 1:0 2:0 3:0 4:2 5:-1 6:0 7:0 8:0 9:0 10:0 11:1 12:0 13:0 14:0 15:0 16:1 17:-1 18:1 19:0 20:0 21:0 22:0 23:1 24:0 25:0 26:-1 27:0 28:0 29:0 30:1 31:0 32:0 33:0 34:-1 35:-1 36:0 37:0 38:-1 39:0 40:-1 41:0 42:1 43:0 44:0 45:0 46:-1 47:-1 48:0 49:0 50:-1 51:0 52:-3 53:0 54:1 55:0 56:-1 57:0 58:-1 59:-1 60:0 
125.5499378808044 1:0 2:0 3:1 4:2 5:-2 6:0 7:1 8:0 9:0 10:0 11:1 12:0 13:0 14:-1 15:1 16:1 17:-1 18:0 19:1 20:0 21:0 22:-1 23:-1 24:0 25:0 26:-1 27:1 28:0 29:-1 30:0 31:1 32:0 33:0 34:-1 35:-1 36:0 37:0 38:-1 39:1 40:-2 41:-1 42:0 43:1 44:-1 45:0 46:-1 47:-1 48:0 49:0 50:-1 51:-2 52:-3 53:1 54:1 55:-1 56:-1 57:0 58:-1 59:-1 60:0 
272.3194767670308 1:0 2:-1 3:2 4:2 5:-2 6:0 7:1 8:0 9:0 10:0 11:0 12:0 13:0 14:-1 15:2 16:1 17:-2 18:0 19:1 20:0 21:0 22:0 23:0 24:0 25:0 26:-1 27:2 28:-1 29:-2 30:0 31:1 32:-1 33:0 34:0 35:0 36:0 37:0 38:-1 39:-1 40:-2 41:0 42:1 43:-1 44:-1 45:0 46:0 47:0 48:0 49:0 50:0 51:-1 52:-2 53:3 54:2 55:-2 56:-1 57:0 58:0 59:0 60:0 
384.4202621707082 1:0 2:2 3:-5 4:0 5:2 6:-4 7:-2 8:2 9:-5 10:0 11:0 12:-5 13:0 14:0 15:-1 16:0 17:0 18:-1 19:-1 20:0 21:-1 22:0 23:-1 24:-1 25:0 26:-1 27:1 28:0 29:-1 30:1 31:0 32:-1 33:1 34:0 35:-1 36:1 37:0 38:-1 39:2 40:0 41:-1 42:2 43:1 44:-1 45:2 46:0 47:-1 48:2 49:0 50:-1 51:3 52:0 53:-1 54:3 55:2 56:-1 57:3 58:0 59:-1 60:3 
404.4806926393118 1:0 2:0 3:-2 4:0 5:0 6:-2 7:-2 8:0 9:-2 10:0 11:0 12:-2 13:0 14:-1 15:0 16:0 17:-1 18:0 19:-1 20:-1 21:0 22:0 23:0 24:0 25:0 26:-1 27:1 28:0 29:-1 30:1 31:0 32:-1 33:1 34:0 35:0 36:1 37:0 38:-1 39:2 40:0 41:-1 42:2 43:1 44:-1 45:2 46:0 47:0 48:2 49:0 50:-1 51:3 52:0 53:-1 54:3 55:2 56:-1 57:3 58:0 59:0 60:3 
0.5813239824609854 1:-4 2:1 3:0 4:-2 5:18 6:-1 7:-4 8:-17 9:-8 10:-2 11:1 12:-2 13:-2 14:1 15:0 16:-3 17:14 18:5 19:-2 20:-7 21:-5 22:0 23:1 24:0 25:0 26:-1 27:1 28:-3 29:15 30:5 31:0 32:1 33:0 34:0 35:0 36:1 37:2 38:-2 39:1 40:3 41:-9 42:0 43:2 44:7 45:6 46:0 47:-2 48:1 49:3 50:-2 51:2 52:5 53:-39 54:-5 55:3 56:12 57:11 58:0 59:-3 60:1 
0.003149361924897781 1:-4 2:2 3:-1 4:-5 5:25 6:5 7:-4 8:-13 9:-10 10:0 11:2 12:-1 13:-2 14:0 15:0 16:-5 17:26 18:5 19:-2 20:-5 21:-5 22:0 23:1 24:0 25:0 26:-1 27:0 28:1 29:2 30:0 31:0 32:1 33:1 34:0 35:-1 36:0 37:1 38:-1 39:1 40:3 41:-28 42:-5 43:1 44:6 45:6 46:0 47:-2 48:0 49:2 50:-1 51:2 52:3 53:-28 54:-5 55:2 56:10 57:10 58:0 59:-2 60:2 
0.003586978266259205 1:-3 2:0 3:-1 4:-6 5:36 6:8 7:-3 8:-10 9:-10 10:0 11:2 12:-1 13:-1 14:-1 15:-1 16:0 17:12 18:3 19:-1 20:-4 21:-4 22:0 23:0 24:-1 25:0 26:-1 27:0 28:2 29:-18 30:-2 31:0 32:1 33:1 34:0 35:-1 36:-1 37:1 38:-1 39:1 40:2 41:-18 42:-2 43:1 44:5 45:5 46:0 47:-1 48:1 49:2 50:-1 51:2 52:-1 53:-13 54:-6 55:2 56:8 57:8 58:0 59:-1 60:2 
384.8598693980031 1:0 2:-2 3:1 4:0 5:-2 6:1 7:-2 8:-5 9:-2 10:0 11:-1 12:0 13:0 14:-1 15:1 16:-2 17:1 18:2 19:-1 20:-3 21:0 22:0 23:-1 24:1 25:0 26:-1 27:1 28:-2 29:1 30:0 31:0 32:0 33:1 34:0 35:-1 36:1 37:-1 38:0 39:0 40:-1 41:0 42:0 43:0 44:3 45:2 46:0 47:1 48:1 49:-1 50:1 51:0 52:1 53:0 54:0 55:1 56:4 57:2 58:-1 59:2 60:1 
404.4806926393118 1:1 2:-2 3:2 4:-7 5:1 6:0 7:-1 8:-3 9:-1 10:0 11:-3 12:0 13:0 14:-1 15:1 16:-6 17:0 18:0 19:-1 20:0 21:0 22:0 23:-1 24:0 25:0 26:0 27:1 28:-4 29:0 30:0 31:0 32:1 33:0 34:-1 35:0 36:0 37:0 38:1 39:0 40:3 41:-1 42:1 43:0 44:1 45:1 46:-1 47:1 48:0 49:-2 50:2 51:0 52:10 53:-4 54:1 55:0 56:0 57:2 58:-2 59:2 60:1 
199.8757588209109 1:1 2:-2 3:1 4:-11 5:4 6:-1 7:0 8:-1 9:-1 10:0 11:-2 12:0 13:1 14:-1 15:0 16:-4 17:3 18:0 19:0 20:-1 21:0 22:0 23:-1 24:0 25:-1 26:0 27:0 28:3 29:0 30:0 31:0 32:-2 33:1 34:-1 35:0 36:1 37:-1 38:0 39:0 40:5 41:-4 42:0 43:-1 44:0 45:1 46:-1 47:0 48:1 49:-2 50:0 51:1 52:5 53:-7 54:2 55:-2 56:0 57:0 58:-1 59:0 60:1 
404.4806926393118 1:-1 2:-2 3:1 4:-3 5:-3 6:-4 7:-1 8:-4 9:0 10:0 11:0 12:1 13:-1 14:-2 15:1 16:-2 17:-1 18:-2 19:0 20:-3 21:0 22:0 23:-1 24:0 25:-1 26:-1 27:0 28:0 29:0 30:1 31:0 32:0 33:1 34:0 35:0 36:0 37:-1 38:0 39:0 40:2 41:1 42:3 43:0 44:2 45:1 46:-1 47:0 48:0 49:0 50:1 51:0 52:3 53:3 54:5 55:1 56:4 57:2 58:-1 59:0 60:0 
404.4806926393118 1:-1 2:-3 3:1 4:-2 5:-3 6:-3 7:-1 8:-4 9:0 10:0 11:-1 12:1 13:-1 14:-2 15:1 16:0 17:-2 18:-1 19:-1 20:-2 21:0 22:-1 23:-1 24:1 25:0 26:-1 27:1 28:1 29:0 30:1 31:0 32:0 33:1 34:-1 35:-1 36:1 37:0 38:0 39:0 40:1 41:1 42:2 43:0 44:1 45:1 46:-1 47:0 48:1 49:0 50:2 51:0 52:1 53:3 54:4 55:0 56:3 57:2 58:0 59:1 60:0 
404.4806926393118 1:0 2:-3 3:0 4:0 5:-5 6:-3 7:0 8:-3 9:0 10:-1 11:-1 12:2 13:0 14:-1 15:0 16:0 17:-3 18:-1 19:0 20:-1 21:1 22:0 23:0 24:1 25:0 26:0 27:0 28:1 29:-1 30:1 31:0 32:0 33:1 34:0 35:0 36:0 37:-2 38:0 39:0 40:1 41:1 42:2 43:0 44:0 45:1 46:0 47:-1 48:0 49:-2 50:2 51:0 52:2 53:5 54:4 55:0 56:2 57:1 58:0 59:1 60:0 
18.65636662831555 1:0 2:-4 3:0 4:14 5:-17 6:5 7:-3 8:-2 9:-2 10:0 11:-2 12:0 13:0 14:-2 15:0 16:8 17:-9 18:4 19:-3 20:-1 21:-1 22:0 23:-1 24:0 25:0 26:0 27:0 28:3 29:0 30:2 31:-4 32:0 33:-1 34:0 35:0 36:0 37:0 38:1 39:0 40:-5 41:9 42:-1 43:-4 44:2 45:0 46:0 47:1 48:0 49:0 50:2 51:0 52:-20 53:16 54:-6 55:10 56:1 57:8 58:0 59:1 60:0 
1.833324458448393 1:-1 2:-2 3:2 4:26 5:-9 6:3 7:-19 8:4 9:-15 10:-1 11:-1 12:0 13:-1 14:-1 15:2 16:11 17:-2 18:-2 19:-5 20:3 21:-7 22:-1 23:-1 24:0 25:-1 26:0 27:1 28:2 29:2 30:-2 31:8 32:-3 33:4 34:-1 35:-1 36:1 37:0 38:1 39:0 40:-10 41:3 42:-1 43:9 44:-3 45:8 46:0 47:0 48:1 49:0 50:2 51:-1 52:-29 53:3 54:4 55:9 56:-4 57:11 58:0 59:1 60:1 
84.09217480508023 1:-1 2:-3 3:2 4:25 5:1 6:-6 7:-1 8:0 9:-6 10:-1 11:-2 12:0 13:0 14:-2 15:1 16:13 17:2 18:-5 19:0 20:0 21:-2 22:0 23:-1 24:0 25:0 26:-1 27:0 28:-6 29:2 30:0 31:0 32:-1 33:1 34:0 35:0 36:0 37:0 38:1 39:-1 40:-14 41:-1 42:5 43:0 44:-1 45:3 46:0 47:1 48:0 49:0 50:1 51:-1 52:-20 53:-5 54:10 55:1 56:-2 57:4 58:0 59:1 60:0 
83.77457423629546 1:0 2:-2 3:2 4:23 5:4 6:-9 7:0 8:1 9:-4 10:0 11:-2 12:0 13:0 14:-1 15:1 16:4 17:4 18:-4 19:0 20:0 21:-1 22:0 23:-1 24:0 25:0 26:1 27:0 28:-4 29:1 30:1 31:0 32:0 33:1 34:0 35:0 36:0 37:0 38:1 39:0 40:-10 41:-3 42:6 43:1 44:-1 45:2 46:0 47:0 48:0 49:0 50:0 51:-1 52:-14 53:-7 54:9 55:1 56:-2 57:2 58:0 59:-1 60:0 
12.98867261052808 1:0 2:-2 3:2 4:12 5:7 6:-8 7:0 8:1 9:-2 10:0 11:-1 12:0 13:0 14:0 15:1 16:4 17:4 18:-3 19:0 20:1 21:0 22:0 23:0 24:0 25:0 26:0 27:1 28:-2 29:0 30:2 31:1 32:0 33:1 34:0 35:0 36:0 37:0 38:-1 39:0 40:-6 41:-4 42:5 43:1 44:-1 45:1 46:0 47:-1 48:0 49:0 50:-1 51:0 52:-8 53:-8 54:6 55:2 56:-3 57:3 58:0 59:-1 60:0 
404.4806926393118 1:1 2:0 3:2 4:0 5:-1 6:2 7:-2 8:4 9:2 10:0 11:0 12:0 13:0 14:0 15:1 16:0 17:-1 18:1 19:0 20:1 21:1 22:0 23:0 24:0 25:0 26:0 27:1 28:0 29:0 30:0 31:1 32:0 33:1 34:0 35:-1 36:0 37:-1 38:0 39:0 40:0 41:-1 42:0 43:2 44:-2 45:0 46:0 47:-1 48:0 49:-1 50:-1 51:0 52:0 53:-1 54:0 55:3 56:-3 57:-1 58:0 59:-1 60:0 
404.4806926393118 1:0 2:0 3:1 4:0 5:1 6:1 7:-2 8:3 9:2 10:0 11:0 12:0 13:-1 14:0 15:0 16:0 17:0 18:1 19:-1 20:1 21:1 22:0 23:0 24:0 25:-1 26:-1 27:0 28:0 29:0 30:1 31:0 32:0 33:0 34:0 35:0 36:0 37:-1 38:-1 39:0 40:0 41:-1 42:0 43:1 44:-1 45:-1 46:0 47:-1 48:0 49:-1 50:-2 51:0 52:0 53:-1 54:0 55:2 56:-3 57:-1 58:0 59:-1 60:0 
404.4806926393118 1:0 2:1 3:0 4:-1 5:-1 6:2 7:-1 8:2 9:1 10:0 11:0 12:0 13:0 14:0 15:0 16:-1 17:-1 18:2 19:0 20:0 21:1 22:0 23:0 24:0 25:0 26:0 27:0 28:-1 29:0 30:1 31:0 32:-1 33:1 34:0 35:0 36:0 37:0 38:0 39:0 40:-1 41:0 42:-1 43:1 44:-1 45:0 46:0 47:0 48:0 49:0 50:-1 51:0 52:0 53:0 54:-3 55:2 56:-1 57:0 58:0 59:-1 60:0 
250.4707129676663 1:-1 2:1 3:-1 4:-1 5:0 6:3 7:1 8:2 9:1 10:0 11:0 12:0 13:-1 14:1 15:-1 16:0 17:-1 18:2 19:1 20:0 21:1 22:0 23:0 24:0 25:0 26:0 27:0 28:-1 29:-1 30:1 31:0 32:0 33:1 34:0 35:0 36:0 37:1 38:-1 39:1 40:-1 41:-1 42:-1 43:0 44:-1 45:0 46:0 47:-1 48:0 49:1 50:-1 51:2 52:0 53:0 54:-4 55:0 56:-2 57:-1 58:0 59:-1 60:0 
396.106642816433 1:-4 2:-1 3:2 4:-3 5:-3 6:3 7:-1 8:-3 9:1 10:-2 11:0 12:1 13:-2 14:0 15:2 16:-1 17:-2 18:3 19:0 20:-1 21:0 22:-2 23:1 24:1 25:0 26:-1 27:0 28:-1 29:-2 30:2 31:0 32:0 33:0 34:0 35:-1 36:0 37:2 38:0 39:-1 40:1 41:1 42:-1 43:1 44:0 45:0 46:1 47:-2 48:0 49:3 50:1 51:-1 52:3 53:3 54:-3 55:1 56:1 57:-1 58:1 59:-2 60:1 
42.46726162603194 1:-4 2:-1 3:3 4:-2 5:-3 6:4 7:0 8:-2 9:1 10:-3 11:2 12:1 13:-2 14:-2 15:1 16:-2 17:-3 18:3 19:0 20:-1 21:1 22:-1 23:0 24:0 25:0 26:-1 27:0 28:0 29:0 30:0 31:1 32:-1 33:1 34:0 35:-1 36:0 37:1 38:0 39:0 40:2 41:2 42:-2 43:1 44:0 45:0 46:0 47:-1 48:1 49:2 50:0 51:0 52:2 53:2 54:-3 55:2 56:0 57:0 58:0 59:0 60:1 
76.5384256635579 1:0 2:-1 3:1 4:-12 5:-5 6:10 7:-1 8:-1 9:-1 10:0 11:0 12:1 13:0 14:-1 15:1 16:-8 17:-4 18:6 19:0 20:-1 21:0 22:0 23:0 24:1 25:1 26:-1 27:1 28:-3 29:-4 30:0 31:0 32:-1 33:1 34:0 35:0 36:1 37:1 38:0 39:0 40:6 41:3 42:-6 43:1 44:-1 45:2 46:0 47:0 48:0 49:1 50:0 51:0 52:16 53:9 54:-9 55:1 56:0 57:1 58:-1 59:0 60:-1 
17.78450755230915 1:0 2:0 3:0 4:-18 5:-10 6:8 7:0 8:-2 9:1 10:1 11:0 12:2 13:0 14:1 15:-1 16:-9 17:-3 18:2 19:1 20:-2 21:2 22:1 23:0 24:1 25:0 26:1 27:-1 28:1 29:3 30:-1 31:1 32:-1 33:1 34:0 35:0 36:0 37:0 38:-1 39:1 40:8 41:4 42:-3 43:1 44:1 45:0 46:-1 47:0 48:-1 49:0 50:-2 51:2 52:16 53:4 54:-3 55:0 56:2 57:-2 58:-2 59:0 60:-1 
20.34152043225851 1:1 2:2 3:-4 4:-22 5:0 6:0 7:1 8:-2 9:5 10:0 11:0 12:0 13:1 14:1 15:-3 16:-14 17:0 18:0 19:0 20:-1 21:3 22:-1 23:0 24:0 25:0 26:0 27:0 28:0 29:0 30:-1 31:-1 32:0 33:0 34:-1 35:0 36:0 37:0 38:-1 39:3 40:14 41:0 42:0 43:0 44:0 45:-2 46:-1 47:0 48:0 49:-1 50:-2 51:4 52:22 53:-2 54:3 55:0 56:0 57:-5 58:-1 59:0 60:0 
404.4806926393118 1:1 2:1 3:-3 4:-7 5:4 6:-10 7:2 8:1 9:6 10:0 11:0 12:0 13:1 14:0 15:-1 16:-3 17:2 18:-4 19:1 20:1 21:2 22:0 23:0 24:0 25:0 26:0 27:0 28:2 29:-1 30:1 31:0 32:1 33:0 34:0 35:0 36:0 37:-1 38:-1 39:1 40:4 41:-2 42:6 43:0 44:-1 45:-2 46:0 47:0 48:0 49:-2 50:-1 51:3 52:6 53:-3 54:10 55:0 56:-2 57:-4 58:0 59:0 60:0 
70.20323449228306 1:1 2:0 3:-2 4:-6 5:3 6:-9 7:1 8:1 9:4 10:0 11:0 12:0 13:0 14:0 15:-1 16:-1 17:0 18:-4 19:0 20:1 21:2 22:0 23:0 24:0 25:-1 26:-1 27:0 28:1 29:-1 30:1 31:0 32:-1 33:0 34:0 35:0 36:0 37:-2 38:-1 39:2 40:3 41:-2 42:5 43:0 44:-2 45:-2 46:0 47:0 48:0 49:-1 50:-1 51:2 52:5 53:-4 54:9 55:-1 56:-3 57:-2 58:0 59:0 60:0 
48.97973728900873 1:0 2:0 3:-1 4:-3 5:3 6:-7 7:2 8:2 9:2 10:0 11:0 12:0 13:-1 14:0 15:1 16:-1 17:2 18:-3 19:2 20:1 21:0 22:0 23:0 24:0 25:0 26:0 27:1 28:1 29:0 30:1 31:1 32:0 33:0 34:0 35:0 36:0 37:0 38:0 39:1 40:2 41:-3 42:6 43:0 44:-2 45:0 46:0 47:0 48:0 49:-1 50:0 51:1 52:2 53:-4 54:7 55:-1 56:-3 57:0 58:0 59:0 60:0 
18.15671385184897 1:1 2:0 3:0 4:0 5:0 6:0 7:5 8:1 9:11 10:0 11:0 12:0 13:0 14:-1 15:1 16:0 17:-1 18:0 19:1 20:1 21:2 22:0 23:0 24:0 25:-1 26:-1 27:1 28:0 29:-1 30:0 31:-2 32:0 33:-7 34:0 35:0 36:0 37:-2 38:-1 39:1 40:0 41:-1 42:0 43:-2 44:-1 45:-7 46:0 47:0 48:0 49:-2 50:-1 51:1 52:0 53:-1 54:0 55:0 56:-1 57:3 58:0 59:0 60:0 
404.4806926393118 1:0 2:0 3:0 4:1 5:-1 6:0 7:-2 8:0 9:-13 10:0 11:0 12:0 13:0 14:0 15:0 16:1 17:-1 18:0 19:0 20:0 21:-3 22:0 23:0 24:0 25:0 26:0 27:0 28:1 29:-1 30:0 31:2 32:0 33:6 34:0 35:0 36:0 37:-1 38:0 39:1 40:0 41:-1 42:0 43:2 44:0 45:6 46:0 47:0 48:0 49:-1 50:0 51:1 52:0 53:0 54:0 55:2 56:0 57:6 58:0 59:0 60:0 
399.2826930838248 1:0 2:0 3:0 4:1 5:-1 6:0 7:-1 8:-1 9:-5 10:0 11:0 12:0 13:0 14:0 15:0 16:1 17:-1 18:0 19:1 20:-1 21:4 22:0 23:0 24:0 25:-1 26:0 27:1 28:0 29:-1 30:0 31:1 32:-1 33:4 34:0 35:0 36:0 37:-1 38:0 39:1 40:0 41:0 42:0 43:1 44:-1 45:4 46:0 47:0 48:0 49:-1 50:0 51:1 52:0 53:1 54:0 55:-2 56:0 57:-5 58:0 59:0 60:0 
53.13908619075296 1:0 2:0 3:0 4:0 5:-2 6:0 7:3 8:-1 9:10 10:-1 11:-1 12:0 13:0 14:0 15:0 16:0 17:-1 18:0 19:3 20:-1 21:10 22:-1 23:-1 24:0 25:0 26:0 27:0 28:0 29:0 30:0 31:0 32:0 33:1 34:-1 35:-1 36:0 37:-1 38:0 39:1 40:0 41:1 42:0 43:-3 44:1 45:-9 46:0 47:0 48:1 49:-1 50:0 51:1 52:0 53:1 54:0 55:-3 56:1 57:-9 58:0 59:0 60:1 
115.7508241163924 1:0 2:0 3:0 4:1 5:-1 6:0 7:3 8:-1 9:8 10:-1 11:-1 12:0 13:-1 14:0 15:1 16:1 17:0 18:0 19:0 20:0 21:-2 22:0 23:0 24:1 25:-1 26:0 27:1 28:1 29:0 30:0 31:0 32:0 33:-2 34:0 35:0 36:1 37:-1 38:0 39:1 40:0 41:0 42:0 43:0 44:0 45:-2 46:0 47:0 48:1 49:-1 50:0 51:1 52:0 53:0 54:0 55:0 56:-2 57:-2 58:0 59:0 60:1 
243.1515889531393 1:0 2:0 3:0 4:0 5:0 6:0 7:6 8:1 9:2 10:0 11:0 12:0 13:0 14:0 15:0 16:0 17:0 18:0 19:2 20:0 21:1 22:0 23:0 24:0 25:0 26:0 27:0 28:0 29:0 30:0 31:-2 32:-1 33:-1 34:0 35:0 36:0 37:0 38:0 39:0 40:0 41:0 42:0 43:-2 44:-1 45:-1 46:0 47:0 48:0 49:0 50:0 51:0 52:0 53:0 54:0 55:-2 56:-1 57:-1 58:0 59:0 60:0 
404.4806926393118 1:-1 2:0 3:0 4:-1 5:1 6:1 7:0 8:-1 9:1 10:0 11:0 12:0 13:-1 14:0 15:0 16:2 17:1 18:1 19:0 20:-1 21:1 22:0 23:0 24:0 25:-1 26:0 27:0 28:2 29:0 30:1 31:0 32:-1 33:1 34:0 35:0 36:0 37:0 38:0 39:2 40:-1 41:-2 42:1 43:1 44:0 45:0 46:0 47:0 48:0 49:0 50:0 51:2 52:-4 53:-4 54:0 55:1 56:1 57:-2 58:0 59:0 60:0 
84.27431974390711 1:0 2:0 3:0 4:-3 5:-2 6:0 7:0 8:-2 9:1 10:0 11:0 12:0 13:0 14:0 15:0 16:-3 17:-2 18:0 19:0 20:-1 21:1 22:0 23:0 24:0 25:0 26:0 27:0 28:0 29:-1 30:0 31:0 32:0 33:0 34:0 35:0 36:0 37:0 38:0 39:0 40:3 41:1 42:0 43:0 44:0 45:0 46:0 47:0 48:0 49:0 50:0 51:0 52:3 53:1 54:0 55:0 56:0 57:0 58:0 59:0 60:0 
404.4806926393118 1:0 2:0 3:0 4:-5 5:-2 6:0 7:0 8:-1 9:1 10:0 11:0 12:0 13:0 14:0 15:0 16:-2 17:-1 18:0 19:0 20:0 21:0 22:0 23:0 24:0 25:0 26:0 27:0 28:1 29:1 30:0 31:0 32:0 33:0 34:0 35:0 36:0 37:0 38:0 39:0 40:1 41:1 42:0 43:0 44:0 45:0 46:0 47:0 48:0 49:0 50:0 51:0 52:1 53:1 54:0 55:0 56:-1 57:2 58:0 59:0 60:0 
404.4806926393118 1:0 2:0 3:0 4:0 5:0 6:0 7:1 8:1 9:-1 10:0 11:0 12:0 13:0 14:0 15:0 16:0 17:0 18:0 19:1 20:1 21:-1 22:0 23:0 24:0 25:0 26:0 27:0 28:0 29:0 30:0 31:1 32:0 33:1 34:0 35:0 36:0 37:0 38:0 39:0 40:0 41:0 42:0 43:-1 44:-1 45:2 46:0 47:0 48:0 49:0 50:0 51:0 52:0 53:0 54:0 55:-1 56:-1 57:2 58:0 59:0 60:0 
404.4806926393118 1:0 2:0 3:0 4:0 5:0 6:0 7:2 8:0 9:0 10:0 11:0 12:0 13:0 14:0 15:0 16:0 17:0 18:0 19:0 20:-1 21:1 22:0 23:0 24:0 25:0 26:0 27:0 28:0 29:0 30:0 31:0 32:-1 33:1 34:0 35:0 36:0 37:0 38:0 39:0 40:0 41:0 42:0 43:0 44:-1 45:1 46:0 47:0 48:0 49:0 50:0 51:0 52:0 53:0 54:0 55:2 56:-1 57:1 58:0 59:0 60:0 
404.4806926393118 1:0 2:0 3:0 4:0 5:0 6:0 7:-1 8:0 9:0 10:0 11:0 12:0 13:0 14:0 15:0 16:0 17:0 18:0 19:1 20:0 21:0 22:0 23:0 24:0 25:0 26:0 27:0 28:0 29:0 30:0 31:1 32:0 33:0 34:0 35:0 36:0 37:0 38:0 39:0 40:0 41:0 42:0 43:1 44:0 45:0 46:0 47:0 48:0 49:0 50:0 51:0 52:-1 53:0 54:1 55:1 56:0 57:0 58:0 59:0 60:0 
222.407786560476 1:0 2:0 3:0 4:0 5:-1 6:0 7:0 8:0 9:0 10:0 11:0 12:0 13:0 14:0 15:0 16:0 17:-1 18:0 19:0 20:0 21:0 22:0 23:0 24:0 25:0 26:0 27:0 28:0 29:-1 30:0 31:0 32:0 33:0 34:0 35:0 36:0 37:0 38:0 39:0 40:-1 41:-1 42:1 43:0 44:0 45:0 46:0 47:0 48:0 49:0 50:-1 51:0 52:-2 53:0 54:1 55:0 56:0 57:0 58:-1 59:-2 60:0 
404.4806926393118 1:0 2:0 3:0 4:2 5:-1 6:0 7:0 8:0 9:0 10:0 11:1 12:0 13:0 14:0 15:0 16:1 17:-1 18:1 19:0 20:0 21:0 22:0 23:1 24:0 25:0 26:-1 27:0 28:0 29:0 30:1 31:0 32:0 33:0 34:-1 35:-1 36:0 37:0 38:-1 39:0 40:-1 41:0 42:1 43:0 44:0 45:0 46:-1 47:-1 48:0 49:0 50:-1 51:0 52:-3 53:0 54:1 55:0 56:-1 57:0 58:-1 59:-1 60:0 
402.7162647824703 1:0 2:0 3:1 4:2 5:-2 6:0 7:1 8:0 9:0 10:0 11:1 12:0 13:0 14:-1 15:1 16:1 17:-1 18:0 19:1 20:0 21:0 22:-1 23:-1 24:0 25:0 26:-1 27:1 28:0 29:-1 30:0 31:1 32:0 33:0 34:-1 35:-1 36:0 37:0 38:-1 39:1 40:-2 41:-1 42:0 43:1 44:-1 45:0 46:-1 47:-1 48:0 49:0 50:-1 51:-2 52:-3 53:1 54:1 55:-1 56:-1 57:0 58:-1 59:-1 60:0 
380.6142157653934 1:0 2:-1 3:2 4:2 5:-2 6:0 7:1 8:0 9:0 10:0 11:0 12:0 13:0 14:-1 15:2 16:1 17:-2 18:0 19:1 20:0 21:0 22:0 23:0 24:0 25:0 26:-1 27:2 28:-1 29:-2 30:0 31:1 32:-1 33:0 34:0 35:0 36:0 37:0 38:-1 39:-1 40:-2 41:0 42:1 43:-1 44:-1 45:0 46:0 47:0 48:0 49:0 50:0 51:-1 52:-2 53:3 54:2 55:-2 56:-1 57:0 58:0 59:0 60:0 
27.01739933184546 1:0 2:-1 3:3 4:1 5:-5 6:-1 7:5 8:0 9:0 10:0 11:-1 12:1 13:0 14:-1 15:0 16:0 17:-3 18:0 19:3 20:0 21:0 22:0 23:-1 24:1 25:0 26:0 27:0 28:0 29:0 30:1 31:2 32:0 33:0 34:0 35:-1 36:1 37:0 38:-1 39:-1 40:-1 41:1 42:1 43:-2 44:-1 45:0 46:0 47:-1 48:1 49:0 50:-1 51:-1 52:-3 53:4 54:0 55:-7 56:-2 57:0 58:-1 59:0 60:-1 
76.71785351583185 1:-3 2:-1 3:3 4:-1 5:-2 6:3 7:-3 8:-3 9:5 10:-4 11:-1 12:4 13:-2 14:-1 15:2 16:-1 17:-1 18:2 19:-1 20:-1 21:2 22:-3 23:-1 24:2 25:0 26:-1 27:1 28:-1 29:0 30:1 31:1 32:-1 33:0 34:-1 35:-1 36:0 37:1 38:0 39:-1 40:0 41:0 42:-1 43:1 44:5 45:0 46:1 47:-1 48:-1 49:3 50:1 51:-2 52:1 53:-1 54:-2 55:2 56:-1 57:-3 58:3 59:0 60:-4 
9.001340737907373 1:0 2:-2 3:5 4:-9 5:-3 6:16 7:0 8:-3 9:5 10:-1 11:-3 12:7 13:0 14:-1 15:2 16:-9 17:-1 18:13 19:0 20:-2 21:2 22:-1 23:-2 24:4 25:0 26:0 27:0 28:-9 29:1 30:10 31:1 32:-1 33:0 34:0 35:-1 36:1 37:1 38:1 39:-1 40:4 41:2 42:-8 43:1 44:0 45:-1 46:1 47:0 48:-2 49:0 50:2 51:-4 52:19 53:-2 54:-27 55:2 56:3 57:-4 58:2 59:2 60:-6 
404.4806926393118 1:0 2:0 3:0 4:0 5:0 6:0 7:0 8:0 9:0 10:0 11:0 12:0 13:0 14:0 15:0 16:0 17:0 18:0 19:0 20:0 21:0 22:0 23:0 24:0 25:0 26:0 27:0 28:0 29:0 30:0 31:0 32:0 33:0 34:0 35:0 36:0 37:0 38:0 39:0 40:0 41:0 42:0 43:0 44:0 45:0 46:0 47:0 48:0 49:0 50:0 51:0 52:0 53:0 54:0 55:0 56:0 57:0 58:0 59:0 60:0 
404.4806926393118 1:0 2:0 3:0 4:0 5:0 6:0 7:0 8:0 9:0 10:0 11:0 12:0 13:0 14:0 15:0 16:0 17:0 18:0 19:0 20:0 21:0 22:0 23:0 24:0 25:0 26:0 27:0 28:0 29:0 30:0 31:0 32:0 33:0 34:0 35:0 36:0 37:0 38:0 39:0 40:0 41:0 42:0 43:0 44:0 45:0 46:0 47:0 48:0 49:0 50:0 51:0 52:0 53:0 54:0 55:0 56:0 57:0 58:0 59:0 60:0 
36.69797868735004 1:0 2:0 3:0 4:0 5:0 6:0 7:0 8:0 9:0 10:0 11:0 12:0 13:0 14:0 15:0 16:0 17:0 18:0 19:0 20:0 21:0 22:0 23:0 24:0 25:0 26:0 27:0 28:0 29:0 30:0 31:0 32:0 33:0 34:0 35:0 36:0 37:0 38:0 39:0 40:0 41:0 42:0 43:0 44:0 45:0 46:0 47:0 48:0 49:0 50:0 51:0 52:0 53:0 54:0 55:0 56:0 57:0 58:0 59:0 60:0 
35.18392813298177 1:0 2:0 3:0 4:0 5:0 6:0 7:0 8:0 9:0 10:0 11:0 12:0 13:0 14:0 15:0 16:0 17:0 18:0 19:0 20:0 21:0 22:0 23:0 24:0 25:0 26:0 27:0 28:0 29:0 30:0 31:0 32:0 33:0 34:0 35:0 36:0 37:0 38:0 39:0 40:0 41:0 42:0 43:0 44:0 45:0 46:0 47:0 48:0 49:0 50:0 51:0 52:0 53:0 54:0 55:0 56:0 57:0 58:0 59:0 60:0 
404.4806926393118 1:0 2:0 3:0 4:0 5:0 6:0 7:0 8:0 9:0 10:0 11:0 12:0 13:0 14:0 15:0 16:0 17:0 18:0 19:0 20:0 21:0 22:0 23:0 24:0 25:0 26:0 27:0 28:0 29:0 30:0 31:0 32:0 33:0 34:0 35:0 36:0 37:0 38:0 39:0 40:0 41:0 42:0 43:0 44:0 45:0 46:0 47:0 48:0 49:0 50:0 51:0 52:0 53:0 54:0 55:0 56:0 57:0 58:0 59:0 60:0 
404.4806926393118 1:0 2:0 3:0 4:0 5:0 6:0 7:0 8:0 9:0 10:0 11:0 12:0 13:0 14:0 15:0 16:0 17:0 18:0 19:0 20:0 21:0 22:0 23:0 24:0 25:0 26:0 27:0 28:0 29:0 30:0 31:0 32:0 33:0 34:0 35:0 36:0 37:0 38:0 39:0 40:0 41:0 42:0 43:0 44:0 45:0 46:0 47:0 48:0 49:0 50:0 51:0 52:0 53:0 54:0 55:0 56:0 57:0 58:0 59:0 60:0 
404.4806926393118 1:0 2:0 3:0 4:0 5:0 6:0 7:0 8:0 9:0 10:0 11:0 12:0 13:0 14:0 15:0 16:0 17:0 18:0 19:0 20:0 21:0 22:0 23:0 24:0 25:0 26:0 27:0 28:0 29:0 30:0 31:0 32:0 33:0 34:0 35:0 36:0 37:0 38:0 39:0 40:0 41:0 42:0 43:0 44:0 45:0 46:0 47:0 48:0 49:0 50:0 51:0 52:0 53:0 54:0 55:0 56:0 57:0 58:0 59:0 60:0 
404.4806926393118 1:0 2:2 3:-5 4:0 5:2 6:-4 7:-2 8:2 9:-5 10:0 11:0 12:-5 13:0 14:0 15:-1 16:0 17:0 18:-1 19:-1 20:0 21:-1 22:0 23:-1 24:-1 25:0 26:-1 27:1 28:0 29:-1 30:1 31:0 32:-1 33:1 34:0 35:-1 36:1 37:0 38:-1 39:2 40:0 41:-1 42:2 43:1 44:-1 45:2 46:0 47:-1 48:2 49:0 50:-1 51:3 52:0 53:-1 54:3 55:2 56:-1 57:3 58:0 59:-1 60:3 
404.4806926393118 1:0 2:0 3:-2 4:0 5:0 6:-2 7:-2 8:0 9:-2 10:0 11:0 12:-2 13:0 14:-1 15:0 16:0 17:-1 18:0 19:-1 20:-1 21:0 22:0 23:0 24:0 25:0 26:-1 27:1 28:0 29:-1 30:1 31:0 32:-1 33:1 34:0 35:0 36:1 37:0 38:-1 39:2 40:0 41:-1 42:2 43:1 44:-1 45:2 46:0 47:0 48:2 49:0 50:-1 51:3 52:0 53:-1 54:3 55:2 56:-1 57:3 58:0 59:0 60:3 
195.0221627623993 1:0 2:0 3:-2 4:0 5:0 6:-2 7:-2 8:0 9:-2 10:0 11:0 12:-2 13:0 14:0 15:-1 16:0 17:0 18:-1 19:-1 20:0 21:-1 22:0 23:0 24:-1 25:0 26:0 27:0 28:0 29:0 30:0 31:0 32:0 33:0 34:0 35:0 36:0 37:0 38:0 39:1 40:0 41:0 42:1 43:1 44:0 45:1 46:0 47:0 48:1 49:0 50:0 51:2 52:0 53:0 54:2 55:2 56:0 57:2 58:0 59:0 60:2 
75.18423126484773 1:0 2:0 3:1 4:0 5:-15 6:-2 7:14 8:-11 9:3 10:1 11:-1 12:2 13:-2 14:0 15:0 16:0 17:-8 18:1 19:-4 20:-4 21:-1 22:-1 23:0 24:-1 25:-1 26:0 27:0 28:-1 29:1 30:1 31:-5 32:-3 33:-1 34:-1 35:-1 36:0 37:0 38:0 39:0 40:-1 41:11 42:-2 43:-5 44:3 45:-1 46:-1 47:-1 48:0 49:2 50:0 51:0 52:-2 53:7 54:4 55:-3 56:13 57:2 58:1 59:-1 60:2 
27.21677157688248 1:-4 2:1 3:0 4:-2 5:18 6:-1 7:-4 8:-17 9:-8 10:-2 11:1 12:-2 13:-2 14:1 15:0 16:-3 17:14 18:5 19:-2 20:-7 21:-5 22:0 23:1 24:0 25:0 26:-1 27:1 28:-3 29:15 30:5 31:0 32:1 33:0 34:0 35:0 36:1 37:2 38:-2 39:1 40:3 41:-9 42:0 43:2 44:7 45:6 46:0 47:-2 48:1 49:3 50:-2 51:2 52:5 53:-39 54:-5 55:3 56:12 57:11 58:0 59:-3 60:1 
7.097455627215317 1:-4 2:2 3:-1 4:-5 5:25 6:5 7:-4 8:-13 9:-10 10:0 11:2 12:-1 13:-2 14:0 15:0 16:-5 17:26 18:5 19:-2 20:-5 21:-5 22:0 23:1 24:0 25:0 26:-1 27:0 28:1 29:2 30:0 31:0 32:1 33:1 34:0 35:-1 36:0 37:1 38:-1 39:1 40:3 41:-28 42:-5 43:1 44:6 45:6 46:0 47:-2 48:0 49:2 50:-1 51:2 52:3 53:-28 54:-5 55:2 56:10 57:10 58:0 59:-2 60:2 
45.11570773674064 1:-3 2:0 3:-1 4:-6 5:36 6:8 7:-3 8:-10 9:-10 10:0 11:2 12:-1 13:-1 14:-1 15:-1 16:0 17:12 18:3 19:-1 20:-4 21:-4 22:0 23:0 24:-1 25:0 26:-1 27:0 28:2 29:-18 30:-2 31:0 32:1 33:1 34:0 35:-1 36:-1 37:1 38:-1 39:1 40:2 41:-18 42:-2 43:1 44:5 45:5 46:0 47:-1 48:1 49:2 50:-1 51:2 52:-1 53:-13 54:-6 55:2 56:8 57:8 58:0 59:-1 60:2 
294.4687052255213 1:-2 2:-1 3:-1 4:3 5:-6 6:3 7:-2 8:-7 9:-6 10:0 11:-1 12:-2 13:-1 14:-1 15:0 16:3 17:-6 18:3 19:-1 20:-3 21:-2 22:0 23:-1 24:0 25:0 26:-1 27:1 28:0 29:-1 30:-1 31:0 32:0 33:1 34:0 35:-1 36:1 37:0 38:-1 39:1 40:-3 41:4 42:-2 43:0 44:3 45:4 46:0 47:0 48:2 49:0 50:0 51:1 52:-5 53:7 54:-1 55:1 56:5 57:6 58:0 59:0 60:3 
130.8815089944031 1:0 2:-1 3:1 4:3 5:-6 6:1 7:-1 8:-6 9:-4 10:0 11:-2 12:-1 13:0 14:-1 15:1 16:0 17:-1 18:0 19:-1 20:-3 21:-1 22:0 23:-1 24:0 25:0 26:0 27:1 28:-2 29:2 30:1 31:0 32:-1 33:1 34:0 35:-1 36:1 37:0 38:0 39:1 40:-2 41:2 42:-1 43:1 44:2 45:2 46:0 47:-1 48:1 49:-1 50:1 51:0 52:-1 53:1 54:-1 55:1 56:5 57:3 58:0 59:1 60:1 
356.5177126205366 1:0 2:-2 3:1 4:0 5:-2 6:1 7:-2 8:-5 9:-2 10:0 11:-1 12:0 13:0 14:-1 15:1 16:-2 17:1 18:2 19:-1 20:-3 21:0 22:0 23:-1 24:1 25:0 26:-1 27:1 28:-2 29:1 30:0 31:0 32:0 33:1 34:0 35:-1 36:1 37:-1 38:0 39:0 40:-1 41:0 42:0 43:0 44:3 45:2 46:0 47:1 48:1 49:-1 50:1 51:0 52:1 53:0 54:0 55:1 56:4 57:2 58:-1 59:2 60:1 
404.4806926393118 1:1 2:-2 3:2 4:-7 5:1 6:0 7:-1 8:-3 9:-1 10:0 11:-3 12:0 13:0 14:-1 15:1 16:-6 17:0 18:0 19:-1 20:0 21:0 22:0 23:-1 24:0 25:0 26:0 27:1 28:-4 29:0 30:0 31:0 32:1 33:0 34:-1 35:0 36:0 37:0 38:1 39:0 40:3 41:-1 42:1 43:0 44:1 45:1 46:-1 47:1 48:0 49:-2 50:2 51:0 52:10 53:-4 54:1 55:0 56:0 57:2 58:-2 59:2 60:1 
387.5324866039761 1:1 2:-2 3:1 4:-11 5:4 6:-1 7:0 8:-1 9:-1 10:0 11:-2 12:0 13:1 14:-1 15:0 16:-4 17:3 18:0 19:0 20:-1 21:0 22:0 23:-1 24:0 25:-1 26:0 27:0 28:3 29:0 30:0 31:0 32:-2 33:1 34:-1 35:0 36:1 37:-1 38:0 39:0 40:5 41:-4 42:0 43:-1 44:0 45:1 46:-1 47:0 48:1 49:-2 50:0 51:1 52:5 53:-7 54:2 55:-2 56:0 57:0 58:-1 59:0 60:1 
22.31399305123758 1:0 2:-2 3:0 4:-5 5:1 6:-4 7:0 8:4 9:5 10:0 11:-2 12:0 13:0 14:-2 15:0 16:-4 17:-2 18:-1 19:0 20:-1 21:3 22:0 23:-2 24:0 25:0 26:-2 27:0 28:-1 29:-4 30:1 31:-1 32:-4 33:1 34:0 35:-2 36:0 37:-1 38:2 39:0 40:2 41:0 42:2 43:-2 44:-1 45:-2 46:0 47:2 48:0 49:-1 50:4 51:0 52:5 53:2 54:4 55:0 56:-1 57:-4 58:0 59:3 60:0 
190.4005813964974 1:0 2:-4 3:0 4:-6 5:-2 6:-2 7:0 8:1 9:4 10:0 11:-4 12:0 13:0 14:-4 15:0 16:-3 17:-4 18:0 19:-1 20:-2 21:2 22:0 23:-4 24:0 25:-1 26:0 27:0 28:0 29:0 30:1 31:-2 32:1 33:-1 34:0 35:0 36:0 37:-1 38:2 39:0 40:3 41:2 42:3 43:0 44:1 45:-3 46:0 47:1 48:0 49:-2 50:4 51:0 52:9 53:3 54:-2 55:1 56:-1 57:-1 58:0 59:3 60:0 
225.2988841391859 1:0 2:-4 3:0 4:-7 5:-4 6:2 7:-2 8:0 9:-2 10:0 11:-4 12:0 13:-1 14:-2 15:0 16:-1 17:-3 18:-3 19:-1 20:-2 21:0 22:0 23:-2 24:0 25:-1 26:0 27:1 28:1 29:-1 30:-1 31:0 32:-1 33:0 34:0 35:-1 36:0 37:-1 38:1 39:1 40:3 41:1 42:1 43:1 44:1 45:2 46:0 47:1 48:0 49:-1 50:3 51:1 52:5 53:3 54:3 55:2 56:2 57:3 58:0 59:2 60:0 
404.4806926393118 1:-1 2:-2 3:1 4:-3 5:-3 6:-4 7:-1 8:-4 9:0 10:0 11:0 12:1 13:-1 14:-2 15:1 16:-2 17:-1 18:-2 19:0 20:-3 21:0 22:0 23:-1 24:0 25:-1 26:-1 27:0 28:0 29:0 30:1 31:0 32:0 33:1 34:0 35:0 36:0 37:-1 38:0 39:0 40:2 41:1 42:3 43:0 44:2 45:1 46:-1 47:0 48:0 49:0 50:1 51:0 52:3 53:3 54:5 55:1 56:4 57:2 58:-1 59:0 60:0 
404.4806926393118 1:-1 2:-3 3:1 4:-2 5:-3 6:-3 7:-1 8:-4 9:0 10:0 11:-1 12:1 13:-1 14:-2 15:1 16:0 17:-2 18:-1 19:-1 20:-2 21:0 22:-1 23:-1 24:1 25:0 26:-1 27:1 28:1 29:0 30:1 31:0 32:0 33:1 34:-1 35:-1 36:1 37:0 38:0 39:0 40:1 41:1 42:2 43:0 44:1 45:1 46:-1 47:0 48:1 49:0 50:2 51:0 52:1 53:3 54:4 55:0 56:3 57:2 58:0 59:1 60:0 
347.3751519325004 1:0 2:-3 3:1 4:0 5:-4 6:-3 7:0 8:-3 9:0 10:-1 11:-2 12:1 13:0 14:-2 15:0 16:0 17:-3 18:-2 19:0 20:-2 21:0 22:-1 23:-1 24:1 25:0 26:0 27:0 28:0 29:-1 30:0 31:0 32:0 33:1 34:0 35:0 36:0 37:0 38:1 39:0 40:1 41:1 42:2 43:0 44:1 45:1 46:0 47:0 48:-1 49:-2 50:1 51:0 52:1 53:3 54:3 55:0 56:1 57:1 58:0 59:-1 60:-1 
404.4806926393118 1:0 2:-3 3:0 4:0 5:-5 6:-3 7:0 8:-3 9:0 10:-1 11:-1 12:2 13:0 14:-1 15:0 16:0 17:-3 18:-1 19:0 20:-1 21:1 22:0 23:0 24:1 25:0 26:0 27:0 28:1 29:-1 30:1 31:0 32:0 33:1 34:0 35:0 36:0 37:-2 38:0 39:0 40:1 41:1 42:2 43:0 44:0 45:1 46:0 47:-1 48:0 49:-2 50:2 51:0 52:2 53:5 54:4 55:0 56:2 57:1 58:0 59:1 60:0 
187.6089395197236 1:0 2:-2 3:0 4:0 5:-6 6:-3 7:0 8:-3 9:0 10:0 11:-1 12:1 13:0 14:-1 15:0 16:1 17:-4 18:-1 19:0 20:-2 21:0 22:0 23:-1 24:0 25:-2 26:-1 27:0 28:1 29:-2 30:0 31:0 32:-2 33:0 34:0 35:-2 36:0 37:-2 38:1 39:0 40:2 41:2 42:2 43:0 44:0 45:0 46:0 47:0 48:0 49:0 50:3 51:0 52:-2 53:7 54:3 55:0 56:3 57:0 58:0 59:1 60:0 
258.8914778991301 1:0 2:-4 3:0 4:14 5:-17 6:5 7:-3 8:-2 9:-2 10:0 11:-2 12:0 13:0 14:-2 15:0 16:8 17:-9 18:4 19:-3 20:-1 21:-1 22:0 23:-1 24:0 25:0 26:0 27:0 28:3 29:0 30:2 31:-4 32:0 33:-1 34:0 35:0 36:0 37:0 38:1 39:0 40:-5 41:9 42:-1 43:-4 44:2 45:0 46:0 47:1 48:0 49:0 50:2 51:0 52:-20 53:16 54:-6 55:10 56:1 57:8 58:0 59:1 60:0 
17.72150344364618 1:-1 2:-2 3:2 4:26 5:-9 6:3 7:-19 8:4 9:-15 10:-1 11:-1 12:0 13:-1 14:-1 15:2 16:11 17:-2 18:-2 19:-5 20:3 21:-7 22:-1 23:-1 24:0 25:-1 26:0 27:1 28:2 29:2 30:-2 31:8 32:-3 33:4 34:-1 35:-1 36:1 37:0 38:1 39:0 40:-10 41:3 42:-1 43:9 44:-3 45:8 46:0 47:0 48:1 49:0 50:2 51:-1 52:-29 53:3 54:4 55:9 56:-4 57:11 58:0 59:1 60:1 
404.4806926393118 1:-1 2:-3 3:2 4:25 5:1 6:-6 7:-1 8:0 9:-6 10:-1 11:-2 12:0 13:0 14:-2 15:1 16:13 17:2 18:-5 19:0 20:0 21:-2 22:0 23:-1 24:0 25:0 26:-1 27:0 28:-6 29:2 30:0 31:0 32:-1 33:1 34:0 35:0 36:0 37:0 38:1 39:-1 40:-14 41:-1 42:5 43:0 44:-1 45:3 46:0 47:1 48:0 49:0 50:1 51:-1 52:-20 53:-5 54:10 55:1 56:-2 57:4 58:0 59:1 60:0 
404.4806926393118 1:0 2:-2 3:2 4:23 5:4 6:-9 7:0 8:1 9:-4 10:0 11:-2 12:0 13:0 14:-1 15:1 16:4 17:4 18:-4 19:0 20:0 21:-1 22:0 23:-1 24:0 25:0 26:1 27:0 28:-4 29:1 30:1 31:0 32:0 33:1 34:0 35:0 36:0 37:0 38:1 39:0 40:-10 41:-3 42:6 43:1 44:-1 45:2 46:0 47:0 48:0 49:0 50:0 51:-1 52:-14 53:-7 54:9 55:1 56:-2 57:2 58:0 59:-1 60:0 
358.4006289738078 1:0 2:-2 3:2 4:12 5:7 6:-8 7:0 8:1 9:-2 10:0 11:-1 12:0 13:0 14:0 15:1 16:4 17:4 18:-3 19:0 20:1 21:0 22:0 23:0 24:0 25:0 26:0 27:1 28:-2 29:0 30:2 31:1 32:0 33:1 34:0 35:0 36:0 37:0 38:-1 39:0 40:-6 41:-4 42:5 43:1 44:-1 45:1 46:0 47:-1 48:0 49:0 50:-1 51:0 52:-8 53:-8 54:6 55:2 56:-3 57:3 58:0 59:-1 60:0 
232.9486603476649 1:0 2:1 3:1 4:3 5:3 6:1 7:-2 8:3 9:2 10:0 11:0 12:1 13:0 14:-1 15:1 16:2 17:0 18:1 19:-2 20:0 21:1 22:0 23:-2 24:0 25:-1 26:-2 27:0 28:0 29:-2 30:0 31:0 32:-2 33:1 34:0 35:-2 36:0 37:-1 38:0 39:1 40:-2 41:-1 42:-1 43:1 44:-1 45:0 46:0 47:0 48:0 49:-1 50:0 51:0 52:-3 53:-2 54:-1 55:4 56:-3 57:-1 58:0 59:0 60:0 
404.4806926393118 1:1 2:0 3:2 4:0 5:-1 6:2 7:-2 8:4 9:2 10:0 11:0 12:0 13:0 14:0 15:1 16:0 17:-1 18:1 19:0 20:1 21:1 22:0 23:0 24:0 25:0 26:0 27:1 28:0 29:0 30:0 31:1 32:0 33:1 34:0 35:-1 36:0 37:-1 38:0 39:0 40:0 41:-1 42:0 43:2 44:-2 45:0 46:0 47:-1 48:0 49:-1 50:-1 51:0 52:0 53:-1 54:0 55:3 56:-3 57:-1 58:0 59:-1 60:0 
404.4806926393118 1:0 2:0 3:1 4:0 5:1 6:1 7:-2 8:3 9:2 10:0 11:0 12:0 13:-1 14:0 15:0 16:0 17:0 18:1 19:-1 20:1 21:1 22:0 23:0 24:0 25:-1 26:-1 27:0 28:0 29:0 30:1 31:0 32:0 33:0 34:0 35:0 36:0 37:-1 38:-1 39:0 40:0 41:-1 42:0 43:1 44:-1 45:-1 46:0 47:-1 48:0 49:-1 50:-2 51:0 52:0 53:-1 54:0 55:2 56:-3 57:-1 58:0 59:-1 60:0 
404.4806926393118 1:0 2:1 3:0 4:-1 5:-1 6:2 7:-1 8:2 9:1 10:0 11:0 12:0 13:0 14:0 15:0 16:-1 17:-1 18:2 19:0 20:0 21:1 22:0 23:0 24:0 25:0 26:0 27:0 28:-1 29:0 30:1 31:0 32:-1 33:1 34:0 35:0 36:0 37:0 38:0 39:0 40:-1 41:0 42:-1 43:1 44:-1 45:0 46:0 47:0 48:0 49:0 50:-1 51:0 52:0 53:0 54:-3 55:2 56:-1 57:0 58:0 59:-1 60:0 
404.4806926393118 1:-1 2:1 3:-1 4:-1 5:0 6:3 7:1 8:2 9:1 10:0 11:0 12:0 13:-1 14:1 15:-1 16:0 17:-1 18:2 19:1 20:0 21:1 22:0 23:0 24:0 25:0 26:0 27:0 28:-1 29:-1 30:1 31:0 32:0 33:1 34:0 35:0 36:0 37:1 38:-1 39:1 40:-1 41:-1 42:-1 43:0 44:-1 45:0 46:0 47:-1 48:0 49:1 50:-1 51:2 52:0 53:0 54:-4 55:0 56:-2 57:-1 58:0 59:-1 60:0 
239.5157078507753 1:1 2:-2 3:2 4:-2 5:1 6:3 7:2 8:2 9:3 10:0 11:-3 12:0 13:0 14:-1 15:2 16:-1 17:1 18:2 19:1 20:2 21:1 22:0 23:-1 24:0 25:0 26:-1 27:1 28:-1 29:0 30:1 31:0 32:-1 33:0 34:0 35:-1 36:0 37:-1 38:1 39:-1 40:0 41:-1 42:0 43:-1 44:-3 45:-1 46:0 47:1 48:1 49:-1 50:1 51:-1 52:0 53:-3 54:-2 55:-1 56:-3 57:-1 58:0 59:0 60:1 
404.4806926393118 1:-4 2:-1 3:2 4:-3 5:-3 6:3 7:-1 8:-3 9:1 10:-2 11:0 12:1 13:-2 14:0 15:2 16:-1 17:-2 18:3 19:0 20:-1 21:0 22:-2 23:1 24:1 25:0 26:-1 27:0 28:-1 29:-2 30:2 31:0 32:0 33:0 34:0 35:-1 36:0 37:2 38:0 39:-1 40:1 41:1 42:-1 43:1 44:0 45:0 46:1 47:-2 48:0 49:3 50:1 51:-1 52:3 53:3 54:-3 55:1 56:1 57:-1 58:1 59:-2 60:1 
235.8872835076444 1:-4 2:-1 3:3 4:-2 5:-3 6:4 7:0 8:-2 9:1 10:-3 11:2 12:1 13:-2 14:-2 15:1 16:-2 17:-3 18:3 19:0 20:-1 21:1 22:-1 23:0 24:0 25:0 26:-1 27:0 28:0 29:0 30:0 31:1 32:-1 33:1 34:0 35:-1 36:0 37:1 38:0 39:0 40:2 41:2 42:-2 43:1 44:0 45:0 46:0 47:-1 48:1 49:2 50:0 51:0 52:2 53:2 54:-3 55:2 56:0 57:0 58:0 59:0 60:1 
250.7367446143779 1:-1 2:-1 3:1 4:-7 5:-3 6:9 7:0 8:-2 9:-1 10:0 11:-1 12:1 13:0 14:0 15:1 16:-6 17:-2 18:6 19:0 20:0 21:-1 22:0 23:0 24:1 25:0 26:0 27:1 28:-2 29:-1 30:2 31:1 32:0 33:0 34:0 35:0 36:1 37:1 38:0 39:1 40:3 41:-1 42:-4 43:1 44:0 45:1 46:0 47:0 48:1 49:1 50:1 51:0 52:12 53:6 54:-10 55:2 56:0 57:2 58:0 59:0 60:0 
404.4806926393118 1:0 2:-1 3:1 4:-12 5:-5 6:10 7:-1 8:-1 9:-1 10:0 11:0 12:1 13:0 14:-1 15:1 16:-8 17:-4 18:6 19:0 20:-1 21:0 22:0 23:0 24:1 25:1 26:-1 27:1 28:-3 29:-4 30:0 31:0 32:-1 33:1 34:0 35:0 36:1 37:1 38:0 39:0 40:6 41:3 42:-6 43:1 44:-1 45:2 46:0 47:0 48:0 49:1 50:0 51:0 52:16 53:9 54:-9 55:1 56:0 57:1 58:-1 59:0 60:-1 
373.2623798448182 1:0 2:0 3:0 4:-18 5:-10 6:8 7:0 8:-2 9:1 10:1 11:0 12:2 13:0 14:1 15:-1 16:-9 17:-3 18:2 19:1 20:-2 21:2 22:1 23:0 24:1 25:0 26:1 27:-1 28:1 29:3 30:-1 31:1 32:-1 33:1 34:0 35:0 36:0 37:0 38:-1 39:1 40:8 41:4 42:-3 43:1 44:1 45:0 46:-1 47:0 48:-1 49:0 50:-2 51:2 52:16 53:4 54:-3 55:0 56:2 57:-2 58:-2 59:0 60:-1 
163.5185585742605 1:1 2:2 3:-4 4:-22 5:0 6:0 7:1 8:-2 9:5 10:0 11:0 12:0 13:1 14:1 15:-3 16:-14 17:0 18:0 19:0 20:-1 21:3 22:-1 23:0 24:0 25:0 26:0 27:0 28:0 29:0 30:-1 31:-1 32:0 33:0 34:-1 35:0 36:0 37:0 38:-1 39:3 40:14 41:0 42:0 43:0 44:0 45:-2 46:-1 47:0 48:0 49:-1 50:-2 51:4 52:22 53:-2 54:3 55:0 56:0 57:-5 58:-1 59:0 60:0 
37.81700179659713 1:2 2:1 3:-2 4:-9 5:4 6:-8 7:0 8:-1 9:7 10:0 11:0 12:0 13:1 14:0 15:-1 16:-1 17:2 18:-5 19:0 20:-1 21:4 22:0 23:0 24:0 25:0 26:0 27:0 28:0 29:0 30:0 31:2 32:0 33:0 34:0 35:0 36:0 37:0 38:-1 39:2 40:4 41:-2 42:6 43:1 44:0 45:-4 46:0 47:0 48:0 49:-1 50:-1 51:3 52:9 53:-5 54:11 55:0 56:0 57:-6 58:0 59:0 60:0 
404.4806926393118 1:1 2:1 3:-3 4:-7 5:4 6:-10 7:2 8:1 9:6 10:0 11:0 12:0 13:1 14:0 15:-1 16:-3 17:2 18:-4 19:1 20:1 21:2 22:0 23:0 24:0 25:0 26:0 27:0 28:2 29:-1 30:1 31:0 32:1 33:0 34:0 35:0 36:0 37:-1 38:-1 39:1 40:4 41:-2 42:6 43:0 44:-1 45:-2 46:0 47:0 48:0 49:-2 50:-1 51:3 52:6 53:-3 54:10 55:0 56:-2 57:-4 58:0 59:0 60:0 
392.108382131642 1:1 2:0 3:-2 4:-6 5:3 6:-9 7:1 8:1 9:4 10:0 11:0 12:0 13:0 14:0 15:-1 16:-1 17:0 18:-4 19:0 20:1 21:2 22:0 23:0 24:0 25:-1 26:-1 27:0 28:1 29:-1 30:1 31:0 32:-1 33:0 34:0 35:0 36:0 37:-2 38:-1 39:2 40:3 41:-2 42:5 43:0 44:-2 45:-2 46:0 47:0 48:0 49:-1 50:-1 51:2 52:5 53:-4 54:9 55:-1 56:-3 57:-2 58:0 59:0 60:0 
380.1330532030372 1:0 2:0 3:-1 4:-3 5:3 6:-7 7:2 8:2 9:2 10:0 11:0 12:0 13:-1 14:0 15:1 16:-1 17:2 18:-3 19:2 20:1 21:0 22:0 23:0 24:0 25:0 26:0 27:1 28:1 29:0 30:1 31:1 32:0 33:0 34:0 35:0 36:0 37:0 38:0 39:1 40:2 41:-3 42:6 43:0 44:-2 45:0 46:0 47:0 48:0 49:-1 50:0 51:1 52:2 53:-4 54:7 55:-1 56:-3 57:0 58:0 59:0 60:0 
315.162340757896 1:1 2:0 3:0 4:0 5:0 6:0 7:5 8:1 9:11 10:0 11:0 12:0 13:0 14:-1 15:1 16:0 17:-1 18:0 19:1 20:1 21:2 22:0 23:0 24:0 25:-1 26:-1 27:1 28:0 29:-1 30:0 31:-2 32:0 33:-7 34:0 35:0 36:0 37:-2 38:-1 39:1 40:0 41:-1 42:0 43:-2 44:-1 45:-7 46:0 47:0 48:0 49:-2 50:-1 51:1 52:0 53:-1 54:0 55:0 56:-1 57:3 58:0 59:0 60:0 
404.4806926393118 1:0 2:0 3:0 4:1 5:-1 6:0 7:-2 8:0 9:-13 10:0 11:0 12:0 13:0 14:0 15:0 16:1 17:-1 18:0 19:0 20:0 21:-3 22:0 23:0 24:0 25:0 26:0 27:0 28:1 29:-1 30:0 31:2 32:0 33:6 34:0 35:0 36:0 37:-1 38:0 39:1 40:0 41:-1 42:0 43:2 44:0 45:6 46:0 47:0 48:0 49:-1 50:0 51:1 52:0 53:0 54:0 55:2 56:0 57:6 58:0 59:0 60:0 
404.4806926393118 1:0 2:0 3:0 4:1 5:-1 6:0 7:-1 8:-1 9:-5 10:0 11:0 12:0 13:0 14:0 15:0 16:1 17:-1 18:0 19:1 20:-1 21:4 22:0 23:0 24:0 25:-1 26:0 27:1 28:0 29:-1 30:0 31:1 32:-1 33:4 34:0 35:0 36:0 37:-1 38:0 39:1 40:0 41:0 42:0 43:1 44:-1 45:4 46:0 47:0 48:0 49:-1 50:0 51:1 52:0 53:1 54:0 55:-2 56:0 57:-5 58:0 59:0 60:0 
403.310636709281 1:0 2:0 3:0 4:0 5:-2 6:0 7:3 8:-1 9:10 10:-1 11:-1 12:0 13:0 14:0 15:0 16:0 17:-1 18:0 19:3 20:-1 21:10 22:-1 23:-1 24:0 25:0 26:0 27:0 28:0 29:0 30:0 31:0 32:0 33:1 34:-1 35:-1 36:0 37:-1 38:0 39:1 40:0 41:1 42:0 43:-3 44:1 45:-9 46:0 47:0 48:1 49:-1 50:0 51:1 52:0 53:1 54:0 55:-3 56:1 57:-9 58:0 59:0 60:1 
391.594623935442 1:0 2:0 3:0 4:1 5:-1 6:0 7:3 8:-1 9:8 10:-1 11:-1 12:0 13:-1 14:0 15:1 16:1 17:0 18:0 19:0 20:0 21:-2 22:0 23:0 24:1 25:-1 26:0 27:1 28:1 29:0 30:0 31:0 32:0 33:-2 34:0 35:0 36:1 37:-1 38:0 39:1 40:0 41:0 42:0 43:0 44:0 45:-2 46:0 47:0 48:1 49:-1 50:0 51:1 52:0 53:0 54:0 55:0 56:-2 57:-2 58:0 59:0 60:1 
404.4806926393118 1:0 2:0 3:0 4:0 5:0 6:0 7:6 8:1 9:2 10:0 11:0 12:0 13:0 14:0 15:0 16:0 17:0 18:0 19:2 20:0 21:1 22:0 23:0 24:0 25:0 26:0 27:0 28:0 29:0 30:0 31:-2 32:-1 33:-1 34:0 35:0 36:0 37:0 38:0 39:0 40:0 41:0 42:0 43:-2 44:-1 45:-1 46:0 47:0 48:0 49:0 50:0 51:0 52:0 53:0 54:0 55:-2 56:-1 57:-1 58:0 59:0 60:0 
404.4806926393118 1:0 2:0 3:0 4:0 5:0 6:0 7:0 8:0 9:0 10:0 11:0 12:0 13:0 14:0 15:0 16:0 17:0 18:0 19:0 20:0 21:0 22:0 23:0 24:0 25:0 26:0 27:0 28:0 29:0 30:0 31:0 32:0 33:0 34:0 35:0 36:0 37:0 38:0 39:0 40:0 41:0 42:0 43:0 44:0 45:0 46:0 47:0 48:0 49:0 50:0 51:0 52:0 53:0 54:0 55:0 56:0 57:0 58:0 59:0 60:0 
404.4806926393118 1:-1 2:0 3:0 4:-1 5:1 6:1 7:0 8:-1 9:1 10:0 11:0 12:0 13:-1 14:0 15:0 16:2 17:1 18:1 19:0 20:-1 21:1 22:0 23:0 24:0 25:-1 26:0 27:0 28:2 29:0 30:1 31:0 32:-1 33:1 34:0 35:0 36:0 37:0 38:0 39:2 40:-1 41:-2 42:1 43:1 44:0 45:0 46:0 47:0 48:0 49:0 50:0 51:2 52:-4 53:-4 54:0 55:1 56:1 57:-2 58:0 59:0 60:0 
344.8444690653524 1:-1 2:0 3:-1 4:3 5:2 6:1 7:0 8:-2 9:3 10:0 11:0 12:0 13:0 14:0 15:1 16:0 17:0 18:1 19:1 20:-1 21:2 22:0 23:0 24:0 25:0 26:0 27:1 28:-3 29:-2 30:0 31:1 32:0 33:0 34:0 35:0 36:0 37:0 38:0 39:1 40:-3 41:-2 42:0 43:1 44:1 45:0 46:0 47:0 48:0 49:0 50:0 51:1 52:0 53:-1 54:0 55:1 56:2 57:-1 58:0 59:0 60:0 
268.4798905605294 1:0 2:0 3:0 4:-3 5:-2 6:0 7:0 8:-2 9:1 10:0 11:0 12:0 13:0 14:0 15:0 16:-3 17:-2 18:0 19:0 20:-1 21:1 22:0 23:0 24:0 25:0 26:0 27:0 28:0 29:-1 30:0 31:0 32:0 33:0 34:0 35:0 36:0 37:0 38:0 39:0 40:3 41:1 42:0 43:0 44:0 45:0 46:0 47:0 48:0 49:0 50:0 51:0 52:3 53:1 54:0 55:0 56:0 57:0 58:0 59:0 60:0 
404.4806926393118 1:0 2:0 3:0 4:-5 5:-2 6:0 7:0 8:-1 9:1 10:0 11:0 12:0 13:0 14:0 15:0 16:-2 17:-1 18:0 19:0 20:0 21:0 22:0 23:0 24:0 25:0 26:0 27:0 28:1 29:1 30:0 31:0 32:0 33:0 34:0 35:0 36:0 37:0 38:0 39:0 40:1 41:1 42:0 43:0 44:0 45:0 46:0 47:0 48:0 49:0 50:0 51:0 52:1 53:1 54:0 55:0 56:-1 57:2 58:0 59:0 60:0 
404.4806926393118 1:0 2:0 3:0 4:0 5:0 6:0 7:1 8:1 9:-1 10:0 11:0 12:0 13:0 14:0 15:0 16:0 17:0 18:0 19:1 20:1 21:-1 22:0 23:0 24:0 25:0 26:0 27:0 28:0 29:0 30:0 31:1 32:0 33:1 34:0 35:0 36:0 37:0 38:0 39:0 40:0 41:0 42:0 43:-1 44:-1 45:2 46:0 47:0 48:0 49:0 50:0 51:0 52:0 53:0 54:0 55:-1 56:-1 57:2 58:0 59:0 60:0 
404.4806926393118 1:0 2:0 3:0 4:0 5:0 6:0 7:2 8:0 9:0 10:0 11:0 12:0 13:0 14:0 15:0 16:0 17:0 18:0 19:0 20:-1 21:1 22:0 23:0 24:0 25:0 26:0 27:0 28:0 29:0 30:0 31:0 32:-1 33:1 34:0 35:0 36:0 37:0 38:0 39:0 40:0 41:0 42:0 43:0 44:-1 45:1 46:0 47:0 48:0 49:0 50:0 51:0 52:0 53:0 54:0 55:2 56:-1 57:1 58:0 59:0 60:0 
404.4806926393118 1:0 2:0 3:0 4:0 5:0 6:0 7:-1 8:0 9:0 10:0 11:0 12:0 13:0 14:0 15:0 16:0 17:0 18:0 19:1 20:0 21:0 22:0 23:0 24:0 25:0 26:0 27:0 28:0 29:0 30:0 31:1 32:0 33:0 34:0 35:0 36:0 37:0 38:0 39:0 40:0 41:0 42:0 43:1 44:0 45:0 46:0 47:0 48:0 49:0 50:0 51:0 52:-1 53:0 54:1 55:1 56:0 57:0 58:0 59:0 60:0 
404.4806926393118 1:0 2:0 3:0 4:0 5:-1 6:0 7:0 8:0 9:0 10:0 11:0 12:0 13:0 14:0 15:0 16:0 17:-1 18:0 19:0 20:0 21:0 22:0 23:0 24:0 25:0 26:0 27:0 28:0 29:-1 30:0 31:0 32:0 33:0 34:0 35:0 36:0 37:0 38:0 39:0 40:-1 41:-1 42:1 43:0 44:0 45:0 46:0 47:0 48:0 49:0 50:-1 51:0 52:-2 53:0 54:1 55:0 56:0 57:0 58:-1 59:-2 60:0 
404.4806926393118 1:0 2:0 3:0 4:2 5:-1 6:0 7:0 8:0 9:0 10:0 11:1 12:0 13:0 14:0 15:0 16:1 17:-1 18:1 19:0 20:0 21:0 22:0 23:1 24:0 25:0 26:-1 27:0 28:0 29:0 30:1 31:0 32:0 33:0 34:-1 35:-1 36:0 37:0 38:-1 39:0 40:-1 41:0 42:1 43:0 44:0 45:0 46:-1 47:-1 48:0 49:0 50:-1 51:0 52:-3 53:0 54:1 55:0 56:-1 57:0 58:-1 59:-1 60:0 
394.0347449139192 1:0 2:0 3:1 4:2 5:-2 6:0 7:1 8:0 9:0 10:0 11:1 12:0 13:0 14:-1 15:1 16:1 17:-1 18:0 19:1 20:0 21:0 22:-1 23:-1 24:0 25:0 26:-1 27:1 28:0 29:-1 30:0 31:1 32:0 33:0 34:-1 35:-1 36:0 37:0 38:-1 39:1 40:-2 41:-1 42:0 43:1 44:-1 45:0 46:-1 47:-1 48:0 49:0 50:-1 51:-2 52:-3 53:1 54:1 55:-1 56:-1 57:0 58:-1 59:-1 60:0 
111.8298832022574 1:0 2:-1 3:2 4:2 5:-2 6:0 7:1 8:0 9:0 10:0 11:0 12:0 13:0 14:-1 15:2 16:1 17:-2 18:0 19:1 20:0 21:0 22:0 23:0 24:0 25:0 26:-1 27:2 28:-1 29:-2 30:0 31:1 32:-1 33:0 34:0 35:0 36:0 37:0 38:-1 39:-1 40:-2 41:0 42:1 43:-1 44:-1 45:0 46:0 47:0 48:0 49:0 50:0 51:-1 52:-2 53:3 54:2 55:-2 56:-1 57:0 58:0 59:0 60:0 
134.8125475398748 1:0 2:-1 3:2 4:2 5:-3 6:-1 7:3 8:1 9:0 10:0 11:0 12:0 13:0 14:-1 15:2 16:0 17:-3 18:-1 19:3 20:0 21:0 22:0 23:0 24:0 25:0 26:-1 27:-1 28:-1 29:-1 30:0 31:1 32:0 33:0 34:0 35:0 36:0 37:0 38:0 39:-1 40:-1 41:2 42:1 43:0 44:0 45:0 46:0 47:0 48:0 49:0 50:-1 51:-2 52:-2 53:3 54:1 55:-4 56:-1 57:0 58:0 59:0 60:0 
197.0903472162884 1:0 2:-1 3:3 4:1 5:-5 6:-1 7:5 8:0 9:0 10:0 11:-1 12:1 13:0 14:-1 15:0 16:0 17:-3 18:0 19:3 20:0 21:0 22:0 23:-1 24:1 25:0 26:0 27:0 28:0 29:0 30:1 31:2 32:0 33:0 34:0 35:-1 36:1 37:0 38:-1 39:-1 40:-1 41:1 42:1 43:-2 44:-1 45:0 46:0 47:-1 48:1 49:0 50:-1 51:-1 52:-3 53:4 54:0 55:-7 56:-2 57:0 58:-1 59:0 60:-1 
402.2222628637671 1:-3 2:-1 3:3 4:-1 5:-2 6:3 7:-3 8:-3 9:5 10:-4 11:-1 12:4 13:-2 14:-1 15:2 16:-1 17:-1 18:2 19:-1 20:-1 21:2 22:-3 23:-1 24:2 25:0 26:-1 27:1 28:-1 29:0 30:1 31:1 32:-1 33:0 34:-1 35:-1 36:0 37:1 38:0 39:-1 40:0 41:0 42:-1 43:1 44:5 45:0 46:1 47:-1 48:-1 49:3 50:1 51:-2 52:1 53:-1 54:-2 55:2 56:-1 57:-3 58:3 59:0 60:-4 
285.4525747644752 1:-4 2:-1 3:3 4:-2 5:-1 6:3 7:-3 8:-2 9:4 10:-4 11:-1 12:4 13:-2 14:-1 15:2 16:-2 17:0 18:2 19:-1 20:-2 21:2 22:-2 23:-1 24:2 25:-1 26:0 27:0 28:-1 29:0 30:0 31:-1 32:4 33:2 34:0 35:-1 36:1 37:1 38:1 39:-1 40:0 41:-1 42:-1 43:0 44:-2 45:-1 46:2 47:0 48:-2 49:3 50:1 51:-3 52:1 53:0 54:-3 55:2 56:-2 57:-3 58:2 59:0 60:-3 
51.68586186646772 1:0 2:-2 3:5 4:-9 5:-3 6:16 7:0 8:-3 9:5 10:-1 11:-3 12:7 13:0 14:-1 15:2 16:-9 17:-1 18:13 19:0 20:-2 21:2 22:-1 23:-2 24:4 25:0 26:0 27:0 28:-9 29:1 30:10 31:1 32:-1 33:0 34:0 35:-1 36:1 37:1 38:1 39:-1 40:4 41:2 42:-8 43:1 44:0 45:-1 46:1 47:0 48:-2 49:0 50:2 51:-4 52:19 53:-2 54:-27 55:2 56:3 57:-4 58:2 59:2 60:-6 
236.3226596063294 1:1 2:-3 3:2 4:-1 5:-2 6:3 7:0 8:0 9:4 10:-1 11:-3 12:3 13:0 14:0 15:0 16:1 17:0 18:0 19:0 20:0 21:0 22:1 23:0 24:0 25:0 26:0 27:0 28:1 29:0 30:0 31:0 32:0 33:0 34:1 35:0 36:0 37:0 38:0 39:0 40:1 41:0 42:0 43:0 44:0 45:0 46:1 47:0 48:0 49:0 50:0 51:0 52:1 53:0 54:0 55:0 56:0 57:0 58:1 59:0 60:0 
66.17870652024922 1:0 2:0 3:0 4:0 5:0 6:0 7:0 8:0 9:0 10:0 11:0 12:0 13:0 14:0 15:0 16:0 17:0 18:0 19:0 20:0 21:0 22:0 23:0 24:0 25:0 26:0 27:0 28:0 29:0 30:0 31:0 32:0 33:0 34:0 35:0 36:0 37:0 38:0 39:0 40:0 41:0 42:0 43:0 44:0 45:0 46:0 47:0 48:0 49:0 50:0 51:0 52:0 53:0 54:0 55:0 56:0 57:0 58:0 59:0 60:0 
404.4806926393118 1:0 2:0 3:0 4:0 5:0 6:0 7:0 8:0 9:0 10:0 11:0 12:0 13:0 14:0 15:0 16:0 17:0 18:0 19:0 20:0 21:0 22:0 23:0 24:0 25:0 26:0 27:0 28:0 29:0 30:0 31:0 32:0 33:0 34:0 35:0 36:0 37:0 38:0 39:0 40:0 41:0 42:0 43:0 44:0 45:0 46:0 47:0 48:0 49:0 50:0 51:0 52:0 53:0 54:0 55:0 56:0 57:0 58:0 59:0 60:0 
404.4806926393118 1:0 2:0 3:0 4:0 5:0 6:0 7:0 8:0 9:0 10:0 11:0 12:0 13:0 14:0 15:0 16:0 17:0 18:0 19:0 20:0 21:0 22:0 23:0 24:0 25:0 26:0 27:0 28:0 29:0 30:0 31:0 32:0 33:0 34:0 35:0 36:0 37:0 38:0 39:0 40:0 41:0 42:0 43:0 44:0 45:0 46:0 47:0 48:0 49:0 50:0 51:0 52:0 53:0 54:0 55:0 56:0 57:0 58:0 59:0 60:0 
404.4806926393118 1:0 2:0 3:0 4:0 5:0 6:0 7:0 8:0 9:0 10:0 11:0 12:0 13:0 14:0 15:0 16:0 17:0 18:0 19:0 20:0 21:0 22:0 23:0 24:0 25:0 26:0 27:0 28:0 29:0 30:0 31:0 32:0 33:0 34:0 35:0 36:0 37:0 38:0 39:0 40:0 41:0 42:0 43:0 44:0 45:0 46:0 47:0 48:0 49:0 50:0 51:0 52:0 53:0 54:0 55:0 56:0 57:0 58:0 59:0 60:0 
404.4806926393118 1:0 2:0 3:0 4:0 5:0 6:0 7:0 8:0 9:0 10:0 11:0 12:0 13:0 14:0 15:0 16:0 17:0 18:0 19:0 20:0 21:0 22:0 23:0 24:0 25:0 26:0 27:0 28:0 29:0 30:0 31:0 32:0 33:0 34:0 35:0 36:0 37:0 38:0 39:0 40:0 41:0 42:0 43:0 44:0 45:0 46:0 47:0 48:0 49:0 50:0 51:0 52:0 53:0 54:0 55:0 56:0 57:0 58:0 59:0 60:0 
-461.3238651529993 1:0 2:0 3:0 4:1 5:-2 6:0 7:-8 8:-3 9:-16 10:0 11:0 12:0 13:0 14:0 15:0 16:1 17:-2 18:0 19:-2 20:-2 21:-4 22:0 23:0 24:0 25:0 26:0 27:0 28:1 29:-2 30:0 31:3 32:0 33:8 34:0 35:0 36:0 37:0 38:0 39:0 40:2 41:-2 42:0 43:3 44:0 45:8 46:0 47:0 48:0 49:0 50:0 51:0 52:-1 53:4 54:1 55:5 56:1 57:8 58:0 59:0 60:0 
-9.171849708185908 1:0 2:-1 3:0 4:13 5:-10 6:-5 7:0 8:0 9:0 10:0 11:0 12:0 13:0 14:-1 15:1 16:5 17:-4 18:-2 19:0 20:-1 21:0 22:0 23:0 24:0 25:0 26:0 27:1 28:-2 29:1 30:1 31:0 32:-1 33:0 34:0 35:0 36:0 37:0 38:0 39:0 40:-7 41:5 42:3 43:0 44:-1 45:0 46:0 47:0 48:0 49:0 50:0 51:0 52:-11 53:8 54:4 55:0 56:-1 57:0 58:0 59:0 60:0 
-353.8638583288962 1:0 2:-1 3:1 4:10 5:-8 6:-4 7:0 8:0 9:0 10:0 11:0 12:0 13:0 14:0 15:1 16:3 17:-3 18:-1 19:0 20:0 21:0 22:0 23:0 24:0 25:0 26:0 27:0 28:-2 29:1 30:1 31:0 32:0 33:0 34:0 35:0 36:0 37:0 38:0 39:0 40:-6 41:4 42:2 43:0 44:0 45:0 46:0 47:0 48:0 49:0 50:0 51:0 52:-6 53:4 54:2 55:0 56:0 57:0 58:0 59:0 60:0 
-143.4708717377751 1:0 2:0 3:1 4:7 5:-6 6:-2 7:0 8:0 9:0 10:0 11:0 12:0 13:0 14:0 15:0 16:2 17:-2 18:0 19:0 20:0 21:0 22:0 23:0 24:0 25:0 26:0 27:0 28:-2 29:1 30:1 31:0 32:0 33:0 34:0 35:0 36:0 37:0 38:0 39:0 40:-2 41:1 42:1 43:0 44:0 45:0 46:0 47:0 48:0 49:0 50:0 51:0 52:-6 53:4 54:3 55:0 56:0 57:0 58:0 59:0 60:0 
-251.8095129179044 1:0 2:0 3:0 4:3 5:-3 6:-1 7:0 8:0 9:0 10:0 11:0 12:1 13:0 14:0 15:0 16:3 17:-3 18:-1 19:0 20:0 21:0 22:0 23:0 24:1 25:0 26:0 27:0 28:-1 29:0 30:1 31:0 32:0 33:0 34:0 35:0 36:1 37:-1 38:-1 39:1 40:-3 41:1 42:2 43:0 44:0 45:0 46:0 47:0 48:1 49:-1 50:-2 51:1 52:-3 53:2 54:2 55:1 56:0 57:1 58:-1 59:-1 60:0 
-19.84063896668994 1:0 2:1 3:0 4:0 5:1 6:3 7:0 8:0 9:0 10:0 11:0 12:1 13:0 14:1 15:0 16:-4 17:4 18:5 19:0 20:0 21:0 22:0 23:0 24:1 25:-1 26:0 27:1 28:-6 29:5 30:6 31:0 32:0 33:0 34:0 35:0 36:1 37:-1 38:-1 39:1 40:-6 41:6 42:6 43:1 44:0 45:1 46:-1 47:-1 48:0 49:-2 50:-1 51:1 52:14 53:-17 54:-16 55:0 56:0 57:2 58:-2 59:-1 60:0 
-7.130447455737409 1:1 2:1 3:0 4:-10 5:12 6:11 7:0 8:0 9:-1 10:1 11:0 12:1 13:0 14:0 15:1 16:-12 17:13 18:12 19:0 20:0 21:-1 22:1 23:0 24:1 25:0 26:-1 27:1 28:-12 29:14 30:12 31:1 32:0 33:0 34:0 35:-1 36:0 37:-1 38:-1 39:1 40:8 41:-9 42:-10 43:0 44:0 45:1 46:-1 47:-1 48:0 49:-1 50:-1 51:1 52:22 53:-34 54:-25 55:0 56:0 57:2 58:-2 59:-2 60:0 
-11.97449784826029 1:0 2:0 3:0 4:-18 5:23 6:20 7:0 8:-1 9:-1 10:1 11:1 12:1 13:0 14:-1 15:0 16:-18 17:24 18:20 19:1 20:-1 21:0 22:0 23:0 24:0 25:-1 26:-1 27:0 28:2 29:1 30:-2 31:0 32:-1 33:1 34:-1 35:0 36:0 37:-1 38:-1 39:0 40:16 41:-24 42:-17 43:0 44:-1 45:2 46:-2 47:-1 48:0 49:-1 50:-1 51:1 52:14 53:-25 54:-19 55:0 56:0 57:2 58:-2 59:-1 60:0 
-0.01671784477400051 1:1 2:0 3:0 4:-23 5:33 6:29 7:1 8:-1 9:-1 10:1 11:0 12:0 13:0 14:0 15:0 16:-3 17:10 18:7 19:0 20:-1 21:0 22:0 23:0 24:0 25:0 26:0 27:0 28:11 29:-15 30:-8 31:0 32:-1 33:1 34:-1 35:-1 36:0 37:0 38:0 39:1 40:9 41:-16 42:-10 43:0 44:0 45:1 46:-1 47:-1 48:0 49:-1 50:0 51:1 52:6 53:-16 54:-15 55:0 56:0 57:1 58:-1 59:-1 60:0 
-49.10852047294624 1:0 2:0 3:0 4:-8 5:20 6:16 7:0 8:-1 9:0 10:0 11:0 12:0 13:0 14:0 15:0 16:6 17:-5 18:1 19:0 20:-1 21:1 22:-1 23:-1 24:0 25:0 26:0 27:1 28:4 29:-6 30:-1 31:0 32:0 33:1 34:-1 35:-1 36:0 37:-1 38:0 39:1 40:1 41:-6 42:-6 43:0 44:0 45:1 46:-1 47:-1 48:0 49:-1 50:0 51:0 52:-3 53:-7 54:-9 55:0 56:0 57:1 58:-1 59:-1 60:0 
-2.210048776148371 1:0 2:0 3:1 4:14 5:3 6:7 7:2 8:0 9:-1 10:0 11:0 12:0 13:0 14:0 15:1 16:4 17:0 18:2 19:2 20:0 21:0 22:0 23:0 24:0 25:0 26:-1 27:0 28:-3 29:-2 30:-1 31:0 32:0 33:0 34:0 35:0 36:0 37:0 38:-1 39:0 40:-7 41:-2 42:-2 43:-2 44:-1 45:0 46:0 47:0 48:0 49:-1 50:-2 51:0 52:-9 53:-2 54:-3 55:-2 56:-2 57:1 58:0 59:-1 60:0 
-450.2579167691587 1:0 2:0 3:0 4:8 5:0 6:1 7:2 8:1 9:-1 10:0 11:1 12:0 13:0 14:0 15:0 16:4 17:0 18:0 19:0 20:0 21:-1 22:0 23:1 24:0 25:-1 26:-1 27:0 28:2 29:0 30:-1 31:0 32:-1 33:0 34:0 35:0 36:0 37:-1 38:-1 39:0 40:-4 41:-1 42:0 43:0 44:-2 45:1 46:0 47:-1 48:0 49:0 50:-2 51:0 52:-10 53:-3 54:2 55:1 56:-2 57:1 58:0 59:-2 60:1 
-467.0756793454249 1:-1 2:1 3:0 4:11 5:3 6:-3 7:0 8:1 9:-1 10:0 11:1 12:0 13:-1 14:1 15:0 16:5 17:2 18:-2 19:0 20:0 21:0 22:0 23:0 24:0 25:0 26:0 27:0 28:-1 29:0 30:0 31:1 32:0 33:0 34:0 35:-1 36:1 37:1 38:-1 39:0 40:-5 41:-2 42:2 43:1 44:-1 45:1 46:0 47:-2 48:1 49:1 50:-1 51:0 52:-10 53:-4 54:4 55:1 56:-1 57:1 58:0 59:-2 60:1 
-228.0082683608172 1:-2 2:1 3:0 4:10 5:4 6:-4 7:-1 8:0 9:0 10:0 11:1 12:0 13:-1 14:0 15:0 16:4 17:2 18:-2 19:0 20:0 21:0 22:0 23:0 24:1 25:0 26:-1 27:0 28:0 29:0 30:0 31:0 32:-1 33:1 34:0 35:-1 36:1 37:0 38:-1 39:0 40:-5 41:-2 42:2 43:0 44:-1 45:1 46:0 47:-1 48:1 49:0 50:-1 51:0 52:-9 53:-5 54:5 55:1 56:-1 57:2 58:0 59:-1 60:1 
-15.37344029798494 1:-1 2:1 3:0 4:8 5:4 6:-4 7:0 8:1 9:-1 10:0 11:0 12:0 13:0 14:0 15:0 16:4 17:2 18:-2 19:0 20:0 21:0 22:0 23:-1 24:0 25:0 26:0 27:0 28:-1 29:0 30:0 31:0 32:0 33:0 34:0 35:-1 36:0 37:0 38:0 39:0 40:-5 41:-3 42:3 43:1 44:0 45:1 46:0 47:-1 48:0 49:-1 50:-1 51:2 52:-7 53:-5 54:5 55:1 56:-1 57:0 58:0 59:-1 60:0 
-300.6880605979604 1:1 2:-1 3:-1 4:6 5:5 6:-5 7:0 8:0 9:0 10:0 11:-1 12:1 13:1 14:-1 15:-1 16:2 17:2 18:-2 19:1 20:0 21:1 22:0 23:-1 24:1 25:0 26:-2 27:1 28:0 29:0 30:0 31:1 32:-1 33:0 34:0 35:-1 36:1 37:-1 38:0 39:2 40:-3 41:-3 42:3 43:1 44:-1 45:0 46:0 47:0 48:1 49:-2 50:1 51:3 52:-5 53:-5 54:7 55:1 56:-1 57:0 58:0 59:1 60:0 
-223.9826739939879 1:1 2:-1 3:-2 4:4 5:4 6:-5 7:0 8:0 9:1 10:-1 11:-2 12:1 13:0 14:-2 15:0 16:2 17:2 18:-3 19:0 20:-1 21:0 22:-1 23:-2 24:1 25:-1 26:0 27:1 28:-1 29:-1 30:0 31:0 32:-1 33:0 34:-1 35:-1 36:1 37:-2 38:1 39:2 40:-3 41:-3 42:4 43:0 44:-1 45:0 46:-1 47:0 48:0 49:-2 50:2 51:3 52:-3 53:-5 54:8 55:0 56:-1 57:-1 58:0 59:2 60:0 
-257.8284184177544 1:1 2:-3 3:-1 4:3 5:4 6:-7 7:0 8:0 9:1 10:-1 11:-3 12:1 13:0 14:-1 15:0 16:0 17:1 18:-4 19:0 20:0 21:1 22:-1 23:-2 24:1 25:-1 26:0 27:1 28:-2 29:-1 30:0 31:0 32:0 33:1 34:-1 35:-1 36:0 37:-1 38:1 39:2 40:-2 41:-3 42:4 43:0 44:0 45:0 46:0 47:1 48:0 49:-2 50:2 51:1 52:0 53:-4 54:8 55:0 56:-1 57:0 58:-1 59:2 60:0 
-155.119849955016 1:1 2:-2 3:-1 4:0 5:3 6:-8 7:0 8:0 9:1 10:-1 11:-3 12:1 13:0 14:-1 15:0 16:-2 17:1 18:-4 19:0 20:0 21:1 22:-1 23:-2 24:0 25:0 26:0 27:1 28:-2 29:-1 30:0 31:0 32:0 33:0 34:0 35:0 36:0 37:-1 38:1 39:0 40:0 41:-2 42:4 43:0 44:-1 45:0 46:-1 47:1 48:0 49:-1 50:0 51:0 52:3 53:-4 54:9 55:1 56:-1 57:0 58:0 59:0 60:0 
-281.0386514711314 1:-1 2:0 3:3 4:-6 5:2 6:-4 7:2 8:-1 9:2 10:0 11:1 12:0 13:-1 14:0 15:2 16:-3 17:1 18:-2 19:1 20:-1 21:1 22:0 23:1 24:0 25:-1 26:0 27:1 28:-1 29:-1 30:1 31:-1 32:0 33:-1 34:0 35:1 36:0 37:1 38:0 39:-1 40:3 41:-1 42:2 43:0 44:1 45:-1 46:0 47:-1 48:1 49:1 50:0 51:-2 52:6 53:-2 54:4 55:0 56:1 57:-1 58:0 59:-2 60:1 
-374.8361744477291 1:-1 2:0 3:3 4:-6 5:2 6:-4 7:1 8:-2 9:2 10:0 11:1 12:0 13:-1 14:0 15:2 16:-4 17:0 18:-1 19:-1 20:-1 21:0 22:0 23:1 24:0 25:1 26:0 27:0 28:0 29:0 30:0 31:0 32:0 33:0 34:0 35:-1 36:1 37:1 38:0 39:-1 40:3 41:-1 42:2 43:0 44:0 45:0 46:0 47:-2 48:1 49:0 50:0 51:0 52:5 53:-1 54:3 55:0 56:0 57:1 58:0 59:-2 60:1 
-181.0635770320293 1:1 2:0 3:-1 4:-8 5:1 6:-2 7:0 8:0 9:0 10:0 11:0 12:0 13:0 14:-1 15:0 16:-4 17:0 18:0 19:0 20:0 21:0 22:0 23:0 24:0 25:-1 26:-1 27:1 28:2 29:-1 30:1 31:0 32:0 33:0 34:0 35:0 36:0 37:-2 38:-1 39:2 40:5 41:-1 42:1 43:0 44:0 45:0 46:0 47:0 48:0 49:-2 50:-1 51:2 52:5 53:-1 54:1 55:0 56:0 57:0 58:0 59:0 60:0 
-91.72278494370487 1:0 2:0 3:0 4:-5 5:0 6:-2 7:0 8:0 9:0 10:0 11:0 12:0 13:0 14:0 15:0 16:-5 17:0 18:-2 19:0 20:0 21:0 22:0 23:0 24:0 25:0 26:0 27:0 28:-2 29:0 30:-1 31:0 32:0 33:0 34:0 35:0 36:0 37:-1 38:0 39:0 40:2 41:-2 42:2 43:0 44:0 45:0 46:0 47:0 48:0 49:-2 50:-1 51:1 52:6 53:-2 54:4 55:0 56:0 57:0 58:0 59:0 60:0 
-523.5815177419349 1:-1 2:0 3:0 4:-9 5:-3 6:-1 7:0 8:0 9:0 10:0 11:0 12:0 13:-1 14:0 15:0 16:-2 17:-2 18:1 19:0 20:0 21:0 22:0 23:0 24:0 25:-1 26:0 27:0 28:3 29:-2 30:1 31:0 32:0 33:0 34:0 35:0 36:0 37:0 38:0 39:0 40:5 41:0 42:1 43:0 44:0 45:0 46:0 47:0 48:0 49:1 50:0 51:0 52:6 53:3 54:-2 55:0 56:0 57:0 58:0 59:0 60:0 
-363.8763797310338 1:-1 2:-1 3:0 4:-6 5:-4 6:3 7:0 8:0 9:1 10:0 11:-1 12:0 13:-1 14:-1 15:0 16:-1 17:-4 18:3 19:0 20:0 21:1 22:0 23:-1 24:0 25:0 26:-1 27:0 28:1 29:-2 30:3 31:0 32:0 33:1 34:0 35:-1 36:0 37:1 38:-1 39:0 40:2 41:1 42:0 43:0 44:0 45:1 46:0 47:-1 48:0 49:1 50:1 51:0 52:4 53:5 54:-5 55:1 56:-1 57:0 58:0 59:0 60:0 
-375.0592294805516 1:-2 2:-1 3:1 4:-3 5:-6 6:5 7:0 8:0 9:1 10:0 11:-1 12:0 13:-1 14:-1 15:1 16:-1 17:-4 18:5 19:0 20:0 21:1 22:0 23:-1 24:0 25:0 26:-1 27:1 28:0 29:-1 30:2 31:0 32:0 33:1 34:0 35:-1 36:0 37:0 38:1 39:1 40:2 41:3 42:-3 43:1 44:-1 45:0 46:0 47:0 48:0 49:1 50:1 51:0 52:2 53:8 54:-8 55:1 56:-2 57:-1 58:0 59:0 60:0 
-212.6953076330015 1:0 2:0 3:0 4:4 5:-3 6:8 7:1 8:-2 9:-1 10:0 11:0 12:0 13:0 14:0 15:0 16:3 17:-2 18:4 19:1 20:-1 21:0 22:0 23:0 24:0 25:0 26:0 27:0 28:1 29:0 30:0 31:-1 32:0 33:1 34:0 35:0 36:0 37:0 38:0 39:0 40:-2 41:1 42:-4 43:-1 44:0 45:1 46:0 47:0 48:0 49:0 50:0 51:0 52:-4 53:4 54:-7 55:0 56:0 57:1 58:0 59:0 60:0 
-15.88056695211071 1:0 2:-1 3:0 4:5 5:-4 6:8 7:2 8:-1 9:0 10:0 11:0 12:0 13:0 14:-1 15:0 16:3 17:-2 18:4 19:0 20:0 21:1 22:0 23:0 24:0 25:0 26:-1 27:0 28:0 29:-1 30:0 31:0 32:0 33:1 34:0 35:0 36:0 37:0 38:-1 39:0 40:-2 41:2 42:-3 43:1 44:0 45:1 46:0 47:0 48:0 49:0 50:0 51:0 52:-5 53:4 54:-7 55:0 56:0 57:0 58:0 59:0 60:0 
-10.48695822359084 1:0 2:-1 3:0 4:6 5:-4 6:8 7:0 8:0 9:1 10:0 11:0 12:0 13:0 14:-1 15:0 16:3 17:-3 18:4 19:0 20:0 21:1 22:0 23:0 24:0 25:0 26:-1 27:0 28:1 29:0 30:1 31:1 32:0 33:1 34:0 35:0 36:0 37:0 38:0 39:0 40:-2 41:2 42:-3 43:0 44:0 45:0 46:0 47:0 48:0 49:0 50:0 51:0 52:-5 53:3 54:-7 55:0 56:0 57:0 58:0 59:0 60:0 
-579.8119218347165 1:0 2:-1 3:0 4:6 5:-5 6:7 7:0 8:0 9:1 10:0 11:0 12:0 13:0 14:-1 15:0 16:4 17:-2 18:4 19:1 20:0 21:1 22:0 23:0 24:0 25:0 26:0 27:0 28:1 29:0 30:0 31:0 32:0 33:0 34:0 35:0 36:0 37:0 38:0 39:0 40:-2 41:1 42:-4 43:0 44:0 45:0 46:0 47:0 48:0 49:0 50:0 51:0 52:-6 53:3 54:-4 55:0 56:0 57:0 58:0 59:0 60:0 
-163.9705159107321 1:0 2:-1 3:1 4:10 5:-8 6:-4 7:1 8:-2 9:2 10:0 11:0 12:0 13:0 14:-1 15:1 16:3 17:-2 18:-2 19:1 20:-1 21:1 22:0 23:0 24:0 25:0 26:-1 27:1 28:0 29:1 30:0 31:0 32:-1 33:0 34:0 35:0 36:0 37:0 38:0 39:0 40:-5 41:3 42:3 43:0 44:0 45:0 46:0 47:0 48:0 49:0 50:0 51:0 52:-8 53:6 54:5 55:1 56:1 57:-1 58:0 59:0 60:0 
-284.9733341342918 1:-1 2:-1 3:1 4:0 5:-5 6:-6 7:0 8:0 9:1 10:0 11:0 12:0 13:-1 14:-1 15:1 16:-1 17:-2 18:-2 19:1 20:-2 21:2 22:0 23:0 24:0 25:0 26:-1 27:1 28:-1 29:0 30:1 31:1 32:-2 33:2 34:0 35:0 36:0 37:0 38:0 39:-1 40:-1 41:2 42:4 43:1 44:0 45:0 46:0 47:0 48:0 49:0 50:0 51:-1 52:1 53:4 54:7 55:0 56:0 57:-3 58:0 59:0 60:0 
-579.8119218347165 1:0 2:0 3:0 4:-5 5:-3 6:-1 7:0 8:-1 9:-1 10:0 11:0 12:0 13:0 14:0 15:1 16:-4 17:-2 18:0 19:0 20:-1 21:1 22:0 23:0 24:0 25:0 26:0 27:1 28:-1 29:0 30:0 31:0 32:-1 33:1 34:0 35:0 36:0 37:0 38:0 39:1 40:2 41:1 42:0 43:0 44:0 45:0 46:0 47:0 48:0 49:0 50:0 51:1 52:5 53:3 54:1 55:0 56:1 57:-1 58:0 59:0 60:0 
-579.8119218347165 1:0 2:0 3:0 4:-6 5:-3 6:0 7:0 8:-1 9:2 10:0 11:0 12:0 13:0 14:0 15:0 16:-3 17:-1 18:0 19:0 20:-1 21:2 22:0 23:0 24:0 25:0 26:0 27:0 28:0 29:0 30:0 31:0 32:0 33:1 34:0 35:0 36:0 37:0 38:0 39:0 40:3 41:2 42:1 43:0 44:1 45:0 46:0 47:0 48:0 49:0 50:0 51:1 52:6 53:2 54:1 55:0 56:1 57:-1 58:0 59:0 60:0 
-579.8119218347165 1:0 2:0 3:0 4:-6 5:-3 6:0 7:0 8:-2 9:2 10:0 11:0 12:0 13:0 14:0 15:0 16:-3 17:-2 18:0 19:0 20:-1 21:1 22:0 23:0 24:0 25:0 26:0 27:0 28:0 29:0 30:1 31:0 32:0 33:0 34:0 35:0 36:0 37:0 38:0 39:1 40:3 41:0 42:1 43:0 44:0 45:-1 46:0 47:0 48:0 49:0 50:0 51:1 52:4 53:1 54:1 55:0 56:0 57:-1 58:0 59:0 60:0 
-579.8119218347165 1:0 2:0 3:0 4:-5 5:-2 6:0 7:0 8:-1 9:2 10:0 11:0 12:0 13:0 14:0 15:0 16:-2 17:0 18:1 19:0 20:0 21:1 22:0 23:0 24:0 25:0 26:0 27:1 28:1 29:0 30:1 31:0 32:0 33:0 34:0 35:0 36:0 37:0 38:0 39:1 40:2 41:1 42:1 43:0 44:0 45:0 46:0 47:0 48:0 49:0 50:0 51:1 52:3 53:1 54:0 55:0 56:0 57:-1 58:0 59:0 60:0 
-579.8119218347165 1:0 2:0 3:0 4:-4 5:-1 6:1 7:0 8:0 9:2 10:0 11:0 12:0 13:0 14:0 15:1 16:-1 17:-1 18:1 19:0 20:0 21:1 22:0 23:0 24:0 25:0 26:0 27:1 28:0 29:0 30:1 31:0 32:0 33:1 34:0 35:0 36:0 37:0 38:0 39:1 40:1 41:0 42:0 43:0 44:0 45:0 46:0 47:0 48:0 49:0 50:0 51:1 52:2 53:0 54:-1 55:0 56:0 57:0 58:0 59:0 60:0 
-579.8119218347165 1:0 2:-1 3:0 4:-3 5:-1 6:1 7:0 8:0 9:1 10:-1 11:-1 12:0 13:0 14:-1 15:0 16:-2 17:0 18:1 19:0 20:0 21:1 22:-1 23:-1 24:0 25:0 26:-1 27:0 28:-1 29:0 30:0 31:0 32:0 33:0 34:-1 35:-1 36:0 37:0 38:-1 39:0 40:0 41:0 42:-1 43:0 44:0 45:0 46:-1 47:-1 48:0 49:-1 50:0 51:0 52:2 53:0 54:-1 55:0 56:0 57:0 58:0 59:1 60:0 
-579.8119218347165 1:0 2:-1 3:0 4:-3 5:0 6:2 7:0 8:0 9:1 10:-1 11:-1 12:0 13:0 14:-1 15:0 16:-2 17:0 18:1 19:0 20:0 21:0 22:-1 23:-1 24:0 25:0 26:-1 27:0 28:-1 29:0 30:0 31:0 32:0 33:0 34:-1 35:-1 36:0 37:-1 38:0 39:0 40:1 41:0 42:0 43:0 44:0 45:0 46:0 47:1 48:0 49:-1 50:1 51:0 52:3 53:-1 54:0 55:1 56:0 57:1 58:0 59:2 60:0 
-58.28982632172308 1:0 2:-2 3:1 4:-4 5:0 6:1 7:0 8:-1 9:0 10:-1 11:-2 12:0 13:0 14:-2 15:1 16:-3 17:0 18:0 19:0 20:-1 21:0 22:-1 23:-2 24:0 25:-1 26:-1 27:1 28:-1 29:0 30:0 31:0 32:-1 33:0 34:0 35:0 36:0 37:-1 38:0 39:1 40:1 41:-1 42:0 43:1 44:-1 45:1 46:0 47:1 48:0 49:-2 50:1 51:0 52:3 53:-2 54:-1 55:0 56:0 57:1 58:1 59:2 60:0 
-469.0658466863916 1:1 2:-2 3:1 4:-4 5:1 6:1 7:0 8:-1 9:0 10:-2 11:-3 12:0 13:0 14:-1 15:1 16:-2 17:1 18:1 19:0 20:-1 21:0 22:-1 23:-1 24:0 25:0 26:0 27:1 28:0 29:0 30:1 31:1 32:-1 33:1 34:-1 35:0 36:0 37:-1 38:1 39:0 40:2 41:-1 42:0 43:0 44:0 45:1 46:0 47:1 48:0 49:-1 50:1 51:0 52:3 53:-1 54:0 55:0 56:0 57:1 58:0 59:1 60:0 
-396.7714314362788 1:0 2:-2 3:1 4:-4 5:1 6:1 7:0 8:-1 9:0 10:-1 11:-2 12:0 13:0 14:-1 15:1 16:-2 17:0 18:1 19:1 20:-1 21:1 22:-1 23:-1 24:0 25:-1 26:0 27:0 28:0 29:-1 30:0 31:0 32:0 33:1 34:0 35:0 36:0 37:-1 38:0 39:0 40:1 41:-1 42:0 43:0 44:0 45:1 46:0 47:0 48:0 49:-1 50:0 51:0 52:1 53:-1 54:0 55:0 56:0 57:1 58:0 59:0 60:0 
-579.8119218347165 1:0 2:-1 3:1 4:-3 5:1 6:1 7:1 8:-1 9:0 10:-1 11:-1 12:0 13:-1 14:0 15:0 16:-1 17:0 18:0 19:0 20:0 21:0 22:0 23:0 24:0 25:-1 26:0 27:0 28:0 29:0 30:0 31:0 32:0 33:0 34:0 35:0 36:0 37:-1 38:0 39:0 40:0 41:0 42:0 43:0 44:0 45:0 46:0 47:0 48:0 49:-1 50:0 51:0 52:4 53:-1 54:0 55:0 56:0 57:0 58:0 59:0 60:0 
-579.8119218347165 1:0 2:0 3:0 4:-3 5:0 6:0 7:0 8:0 9:0 10:0 11:0 12:0 13:0 14:0 15:0 16:-2 17:0 18:0 19:0 20:0 21:0 22:0 23:0 24:0 25:0 26:0 27:0 28:-2 29:0 30:0 31:0 32:0 33:0 34:0 35:0 36:0 37:0 38:0 39:0 40:2 41:-1 42:0 43:0 44:0 45:0 46:0 47:0 48:0 49:0 50:0 51:0 52:5 53:-1 54:0 55:0 56:0 57:0 58:0 59:0 60:0 
-579.8119218347165 1:0 2:0 3:0 4:1 5:-2 6:0 7:-8 8:-3 9:-16 10:0 11:0 12:0 13:0 14:0 15:0 16:1 17:-2 18:0 19:-2 20:-2 21:-4 22:0 23:0 24:0 25:0 26:0 27:0 28:1 29:-2 30:0 31:3 32:0 33:8 34:0 35:0 36:0 37:0 38:0 39:0 40:2 41:-2 42:0 43:3 44:0 45:8 46:0 47:0 48:0 49:0 50:0 51:0 52:-1 53:4 54:1 55:5 56:1 57:8 58:0 59:0 60:0 
-155.6241925769474 1:0 2:-1 3:1 4:10 5:-8 6:-4 7:0 8:0 9:0 10:0 11:0 12:0 13:0 14:0 15:1 16:3 17:-3 18:-1 19:0 20:0 21:0 22:0 23:0 24:0 25:0 26:0 27:0 28:-2 29:1 30:1 31:0 32:0 33:0 34:0 35:0 36:0 37:0 38:0 39:0 40:-6 41:4 42:2 43:0 44:0 45:0 46:0 47:0 48:0 49:0 50:0 51:0 52:-6 53:4 54:2 55:0 56:0 57:0 58:0 59:0 60:0 
-158.0814548820256 1:0 2:0 3:1 4:7 5:-6 6:-2 7:0 8:0 9:0 10:0 11:0 12:0 13:0 14:0 15:0 16:2 17:-2 18:0 19:0 20:0 21:0 22:0 23:0 24:0 25:0 26:0 27:0 28:-2 29:1 30:1 31:0 32:0 33:0 34:0 35:0 36:0 37:0 38:0 39:0 40:-2 41:1 42:1 43:0 44:0 45:0 46:0 47:0 48:0 49:0 50:0 51:0 52:-6 53:4 54:3 55:0 56:0 57:0 58:0 59:0 60:0 
-458.1764992492379 1:0 2:0 3:0 4:3 5:-3 6:-1 7:0 8:0 9:0 10:0 11:0 12:1 13:0 14:0 15:0 16:3 17:-3 18:-1 19:0 20:0 21:0 22:0 23:0 24:1 25:0 26:0 27:0 28:-1 29:0 30:1 31:0 32:0 33:0 34:0 35:0 36:1 37:-1 38:-1 39:1 40:-3 41:1 42:2 43:0 44:0 45:0 46:0 47:0 48:1 49:-1 50:-2 51:1 52:-3 53:2 54:2 55:1 56:0 57:1 58:-1 59:-1 60:0 
-28.63732740619088 1:0 2:1 3:0 4:0 5:1 6:3 7:0 8:0 9:0 10:0 11:0 12:1 13:0 14:1 15:0 16:-4 17:4 18:5 19:0 20:0 21:0 22:0 23:0 24:1 25:-1 26:0 27:1 28:-6 29:5 30:6 31:0 32:0 33:0 34:0 35:0 36:1 37:-1 38:-1 39:1 40:-6 41:6 42:6 43:1 44:0 45:1 46:-1 47:-1 48:0 49:-2 50:-1 51:1 52:14 53:-17 54:-16 55:0 56:0 57:2 58:-2 59:-1 60:0 
-0.3484904828087598 1:1 2:1 3:0 4:-10 5:12 6:11 7:0 8:0 9:-1 10:1 11:0 12:1 13:0 14:0 15:1 16:-12 17:13 18:12 19:0 20:0 21:-1 22:1 23:0 24:1 25:0 26:-1 27:1 28:-12 29:14 30:12 31:1 32:0 33:0 34:0 35:-1 36:0 37:-1 38:-1 39:1 40:8 41:-9 42:-10 43:0 44:0 45:1 46:-1 47:-1 48:0 49:-1 50:-1 51:1 52:22 53:-34 54:-25 55:0 56:0 57:2 58:-2 59:-2 60:0 
-8.819337713544201 1:0 2:0 3:0 4:-18 5:23 6:20 7:0 8:-1 9:-1 10:1 11:1 12:1 13:0 14:-1 15:0 16:-18 17:24 18:20 19:1 20:-1 21:0 22:0 23:0 24:0 25:-1 26:-1 27:0 28:2 29:1 30:-2 31:0 32:-1 33:1 34:-1 35:0 36:0 37:-1 38:-1 39:0 40:16 41:-24 42:-17 43:0 44:-1 45:2 46:-2 47:-1 48:0 49:-1 50:-1 51:1 52:14 53:-25 54:-19 55:0 56:0 57:2 58:-2 59:-1 60:0 
-39.1981351931798 1:0 2:0 3:0 4:-8 5:20 6:16 7:0 8:-1 9:0 10:0 11:0 12:0 13:0 14:0 15:0 16:6 17:-5 18:1 19:0 20:-1 21:1 22:-1 23:-1 24:0 25:0 26:0 27:1 28:4 29:-6 30:-1 31:0 32:0 33:1 34:-1 35:-1 36:0 37:-1 38:0 39:1 40:1 41:-6 42:-6 43:0 44:0 45:1 46:-1 47:-1 48:0 49:-1 50:0 51:0 52:-3 53:-7 54:-9 55:0 56:0 57:1 58:-1 59:-1 60:0 
-579.8119218347165 1:0 2:0 3:0 4:8 5:0 6:1 7:2 8:1 9:-1 10:0 11:1 12:0 13:0 14:0 15:0 16:4 17:0 18:0 19:0 20:0 21:-1 22:0 23:1 24:0 25:-1 26:-1 27:0 28:2 29:0 30:-1 31:0 32:-1 33:0 34:0 35:0 36:0 37:-1 38:-1 39:0 40:-4 41:-1 42:0 43:0 44:-2 45:1 46:0 47:-1 48:0 49:0 50:-2 51:0 52:-10 53:-3 54:2 55:1 56:-2 57:1 58:0 59:-2 60:1 
-311.426371934013 1:-1 2:1 3:0 4:11 5:3 6:-3 7:0 8:1 9:-1 10:0 11:1 12:0 13:-1 14:1 15:0 16:5 17:2 18:-2 19:0 20:0 21:0 22:0 23:0 24:0 25:0 26:0 27:0 28:-1 29:0 30:0 31:1 32:0 33:0 34:0 35:-1 36:1 37:1 38:-1 39:0 40:-5 41:-2 42:2 43:1 44:-1 45:1 46:0 47:-2 48:1 49:1 50:-1 51:0 52:-10 53:-4 54:4 55:1 56:-1 57:1 58:0 59:-2 60:1 
-537.4708393023041 1:-2 2:1 3:0 4:10 5:4 6:-4 7:-1 8:0 9:0 10:0 11:1 12:0 13:-1 14:0 15:0 16:4 17:2 18:-2 19:0 20:0 21:0 22:0 23:0 24:1 25:0 26:-1 27:0 28:0 29:0 30:0 31:0 32:-1 33:1 34:0 35:-1 36:1 37:0 38:-1 39:0 40:-5 41:-2 42:2 43:0 44:-1 45:1 46:0 47:-1 48:1 49:0 50:-1 51:0 52:-9 53:-5 54:5 55:1 56:-1 57:2 58:0 59:-1 60:1 
-12.26866603776434 1:-1 2:1 3:0 4:8 5:4 6:-4 7:0 8:1 9:-1 10:0 11:0 12:0 13:0 14:0 15:0 16:4 17:2 18:-2 19:0 20:0 21:0 22:0 23:-1 24:0 25:0 26:0 27:0 28:-1 29:0 30:0 31:0 32:0 33:0 34:0 35:-1 36:0 37:0 38:0 39:0 40:-5 41:-3 42:3 43:1 44:0 45:1 46:0 47:-1 48:0 49:-1 50:-1 51:2 52:-7 53:-5 54:5 55:1 56:-1 57:0 58:0 59:-1 60:0 
-309.6237373049173 1:1 2:-1 3:-1 4:6 5:5 6:-5 7:0 8:0 9:0 10:0 11:-1 12:1 13:1 14:-1 15:-1 16:2 17:2 18:-2 19:1 20:0 21:1 22:0 23:-1 24:1 25:0 26:-2 27:1 28:0 29:0 30:0 31:1 32:-1 33:0 34:0 35:-1 36:1 37:-1 38:0 39:2 40:-3 41:-3 42:3 43:1 44:-1 45:0 46:0 47:0 48:1 49:-2 50:1 51:3 52:-5 53:-5 54:7 55:1 56:-1 57:0 58:0 59:1 60:0 
-186.7665733253435 1:1 2:-1 3:-2 4:4 5:4 6:-5 7:0 8:0 9:1 10:-1 11:-2 12:1 13:0 14:-2 15:0 16:2 17:2 18:-3 19:0 20:-1 21:0 22:-1 23:-2 24:1 25:-1 26:0 27:1 28:-1 29:-1 30:0 31:0 32:-1 33:0 34:-1 35:-1 36:1 37:-2 38:1 39:2 40:-3 41:-3 42:4 43:0 44:-1 45:0 46:-1 47:0 48:0 49:-2 50:2 51:3 52:-3 53:-5 54:8 55:0 56:-1 57:-1 58:0 59:2 60:0 
-579.8119218347165 1:1 2:-3 3:-1 4:3 5:4 6:-7 7:0 8:0 9:1 10:-1 11:-3 12:1 13:0 14:-1 15:0 16:0 17:1 18:-4 19:0 20:0 21:1 22:-1 23:-2 24:1 25:-1 26:0 27:1 28:-2 29:-1 30:0 31:0 32:0 33:1 34:-1 35:-1 36:0 37:-1 38:1 39:2 40:-2 41:-3 42:4 43:0 44:0 45:0 46:0 47:1 48:0 49:-2 50:2 51:1 52:0 53:-4 54:8 55:0 56:-1 57:0 58:-1 59:2 60:0 
-34.60525937775365 1:1 2:-2 3:-1 4:0 5:3 6:-8 7:0 8:0 9:1 10:-1 11:-3 12:1 13:0 14:-1 15:0 16:-2 17:1 18:-4 19:0 20:0 21:1 22:-1 23:-2 24:0 25:0 26:0 27:1 28:-2 29:-1 30:0 31:0 32:0 33:0 34:0 35:0 36:0 37:-1 38:1 39:0 40:0 41:-2 42:4 43:0 44:-1 45:0 46:-1 47:1 48:0 49:-1 50:0 51:0 52:3 53:-4 54:9 55:1 56:-1 57:0 58:0 59:0 60:0 
-497.0479618153476 1:-1 2:0 3:3 4:-6 5:2 6:-4 7:2 8:-1 9:2 10:0 11:1 12:0 13:-1 14:0 15:2 16:-3 17:1 18:-2 19:1 20:-1 21:1 22:0 23:1 24:0 25:-1 26:0 27:1 28:-1 29:-1 30:1 31:-1 32:0 33:-1 34:0 35:1 36:0 37:1 38:0 39:-1 40:3 41:-1 42:2 43:0 44:1 45:-1 46:0 47:-1 48:1 49:1 50:0 51:-2 52:6 53:-2 54:4 55:0 56:1 57:-1 58:0 59:-2 60:1 
-321.7303155464009 1:-1 2:0 3:3 4:-6 5:2 6:-4 7:1 8:-2 9:2 10:0 11:1 12:0 13:-1 14:0 15:2 16:-4 17:0 18:-1 19:-1 20:-1 21:0 22:0 23:1 24:0 25:1 26:0 27:0 28:0 29:0 30:0 31:0 32:0 33:0 34:0 35:-1 36:1 37:1 38:0 39:-1 40:3 41:-1 42:2 43:0 44:0 45:0 46:0 47:-2 48:1 49:0 50:0 51:0 52:5 53:-1 54:3 55:0 56:0 57:1 58:0 59:-2 60:1 
-34.28488855331025 1:-1 2:0 3:2 4:-7 5:0 6:-2 7:0 8:-1 9:0 10:0 11:2 12:0 13:1 14:0 15:0 16:-3 17:0 18:-1 19:1 20:0 21:0 22:0 23:0 24:1 25:1 26:0 27:-1 28:0 29:-1 30:1 31:1 32:0 33:0 34:0 35:-1 36:1 37:0 38:0 39:0 40:2 41:-1 42:2 43:1 44:0 45:1 46:0 47:-1 48:1 49:-1 50:-1 51:1 52:6 53:-2 54:4 55:1 56:0 57:1 58:0 59:-1 60:1 
-147.6950265611519 1:1 2:0 3:-1 4:-8 5:1 6:-2 7:0 8:0 9:0 10:0 11:0 12:0 13:0 14:-1 15:0 16:-4 17:0 18:0 19:0 20:0 21:0 22:0 23:0 24:0 25:-1 26:-1 27:1 28:2 29:-1 30:1 31:0 32:0 33:0 34:0 35:0 36:0 37:-2 38:-1 39:2 40:5 41:-1 42:1 43:0 44:0 45:0 46:0 47:0 48:0 49:-2 50:-1 51:2 52:5 53:-1 54:1 55:0 56:0 57:0 58:0 59:0 60:0 
-218.9518099050567 1:-1 2:0 3:0 4:-9 5:-3 6:-1 7:0 8:0 9:0 10:0 11:0 12:0 13:-1 14:0 15:0 16:-2 17:-2 18:1 19:0 20:0 21:0 22:0 23:0 24:0 25:-1 26:0 27:0 28:3 29:-2 30:1 31:0 32:0 33:0 34:0 35:0 36:0 37:0 38:0 39:0 40:5 41:0 42:1 43:0 44:0 45:0 46:0 47:0 48:0 49:1 50:0 51:0 52:6 53:3 54:-2 55:0 56:0 57:0 58:0 59:0 60:0 
-269.4635887518282 1:-1 2:-1 3:0 4:-6 5:-4 6:3 7:0 8:0 9:1 10:0 11:-1 12:0 13:-1 14:-1 15:0 16:-1 17:-4 18:3 19:0 20:0 21:1 22:0 23:-1 24:0 25:0 26:-1 27:0 28:1 29:-2 30:3 31:0 32:0 33:1 34:0 35:-1 36:0 37:1 38:-1 39:0 40:2 41:1 42:0 43:0 44:0 45:1 46:0 47:-1 48:0 49:1 50:1 51:0 52:4 53:5 54:-5 55:1 56:-1 57:0 58:0 59:0 60:0 
-226.1674058825536 1:-2 2:-1 3:1 4:-3 5:-6 6:5 7:0 8:0 9:1 10:0 11:-1 12:0 13:-1 14:-1 15:1 16:-1 17:-4 18:5 19:0 20:0 21:1 22:0 23:-1 24:0 25:0 26:-1 27:1 28:0 29:-1 30:2 31:0 32:0 33:1 34:0 35:-1 36:0 37:0 38:1 39:1 40:2 41:3 42:-3 43:1 44:-1 45:0 46:0 47:0 48:0 49:1 50:1 51:0 52:2 53:8 54:-8 55:1 56:-2 57:-1 58:0 59:0 60:0 
-194.432438743333 1:0 2:0 3:0 4:4 5:-3 6:8 7:1 8:-2 9:-1 10:0 11:0 12:0 13:0 14:0 15:0 16:3 17:-2 18:4 19:1 20:-1 21:0 22:0 23:0 24:0 25:0 26:0 27:0 28:1 29:0 30:0 31:-1 32:0 33:1 34:0 35:0 36:0 37:0 38:0 39:0 40:-2 41:1 42:-4 43:-1 44:0 45:1 46:0 47:0 48:0 49:0 50:0 51:0 52:-4 53:4 54:-7 55:0 56:0 57:1 58:0 59:0 60:0 
-139.1894695115827 1:0 2:-1 3:0 4:5 5:-4 6:8 7:2 8:-1 9:0 10:0 11:0 12:0 13:0 14:-1 15:0 16:3 17:-2 18:4 19:0 20:0 21:1 22:0 23:0 24:0 25:0 26:-1 27:0 28:0 29:-1 30:0 31:0 32:0 33:1 34:0 35:0 36:0 37:0 38:-1 39:0 40:-2 41:2 42:-3 43:1 44:0 45:1 46:0 47:0 48:0 49:0 50:0 51:0 52:-5 53:4 54:-7 55:0 56:0 57:0 58:0 59:0 60:0 
-75.02220036129268 1:0 2:-1 3:0 4:6 5:-4 6:8 7:0 8:0 9:1 10:0 11:0 12:0 13:0 14:-1 15:0 16:3 17:-3 18:4 19:0 20:0 21:1 22:0 23:0 24:0 25:0 26:-1 27:0 28:1 29:0 30:1 31:1 32:0 33:1 34:0 35:0 36:0 37:0 38:0 39:0 40:-2 41:2 42:-3 43:0 44:0 45:0 46:0 47:0 48:0 49:0 50:0 51:0 52:-5 53:3 54:-7 55:0 56:0 57:0 58:0 59:0 60:0 
-579.8119218347165 1:0 2:-1 3:0 4:6 5:-5 6:7 7:0 8:0 9:1 10:0 11:0 12:0 13:0 14:-1 15:0 16:4 17:-2 18:4 19:1 20:0 21:1 22:0 23:0 24:0 25:0 26:0 27:0 28:1 29:0 30:0 31:0 32:0 33:0 34:0 35:0 36:0 37:0 38:0 39:0 40:-2 41:1 42:-4 43:0 44:0 45:0 46:0 47:0 48:0 49:0 50:0 51:0 52:-6 53:3 54:-4 55:0 56:0 57:0 58:0 59:0 60:0 
-159.0331659164405 1:0 2:-1 3:1 4:10 5:-8 6:-4 7:1 8:-2 9:2 10:0 11:0 12:0 13:0 14:-1 15:1 16:3 17:-2 18:-2 19:1 20:-1 21:1 22:0 23:0 24:0 25:0 26:-1 27:1 28:0 29:1 30:0 31:0 32:-1 33:0 34:0 35:0 36:0 37:0 38:0 39:0 40:-5 41:3 42:3 43:0 44:0 45:0 46:0 47:0 48:0 49:0 50:0 51:0 52:-8 53:6 54:5 55:1 56:1 57:-1 58:0 59:0 60:0 
-223.1692112510826 1:-1 2:-1 3:1 4:0 5:-5 6:-6 7:0 8:0 9:1 10:0 11:0 12:0 13:-1 14:-1 15:1 16:-1 17:-2 18:-2 19:1 20:-2 21:2 22:0 23:0 24:0 25:0 26:-1 27:1 28:-1 29:0 30:1 31:1 32:-2 33:2 34:0 35:0 36:0 37:0 38:0 39:-1 40:-1 41:2 42:4 43:1 44:0 45:0 46:0 47:0 48:0 49:0 50:0 51:-1 52:1 53:4 54:7 55:0 56:0 57:-3 58:0 59:0 60:0 
-440.5245087607445 1:0 2:0 3:0 4:-5 5:-3 6:-1 7:0 8:-1 9:-1 10:0 11:0 12:0 13:0 14:0 15:1 16:-4 17:-2 18:0 19:0 20:-1 21:1 22:0 23:0 24:0 25:0 26:0 27:1 28:-1 29:0 30:0 31:0 32:-1 33:1 34:0 35:0 36:0 37:0 38:0 39:1 40:2 41:1 42:0 43:0 44:0 45:0 46:0 47:0 48:0 49:0 50:0 51:1 52:5 53:3 54:1 55:0 56:1 57:-1 58:0 59:0 60:0 
-579.8119218347165 1:0 2:0 3:0 4:-6 5:-3 6:0 7:0 8:-1 9:2 10:0 11:0 12:0 13:0 14:0 15:0 16:-3 17:-1 18:0 19:0 20:-1 21:2 22:0 23:0 24:0 25:0 26:0 27:0 28:0 29:0 30:0 31:0 32:0 33:1 34:0 35:0 36:0 37:0 38:0 39:0 40:3 41:2 42:1 43:0 44:1 45:0 46:0 47:0 48:0 49:0 50:0 51:1 52:6 53:2 54:1 55:0 56:1 57:-1 58:0 59:0 60:0 
-579.8119218347165 1:0 2:0 3:0 4:-6 5:-3 6:0 7:0 8:-2 9:2 10:0 11:0 12:0 13:0 14:0 15:0 16:-3 17:-2 18:0 19:0 20:-1 21:1 22:0 23:0 24:0 25:0 26:0 27:0 28:0 29:0 30:1 31:0 32:0 33:0 34:0 35:0 36:0 37:0 38:0 39:1 40:3 41:0 42:1 43:0 44:0 45:-1 46:0 47:0 48:0 49:0 50:0 51:1 52:4 53:1 54:1 55:0 56:0 57:-1 58:0 59:0 60:0 
-579.8119218347165 1:0 2:0 3:0 4:-5 5:-2 6:0 7:0 8:-1 9:2 10:0 11:0 12:0 13:0 14:0 15:0 16:-2 17:0 18:1 19:0 20:0 21:1 22:0 23:0 24:0 25:0 26:0 27:1 28:1 29:0 30:1 31:0 32:0 33:0 34:0 35:0 36:0 37:0 38:0 39:1 40:2 41:1 42:1 43:0 44:0 45:0 46:0 47:0 48:0 49:0 50:0 51:1 52:3 53:1 54:0 55:0 56:0 57:-1 58:0 59:0 60:0 
-579.8119218347165 1:0 2:0 3:0 4:-4 5:-1 6:1 7:0 8:0 9:2 10:0 11:0 12:0 13:0 14:0 15:1 16:-1 17:-1 18:1 19:0 20:0 21:1 22:0 23:0 24:0 25:0 26:0 27:1 28:0 29:0 30:1 31:0 32:0 33:1 34:0 35:0 36:0 37:0 38:0 39:1 40:1 41:0 42:0 43:0 44:0 45:0 46:0 47:0 48:0 49:0 50:0 51:1 52:2 53:0 54:-1 55:0 56:0 57:0 58:0 59:0 60:0 
-579.8119218347165 1:0 2:-1 3:0 4:-3 5:-1 6:1 7:0 8:0 9:1 10:-1 11:-1 12:0 13:0 14:-1 15:0 16:-2 17:0 18:1 19:0 20:0 21:1 22:-1 23:-1 24:0 25:0 26:-1 27:0 28:-1 29:0 30:0 31:0 32:0 33:0 34:-1 35:-1 36:0 37:0 38:-1 39:0 40:0 41:0 42:-1 43:0 44:0 45:0 46:-1 47:-1 48:0 49:-1 50:0 51:0 52:2 53:0 54:-1 55:0 56:0 57:0 58:0 59:1 60:0 
-579.8119218347165 1:0 2:-1 3:0 4:-3 5:0 6:2 7:0 8:0 9:1 10:-1 11:-1 12:0 13:0 14:-1 15:0 16:-2 17:0 18:1 19:0 20:0 21:0 22:-1 23:-1 24:0 25:0 26:-1 27:0 28:-1 29:0 30:0 31:0 32:0 33:0 34:-1 35:-1 36:0 37:-1 38:0 39:0 40:1 41:0 42:0 43:0 44:0 45:0 46:0 47:1 48:0 49:-1 50:1 51:0 52:3 53:-1 54:0 55:1 56:0 57:1 58:0 59:2 60:0 
-572.4981807704133 1:0 2:-2 3:1 4:-4 5:1 6:1 7:0 8:-1 9:0 10:-1 11:-2 12:0 13:0 14:-1 15:1 16:-2 17:0 18:1 19:1 20:-1 21:1 22:-1 23:-1 24:0 25:-1 26:0 27:0 28:0 29:-1 30:0 31:0 32:0 33:1 34:0 35:0 36:0 37:-1 38:0 39:0 40:1 41:-1 42:0 43:0 44:0 45:1 46:0 47:0 48:0 49:-1 50:0 51:0 52:1 53:-1 54:0 55:0 56:0 57:1 58:0 59:0 60:0 
-579.8119218347165 1:0 2:-1 3:1 4:-3 5:1 6:1 7:1 8:-1 9:0 10:-1 11:-1 12:0 13:-1 14:0 15:0 16:-1 17:0 18:0 19:0 20:0 21:0 22:0 23:0 24:0 25:-1 26:0 27:0 28:0 29:0 30:0 31:0 32:0 33:0 34:0 35:0 36:0 37:-1 38:0 39:0 40:0 41:0 42:0 43:0 44:0 45:0 46:0 47:0 48:0 49:-1 50:0 51:0 52:4 53:-1 54:0 55:0 56:0 57:0 58:0 59:0 60:0 
-579.8119218347165 1:0 2:0 3:0 4:-3 5:0 6:0 7:0 8:0 9:0 10:0 11:0 12:0 13:0 14:0 15:0 16:-2 17:0 18:0 19:0 20:0 21:0 22:0 23:0 24:0 25:0 26:0 27:0 28:-2 29:0 30:0 31:0 32:0 33:0 34:0 35:0 36:0 37:0 38:0 39:0 40:2 41:-1 42:0 43:0 44:0 45:0 46:0 47:0 48:0 49:0 50:0 51:0 52:5 53:-1 54:0 55:0 56:0 57:0 58:0 59:0 60:0 
-579.8119218347165 1:0 2:0 3:0 4:1 5:-2 6:0 7:-8 8:-3 9:-16 10:0 11:0 12:0 13:0 14:0 15:0 16:1 17:-2 18:0 19:-2 20:-2 21:-4 22:0 23:0 24:0 25:0 26:0 27:0 28:1 29:-2 30:0 31:3 32:0 33:8 34:0 35:0 36:0 37:0 38:0 39:0 40:2 41:-2 42:0 43:3 44:0 45:8 46:0 47:0 48:0 49:0 50:0 51:0 52:-1 53:4 54:1 55:5 56:1 57:8 58:0 59:0 60:0 
-0.01409246264539516 1:0 2:-1 3:0 4:13 5:-10 6:-5 7:0 8:0 9:0 10:0 11:0 12:0 13:0 14:-1 15:1 16:5 17:-4 18:-2 19:0 20:-1 21:0 22:0 23:0 24:0 25:0 26:0 27:1 28:-2 29:1 30:1 31:0 32:-1 33:0 34:0 35:0 36:0 37:0 38:0 39:0 40:-7 41:5 42:3 43:0 44:-1 45:0 46:0 47:0 48:0 49:0 50:0 51:0 52:-11 53:8 54:4 55:0 56:-1 57:0 58:0 59:0 60:0 
-245.8046515434621 1:0 2:-1 3:1 4:10 5:-8 6:-4 7:0 8:0 9:0 10:0 11:0 12:0 13:0 14:0 15:1 16:3 17:-3 18:-1 19:0 20:0 21:0 22:0 23:0 24:0 25:0 26:0 27:0 28:-2 29:1 30:1 31:0 32:0 33:0 34:0 35:0 36:0 37:0 38:0 39:0 40:-6 41:4 42:2 43:0 44:0 45:0 46:0 47:0 48:0 49:0 50:0 51:0 52:-6 53:4 54:2 55:0 56:0 57:0 58:0 59:0 60:0 
-284.3519086799603 1:0 2:0 3:1 4:7 5:-6 6:-2 7:0 8:0 9:0 10:0 11:0 12:0 13:0 14:0 15:0 16:2 17:-2 18:0 19:0 20:0 21:0 22:0 23:0 24:0 25:0 26:0 27:0 28:-2 29:1 30:1 31:0 32:0 33:0 34:0 35:0 36:0 37:0 38:0 39:0 40:-2 41:1 42:1 43:0 44:0 45:0 46:0 47:0 48:0 49:0 50:0 51:0 52:-6 53:4 54:3 55:0 56:0 57:0 58:0 59:0 60:0 
-579.8119218347165 1:0 2:0 3:0 4:3 5:-3 6:-1 7:0 8:0 9:0 10:0 11:0 12:1 13:0 14:0 15:0 16:3 17:-3 18:-1 19:0 20:0 21:0 22:0 23:0 24:1 25:0 26:0 27:0 28:-1 29:0 30:1 31:0 32:0 33:0 34:0 35:0 36:1 37:-1 38:-1 39:1 40:-3 41:1 42:2 43:0 44:0 45:0 46:0 47:0 48:1 49:-1 50:-2 51:1 52:-3 53:2 54:2 55:1 56:0 57:1 58:-1 59:-1 60:0 
-178.0048793251017 1:0 2:1 3:0 4:0 5:1 6:3 7:0 8:0 9:0 10:0 11:0 12:1 13:0 14:1 15:0 16:-4 17:4 18:5 19:0 20:0 21:0 22:0 23:0 24:1 25:-1 26:0 27:1 28:-6 29:5 30:6 31:0 32:0 33:0 34:0 35:0 36:1 37:-1 38:-1 39:1 40:-6 41:6 42:6 43:1 44:0 45:1 46:-1 47:-1 48:0 49:-2 50:-1 51:1 52:14 53:-17 54:-16 55:0 56:0 57:2 58:-2 59:-1 60:0 
-26.7929492024309 1:1 2:1 3:0 4:-10 5:12 6:11 7:0 8:0 9:-1 10:1 11:0 12:1 13:0 14:0 15:1 16:-12 17:13 18:12 19:0 20:0 21:-1 22:1 23:0 24:1 25:0 26:-1 27:1 28:-12 29:14 30:12 31:1 32:0 33:0 34:0 35:-1 36:0 37:-1 38:-1 39:1 40:8 41:-9 42:-10 43:0 44:0 45:1 46:-1 47:-1 48:0 49:-1 50:-1 51:1 52:22 53:-34 54:-25 55:0 56:0 57:2 58:-2 59:-2 60:0 
-47.30568796151795 1:0 2:0 3:0 4:-18 5:23 6:20 7:0 8:-1 9:-1 10:1 11:1 12:1 13:0 14:-1 15:0 16:-18 17:24 18:20 19:1 20:-1 21:0 22:0 23:0 24:0 25:-1 26:-1 27:0 28:2 29:1 30:-2 31:0 32:-1 33:1 34:-1 35:0 36:0 37:-1 38:-1 39:0 40:16 41:-24 42:-17 43:0 44:-1 45:2 46:-2 47:-1 48:0 49:-1 50:-1 51:1 52:14 53:-25 54:-19 55:0 56:0 57:2 58:-2 59:-1 60:0 
-5.404773571476311 1:1 2:0 3:0 4:-23 5:33 6:29 7:1 8:-1 9:-1 10:1 11:0 12:0 13:0 14:0 15:0 16:-3 17:10 18:7 19:0 20:-1 21:0 22:0 23:0 24:0 25:0 26:0 27:0 28:11 29:-15 30:-8 31:0 32:-1 33:1 34:-1 35:-1 36:0 37:0 38:0 39:1 40:9 41:-16 42:-10 43:0 44:0 45:1 46:-1 47:-1 48:0 49:-1 50:0 51:1 52:6 53:-16 54:-15 55:0 56:0 57:1 58:-1 59:-1 60:0 
-82.26392337703837 1:0 2:0 3:0 4:-8 5:20 6:16 7:0 8:-1 9:0 10:0 11:0 12:0 13:0 14:0 15:0 16:6 17:-5 18:1 19:0 20:-1 21:1 22:-1 23:-1 24:0 25:0 26:0 27:1 28:4 29:-6 30:-1 31:0 32:0 33:1 34:-1 35:-1 36:0 37:-1 38:0 39:1 40:1 41:-6 42:-6 43:0 44:0 45:1 46:-1 47:-1 48:0 49:-1 50:0 51:0 52:-3 53:-7 54:-9 55:0 56:0 57:1 58:-1 59:-1 60:0 
-55.80097205656446 1:0 2:0 3:1 4:14 5:3 6:7 7:2 8:0 9:-1 10:0 11:0 12:0 13:0 14:0 15:1 16:4 17:0 18:2 19:2 20:0 21:0 22:0 23:0 24:0 25:0 26:-1 27:0 28:-3 29:-2 30:-1 31:0 32:0 33:0 34:0 35:0 36:0 37:0 38:-1 39:0 40:-7 41:-2 42:-2 43:-2 44:-1 45:0 46:0 47:0 48:0 49:-1 50:-2 51:0 52:-9 53:-2 54:-3 55:-2 56:-2 57:1 58:0 59:-1 60:0 
-579.8119218347165 1:0 2:0 3:0 4:8 5:0 6:1 7:2 8:1 9:-1 10:0 11:1 12:0 13:0 14:0 15:0 16:4 17:0 18:0 19:0 20:0 21:-1 22:0 23:1 24:0 25:-1 26:-1 27:0 28:2 29:0 30:-1 31:0 32:-1 33:0 34:0 35:0 36:0 37:-1 38:-1 39:0 40:-4 41:-1 42:0 43:0 44:-2 45:1 46:0 47:-1 48:0 49:0 50:-2 51:0 52:-10 53:-3 54:2 55:1 56:-2 57:1 58:0 59:-2 60:1 
-579.8119218347165 1:-1 2:1 3:0 4:11 5:3 6:-3 7:0 8:1 9:-1 10:0 11:1 12:0 13:-1 14:1 15:0 16:5 17:2 18:-2 19:0 20:0 21:0 22:0 23:0 24:0 25:0 26:0 27:0 28:-1 29:0 30:0 31:1 32:0 33:0 34:0 35:-1 36:1 37:1 38:-1 39:0 40:-5 41:-2 42:2 43:1 44:-1 45:1 46:0 47:-2 48:1 49:1 50:-1 51:0 52:-10 53:-4 54:4 55:1 56:-1 57:1 58:0 59:-2 60:1 
-579.8119218347165 1:-2 2:1 3:0 4:10 5:4 6:-4 7:-1 8:0 9:0 10:0 11:1 12:0 13:-1 14:0 15:0 16:4 17:2 18:-2 19:0 20:0 21:0 22:0 23:0 24:1 25:0 26:-1 27:0 28:0 29:0 30:0 31:0 32:-1 33:1 34:0 35:-1 36:1 37:0 38:-1 39:0 40:-5 41:-2 42:2 43:0 44:-1 45:1 46:0 47:-1 48:1 49:0 50:-1 51:0 52:-9 53:-5 54:5 55:1 56:-1 57:2 58:0 59:-1 60:1 
-26.4127433576421 1:-1 2:1 3:0 4:8 5:4 6:-4 7:0 8:1 9:-1 10:0 11:0 12:0 13:0 14:0 15:0 16:4 17:2 18:-2 19:0 20:0 21:0 22:0 23:-1 24:0 25:0 26:0 27:0 28:-1 29:0 30:0 31:0 32:0 33:0 34:0 35:-1 36:0 37:0 38:0 39:0 40:-5 41:-3 42:3 43:1 44:0 45:1 46:0 47:-1 48:0 49:-1 50:-1 51:2 52:-7 53:-5 54:5 55:1 56:-1 57:0 58:0 59:-1 60:0 
-579.8119218347165 1:1 2:-1 3:-1 4:6 5:5 6:-5 7:0 8:0 9:0 10:0 11:-1 12:1 13:1 14:-1 15:-1 16:2 17:2 18:-2 19:1 20:0 21:1 22:0 23:-1 24:1 25:0 26:-2 27:1 28:0 29:0 30:0 31:1 32:-1 33:0 34:0 35:-1 36:1 37:-1 38:0 39:2 40:-3 41:-3 42:3 43:1 44:-1 45:0 46:0 47:0 48:1 49:-2 50:1 51:3 52:-5 53:-5 54:7 55:1 56:-1 57:0 58:0 59:1 60:0 
-13.95618035000778 1:1 2:-1 3:-2 4:4 5:4 6:-5 7:0 8:0 9:1 10:-1 11:-2 12:1 13:0 14:-2 15:0 16:2 17:2 18:-3 19:0 20:-1 21:0 22:-1 23:-2 24:1 25:-1 26:0 27:1 28:-1 29:-1 30:0 31:0 32:-1 33:0 34:-1 35:-1 36:1 37:-2 38:1 39:2 40:-3 41:-3 42:4 43:0 44:-1 45:0 46:-1 47:0 48:0 49:-2 50:2 51:3 52:-3 53:-5 54:8 55:0 56:-1 57:-1 58:0 59:2 60:0 
-579.8119218347165 1:1 2:-3 3:-1 4:3 5:4 6:-7 7:0 8:0 9:1 10:-1 11:-3 12:1 13:0 14:-1 15:0 16:0 17:1 18:-4 19:0 20:0 21:1 22:-1 23:-2 24:1 25:-1 26:0 27:1 28:-2 29:-1 30:0 31:0 32:0 33:1 34:-1 35:-1 36:0 37:-1 38:1 39:2 40:-2 41:-3 42:4 43:0 44:0 45:0 46:0 47:1 48:0 49:-2 50:2 51:1 52:0 53:-4 54:8 55:0 56:-1 57:0 58:-1 59:2 60:0 
-452.0661974522557 1:1 2:-2 3:-1 4:0 5:3 6:-8 7:0 8:0 9:1 10:-1 11:-3 12:1 13:0 14:-1 15:0 16:-2 17:1 18:-4 19:0 20:0 21:1 22:-1 23:-2 24:0 25:0 26:0 27:1 28:-2 29:-1 30:0 31:0 32:0 33:0 34:0 35:0 36:0 37:-1 38:1 39:0 40:0 41:-2 42:4 43:0 44:-1 45:0 46:-1 47:1 48:0 49:-1 50:0 51:0 52:3 53:-4 54:9 55:1 56:-1 57:0 58:0 59:0 60:0 
-561.3250595260134 1:-1 2:0 3:3 4:-6 5:2 6:-4 7:2 8:-1 9:2 10:0 11:1 12:0 13:-1 14:0 15:2 16:-3 17:1 18:-2 19:1 20:-1 21:1 22:0 23:1 24:0 25:-1 26:0 27:1 28:-1 29:-1 30:1 31:-1 32:0 33:-1 34:0 35:1 36:0 37:1 38:0 39:-1 40:3 41:-1 42:2 43:0 44:1 45:-1 46:0 47:-1 48:1 49:1 50:0 51:-2 52:6 53:-2 54:4 55:0 56:1 57:-1 58:0 59:-2 60:1 
-579.8119218347165 1:-1 2:0 3:3 4:-6 5:2 6:-4 7:1 8:-2 9:2 10:0 11:1 12:0 13:-1 14:0 15:2 16:-4 17:0 18:-1 19:-1 20:-1 21:0 22:0 23:1 24:0 25:1 26:0 27:0 28:0 29:0 30:0 31:0 32:0 33:0 34:0 35:-1 36:1 37:1 38:0 39:-1 40:3 41:-1 42:2 43:0 44:0 45:0 46:0 47:-2 48:1 49:0 50:0 51:0 52:5 53:-1 54:3 55:0 56:0 57:1 58:0 59:-2 60:1 
-66.45179555193043 1:-1 2:0 3:2 4:-7 5:0 6:-2 7:0 8:-1 9:0 10:0 11:2 12:0 13:1 14:0 15:0 16:-3 17:0 18:-1 19:1 20:0 21:0 22:0 23:0 24:1 25:1 26:0 27:-1 28:0 29:-1 30:1 31:1 32:0 33:0 34:0 35:-1 36:1 37:0 38:0 39:0 40:2 41:-1 42:2 43:1 44:0 45:1 46:0 47:-1 48:1 49:-1 50:-1 51:1 52:6 53:-2 54:4 55:1 56:0 57:1 58:0 59:-1 60:1 
-295.9781593942585 1:1 2:0 3:-1 4:-8 5:1 6:-2 7:0 8:0 9:0 10:0 11:0 12:0 13:0 14:-1 15:0 16:-4 17:0 18:0 19:0 20:0 21:0 22:0 23:0 24:0 25:-1 26:-1 27:1 28:2 29:-1 30:1 31:0 32:0 33:0 34:0 35:0 36:0 37:-2 38:-1 39:2 40:5 41:-1 42:1 43:0 44:0 45:0 46:0 47:0 48:0 49:-2 50:-1 51:2 52:5 53:-1 54:1 55:0 56:0 57:0 58:0 59:0 60:0 
-29.49900272838207 1:0 2:0 3:0 4:-5 5:0 6:-2 7:0 8:0 9:0 10:0 11:0 12:0 13:0 14:0 15:0 16:-5 17:0 18:-2 19:0 20:0 21:0 22:0 23:0 24:0 25:0 26:0 27:0 28:-2 29:0 30:-1 31:0 32:0 33:0 34:0 35:0 36:0 37:-1 38:0 39:0 40:2 41:-2 42:2 43:0 44:0 45:0 46:0 47:0 48:0 49:-2 50:-1 51:1 52:6 53:-2 54:4 55:0 56:0 57:0 58:0 59:0 60:0 
-579.8119218347165 1:-1 2:0 3:0 4:-9 5:-3 6:-1 7:0 8:0 9:0 10:0 11:0 12:0 13:-1 14:0 15:0 16:-2 17:-2 18:1 19:0 20:0 21:0 22:0 23:0 24:0 25:-1 26:0 27:0 28:3 29:-2 30:1 31:0 32:0 33:0 34:0 35:0 36:0 37:0 38:0 39:0 40:5 41:0 42:1 43:0 44:0 45:0 46:0 47:0 48:0 49:1 50:0 51:0 52:6 53:3 54:-2 55:0 56:0 57:0 58:0 59:0 60:0 
-523.3664387092535 1:-1 2:-1 3:0 4:-6 5:-4 6:3 7:0 8:0 9:1 10:0 11:-1 12:0 13:-1 14:-1 15:0 16:-1 17:-4 18:3 19:0 20:0 21:1 22:0 23:-1 24:0 25:0 26:-1 27:0 28:1 29:-2 30:3 31:0 32:0 33:1 34:0 35:-1 36:0 37:1 38:-1 39:0 40:2 41:1 42:0 43:0 44:0 45:1 46:0 47:-1 48:0 49:1 50:1 51:0 52:4 53:5 54:-5 55:1 56:-1 57:0 58:0 59:0 60:0 
-535.3519083970525 1:-2 2:-1 3:1 4:-3 5:-6 6:5 7:0 8:0 9:1 10:0 11:-1 12:0 13:-1 14:-1 15:1 16:-1 17:-4 18:5 19:0 20:0 21:1 22:0 23:-1 24:0 25:0 26:-1 27:1 28:0 29:-1 30:2 31:0 32:0 33:1 34:0 35:-1 36:0 37:0 38:1 39:1 40:2 41:3 42:-3 43:1 44:-1 45:0 46:0 47:0 48:0 49:1 50:1 51:0 52:2 53:8 54:-8 55:1 56:-2 57:-1 58:0 59:0 60:0 
-36.90982615826798 1:0 2:-1 3:0 4:5 5:-4 6:8 7:2 8:-1 9:0 10:0 11:0 12:0 13:0 14:-1 15:0 16:3 17:-2 18:4 19:0 20:0 21:1 22:0 23:0 24:0 25:0 26:-1 27:0 28:0 29:-1 30:0 31:0 32:0 33:1 34:0 35:0 36:0 37:0 38:-1 39:0 40:-2 41:2 42:-3 43:1 44:0 45:1 46:0 47:0 48:0 49:0 50:0 51:0 52:-5 53:4 54:-7 55:0 56:0 57:0 58:0 59:0 60:0 
-232.0634640700521 1:0 2:-1 3:0 4:6 5:-4 6:8 7:0 8:0 9:1 10:0 11:0 12:0 13:0 14:-1 15:0 16:3 17:-3 18:4 19:0 20:0 21:1 22:0 23:0 24:0 25:0 26:-1 27:0 28:1 29:0 30:1 31:1 32:0 33:1 34:0 35:0 36:0 37:0 38:0 39:0 40:-2 41:2 42:-3 43:0 44:0 45:0 46:0 47:0 48:0 49:0 50:0 51:0 52:-5 53:3 54:-7 55:0 56:0 57:0 58:0 59:0 60:0 
-579.8119218347165 1:0 2:-1 3:0 4:6 5:-5 6:7 7:0 8:0 9:1 10:0 11:0 12:0 13:0 14:-1 15:0 16:4 17:-2 18:4 19:1 20:0 21:1 22:0 23:0 24:0 25:0 26:0 27:0 28:1 29:0 30:0 31:0 32:0 33:0 34:0 35:0 36:0 37:0 38:0 39:0 40:-2 41:1 42:-4 43:0 44:0 45:0 46:0 47:0 48:0 49:0 50:0 51:0 52:-6 53:3 54:-4 55:0 56:0 57:0 58:0 59:0 60:0 
-1.43056615736605 1:-1 2:-1 3:0 4:11 5:-5 6:2 7:0 8:-1 9:1 10:0 11:0 12:0 13:0 14:-1 15:0 16:4 17:-4 18:-1 19:0 20:-1 21:2 22:0 23:0 24:0 25:0 26:0 27:0 28:0 29:-3 30:-1 31:0 32:-1 33:2 34:0 35:0 36:0 37:0 38:1 39:0 40:-6 41:1 42:0 43:0 44:-1 45:0 46:0 47:0 48:0 49:0 50:1 51:0 52:-13 53:7 54:2 55:0 56:0 57:-1 58:0 59:0 60:0 
-12.26091109241381 1:0 2:-1 3:1 4:10 5:-8 6:-4 7:1 8:-2 9:2 10:0 11:0 12:0 13:0 14:-1 15:1 16:3 17:-2 18:-2 19:1 20:-1 21:1 22:0 23:0 24:0 25:0 26:-1 27:1 28:0 29:1 30:0 31:0 32:-1 33:0 34:0 35:0 36:0 37:0 38:0 39:0 40:-5 41:3 42:3 43:0 44:0 45:0 46:0 47:0 48:0 49:0 50:0 51:0 52:-8 53:6 54:5 55:1 56:1 57:-1 58:0 59:0 60:0 
-579.8119218347165 1:-1 2:-1 3:1 4:0 5:-5 6:-6 7:0 8:0 9:1 10:0 11:0 12:0 13:-1 14:-1 15:1 16:-1 17:-2 18:-2 19:1 20:-2 21:2 22:0 23:0 24:0 25:0 26:-1 27:1 28:-1 29:0 30:1 31:1 32:-2 33:2 34:0 35:0 36:0 37:0 38:0 39:-1 40:-1 41:2 42:4 43:1 44:0 45:0 46:0 47:0 48:0 49:0 50:0 51:-1 52:1 53:4 54:7 55:0 56:0 57:-3 58:0 59:0 60:0 
-34.63099644596266 1:0 2:0 3:0 4:-5 5:-3 6:-1 7:0 8:-1 9:-1 10:0 11:0 12:0 13:0 14:0 15:1 16:-4 17:-2 18:0 19:0 20:-1 21:1 22:0 23:0 24:0 25:0 26:0 27:1 28:-1 29:0 30:0 31:0 32:-1 33:1 34:0 35:0 36:0 37:0 38:0 39:1 40:2 41:1 42:0 43:0 44:0 45:0 46:0 47:0 48:0 49:0 50:0 51:1 52:5 53:3 54:1 55:0 56:1 57:-1 58:0 59:0 60:0 
-579.8119218347165 1:0 2:0 3:0 4:-6 5:-3 6:0 7:0 8:-1 9:2 10:0 11:0 12:0 13:0 14:0 15:0 16:-3 17:-1 18:0 19:0 20:-1 21:2 22:0 23:0 24:0 25:0 26:0 27:0 28:0 29:0 30:0 31:0 32:0 33:1 34:0 35:0 36:0 37:0 38:0 39:0 40:3 41:2 42:1 43:0 44:1 45:0 46:0 47:0 48:0 49:0 50:0 51:1 52:6 53:2 54:1 55:0 56:1 57:-1 58:0 59:0 60:0 
-579.8119218347165 1:0 2:0 3:0 4:-6 5:-3 6:0 7:0 8:-2 9:2 10:0 11:0 12:0 13:0 14:0 15:0 16:-3 17:-2 18:0 19:0 20:-1 21:1 22:0 23:0 24:0 25:0 26:0 27:0 28:0 29:0 30:1 31:0 32:0 33:0 34:0 35:0 36:0 37:0 38:0 39:1 40:3 41:0 42:1 43:0 44:0 45:-1 46:0 47:0 48:0 49:0 50:0 51:1 52:4 53:1 54:1 55:0 56:0 57:-1 58:0 59:0 60:0 
-579.8119218347165 1:0 2:0 3:0 4:-5 5:-2 6:0 7:0 8:-1 9:2 10:0 11:0 12:0 13:0 14:0 15:0 16:-2 17:0 18:1 19:0 20:0 21:1 22:0 23:0 24:0 25:0 26:0 27:1 28:1 29:0 30:1 31:0 32:0 33:0 34:0 35:0 36:0 37:0 38:0 39:1 40:2 41:1 42:1 43:0 44:0 45:0 46:0 47:0 48:0 49:0 50:0 51:1 52:3 53:1 54:0 55:0 56:0 57:-1 58:0 59:0 60:0 
-579.8119218347165 1:0 2:0 3:0 4:-4 5:-1 6:1 7:0 8:0 9:2 10:0 11:0 12:0 13:0 14:0 15:1 16:-1 17:-1 18:1 19:0 20:0 21:1 22:0 23:0 24:0 25:0 26:0 27:1 28:0 29:0 30:1 31:0 32:0 33:1 34:0 35:0 36:0 37:0 38:0 39:1 40:1 41:0 42:0 43:0 44:0 45:0 46:0 47:0 48:0 49:0 50:0 51:1 52:2 53:0 54:-1 55:0 56:0 57:0 58:0 59:0 60:0 
-579.8119218347165 1:0 2:-1 3:0 4:-3 5:-1 6:1 7:0 8:0 9:1 10:-1 11:-1 12:0 13:0 14:-1 15:0 16:-2 17:0 18:1 19:0 20:0 21:1 22:-1 23:-1 24:0 25:0 26:-1 27:0 28:-1 29:0 30:0 31:0 32:0 33:0 34:-1 35:-1 36:0 37:0 38:-1 39:0 40:0 41:0 42:-1 43:0 44:0 45:0 46:-1 47:-1 48:0 49:-1 50:0 51:0 52:2 53:0 54:-1 55:0 56:0 57:0 58:0 59:1 60:0 
-579.8119218347165 1:0 2:-1 3:0 4:-3 5:0 6:2 7:0 8:0 9:1 10:-1 11:-1 12:0 13:0 14:-1 15:0 16:-2 17:0 18:1 19:0 20:0 21:0 22:-1 23:-1 24:0 25:0 26:-1 27:0 28:-1 29:0 30:0 31:0 32:0 33:0 34:-1 35:-1 36:0 37:-1 38:0 39:0 40:1 41:0 42:0 43:0 44:0 45:0 46:0 47:1 48:0 49:-1 50:1 51:0 52:3 53:-1 54:0 55:1 56:0 57:1 58:0 59:2 60:0 
-137.0606005366856 1:0 2:-2 3:1 4:-4 5:0 6:1 7:0 8:-1 9:0 10:-1 11:-2 12:0 13:0 14:-2 15:1 16:-3 17:0 18:0 19:0 20:-1 21:0 22:-1 23:-2 24:0 25:-1 26:-1 27:1 28:-1 29:0 30:0 31:0 32:-1 33:0 34:0 35:0 36:0 37:-1 38:0 39:1 40:1 41:-1 42:0 43:1 44:-1 45:1 46:0 47:1 48:0 49:-2 50:1 51:0 52:3 53:-2 54:-1 55:0 56:0 57:1 58:1 59:2 60:0 
-189.4815535760838 1:1 2:-2 3:1 4:-4 5:1 6:1 7:0 8:-1 9:0 10:-2 11:-3 12:0 13:0 14:-1 15:1 16:-2 17:1 18:1 19:0 20:-1 21:0 22:-1 23:-1 24:0 25:0 26:0 27:1 28:0 29:0 30:1 31:1 32:-1 33:1 34:-1 35:0 36:0 37:-1 38:1 39:0 40:2 41:-1 42:0 43:0 44:0 45:1 46:0 47:1 48:0 49:-1 50:1 51:0 52:3 53:-1 54:0 55:0 56:0 57:1 58:0 59:1 60:0 
-579.8119218347165 1:0 2:-2 3:1 4:-4 5:1 6:1 7:0 8:-1 9:0 10:-1 11:-2 12:0 13:0 14:-1 15:1 16:-2 17:0 18:1 19:1 20:-1 21:1 22:-1 23:-1 24:0 25:-1 26:0 27:0 28:0 29:-1 30:0 31:0 32:0 33:1 34:0 35:0 36:0 37:-1 38:0 39:0 40:1 41:-1 42:0 43:0 44:0 45:1 46:0 47:0 48:0 49:-1 50:0 51:0 52:1 53:-1 54:0 55:0 56:0 57:1 58:0 59:0 60:0 
-579.8119218347165 1:0 2:-1 3:1 4:-3 5:1 6:1 7:1 8:-1 9:0 10:-1 11:-1 12:0 13:-1 14:0 15:0 16:-1 17:0 18:0 19:0 20:0 21:0 22:0 23:0 24:0 25:-1 26:0 27:0 28:0 29:0 30:0 31:0 32:0 33:0 34:0 35:0 36:0 37:-1 38:0 39:0 40:0 41:0 42:0 43:0 44:0 45:0 46:0 47:0 48:0 49:-1 50:0 51:0 52:4 53:-1 54:0 55:0 56:0 57:0 58:0 59:0 60:0 
-579.8119218347165 1:0 2:0 3:0 4:-3 5:0 6:0 7:0 8:0 9:0 10:0 11:0 12:0 13:0 14:0 15:0 16:-2 17:0 18:0 19:0 20:0 21:0 22:0 23:0 24:0 25:0 26:0 27:0 28:-2 29:0 30:0 31:0 32:0 33:0 34:0 35:0 36:0 37:0 38:0 39:0 40:2 41:-1 42:0 43:0 44:0 45:0 46:0 47:0 48:0 49:0 50:0 51:0 52:5 53:-1 54:0 55:0 56:0 57:0 58:0 59:0 60:0 
