svm_type c_svc
kernel_type rbf
gamma 0.00012207
nr_class 2
total_sv 68
rho -29.9311
label 1 3
nr_sv 40 28
SV
134.1133078059918 1:0 2:201 3:0 4:98 5:-37 6:0 7:-16 
134.1133078059918 1:0 2:192 3:0 4:100 5:-13 6:0 7:-7 
32.57270266699036 1:0 2:190 3:0 4:100 5:-14 6:0 7:-9 
117.4765265243986 1:-2 2:191 3:0 4:93 5:-7 6:0 7:-6 
134.1133078059918 1:-2 2:192 3:0 4:94 5:-8 6:0 7:-5 
134.1133078059918 1:-2 2:192 3:0 4:94 5:-10 6:0 7:-3 
134.1133078059918 1:-2 2:192 3:0 4:94 5:-10 6:0 7:-5 
134.1133078059918 1:-2 2:192 3:0 4:94 5:-10 6:0 7:-7 
134.1133078059918 1:-2 2:193 3:0 4:94 5:-10 6:0 7:-7 
134.1133078059918 1:-2 2:193 3:0 4:94 5:-10 6:0 7:-7 
134.1133078059918 1:-2 2:193 3:0 4:94 5:-9 6:0 7:-5 
134.1133078059918 1:-3 2:194 3:0 4:93 5:-9 6:0 7:-3 
134.1133078059918 1:-3 2:194 3:0 4:93 5:-9 6:0 7:-3 
134.1133078059918 1:-2 2:194 3:0 4:93 5:-9 6:0 7:-2 
134.1133078059918 1:-2 2:194 3:0 4:93 5:-11 6:0 7:-2 
134.1133078059918 1:-3 2:194 3:0 4:93 5:-13 6:0 7:0 
134.1133078059918 1:0 2:194 3:0 4:93 5:-14 6:0 7:4 
134.1133078059918 1:-2 2:194 3:0 4:93 5:-12 6:0 7:-1 
134.1133078059918 1:0 2:193 3:0 4:96 5:-10 6:0 7:-6 
134.1133078059918 1:0 2:193 3:0 4:96 5:-10 6:0 7:-5 
134.1133078059918 1:0 2:195 3:0 4:96 5:-9 6:0 7:-9 
134.1133078059918 1:0 2:195 3:0 4:96 5:-8 6:0 7:-12 
134.1133078059918 1:0 2:195 3:0 4:96 5:-7 6:0 7:-11 
134.1133078059918 1:0 2:195 3:0 4:96 5:-7 6:0 7:-11 
134.1133078059918 1:0 2:195 3:0 4:96 5:-7 6:0 7:-11 
134.1133078059918 1:0 2:195 3:0 4:96 5:-7 6:0 7:-11 
134.1133078059918 1:0 2:195 3:0 4:96 5:-7 6:0 7:-9 
134.1133078059918 1:0 2:195 3:0 4:96 5:-8 6:0 7:-5 
134.1133078059918 1:0 2:195 3:0 4:96 5:-8 6:0 7:-5 
134.1133078059918 1:0 2:195 3:0 4:96 5:-8 6:0 7:-6 
134.1133078059918 1:0 2:195 3:0 4:96 5:-8 6:0 7:-10 
134.1133078059918 1:0 2:195 3:0 4:96 5:-9 6:0 7:-12 
134.1133078059918 1:0 2:195 3:0 4:96 5:-9 6:0 7:-12 
134.1133078059918 1:0 2:195 3:0 4:96 5:-9 6:0 7:-12 
134.1133078059918 1:1 2:195 3:0 4:96 5:-7 6:0 7:-11 
134.1133078059918 1:1 2:195 3:0 4:96 5:-7 6:0 7:-11 
134.1133078059918 1:0 2:195 3:0 4:96 5:-8 6:0 7:-7 
134.1133078059918 1:0 2:192 3:0 4:95 5:-8 6:0 7:-5 
118.1836113226899 1:0 2:192 3:0 4:94 5:-8 6:0 7:-3 
134.1133078059918 1:2 2:181 3:0 4:93 5:-16 6:0 7:-21 
-193.9842303520177 1:-2 2:194 3:0 4:93 5:-12 6:0 7:-5 
-193.9842303520177 1:-2 2:194 3:0 4:94 5:-11 6:0 7:-8 
-177.3524041360959 1:-2 2:195 3:0 4:94 5:-10 6:0 7:-8 
-193.9842303520177 1:-2 2:194 3:0 4:94 5:-10 6:0 7:-8 
-193.9842303520177 1:-2 2:194 3:0 4:94 5:-11 6:0 7:-8 
-193.9842303520177 1:-2 2:194 3:0 4:94 5:-11 6:0 7:-8 
-193.9842303520177 1:-2 2:194 3:0 4:94 5:-11 6:0 7:-8 
-193.9842303520177 1:-2 2:194 3:0 4:94 5:-11 6:0 7:-8 
-193.9842303520177 1:-2 2:195 3:0 4:95 5:-10 6:0 7:-7 
-193.9842303520177 1:-2 2:195 3:0 4:95 5:-10 6:0 7:-7 
-193.9842303520177 1:-2 2:195 3:0 4:95 5:-10 6:0 7:-5 
-193.9842303520177 1:1 2:195 3:0 4:95 5:-9 6:0 7:-7 
-193.9842303520177 1:1 2:193 3:0 4:95 5:-11 6:0 7:-5 
-193.9842303520177 1:0 2:194 3:0 4:95 5:-11 6:0 7:-5 
-193.9842303520177 1:0 2:195 3:0 4:95 5:-11 6:0 7:-6 
-193.9842303520177 1:0 2:196 3:0 4:95 5:-11 6:0 7:-5 
-193.9842303520177 1:0 2:195 3:0 4:95 5:-9 6:0 7:-7 
-193.9842303520177 1:1 2:192 3:0 4:95 5:-9 6:0 7:-12 
-193.9842303520177 1:1 2:193 3:0 4:95 5:-9 6:0 7:-8 
-193.9842303520177 1:1 2:193 3:0 4:95 5:-9 6:0 7:-10 
-193.9842303520177 1:1 2:193 3:0 4:95 5:-9 6:0 7:-10 
-193.9842303520177 1:1 2:193 3:0 4:95 5:-8 6:0 7:-8 
-193.9842303520177 1:1 2:194 3:0 4:95 5:-8 6:0 7:-10 
-9.482836047218211 1:1 2:194 3:0 4:95 5:-8 6:0 7:-10 
-193.9842303520177 1:0 2:193 3:0 4:96 5:-10 6:0 7:-7 
-193.9842303520177 1:0 2:193 3:0 4:96 5:-10 6:0 7:-6 
-193.9842303520177 1:0 2:193 3:0 4:96 5:-10 6:0 7:-6 
-193.9842303520177 1:0 2:193 3:0 4:96 5:-10 6:0 7:-6 
