svm_type c_svc
kernel_type rbf
gamma 6.10352e-005
nr_class 2
total_sv 134
rho -2.5765
label 1 3
nr_sv 88 46
SV
2.144178601844426 1:-7.5 2:0 3:54.25 4:-6.5 5:3.75 6:54.25 7:-4 8:2.5 9:54.25 
17.68595041322314 1:-2.8 2:0 3:43 4:-2.8 5:-0.2 6:42.799999 7:-2.5999999 8:-0.40000001 9:42.799999 
17.68595041322314 1:-3.25 2:-0.5 3:53.5 4:-3.25 5:-0.5 6:53.25 7:-3.25 8:-0.25 9:53.25 
17.68595041322314 1:-2.1666667 2:0 3:35.666668 4:-2 5:0 6:35.833332 7:-1.8333334 8:0 9:35.833332 
14.87956445297082 1:-11 2:0 3:215 4:-11 5:0 6:215 7:-11 8:0 9:215 
17.68595041322314 1:-11 2:0 3:215 4:-11 5:0 6:215 7:-11 8:0 9:215 
17.68595041322314 1:-11 2:0 3:215 4:-11 5:0 6:215 7:-11 8:0 9:215 
17.68595041322314 1:-11 2:0 3:215 4:-11 5:0 6:215 7:-11 8:0 9:215 
17.68595041322314 1:-11 2:0 3:215 4:-11 5:0 6:215 7:-11 8:0 9:215 
17.68595041322314 1:-11 2:0 3:215 4:-11 5:0 6:215 7:-11 8:0 9:215 
17.68595041322314 1:-11 2:0 3:215 4:-11 5:0 6:215 7:-11 8:1 9:215 
17.68595041322314 1:-11 2:0 3:215 4:-11 5:1 6:215 7:-11 8:0 9:215 
17.68595041322314 1:-11 2:1 3:215 4:-11 5:0 6:215 7:-11 8:0 9:215 
17.68595041322314 1:-1.8333334 2:0 3:35.833332 4:-1.8333334 5:0 6:35.833332 7:-1.6666666 8:0 9:35.666668 
17.68595041322314 1:-2.75 2:0 3:53.75 4:-2.5 5:0 6:53.5 7:-2.5 8:-0.25 9:53.5 
17.68595041322314 1:-1.6666666 2:0 3:35.666668 4:-1.6666666 5:-0.16666667 6:35.666668 7:-1.5 8:-0.16666667 9:35.5 
17.68595041322314 1:-2.5 2:-0.25 3:53.5 4:-2.25 5:-0.25 6:53.25 7:-2.25 8:-0.25 9:53.25 
17.68595041322314 1:-9 2:-1 3:213 4:-9 5:-1 6:213 7:-10 8:-1 9:213 
17.68595041322314 1:-1.6666666 2:-0.16666667 3:35.5 4:-1.6666666 5:-0.16666667 6:35.333332 7:-1.6666666 8:0.16666667 9:35 
17.68595041322314 1:-2.5 2:-0.25 3:53 4:-2.5 5:0.25 6:52.5 7:-2.75 8:0 9:52.25 
14.32108924193435 1:-1.8333334 2:0 3:34.833332 4:-1.6666666 5:-0.33333334 6:34.5 7:-1.5 8:0.16666667 9:34 
14.45285296084595 1:-9 2:1 3:204 4:-8 5:0 6:201 7:-7 8:0 9:195 
17.68595041322314 1:1.75 2:-0.5 3:40 4:1.75 5:0 6:39.5 7:2.25 8:0 9:38.5 
17.68595041322314 1:2.75 2:0 3:37.5 4:1.25 5:0.75 6:38 7:1.5 8:-0.25 9:38 
6.998066236730626 1:4 2:0 3:36.5 4:4.25 5:-0.25 6:36.25 7:4.75 8:-0.5 9:35.5 
17.68595041322314 1:5.3333335 2:-0.33333334 3:47.666668 4:3.6666667 5:0.33333334 6:49.333332 7:2.3333333 8:-0.33333334 9:51 
12.90536992444208 1:0.25 2:0.25 3:37.75 4:-1.75 5:0 6:37.25 7:-4.25 8:1 9:39 
16.88679680297974 1:-7.5 2:0 3:54.25 4:-6.5 5:3.75 6:54.25 7:-4 8:2.5 9:54.25 
17.68595041322314 1:-2.8 2:0 3:43 4:-2.8 5:-0.2 6:42.799999 7:-2.5999999 8:-0.40000001 9:42.799999 
17.68595041322314 1:-3.25 2:-0.5 3:53.5 4:-3.25 5:-0.5 6:53.25 7:-3.25 8:-0.25 9:53.25 
2.459964718201977 1:-3.25 2:-0.5 3:53.25 4:-3.25 5:-0.25 6:53.25 7:-3.25 8:0 9:53.5 
17.68595041322314 1:-2.1666667 2:0 3:35.666668 4:-2 5:0 6:35.833332 7:-1.8333334 8:0 9:35.833332 
17.65645832318433 1:-11 2:0 3:215 4:-11 5:0 6:215 7:-11 8:0 9:215 
17.68595041322314 1:-11 2:0 3:215 4:-11 5:0 6:215 7:-11 8:0 9:215 
17.68595041322314 1:-11 2:0 3:215 4:-11 5:0 6:215 7:-11 8:0 9:215 
17.68595041322314 1:-11 2:0 3:215 4:-11 5:0 6:215 7:-11 8:0 9:215 
17.68595041322314 1:-11 2:0 3:215 4:-11 5:0 6:215 7:-11 8:0 9:215 
17.68595041322314 1:-11 2:0 3:215 4:-11 5:0 6:215 7:-11 8:0 9:215 
17.68595041322314 1:-11 2:0 3:215 4:-11 5:0 6:215 7:-11 8:0 9:215 
17.68595041322314 1:-11 2:0 3:215 4:-11 5:0 6:215 7:-11 8:0 9:215 
17.68595041322314 1:-11 2:0 3:215 4:-11 5:0 6:215 7:-11 8:0 9:215 
17.68595041322314 1:-11 2:0 3:215 4:-11 5:0 6:215 7:-11 8:1 9:215 
17.68595041322314 1:-11 2:0 3:215 4:-11 5:1 6:215 7:-11 8:0 9:215 
17.68595041322314 1:-11 2:1 3:215 4:-11 5:0 6:215 7:-11 8:0 9:215 
17.68595041322314 1:-1.8333334 2:0 3:35.833332 4:-1.8333334 5:0 6:35.833332 7:-1.6666666 8:0 9:35.666668 
17.68595041322314 1:-2.75 2:0 3:53.75 4:-2.5 5:0 6:53.5 7:-2.5 8:-0.25 9:53.5 
17.68595041322314 1:-1.6666666 2:0 3:35.666668 4:-1.6666666 5:-0.16666667 6:35.666668 7:-1.5 8:-0.16666667 9:35.5 
17.68595041322314 1:-2.5 2:-0.25 3:53.5 4:-2.25 5:-0.25 6:53.25 7:-2.25 8:-0.25 9:53.25 
17.68595041322314 1:-9 2:-1 3:213 4:-9 5:-1 6:213 7:-10 8:-1 9:213 
17.68595041322314 1:-1.6666666 2:-0.16666667 3:35.5 4:-1.6666666 5:-0.16666667 6:35.333332 7:-1.6666666 8:0.16666667 9:35 
17.68595041322314 1:-2.5 2:-0.25 3:53 4:-2.5 5:0.25 6:52.5 7:-2.75 8:0 9:52.25 
17.68595041322314 1:-1.8333334 2:0 3:34.833332 4:-1.6666666 5:-0.33333334 6:34.5 7:-1.5 8:0.16666667 9:34 
17.68595041322314 1:-9 2:1 3:204 4:-8 5:0 6:201 7:-7 8:0 9:195 
17.68595041322314 1:1.75 2:-0.5 3:40 4:1.75 5:0 6:39.5 7:2.25 8:0 9:38.5 
17.68595041322314 1:2.75 2:0 3:37.5 4:1.25 5:0.75 6:38 7:1.5 8:-0.25 9:38 
17.68595041322314 1:5.3333335 2:-0.33333334 3:47.666668 4:3.6666667 5:0.33333334 6:49.333332 7:2.3333333 8:-0.33333334 9:51 
15.87922399571675 1:0.25 2:0.25 3:37.75 4:-1.75 5:0 6:37.25 7:-4.25 8:1 9:39 
12.44107984694293 1:-7.5 2:0 3:54.25 4:-6.5 5:3.75 6:54.25 7:-4 8:2.5 9:54.25 
17.68595041322314 1:-2.8 2:0 3:43 4:-2.8 5:-0.2 6:42.799999 7:-2.5999999 8:-0.40000001 9:42.799999 
17.68595041322314 1:-3.25 2:-0.5 3:53.5 4:-3.25 5:-0.5 6:53.25 7:-3.25 8:-0.25 9:53.25 
16.9990152651098 1:-3.25 2:-0.5 3:53.25 4:-3.25 5:-0.25 6:53.25 7:-3.25 8:0 9:53.5 
17.68595041322314 1:-2.1666667 2:0 3:35.666668 4:-2 5:0 6:35.833332 7:-1.8333334 8:0 9:35.833332 
17.68595041322314 1:-11 2:0 3:215 4:-11 5:0 6:215 7:-11 8:0 9:215 
17.68595041322314 1:-11 2:0 3:215 4:-11 5:0 6:215 7:-11 8:0 9:215 
17.68595041322314 1:-11 2:0 3:215 4:-11 5:0 6:215 7:-11 8:0 9:215 
17.68595041322314 1:-11 2:0 3:215 4:-11 5:0 6:215 7:-11 8:0 9:215 
17.68595041322314 1:-11 2:0 3:215 4:-11 5:0 6:215 7:-11 8:0 9:215 
17.68595041322314 1:-11 2:0 3:215 4:-11 5:0 6:215 7:-11 8:0 9:215 
17.68595041322314 1:-11 2:0 3:215 4:-11 5:0 6:215 7:-11 8:0 9:215 
17.68595041322314 1:-11 2:0 3:215 4:-11 5:0 6:215 7:-11 8:0 9:215 
17.68595041322314 1:-11 2:0 3:215 4:-11 5:0 6:215 7:-11 8:0 9:215 
17.68595041322314 1:-11 2:0 3:215 4:-11 5:0 6:215 7:-11 8:1 9:215 
17.68595041322314 1:-11 2:0 3:215 4:-11 5:1 6:215 7:-11 8:0 9:215 
17.68595041322314 1:-11 2:1 3:215 4:-11 5:0 6:215 7:-11 8:0 9:215 
17.68595041322314 1:-1.8333334 2:0 3:35.833332 4:-1.8333334 5:0 6:35.833332 7:-1.6666666 8:0 9:35.666668 
17.68595041322314 1:-2.75 2:0 3:53.75 4:-2.5 5:0 6:53.5 7:-2.5 8:-0.25 9:53.5 
17.68595041322314 1:-1.6666666 2:0 3:35.666668 4:-1.6666666 5:-0.16666667 6:35.666668 7:-1.5 8:-0.16666667 9:35.5 
17.68595041322314 1:-2.5 2:-0.25 3:53.5 4:-2.25 5:-0.25 6:53.25 7:-2.25 8:-0.25 9:53.25 
17.68595041322314 1:-9 2:-1 3:213 4:-9 5:-1 6:213 7:-10 8:-1 9:213 
17.68595041322314 1:-1.6666666 2:-0.16666667 3:35.5 4:-1.6666666 5:-0.16666667 6:35.333332 7:-1.6666666 8:0.16666667 9:35 
17.68595041322314 1:-2.5 2:-0.25 3:53 4:-2.5 5:0.25 6:52.5 7:-2.75 8:0 9:52.25 
17.68595041322314 1:-1.8333334 2:0 3:34.833332 4:-1.6666666 5:-0.33333334 6:34.5 7:-1.5 8:0.16666667 9:34 
17.56829227319869 1:-9 2:1 3:204 4:-8 5:0 6:201 7:-7 8:0 9:195 
17.68595041322314 1:1.75 2:-0.5 3:40 4:1.75 5:0 6:39.5 7:2.25 8:0 9:38.5 
17.68595041322314 1:2.75 2:0 3:37.5 4:1.25 5:0.75 6:38 7:1.5 8:-0.25 9:38 
4.644050665656232 1:15 2:-3 3:147 4:16 5:0 6:146 7:17 8:-1 9:145 
0.02633167531889918 1:4 2:0 3:36.5 4:4.25 5:-0.25 6:36.25 7:4.75 8:-0.5 9:35.5 
17.68595041322314 1:5.3333335 2:-0.33333334 3:47.666668 4:3.6666667 5:0.33333334 6:49.333332 7:2.3333333 8:-0.33333334 9:51 
-32.31404958677686 1:-1 2:0 3:36.333332 4:-1 5:0 6:36.333332 7:-1 8:0.16666667 9:36.166668 
-32.31404958677686 1:-1.5 2:0 3:54.5 4:-1.5 5:0.25 6:54.25 7:-1.5 8:-0.25 9:54.25 
-32.31404958677686 1:-1 2:0.16666667 3:36.166668 4:-1 5:-0.16666667 6:36.166668 7:-1.1666666 8:0 9:36 
-32.31404958677686 1:-1.2 2:-0.2 3:43.400002 4:-1.4 5:0 6:43.200001 7:-1.4 8:0 9:43.200001 
-32.31404958677686 1:-1.1666666 2:0.16666667 3:36 4:-1.1666666 5:0.16666667 6:36 7:-1.1666666 8:0.16666667 9:35.833332 
-32.31404958677686 1:-1.75 2:0.25 3:54 4:-1.75 5:0.25 6:53.75 7:-1.75 8:0.25 9:53.75 
-32.31404958677686 1:-1.1666666 2:0.16666667 3:35.833332 4:-1.1666666 5:0.16666667 6:35.833332 7:-1.1666666 8:0.16666667 9:35.666668 
-32.31404958677686 1:-1.75 2:0.25 3:53.75 4:-1.75 5:0.25 6:53.5 7:-1.75 8:0.25 9:53.5 
-7.209673229620932 1:-8 2:1 3:214 4:-8 5:1 6:214 7:-8 8:1 9:214 
-32.31404958677686 1:-8 2:1 3:214 4:-8 5:1 6:214 7:-8 8:1 9:214 
-32.31404958677686 1:-8 2:1 3:214 4:-8 5:1 6:214 7:-8 8:1 9:214 
-32.31404958677686 1:-8 2:1 3:214 4:-8 5:1 6:214 7:-8 8:1 9:214 
-32.31404958677686 1:-8 2:1 3:214 4:-8 5:1 6:214 7:-8 8:1 9:214 
-32.31404958677686 1:-8 2:1 3:214 4:-8 5:1 6:214 7:-10 8:-2 9:214 
-32.31404958677686 1:-1 2:0 3:36.333332 4:-1 5:0 6:36.333332 7:-1 8:0.16666667 9:36.166668 
-32.31404958677686 1:-1.5 2:0 3:54.5 4:-1.5 5:0.25 6:54.25 7:-1.5 8:-0.25 9:54.25 
-32.31404958677686 1:-1 2:0.16666667 3:36.166668 4:-1 5:-0.16666667 6:36.166668 7:-1.1666666 8:0 9:36 
-32.31404958677686 1:-1.2 2:-0.2 3:43.400002 4:-1.4 5:0 6:43.200001 7:-1.4 8:0 9:43.200001 
-32.31404958677686 1:-1.1666666 2:0.16666667 3:36 4:-1.1666666 5:0.16666667 6:36 7:-1.1666666 8:0.16666667 9:35.833332 
-32.31404958677686 1:-1.75 2:0.25 3:54 4:-1.75 5:0.25 6:53.75 7:-1.75 8:0.25 9:53.75 
-32.31404958677686 1:-1.1666666 2:0.16666667 3:35.833332 4:-1.1666666 5:0.16666667 6:35.833332 7:-1.1666666 8:0.16666667 9:35.666668 
-32.31404958677686 1:-1.75 2:0.25 3:53.75 4:-1.75 5:0.25 6:53.5 7:-1.75 8:0.25 9:53.5 
-32.31404958677686 1:-8 2:1 3:214 4:-8 5:1 6:214 7:-8 8:1 9:214 
-32.31404958677686 1:-8 2:1 3:214 4:-8 5:1 6:214 7:-8 8:1 9:214 
-32.31404958677686 1:-8 2:1 3:214 4:-8 5:1 6:214 7:-8 8:1 9:214 
-32.31404958677686 1:-8 2:1 3:214 4:-8 5:1 6:214 7:-8 8:1 9:214 
-32.31404958677686 1:-8 2:1 3:214 4:-8 5:1 6:214 7:-8 8:1 9:214 
-32.31404958677686 1:-8 2:1 3:214 4:-8 5:1 6:214 7:-8 8:1 9:214 
-32.31404958677686 1:-8 2:1 3:214 4:-8 5:1 6:214 7:-8 8:1 9:214 
-32.31404958677686 1:-8 2:1 3:214 4:-8 5:1 6:214 7:-10 8:-2 9:214 
-32.31404958677686 1:-1 2:0 3:36.333332 4:-1 5:0 6:36.333332 7:-1 8:0.16666667 9:36.166668 
-32.31404958677686 1:-1.5 2:0 3:54.5 4:-1.5 5:0.25 6:54.25 7:-1.5 8:-0.25 9:54.25 
-32.31404958677686 1:-1 2:0.16666667 3:36.166668 4:-1 5:-0.16666667 6:36.166668 7:-1.1666666 8:0 9:36 
-32.31404958677686 1:-1.2 2:-0.2 3:43.400002 4:-1.4 5:0 6:43.200001 7:-1.4 8:0 9:43.200001 
-32.31404958677686 1:-1.1666666 2:0.16666667 3:36 4:-1.1666666 5:0.16666667 6:36 7:-1.1666666 8:0.16666667 9:35.833332 
-32.31404958677686 1:-1.75 2:0.25 3:54 4:-1.75 5:0.25 6:53.75 7:-1.75 8:0.25 9:53.75 
-32.31404958677686 1:-1.1666666 2:0.16666667 3:35.833332 4:-1.1666666 5:0.16666667 6:35.833332 7:-1.1666666 8:0.16666667 9:35.666668 
-32.31404958677686 1:-1.75 2:0.25 3:53.75 4:-1.75 5:0.25 6:53.5 7:-1.75 8:0.25 9:53.5 
-32.31404958677686 1:-8 2:1 3:214 4:-8 5:1 6:214 7:-8 8:1 9:214 
-32.31404958677686 1:-8 2:1 3:214 4:-8 5:1 6:214 7:-8 8:1 9:214 
-32.31404958677686 1:-8 2:1 3:214 4:-8 5:1 6:214 7:-8 8:1 9:214 
-32.31404958677686 1:-8 2:1 3:214 4:-8 5:1 6:214 7:-8 8:1 9:214 
-32.31404958677686 1:-8 2:1 3:214 4:-8 5:1 6:214 7:-8 8:1 9:214 
-32.31404958677686 1:-8 2:1 3:214 4:-8 5:1 6:214 7:-8 8:1 9:214 
-32.30886010256398 1:-8 2:1 3:214 4:-8 5:1 6:214 7:-8 8:1 9:214 
-32.31404958677686 1:-8 2:1 3:214 4:-8 5:1 6:214 7:-10 8:-2 9:214 
