svm_type c_svc
kernel_type rbf
gamma 0.00012207
nr_class 2
total_sv 204
rho -1.64199
label 1 3
nr_sv 105 99
SV
158.7692290086013 1:0 2:0 3:0 4:-1 5:3 6:2 7:-2 8:1 9:0 10:1 11:0 12:0 13:0 14:0 15:0 16:-1 17:3 18:2 19:-2 20:1 21:0 22:1 23:0 24:0 25:0 26:0 27:0 28:-1 29:3 30:2 31:0 32:1 33:0 34:1 35:0 36:0 37:1 38:0 39:0 40:-1 41:3 42:1 43:2 44:0 45:-1 46:1 47:0 48:0 49:1 50:0 51:0 52:2 53:-9 54:-7 55:3 56:-2 57:-1 58:0 59:0 60:-1 
158.7692290086013 1:0 2:-1 3:0 4:-3 5:0 6:6 7:4 8:1 9:5 10:0 11:0 12:0 13:0 14:-1 15:0 16:-3 17:-1 18:5 19:3 20:0 21:5 22:0 23:0 24:0 25:0 26:-1 27:0 28:-1 29:-1 30:2 31:2 32:0 33:3 34:0 35:0 36:0 37:0 38:0 39:0 40:1 41:-1 42:-4 43:-2 44:1 45:-3 46:0 47:0 48:0 49:0 50:0 51:-1 52:3 53:-1 54:-10 55:-6 56:0 57:-10 58:0 59:0 60:-1 
158.7692290086013 1:0 2:-1 3:0 4:-5 5:0 6:10 7:5 8:1 9:9 10:0 11:0 12:0 13:0 14:-1 15:0 16:-3 17:0 18:7 19:4 20:1 21:7 22:0 23:0 24:0 25:0 26:0 27:0 28:-1 29:0 30:1 31:0 32:2 33:1 34:0 35:0 36:0 37:0 38:0 39:-1 40:1 41:0 42:-5 43:-4 44:1 45:-6 46:0 47:0 48:-1 49:0 50:1 51:-2 52:5 53:0 54:-14 55:-5 56:-1 57:-14 58:0 59:0 60:-1 
158.7692290086013 1:1 2:0 3:1 4:-5 5:4 6:11 7:5 8:7 9:10 10:0 11:0 12:-1 13:1 14:0 15:0 16:-2 17:2 18:2 19:1 20:3 21:2 22:0 23:0 24:-1 25:1 26:0 27:-1 28:0 29:0 30:-2 31:-1 32:0 33:-2 34:0 35:0 36:0 37:0 38:-1 39:-1 40:3 41:-3 42:-6 43:-1 44:-3 45:-4 46:0 47:0 48:0 49:0 50:-2 51:1 52:3 53:-7 54:-9 55:-2 56:-8 57:-9 58:0 59:0 60:1 
158.7692290086013 1:1 2:1 3:-1 4:-4 5:5 6:7 7:3 8:7 9:6 10:0 11:0 12:-2 13:1 14:1 15:-2 16:-2 17:3 18:3 19:1 20:4 21:2 22:0 23:0 24:-1 25:0 26:0 27:-2 28:1 29:0 30:-1 31:1 32:1 33:0 34:0 35:0 36:-1 37:0 38:-1 39:0 40:1 41:-4 42:-4 43:0 44:-4 45:-5 46:0 47:0 48:0 49:0 50:-1 51:1 52:2 53:-8 54:-5 55:-1 56:-8 57:-7 58:0 59:0 60:0 
158.7692290086013 1:1 2:1 3:-2 4:-3 5:7 6:5 7:1 8:7 9:5 10:0 11:0 12:-1 13:0 14:0 15:-2 16:0 17:4 18:1 19:1 20:4 21:3 22:0 23:0 24:-1 25:0 26:-1 27:0 28:0 29:0 30:-2 31:0 32:-1 33:-2 34:0 35:0 36:0 37:0 38:-1 39:1 40:1 41:-4 42:-3 43:-1 44:-5 45:-4 46:0 47:0 48:0 49:1 50:-1 51:2 52:0 53:-7 54:-4 55:1 56:-7 57:-5 58:0 59:0 60:0 
158.7692290086013 1:1 2:-2 3:0 4:-5 5:5 6:1 7:0 8:6 9:-5 10:0 11:1 12:0 13:1 14:-1 15:0 16:-4 17:2 18:-1 19:0 20:2 21:0 22:0 23:0 24:-1 25:1 26:-1 27:0 28:-2 29:-2 30:-2 31:1 32:-2 33:-2 34:0 35:0 36:-1 37:1 38:0 39:0 40:3 41:-2 42:0 43:2 44:-4 45:1 46:0 47:0 48:-1 49:0 50:0 51:-1 52:4 53:-3 54:0 55:-1 56:-6 57:2 58:0 59:-1 60:-1 
104.1951266281469 1:1 2:-1 3:0 4:-5 5:4 6:-2 7:1 8:5 9:-1 10:0 11:1 12:0 13:1 14:-1 15:0 16:-3 17:0 18:-3 19:2 20:1 21:-3 22:0 23:1 24:0 25:1 26:0 27:0 28:2 29:0 30:-1 31:3 32:-1 33:0 34:0 35:1 36:0 37:0 38:0 39:-1 40:3 41:-1 42:-1 43:0 44:-3 45:1 46:0 47:0 48:0 49:0 50:1 51:0 52:0 53:-4 54:4 55:-2 56:-4 57:2 58:0 59:0 60:0 
51.24455129729088 1:0 2:-1 3:0 4:0 5:-1 6:2 7:-1 8:0 9:1 10:1 11:1 12:0 13:0 14:-1 15:-1 16:0 17:1 18:1 19:0 20:1 21:1 22:0 23:0 24:0 25:0 26:-1 27:0 28:0 29:0 30:2 31:0 32:0 33:1 34:0 35:0 36:0 37:1 38:0 39:0 40:0 41:0 42:-5 43:0 44:1 45:0 46:1 47:0 48:0 49:1 50:0 51:1 52:-2 53:0 54:2 55:3 56:0 57:0 58:1 59:0 60:-1 
158.7692290086013 1:0 2:0 3:0 4:0 5:0 6:1 7:2 8:0 9:0 10:1 11:0 12:0 13:0 14:-1 15:0 16:0 17:0 18:0 19:1 20:0 21:0 22:0 23:0 24:0 25:1 26:-1 27:0 28:-1 29:0 30:-1 31:1 32:0 33:-1 34:-1 35:0 36:0 37:1 38:-1 39:0 40:-1 41:0 42:-1 43:0 44:0 45:-1 46:-1 47:0 48:0 49:1 50:-1 51:0 52:-2 53:0 54:-1 55:0 56:-1 57:0 58:-1 59:0 60:0 
82.38557993792173 1:0 2:0 3:0 4:1 5:0 6:0 7:1 8:0 9:0 10:0 11:0 12:0 13:1 14:0 15:0 16:0 17:0 18:-1 19:1 20:0 21:-1 22:-1 23:0 24:0 25:1 26:0 27:0 28:0 29:0 30:-1 31:0 32:0 33:-1 34:-1 35:0 36:0 37:1 38:0 39:0 40:-1 41:0 42:-1 43:0 44:-1 45:0 46:-1 47:0 48:0 49:1 50:0 51:0 52:-2 53:0 54:-1 55:0 56:-1 57:0 58:-1 59:0 60:0 
158.7692290086013 1:0 2:0 3:0 4:1 5:0 6:0 7:1 8:0 9:-1 10:0 11:0 12:0 13:0 14:0 15:0 16:1 17:0 18:0 19:0 20:0 21:-1 22:0 23:0 24:0 25:0 26:0 27:0 28:0 29:0 30:0 31:0 32:-1 33:0 34:0 35:0 36:0 37:0 38:0 39:0 40:-1 41:0 42:0 43:0 44:-1 45:0 46:0 47:0 48:0 49:0 50:0 51:0 52:-1 53:0 54:0 55:0 56:-1 57:-1 58:0 59:0 60:0 
67.89811742504627 1:1 2:0 3:1 4:1 5:-1 6:0 7:0 8:1 9:0 10:0 11:0 12:0 13:1 14:0 15:1 16:0 17:-1 18:0 19:0 20:0 21:1 22:0 23:0 24:0 25:1 26:0 27:1 28:-1 29:-1 30:0 31:0 32:0 33:1 34:0 35:0 36:0 37:1 38:0 39:1 40:-1 41:-1 42:0 43:0 44:0 45:0 46:0 47:0 48:0 49:-3 50:-1 51:0 52:1 53:1 54:-3 55:0 56:-1 57:-3 58:0 59:0 60:0 
158.7692290086013 1:1 2:-1 3:2 4:0 5:-2 6:-5 7:-2 8:-5 9:-6 10:0 11:0 12:0 13:0 14:-1 15:1 16:1 17:-2 18:-4 19:0 20:-4 21:-3 22:1 23:0 24:0 25:-2 26:-1 27:0 28:-1 29:-1 30:-1 31:1 32:-2 33:0 34:1 35:0 36:0 37:-2 38:-1 39:0 40:-2 41:1 42:2 43:2 44:2 45:2 46:1 47:0 48:0 49:2 50:0 51:0 52:-2 53:4 54:5 55:2 56:5 57:4 58:1 59:0 60:0 
158.7692290086013 1:1 2:0 3:-1 4:3 5:-2 6:4 7:2 8:2 9:1 10:1 11:0 12:0 13:0 14:0 15:-1 16:1 17:-2 18:2 19:2 20:0 21:-1 22:1 23:0 24:0 25:0 26:0 27:-1 28:-1 29:0 30:2 31:1 32:0 33:-1 34:1 35:0 36:1 37:0 38:-1 39:0 40:-2 41:1 42:0 43:0 44:0 45:0 46:1 47:0 48:0 49:0 50:-1 51:0 52:-2 53:3 54:-7 55:-1 56:-1 57:-1 58:0 59:0 60:0 
136.3128879688099 1:0 2:0 3:-1 4:0 5:-3 6:-1 7:7 8:-5 9:0 10:0 11:0 12:0 13:1 14:0 15:0 16:0 17:1 18:-1 19:-13 20:2 21:4 22:1 23:0 24:0 25:1 26:-1 27:0 28:0 29:1 30:-1 31:2 32:2 33:1 34:1 35:0 36:0 37:1 38:0 39:0 40:0 41:1 42:-1 43:2 44:2 45:1 46:1 47:0 48:0 49:1 50:0 51:0 52:0 53:1 54:0 55:3 56:-1 57:-2 58:1 59:0 60:0 
158.7692290086013 1:0 2:0 3:0 4:-1 5:3 6:2 7:-2 8:1 9:0 10:1 11:0 12:0 13:0 14:0 15:0 16:-1 17:3 18:2 19:-2 20:1 21:0 22:1 23:0 24:0 25:0 26:0 27:0 28:-1 29:3 30:2 31:0 32:1 33:0 34:1 35:0 36:0 37:1 38:0 39:0 40:-1 41:3 42:1 43:2 44:0 45:-1 46:1 47:0 48:0 49:1 50:0 51:0 52:2 53:-9 54:-7 55:3 56:-2 57:-1 58:0 59:0 60:-1 
76.73994405690483 1:0 2:0 3:-1 4:-1 5:7 6:4 7:-3 8:3 9:0 10:1 11:0 12:0 13:0 14:0 15:-1 16:-1 17:7 18:4 19:-1 20:3 21:0 22:1 23:0 24:0 25:1 26:0 27:-1 28:-1 29:7 30:3 31:1 32:2 33:-1 34:1 35:0 36:0 37:1 38:0 39:-1 40:2 41:-5 42:-5 43:2 44:0 45:-1 46:0 47:0 48:-1 49:-2 50:-1 51:0 52:0 53:-13 54:-6 55:4 56:-5 57:-1 58:1 59:0 60:0 
158.7692290086013 1:0 2:-1 3:0 4:-3 5:0 6:6 7:4 8:1 9:5 10:0 11:0 12:0 13:0 14:-1 15:0 16:-3 17:-1 18:5 19:3 20:0 21:5 22:0 23:0 24:0 25:0 26:-1 27:0 28:-1 29:-1 30:2 31:2 32:0 33:3 34:0 35:0 36:0 37:0 38:0 39:0 40:1 41:-1 42:-4 43:-2 44:1 45:-3 46:0 47:0 48:0 49:0 50:0 51:-1 52:3 53:-1 54:-10 55:-6 56:0 57:-10 58:0 59:0 60:-1 
158.7692290086013 1:0 2:-1 3:0 4:-5 5:0 6:10 7:5 8:1 9:9 10:0 11:0 12:0 13:0 14:-1 15:0 16:-3 17:0 18:7 19:4 20:1 21:7 22:0 23:0 24:0 25:0 26:0 27:0 28:-1 29:0 30:1 31:0 32:2 33:1 34:0 35:0 36:0 37:0 38:0 39:-1 40:1 41:0 42:-5 43:-4 44:1 45:-6 46:0 47:0 48:-1 49:0 50:1 51:-2 52:5 53:0 54:-14 55:-5 56:-1 57:-14 58:0 59:0 60:-1 
77.99303697597279 1:1 2:-1 3:1 4:-7 5:2 6:15 7:4 8:5 9:13 10:0 11:0 12:-1 13:1 14:0 15:0 16:-3 17:2 18:6 19:3 20:3 21:5 22:0 23:0 24:-1 25:1 26:0 27:-1 28:0 29:0 30:-3 31:-1 32:-1 33:-3 34:0 35:0 36:-1 37:1 38:0 39:-2 40:2 41:-2 42:-7 43:-3 44:-4 45:-7 46:0 47:0 48:0 49:0 50:-1 51:-2 52:5 53:-5 54:-11 55:-3 56:-7 57:-9 58:0 59:0 60:0 
158.7692290086013 1:1 2:0 3:1 4:-5 5:4 6:11 7:5 8:7 9:10 10:0 11:0 12:-1 13:1 14:0 15:0 16:-2 17:2 18:2 19:1 20:3 21:2 22:0 23:0 24:-1 25:1 26:0 27:-1 28:0 29:0 30:-2 31:-1 32:0 33:-2 34:0 35:0 36:0 37:0 38:-1 39:-1 40:3 41:-3 42:-6 43:-1 44:-3 45:-4 46:0 47:0 48:0 49:0 50:-2 51:1 52:3 53:-7 54:-9 55:-2 56:-8 57:-9 58:0 59:0 60:1 
158.7692290086013 1:1 2:1 3:-1 4:-4 5:5 6:7 7:3 8:7 9:6 10:0 11:0 12:-2 13:1 14:1 15:-2 16:-2 17:3 18:3 19:1 20:4 21:2 22:0 23:0 24:-1 25:0 26:0 27:-2 28:1 29:0 30:-1 31:1 32:1 33:0 34:0 35:0 36:-1 37:0 38:-1 39:0 40:1 41:-4 42:-4 43:0 44:-4 45:-5 46:0 47:0 48:0 49:0 50:-1 51:1 52:2 53:-8 54:-5 55:-1 56:-8 57:-7 58:0 59:0 60:0 
158.7692290086013 1:1 2:1 3:-2 4:-3 5:7 6:5 7:1 8:7 9:5 10:0 11:0 12:-1 13:0 14:0 15:-2 16:0 17:4 18:1 19:1 20:4 21:3 22:0 23:0 24:-1 25:0 26:-1 27:0 28:0 29:0 30:-2 31:0 32:-1 33:-2 34:0 35:0 36:0 37:0 38:-1 39:1 40:1 41:-4 42:-3 43:-1 44:-5 45:-4 46:0 47:0 48:0 49:1 50:-1 51:2 52:0 53:-7 54:-4 55:1 56:-7 57:-5 58:0 59:0 60:0 
158.7692290086013 1:1 2:-2 3:0 4:-5 5:5 6:1 7:0 8:6 9:-5 10:0 11:1 12:0 13:1 14:-1 15:0 16:-4 17:2 18:-1 19:0 20:2 21:0 22:0 23:0 24:-1 25:1 26:-1 27:0 28:-2 29:-2 30:-2 31:1 32:-2 33:-2 34:0 35:0 36:-1 37:1 38:0 39:0 40:3 41:-2 42:0 43:2 44:-4 45:1 46:0 47:0 48:-1 49:0 50:0 51:-1 52:4 53:-3 54:0 55:-1 56:-6 57:2 58:0 59:-1 60:-1 
158.7692290086013 1:1 2:-1 3:0 4:-5 5:4 6:-2 7:1 8:5 9:-1 10:0 11:1 12:0 13:1 14:-1 15:0 16:-3 17:0 18:-3 19:2 20:1 21:-3 22:0 23:1 24:0 25:1 26:0 27:0 28:2 29:0 30:-1 31:3 32:-1 33:0 34:0 35:1 36:0 37:0 38:0 39:-1 40:3 41:-1 42:-1 43:0 44:-3 45:1 46:0 47:0 48:0 49:0 50:1 51:0 52:0 53:-4 54:4 55:-2 56:-4 57:2 58:0 59:0 60:0 
62.70318976932761 1:0 2:-1 3:-1 4:6 5:4 6:-3 7:3 8:1 9:2 10:0 11:1 12:0 13:0 14:-1 15:-1 16:-1 17:0 18:-1 19:1 20:1 21:2 22:0 23:1 24:0 25:0 26:0 27:-1 28:-3 29:-2 30:0 31:0 32:0 33:-1 34:0 35:0 36:0 37:0 38:0 39:0 40:-3 41:-2 42:1 43:-1 44:-2 45:-4 46:0 47:0 48:0 49:0 50:0 51:2 52:-3 53:-2 54:2 55:-1 56:-2 57:-2 58:0 59:0 60:0 
154.8144770394334 1:0 2:-1 3:0 4:0 5:-1 6:2 7:-1 8:0 9:1 10:1 11:1 12:0 13:0 14:-1 15:-1 16:0 17:1 18:1 19:0 20:1 21:1 22:0 23:0 24:0 25:0 26:-1 27:0 28:0 29:0 30:2 31:0 32:0 33:1 34:0 35:0 36:0 37:1 38:0 39:0 40:0 41:0 42:-5 43:0 44:1 45:0 46:1 47:0 48:0 49:1 50:0 51:1 52:-2 53:0 54:2 55:3 56:0 57:0 58:1 59:0 60:-1 
0.03835338140109718 1:0 2:-1 3:-2 4:1 5:2 6:-1 7:-1 8:1 9:-2 10:0 11:0 12:0 13:0 14:-1 15:-1 16:1 17:1 18:0 19:-1 20:0 21:-2 22:0 23:0 24:0 25:1 26:0 27:-1 28:1 29:1 30:-7 31:-1 32:1 33:-3 34:1 35:0 36:0 37:1 38:0 39:0 40:-1 41:1 42:0 43:2 44:0 45:-3 46:1 47:0 48:-1 49:1 50:0 51:0 52:-4 53:-2 54:12 55:3 56:-2 57:10 58:1 59:0 60:-1 
4.27522728829563 1:0 2:-1 3:-1 4:2 5:2 6:-3 7:-1 8:2 9:-6 10:0 11:0 12:0 13:1 14:0 15:-1 16:2 17:2 18:-10 19:-1 20:3 21:-7 22:1 23:0 24:0 25:1 26:0 27:0 28:0 29:2 30:-3 31:2 32:2 33:-7 34:1 35:0 36:-1 37:1 38:0 39:0 40:-3 41:-1 42:9 43:3 44:0 45:6 46:1 47:0 48:-1 49:1 50:0 51:0 52:-4 53:-2 54:10 55:1 56:-4 57:17 58:1 59:0 60:-1 
158.7692290086013 1:0 2:0 3:0 4:0 5:0 6:1 7:2 8:0 9:0 10:1 11:0 12:0 13:0 14:-1 15:0 16:0 17:0 18:0 19:1 20:0 21:0 22:0 23:0 24:0 25:1 26:-1 27:0 28:-1 29:0 30:-1 31:1 32:0 33:-1 34:-1 35:0 36:0 37:1 38:-1 39:0 40:-1 41:0 42:-1 43:0 44:0 45:-1 46:-1 47:0 48:0 49:1 50:-1 51:0 52:-2 53:0 54:-1 55:0 56:-1 57:0 58:-1 59:0 60:0 
134.9354289260105 1:0 2:0 3:0 4:1 5:0 6:0 7:1 8:0 9:0 10:0 11:0 12:0 13:1 14:0 15:0 16:0 17:0 18:-1 19:1 20:0 21:-1 22:-1 23:0 24:0 25:1 26:0 27:0 28:0 29:0 30:-1 31:0 32:0 33:-1 34:-1 35:0 36:0 37:1 38:0 39:0 40:-1 41:0 42:-1 43:0 44:-1 45:0 46:-1 47:0 48:0 49:1 50:0 51:0 52:-2 53:0 54:-1 55:0 56:-1 57:0 58:-1 59:0 60:0 
158.7692290086013 1:0 2:0 3:0 4:1 5:0 6:0 7:1 8:0 9:-1 10:0 11:0 12:0 13:0 14:0 15:0 16:1 17:0 18:0 19:0 20:0 21:-1 22:0 23:0 24:0 25:0 26:0 27:0 28:0 29:0 30:0 31:0 32:-1 33:0 34:0 35:0 36:0 37:0 38:0 39:0 40:-1 41:0 42:0 43:0 44:-1 45:0 46:0 47:0 48:0 49:0 50:0 51:0 52:-1 53:0 54:0 55:0 56:-1 57:-1 58:0 59:0 60:0 
126.6508995193143 1:1 2:0 3:1 4:1 5:-1 6:0 7:0 8:1 9:0 10:0 11:0 12:0 13:1 14:0 15:1 16:0 17:-1 18:0 19:0 20:0 21:1 22:0 23:0 24:0 25:1 26:0 27:1 28:-1 29:-1 30:0 31:0 32:0 33:1 34:0 35:0 36:0 37:1 38:0 39:1 40:-1 41:-1 42:0 43:0 44:0 45:0 46:0 47:0 48:0 49:-3 50:-1 51:0 52:1 53:1 54:-3 55:0 56:-1 57:-3 58:0 59:0 60:0 
158.7692290086013 1:1 2:-1 3:2 4:0 5:-2 6:-5 7:-2 8:-5 9:-6 10:0 11:0 12:0 13:0 14:-1 15:1 16:1 17:-2 18:-4 19:0 20:-4 21:-3 22:1 23:0 24:0 25:-2 26:-1 27:0 28:-1 29:-1 30:-1 31:1 32:-2 33:0 34:1 35:0 36:0 37:-2 38:-1 39:0 40:-2 41:1 42:2 43:2 44:2 45:2 46:1 47:0 48:0 49:2 50:0 51:0 52:-2 53:4 54:5 55:2 56:5 57:4 58:1 59:0 60:0 
39.08096486203445 1:0 2:0 3:0 4:2 5:6 6:-10 7:2 8:0 9:-1 10:0 11:0 12:0 13:0 14:0 15:-1 16:-1 17:3 18:-1 19:-1 20:1 21:0 22:0 23:0 24:0 25:0 26:0 27:-1 28:-1 29:1 30:2 31:-1 32:1 33:-2 34:0 35:0 36:0 37:1 38:0 39:-1 40:-1 41:-2 42:5 43:-1 44:2 45:0 46:0 47:0 48:0 49:2 50:0 51:0 52:-2 53:-4 54:7 55:2 56:0 57:0 58:0 59:0 60:0 
118.2623329023312 1:0 2:0 3:-1 4:0 5:5 6:-4 7:-1 8:1 9:0 10:0 11:0 12:0 13:0 14:0 15:-1 16:0 17:3 18:-1 19:-1 20:1 21:-2 22:0 23:0 24:0 25:1 26:0 27:-1 28:0 29:0 30:2 31:-1 32:2 33:0 34:0 35:0 36:0 37:2 38:0 39:0 40:-1 41:-2 42:4 43:2 44:0 45:0 46:0 47:0 48:0 49:1 50:0 51:0 52:-3 53:-2 54:2 55:2 56:-2 57:-2 58:0 59:0 60:0 
14.88598655759177 1:0 2:0 3:-1 4:3 5:1 6:0 7:-1 8:3 9:1 10:0 11:0 12:0 13:1 14:0 15:0 16:2 17:-1 18:2 19:2 20:1 21:1 22:0 23:0 24:0 25:0 26:0 27:0 28:0 29:-1 30:0 31:2 32:-1 33:-1 34:0 35:0 36:0 37:0 38:0 39:0 40:-2 41:1 42:0 43:1 44:-1 45:-1 46:0 47:0 48:1 49:0 50:-1 51:1 52:-3 53:2 54:-2 55:0 56:-1 57:0 58:0 59:0 60:0 
158.7692290086013 1:1 2:0 3:-1 4:3 5:-2 6:4 7:2 8:2 9:1 10:1 11:0 12:0 13:0 14:0 15:-1 16:1 17:-2 18:2 19:2 20:0 21:-1 22:1 23:0 24:0 25:0 26:0 27:-1 28:-1 29:0 30:2 31:1 32:0 33:-1 34:1 35:0 36:1 37:0 38:-1 39:0 40:-2 41:1 42:0 43:0 44:0 45:0 46:1 47:0 48:0 49:0 50:-1 51:0 52:-2 53:3 54:-7 55:-1 56:-1 57:-1 58:0 59:0 60:0 
19.92434315845308 1:-1 2:0 3:-1 4:-5 5:0 6:11 7:0 8:-1 9:0 10:0 11:0 12:0 13:0 14:0 15:-1 16:-3 17:1 18:5 19:0 20:-1 21:-3 22:0 23:0 24:0 25:0 26:0 27:0 28:-1 29:2 30:0 31:0 32:-1 33:-1 34:0 35:0 36:0 37:1 38:0 39:0 40:1 41:2 42:-4 43:1 44:-1 45:-1 46:0 47:0 48:0 49:2 50:0 51:0 52:4 53:-1 54:-12 55:0 56:4 57:1 58:0 59:0 60:0 
0.4281236585106654 1:-2 2:-1 3:-1 4:-9 5:8 6:15 7:5 8:-4 9:1 10:0 11:0 12:0 13:-1 14:-1 15:-1 16:-6 17:5 18:7 19:4 20:1 21:3 22:0 23:0 24:0 25:1 26:0 27:-1 28:1 29:0 30:-3 31:-3 32:4 33:2 34:0 35:0 36:-1 37:2 38:1 39:0 40:4 41:-4 42:-8 43:-3 44:2 45:-1 46:0 47:0 48:-1 49:3 50:1 51:-1 52:7 53:-6 54:-12 55:-1 56:1 57:-6 58:-1 59:0 60:-1 
4.348391125670799 1:-1 2:-1 3:-1 4:-7 5:3 6:-1 7:-3 8:7 9:0 10:0 11:0 12:0 13:0 14:-1 15:0 16:-4 17:1 18:-2 19:4 20:2 21:1 22:0 23:0 24:0 25:-1 26:-1 27:-1 28:-3 29:0 30:-2 31:2 32:-1 33:0 34:0 35:0 36:0 37:1 38:0 39:-1 40:3 41:0 42:0 43:1 44:0 45:1 46:0 47:0 48:0 49:3 50:1 51:0 52:8 53:0 54:3 55:-1 56:-4 57:-3 58:-1 59:0 60:-1 
3.634807172132774 1:-4 2:-2 3:-1 4:-7 5:-1 6:-6 7:6 8:2 9:7 10:1 11:0 12:0 13:-2 14:-1 15:-1 16:-1 17:-1 18:-4 19:5 20:3 21:8 22:1 23:0 24:0 25:0 26:0 27:0 28:4 29:-1 30:-1 31:3 32:-1 33:4 34:0 35:0 36:-1 37:2 38:0 39:-1 40:3 41:2 42:3 43:-3 44:-1 45:-8 46:-1 47:0 48:0 49:4 50:1 51:-1 52:2 53:4 54:7 55:-9 56:-2 57:-13 58:-2 59:0 60:0 
0.002664521467741354 1:-4 2:-2 3:-1 4:-3 5:-2 6:-7 7:8 8:4 9:12 10:2 11:0 12:0 13:-2 14:-1 15:0 16:2 17:-2 18:-4 19:6 20:0 21:8 22:1 23:0 24:-1 25:0 26:-1 27:-1 28:1 29:1 30:0 31:0 32:0 33:-4 34:0 35:0 36:0 37:2 38:0 39:-1 40:0 41:3 42:4 43:-6 44:-1 45:-9 46:-1 47:0 48:0 49:4 50:2 51:-1 52:0 53:3 54:6 55:-7 56:-1 57:-8 58:-2 59:0 60:0 
7.721850929649858 1:-1 2:-2 3:0 4:-2 5:-4 6:1 7:-3 8:-3 9:-1 10:0 11:0 12:-1 13:0 14:-1 15:0 16:-1 17:-2 18:2 19:-2 20:-1 21:0 22:0 23:0 24:-1 25:1 26:1 27:0 28:0 29:3 30:0 31:0 32:2 33:1 34:-1 35:0 36:-1 37:1 38:0 39:0 40:2 41:4 42:-1 43:3 44:3 45:0 46:-1 47:0 48:0 49:1 50:0 51:0 52:4 53:3 54:-4 55:5 56:1 57:-1 58:-1 59:0 60:0 
8.968161884230009 1:0 2:0 3:0 4:0 5:0 6:0 7:0 8:0 9:0 10:0 11:0 12:0 13:0 14:0 15:0 16:0 17:0 18:0 19:0 20:0 21:0 22:0 23:0 24:0 25:0 26:0 27:0 28:0 29:0 30:0 31:0 32:0 33:0 34:0 35:0 36:0 37:0 38:0 39:0 40:0 41:0 42:0 43:0 44:0 45:0 46:0 47:0 48:0 49:0 50:0 51:0 52:0 53:0 54:0 55:0 56:0 57:0 58:0 59:0 60:0 
158.6276095979591 1:0 2:0 3:0 4:0 5:0 6:0 7:0 8:0 9:0 10:0 11:0 12:0 13:0 14:0 15:0 16:0 17:0 18:0 19:0 20:0 21:0 22:0 23:0 24:0 25:0 26:0 27:0 28:0 29:0 30:0 31:0 32:0 33:0 34:0 35:0 36:0 37:0 38:0 39:0 40:0 41:0 42:0 43:0 44:0 45:0 46:0 47:0 48:0 49:0 50:0 51:0 52:0 53:0 54:0 55:0 56:0 57:0 58:0 59:0 60:0 
22.30555907923066 1:0 2:0 3:-1 4:12 5:16 6:-1 7:6 8:-5 9:-1 10:0 11:0 12:0 13:0 14:0 15:-1 16:-3 17:-6 18:0 19:6 20:-4 21:-1 22:0 23:0 24:0 25:1 26:0 27:0 28:-3 29:-2 30:0 31:-14 32:3 33:3 34:1 35:0 36:0 37:1 38:-1 39:0 40:-3 41:-2 42:0 43:1 44:3 45:0 46:1 47:0 48:0 49:1 50:0 51:0 52:-3 53:-2 54:0 55:1 56:3 57:0 58:1 59:0 60:0 
158.7692290086013 1:0 2:0 3:-1 4:0 5:-3 6:-1 7:7 8:-5 9:0 10:0 11:0 12:0 13:1 14:0 15:0 16:0 17:1 18:-1 19:-13 20:2 21:4 22:1 23:0 24:0 25:1 26:-1 27:0 28:0 29:1 30:-1 31:2 32:2 33:1 34:1 35:0 36:0 37:1 38:0 39:0 40:0 41:1 42:-1 43:2 44:2 45:1 46:1 47:0 48:0 49:1 50:0 51:0 52:0 53:1 54:0 55:3 56:-1 57:-2 58:1 59:0 60:0 
99.15630106547583 1:0 2:0 3:0 4:0 5:0 6:-1 7:-13 8:3 9:5 10:0 11:0 12:0 13:0 14:-1 15:0 16:0 17:0 18:-1 19:2 20:3 21:2 22:0 23:0 24:0 25:0 26:0 27:0 28:0 29:0 30:-1 31:2 32:3 33:2 34:0 35:0 36:0 37:0 38:0 39:0 40:0 41:0 42:0 43:3 44:0 45:-1 46:0 47:0 48:0 49:0 50:0 51:0 52:0 53:0 54:0 55:9 56:-9 57:-6 58:0 59:0 60:0 
158.7692290086013 1:0 2:0 3:0 4:-1 5:3 6:2 7:-2 8:1 9:0 10:1 11:0 12:0 13:0 14:0 15:0 16:-1 17:3 18:2 19:-2 20:1 21:0 22:1 23:0 24:0 25:0 26:0 27:0 28:-1 29:3 30:2 31:0 32:1 33:0 34:1 35:0 36:0 37:1 38:0 39:0 40:-1 41:3 42:1 43:2 44:0 45:-1 46:1 47:0 48:0 49:1 50:0 51:0 52:2 53:-9 54:-7 55:3 56:-2 57:-1 58:0 59:0 60:-1 
145.0855065761556 1:0 2:0 3:-1 4:-1 5:7 6:4 7:-3 8:3 9:0 10:1 11:0 12:0 13:0 14:0 15:-1 16:-1 17:7 18:4 19:-1 20:3 21:0 22:1 23:0 24:0 25:1 26:0 27:-1 28:-1 29:7 30:3 31:1 32:2 33:-1 34:1 35:0 36:0 37:1 38:0 39:-1 40:2 41:-5 42:-5 43:2 44:0 45:-1 46:0 47:0 48:-1 49:-2 50:-1 51:0 52:0 53:-13 54:-6 55:4 56:-5 57:-1 58:1 59:0 60:0 
54.96385273821647 1:1 2:0 3:-1 4:-1 5:12 6:5 7:-3 8:5 9:0 10:1 11:0 12:0 13:2 14:0 15:-1 16:-1 17:12 18:4 19:-1 20:4 21:-1 22:1 23:0 24:0 25:2 26:0 27:-1 28:2 29:0 30:-4 31:0 32:2 33:-1 34:0 35:0 36:-1 37:-1 38:-1 39:0 40:0 41:-8 42:-5 43:2 44:-3 45:-1 46:1 47:0 48:0 49:-1 50:-1 51:1 52:-4 53:-13 54:-1 55:4 56:-8 57:-1 58:1 59:0 60:-1 
97.6700534779326 1:0 2:-1 3:0 4:-2 5:0 6:3 7:2 8:3 9:2 10:0 11:0 12:0 13:0 14:-1 15:0 16:-2 17:0 18:2 19:2 20:0 21:2 22:0 23:0 24:0 25:0 26:-1 27:0 28:-2 29:-1 30:1 31:1 32:-1 33:2 34:0 35:0 36:0 37:0 38:-1 39:0 40:0 41:-1 42:-2 43:0 44:-1 45:0 46:0 47:0 48:0 49:0 50:0 51:0 52:2 53:-1 54:-8 55:-4 56:0 57:-6 58:0 59:0 60:0 
158.7692290086013 1:0 2:-1 3:0 4:-3 5:0 6:6 7:4 8:1 9:5 10:0 11:0 12:0 13:0 14:-1 15:0 16:-3 17:-1 18:5 19:3 20:0 21:5 22:0 23:0 24:0 25:0 26:-1 27:0 28:-1 29:-1 30:2 31:2 32:0 33:3 34:0 35:0 36:0 37:0 38:0 39:0 40:1 41:-1 42:-4 43:-2 44:1 45:-3 46:0 47:0 48:0 49:0 50:0 51:-1 52:3 53:-1 54:-10 55:-6 56:0 57:-10 58:0 59:0 60:-1 
158.7692290086013 1:0 2:-1 3:0 4:-5 5:0 6:10 7:5 8:1 9:9 10:0 11:0 12:0 13:0 14:-1 15:0 16:-3 17:0 18:7 19:4 20:1 21:7 22:0 23:0 24:0 25:0 26:0 27:0 28:-1 29:0 30:1 31:0 32:2 33:1 34:0 35:0 36:0 37:0 38:0 39:-1 40:1 41:0 42:-5 43:-4 44:1 45:-6 46:0 47:0 48:-1 49:0 50:1 51:-2 52:5 53:0 54:-14 55:-5 56:-1 57:-14 58:0 59:0 60:-1 
82.8241815873435 1:0 2:-2 3:1 4:-5 5:0 6:13 7:7 8:2 9:13 10:0 11:0 12:0 13:0 14:-1 15:1 16:-3 17:0 18:7 19:3 20:3 21:7 22:0 23:0 24:0 25:0 26:-1 27:0 28:-1 29:0 30:1 31:-1 32:2 33:0 34:0 35:0 36:-1 37:0 38:0 39:-1 40:3 41:0 42:-8 43:-2 44:0 45:-8 46:0 47:0 48:-1 49:0 50:0 51:-2 52:6 53:-2 54:-17 55:-6 56:-4 57:-16 58:0 59:0 60:-1 
63.71959849071988 1:0 2:-1 3:2 4:-6 5:1 6:14 7:6 8:5 9:14 10:0 11:0 12:0 13:0 14:-1 15:1 16:-4 17:1 18:8 19:2 20:4 21:7 22:0 23:0 24:-1 25:0 26:0 27:0 28:0 29:1 30:-1 31:1 32:2 33:-1 34:0 35:0 36:-1 37:0 38:0 39:-1 40:3 41:-1 42:-10 43:-3 44:-2 45:-9 46:0 47:0 48:-1 49:0 50:0 51:-2 52:5 53:-3 54:-14 55:-5 56:-5 57:-13 58:0 59:0 60:0 
142.1442877236669 1:1 2:-1 3:1 4:-7 5:2 6:15 7:4 8:5 9:13 10:0 11:0 12:-1 13:1 14:0 15:0 16:-3 17:2 18:6 19:3 20:3 21:5 22:0 23:0 24:-1 25:1 26:0 27:-1 28:0 29:0 30:-3 31:-1 32:-1 33:-3 34:0 35:0 36:-1 37:1 38:0 39:-2 40:2 41:-2 42:-7 43:-3 44:-4 45:-7 46:0 47:0 48:0 49:0 50:-1 51:-2 52:5 53:-5 54:-11 55:-3 56:-7 57:-9 58:0 59:0 60:0 
158.7692290086013 1:1 2:0 3:1 4:-5 5:4 6:11 7:5 8:7 9:10 10:0 11:0 12:-1 13:1 14:0 15:0 16:-2 17:2 18:2 19:1 20:3 21:2 22:0 23:0 24:-1 25:1 26:0 27:-1 28:0 29:0 30:-2 31:-1 32:0 33:-2 34:0 35:0 36:0 37:0 38:-1 39:-1 40:3 41:-3 42:-6 43:-1 44:-3 45:-4 46:0 47:0 48:0 49:0 50:-2 51:1 52:3 53:-7 54:-9 55:-2 56:-8 57:-9 58:0 59:0 60:1 
158.7692290086013 1:1 2:1 3:-1 4:-4 5:5 6:7 7:3 8:7 9:6 10:0 11:0 12:-2 13:1 14:1 15:-2 16:-2 17:3 18:3 19:1 20:4 21:2 22:0 23:0 24:-1 25:0 26:0 27:-2 28:1 29:0 30:-1 31:1 32:1 33:0 34:0 35:0 36:-1 37:0 38:-1 39:0 40:1 41:-4 42:-4 43:0 44:-4 45:-5 46:0 47:0 48:0 49:0 50:-1 51:1 52:2 53:-8 54:-5 55:-1 56:-8 57:-7 58:0 59:0 60:0 
158.7692290086013 1:1 2:1 3:-2 4:-3 5:7 6:5 7:1 8:7 9:5 10:0 11:0 12:-1 13:0 14:0 15:-2 16:0 17:4 18:1 19:1 20:4 21:3 22:0 23:0 24:-1 25:0 26:-1 27:0 28:0 29:0 30:-2 31:0 32:-1 33:-2 34:0 35:0 36:0 37:0 38:-1 39:1 40:1 41:-4 42:-3 43:-1 44:-5 45:-4 46:0 47:0 48:0 49:1 50:-1 51:2 52:0 53:-7 54:-4 55:1 56:-7 57:-5 58:0 59:0 60:0 
80.69426483793338 1:0 2:-1 3:-2 4:-1 5:7 6:2 7:0 8:6 9:0 10:0 11:1 12:0 13:0 14:-1 15:-1 16:0 17:3 18:1 19:-1 20:2 21:-2 22:0 23:1 24:0 25:1 26:-1 27:0 28:-1 29:0 30:0 31:1 32:0 33:-3 34:0 35:1 36:0 37:1 38:0 39:0 40:0 41:-3 42:-2 43:1 44:-4 45:2 46:0 47:0 48:-1 49:1 50:0 51:0 52:2 53:-7 54:-3 55:2 56:-8 57:0 58:0 59:0 60:-1 
91.76788438832399 1:0 2:-1 3:-1 4:-2 5:5 6:2 7:-2 8:6 9:-2 10:0 11:1 12:0 13:1 14:-1 15:0 16:-3 17:2 18:1 19:0 20:4 21:-3 22:0 23:1 24:0 25:1 26:0 27:0 28:-2 29:-1 30:-1 31:0 32:0 33:2 34:0 35:0 36:-1 37:1 38:0 39:0 40:0 41:-5 42:-2 43:1 44:-4 45:0 46:0 47:0 48:-1 49:1 50:1 51:0 52:5 53:-5 54:0 55:2 56:-6 57:3 58:0 59:0 60:-1 
158.7692290086013 1:1 2:-2 3:0 4:-5 5:5 6:1 7:0 8:6 9:-5 10:0 11:1 12:0 13:1 14:-1 15:0 16:-4 17:2 18:-1 19:0 20:2 21:0 22:0 23:0 24:-1 25:1 26:-1 27:0 28:-2 29:-2 30:-2 31:1 32:-2 33:-2 34:0 35:0 36:-1 37:1 38:0 39:0 40:3 41:-2 42:0 43:2 44:-4 45:1 46:0 47:0 48:-1 49:0 50:0 51:-1 52:4 53:-3 54:0 55:-1 56:-6 57:2 58:0 59:-1 60:-1 
158.6872951432658 1:1 2:-1 3:0 4:-5 5:4 6:-2 7:1 8:5 9:-1 10:0 11:1 12:0 13:1 14:-1 15:0 16:-3 17:0 18:-3 19:2 20:1 21:-3 22:0 23:1 24:0 25:1 26:0 27:0 28:2 29:0 30:-1 31:3 32:-1 33:0 34:0 35:1 36:0 37:0 38:0 39:-1 40:3 41:-1 42:-1 43:0 44:-3 45:1 46:0 47:0 48:0 49:0 50:1 51:0 52:0 53:-4 54:4 55:-2 56:-4 57:2 58:0 59:0 60:0 
122.6703975739081 1:1 2:-2 3:0 4:-2 5:2 6:-4 7:3 8:3 9:-4 10:0 11:1 12:0 13:1 14:-1 15:0 16:3 17:2 18:-2 19:4 20:1 21:-1 22:0 23:1 24:0 25:0 26:-1 27:-1 28:4 29:1 30:-2 31:1 32:-1 33:0 34:0 35:0 36:0 37:0 38:0 39:0 40:1 41:-2 42:3 43:-1 44:-2 45:1 46:0 47:0 48:0 49:0 50:0 51:0 52:-6 53:-6 54:5 55:-3 56:-2 57:1 58:0 59:0 60:0 
12.68368133513266 1:0 2:-2 3:-1 4:7 5:5 6:-6 7:4 8:1 9:1 10:0 11:1 12:0 13:0 14:-1 15:0 16:4 17:2 18:-1 19:2 20:0 21:2 22:0 23:1 24:0 25:0 26:-1 27:0 28:-3 29:-2 30:1 31:0 32:0 33:2 34:0 35:1 36:0 37:0 38:0 39:0 40:-5 41:-4 42:2 43:-1 44:-1 45:-1 46:0 47:0 48:0 49:0 50:0 51:1 52:-5 53:-4 54:3 55:-2 56:-3 57:-4 58:0 59:0 60:0 
158.7692290086013 1:0 2:-1 3:-1 4:6 5:4 6:-3 7:3 8:1 9:2 10:0 11:1 12:0 13:0 14:-1 15:-1 16:-1 17:0 18:-1 19:1 20:1 21:2 22:0 23:1 24:0 25:0 26:0 27:-1 28:-3 29:-2 30:0 31:0 32:0 33:-1 34:0 35:0 36:0 37:0 38:0 39:0 40:-3 41:-2 42:1 43:-1 44:-2 45:-4 46:0 47:0 48:0 49:0 50:0 51:2 52:-3 53:-2 54:2 55:-1 56:-2 57:-2 58:0 59:0 60:0 
156.5507664095909 1:0 2:-1 3:0 4:0 5:-1 6:2 7:-1 8:0 9:1 10:1 11:1 12:0 13:0 14:-1 15:-1 16:0 17:1 18:1 19:0 20:1 21:1 22:0 23:0 24:0 25:0 26:-1 27:0 28:0 29:0 30:2 31:0 32:0 33:1 34:0 35:0 36:0 37:1 38:0 39:0 40:0 41:0 42:-5 43:0 44:1 45:0 46:1 47:0 48:0 49:1 50:0 51:1 52:-2 53:0 54:2 55:3 56:0 57:0 58:1 59:0 60:-1 
68.23276907488801 1:0 2:-1 3:-2 4:1 5:2 6:-1 7:-1 8:1 9:-2 10:0 11:0 12:0 13:0 14:-1 15:-1 16:1 17:1 18:0 19:-1 20:0 21:-2 22:0 23:0 24:0 25:1 26:0 27:-1 28:1 29:1 30:-7 31:-1 32:1 33:-3 34:1 35:0 36:0 37:1 38:0 39:0 40:-1 41:1 42:0 43:2 44:0 45:-3 46:1 47:0 48:-1 49:1 50:0 51:0 52:-4 53:-2 54:12 55:3 56:-2 57:10 58:1 59:0 60:-1 
52.5089744855875 1:0 2:-1 3:-1 4:2 5:2 6:-3 7:-1 8:2 9:-6 10:0 11:0 12:0 13:1 14:0 15:-1 16:2 17:2 18:-10 19:-1 20:3 21:-7 22:1 23:0 24:0 25:1 26:0 27:0 28:0 29:2 30:-3 31:2 32:2 33:-7 34:1 35:0 36:-1 37:1 38:0 39:0 40:-3 41:-1 42:9 43:3 44:0 45:6 46:1 47:0 48:-1 49:1 50:0 51:0 52:-4 53:-2 54:10 55:1 56:-4 57:17 58:1 59:0 60:-1 
158.7692290086013 1:0 2:0 3:0 4:0 5:0 6:1 7:2 8:0 9:0 10:1 11:0 12:0 13:0 14:-1 15:0 16:0 17:0 18:0 19:1 20:0 21:0 22:0 23:0 24:0 25:1 26:-1 27:0 28:-1 29:0 30:-1 31:1 32:0 33:-1 34:-1 35:0 36:0 37:1 38:-1 39:0 40:-1 41:0 42:-1 43:0 44:0 45:-1 46:-1 47:0 48:0 49:1 50:-1 51:0 52:-2 53:0 54:-1 55:0 56:-1 57:0 58:-1 59:0 60:0 
156.4366919354038 1:0 2:0 3:0 4:1 5:0 6:0 7:1 8:0 9:0 10:0 11:0 12:0 13:1 14:0 15:0 16:0 17:0 18:-1 19:1 20:0 21:-1 22:-1 23:0 24:0 25:1 26:0 27:0 28:0 29:0 30:-1 31:0 32:0 33:-1 34:-1 35:0 36:0 37:1 38:0 39:0 40:-1 41:0 42:-1 43:0 44:-1 45:0 46:-1 47:0 48:0 49:1 50:0 51:0 52:-2 53:0 54:-1 55:0 56:-1 57:0 58:-1 59:0 60:0 
158.7692290086013 1:0 2:0 3:0 4:1 5:0 6:0 7:1 8:0 9:-1 10:0 11:0 12:0 13:0 14:0 15:0 16:1 17:0 18:0 19:0 20:0 21:-1 22:0 23:0 24:0 25:0 26:0 27:0 28:0 29:0 30:0 31:0 32:-1 33:0 34:0 35:0 36:0 37:0 38:0 39:0 40:-1 41:0 42:0 43:0 44:-1 45:0 46:0 47:0 48:0 49:0 50:0 51:0 52:-1 53:0 54:0 55:0 56:-1 57:-1 58:0 59:0 60:0 
104.302888509929 1:1 2:0 3:1 4:1 5:-1 6:0 7:0 8:1 9:0 10:0 11:0 12:0 13:1 14:0 15:1 16:0 17:-1 18:0 19:0 20:0 21:1 22:0 23:0 24:0 25:1 26:0 27:1 28:-1 29:-1 30:0 31:0 32:0 33:1 34:0 35:0 36:0 37:1 38:0 39:1 40:-1 41:-1 42:0 43:0 44:0 45:0 46:0 47:0 48:0 49:-3 50:-1 51:0 52:1 53:1 54:-3 55:0 56:-1 57:-3 58:0 59:0 60:0 
158.7692290086013 1:1 2:-1 3:2 4:0 5:-2 6:-5 7:-2 8:-5 9:-6 10:0 11:0 12:0 13:0 14:-1 15:1 16:1 17:-2 18:-4 19:0 20:-4 21:-3 22:1 23:0 24:0 25:-2 26:-1 27:0 28:-1 29:-1 30:-1 31:1 32:-2 33:0 34:1 35:0 36:0 37:-2 38:-1 39:0 40:-2 41:1 42:2 43:2 44:2 45:2 46:1 47:0 48:0 49:2 50:0 51:0 52:-2 53:4 54:5 55:2 56:5 57:4 58:1 59:0 60:0 
98.94598772037388 1:-2 2:-1 3:0 4:1 5:-7 6:-5 7:-1 8:-9 9:-4 10:0 11:0 12:0 13:-2 14:-1 15:0 16:0 17:-5 18:-2 19:0 20:-5 21:-2 22:0 23:0 24:0 25:2 26:0 27:0 28:0 29:-2 30:1 31:0 32:-2 33:0 34:0 35:0 36:0 37:2 38:0 39:-1 40:-2 41:3 42:1 43:0 44:3 45:1 46:0 47:0 48:0 49:2 50:0 51:-1 52:-3 53:8 54:3 55:1 56:10 57:3 58:0 59:0 60:0 
111.1690881751381 1:0 2:0 3:0 4:2 5:6 6:-10 7:2 8:0 9:-1 10:0 11:0 12:0 13:0 14:0 15:-1 16:-1 17:3 18:-1 19:-1 20:1 21:0 22:0 23:0 24:0 25:0 26:0 27:-1 28:-1 29:1 30:2 31:-1 32:1 33:-2 34:0 35:0 36:0 37:1 38:0 39:-1 40:-1 41:-2 42:5 43:-1 44:2 45:0 46:0 47:0 48:0 49:2 50:0 51:0 52:-2 53:-4 54:7 55:2 56:0 57:0 58:0 59:0 60:0 
153.8987894802307 1:0 2:0 3:-1 4:0 5:5 6:-4 7:-1 8:1 9:0 10:0 11:0 12:0 13:0 14:0 15:-1 16:0 17:3 18:-1 19:-1 20:1 21:-2 22:0 23:0 24:0 25:1 26:0 27:-1 28:0 29:0 30:2 31:-1 32:2 33:0 34:0 35:0 36:0 37:2 38:0 39:0 40:-1 41:-2 42:4 43:2 44:0 45:0 46:0 47:0 48:0 49:1 50:0 51:0 52:-3 53:-2 54:2 55:2 56:-2 57:-2 58:0 59:0 60:0 
87.82126222998643 1:0 2:0 3:-1 4:3 5:1 6:0 7:-1 8:3 9:1 10:0 11:0 12:0 13:1 14:0 15:0 16:2 17:-1 18:2 19:2 20:1 21:1 22:0 23:0 24:0 25:0 26:0 27:0 28:0 29:-1 30:0 31:2 32:-1 33:-1 34:0 35:0 36:0 37:0 38:0 39:0 40:-2 41:1 42:0 43:1 44:-1 45:-1 46:0 47:0 48:1 49:0 50:-1 51:1 52:-3 53:2 54:-2 55:0 56:-1 57:0 58:0 59:0 60:0 
158.7692290086013 1:1 2:0 3:-1 4:3 5:-2 6:4 7:2 8:2 9:1 10:1 11:0 12:0 13:0 14:0 15:-1 16:1 17:-2 18:2 19:2 20:0 21:-1 22:1 23:0 24:0 25:0 26:0 27:-1 28:-1 29:0 30:2 31:1 32:0 33:-1 34:1 35:0 36:1 37:0 38:-1 39:0 40:-2 41:1 42:0 43:0 44:0 45:0 46:1 47:0 48:0 49:0 50:-1 51:0 52:-2 53:3 54:-7 55:-1 56:-1 57:-1 58:0 59:0 60:0 
45.72083280103689 1:-1 2:0 3:-1 4:-5 5:0 6:11 7:0 8:-1 9:0 10:0 11:0 12:0 13:0 14:0 15:-1 16:-3 17:1 18:5 19:0 20:-1 21:-3 22:0 23:0 24:0 25:0 26:0 27:0 28:-1 29:2 30:0 31:0 32:-1 33:-1 34:0 35:0 36:0 37:1 38:0 39:0 40:1 41:2 42:-4 43:1 44:-1 45:-1 46:0 47:0 48:0 49:2 50:0 51:0 52:4 53:-1 54:-12 55:0 56:4 57:1 58:0 59:0 60:0 
157.2671005406557 1:-2 2:-1 3:-1 4:-9 5:8 6:15 7:5 8:-4 9:1 10:0 11:0 12:0 13:-1 14:-1 15:-1 16:-6 17:5 18:7 19:4 20:1 21:3 22:0 23:0 24:0 25:1 26:0 27:-1 28:1 29:0 30:-3 31:-3 32:4 33:2 34:0 35:0 36:-1 37:2 38:1 39:0 40:4 41:-4 42:-8 43:-3 44:2 45:-1 46:0 47:0 48:-1 49:3 50:1 51:-1 52:7 53:-6 54:-12 55:-1 56:1 57:-6 58:-1 59:0 60:-1 
77.10536440486474 1:-1 2:-1 3:-1 4:-7 5:3 6:-1 7:-3 8:7 9:0 10:0 11:0 12:0 13:0 14:-1 15:0 16:-4 17:1 18:-2 19:4 20:2 21:1 22:0 23:0 24:0 25:-1 26:-1 27:-1 28:-3 29:0 30:-2 31:2 32:-1 33:0 34:0 35:0 36:0 37:1 38:0 39:-1 40:3 41:0 42:0 43:1 44:0 45:1 46:0 47:0 48:0 49:3 50:1 51:0 52:8 53:0 54:3 55:-1 56:-4 57:-3 58:-1 59:0 60:-1 
157.884103943111 1:-4 2:-2 3:-1 4:-7 5:-1 6:-6 7:6 8:2 9:7 10:1 11:0 12:0 13:-2 14:-1 15:-1 16:-1 17:-1 18:-4 19:5 20:3 21:8 22:1 23:0 24:0 25:0 26:0 27:0 28:4 29:-1 30:-1 31:3 32:-1 33:4 34:0 35:0 36:-1 37:2 38:0 39:-1 40:3 41:2 42:3 43:-3 44:-1 45:-8 46:-1 47:0 48:0 49:4 50:1 51:-1 52:2 53:4 54:7 55:-9 56:-2 57:-13 58:-2 59:0 60:0 
22.28888665529232 1:-4 2:-2 3:-1 4:-3 5:-2 6:-7 7:8 8:4 9:12 10:2 11:0 12:0 13:-2 14:-1 15:0 16:2 17:-2 18:-4 19:6 20:0 21:8 22:1 23:0 24:-1 25:0 26:-1 27:-1 28:1 29:1 30:0 31:0 32:0 33:-4 34:0 35:0 36:0 37:2 38:0 39:-1 40:0 41:3 42:4 43:-6 44:-1 45:-9 46:-1 47:0 48:0 49:4 50:2 51:-1 52:0 53:3 54:6 55:-7 56:-1 57:-8 58:-2 59:0 60:0 
144.8956190236452 1:-1 2:-2 3:0 4:-2 5:-4 6:1 7:-3 8:-3 9:-1 10:0 11:0 12:-1 13:0 14:-1 15:0 16:-1 17:-2 18:2 19:-2 20:-1 21:0 22:0 23:0 24:-1 25:1 26:1 27:0 28:0 29:3 30:0 31:0 32:2 33:1 34:-1 35:0 36:-1 37:1 38:0 39:0 40:2 41:4 42:-1 43:3 44:3 45:0 46:-1 47:0 48:0 49:1 50:0 51:0 52:4 53:3 54:-4 55:5 56:1 57:-1 58:-1 59:0 60:0 
158.7692290086013 1:0 2:0 3:0 4:0 5:0 6:0 7:0 8:0 9:0 10:0 11:0 12:0 13:0 14:0 15:0 16:0 17:0 18:0 19:0 20:0 21:0 22:0 23:0 24:0 25:0 26:0 27:0 28:0 29:0 30:0 31:0 32:0 33:0 34:0 35:0 36:0 37:0 38:0 39:0 40:0 41:0 42:0 43:0 44:0 45:0 46:0 47:0 48:0 49:0 50:0 51:0 52:0 53:0 54:0 55:0 56:0 57:0 58:0 59:0 60:0 
158.7692290086013 1:0 2:0 3:0 4:0 5:0 6:0 7:0 8:0 9:0 10:0 11:0 12:0 13:0 14:0 15:0 16:0 17:0 18:0 19:0 20:0 21:0 22:0 23:0 24:0 25:0 26:0 27:0 28:0 29:0 30:0 31:0 32:0 33:0 34:0 35:0 36:0 37:0 38:0 39:0 40:0 41:0 42:0 43:0 44:0 45:0 46:0 47:0 48:0 49:0 50:0 51:0 52:0 53:0 54:0 55:0 56:0 57:0 58:0 59:0 60:0 
158.7692290086013 1:0 2:0 3:0 4:0 5:0 6:0 7:0 8:0 9:0 10:0 11:0 12:0 13:0 14:0 15:0 16:0 17:0 18:0 19:0 20:0 21:0 22:0 23:0 24:0 25:0 26:0 27:0 28:0 29:0 30:0 31:0 32:0 33:0 34:0 35:0 36:0 37:0 38:0 39:0 40:0 41:0 42:0 43:0 44:0 45:0 46:0 47:0 48:0 49:0 50:0 51:0 52:0 53:0 54:0 55:0 56:0 57:0 58:0 59:0 60:0 
158.7692290086013 1:0 2:0 3:0 4:0 5:0 6:0 7:0 8:0 9:0 10:0 11:0 12:0 13:0 14:0 15:0 16:0 17:0 18:0 19:0 20:0 21:0 22:0 23:0 24:0 25:0 26:0 27:0 28:0 29:0 30:0 31:0 32:0 33:0 34:0 35:0 36:0 37:0 38:0 39:0 40:0 41:0 42:0 43:0 44:0 45:0 46:0 47:0 48:0 49:0 50:0 51:0 52:0 53:0 54:0 55:0 56:0 57:0 58:0 59:0 60:0 
18.04323718161787 1:0 2:0 3:0 4:0 5:0 6:0 7:0 8:0 9:0 10:0 11:0 12:0 13:0 14:0 15:0 16:0 17:0 18:0 19:0 20:0 21:0 22:0 23:0 24:0 25:0 26:0 27:0 28:0 29:0 30:0 31:0 32:0 33:0 34:0 35:0 36:0 37:0 38:0 39:0 40:0 41:0 42:0 43:0 44:0 45:0 46:0 47:0 48:0 49:0 50:0 51:0 52:0 53:0 54:0 55:0 56:0 57:0 58:0 59:0 60:0 
13.15132786453498 1:0 2:0 3:0 4:0 5:0 6:0 7:0 8:0 9:0 10:0 11:0 12:0 13:0 14:0 15:0 16:0 17:0 18:0 19:0 20:0 21:0 22:0 23:0 24:0 25:0 26:0 27:0 28:0 29:0 30:0 31:0 32:0 33:0 34:0 35:0 36:0 37:0 38:0 39:0 40:0 41:0 42:0 43:0 44:0 45:0 46:0 47:0 48:0 49:0 50:0 51:0 52:0 53:0 54:0 55:0 56:0 57:0 58:0 59:0 60:0 
158.7692290086013 1:0 2:0 3:0 4:0 5:0 6:0 7:0 8:0 9:0 10:0 11:0 12:0 13:0 14:0 15:0 16:0 17:0 18:0 19:0 20:0 21:0 22:0 23:0 24:0 25:0 26:0 27:0 28:0 29:0 30:0 31:0 32:0 33:0 34:0 35:0 36:0 37:0 38:0 39:0 40:0 41:0 42:0 43:0 44:0 45:0 46:0 47:0 48:0 49:0 50:0 51:0 52:0 53:0 54:0 55:0 56:0 57:0 58:0 59:0 60:0 
158.7692290086013 1:0 2:0 3:0 4:0 5:0 6:0 7:0 8:0 9:0 10:0 11:0 12:0 13:0 14:0 15:0 16:0 17:0 18:0 19:0 20:0 21:0 22:0 23:0 24:0 25:0 26:0 27:0 28:0 29:0 30:0 31:0 32:0 33:0 34:0 35:0 36:0 37:0 38:0 39:0 40:0 41:0 42:0 43:0 44:0 45:0 46:0 47:0 48:0 49:0 50:0 51:0 52:0 53:0 54:0 55:0 56:0 57:0 58:0 59:0 60:0 
158.7692290086013 1:0 2:0 3:0 4:0 5:0 6:0 7:0 8:0 9:0 10:0 11:0 12:0 13:0 14:0 15:0 16:0 17:0 18:0 19:0 20:0 21:0 22:0 23:0 24:0 25:0 26:0 27:0 28:0 29:0 30:0 31:0 32:0 33:0 34:0 35:0 36:0 37:0 38:0 39:0 40:0 41:0 42:0 43:0 44:0 45:0 46:0 47:0 48:0 49:0 50:0 51:0 52:0 53:0 54:0 55:0 56:0 57:0 58:0 59:0 60:0 
158.7692290086013 1:0 2:0 3:0 4:0 5:0 6:0 7:0 8:0 9:0 10:0 11:0 12:0 13:0 14:0 15:0 16:0 17:0 18:0 19:0 20:0 21:0 22:0 23:0 24:0 25:0 26:0 27:0 28:0 29:0 30:0 31:0 32:0 33:0 34:0 35:0 36:0 37:0 38:0 39:0 40:0 41:0 42:0 43:0 44:0 45:0 46:0 47:0 48:0 49:0 50:0 51:0 52:0 53:0 54:0 55:0 56:0 57:0 58:0 59:0 60:0 
158.7692290086013 1:0 2:0 3:0 4:0 5:0 6:0 7:0 8:0 9:0 10:0 11:0 12:0 13:0 14:0 15:0 16:0 17:0 18:0 19:0 20:0 21:0 22:0 23:0 24:0 25:0 26:0 27:0 28:0 29:0 30:0 31:0 32:0 33:0 34:0 35:0 36:0 37:0 38:0 39:0 40:0 41:0 42:0 43:0 44:0 45:0 46:0 47:0 48:0 49:0 50:0 51:0 52:0 53:0 54:0 55:0 56:0 57:0 58:0 59:0 60:0 
158.7692290086013 1:0 2:0 3:0 4:0 5:0 6:0 7:0 8:0 9:0 10:0 11:0 12:0 13:0 14:0 15:0 16:0 17:0 18:0 19:0 20:0 21:0 22:0 23:0 24:0 25:0 26:0 27:0 28:0 29:0 30:0 31:0 32:0 33:0 34:0 35:0 36:0 37:0 38:0 39:0 40:0 41:0 42:0 43:0 44:0 45:0 46:0 47:0 48:0 49:0 50:0 51:0 52:0 53:0 54:0 55:0 56:0 57:0 58:0 59:0 60:0 
158.7692290086013 1:0 2:0 3:0 4:0 5:0 6:0 7:0 8:0 9:0 10:0 11:0 12:0 13:0 14:0 15:0 16:0 17:0 18:0 19:0 20:0 21:0 22:0 23:0 24:0 25:0 26:0 27:0 28:0 29:0 30:0 31:0 32:0 33:0 34:0 35:0 36:0 37:0 38:0 39:0 40:0 41:0 42:0 43:0 44:0 45:0 46:0 47:0 48:0 49:0 50:0 51:0 52:0 53:0 54:0 55:0 56:0 57:0 58:0 59:0 60:0 
158.7692290086013 1:0 2:0 3:0 4:0 5:0 6:0 7:0 8:0 9:0 10:0 11:0 12:0 13:0 14:0 15:0 16:0 17:0 18:0 19:0 20:0 21:0 22:0 23:0 24:0 25:0 26:0 27:0 28:0 29:0 30:0 31:0 32:0 33:0 34:0 35:0 36:0 37:0 38:0 39:0 40:0 41:0 42:0 43:0 44:0 45:0 46:0 47:0 48:0 49:0 50:0 51:0 52:0 53:0 54:0 55:0 56:0 57:0 58:0 59:0 60:0 
158.7692290086013 1:0 2:0 3:0 4:0 5:0 6:0 7:0 8:0 9:0 10:0 11:0 12:0 13:0 14:0 15:0 16:0 17:0 18:0 19:0 20:0 21:0 22:0 23:0 24:0 25:0 26:0 27:0 28:0 29:0 30:0 31:0 32:0 33:0 34:0 35:0 36:0 37:0 38:0 39:0 40:0 41:0 42:0 43:0 44:0 45:0 46:0 47:0 48:0 49:0 50:0 51:0 52:0 53:0 54:0 55:0 56:0 57:0 58:0 59:0 60:0 
158.7692290086013 1:0 2:0 3:0 4:0 5:0 6:0 7:0 8:0 9:0 10:0 11:0 12:0 13:0 14:0 15:0 16:0 17:0 18:0 19:0 20:0 21:0 22:0 23:0 24:0 25:0 26:0 27:0 28:0 29:0 30:0 31:0 32:0 33:0 34:0 35:0 36:0 37:0 38:0 39:0 40:0 41:0 42:0 43:0 44:0 45:0 46:0 47:0 48:0 49:0 50:0 51:0 52:0 53:0 54:0 55:0 56:0 57:0 58:0 59:0 60:0 
158.7692290086013 1:0 2:0 3:0 4:0 5:0 6:0 7:0 8:0 9:0 10:0 11:0 12:0 13:0 14:0 15:0 16:0 17:0 18:0 19:0 20:0 21:0 22:0 23:0 24:0 25:0 26:0 27:0 28:0 29:0 30:0 31:0 32:0 33:0 34:0 35:0 36:0 37:0 38:0 39:0 40:0 41:0 42:0 43:0 44:0 45:0 46:0 47:0 48:0 49:0 50:0 51:0 52:0 53:0 54:0 55:0 56:0 57:0 58:0 59:0 60:0 
-4.6714314048772 1:0 2:0 3:0 4:2 5:0 6:1 7:-1 8:3 9:-5 10:0 11:0 12:-1 13:0 14:0 15:0 16:1 17:-1 18:2 19:-3 20:-1 21:6 22:0 23:0 24:-1 25:0 26:0 27:0 28:1 29:0 30:1 31:-1 32:-1 33:4 34:0 35:0 36:-1 37:0 38:0 39:-1 40:-1 41:0 42:-1 43:1 44:-1 45:1 46:0 47:0 48:0 49:0 50:0 51:-2 52:-3 53:2 54:-3 55:6 56:0 57:-4 58:0 59:0 60:0 
-30.44908137796347 1:0 2:-1 3:1 4:3 5:-1 6:5 7:-4 8:-1 9:7 10:0 11:1 12:-1 13:0 14:-1 15:0 16:1 17:-1 18:3 19:-2 20:-1 21:4 22:0 23:1 24:0 25:0 26:-1 27:-1 28:-1 29:1 30:1 31:3 32:0 33:-1 34:0 35:1 36:0 37:0 38:0 39:-1 40:-1 41:2 42:-1 43:3 44:2 45:-3 46:0 47:1 48:1 49:0 50:0 51:-1 52:-3 53:1 54:-4 55:4 56:2 57:-6 58:0 59:0 60:1 
-53.83653427071595 1:0 2:-1 3:-1 4:2 5:1 6:5 7:-1 8:-1 9:6 10:1 11:1 12:0 13:0 14:0 15:-1 16:2 17:2 18:3 19:-1 20:1 21:4 22:1 23:1 24:1 25:0 26:0 27:-1 28:0 29:1 30:0 31:0 32:1 33:1 34:1 35:0 36:1 37:0 38:0 39:-1 40:-3 41:-1 42:-3 43:2 44:1 45:-3 46:0 47:0 48:0 49:0 50:0 51:0 52:-5 53:-2 54:-5 55:3 56:2 57:-7 58:0 59:0 60:0 
-123.7318708338553 1:0 2:0 3:-1 4:4 5:3 6:7 7:-2 8:0 9:9 10:1 11:0 12:1 13:0 14:0 15:-1 16:1 17:1 18:4 19:0 20:0 21:5 22:0 23:0 24:0 25:0 26:0 27:0 28:-1 29:0 30:2 31:1 32:1 33:1 34:0 35:0 36:0 37:0 38:0 39:0 40:-2 41:0 42:-3 43:0 44:1 45:-3 46:0 47:0 48:0 49:0 50:0 51:0 52:-3 53:0 54:-6 55:1 56:1 57:-8 58:0 59:0 60:0 
-66.62656631463024 1:0 2:-1 3:0 4:1 5:1 6:6 7:2 8:1 9:8 10:0 11:0 12:0 13:0 14:-1 15:0 16:0 17:1 18:3 19:2 20:1 21:3 22:0 23:0 24:0 25:0 26:-1 27:0 28:0 29:0 30:0 31:1 32:1 33:0 34:0 35:0 36:0 37:1 38:-1 39:0 40:0 41:0 42:-3 43:0 44:-1 45:-4 46:1 47:1 48:-1 49:2 50:0 51:0 52:-2 53:0 54:-6 55:-2 56:-2 57:-7 58:1 59:1 60:-1 
-189.2307681303758 1:-2 2:-2 3:0 4:1 5:1 6:7 7:3 8:3 9:6 10:-1 11:0 12:1 13:-1 14:-2 15:0 16:1 17:1 18:4 19:2 20:1 21:2 22:0 23:1 24:0 25:0 26:-1 27:0 28:-1 29:1 30:1 31:0 32:0 33:-1 34:0 35:1 36:0 37:2 38:1 39:0 40:-1 41:0 42:-4 43:-2 44:-1 45:-4 46:1 47:1 48:-1 49:2 50:1 51:0 52:0 53:0 54:-8 55:-2 56:-3 57:-7 58:1 59:1 60:-1 
-42.83158590922701 1:-2 2:-2 3:0 4:0 5:2 6:8 7:4 8:3 9:6 10:0 11:0 12:0 13:-1 14:-1 15:0 16:-2 17:2 18:5 19:2 20:2 21:3 22:0 23:0 24:0 25:1 26:1 27:0 28:-2 29:1 30:0 31:0 32:1 33:0 34:1 35:0 36:-1 37:1 38:1 39:0 40:-1 41:1 42:-4 43:0 44:-1 45:-3 46:1 47:0 48:-1 49:1 50:1 51:0 52:1 53:-2 54:-11 55:-2 56:-4 57:-9 58:1 59:0 60:-1 
-6.559648236201271 1:1 2:0 3:0 4:-4 5:5 6:10 7:3 8:6 9:8 10:1 11:0 12:0 13:1 14:0 15:0 16:-3 17:5 18:6 19:3 20:4 21:5 22:1 23:0 24:0 25:1 26:0 27:0 28:-1 29:2 30:-1 31:1 32:1 33:-1 34:1 35:0 36:0 37:0 38:-1 39:0 40:2 41:-3 42:-6 43:-3 44:-3 45:-6 46:1 47:0 48:0 49:-1 50:-2 51:0 52:4 53:-6 54:-9 55:-4 56:-6 57:-9 58:0 59:0 60:0 
-12.49427112091759 1:2 2:2 3:0 4:-5 5:8 6:7 7:5 8:7 9:7 10:1 11:0 12:0 13:1 14:1 15:0 16:-2 17:3 18:2 19:1 20:3 21:2 22:1 23:0 24:0 25:0 26:0 27:0 28:0 29:0 30:-1 31:0 32:0 33:-1 34:0 35:0 36:0 37:-1 38:-1 39:0 40:2 41:-3 42:-3 43:-1 44:-3 45:-3 46:0 47:0 48:0 49:-2 50:-2 51:0 52:5 53:-8 54:-6 55:-2 56:-6 57:-5 58:0 59:0 60:0 
-189.2307681303758 1:2 2:1 3:0 4:-5 5:8 6:5 7:2 8:7 9:4 10:1 11:0 12:0 13:1 14:0 15:0 16:-3 17:5 18:2 19:1 20:4 21:1 22:0 23:0 24:0 25:0 26:-1 27:0 28:-1 29:2 30:0 31:0 32:1 33:-1 34:0 35:0 36:0 37:-1 38:-2 39:0 40:2 41:-3 42:-3 43:-1 44:-2 45:-3 46:0 47:0 48:0 49:-1 50:-2 51:0 52:3 53:-8 54:-5 55:-2 56:-6 57:-4 58:0 59:0 60:0 
-66.41009287415555 1:2 2:1 3:-1 4:-5 5:9 6:4 7:3 8:8 9:3 10:0 11:0 12:0 13:1 14:0 15:-1 16:-3 17:6 18:2 19:2 20:5 21:1 22:0 23:0 24:0 25:0 26:-1 27:-1 28:0 29:1 30:-1 31:1 32:2 33:-1 34:0 35:0 36:0 37:0 38:-1 39:-1 40:1 41:-4 42:-3 43:0 44:-2 45:-2 46:0 47:0 48:0 49:0 50:-1 51:0 52:4 53:-10 54:-5 55:-5 56:-11 57:-5 58:0 59:1 60:0 
-35.40248378593842 1:-1 2:0 3:1 4:-1 5:-1 6:-5 7:-4 8:0 9:-7 10:0 11:0 12:0 13:0 14:0 15:0 16:-1 17:-1 18:-3 19:-3 20:0 21:-5 22:0 23:0 24:-1 25:0 26:0 27:-1 28:0 29:0 30:-1 31:1 32:0 33:-1 34:0 35:0 36:-1 37:0 38:0 39:0 40:0 41:0 42:3 43:4 44:0 45:3 46:0 47:0 48:-1 49:1 50:0 51:0 52:0 53:1 54:5 55:4 56:0 57:6 58:0 59:0 60:-1 
-82.26270221468226 1:0 2:0 3:0 4:-1 5:-1 6:-6 7:-5 8:0 9:-8 10:0 11:0 12:0 13:0 14:0 15:-1 16:0 17:0 18:-4 19:-1 20:0 21:-4 22:0 23:0 24:0 25:0 26:0 27:0 28:0 29:0 30:0 31:2 32:0 33:0 34:0 35:0 36:0 37:1 38:0 39:0 40:0 41:1 42:2 43:2 44:0 45:3 46:0 47:0 48:0 49:1 50:0 51:1 52:0 53:-1 54:4 55:4 56:-3 57:9 58:0 59:0 60:0 
-0.1672440023845688 1:-1 2:-1 3:0 4:3 5:1 6:-7 7:-2 8:2 9:-9 10:0 11:0 12:0 13:0 14:-1 15:0 16:3 17:2 18:-5 19:-2 20:2 21:-6 22:0 23:0 24:0 25:0 26:-1 27:1 28:3 29:0 30:-3 31:0 32:-1 33:0 34:0 35:0 36:0 37:1 38:0 39:0 40:-2 41:-2 42:3 43:3 44:-2 45:5 46:0 47:0 48:0 49:1 50:0 51:-3 52:-8 53:-5 54:8 55:3 56:-2 57:7 58:0 59:0 60:0 
-30.75617549201565 1:-1 2:-1 3:2 4:7 5:3 6:-8 7:-3 8:0 9:-7 10:0 11:0 12:-1 13:0 14:0 15:1 16:2 17:1 18:-2 19:0 20:-1 21:-2 22:0 23:0 24:-1 25:0 26:0 27:-2 28:-4 29:-2 30:3 31:0 32:-1 33:0 34:0 35:0 36:-1 37:0 38:0 39:-2 40:-4 41:-2 42:4 43:2 44:-1 45:3 46:0 47:0 48:-1 49:2 50:0 51:0 52:-3 53:-1 54:5 55:4 56:-1 57:6 58:0 59:0 60:0 
-81.92319256069663 1:0 2:0 3:-2 4:1 5:-1 6:-2 7:-5 8:0 9:-6 10:0 11:0 12:-1 13:0 14:0 15:-2 16:1 17:-1 18:-1 19:-3 20:0 21:-3 22:0 23:0 24:-1 25:2 26:0 27:0 28:2 29:0 30:0 31:-1 32:0 33:0 34:0 35:0 36:0 37:1 38:0 39:1 40:0 41:1 42:1 43:3 44:-1 45:3 46:0 47:0 48:1 49:1 50:0 51:1 52:-4 53:1 54:4 55:8 56:-1 57:7 58:0 59:0 60:1 
-65.54392390327806 1:0 2:0 3:0 4:7 5:-2 6:-2 7:-5 8:-3 9:-1 10:1 11:0 12:0 13:0 14:-1 15:0 16:3 17:-3 18:0 19:-3 20:-2 21:0 22:1 23:0 24:0 25:0 26:-1 27:0 28:-1 29:-1 30:1 31:1 32:0 33:1 34:0 35:0 36:0 37:0 38:-1 39:0 40:-5 41:1 42:1 43:3 44:2 45:1 46:0 47:0 48:0 49:0 50:-1 51:0 52:-8 53:3 54:0 55:5 56:3 57:0 58:0 59:0 60:0 
-189.2307681303758 1:0 2:0 3:0 4:-2 5:-5 6:6 7:0 8:-4 9:5 10:0 11:0 12:0 13:0 14:0 15:0 16:-1 17:-3 18:3 19:0 20:-2 21:2 22:0 23:0 24:0 25:0 26:0 27:0 28:0 29:-1 30:0 31:0 32:-1 33:0 34:0 35:0 36:0 37:0 38:0 39:0 40:1 41:1 42:-3 43:0 44:1 45:-3 46:0 47:0 48:0 49:0 50:0 51:0 52:2 53:4 54:-6 55:0 56:3 57:-6 58:0 59:0 60:0 
-165.4529907242479 1:0 2:0 3:0 4:-3 5:-4 6:6 7:0 8:-3 9:6 10:0 11:0 12:0 13:0 14:0 15:0 16:-2 17:-2 18:3 19:0 20:-1 21:3 22:0 23:0 24:0 25:0 26:0 27:0 28:-1 29:1 30:0 31:0 32:1 33:0 34:0 35:0 36:0 37:0 38:0 39:0 40:1 41:2 42:-3 43:1 44:1 45:-4 46:0 47:0 48:0 49:0 50:0 51:0 52:2 53:3 54:-6 55:1 56:2 57:-7 58:0 59:0 60:0 
-189.2307681303758 1:0 2:-1 3:0 4:-5 5:-2 6:3 7:5 8:-2 9:4 10:0 11:0 12:0 13:0 14:-1 15:0 16:-2 17:-1 18:1 19:3 20:0 21:2 22:0 23:0 24:0 25:0 26:0 27:0 28:0 29:0 30:-1 31:2 32:0 33:0 34:0 35:0 36:0 37:0 38:0 39:0 40:2 41:1 42:-2 43:-1 44:1 45:-3 46:0 47:0 48:0 49:0 50:0 51:0 52:4 53:1 54:-3 55:-5 56:1 57:-7 58:0 59:0 60:0 
-66.13393303172845 1:0 2:0 3:0 4:-5 5:1 6:2 7:6 8:1 9:2 10:0 11:0 12:0 13:0 14:0 15:0 16:-3 17:1 18:1 19:3 20:0 21:0 22:0 23:0 24:0 25:0 26:0 27:0 28:0 29:-1 30:0 31:0 32:0 33:-1 34:0 35:0 36:0 37:0 38:0 39:0 40:2 41:-1 42:0 43:-3 44:-1 45:-2 46:0 47:0 48:0 49:0 50:0 51:0 52:4 53:-2 54:-5 55:-6 56:-2 57:-1 58:0 59:0 60:0 
-66.77492246500238 1:0 2:0 3:0 4:-5 5:2 6:2 7:6 8:1 9:1 10:0 11:0 12:0 13:0 14:0 15:0 16:-2 17:0 18:1 19:3 20:1 21:0 22:0 23:0 24:0 25:0 26:0 27:0 28:0 29:0 30:1 31:0 32:0 33:-1 34:0 35:0 36:0 37:0 38:0 39:0 40:2 41:-1 42:-4 43:-3 44:-1 45:0 46:0 47:0 48:0 49:0 50:0 51:0 52:4 53:-2 54:-4 55:-5 56:-2 57:0 58:0 59:0 60:0 
-189.2307681303758 1:0 2:0 3:0 4:-4 5:2 6:4 7:5 8:1 9:-1 10:0 11:0 12:0 13:0 14:0 15:0 16:-2 17:1 18:-1 19:2 20:0 21:0 22:0 23:0 24:0 25:0 26:0 27:0 28:0 29:0 30:-1 31:0 32:-1 33:0 34:0 35:0 36:0 37:0 38:0 39:0 40:2 41:-1 42:-1 43:-2 44:-1 45:-1 46:0 47:0 48:0 49:0 50:0 51:0 52:3 53:-3 54:-1 55:-4 56:-2 57:-1 58:0 59:0 60:0 
-0.7985164951258017 1:1 2:0 3:0 4:-4 5:2 6:0 7:4 8:1 9:0 10:0 11:0 12:-1 13:1 14:0 15:0 16:-2 17:1 18:0 19:2 20:0 21:0 22:0 23:0 24:-1 25:1 26:0 27:0 28:0 29:0 30:0 31:0 32:0 33:-1 34:0 35:0 36:-1 37:1 38:0 39:0 40:1 41:-2 42:0 43:-2 44:-1 45:-1 46:0 47:0 48:-1 49:0 50:0 51:-2 52:3 53:-3 54:-2 55:-4 56:-4 57:2 58:0 59:0 60:0 
-32.1470342827775 1:1 2:0 3:0 4:-4 5:2 6:0 7:4 8:2 9:-1 10:0 11:0 12:-1 13:1 14:0 15:0 16:-2 17:1 18:0 19:2 20:2 21:-2 22:0 23:0 24:-1 25:1 26:0 27:0 28:-1 29:-1 30:0 31:0 32:1 33:-2 34:0 35:0 36:-1 37:0 38:0 39:-2 40:1 41:-2 42:-2 43:-2 44:-2 45:1 46:0 47:0 48:0 49:0 50:-1 51:-2 52:2 53:-2 54:-2 55:-4 56:-3 57:2 58:0 59:0 60:0 
-189.2307681303758 1:1 2:0 3:1 4:-3 5:2 6:1 7:4 8:3 9:-3 10:0 11:0 12:-1 13:1 14:0 15:1 16:-2 17:0 18:1 19:2 20:2 21:-3 22:0 23:0 24:-1 25:0 26:0 27:-1 28:0 29:-1 30:-1 31:0 32:-1 33:0 34:0 35:0 36:0 37:0 38:-1 39:-1 40:1 41:-1 42:-1 43:-2 44:-2 45:1 46:0 47:0 48:0 49:-1 50:-1 51:0 52:2 53:-4 54:-1 55:-3 56:-3 57:2 58:0 59:0 60:-1 
-5.874761053756137 1:1 2:0 3:-2 4:-3 5:3 6:0 7:2 8:2 9:-1 10:0 11:0 12:0 13:1 14:-1 15:-2 16:-2 17:3 18:0 19:0 20:1 21:0 22:0 23:0 24:0 25:0 26:-1 27:-1 28:-1 29:0 30:0 31:-1 32:0 33:1 34:0 35:0 36:-1 37:0 38:-1 39:0 40:0 41:-3 42:-1 43:1 44:-2 45:-2 46:0 47:0 48:-1 49:0 50:-1 51:2 52:2 53:-4 54:-1 55:2 56:-4 57:-1 58:0 59:0 60:-1 
-156.3740707501048 1:1 2:0 3:-3 4:-3 5:4 6:0 7:0 8:3 9:0 10:0 11:0 12:0 13:0 14:0 15:-2 16:-2 17:1 18:0 19:-1 20:2 21:1 22:0 23:0 24:-1 25:0 26:0 27:-1 28:-1 29:-2 30:-1 31:1 32:0 33:-2 34:0 35:0 36:-1 37:0 38:0 39:1 40:1 41:-3 42:-1 43:2 44:-2 45:-1 46:0 47:0 48:-1 49:3 50:0 51:3 52:2 53:-4 54:-1 55:2 56:-3 57:-1 58:0 59:0 60:-1 
-41.02249188846947 1:-1 2:-1 3:0 4:-4 5:0 6:-2 7:4 8:-1 9:1 10:1 11:0 12:-1 13:-1 14:-1 15:1 16:-3 17:0 18:-1 19:1 20:-1 21:0 22:1 23:0 24:0 25:0 26:0 27:0 28:1 29:0 30:1 31:-1 32:-1 33:-1 34:1 35:0 36:0 37:1 38:0 39:0 40:3 41:0 42:1 43:-2 44:0 45:-1 46:1 47:0 48:0 49:1 50:0 51:0 52:3 53:0 54:1 55:-2 56:-1 57:-1 58:0 59:0 60:0 
-149.3348757306329 1:-1 2:0 3:0 4:-1 5:0 6:-3 7:1 8:0 9:1 10:1 11:0 12:0 13:0 14:0 15:0 16:1 17:0 18:-3 19:0 20:1 21:1 22:1 23:0 24:0 25:0 26:0 27:0 28:1 29:0 30:-3 31:0 32:0 33:1 34:0 35:0 36:0 37:1 38:0 39:0 40:-1 41:0 42:1 43:0 44:-1 45:-1 46:0 47:0 48:0 49:1 50:0 51:0 52:0 53:-3 54:4 55:0 56:-1 57:-2 58:0 59:0 60:0 
-69.79339349295377 1:0 2:0 3:0 4:0 5:1 6:-4 7:1 8:1 9:1 10:1 11:0 12:0 13:0 14:0 15:0 16:0 17:1 18:-4 19:1 20:0 21:1 22:0 23:0 24:0 25:1 26:0 27:0 28:-2 29:1 30:0 31:1 32:-1 33:-1 34:0 35:0 36:0 37:1 38:0 39:0 40:-1 41:-2 42:3 43:1 44:-1 45:-2 46:0 47:0 48:0 49:1 50:-1 51:0 52:-1 53:-2 54:2 55:0 56:-1 57:-2 58:-1 59:0 60:0 
-179.8608893500953 1:0 2:0 3:0 4:2 5:0 6:1 7:-1 8:3 9:-5 10:0 11:0 12:-1 13:0 14:0 15:0 16:1 17:-1 18:2 19:-3 20:-1 21:6 22:0 23:0 24:-1 25:0 26:0 27:0 28:1 29:0 30:1 31:-1 32:-1 33:4 34:0 35:0 36:-1 37:0 38:0 39:-1 40:-1 41:0 42:-1 43:1 44:-1 45:1 46:0 47:0 48:0 49:0 50:0 51:-2 52:-3 53:2 54:-3 55:6 56:0 57:-4 58:0 59:0 60:0 
-183.3826252232489 1:0 2:-1 3:1 4:3 5:-1 6:5 7:-4 8:-1 9:7 10:0 11:1 12:-1 13:0 14:-1 15:0 16:1 17:-1 18:3 19:-2 20:-1 21:4 22:0 23:1 24:0 25:0 26:-1 27:-1 28:-1 29:1 30:1 31:3 32:0 33:-1 34:0 35:1 36:0 37:0 38:0 39:-1 40:-1 41:2 42:-1 43:3 44:2 45:-3 46:0 47:1 48:1 49:0 50:0 51:-1 52:-3 53:1 54:-4 55:4 56:2 57:-6 58:0 59:0 60:1 
-11.76080948968112 1:0 2:-1 3:-1 4:2 5:1 6:5 7:-1 8:-1 9:6 10:1 11:1 12:0 13:0 14:0 15:-1 16:2 17:2 18:3 19:-1 20:1 21:4 22:1 23:1 24:1 25:0 26:0 27:-1 28:0 29:1 30:0 31:0 32:1 33:1 34:1 35:0 36:1 37:0 38:0 39:-1 40:-3 41:-1 42:-3 43:2 44:1 45:-3 46:0 47:0 48:0 49:0 50:0 51:0 52:-5 53:-2 54:-5 55:3 56:2 57:-7 58:0 59:0 60:0 
-189.2307681303758 1:0 2:0 3:-1 4:4 5:3 6:7 7:-2 8:0 9:9 10:1 11:0 12:1 13:0 14:0 15:-1 16:1 17:1 18:4 19:0 20:0 21:5 22:0 23:0 24:0 25:0 26:0 27:0 28:-1 29:0 30:2 31:1 32:1 33:1 34:0 35:0 36:0 37:0 38:0 39:0 40:-2 41:0 42:-3 43:0 44:1 45:-3 46:0 47:0 48:0 49:0 50:0 51:0 52:-3 53:0 54:-6 55:1 56:1 57:-8 58:0 59:0 60:0 
-189.2307681303758 1:-2 2:-2 3:0 4:1 5:1 6:7 7:3 8:3 9:6 10:-1 11:0 12:1 13:-1 14:-2 15:0 16:1 17:1 18:4 19:2 20:1 21:2 22:0 23:1 24:0 25:0 26:-1 27:0 28:-1 29:1 30:1 31:0 32:0 33:-1 34:0 35:1 36:0 37:2 38:1 39:0 40:-1 41:0 42:-4 43:-2 44:-1 45:-4 46:1 47:1 48:-1 49:2 50:1 51:0 52:0 53:0 54:-8 55:-2 56:-3 57:-7 58:1 59:1 60:-1 
-179.9094612948625 1:-2 2:-2 3:0 4:0 5:2 6:8 7:4 8:3 9:6 10:0 11:0 12:0 13:-1 14:-1 15:0 16:-2 17:2 18:5 19:2 20:2 21:3 22:0 23:0 24:0 25:1 26:1 27:0 28:-2 29:1 30:0 31:0 32:1 33:0 34:1 35:0 36:-1 37:1 38:1 39:0 40:-1 41:1 42:-4 43:0 44:-1 45:-3 46:1 47:0 48:-1 49:1 50:1 51:0 52:1 53:-2 54:-11 55:-2 56:-4 57:-9 58:1 59:0 60:-1 
-189.2307681303758 1:1 2:0 3:0 4:-4 5:5 6:10 7:3 8:6 9:8 10:1 11:0 12:0 13:1 14:0 15:0 16:-3 17:5 18:6 19:3 20:4 21:5 22:1 23:0 24:0 25:1 26:0 27:0 28:-1 29:2 30:-1 31:1 32:1 33:-1 34:1 35:0 36:0 37:0 38:-1 39:0 40:2 41:-3 42:-6 43:-3 44:-3 45:-6 46:1 47:0 48:0 49:-1 50:-2 51:0 52:4 53:-6 54:-9 55:-4 56:-6 57:-9 58:0 59:0 60:0 
-109.1946073570199 1:2 2:1 3:0 4:-5 5:8 6:10 7:5 8:7 9:9 10:1 11:0 12:0 13:2 14:1 15:0 16:-3 17:5 18:3 19:3 20:4 21:3 22:1 23:0 24:0 25:1 26:0 27:0 28:0 29:0 30:-2 31:-1 32:0 33:-2 34:1 35:0 36:0 37:0 38:-1 39:0 40:2 41:-3 42:-5 43:-2 44:-3 45:-5 46:0 47:0 48:0 49:-1 50:-2 51:0 52:4 53:-6 54:-7 55:-3 56:-6 57:-7 58:0 59:0 60:0 
-5.288925894719602 1:2 2:2 3:0 4:-5 5:8 6:7 7:5 8:7 9:7 10:1 11:0 12:0 13:1 14:1 15:0 16:-2 17:3 18:2 19:1 20:3 21:2 22:1 23:0 24:0 25:0 26:0 27:0 28:0 29:0 30:-1 31:0 32:0 33:-1 34:0 35:0 36:0 37:-1 38:-1 39:0 40:2 41:-3 42:-3 43:-1 44:-3 45:-3 46:0 47:0 48:0 49:-2 50:-2 51:0 52:5 53:-8 54:-6 55:-2 56:-6 57:-5 58:0 59:0 60:0 
-189.2307681303758 1:2 2:1 3:0 4:-5 5:8 6:5 7:2 8:7 9:4 10:1 11:0 12:0 13:1 14:0 15:0 16:-3 17:5 18:2 19:1 20:4 21:1 22:0 23:0 24:0 25:0 26:-1 27:0 28:-1 29:2 30:0 31:0 32:1 33:-1 34:0 35:0 36:0 37:-1 38:-2 39:0 40:2 41:-3 42:-3 43:-1 44:-2 45:-3 46:0 47:0 48:0 49:-1 50:-2 51:0 52:3 53:-8 54:-5 55:-2 56:-6 57:-4 58:0 59:0 60:0 
-188.99867896787 1:2 2:1 3:-1 4:-5 5:9 6:4 7:3 8:8 9:3 10:0 11:0 12:0 13:1 14:0 15:-1 16:-3 17:6 18:2 19:2 20:5 21:1 22:0 23:0 24:0 25:0 26:-1 27:-1 28:0 29:1 30:-1 31:1 32:2 33:-1 34:0 35:0 36:0 37:0 38:-1 39:-1 40:1 41:-4 42:-3 43:0 44:-2 45:-2 46:0 47:0 48:0 49:0 50:-1 51:0 52:4 53:-10 54:-5 55:-5 56:-11 57:-5 58:0 59:1 60:0 
-21.27243025566396 1:-1 2:0 3:1 4:-1 5:-1 6:-5 7:-4 8:0 9:-7 10:0 11:0 12:0 13:0 14:0 15:0 16:-1 17:-1 18:-3 19:-3 20:0 21:-5 22:0 23:0 24:-1 25:0 26:0 27:-1 28:0 29:0 30:-1 31:1 32:0 33:-1 34:0 35:0 36:-1 37:0 38:0 39:0 40:0 41:0 42:3 43:4 44:0 45:3 46:0 47:0 48:-1 49:1 50:0 51:0 52:0 53:1 54:5 55:4 56:0 57:6 58:0 59:0 60:-1 
-158.6270614191445 1:0 2:0 3:0 4:-1 5:-1 6:-6 7:-5 8:0 9:-8 10:0 11:0 12:0 13:0 14:0 15:-1 16:0 17:0 18:-4 19:-1 20:0 21:-4 22:0 23:0 24:0 25:0 26:0 27:0 28:0 29:0 30:0 31:2 32:0 33:0 34:0 35:0 36:0 37:1 38:0 39:0 40:0 41:1 42:2 43:2 44:0 45:3 46:0 47:0 48:0 49:1 50:0 51:1 52:0 53:-1 54:4 55:4 56:-3 57:9 58:0 59:0 60:0 
-6.921347714425584 1:0 2:0 3:1 4:4 5:1 6:-5 7:-2 8:0 9:-5 10:0 11:0 12:-1 13:0 14:0 15:-2 16:-2 17:-2 18:0 19:-2 20:0 21:-3 22:0 23:0 24:-1 25:0 26:0 27:-2 28:-2 29:-2 30:1 31:0 32:0 33:0 34:0 35:0 36:-1 37:2 38:0 39:0 40:-1 41:-1 42:2 43:2 44:0 45:3 46:0 47:0 48:0 49:1 50:0 51:1 52:-3 53:0 54:3 55:6 56:-1 57:6 58:0 59:0 60:1 
-189.2307681303758 1:0 2:0 3:-2 4:1 5:-1 6:-2 7:-5 8:0 9:-6 10:0 11:0 12:-1 13:0 14:0 15:-2 16:1 17:-1 18:-1 19:-3 20:0 21:-3 22:0 23:0 24:-1 25:2 26:0 27:0 28:2 29:0 30:0 31:-1 32:0 33:0 34:0 35:0 36:0 37:1 38:0 39:1 40:0 41:1 42:1 43:3 44:-1 45:3 46:0 47:0 48:1 49:1 50:0 51:1 52:-4 53:1 54:4 55:8 56:-1 57:7 58:0 59:0 60:1 
-110.3627526229796 1:0 2:0 3:0 4:7 5:-2 6:-2 7:-5 8:-3 9:-1 10:1 11:0 12:0 13:0 14:-1 15:0 16:3 17:-3 18:0 19:-3 20:-2 21:0 22:1 23:0 24:0 25:0 26:-1 27:0 28:-1 29:-1 30:1 31:1 32:0 33:1 34:0 35:0 36:0 37:0 38:-1 39:0 40:-5 41:1 42:1 43:3 44:2 45:1 46:0 47:0 48:0 49:0 50:-1 51:0 52:-8 53:3 54:0 55:5 56:3 57:0 58:0 59:0 60:0 
-189.2307681303758 1:0 2:0 3:0 4:-2 5:-5 6:6 7:0 8:-4 9:5 10:0 11:0 12:0 13:0 14:0 15:0 16:-1 17:-3 18:3 19:0 20:-2 21:2 22:0 23:0 24:0 25:0 26:0 27:0 28:0 29:-1 30:0 31:0 32:-1 33:0 34:0 35:0 36:0 37:0 38:0 39:0 40:1 41:1 42:-3 43:0 44:1 45:-3 46:0 47:0 48:0 49:0 50:0 51:0 52:2 53:4 54:-6 55:0 56:3 57:-6 58:0 59:0 60:0 
-189.2307681303758 1:0 2:-1 3:0 4:-5 5:-2 6:3 7:5 8:-2 9:4 10:0 11:0 12:0 13:0 14:-1 15:0 16:-2 17:-1 18:1 19:3 20:0 21:2 22:0 23:0 24:0 25:0 26:0 27:0 28:0 29:0 30:-1 31:2 32:0 33:0 34:0 35:0 36:0 37:0 38:0 39:0 40:2 41:1 42:-2 43:-1 44:1 45:-3 46:0 47:0 48:0 49:0 50:0 51:0 52:4 53:1 54:-3 55:-5 56:1 57:-7 58:0 59:0 60:0 
-135.8871207508571 1:0 2:0 3:0 4:-4 5:2 6:4 7:5 8:1 9:-1 10:0 11:0 12:0 13:0 14:0 15:0 16:-2 17:1 18:-1 19:2 20:0 21:0 22:0 23:0 24:0 25:0 26:0 27:0 28:0 29:0 30:-1 31:0 32:-1 33:0 34:0 35:0 36:0 37:0 38:0 39:0 40:2 41:-1 42:-1 43:-2 44:-1 45:-1 46:0 47:0 48:0 49:0 50:0 51:0 52:3 53:-3 54:-1 55:-4 56:-2 57:-1 58:0 59:0 60:0 
-129.8335659639007 1:1 2:0 3:0 4:-4 5:2 6:0 7:4 8:2 9:-1 10:0 11:0 12:-1 13:1 14:0 15:0 16:-2 17:1 18:0 19:2 20:2 21:-2 22:0 23:0 24:-1 25:1 26:0 27:0 28:-1 29:-1 30:0 31:0 32:1 33:-2 34:0 35:0 36:-1 37:0 38:0 39:-2 40:1 41:-2 42:-2 43:-2 44:-2 45:1 46:0 47:0 48:0 49:0 50:-1 51:-2 52:2 53:-2 54:-2 55:-4 56:-3 57:2 58:0 59:0 60:0 
-189.2307681303758 1:1 2:0 3:1 4:-3 5:2 6:1 7:4 8:3 9:-3 10:0 11:0 12:-1 13:1 14:0 15:1 16:-2 17:0 18:1 19:2 20:2 21:-3 22:0 23:0 24:-1 25:0 26:0 27:-1 28:0 29:-1 30:-1 31:0 32:-1 33:0 34:0 35:0 36:0 37:0 38:-1 39:-1 40:1 41:-1 42:-1 43:-2 44:-2 45:1 46:0 47:0 48:0 49:-1 50:-1 51:0 52:2 53:-4 54:-1 55:-3 56:-3 57:2 58:0 59:0 60:-1 
-77.5962310290646 1:2 2:0 3:1 4:-3 5:2 6:1 7:3 8:3 9:-3 10:0 11:0 12:-1 13:1 14:0 15:-1 16:-1 17:1 18:-1 19:1 20:0 21:0 22:0 23:0 24:0 25:1 26:-1 27:-1 28:0 29:1 30:-1 31:-1 32:-1 33:1 34:0 35:0 36:0 37:0 38:-1 39:0 40:1 41:-2 42:-1 43:-2 44:-2 45:2 46:0 47:0 48:-1 49:0 50:-1 51:1 52:2 53:-5 54:-2 55:0 56:-4 57:-1 58:0 59:0 60:-1 
-189.2307681303758 1:1 2:0 3:-3 4:-3 5:4 6:0 7:0 8:3 9:0 10:0 11:0 12:0 13:0 14:0 15:-2 16:-2 17:1 18:0 19:-1 20:2 21:1 22:0 23:0 24:-1 25:0 26:0 27:-1 28:-1 29:-2 30:-1 31:1 32:0 33:-2 34:0 35:0 36:-1 37:0 38:0 39:1 40:1 41:-3 42:-1 43:2 44:-2 45:-1 46:0 47:0 48:-1 49:3 50:0 51:3 52:2 53:-4 54:-1 55:2 56:-3 57:-1 58:0 59:0 60:-1 
-56.65794069559745 1:-1 2:-1 3:0 4:-4 5:0 6:-2 7:4 8:-1 9:1 10:1 11:0 12:-1 13:-1 14:-1 15:1 16:-3 17:0 18:-1 19:1 20:-1 21:0 22:1 23:0 24:0 25:0 26:0 27:0 28:1 29:0 30:1 31:-1 32:-1 33:-1 34:1 35:0 36:0 37:1 38:0 39:0 40:3 41:0 42:1 43:-2 44:0 45:-1 46:1 47:0 48:0 49:1 50:0 51:0 52:3 53:0 54:1 55:-2 56:-1 57:-1 58:0 59:0 60:0 
-107.2227218046542 1:-1 2:-1 3:1 4:-4 5:0 6:-3 7:3 8:0 9:1 10:1 11:0 12:0 13:0 14:0 15:0 16:0 17:0 18:-1 19:1 20:0 21:0 22:1 23:0 24:0 25:1 26:0 27:0 28:2 29:0 30:-1 31:0 32:1 33:0 34:1 35:0 36:0 37:1 38:0 39:0 40:2 41:0 42:-1 43:0 44:0 45:0 46:0 47:0 48:0 49:2 50:0 51:0 52:0 53:0 54:3 55:0 56:-1 57:-2 58:0 59:0 60:0 
-189.2307681303758 1:-1 2:0 3:0 4:-1 5:0 6:-3 7:1 8:0 9:1 10:1 11:0 12:0 13:0 14:0 15:0 16:1 17:0 18:-3 19:0 20:1 21:1 22:1 23:0 24:0 25:0 26:0 27:0 28:1 29:0 30:-3 31:0 32:0 33:1 34:0 35:0 36:0 37:1 38:0 39:0 40:-1 41:0 42:1 43:0 44:-1 45:-1 46:0 47:0 48:0 49:1 50:0 51:0 52:0 53:-3 54:4 55:0 56:-1 57:-2 58:0 59:0 60:0 
-189.2307681303758 1:0 2:0 3:0 4:0 5:1 6:-4 7:1 8:1 9:1 10:1 11:0 12:0 13:0 14:0 15:0 16:0 17:1 18:-4 19:1 20:0 21:1 22:0 23:0 24:0 25:1 26:0 27:0 28:-2 29:1 30:0 31:1 32:-1 33:-1 34:0 35:0 36:0 37:1 38:0 39:0 40:-1 41:-2 42:3 43:1 44:-1 45:-2 46:0 47:0 48:0 49:1 50:-1 51:0 52:-1 53:-2 54:2 55:0 56:-1 57:-2 58:-1 59:0 60:0 
-189.2307681303758 1:0 2:0 3:0 4:2 5:0 6:1 7:-1 8:3 9:-5 10:0 11:0 12:-1 13:0 14:0 15:0 16:1 17:-1 18:2 19:-3 20:-1 21:6 22:0 23:0 24:-1 25:0 26:0 27:0 28:1 29:0 30:1 31:-1 32:-1 33:4 34:0 35:0 36:-1 37:0 38:0 39:-1 40:-1 41:0 42:-1 43:1 44:-1 45:1 46:0 47:0 48:0 49:0 50:0 51:-2 52:-3 53:2 54:-3 55:6 56:0 57:-4 58:0 59:0 60:0 
-2.139981322475724 1:0 2:-1 3:1 4:2 5:-1 6:4 7:-4 8:0 9:6 10:0 11:0 12:-1 13:0 14:-1 15:1 16:2 17:0 18:3 19:-2 20:0 21:4 22:0 23:0 24:-1 25:0 26:-1 27:0 28:0 29:0 30:1 31:0 32:0 33:1 34:0 35:0 36:0 37:0 38:-1 39:-1 40:-2 41:2 42:-1 43:5 44:1 45:-4 46:0 47:0 48:0 49:0 50:0 51:-1 52:-2 53:3 54:-3 55:5 56:3 57:-6 58:0 59:0 60:1 
-189.2307681303758 1:0 2:-1 3:1 4:3 5:-1 6:5 7:-4 8:-1 9:7 10:0 11:1 12:-1 13:0 14:-1 15:0 16:1 17:-1 18:3 19:-2 20:-1 21:4 22:0 23:1 24:0 25:0 26:-1 27:-1 28:-1 29:1 30:1 31:3 32:0 33:-1 34:0 35:1 36:0 37:0 38:0 39:-1 40:-1 41:2 42:-1 43:3 44:2 45:-3 46:0 47:1 48:1 49:0 50:0 51:-1 52:-3 53:1 54:-4 55:4 56:2 57:-6 58:0 59:0 60:1 
-90.00257694214709 1:0 2:-1 3:-1 4:2 5:1 6:5 7:-1 8:-1 9:6 10:1 11:1 12:0 13:0 14:0 15:-1 16:2 17:2 18:3 19:-1 20:1 21:4 22:1 23:1 24:1 25:0 26:0 27:-1 28:0 29:1 30:0 31:0 32:1 33:1 34:1 35:0 36:1 37:0 38:0 39:-1 40:-3 41:-1 42:-3 43:2 44:1 45:-3 46:0 47:0 48:0 49:0 50:0 51:0 52:-5 53:-2 54:-5 55:3 56:2 57:-7 58:0 59:0 60:0 
-189.2307681303758 1:0 2:0 3:-1 4:4 5:3 6:7 7:-2 8:0 9:9 10:1 11:0 12:1 13:0 14:0 15:-1 16:1 17:1 18:4 19:0 20:0 21:5 22:0 23:0 24:0 25:0 26:0 27:0 28:-1 29:0 30:2 31:1 32:1 33:1 34:0 35:0 36:0 37:0 38:0 39:0 40:-2 41:0 42:-3 43:0 44:1 45:-3 46:0 47:0 48:0 49:0 50:0 51:0 52:-3 53:0 54:-6 55:1 56:1 57:-8 58:0 59:0 60:0 
-99.55749444356601 1:0 2:-1 3:0 4:1 5:1 6:6 7:2 8:1 9:8 10:0 11:0 12:0 13:0 14:-1 15:0 16:0 17:1 18:3 19:2 20:1 21:3 22:0 23:0 24:0 25:0 26:-1 27:0 28:0 29:0 30:0 31:1 32:1 33:0 34:0 35:0 36:0 37:1 38:-1 39:0 40:0 41:0 42:-3 43:0 44:-1 45:-4 46:1 47:1 48:-1 49:2 50:0 51:0 52:-2 53:0 54:-6 55:-2 56:-2 57:-7 58:1 59:1 60:-1 
-189.2307681303758 1:-2 2:-2 3:0 4:1 5:1 6:7 7:3 8:3 9:6 10:-1 11:0 12:1 13:-1 14:-2 15:0 16:1 17:1 18:4 19:2 20:1 21:2 22:0 23:1 24:0 25:0 26:-1 27:0 28:-1 29:1 30:1 31:0 32:0 33:-1 34:0 35:1 36:0 37:2 38:1 39:0 40:-1 41:0 42:-4 43:-2 44:-1 45:-4 46:1 47:1 48:-1 49:2 50:1 51:0 52:0 53:0 54:-8 55:-2 56:-3 57:-7 58:1 59:1 60:-1 
-189.2307681303758 1:-2 2:-2 3:0 4:0 5:2 6:8 7:4 8:3 9:6 10:0 11:0 12:0 13:-1 14:-1 15:0 16:-2 17:2 18:5 19:2 20:2 21:3 22:0 23:0 24:0 25:1 26:1 27:0 28:-2 29:1 30:0 31:0 32:1 33:0 34:1 35:0 36:-1 37:1 38:1 39:0 40:-1 41:1 42:-4 43:0 44:-1 45:-3 46:1 47:0 48:-1 49:1 50:1 51:0 52:1 53:-2 54:-11 55:-2 56:-4 57:-9 58:1 59:0 60:-1 
-137.6856965542254 1:-1 2:-2 3:0 4:-2 5:3 6:10 7:4 8:4 9:7 10:0 11:0 12:0 13:1 14:0 15:0 16:-2 17:2 18:5 19:2 20:3 21:4 22:1 23:0 24:-1 25:1 26:0 27:0 28:-1 29:2 30:1 31:2 32:1 33:1 34:1 35:0 36:-1 37:1 38:0 39:0 40:1 41:-1 42:-6 43:0 44:-2 45:-5 46:1 47:0 48:-1 49:0 50:-1 51:0 52:4 53:-6 54:-11 55:-4 56:-6 57:-10 58:1 59:0 60:-1 
-189.2307681303758 1:1 2:0 3:0 4:-4 5:5 6:10 7:3 8:6 9:8 10:1 11:0 12:0 13:1 14:0 15:0 16:-3 17:5 18:6 19:3 20:4 21:5 22:1 23:0 24:0 25:1 26:0 27:0 28:-1 29:2 30:-1 31:1 32:1 33:-1 34:1 35:0 36:0 37:0 38:-1 39:0 40:2 41:-3 42:-6 43:-3 44:-3 45:-6 46:1 47:0 48:0 49:-1 50:-2 51:0 52:4 53:-6 54:-9 55:-4 56:-6 57:-9 58:0 59:0 60:0 
-87.08256801161156 1:2 2:1 3:0 4:-5 5:8 6:10 7:5 8:7 9:9 10:1 11:0 12:0 13:2 14:1 15:0 16:-3 17:5 18:3 19:3 20:4 21:3 22:1 23:0 24:0 25:1 26:0 27:0 28:0 29:0 30:-2 31:-1 32:0 33:-2 34:1 35:0 36:0 37:0 38:-1 39:0 40:2 41:-3 42:-5 43:-2 44:-3 45:-5 46:0 47:0 48:0 49:-1 50:-2 51:0 52:4 53:-6 54:-7 55:-3 56:-6 57:-7 58:0 59:0 60:0 
-42.08882979905986 1:2 2:2 3:0 4:-5 5:8 6:7 7:5 8:7 9:7 10:1 11:0 12:0 13:1 14:1 15:0 16:-2 17:3 18:2 19:1 20:3 21:2 22:1 23:0 24:0 25:0 26:0 27:0 28:0 29:0 30:-1 31:0 32:0 33:-1 34:0 35:0 36:0 37:-1 38:-1 39:0 40:2 41:-3 42:-3 43:-1 44:-3 45:-3 46:0 47:0 48:0 49:-2 50:-2 51:0 52:5 53:-8 54:-6 55:-2 56:-6 57:-5 58:0 59:0 60:0 
-189.2307681303758 1:2 2:1 3:0 4:-5 5:8 6:5 7:2 8:7 9:4 10:1 11:0 12:0 13:1 14:0 15:0 16:-3 17:5 18:2 19:1 20:4 21:1 22:0 23:0 24:0 25:0 26:-1 27:0 28:-1 29:2 30:0 31:0 32:1 33:-1 34:0 35:0 36:0 37:-1 38:-2 39:0 40:2 41:-3 42:-3 43:-1 44:-2 45:-3 46:0 47:0 48:0 49:-1 50:-2 51:0 52:3 53:-8 54:-5 55:-2 56:-6 57:-4 58:0 59:0 60:0 
-189.2307681303758 1:2 2:1 3:-1 4:-5 5:9 6:4 7:3 8:8 9:3 10:0 11:0 12:0 13:1 14:0 15:-1 16:-3 17:6 18:2 19:2 20:5 21:1 22:0 23:0 24:0 25:0 26:-1 27:-1 28:0 29:1 30:-1 31:1 32:2 33:-1 34:0 35:0 36:0 37:0 38:-1 39:-1 40:1 41:-4 42:-3 43:0 44:-2 45:-2 46:0 47:0 48:0 49:0 50:-1 51:0 52:4 53:-10 54:-5 55:-5 56:-11 57:-5 58:0 59:1 60:0 
-189.2307681303758 1:-1 2:0 3:1 4:-1 5:-1 6:-5 7:-4 8:0 9:-7 10:0 11:0 12:0 13:0 14:0 15:0 16:-1 17:-1 18:-3 19:-3 20:0 21:-5 22:0 23:0 24:-1 25:0 26:0 27:-1 28:0 29:0 30:-1 31:1 32:0 33:-1 34:0 35:0 36:-1 37:0 38:0 39:0 40:0 41:0 42:3 43:4 44:0 45:3 46:0 47:0 48:-1 49:1 50:0 51:0 52:0 53:1 54:5 55:4 56:0 57:6 58:0 59:0 60:-1 
-189.2307681303758 1:0 2:0 3:0 4:-1 5:-1 6:-6 7:-5 8:0 9:-8 10:0 11:0 12:0 13:0 14:0 15:-1 16:0 17:0 18:-4 19:-1 20:0 21:-4 22:0 23:0 24:0 25:0 26:0 27:0 28:0 29:0 30:0 31:2 32:0 33:0 34:0 35:0 36:0 37:1 38:0 39:0 40:0 41:1 42:2 43:2 44:0 45:3 46:0 47:0 48:0 49:1 50:0 51:1 52:0 53:-1 54:4 55:4 56:-3 57:9 58:0 59:0 60:0 
-186.9750937684267 1:-1 2:-1 3:0 4:3 5:1 6:-7 7:-2 8:2 9:-9 10:0 11:0 12:0 13:0 14:-1 15:0 16:3 17:2 18:-5 19:-2 20:2 21:-6 22:0 23:0 24:0 25:0 26:-1 27:1 28:3 29:0 30:-3 31:0 32:-1 33:0 34:0 35:0 36:0 37:1 38:0 39:0 40:-2 41:-2 42:3 43:3 44:-2 45:5 46:0 47:0 48:0 49:1 50:0 51:-3 52:-8 53:-5 54:8 55:3 56:-2 57:7 58:0 59:0 60:0 
-96.00120386453739 1:0 2:-1 3:1 4:5 5:4 6:-8 7:-3 8:3 9:-10 10:0 11:0 12:0 13:0 14:-1 15:2 16:5 17:2 18:-6 19:-1 20:0 21:-4 22:0 23:0 24:0 25:1 26:0 27:1 28:0 29:0 30:0 31:2 32:-1 33:1 34:0 35:0 36:0 37:1 38:0 39:-2 40:-6 41:-3 42:5 43:2 44:-1 45:3 46:0 47:0 48:0 49:1 50:0 51:-2 52:-6 53:-3 54:6 55:4 56:-1 57:6 58:0 59:0 60:0 
-95.72564179627533 1:-1 2:-1 3:2 4:7 5:3 6:-8 7:-3 8:0 9:-7 10:0 11:0 12:-1 13:0 14:0 15:1 16:2 17:1 18:-2 19:0 20:-1 21:-2 22:0 23:0 24:-1 25:0 26:0 27:-2 28:-4 29:-2 30:3 31:0 32:-1 33:0 34:0 35:0 36:-1 37:0 38:0 39:-2 40:-4 41:-2 42:4 43:2 44:-1 45:3 46:0 47:0 48:-1 49:2 50:0 51:0 52:-3 53:-1 54:5 55:4 56:-1 57:6 58:0 59:0 60:0 
-189.2307681303758 1:0 2:0 3:1 4:4 5:1 6:-5 7:-2 8:0 9:-5 10:0 11:0 12:-1 13:0 14:0 15:-2 16:-2 17:-2 18:0 19:-2 20:0 21:-3 22:0 23:0 24:-1 25:0 26:0 27:-2 28:-2 29:-2 30:1 31:0 32:0 33:0 34:0 35:0 36:-1 37:2 38:0 39:0 40:-1 41:-1 42:2 43:2 44:0 45:3 46:0 47:0 48:0 49:1 50:0 51:1 52:-3 53:0 54:3 55:6 56:-1 57:6 58:0 59:0 60:1 
-189.2307681303758 1:0 2:0 3:-2 4:1 5:-1 6:-2 7:-5 8:0 9:-6 10:0 11:0 12:-1 13:0 14:0 15:-2 16:1 17:-1 18:-1 19:-3 20:0 21:-3 22:0 23:0 24:-1 25:2 26:0 27:0 28:2 29:0 30:0 31:-1 32:0 33:0 34:0 35:0 36:0 37:1 38:0 39:1 40:0 41:1 42:1 43:3 44:-1 45:3 46:0 47:0 48:1 49:1 50:0 51:1 52:-4 53:1 54:4 55:8 56:-1 57:7 58:0 59:0 60:1 
-189.2307681303758 1:0 2:0 3:0 4:7 5:-2 6:-2 7:-5 8:-3 9:-1 10:1 11:0 12:0 13:0 14:-1 15:0 16:3 17:-3 18:0 19:-3 20:-2 21:0 22:1 23:0 24:0 25:0 26:-1 27:0 28:-1 29:-1 30:1 31:1 32:0 33:1 34:0 35:0 36:0 37:0 38:-1 39:0 40:-5 41:1 42:1 43:3 44:2 45:1 46:0 47:0 48:0 49:0 50:-1 51:0 52:-8 53:3 54:0 55:5 56:3 57:0 58:0 59:0 60:0 
-22.55475177658093 1:1 2:0 3:-1 4:4 5:-5 6:5 7:-3 8:-6 9:2 10:0 11:0 12:0 13:1 14:0 15:-1 16:1 17:-2 18:2 19:-1 20:-3 21:1 22:0 23:0 24:0 25:0 26:0 27:0 28:-1 29:-1 30:0 31:1 32:0 33:1 34:0 35:0 36:0 37:0 38:0 39:0 40:-3 41:2 42:-2 43:3 44:2 45:0 46:1 47:0 48:0 49:-1 50:0 51:-1 52:-5 53:5 54:-5 55:4 56:5 57:-2 58:0 59:0 60:-1 
-189.2307681303758 1:0 2:0 3:0 4:-2 5:-5 6:6 7:0 8:-4 9:5 10:0 11:0 12:0 13:0 14:0 15:0 16:-1 17:-3 18:3 19:0 20:-2 21:2 22:0 23:0 24:0 25:0 26:0 27:0 28:0 29:-1 30:0 31:0 32:-1 33:0 34:0 35:0 36:0 37:0 38:0 39:0 40:1 41:1 42:-3 43:0 44:1 45:-3 46:0 47:0 48:0 49:0 50:0 51:0 52:2 53:4 54:-6 55:0 56:3 57:-6 58:0 59:0 60:0 
-50.13659956407251 1:0 2:0 3:0 4:-3 5:-4 6:6 7:0 8:-3 9:6 10:0 11:0 12:0 13:0 14:0 15:0 16:-2 17:-2 18:3 19:0 20:-1 21:3 22:0 23:0 24:0 25:0 26:0 27:0 28:-1 29:1 30:0 31:0 32:1 33:0 34:0 35:0 36:0 37:0 38:0 39:0 40:1 41:2 42:-3 43:1 44:1 45:-4 46:0 47:0 48:0 49:0 50:0 51:0 52:2 53:3 54:-6 55:1 56:2 57:-7 58:0 59:0 60:0 
-189.2307681303758 1:0 2:-1 3:0 4:-5 5:-2 6:3 7:5 8:-2 9:4 10:0 11:0 12:0 13:0 14:-1 15:0 16:-2 17:-1 18:1 19:3 20:0 21:2 22:0 23:0 24:0 25:0 26:0 27:0 28:0 29:0 30:-1 31:2 32:0 33:0 34:0 35:0 36:0 37:0 38:0 39:0 40:2 41:1 42:-2 43:-1 44:1 45:-3 46:0 47:0 48:0 49:0 50:0 51:0 52:4 53:1 54:-3 55:-5 56:1 57:-7 58:0 59:0 60:0 
-42.19804737632877 1:0 2:0 3:0 4:-5 5:0 6:2 7:6 8:0 9:3 10:0 11:0 12:0 13:0 14:0 15:0 16:-2 17:0 18:1 19:3 20:0 21:1 22:0 23:0 24:0 25:0 26:0 27:0 28:0 29:0 30:0 31:0 32:0 33:-1 34:0 35:0 36:0 37:0 38:0 39:0 40:2 41:0 42:-1 43:-2 44:0 45:-2 46:0 47:0 48:0 49:0 50:0 51:0 52:4 53:0 54:-2 55:-5 56:-1 57:-4 58:0 59:0 60:0 
-141.6292351507155 1:0 2:0 3:0 4:-5 5:1 6:2 7:6 8:1 9:2 10:0 11:0 12:0 13:0 14:0 15:0 16:-3 17:1 18:1 19:3 20:0 21:0 22:0 23:0 24:0 25:0 26:0 27:0 28:0 29:-1 30:0 31:0 32:0 33:-1 34:0 35:0 36:0 37:0 38:0 39:0 40:2 41:-1 42:0 43:-3 44:-1 45:-2 46:0 47:0 48:0 49:0 50:0 51:0 52:4 53:-2 54:-5 55:-6 56:-2 57:-1 58:0 59:0 60:0 
-60.3208360817624 1:0 2:0 3:0 4:-5 5:2 6:2 7:6 8:1 9:1 10:0 11:0 12:0 13:0 14:0 15:0 16:-2 17:0 18:1 19:3 20:1 21:0 22:0 23:0 24:0 25:0 26:0 27:0 28:0 29:0 30:1 31:0 32:0 33:-1 34:0 35:0 36:0 37:0 38:0 39:0 40:2 41:-1 42:-4 43:-3 44:-1 45:0 46:0 47:0 48:0 49:0 50:0 51:0 52:4 53:-2 54:-4 55:-5 56:-2 57:0 58:0 59:0 60:0 
-189.2307681303758 1:0 2:0 3:0 4:-4 5:2 6:4 7:5 8:1 9:-1 10:0 11:0 12:0 13:0 14:0 15:0 16:-2 17:1 18:-1 19:2 20:0 21:0 22:0 23:0 24:0 25:0 26:0 27:0 28:0 29:0 30:-1 31:0 32:-1 33:0 34:0 35:0 36:0 37:0 38:0 39:0 40:2 41:-1 42:-1 43:-2 44:-1 45:-1 46:0 47:0 48:0 49:0 50:0 51:0 52:3 53:-3 54:-1 55:-4 56:-2 57:-1 58:0 59:0 60:0 
-175.0588538308258 1:1 2:0 3:0 4:-4 5:2 6:0 7:4 8:1 9:0 10:0 11:0 12:-1 13:1 14:0 15:0 16:-2 17:1 18:0 19:2 20:0 21:0 22:0 23:0 24:-1 25:1 26:0 27:0 28:0 29:0 30:0 31:0 32:0 33:-1 34:0 35:0 36:-1 37:1 38:0 39:0 40:1 41:-2 42:0 43:-2 44:-1 45:-1 46:0 47:0 48:-1 49:0 50:0 51:-2 52:3 53:-3 54:-2 55:-4 56:-4 57:2 58:0 59:0 60:0 
-189.2307681303758 1:1 2:0 3:0 4:-4 5:2 6:0 7:4 8:2 9:-1 10:0 11:0 12:-1 13:1 14:0 15:0 16:-2 17:1 18:0 19:2 20:2 21:-2 22:0 23:0 24:-1 25:1 26:0 27:0 28:-1 29:-1 30:0 31:0 32:1 33:-2 34:0 35:0 36:-1 37:0 38:0 39:-2 40:1 41:-2 42:-2 43:-2 44:-2 45:1 46:0 47:0 48:0 49:0 50:-1 51:-2 52:2 53:-2 54:-2 55:-4 56:-3 57:2 58:0 59:0 60:0 
-189.2307681303758 1:1 2:0 3:1 4:-3 5:2 6:1 7:4 8:3 9:-3 10:0 11:0 12:-1 13:1 14:0 15:1 16:-2 17:0 18:1 19:2 20:2 21:-3 22:0 23:0 24:-1 25:0 26:0 27:-1 28:0 29:-1 30:-1 31:0 32:-1 33:0 34:0 35:0 36:0 37:0 38:-1 39:-1 40:1 41:-1 42:-1 43:-2 44:-2 45:1 46:0 47:0 48:0 49:-1 50:-1 51:0 52:2 53:-4 54:-1 55:-3 56:-3 57:2 58:0 59:0 60:-1 
-189.2307681303758 1:2 2:0 3:1 4:-3 5:2 6:1 7:3 8:3 9:-3 10:0 11:0 12:-1 13:1 14:0 15:-1 16:-1 17:1 18:-1 19:1 20:0 21:0 22:0 23:0 24:0 25:1 26:-1 27:-1 28:0 29:1 30:-1 31:-1 32:-1 33:1 34:0 35:0 36:0 37:0 38:-1 39:0 40:1 41:-2 42:-1 43:-2 44:-2 45:2 46:0 47:0 48:-1 49:0 50:-1 51:1 52:2 53:-5 54:-2 55:0 56:-4 57:-1 58:0 59:0 60:-1 
-115.2354652840726 1:1 2:0 3:-2 4:-3 5:3 6:0 7:2 8:2 9:-1 10:0 11:0 12:0 13:1 14:-1 15:-2 16:-2 17:3 18:0 19:0 20:1 21:0 22:0 23:0 24:0 25:0 26:-1 27:-1 28:-1 29:0 30:0 31:-1 32:0 33:1 34:0 35:0 36:-1 37:0 38:-1 39:0 40:0 41:-3 42:-1 43:1 44:-2 45:-2 46:0 47:0 48:-1 49:0 50:-1 51:2 52:2 53:-4 54:-1 55:2 56:-4 57:-1 58:0 59:0 60:-1 
-185.3437188832703 1:1 2:0 3:-3 4:-3 5:4 6:0 7:0 8:3 9:0 10:0 11:0 12:0 13:0 14:0 15:-2 16:-2 17:1 18:0 19:-1 20:2 21:1 22:0 23:0 24:-1 25:0 26:0 27:-1 28:-1 29:-2 30:-1 31:1 32:0 33:-2 34:0 35:0 36:-1 37:0 38:0 39:1 40:1 41:-3 42:-1 43:2 44:-2 45:-1 46:0 47:0 48:-1 49:3 50:0 51:3 52:2 53:-4 54:-1 55:2 56:-3 57:-1 58:0 59:0 60:-1 
-34.78100676065504 1:-1 2:0 3:-3 4:-3 5:3 6:0 7:-1 8:3 9:2 10:0 11:0 12:-1 13:-1 14:0 15:-2 16:-2 17:0 18:-1 19:1 20:1 21:-1 22:0 23:0 24:-1 25:-1 26:0 27:0 28:0 29:-1 30:-1 31:2 32:-1 33:0 34:0 35:0 36:-1 37:2 38:0 39:2 40:1 41:-2 42:-1 43:2 44:-2 45:0 46:0 47:0 48:-1 49:2 50:0 51:3 52:2 53:-2 54:0 55:-1 56:-2 57:-1 58:0 59:0 60:0 
-189.2307681303758 1:-1 2:-1 3:0 4:-4 5:0 6:-2 7:4 8:-1 9:1 10:1 11:0 12:-1 13:-1 14:-1 15:1 16:-3 17:0 18:-1 19:1 20:-1 21:0 22:1 23:0 24:0 25:0 26:0 27:0 28:1 29:0 30:1 31:-1 32:-1 33:-1 34:1 35:0 36:0 37:1 38:0 39:0 40:3 41:0 42:1 43:-2 44:0 45:-1 46:1 47:0 48:0 49:1 50:0 51:0 52:3 53:0 54:1 55:-2 56:-1 57:-1 58:0 59:0 60:0 
-189.2307681303758 1:-1 2:-1 3:1 4:-4 5:0 6:-3 7:3 8:0 9:1 10:1 11:0 12:0 13:0 14:0 15:0 16:0 17:0 18:-1 19:1 20:0 21:0 22:1 23:0 24:0 25:1 26:0 27:0 28:2 29:0 30:-1 31:0 32:1 33:0 34:1 35:0 36:0 37:1 38:0 39:0 40:2 41:0 42:-1 43:0 44:0 45:0 46:0 47:0 48:0 49:2 50:0 51:0 52:0 53:0 54:3 55:0 56:-1 57:-2 58:0 59:0 60:0 
-189.2307681303758 1:-1 2:0 3:0 4:-1 5:0 6:-3 7:1 8:0 9:1 10:1 11:0 12:0 13:0 14:0 15:0 16:1 17:0 18:-3 19:0 20:1 21:1 22:1 23:0 24:0 25:0 26:0 27:0 28:1 29:0 30:-3 31:0 32:0 33:1 34:0 35:0 36:0 37:1 38:0 39:0 40:-1 41:0 42:1 43:0 44:-1 45:-1 46:0 47:0 48:0 49:1 50:0 51:0 52:0 53:-3 54:4 55:0 56:-1 57:-2 58:0 59:0 60:0 
-189.2307681303758 1:0 2:0 3:0 4:0 5:1 6:-4 7:1 8:1 9:1 10:1 11:0 12:0 13:0 14:0 15:0 16:0 17:1 18:-4 19:1 20:0 21:1 22:0 23:0 24:0 25:1 26:0 27:0 28:-2 29:1 30:0 31:1 32:-1 33:-1 34:0 35:0 36:0 37:1 38:0 39:0 40:-1 41:-2 42:3 43:1 44:-1 45:-2 46:0 47:0 48:0 49:1 50:-1 51:0 52:-1 53:-2 54:2 55:0 56:-1 57:-2 58:-1 59:0 60:0 
