svm_type c_svc
kernel_type rbf
gamma 0.00012207
nr_class 2
total_sv 136
rho 33.3358
label 1 3
nr_sv 76 60
SV
139.6997006766762 1:1 2:-2 3:0 4:-3 5:-5 6:2 7:0 8:-2 9:-3 10:1 11:-3 12:0 13:0 14:-1 15:0 16:-1 17:-2 18:1 19:1 20:0 21:-1 22:0 23:-1 24:0 25:0 26:0 27:0 28:0 29:1 30:-1 31:1 32:1 33:1 34:0 35:0 36:0 37:-1 38:1 39:0 40:1 41:1 42:1 43:1 44:0 45:3 46:-1 47:1 48:0 49:-1 50:1 51:0 52:1 53:2 54:1 55:1 56:0 57:4 58:-1 59:1 60:0 
139.6997006766762 1:-2 2:-1 3:1 4:-9 5:-2 6:1 7:0 8:2 9:-1 10:0 11:0 12:0 13:-1 14:-1 15:0 16:-6 17:-2 18:0 19:0 20:2 21:-1 22:0 23:0 24:0 25:1 26:0 27:0 28:-1 29:-1 30:0 31:0 32:1 33:0 34:0 35:0 36:0 37:0 38:-1 39:1 40:5 41:0 42:0 43:0 44:-3 45:1 46:0 47:0 48:0 49:0 50:-1 51:1 52:8 53:1 54:0 55:0 56:-5 57:2 58:0 59:0 60:0 
45.79911255725693 1:0 2:1 3:-1 4:-9 5:-2 6:0 7:0 8:4 9:-1 10:0 11:0 12:0 13:-1 14:0 15:0 16:-3 17:-1 18:0 19:0 20:0 21:0 22:0 23:0 24:0 25:-1 26:0 27:0 28:0 29:0 30:0 31:0 32:-2 33:1 34:0 35:0 36:0 37:-1 38:0 39:0 40:3 41:1 42:0 43:0 44:-1 45:2 46:0 47:0 48:0 49:-1 50:-3 51:1 52:7 53:-1 54:0 55:0 56:-2 57:1 58:0 59:-4 60:0 
139.6997006766762 1:-1 2:-1 3:0 4:-5 5:-2 6:-3 7:0 8:-1 9:2 10:0 11:-1 12:0 13:-1 14:0 15:0 16:-2 17:-1 18:-1 19:0 20:-1 21:1 22:0 23:0 24:0 25:-1 26:0 27:0 28:1 29:0 30:0 31:0 32:-1 33:0 34:0 35:0 36:0 37:0 38:0 39:0 40:3 41:1 42:2 43:0 44:0 45:-1 46:0 47:0 48:0 49:0 50:1 51:0 52:5 53:2 54:4 55:0 56:1 57:-2 58:0 59:1 60:0 
13.57808068719857 1:-1 2:0 3:0 4:0 5:1 6:-1 7:0 8:0 9:0 10:0 11:0 12:0 13:-1 14:0 15:0 16:0 17:1 18:-1 19:-1 20:1 21:0 22:0 23:1 24:0 25:-1 26:-2 27:0 28:1 29:-1 30:0 31:-1 32:-1 33:1 34:0 35:-1 36:0 37:-1 38:-1 39:0 40:1 41:-1 42:1 43:-1 44:-2 45:1 46:0 47:-1 48:0 49:1 50:0 51:1 52:2 53:0 54:2 55:0 56:-2 57:1 58:0 59:0 60:0 
133.5119908737305 1:-2 2:-2 3:-1 4:-1 5:0 6:-1 7:-1 8:0 9:0 10:0 11:-1 12:0 13:-2 14:-1 15:-1 16:-1 17:0 18:0 19:-1 20:-1 21:0 22:0 23:-1 24:0 25:0 26:0 27:0 28:0 29:1 30:1 31:0 32:-1 33:0 34:0 35:0 36:0 37:0 38:0 39:1 40:1 41:0 42:2 43:0 44:0 45:1 46:0 47:0 48:0 49:0 50:1 51:1 52:2 53:-1 54:2 55:1 56:1 57:1 58:0 59:0 60:0 
114.8862243458428 1:-2 2:-2 3:-1 4:-1 5:0 6:-1 7:-1 8:-2 9:0 10:0 11:-1 12:0 13:0 14:-1 15:0 16:0 17:1 18:0 19:0 20:-2 21:0 22:0 23:0 24:0 25:0 26:-1 27:1 28:1 29:0 30:1 31:0 32:-1 33:1 34:0 35:0 36:0 37:0 38:0 39:1 40:2 41:-1 42:1 43:1 44:0 45:1 46:0 47:0 48:0 49:0 50:0 51:1 52:2 53:-1 54:1 55:1 56:1 57:1 58:0 59:1 60:0 
139.6997006766762 1:0 2:1 3:2 4:1 5:1 6:0 7:0 8:-1 9:1 10:0 11:0 12:0 13:-1 14:0 15:0 16:1 17:0 18:0 19:0 20:0 21:0 22:0 23:0 24:0 25:-1 26:0 27:0 28:1 29:-1 30:0 31:0 32:-1 33:0 34:0 35:0 36:0 37:-1 38:0 39:1 40:1 41:-1 42:0 43:0 44:-1 45:0 46:0 47:0 48:0 49:-1 50:-1 51:1 52:0 53:-2 54:0 55:0 56:-1 57:0 58:0 59:-1 60:0 
139.6997006766762 1:0 2:0 3:0 4:1 5:1 6:1 7:0 8:0 9:0 10:0 11:0 12:0 13:0 14:0 15:0 16:1 17:0 18:1 19:0 20:-1 21:0 22:0 23:0 24:0 25:0 26:0 27:1 28:1 29:0 30:1 31:0 32:-1 33:0 34:0 35:0 36:0 37:0 38:-1 39:1 40:0 41:-1 42:1 43:0 44:-1 45:0 46:0 47:-1 48:0 49:0 50:-1 51:1 52:0 53:-2 54:0 55:0 56:0 57:0 58:0 59:-1 60:0 
139.6997006766762 1:0 2:0 3:0 4:0 5:0 6:0 7:1 8:0 9:0 10:0 11:0 12:0 13:0 14:0 15:0 16:0 17:0 18:0 19:1 20:0 21:0 22:0 23:0 24:0 25:0 26:0 27:0 28:0 29:0 30:0 31:0 32:-1 33:0 34:0 35:0 36:0 37:0 38:0 39:0 40:0 41:0 42:0 43:0 44:-1 45:0 46:0 47:0 48:0 49:0 50:0 51:0 52:0 53:0 54:0 55:0 56:0 57:0 58:0 59:0 60:0 
121.1124313809638 1:-1 2:2 3:0 4:0 5:0 6:0 7:1 8:1 9:0 10:-1 11:2 12:1 13:-1 14:1 15:0 16:0 17:0 18:0 19:3 20:1 21:2 22:-1 23:1 24:1 25:-1 26:0 27:0 28:0 29:0 30:0 31:3 32:1 33:2 34:-1 35:0 36:1 37:0 38:-1 39:0 40:0 41:0 42:0 43:0 44:-1 45:2 46:0 47:-1 48:1 49:1 50:-2 51:0 52:0 53:0 54:0 55:-5 56:-2 57:-2 58:0 59:-2 60:0 
139.6997006766762 1:0 2:0 3:0 4:0 5:0 6:0 7:-5 8:-1 9:-5 10:0 11:0 12:0 13:0 14:0 15:0 16:0 17:0 18:0 19:-1 20:-1 21:-1 22:0 23:0 24:0 25:0 26:0 27:0 28:0 29:0 30:0 31:3 32:0 33:2 34:0 35:0 36:0 37:0 38:0 39:0 40:0 41:0 42:0 43:3 44:0 45:2 46:0 47:0 48:0 49:0 50:0 51:0 52:0 53:0 54:0 55:3 56:0 57:2 58:0 59:0 60:0 
139.6997006766762 1:0 2:0 3:0 4:0 5:0 6:0 7:2 8:-1 9:2 10:0 11:0 12:0 13:0 14:0 15:0 16:0 17:0 18:0 19:2 20:-1 21:2 22:0 23:0 24:0 25:0 26:0 27:0 28:0 29:0 30:0 31:2 32:-1 33:2 34:0 35:0 36:0 37:0 38:0 39:0 40:0 41:0 42:0 43:-1 44:0 45:-1 46:0 47:0 48:0 49:0 50:0 51:0 52:0 53:0 54:0 55:-3 56:1 57:-4 58:0 59:0 60:0 
110.77825474127 1:0 2:0 3:0 4:0 5:0 6:0 7:4 8:-2 9:5 10:0 11:0 12:0 13:0 14:0 15:0 16:0 17:0 18:0 19:1 20:-1 21:2 22:0 23:0 24:0 25:0 26:0 27:0 28:0 29:0 30:0 31:-1 32:0 33:-1 34:0 35:0 36:0 37:0 38:0 39:0 40:0 41:0 42:0 43:-1 44:0 45:-1 46:0 47:0 48:0 49:0 50:0 51:0 52:0 53:0 54:0 55:-1 56:0 57:-1 58:0 59:0 60:0 
139.6997006766762 1:0 2:0 3:0 4:0 5:0 6:0 7:2 8:-1 9:3 10:0 11:0 12:0 13:0 14:0 15:0 16:0 17:0 18:0 19:0 20:0 21:0 22:0 23:0 24:0 25:0 26:0 27:0 28:0 29:0 30:0 31:0 32:0 33:0 34:0 35:0 36:0 37:0 38:0 39:0 40:0 41:0 42:0 43:0 44:0 45:0 46:0 47:0 48:0 49:0 50:0 51:0 52:0 53:0 54:0 55:0 56:0 57:1 58:0 59:0 60:0 
0.3890106959803458 1:-3 2:-4 3:6 4:-7 5:-13 6:10 7:1 8:-3 9:4 10:-1 11:-3 12:6 13:-1 14:-2 15:3 16:-3 17:-8 18:7 19:1 20:-2 21:2 22:-1 23:-2 24:4 25:1 26:0 27:0 28:2 29:2 30:2 31:0 32:-1 33:0 34:0 35:-1 36:1 37:2 38:2 39:-3 40:5 41:8 42:-6 43:0 44:1 45:-2 46:1 47:1 48:-3 49:3 50:4 51:-6 52:7 53:10 54:-13 55:0 56:3 57:-4 58:1 59:3 60:-5 
0.3325799629263263 1:1 2:-2 3:0 4:-2 5:-6 6:1 7:-1 8:-3 9:-4 10:0 11:-2 12:0 13:0 14:-2 15:0 16:-2 17:-3 18:1 19:0 20:-2 21:-1 22:0 23:-2 24:0 25:-1 26:-1 27:0 28:0 29:0 30:0 31:1 32:0 33:1 34:-1 35:0 36:0 37:-1 38:0 39:0 40:1 41:3 42:-2 43:1 44:1 45:3 46:-1 47:1 48:0 49:-2 50:1 51:0 52:2 53:3 54:0 55:1 56:0 57:5 58:-2 59:2 60:0 
139.6997006766762 1:1 2:-2 3:0 4:-3 5:-5 6:2 7:0 8:-2 9:-3 10:1 11:-3 12:0 13:0 14:-1 15:0 16:-1 17:-2 18:1 19:1 20:0 21:-1 22:0 23:-1 24:0 25:0 26:0 27:0 28:0 29:1 30:-1 31:1 32:1 33:1 34:0 35:0 36:0 37:-1 38:1 39:0 40:1 41:1 42:1 43:1 44:0 45:3 46:-1 47:1 48:0 49:-1 50:1 51:0 52:1 53:2 54:1 55:1 56:0 57:4 58:-1 59:1 60:0 
109.3840327942155 1:-3 2:-1 3:2 4:-7 5:-2 6:2 7:1 8:0 9:0 10:0 11:0 12:0 13:-1 14:0 15:1 16:-5 17:-1 18:1 19:0 20:1 21:0 22:0 23:0 24:0 25:0 26:0 27:0 28:-2 29:-1 30:0 31:0 32:1 33:0 34:0 35:0 36:0 37:2 38:1 39:0 40:3 41:0 42:0 43:0 44:0 45:1 46:0 47:0 48:0 49:1 50:0 51:1 52:9 53:1 54:0 55:0 56:-4 57:2 58:0 59:0 60:0 
139.6997006766762 1:-2 2:-1 3:1 4:-9 5:-2 6:1 7:0 8:2 9:-1 10:0 11:0 12:0 13:-1 14:-1 15:0 16:-6 17:-2 18:0 19:0 20:2 21:-1 22:0 23:0 24:0 25:1 26:0 27:0 28:-1 29:-1 30:0 31:0 32:1 33:0 34:0 35:0 36:0 37:0 38:-1 39:1 40:5 41:0 42:0 43:0 44:-3 45:1 46:0 47:0 48:0 49:0 50:-1 51:1 52:8 53:1 54:0 55:0 56:-5 57:2 58:0 59:0 60:0 
51.20469837367336 1:-1 2:-1 3:0 4:-10 5:-2 6:0 7:0 8:3 9:-2 10:0 11:0 12:0 13:1 14:0 15:0 16:-5 17:-1 18:0 19:0 20:2 21:-1 22:0 23:0 24:0 25:0 26:-1 27:1 28:1 29:0 30:0 31:0 32:-2 33:0 34:0 35:0 36:0 37:0 38:-1 39:1 40:4 41:1 42:0 43:0 44:-4 45:1 46:0 47:0 48:0 49:0 50:-1 51:1 52:7 53:2 54:0 55:0 56:-3 57:2 58:0 59:0 60:0 
139.6997006766762 1:0 2:1 3:-1 4:-9 5:-2 6:0 7:0 8:4 9:-1 10:0 11:0 12:0 13:-1 14:0 15:0 16:-3 17:-1 18:0 19:0 20:0 21:0 22:0 23:0 24:0 25:-1 26:0 27:0 28:0 29:0 30:0 31:0 32:-2 33:1 34:0 35:0 36:0 37:-1 38:0 39:0 40:3 41:1 42:0 43:0 44:-1 45:2 46:0 47:0 48:0 49:-1 50:-3 51:1 52:7 53:-1 54:0 55:0 56:-2 57:1 58:0 59:-4 60:0 
6.203123061135408 1:0 2:1 3:0 4:-6 5:-1 6:-1 7:0 8:-1 9:1 10:0 11:2 12:0 13:0 14:1 15:0 16:-3 17:0 18:-1 19:0 20:0 21:2 22:0 23:2 24:0 25:0 26:-2 27:1 28:1 29:-2 30:-1 31:0 32:-1 33:1 34:0 35:-2 36:0 37:0 38:-1 39:1 40:4 41:-1 42:1 43:0 44:-1 45:0 46:0 47:-1 48:0 49:0 50:-1 51:1 52:7 53:0 54:2 55:0 56:-1 57:-1 58:0 59:-1 60:0 
139.6997006766762 1:-1 2:-1 3:0 4:-5 5:-2 6:-3 7:0 8:-1 9:2 10:0 11:-1 12:0 13:-1 14:0 15:0 16:-2 17:-1 18:-1 19:0 20:-1 21:1 22:0 23:0 24:0 25:-1 26:0 27:0 28:1 29:0 30:0 31:0 32:-1 33:0 34:0 35:0 36:0 37:0 38:0 39:0 40:3 41:1 42:2 43:0 44:0 45:-1 46:0 47:0 48:0 49:0 50:1 51:0 52:5 53:2 54:4 55:0 56:1 57:-2 58:0 59:1 60:0 
20.80916046721355 1:-1 2:-2 3:0 4:-4 5:-3 6:-4 7:0 8:-3 9:2 10:0 11:-2 12:0 13:0 14:-2 15:0 16:-2 17:-2 18:-2 19:0 20:-2 21:1 22:0 23:-2 24:0 25:0 26:-1 27:0 28:0 29:-1 30:0 31:0 32:-1 33:0 34:0 35:-1 36:0 37:0 38:-1 39:0 40:3 41:0 42:2 43:0 44:0 45:-1 46:0 47:-1 48:0 49:0 50:3 51:0 52:5 53:3 54:5 55:0 56:3 57:-2 58:0 59:2 60:0 
62.09192064037565 1:1 2:-3 3:1 4:-4 5:-4 6:-1 7:0 8:-3 9:1 10:-1 11:-3 12:0 13:1 14:1 15:1 16:-2 17:-1 18:2 19:0 20:0 21:0 22:-1 23:0 24:0 25:-1 26:1 27:0 28:0 29:0 30:1 31:0 32:0 33:0 34:-1 35:1 36:0 37:-1 38:0 39:0 40:4 41:1 42:0 43:0 44:0 45:0 46:0 47:-1 48:0 49:-1 50:0 51:0 52:5 53:2 54:1 55:0 56:1 57:1 58:0 59:0 60:0 
138.5221631450369 1:-1 2:0 3:0 4:0 5:1 6:-1 7:0 8:0 9:0 10:0 11:0 12:0 13:-1 14:0 15:0 16:0 17:1 18:-1 19:-1 20:1 21:0 22:0 23:1 24:0 25:-1 26:-2 27:0 28:1 29:-1 30:0 31:-1 32:-1 33:1 34:0 35:-1 36:0 37:-1 38:-1 39:0 40:1 41:-1 42:1 43:-1 44:-2 45:1 46:0 47:-1 48:0 49:1 50:0 51:1 52:2 53:0 54:2 55:0 56:-2 57:1 58:0 59:0 60:0 
98.3907216942383 1:-1 2:0 3:0 4:-1 5:1 6:-2 7:-1 8:2 9:-1 10:0 11:1 12:0 13:-1 14:-2 15:0 16:0 17:-1 18:-1 19:-1 20:0 21:0 22:0 23:-1 24:0 25:-1 26:-1 27:0 28:0 29:-1 30:0 31:-1 32:-1 33:0 34:0 35:-1 36:0 37:1 38:0 39:1 40:1 41:0 42:1 43:0 44:-1 45:0 46:0 47:0 48:0 49:1 50:0 51:2 52:2 53:-1 54:2 55:0 56:0 57:1 58:0 59:0 60:0 
137.9094013966375 1:-2 2:-2 3:-1 4:-1 5:0 6:-1 7:-1 8:0 9:0 10:0 11:-1 12:0 13:-2 14:-1 15:-1 16:-1 17:0 18:0 19:-1 20:-1 21:0 22:0 23:-1 24:0 25:0 26:0 27:0 28:0 29:1 30:1 31:0 32:-1 33:0 34:0 35:0 36:0 37:0 38:0 39:1 40:1 41:0 42:2 43:0 44:0 45:1 46:0 47:0 48:0 49:0 50:1 51:1 52:2 53:-1 54:2 55:1 56:1 57:1 58:0 59:0 60:0 
139.6997006766762 1:-2 2:-2 3:-1 4:-1 5:0 6:-1 7:-1 8:-2 9:0 10:0 11:-1 12:0 13:0 14:-1 15:0 16:0 17:1 18:0 19:0 20:-2 21:0 22:0 23:0 24:0 25:0 26:-1 27:1 28:1 29:0 30:1 31:0 32:-1 33:1 34:0 35:0 36:0 37:0 38:0 39:1 40:2 41:-1 42:1 43:1 44:0 45:1 46:0 47:0 48:0 49:0 50:0 51:1 52:2 53:-1 54:1 55:1 56:1 57:1 58:0 59:1 60:0 
3.806443997640495 1:0 2:-1 3:1 4:1 5:-1 6:0 7:0 8:-3 9:1 10:0 11:-1 12:0 13:0 14:1 15:1 16:0 17:1 18:0 19:0 20:0 21:1 22:0 23:0 24:0 25:-1 26:0 27:-1 28:0 29:0 30:0 31:0 32:1 33:0 34:0 35:0 36:0 37:-1 38:0 39:-1 40:0 41:-1 42:0 43:0 44:0 45:0 46:0 47:0 48:0 49:-1 50:0 51:0 52:0 53:-1 54:0 55:0 56:0 57:0 58:0 59:0 60:0 
139.6997006766762 1:0 2:1 3:2 4:1 5:1 6:0 7:0 8:-1 9:1 10:0 11:0 12:0 13:-1 14:0 15:0 16:1 17:0 18:0 19:0 20:0 21:0 22:0 23:0 24:0 25:-1 26:0 27:0 28:1 29:-1 30:0 31:0 32:-1 33:0 34:0 35:0 36:0 37:-1 38:0 39:1 40:1 41:-1 42:0 43:0 44:-1 45:0 46:0 47:0 48:0 49:-1 50:-1 51:1 52:0 53:-2 54:0 55:0 56:-1 57:0 58:0 59:-1 60:0 
139.6997006766762 1:0 2:0 3:0 4:1 5:1 6:1 7:0 8:0 9:0 10:0 11:0 12:0 13:0 14:0 15:0 16:1 17:0 18:1 19:0 20:-1 21:0 22:0 23:0 24:0 25:0 26:0 27:1 28:1 29:0 30:1 31:0 32:-1 33:0 34:0 35:0 36:0 37:0 38:-1 39:1 40:0 41:-1 42:1 43:0 44:-1 45:0 46:0 47:-1 48:0 49:0 50:-1 51:1 52:0 53:-2 54:0 55:0 56:0 57:0 58:0 59:-1 60:0 
139.6997006766762 1:0 2:0 3:0 4:0 5:0 6:0 7:1 8:0 9:0 10:0 11:0 12:0 13:0 14:0 15:0 16:0 17:0 18:0 19:1 20:0 21:0 22:0 23:0 24:0 25:0 26:0 27:0 28:0 29:0 30:0 31:0 32:-1 33:0 34:0 35:0 36:0 37:0 38:0 39:0 40:0 41:0 42:0 43:0 44:-1 45:0 46:0 47:0 48:0 49:0 50:0 51:0 52:0 53:0 54:0 55:0 56:0 57:0 58:0 59:0 60:0 
7.751689994935678 1:0 2:0 3:0 4:0 5:0 6:0 7:1 8:0 9:0 10:0 11:0 12:0 13:0 14:0 15:0 16:0 17:0 18:0 19:0 20:-1 21:0 22:0 23:0 24:0 25:0 26:0 27:0 28:0 29:0 30:0 31:0 32:-1 33:0 34:0 35:0 36:0 37:0 38:0 39:0 40:0 41:0 42:0 43:0 44:0 45:0 46:0 47:0 48:0 49:0 50:-1 51:0 52:0 53:0 54:0 55:2 56:0 57:2 58:0 59:-1 60:0 
139.6997006766762 1:-1 2:2 3:0 4:0 5:0 6:0 7:1 8:1 9:0 10:-1 11:2 12:1 13:-1 14:1 15:0 16:0 17:0 18:0 19:3 20:1 21:2 22:-1 23:1 24:1 25:-1 26:0 27:0 28:0 29:0 30:0 31:3 32:1 33:2 34:-1 35:0 36:1 37:0 38:-1 39:0 40:0 41:0 42:0 43:0 44:-1 45:2 46:0 47:-1 48:1 49:1 50:-2 51:0 52:0 53:0 54:0 55:-5 56:-2 57:-2 58:0 59:-2 60:0 
34.54235100329889 1:-2 2:1 3:0 4:0 5:0 6:0 7:5 8:2 9:2 10:-1 11:1 12:1 13:-1 14:0 15:0 16:0 17:0 18:0 19:2 20:0 21:2 22:0 23:0 24:1 25:0 26:-1 27:0 28:0 29:0 30:0 31:-3 32:-1 33:-2 34:0 35:-1 36:0 37:0 38:0 39:0 40:0 41:0 42:0 43:-3 44:-1 45:-2 46:0 47:-1 48:0 49:0 50:0 51:0 52:0 53:0 54:0 55:1 56:-1 57:2 58:0 59:-1 60:0 
139.6997006766762 1:0 2:0 3:0 4:0 5:0 6:0 7:-5 8:-1 9:-5 10:0 11:0 12:0 13:0 14:0 15:0 16:0 17:0 18:0 19:-1 20:-1 21:-1 22:0 23:0 24:0 25:0 26:0 27:0 28:0 29:0 30:0 31:3 32:0 33:2 34:0 35:0 36:0 37:0 38:0 39:0 40:0 41:0 42:0 43:3 44:0 45:2 46:0 47:0 48:0 49:0 50:0 51:0 52:0 53:0 54:0 55:3 56:0 57:2 58:0 59:0 60:0 
136.8161867043097 1:0 2:0 3:0 4:0 5:0 6:0 7:0 8:0 9:1 10:0 11:0 12:0 13:0 14:0 15:0 16:0 17:0 18:0 19:0 20:0 21:1 22:0 23:0 24:0 25:0 26:0 27:0 28:0 29:0 30:0 31:0 32:0 33:1 34:0 35:0 36:0 37:0 38:0 39:0 40:0 41:0 42:0 43:0 44:0 45:0 46:0 47:0 48:0 49:0 50:0 51:0 52:0 53:0 54:0 55:0 56:0 57:0 58:0 59:0 60:0 
139.6997006766762 1:0 2:0 3:0 4:0 5:0 6:0 7:2 8:-1 9:2 10:0 11:0 12:0 13:0 14:0 15:0 16:0 17:0 18:0 19:2 20:-1 21:2 22:0 23:0 24:0 25:0 26:0 27:0 28:0 29:0 30:0 31:2 32:-1 33:2 34:0 35:0 36:0 37:0 38:0 39:0 40:0 41:0 42:0 43:-1 44:0 45:-1 46:0 47:0 48:0 49:0 50:0 51:0 52:0 53:0 54:0 55:-3 56:1 57:-4 58:0 59:0 60:0 
139.0310968039259 1:0 2:0 3:0 4:0 5:0 6:0 7:4 8:-2 9:5 10:0 11:0 12:0 13:0 14:0 15:0 16:0 17:0 18:0 19:1 20:-1 21:2 22:0 23:0 24:0 25:0 26:0 27:0 28:0 29:0 30:0 31:-1 32:0 33:-1 34:0 35:0 36:0 37:0 38:0 39:0 40:0 41:0 42:0 43:-1 44:0 45:-1 46:0 47:0 48:0 49:0 50:0 51:0 52:0 53:0 54:0 55:-1 56:0 57:-1 58:0 59:0 60:0 
139.6997006766762 1:0 2:0 3:0 4:0 5:0 6:0 7:2 8:-1 9:3 10:0 11:0 12:0 13:0 14:0 15:0 16:0 17:0 18:0 19:0 20:0 21:0 22:0 23:0 24:0 25:0 26:0 27:0 28:0 29:0 30:0 31:0 32:0 33:0 34:0 35:0 36:0 37:0 38:0 39:0 40:0 41:0 42:0 43:0 44:0 45:0 46:0 47:0 48:0 49:0 50:0 51:0 52:0 53:0 54:0 55:0 56:0 57:1 58:0 59:0 60:0 
1.751293298126848 1:-1 2:0 3:1 4:8 5:-2 6:-1 7:2 8:-3 9:5 10:-2 11:0 12:2 13:0 14:0 15:1 16:5 17:-1 18:-1 19:1 20:-2 21:1 22:-1 23:0 24:2 25:1 26:-1 27:0 28:-1 29:0 30:0 31:1 32:1 33:-2 34:1 35:-1 36:1 37:1 38:-1 39:0 40:-6 41:0 42:2 43:0 44:2 45:-2 46:2 47:-1 48:0 49:2 50:0 51:-1 52:-6 53:1 54:2 55:-1 56:2 57:-2 58:4 59:0 60:-1 
103.8848802416562 1:1 2:-2 3:0 4:-2 5:-6 6:1 7:-1 8:-3 9:-4 10:0 11:-2 12:0 13:0 14:-2 15:0 16:-2 17:-3 18:1 19:0 20:-2 21:-1 22:0 23:-2 24:0 25:-1 26:-1 27:0 28:0 29:0 30:0 31:1 32:0 33:1 34:-1 35:0 36:0 37:-1 38:0 39:0 40:1 41:3 42:-2 43:1 44:1 45:3 46:-1 47:1 48:0 49:-2 50:1 51:0 52:2 53:3 54:0 55:1 56:0 57:5 58:-2 59:2 60:0 
139.6997006766762 1:1 2:-2 3:0 4:-3 5:-5 6:2 7:0 8:-2 9:-3 10:1 11:-3 12:0 13:0 14:-1 15:0 16:-1 17:-2 18:1 19:1 20:0 21:-1 22:0 23:-1 24:0 25:0 26:0 27:0 28:0 29:1 30:-1 31:1 32:1 33:1 34:0 35:0 36:0 37:-1 38:1 39:0 40:1 41:1 42:1 43:1 44:0 45:3 46:-1 47:1 48:0 49:-1 50:1 51:0 52:1 53:2 54:1 55:1 56:0 57:4 58:-1 59:1 60:0 
139.6997006766762 1:-3 2:-1 3:2 4:-7 5:-2 6:2 7:1 8:0 9:0 10:0 11:0 12:0 13:-1 14:0 15:1 16:-5 17:-1 18:1 19:0 20:1 21:0 22:0 23:0 24:0 25:0 26:0 27:0 28:-2 29:-1 30:0 31:0 32:1 33:0 34:0 35:0 36:0 37:2 38:1 39:0 40:3 41:0 42:0 43:0 44:0 45:1 46:0 47:0 48:0 49:1 50:0 51:1 52:9 53:1 54:0 55:0 56:-4 57:2 58:0 59:0 60:0 
139.6997006766762 1:-2 2:-1 3:1 4:-9 5:-2 6:1 7:0 8:2 9:-1 10:0 11:0 12:0 13:-1 14:-1 15:0 16:-6 17:-2 18:0 19:0 20:2 21:-1 22:0 23:0 24:0 25:1 26:0 27:0 28:-1 29:-1 30:0 31:0 32:1 33:0 34:0 35:0 36:0 37:0 38:-1 39:1 40:5 41:0 42:0 43:0 44:-3 45:1 46:0 47:0 48:0 49:0 50:-1 51:1 52:8 53:1 54:0 55:0 56:-5 57:2 58:0 59:0 60:0 
106.4895724817859 1:-1 2:-1 3:0 4:-10 5:-2 6:0 7:0 8:3 9:-2 10:0 11:0 12:0 13:1 14:0 15:0 16:-5 17:-1 18:0 19:0 20:2 21:-1 22:0 23:0 24:0 25:0 26:-1 27:1 28:1 29:0 30:0 31:0 32:-2 33:0 34:0 35:0 36:0 37:0 38:-1 39:1 40:4 41:1 42:0 43:0 44:-4 45:1 46:0 47:0 48:0 49:0 50:-1 51:1 52:7 53:2 54:0 55:0 56:-3 57:2 58:0 59:0 60:0 
139.6997006766762 1:0 2:1 3:-1 4:-9 5:-2 6:0 7:0 8:4 9:-1 10:0 11:0 12:0 13:-1 14:0 15:0 16:-3 17:-1 18:0 19:0 20:0 21:0 22:0 23:0 24:0 25:-1 26:0 27:0 28:0 29:0 30:0 31:0 32:-2 33:1 34:0 35:0 36:0 37:-1 38:0 39:0 40:3 41:1 42:0 43:0 44:-1 45:2 46:0 47:0 48:0 49:-1 50:-3 51:1 52:7 53:-1 54:0 55:0 56:-2 57:1 58:0 59:-4 60:0 
139.6997006766762 1:0 2:1 3:0 4:-6 5:-1 6:-1 7:0 8:-1 9:1 10:0 11:2 12:0 13:0 14:1 15:0 16:-3 17:0 18:-1 19:0 20:0 21:2 22:0 23:2 24:0 25:0 26:-2 27:1 28:1 29:-2 30:-1 31:0 32:-1 33:1 34:0 35:-2 36:0 37:0 38:-1 39:1 40:4 41:-1 42:1 43:0 44:-1 45:0 46:0 47:-1 48:0 49:0 50:-1 51:1 52:7 53:0 54:2 55:0 56:-1 57:-1 58:0 59:-1 60:0 
139.6997006766762 1:-1 2:-1 3:0 4:-5 5:-2 6:-3 7:0 8:-1 9:2 10:0 11:-1 12:0 13:-1 14:0 15:0 16:-2 17:-1 18:-1 19:0 20:-1 21:1 22:0 23:0 24:0 25:-1 26:0 27:0 28:1 29:0 30:0 31:0 32:-1 33:0 34:0 35:0 36:0 37:0 38:0 39:0 40:3 41:1 42:2 43:0 44:0 45:-1 46:0 47:0 48:0 49:0 50:1 51:0 52:5 53:2 54:4 55:0 56:1 57:-2 58:0 59:1 60:0 
139.6997006766762 1:-1 2:-2 3:0 4:-4 5:-3 6:-4 7:0 8:-3 9:2 10:0 11:-2 12:0 13:0 14:-2 15:0 16:-2 17:-2 18:-2 19:0 20:-2 21:1 22:0 23:-2 24:0 25:0 26:-1 27:0 28:0 29:-1 30:0 31:0 32:-1 33:0 34:0 35:-1 36:0 37:0 38:-1 39:0 40:3 41:0 42:2 43:0 44:0 45:-1 46:0 47:-1 48:0 49:0 50:3 51:0 52:5 53:3 54:5 55:0 56:3 57:-2 58:0 59:2 60:0 
139.6997006766762 1:1 2:-3 3:1 4:-4 5:-4 6:-1 7:0 8:-3 9:1 10:-1 11:-3 12:0 13:1 14:1 15:1 16:-2 17:-1 18:2 19:0 20:0 21:0 22:-1 23:0 24:0 25:-1 26:1 27:0 28:0 29:0 30:1 31:0 32:0 33:0 34:-1 35:1 36:0 37:-1 38:0 39:0 40:4 41:1 42:0 43:0 44:0 45:0 46:0 47:-1 48:0 49:-1 50:0 51:0 52:5 53:2 54:1 55:0 56:1 57:1 58:0 59:0 60:0 
139.6997006766762 1:-1 2:0 3:0 4:0 5:1 6:-1 7:0 8:0 9:0 10:0 11:0 12:0 13:-1 14:0 15:0 16:0 17:1 18:-1 19:-1 20:1 21:0 22:0 23:1 24:0 25:-1 26:-2 27:0 28:1 29:-1 30:0 31:-1 32:-1 33:1 34:0 35:-1 36:0 37:-1 38:-1 39:0 40:1 41:-1 42:1 43:-1 44:-2 45:1 46:0 47:-1 48:0 49:1 50:0 51:1 52:2 53:0 54:2 55:0 56:-2 57:1 58:0 59:0 60:0 
139.6997006766762 1:-1 2:0 3:0 4:-1 5:1 6:-2 7:-1 8:2 9:-1 10:0 11:1 12:0 13:-1 14:-2 15:0 16:0 17:-1 18:-1 19:-1 20:0 21:0 22:0 23:-1 24:0 25:-1 26:-1 27:0 28:0 29:-1 30:0 31:-1 32:-1 33:0 34:0 35:-1 36:0 37:1 38:0 39:1 40:1 41:0 42:1 43:0 44:-1 45:0 46:0 47:0 48:0 49:1 50:0 51:2 52:2 53:-1 54:2 55:0 56:0 57:1 58:0 59:0 60:0 
120.5715626669688 1:-2 2:-2 3:-1 4:-1 5:0 6:-1 7:-1 8:0 9:0 10:0 11:-1 12:0 13:-2 14:-1 15:-1 16:-1 17:0 18:0 19:-1 20:-1 21:0 22:0 23:-1 24:0 25:0 26:0 27:0 28:0 29:1 30:1 31:0 32:-1 33:0 34:0 35:0 36:0 37:0 38:0 39:1 40:1 41:0 42:2 43:0 44:0 45:1 46:0 47:0 48:0 49:0 50:1 51:1 52:2 53:-1 54:2 55:1 56:1 57:1 58:0 59:0 60:0 
139.6997006766762 1:-2 2:-2 3:-1 4:-1 5:0 6:-1 7:-1 8:-2 9:0 10:0 11:-1 12:0 13:0 14:-1 15:0 16:0 17:1 18:0 19:0 20:-2 21:0 22:0 23:0 24:0 25:0 26:-1 27:1 28:1 29:0 30:1 31:0 32:-1 33:1 34:0 35:0 36:0 37:0 38:0 39:1 40:2 41:-1 42:1 43:1 44:0 45:1 46:0 47:0 48:0 49:0 50:0 51:1 52:2 53:-1 54:1 55:1 56:1 57:1 58:0 59:1 60:0 
107.6472655688478 1:0 2:-1 3:1 4:1 5:-1 6:0 7:0 8:-3 9:1 10:0 11:-1 12:0 13:0 14:1 15:1 16:0 17:1 18:0 19:0 20:0 21:1 22:0 23:0 24:0 25:-1 26:0 27:-1 28:0 29:0 30:0 31:0 32:1 33:0 34:0 35:0 36:0 37:-1 38:0 39:-1 40:0 41:-1 42:0 43:0 44:0 45:0 46:0 47:0 48:0 49:-1 50:0 51:0 52:0 53:-1 54:0 55:0 56:0 57:0 58:0 59:0 60:0 
139.6997006766762 1:0 2:1 3:2 4:1 5:1 6:0 7:0 8:-1 9:1 10:0 11:0 12:0 13:-1 14:0 15:0 16:1 17:0 18:0 19:0 20:0 21:0 22:0 23:0 24:0 25:-1 26:0 27:0 28:1 29:-1 30:0 31:0 32:-1 33:0 34:0 35:0 36:0 37:-1 38:0 39:1 40:1 41:-1 42:0 43:0 44:-1 45:0 46:0 47:0 48:0 49:-1 50:-1 51:1 52:0 53:-2 54:0 55:0 56:-1 57:0 58:0 59:-1 60:0 
139.6997006766762 1:0 2:0 3:0 4:1 5:1 6:1 7:0 8:0 9:0 10:0 11:0 12:0 13:0 14:0 15:0 16:1 17:0 18:1 19:0 20:-1 21:0 22:0 23:0 24:0 25:0 26:0 27:1 28:1 29:0 30:1 31:0 32:-1 33:0 34:0 35:0 36:0 37:0 38:-1 39:1 40:0 41:-1 42:1 43:0 44:-1 45:0 46:0 47:-1 48:0 49:0 50:-1 51:1 52:0 53:-2 54:0 55:0 56:0 57:0 58:0 59:-1 60:0 
139.6997006766762 1:0 2:0 3:0 4:0 5:0 6:0 7:1 8:0 9:0 10:0 11:0 12:0 13:0 14:0 15:0 16:0 17:0 18:0 19:1 20:0 21:0 22:0 23:0 24:0 25:0 26:0 27:0 28:0 29:0 30:0 31:0 32:-1 33:0 34:0 35:0 36:0 37:0 38:0 39:0 40:0 41:0 42:0 43:0 44:-1 45:0 46:0 47:0 48:0 49:0 50:0 51:0 52:0 53:0 54:0 55:0 56:0 57:0 58:0 59:0 60:0 
55.7146015761312 1:0 2:0 3:0 4:0 5:0 6:0 7:1 8:0 9:0 10:0 11:0 12:0 13:0 14:0 15:0 16:0 17:0 18:0 19:0 20:-1 21:0 22:0 23:0 24:0 25:0 26:0 27:0 28:0 29:0 30:0 31:0 32:-1 33:0 34:0 35:0 36:0 37:0 38:0 39:0 40:0 41:0 42:0 43:0 44:0 45:0 46:0 47:0 48:0 49:0 50:-1 51:0 52:0 53:0 54:0 55:2 56:0 57:2 58:0 59:-1 60:0 
139.6997006766762 1:-1 2:2 3:0 4:0 5:0 6:0 7:1 8:1 9:0 10:-1 11:2 12:1 13:-1 14:1 15:0 16:0 17:0 18:0 19:3 20:1 21:2 22:-1 23:1 24:1 25:-1 26:0 27:0 28:0 29:0 30:0 31:3 32:1 33:2 34:-1 35:0 36:1 37:0 38:-1 39:0 40:0 41:0 42:0 43:0 44:-1 45:2 46:0 47:-1 48:1 49:1 50:-2 51:0 52:0 53:0 54:0 55:-5 56:-2 57:-2 58:0 59:-2 60:0 
139.6997006766762 1:-2 2:1 3:0 4:0 5:0 6:0 7:5 8:2 9:2 10:-1 11:1 12:1 13:-1 14:0 15:0 16:0 17:0 18:0 19:2 20:0 21:2 22:0 23:0 24:1 25:0 26:-1 27:0 28:0 29:0 30:0 31:-3 32:-1 33:-2 34:0 35:-1 36:0 37:0 38:0 39:0 40:0 41:0 42:0 43:-3 44:-1 45:-2 46:0 47:-1 48:0 49:0 50:0 51:0 52:0 53:0 54:0 55:1 56:-1 57:2 58:0 59:-1 60:0 
139.6997006766762 1:0 2:0 3:0 4:0 5:0 6:0 7:-5 8:-1 9:-5 10:0 11:0 12:0 13:0 14:0 15:0 16:0 17:0 18:0 19:-1 20:-1 21:-1 22:0 23:0 24:0 25:0 26:0 27:0 28:0 29:0 30:0 31:3 32:0 33:2 34:0 35:0 36:0 37:0 38:0 39:0 40:0 41:0 42:0 43:3 44:0 45:2 46:0 47:0 48:0 49:0 50:0 51:0 52:0 53:0 54:0 55:3 56:0 57:2 58:0 59:0 60:0 
139.6997006766762 1:0 2:0 3:0 4:0 5:0 6:0 7:0 8:0 9:1 10:0 11:0 12:0 13:0 14:0 15:0 16:0 17:0 18:0 19:0 20:0 21:1 22:0 23:0 24:0 25:0 26:0 27:0 28:0 29:0 30:0 31:0 32:0 33:1 34:0 35:0 36:0 37:0 38:0 39:0 40:0 41:0 42:0 43:0 44:0 45:0 46:0 47:0 48:0 49:0 50:0 51:0 52:0 53:0 54:0 55:0 56:0 57:0 58:0 59:0 60:0 
139.6997006766762 1:0 2:0 3:0 4:0 5:0 6:0 7:2 8:-1 9:2 10:0 11:0 12:0 13:0 14:0 15:0 16:0 17:0 18:0 19:2 20:-1 21:2 22:0 23:0 24:0 25:0 26:0 27:0 28:0 29:0 30:0 31:2 32:-1 33:2 34:0 35:0 36:0 37:0 38:0 39:0 40:0 41:0 42:0 43:-1 44:0 45:-1 46:0 47:0 48:0 49:0 50:0 51:0 52:0 53:0 54:0 55:-3 56:1 57:-4 58:0 59:0 60:0 
40.62592671114967 1:0 2:0 3:0 4:0 5:0 6:0 7:3 8:-1 9:3 10:0 11:0 12:0 13:0 14:0 15:0 16:0 17:0 18:0 19:3 20:-1 21:3 22:0 23:0 24:0 25:0 26:0 27:0 28:0 29:0 30:0 31:0 32:0 33:0 34:0 35:0 36:0 37:0 38:0 39:0 40:0 41:0 42:0 43:-2 44:1 45:-3 46:0 47:0 48:0 49:0 50:0 51:0 52:0 53:0 54:0 55:-2 56:1 57:-3 58:0 59:0 60:0 
139.6997006766762 1:0 2:0 3:0 4:0 5:0 6:0 7:4 8:-2 9:5 10:0 11:0 12:0 13:0 14:0 15:0 16:0 17:0 18:0 19:1 20:-1 21:2 22:0 23:0 24:0 25:0 26:0 27:0 28:0 29:0 30:0 31:-1 32:0 33:-1 34:0 35:0 36:0 37:0 38:0 39:0 40:0 41:0 42:0 43:-1 44:0 45:-1 46:0 47:0 48:0 49:0 50:0 51:0 52:0 53:0 54:0 55:-1 56:0 57:-1 58:0 59:0 60:0 
139.6997006766762 1:0 2:0 3:0 4:0 5:0 6:0 7:2 8:-1 9:3 10:0 11:0 12:0 13:0 14:0 15:0 16:0 17:0 18:0 19:0 20:0 21:0 22:0 23:0 24:0 25:0 26:0 27:0 28:0 29:0 30:0 31:0 32:0 33:0 34:0 35:0 36:0 37:0 38:0 39:0 40:0 41:0 42:0 43:0 44:0 45:0 46:0 47:0 48:0 49:0 50:0 51:0 52:0 53:0 54:0 55:0 56:0 57:1 58:0 59:0 60:0 
15.09382000550442 1:0 2:0 3:1 4:0 5:0 6:0 7:0 8:0 9:-1 10:0 11:0 12:0 13:0 14:0 15:1 16:0 17:0 18:0 19:0 20:0 21:0 22:0 23:0 24:0 25:0 26:0 27:1 28:0 29:0 30:0 31:0 32:0 33:0 34:0 35:0 36:0 37:-1 38:-1 39:0 40:0 41:0 42:0 43:0 44:0 45:0 46:0 47:0 48:0 49:-1 50:-1 51:0 52:0 53:0 54:0 55:2 56:-1 57:5 58:0 59:0 60:0 
0.471652457966207 1:0 2:0 3:1 4:0 5:0 6:0 7:-1 8:0 9:-2 10:0 11:0 12:0 13:0 14:0 15:1 16:0 17:0 18:0 19:-1 20:0 21:-2 22:0 23:0 24:0 25:-1 26:-1 27:0 28:0 29:0 30:0 31:-1 32:0 33:-2 34:0 35:0 36:0 37:-1 38:-1 39:0 40:0 41:0 42:0 43:1 44:-1 45:3 46:0 47:0 48:0 49:0 50:0 51:2 52:0 53:0 54:0 55:3 56:-1 57:7 58:0 59:0 60:0 
67.33549212231486 1:-1 2:0 3:1 4:8 5:-2 6:-1 7:2 8:-3 9:5 10:-2 11:0 12:2 13:0 14:0 15:1 16:5 17:-1 18:-1 19:1 20:-2 21:1 22:-1 23:0 24:2 25:1 26:-1 27:0 28:-1 29:0 30:0 31:1 32:1 33:-2 34:1 35:-1 36:1 37:1 38:-1 39:0 40:-6 41:0 42:2 43:0 44:2 45:-2 46:2 47:-1 48:0 49:2 50:0 51:-1 52:-6 53:1 54:2 55:-1 56:2 57:-2 58:4 59:0 60:-1 
94.10150581006896 1:-1 2:0 3:2 4:7 5:-2 6:-2 7:1 8:-3 9:3 10:-3 11:0 12:2 13:0 14:-1 15:1 16:1 17:-1 18:-1 19:1 20:0 21:0 22:-1 23:-1 24:1 25:0 26:-1 27:1 28:-4 29:-1 30:1 31:0 32:1 33:0 34:0 35:-1 36:0 37:1 38:0 39:0 40:-4 41:0 42:1 43:-1 44:1 45:0 46:2 47:0 48:-1 49:2 50:0 51:0 52:-4 53:0 54:1 55:-1 56:1 57:0 58:2 59:1 60:-2 
29.09331055157975 1:2 2:-1 3:5 4:0 5:-1 6:6 7:2 8:0 9:10 10:2 11:-1 12:6 13:1 14:-1 15:3 16:-1 17:-1 18:4 19:1 20:0 21:6 22:1 23:0 24:3 25:0 26:0 27:0 28:-2 29:-1 30:1 31:0 32:0 33:3 34:1 35:0 36:1 37:-1 38:0 39:-3 40:-2 41:0 42:-2 43:0 44:0 45:-4 46:0 47:0 48:-2 49:-2 50:0 51:-5 52:1 53:2 54:-8 55:0 56:-1 57:-13 58:-1 59:1 60:-5 
89.73706028094827 1:-3 2:-4 3:6 4:-7 5:-13 6:10 7:1 8:-3 9:4 10:-1 11:-3 12:6 13:-1 14:-2 15:3 16:-3 17:-8 18:7 19:1 20:-2 21:2 22:-1 23:-2 24:4 25:1 26:0 27:0 28:2 29:2 30:2 31:0 32:-1 33:0 34:0 35:-1 36:1 37:2 38:2 39:-3 40:5 41:8 42:-6 43:0 44:1 45:-2 46:1 47:1 48:-3 49:3 50:4 51:-6 52:7 53:10 54:-13 55:0 56:3 57:-4 58:1 59:3 60:-5 
-188.3978374813333 1:0 2:0 3:0 4:0 5:-1 6:0 7:0 8:1 9:0 10:0 11:0 12:1 13:0 14:1 15:0 16:-1 17:0 18:-1 19:0 20:3 21:0 22:0 23:1 24:1 25:-1 26:1 27:0 28:-1 29:0 30:-1 31:0 32:0 33:0 34:0 35:1 36:1 37:-1 38:-2 39:0 40:0 41:0 42:0 43:0 44:-2 45:0 46:-1 47:-1 48:1 49:-1 50:-3 51:0 52:3 53:0 54:4 55:0 56:-2 57:0 58:-1 59:-2 60:0 
-2.589779141300777 1:1 2:2 3:0 4:-2 5:0 6:-2 7:1 8:4 9:1 10:0 11:2 12:1 13:0 14:2 15:0 16:-2 17:0 18:-2 19:1 20:1 21:1 22:0 23:2 24:1 25:0 26:-1 27:0 28:-1 29:0 30:-1 31:1 32:-1 33:1 34:-1 35:0 36:1 37:0 38:-2 39:0 40:2 41:0 42:3 43:1 44:-1 45:1 46:-1 47:-1 48:0 49:-1 50:-4 51:0 52:3 53:-1 54:5 55:0 56:-3 57:0 58:-1 59:-4 60:-1 
-1.552363877507491 1:0 2:-1 3:1 4:-1 5:-13 6:1 7:-1 8:-4 9:0 10:0 11:0 12:0 13:0 14:-1 15:0 16:-1 17:-7 18:1 19:-1 20:-1 21:1 22:0 23:0 24:0 25:0 26:-1 27:0 28:-1 29:0 30:0 31:0 32:0 33:1 34:0 35:-1 36:0 37:0 38:0 39:0 40:0 41:7 42:1 43:1 44:1 45:1 46:0 47:0 48:0 49:-1 50:0 51:0 52:2 53:10 54:0 55:1 56:1 57:1 58:0 59:-1 60:0 
-188.3978374813333 1:0 2:-2 3:0 4:-4 5:-10 6:1 7:-1 8:-2 9:0 10:0 11:-1 12:0 13:0 14:-1 15:0 16:-3 17:-3 18:2 19:0 20:-1 21:0 22:0 23:0 24:0 25:-1 26:-1 27:0 28:-1 29:0 30:1 31:0 32:-1 33:0 34:0 35:-1 36:0 37:-1 38:0 39:0 40:1 41:4 42:0 43:0 44:0 45:0 46:0 47:0 48:0 49:0 50:1 51:0 52:5 53:9 54:-1 55:1 56:1 57:0 58:0 59:1 60:0 
-29.28635372284489 1:-1 2:-3 3:0 4:-8 5:-8 6:2 7:-1 8:-3 9:0 10:0 11:-3 12:0 13:-1 14:-2 15:0 16:-6 17:-4 18:1 19:-1 20:-2 21:0 22:0 23:-2 24:0 25:0 26:-1 27:0 28:-2 29:1 30:0 31:0 32:-1 33:0 34:0 35:-1 36:0 37:0 38:0 39:1 40:4 41:4 42:0 43:1 44:0 45:1 46:0 47:0 48:0 49:0 50:3 51:1 52:8 53:7 54:0 55:1 56:4 57:2 58:0 59:2 60:0 
-2.756390498558357 1:-1 2:-3 3:0 4:-9 5:-8 6:1 7:-1 8:-4 9:-1 10:0 11:-3 12:0 13:0 14:-2 15:0 16:-5 17:-3 18:0 19:0 20:-3 21:-1 22:0 23:-2 24:0 25:0 26:-1 27:1 28:1 29:0 30:0 31:1 32:-2 33:0 34:0 35:-1 36:0 37:0 38:2 39:1 40:5 41:3 42:0 43:1 44:2 45:1 46:0 47:1 48:0 49:1 50:4 51:1 52:8 53:5 54:0 55:0 56:4 57:1 58:0 59:2 60:0 
-2.965515293189639 1:-2 2:-3 3:0 4:-14 5:-2 6:1 7:0 8:-2 9:0 10:0 11:-2 12:0 13:-1 14:-1 15:0 16:-11 17:0 18:1 19:-1 20:0 21:0 22:0 23:-1 24:0 25:0 26:0 27:0 28:-1 29:0 30:1 31:-1 32:0 33:0 34:0 35:0 36:0 37:1 38:0 39:0 40:8 41:0 42:-1 43:0 44:0 45:0 46:0 47:-1 48:0 49:2 50:1 51:0 52:14 53:2 54:-2 55:2 56:0 57:0 58:0 59:0 60:0 
-0.8156296423494065 1:-2 2:-2 3:0 4:-14 5:-1 6:1 7:-2 8:-1 9:0 10:-2 11:-2 12:0 13:-1 14:-1 15:0 16:-8 17:1 18:0 19:0 20:-1 21:0 22:-2 23:-1 24:0 25:0 26:0 27:0 28:1 29:0 30:0 31:0 32:0 33:0 34:-1 35:-1 36:0 37:1 38:1 39:0 40:6 41:0 42:1 43:1 44:1 45:0 46:0 47:0 48:1 49:2 50:1 51:0 52:11 53:-3 54:2 55:1 56:1 57:0 58:1 59:0 60:1 
-3.899378826111088 1:-2 2:-2 3:0 4:-13 5:2 6:-1 7:0 8:-2 9:0 10:-2 11:-1 12:0 13:-1 14:-1 15:0 16:-4 17:1 18:-1 19:0 20:-1 21:0 22:-1 23:-1 24:0 25:0 26:0 27:0 28:1 29:1 30:0 31:1 32:0 33:0 34:0 35:0 36:1 37:1 38:0 39:0 40:6 41:-2 42:1 43:1 44:0 45:0 46:1 47:0 48:1 49:1 50:0 51:0 52:11 53:-6 54:2 55:1 56:0 57:0 58:2 59:-1 60:1 
-121.3930428360187 1:-2 2:0 3:0 4:-4 5:7 6:-4 7:1 8:-2 9:-1 10:0 11:0 12:0 13:-1 14:0 15:0 16:0 17:3 18:-1 19:1 20:-1 21:0 22:0 23:0 24:0 25:-1 26:0 27:0 28:1 29:-1 30:1 31:1 32:0 33:0 34:0 35:0 36:0 37:0 38:0 39:0 40:3 41:-4 42:2 43:0 44:0 45:1 46:0 47:0 48:0 49:1 50:0 51:1 52:4 53:-7 54:3 55:0 56:0 57:1 58:0 59:0 60:0 
-2.538276550499503 1:-1 2:0 3:1 4:1 5:0 6:0 7:0 8:1 9:-1 10:-2 11:0 12:0 13:-1 14:0 15:1 16:1 17:0 18:0 19:1 20:0 21:1 22:0 23:0 24:0 25:0 26:0 27:1 28:1 29:0 30:0 31:0 32:-1 33:1 34:0 35:0 36:0 37:0 38:0 39:1 40:0 41:-1 42:0 43:0 44:-2 45:-1 46:0 47:0 48:0 49:0 50:0 51:0 52:-1 53:-1 54:0 55:1 56:-2 57:2 58:0 59:0 60:0 
-2.563545689693313 1:-1 2:0 3:1 4:1 5:0 6:0 7:1 8:1 9:1 10:0 11:0 12:0 13:0 14:0 15:1 16:1 17:0 18:0 19:0 20:0 21:1 22:0 23:0 24:0 25:0 26:0 27:1 28:0 29:-1 30:0 31:0 32:-1 33:-1 34:0 35:0 36:0 37:0 38:0 39:0 40:-1 41:-1 42:0 43:1 44:-1 45:2 46:0 47:0 48:0 49:0 50:0 51:0 52:-1 53:-1 54:0 55:0 56:-3 57:0 58:0 59:0 60:0 
-1.847464800672805 1:0 2:0 3:1 4:2 5:0 6:0 7:0 8:1 9:1 10:0 11:0 12:0 13:0 14:0 15:1 16:1 17:-1 18:0 19:0 20:0 21:-1 22:0 23:0 24:0 25:0 26:0 27:0 28:0 29:-1 30:0 31:1 32:0 33:2 34:0 35:0 36:0 37:0 38:0 39:0 40:0 41:-1 42:0 43:0 44:-2 45:0 46:0 47:0 48:0 49:0 50:0 51:0 52:0 53:-1 54:0 55:-1 56:-3 57:-1 58:0 59:0 60:0 
-188.3978374813333 1:0 2:0 3:0 4:0 5:0 6:0 7:2 8:2 9:3 10:0 11:0 12:0 13:0 14:0 15:0 16:0 17:0 18:0 19:1 20:0 21:1 22:0 23:0 24:0 25:0 26:0 27:0 28:0 29:0 30:0 31:0 32:-1 33:0 34:0 35:0 36:0 37:-1 38:0 39:0 40:0 41:0 42:0 43:0 44:-1 45:0 46:0 47:0 48:0 49:-1 50:0 51:1 52:0 53:0 54:0 55:0 56:-1 57:0 58:0 59:0 60:0 
-188.3978374813333 1:0 2:0 3:0 4:1 5:0 6:0 7:1 8:0 9:1 10:0 11:0 12:0 13:0 14:0 15:0 16:1 17:0 18:0 19:0 20:-1 21:0 22:0 23:0 24:0 25:-1 26:0 27:0 28:1 29:0 30:0 31:0 32:-1 33:0 34:0 35:0 36:0 37:-1 38:0 39:1 40:1 41:0 42:0 43:0 44:-1 45:0 46:0 47:0 48:0 49:0 50:0 51:1 52:0 53:-1 54:0 55:0 56:-1 57:1 58:0 59:0 60:0 
-188.3978374813333 1:0 2:0 3:0 4:1 5:0 6:0 7:0 8:0 9:0 10:0 11:0 12:0 13:-1 14:0 15:0 16:1 17:0 18:0 19:0 20:0 21:0 22:0 23:0 24:0 25:-1 26:0 27:1 28:1 29:0 30:0 31:0 32:0 33:0 34:0 35:0 36:0 37:0 38:0 39:1 40:0 41:-1 42:0 43:0 44:0 45:1 46:0 47:0 48:0 49:0 50:0 51:1 52:-1 53:-1 54:0 55:1 56:-1 57:1 58:0 59:0 60:0 
-188.3978374813333 1:-1 2:0 3:0 4:1 5:0 6:0 7:0 8:0 9:0 10:0 11:0 12:0 13:-1 14:0 15:1 16:1 17:0 18:0 19:0 20:0 21:0 22:0 23:0 24:0 25:0 26:0 27:1 28:0 29:-1 30:0 31:0 32:0 33:1 34:0 35:0 36:0 37:0 38:0 39:1 40:-1 41:-1 42:0 43:1 44:-1 45:1 46:0 47:0 48:0 49:0 50:0 51:1 52:-1 53:-1 54:0 55:1 56:-1 57:1 58:0 59:0 60:0 
-188.3978374813333 1:-1 2:0 3:0 4:2 5:0 6:0 7:0 8:0 9:0 10:0 11:0 12:0 13:0 14:0 15:0 16:1 17:-1 18:0 19:0 20:0 21:1 22:0 23:0 24:0 25:0 26:0 27:0 28:0 29:-1 30:0 31:1 32:-1 33:1 34:0 35:0 36:0 37:0 38:0 39:0 40:0 41:-1 42:0 43:1 44:-1 45:1 46:0 47:0 48:0 49:0 50:0 51:0 52:0 53:-1 54:0 55:-1 56:-2 57:0 58:0 59:0 60:0 
-188.3978374813333 1:0 2:0 3:0 4:1 5:0 6:0 7:1 8:1 9:1 10:0 11:0 12:0 13:0 14:0 15:0 16:0 17:0 18:0 19:2 20:0 21:1 22:0 23:0 24:0 25:0 26:0 27:0 28:0 29:0 30:0 31:2 32:0 33:1 34:0 35:0 36:0 37:0 38:0 39:0 40:0 41:0 42:0 43:0 44:-1 45:0 46:0 47:0 48:0 49:0 50:0 51:0 52:0 53:0 54:0 55:-2 56:-1 57:-2 58:0 59:0 60:0 
-188.3978374813333 1:0 2:0 3:0 4:0 5:0 6:0 7:2 8:0 9:2 10:0 11:0 12:0 13:0 14:0 15:0 16:0 17:0 18:0 19:2 20:0 21:2 22:0 23:0 24:0 25:0 26:0 27:0 28:0 29:0 30:0 31:0 32:-1 33:1 34:0 35:0 36:0 37:0 38:0 39:0 40:0 41:0 42:0 43:-2 44:-1 45:-1 46:0 47:0 48:0 49:0 50:0 51:0 52:0 53:0 54:0 55:-2 56:-1 57:-1 58:0 59:0 60:0 
-188.3978374813333 1:0 2:0 3:0 4:0 5:-1 6:0 7:0 8:1 9:0 10:0 11:0 12:1 13:0 14:1 15:0 16:-1 17:0 18:-1 19:0 20:3 21:0 22:0 23:1 24:1 25:-1 26:1 27:0 28:-1 29:0 30:-1 31:0 32:0 33:0 34:0 35:1 36:1 37:-1 38:-2 39:0 40:0 41:0 42:0 43:0 44:-2 45:0 46:-1 47:-1 48:1 49:-1 50:-3 51:0 52:3 53:0 54:4 55:0 56:-2 57:0 58:-1 59:-2 60:0 
-80.99763086227374 1:1 2:2 3:0 4:-2 5:0 6:-2 7:1 8:4 9:1 10:0 11:2 12:1 13:0 14:2 15:0 16:-2 17:0 18:-2 19:1 20:1 21:1 22:0 23:2 24:1 25:0 26:-1 27:0 28:-1 29:0 30:-1 31:1 32:-1 33:1 34:-1 35:0 36:1 37:0 38:-2 39:0 40:2 41:0 42:3 43:1 44:-1 45:1 46:-1 47:-1 48:0 49:-1 50:-4 51:0 52:3 53:-1 54:5 55:0 56:-3 57:0 58:-1 59:-4 60:-1 
-56.8320339054963 1:0 2:-1 3:1 4:-1 5:-13 6:1 7:-1 8:-4 9:0 10:0 11:0 12:0 13:0 14:-1 15:0 16:-1 17:-7 18:1 19:-1 20:-1 21:1 22:0 23:0 24:0 25:0 26:-1 27:0 28:-1 29:0 30:0 31:0 32:0 33:1 34:0 35:-1 36:0 37:0 38:0 39:0 40:0 41:7 42:1 43:1 44:1 45:1 46:0 47:0 48:0 49:-1 50:0 51:0 52:2 53:10 54:0 55:1 56:1 57:1 58:0 59:-1 60:0 
-188.3978374813333 1:0 2:-2 3:0 4:-4 5:-10 6:1 7:-1 8:-2 9:0 10:0 11:-1 12:0 13:0 14:-1 15:0 16:-3 17:-3 18:2 19:0 20:-1 21:0 22:0 23:0 24:0 25:-1 26:-1 27:0 28:-1 29:0 30:1 31:0 32:-1 33:0 34:0 35:-1 36:0 37:-1 38:0 39:0 40:1 41:4 42:0 43:0 44:0 45:0 46:0 47:0 48:0 49:0 50:1 51:0 52:5 53:9 54:-1 55:1 56:1 57:0 58:0 59:1 60:0 
-188.3978374813333 1:-1 2:-3 3:0 4:-8 5:-8 6:2 7:-1 8:-3 9:0 10:0 11:-3 12:0 13:-1 14:-2 15:0 16:-6 17:-4 18:1 19:-1 20:-2 21:0 22:0 23:-2 24:0 25:0 26:-1 27:0 28:-2 29:1 30:0 31:0 32:-1 33:0 34:0 35:-1 36:0 37:0 38:0 39:1 40:4 41:4 42:0 43:1 44:0 45:1 46:0 47:0 48:0 49:0 50:3 51:1 52:8 53:7 54:0 55:1 56:4 57:2 58:0 59:2 60:0 
-188.3978374813333 1:-2 2:0 3:0 4:-4 5:7 6:-4 7:1 8:-2 9:-1 10:0 11:0 12:0 13:-1 14:0 15:0 16:0 17:3 18:-1 19:1 20:-1 21:0 22:0 23:0 24:0 25:-1 26:0 27:0 28:1 29:-1 30:1 31:1 32:0 33:0 34:0 35:0 36:0 37:0 38:0 39:0 40:3 41:-4 42:2 43:0 44:0 45:1 46:0 47:0 48:0 49:1 50:0 51:1 52:4 53:-7 54:3 55:0 56:0 57:1 58:0 59:0 60:0 
-160.3172161172152 1:-1 2:0 3:0 4:-1 5:6 6:-1 7:1 8:-1 9:0 10:0 11:0 12:0 13:-1 14:0 15:0 16:0 17:2 18:1 19:1 20:0 21:0 22:0 23:0 24:0 25:0 26:0 27:0 28:2 29:-1 30:2 31:0 32:0 33:1 34:0 35:0 36:0 37:1 38:0 39:1 40:3 41:-4 42:3 43:0 44:0 45:1 46:0 47:0 48:0 49:1 50:-1 51:1 52:-4 53:-7 54:-2 55:0 56:-1 57:1 58:0 59:0 60:0 
-52.23662196260587 1:0 2:0 3:1 4:2 5:0 6:0 7:0 8:1 9:1 10:0 11:0 12:0 13:0 14:0 15:1 16:1 17:-1 18:0 19:0 20:0 21:-1 22:0 23:0 24:0 25:0 26:0 27:0 28:0 29:-1 30:0 31:1 32:0 33:2 34:0 35:0 36:0 37:0 38:0 39:0 40:0 41:-1 42:0 43:0 44:-2 45:0 46:0 47:0 48:0 49:0 50:0 51:0 52:0 53:-1 54:0 55:-1 56:-3 57:-1 58:0 59:0 60:0 
-188.3978374813333 1:0 2:0 3:0 4:0 5:0 6:0 7:2 8:2 9:3 10:0 11:0 12:0 13:0 14:0 15:0 16:0 17:0 18:0 19:1 20:0 21:1 22:0 23:0 24:0 25:0 26:0 27:0 28:0 29:0 30:0 31:0 32:-1 33:0 34:0 35:0 36:0 37:-1 38:0 39:0 40:0 41:0 42:0 43:0 44:-1 45:0 46:0 47:0 48:0 49:-1 50:0 51:1 52:0 53:0 54:0 55:0 56:-1 57:0 58:0 59:0 60:0 
-188.3978374813333 1:0 2:0 3:0 4:1 5:0 6:0 7:1 8:0 9:1 10:0 11:0 12:0 13:0 14:0 15:0 16:1 17:0 18:0 19:0 20:-1 21:0 22:0 23:0 24:0 25:-1 26:0 27:0 28:1 29:0 30:0 31:0 32:-1 33:0 34:0 35:0 36:0 37:-1 38:0 39:1 40:1 41:0 42:0 43:0 44:-1 45:0 46:0 47:0 48:0 49:0 50:0 51:1 52:0 53:-1 54:0 55:0 56:-1 57:1 58:0 59:0 60:0 
-188.3978374813333 1:0 2:0 3:0 4:1 5:0 6:0 7:0 8:0 9:0 10:0 11:0 12:0 13:-1 14:0 15:0 16:1 17:0 18:0 19:0 20:0 21:0 22:0 23:0 24:0 25:-1 26:0 27:1 28:1 29:0 30:0 31:0 32:0 33:0 34:0 35:0 36:0 37:0 38:0 39:1 40:0 41:-1 42:0 43:0 44:0 45:1 46:0 47:0 48:0 49:0 50:0 51:1 52:-1 53:-1 54:0 55:1 56:-1 57:1 58:0 59:0 60:0 
-188.3978374813333 1:-1 2:0 3:0 4:1 5:0 6:0 7:0 8:0 9:0 10:0 11:0 12:0 13:-1 14:0 15:1 16:1 17:0 18:0 19:0 20:0 21:0 22:0 23:0 24:0 25:0 26:0 27:1 28:0 29:-1 30:0 31:0 32:0 33:1 34:0 35:0 36:0 37:0 38:0 39:1 40:-1 41:-1 42:0 43:1 44:-1 45:1 46:0 47:0 48:0 49:0 50:0 51:1 52:-1 53:-1 54:0 55:1 56:-1 57:1 58:0 59:0 60:0 
-188.3978374813333 1:-1 2:0 3:0 4:2 5:0 6:0 7:0 8:0 9:0 10:0 11:0 12:0 13:0 14:0 15:0 16:1 17:-1 18:0 19:0 20:0 21:1 22:0 23:0 24:0 25:0 26:0 27:0 28:0 29:-1 30:0 31:1 32:-1 33:1 34:0 35:0 36:0 37:0 38:0 39:0 40:0 41:-1 42:0 43:1 44:-1 45:1 46:0 47:0 48:0 49:0 50:0 51:0 52:0 53:-1 54:0 55:-1 56:-2 57:0 58:0 59:0 60:0 
-188.3978374813333 1:0 2:0 3:0 4:1 5:0 6:0 7:1 8:1 9:1 10:0 11:0 12:0 13:0 14:0 15:0 16:0 17:0 18:0 19:2 20:0 21:1 22:0 23:0 24:0 25:0 26:0 27:0 28:0 29:0 30:0 31:2 32:0 33:1 34:0 35:0 36:0 37:0 38:0 39:0 40:0 41:0 42:0 43:0 44:-1 45:0 46:0 47:0 48:0 49:0 50:0 51:0 52:0 53:0 54:0 55:-2 56:-1 57:-2 58:0 59:0 60:0 
-188.3978374813333 1:0 2:0 3:0 4:0 5:0 6:0 7:2 8:0 9:2 10:0 11:0 12:0 13:0 14:0 15:0 16:0 17:0 18:0 19:2 20:0 21:2 22:0 23:0 24:0 25:0 26:0 27:0 28:0 29:0 30:0 31:0 32:-1 33:1 34:0 35:0 36:0 37:0 38:0 39:0 40:0 41:0 42:0 43:-2 44:-1 45:-1 46:0 47:0 48:0 49:0 50:0 51:0 52:0 53:0 54:0 55:-2 56:-1 57:-1 58:0 59:0 60:0 
-188.3978374813333 1:0 2:0 3:0 4:0 5:-1 6:0 7:0 8:1 9:0 10:0 11:0 12:1 13:0 14:1 15:0 16:-1 17:0 18:-1 19:0 20:3 21:0 22:0 23:1 24:1 25:-1 26:1 27:0 28:-1 29:0 30:-1 31:0 32:0 33:0 34:0 35:1 36:1 37:-1 38:-2 39:0 40:0 41:0 42:0 43:0 44:-2 45:0 46:-1 47:-1 48:1 49:-1 50:-3 51:0 52:3 53:0 54:4 55:0 56:-2 57:0 58:-1 59:-2 60:0 
-188.3978374813333 1:1 2:2 3:0 4:-2 5:0 6:-2 7:1 8:4 9:1 10:0 11:2 12:1 13:0 14:2 15:0 16:-2 17:0 18:-2 19:1 20:1 21:1 22:0 23:2 24:1 25:0 26:-1 27:0 28:-1 29:0 30:-1 31:1 32:-1 33:1 34:-1 35:0 36:1 37:0 38:-2 39:0 40:2 41:0 42:3 43:1 44:-1 45:1 46:-1 47:-1 48:0 49:-1 50:-4 51:0 52:3 53:-1 54:5 55:0 56:-3 57:0 58:-1 59:-4 60:-1 
-188.3978374813333 1:0 2:-1 3:1 4:-1 5:-13 6:1 7:-1 8:-4 9:0 10:0 11:0 12:0 13:0 14:-1 15:0 16:-1 17:-7 18:1 19:-1 20:-1 21:1 22:0 23:0 24:0 25:0 26:-1 27:0 28:-1 29:0 30:0 31:0 32:0 33:1 34:0 35:-1 36:0 37:0 38:0 39:0 40:0 41:7 42:1 43:1 44:1 45:1 46:0 47:0 48:0 49:-1 50:0 51:0 52:2 53:10 54:0 55:1 56:1 57:1 58:0 59:-1 60:0 
-188.3978374813333 1:0 2:-2 3:0 4:-4 5:-10 6:1 7:-1 8:-2 9:0 10:0 11:-1 12:0 13:0 14:-1 15:0 16:-3 17:-3 18:2 19:0 20:-1 21:0 22:0 23:0 24:0 25:-1 26:-1 27:0 28:-1 29:0 30:1 31:0 32:-1 33:0 34:0 35:-1 36:0 37:-1 38:0 39:0 40:1 41:4 42:0 43:0 44:0 45:0 46:0 47:0 48:0 49:0 50:1 51:0 52:5 53:9 54:-1 55:1 56:1 57:0 58:0 59:1 60:0 
-188.3978374813333 1:-1 2:-3 3:0 4:-8 5:-8 6:2 7:-1 8:-3 9:0 10:0 11:-3 12:0 13:-1 14:-2 15:0 16:-6 17:-4 18:1 19:-1 20:-2 21:0 22:0 23:-2 24:0 25:0 26:-1 27:0 28:-2 29:1 30:0 31:0 32:-1 33:0 34:0 35:-1 36:0 37:0 38:0 39:1 40:4 41:4 42:0 43:1 44:0 45:1 46:0 47:0 48:0 49:0 50:3 51:1 52:8 53:7 54:0 55:1 56:4 57:2 58:0 59:2 60:0 
-122.730803730572 1:-1 2:-3 3:0 4:-9 5:-8 6:1 7:-1 8:-4 9:-1 10:0 11:-3 12:0 13:0 14:-2 15:0 16:-5 17:-3 18:0 19:0 20:-3 21:-1 22:0 23:-2 24:0 25:0 26:-1 27:1 28:1 29:0 30:0 31:1 32:-2 33:0 34:0 35:-1 36:0 37:0 38:2 39:1 40:5 41:3 42:0 43:1 44:2 45:1 46:0 47:1 48:0 49:1 50:4 51:1 52:8 53:5 54:0 55:0 56:4 57:1 58:0 59:2 60:0 
-106.9230791226057 1:-1 2:-4 3:0 4:-11 5:-5 6:0 7:0 8:-4 9:-1 10:0 11:-3 12:0 13:-1 14:-3 15:1 16:-5 17:-2 18:0 19:1 20:-3 21:0 22:0 23:-2 24:0 25:-1 26:0 27:1 28:-1 29:1 30:0 31:1 32:1 33:1 34:0 35:0 36:0 37:0 38:2 39:1 40:2 41:3 42:0 43:0 44:3 45:1 46:0 47:1 48:0 49:1 50:3 51:1 52:12 53:3 54:0 55:0 56:3 57:1 58:0 59:2 60:0 
-93.70132630937988 1:-2 2:-3 3:0 4:-14 5:-2 6:1 7:0 8:-2 9:0 10:0 11:-2 12:0 13:-1 14:-1 15:0 16:-11 17:0 18:1 19:-1 20:0 21:0 22:0 23:-1 24:0 25:0 26:0 27:0 28:-1 29:0 30:1 31:-1 32:0 33:0 34:0 35:0 36:0 37:1 38:0 39:0 40:8 41:0 42:-1 43:0 44:0 45:0 46:0 47:-1 48:0 49:2 50:1 51:0 52:14 53:2 54:-2 55:2 56:0 57:0 58:0 59:0 60:0 
-113.7921632308055 1:-2 2:-2 3:0 4:-16 5:-1 6:2 7:-2 8:-1 9:0 10:-1 11:0 12:0 13:-1 14:-2 15:0 16:-7 17:-1 18:0 19:-1 20:-1 21:0 22:-1 23:-1 24:0 25:0 26:-1 27:0 28:-1 29:1 30:-1 31:1 32:-1 33:0 34:-1 35:0 36:0 37:1 38:0 39:0 40:8 41:0 42:-1 43:1 44:0 45:0 46:0 47:0 48:0 49:2 50:1 51:0 52:13 53:0 54:0 55:2 56:1 57:0 58:1 59:1 60:1 
-174.8934959487249 1:-2 2:-2 3:0 4:-14 5:-1 6:1 7:-2 8:-1 9:0 10:-2 11:-2 12:0 13:-1 14:-1 15:0 16:-8 17:1 18:0 19:0 20:-1 21:0 22:-2 23:-1 24:0 25:0 26:0 27:0 28:1 29:0 30:0 31:0 32:0 33:0 34:-1 35:-1 36:0 37:1 38:1 39:0 40:6 41:0 42:1 43:1 44:1 45:0 46:0 47:0 48:1 49:2 50:1 51:0 52:11 53:-3 54:2 55:1 56:1 57:0 58:1 59:0 60:1 
-135.8512533617155 1:-2 2:-2 3:0 4:-13 5:2 6:-1 7:0 8:-2 9:0 10:-2 11:-1 12:0 13:-1 14:-1 15:0 16:-4 17:1 18:-1 19:0 20:-1 21:0 22:-1 23:-1 24:0 25:0 26:0 27:0 28:1 29:1 30:0 31:1 32:0 33:0 34:0 35:0 36:1 37:1 38:0 39:0 40:6 41:-2 42:1 43:1 44:0 45:0 46:1 47:0 48:1 49:1 50:0 51:0 52:11 53:-6 54:2 55:1 56:0 57:0 58:2 59:-1 60:1 
-76.63836418144874 1:-1 2:0 3:0 4:-8 5:8 6:-3 7:0 8:-1 9:0 10:-1 11:0 12:0 13:-1 14:0 15:0 16:-3 17:4 18:-2 19:0 20:-1 21:0 22:0 23:-1 24:0 25:0 26:0 27:0 28:2 29:0 30:0 31:0 32:-1 33:0 34:0 35:-1 36:0 37:1 38:0 39:0 40:6 41:-4 42:3 43:0 44:0 45:1 46:0 47:-1 48:0 49:1 50:0 51:0 52:7 53:-8 54:5 55:0 56:1 57:1 58:0 59:-1 60:0 
-188.3978374813333 1:-2 2:0 3:0 4:-4 5:7 6:-4 7:1 8:-2 9:-1 10:0 11:0 12:0 13:-1 14:0 15:0 16:0 17:3 18:-1 19:1 20:-1 21:0 22:0 23:0 24:0 25:-1 26:0 27:0 28:1 29:-1 30:1 31:1 32:0 33:0 34:0 35:0 36:0 37:0 38:0 39:0 40:3 41:-4 42:2 43:0 44:0 45:1 46:0 47:0 48:0 49:1 50:0 51:1 52:4 53:-7 54:3 55:0 56:0 57:1 58:0 59:0 60:0 
-160.5307735662682 1:-1 2:0 3:0 4:-1 5:6 6:-1 7:1 8:-1 9:0 10:0 11:0 12:0 13:-1 14:0 15:0 16:0 17:2 18:1 19:1 20:0 21:0 22:0 23:0 24:0 25:0 26:0 27:0 28:2 29:-1 30:2 31:0 32:0 33:1 34:0 35:0 36:0 37:1 38:0 39:1 40:3 41:-4 42:3 43:0 44:0 45:1 46:0 47:0 48:0 49:1 50:-1 51:1 52:-4 53:-7 54:-2 55:0 56:-1 57:1 58:0 59:0 60:0 
-168.194203471463 1:-1 2:0 3:1 4:1 5:0 6:0 7:0 8:1 9:-1 10:-2 11:0 12:0 13:-1 14:0 15:1 16:1 17:0 18:0 19:1 20:0 21:1 22:0 23:0 24:0 25:0 26:0 27:1 28:1 29:0 30:0 31:0 32:-1 33:1 34:0 35:0 36:0 37:0 38:0 39:1 40:0 41:-1 42:0 43:0 44:-2 45:-1 46:0 47:0 48:0 49:0 50:0 51:0 52:-1 53:-1 54:0 55:1 56:-2 57:2 58:0 59:0 60:0 
-37.28658537322015 1:-1 2:0 3:1 4:1 5:0 6:0 7:1 8:1 9:1 10:0 11:0 12:0 13:0 14:0 15:1 16:1 17:0 18:0 19:0 20:0 21:1 22:0 23:0 24:0 25:0 26:0 27:1 28:0 29:-1 30:0 31:0 32:-1 33:-1 34:0 35:0 36:0 37:0 38:0 39:0 40:-1 41:-1 42:0 43:1 44:-1 45:2 46:0 47:0 48:0 49:0 50:0 51:0 52:-1 53:-1 54:0 55:0 56:-3 57:0 58:0 59:0 60:0 
-188.3978374813333 1:0 2:0 3:1 4:2 5:0 6:0 7:0 8:1 9:1 10:0 11:0 12:0 13:0 14:0 15:1 16:1 17:-1 18:0 19:0 20:0 21:-1 22:0 23:0 24:0 25:0 26:0 27:0 28:0 29:-1 30:0 31:1 32:0 33:2 34:0 35:0 36:0 37:0 38:0 39:0 40:0 41:-1 42:0 43:0 44:-2 45:0 46:0 47:0 48:0 49:0 50:0 51:0 52:0 53:-1 54:0 55:-1 56:-3 57:-1 58:0 59:0 60:0 
-68.09628112738255 1:0 2:0 3:1 4:1 5:0 6:0 7:1 8:1 9:0 10:0 11:0 12:0 13:0 14:0 15:0 16:0 17:0 18:0 19:2 20:1 21:3 22:0 23:0 24:0 25:0 26:0 27:0 28:0 29:0 30:0 31:1 32:-1 33:1 34:0 35:0 36:0 37:0 38:0 39:0 40:0 41:0 42:0 43:0 44:-2 45:0 46:0 47:0 48:0 49:-1 50:0 51:0 52:0 53:0 54:0 55:0 56:-2 57:0 58:0 59:0 60:0 
-188.3978374813333 1:0 2:0 3:0 4:0 5:0 6:0 7:2 8:2 9:3 10:0 11:0 12:0 13:0 14:0 15:0 16:0 17:0 18:0 19:1 20:0 21:1 22:0 23:0 24:0 25:0 26:0 27:0 28:0 29:0 30:0 31:0 32:-1 33:0 34:0 35:0 36:0 37:-1 38:0 39:0 40:0 41:0 42:0 43:0 44:-1 45:0 46:0 47:0 48:0 49:-1 50:0 51:1 52:0 53:0 54:0 55:0 56:-1 57:0 58:0 59:0 60:0 
-188.3978374813333 1:0 2:0 3:0 4:1 5:0 6:0 7:1 8:0 9:1 10:0 11:0 12:0 13:0 14:0 15:0 16:1 17:0 18:0 19:0 20:-1 21:0 22:0 23:0 24:0 25:-1 26:0 27:0 28:1 29:0 30:0 31:0 32:-1 33:0 34:0 35:0 36:0 37:-1 38:0 39:1 40:1 41:0 42:0 43:0 44:-1 45:0 46:0 47:0 48:0 49:0 50:0 51:1 52:0 53:-1 54:0 55:0 56:-1 57:1 58:0 59:0 60:0 
-188.3978374813333 1:0 2:0 3:0 4:1 5:0 6:0 7:0 8:0 9:0 10:0 11:0 12:0 13:-1 14:0 15:0 16:1 17:0 18:0 19:0 20:0 21:0 22:0 23:0 24:0 25:-1 26:0 27:1 28:1 29:0 30:0 31:0 32:0 33:0 34:0 35:0 36:0 37:0 38:0 39:1 40:0 41:-1 42:0 43:0 44:0 45:1 46:0 47:0 48:0 49:0 50:0 51:1 52:-1 53:-1 54:0 55:1 56:-1 57:1 58:0 59:0 60:0 
-188.3978374813333 1:-1 2:0 3:0 4:1 5:0 6:0 7:0 8:0 9:0 10:0 11:0 12:0 13:-1 14:0 15:1 16:1 17:0 18:0 19:0 20:0 21:0 22:0 23:0 24:0 25:0 26:0 27:1 28:0 29:-1 30:0 31:0 32:0 33:1 34:0 35:0 36:0 37:0 38:0 39:1 40:-1 41:-1 42:0 43:1 44:-1 45:1 46:0 47:0 48:0 49:0 50:0 51:1 52:-1 53:-1 54:0 55:1 56:-1 57:1 58:0 59:0 60:0 
-188.3978374813333 1:-1 2:0 3:0 4:2 5:0 6:0 7:0 8:0 9:0 10:0 11:0 12:0 13:0 14:0 15:0 16:1 17:-1 18:0 19:0 20:0 21:1 22:0 23:0 24:0 25:0 26:0 27:0 28:0 29:-1 30:0 31:1 32:-1 33:1 34:0 35:0 36:0 37:0 38:0 39:0 40:0 41:-1 42:0 43:1 44:-1 45:1 46:0 47:0 48:0 49:0 50:0 51:0 52:0 53:-1 54:0 55:-1 56:-2 57:0 58:0 59:0 60:0 
-188.3978374813333 1:0 2:0 3:0 4:1 5:0 6:0 7:1 8:1 9:1 10:0 11:0 12:0 13:0 14:0 15:0 16:0 17:0 18:0 19:2 20:0 21:1 22:0 23:0 24:0 25:0 26:0 27:0 28:0 29:0 30:0 31:2 32:0 33:1 34:0 35:0 36:0 37:0 38:0 39:0 40:0 41:0 42:0 43:0 44:-1 45:0 46:0 47:0 48:0 49:0 50:0 51:0 52:0 53:0 54:0 55:-2 56:-1 57:-2 58:0 59:0 60:0 
-188.3978374813333 1:0 2:0 3:0 4:0 5:0 6:0 7:2 8:0 9:2 10:0 11:0 12:0 13:0 14:0 15:0 16:0 17:0 18:0 19:2 20:0 21:2 22:0 23:0 24:0 25:0 26:0 27:0 28:0 29:0 30:0 31:0 32:-1 33:1 34:0 35:0 36:0 37:0 38:0 39:0 40:0 41:0 42:0 43:-2 44:-1 45:-1 46:0 47:0 48:0 49:0 50:0 51:0 52:0 53:0 54:0 55:-2 56:-1 57:-1 58:0 59:0 60:0 
