svm_type c_svc
kernel_type rbf
gamma 6.10352e-005
nr_class 2
total_sv 158
rho -10.5836
label 1 3
nr_sv 115 43
SV
1.28510397958612 1:0 2:0 3:0 4:3 5:4 6:1 7:-3 8:2 9:1 10:0 11:0 12:0 13:0 14:0 15:-1 16:3 17:1 18:0 19:-2 20:0 21:0 22:0 23:0 24:0 25:0 26:0 27:-1 28:2 29:-2 30:0 31:0 32:-1 33:0 34:0 35:0 36:0 37:0 38:0 39:-1 40:-2 41:-2 42:0 43:3 44:-1 45:-1 46:0 47:0 48:0 49:0 50:0 51:-1 52:-6 53:-2 54:-1 55:5 56:0 57:-1 58:0 59:0 60:0 
13.30370295489276 1:0 2:0 3:-1 4:2 5:-3 6:-1 7:-1 8:-3 9:-2 10:0 11:0 12:0 13:0 14:0 15:0 16:0 17:-2 18:-1 19:1 20:-2 21:1 22:0 23:0 24:0 25:0 26:0 27:0 28:0 29:-1 30:-1 31:1 32:0 33:1 34:0 35:0 36:0 37:0 38:0 39:0 40:-1 41:1 42:0 43:1 44:2 45:0 46:0 47:0 48:0 49:0 50:0 51:0 52:-1 53:2 54:1 55:1 56:2 57:-3 58:0 59:0 60:0 
13.30370295489276 1:0 2:0 3:-1 4:0 5:-3 6:-2 7:0 8:-3 9:1 10:0 11:0 12:0 13:0 14:0 15:-1 16:0 17:-2 18:-2 19:0 20:-1 21:1 22:0 23:0 24:0 25:0 26:0 27:-1 28:-1 29:0 30:-1 31:0 32:1 33:0 34:0 35:0 36:0 37:0 38:0 39:-1 40:-1 41:1 42:0 43:0 44:1 45:-3 46:0 47:0 48:0 49:1 50:-1 51:2 52:-1 53:1 54:1 55:0 56:2 57:-3 58:0 59:0 60:0 
13.30370295489276 1:0 2:0 3:-3 4:0 5:-1 6:-1 7:1 8:-1 9:2 10:0 11:0 12:0 13:0 14:0 15:-3 16:0 17:0 18:0 19:1 20:-1 21:-1 22:0 23:0 24:0 25:1 26:-1 27:0 28:0 29:0 30:1 31:1 32:0 33:-1 34:0 35:0 36:0 37:1 38:-1 39:1 40:0 41:0 42:0 43:0 44:-1 45:0 46:0 47:0 48:0 49:1 50:-1 51:2 52:0 53:0 54:0 55:0 56:-1 57:0 58:0 59:0 60:0 
13.30370295489276 1:0 2:0 3:-1 4:-2 5:0 6:0 7:2 8:1 9:-2 10:1 11:0 12:0 13:0 14:0 15:0 16:-2 17:0 18:-1 19:1 20:0 21:-1 22:1 23:0 24:0 25:0 26:0 27:1 28:-2 29:0 30:-1 31:1 32:0 33:-1 34:1 35:0 36:0 37:0 38:0 39:1 40:0 41:0 42:-1 43:0 44:-2 45:0 46:0 47:0 48:0 49:0 50:0 51:1 52:3 53:0 54:-1 55:0 56:-3 57:0 58:0 59:0 60:0 
13.30370295489276 1:0 2:0 3:0 4:-3 5:0 6:0 7:1 8:1 9:-1 10:1 11:0 12:0 13:0 14:0 15:1 16:-3 17:0 18:0 19:1 20:1 21:-1 22:1 23:0 24:0 25:0 26:0 27:1 28:-1 29:0 30:0 31:0 32:-1 33:0 34:0 35:0 36:0 37:0 38:0 39:1 40:2 41:0 42:0 43:0 44:-2 45:0 46:0 47:0 48:0 49:0 50:0 51:1 52:2 53:0 54:0 55:0 56:-3 57:2 58:0 59:0 60:0 
13.30370295489276 1:0 2:0 3:0 4:-4 5:0 6:0 7:1 8:2 9:-2 10:1 11:0 12:0 13:0 14:0 15:0 16:-2 17:0 18:0 19:0 20:0 21:-1 22:0 23:0 24:0 25:0 26:0 27:0 28:1 29:0 30:0 31:0 32:-1 33:-1 34:0 35:0 36:0 37:0 38:0 39:0 40:1 41:0 42:0 43:0 44:-2 45:1 46:0 47:0 48:0 49:1 50:0 51:1 52:1 53:-1 54:0 55:-1 56:-3 57:2 58:0 59:0 60:0 
13.30370295489276 1:1 2:-1 3:0 4:-2 5:2 6:-1 7:0 8:2 9:0 10:0 11:1 12:0 13:0 14:-1 15:0 16:-1 17:1 18:0 19:0 20:1 21:-1 22:0 23:1 24:0 25:0 26:0 27:0 28:1 29:0 30:0 31:0 32:0 33:-1 34:0 35:0 36:0 37:0 38:0 39:0 40:1 41:-2 42:0 43:1 44:-1 45:-1 46:0 47:0 48:0 49:0 50:1 51:0 52:1 53:-2 54:0 55:1 56:-2 57:-1 58:0 59:0 60:0 
13.30370295489276 1:0 2:-2 3:0 4:-2 5:2 6:-1 7:0 8:2 9:0 10:0 11:1 12:0 13:0 14:-1 15:0 16:0 17:1 18:-1 19:0 20:1 21:0 22:0 23:0 24:0 25:0 26:-1 27:0 28:0 29:-1 30:-1 31:1 32:0 33:0 34:0 35:0 36:0 37:0 38:0 39:0 40:0 41:-1 42:-1 43:1 44:-1 45:0 46:0 47:0 48:0 49:0 50:0 51:1 52:0 53:-2 54:0 55:1 56:-2 57:0 58:0 59:-1 60:0 
13.30370295489276 1:0 2:-1 3:0 4:0 5:2 6:-1 7:0 8:2 9:0 10:0 11:1 12:0 13:0 14:-1 15:0 16:0 17:0 18:-1 19:1 20:1 21:0 22:0 23:1 24:0 25:0 26:0 27:0 28:0 29:0 30:-1 31:1 32:0 33:0 34:0 35:1 36:0 37:0 38:0 39:1 40:0 41:-1 42:0 43:1 44:-1 45:0 46:0 47:0 48:0 49:0 50:0 51:1 52:-1 53:-2 54:1 55:0 56:-2 57:0 58:0 59:0 60:0 
13.30370295489276 1:0 2:0 3:0 4:0 5:1 6:0 7:0 8:0 9:0 10:0 11:0 12:0 13:0 14:0 15:0 16:0 17:1 18:0 19:0 20:0 21:0 22:0 23:0 24:0 25:0 26:0 27:0 28:0 29:1 30:0 31:0 32:0 33:0 34:0 35:0 36:0 37:0 38:0 39:0 40:0 41:0 42:0 43:0 44:0 45:0 46:0 47:0 48:0 49:0 50:0 51:0 52:0 53:-3 54:-1 55:0 56:-2 57:0 58:0 59:0 60:-1 
6.088890181647408 1:0 2:0 3:0 4:0 5:1 6:0 7:0 8:-1 9:0 10:0 11:0 12:0 13:0 14:0 15:0 16:0 17:0 18:0 19:0 20:-1 21:0 22:0 23:0 24:0 25:0 26:0 27:0 28:0 29:-3 30:-1 31:0 32:-3 33:0 34:0 35:0 36:-1 37:0 38:0 39:0 40:0 41:1 42:-1 43:0 44:1 45:0 46:0 47:0 48:-1 49:0 50:0 51:0 52:0 53:3 54:-1 55:0 56:3 57:0 58:0 59:0 60:-1 
13.30370295489276 1:0 2:0 3:0 4:0 5:-1 6:0 7:0 8:-2 9:0 10:0 11:0 12:0 13:0 14:0 15:0 16:0 17:-4 18:-1 19:0 20:-4 21:0 22:0 23:0 24:-1 25:0 26:0 27:0 28:0 29:0 30:-1 31:0 32:0 33:0 34:0 35:0 36:-1 37:0 38:0 39:0 40:0 41:2 42:-1 43:0 44:2 45:0 46:0 47:0 48:-1 49:0 50:0 51:0 52:0 53:4 54:-1 55:0 56:4 57:0 58:0 59:0 60:-1 
13.30370295489276 1:0 2:0 3:1 4:-1 5:-6 6:-1 7:1 8:-6 9:0 10:0 11:0 12:0 13:0 14:0 15:1 16:-1 17:-2 18:-1 19:1 20:-2 21:0 22:0 23:0 24:0 25:0 26:0 27:1 28:-1 29:0 30:-1 31:1 32:0 33:0 34:0 35:0 36:0 37:0 38:0 39:1 40:-1 41:2 42:-1 43:1 44:2 45:0 46:0 47:0 48:0 49:0 50:0 51:0 52:0 53:6 54:0 55:-1 56:4 57:0 58:0 59:0 60:0 
13.30370295489276 1:0 2:0 3:1 4:-1 5:-4 6:-1 7:2 8:-4 9:0 10:1 11:0 12:-1 13:0 14:0 15:1 16:-1 17:-2 18:-1 19:2 20:-2 21:0 22:1 23:0 24:-1 25:0 26:0 27:1 28:-1 29:0 30:-1 31:2 32:0 33:0 34:1 35:0 36:-1 37:0 38:0 39:0 40:0 41:4 42:0 43:0 44:2 45:0 46:1 47:0 48:-1 49:0 50:0 51:-1 52:1 53:5 54:0 55:-2 56:2 57:0 58:0 59:0 60:0 
13.30370295489276 1:0 2:0 3:1 4:-1 5:-4 6:-1 7:2 8:-3 9:0 10:1 11:0 12:-1 13:0 14:0 15:1 16:-1 17:-2 18:-1 19:2 20:-1 21:0 22:1 23:0 24:-1 25:0 26:0 27:0 28:0 29:2 30:0 31:0 32:1 33:0 34:1 35:0 36:-1 37:0 38:0 39:-1 40:1 41:3 42:0 43:-2 44:1 45:0 46:0 47:0 48:0 49:0 50:0 51:-1 52:1 53:3 54:0 55:-2 56:1 57:0 58:0 59:0 60:0 
13.30370295489276 1:0 2:0 3:1 4:-2 5:-3 6:-1 7:3 8:-2 9:0 10:1 11:0 12:-1 13:0 14:0 15:0 16:-1 17:1 18:0 19:1 20:0 21:0 22:1 23:0 24:-1 25:0 26:0 27:-1 28:0 29:2 30:0 31:-1 32:0 33:0 34:0 35:0 36:0 37:0 38:0 39:-1 40:0 41:2 42:0 43:-1 44:0 45:0 46:0 47:0 48:0 49:-1 50:0 51:-1 52:0 53:2 54:0 55:0 56:-1 57:0 58:0 59:0 60:0 
13.30370295489276 1:0 2:0 3:0 4:-1 5:0 6:0 7:1 8:0 9:0 10:1 11:0 12:-1 13:0 14:0 15:-1 16:0 17:1 18:0 19:-1 20:0 21:0 22:0 23:0 24:0 25:0 26:0 27:-1 28:0 29:1 30:0 31:-1 32:0 33:0 34:0 35:0 36:0 37:-1 38:0 39:-1 40:0 41:1 42:0 43:0 44:-1 45:0 46:0 47:0 48:0 49:-1 50:0 51:-1 52:-1 53:1 54:-1 55:1 56:-1 57:0 58:0 59:0 60:0 
13.30370295489276 1:0 2:0 3:0 4:0 5:0 6:0 7:-1 8:0 9:-1 10:0 11:0 12:0 13:0 14:0 15:0 16:0 17:0 18:0 19:-1 20:0 21:-1 22:0 23:0 24:0 25:-1 26:0 27:0 28:0 29:0 30:0 31:0 32:-1 33:-1 34:0 35:0 36:0 37:-1 38:0 39:0 40:-1 41:0 42:-1 43:1 44:-1 45:-1 46:0 47:0 48:0 49:-1 50:0 51:0 52:-1 53:0 54:-1 55:1 56:-1 57:0 58:0 59:0 60:0 
13.30370295489276 1:0 2:0 3:0 4:0 5:0 6:0 7:-1 8:0 9:-1 10:0 11:0 12:0 13:-1 14:0 15:0 16:0 17:0 18:0 19:0 20:-1 21:-1 22:0 23:0 24:0 25:-1 26:0 27:0 28:-1 29:0 30:-1 31:1 32:-1 33:-1 34:0 35:0 36:0 37:-1 38:0 39:0 40:-1 41:0 42:-1 43:1 44:-1 45:0 46:0 47:0 48:0 49:-1 50:0 51:0 52:-1 53:0 54:-1 55:1 56:-1 57:0 58:0 59:0 60:0 
1.062812055219824 1:0 2:0 3:0 4:0 5:0 6:-1 7:3 8:-1 9:-1 10:0 11:0 12:0 13:0 14:0 15:0 16:-1 17:0 18:-1 19:2 20:-1 21:-1 22:0 23:0 24:0 25:0 26:0 27:0 28:-1 29:0 30:0 31:0 32:0 33:-1 34:0 35:0 36:0 37:-1 38:0 39:0 40:-1 41:1 42:0 43:0 44:0 45:0 46:0 47:0 48:0 49:-1 50:0 51:0 52:0 53:3 54:1 55:-1 56:1 57:2 58:1 59:1 60:0 
13.30370295489276 1:0 2:0 3:0 4:-1 5:-2 6:-2 7:3 8:-2 9:-2 10:0 11:0 12:0 13:0 14:0 15:0 16:-1 17:-2 18:-1 19:1 20:-1 21:-2 22:0 23:0 24:0 25:-1 26:0 27:0 28:-1 29:-1 30:-1 31:1 32:-1 33:-1 34:0 35:0 36:0 37:-1 38:0 39:0 40:0 41:1 42:0 43:0 44:0 45:1 46:1 47:1 48:0 49:0 50:0 51:0 52:2 53:4 54:2 55:-1 56:2 57:2 58:1 59:1 60:0 
13.30370295489276 1:0 2:0 3:0 4:-2 5:-3 6:-2 7:2 8:-2 9:-3 10:0 11:0 12:0 13:-1 14:0 15:0 16:-2 17:-2 18:-2 19:2 20:-2 21:-2 22:0 23:0 24:0 25:-1 26:0 27:0 28:-1 29:0 30:-1 31:1 32:-1 33:0 34:1 35:1 36:0 37:0 38:0 39:0 40:1 41:3 42:1 43:0 44:1 45:1 46:1 47:1 48:0 49:1 50:0 51:0 52:2 53:5 54:3 55:-1 56:3 57:2 58:1 59:1 60:0 
13.30370295489276 1:0 2:0 3:1 4:0 5:1 6:-4 7:0 8:1 9:-1 10:1 11:0 12:-1 13:0 14:0 15:1 16:-2 17:0 18:-1 19:0 20:0 21:-1 22:1 23:0 24:-1 25:0 26:-1 27:0 28:-2 29:0 30:0 31:-1 32:1 33:1 34:0 35:0 36:0 37:0 38:-1 39:-1 40:1 41:0 42:2 43:0 44:0 45:1 46:0 47:0 48:0 49:0 50:0 51:-1 52:3 53:0 54:2 55:1 56:0 57:0 58:0 59:0 60:0 
13.30370295489276 1:0 2:0 3:-1 4:-1 5:1 6:0 7:3 8:3 9:0 10:0 11:0 12:-1 13:0 14:0 15:-1 16:-1 17:1 18:1 19:2 20:2 21:1 22:0 23:0 24:-1 25:0 26:0 27:-1 28:0 29:0 30:-1 31:1 32:2 33:-3 34:0 35:0 36:-1 37:-2 38:0 39:0 40:0 41:0 42:-3 43:-3 44:0 45:-2 46:0 47:0 48:-1 49:-2 50:0 51:-1 52:0 53:0 54:-1 55:-3 56:-4 57:0 58:0 59:0 60:0 
13.30370295489276 1:1 2:0 3:-1 4:-1 5:2 6:1 7:4 8:4 9:0 10:0 11:0 12:-1 13:1 14:0 15:-1 16:0 17:1 18:-1 19:3 20:4 21:-4 22:0 23:0 24:-1 25:-1 26:0 27:0 28:0 29:1 30:-3 31:-1 32:2 33:-3 34:0 35:0 36:-1 37:-1 38:0 39:-1 40:0 41:1 42:-1 43:-1 44:-2 45:-1 46:0 47:0 48:0 49:-2 50:-2 51:0 52:0 53:-1 54:2 55:-2 56:-5 57:6 58:0 59:0 60:0 
13.30370295489276 1:2 2:0 3:-1 4:0 5:1 6:-2 7:4 8:6 9:-5 10:0 11:0 12:-1 13:0 14:0 15:0 16:0 17:1 18:-4 19:0 20:4 21:-4 22:0 23:0 24:-1 25:0 26:0 27:-1 28:0 29:1 30:-2 31:0 32:0 33:-2 34:0 35:0 36:0 37:-1 38:-2 39:0 40:0 41:-1 42:1 43:-1 44:-3 45:5 46:0 47:0 48:0 49:-2 50:-2 51:0 52:0 53:-1 54:3 55:-1 56:-4 57:6 58:0 59:0 60:0 
13.30370295489276 1:-1 2:-1 3:1 4:2 5:2 6:1 7:-2 8:0 9:3 10:1 11:0 12:0 13:-1 14:-1 15:1 16:2 17:2 18:2 19:-1 20:0 21:0 22:1 23:0 24:0 25:-1 26:-1 27:0 28:-1 29:-1 30:3 31:1 32:0 33:-1 34:0 35:0 36:0 37:1 38:0 39:-2 40:-1 41:0 42:-1 43:2 44:0 45:-2 46:0 47:0 48:0 49:2 50:2 51:-2 52:-4 53:0 54:-5 55:3 56:0 57:-2 58:0 59:0 60:0 
13.30370295489276 1:-2 2:-2 3:2 4:4 5:2 6:3 7:-2 8:0 9:1 10:1 11:0 12:0 13:-2 14:-2 15:1 16:1 17:-1 18:4 19:0 20:0 21:0 22:0 23:0 24:0 25:0 26:-1 27:-1 28:1 29:0 30:0 31:1 32:0 33:-1 34:0 35:0 36:0 37:1 38:1 39:-1 40:-2 41:0 42:-4 43:2 44:0 45:-1 46:0 47:0 48:0 49:3 50:2 51:-2 52:-6 53:0 54:-5 55:2 56:0 57:0 58:-1 59:0 60:0 
13.30370295489276 1:-1 2:0 3:-1 4:-1 5:3 6:-3 7:-4 8:3 9:1 10:0 11:0 12:0 13:1 14:0 15:0 16:-1 17:0 18:-1 19:-1 20:1 21:3 22:0 23:0 24:0 25:1 26:0 27:0 28:-1 29:-1 30:0 31:0 32:0 33:3 34:-1 35:0 36:0 37:1 38:-1 39:0 40:-1 41:-1 42:2 43:3 44:0 45:-1 46:-1 47:0 48:0 49:1 50:-1 51:0 52:0 53:1 54:2 55:5 56:0 57:-4 58:-1 59:0 60:0 
13.30370295489276 1:0 2:0 3:0 4:-1 5:0 6:-2 7:-3 8:1 9:4 10:1 11:0 12:1 13:0 14:0 15:0 16:-1 17:-1 18:-1 19:-2 20:0 21:4 22:0 23:0 24:1 25:0 26:-1 27:0 28:-1 29:-1 30:1 31:1 32:0 33:0 34:0 35:0 36:1 37:0 38:-1 39:0 40:0 41:1 42:1 43:3 44:0 45:-3 46:0 47:0 48:1 49:0 50:0 51:0 52:0 53:1 54:2 55:3 56:-1 57:-1 58:-1 59:0 60:0 
13.30370295489276 1:0 2:-1 3:-1 4:-1 5:3 6:3 7:-2 8:6 9:-3 10:0 11:0 12:0 13:0 14:-1 15:-1 16:-1 17:2 18:5 19:0 20:3 21:0 22:0 23:0 24:0 25:1 26:0 27:-1 28:-1 29:1 30:6 31:3 32:0 33:2 34:-1 35:0 36:0 37:1 38:-1 39:0 40:0 41:-1 42:-1 43:3 44:-2 45:3 46:-1 47:0 48:-1 49:1 50:-1 51:0 52:0 53:-1 54:-9 55:-3 56:-3 57:2 58:-1 59:0 60:0 
4.020397168401261 1:0 2:-1 3:0 4:-2 5:7 6:3 7:2 8:10 9:2 10:0 11:0 12:0 13:0 14:-1 15:0 16:-2 17:5 18:3 19:0 20:4 21:0 22:0 23:0 24:0 25:0 26:-1 27:-1 28:-2 29:0 30:-1 31:-1 32:-2 33:-1 34:0 35:0 36:-1 37:0 38:0 39:-1 40:1 41:-6 42:-4 43:-1 44:-7 45:0 46:0 47:0 48:-1 49:0 50:0 51:-2 52:1 53:-9 54:-5 55:0 56:-9 57:-1 58:0 59:0 60:-1 
13.30370295489276 1:0 2:0 3:0 4:3 5:4 6:1 7:-3 8:2 9:1 10:0 11:0 12:0 13:0 14:0 15:-1 16:3 17:1 18:0 19:-2 20:0 21:0 22:0 23:0 24:0 25:0 26:0 27:-1 28:2 29:-2 30:0 31:0 32:-1 33:0 34:0 35:0 36:0 37:0 38:0 39:-1 40:-2 41:-2 42:0 43:3 44:-1 45:-1 46:0 47:0 48:0 49:0 50:0 51:-1 52:-6 53:-2 54:-1 55:5 56:0 57:-1 58:0 59:0 60:0 
13.30370295489276 1:0 2:0 3:-1 4:6 5:-1 6:0 7:-4 8:-2 9:-1 10:0 11:0 12:0 13:0 14:0 15:-1 16:2 17:-1 18:0 19:-1 20:-2 21:-2 22:0 23:0 24:0 25:0 26:0 27:-1 28:-2 29:-1 30:-1 31:1 32:-1 33:-2 34:0 35:0 36:0 37:0 38:0 39:0 40:-4 41:0 42:-1 43:3 44:0 45:1 46:0 47:0 48:0 49:0 50:0 51:0 52:-4 53:1 54:-1 55:3 56:2 57:1 58:0 59:0 60:0 
13.30370295489276 1:0 2:0 3:-1 4:2 5:-3 6:-1 7:-1 8:-3 9:-2 10:0 11:0 12:0 13:0 14:0 15:0 16:0 17:-2 18:-1 19:1 20:-2 21:1 22:0 23:0 24:0 25:0 26:0 27:0 28:0 29:-1 30:-1 31:1 32:0 33:1 34:0 35:0 36:0 37:0 38:0 39:0 40:-1 41:1 42:0 43:1 44:2 45:0 46:0 47:0 48:0 49:0 50:0 51:0 52:-1 53:2 54:1 55:1 56:2 57:-3 58:0 59:0 60:0 
13.30370295489276 1:0 2:0 3:-1 4:0 5:-3 6:-2 7:0 8:-3 9:1 10:0 11:0 12:0 13:0 14:0 15:-1 16:0 17:-2 18:-2 19:0 20:-1 21:1 22:0 23:0 24:0 25:0 26:0 27:-1 28:-1 29:0 30:-1 31:0 32:1 33:0 34:0 35:0 36:0 37:0 38:0 39:-1 40:-1 41:1 42:0 43:0 44:1 45:-3 46:0 47:0 48:0 49:1 50:-1 51:2 52:-1 53:1 54:1 55:0 56:2 57:-3 58:0 59:0 60:0 
13.30370295489276 1:0 2:0 3:-3 4:0 5:-1 6:-1 7:1 8:-1 9:2 10:0 11:0 12:0 13:0 14:0 15:-3 16:0 17:0 18:0 19:1 20:-1 21:-1 22:0 23:0 24:0 25:1 26:-1 27:0 28:0 29:0 30:1 31:1 32:0 33:-1 34:0 35:0 36:0 37:1 38:-1 39:1 40:0 41:0 42:0 43:0 44:-1 45:0 46:0 47:0 48:0 49:1 50:-1 51:2 52:0 53:0 54:0 55:0 56:-1 57:0 58:0 59:0 60:0 
13.30370295489276 1:0 2:0 3:-1 4:-2 5:0 6:0 7:2 8:1 9:-2 10:1 11:0 12:0 13:0 14:0 15:0 16:-2 17:0 18:-1 19:1 20:0 21:-1 22:1 23:0 24:0 25:0 26:0 27:1 28:-2 29:0 30:-1 31:1 32:0 33:-1 34:1 35:0 36:0 37:0 38:0 39:1 40:0 41:0 42:-1 43:0 44:-2 45:0 46:0 47:0 48:0 49:0 50:0 51:1 52:3 53:0 54:-1 55:0 56:-3 57:0 58:0 59:0 60:0 
13.30370295489276 1:0 2:0 3:0 4:-3 5:0 6:0 7:1 8:1 9:-1 10:1 11:0 12:0 13:0 14:0 15:1 16:-3 17:0 18:0 19:1 20:1 21:-1 22:1 23:0 24:0 25:0 26:0 27:1 28:-1 29:0 30:0 31:0 32:-1 33:0 34:0 35:0 36:0 37:0 38:0 39:1 40:2 41:0 42:0 43:0 44:-2 45:0 46:0 47:0 48:0 49:0 50:0 51:1 52:2 53:0 54:0 55:0 56:-3 57:2 58:0 59:0 60:0 
13.30370295489276 1:0 2:0 3:0 4:-4 5:0 6:0 7:1 8:2 9:-2 10:1 11:0 12:0 13:0 14:0 15:0 16:-2 17:0 18:0 19:0 20:0 21:-1 22:0 23:0 24:0 25:0 26:0 27:0 28:1 29:0 30:0 31:0 32:-1 33:-1 34:0 35:0 36:0 37:0 38:0 39:0 40:1 41:0 42:0 43:0 44:-2 45:1 46:0 47:0 48:0 49:1 50:0 51:1 52:1 53:-1 54:0 55:-1 56:-3 57:2 58:0 59:0 60:0 
13.30370295489276 1:1 2:-1 3:0 4:-2 5:2 6:-1 7:0 8:2 9:0 10:0 11:1 12:0 13:0 14:-1 15:0 16:-1 17:1 18:0 19:0 20:1 21:-1 22:0 23:1 24:0 25:0 26:0 27:0 28:1 29:0 30:0 31:0 32:0 33:-1 34:0 35:0 36:0 37:0 38:0 39:0 40:1 41:-2 42:0 43:1 44:-1 45:-1 46:0 47:0 48:0 49:0 50:1 51:0 52:1 53:-2 54:0 55:1 56:-2 57:-1 58:0 59:0 60:0 
13.30370295489276 1:0 2:-2 3:0 4:-2 5:2 6:-1 7:0 8:2 9:0 10:0 11:1 12:0 13:0 14:-1 15:0 16:0 17:1 18:-1 19:0 20:1 21:0 22:0 23:0 24:0 25:0 26:-1 27:0 28:0 29:-1 30:-1 31:1 32:0 33:0 34:0 35:0 36:0 37:0 38:0 39:0 40:0 41:-1 42:-1 43:1 44:-1 45:0 46:0 47:0 48:0 49:0 50:0 51:1 52:0 53:-2 54:0 55:1 56:-2 57:0 58:0 59:-1 60:0 
13.30370295489276 1:0 2:-1 3:0 4:0 5:2 6:-1 7:0 8:2 9:0 10:0 11:1 12:0 13:0 14:-1 15:0 16:0 17:0 18:-1 19:1 20:1 21:0 22:0 23:1 24:0 25:0 26:0 27:0 28:0 29:0 30:-1 31:1 32:0 33:0 34:0 35:1 36:0 37:0 38:0 39:1 40:0 41:-1 42:0 43:1 44:-1 45:0 46:0 47:0 48:0 49:0 50:0 51:1 52:-1 53:-2 54:1 55:0 56:-2 57:0 58:0 59:0 60:0 
13.30370295489276 1:0 2:0 3:0 4:0 5:1 6:0 7:0 8:0 9:0 10:0 11:0 12:0 13:0 14:0 15:0 16:0 17:1 18:0 19:0 20:0 21:0 22:0 23:0 24:0 25:0 26:0 27:0 28:0 29:1 30:0 31:0 32:0 33:0 34:0 35:0 36:0 37:0 38:0 39:0 40:0 41:0 42:0 43:0 44:0 45:0 46:0 47:0 48:0 49:0 50:0 51:0 52:0 53:-3 54:-1 55:0 56:-2 57:0 58:0 59:0 60:-1 
13.30370295489276 1:0 2:0 3:0 4:0 5:1 6:0 7:0 8:-1 9:0 10:0 11:0 12:0 13:0 14:0 15:0 16:0 17:0 18:0 19:0 20:-1 21:0 22:0 23:0 24:0 25:0 26:0 27:0 28:0 29:-3 30:-1 31:0 32:-3 33:0 34:0 35:0 36:-1 37:0 38:0 39:0 40:0 41:1 42:-1 43:0 44:1 45:0 46:0 47:0 48:-1 49:0 50:0 51:0 52:0 53:3 54:-1 55:0 56:3 57:0 58:0 59:0 60:-1 
13.30370295489276 1:0 2:0 3:0 4:0 5:-1 6:0 7:0 8:-2 9:0 10:0 11:0 12:0 13:0 14:0 15:0 16:0 17:-4 18:-1 19:0 20:-4 21:0 22:0 23:0 24:-1 25:0 26:0 27:0 28:0 29:0 30:-1 31:0 32:0 33:0 34:0 35:0 36:-1 37:0 38:0 39:0 40:0 41:2 42:-1 43:0 44:2 45:0 46:0 47:0 48:-1 49:0 50:0 51:0 52:0 53:4 54:-1 55:0 56:4 57:0 58:0 59:0 60:-1 
13.30370295489276 1:0 2:0 3:1 4:-1 5:-6 6:-1 7:1 8:-6 9:0 10:0 11:0 12:0 13:0 14:0 15:1 16:-1 17:-2 18:-1 19:1 20:-2 21:0 22:0 23:0 24:0 25:0 26:0 27:1 28:-1 29:0 30:-1 31:1 32:0 33:0 34:0 35:0 36:0 37:0 38:0 39:1 40:-1 41:2 42:-1 43:1 44:2 45:0 46:0 47:0 48:0 49:0 50:0 51:0 52:0 53:6 54:0 55:-1 56:4 57:0 58:0 59:0 60:0 
13.30370295489276 1:0 2:0 3:1 4:-1 5:-4 6:-1 7:2 8:-4 9:0 10:1 11:0 12:-1 13:0 14:0 15:1 16:-1 17:-2 18:-1 19:2 20:-2 21:0 22:1 23:0 24:-1 25:0 26:0 27:1 28:-1 29:0 30:-1 31:2 32:0 33:0 34:1 35:0 36:-1 37:0 38:0 39:0 40:0 41:4 42:0 43:0 44:2 45:0 46:1 47:0 48:-1 49:0 50:0 51:-1 52:1 53:5 54:0 55:-2 56:2 57:0 58:0 59:0 60:0 
13.30370295489276 1:0 2:0 3:1 4:-1 5:-4 6:-1 7:2 8:-3 9:0 10:1 11:0 12:-1 13:0 14:0 15:1 16:-1 17:-2 18:-1 19:2 20:-1 21:0 22:1 23:0 24:-1 25:0 26:0 27:0 28:0 29:2 30:0 31:0 32:1 33:0 34:1 35:0 36:-1 37:0 38:0 39:-1 40:1 41:3 42:0 43:-2 44:1 45:0 46:0 47:0 48:0 49:0 50:0 51:-1 52:1 53:3 54:0 55:-2 56:1 57:0 58:0 59:0 60:0 
13.30370295489276 1:0 2:0 3:1 4:-2 5:-3 6:-1 7:3 8:-2 9:0 10:1 11:0 12:-1 13:0 14:0 15:0 16:-1 17:1 18:0 19:1 20:0 21:0 22:1 23:0 24:-1 25:0 26:0 27:-1 28:0 29:2 30:0 31:-1 32:0 33:0 34:0 35:0 36:0 37:0 38:0 39:-1 40:0 41:2 42:0 43:-1 44:0 45:0 46:0 47:0 48:0 49:-1 50:0 51:-1 52:0 53:2 54:0 55:0 56:-1 57:0 58:0 59:0 60:0 
13.30370295489276 1:0 2:0 3:0 4:-1 5:0 6:0 7:1 8:0 9:0 10:1 11:0 12:-1 13:0 14:0 15:-1 16:0 17:1 18:0 19:-1 20:0 21:0 22:0 23:0 24:0 25:0 26:0 27:-1 28:0 29:1 30:0 31:-1 32:0 33:0 34:0 35:0 36:0 37:-1 38:0 39:-1 40:0 41:1 42:0 43:0 44:-1 45:0 46:0 47:0 48:0 49:-1 50:0 51:-1 52:-1 53:1 54:-1 55:1 56:-1 57:0 58:0 59:0 60:0 
13.30370295489276 1:0 2:0 3:0 4:0 5:0 6:0 7:-1 8:0 9:-1 10:0 11:0 12:0 13:0 14:0 15:0 16:0 17:0 18:0 19:-1 20:0 21:-1 22:0 23:0 24:0 25:-1 26:0 27:0 28:0 29:0 30:0 31:0 32:-1 33:-1 34:0 35:0 36:0 37:-1 38:0 39:0 40:-1 41:0 42:-1 43:1 44:-1 45:-1 46:0 47:0 48:0 49:-1 50:0 51:0 52:-1 53:0 54:-1 55:1 56:-1 57:0 58:0 59:0 60:0 
13.30370295489276 1:0 2:0 3:0 4:0 5:0 6:0 7:-1 8:0 9:-1 10:0 11:0 12:0 13:-1 14:0 15:0 16:0 17:0 18:0 19:0 20:-1 21:-1 22:0 23:0 24:0 25:-1 26:0 27:0 28:-1 29:0 30:-1 31:1 32:-1 33:-1 34:0 35:0 36:0 37:-1 38:0 39:0 40:-1 41:0 42:-1 43:1 44:-1 45:0 46:0 47:0 48:0 49:-1 50:0 51:0 52:-1 53:0 54:-1 55:1 56:-1 57:0 58:0 59:0 60:0 
13.30370295489276 1:0 2:0 3:0 4:0 5:0 6:-1 7:3 8:-1 9:-1 10:0 11:0 12:0 13:0 14:0 15:0 16:-1 17:0 18:-1 19:2 20:-1 21:-1 22:0 23:0 24:0 25:0 26:0 27:0 28:-1 29:0 30:0 31:0 32:0 33:-1 34:0 35:0 36:0 37:-1 38:0 39:0 40:-1 41:1 42:0 43:0 44:0 45:0 46:0 47:0 48:0 49:-1 50:0 51:0 52:0 53:3 54:1 55:-1 56:1 57:2 58:1 59:1 60:0 
13.30370295489276 1:0 2:0 3:0 4:-1 5:-2 6:-2 7:3 8:-2 9:-2 10:0 11:0 12:0 13:0 14:0 15:0 16:-1 17:-2 18:-1 19:1 20:-1 21:-2 22:0 23:0 24:0 25:-1 26:0 27:0 28:-1 29:-1 30:-1 31:1 32:-1 33:-1 34:0 35:0 36:0 37:-1 38:0 39:0 40:0 41:1 42:0 43:0 44:0 45:1 46:1 47:1 48:0 49:0 50:0 51:0 52:2 53:4 54:2 55:-1 56:2 57:2 58:1 59:1 60:0 
13.30370295489276 1:0 2:0 3:0 4:-2 5:-3 6:-2 7:2 8:-2 9:-3 10:0 11:0 12:0 13:-1 14:0 15:0 16:-2 17:-2 18:-2 19:2 20:-2 21:-2 22:0 23:0 24:0 25:-1 26:0 27:0 28:-1 29:0 30:-1 31:1 32:-1 33:0 34:1 35:1 36:0 37:0 38:0 39:0 40:1 41:3 42:1 43:0 44:1 45:1 46:1 47:1 48:0 49:1 50:0 51:0 52:2 53:5 54:3 55:-1 56:3 57:2 58:1 59:1 60:0 
4.041137348782399 1:1 2:0 3:1 4:0 5:2 6:7 7:4 8:1 9:4 10:0 11:0 12:0 13:0 14:0 15:1 16:0 17:1 18:-3 19:2 20:1 21:2 22:0 23:0 24:0 25:0 26:0 27:0 28:0 29:0 30:-4 31:0 32:1 33:-1 34:1 35:0 36:0 37:0 38:0 39:-1 40:0 41:0 42:-3 43:-1 44:1 45:-2 46:0 47:0 48:0 49:0 50:0 51:-1 52:-2 53:-1 54:0 55:-1 56:0 57:-2 58:0 59:0 60:0 
13.30370295489276 1:0 2:0 3:1 4:0 5:1 6:-4 7:0 8:1 9:-1 10:1 11:0 12:-1 13:0 14:0 15:1 16:-2 17:0 18:-1 19:0 20:0 21:-1 22:1 23:0 24:-1 25:0 26:-1 27:0 28:-2 29:0 30:0 31:-1 32:1 33:1 34:0 35:0 36:0 37:0 38:-1 39:-1 40:1 41:0 42:2 43:0 44:0 45:1 46:0 47:0 48:0 49:0 50:0 51:-1 52:3 53:0 54:2 55:1 56:0 57:0 58:0 59:0 60:0 
13.30370295489276 1:0 2:0 3:-1 4:-1 5:1 6:0 7:3 8:3 9:0 10:0 11:0 12:-1 13:0 14:0 15:-1 16:-1 17:1 18:1 19:2 20:2 21:1 22:0 23:0 24:-1 25:0 26:0 27:-1 28:0 29:0 30:-1 31:1 32:2 33:-3 34:0 35:0 36:-1 37:-2 38:0 39:0 40:0 41:0 42:-3 43:-3 44:0 45:-2 46:0 47:0 48:-1 49:-2 50:0 51:-1 52:0 53:0 54:-1 55:-3 56:-4 57:0 58:0 59:0 60:0 
13.30370295489276 1:1 2:0 3:-1 4:-1 5:2 6:1 7:4 8:4 9:0 10:0 11:0 12:-1 13:1 14:0 15:-1 16:0 17:1 18:-1 19:3 20:4 21:-4 22:0 23:0 24:-1 25:-1 26:0 27:0 28:0 29:1 30:-3 31:-1 32:2 33:-3 34:0 35:0 36:-1 37:-1 38:0 39:-1 40:0 41:1 42:-1 43:-1 44:-2 45:-1 46:0 47:0 48:0 49:-2 50:-2 51:0 52:0 53:-1 54:2 55:-2 56:-5 57:6 58:0 59:0 60:0 
13.30370295489276 1:2 2:0 3:-1 4:0 5:1 6:-2 7:4 8:6 9:-5 10:0 11:0 12:-1 13:0 14:0 15:0 16:0 17:1 18:-4 19:0 20:4 21:-4 22:0 23:0 24:-1 25:0 26:0 27:-1 28:0 29:1 30:-2 31:0 32:0 33:-2 34:0 35:0 36:0 37:-1 38:-2 39:0 40:0 41:-1 42:1 43:-1 44:-3 45:5 46:0 47:0 48:0 49:-2 50:-2 51:0 52:0 53:-1 54:3 55:-1 56:-4 57:6 58:0 59:0 60:0 
5.93906597523401 1:1 2:1 3:0 4:-1 5:2 6:-4 7:1 8:6 9:-6 10:0 11:0 12:-1 13:1 14:1 15:-1 16:-1 17:2 18:-2 19:1 20:2 21:-4 22:0 23:0 24:0 25:0 26:-1 27:0 28:-1 29:0 30:1 31:0 32:-1 33:3 34:0 35:0 36:0 37:-1 38:-1 39:0 40:-1 41:0 42:3 43:0 44:-2 45:4 46:0 47:0 48:0 49:-2 50:0 51:-1 52:0 53:-1 54:1 55:-1 56:-2 57:6 58:0 59:0 60:0 
13.30370295489276 1:-1 2:-1 3:1 4:2 5:2 6:1 7:-2 8:0 9:3 10:1 11:0 12:0 13:-1 14:-1 15:1 16:2 17:2 18:2 19:-1 20:0 21:0 22:1 23:0 24:0 25:-1 26:-1 27:0 28:-1 29:-1 30:3 31:1 32:0 33:-1 34:0 35:0 36:0 37:1 38:0 39:-2 40:-1 41:0 42:-1 43:2 44:0 45:-2 46:0 47:0 48:0 49:2 50:2 51:-2 52:-4 53:0 54:-5 55:3 56:0 57:-2 58:0 59:0 60:0 
13.30370295489276 1:-2 2:-2 3:2 4:4 5:2 6:3 7:-2 8:0 9:1 10:1 11:0 12:0 13:-2 14:-2 15:1 16:1 17:-1 18:4 19:0 20:0 21:0 22:0 23:0 24:0 25:0 26:-1 27:-1 28:1 29:0 30:0 31:1 32:0 33:-1 34:0 35:0 36:0 37:1 38:1 39:-1 40:-2 41:0 42:-4 43:2 44:0 45:-1 46:0 47:0 48:0 49:3 50:2 51:-2 52:-6 53:0 54:-5 55:2 56:0 57:0 58:-1 59:0 60:0 
13.30370295489276 1:-1 2:0 3:-1 4:-1 5:3 6:-3 7:-4 8:3 9:1 10:0 11:0 12:0 13:1 14:0 15:0 16:-1 17:0 18:-1 19:-1 20:1 21:3 22:0 23:0 24:0 25:1 26:0 27:0 28:-1 29:-1 30:0 31:0 32:0 33:3 34:-1 35:0 36:0 37:1 38:-1 39:0 40:-1 41:-1 42:2 43:3 44:0 45:-1 46:-1 47:0 48:0 49:1 50:-1 51:0 52:0 53:1 54:2 55:5 56:0 57:-4 58:-1 59:0 60:0 
13.30370295489276 1:0 2:0 3:0 4:-1 5:0 6:-2 7:-3 8:1 9:4 10:1 11:0 12:1 13:0 14:0 15:0 16:-1 17:-1 18:-1 19:-2 20:0 21:4 22:0 23:0 24:1 25:0 26:-1 27:0 28:-1 29:-1 30:1 31:1 32:0 33:0 34:0 35:0 36:1 37:0 38:-1 39:0 40:0 41:1 42:1 43:3 44:0 45:-3 46:0 47:0 48:1 49:0 50:0 51:0 52:0 53:1 54:2 55:3 56:-1 57:-1 58:-1 59:0 60:0 
13.30370295489276 1:0 2:-1 3:-1 4:-1 5:3 6:3 7:-2 8:6 9:-3 10:0 11:0 12:0 13:0 14:-1 15:-1 16:-1 17:2 18:5 19:0 20:3 21:0 22:0 23:0 24:0 25:1 26:0 27:-1 28:-1 29:1 30:6 31:3 32:0 33:2 34:-1 35:0 36:0 37:1 38:-1 39:0 40:0 41:-1 42:-1 43:3 44:-2 45:3 46:-1 47:0 48:-1 49:1 50:-1 51:0 52:0 53:-1 54:-9 55:-3 56:-3 57:2 58:-1 59:0 60:0 
1.363563335100574 1:0 2:0 3:-1 4:5 5:-4 6:-22 7:0 8:3 9:-2 10:0 11:0 12:-1 13:0 14:0 15:0 16:5 17:2 18:-20 19:1 20:3 21:1 22:0 23:0 24:0 25:0 26:0 27:0 28:-5 29:-1 30:38 31:0 32:-1 33:1 34:0 35:0 36:0 37:0 38:0 39:0 40:2 41:5 42:-19 43:0 44:1 45:0 46:0 47:0 48:0 49:0 50:0 51:-1 52:-8 53:-2 54:23 55:-1 56:-6 57:-2 58:0 59:0 60:0 
5.33573357719798 1:0 2:0 3:0 4:7 5:2 6:-29 7:2 8:6 9:1 10:0 11:0 12:0 13:0 14:0 15:0 16:-3 17:-1 18:29 19:1 20:2 21:1 22:0 23:0 24:0 25:0 26:0 27:0 28:4 29:5 30:-28 31:1 32:4 33:0 34:0 35:0 36:0 37:0 38:0 39:-1 40:-6 41:-2 42:14 43:0 44:-3 45:-2 46:0 47:0 48:0 49:0 50:0 51:-1 52:-6 53:-4 54:14 55:-2 56:-9 57:-4 58:0 59:0 60:0 
9.22279140339427 1:0 2:0 3:0 4:0 5:2 6:21 7:2 8:7 9:3 10:0 11:0 12:0 13:0 14:0 15:0 16:7 17:8 18:-36 19:2 20:9 21:2 22:0 23:0 24:0 25:0 26:0 27:-1 28:-3 29:1 30:6 31:1 32:2 33:0 34:0 35:0 36:0 37:0 38:0 39:-1 40:-3 41:-1 42:6 43:-1 44:-4 45:-2 46:0 47:0 48:0 49:0 50:0 51:-2 52:-3 53:-6 54:2 55:-2 56:-10 57:-3 58:0 59:0 60:-1 
6.8784437295393 1:0 2:-1 3:1 4:7 5:10 6:-32 7:3 8:12 9:3 10:0 11:0 12:0 13:0 14:-1 15:0 16:-3 17:3 18:10 19:2 20:5 21:1 22:0 23:0 24:0 25:0 26:-1 27:0 28:-3 29:1 30:10 31:0 32:-1 33:-1 34:0 35:0 36:0 37:0 38:-1 39:-1 40:-3 41:-4 42:6 43:-1 44:-7 45:-2 46:0 47:0 48:-1 49:0 50:0 51:-1 52:0 53:-10 54:3 55:-1 56:-12 57:-1 58:0 59:0 60:-1 
13.30370295489276 1:0 2:-1 3:0 4:-2 5:7 6:3 7:2 8:10 9:2 10:0 11:0 12:0 13:0 14:-1 15:0 16:-2 17:5 18:3 19:0 20:4 21:0 22:0 23:0 24:0 25:0 26:-1 27:-1 28:-2 29:0 30:-1 31:-1 32:-2 33:-1 34:0 35:0 36:-1 37:0 38:0 39:-1 40:1 41:-6 42:-4 43:-1 44:-7 45:0 46:0 47:0 48:-1 49:0 50:0 51:-2 52:1 53:-9 54:-5 55:0 56:-9 57:-1 58:0 59:0 60:-1 
13.30370295489276 1:0 2:0 3:0 4:3 5:4 6:1 7:-3 8:2 9:1 10:0 11:0 12:0 13:0 14:0 15:-1 16:3 17:1 18:0 19:-2 20:0 21:0 22:0 23:0 24:0 25:0 26:0 27:-1 28:2 29:-2 30:0 31:0 32:-1 33:0 34:0 35:0 36:0 37:0 38:0 39:-1 40:-2 41:-2 42:0 43:3 44:-1 45:-1 46:0 47:0 48:0 49:0 50:0 51:-1 52:-6 53:-2 54:-1 55:5 56:0 57:-1 58:0 59:0 60:0 
5.109979184906629 1:0 2:0 3:-1 4:6 5:-1 6:0 7:-4 8:-2 9:-1 10:0 11:0 12:0 13:0 14:0 15:-1 16:2 17:-1 18:0 19:-1 20:-2 21:-2 22:0 23:0 24:0 25:0 26:0 27:-1 28:-2 29:-1 30:-1 31:1 32:-1 33:-2 34:0 35:0 36:0 37:0 38:0 39:0 40:-4 41:0 42:-1 43:3 44:0 45:1 46:0 47:0 48:0 49:0 50:0 51:0 52:-4 53:1 54:-1 55:3 56:2 57:1 58:0 59:0 60:0 
13.30370295489276 1:0 2:0 3:-1 4:2 5:-3 6:-1 7:-1 8:-3 9:-2 10:0 11:0 12:0 13:0 14:0 15:0 16:0 17:-2 18:-1 19:1 20:-2 21:1 22:0 23:0 24:0 25:0 26:0 27:0 28:0 29:-1 30:-1 31:1 32:0 33:1 34:0 35:0 36:0 37:0 38:0 39:0 40:-1 41:1 42:0 43:1 44:2 45:0 46:0 47:0 48:0 49:0 50:0 51:0 52:-1 53:2 54:1 55:1 56:2 57:-3 58:0 59:0 60:0 
13.30370295489276 1:0 2:0 3:-1 4:0 5:-3 6:-2 7:0 8:-3 9:1 10:0 11:0 12:0 13:0 14:0 15:-1 16:0 17:-2 18:-2 19:0 20:-1 21:1 22:0 23:0 24:0 25:0 26:0 27:-1 28:-1 29:0 30:-1 31:0 32:1 33:0 34:0 35:0 36:0 37:0 38:0 39:-1 40:-1 41:1 42:0 43:0 44:1 45:-3 46:0 47:0 48:0 49:1 50:-1 51:2 52:-1 53:1 54:1 55:0 56:2 57:-3 58:0 59:0 60:0 
6.575642950873157 1:0 2:0 3:-2 4:0 5:-3 6:-2 7:1 8:-2 9:2 10:0 11:0 12:0 13:0 14:0 15:-2 16:-1 17:-1 18:-1 19:1 20:0 21:1 22:0 23:0 24:0 25:0 26:0 27:-2 28:-1 29:0 30:0 31:1 32:0 33:-2 34:0 35:0 36:0 37:1 38:-1 39:1 40:-1 41:0 42:1 43:1 44:1 45:-2 46:0 47:0 48:0 49:1 50:-1 51:2 52:-1 53:0 54:0 55:0 56:0 57:-1 58:0 59:0 60:0 
13.30370295489276 1:0 2:0 3:-3 4:0 5:-1 6:-1 7:1 8:-1 9:2 10:0 11:0 12:0 13:0 14:0 15:-3 16:0 17:0 18:0 19:1 20:-1 21:-1 22:0 23:0 24:0 25:1 26:-1 27:0 28:0 29:0 30:1 31:1 32:0 33:-1 34:0 35:0 36:0 37:1 38:-1 39:1 40:0 41:0 42:0 43:0 44:-1 45:0 46:0 47:0 48:0 49:1 50:-1 51:2 52:0 53:0 54:0 55:0 56:-1 57:0 58:0 59:0 60:0 
13.30370295489276 1:0 2:0 3:-1 4:-2 5:0 6:0 7:2 8:1 9:-2 10:1 11:0 12:0 13:0 14:0 15:0 16:-2 17:0 18:-1 19:1 20:0 21:-1 22:1 23:0 24:0 25:0 26:0 27:1 28:-2 29:0 30:-1 31:1 32:0 33:-1 34:1 35:0 36:0 37:0 38:0 39:1 40:0 41:0 42:-1 43:0 44:-2 45:0 46:0 47:0 48:0 49:0 50:0 51:1 52:3 53:0 54:-1 55:0 56:-3 57:0 58:0 59:0 60:0 
13.30370295489276 1:0 2:0 3:0 4:-3 5:0 6:0 7:1 8:1 9:-1 10:1 11:0 12:0 13:0 14:0 15:1 16:-3 17:0 18:0 19:1 20:1 21:-1 22:1 23:0 24:0 25:0 26:0 27:1 28:-1 29:0 30:0 31:0 32:-1 33:0 34:0 35:0 36:0 37:0 38:0 39:1 40:2 41:0 42:0 43:0 44:-2 45:0 46:0 47:0 48:0 49:0 50:0 51:1 52:2 53:0 54:0 55:0 56:-3 57:2 58:0 59:0 60:0 
13.30370295489276 1:0 2:0 3:0 4:-4 5:0 6:0 7:1 8:2 9:-2 10:1 11:0 12:0 13:0 14:0 15:0 16:-2 17:0 18:0 19:0 20:0 21:-1 22:0 23:0 24:0 25:0 26:0 27:0 28:1 29:0 30:0 31:0 32:-1 33:-1 34:0 35:0 36:0 37:0 38:0 39:0 40:1 41:0 42:0 43:0 44:-2 45:1 46:0 47:0 48:0 49:1 50:0 51:1 52:1 53:-1 54:0 55:-1 56:-3 57:2 58:0 59:0 60:0 
6.62709239684088 1:0 2:0 3:0 4:-3 5:0 6:0 7:1 8:1 9:-2 10:0 11:0 12:0 13:0 14:0 15:0 16:0 17:0 18:0 19:1 20:0 21:-2 22:0 23:0 24:0 25:0 26:0 27:0 28:0 29:0 30:0 31:1 32:-1 33:0 34:0 35:0 36:0 37:1 38:0 39:1 40:0 41:-1 42:0 43:0 44:-2 45:1 46:0 47:0 48:0 49:2 50:0 51:1 52:0 53:-3 54:0 55:-1 56:-2 57:1 58:1 59:0 60:0 
13.30370295489276 1:1 2:-1 3:0 4:-2 5:2 6:-1 7:0 8:2 9:0 10:0 11:1 12:0 13:0 14:-1 15:0 16:-1 17:1 18:0 19:0 20:1 21:-1 22:0 23:1 24:0 25:0 26:0 27:0 28:1 29:0 30:0 31:0 32:0 33:-1 34:0 35:0 36:0 37:0 38:0 39:0 40:1 41:-2 42:0 43:1 44:-1 45:-1 46:0 47:0 48:0 49:0 50:1 51:0 52:1 53:-2 54:0 55:1 56:-2 57:-1 58:0 59:0 60:0 
13.30370295489276 1:0 2:-2 3:0 4:-2 5:2 6:-1 7:0 8:2 9:0 10:0 11:1 12:0 13:0 14:-1 15:0 16:0 17:1 18:-1 19:0 20:1 21:0 22:0 23:0 24:0 25:0 26:-1 27:0 28:0 29:-1 30:-1 31:1 32:0 33:0 34:0 35:0 36:0 37:0 38:0 39:0 40:0 41:-1 42:-1 43:1 44:-1 45:0 46:0 47:0 48:0 49:0 50:0 51:1 52:0 53:-2 54:0 55:1 56:-2 57:0 58:0 59:-1 60:0 
13.30370295489276 1:0 2:-1 3:0 4:0 5:2 6:-1 7:0 8:2 9:0 10:0 11:1 12:0 13:0 14:-1 15:0 16:0 17:0 18:-1 19:1 20:1 21:0 22:0 23:1 24:0 25:0 26:0 27:0 28:0 29:0 30:-1 31:1 32:0 33:0 34:0 35:1 36:0 37:0 38:0 39:1 40:0 41:-1 42:0 43:1 44:-1 45:0 46:0 47:0 48:0 49:0 50:0 51:1 52:-1 53:-2 54:1 55:0 56:-2 57:0 58:0 59:0 60:0 
13.30370295489276 1:0 2:0 3:0 4:0 5:1 6:0 7:0 8:0 9:0 10:0 11:0 12:0 13:0 14:0 15:0 16:0 17:1 18:0 19:0 20:0 21:0 22:0 23:0 24:0 25:0 26:0 27:0 28:0 29:1 30:0 31:0 32:0 33:0 34:0 35:0 36:0 37:0 38:0 39:0 40:0 41:0 42:0 43:0 44:0 45:0 46:0 47:0 48:0 49:0 50:0 51:0 52:0 53:-3 54:-1 55:0 56:-2 57:0 58:0 59:0 60:-1 
4.885455458390823 1:0 2:0 3:0 4:0 5:1 6:0 7:0 8:-1 9:0 10:0 11:0 12:0 13:0 14:0 15:0 16:0 17:0 18:0 19:0 20:-1 21:0 22:0 23:0 24:0 25:0 26:0 27:0 28:0 29:-3 30:-1 31:0 32:-3 33:0 34:0 35:0 36:-1 37:0 38:0 39:0 40:0 41:1 42:-1 43:0 44:1 45:0 46:0 47:0 48:-1 49:0 50:0 51:0 52:0 53:3 54:-1 55:0 56:3 57:0 58:0 59:0 60:-1 
13.30370295489276 1:0 2:0 3:0 4:0 5:-1 6:0 7:0 8:-2 9:0 10:0 11:0 12:0 13:0 14:0 15:0 16:0 17:-4 18:-1 19:0 20:-4 21:0 22:0 23:0 24:-1 25:0 26:0 27:0 28:0 29:0 30:-1 31:0 32:0 33:0 34:0 35:0 36:-1 37:0 38:0 39:0 40:0 41:2 42:-1 43:0 44:2 45:0 46:0 47:0 48:-1 49:0 50:0 51:0 52:0 53:4 54:-1 55:0 56:4 57:0 58:0 59:0 60:-1 
13.30370295489276 1:0 2:0 3:1 4:-1 5:-6 6:-1 7:1 8:-6 9:0 10:0 11:0 12:0 13:0 14:0 15:1 16:-1 17:-2 18:-1 19:1 20:-2 21:0 22:0 23:0 24:0 25:0 26:0 27:1 28:-1 29:0 30:-1 31:1 32:0 33:0 34:0 35:0 36:0 37:0 38:0 39:1 40:-1 41:2 42:-1 43:1 44:2 45:0 46:0 47:0 48:0 49:0 50:0 51:0 52:0 53:6 54:0 55:-1 56:4 57:0 58:0 59:0 60:0 
13.30370295489276 1:0 2:0 3:1 4:-1 5:-4 6:-1 7:2 8:-4 9:0 10:1 11:0 12:-1 13:0 14:0 15:1 16:-1 17:-2 18:-1 19:2 20:-2 21:0 22:1 23:0 24:-1 25:0 26:0 27:1 28:-1 29:0 30:-1 31:2 32:0 33:0 34:1 35:0 36:-1 37:0 38:0 39:0 40:0 41:4 42:0 43:0 44:2 45:0 46:1 47:0 48:-1 49:0 50:0 51:-1 52:1 53:5 54:0 55:-2 56:2 57:0 58:0 59:0 60:0 
13.30370295489276 1:0 2:0 3:1 4:-1 5:-4 6:-1 7:2 8:-3 9:0 10:1 11:0 12:-1 13:0 14:0 15:1 16:-1 17:-2 18:-1 19:2 20:-1 21:0 22:1 23:0 24:-1 25:0 26:0 27:0 28:0 29:2 30:0 31:0 32:1 33:0 34:1 35:0 36:-1 37:0 38:0 39:-1 40:1 41:3 42:0 43:-2 44:1 45:0 46:0 47:0 48:0 49:0 50:0 51:-1 52:1 53:3 54:0 55:-2 56:1 57:0 58:0 59:0 60:0 
13.30370295489276 1:0 2:0 3:1 4:-2 5:-3 6:-1 7:3 8:-2 9:0 10:1 11:0 12:-1 13:0 14:0 15:0 16:-1 17:1 18:0 19:1 20:0 21:0 22:1 23:0 24:-1 25:0 26:0 27:-1 28:0 29:2 30:0 31:-1 32:0 33:0 34:0 35:0 36:0 37:0 38:0 39:-1 40:0 41:2 42:0 43:-1 44:0 45:0 46:0 47:0 48:0 49:-1 50:0 51:-1 52:0 53:2 54:0 55:0 56:-1 57:0 58:0 59:0 60:0 
13.30370295489276 1:0 2:0 3:0 4:-1 5:0 6:0 7:1 8:0 9:0 10:1 11:0 12:-1 13:0 14:0 15:-1 16:0 17:1 18:0 19:-1 20:0 21:0 22:0 23:0 24:0 25:0 26:0 27:-1 28:0 29:1 30:0 31:-1 32:0 33:0 34:0 35:0 36:0 37:-1 38:0 39:-1 40:0 41:1 42:0 43:0 44:-1 45:0 46:0 47:0 48:0 49:-1 50:0 51:-1 52:-1 53:1 54:-1 55:1 56:-1 57:0 58:0 59:0 60:0 
13.30370295489276 1:0 2:0 3:0 4:0 5:0 6:0 7:-1 8:0 9:-1 10:0 11:0 12:0 13:0 14:0 15:0 16:0 17:0 18:0 19:-1 20:0 21:-1 22:0 23:0 24:0 25:-1 26:0 27:0 28:0 29:0 30:0 31:0 32:-1 33:-1 34:0 35:0 36:0 37:-1 38:0 39:0 40:-1 41:0 42:-1 43:1 44:-1 45:-1 46:0 47:0 48:0 49:-1 50:0 51:0 52:-1 53:0 54:-1 55:1 56:-1 57:0 58:0 59:0 60:0 
13.30370295489276 1:0 2:0 3:0 4:0 5:0 6:0 7:-1 8:0 9:-1 10:0 11:0 12:0 13:-1 14:0 15:0 16:0 17:0 18:0 19:0 20:-1 21:-1 22:0 23:0 24:0 25:-1 26:0 27:0 28:-1 29:0 30:-1 31:1 32:-1 33:-1 34:0 35:0 36:0 37:-1 38:0 39:0 40:-1 41:0 42:-1 43:1 44:-1 45:0 46:0 47:0 48:0 49:-1 50:0 51:0 52:-1 53:0 54:-1 55:1 56:-1 57:0 58:0 59:0 60:0 
7.987585684231847 1:-1 2:0 3:-1 4:0 5:0 6:-2 7:2 8:-1 9:-1 10:0 11:0 12:-1 13:0 14:-1 15:0 16:0 17:0 18:-1 19:2 20:-1 21:0 22:0 23:0 24:0 25:0 26:-1 27:0 28:-1 29:0 30:-1 31:1 32:-1 33:0 34:0 35:0 36:0 37:0 38:-1 39:0 40:-1 41:0 42:0 43:-1 44:0 45:0 46:0 47:0 48:0 49:-1 50:-1 51:0 52:-1 53:1 54:0 55:-1 56:0 57:1 58:0 59:0 60:0 
13.30370295489276 1:0 2:0 3:0 4:0 5:0 6:-1 7:3 8:-1 9:-1 10:0 11:0 12:0 13:0 14:0 15:0 16:-1 17:0 18:-1 19:2 20:-1 21:-1 22:0 23:0 24:0 25:0 26:0 27:0 28:-1 29:0 30:0 31:0 32:0 33:-1 34:0 35:0 36:0 37:-1 38:0 39:0 40:-1 41:1 42:0 43:0 44:0 45:0 46:0 47:0 48:0 49:-1 50:0 51:0 52:0 53:3 54:1 55:-1 56:1 57:2 58:1 59:1 60:0 
13.30370295489276 1:0 2:0 3:0 4:-1 5:-2 6:-2 7:3 8:-2 9:-2 10:0 11:0 12:0 13:0 14:0 15:0 16:-1 17:-2 18:-1 19:1 20:-1 21:-2 22:0 23:0 24:0 25:-1 26:0 27:0 28:-1 29:-1 30:-1 31:1 32:-1 33:-1 34:0 35:0 36:0 37:-1 38:0 39:0 40:0 41:1 42:0 43:0 44:0 45:1 46:1 47:1 48:0 49:0 50:0 51:0 52:2 53:4 54:2 55:-1 56:2 57:2 58:1 59:1 60:0 
13.30370295489276 1:0 2:0 3:0 4:-2 5:-3 6:-2 7:2 8:-2 9:-3 10:0 11:0 12:0 13:-1 14:0 15:0 16:-2 17:-2 18:-2 19:2 20:-2 21:-2 22:0 23:0 24:0 25:-1 26:0 27:0 28:-1 29:0 30:-1 31:1 32:-1 33:0 34:1 35:1 36:0 37:0 38:0 39:0 40:1 41:3 42:1 43:0 44:1 45:1 46:1 47:1 48:0 49:1 50:0 51:0 52:2 53:5 54:3 55:-1 56:3 57:2 58:1 59:1 60:0 
10.51495397272644 1:1 2:0 3:1 4:0 5:2 6:7 7:4 8:1 9:4 10:0 11:0 12:0 13:0 14:0 15:1 16:0 17:1 18:-3 19:2 20:1 21:2 22:0 23:0 24:0 25:0 26:0 27:0 28:0 29:0 30:-4 31:0 32:1 33:-1 34:1 35:0 36:0 37:0 38:0 39:-1 40:0 41:0 42:-3 43:-1 44:1 45:-2 46:0 47:0 48:0 49:0 50:0 51:-1 52:-2 53:-1 54:0 55:-1 56:0 57:-2 58:0 59:0 60:0 
13.30370295489276 1:0 2:0 3:1 4:0 5:1 6:-4 7:0 8:1 9:-1 10:1 11:0 12:-1 13:0 14:0 15:1 16:-2 17:0 18:-1 19:0 20:0 21:-1 22:1 23:0 24:-1 25:0 26:-1 27:0 28:-2 29:0 30:0 31:-1 32:1 33:1 34:0 35:0 36:0 37:0 38:-1 39:-1 40:1 41:0 42:2 43:0 44:0 45:1 46:0 47:0 48:0 49:0 50:0 51:-1 52:3 53:0 54:2 55:1 56:0 57:0 58:0 59:0 60:0 
13.30370295489276 1:0 2:0 3:-1 4:-1 5:1 6:0 7:3 8:3 9:0 10:0 11:0 12:-1 13:0 14:0 15:-1 16:-1 17:1 18:1 19:2 20:2 21:1 22:0 23:0 24:-1 25:0 26:0 27:-1 28:0 29:0 30:-1 31:1 32:2 33:-3 34:0 35:0 36:-1 37:-2 38:0 39:0 40:0 41:0 42:-3 43:-3 44:0 45:-2 46:0 47:0 48:-1 49:-2 50:0 51:-1 52:0 53:0 54:-1 55:-3 56:-4 57:0 58:0 59:0 60:0 
13.30370295489276 1:1 2:0 3:-1 4:-1 5:2 6:1 7:4 8:4 9:0 10:0 11:0 12:-1 13:1 14:0 15:-1 16:0 17:1 18:-1 19:3 20:4 21:-4 22:0 23:0 24:-1 25:-1 26:0 27:0 28:0 29:1 30:-3 31:-1 32:2 33:-3 34:0 35:0 36:-1 37:-1 38:0 39:-1 40:0 41:1 42:-1 43:-1 44:-2 45:-1 46:0 47:0 48:0 49:-2 50:-2 51:0 52:0 53:-1 54:2 55:-2 56:-5 57:6 58:0 59:0 60:0 
13.30370295489276 1:2 2:0 3:-1 4:0 5:1 6:-2 7:4 8:6 9:-5 10:0 11:0 12:-1 13:0 14:0 15:0 16:0 17:1 18:-4 19:0 20:4 21:-4 22:0 23:0 24:-1 25:0 26:0 27:-1 28:0 29:1 30:-2 31:0 32:0 33:-2 34:0 35:0 36:0 37:-1 38:-2 39:0 40:0 41:-1 42:1 43:-1 44:-3 45:5 46:0 47:0 48:0 49:-2 50:-2 51:0 52:0 53:-1 54:3 55:-1 56:-4 57:6 58:0 59:0 60:0 
13.30370295489276 1:1 2:1 3:0 4:-1 5:2 6:-4 7:1 8:6 9:-6 10:0 11:0 12:-1 13:1 14:1 15:-1 16:-1 17:2 18:-2 19:1 20:2 21:-4 22:0 23:0 24:0 25:0 26:-1 27:0 28:-1 29:0 30:1 31:0 32:-1 33:3 34:0 35:0 36:0 37:-1 38:-1 39:0 40:-1 41:0 42:3 43:0 44:-2 45:4 46:0 47:0 48:0 49:-2 50:0 51:-1 52:0 53:-1 54:1 55:-1 56:-2 57:6 58:0 59:0 60:0 
13.30370295489276 1:-1 2:-1 3:1 4:2 5:2 6:1 7:-2 8:0 9:3 10:1 11:0 12:0 13:-1 14:-1 15:1 16:2 17:2 18:2 19:-1 20:0 21:0 22:1 23:0 24:0 25:-1 26:-1 27:0 28:-1 29:-1 30:3 31:1 32:0 33:-1 34:0 35:0 36:0 37:1 38:0 39:-2 40:-1 41:0 42:-1 43:2 44:0 45:-2 46:0 47:0 48:0 49:2 50:2 51:-2 52:-4 53:0 54:-5 55:3 56:0 57:-2 58:0 59:0 60:0 
13.30370295489276 1:-2 2:-2 3:2 4:4 5:2 6:3 7:-2 8:0 9:1 10:1 11:0 12:0 13:-2 14:-2 15:1 16:1 17:-1 18:4 19:0 20:0 21:0 22:0 23:0 24:0 25:0 26:-1 27:-1 28:1 29:0 30:0 31:1 32:0 33:-1 34:0 35:0 36:0 37:1 38:1 39:-1 40:-2 41:0 42:-4 43:2 44:0 45:-1 46:0 47:0 48:0 49:3 50:2 51:-2 52:-6 53:0 54:-5 55:2 56:0 57:0 58:-1 59:0 60:0 
11.82124862975027 1:-4 2:-3 3:2 4:3 5:0 6:5 7:-1 8:0 9:-1 10:1 11:0 12:0 13:-2 14:-2 15:0 16:3 17:1 18:1 19:0 20:0 21:-2 22:1 23:0 24:0 25:-1 26:0 27:0 28:0 29:1 30:-3 31:1 32:0 33:-2 34:1 35:0 36:0 37:1 38:1 39:-1 40:-4 41:1 42:-4 43:1 44:0 45:-1 46:0 47:0 48:0 49:2 50:1 51:-2 52:-4 53:-1 54:-1 55:0 56:1 57:2 58:0 59:0 60:0 
9.839344357804954 1:-1 2:0 3:-2 4:0 5:4 6:-5 7:-2 8:4 9:-5 10:1 11:0 12:0 13:-1 14:0 15:-1 16:0 17:2 18:-1 19:-2 20:1 21:1 22:0 23:0 24:0 25:1 26:0 27:0 28:0 29:-1 30:1 31:1 32:-1 33:3 34:0 35:0 36:0 37:1 38:0 39:0 40:0 41:-2 42:2 43:2 44:-2 45:3 46:-1 47:0 48:0 49:1 50:-1 51:0 52:0 53:-2 54:4 55:5 56:-2 57:-1 58:-1 59:0 60:0 
13.30370295489276 1:-1 2:0 3:-1 4:-1 5:3 6:-3 7:-4 8:3 9:1 10:0 11:0 12:0 13:1 14:0 15:0 16:-1 17:0 18:-1 19:-1 20:1 21:3 22:0 23:0 24:0 25:1 26:0 27:0 28:-1 29:-1 30:0 31:0 32:0 33:3 34:-1 35:0 36:0 37:1 38:-1 39:0 40:-1 41:-1 42:2 43:3 44:0 45:-1 46:-1 47:0 48:0 49:1 50:-1 51:0 52:0 53:1 54:2 55:5 56:0 57:-4 58:-1 59:0 60:0 
13.30370295489276 1:0 2:0 3:0 4:-1 5:0 6:-2 7:-3 8:1 9:4 10:1 11:0 12:1 13:0 14:0 15:0 16:-1 17:-1 18:-1 19:-2 20:0 21:4 22:0 23:0 24:1 25:0 26:-1 27:0 28:-1 29:-1 30:1 31:1 32:0 33:0 34:0 35:0 36:1 37:0 38:-1 39:0 40:0 41:1 42:1 43:3 44:0 45:-3 46:0 47:0 48:1 49:0 50:0 51:0 52:0 53:1 54:2 55:3 56:-1 57:-1 58:-1 59:0 60:0 
5.383858766693992 1:0 2:0 3:-1 4:-1 5:0 6:-2 7:-3 8:1 9:3 10:0 11:0 12:1 13:0 14:-1 15:-1 16:-1 17:0 18:0 19:0 20:1 21:-1 22:0 23:0 24:1 25:0 26:-1 27:-1 28:0 29:2 30:0 31:2 32:1 33:-4 34:0 35:0 36:1 37:0 38:0 39:-1 40:0 41:2 42:1 43:2 44:0 45:-2 46:-1 47:0 48:0 49:0 50:0 51:0 52:0 53:-1 54:2 55:1 56:-3 57:5 58:-1 59:0 60:0 
7.274378808279555 1:0 2:-1 3:-1 4:-1 5:4 6:-1 7:-1 8:6 9:-8 10:0 11:0 12:0 13:0 14:-1 15:0 16:-1 17:1 18:0 19:-2 20:3 21:-1 22:0 23:0 24:0 25:0 26:-1 27:0 28:-1 29:0 30:2 31:0 32:0 33:2 34:0 35:0 36:0 37:1 38:0 39:0 40:-1 41:-1 42:3 43:3 44:-3 45:4 46:-1 47:0 48:0 49:1 50:-1 51:1 52:0 53:-3 54:-4 55:3 56:-5 57:5 58:-1 59:0 60:-1 
13.30370295489276 1:0 2:-1 3:-1 4:-1 5:3 6:3 7:-2 8:6 9:-3 10:0 11:0 12:0 13:0 14:-1 15:-1 16:-1 17:2 18:5 19:0 20:3 21:0 22:0 23:0 24:0 25:1 26:0 27:-1 28:-1 29:1 30:6 31:3 32:0 33:2 34:-1 35:0 36:0 37:1 38:-1 39:0 40:0 41:-1 42:-1 43:3 44:-2 45:3 46:-1 47:0 48:-1 49:1 50:-1 51:0 52:0 53:-1 54:-9 55:-3 56:-3 57:2 58:-1 59:0 60:0 
-32.69629609143293 1:1 2:-1 3:0 4:1 5:0 6:-1 7:2 8:2 9:-1 10:0 11:1 12:0 13:1 14:-1 15:0 16:0 17:-1 18:0 19:1 20:1 21:-1 22:0 23:1 24:0 25:0 26:0 27:0 28:-1 29:-1 30:0 31:1 32:0 33:0 34:0 35:1 36:0 37:0 38:0 39:0 40:-1 41:0 42:0 43:0 44:-2 45:0 46:0 47:0 48:0 49:0 50:0 51:0 52:-1 53:0 54:-1 55:0 56:-4 57:1 58:0 59:0 60:0 
-32.69629609143293 1:1 2:-1 3:0 4:1 5:-1 6:0 7:1 8:3 9:-1 10:0 11:1 12:0 13:0 14:0 15:0 16:0 17:-1 18:0 19:1 20:2 21:0 22:0 23:1 24:0 25:0 26:0 27:0 28:0 29:0 30:0 31:0 32:0 33:0 34:0 35:0 36:0 37:0 38:0 39:0 40:0 41:0 42:-1 43:0 44:-2 45:1 46:0 47:0 48:0 49:0 50:1 51:0 52:-1 53:1 54:-2 55:0 56:-4 57:0 58:0 59:0 60:0 
-19.2274992109733 1:1 2:-1 3:0 4:0 5:-2 6:-1 7:2 8:4 9:1 10:0 11:1 12:0 13:1 14:-1 15:0 16:-1 17:-1 18:0 19:1 20:2 21:0 22:0 23:0 24:0 25:0 26:-1 27:0 28:-1 29:-1 30:0 31:1 32:0 33:0 34:0 35:0 36:0 37:0 38:0 39:0 40:-1 41:0 42:0 43:0 44:-2 45:0 46:0 47:0 48:-1 49:-1 50:0 51:0 52:-1 53:1 54:0 55:0 56:-4 57:-1 58:0 59:-1 60:-1 
-32.69629609143293 1:-1 2:-1 3:1 4:0 5:-1 6:0 7:0 8:3 9:0 10:0 11:1 12:0 13:-1 14:-1 15:1 16:0 17:0 18:0 19:0 20:1 21:0 22:0 23:1 24:0 25:-1 26:0 27:1 28:0 29:1 30:0 31:0 32:-1 33:0 34:0 35:0 36:0 37:-1 38:0 39:1 40:0 41:1 42:0 43:0 44:-1 45:0 46:0 47:0 48:0 49:0 50:0 51:0 52:0 53:2 54:0 55:0 56:-2 57:0 58:0 59:0 60:0 
-32.69629609143293 1:-1 2:-1 3:1 4:0 5:-1 6:-1 7:0 8:2 9:0 10:0 11:1 12:-1 13:-1 14:0 15:1 16:0 17:0 18:-1 19:0 20:0 21:0 22:0 23:0 24:-1 25:-1 26:0 27:1 28:0 29:0 30:-1 31:0 32:0 33:0 34:0 35:0 36:-1 37:0 38:0 39:0 40:0 41:1 42:-1 43:0 44:-1 45:0 46:0 47:0 48:-1 49:0 50:0 51:0 52:0 53:2 54:0 55:0 56:-1 57:0 58:0 59:0 60:0 
-32.69629609143293 1:-1 2:0 3:1 4:0 5:-1 6:-1 7:0 8:0 9:0 10:0 11:0 12:-1 13:-1 14:0 15:1 16:0 17:-1 18:-1 19:0 20:0 21:0 22:0 23:0 24:-1 25:0 26:0 27:0 28:0 29:0 30:-1 31:0 32:-1 33:0 34:0 35:0 36:-1 37:0 38:0 39:0 40:0 41:1 42:0 43:0 44:-1 45:0 46:0 47:0 48:0 49:0 50:0 51:0 52:0 53:1 54:0 55:0 56:-1 57:0 58:0 59:0 60:0 
-32.69629609143293 1:-1 2:0 3:1 4:0 5:-1 6:-1 7:0 8:1 9:0 10:0 11:0 12:-1 13:0 14:0 15:0 16:0 17:0 18:-1 19:0 20:0 21:0 22:0 23:0 24:-1 25:0 26:0 27:0 28:0 29:1 30:0 31:0 32:0 33:0 34:0 35:0 36:0 37:0 38:0 39:0 40:0 41:1 42:0 43:0 44:0 45:0 46:0 47:0 48:0 49:0 50:0 51:0 52:0 53:2 54:0 55:1 56:-1 57:0 58:0 59:0 60:0 
-32.69629609143293 1:0 2:0 3:0 4:0 5:-1 6:-1 7:0 8:0 9:0 10:0 11:0 12:-1 13:0 14:0 15:0 16:0 17:0 18:0 19:0 20:0 21:0 22:0 23:0 24:0 25:0 26:0 27:0 28:0 29:0 30:0 31:0 32:0 33:0 34:0 35:0 36:0 37:0 38:0 39:0 40:0 41:1 42:0 43:1 44:-1 45:0 46:0 47:0 48:0 49:0 50:0 51:0 52:0 53:1 54:1 55:1 56:-1 57:0 58:0 59:0 60:0 
-32.69629609143293 1:0 2:0 3:0 4:0 5:0 6:-1 7:0 8:0 9:0 10:0 11:0 12:0 13:0 14:0 15:0 16:0 17:0 18:-1 19:0 20:0 21:0 22:0 23:0 24:0 25:0 26:0 27:0 28:0 29:1 30:-1 31:1 32:-1 33:0 34:0 35:0 36:0 37:0 38:0 39:0 40:0 41:1 42:0 43:1 44:-1 45:0 46:0 47:0 48:0 49:0 50:0 51:0 52:0 53:1 54:0 55:1 56:-2 57:0 58:0 59:0 60:0 
-32.69629609143293 1:0 2:0 3:0 4:0 5:-1 6:-1 7:0 8:1 9:0 10:0 11:0 12:0 13:0 14:0 15:0 16:0 17:0 18:-1 19:1 20:0 21:0 22:0 23:0 24:0 25:0 26:0 27:0 28:0 29:0 30:0 31:1 32:0 33:0 34:0 35:0 36:0 37:0 38:0 39:0 40:0 41:0 42:0 43:1 44:-1 45:0 46:0 47:0 48:0 49:0 50:0 51:0 52:0 53:1 54:0 55:1 56:-1 57:0 58:0 59:0 60:0 
-32.69629609143293 1:0 2:0 3:0 4:0 5:0 6:-1 7:0 8:0 9:0 10:0 11:0 12:0 13:0 14:0 15:0 16:0 17:0 18:0 19:0 20:0 21:0 22:0 23:0 24:0 25:0 26:0 27:0 28:0 29:0 30:0 31:0 32:-1 33:0 34:0 35:0 36:0 37:0 38:0 39:0 40:0 41:1 42:0 43:0 44:-1 45:0 46:0 47:0 48:0 49:0 50:0 51:0 52:0 53:2 54:0 55:0 56:-1 57:0 58:0 59:0 60:0 
-32.69629609143293 1:0 2:0 3:0 4:0 5:-1 6:0 7:0 8:0 9:0 10:0 11:0 12:0 13:0 14:0 15:0 16:0 17:-1 18:0 19:0 20:-1 21:0 22:0 23:0 24:0 25:0 26:0 27:0 28:0 29:0 30:0 31:0 32:-1 33:0 34:0 35:0 36:0 37:0 38:0 39:0 40:0 41:1 42:0 43:0 44:-1 45:0 46:0 47:0 48:0 49:0 50:0 51:0 52:0 53:1 54:0 55:0 56:-1 57:0 58:0 59:0 60:0 
-32.69629609143293 1:0 2:0 3:0 4:0 5:-1 6:0 7:0 8:0 9:0 10:0 11:0 12:0 13:0 14:0 15:0 16:0 17:0 18:0 19:0 20:0 21:0 22:0 23:0 24:0 25:0 26:0 27:0 28:0 29:1 30:0 31:0 32:0 33:0 34:0 35:0 36:0 37:0 38:0 39:0 40:0 41:1 42:0 43:0 44:0 45:0 46:0 47:0 48:0 49:0 50:0 51:0 52:0 53:1 54:0 55:0 56:0 57:0 58:0 59:0 60:0 
-32.69629609143293 1:0 2:0 3:0 4:0 5:0 6:0 7:0 8:0 9:0 10:0 11:0 12:0 13:0 14:0 15:0 16:0 17:1 18:0 19:0 20:0 21:0 22:0 23:0 24:0 25:0 26:0 27:0 28:0 29:1 30:0 31:0 32:0 33:0 34:0 35:0 36:0 37:0 38:0 39:0 40:0 41:1 42:0 43:0 44:0 45:0 46:0 47:0 48:0 49:0 50:0 51:0 52:0 53:1 54:0 55:0 56:0 57:0 58:0 59:0 60:0 
-32.69629609143293 1:1 2:-1 3:0 4:1 5:0 6:-1 7:2 8:2 9:-1 10:0 11:1 12:0 13:1 14:-1 15:0 16:0 17:-1 18:0 19:1 20:1 21:-1 22:0 23:1 24:0 25:0 26:0 27:0 28:-1 29:-1 30:0 31:1 32:0 33:0 34:0 35:1 36:0 37:0 38:0 39:0 40:-1 41:0 42:0 43:0 44:-2 45:0 46:0 47:0 48:0 49:0 50:0 51:0 52:-1 53:0 54:-1 55:0 56:-4 57:1 58:0 59:0 60:0 
-32.69629609143293 1:1 2:-1 3:0 4:1 5:-1 6:0 7:1 8:3 9:-1 10:0 11:1 12:0 13:0 14:0 15:0 16:0 17:-1 18:0 19:1 20:2 21:0 22:0 23:1 24:0 25:0 26:0 27:0 28:0 29:0 30:0 31:0 32:0 33:0 34:0 35:0 36:0 37:0 38:0 39:0 40:0 41:0 42:-1 43:0 44:-2 45:1 46:0 47:0 48:0 49:0 50:1 51:0 52:-1 53:1 54:-2 55:0 56:-4 57:0 58:0 59:0 60:0 
-32.69629609143293 1:1 2:-1 3:0 4:0 5:-2 6:-1 7:2 8:4 9:1 10:0 11:1 12:0 13:1 14:-1 15:0 16:-1 17:-1 18:0 19:1 20:2 21:0 22:0 23:0 24:0 25:0 26:-1 27:0 28:-1 29:-1 30:0 31:1 32:0 33:0 34:0 35:0 36:0 37:0 38:0 39:0 40:-1 41:0 42:0 43:0 44:-2 45:0 46:0 47:0 48:-1 49:-1 50:0 51:0 52:-1 53:1 54:0 55:0 56:-4 57:-1 58:0 59:-1 60:-1 
-32.69629609143293 1:-1 2:-1 3:1 4:0 5:-1 6:0 7:0 8:3 9:0 10:0 11:1 12:0 13:-1 14:-1 15:1 16:0 17:0 18:0 19:0 20:1 21:0 22:0 23:1 24:0 25:-1 26:0 27:1 28:0 29:1 30:0 31:0 32:-1 33:0 34:0 35:0 36:0 37:-1 38:0 39:1 40:0 41:1 42:0 43:0 44:-1 45:0 46:0 47:0 48:0 49:0 50:0 51:0 52:0 53:2 54:0 55:0 56:-2 57:0 58:0 59:0 60:0 
-32.69629609143293 1:-1 2:-1 3:1 4:0 5:-1 6:-1 7:0 8:2 9:0 10:0 11:1 12:-1 13:-1 14:0 15:1 16:0 17:0 18:-1 19:0 20:0 21:0 22:0 23:0 24:-1 25:-1 26:0 27:1 28:0 29:0 30:-1 31:0 32:0 33:0 34:0 35:0 36:-1 37:0 38:0 39:0 40:0 41:1 42:-1 43:0 44:-1 45:0 46:0 47:0 48:-1 49:0 50:0 51:0 52:0 53:2 54:0 55:0 56:-1 57:0 58:0 59:0 60:0 
-32.69629609143293 1:-1 2:0 3:1 4:0 5:-1 6:-1 7:0 8:0 9:0 10:0 11:0 12:-1 13:-1 14:0 15:1 16:0 17:-1 18:-1 19:0 20:0 21:0 22:0 23:0 24:-1 25:0 26:0 27:0 28:0 29:0 30:-1 31:0 32:-1 33:0 34:0 35:0 36:-1 37:0 38:0 39:0 40:0 41:1 42:0 43:0 44:-1 45:0 46:0 47:0 48:0 49:0 50:0 51:0 52:0 53:1 54:0 55:0 56:-1 57:0 58:0 59:0 60:0 
-32.69629609143293 1:-1 2:0 3:1 4:0 5:-1 6:-1 7:0 8:1 9:0 10:0 11:0 12:-1 13:0 14:0 15:0 16:0 17:0 18:-1 19:0 20:0 21:0 22:0 23:0 24:-1 25:0 26:0 27:0 28:0 29:1 30:0 31:0 32:0 33:0 34:0 35:0 36:0 37:0 38:0 39:0 40:0 41:1 42:0 43:0 44:0 45:0 46:0 47:0 48:0 49:0 50:0 51:0 52:0 53:2 54:0 55:1 56:-1 57:0 58:0 59:0 60:0 
-32.69629609143293 1:0 2:0 3:0 4:0 5:-1 6:-1 7:0 8:0 9:0 10:0 11:0 12:-1 13:0 14:0 15:0 16:0 17:0 18:0 19:0 20:0 21:0 22:0 23:0 24:0 25:0 26:0 27:0 28:0 29:0 30:0 31:0 32:0 33:0 34:0 35:0 36:0 37:0 38:0 39:0 40:0 41:1 42:0 43:1 44:-1 45:0 46:0 47:0 48:0 49:0 50:0 51:0 52:0 53:1 54:1 55:1 56:-1 57:0 58:0 59:0 60:0 
-32.69629609143293 1:0 2:0 3:0 4:0 5:0 6:-1 7:0 8:0 9:0 10:0 11:0 12:0 13:0 14:0 15:0 16:0 17:0 18:-1 19:0 20:0 21:0 22:0 23:0 24:0 25:0 26:0 27:0 28:0 29:1 30:-1 31:1 32:-1 33:0 34:0 35:0 36:0 37:0 38:0 39:0 40:0 41:1 42:0 43:1 44:-1 45:0 46:0 47:0 48:0 49:0 50:0 51:0 52:0 53:1 54:0 55:1 56:-2 57:0 58:0 59:0 60:0 
-32.69629609143293 1:0 2:0 3:0 4:0 5:-1 6:-1 7:0 8:1 9:0 10:0 11:0 12:0 13:0 14:0 15:0 16:0 17:0 18:-1 19:1 20:0 21:0 22:0 23:0 24:0 25:0 26:0 27:0 28:0 29:0 30:0 31:1 32:0 33:0 34:0 35:0 36:0 37:0 38:0 39:0 40:0 41:0 42:0 43:1 44:-1 45:0 46:0 47:0 48:0 49:0 50:0 51:0 52:0 53:1 54:0 55:1 56:-1 57:0 58:0 59:0 60:0 
-32.69629609143293 1:0 2:0 3:0 4:0 5:0 6:-1 7:0 8:0 9:0 10:0 11:0 12:0 13:0 14:0 15:0 16:0 17:0 18:0 19:0 20:0 21:0 22:0 23:0 24:0 25:0 26:0 27:0 28:0 29:0 30:0 31:0 32:-1 33:0 34:0 35:0 36:0 37:0 38:0 39:0 40:0 41:1 42:0 43:0 44:-1 45:0 46:0 47:0 48:0 49:0 50:0 51:0 52:0 53:2 54:0 55:0 56:-1 57:0 58:0 59:0 60:0 
-32.69629609143293 1:0 2:0 3:0 4:0 5:-1 6:0 7:0 8:0 9:0 10:0 11:0 12:0 13:0 14:0 15:0 16:0 17:-1 18:0 19:0 20:-1 21:0 22:0 23:0 24:0 25:0 26:0 27:0 28:0 29:0 30:0 31:0 32:-1 33:0 34:0 35:0 36:0 37:0 38:0 39:0 40:0 41:1 42:0 43:0 44:-1 45:0 46:0 47:0 48:0 49:0 50:0 51:0 52:0 53:1 54:0 55:0 56:-1 57:0 58:0 59:0 60:0 
-32.69629609143293 1:0 2:0 3:0 4:0 5:-1 6:0 7:0 8:0 9:0 10:0 11:0 12:0 13:0 14:0 15:0 16:0 17:0 18:0 19:0 20:0 21:0 22:0 23:0 24:0 25:0 26:0 27:0 28:0 29:1 30:0 31:0 32:0 33:0 34:0 35:0 36:0 37:0 38:0 39:0 40:0 41:1 42:0 43:0 44:0 45:0 46:0 47:0 48:0 49:0 50:0 51:0 52:0 53:1 54:0 55:0 56:0 57:0 58:0 59:0 60:0 
-32.69629609143293 1:0 2:0 3:0 4:0 5:0 6:0 7:0 8:0 9:0 10:0 11:0 12:0 13:0 14:0 15:0 16:0 17:1 18:0 19:0 20:0 21:0 22:0 23:0 24:0 25:0 26:0 27:0 28:0 29:1 30:0 31:0 32:0 33:0 34:0 35:0 36:0 37:0 38:0 39:0 40:0 41:1 42:0 43:0 44:0 45:0 46:0 47:0 48:0 49:0 50:0 51:0 52:0 53:1 54:0 55:0 56:0 57:0 58:0 59:0 60:0 
-32.69629609143293 1:1 2:-1 3:0 4:1 5:0 6:-1 7:2 8:2 9:-1 10:0 11:1 12:0 13:1 14:-1 15:0 16:0 17:-1 18:0 19:1 20:1 21:-1 22:0 23:1 24:0 25:0 26:0 27:0 28:-1 29:-1 30:0 31:1 32:0 33:0 34:0 35:1 36:0 37:0 38:0 39:0 40:-1 41:0 42:0 43:0 44:-2 45:0 46:0 47:0 48:0 49:0 50:0 51:0 52:-1 53:0 54:-1 55:0 56:-4 57:1 58:0 59:0 60:0 
-32.69629609143293 1:1 2:-1 3:0 4:1 5:-1 6:0 7:1 8:3 9:-1 10:0 11:1 12:0 13:0 14:0 15:0 16:0 17:-1 18:0 19:1 20:2 21:0 22:0 23:1 24:0 25:0 26:0 27:0 28:0 29:0 30:0 31:0 32:0 33:0 34:0 35:0 36:0 37:0 38:0 39:0 40:0 41:0 42:-1 43:0 44:-2 45:1 46:0 47:0 48:0 49:0 50:1 51:0 52:-1 53:1 54:-2 55:0 56:-4 57:0 58:0 59:0 60:0 
-26.86685922451715 1:0 2:-1 3:0 4:0 5:-2 6:1 7:1 8:4 9:-1 10:0 11:1 12:0 13:0 14:-1 15:0 16:0 17:-1 18:1 19:0 20:2 21:-1 22:0 23:0 24:0 25:0 26:-1 27:0 28:0 29:-1 30:0 31:0 32:0 33:0 34:0 35:0 36:0 37:0 38:0 39:0 40:-1 41:0 42:-1 43:0 44:-2 45:-1 46:0 47:0 48:0 49:0 50:0 51:0 52:-2 53:1 54:-1 55:0 56:-4 57:-1 58:0 59:0 60:0 
-31.16305758660635 1:1 2:-1 3:0 4:0 5:-2 6:-1 7:2 8:4 9:1 10:0 11:1 12:0 13:1 14:-1 15:0 16:-1 17:-1 18:0 19:1 20:2 21:0 22:0 23:0 24:0 25:0 26:-1 27:0 28:-1 29:-1 30:0 31:1 32:0 33:0 34:0 35:0 36:0 37:0 38:0 39:0 40:-1 41:0 42:0 43:0 44:-2 45:0 46:0 47:0 48:-1 49:-1 50:0 51:0 52:-1 53:1 54:0 55:0 56:-4 57:-1 58:0 59:-1 60:-1 
-32.69629609143293 1:-1 2:-1 3:1 4:0 5:-1 6:0 7:0 8:3 9:0 10:0 11:1 12:0 13:-1 14:-1 15:1 16:0 17:0 18:0 19:0 20:1 21:0 22:0 23:1 24:0 25:-1 26:0 27:1 28:0 29:1 30:0 31:0 32:-1 33:0 34:0 35:0 36:0 37:-1 38:0 39:1 40:0 41:1 42:0 43:0 44:-1 45:0 46:0 47:0 48:0 49:0 50:0 51:0 52:0 53:2 54:0 55:0 56:-2 57:0 58:0 59:0 60:0 
-32.69629609143293 1:-1 2:-1 3:1 4:0 5:-1 6:-1 7:0 8:2 9:0 10:0 11:1 12:-1 13:-1 14:0 15:1 16:0 17:0 18:-1 19:0 20:0 21:0 22:0 23:0 24:-1 25:-1 26:0 27:1 28:0 29:0 30:-1 31:0 32:0 33:0 34:0 35:0 36:-1 37:0 38:0 39:0 40:0 41:1 42:-1 43:0 44:-1 45:0 46:0 47:0 48:-1 49:0 50:0 51:0 52:0 53:2 54:0 55:0 56:-1 57:0 58:0 59:0 60:0 
-32.69629609143293 1:-1 2:0 3:1 4:0 5:-1 6:-1 7:0 8:0 9:0 10:0 11:0 12:-1 13:-1 14:0 15:1 16:0 17:-1 18:-1 19:0 20:0 21:0 22:0 23:0 24:-1 25:0 26:0 27:0 28:0 29:0 30:-1 31:0 32:-1 33:0 34:0 35:0 36:-1 37:0 38:0 39:0 40:0 41:1 42:0 43:0 44:-1 45:0 46:0 47:0 48:0 49:0 50:0 51:0 52:0 53:1 54:0 55:0 56:-1 57:0 58:0 59:0 60:0 
-32.69629609143293 1:-1 2:0 3:1 4:0 5:-1 6:-1 7:0 8:1 9:0 10:0 11:0 12:-1 13:0 14:0 15:0 16:0 17:0 18:-1 19:0 20:0 21:0 22:0 23:0 24:-1 25:0 26:0 27:0 28:0 29:1 30:0 31:0 32:0 33:0 34:0 35:0 36:0 37:0 38:0 39:0 40:0 41:1 42:0 43:0 44:0 45:0 46:0 47:0 48:0 49:0 50:0 51:0 52:0 53:2 54:0 55:1 56:-1 57:0 58:0 59:0 60:0 
-32.69629609143293 1:0 2:0 3:0 4:0 5:-1 6:-1 7:0 8:0 9:0 10:0 11:0 12:-1 13:0 14:0 15:0 16:0 17:0 18:0 19:0 20:0 21:0 22:0 23:0 24:0 25:0 26:0 27:0 28:0 29:0 30:0 31:0 32:0 33:0 34:0 35:0 36:0 37:0 38:0 39:0 40:0 41:1 42:0 43:1 44:-1 45:0 46:0 47:0 48:0 49:0 50:0 51:0 52:0 53:1 54:1 55:1 56:-1 57:0 58:0 59:0 60:0 
-32.69629609143293 1:0 2:0 3:0 4:0 5:0 6:-1 7:0 8:0 9:0 10:0 11:0 12:0 13:0 14:0 15:0 16:0 17:0 18:-1 19:0 20:0 21:0 22:0 23:0 24:0 25:0 26:0 27:0 28:0 29:1 30:-1 31:1 32:-1 33:0 34:0 35:0 36:0 37:0 38:0 39:0 40:0 41:1 42:0 43:1 44:-1 45:0 46:0 47:0 48:0 49:0 50:0 51:0 52:0 53:1 54:0 55:1 56:-2 57:0 58:0 59:0 60:0 
-32.69629609143293 1:0 2:0 3:0 4:0 5:-1 6:-1 7:0 8:1 9:0 10:0 11:0 12:0 13:0 14:0 15:0 16:0 17:0 18:-1 19:1 20:0 21:0 22:0 23:0 24:0 25:0 26:0 27:0 28:0 29:0 30:0 31:1 32:0 33:0 34:0 35:0 36:0 37:0 38:0 39:0 40:0 41:0 42:0 43:1 44:-1 45:0 46:0 47:0 48:0 49:0 50:0 51:0 52:0 53:1 54:0 55:1 56:-1 57:0 58:0 59:0 60:0 
-32.69629609143293 1:0 2:0 3:0 4:0 5:0 6:-1 7:0 8:0 9:0 10:0 11:0 12:0 13:0 14:0 15:0 16:0 17:0 18:0 19:0 20:0 21:0 22:0 23:0 24:0 25:0 26:0 27:0 28:0 29:0 30:0 31:0 32:-1 33:0 34:0 35:0 36:0 37:0 38:0 39:0 40:0 41:1 42:0 43:0 44:-1 45:0 46:0 47:0 48:0 49:0 50:0 51:0 52:0 53:2 54:0 55:0 56:-1 57:0 58:0 59:0 60:0 
-32.69629609143293 1:0 2:0 3:0 4:0 5:-1 6:0 7:0 8:0 9:0 10:0 11:0 12:0 13:0 14:0 15:0 16:0 17:-1 18:0 19:0 20:-1 21:0 22:0 23:0 24:0 25:0 26:0 27:0 28:0 29:0 30:0 31:0 32:-1 33:0 34:0 35:0 36:0 37:0 38:0 39:0 40:0 41:1 42:0 43:0 44:-1 45:0 46:0 47:0 48:0 49:0 50:0 51:0 52:0 53:1 54:0 55:0 56:-1 57:0 58:0 59:0 60:0 
-32.69629609143293 1:0 2:0 3:0 4:0 5:-1 6:0 7:0 8:0 9:0 10:0 11:0 12:0 13:0 14:0 15:0 16:0 17:0 18:0 19:0 20:0 21:0 22:0 23:0 24:0 25:0 26:0 27:0 28:0 29:1 30:0 31:0 32:0 33:0 34:0 35:0 36:0 37:0 38:0 39:0 40:0 41:1 42:0 43:0 44:0 45:0 46:0 47:0 48:0 49:0 50:0 51:0 52:0 53:1 54:0 55:0 56:0 57:0 58:0 59:0 60:0 
-32.69629609143293 1:0 2:0 3:0 4:0 5:0 6:0 7:0 8:0 9:0 10:0 11:0 12:0 13:0 14:0 15:0 16:0 17:1 18:0 19:0 20:0 21:0 22:0 23:0 24:0 25:0 26:0 27:0 28:0 29:1 30:0 31:0 32:0 33:0 34:0 35:0 36:0 37:0 38:0 39:0 40:0 41:1 42:0 43:0 44:0 45:0 46:0 47:0 48:0 49:0 50:0 51:0 52:0 53:1 54:0 55:0 56:0 57:0 58:0 59:0 60:0 
