svm_type c_svc
kernel_type rbf
gamma 6.10352e-005
nr_class 2
total_sv 151
rho -16.2649
label 1 3
nr_sv 92 59
SV
71.3684199985705 1:1 2:0 3:0 4:0 5:2 6:2 7:1 8:0 9:3 10:1 11:0 12:0 13:1 14:0 15:0 16:-1 17:0 18:0 19:1 20:1 21:0 22:1 23:0 24:-1 25:-1 26:0 27:-1 28:0 29:1 30:-1 31:0 32:1 33:-1 34:0 35:0 36:-1 37:0 38:0 39:-1 40:0 41:1 42:-1 43:0 44:0 45:-1 46:0 47:0 48:-1 49:0 50:0 51:-1 52:0 53:0 54:0 55:1 56:-1 57:-1 58:0 59:0 60:-1 
71.3684199985705 1:1 2:0 3:0 4:-1 5:0 6:0 7:1 8:2 9:0 10:1 11:0 12:0 13:-1 14:0 15:-1 16:0 17:1 18:-1 19:0 20:2 21:-1 22:0 23:0 24:0 25:0 26:0 27:-1 28:0 29:1 30:-1 31:0 32:1 33:-1 34:0 35:0 36:0 37:0 38:0 39:-1 40:0 41:0 42:0 43:1 44:0 45:-1 46:0 47:0 48:0 49:0 50:0 51:-1 52:0 53:0 54:-1 55:2 56:-2 57:-1 58:0 59:0 60:0 
71.3684199985705 1:2 2:0 3:-3 4:0 5:2 6:0 7:0 8:2 9:-1 10:0 11:0 12:-1 13:1 14:0 15:-1 16:0 17:1 18:0 19:0 20:1 21:-1 22:0 23:0 24:-1 25:0 26:-1 27:0 28:0 29:0 30:-1 31:0 32:0 33:-1 34:0 35:0 36:-1 37:-1 38:-1 39:1 40:-1 41:0 42:-1 43:0 44:-1 45:0 46:0 47:0 48:0 49:-1 50:-1 51:1 52:0 53:-1 54:-1 55:1 56:-1 57:1 58:0 59:0 60:0 
71.3684199985705 1:-1 2:-1 3:2 4:0 5:3 6:0 7:-1 8:2 9:1 10:0 11:0 12:0 13:-1 14:-1 15:2 16:0 17:1 18:0 19:-1 20:0 21:0 22:0 23:0 24:0 25:1 26:0 27:-1 28:-1 29:0 30:0 31:0 32:-1 33:0 34:0 35:0 36:0 37:1 38:0 39:-1 40:-1 41:0 42:0 43:1 44:-1 45:-1 46:0 47:0 48:0 49:1 50:0 51:-2 52:-1 53:0 54:0 55:2 56:-3 57:-1 58:0 59:0 60:0 
71.3684199985705 1:1 2:-1 3:0 4:0 5:6 6:-1 7:1 8:3 9:-2 10:0 11:1 12:0 13:1 14:-1 15:0 16:0 17:4 18:-1 19:1 20:2 21:-1 22:0 23:1 24:0 25:1 26:-1 27:0 28:0 29:0 30:-1 31:1 32:0 33:0 34:0 35:1 36:0 37:0 38:-1 39:-1 40:-1 41:-3 42:-1 43:0 44:-2 45:-1 46:0 47:1 48:0 49:-1 50:0 51:0 52:-2 53:-7 54:2 55:-1 56:-5 57:0 58:1 59:0 60:0 
71.3684199985705 1:2 2:-1 3:0 4:1 5:7 6:-2 7:2 8:4 9:-1 10:0 11:1 12:0 13:2 14:-1 15:0 16:1 17:3 18:-2 19:2 20:2 21:0 22:0 23:1 24:0 25:1 26:-1 27:-1 28:0 29:0 30:-2 31:1 32:0 33:-1 34:0 35:1 36:0 37:0 38:0 39:0 40:-1 41:-4 42:1 43:0 44:-3 45:0 46:1 47:0 48:0 49:-2 50:0 51:0 52:-1 53:-8 54:5 55:-1 56:-5 57:2 58:1 59:0 60:0 
71.3684199985705 1:0 2:0 3:-1 4:0 5:0 6:-2 7:2 8:0 9:2 10:0 11:0 12:-1 13:-1 14:0 15:-1 16:0 17:0 18:-1 19:1 20:-1 21:-1 22:0 23:0 24:-1 25:-1 26:0 27:-1 28:-1 29:0 30:1 31:0 32:-1 33:-1 34:0 35:0 36:-1 37:0 38:-1 39:0 40:-1 41:-1 42:1 43:0 44:-1 45:-1 46:0 47:0 48:0 49:2 50:0 51:0 52:-1 53:-1 54:1 55:0 56:-1 57:-1 58:0 59:0 60:0 
71.3684199985705 1:-1 2:0 3:-1 4:0 5:0 6:-3 7:1 8:0 9:0 10:0 11:0 12:-1 13:-1 14:0 15:-1 16:-1 17:0 18:-1 19:0 20:0 21:0 22:0 23:0 24:-1 25:0 26:-1 27:0 28:-1 29:-1 30:-1 31:0 32:0 33:0 34:0 35:0 36:0 37:2 38:0 39:0 40:-1 41:-1 42:-1 43:0 44:0 45:0 46:0 47:0 48:0 49:2 50:-1 51:0 52:-1 53:-2 54:2 55:0 56:0 57:0 58:0 59:1 60:0 
71.3684199985705 1:-2 2:0 3:-1 4:-1 5:1 6:-2 7:0 8:0 9:0 10:0 11:0 12:-1 13:-1 14:-1 15:0 16:-1 17:0 18:-2 19:0 20:0 21:0 22:0 23:0 24:0 25:1 26:0 27:0 28:-1 29:0 30:-2 31:0 32:0 33:0 34:0 35:0 36:0 37:1 38:-1 39:0 40:-1 41:-1 42:1 43:0 44:0 45:0 46:0 47:1 48:0 49:1 50:-1 51:0 52:0 53:-1 54:3 55:0 56:0 57:0 58:0 59:1 60:0 
71.3684199985705 1:0 2:0 3:0 4:-1 5:0 6:-4 7:0 8:0 9:0 10:0 11:0 12:0 13:0 14:-1 15:0 16:-1 17:-1 18:-1 19:0 20:0 21:0 22:0 23:1 24:0 25:0 26:-1 27:0 28:0 29:-1 30:1 31:0 32:0 33:0 34:0 35:1 36:0 37:0 38:-1 39:0 40:0 41:-1 42:1 43:0 44:0 45:0 46:0 47:1 48:0 49:0 50:-1 51:0 52:0 53:-1 54:1 55:0 56:0 57:0 58:0 59:1 60:0 
71.3684199985705 1:1 2:0 3:-1 4:0 5:0 6:0 7:0 8:0 9:-1 10:0 11:0 12:0 13:1 14:0 15:-1 16:0 17:0 18:0 19:0 20:0 21:-1 22:0 23:0 24:0 25:1 26:0 27:-1 28:0 29:0 30:0 31:0 32:0 33:-1 34:0 35:0 36:0 37:-1 38:0 39:0 40:0 41:0 42:0 43:1 44:0 45:0 46:0 47:0 48:0 49:-2 50:-1 51:1 52:0 53:0 54:-1 55:1 56:0 57:1 58:0 59:0 60:0 
15.77271469348508 1:2 2:0 3:-2 4:-1 5:0 6:1 7:-1 8:0 9:-2 10:0 11:0 12:0 13:0 14:0 15:-1 16:-1 17:0 18:1 19:0 20:0 21:-1 22:0 23:0 24:0 25:-1 26:-1 27:0 28:-1 29:0 30:0 31:0 32:0 33:0 34:0 35:0 36:0 37:1 38:0 39:1 40:-1 41:0 42:-1 43:1 44:-1 45:1 46:0 47:0 48:0 49:1 50:0 51:3 52:0 53:-2 54:-1 55:1 56:-2 57:2 58:1 59:0 60:0 
26.33391734950777 1:-1 2:-1 3:-2 4:0 5:1 6:-1 7:-1 8:2 9:-3 10:0 11:0 12:0 13:1 14:0 15:-1 16:0 17:1 18:-2 19:0 20:1 21:-2 22:0 23:0 24:0 25:1 26:0 27:1 28:1 29:-1 30:-2 31:0 32:0 33:-1 34:1 35:0 36:0 37:0 38:0 39:1 40:-1 41:-2 42:0 43:1 44:-2 45:1 46:1 47:0 48:-1 49:0 50:0 51:1 52:-3 53:-3 54:4 55:1 56:-2 57:4 58:1 59:0 60:-1 
71.3684199985705 1:0 2:0 3:1 4:-2 5:-1 6:0 7:5 8:-1 9:5 10:0 11:0 12:-1 13:1 14:0 15:1 16:-1 17:0 18:1 19:2 20:2 21:1 22:0 23:0 24:-1 25:0 26:0 27:0 28:0 29:1 30:0 31:-1 32:1 33:-3 34:0 35:0 36:-1 37:0 38:0 39:-1 40:1 41:1 42:-1 43:-1 44:0 45:-3 46:0 47:0 48:0 49:0 50:-1 51:1 52:0 53:1 54:0 55:-1 56:0 57:-2 58:0 59:0 60:0 
3.338489858764925 1:1 2:-1 3:2 4:0 5:2 6:-2 7:0 8:5 9:-3 10:0 11:0 12:-1 13:1 14:-1 15:1 16:0 17:1 18:-1 19:3 20:-1 21:-1 22:0 23:0 24:0 25:0 26:0 27:0 28:0 29:0 30:0 31:4 32:-3 33:0 34:0 35:0 36:-1 37:0 38:0 39:-1 40:0 41:0 42:2 43:3 44:-3 45:0 46:0 47:0 48:-1 49:1 50:0 51:-2 52:0 53:0 54:1 55:-6 56:4 57:2 58:0 59:0 60:-1 
71.3684199985705 1:1 2:-1 3:1 4:0 5:1 6:-1 7:5 8:-2 9:-2 10:0 11:0 12:0 13:0 14:0 15:0 16:0 17:0 18:0 19:6 20:-4 21:-1 22:0 23:0 24:-1 25:0 26:0 27:-1 28:0 29:0 30:2 31:5 32:-4 33:-1 34:0 35:0 36:-1 37:1 38:0 39:-2 40:0 41:0 42:1 43:-4 44:3 45:1 46:0 47:0 48:-1 49:0 50:0 51:-2 52:0 53:0 54:0 55:-12 56:8 57:3 58:0 59:0 60:0 
0.8656742644001474 1:-1 2:-1 3:0 4:0 5:0 6:2 7:12 8:-8 9:-1 10:0 11:0 12:-1 13:0 14:-1 15:-1 16:0 17:0 18:1 19:3 20:-1 21:1 22:0 23:0 24:-1 25:-1 26:-1 27:-1 28:0 29:0 30:0 31:-5 32:4 33:3 34:0 35:0 36:0 37:0 38:-1 39:-1 40:0 41:0 42:1 43:-5 44:4 45:0 46:0 47:0 48:0 49:2 50:0 51:-1 52:0 53:0 54:0 55:-1 56:3 57:-5 58:0 59:0 60:0 
71.3684199985705 1:-2 2:-1 3:0 4:-1 5:1 6:3 7:-3 8:3 9:4 10:0 11:0 12:0 13:-1 14:-1 15:0 16:-1 17:1 18:4 19:-3 20:3 21:1 22:0 23:0 24:0 25:1 26:0 27:0 28:-1 29:1 30:3 31:1 32:2 33:-4 34:0 35:0 36:0 37:2 38:0 39:-1 40:-1 41:0 42:2 43:3 44:-1 45:-2 46:0 47:0 48:0 49:2 50:1 51:-2 52:2 53:0 54:-11 55:6 56:-3 57:0 58:-1 59:0 60:0 
0.4908903457367354 1:-1 2:-1 3:1 4:-5 5:3 6:16 7:-5 8:4 9:-4 10:0 11:0 12:0 13:0 14:-1 15:0 16:-5 17:2 18:15 19:-3 20:1 21:-2 22:0 23:0 24:0 25:0 26:0 27:-1 28:-2 29:2 30:2 31:0 32:-1 33:0 34:-1 35:0 36:0 37:1 38:0 39:-2 40:3 41:-1 42:-15 43:3 44:0 45:1 46:-1 47:0 48:0 49:2 50:1 51:-2 52:6 53:-2 54:-16 55:5 56:-1 57:2 58:-1 59:0 60:0 
16.06225711398567 1:-1 2:-2 3:1 4:-7 5:2 6:20 7:-5 8:2 9:-3 10:1 11:0 12:0 13:-1 14:-1 15:0 16:-4 17:2 18:7 19:-2 20:0 21:-1 22:0 23:0 24:0 25:0 26:-1 27:-1 28:1 29:-1 30:-10 31:1 32:1 33:0 34:0 35:0 36:0 37:1 38:0 39:-1 40:4 41:-2 42:-11 43:3 44:0 45:1 46:0 47:0 48:0 49:2 50:1 51:-2 52:5 53:1 54:-10 55:4 56:1 57:-1 58:-1 59:0 60:0 
0.5881475347109885 1:-2 2:-1 3:1 4:-6 5:3 6:13 7:-3 8:0 9:-1 10:0 11:1 12:0 13:-1 14:-1 15:0 16:-1 17:0 18:-4 19:0 20:1 21:0 22:0 23:1 24:0 25:0 26:0 27:0 28:2 29:-1 30:-5 31:2 32:0 33:1 34:0 35:1 36:0 37:1 38:1 39:-1 40:3 41:2 42:-4 43:3 44:1 45:-1 46:-1 47:1 48:0 49:3 50:1 51:-1 52:1 53:0 54:-3 55:2 56:1 57:-2 58:-1 59:0 60:0 
70.91859042525825 1:-3 2:-3 3:1 4:1 5:2 6:3 7:2 8:-3 9:-8 10:1 11:1 12:-1 13:-2 14:-2 15:0 16:0 17:1 18:-1 19:1 20:-1 21:3 22:0 23:1 24:-1 25:0 26:0 27:-1 28:-2 29:1 30:-4 31:0 32:0 33:6 34:0 35:1 36:-1 37:2 38:2 39:-1 40:-2 41:0 42:-2 43:-1 44:-1 45:2 46:-2 47:0 48:0 49:5 50:3 51:0 52:-1 53:-1 54:1 55:-1 56:5 57:-2 58:-3 59:0 60:0 
46.49054458020042 1:0 2:-2 3:0 4:-1 5:1 6:-4 7:4 8:2 9:5 10:0 11:1 12:0 13:1 14:0 15:0 16:-2 17:0 18:-1 19:0 20:1 21:5 22:-1 23:0 24:0 25:1 26:1 27:0 28:-2 29:-3 30:2 31:3 32:6 33:5 34:-1 35:0 36:-1 37:1 38:0 39:0 40:-1 41:-2 42:1 43:0 44:1 45:6 46:-1 47:0 48:-1 49:-2 50:-1 51:-1 52:4 53:5 54:0 55:-6 56:-7 57:-18 58:1 59:1 60:-1 
0.0497444022087937 1:2 2:0 3:0 4:-3 5:-1 6:-2 7:1 8:4 9:11 10:-1 11:0 12:1 13:2 14:1 15:0 16:-3 17:-4 18:1 19:4 20:9 21:11 22:-1 23:0 24:0 25:2 26:0 27:0 28:-2 29:-3 30:0 31:1 32:4 33:12 34:-1 35:0 36:0 37:-1 38:-1 39:-1 40:3 41:4 42:-1 43:-5 44:-4 45:-12 46:1 47:1 48:0 49:-2 50:-2 51:-1 52:3 53:5 54:-1 55:-1 56:-13 57:-23 58:1 59:1 60:-1 
71.3684199985705 1:0 2:0 3:0 4:0 5:0 6:0 7:0 8:0 9:0 10:0 11:0 12:0 13:0 14:0 15:0 16:0 17:0 18:0 19:0 20:0 21:0 22:0 23:0 24:0 25:0 26:0 27:0 28:0 29:0 30:0 31:0 32:0 33:0 34:0 35:0 36:0 37:0 38:0 39:0 40:0 41:0 42:0 43:0 44:0 45:0 46:0 47:0 48:0 49:0 50:0 51:0 52:0 53:0 54:0 55:0 56:0 57:0 58:0 59:0 60:0 
71.3684199985705 1:1 2:0 3:0 4:0 5:2 6:2 7:1 8:0 9:3 10:1 11:0 12:0 13:1 14:0 15:0 16:-1 17:0 18:0 19:1 20:1 21:0 22:1 23:0 24:-1 25:-1 26:0 27:-1 28:0 29:1 30:-1 31:0 32:1 33:-1 34:0 35:0 36:-1 37:0 38:0 39:-1 40:0 41:1 42:-1 43:0 44:0 45:-1 46:0 47:0 48:-1 49:0 50:0 51:-1 52:0 53:0 54:0 55:1 56:-1 57:-1 58:0 59:0 60:-1 
71.3684199985705 1:1 2:0 3:0 4:-1 5:0 6:0 7:1 8:2 9:0 10:1 11:0 12:0 13:-1 14:0 15:-1 16:0 17:1 18:-1 19:0 20:2 21:-1 22:0 23:0 24:0 25:0 26:0 27:-1 28:0 29:1 30:-1 31:0 32:1 33:-1 34:0 35:0 36:0 37:0 38:0 39:-1 40:0 41:0 42:0 43:1 44:0 45:-1 46:0 47:0 48:0 49:0 50:0 51:-1 52:0 53:0 54:-1 55:2 56:-2 57:-1 58:0 59:0 60:0 
22.29753199321902 1:2 2:0 3:-2 4:1 5:3 6:0 7:0 8:2 9:-1 10:0 11:0 12:-1 13:2 14:0 15:-2 16:0 17:1 18:0 19:0 20:1 21:-1 22:0 23:0 24:-1 25:1 26:0 27:0 28:0 29:0 30:0 31:0 32:0 33:-1 34:0 35:0 36:-1 37:0 38:-1 39:1 40:0 41:-1 42:-1 43:0 44:-1 45:-1 46:0 47:0 48:-1 49:-1 50:-1 51:2 52:-1 53:-1 54:-1 55:0 56:-2 57:0 58:0 59:0 60:0 
71.3684199985705 1:2 2:0 3:-3 4:0 5:2 6:0 7:0 8:2 9:-1 10:0 11:0 12:-1 13:1 14:0 15:-1 16:0 17:1 18:0 19:0 20:1 21:-1 22:0 23:0 24:-1 25:0 26:-1 27:0 28:0 29:0 30:-1 31:0 32:0 33:-1 34:0 35:0 36:-1 37:-1 38:-1 39:1 40:-1 41:0 42:-1 43:0 44:-1 45:0 46:0 47:0 48:0 49:-1 50:-1 51:1 52:0 53:-1 54:-1 55:1 56:-1 57:1 58:0 59:0 60:0 
71.3684199985705 1:-1 2:-1 3:2 4:0 5:3 6:0 7:-1 8:2 9:1 10:0 11:0 12:0 13:-1 14:-1 15:2 16:0 17:1 18:0 19:-1 20:0 21:0 22:0 23:0 24:0 25:1 26:0 27:-1 28:-1 29:0 30:0 31:0 32:-1 33:0 34:0 35:0 36:0 37:1 38:0 39:-1 40:-1 41:0 42:0 43:1 44:-1 45:-1 46:0 47:0 48:0 49:1 50:0 51:-2 52:-1 53:0 54:0 55:2 56:-3 57:-1 58:0 59:0 60:0 
71.3684199985705 1:1 2:-1 3:0 4:0 5:6 6:-1 7:1 8:3 9:-2 10:0 11:1 12:0 13:1 14:-1 15:0 16:0 17:4 18:-1 19:1 20:2 21:-1 22:0 23:1 24:0 25:1 26:-1 27:0 28:0 29:0 30:-1 31:1 32:0 33:0 34:0 35:1 36:0 37:0 38:-1 39:-1 40:-1 41:-3 42:-1 43:0 44:-2 45:-1 46:0 47:1 48:0 49:-1 50:0 51:0 52:-2 53:-7 54:2 55:-1 56:-5 57:0 58:1 59:0 60:0 
71.3684199985705 1:2 2:-1 3:0 4:1 5:7 6:-2 7:2 8:4 9:-1 10:0 11:1 12:0 13:2 14:-1 15:0 16:1 17:3 18:-2 19:2 20:2 21:0 22:0 23:1 24:0 25:1 26:-1 27:-1 28:0 29:0 30:-2 31:1 32:0 33:-1 34:0 35:1 36:0 37:0 38:0 39:0 40:-1 41:-4 42:1 43:0 44:-3 45:0 46:1 47:0 48:0 49:-2 50:0 51:0 52:-1 53:-8 54:5 55:-1 56:-5 57:2 58:1 59:0 60:0 
71.3684199985705 1:0 2:0 3:-1 4:0 5:0 6:-2 7:2 8:0 9:2 10:0 11:0 12:-1 13:-1 14:0 15:-1 16:0 17:0 18:-1 19:1 20:-1 21:-1 22:0 23:0 24:-1 25:-1 26:0 27:-1 28:-1 29:0 30:1 31:0 32:-1 33:-1 34:0 35:0 36:-1 37:0 38:-1 39:0 40:-1 41:-1 42:1 43:0 44:-1 45:-1 46:0 47:0 48:0 49:2 50:0 51:0 52:-1 53:-1 54:1 55:0 56:-1 57:-1 58:0 59:0 60:0 
71.3684199985705 1:-1 2:0 3:-1 4:0 5:0 6:-3 7:1 8:0 9:0 10:0 11:0 12:-1 13:-1 14:0 15:-1 16:-1 17:0 18:-1 19:0 20:0 21:0 22:0 23:0 24:-1 25:0 26:-1 27:0 28:-1 29:-1 30:-1 31:0 32:0 33:0 34:0 35:0 36:0 37:2 38:0 39:0 40:-1 41:-1 42:-1 43:0 44:0 45:0 46:0 47:0 48:0 49:2 50:-1 51:0 52:-1 53:-2 54:2 55:0 56:0 57:0 58:0 59:1 60:0 
71.3684199985705 1:-2 2:0 3:-1 4:-1 5:1 6:-2 7:0 8:0 9:0 10:0 11:0 12:-1 13:-1 14:-1 15:0 16:-1 17:0 18:-2 19:0 20:0 21:0 22:0 23:0 24:0 25:1 26:0 27:0 28:-1 29:0 30:-2 31:0 32:0 33:0 34:0 35:0 36:0 37:1 38:-1 39:0 40:-1 41:-1 42:1 43:0 44:0 45:0 46:0 47:1 48:0 49:1 50:-1 51:0 52:0 53:-1 54:3 55:0 56:0 57:0 58:0 59:1 60:0 
44.38401667897649 1:-1 2:-1 3:0 4:-1 5:0 6:-3 7:0 8:0 9:0 10:0 11:0 12:0 13:1 14:0 15:0 16:-1 17:0 18:-3 19:0 20:0 21:0 22:0 23:0 24:0 25:1 26:-1 27:0 28:-1 29:-1 30:0 31:0 32:0 33:0 34:0 35:1 36:0 37:1 38:-1 39:0 40:0 41:-1 42:2 43:0 44:0 45:0 46:0 47:1 48:0 49:1 50:-1 51:0 52:0 53:-1 54:2 55:0 56:0 57:0 58:0 59:1 60:0 
71.3684199985705 1:0 2:0 3:0 4:-1 5:0 6:-4 7:0 8:0 9:0 10:0 11:0 12:0 13:0 14:-1 15:0 16:-1 17:-1 18:-1 19:0 20:0 21:0 22:0 23:1 24:0 25:0 26:-1 27:0 28:0 29:-1 30:1 31:0 32:0 33:0 34:0 35:1 36:0 37:0 38:-1 39:0 40:0 41:-1 42:1 43:0 44:0 45:0 46:0 47:1 48:0 49:0 50:-1 51:0 52:0 53:-1 54:1 55:0 56:0 57:0 58:0 59:1 60:0 
71.3684199985705 1:1 2:0 3:-1 4:0 5:0 6:0 7:0 8:0 9:-1 10:0 11:0 12:0 13:1 14:0 15:-1 16:0 17:0 18:0 19:0 20:0 21:-1 22:0 23:0 24:0 25:1 26:0 27:-1 28:0 29:0 30:0 31:0 32:0 33:-1 34:0 35:0 36:0 37:-1 38:0 39:0 40:0 41:0 42:0 43:1 44:0 45:0 46:0 47:0 48:0 49:-2 50:-1 51:1 52:0 53:0 54:-1 55:1 56:0 57:1 58:0 59:0 60:0 
30.94754061711517 1:2 2:0 3:-2 4:0 5:0 6:0 7:0 8:0 9:-2 10:0 11:0 12:0 13:2 14:0 15:-2 16:0 17:0 18:0 19:0 20:0 21:-2 22:0 23:0 24:0 25:0 26:0 27:-1 28:0 29:0 30:0 31:1 32:0 33:-1 34:0 35:0 36:0 37:-1 38:-1 39:0 40:0 41:0 42:-1 43:1 44:0 45:0 46:0 47:0 48:0 49:1 50:0 51:1 52:0 53:0 54:-2 55:2 56:-1 57:1 58:0 59:0 60:0 
71.3684199985705 1:2 2:0 3:-2 4:-1 5:0 6:1 7:-1 8:0 9:-2 10:0 11:0 12:0 13:0 14:0 15:-1 16:-1 17:0 18:1 19:0 20:0 21:-1 22:0 23:0 24:0 25:-1 26:-1 27:0 28:-1 29:0 30:0 31:0 32:0 33:0 34:0 35:0 36:0 37:1 38:0 39:1 40:-1 41:0 42:-1 43:1 44:-1 45:1 46:0 47:0 48:0 49:1 50:0 51:3 52:0 53:-2 54:-1 55:1 56:-2 57:2 58:1 59:0 60:0 
44.87417726160579 1:0 2:0 3:-2 4:0 5:1 6:1 7:0 8:1 9:-3 10:0 11:0 12:0 13:-1 14:-1 15:-1 16:0 17:1 18:0 19:0 20:1 21:-2 22:0 23:0 24:0 25:1 26:0 27:0 28:0 29:1 30:-1 31:1 32:0 33:-1 34:0 35:0 36:0 37:1 38:0 39:2 40:1 41:-1 42:-1 43:1 44:-1 45:0 46:1 47:0 48:0 49:0 50:0 51:2 52:-1 53:-2 54:1 55:2 56:-3 57:2 58:1 59:0 60:-1 
71.3684199985705 1:-1 2:-1 3:-2 4:0 5:1 6:-1 7:-1 8:2 9:-3 10:0 11:0 12:0 13:1 14:0 15:-1 16:0 17:1 18:-2 19:0 20:1 21:-2 22:0 23:0 24:0 25:1 26:0 27:1 28:1 29:-1 30:-2 31:0 32:0 33:-1 34:1 35:0 36:0 37:0 38:0 39:1 40:-1 41:-2 42:0 43:1 44:-2 45:1 46:1 47:0 48:-1 49:0 50:0 51:1 52:-3 53:-3 54:4 55:1 56:-2 57:4 58:1 59:0 60:-1 
1.249696584852702 1:0 2:0 3:1 4:3 5:-18 6:-9 7:1 8:-17 9:-8 10:0 11:0 12:0 13:0 14:0 15:1 16:1 17:-11 18:-4 19:0 20:-9 21:-3 22:0 23:0 24:0 25:0 26:0 27:0 28:-1 29:0 30:0 31:0 32:1 33:1 34:0 35:0 36:0 37:0 38:0 39:0 40:-1 41:9 42:3 43:0 44:9 45:4 46:0 47:0 48:0 49:0 50:0 51:0 52:-3 53:18 54:7 55:1 56:13 57:6 58:0 59:0 60:0 
70.38753486533231 1:-1 2:0 3:1 4:-2 5:1 6:2 7:0 8:0 9:1 10:1 11:0 12:0 13:0 14:0 15:0 16:-1 17:0 18:1 19:0 20:0 21:0 22:0 23:0 24:0 25:0 26:0 27:0 28:-1 29:0 30:0 31:1 32:0 33:-1 34:0 35:0 36:0 37:1 38:0 39:0 40:0 41:0 42:-1 43:1 44:0 45:-2 46:0 47:0 48:0 49:1 50:0 51:1 52:1 53:0 54:-2 55:2 56:1 57:-2 58:-1 59:0 60:0 
71.3684199985705 1:0 2:0 3:1 4:-2 5:-1 6:0 7:5 8:-1 9:5 10:0 11:0 12:-1 13:1 14:0 15:1 16:-1 17:0 18:1 19:2 20:2 21:1 22:0 23:0 24:-1 25:0 26:0 27:0 28:0 29:1 30:0 31:-1 32:1 33:-3 34:0 35:0 36:-1 37:0 38:0 39:-1 40:1 41:1 42:-1 43:-1 44:0 45:-3 46:0 47:0 48:0 49:0 50:-1 51:1 52:0 53:1 54:0 55:-1 56:0 57:-2 58:0 59:0 60:0 
71.3684199985705 1:1 2:-1 3:2 4:0 5:2 6:-2 7:0 8:5 9:-3 10:0 11:0 12:-1 13:1 14:-1 15:1 16:0 17:1 18:-1 19:3 20:-1 21:-1 22:0 23:0 24:0 25:0 26:0 27:0 28:0 29:0 30:0 31:4 32:-3 33:0 34:0 35:0 36:-1 37:0 38:0 39:-1 40:0 41:0 42:2 43:3 44:-3 45:0 46:0 47:0 48:-1 49:1 50:0 51:-2 52:0 53:0 54:1 55:-6 56:4 57:2 58:0 59:0 60:-1 
71.3684199985705 1:1 2:-1 3:1 4:0 5:1 6:-1 7:5 8:-2 9:-2 10:0 11:0 12:0 13:0 14:0 15:0 16:0 17:0 18:0 19:6 20:-4 21:-1 22:0 23:0 24:-1 25:0 26:0 27:-1 28:0 29:0 30:2 31:5 32:-4 33:-1 34:0 35:0 36:-1 37:1 38:0 39:-2 40:0 41:0 42:1 43:-4 44:3 45:1 46:0 47:0 48:-1 49:0 50:0 51:-2 52:0 53:0 54:0 55:-12 56:8 57:3 58:0 59:0 60:0 
20.83134986890832 1:-1 2:-1 3:0 4:0 5:0 6:2 7:12 8:-8 9:-1 10:0 11:0 12:-1 13:0 14:-1 15:-1 16:0 17:0 18:1 19:3 20:-1 21:1 22:0 23:0 24:-1 25:-1 26:-1 27:-1 28:0 29:0 30:0 31:-5 32:4 33:3 34:0 35:0 36:0 37:0 38:-1 39:-1 40:0 41:0 42:1 43:-5 44:4 45:0 46:0 47:0 48:0 49:2 50:0 51:-1 52:0 53:0 54:0 55:-1 56:3 57:-5 58:0 59:0 60:0 
71.3684199985705 1:-2 2:-1 3:0 4:-1 5:1 6:3 7:-3 8:3 9:4 10:0 11:0 12:0 13:-1 14:-1 15:0 16:-1 17:1 18:4 19:-3 20:3 21:1 22:0 23:0 24:0 25:1 26:0 27:0 28:-1 29:1 30:3 31:1 32:2 33:-4 34:0 35:0 36:0 37:2 38:0 39:-1 40:-1 41:0 42:2 43:3 44:-1 45:-2 46:0 47:0 48:0 49:2 50:1 51:-2 52:2 53:0 54:-11 55:6 56:-3 57:0 58:-1 59:0 60:0 
33.94558578683926 1:-2 2:-2 3:1 4:-3 5:2 6:10 7:-6 8:4 9:1 10:0 11:0 12:0 13:0 14:-1 15:1 16:-3 17:2 18:9 19:-2 20:3 21:-4 22:0 23:0 24:0 25:1 26:-1 27:0 28:-3 29:1 30:8 31:0 32:0 33:-2 34:0 35:0 36:0 37:1 38:0 39:-1 40:0 41:1 42:-5 43:3 44:-2 45:0 46:-1 47:0 48:0 49:2 50:0 51:-2 52:5 53:-2 54:-22 55:6 56:-1 57:1 58:-1 59:0 60:0 
71.3684199985705 1:-1 2:-2 3:1 4:-7 5:2 6:20 7:-5 8:2 9:-3 10:1 11:0 12:0 13:-1 14:-1 15:0 16:-4 17:2 18:7 19:-2 20:0 21:-1 22:0 23:0 24:0 25:0 26:-1 27:-1 28:1 29:-1 30:-10 31:1 32:1 33:0 34:0 35:0 36:0 37:1 38:0 39:-1 40:4 41:-2 42:-11 43:3 44:0 45:1 46:0 47:0 48:0 49:2 50:1 51:-2 52:5 53:1 54:-10 55:4 56:1 57:-1 58:-1 59:0 60:0 
25.47759873776333 1:-2 2:-1 3:1 4:-6 5:3 6:13 7:-3 8:0 9:-1 10:0 11:1 12:0 13:-1 14:-1 15:0 16:-1 17:0 18:-4 19:0 20:1 21:0 22:0 23:1 24:0 25:0 26:0 27:0 28:2 29:-1 30:-5 31:2 32:0 33:1 34:0 35:1 36:0 37:1 38:1 39:-1 40:3 41:2 42:-4 43:3 44:1 45:-1 46:-1 47:1 48:0 49:3 50:1 51:-1 52:1 53:0 54:-3 55:2 56:1 57:-2 58:-1 59:0 60:0 
71.3684199985705 1:-3 2:-3 3:1 4:1 5:2 6:3 7:2 8:-3 9:-8 10:1 11:1 12:-1 13:-2 14:-2 15:0 16:0 17:1 18:-1 19:1 20:-1 21:3 22:0 23:1 24:-1 25:0 26:0 27:-1 28:-2 29:1 30:-4 31:0 32:0 33:6 34:0 35:1 36:-1 37:2 38:2 39:-1 40:-2 41:0 42:-2 43:-1 44:-1 45:2 46:-2 47:0 48:0 49:5 50:3 51:0 52:-1 53:-1 54:1 55:-1 56:5 57:-2 58:-3 59:0 60:0 
71.3684199985705 1:0 2:-2 3:0 4:-1 5:1 6:-4 7:4 8:2 9:5 10:0 11:1 12:0 13:1 14:0 15:0 16:-2 17:0 18:-1 19:0 20:1 21:5 22:-1 23:0 24:0 25:1 26:1 27:0 28:-2 29:-3 30:2 31:3 32:6 33:5 34:-1 35:0 36:-1 37:1 38:0 39:0 40:-1 41:-2 42:1 43:0 44:1 45:6 46:-1 47:0 48:-1 49:-2 50:-1 51:-1 52:4 53:5 54:0 55:-6 56:-7 57:-18 58:1 59:1 60:-1 
71.3684199985705 1:0 2:0 3:0 4:0 5:0 6:0 7:0 8:0 9:0 10:0 11:0 12:0 13:0 14:0 15:0 16:0 17:0 18:0 19:0 20:0 21:0 22:0 23:0 24:0 25:0 26:0 27:0 28:0 29:0 30:0 31:0 32:0 33:0 34:0 35:0 36:0 37:0 38:0 39:0 40:0 41:0 42:0 43:0 44:0 45:0 46:0 47:0 48:0 49:0 50:0 51:0 52:0 53:0 54:0 55:0 56:0 57:0 58:0 59:0 60:0 
71.3684199985705 1:1 2:0 3:0 4:0 5:2 6:2 7:1 8:0 9:3 10:1 11:0 12:0 13:1 14:0 15:0 16:-1 17:0 18:0 19:1 20:1 21:0 22:1 23:0 24:-1 25:-1 26:0 27:-1 28:0 29:1 30:-1 31:0 32:1 33:-1 34:0 35:0 36:-1 37:0 38:0 39:-1 40:0 41:1 42:-1 43:0 44:0 45:-1 46:0 47:0 48:-1 49:0 50:0 51:-1 52:0 53:0 54:0 55:1 56:-1 57:-1 58:0 59:0 60:-1 
71.3684199985705 1:1 2:0 3:0 4:-1 5:0 6:0 7:1 8:2 9:0 10:1 11:0 12:0 13:-1 14:0 15:-1 16:0 17:1 18:-1 19:0 20:2 21:-1 22:0 23:0 24:0 25:0 26:0 27:-1 28:0 29:1 30:-1 31:0 32:1 33:-1 34:0 35:0 36:0 37:0 38:0 39:-1 40:0 41:0 42:0 43:1 44:0 45:-1 46:0 47:0 48:0 49:0 50:0 51:-1 52:0 53:0 54:-1 55:2 56:-2 57:-1 58:0 59:0 60:0 
9.382352830812781 1:0 2:0 3:0 4:0 5:2 6:0 7:-1 8:3 9:-1 10:0 11:0 12:0 13:0 14:0 15:0 16:0 17:2 18:-1 19:0 20:1 21:-1 22:0 23:0 24:0 25:0 26:0 27:0 28:-1 29:0 30:0 31:1 32:0 33:-1 34:0 35:0 36:0 37:0 38:0 39:0 40:-1 41:0 42:0 43:1 44:-1 45:0 46:0 47:0 48:0 49:1 50:0 51:0 52:-1 53:-1 54:-1 55:1 56:-2 57:2 58:1 59:0 60:0 
71.3684199985705 1:2 2:0 3:-2 4:1 5:3 6:0 7:0 8:2 9:-1 10:0 11:0 12:-1 13:2 14:0 15:-2 16:0 17:1 18:0 19:0 20:1 21:-1 22:0 23:0 24:-1 25:1 26:0 27:0 28:0 29:0 30:0 31:0 32:0 33:-1 34:0 35:0 36:-1 37:0 38:-1 39:1 40:0 41:-1 42:-1 43:0 44:-1 45:-1 46:0 47:0 48:-1 49:-1 50:-1 51:2 52:-1 53:-1 54:-1 55:0 56:-2 57:0 58:0 59:0 60:0 
71.3684199985705 1:2 2:0 3:-3 4:0 5:2 6:0 7:0 8:2 9:-1 10:0 11:0 12:-1 13:1 14:0 15:-1 16:0 17:1 18:0 19:0 20:1 21:-1 22:0 23:0 24:-1 25:0 26:-1 27:0 28:0 29:0 30:-1 31:0 32:0 33:-1 34:0 35:0 36:-1 37:-1 38:-1 39:1 40:-1 41:0 42:-1 43:0 44:-1 45:0 46:0 47:0 48:0 49:-1 50:-1 51:1 52:0 53:-1 54:-1 55:1 56:-1 57:1 58:0 59:0 60:0 
71.3684199985705 1:-1 2:-1 3:2 4:0 5:3 6:0 7:-1 8:2 9:1 10:0 11:0 12:0 13:-1 14:-1 15:2 16:0 17:1 18:0 19:-1 20:0 21:0 22:0 23:0 24:0 25:1 26:0 27:-1 28:-1 29:0 30:0 31:0 32:-1 33:0 34:0 35:0 36:0 37:1 38:0 39:-1 40:-1 41:0 42:0 43:1 44:-1 45:-1 46:0 47:0 48:0 49:1 50:0 51:-2 52:-1 53:0 54:0 55:2 56:-3 57:-1 58:0 59:0 60:0 
71.3684199985705 1:1 2:-1 3:0 4:0 5:6 6:-1 7:1 8:3 9:-2 10:0 11:1 12:0 13:1 14:-1 15:0 16:0 17:4 18:-1 19:1 20:2 21:-1 22:0 23:1 24:0 25:1 26:-1 27:0 28:0 29:0 30:-1 31:1 32:0 33:0 34:0 35:1 36:0 37:0 38:-1 39:-1 40:-1 41:-3 42:-1 43:0 44:-2 45:-1 46:0 47:1 48:0 49:-1 50:0 51:0 52:-2 53:-7 54:2 55:-1 56:-5 57:0 58:1 59:0 60:0 
71.3684199985705 1:2 2:-1 3:0 4:1 5:7 6:-2 7:2 8:4 9:-1 10:0 11:1 12:0 13:2 14:-1 15:0 16:1 17:3 18:-2 19:2 20:2 21:0 22:0 23:1 24:0 25:1 26:-1 27:-1 28:0 29:0 30:-2 31:1 32:0 33:-1 34:0 35:1 36:0 37:0 38:0 39:0 40:-1 41:-4 42:1 43:0 44:-3 45:0 46:1 47:0 48:0 49:-2 50:0 51:0 52:-1 53:-8 54:5 55:-1 56:-5 57:2 58:1 59:0 60:0 
71.3684199985705 1:0 2:0 3:-1 4:0 5:0 6:-2 7:2 8:0 9:2 10:0 11:0 12:-1 13:-1 14:0 15:-1 16:0 17:0 18:-1 19:1 20:-1 21:-1 22:0 23:0 24:-1 25:-1 26:0 27:-1 28:-1 29:0 30:1 31:0 32:-1 33:-1 34:0 35:0 36:-1 37:0 38:-1 39:0 40:-1 41:-1 42:1 43:0 44:-1 45:-1 46:0 47:0 48:0 49:2 50:0 51:0 52:-1 53:-1 54:1 55:0 56:-1 57:-1 58:0 59:0 60:0 
71.3684199985705 1:-1 2:0 3:-1 4:0 5:0 6:-3 7:1 8:0 9:0 10:0 11:0 12:-1 13:-1 14:0 15:-1 16:-1 17:0 18:-1 19:0 20:0 21:0 22:0 23:0 24:-1 25:0 26:-1 27:0 28:-1 29:-1 30:-1 31:0 32:0 33:0 34:0 35:0 36:0 37:2 38:0 39:0 40:-1 41:-1 42:-1 43:0 44:0 45:0 46:0 47:0 48:0 49:2 50:-1 51:0 52:-1 53:-2 54:2 55:0 56:0 57:0 58:0 59:1 60:0 
71.3684199985705 1:-2 2:0 3:-1 4:-1 5:1 6:-2 7:0 8:0 9:0 10:0 11:0 12:-1 13:-1 14:-1 15:0 16:-1 17:0 18:-2 19:0 20:0 21:0 22:0 23:0 24:0 25:1 26:0 27:0 28:-1 29:0 30:-2 31:0 32:0 33:0 34:0 35:0 36:0 37:1 38:-1 39:0 40:-1 41:-1 42:1 43:0 44:0 45:0 46:0 47:1 48:0 49:1 50:-1 51:0 52:0 53:-1 54:3 55:0 56:0 57:0 58:0 59:1 60:0 
30.84170130786916 1:-1 2:-1 3:0 4:-1 5:0 6:-3 7:0 8:0 9:0 10:0 11:0 12:0 13:1 14:0 15:0 16:-1 17:0 18:-3 19:0 20:0 21:0 22:0 23:0 24:0 25:1 26:-1 27:0 28:-1 29:-1 30:0 31:0 32:0 33:0 34:0 35:1 36:0 37:1 38:-1 39:0 40:0 41:-1 42:2 43:0 44:0 45:0 46:0 47:1 48:0 49:1 50:-1 51:0 52:0 53:-1 54:2 55:0 56:0 57:0 58:0 59:1 60:0 
71.3684199985705 1:0 2:0 3:0 4:-1 5:0 6:-4 7:0 8:0 9:0 10:0 11:0 12:0 13:0 14:-1 15:0 16:-1 17:-1 18:-1 19:0 20:0 21:0 22:0 23:1 24:0 25:0 26:-1 27:0 28:0 29:-1 30:1 31:0 32:0 33:0 34:0 35:1 36:0 37:0 38:-1 39:0 40:0 41:-1 42:1 43:0 44:0 45:0 46:0 47:1 48:0 49:0 50:-1 51:0 52:0 53:-1 54:1 55:0 56:0 57:0 58:0 59:1 60:0 
71.3684199985705 1:1 2:0 3:-1 4:0 5:0 6:0 7:0 8:0 9:-1 10:0 11:0 12:0 13:1 14:0 15:-1 16:0 17:0 18:0 19:0 20:0 21:-1 22:0 23:0 24:0 25:1 26:0 27:-1 28:0 29:0 30:0 31:0 32:0 33:-1 34:0 35:0 36:0 37:-1 38:0 39:0 40:0 41:0 42:0 43:1 44:0 45:0 46:0 47:0 48:0 49:-2 50:-1 51:1 52:0 53:0 54:-1 55:1 56:0 57:1 58:0 59:0 60:0 
52.06916942416822 1:2 2:0 3:-2 4:0 5:0 6:0 7:0 8:0 9:-2 10:0 11:0 12:0 13:2 14:0 15:-2 16:0 17:0 18:0 19:0 20:0 21:-2 22:0 23:0 24:0 25:0 26:0 27:-1 28:0 29:0 30:0 31:1 32:0 33:-1 34:0 35:0 36:0 37:-1 38:-1 39:0 40:0 41:0 42:-1 43:1 44:0 45:0 46:0 47:0 48:0 49:1 50:0 51:1 52:0 53:0 54:-2 55:2 56:-1 57:1 58:0 59:0 60:0 
71.3684199985705 1:2 2:0 3:-2 4:-1 5:0 6:1 7:-1 8:0 9:-2 10:0 11:0 12:0 13:0 14:0 15:-1 16:-1 17:0 18:1 19:0 20:0 21:-1 22:0 23:0 24:0 25:-1 26:-1 27:0 28:-1 29:0 30:0 31:0 32:0 33:0 34:0 35:0 36:0 37:1 38:0 39:1 40:-1 41:0 42:-1 43:1 44:-1 45:1 46:0 47:0 48:0 49:1 50:0 51:3 52:0 53:-2 54:-1 55:1 56:-2 57:2 58:1 59:0 60:0 
71.3684199985705 1:-1 2:-1 3:-2 4:0 5:1 6:-1 7:-1 8:2 9:-3 10:0 11:0 12:0 13:1 14:0 15:-1 16:0 17:1 18:-2 19:0 20:1 21:-2 22:0 23:0 24:0 25:1 26:0 27:1 28:1 29:-1 30:-2 31:0 32:0 33:-1 34:1 35:0 36:0 37:0 38:0 39:1 40:-1 41:-2 42:0 43:1 44:-2 45:1 46:1 47:0 48:-1 49:0 50:0 51:1 52:-3 53:-3 54:4 55:1 56:-2 57:4 58:1 59:0 60:-1 
18.26544378523538 1:0 2:0 3:1 4:2 5:-12 6:-8 7:1 8:-13 9:-9 10:0 11:0 12:0 13:0 14:0 15:1 16:2 17:-11 18:-5 19:1 20:-10 21:-5 22:0 23:0 24:-1 25:0 26:0 27:1 28:0 29:-4 30:0 31:0 32:-2 33:0 34:0 35:0 36:-1 37:0 38:0 39:0 40:-2 41:7 42:4 43:0 44:8 45:4 46:0 47:0 48:-1 49:0 50:0 51:0 52:-2 53:16 54:7 55:0 56:16 57:7 58:0 59:0 60:-1 
7.34932238403578 1:0 2:0 3:1 4:3 5:-18 6:-9 7:1 8:-17 9:-8 10:0 11:0 12:0 13:0 14:0 15:1 16:1 17:-11 18:-4 19:0 20:-9 21:-3 22:0 23:0 24:0 25:0 26:0 27:0 28:-1 29:0 30:0 31:0 32:1 33:1 34:0 35:0 36:0 37:0 38:0 39:0 40:-1 41:9 42:3 43:0 44:9 45:4 46:0 47:0 48:0 49:0 50:0 51:0 52:-3 53:18 54:7 55:1 56:13 57:6 58:0 59:0 60:0 
71.3684199985705 1:-1 2:0 3:1 4:-2 5:1 6:2 7:0 8:0 9:1 10:1 11:0 12:0 13:0 14:0 15:0 16:-1 17:0 18:1 19:0 20:0 21:0 22:0 23:0 24:0 25:0 26:0 27:0 28:-1 29:0 30:0 31:1 32:0 33:-1 34:0 35:0 36:0 37:1 38:0 39:0 40:0 41:0 42:-1 43:1 44:0 45:-2 46:0 47:0 48:0 49:1 50:0 51:1 52:1 53:0 54:-2 55:2 56:1 57:-2 58:-1 59:0 60:0 
71.3684199985705 1:0 2:0 3:1 4:-2 5:-1 6:0 7:5 8:-1 9:5 10:0 11:0 12:-1 13:1 14:0 15:1 16:-1 17:0 18:1 19:2 20:2 21:1 22:0 23:0 24:-1 25:0 26:0 27:0 28:0 29:1 30:0 31:-1 32:1 33:-3 34:0 35:0 36:-1 37:0 38:0 39:-1 40:1 41:1 42:-1 43:-1 44:0 45:-3 46:0 47:0 48:0 49:0 50:-1 51:1 52:0 53:1 54:0 55:-1 56:0 57:-2 58:0 59:0 60:0 
71.3684199985705 1:1 2:-1 3:2 4:0 5:2 6:-2 7:0 8:5 9:-3 10:0 11:0 12:-1 13:1 14:-1 15:1 16:0 17:1 18:-1 19:3 20:-1 21:-1 22:0 23:0 24:0 25:0 26:0 27:0 28:0 29:0 30:0 31:4 32:-3 33:0 34:0 35:0 36:-1 37:0 38:0 39:-1 40:0 41:0 42:2 43:3 44:-3 45:0 46:0 47:0 48:-1 49:1 50:0 51:-2 52:0 53:0 54:1 55:-6 56:4 57:2 58:0 59:0 60:-1 
71.3684199985705 1:1 2:-1 3:1 4:0 5:1 6:-1 7:5 8:-2 9:-2 10:0 11:0 12:0 13:0 14:0 15:0 16:0 17:0 18:0 19:6 20:-4 21:-1 22:0 23:0 24:-1 25:0 26:0 27:-1 28:0 29:0 30:2 31:5 32:-4 33:-1 34:0 35:0 36:-1 37:1 38:0 39:-2 40:0 41:0 42:1 43:-4 44:3 45:1 46:0 47:0 48:-1 49:0 50:0 51:-2 52:0 53:0 54:0 55:-12 56:8 57:3 58:0 59:0 60:0 
71.3684199985705 1:-1 2:-1 3:0 4:0 5:0 6:2 7:12 8:-8 9:-1 10:0 11:0 12:-1 13:0 14:-1 15:-1 16:0 17:0 18:1 19:3 20:-1 21:1 22:0 23:0 24:-1 25:-1 26:-1 27:-1 28:0 29:0 30:0 31:-5 32:4 33:3 34:0 35:0 36:0 37:0 38:-1 39:-1 40:0 41:0 42:1 43:-5 44:4 45:0 46:0 47:0 48:0 49:2 50:0 51:-1 52:0 53:0 54:0 55:-1 56:3 57:-5 58:0 59:0 60:0 
71.3684199985705 1:-2 2:-1 3:0 4:-1 5:1 6:3 7:-3 8:3 9:4 10:0 11:0 12:0 13:-1 14:-1 15:0 16:-1 17:1 18:4 19:-3 20:3 21:1 22:0 23:0 24:0 25:1 26:0 27:0 28:-1 29:1 30:3 31:1 32:2 33:-4 34:0 35:0 36:0 37:2 38:0 39:-1 40:-1 41:0 42:2 43:3 44:-1 45:-2 46:0 47:0 48:0 49:2 50:1 51:-2 52:2 53:0 54:-11 55:6 56:-3 57:0 58:-1 59:0 60:0 
56.67861008768633 1:-2 2:-2 3:1 4:-3 5:2 6:10 7:-6 8:4 9:1 10:0 11:0 12:0 13:0 14:-1 15:1 16:-3 17:2 18:9 19:-2 20:3 21:-4 22:0 23:0 24:0 25:1 26:-1 27:0 28:-3 29:1 30:8 31:0 32:0 33:-2 34:0 35:0 36:0 37:1 38:0 39:-1 40:0 41:1 42:-5 43:3 44:-2 45:0 46:-1 47:0 48:0 49:2 50:0 51:-2 52:5 53:-2 54:-22 55:6 56:-1 57:1 58:-1 59:0 60:0 
67.06758675100883 1:-1 2:-1 3:1 4:-5 5:3 6:16 7:-5 8:4 9:-4 10:0 11:0 12:0 13:0 14:-1 15:0 16:-5 17:2 18:15 19:-3 20:1 21:-2 22:0 23:0 24:0 25:0 26:0 27:-1 28:-2 29:2 30:2 31:0 32:-1 33:0 34:-1 35:0 36:0 37:1 38:0 39:-2 40:3 41:-1 42:-15 43:3 44:0 45:1 46:-1 47:0 48:0 49:2 50:1 51:-2 52:6 53:-2 54:-16 55:5 56:-1 57:2 58:-1 59:0 60:0 
48.23741090433527 1:-1 2:-2 3:1 4:-7 5:2 6:20 7:-5 8:2 9:-3 10:1 11:0 12:0 13:-1 14:-1 15:0 16:-4 17:2 18:7 19:-2 20:0 21:-1 22:0 23:0 24:0 25:0 26:-1 27:-1 28:1 29:-1 30:-10 31:1 32:1 33:0 34:0 35:0 36:0 37:1 38:0 39:-1 40:4 41:-2 42:-11 43:3 44:0 45:1 46:0 47:0 48:0 49:2 50:1 51:-2 52:5 53:1 54:-10 55:4 56:1 57:-1 58:-1 59:0 60:0 
71.3684199985705 1:-2 2:-1 3:1 4:-6 5:3 6:13 7:-3 8:0 9:-1 10:0 11:1 12:0 13:-1 14:-1 15:0 16:-1 17:0 18:-4 19:0 20:1 21:0 22:0 23:1 24:0 25:0 26:0 27:0 28:2 29:-1 30:-5 31:2 32:0 33:1 34:0 35:1 36:0 37:1 38:1 39:-1 40:3 41:2 42:-4 43:3 44:1 45:-1 46:-1 47:1 48:0 49:3 50:1 51:-1 52:1 53:0 54:-3 55:2 56:1 57:-2 58:-1 59:0 60:0 
34.78491927480072 1:-3 2:-1 3:-1 4:3 5:5 6:0 7:1 8:-1 9:-4 10:1 11:1 12:0 13:-1 14:-1 15:-1 16:1 17:3 18:1 19:0 20:-1 21:-5 22:1 23:0 24:0 25:0 26:0 27:0 28:-1 29:0 30:2 31:0 32:0 33:-3 34:0 35:0 36:0 37:2 38:0 39:0 40:-2 41:-3 42:-1 43:0 44:1 45:0 46:-1 47:0 48:0 49:3 50:1 51:-1 52:-3 53:-4 54:-5 55:-1 56:3 57:11 58:-2 59:0 60:0 
63.58690854987125 1:-3 2:-3 3:1 4:1 5:2 6:3 7:2 8:-3 9:-8 10:1 11:1 12:-1 13:-2 14:-2 15:0 16:0 17:1 18:-1 19:1 20:-1 21:3 22:0 23:1 24:-1 25:0 26:0 27:-1 28:-2 29:1 30:-4 31:0 32:0 33:6 34:0 35:1 36:-1 37:2 38:2 39:-1 40:-2 41:0 42:-2 43:-1 44:-1 45:2 46:-2 47:0 48:0 49:5 50:3 51:0 52:-1 53:-1 54:1 55:-1 56:5 57:-2 58:-3 59:0 60:0 
51.52654896996791 1:-4 2:-4 3:0 4:1 5:2 6:-1 7:3 8:-2 9:2 10:1 11:1 12:-1 13:-2 14:-2 15:-1 16:-1 17:2 18:-4 19:2 20:-1 21:5 22:1 23:1 24:-1 25:0 26:0 27:-1 28:-1 29:1 30:-2 31:1 32:-2 33:1 34:-1 35:0 36:0 37:3 38:1 39:0 40:0 41:0 42:1 43:1 44:4 45:-3 46:-2 47:0 48:0 49:4 50:3 51:0 52:-1 53:-1 54:4 55:-3 56:3 57:-3 58:-3 59:-1 60:0 
57.70760602705097 1:0 2:-2 3:0 4:-1 5:1 6:-4 7:4 8:2 9:5 10:0 11:1 12:0 13:1 14:0 15:0 16:-2 17:0 18:-1 19:0 20:1 21:5 22:-1 23:0 24:0 25:1 26:1 27:0 28:-2 29:-3 30:2 31:3 32:6 33:5 34:-1 35:0 36:-1 37:1 38:0 39:0 40:-1 41:-2 42:1 43:0 44:1 45:6 46:-1 47:0 48:-1 49:-2 50:-1 51:-1 52:4 53:5 54:0 55:-6 56:-7 57:-18 58:1 59:1 60:-1 
58.20525293199367 1:2 2:0 3:0 4:-3 5:-1 6:-2 7:1 8:4 9:11 10:-1 11:0 12:1 13:2 14:1 15:0 16:-3 17:-4 18:1 19:4 20:9 21:11 22:-1 23:0 24:0 25:2 26:0 27:0 28:-2 29:-3 30:0 31:1 32:4 33:12 34:-1 35:0 36:0 37:-1 38:-1 39:-1 40:3 41:4 42:-1 43:-5 44:-4 45:-12 46:1 47:1 48:0 49:-2 50:-2 51:-1 52:3 53:5 54:-1 55:-1 56:-13 57:-23 58:1 59:1 60:-1 
64.76683168159707 1:3 2:2 3:0 4:-4 5:-4 6:1 7:5 8:13 9:18 10:-2 11:0 12:0 13:3 14:1 15:0 16:-3 17:-3 18:0 19:2 20:8 21:19 22:-2 23:0 24:0 25:0 26:0 27:-1 28:2 29:4 30:-1 31:-4 32:0 33:-5 34:0 35:1 36:0 37:-1 38:-1 39:-1 40:2 41:5 42:-1 43:0 44:-9 45:-16 46:0 47:1 48:-1 49:-3 50:-2 51:-1 52:-1 53:2 54:-2 55:-2 56:-11 57:-17 58:1 59:1 60:-1 
3.746845232479753 1:5 2:2 3:0 4:-2 5:-4 6:1 7:4 8:13 9:25 10:-2 11:0 12:0 13:2 14:1 15:-1 16:3 17:3 18:0 19:-2 20:5 21:1 22:0 23:1 24:0 25:1 26:0 27:-1 28:3 29:4 30:0 31:2 32:-4 33:-10 34:0 35:1 36:-1 37:-1 38:-1 39:-1 40:0 41:1 42:-1 43:0 44:-6 45:-11 46:1 47:1 48:-1 49:-3 50:-2 51:-1 52:-7 53:-2 54:-4 55:0 56:-7 57:-9 58:1 59:1 60:-2 
71.3684199985705 1:0 2:0 3:0 4:0 5:0 6:0 7:0 8:0 9:0 10:0 11:0 12:0 13:0 14:0 15:0 16:0 17:0 18:0 19:0 20:0 21:0 22:0 23:0 24:0 25:0 26:0 27:0 28:0 29:0 30:0 31:0 32:0 33:0 34:0 35:0 36:0 37:0 38:0 39:0 40:0 41:0 42:0 43:0 44:0 45:0 46:0 47:0 48:0 49:0 50:0 51:0 52:0 53:0 54:0 55:0 56:0 57:0 58:0 59:0 60:0 
-83.7446056861404 1:0 2:-1 3:-1 4:-1 5:4 6:-7 7:1 8:2 9:-2 10:1 11:1 12:-1 13:-2 14:-1 15:-1 16:-1 17:0 18:-3 19:0 20:0 21:0 22:1 23:1 24:-1 25:-1 26:-1 27:0 28:0 29:-1 30:0 31:0 32:-1 33:1 34:1 35:1 36:0 37:-1 38:0 39:0 40:0 41:-1 42:3 43:1 44:-1 45:2 46:1 47:0 48:0 49:0 50:1 51:0 52:-1 53:-2 54:5 55:1 56:-1 57:2 58:0 59:0 60:0 
-102.631578570918 1:-2 2:-1 3:-1 4:-1 5:0 6:-5 7:0 8:0 9:-1 10:1 11:1 12:-1 13:-1 14:-1 15:0 16:0 17:-1 18:-2 19:0 20:-1 21:0 22:1 23:1 24:0 25:-1 26:0 27:0 28:0 29:-1 30:1 31:1 32:-1 33:1 34:1 35:0 36:0 37:0 38:1 39:0 40:-1 41:-2 42:3 43:1 44:-1 45:1 46:0 47:0 48:0 49:0 50:1 51:0 52:-2 53:0 54:3 55:1 56:1 57:1 58:0 59:-1 60:0 
-100.6530749009478 1:-1 2:-2 3:0 4:1 5:-1 6:-4 7:0 8:-2 9:-1 10:1 11:2 12:0 13:-1 14:-1 15:0 16:1 17:-1 18:-1 19:1 20:-2 21:0 22:1 23:1 24:0 25:0 26:0 27:0 28:0 29:-2 30:1 31:1 32:-2 33:0 34:0 35:1 36:0 37:0 38:0 39:0 40:-1 41:0 42:1 43:1 44:0 45:0 46:0 47:0 48:0 49:0 50:1 51:0 52:-2 53:4 54:0 55:0 56:2 57:1 58:0 59:0 60:-1 
-102.631578570918 1:0 2:-1 3:0 4:1 5:-6 6:0 7:1 8:-5 9:-1 10:0 11:2 12:0 13:0 14:-1 15:0 16:0 17:-4 18:0 19:1 20:-3 21:-1 22:0 23:1 24:0 25:0 26:0 27:0 28:-1 29:0 30:-1 31:0 32:-1 33:0 34:0 35:1 36:-1 37:0 38:0 39:0 40:-1 41:3 42:0 43:-1 44:2 45:2 46:0 47:0 48:-1 49:-1 50:1 51:-1 52:-2 53:7 54:-1 55:-1 56:6 57:2 58:0 59:0 60:-1 
-102.631578570918 1:0 2:-1 3:0 4:0 5:-7 6:0 7:1 8:-7 9:-1 10:0 11:2 12:-1 13:0 14:-1 15:0 16:0 17:-4 18:1 19:0 20:-4 21:1 22:0 23:1 24:-1 25:-1 26:0 27:-1 28:-1 29:0 30:0 31:0 32:0 33:1 34:0 35:1 36:-1 37:-1 38:1 39:-1 40:-1 41:4 42:-1 43:1 44:2 45:0 46:0 47:0 48:-1 49:-1 50:1 51:-1 52:-1 53:7 54:-1 55:1 56:5 57:-1 58:0 59:0 60:0 
-102.631578570918 1:0 2:-2 3:0 4:0 5:-7 6:1 7:0 8:-7 9:1 10:0 11:1 12:-1 13:-1 14:-1 15:-1 16:-1 17:-3 18:0 19:0 20:-3 21:1 22:0 23:1 24:-1 25:-1 26:0 27:-1 28:-1 29:1 30:-1 31:1 32:-1 33:0 34:0 35:0 36:-1 37:-1 38:0 39:-1 40:-1 41:4 42:-1 43:1 44:2 45:-1 46:0 47:0 48:0 49:0 50:1 51:-1 52:0 53:8 54:-2 55:1 56:6 57:-1 58:0 59:0 60:-1 
-0.7026743375217381 1:-1 2:-2 3:-1 4:-3 5:-6 6:4 7:2 8:-7 9:2 10:1 11:1 12:0 13:0 14:-1 15:-1 16:-2 17:-2 18:3 19:2 20:-3 21:2 22:1 23:1 24:-1 25:0 26:-1 27:0 28:0 29:2 30:0 31:0 32:1 33:2 34:0 35:0 36:-1 37:1 38:0 39:1 40:1 41:4 42:-3 43:-2 44:4 45:0 46:1 47:0 48:-1 49:2 50:1 51:1 52:4 53:6 54:-5 55:-2 56:7 57:-2 58:1 59:-1 60:-1 
-1.469756138793491 1:1 2:-1 3:0 4:-6 5:4 6:5 7:2 8:4 9:4 10:0 11:1 12:0 13:1 14:0 15:0 16:-2 17:3 18:3 19:0 20:3 21:3 22:0 23:0 24:0 25:0 26:0 27:0 28:1 29:0 30:-1 31:0 32:1 33:0 34:0 35:0 36:-1 37:0 38:0 39:-1 40:2 41:-1 42:-3 43:0 44:-1 45:-3 46:0 47:0 48:-1 49:1 50:0 51:-1 52:3 53:-4 54:-5 55:0 56:-3 57:-6 58:0 59:0 60:0 
-102.631578570918 1:0 2:0 3:0 4:-3 5:5 6:4 7:2 8:5 9:5 10:0 11:0 12:-1 13:0 14:0 15:-1 16:-2 17:4 18:2 19:2 20:3 21:2 22:0 23:0 24:-1 25:1 26:0 27:-1 28:-1 29:1 30:0 31:2 32:1 33:-1 34:0 35:0 36:0 37:1 38:0 39:-1 40:2 41:-2 42:-2 43:0 44:-2 45:-4 46:0 47:0 48:0 49:2 50:0 51:-1 52:2 53:-4 54:-4 55:-3 56:-3 57:-5 58:0 59:0 60:0 
-52.60609548759454 1:-1 2:-1 3:0 4:-3 5:6 6:4 7:3 8:5 9:4 10:0 11:0 12:-1 13:0 14:-1 15:0 16:-2 17:3 18:2 19:3 20:3 21:1 22:0 23:0 24:0 25:0 26:-1 27:0 28:1 29:0 30:0 31:1 32:0 33:-2 34:0 35:0 36:0 37:1 38:-1 39:0 40:1 41:-2 42:-2 43:-2 44:-1 45:-3 46:0 47:0 48:0 49:2 50:0 51:0 52:2 53:-5 54:-4 55:-2 56:-4 57:-3 58:0 59:0 60:0 
-102.631578570918 1:-1 2:-1 3:0 4:-1 5:6 6:3 7:3 8:4 9:2 10:0 11:0 12:0 13:0 14:-1 15:0 16:-1 17:4 18:1 19:0 20:3 21:1 22:0 23:0 24:0 25:1 26:0 27:0 28:0 29:1 30:-1 31:0 32:0 33:1 34:0 35:0 36:0 37:2 38:0 39:0 40:0 41:-2 42:-2 43:0 44:-2 45:0 46:0 47:0 48:0 49:1 50:0 51:-1 52:0 53:-6 54:-3 55:-2 56:-5 57:-4 58:0 59:0 60:0 
-102.631578570918 1:-1 2:-1 3:0 4:-2 5:7 6:2 7:2 8:6 9:2 10:0 11:0 12:0 13:0 14:0 15:0 16:-1 17:4 18:0 19:2 20:3 21:2 22:0 23:0 24:0 25:1 26:0 27:0 28:-1 29:1 30:-1 31:2 32:1 33:1 34:0 35:0 36:0 37:0 38:0 39:-1 40:-1 41:-3 42:-2 43:0 44:-2 45:-3 46:0 47:0 48:0 49:0 50:-1 51:-1 52:1 53:-6 54:-1 55:-2 56:-6 57:-5 58:0 59:1 60:0 
-102.631578570918 1:0 2:0 3:0 4:-1 5:7 6:1 7:2 8:6 9:4 10:0 11:0 12:0 13:1 14:0 15:0 16:-1 17:4 18:0 19:2 20:4 21:3 22:0 23:0 24:0 25:0 26:0 27:-1 28:-1 29:0 30:-1 31:0 32:1 33:-1 34:0 35:0 36:0 37:0 38:-1 39:-1 40:1 41:-3 42:0 43:-2 44:-3 45:-3 46:0 47:1 48:0 49:0 50:-1 51:-1 52:1 53:-7 54:0 55:-2 56:-6 57:-3 58:0 59:1 60:0 
-102.631578570918 1:0 2:0 3:-1 4:0 5:6 6:-1 7:1 8:6 9:1 10:1 11:0 12:0 13:0 14:0 15:-1 16:0 17:2 18:-1 19:1 20:3 21:1 22:1 23:0 24:0 25:1 26:0 27:0 28:0 29:-1 30:0 31:1 32:0 33:0 34:1 35:0 36:0 37:1 38:-1 39:0 40:0 41:-3 42:1 43:1 44:-4 45:-1 46:1 47:0 48:0 49:1 50:-1 51:-1 52:0 53:-5 54:1 55:0 56:-6 57:-1 58:0 59:0 60:0 
-1.286697904219673 1:0 2:0 3:0 4:-1 5:5 6:-1 7:1 8:5 9:1 10:1 11:0 12:-1 13:1 14:0 15:1 16:-1 17:2 18:0 19:1 20:2 21:0 22:1 23:0 24:-1 25:1 26:-1 27:1 28:-1 29:0 30:1 31:1 32:-2 33:-1 34:1 35:0 36:-1 37:1 38:-1 39:0 40:-1 41:-2 42:1 43:0 44:-4 45:-1 46:0 47:0 48:-1 49:1 50:-1 51:-2 52:0 53:-5 54:-2 55:-3 56:-4 57:1 58:0 59:0 60:0 
-0.7602298594663342 1:0 2:-1 3:2 4:0 5:3 6:2 7:3 8:1 9:-2 10:1 11:0 12:-1 13:0 14:-1 15:1 16:0 17:1 18:2 19:2 20:-1 21:-2 22:0 23:0 24:-1 25:0 26:-1 27:-1 28:1 29:-2 30:-1 31:-1 32:-1 33:0 34:0 35:0 36:0 37:1 38:0 39:-2 40:0 41:-2 42:-1 43:-1 44:-1 45:-1 46:0 47:0 48:-1 49:1 50:0 51:-1 52:-2 53:-2 54:-5 55:-1 56:-1 57:4 58:0 59:0 60:-1 
-102.631578570918 1:0 2:-1 3:1 4:0 5:2 6:3 7:2 8:0 9:-3 10:0 11:0 12:-1 13:0 14:-1 15:-1 16:1 17:-1 18:0 19:-1 20:0 21:-1 22:0 23:0 24:0 25:1 26:0 27:-2 28:0 29:-1 30:0 31:-1 32:0 33:-2 34:0 35:0 36:-1 37:1 38:0 39:-1 40:-2 41:-1 42:-4 43:-1 44:0 45:3 46:0 47:0 48:-1 49:2 50:0 51:-1 52:-1 53:0 54:-3 55:1 56:0 57:3 58:0 59:1 60:-1 
-102.631578570918 1:-1 2:-1 3:0 4:1 5:-1 6:2 7:-1 8:0 9:-3 10:0 11:0 12:0 13:0 14:0 15:-1 16:0 17:-1 18:2 19:-1 20:0 21:-4 22:0 23:0 24:-1 25:0 26:0 27:0 28:-2 29:-1 30:-2 31:-1 32:0 33:1 34:0 35:0 36:-1 37:1 38:0 39:0 40:-1 41:0 42:-1 43:1 44:0 45:1 46:0 47:1 48:-1 49:0 50:-1 51:1 52:-1 53:0 54:-2 55:2 56:0 57:3 58:0 59:1 60:-1 
-102.631578570918 1:0 2:0 3:-2 4:0 5:-1 6:2 7:-1 8:0 9:-5 10:0 11:0 12:0 13:0 14:0 15:-1 16:-2 17:-1 18:-2 19:-1 20:0 21:0 22:0 23:0 24:0 25:1 26:0 27:-1 28:-1 29:0 30:-1 31:1 32:0 33:0 34:0 35:1 36:0 37:0 38:-1 39:0 40:-1 41:0 42:-2 43:2 44:0 45:2 46:0 47:1 48:0 49:-1 50:-2 51:2 52:3 53:0 54:0 55:3 56:0 57:2 58:0 59:1 60:0 
-102.631578570918 1:1 2:1 3:-2 4:-3 5:-1 6:-2 7:-2 8:0 9:-1 10:0 11:0 12:0 13:2 14:1 15:-2 16:-2 17:0 18:-1 19:0 20:0 21:-1 22:0 23:1 24:0 25:1 26:0 27:-1 28:-2 29:0 30:-2 31:1 32:0 33:1 34:0 35:1 36:0 37:0 38:-1 39:1 40:2 41:0 42:0 43:2 44:0 45:1 46:0 47:1 48:0 49:-1 50:-2 51:1 52:2 53:0 54:1 55:2 56:-1 57:0 58:0 59:1 60:0 
-102.631578570918 1:0 2:-1 3:-1 4:-1 5:4 6:-7 7:1 8:2 9:-2 10:1 11:1 12:-1 13:-2 14:-1 15:-1 16:-1 17:0 18:-3 19:0 20:0 21:0 22:1 23:1 24:-1 25:-1 26:-1 27:0 28:0 29:-1 30:0 31:0 32:-1 33:1 34:1 35:1 36:0 37:-1 38:0 39:0 40:0 41:-1 42:3 43:1 44:-1 45:2 46:1 47:0 48:0 49:0 50:1 51:0 52:-1 53:-2 54:5 55:1 56:-1 57:2 58:0 59:0 60:0 
-102.631578570918 1:-2 2:-1 3:-1 4:-1 5:0 6:-5 7:0 8:0 9:-1 10:1 11:1 12:-1 13:-1 14:-1 15:0 16:0 17:-1 18:-2 19:0 20:-1 21:0 22:1 23:1 24:0 25:-1 26:0 27:0 28:0 29:-1 30:1 31:1 32:-1 33:1 34:1 35:0 36:0 37:0 38:1 39:0 40:-1 41:-2 42:3 43:1 44:-1 45:1 46:0 47:0 48:0 49:0 50:1 51:0 52:-2 53:0 54:3 55:1 56:1 57:1 58:0 59:-1 60:0 
-102.631578570918 1:-1 2:-2 3:0 4:1 5:-1 6:-4 7:0 8:-2 9:-1 10:1 11:2 12:0 13:-1 14:-1 15:0 16:1 17:-1 18:-1 19:1 20:-2 21:0 22:1 23:1 24:0 25:0 26:0 27:0 28:0 29:-2 30:1 31:1 32:-2 33:0 34:0 35:1 36:0 37:0 38:0 39:0 40:-1 41:0 42:1 43:1 44:0 45:0 46:0 47:0 48:0 49:0 50:1 51:0 52:-2 53:4 54:0 55:0 56:2 57:1 58:0 59:0 60:-1 
-102.631578570918 1:0 2:-1 3:0 4:1 5:-6 6:0 7:1 8:-5 9:-1 10:0 11:2 12:0 13:0 14:-1 15:0 16:0 17:-4 18:0 19:1 20:-3 21:-1 22:0 23:1 24:0 25:0 26:0 27:0 28:-1 29:0 30:-1 31:0 32:-1 33:0 34:0 35:1 36:-1 37:0 38:0 39:0 40:-1 41:3 42:0 43:-1 44:2 45:2 46:0 47:0 48:-1 49:-1 50:1 51:-1 52:-2 53:7 54:-1 55:-1 56:6 57:2 58:0 59:0 60:-1 
-102.631578570918 1:0 2:-1 3:0 4:0 5:-7 6:0 7:1 8:-7 9:-1 10:0 11:2 12:-1 13:0 14:-1 15:0 16:0 17:-4 18:1 19:0 20:-4 21:1 22:0 23:1 24:-1 25:-1 26:0 27:-1 28:-1 29:0 30:0 31:0 32:0 33:1 34:0 35:1 36:-1 37:-1 38:1 39:-1 40:-1 41:4 42:-1 43:1 44:2 45:0 46:0 47:0 48:-1 49:-1 50:1 51:-1 52:-1 53:7 54:-1 55:1 56:5 57:-1 58:0 59:0 60:0 
-102.631578570918 1:0 2:-2 3:0 4:0 5:-7 6:1 7:0 8:-7 9:1 10:0 11:1 12:-1 13:-1 14:-1 15:-1 16:-1 17:-3 18:0 19:0 20:-3 21:1 22:0 23:1 24:-1 25:-1 26:0 27:-1 28:-1 29:1 30:-1 31:1 32:-1 33:0 34:0 35:0 36:-1 37:-1 38:0 39:-1 40:-1 41:4 42:-1 43:1 44:2 45:-1 46:0 47:0 48:0 49:0 50:1 51:-1 52:0 53:8 54:-2 55:1 56:6 57:-1 58:0 59:0 60:-1 
-28.36263511899899 1:1 2:0 3:0 4:-4 5:5 6:5 7:1 8:5 9:6 10:0 11:0 12:0 13:0 14:0 15:0 16:-1 17:2 18:1 19:1 20:3 21:3 22:0 23:0 24:-1 25:0 26:0 27:-1 28:0 29:1 30:-1 31:1 32:1 33:0 34:0 35:0 36:-1 37:1 38:0 39:-1 40:1 41:-2 42:-3 43:1 44:-1 45:-3 46:0 47:0 48:0 49:1 50:0 51:-1 52:4 53:-5 54:-5 55:-1 56:-4 57:-6 58:0 59:0 60:0 
-102.631578570918 1:0 2:0 3:0 4:-3 5:5 6:4 7:2 8:5 9:5 10:0 11:0 12:-1 13:0 14:0 15:-1 16:-2 17:4 18:2 19:2 20:3 21:2 22:0 23:0 24:-1 25:1 26:0 27:-1 28:-1 29:1 30:0 31:2 32:1 33:-1 34:0 35:0 36:0 37:1 38:0 39:-1 40:2 41:-2 42:-2 43:0 44:-2 45:-4 46:0 47:0 48:0 49:2 50:0 51:-1 52:2 53:-4 54:-4 55:-3 56:-3 57:-5 58:0 59:0 60:0 
-102.631578570918 1:-1 2:-1 3:0 4:-3 5:6 6:4 7:3 8:5 9:4 10:0 11:0 12:-1 13:0 14:-1 15:0 16:-2 17:3 18:2 19:3 20:3 21:1 22:0 23:0 24:0 25:0 26:-1 27:0 28:1 29:0 30:0 31:1 32:0 33:-2 34:0 35:0 36:0 37:1 38:-1 39:0 40:1 41:-2 42:-2 43:-2 44:-1 45:-3 46:0 47:0 48:0 49:2 50:0 51:0 52:2 53:-5 54:-4 55:-2 56:-4 57:-3 58:0 59:0 60:0 
-102.631578570918 1:-1 2:-1 3:0 4:-1 5:6 6:3 7:3 8:4 9:2 10:0 11:0 12:0 13:0 14:-1 15:0 16:-1 17:4 18:1 19:0 20:3 21:1 22:0 23:0 24:0 25:1 26:0 27:0 28:0 29:1 30:-1 31:0 32:0 33:1 34:0 35:0 36:0 37:2 38:0 39:0 40:0 41:-2 42:-2 43:0 44:-2 45:0 46:0 47:0 48:0 49:1 50:0 51:-1 52:0 53:-6 54:-3 55:-2 56:-5 57:-4 58:0 59:0 60:0 
-102.631578570918 1:-1 2:-1 3:0 4:-2 5:7 6:2 7:2 8:6 9:2 10:0 11:0 12:0 13:0 14:0 15:0 16:-1 17:4 18:0 19:2 20:3 21:2 22:0 23:0 24:0 25:1 26:0 27:0 28:-1 29:1 30:-1 31:2 32:1 33:1 34:0 35:0 36:0 37:0 38:0 39:-1 40:-1 41:-3 42:-2 43:0 44:-2 45:-3 46:0 47:0 48:0 49:0 50:-1 51:-1 52:1 53:-6 54:-1 55:-2 56:-6 57:-5 58:0 59:1 60:0 
-102.631578570918 1:0 2:0 3:0 4:-1 5:7 6:1 7:2 8:6 9:4 10:0 11:0 12:0 13:1 14:0 15:0 16:-1 17:4 18:0 19:2 20:4 21:3 22:0 23:0 24:0 25:0 26:0 27:-1 28:-1 29:0 30:-1 31:0 32:1 33:-1 34:0 35:0 36:0 37:0 38:-1 39:-1 40:1 41:-3 42:0 43:-2 44:-3 45:-3 46:0 47:1 48:0 49:0 50:-1 51:-1 52:1 53:-7 54:0 55:-2 56:-6 57:-3 58:0 59:1 60:0 
-102.631578570918 1:0 2:0 3:-1 4:0 5:6 6:-1 7:1 8:6 9:1 10:1 11:0 12:0 13:0 14:0 15:-1 16:0 17:2 18:-1 19:1 20:3 21:1 22:1 23:0 24:0 25:1 26:0 27:0 28:0 29:-1 30:0 31:1 32:0 33:0 34:1 35:0 36:0 37:1 38:-1 39:0 40:0 41:-3 42:1 43:1 44:-4 45:-1 46:1 47:0 48:0 49:1 50:-1 51:-1 52:0 53:-5 54:1 55:0 56:-6 57:-1 58:0 59:0 60:0 
-70.94343090824663 1:0 2:-1 3:2 4:0 5:3 6:2 7:3 8:1 9:-2 10:1 11:0 12:-1 13:0 14:-1 15:1 16:0 17:1 18:2 19:2 20:-1 21:-2 22:0 23:0 24:-1 25:0 26:-1 27:-1 28:1 29:-2 30:-1 31:-1 32:-1 33:0 34:0 35:0 36:0 37:1 38:0 39:-2 40:0 41:-2 42:-1 43:-1 44:-1 45:-1 46:0 47:0 48:-1 49:1 50:0 51:-1 52:-2 53:-2 54:-5 55:-1 56:-1 57:4 58:0 59:0 60:-1 
-102.631578570918 1:0 2:-1 3:1 4:0 5:2 6:3 7:2 8:0 9:-3 10:0 11:0 12:-1 13:0 14:-1 15:-1 16:1 17:-1 18:0 19:-1 20:0 21:-1 22:0 23:0 24:0 25:1 26:0 27:-2 28:0 29:-1 30:0 31:-1 32:0 33:-2 34:0 35:0 36:-1 37:1 38:0 39:-1 40:-2 41:-1 42:-4 43:-1 44:0 45:3 46:0 47:0 48:-1 49:2 50:0 51:-1 52:-1 53:0 54:-3 55:1 56:0 57:3 58:0 59:1 60:-1 
-102.631578570918 1:-1 2:-1 3:0 4:1 5:-1 6:2 7:-1 8:0 9:-3 10:0 11:0 12:0 13:0 14:0 15:-1 16:0 17:-1 18:2 19:-1 20:0 21:-4 22:0 23:0 24:-1 25:0 26:0 27:0 28:-2 29:-1 30:-2 31:-1 32:0 33:1 34:0 35:0 36:-1 37:1 38:0 39:0 40:-1 41:0 42:-1 43:1 44:0 45:1 46:0 47:1 48:-1 49:0 50:-1 51:1 52:-1 53:0 54:-2 55:2 56:0 57:3 58:0 59:1 60:-1 
-102.631578570918 1:0 2:0 3:-2 4:0 5:-1 6:2 7:-1 8:0 9:-5 10:0 11:0 12:0 13:0 14:0 15:-1 16:-2 17:-1 18:-2 19:-1 20:0 21:0 22:0 23:0 24:0 25:1 26:0 27:-1 28:-1 29:0 30:-1 31:1 32:0 33:0 34:0 35:1 36:0 37:0 38:-1 39:0 40:-1 41:0 42:-2 43:2 44:0 45:2 46:0 47:1 48:0 49:-1 50:-2 51:2 52:3 53:0 54:0 55:3 56:0 57:2 58:0 59:1 60:0 
-102.631578570918 1:1 2:1 3:-2 4:-3 5:-1 6:-2 7:-2 8:0 9:-1 10:0 11:0 12:0 13:2 14:1 15:-2 16:-2 17:0 18:-1 19:0 20:0 21:-1 22:0 23:1 24:0 25:1 26:0 27:-1 28:-2 29:0 30:-2 31:1 32:0 33:1 34:0 35:1 36:0 37:0 38:-1 39:1 40:2 41:0 42:0 43:2 44:0 45:1 46:0 47:1 48:0 49:-1 50:-2 51:1 52:2 53:0 54:1 55:2 56:-1 57:0 58:0 59:1 60:0 
-91.26698921147954 1:0 2:-1 3:-1 4:-1 5:4 6:-7 7:1 8:2 9:-2 10:1 11:1 12:-1 13:-2 14:-1 15:-1 16:-1 17:0 18:-3 19:0 20:0 21:0 22:1 23:1 24:-1 25:-1 26:-1 27:0 28:0 29:-1 30:0 31:0 32:-1 33:1 34:1 35:1 36:0 37:-1 38:0 39:0 40:0 41:-1 42:3 43:1 44:-1 45:2 46:1 47:0 48:0 49:0 50:1 51:0 52:-1 53:-2 54:5 55:1 56:-1 57:2 58:0 59:0 60:0 
-102.631578570918 1:-2 2:-1 3:-1 4:-1 5:0 6:-5 7:0 8:0 9:-1 10:1 11:1 12:-1 13:-1 14:-1 15:0 16:0 17:-1 18:-2 19:0 20:-1 21:0 22:1 23:1 24:0 25:-1 26:0 27:0 28:0 29:-1 30:1 31:1 32:-1 33:1 34:1 35:0 36:0 37:0 38:1 39:0 40:-1 41:-2 42:3 43:1 44:-1 45:1 46:0 47:0 48:0 49:0 50:1 51:0 52:-2 53:0 54:3 55:1 56:1 57:1 58:0 59:-1 60:0 
-31.79688064353705 1:-1 2:-2 3:0 4:1 5:-1 6:-4 7:0 8:-2 9:-1 10:1 11:2 12:0 13:-1 14:-1 15:0 16:1 17:-1 18:-1 19:1 20:-2 21:0 22:1 23:1 24:0 25:0 26:0 27:0 28:0 29:-2 30:1 31:1 32:-2 33:0 34:0 35:1 36:0 37:0 38:0 39:0 40:-1 41:0 42:1 43:1 44:0 45:0 46:0 47:0 48:0 49:0 50:1 51:0 52:-2 53:4 54:0 55:0 56:2 57:1 58:0 59:0 60:-1 
-102.631578570918 1:0 2:-1 3:0 4:1 5:-6 6:0 7:1 8:-5 9:-1 10:0 11:2 12:0 13:0 14:-1 15:0 16:0 17:-4 18:0 19:1 20:-3 21:-1 22:0 23:1 24:0 25:0 26:0 27:0 28:-1 29:0 30:-1 31:0 32:-1 33:0 34:0 35:1 36:-1 37:0 38:0 39:0 40:-1 41:3 42:0 43:-1 44:2 45:2 46:0 47:0 48:-1 49:-1 50:1 51:-1 52:-2 53:7 54:-1 55:-1 56:6 57:2 58:0 59:0 60:-1 
-102.631578570918 1:0 2:-1 3:0 4:0 5:-7 6:0 7:1 8:-7 9:-1 10:0 11:2 12:-1 13:0 14:-1 15:0 16:0 17:-4 18:1 19:0 20:-4 21:1 22:0 23:1 24:-1 25:-1 26:0 27:-1 28:-1 29:0 30:0 31:0 32:0 33:1 34:0 35:1 36:-1 37:-1 38:1 39:-1 40:-1 41:4 42:-1 43:1 44:2 45:0 46:0 47:0 48:-1 49:-1 50:1 51:-1 52:-1 53:7 54:-1 55:1 56:5 57:-1 58:0 59:0 60:0 
-102.631578570918 1:0 2:-2 3:0 4:0 5:-7 6:1 7:0 8:-7 9:1 10:0 11:1 12:-1 13:-1 14:-1 15:-1 16:-1 17:-3 18:0 19:0 20:-3 21:1 22:0 23:1 24:-1 25:-1 26:0 27:-1 28:-1 29:1 30:-1 31:1 32:-1 33:0 34:0 35:0 36:-1 37:-1 38:0 39:-1 40:-1 41:4 42:-1 43:1 44:2 45:-1 46:0 47:0 48:0 49:0 50:1 51:-1 52:0 53:8 54:-2 55:1 56:6 57:-1 58:0 59:0 60:-1 
-40.15603979896652 1:-1 2:-2 3:-1 4:-3 5:-6 6:4 7:2 8:-7 9:2 10:1 11:1 12:0 13:0 14:-1 15:-1 16:-2 17:-2 18:3 19:2 20:-3 21:2 22:1 23:1 24:-1 25:0 26:-1 27:0 28:0 29:2 30:0 31:0 32:1 33:2 34:0 35:0 36:-1 37:1 38:0 39:1 40:1 41:4 42:-3 43:-2 44:4 45:0 46:1 47:0 48:-1 49:2 50:1 51:1 52:4 53:6 54:-5 55:-2 56:7 57:-2 58:1 59:-1 60:-1 
-92.34699140494242 1:1 2:-1 3:0 4:-6 5:4 6:5 7:2 8:4 9:4 10:0 11:1 12:0 13:1 14:0 15:0 16:-2 17:3 18:3 19:0 20:3 21:3 22:0 23:0 24:0 25:0 26:0 27:0 28:1 29:0 30:-1 31:0 32:1 33:0 34:0 35:0 36:-1 37:0 38:0 39:-1 40:2 41:-1 42:-3 43:0 44:-1 45:-3 46:0 47:0 48:-1 49:1 50:0 51:-1 52:3 53:-4 54:-5 55:0 56:-3 57:-6 58:0 59:0 60:0 
-90.20454431992657 1:1 2:0 3:0 4:-4 5:5 6:5 7:1 8:5 9:6 10:0 11:0 12:0 13:0 14:0 15:0 16:-1 17:2 18:1 19:1 20:3 21:3 22:0 23:0 24:-1 25:0 26:0 27:-1 28:0 29:1 30:-1 31:1 32:1 33:0 34:0 35:0 36:-1 37:1 38:0 39:-1 40:1 41:-2 42:-3 43:1 44:-1 45:-3 46:0 47:0 48:0 49:1 50:0 51:-1 52:4 53:-5 54:-5 55:-1 56:-4 57:-6 58:0 59:0 60:0 
-102.631578570918 1:0 2:0 3:0 4:-3 5:5 6:4 7:2 8:5 9:5 10:0 11:0 12:-1 13:0 14:0 15:-1 16:-2 17:4 18:2 19:2 20:3 21:2 22:0 23:0 24:-1 25:1 26:0 27:-1 28:-1 29:1 30:0 31:2 32:1 33:-1 34:0 35:0 36:0 37:1 38:0 39:-1 40:2 41:-2 42:-2 43:0 44:-2 45:-4 46:0 47:0 48:0 49:2 50:0 51:-1 52:2 53:-4 54:-4 55:-3 56:-3 57:-5 58:0 59:0 60:0 
-102.478499672251 1:-1 2:-1 3:0 4:-3 5:6 6:4 7:3 8:5 9:4 10:0 11:0 12:-1 13:0 14:-1 15:0 16:-2 17:3 18:2 19:3 20:3 21:1 22:0 23:0 24:0 25:0 26:-1 27:0 28:1 29:0 30:0 31:1 32:0 33:-2 34:0 35:0 36:0 37:1 38:-1 39:0 40:1 41:-2 42:-2 43:-2 44:-1 45:-3 46:0 47:0 48:0 49:2 50:0 51:0 52:2 53:-5 54:-4 55:-2 56:-4 57:-3 58:0 59:0 60:0 
-102.631578570918 1:-1 2:-1 3:0 4:-1 5:6 6:3 7:3 8:4 9:2 10:0 11:0 12:0 13:0 14:-1 15:0 16:-1 17:4 18:1 19:0 20:3 21:1 22:0 23:0 24:0 25:1 26:0 27:0 28:0 29:1 30:-1 31:0 32:0 33:1 34:0 35:0 36:0 37:2 38:0 39:0 40:0 41:-2 42:-2 43:0 44:-2 45:0 46:0 47:0 48:0 49:1 50:0 51:-1 52:0 53:-6 54:-3 55:-2 56:-5 57:-4 58:0 59:0 60:0 
-102.631578570918 1:-1 2:-1 3:0 4:-2 5:7 6:2 7:2 8:6 9:2 10:0 11:0 12:0 13:0 14:0 15:0 16:-1 17:4 18:0 19:2 20:3 21:2 22:0 23:0 24:0 25:1 26:0 27:0 28:-1 29:1 30:-1 31:2 32:1 33:1 34:0 35:0 36:0 37:0 38:0 39:-1 40:-1 41:-3 42:-2 43:0 44:-2 45:-3 46:0 47:0 48:0 49:0 50:-1 51:-1 52:1 53:-6 54:-1 55:-2 56:-6 57:-5 58:0 59:1 60:0 
-102.631578570918 1:0 2:0 3:0 4:-1 5:7 6:1 7:2 8:6 9:4 10:0 11:0 12:0 13:1 14:0 15:0 16:-1 17:4 18:0 19:2 20:4 21:3 22:0 23:0 24:0 25:0 26:0 27:-1 28:-1 29:0 30:-1 31:0 32:1 33:-1 34:0 35:0 36:0 37:0 38:-1 39:-1 40:1 41:-3 42:0 43:-2 44:-3 45:-3 46:0 47:1 48:0 49:0 50:-1 51:-1 52:1 53:-7 54:0 55:-2 56:-6 57:-3 58:0 59:1 60:0 
-102.631578570918 1:0 2:0 3:-1 4:0 5:6 6:-1 7:1 8:6 9:1 10:1 11:0 12:0 13:0 14:0 15:-1 16:0 17:2 18:-1 19:1 20:3 21:1 22:1 23:0 24:0 25:1 26:0 27:0 28:0 29:-1 30:0 31:1 32:0 33:0 34:1 35:0 36:0 37:1 38:-1 39:0 40:0 41:-3 42:1 43:1 44:-4 45:-1 46:1 47:0 48:0 49:1 50:-1 51:-1 52:0 53:-5 54:1 55:0 56:-6 57:-1 58:0 59:0 60:0 
-36.95384908036557 1:0 2:0 3:0 4:-1 5:5 6:-1 7:1 8:5 9:1 10:1 11:0 12:-1 13:1 14:0 15:1 16:-1 17:2 18:0 19:1 20:2 21:0 22:1 23:0 24:-1 25:1 26:-1 27:1 28:-1 29:0 30:1 31:1 32:-2 33:-1 34:1 35:0 36:-1 37:1 38:-1 39:0 40:-1 41:-2 42:1 43:0 44:-4 45:-1 46:0 47:0 48:-1 49:1 50:-1 51:-2 52:0 53:-5 54:-2 55:-3 56:-4 57:1 58:0 59:0 60:0 
-102.631578570918 1:0 2:-1 3:2 4:0 5:3 6:2 7:3 8:1 9:-2 10:1 11:0 12:-1 13:0 14:-1 15:1 16:0 17:1 18:2 19:2 20:-1 21:-2 22:0 23:0 24:-1 25:0 26:-1 27:-1 28:1 29:-2 30:-1 31:-1 32:-1 33:0 34:0 35:0 36:0 37:1 38:0 39:-2 40:0 41:-2 42:-1 43:-1 44:-1 45:-1 46:0 47:0 48:-1 49:1 50:0 51:-1 52:-2 53:-2 54:-5 55:-1 56:-1 57:4 58:0 59:0 60:-1 
-102.631578570918 1:0 2:-1 3:1 4:0 5:2 6:3 7:2 8:0 9:-3 10:0 11:0 12:-1 13:0 14:-1 15:-1 16:1 17:-1 18:0 19:-1 20:0 21:-1 22:0 23:0 24:0 25:1 26:0 27:-2 28:0 29:-1 30:0 31:-1 32:0 33:-2 34:0 35:0 36:-1 37:1 38:0 39:-1 40:-2 41:-1 42:-4 43:-1 44:0 45:3 46:0 47:0 48:-1 49:2 50:0 51:-1 52:-1 53:0 54:-3 55:1 56:0 57:3 58:0 59:1 60:-1 
-102.631578570918 1:-1 2:-1 3:0 4:1 5:-1 6:2 7:-1 8:0 9:-3 10:0 11:0 12:0 13:0 14:0 15:-1 16:0 17:-1 18:2 19:-1 20:0 21:-4 22:0 23:0 24:-1 25:0 26:0 27:0 28:-2 29:-1 30:-2 31:-1 32:0 33:1 34:0 35:0 36:-1 37:1 38:0 39:0 40:-1 41:0 42:-1 43:1 44:0 45:1 46:0 47:1 48:-1 49:0 50:-1 51:1 52:-1 53:0 54:-2 55:2 56:0 57:3 58:0 59:1 60:-1 
-102.631578570918 1:0 2:0 3:-2 4:0 5:-1 6:2 7:-1 8:0 9:-5 10:0 11:0 12:0 13:0 14:0 15:-1 16:-2 17:-1 18:-2 19:-1 20:0 21:0 22:0 23:0 24:0 25:1 26:0 27:-1 28:-1 29:0 30:-1 31:1 32:0 33:0 34:0 35:1 36:0 37:0 38:-1 39:0 40:-1 41:0 42:-2 43:2 44:0 45:2 46:0 47:1 48:0 49:-1 50:-2 51:2 52:3 53:0 54:0 55:3 56:0 57:2 58:0 59:1 60:0 
-102.631578570918 1:1 2:1 3:-2 4:-3 5:-1 6:-2 7:-2 8:0 9:-1 10:0 11:0 12:0 13:2 14:1 15:-2 16:-2 17:0 18:-1 19:0 20:0 21:-1 22:0 23:1 24:0 25:1 26:0 27:-1 28:-2 29:0 30:-2 31:1 32:0 33:1 34:0 35:1 36:0 37:0 38:-1 39:1 40:2 41:0 42:0 43:2 44:0 45:1 46:0 47:1 48:0 49:-1 50:-2 51:1 52:2 53:0 54:1 55:2 56:-1 57:0 58:0 59:1 60:0 
