svm_type c_svc
kernel_type rbf
gamma 0.00012207
nr_class 2
total_sv 242
rho -28.6744
label 1 3
nr_sv 136 106
SV
403.4931354092311 1:0 2:0 3:0 4:1 5:-1 6:6 7:3 8:-1 9:5 10:0 11:0 12:0 13:1 14:0 15:1 16:1 17:0 18:3 19:1 20:-3 21:2 22:0 23:0 24:0 25:1 26:0 27:1 28:0 29:-1 30:1 31:0 32:0 33:0 34:0 35:0 36:0 37:1 38:0 39:1 40:-1 41:0 42:-2 43:-1 44:1 45:0 46:0 47:0 48:0 49:1 50:0 51:1 52:-2 53:2 54:-4 55:-2 56:3 57:-3 58:0 59:0 60:0 
403.4931354092311 1:0 2:0 3:0 4:1 5:-1 6:5 7:3 8:-4 9:4 10:0 11:0 12:0 13:0 14:0 15:0 16:0 17:-2 18:3 19:2 20:-1 21:2 22:0 23:0 24:0 25:0 26:0 27:0 28:-1 29:-1 30:0 31:1 32:0 33:2 34:0 35:0 36:0 37:0 38:0 39:0 40:-2 41:1 42:-2 43:0 44:2 45:-1 46:0 47:0 48:0 49:0 50:0 51:0 52:-2 53:2 54:-4 55:-2 56:2 57:-3 58:0 59:0 60:0 
334.4586038224024 1:0 2:0 3:2 4:-2 5:2 6:1 7:-1 8:0 9:1 10:0 11:1 12:2 13:0 14:1 15:1 16:-1 17:0 18:1 19:-1 20:2 21:1 22:0 23:2 24:1 25:0 26:0 27:1 28:0 29:-1 30:0 31:1 32:1 33:-1 34:0 35:0 36:1 37:0 38:0 39:0 40:2 41:-1 42:-1 43:1 44:0 45:-1 46:0 47:0 48:0 49:0 50:0 51:0 52:3 53:0 54:0 55:-1 56:1 57:0 58:1 59:0 60:0 
403.4931354092311 1:0 2:1 3:1 4:-3 5:1 6:1 7:-1 8:1 9:2 10:0 11:2 12:1 13:0 14:0 15:1 16:-2 17:0 18:0 19:1 20:0 21:0 22:0 23:0 24:1 25:0 26:0 27:0 28:0 29:0 30:-1 31:1 32:-1 33:0 34:0 35:0 36:0 37:0 38:0 39:0 40:1 41:1 42:0 43:-1 44:0 45:1 46:1 47:0 48:0 49:0 50:0 51:0 52:4 53:1 54:1 55:-3 56:0 57:1 58:1 59:0 60:0 
403.4931354092311 1:0 2:0 3:1 4:-3 5:0 6:0 7:2 8:1 9:0 10:0 11:0 12:1 13:0 14:0 15:0 16:-1 17:0 18:-1 19:2 20:0 21:0 22:0 23:0 24:0 25:0 26:0 27:0 28:0 29:1 30:0 31:0 32:1 33:1 34:1 35:0 36:0 37:0 38:0 39:0 40:3 41:1 42:1 43:-2 44:1 45:1 46:1 47:0 48:0 49:0 50:1 51:0 52:3 53:0 54:2 55:-2 56:0 57:2 58:0 59:1 60:0 
403.4931354092311 1:0 2:1 3:1 4:7 5:1 6:-3 7:-7 8:0 9:-4 10:1 11:0 12:0 13:0 14:1 15:1 16:3 17:1 18:-2 19:-3 20:0 21:-2 22:1 23:0 24:0 25:1 26:1 27:0 28:-1 29:1 30:0 31:1 32:0 33:-1 34:1 35:0 36:0 37:1 38:1 39:0 40:-5 41:1 42:3 43:3 44:0 45:0 46:0 47:1 48:0 49:1 50:0 51:0 52:-8 53:0 54:6 55:6 56:0 57:7 58:0 59:-1 60:0 
218.8029517164769 1:0 2:1 3:1 4:7 5:1 6:-5 7:-6 8:1 9:-5 10:1 11:1 12:0 13:1 14:1 15:0 16:3 17:1 18:-3 19:-2 20:1 21:-4 22:1 23:1 24:0 25:1 26:1 27:0 28:-1 29:1 30:0 31:0 32:1 33:-3 34:0 35:2 36:0 37:1 38:0 39:0 40:-4 41:0 42:3 43:3 44:1 45:4 46:0 47:0 48:0 49:1 50:0 51:1 52:-9 53:0 54:7 55:9 56:0 57:9 58:1 59:0 60:0 
175.7433876546424 1:0 2:-3 3:-1 4:3 5:-2 6:-9 7:-3 8:-2 9:-8 10:0 11:-4 12:-1 13:0 14:0 15:-1 16:2 17:0 18:-3 19:-1 20:0 21:-4 22:0 23:0 24:0 25:0 26:0 27:0 28:-1 29:0 30:2 31:0 32:-1 33:2 34:0 35:0 36:1 37:0 38:1 39:1 40:-2 41:0 42:6 43:1 44:0 45:5 46:0 47:0 48:2 49:1 50:1 51:2 52:-3 53:0 54:8 55:3 56:0 57:8 58:1 59:0 60:2 
3.739364873910653 1:2 2:0 3:0 4:-5 5:0 6:5 7:7 8:0 9:6 10:1 11:0 12:0 13:1 14:0 15:0 16:-1 17:0 18:3 19:2 20:0 21:3 22:1 23:0 24:0 25:1 26:0 27:0 28:1 29:0 30:0 31:-1 32:1 33:0 34:0 35:1 36:0 37:0 38:1 39:0 40:2 41:0 42:-2 43:-2 44:0 45:-3 46:0 47:1 48:0 49:-1 50:1 51:0 52:3 53:1 54:-4 55:-3 56:1 57:-5 58:0 59:1 60:0 
403.4931354092311 1:1 2:-1 3:0 4:-3 5:0 6:5 7:2 8:1 9:6 10:0 11:0 12:1 13:0 14:0 15:0 16:-2 17:0 18:3 19:1 20:0 21:3 22:0 23:0 24:1 25:-1 26:0 27:0 28:-1 29:1 30:1 31:0 32:1 33:1 34:0 35:0 36:1 37:-1 38:0 39:0 40:0 41:1 42:-2 43:0 44:1 45:-2 46:0 47:0 48:0 49:0 50:1 51:0 52:2 53:0 54:-4 55:0 56:1 57:-5 58:0 59:0 60:-2 
11.63068935909269 1:0 2:0 3:1 4:-2 5:-2 6:7 7:-3 8:0 9:7 10:0 11:0 12:1 13:0 14:-1 15:1 16:-1 17:-1 18:4 19:-2 20:0 21:3 22:0 23:0 24:1 25:1 26:3 27:1 28:0 29:4 30:1 31:0 32:4 33:0 34:0 35:3 36:0 37:1 38:-1 39:-1 40:0 41:-1 42:-3 43:3 44:-1 45:-2 46:0 47:0 48:0 49:1 50:-1 51:-1 52:0 53:0 54:-6 55:6 56:0 57:-4 58:0 59:0 60:0 
6.928645642728055 1:1 2:0 3:1 4:2 5:0 6:6 7:-5 8:-1 9:5 10:0 11:0 12:0 13:1 14:0 15:1 16:2 17:1 18:3 19:-2 20:0 21:3 22:0 23:0 24:0 25:0 26:0 27:1 28:2 29:2 30:0 31:1 32:2 33:0 34:0 35:0 36:0 37:-1 38:1 39:0 40:-2 41:0 42:-2 43:2 44:1 45:-3 46:0 47:0 48:1 49:-1 50:0 51:0 52:-5 53:0 54:-3 55:4 56:1 57:-4 58:0 59:0 60:1 
20.67118937722061 1:1 2:0 3:1 4:4 5:0 6:5 7:-4 8:-1 9:5 10:0 11:0 12:0 13:0 14:0 15:1 16:4 17:1 18:2 19:-1 20:1 21:2 22:0 23:0 24:0 25:-1 26:1 27:0 28:0 29:-1 30:0 31:0 32:0 33:-1 34:0 35:0 36:1 37:-1 38:0 39:0 40:-3 41:-1 42:-1 43:2 44:0 45:-2 46:0 47:0 48:1 49:-1 50:0 51:0 52:-6 53:1 54:-4 55:5 56:0 57:-4 58:0 59:0 60:1 
403.4931354092311 1:0 2:1 3:0 4:5 5:0 6:3 7:-7 8:0 9:2 10:0 11:1 12:1 13:0 14:1 15:0 16:2 17:0 18:1 19:-3 20:0 21:1 22:0 23:1 24:1 25:0 26:1 27:0 28:1 29:-1 30:0 31:0 32:1 33:0 34:0 35:1 36:1 37:0 38:0 39:0 40:-2 41:1 42:-2 43:5 44:2 45:0 46:0 47:-1 48:0 49:0 50:0 51:0 52:-6 53:1 54:-2 55:8 56:1 57:0 58:0 59:0 60:0 
0.4361493056869293 1:-1 2:2 3:0 4:5 5:2 6:2 7:-7 8:1 9:1 10:0 11:2 12:1 13:-1 14:2 15:0 16:4 17:1 18:1 19:-4 20:2 21:0 22:0 23:2 24:1 25:-1 26:1 27:0 28:1 29:3 30:-1 31:1 32:3 33:0 34:0 35:0 36:0 37:-1 38:1 39:0 40:-3 41:3 42:-1 43:4 44:2 45:0 46:0 47:1 48:0 49:0 50:-7 51:0 52:-7 53:-7 54:-1 55:8 56:-5 57:0 58:0 59:-7 60:1 
16.80656330080692 1:0 2:0 3:0 4:-4 5:0 6:-4 7:4 8:0 9:-5 10:0 11:0 12:0 13:0 14:0 15:0 16:-2 17:0 18:-2 19:2 20:1 21:-2 22:0 23:0 24:0 25:0 26:0 27:0 28:-1 29:1 30:0 31:0 32:1 33:1 34:0 35:0 36:0 37:0 38:0 39:0 40:1 41:1 42:3 43:-2 44:1 45:2 46:1 47:0 48:0 49:0 50:-3 51:0 52:5 53:1 54:5 55:-2 56:1 57:4 58:1 59:-3 60:0 
403.4931354092311 1:0 2:0 3:0 4:0 5:1 6:-1 7:1 8:0 9:-1 10:0 11:0 12:0 13:0 14:0 15:0 16:-1 17:1 18:0 19:1 20:0 21:0 22:0 23:0 24:0 25:0 26:0 27:0 28:-1 29:1 30:1 31:1 32:0 33:1 34:0 35:0 36:0 37:0 38:0 39:0 40:-1 41:-1 42:2 43:1 44:0 45:1 46:0 47:0 48:0 49:0 50:0 51:0 52:2 53:-2 54:1 55:0 56:0 57:0 58:0 59:0 60:0 
403.4931354092311 1:0 2:0 3:1 4:-2 5:1 6:0 7:1 8:0 9:0 10:0 11:0 12:0 13:0 14:0 15:1 16:-2 17:1 18:1 19:1 20:0 21:1 22:0 23:0 24:0 25:0 26:0 27:1 28:-2 29:-1 30:2 31:1 32:0 33:1 34:0 35:0 36:0 37:0 38:0 39:1 40:1 41:-2 42:1 43:0 44:0 45:0 46:0 47:0 48:0 49:0 50:0 51:0 52:4 53:0 54:0 55:0 56:-1 57:0 58:0 59:0 60:0 
403.4931354092311 1:1 2:0 3:1 4:-4 5:1 6:1 7:2 8:0 9:1 10:0 11:0 12:0 13:1 14:0 15:1 16:-4 17:-1 18:2 19:2 20:0 21:1 22:0 23:0 24:0 25:1 26:0 27:1 28:-1 29:-2 30:1 31:1 32:0 33:0 34:0 35:0 36:0 37:1 38:0 39:0 40:2 41:0 42:0 43:1 44:-1 45:0 46:0 47:0 48:0 49:0 50:0 51:0 52:4 53:0 54:-1 55:-3 56:0 57:0 58:0 59:0 60:1 
403.4931354092311 1:1 2:0 3:1 4:-6 5:-1 6:2 7:3 8:0 9:1 10:1 11:0 12:0 13:1 14:0 15:1 16:-3 17:-2 18:1 19:2 20:0 21:0 22:1 23:0 24:0 25:1 26:0 27:0 28:0 29:0 30:0 31:2 32:-1 33:0 34:1 35:0 36:0 37:0 38:0 39:0 40:2 41:0 42:-1 43:-2 44:0 45:0 46:1 47:0 48:1 49:0 50:0 51:0 52:5 53:1 54:-1 55:-4 56:0 57:0 58:0 59:0 60:1 
116.8328803645386 1:-1 2:0 3:1 4:-3 5:0 6:0 7:2 8:2 9:-1 10:0 11:0 12:1 13:-1 14:0 15:0 16:-1 17:0 18:0 19:1 20:2 21:1 22:-1 23:0 24:1 25:0 26:0 27:0 28:0 29:1 30:0 31:1 32:0 33:1 34:-1 35:0 36:0 37:1 38:0 39:0 40:2 41:1 42:0 43:1 44:-1 45:1 46:-1 47:0 48:0 49:1 50:0 51:-1 52:2 53:0 54:0 55:-1 56:-2 57:1 58:-1 59:0 60:0 
403.4931354092311 1:-1 2:0 3:1 4:-2 5:0 6:0 7:1 8:3 9:0 10:0 11:0 12:1 13:0 14:0 15:1 16:-1 17:1 18:0 19:1 20:1 21:0 22:0 23:0 24:0 25:1 26:0 27:1 28:1 29:1 30:0 31:1 32:0 33:0 34:0 35:0 36:0 37:1 38:0 39:0 40:1 41:0 42:0 43:-1 44:-1 45:0 46:0 47:0 48:0 49:1 50:0 51:-1 52:1 53:0 54:0 55:-2 56:-3 57:1 58:0 59:0 60:-1 
403.4931354092311 1:0 2:0 3:1 4:-2 5:1 6:0 7:2 8:2 9:0 10:-1 11:0 12:1 13:1 14:0 15:1 16:0 17:1 18:0 19:2 20:1 21:0 22:-1 23:0 24:1 25:1 26:0 27:0 28:0 29:0 30:0 31:0 32:0 33:0 34:-1 35:0 36:1 37:1 38:0 39:-1 40:0 41:0 42:0 43:-1 44:-2 45:1 46:-1 47:0 48:0 49:0 50:0 51:-1 52:-1 53:0 54:0 55:-2 56:-1 57:2 58:0 59:0 60:0 
403.4931354092311 1:2 2:0 3:1 4:1 5:0 6:1 7:2 8:-2 9:2 10:0 11:0 12:1 13:1 14:0 15:1 16:0 17:0 18:1 19:1 20:1 21:2 22:0 23:0 24:1 25:0 26:0 27:0 28:0 29:0 30:1 31:0 32:1 33:2 34:1 35:0 36:0 37:0 38:0 39:0 40:0 41:0 42:1 43:0 44:1 45:2 46:1 47:0 48:0 49:0 50:-1 51:-1 52:-3 53:-4 54:-2 55:-3 56:-3 57:-4 58:1 59:-1 60:-1 
403.4931354092311 1:1 2:0 3:2 4:1 5:1 6:2 7:3 8:1 9:4 10:0 11:0 12:2 13:0 14:0 15:1 16:1 17:1 18:2 19:2 20:1 21:4 22:1 23:0 24:1 25:0 26:0 27:1 28:1 29:1 30:2 31:2 32:1 33:4 34:1 35:0 36:1 37:0 38:-1 39:0 40:-2 41:-3 42:-1 43:-1 44:-3 45:-2 46:1 47:-1 48:0 49:1 50:-1 51:0 52:-3 53:-3 54:-4 55:-3 56:-3 57:-8 58:0 59:-1 60:-1 
226.0504355864286 1:0 2:0 3:1 4:2 5:1 6:5 7:4 8:1 9:9 10:1 11:0 12:2 13:0 14:-1 15:0 16:-1 17:-3 18:2 19:1 20:-3 21:3 22:1 23:-1 24:1 25:1 26:-1 27:0 28:-2 29:-3 30:-1 31:-1 32:-3 33:-3 34:0 35:-1 36:0 37:1 38:-1 39:0 40:-1 41:1 42:-1 43:0 44:1 45:-3 46:0 47:-1 48:-1 49:2 50:-1 51:0 52:-1 53:1 54:-1 55:0 56:1 57:-3 58:0 59:-1 60:-2 
0.08519883962897737 1:-3 2:-2 3:-3 4:-7 5:1 6:-13 7:0 8:5 9:9 10:2 11:0 12:6 13:0 14:-2 15:-2 16:0 17:8 18:-1 19:0 20:3 21:5 22:1 23:1 24:3 25:1 26:-1 27:1 28:1 29:-1 30:11 31:-1 32:7 33:6 34:1 35:0 36:0 37:3 38:0 39:3 40:2 41:-2 42:11 43:-1 44:2 45:1 46:0 47:0 48:-3 49:2 50:1 51:4 52:4 53:-5 54:-6 55:3 56:-18 57:-21 58:0 59:1 60:-6 
403.4931354092311 1:0 2:0 3:0 4:1 5:-1 6:6 7:3 8:-1 9:5 10:0 11:0 12:0 13:1 14:0 15:1 16:1 17:0 18:3 19:1 20:-3 21:2 22:0 23:0 24:0 25:1 26:0 27:1 28:0 29:-1 30:1 31:0 32:0 33:0 34:0 35:0 36:0 37:1 38:0 39:1 40:-1 41:0 42:-2 43:-1 44:1 45:0 46:0 47:0 48:0 49:1 50:0 51:1 52:-2 53:2 54:-4 55:-2 56:3 57:-3 58:0 59:0 60:0 
403.4931354092311 1:0 2:0 3:0 4:1 5:-1 6:5 7:3 8:-4 9:4 10:0 11:0 12:0 13:0 14:0 15:0 16:0 17:-2 18:3 19:2 20:-1 21:2 22:0 23:0 24:0 25:0 26:0 27:0 28:-1 29:-1 30:0 31:1 32:0 33:2 34:0 35:0 36:0 37:0 38:0 39:0 40:-2 41:1 42:-2 43:0 44:2 45:-1 46:0 47:0 48:0 49:0 50:0 51:0 52:-2 53:2 54:-4 55:-2 56:2 57:-3 58:0 59:0 60:0 
143.6927162680401 1:0 2:0 3:3 4:1 5:0 6:0 7:0 8:0 9:0 10:0 11:1 12:2 13:1 14:-1 15:2 16:1 17:0 18:-1 19:0 20:1 21:2 22:0 23:-1 24:1 25:1 26:0 27:1 28:0 29:1 30:-1 31:0 32:2 33:2 34:0 35:1 36:0 37:0 38:0 39:-1 40:-1 41:-1 42:0 43:0 44:1 45:1 46:0 47:1 48:-1 49:-1 50:1 51:-2 52:-2 53:0 54:4 55:0 56:-1 57:-3 58:0 59:2 60:-2 
31.51957937933073 1:2 2:-1 3:3 4:1 5:0 6:-2 7:2 8:1 9:3 10:0 11:-1 12:2 13:2 14:0 15:2 16:0 17:1 18:-2 19:2 20:2 21:3 22:0 23:1 24:1 25:1 26:0 27:0 28:-1 29:-1 30:-1 31:2 32:1 33:2 34:0 35:1 36:0 37:0 38:1 39:-1 40:-2 41:0 42:3 43:2 44:-1 45:-2 46:0 47:2 48:-1 49:-1 50:1 51:-2 52:-2 53:1 54:3 55:-5 56:1 57:-2 58:0 59:1 60:-2 
1.472985206365389 1:0 2:1 3:1 4:-8 5:0 6:3 7:-1 8:0 9:1 10:0 11:1 12:1 13:0 14:0 15:1 16:1 17:2 18:1 19:-1 20:0 21:1 22:0 23:1 24:1 25:0 26:1 27:0 28:2 29:0 30:1 31:-1 32:2 33:1 34:0 35:2 36:0 37:0 38:0 39:0 40:3 41:-1 42:0 43:1 44:1 45:-1 46:0 47:0 48:0 49:0 50:0 51:-1 52:5 53:-1 54:-1 55:1 56:0 57:-1 58:0 59:0 60:-1 
403.4931354092311 1:0 2:0 3:2 4:-2 5:2 6:1 7:-1 8:0 9:1 10:0 11:1 12:2 13:0 14:1 15:1 16:-1 17:0 18:1 19:-1 20:2 21:1 22:0 23:2 24:1 25:0 26:0 27:1 28:0 29:-1 30:0 31:1 32:1 33:-1 34:0 35:0 36:1 37:0 38:0 39:0 40:2 41:-1 42:-1 43:1 44:0 45:-1 46:0 47:0 48:0 49:0 50:0 51:0 52:3 53:0 54:0 55:-1 56:1 57:0 58:1 59:0 60:0 
403.4931354092311 1:0 2:1 3:1 4:-3 5:1 6:1 7:-1 8:1 9:2 10:0 11:2 12:1 13:0 14:0 15:1 16:-2 17:0 18:0 19:1 20:0 21:0 22:0 23:0 24:1 25:0 26:0 27:0 28:0 29:0 30:-1 31:1 32:-1 33:0 34:0 35:0 36:0 37:0 38:0 39:0 40:1 41:1 42:0 43:-1 44:0 45:1 46:1 47:0 48:0 49:0 50:0 51:0 52:4 53:1 54:1 55:-3 56:0 57:1 58:1 59:0 60:0 
403.4931354092311 1:0 2:0 3:1 4:-3 5:0 6:0 7:2 8:1 9:0 10:0 11:0 12:1 13:0 14:0 15:0 16:-1 17:0 18:-1 19:2 20:0 21:0 22:0 23:0 24:0 25:0 26:0 27:0 28:0 29:1 30:0 31:0 32:1 33:1 34:1 35:0 36:0 37:0 38:0 39:0 40:3 41:1 42:1 43:-2 44:1 45:1 46:1 47:0 48:0 49:0 50:1 51:0 52:3 53:0 54:2 55:-2 56:0 57:2 58:0 59:1 60:0 
2.405345157048802 1:0 2:0 3:0 4:1 5:0 6:-1 7:-1 8:0 9:0 10:0 11:0 12:0 13:0 14:0 15:0 16:2 17:1 18:0 19:-3 20:1 21:1 22:1 23:0 24:0 25:0 26:0 27:0 28:5 29:1 30:1 31:-5 32:1 33:1 34:1 35:0 36:0 37:0 38:1 39:0 40:5 41:0 42:2 43:-5 44:0 45:2 46:0 47:1 48:0 49:0 50:2 51:0 52:-11 53:-1 54:-2 55:11 56:0 57:-4 58:0 59:2 60:0 
403.4931354092311 1:0 2:1 3:1 4:7 5:1 6:-3 7:-7 8:0 9:-4 10:1 11:0 12:0 13:0 14:1 15:1 16:3 17:1 18:-2 19:-3 20:0 21:-2 22:1 23:0 24:0 25:1 26:1 27:0 28:-1 29:1 30:0 31:1 32:0 33:-1 34:1 35:0 36:0 37:1 38:1 39:0 40:-5 41:1 42:3 43:3 44:0 45:0 46:0 47:1 48:0 49:1 50:0 51:0 52:-8 53:0 54:6 55:6 56:0 57:7 58:0 59:-1 60:0 
403.4931354092311 1:0 2:1 3:1 4:7 5:1 6:-5 7:-6 8:1 9:-5 10:1 11:1 12:0 13:1 14:1 15:0 16:3 17:1 18:-3 19:-2 20:1 21:-4 22:1 23:1 24:0 25:1 26:1 27:0 28:-1 29:1 30:0 31:0 32:1 33:-3 34:0 35:2 36:0 37:1 38:0 39:0 40:-4 41:0 42:3 43:3 44:1 45:4 46:0 47:0 48:0 49:1 50:0 51:1 52:-9 53:0 54:7 55:9 56:0 57:9 58:1 59:0 60:0 
88.24653905088854 1:0 2:1 3:0 4:8 5:1 6:-7 7:-7 8:1 9:-8 10:1 11:1 12:0 13:0 14:1 15:0 16:4 17:1 18:-4 19:-5 20:1 21:-7 22:0 23:2 24:0 25:0 26:0 27:0 28:1 29:0 30:-1 31:-2 32:1 33:0 34:0 35:0 36:0 37:0 38:0 39:1 40:-4 41:0 42:3 43:4 44:0 45:5 46:1 47:0 48:0 49:0 50:-2 51:1 52:-9 53:-1 54:9 55:10 56:-1 57:10 58:1 59:-1 60:1 
93.7532217529034 1:1 2:0 3:0 4:5 5:1 6:-11 7:-6 8:1 9:-11 10:0 11:0 12:-2 13:0 14:-3 15:0 16:1 17:-2 18:-5 19:0 20:-2 21:-4 22:0 23:-3 24:-1 25:0 26:0 27:0 28:0 29:0 30:1 31:2 32:0 33:0 34:0 35:1 36:0 37:0 38:0 39:1 40:-3 41:0 42:6 43:3 44:-1 45:6 46:0 47:1 48:1 49:0 50:1 51:2 52:-4 53:0 54:10 55:4 56:0 57:9 58:0 59:1 60:2 
403.4931354092311 1:0 2:-3 3:-1 4:3 5:-2 6:-9 7:-3 8:-2 9:-8 10:0 11:-4 12:-1 13:0 14:0 15:-1 16:2 17:0 18:-3 19:-1 20:0 21:-4 22:0 23:0 24:0 25:0 26:0 27:0 28:-1 29:0 30:2 31:0 32:-1 33:2 34:0 35:0 36:1 37:0 38:1 39:1 40:-2 41:0 42:6 43:1 44:0 45:5 46:0 47:0 48:2 49:1 50:1 51:2 52:-3 53:0 54:8 55:3 56:0 57:8 58:1 59:0 60:2 
26.14972901150784 1:1 2:-1 3:-1 4:-2 5:0 6:-3 7:8 8:-1 9:0 10:0 11:0 12:-2 13:1 14:-1 15:-1 16:-2 17:0 18:-1 19:5 20:1 21:1 22:0 23:0 24:-1 25:1 26:-1 27:-1 28:-1 29:-1 30:1 31:1 32:-1 33:1 34:0 35:0 36:1 37:0 38:-1 39:2 40:1 41:-1 42:3 43:-4 44:-1 45:1 46:0 47:0 48:2 49:0 50:0 51:1 52:3 53:-1 54:4 55:-6 56:0 57:1 58:0 59:0 60:2 
97.71856865156389 1:1 2:0 3:0 4:-8 5:-1 6:4 7:8 8:0 9:5 10:1 11:0 12:0 13:1 14:0 15:0 16:-5 17:0 18:3 19:5 20:0 21:3 22:1 23:0 24:0 25:1 26:0 27:0 28:0 29:1 30:1 31:0 32:1 33:1 34:1 35:0 36:0 37:0 38:0 39:0 40:4 41:1 42:-1 43:-5 44:1 45:-2 46:1 47:0 48:0 49:0 50:0 51:0 52:6 53:1 54:-4 55:-8 56:2 57:-5 58:0 59:1 60:0 
299.3130348176878 1:2 2:0 3:0 4:-5 5:0 6:5 7:7 8:0 9:6 10:1 11:0 12:0 13:1 14:0 15:0 16:-1 17:0 18:3 19:2 20:0 21:3 22:1 23:0 24:0 25:1 26:0 27:0 28:1 29:0 30:0 31:-1 32:1 33:0 34:0 35:1 36:0 37:0 38:1 39:0 40:2 41:0 42:-2 43:-2 44:0 45:-3 46:0 47:1 48:0 49:-1 50:1 51:0 52:3 53:1 54:-4 55:-3 56:1 57:-5 58:0 59:1 60:0 
403.4931354092311 1:1 2:-1 3:0 4:-3 5:0 6:5 7:2 8:1 9:6 10:0 11:0 12:1 13:0 14:0 15:0 16:-2 17:0 18:3 19:1 20:0 21:3 22:0 23:0 24:1 25:-1 26:0 27:0 28:-1 29:1 30:1 31:0 32:1 33:1 34:0 35:0 36:1 37:-1 38:0 39:0 40:0 41:1 42:-2 43:0 44:1 45:-2 46:0 47:0 48:0 49:0 50:1 51:0 52:2 53:0 54:-4 55:0 56:1 57:-5 58:0 59:0 60:-2 
11.3576824088373 1:0 2:0 3:1 4:-2 5:-2 6:7 7:-3 8:0 9:7 10:0 11:0 12:1 13:0 14:-1 15:1 16:-1 17:-1 18:4 19:-2 20:0 21:3 22:0 23:0 24:1 25:1 26:3 27:1 28:0 29:4 30:1 31:0 32:4 33:0 34:0 35:3 36:0 37:1 38:-1 39:-1 40:0 41:-1 42:-3 43:3 44:-1 45:-2 46:0 47:0 48:0 49:1 50:-1 51:-1 52:0 53:0 54:-6 55:6 56:0 57:-4 58:0 59:0 60:0 
3.620071630242611 1:1 2:0 3:1 4:2 5:0 6:6 7:-5 8:-1 9:5 10:0 11:0 12:0 13:1 14:0 15:1 16:2 17:1 18:3 19:-2 20:0 21:3 22:0 23:0 24:0 25:0 26:0 27:1 28:2 29:2 30:0 31:1 32:2 33:0 34:0 35:0 36:0 37:-1 38:1 39:0 40:-2 41:0 42:-2 43:2 44:1 45:-3 46:0 47:0 48:1 49:-1 50:0 51:0 52:-5 53:0 54:-3 55:4 56:1 57:-4 58:0 59:0 60:1 
160.2820420942408 1:1 2:0 3:1 4:4 5:0 6:5 7:-4 8:-1 9:5 10:0 11:0 12:0 13:0 14:0 15:1 16:4 17:1 18:2 19:-1 20:1 21:2 22:0 23:0 24:0 25:-1 26:1 27:0 28:0 29:-1 30:0 31:0 32:0 33:-1 34:0 35:0 36:1 37:-1 38:0 39:0 40:-3 41:-1 42:-1 43:2 44:0 45:-2 46:0 47:0 48:1 49:-1 50:0 51:0 52:-6 53:1 54:-4 55:5 56:0 57:-4 58:0 59:0 60:1 
62.80358921609792 1:0 2:1 3:0 4:5 5:-1 6:4 7:-5 8:0 9:3 10:0 11:0 12:0 13:0 14:0 15:0 16:2 17:-1 18:3 19:-3 20:0 21:2 22:0 23:0 24:0 25:0 26:0 27:0 28:-1 29:1 30:0 31:0 32:0 33:0 34:0 35:0 36:0 37:0 38:0 39:0 40:-4 41:1 42:-2 43:4 44:0 45:-1 46:0 47:0 48:0 49:0 50:0 51:0 52:-5 53:0 54:-3 55:7 56:1 57:-2 58:0 59:0 60:0 
403.4931354092311 1:0 2:1 3:0 4:5 5:0 6:3 7:-7 8:0 9:2 10:0 11:1 12:1 13:0 14:1 15:0 16:2 17:0 18:1 19:-3 20:0 21:1 22:0 23:1 24:1 25:0 26:1 27:0 28:1 29:-1 30:0 31:0 32:1 33:0 34:0 35:1 36:1 37:0 38:0 39:0 40:-2 41:1 42:-2 43:5 44:2 45:0 46:0 47:-1 48:0 49:0 50:0 51:0 52:-6 53:1 54:-2 55:8 56:1 57:0 58:0 59:0 60:0 
1.344352388508146 1:-1 2:2 3:0 4:5 5:2 6:2 7:-7 8:1 9:1 10:0 11:2 12:1 13:-1 14:2 15:0 16:4 17:1 18:1 19:-4 20:2 21:0 22:0 23:2 24:1 25:-1 26:1 27:0 28:1 29:3 30:-1 31:1 32:3 33:0 34:0 35:0 36:0 37:-1 38:1 39:0 40:-3 41:3 42:-1 43:4 44:2 45:0 46:0 47:1 48:0 49:0 50:-7 51:0 52:-7 53:-7 54:-1 55:8 56:-5 57:0 58:0 59:-7 60:1 
7.576638572601897 1:-1 2:2 3:0 4:7 5:0 6:1 7:-8 8:1 9:0 10:0 11:2 12:1 13:-1 14:1 15:0 16:4 17:2 18:-1 19:-3 20:2 21:0 22:0 23:0 24:0 25:-1 26:1 27:0 28:0 29:2 30:-1 31:0 32:1 33:0 34:0 35:1 36:0 37:0 38:-7 39:0 40:-4 41:-8 42:-1 43:4 44:-6 45:0 46:0 47:-7 48:1 49:0 50:1 51:1 52:-11 53:5 54:2 55:9 56:5 57:3 58:0 59:1 60:1 
12.1955003603089 1:-1 2:1 3:0 4:9 5:1 6:-1 7:-7 8:1 9:-2 10:0 11:0 12:0 13:-1 14:1 15:0 16:5 17:1 18:-1 19:-4 20:0 21:-2 22:0 23:1 24:0 25:0 26:-7 27:0 28:1 29:-9 30:-1 31:0 32:-7 33:-2 34:0 35:-7 36:1 37:0 38:1 39:1 40:-6 41:4 42:2 43:5 44:4 45:1 46:0 47:1 48:1 49:0 50:2 51:-1 52:-13 53:4 54:5 55:9 56:3 57:5 58:0 59:2 60:1 
2.810006656505174 1:0 2:-7 3:1 4:10 5:-8 6:-6 7:-7 8:-6 9:-6 10:0 11:-7 12:0 13:0 14:1 15:2 16:3 17:5 18:-3 19:-2 20:5 21:-3 22:0 23:1 24:0 25:0 26:2 27:0 28:-4 29:5 30:0 31:2 32:4 33:1 34:0 35:2 36:0 37:0 38:2 39:0 40:-5 41:1 42:3 43:4 44:1 45:4 46:0 47:2 48:0 49:0 50:2 51:-1 52:-7 53:1 54:6 55:5 56:0 57:6 58:0 59:2 60:0 
18.7357476745998 1:0 2:0 3:1 4:2 5:4 6:-6 7:-3 8:3 9:-6 10:0 11:0 12:0 13:0 14:0 15:1 16:1 17:0 18:-3 19:-1 20:0 21:-3 22:0 23:0 24:0 25:0 26:0 27:0 28:-1 29:0 30:0 31:0 32:-1 33:-1 34:0 35:0 36:0 37:0 38:0 39:1 40:-3 41:0 42:3 43:2 44:-1 45:3 46:0 47:0 48:0 49:0 50:0 51:1 52:-3 53:0 54:6 55:3 56:-1 57:7 58:0 59:0 60:0 
229.4240164734135 1:0 2:0 3:1 4:3 5:1 6:-6 7:-2 8:1 9:-6 10:0 11:0 12:0 13:0 14:0 15:0 16:1 17:1 18:-3 19:-1 20:0 21:-4 22:0 23:0 24:0 25:0 26:0 27:1 28:-1 29:1 30:0 31:1 32:0 33:0 34:0 35:0 36:0 37:0 38:0 39:1 40:-1 41:1 42:3 43:2 44:0 45:4 46:0 47:0 48:0 49:0 50:0 51:1 52:-2 53:0 54:6 55:2 56:0 57:7 58:0 59:0 60:0 
140.5004207440641 1:0 2:0 3:0 4:-4 5:0 6:-4 7:4 8:0 9:-5 10:0 11:0 12:0 13:0 14:0 15:0 16:-2 17:0 18:-2 19:2 20:1 21:-2 22:0 23:0 24:0 25:0 26:0 27:0 28:-1 29:1 30:0 31:0 32:1 33:1 34:0 35:0 36:0 37:0 38:0 39:0 40:1 41:1 42:3 43:-2 44:1 45:2 46:1 47:0 48:0 49:0 50:-3 51:0 52:5 53:1 54:5 55:-2 56:1 57:4 58:1 59:-3 60:0 
403.4931354092311 1:0 2:0 3:0 4:0 5:1 6:-1 7:1 8:0 9:-1 10:0 11:0 12:0 13:0 14:0 15:0 16:-1 17:1 18:0 19:1 20:0 21:0 22:0 23:0 24:0 25:0 26:0 27:0 28:-1 29:1 30:1 31:1 32:0 33:1 34:0 35:0 36:0 37:0 38:0 39:0 40:-1 41:-1 42:2 43:1 44:0 45:1 46:0 47:0 48:0 49:0 50:0 51:0 52:2 53:-2 54:1 55:0 56:0 57:0 58:0 59:0 60:0 
403.4931354092311 1:0 2:0 3:1 4:-2 5:1 6:0 7:1 8:0 9:0 10:0 11:0 12:0 13:0 14:0 15:1 16:-2 17:1 18:1 19:1 20:0 21:1 22:0 23:0 24:0 25:0 26:0 27:1 28:-2 29:-1 30:2 31:1 32:0 33:1 34:0 35:0 36:0 37:0 38:0 39:1 40:1 41:-2 42:1 43:0 44:0 45:0 46:0 47:0 48:0 49:0 50:0 51:0 52:4 53:0 54:0 55:0 56:-1 57:0 58:0 59:0 60:0 
403.4931354092311 1:1 2:0 3:1 4:-4 5:1 6:1 7:2 8:0 9:1 10:0 11:0 12:0 13:1 14:0 15:1 16:-4 17:-1 18:2 19:2 20:0 21:1 22:0 23:0 24:0 25:1 26:0 27:1 28:-1 29:-2 30:1 31:1 32:0 33:0 34:0 35:0 36:0 37:1 38:0 39:0 40:2 41:0 42:0 43:1 44:-1 45:0 46:0 47:0 48:0 49:0 50:0 51:0 52:4 53:0 54:-1 55:-3 56:0 57:0 58:0 59:0 60:1 
403.4931354092311 1:1 2:0 3:1 4:-6 5:-1 6:2 7:3 8:0 9:1 10:1 11:0 12:0 13:1 14:0 15:1 16:-3 17:-2 18:1 19:2 20:0 21:0 22:1 23:0 24:0 25:1 26:0 27:0 28:0 29:0 30:0 31:2 32:-1 33:0 34:1 35:0 36:0 37:0 38:0 39:0 40:2 41:0 42:-1 43:-2 44:0 45:0 46:1 47:0 48:1 49:0 50:0 51:0 52:5 53:1 54:-1 55:-4 56:0 57:0 58:0 59:0 60:1 
21.96215114385664 1:1 2:0 3:1 4:-6 5:-3 6:2 7:4 8:0 9:1 10:1 11:0 12:0 13:1 14:0 15:0 16:-3 17:-1 18:1 19:4 20:-1 21:1 22:1 23:0 24:0 25:0 26:0 27:0 28:-1 29:-1 30:0 31:0 32:0 33:1 34:1 35:0 36:1 37:0 38:0 39:0 40:2 41:0 42:0 43:-2 44:0 45:1 46:0 47:0 48:1 49:0 50:0 51:0 52:7 53:2 54:-2 55:-4 56:2 57:0 58:0 59:0 60:1 
403.4931354092311 1:-1 2:0 3:1 4:-3 5:0 6:0 7:2 8:2 9:-1 10:0 11:0 12:1 13:-1 14:0 15:0 16:-1 17:0 18:0 19:1 20:2 21:1 22:-1 23:0 24:1 25:0 26:0 27:0 28:0 29:1 30:0 31:1 32:0 33:1 34:-1 35:0 36:0 37:1 38:0 39:0 40:2 41:1 42:0 43:1 44:-1 45:1 46:-1 47:0 48:0 49:1 50:0 51:-1 52:2 53:0 54:0 55:-1 56:-2 57:1 58:-1 59:0 60:0 
403.4931354092311 1:-1 2:0 3:1 4:-2 5:0 6:0 7:1 8:3 9:0 10:0 11:0 12:1 13:0 14:0 15:1 16:-1 17:1 18:0 19:1 20:1 21:0 22:0 23:0 24:0 25:1 26:0 27:1 28:1 29:1 30:0 31:1 32:0 33:0 34:0 35:0 36:0 37:1 38:0 39:0 40:1 41:0 42:0 43:-1 44:-1 45:0 46:0 47:0 48:0 49:1 50:0 51:-1 52:1 53:0 54:0 55:-2 56:-3 57:1 58:0 59:0 60:-1 
376.1658655216344 1:0 2:0 3:1 4:-2 5:1 6:0 7:2 8:2 9:0 10:-1 11:0 12:1 13:1 14:0 15:1 16:0 17:1 18:0 19:2 20:1 21:0 22:-1 23:0 24:1 25:1 26:0 27:0 28:0 29:0 30:0 31:0 32:0 33:0 34:-1 35:0 36:1 37:1 38:0 39:-1 40:0 41:0 42:0 43:-1 44:-2 45:1 46:-1 47:0 48:0 49:0 50:0 51:-1 52:-1 53:0 54:0 55:-2 56:-1 57:2 58:0 59:0 60:0 
49.69171836890344 1:1 2:0 3:2 4:0 5:1 6:0 7:3 8:1 9:-1 10:-1 11:0 12:1 13:1 14:0 15:1 16:0 17:0 18:0 19:1 20:0 21:-1 22:-1 23:0 24:1 25:1 26:0 27:0 28:0 29:0 30:0 31:0 32:-2 33:0 34:-1 35:0 36:0 37:0 38:0 39:0 40:-1 41:0 42:0 43:-1 44:-1 45:1 46:0 47:0 48:0 49:-1 50:0 51:0 52:-2 53:0 54:0 55:-2 56:2 57:1 58:0 59:0 60:0 
313.0066742660335 1:2 2:0 3:1 4:1 5:0 6:0 7:2 8:-1 9:-1 10:-1 11:0 12:1 13:2 14:0 15:0 16:1 17:0 18:0 19:1 20:-3 21:0 22:-1 23:0 24:0 25:1 26:0 27:0 28:0 29:0 30:0 31:0 32:-2 33:1 34:0 35:0 36:0 37:0 38:0 39:0 40:-1 41:0 42:0 43:-1 44:1 45:1 46:0 47:0 48:0 49:-1 50:0 51:-1 52:-1 53:0 54:0 55:-2 56:1 57:1 58:1 59:0 60:-1 
319.7892460576958 1:2 2:0 3:1 4:1 5:0 6:0 7:2 8:-3 9:0 10:-1 11:0 12:1 13:1 14:0 15:1 16:0 17:0 18:0 19:1 20:-2 21:1 22:0 23:0 24:1 25:0 26:0 27:1 28:-1 29:0 30:0 31:0 32:1 33:1 34:0 35:0 36:1 37:-1 38:0 39:0 40:-1 41:0 42:0 43:-1 44:1 45:1 46:1 47:0 48:0 49:-1 50:0 51:0 52:-1 53:0 54:0 55:-1 56:1 57:1 58:1 59:0 60:0 
403.4931354092311 1:2 2:0 3:1 4:1 5:0 6:1 7:2 8:-2 9:2 10:0 11:0 12:1 13:1 14:0 15:1 16:0 17:0 18:1 19:1 20:1 21:2 22:0 23:0 24:1 25:0 26:0 27:0 28:0 29:0 30:1 31:0 32:1 33:2 34:1 35:0 36:0 37:0 38:0 39:0 40:0 41:0 42:1 43:0 44:1 45:2 46:1 47:0 48:0 49:0 50:-1 51:-1 52:-3 53:-4 54:-2 55:-3 56:-3 57:-4 58:1 59:-1 60:-1 
403.4931354092311 1:1 2:0 3:2 4:1 5:1 6:2 7:3 8:1 9:4 10:0 11:0 12:2 13:0 14:0 15:1 16:1 17:1 18:2 19:2 20:1 21:4 22:1 23:0 24:1 25:0 26:0 27:1 28:1 29:1 30:2 31:2 32:1 33:4 34:1 35:0 36:1 37:0 38:-1 39:0 40:-2 41:-3 42:-1 43:-1 44:-3 45:-2 46:1 47:-1 48:0 49:1 50:-1 51:0 52:-3 53:-3 54:-4 55:-3 56:-3 57:-8 58:0 59:-1 60:-1 
96.29980272435562 1:0 2:0 3:1 4:2 5:1 6:3 7:3 8:1 9:6 10:1 11:0 12:2 13:0 14:0 15:1 16:2 17:1 18:3 19:3 20:1 21:6 22:1 23:0 24:2 25:0 26:-1 27:0 28:-1 29:-3 30:0 31:0 32:-3 33:0 34:1 35:-1 36:1 37:1 38:-1 39:0 40:-2 41:-3 42:-3 43:-2 44:-3 45:-6 46:0 47:-1 48:0 49:1 50:-1 51:0 52:-1 53:1 54:-3 55:-1 56:1 57:-6 58:0 59:-1 60:-1 
403.4931354092311 1:0 2:0 3:1 4:2 5:1 6:5 7:4 8:1 9:9 10:1 11:0 12:2 13:0 14:-1 15:0 16:-1 17:-3 18:2 19:1 20:-3 21:3 22:1 23:-1 24:1 25:1 26:-1 27:0 28:-2 29:-3 30:-1 31:-1 32:-3 33:-3 34:0 35:-1 36:0 37:1 38:-1 39:0 40:-1 41:1 42:-1 43:0 44:1 45:-3 46:0 47:-1 48:-1 49:2 50:-1 51:0 52:-1 53:1 54:-1 55:0 56:1 57:-3 58:0 59:-1 60:-2 
150.519045069627 1:-1 2:-1 3:1 4:0 5:-3 6:3 7:1 8:-3 9:5 10:1 11:-1 12:2 13:0 14:-1 15:1 16:-1 17:-3 18:0 19:-1 20:-3 21:-1 22:0 23:-1 24:1 25:0 26:-1 27:1 28:0 29:1 30:0 31:0 32:1 33:-1 34:0 35:-1 36:0 37:1 38:-1 39:1 40:0 41:1 42:0 43:0 44:1 45:-1 46:0 47:-1 48:-1 49:1 50:0 51:0 52:0 53:1 54:0 55:1 56:1 57:-1 58:0 59:0 60:-2 
14.85891068304505 1:0 2:-1 3:1 4:-2 5:-4 6:1 7:-1 8:-4 9:0 10:0 11:-1 12:2 13:0 14:-1 15:1 16:-1 17:0 18:1 19:0 20:0 21:0 22:0 23:-1 24:1 25:1 26:-1 27:1 28:-1 29:0 30:1 31:0 32:0 33:0 34:0 35:-1 36:0 37:1 38:0 39:0 40:-1 41:0 42:1 43:1 44:0 45:0 46:0 47:0 48:-1 49:1 50:0 51:0 52:1 53:5 54:-4 55:1 56:0 57:0 58:0 59:0 60:-2 
48.50554190134827 1:0 2:-1 3:1 4:-2 5:-1 6:4 7:0 8:0 9:0 10:0 11:-1 12:2 13:1 14:-1 15:1 16:-2 17:-1 18:4 19:0 20:0 21:0 22:0 23:-1 24:1 25:1 26:0 27:0 28:-2 29:-1 30:4 31:1 32:0 33:0 34:0 35:0 36:0 37:1 38:0 39:0 40:0 41:4 42:-1 43:1 44:0 45:0 46:0 47:0 48:-1 49:0 50:0 51:-1 52:2 53:0 54:-7 55:0 56:0 57:0 58:0 59:0 60:-2 
360.8979278743063 1:1 2:-1 3:2 4:-3 5:-1 6:6 7:0 8:0 9:0 10:0 11:-1 12:2 13:1 14:0 15:1 16:-3 17:-1 18:6 19:1 20:0 21:0 22:0 23:0 24:1 25:1 26:0 27:1 28:-1 29:4 30:1 31:1 32:0 33:0 34:0 35:0 36:0 37:0 38:0 39:0 40:1 41:0 42:-5 43:0 44:0 45:0 46:0 47:0 48:-1 49:0 50:0 51:-1 52:2 53:-2 54:-8 55:0 56:0 57:0 58:0 59:0 60:-1 
61.76385380434734 1:1 2:0 3:2 4:-4 5:0 6:10 7:1 8:-1 9:2 10:0 11:0 12:2 13:1 14:0 15:2 16:-2 17:5 18:5 19:1 20:-1 21:2 22:0 23:0 24:1 25:0 26:0 27:1 28:0 29:1 30:-1 31:0 32:-1 33:2 34:0 35:0 36:0 37:0 38:0 39:0 40:1 41:-1 42:-4 43:0 44:-1 45:2 46:0 47:0 48:0 49:0 50:0 51:-1 52:1 53:-1 54:-7 55:1 56:7 57:-6 58:0 59:0 60:-1 
123.1752671458203 1:0 2:0 3:4 4:1 5:0 6:3 7:2 8:1 9:0 10:1 11:0 12:2 13:0 14:0 15:2 16:0 17:1 18:3 19:1 20:1 21:0 22:1 23:0 24:2 25:1 26:0 27:0 28:0 29:0 30:1 31:0 32:0 33:0 34:1 35:0 36:1 37:1 38:1 39:-2 40:0 41:-1 42:-3 43:1 44:0 45:0 46:1 47:1 48:0 49:1 50:0 51:-1 52:-1 53:1 54:-3 55:0 56:1 57:0 58:0 59:1 60:-1 
7.112965624457728 1:-3 2:-2 3:-3 4:-7 5:1 6:-13 7:0 8:5 9:9 10:2 11:0 12:6 13:0 14:-2 15:-2 16:0 17:8 18:-1 19:0 20:3 21:5 22:1 23:1 24:3 25:1 26:-1 27:1 28:1 29:-1 30:11 31:-1 32:7 33:6 34:1 35:0 36:0 37:3 38:0 39:3 40:2 41:-2 42:11 43:-1 44:2 45:1 46:0 47:0 48:-3 49:2 50:1 51:4 52:4 53:-5 54:-6 55:3 56:-18 57:-21 58:0 59:1 60:-6 
307.4465859581495 1:0 2:0 3:0 4:-4 5:-1 6:2 7:1 8:0 9:1 10:0 11:0 12:0 13:0 14:0 15:0 16:-3 17:1 18:2 19:1 20:0 21:2 22:0 23:0 24:0 25:0 26:0 27:0 28:-3 29:-2 30:1 31:1 32:0 33:1 34:0 35:0 36:0 37:0 38:0 39:0 40:-1 41:1 42:0 43:0 44:-1 45:-1 46:0 47:0 48:0 49:0 50:0 51:0 52:9 53:2 54:-2 55:-1 56:-1 57:-3 58:0 59:0 60:0 
252.5612347242343 1:0 2:0 3:0 4:-13 5:3 6:4 7:1 8:1 9:5 10:0 11:0 12:0 13:0 14:0 15:0 16:-3 17:4 18:2 19:0 20:1 21:3 22:0 23:0 24:0 25:0 26:0 27:0 28:7 29:4 30:1 31:-1 32:-1 33:1 34:0 35:0 36:0 37:1 38:0 39:0 40:7 41:1 42:1 43:0 44:-2 45:-2 46:0 47:0 48:0 49:1 50:0 51:0 52:0 53:-13 54:-4 55:0 56:-2 57:-6 58:0 59:0 60:0 
403.4931354092311 1:0 2:0 3:0 4:1 5:-1 6:6 7:3 8:-1 9:5 10:0 11:0 12:0 13:1 14:0 15:1 16:1 17:0 18:3 19:1 20:-3 21:2 22:0 23:0 24:0 25:1 26:0 27:1 28:0 29:-1 30:1 31:0 32:0 33:0 34:0 35:0 36:0 37:1 38:0 39:1 40:-1 41:0 42:-2 43:-1 44:1 45:0 46:0 47:0 48:0 49:1 50:0 51:1 52:-2 53:2 54:-4 55:-2 56:3 57:-3 58:0 59:0 60:0 
403.4931354092311 1:0 2:0 3:0 4:1 5:-1 6:5 7:3 8:-4 9:4 10:0 11:0 12:0 13:0 14:0 15:0 16:0 17:-2 18:3 19:2 20:-1 21:2 22:0 23:0 24:0 25:0 26:0 27:0 28:-1 29:-1 30:0 31:1 32:0 33:2 34:0 35:0 36:0 37:0 38:0 39:0 40:-2 41:1 42:-2 43:0 44:2 45:-1 46:0 47:0 48:0 49:0 50:0 51:0 52:-2 53:2 54:-4 55:-2 56:2 57:-3 58:0 59:0 60:0 
50.37878311345744 1:0 2:1 3:2 4:-2 5:1 6:4 7:1 8:0 9:3 10:0 11:1 12:3 13:0 14:1 15:1 16:-1 17:1 18:0 19:1 20:1 21:1 22:0 23:1 24:2 25:0 26:0 27:1 28:0 29:1 30:0 31:0 32:0 33:0 34:0 35:0 36:0 37:0 38:0 39:0 40:1 41:0 42:-1 43:-1 44:0 45:-2 46:1 47:1 48:-1 49:1 50:-1 51:-1 52:1 53:0 54:-2 55:-1 56:1 57:0 58:1 59:-1 60:-2 
403.4931354092311 1:0 2:0 3:3 4:1 5:0 6:0 7:0 8:0 9:0 10:0 11:1 12:2 13:1 14:-1 15:2 16:1 17:0 18:-1 19:0 20:1 21:2 22:0 23:-1 24:1 25:1 26:0 27:1 28:0 29:1 30:-1 31:0 32:2 33:2 34:0 35:1 36:0 37:0 38:0 39:-1 40:-1 41:-1 42:0 43:0 44:1 45:1 46:0 47:1 48:-1 49:-1 50:1 51:-2 52:-2 53:0 54:4 55:0 56:-1 57:-3 58:0 59:2 60:-2 
231.0992699054646 1:2 2:-1 3:3 4:1 5:0 6:-2 7:2 8:1 9:3 10:0 11:-1 12:2 13:2 14:0 15:2 16:0 17:1 18:-2 19:2 20:2 21:3 22:0 23:1 24:1 25:1 26:0 27:0 28:-1 29:-1 30:-1 31:2 32:1 33:2 34:0 35:1 36:0 37:0 38:1 39:-1 40:-2 41:0 42:3 43:2 44:-1 45:-2 46:0 47:2 48:-1 49:-1 50:1 51:-2 52:-2 53:1 54:3 55:-5 56:1 57:-2 58:0 59:1 60:-2 
308.9105896202732 1:0 2:1 3:1 4:-8 5:0 6:3 7:-1 8:0 9:1 10:0 11:1 12:1 13:0 14:0 15:1 16:1 17:2 18:1 19:-1 20:0 21:1 22:0 23:1 24:1 25:0 26:1 27:0 28:2 29:0 30:1 31:-1 32:2 33:1 34:0 35:2 36:0 37:0 38:0 39:0 40:3 41:-1 42:0 43:1 44:1 45:-1 46:0 47:0 48:0 49:0 50:0 51:-1 52:5 53:-1 54:-1 55:1 56:0 57:-1 58:0 59:0 60:-1 
403.4931354092311 1:0 2:0 3:2 4:-2 5:2 6:1 7:-1 8:0 9:1 10:0 11:1 12:2 13:0 14:1 15:1 16:-1 17:0 18:1 19:-1 20:2 21:1 22:0 23:2 24:1 25:0 26:0 27:1 28:0 29:-1 30:0 31:1 32:1 33:-1 34:0 35:0 36:1 37:0 38:0 39:0 40:2 41:-1 42:-1 43:1 44:0 45:-1 46:0 47:0 48:0 49:0 50:0 51:0 52:3 53:0 54:0 55:-1 56:1 57:0 58:1 59:0 60:0 
403.4931354092311 1:0 2:1 3:1 4:-3 5:1 6:1 7:-1 8:1 9:2 10:0 11:2 12:1 13:0 14:0 15:1 16:-2 17:0 18:0 19:1 20:0 21:0 22:0 23:0 24:1 25:0 26:0 27:0 28:0 29:0 30:-1 31:1 32:-1 33:0 34:0 35:0 36:0 37:0 38:0 39:0 40:1 41:1 42:0 43:-1 44:0 45:1 46:1 47:0 48:0 49:0 50:0 51:0 52:4 53:1 54:1 55:-3 56:0 57:1 58:1 59:0 60:0 
403.4931354092311 1:0 2:0 3:1 4:-3 5:0 6:0 7:2 8:1 9:0 10:0 11:0 12:1 13:0 14:0 15:0 16:-1 17:0 18:-1 19:2 20:0 21:0 22:0 23:0 24:0 25:0 26:0 27:0 28:0 29:1 30:0 31:0 32:1 33:1 34:1 35:0 36:0 37:0 38:0 39:0 40:3 41:1 42:1 43:-2 44:1 45:1 46:1 47:0 48:0 49:0 50:1 51:0 52:3 53:0 54:2 55:-2 56:0 57:2 58:0 59:1 60:0 
33.09958425211532 1:0 2:0 3:0 4:1 5:0 6:-1 7:-1 8:0 9:0 10:0 11:0 12:0 13:0 14:0 15:0 16:2 17:1 18:0 19:-3 20:1 21:1 22:1 23:0 24:0 25:0 26:0 27:0 28:5 29:1 30:1 31:-5 32:1 33:1 34:1 35:0 36:0 37:0 38:1 39:0 40:5 41:0 42:2 43:-5 44:0 45:2 46:0 47:1 48:0 49:0 50:2 51:0 52:-11 53:-1 54:-2 55:11 56:0 57:-4 58:0 59:2 60:0 
403.4931354092311 1:0 2:1 3:1 4:7 5:1 6:-3 7:-7 8:0 9:-4 10:1 11:0 12:0 13:0 14:1 15:1 16:3 17:1 18:-2 19:-3 20:0 21:-2 22:1 23:0 24:0 25:1 26:1 27:0 28:-1 29:1 30:0 31:1 32:0 33:-1 34:1 35:0 36:0 37:1 38:1 39:0 40:-5 41:1 42:3 43:3 44:0 45:0 46:0 47:1 48:0 49:1 50:0 51:0 52:-8 53:0 54:6 55:6 56:0 57:7 58:0 59:-1 60:0 
403.4931354092311 1:0 2:1 3:1 4:7 5:1 6:-5 7:-6 8:1 9:-5 10:1 11:1 12:0 13:1 14:1 15:0 16:3 17:1 18:-3 19:-2 20:1 21:-4 22:1 23:1 24:0 25:1 26:1 27:0 28:-1 29:1 30:0 31:0 32:1 33:-3 34:0 35:2 36:0 37:1 38:0 39:0 40:-4 41:0 42:3 43:3 44:1 45:4 46:0 47:0 48:0 49:1 50:0 51:1 52:-9 53:0 54:7 55:9 56:0 57:9 58:1 59:0 60:0 
400.9716908858481 1:0 2:1 3:0 4:8 5:1 6:-7 7:-7 8:1 9:-8 10:1 11:1 12:0 13:0 14:1 15:0 16:4 17:1 18:-4 19:-5 20:1 21:-7 22:0 23:2 24:0 25:0 26:0 27:0 28:1 29:0 30:-1 31:-2 32:1 33:0 34:0 35:0 36:0 37:0 38:0 39:1 40:-4 41:0 42:3 43:4 44:0 45:5 46:1 47:0 48:0 49:0 50:-2 51:1 52:-9 53:-1 54:9 55:10 56:-1 57:10 58:1 59:-1 60:1 
225.8555239349635 1:1 2:0 3:0 4:5 5:1 6:-11 7:-6 8:1 9:-11 10:0 11:0 12:-2 13:0 14:-3 15:0 16:1 17:-2 18:-5 19:0 20:-2 21:-4 22:0 23:-3 24:-1 25:0 26:0 27:0 28:0 29:0 30:1 31:2 32:0 33:0 34:0 35:1 36:0 37:0 38:0 39:1 40:-3 41:0 42:6 43:3 44:-1 45:6 46:0 47:1 48:1 49:0 50:1 51:2 52:-4 53:0 54:10 55:4 56:0 57:9 58:0 59:1 60:2 
403.4931354092311 1:0 2:-3 3:-1 4:3 5:-2 6:-9 7:-3 8:-2 9:-8 10:0 11:-4 12:-1 13:0 14:0 15:-1 16:2 17:0 18:-3 19:-1 20:0 21:-4 22:0 23:0 24:0 25:0 26:0 27:0 28:-1 29:0 30:2 31:0 32:-1 33:2 34:0 35:0 36:1 37:0 38:1 39:1 40:-2 41:0 42:6 43:1 44:0 45:5 46:0 47:0 48:2 49:1 50:1 51:2 52:-3 53:0 54:8 55:3 56:0 57:8 58:1 59:0 60:2 
178.6677222932607 1:0 2:-1 3:-1 4:3 5:0 6:-7 7:-2 8:0 9:-8 10:0 11:0 12:-1 13:0 14:-1 15:0 16:0 17:0 18:-2 19:-1 20:-1 21:-2 22:0 23:0 24:0 25:0 26:0 27:1 28:-1 29:0 30:2 31:0 32:0 33:1 34:0 35:0 36:1 37:1 38:0 39:2 40:-2 41:0 42:4 43:2 44:0 45:4 46:1 47:0 48:1 49:1 50:0 51:2 52:-1 53:0 54:6 55:2 56:0 57:8 58:1 59:0 60:1 
228.3294647791921 1:1 2:-1 3:-1 4:-2 5:0 6:-3 7:8 8:-1 9:0 10:0 11:0 12:-2 13:1 14:-1 15:-1 16:-2 17:0 18:-1 19:5 20:1 21:1 22:0 23:0 24:-1 25:1 26:-1 27:-1 28:-1 29:-1 30:1 31:1 32:-1 33:1 34:0 35:0 36:1 37:0 38:-1 39:2 40:1 41:-1 42:3 43:-4 44:-1 45:1 46:0 47:0 48:2 49:0 50:0 51:1 52:3 53:-1 54:4 55:-6 56:0 57:1 58:0 59:0 60:2 
377.8017022926694 1:1 2:0 3:0 4:-8 5:-1 6:4 7:8 8:0 9:5 10:1 11:0 12:0 13:1 14:0 15:0 16:-5 17:0 18:3 19:5 20:0 21:3 22:1 23:0 24:0 25:1 26:0 27:0 28:0 29:1 30:1 31:0 32:1 33:1 34:1 35:0 36:0 37:0 38:0 39:0 40:4 41:1 42:-1 43:-5 44:1 45:-2 46:1 47:0 48:0 49:0 50:0 51:0 52:6 53:1 54:-4 55:-8 56:2 57:-5 58:0 59:1 60:0 
359.2688665839335 1:2 2:0 3:0 4:-5 5:0 6:5 7:7 8:0 9:6 10:1 11:0 12:0 13:1 14:0 15:0 16:-1 17:0 18:3 19:2 20:0 21:3 22:1 23:0 24:0 25:1 26:0 27:0 28:1 29:0 30:0 31:-1 32:1 33:0 34:0 35:1 36:0 37:0 38:1 39:0 40:2 41:0 42:-2 43:-2 44:0 45:-3 46:0 47:1 48:0 49:-1 50:1 51:0 52:3 53:1 54:-4 55:-3 56:1 57:-5 58:0 59:1 60:0 
403.4931354092311 1:1 2:-1 3:0 4:-3 5:0 6:5 7:2 8:1 9:6 10:0 11:0 12:1 13:0 14:0 15:0 16:-2 17:0 18:3 19:1 20:0 21:3 22:0 23:0 24:1 25:-1 26:0 27:0 28:-1 29:1 30:1 31:0 32:1 33:1 34:0 35:0 36:1 37:-1 38:0 39:0 40:0 41:1 42:-2 43:0 44:1 45:-2 46:0 47:0 48:0 49:0 50:1 51:0 52:2 53:0 54:-4 55:0 56:1 57:-5 58:0 59:0 60:-2 
273.7467668060829 1:0 2:0 3:1 4:-2 5:-2 6:7 7:-3 8:0 9:7 10:0 11:0 12:1 13:0 14:-1 15:1 16:-1 17:-1 18:4 19:-2 20:0 21:3 22:0 23:0 24:1 25:1 26:3 27:1 28:0 29:4 30:1 31:0 32:4 33:0 34:0 35:3 36:0 37:1 38:-1 39:-1 40:0 41:-1 42:-3 43:3 44:-1 45:-2 46:0 47:0 48:0 49:1 50:-1 51:-1 52:0 53:0 54:-6 55:6 56:0 57:-4 58:0 59:0 60:0 
195.0402123633346 1:1 2:3 3:2 4:0 5:4 6:7 7:-5 8:3 9:5 10:0 11:3 12:0 13:1 14:-1 15:0 16:0 17:-1 18:3 19:-2 20:-2 21:3 22:0 23:0 24:0 25:1 26:-1 27:0 28:0 29:0 30:0 31:1 32:-1 33:1 34:0 35:0 36:0 37:0 38:-1 39:0 40:0 41:1 42:-3 43:4 44:1 45:-2 46:0 47:0 48:0 49:-1 50:0 51:-1 52:-4 53:-1 54:-5 55:5 56:0 57:-5 58:0 59:0 60:1 
26.34044644977139 1:1 2:0 3:1 4:2 5:0 6:6 7:-5 8:-1 9:5 10:0 11:0 12:0 13:1 14:0 15:1 16:2 17:1 18:3 19:-2 20:0 21:3 22:0 23:0 24:0 25:0 26:0 27:1 28:2 29:2 30:0 31:1 32:2 33:0 34:0 35:0 36:0 37:-1 38:1 39:0 40:-2 41:0 42:-2 43:2 44:1 45:-3 46:0 47:0 48:1 49:-1 50:0 51:0 52:-5 53:0 54:-3 55:4 56:1 57:-4 58:0 59:0 60:1 
403.4931354092311 1:1 2:0 3:1 4:4 5:0 6:5 7:-4 8:-1 9:5 10:0 11:0 12:0 13:0 14:0 15:1 16:4 17:1 18:2 19:-1 20:1 21:2 22:0 23:0 24:0 25:-1 26:1 27:0 28:0 29:-1 30:0 31:0 32:0 33:-1 34:0 35:0 36:1 37:-1 38:0 39:0 40:-3 41:-1 42:-1 43:2 44:0 45:-2 46:0 47:0 48:1 49:-1 50:0 51:0 52:-6 53:1 54:-4 55:5 56:0 57:-4 58:0 59:0 60:1 
368.8139318339507 1:0 2:1 3:0 4:5 5:-1 6:4 7:-5 8:0 9:3 10:0 11:0 12:0 13:0 14:0 15:0 16:2 17:-1 18:3 19:-3 20:0 21:2 22:0 23:0 24:0 25:0 26:0 27:0 28:-1 29:1 30:0 31:0 32:0 33:0 34:0 35:0 36:0 37:0 38:0 39:0 40:-4 41:1 42:-2 43:4 44:0 45:-1 46:0 47:0 48:0 49:0 50:0 51:0 52:-5 53:0 54:-3 55:7 56:1 57:-2 58:0 59:0 60:0 
403.4931354092311 1:0 2:1 3:0 4:5 5:0 6:3 7:-7 8:0 9:2 10:0 11:1 12:1 13:0 14:1 15:0 16:2 17:0 18:1 19:-3 20:0 21:1 22:0 23:1 24:1 25:0 26:1 27:0 28:1 29:-1 30:0 31:0 32:1 33:0 34:0 35:1 36:1 37:0 38:0 39:0 40:-2 41:1 42:-2 43:5 44:2 45:0 46:0 47:-1 48:0 49:0 50:0 51:0 52:-6 53:1 54:-2 55:8 56:1 57:0 58:0 59:0 60:0 
25.46838965494349 1:-1 2:2 3:0 4:5 5:2 6:2 7:-7 8:1 9:1 10:0 11:2 12:1 13:-1 14:2 15:0 16:4 17:1 18:1 19:-4 20:2 21:0 22:0 23:2 24:1 25:-1 26:1 27:0 28:1 29:3 30:-1 31:1 32:3 33:0 34:0 35:0 36:0 37:-1 38:1 39:0 40:-3 41:3 42:-1 43:4 44:2 45:0 46:0 47:1 48:0 49:0 50:-7 51:0 52:-7 53:-7 54:-1 55:8 56:-5 57:0 58:0 59:-7 60:1 
69.70203361980795 1:-1 2:2 3:0 4:7 5:0 6:1 7:-8 8:1 9:0 10:0 11:2 12:1 13:-1 14:1 15:0 16:4 17:2 18:-1 19:-3 20:2 21:0 22:0 23:0 24:0 25:-1 26:1 27:0 28:0 29:2 30:-1 31:0 32:1 33:0 34:0 35:1 36:0 37:0 38:-7 39:0 40:-4 41:-8 42:-1 43:4 44:-6 45:0 46:0 47:-7 48:1 49:0 50:1 51:1 52:-11 53:5 54:2 55:9 56:5 57:3 58:0 59:1 60:1 
12.04070493479061 1:-1 2:1 3:0 4:9 5:1 6:-1 7:-7 8:1 9:-2 10:0 11:0 12:0 13:-1 14:1 15:0 16:5 17:1 18:-1 19:-4 20:0 21:-2 22:0 23:1 24:0 25:0 26:-7 27:0 28:1 29:-9 30:-1 31:0 32:-7 33:-2 34:0 35:-7 36:1 37:0 38:1 39:1 40:-6 41:4 42:2 43:5 44:4 45:1 46:0 47:1 48:1 49:0 50:2 51:-1 52:-13 53:4 54:5 55:9 56:3 57:5 58:0 59:2 60:1 
28.79746377488698 1:-1 2:1 3:1 4:10 5:1 6:-3 7:-8 8:0 9:-4 10:0 11:1 12:0 13:0 14:-7 15:1 16:6 17:-9 18:-3 19:-4 20:-7 21:-4 22:0 23:-7 24:1 25:0 26:1 27:2 28:-1 29:4 30:0 31:1 32:4 33:-1 34:0 35:1 36:1 37:0 38:2 39:0 40:-8 41:4 42:3 43:5 44:3 45:3 46:0 47:2 48:1 49:0 50:2 51:0 52:-9 53:0 54:6 55:7 56:0 57:6 58:0 59:2 60:1 
235.7032436925263 1:0 2:-7 3:1 4:10 5:-8 6:-6 7:-7 8:-6 9:-6 10:0 11:-7 12:0 13:0 14:1 15:2 16:3 17:5 18:-3 19:-2 20:5 21:-3 22:0 23:1 24:0 25:0 26:2 27:0 28:-4 29:5 30:0 31:2 32:4 33:1 34:0 35:2 36:0 37:0 38:2 39:0 40:-5 41:1 42:3 43:4 44:1 45:4 46:0 47:2 48:0 49:0 50:2 51:-1 52:-7 53:1 54:6 55:5 56:0 57:6 58:0 59:2 60:0 
126.5895826384964 1:0 2:0 3:1 4:2 5:4 6:-6 7:-3 8:3 9:-6 10:0 11:0 12:0 13:0 14:0 15:1 16:1 17:0 18:-3 19:-1 20:0 21:-3 22:0 23:0 24:0 25:0 26:0 27:0 28:-1 29:0 30:0 31:0 32:-1 33:-1 34:0 35:0 36:0 37:0 38:0 39:1 40:-3 41:0 42:3 43:2 44:-1 45:3 46:0 47:0 48:0 49:0 50:0 51:1 52:-3 53:0 54:6 55:3 56:-1 57:7 58:0 59:0 60:0 
403.4931354092311 1:0 2:0 3:1 4:3 5:1 6:-6 7:-2 8:1 9:-6 10:0 11:0 12:0 13:0 14:0 15:0 16:1 17:1 18:-3 19:-1 20:0 21:-4 22:0 23:0 24:0 25:0 26:0 27:1 28:-1 29:1 30:0 31:1 32:0 33:0 34:0 35:0 36:0 37:0 38:0 39:1 40:-1 41:1 42:3 43:2 44:0 45:4 46:0 47:0 48:0 49:0 50:0 51:1 52:-2 53:0 54:6 55:2 56:0 57:7 58:0 59:0 60:0 
403.4931354092311 1:0 2:0 3:0 4:-4 5:0 6:-4 7:4 8:0 9:-5 10:0 11:0 12:0 13:0 14:0 15:0 16:-2 17:0 18:-2 19:2 20:1 21:-2 22:0 23:0 24:0 25:0 26:0 27:0 28:-1 29:1 30:0 31:0 32:1 33:1 34:0 35:0 36:0 37:0 38:0 39:0 40:1 41:1 42:3 43:-2 44:1 45:2 46:1 47:0 48:0 49:0 50:-3 51:0 52:5 53:1 54:5 55:-2 56:1 57:4 58:1 59:-3 60:0 
403.4931354092311 1:0 2:0 3:0 4:0 5:1 6:-1 7:1 8:0 9:-1 10:0 11:0 12:0 13:0 14:0 15:0 16:-1 17:1 18:0 19:1 20:0 21:0 22:0 23:0 24:0 25:0 26:0 27:0 28:-1 29:1 30:1 31:1 32:0 33:1 34:0 35:0 36:0 37:0 38:0 39:0 40:-1 41:-1 42:2 43:1 44:0 45:1 46:0 47:0 48:0 49:0 50:0 51:0 52:2 53:-2 54:1 55:0 56:0 57:0 58:0 59:0 60:0 
403.4931354092311 1:0 2:0 3:1 4:-2 5:1 6:0 7:1 8:0 9:0 10:0 11:0 12:0 13:0 14:0 15:1 16:-2 17:1 18:1 19:1 20:0 21:1 22:0 23:0 24:0 25:0 26:0 27:1 28:-2 29:-1 30:2 31:1 32:0 33:1 34:0 35:0 36:0 37:0 38:0 39:1 40:1 41:-2 42:1 43:0 44:0 45:0 46:0 47:0 48:0 49:0 50:0 51:0 52:4 53:0 54:0 55:0 56:-1 57:0 58:0 59:0 60:0 
403.4931354092311 1:1 2:0 3:1 4:-4 5:1 6:1 7:2 8:0 9:1 10:0 11:0 12:0 13:1 14:0 15:1 16:-4 17:-1 18:2 19:2 20:0 21:1 22:0 23:0 24:0 25:1 26:0 27:1 28:-1 29:-2 30:1 31:1 32:0 33:0 34:0 35:0 36:0 37:1 38:0 39:0 40:2 41:0 42:0 43:1 44:-1 45:0 46:0 47:0 48:0 49:0 50:0 51:0 52:4 53:0 54:-1 55:-3 56:0 57:0 58:0 59:0 60:1 
403.4931354092311 1:1 2:0 3:1 4:-6 5:-1 6:2 7:3 8:0 9:1 10:1 11:0 12:0 13:1 14:0 15:1 16:-3 17:-2 18:1 19:2 20:0 21:0 22:1 23:0 24:0 25:1 26:0 27:0 28:0 29:0 30:0 31:2 32:-1 33:0 34:1 35:0 36:0 37:0 38:0 39:0 40:2 41:0 42:-1 43:-2 44:0 45:0 46:1 47:0 48:1 49:0 50:0 51:0 52:5 53:1 54:-1 55:-4 56:0 57:0 58:0 59:0 60:1 
292.1035509986392 1:1 2:0 3:1 4:-6 5:-3 6:2 7:4 8:0 9:1 10:1 11:0 12:0 13:1 14:0 15:0 16:-3 17:-1 18:1 19:4 20:-1 21:1 22:1 23:0 24:0 25:0 26:0 27:0 28:-1 29:-1 30:0 31:0 32:0 33:1 34:1 35:0 36:1 37:0 38:0 39:0 40:2 41:0 42:0 43:-2 44:0 45:1 46:0 47:0 48:1 49:0 50:0 51:0 52:7 53:2 54:-2 55:-4 56:2 57:0 58:0 59:0 60:1 
403.4931354092311 1:-1 2:0 3:1 4:-3 5:0 6:0 7:2 8:2 9:-1 10:0 11:0 12:1 13:-1 14:0 15:0 16:-1 17:0 18:0 19:1 20:2 21:1 22:-1 23:0 24:1 25:0 26:0 27:0 28:0 29:1 30:0 31:1 32:0 33:1 34:-1 35:0 36:0 37:1 38:0 39:0 40:2 41:1 42:0 43:1 44:-1 45:1 46:-1 47:0 48:0 49:1 50:0 51:-1 52:2 53:0 54:0 55:-1 56:-2 57:1 58:-1 59:0 60:0 
403.4931354092311 1:-1 2:0 3:1 4:-2 5:0 6:0 7:1 8:3 9:0 10:0 11:0 12:1 13:0 14:0 15:1 16:-1 17:1 18:0 19:1 20:1 21:0 22:0 23:0 24:0 25:1 26:0 27:1 28:1 29:1 30:0 31:1 32:0 33:0 34:0 35:0 36:0 37:1 38:0 39:0 40:1 41:0 42:0 43:-1 44:-1 45:0 46:0 47:0 48:0 49:1 50:0 51:-1 52:1 53:0 54:0 55:-2 56:-3 57:1 58:0 59:0 60:-1 
397.5033990002706 1:0 2:0 3:1 4:-2 5:1 6:0 7:2 8:2 9:0 10:-1 11:0 12:1 13:1 14:0 15:1 16:0 17:1 18:0 19:2 20:1 21:0 22:-1 23:0 24:1 25:1 26:0 27:0 28:0 29:0 30:0 31:0 32:0 33:0 34:-1 35:0 36:1 37:1 38:0 39:-1 40:0 41:0 42:0 43:-1 44:-2 45:1 46:-1 47:0 48:0 49:0 50:0 51:-1 52:-1 53:0 54:0 55:-2 56:-1 57:2 58:0 59:0 60:0 
336.6790015708843 1:1 2:0 3:2 4:0 5:1 6:0 7:3 8:1 9:-1 10:-1 11:0 12:1 13:1 14:0 15:1 16:0 17:0 18:0 19:1 20:0 21:-1 22:-1 23:0 24:1 25:1 26:0 27:0 28:0 29:0 30:0 31:0 32:-2 33:0 34:-1 35:0 36:0 37:0 38:0 39:0 40:-1 41:0 42:0 43:-1 44:-1 45:1 46:0 47:0 48:0 49:-1 50:0 51:0 52:-2 53:0 54:0 55:-2 56:2 57:1 58:0 59:0 60:0 
403.4931354092311 1:2 2:0 3:1 4:1 5:0 6:0 7:2 8:-1 9:-1 10:-1 11:0 12:1 13:2 14:0 15:0 16:1 17:0 18:0 19:1 20:-3 21:0 22:-1 23:0 24:0 25:1 26:0 27:0 28:0 29:0 30:0 31:0 32:-2 33:1 34:0 35:0 36:0 37:0 38:0 39:0 40:-1 41:0 42:0 43:-1 44:1 45:1 46:0 47:0 48:0 49:-1 50:0 51:-1 52:-1 53:0 54:0 55:-2 56:1 57:1 58:1 59:0 60:-1 
403.4931354092311 1:2 2:0 3:1 4:1 5:0 6:0 7:2 8:-3 9:0 10:-1 11:0 12:1 13:1 14:0 15:1 16:0 17:0 18:0 19:1 20:-2 21:1 22:0 23:0 24:1 25:0 26:0 27:1 28:-1 29:0 30:0 31:0 32:1 33:1 34:0 35:0 36:1 37:-1 38:0 39:0 40:-1 41:0 42:0 43:-1 44:1 45:1 46:1 47:0 48:0 49:-1 50:0 51:0 52:-1 53:0 54:0 55:-1 56:1 57:1 58:1 59:0 60:0 
403.4931354092311 1:2 2:0 3:1 4:1 5:0 6:1 7:2 8:-2 9:2 10:0 11:0 12:1 13:1 14:0 15:1 16:0 17:0 18:1 19:1 20:1 21:2 22:0 23:0 24:1 25:0 26:0 27:0 28:0 29:0 30:1 31:0 32:1 33:2 34:1 35:0 36:0 37:0 38:0 39:0 40:0 41:0 42:1 43:0 44:1 45:2 46:1 47:0 48:0 49:0 50:-1 51:-1 52:-3 53:-4 54:-2 55:-3 56:-3 57:-4 58:1 59:-1 60:-1 
403.4931354092311 1:1 2:0 3:2 4:1 5:1 6:2 7:3 8:1 9:4 10:0 11:0 12:2 13:0 14:0 15:1 16:1 17:1 18:2 19:2 20:1 21:4 22:1 23:0 24:1 25:0 26:0 27:1 28:1 29:1 30:2 31:2 32:1 33:4 34:1 35:0 36:1 37:0 38:-1 39:0 40:-2 41:-3 42:-1 43:-1 44:-3 45:-2 46:1 47:-1 48:0 49:1 50:-1 51:0 52:-3 53:-3 54:-4 55:-3 56:-3 57:-8 58:0 59:-1 60:-1 
399.7505874526698 1:0 2:0 3:1 4:2 5:1 6:3 7:3 8:1 9:6 10:1 11:0 12:2 13:0 14:0 15:1 16:2 17:1 18:3 19:3 20:1 21:6 22:1 23:0 24:2 25:0 26:-1 27:0 28:-1 29:-3 30:0 31:0 32:-3 33:0 34:1 35:-1 36:1 37:1 38:-1 39:0 40:-2 41:-3 42:-3 43:-2 44:-3 45:-6 46:0 47:-1 48:0 49:1 50:-1 51:0 52:-1 53:1 54:-3 55:-1 56:1 57:-6 58:0 59:-1 60:-1 
403.4931354092311 1:0 2:0 3:1 4:2 5:1 6:5 7:4 8:1 9:9 10:1 11:0 12:2 13:0 14:-1 15:0 16:-1 17:-3 18:2 19:1 20:-3 21:3 22:1 23:-1 24:1 25:1 26:-1 27:0 28:-2 29:-3 30:-1 31:-1 32:-3 33:-3 34:0 35:-1 36:0 37:1 38:-1 39:0 40:-1 41:1 42:-1 43:0 44:1 45:-3 46:0 47:-1 48:-1 49:2 50:-1 51:0 52:-1 53:1 54:-1 55:0 56:1 57:-3 58:0 59:-1 60:-2 
403.4931354092311 1:-1 2:-1 3:1 4:0 5:-3 6:3 7:1 8:-3 9:5 10:1 11:-1 12:2 13:0 14:-1 15:1 16:-1 17:-3 18:0 19:-1 20:-3 21:-1 22:0 23:-1 24:1 25:0 26:-1 27:1 28:0 29:1 30:0 31:0 32:1 33:-1 34:0 35:-1 36:0 37:1 38:-1 39:1 40:0 41:1 42:0 43:0 44:1 45:-1 46:0 47:-1 48:-1 49:1 50:0 51:0 52:0 53:1 54:0 55:1 56:1 57:-1 58:0 59:0 60:-2 
2.17130062561992 1:0 2:-1 3:1 4:-2 5:-4 6:1 7:-1 8:-4 9:0 10:0 11:-1 12:2 13:0 14:-1 15:1 16:-1 17:0 18:1 19:0 20:0 21:0 22:0 23:-1 24:1 25:1 26:-1 27:1 28:-1 29:0 30:1 31:0 32:0 33:0 34:0 35:-1 36:0 37:1 38:0 39:0 40:-1 41:0 42:1 43:1 44:0 45:0 46:0 47:0 48:-1 49:1 50:0 51:0 52:1 53:5 54:-4 55:1 56:0 57:0 58:0 59:0 60:-2 
102.040117598518 1:0 2:-1 3:1 4:-2 5:-1 6:4 7:0 8:0 9:0 10:0 11:-1 12:2 13:1 14:-1 15:1 16:-2 17:-1 18:4 19:0 20:0 21:0 22:0 23:-1 24:1 25:1 26:0 27:0 28:-2 29:-1 30:4 31:1 32:0 33:0 34:0 35:0 36:0 37:1 38:0 39:0 40:0 41:4 42:-1 43:1 44:0 45:0 46:0 47:0 48:-1 49:0 50:0 51:-1 52:2 53:0 54:-7 55:0 56:0 57:0 58:0 59:0 60:-2 
403.4931354092311 1:1 2:-1 3:2 4:-3 5:-1 6:6 7:0 8:0 9:0 10:0 11:-1 12:2 13:1 14:0 15:1 16:-3 17:-1 18:6 19:1 20:0 21:0 22:0 23:0 24:1 25:1 26:0 27:1 28:-1 29:4 30:1 31:1 32:0 33:0 34:0 35:0 36:0 37:0 38:0 39:0 40:1 41:0 42:-5 43:0 44:0 45:0 46:0 47:0 48:-1 49:0 50:0 51:-1 52:2 53:-2 54:-8 55:0 56:0 57:0 58:0 59:0 60:-1 
356.4103887959653 1:0 2:0 3:4 4:1 5:0 6:3 7:2 8:1 9:0 10:1 11:0 12:2 13:0 14:0 15:2 16:0 17:1 18:3 19:1 20:1 21:0 22:1 23:0 24:2 25:1 26:0 27:0 28:0 29:0 30:1 31:0 32:0 33:0 34:1 35:0 36:1 37:1 38:1 39:-2 40:0 41:-1 42:-3 43:1 44:0 45:0 46:1 47:1 48:0 49:1 50:0 51:-1 52:-1 53:1 54:-3 55:0 56:1 57:0 58:0 59:1 60:-1 
385.2636385149633 1:0 2:0 3:3 4:-2 5:0 6:3 7:-6 8:0 9:0 10:0 11:0 12:2 13:0 14:0 15:2 16:-1 17:1 18:1 19:-2 20:0 21:-1 22:0 23:0 24:1 25:0 26:0 27:1 28:0 29:0 30:0 31:3 32:0 33:1 34:0 35:0 36:0 37:1 38:1 39:-1 40:1 41:1 42:-1 43:4 44:0 45:1 46:0 47:0 48:-1 49:1 50:0 51:-2 52:2 53:0 54:-2 55:4 56:1 57:-1 58:0 59:1 60:-2 
-580.7994790647973 1:0 2:-1 3:0 4:-5 5:0 6:0 7:5 8:1 9:1 10:0 11:-1 12:0 13:0 14:-1 15:0 16:-2 17:0 18:0 19:2 20:0 21:1 22:0 23:-1 24:1 25:0 26:0 27:0 28:0 29:1 30:1 31:0 32:1 33:1 34:0 35:0 36:1 37:0 38:0 39:0 40:2 41:1 42:0 43:-1 44:0 45:1 46:0 47:0 48:1 49:0 50:0 51:0 52:4 53:1 54:0 55:-3 56:1 57:0 58:0 59:0 60:1 
-230.2992764946219 1:0 2:-1 3:0 4:-4 5:0 6:0 7:4 8:0 9:1 10:0 11:-1 12:0 13:0 14:0 15:0 16:-2 17:1 18:1 19:2 20:1 21:1 22:0 23:0 24:0 25:0 26:0 27:0 28:0 29:1 30:0 31:1 32:0 33:1 34:0 35:0 36:0 37:0 38:0 39:0 40:2 41:1 42:0 43:-1 44:1 45:0 46:0 47:0 48:0 49:2 50:0 51:1 52:3 53:0 54:-1 55:-2 56:1 57:0 58:0 59:0 60:0 
-263.2615111944068 1:0 2:0 3:0 4:-4 5:1 6:2 7:3 8:1 9:1 10:0 11:0 12:0 13:0 14:0 15:0 16:-2 17:1 18:1 19:2 20:0 21:1 22:0 23:0 24:0 25:0 26:0 27:0 28:0 29:1 30:1 31:0 32:1 33:0 34:0 35:0 36:0 37:2 38:0 39:1 40:1 41:0 42:0 43:-1 44:1 45:0 46:0 47:0 48:0 49:2 50:0 51:1 52:4 53:0 54:-1 55:-2 56:0 57:-1 58:0 59:0 60:0 
-7.569639326447448 1:-1 2:0 3:0 4:-4 5:1 6:2 7:3 8:0 9:2 10:0 11:0 12:0 13:-1 14:0 15:0 16:-2 17:1 18:2 19:1 20:1 21:1 22:0 23:0 24:0 25:1 26:0 27:1 28:-1 29:0 30:1 31:0 32:1 33:1 34:0 35:0 36:0 37:1 38:0 39:1 40:2 41:0 42:0 43:-1 44:0 45:0 46:0 47:0 48:0 49:1 50:0 51:1 52:4 53:0 54:-3 55:0 56:1 57:-3 58:0 59:0 60:0 
-41.50598263511137 1:1 2:0 3:1 4:-2 5:0 6:8 7:1 8:0 9:6 10:0 11:0 12:0 13:1 14:0 15:1 16:-1 17:0 18:4 19:1 20:-1 21:5 22:0 23:0 24:0 25:1 26:0 27:1 28:-1 29:-1 30:-2 31:1 32:0 33:0 34:0 35:0 36:0 37:1 38:0 39:1 40:1 41:-1 42:-5 43:0 44:0 45:-4 46:0 47:0 48:0 49:-1 50:0 51:-1 52:2 53:0 54:-5 55:-1 56:1 57:-4 58:0 59:0 60:0 
-525.386202885293 1:1 2:0 3:1 4:-2 5:0 6:7 7:2 8:-1 9:7 10:0 11:0 12:1 13:1 14:0 15:1 16:-2 17:-1 18:1 19:2 20:0 21:2 22:0 23:0 24:1 25:1 26:0 27:1 28:0 29:-1 30:-2 31:1 32:0 33:-2 34:0 35:0 36:1 37:-1 38:0 39:-1 40:1 41:0 42:-2 43:0 44:1 45:-2 46:0 47:0 48:1 49:-1 50:-1 51:-2 52:1 53:-1 54:-2 55:-2 56:1 57:-3 58:0 59:-1 60:0 
-31.48466917493341 1:2 2:0 3:2 4:-3 5:-1 6:3 7:3 8:0 9:4 10:1 11:0 12:1 13:2 14:0 15:2 16:-1 17:-1 18:0 19:2 20:0 21:0 22:1 23:0 24:1 25:0 26:0 27:0 28:0 29:0 30:0 31:1 32:1 33:0 34:1 35:0 36:1 37:0 38:-1 39:-1 40:0 41:-1 42:0 43:-1 44:1 45:-1 46:1 47:-1 48:0 49:0 50:-1 51:-1 52:2 53:-1 54:-2 55:-5 56:-2 57:-2 58:0 59:-1 60:-1 
-580.7994790647973 1:2 2:0 3:3 4:-2 5:0 6:2 7:5 8:0 9:3 10:1 11:0 12:1 13:0 14:0 15:1 16:-1 17:1 18:2 19:4 20:1 21:3 22:1 23:0 24:1 25:0 26:-1 27:0 28:-1 29:0 30:2 31:2 32:1 33:2 34:1 35:-1 36:0 37:0 38:-1 39:0 40:1 41:0 42:0 43:-2 44:-2 45:1 46:0 47:-1 48:-1 49:-1 50:-1 51:-1 52:1 53:-1 54:-4 55:-7 56:-2 57:-5 58:0 59:-1 60:-1 
-580.7994790647973 1:1 2:0 3:2 4:-2 5:1 6:4 7:6 8:1 9:5 10:1 11:0 12:2 13:1 14:-1 15:1 16:-2 17:0 18:4 19:4 20:1 21:4 22:1 23:-1 24:1 25:1 26:-1 27:1 28:0 29:0 30:2 31:0 32:-2 33:3 34:0 35:-1 36:0 37:0 38:-1 39:0 40:0 41:-1 42:-2 43:-5 44:-2 45:-3 46:0 47:-1 48:0 49:0 50:-1 51:0 52:3 53:-2 54:-7 55:-5 56:0 57:-5 58:0 59:-1 60:-1 
-66.31106666486734 1:1 2:-1 3:1 4:-4 5:0 6:8 7:9 8:1 9:6 10:1 11:-1 12:2 13:1 14:-1 15:1 16:-2 17:0 18:6 19:5 20:-2 21:5 22:0 23:-1 24:1 25:0 26:-1 27:0 28:-2 29:-1 30:2 31:0 32:-2 33:-1 34:0 35:-1 36:1 37:0 38:-1 39:0 40:1 41:-2 42:-3 43:0 44:0 45:-3 46:0 47:-1 48:0 49:0 50:0 51:0 52:4 53:1 54:-9 55:-10 56:1 57:-3 58:0 59:0 60:0 
-272.1582122128689 1:0 2:0 3:1 4:-2 5:1 6:7 7:-1 8:0 9:0 10:0 11:0 12:1 13:0 14:0 15:1 16:-2 17:1 18:4 19:-1 20:0 21:1 22:0 23:0 24:1 25:0 26:1 27:1 28:-1 29:-2 30:0 31:0 32:0 33:1 34:0 35:1 36:0 37:1 38:1 39:1 40:1 41:-2 42:-4 43:0 44:0 45:1 46:0 47:1 48:0 49:1 50:1 51:0 52:3 53:1 54:-5 55:0 56:0 57:0 58:1 59:1 60:-1 
-580.7994790647973 1:0 2:0 3:1 4:-3 5:1 6:6 7:-1 8:0 9:1 10:0 11:0 12:2 13:0 14:1 15:1 16:-2 17:-2 18:2 19:0 20:0 21:1 22:0 23:1 24:1 25:1 26:1 27:1 28:0 29:-2 30:-2 31:0 32:0 33:1 34:0 35:1 36:1 37:1 38:1 39:0 40:2 41:1 42:-3 43:0 44:0 45:0 46:1 47:1 48:0 49:0 50:1 51:0 52:3 53:-1 54:-3 55:0 56:0 57:0 58:1 59:1 60:-1 
-580.7994790647973 1:0 2:1 3:1 4:-3 5:-2 6:4 7:0 8:0 9:1 10:0 11:1 12:1 13:1 14:1 15:1 16:-1 17:-2 18:0 19:0 20:0 21:1 22:0 23:1 24:1 25:1 26:1 27:0 28:1 29:1 30:-1 31:0 32:0 33:0 34:1 35:1 36:0 37:0 38:1 39:0 40:2 41:-1 42:-1 43:0 44:0 45:0 46:1 47:1 48:-1 49:0 50:0 51:-1 52:1 53:0 54:-1 55:0 56:0 57:0 58:1 59:0 60:-1 
-45.89492439605101 1:1 2:1 3:2 4:-2 5:-2 6:1 7:-1 8:3 9:5 10:0 11:1 12:2 13:1 14:1 15:1 16:0 17:1 18:0 19:-1 20:3 21:4 22:1 23:1 24:1 25:0 26:1 27:1 28:1 29:-1 30:0 31:-1 32:3 33:4 34:1 35:1 36:0 37:0 38:0 39:0 40:0 41:0 42:0 43:-1 44:3 45:4 46:1 47:0 48:0 49:1 50:0 51:0 52:0 53:-1 54:0 55:7 56:-16 57:-17 58:1 59:0 60:0 
-21.25088519015836 1:0 2:1 3:2 4:1 5:-1 6:2 7:-8 8:8 9:21 10:1 11:1 12:1 13:0 14:0 15:1 16:0 17:0 18:2 19:-8 20:8 21:21 22:1 23:0 24:1 25:1 26:0 27:1 28:0 29:-1 30:2 31:0 32:-11 33:0 34:1 35:0 36:1 37:1 38:0 39:0 40:-1 41:-1 42:1 43:10 44:-12 45:-20 46:1 47:0 48:0 49:2 50:0 51:0 52:-2 53:0 54:-6 55:10 56:5 57:-19 58:0 59:0 60:-1 
-10.3883851417343 1:-1 2:0 3:1 4:1 5:0 6:5 7:-12 8:8 9:28 10:1 11:0 12:2 13:0 14:0 15:1 16:1 17:-1 18:5 19:-4 20:-11 21:7 22:1 23:0 24:2 25:0 26:0 27:0 28:0 29:-1 30:4 31:6 32:-12 33:-13 34:1 35:0 36:1 37:1 38:0 39:0 40:-1 41:0 42:-3 43:6 44:5 45:-12 46:0 47:0 48:0 49:1 50:0 51:0 52:-2 53:1 54:-7 55:5 56:6 57:-6 58:0 59:0 60:-1 
-45.10364694029582 1:0 2:0 3:1 4:1 5:-2 6:7 7:-7 8:-10 9:13 10:1 11:0 12:2 13:0 14:0 15:0 16:0 17:-2 18:6 19:3 20:-11 21:-7 22:1 23:0 24:1 25:1 26:0 27:0 28:-1 29:-1 30:-1 31:3 32:6 33:-6 34:0 35:0 36:0 37:1 38:0 39:0 40:-2 41:0 42:-5 43:2 44:7 45:0 46:0 47:0 48:-1 49:1 50:0 51:0 52:-2 53:1 54:-6 55:2 56:7 57:3 58:0 59:0 60:-1 
-16.22529925431285 1:-1 2:0 3:0 4:1 5:-2 6:9 7:1 8:-15 9:-5 10:1 11:0 12:2 13:0 14:0 15:0 16:0 17:-1 18:2 19:1 20:2 21:-4 22:0 23:0 24:1 25:0 26:0 27:0 28:-1 29:0 30:-2 31:0 32:3 33:2 34:0 35:0 36:0 37:0 38:0 39:0 40:-1 41:1 42:-3 43:0 44:3 45:5 46:0 47:0 48:0 49:1 50:-1 51:0 52:-2 53:1 54:-3 55:-2 56:4 57:5 58:0 59:-1 60:0 
-46.06337581160373 1:-1 2:0 3:0 4:1 5:-1 6:0 7:1 8:-1 9:0 10:0 11:0 12:1 13:-1 14:0 15:0 16:1 17:0 18:-1 19:1 20:-1 21:3 22:0 23:0 24:1 25:0 26:-1 27:0 28:0 29:0 30:-1 31:-1 32:0 33:3 34:0 35:-1 36:1 37:2 38:-1 39:0 40:-1 41:0 42:1 43:1 44:1 45:-1 46:0 47:-1 48:0 49:3 50:-1 51:0 52:-2 53:0 54:5 55:2 56:-1 57:-4 58:0 59:-1 60:0 
-201.3736592007009 1:1 2:-1 3:1 4:2 5:0 6:-1 7:-1 8:1 9:2 10:0 11:-1 12:1 13:2 14:-1 15:1 16:1 17:0 18:3 19:0 20:-1 21:-1 22:0 23:-1 24:1 25:1 26:0 27:0 28:0 29:0 30:3 31:0 32:0 33:-1 34:0 35:0 36:1 37:0 38:-1 39:0 40:-1 41:-1 42:0 43:1 44:0 45:0 46:0 47:0 48:0 49:-1 50:0 51:1 52:-2 53:0 54:-2 55:2 56:0 57:2 58:0 59:1 60:0 
-355.7648402429221 1:3 2:0 3:0 4:3 5:0 6:4 7:-2 8:0 9:-2 10:0 11:0 12:1 13:2 14:-1 15:0 16:2 17:-1 18:1 19:-1 20:0 21:-1 22:0 23:0 24:0 25:1 26:0 27:1 28:1 29:0 30:-1 31:0 32:0 33:1 34:0 35:1 36:0 37:-1 38:-1 39:0 40:-2 41:0 42:-1 43:2 44:0 45:1 46:0 47:0 48:0 49:-1 50:0 51:1 52:-6 53:-1 54:-1 55:4 56:-1 57:2 58:0 59:0 60:0 
-25.55628595559763 1:2 2:-1 3:0 4:5 5:-1 6:2 7:-3 8:0 9:-2 10:0 11:0 12:0 13:1 14:0 15:1 16:4 17:0 18:0 19:-2 20:0 21:0 22:0 23:1 24:0 25:-1 26:-1 27:0 28:1 29:0 30:0 31:0 32:0 33:0 34:0 35:0 36:0 37:-1 38:0 39:1 40:-3 41:-1 42:0 43:2 44:-1 45:1 46:0 47:0 48:0 49:-1 50:0 51:1 52:-7 53:0 54:2 55:5 56:0 57:3 58:0 59:0 60:0 
-226.5890831088677 1:0 2:-1 3:-1 4:7 5:0 6:-1 7:-4 8:0 9:-2 10:0 11:0 12:1 13:0 14:0 15:0 16:3 17:-1 18:-1 19:-2 20:-1 21:-1 22:0 23:0 24:1 25:0 26:0 27:0 28:-1 29:0 30:1 31:1 32:0 33:1 34:0 35:0 36:1 37:0 38:-1 39:1 40:-4 41:0 42:1 43:4 44:1 45:2 46:0 47:-1 48:1 49:0 50:0 51:1 52:-6 53:1 54:2 55:5 56:0 57:2 58:0 59:0 60:0 
-0.286880876979814 1:1 2:0 3:0 4:6 5:-2 6:-2 7:-5 8:-1 9:-1 10:0 11:0 12:1 13:1 14:0 15:0 16:2 17:-1 18:0 19:-2 20:0 21:1 22:0 23:0 24:1 25:1 26:-1 27:1 28:-1 29:-1 30:0 31:1 32:1 33:2 34:0 35:-1 36:1 37:1 38:0 39:1 40:-3 41:0 42:1 43:2 44:0 45:2 46:0 47:0 48:0 49:0 50:0 51:1 52:-4 53:0 54:3 55:6 56:-1 57:0 58:0 59:0 60:0 
-0.7537678550565529 1:1 2:0 3:0 4:4 5:-1 6:-2 7:-5 8:0 9:1 10:0 11:0 12:1 13:1 14:-1 15:1 16:1 17:-1 18:-2 19:-2 20:1 21:2 22:0 23:-1 24:1 25:1 26:0 27:1 28:-1 29:0 30:-1 31:-1 32:0 33:2 34:0 35:0 36:0 37:0 38:0 39:1 40:-2 41:0 42:1 43:3 44:-1 45:0 46:0 47:0 48:0 49:0 50:1 51:0 52:-5 53:0 54:4 55:6 56:-1 57:-2 58:0 59:1 60:0 
-479.6846915041287 1:0 2:0 3:2 4:7 5:0 6:-4 7:-6 8:-2 9:-1 10:0 11:0 12:0 13:0 14:1 15:1 16:4 17:0 18:-1 19:-3 20:-2 21:-3 22:0 23:1 24:0 25:1 26:1 27:0 28:-1 29:0 30:1 31:1 32:0 33:-1 34:0 35:1 36:0 37:1 38:1 39:0 40:-4 41:-1 42:3 43:4 44:0 45:1 46:1 47:1 48:0 49:2 50:0 51:0 52:-6 53:1 54:4 55:6 56:0 57:4 58:1 59:0 60:0 
-312.935159158307 1:-1 2:1 3:1 4:7 5:0 6:-3 7:-6 8:-2 9:-4 10:0 11:1 12:0 13:0 14:1 15:0 16:2 17:0 18:-1 19:-2 20:0 21:-2 22:0 23:1 24:0 25:0 26:1 27:0 28:-1 29:-1 30:1 31:1 32:0 33:0 34:1 35:1 36:0 37:1 38:0 39:0 40:-3 41:1 42:2 43:3 44:0 45:3 46:1 47:0 48:0 49:1 50:0 51:0 52:-5 53:1 54:4 55:5 56:0 57:4 58:1 59:0 60:0 
-347.0077338684952 1:0 2:0 3:2 4:3 5:0 6:-5 7:-2 8:0 9:-4 10:0 11:0 12:0 13:0 14:0 15:1 16:0 17:0 18:-2 19:-1 20:1 21:-1 22:0 23:0 24:0 25:0 26:0 27:1 28:-1 29:0 30:-1 31:1 32:0 33:1 34:0 35:0 36:0 37:0 38:0 39:0 40:-2 41:1 42:2 43:2 44:2 45:3 46:0 47:0 48:0 49:0 50:0 51:-1 52:-4 53:2 54:6 55:3 56:1 57:5 58:0 59:0 60:0 
-509.5550891924402 1:0 2:0 3:1 4:2 5:0 6:-4 7:-2 8:1 9:-4 10:0 11:0 12:0 13:0 14:0 15:1 16:1 17:0 18:-3 19:0 20:0 21:-2 22:0 23:0 24:0 25:0 26:0 27:0 28:0 29:1 30:0 31:1 32:2 33:0 34:0 35:0 36:0 37:0 38:0 39:-1 40:-2 41:2 42:4 43:2 44:1 45:2 46:0 47:0 48:0 49:0 50:0 51:-1 52:-4 53:0 54:6 55:3 56:0 57:5 58:0 59:0 60:0 
-580.7994790647973 1:0 2:0 3:2 4:3 5:0 6:-6 7:-2 8:-1 9:-4 10:0 11:0 12:0 13:0 14:0 15:1 16:2 17:1 18:-3 19:-1 20:1 21:-2 22:0 23:0 24:0 25:0 26:0 27:0 28:0 29:2 30:1 31:0 32:0 33:0 34:0 35:0 36:0 37:0 38:0 39:0 40:-2 41:0 42:3 43:1 44:-1 45:3 46:0 47:0 48:0 49:0 50:0 51:0 52:-4 53:0 54:6 55:2 56:1 57:5 58:0 59:0 60:0 
-580.7994790647973 1:0 2:0 3:0 4:1 5:1 6:-4 7:0 8:1 9:-2 10:0 11:0 12:0 13:0 14:0 15:0 16:0 17:0 18:-1 19:0 20:1 21:0 22:0 23:0 24:0 25:0 26:0 27:0 28:-1 29:0 30:1 31:0 32:1 33:0 34:0 35:0 36:0 37:0 38:0 39:0 40:-1 41:0 42:2 43:0 44:0 45:1 46:0 47:0 48:0 49:0 50:0 51:0 52:-1 53:0 54:4 55:0 56:0 57:2 58:0 59:0 60:0 
-580.7994790647973 1:0 2:0 3:0 4:0 5:1 6:-3 7:0 8:1 9:-1 10:0 11:0 12:0 13:0 14:0 15:0 16:-1 17:1 18:-1 19:0 20:1 21:-1 22:0 23:0 24:0 25:0 26:0 27:0 28:-1 29:1 30:0 31:0 32:0 33:0 34:0 35:0 36:0 37:0 38:0 39:0 40:-1 41:1 42:2 43:0 44:0 45:1 46:0 47:0 48:0 49:0 50:0 51:0 52:-1 53:0 54:3 55:0 56:1 57:2 58:0 59:0 60:0 
-580.7994790647973 1:0 2:0 3:0 4:-1 5:1 6:0 7:1 8:1 9:-1 10:0 11:0 12:0 13:0 14:0 15:0 16:0 17:1 18:0 19:1 20:0 21:0 22:0 23:0 24:0 25:0 26:0 27:0 28:0 29:1 30:1 31:1 32:0 33:0 34:0 35:0 36:0 37:0 38:0 39:0 40:0 41:1 42:1 43:1 44:0 45:0 46:0 47:0 48:0 49:0 50:0 51:0 52:0 53:0 54:1 55:0 56:0 57:1 58:0 59:0 60:0 
-580.7994790647973 1:0 2:-1 3:0 4:-5 5:0 6:0 7:5 8:1 9:1 10:0 11:-1 12:0 13:0 14:-1 15:0 16:-2 17:0 18:0 19:2 20:0 21:1 22:0 23:-1 24:1 25:0 26:0 27:0 28:0 29:1 30:1 31:0 32:1 33:1 34:0 35:0 36:1 37:0 38:0 39:0 40:2 41:1 42:0 43:-1 44:0 45:1 46:0 47:0 48:1 49:0 50:0 51:0 52:4 53:1 54:0 55:-3 56:1 57:0 58:0 59:0 60:1 
-478.8394292079062 1:0 2:-1 3:0 4:-4 5:0 6:0 7:4 8:0 9:1 10:0 11:-1 12:0 13:0 14:0 15:0 16:-2 17:1 18:1 19:2 20:1 21:1 22:0 23:0 24:0 25:0 26:0 27:0 28:0 29:1 30:0 31:1 32:0 33:1 34:0 35:0 36:0 37:0 38:0 39:0 40:2 41:1 42:0 43:-1 44:1 45:0 46:0 47:0 48:0 49:2 50:0 51:1 52:3 53:0 54:-1 55:-2 56:1 57:0 58:0 59:0 60:0 
-552.7144834549085 1:0 2:0 3:0 4:-4 5:1 6:2 7:3 8:1 9:1 10:0 11:0 12:0 13:0 14:0 15:0 16:-2 17:1 18:1 19:2 20:0 21:1 22:0 23:0 24:0 25:0 26:0 27:0 28:0 29:1 30:1 31:0 32:1 33:0 34:0 35:0 36:0 37:2 38:0 39:1 40:1 41:0 42:0 43:-1 44:1 45:0 46:0 47:0 48:0 49:2 50:0 51:1 52:4 53:0 54:-1 55:-2 56:0 57:-1 58:0 59:0 60:0 
-172.8913718909537 1:-1 2:0 3:0 4:-4 5:1 6:2 7:3 8:0 9:2 10:0 11:0 12:0 13:-1 14:0 15:0 16:-2 17:1 18:2 19:1 20:1 21:1 22:0 23:0 24:0 25:1 26:0 27:1 28:-1 29:0 30:1 31:0 32:1 33:1 34:0 35:0 36:0 37:1 38:0 39:1 40:2 41:0 42:0 43:-1 44:0 45:0 46:0 47:0 48:0 49:1 50:0 51:1 52:4 53:0 54:-3 55:0 56:1 57:-3 58:0 59:0 60:0 
-21.82724455927562 1:1 2:0 3:1 4:-2 5:0 6:8 7:1 8:0 9:6 10:0 11:0 12:0 13:1 14:0 15:1 16:-1 17:0 18:4 19:1 20:-1 21:5 22:0 23:0 24:0 25:1 26:0 27:1 28:-1 29:-1 30:-2 31:1 32:0 33:0 34:0 35:0 36:0 37:1 38:0 39:1 40:1 41:-1 42:-5 43:0 44:0 45:-4 46:0 47:0 48:0 49:-1 50:0 51:-1 52:2 53:0 54:-5 55:-1 56:1 57:-4 58:0 59:0 60:0 
-578.4877998140088 1:1 2:0 3:1 4:-2 5:0 6:7 7:2 8:-1 9:7 10:0 11:0 12:1 13:1 14:0 15:1 16:-2 17:-1 18:1 19:2 20:0 21:2 22:0 23:0 24:1 25:1 26:0 27:1 28:0 29:-1 30:-2 31:1 32:0 33:-2 34:0 35:0 36:1 37:-1 38:0 39:-1 40:1 41:0 42:-2 43:0 44:1 45:-2 46:0 47:0 48:1 49:-1 50:-1 51:-2 52:1 53:-1 54:-2 55:-2 56:1 57:-3 58:0 59:-1 60:0 
-124.9846908765817 1:2 2:0 3:2 4:-3 5:-1 6:3 7:3 8:0 9:4 10:1 11:0 12:1 13:2 14:0 15:2 16:-1 17:-1 18:0 19:2 20:0 21:0 22:1 23:0 24:1 25:0 26:0 27:0 28:0 29:0 30:0 31:1 32:1 33:0 34:1 35:0 36:1 37:0 38:-1 39:-1 40:0 41:-1 42:0 43:-1 44:1 45:-1 46:1 47:-1 48:0 49:0 50:-1 51:-1 52:2 53:-1 54:-2 55:-5 56:-2 57:-2 58:0 59:-1 60:-1 
-580.7994790647973 1:2 2:0 3:3 4:-2 5:0 6:2 7:5 8:0 9:3 10:1 11:0 12:1 13:0 14:0 15:1 16:-1 17:1 18:2 19:4 20:1 21:3 22:1 23:0 24:1 25:0 26:-1 27:0 28:-1 29:0 30:2 31:2 32:1 33:2 34:1 35:-1 36:0 37:0 38:-1 39:0 40:1 41:0 42:0 43:-2 44:-2 45:1 46:0 47:-1 48:-1 49:-1 50:-1 51:-1 52:1 53:-1 54:-4 55:-7 56:-2 57:-5 58:0 59:-1 60:-1 
-580.7994790647973 1:1 2:0 3:2 4:-2 5:1 6:4 7:6 8:1 9:5 10:1 11:0 12:2 13:1 14:-1 15:1 16:-2 17:0 18:4 19:4 20:1 21:4 22:1 23:-1 24:1 25:1 26:-1 27:1 28:0 29:0 30:2 31:0 32:-2 33:3 34:0 35:-1 36:0 37:0 38:-1 39:0 40:0 41:-1 42:-2 43:-5 44:-2 45:-3 46:0 47:-1 48:0 49:0 50:-1 51:0 52:3 53:-2 54:-7 55:-5 56:0 57:-5 58:0 59:-1 60:-1 
-15.47438108351514 1:1 2:-1 3:1 4:-4 5:0 6:8 7:9 8:1 9:6 10:1 11:-1 12:2 13:1 14:-1 15:1 16:-2 17:0 18:6 19:5 20:-2 21:5 22:0 23:-1 24:1 25:0 26:-1 27:0 28:-2 29:-1 30:2 31:0 32:-2 33:-1 34:0 35:-1 36:1 37:0 38:-1 39:0 40:1 41:-2 42:-3 43:0 44:0 45:-3 46:0 47:-1 48:0 49:0 50:0 51:0 52:4 53:1 54:-9 55:-10 56:1 57:-3 58:0 59:0 60:0 
-235.0805216953077 1:0 2:0 3:1 4:-2 5:1 6:7 7:-1 8:0 9:0 10:0 11:0 12:1 13:0 14:0 15:1 16:-2 17:1 18:4 19:-1 20:0 21:1 22:0 23:0 24:1 25:0 26:1 27:1 28:-1 29:-2 30:0 31:0 32:0 33:1 34:0 35:1 36:0 37:1 38:1 39:1 40:1 41:-2 42:-4 43:0 44:0 45:1 46:0 47:1 48:0 49:1 50:1 51:0 52:3 53:1 54:-5 55:0 56:0 57:0 58:1 59:1 60:-1 
-580.7994790647973 1:0 2:0 3:1 4:-3 5:1 6:6 7:-1 8:0 9:1 10:0 11:0 12:2 13:0 14:1 15:1 16:-2 17:-2 18:2 19:0 20:0 21:1 22:0 23:1 24:1 25:1 26:1 27:1 28:0 29:-2 30:-2 31:0 32:0 33:1 34:0 35:1 36:1 37:1 38:1 39:0 40:2 41:1 42:-3 43:0 44:0 45:0 46:1 47:1 48:0 49:0 50:1 51:0 52:3 53:-1 54:-3 55:0 56:0 57:0 58:1 59:1 60:-1 
-580.7994790647973 1:0 2:1 3:1 4:-3 5:-2 6:4 7:0 8:0 9:1 10:0 11:1 12:1 13:1 14:1 15:1 16:-1 17:-2 18:0 19:0 20:0 21:1 22:0 23:1 24:1 25:1 26:1 27:0 28:1 29:1 30:-1 31:0 32:0 33:0 34:1 35:1 36:0 37:0 38:1 39:0 40:2 41:-1 42:-1 43:0 44:0 45:0 46:1 47:1 48:-1 49:0 50:0 51:-1 52:1 53:0 54:-1 55:0 56:0 57:0 58:1 59:0 60:-1 
-11.41251562161127 1:1 2:1 3:2 4:-2 5:-2 6:1 7:-1 8:3 9:5 10:0 11:1 12:2 13:1 14:1 15:1 16:0 17:1 18:0 19:-1 20:3 21:4 22:1 23:1 24:1 25:0 26:1 27:1 28:1 29:-1 30:0 31:-1 32:3 33:4 34:1 35:1 36:0 37:0 38:0 39:0 40:0 41:0 42:0 43:-1 44:3 45:4 46:1 47:0 48:0 49:1 50:0 51:0 52:0 53:-1 54:0 55:7 56:-16 57:-17 58:1 59:0 60:0 
-0.2975363869834068 1:1 2:1 3:1 4:0 5:1 6:1 7:-5 8:7 9:13 10:0 11:1 12:1 13:0 14:1 15:1 16:1 17:-1 18:1 19:-5 20:7 21:13 22:0 23:1 24:0 25:0 26:0 27:0 28:0 29:0 30:1 31:-5 32:7 33:13 34:0 35:0 36:0 37:1 38:0 39:0 40:0 41:-1 42:1 43:3 44:-12 45:-8 46:0 47:0 48:0 49:1 50:0 51:-1 52:-1 53:-1 54:0 55:13 56:-13 57:-28 58:0 59:0 60:-1 
-5.93379985899317 1:0 2:1 3:2 4:1 5:-1 6:2 7:-8 8:8 9:21 10:1 11:1 12:1 13:0 14:0 15:1 16:0 17:0 18:2 19:-8 20:8 21:21 22:1 23:0 24:1 25:1 26:0 27:1 28:0 29:-1 30:2 31:0 32:-11 33:0 34:1 35:0 36:1 37:1 38:0 39:0 40:-1 41:-1 42:1 43:10 44:-12 45:-20 46:1 47:0 48:0 49:2 50:0 51:0 52:-2 53:0 54:-6 55:10 56:5 57:-19 58:0 59:0 60:-1 
-0.7584868906811392 1:-1 2:0 3:1 4:1 5:0 6:5 7:-12 8:8 9:28 10:1 11:0 12:2 13:0 14:0 15:1 16:1 17:-1 18:5 19:-4 20:-11 21:7 22:1 23:0 24:2 25:0 26:0 27:0 28:0 29:-1 30:4 31:6 32:-12 33:-13 34:1 35:0 36:1 37:1 38:0 39:0 40:-1 41:0 42:-3 43:6 44:5 45:-12 46:0 47:0 48:0 49:1 50:0 51:0 52:-2 53:1 54:-7 55:5 56:6 57:-6 58:0 59:0 60:-1 
-7.874799184816787 1:0 2:0 3:1 4:1 5:-2 6:7 7:-7 8:-10 9:13 10:1 11:0 12:2 13:0 14:0 15:0 16:0 17:-2 18:6 19:3 20:-11 21:-7 22:1 23:0 24:1 25:1 26:0 27:0 28:-1 29:-1 30:-1 31:3 32:6 33:-6 34:0 35:0 36:0 37:1 38:0 39:0 40:-2 41:0 42:-5 43:2 44:7 45:0 46:0 47:0 48:-1 49:1 50:0 51:0 52:-2 53:1 54:-6 55:2 56:7 57:3 58:0 59:0 60:-1 
-17.05068493646331 1:-1 2:0 3:0 4:1 5:-2 6:9 7:1 8:-15 9:-5 10:1 11:0 12:2 13:0 14:0 15:0 16:0 17:-1 18:2 19:1 20:2 21:-4 22:0 23:0 24:1 25:0 26:0 27:0 28:-1 29:0 30:-2 31:0 32:3 33:2 34:0 35:0 36:0 37:0 38:0 39:0 40:-1 41:1 42:-3 43:0 44:3 45:5 46:0 47:0 48:0 49:1 50:-1 51:0 52:-2 53:1 54:-3 55:-2 56:4 57:5 58:0 59:-1 60:0 
-110.0260091018256 1:-1 2:0 3:0 4:1 5:-1 6:0 7:1 8:-1 9:0 10:0 11:0 12:1 13:-1 14:0 15:0 16:1 17:0 18:-1 19:1 20:-1 21:3 22:0 23:0 24:1 25:0 26:-1 27:0 28:0 29:0 30:-1 31:-1 32:0 33:3 34:0 35:-1 36:1 37:2 38:-1 39:0 40:-1 41:0 42:1 43:1 44:1 45:-1 46:0 47:-1 48:0 49:3 50:-1 51:0 52:-2 53:0 54:5 55:2 56:-1 57:-4 58:0 59:-1 60:0 
-4.740311523131585 1:-2 2:0 3:1 4:2 5:0 6:-2 7:0 8:-1 9:4 10:0 11:0 12:1 13:-1 14:-1 15:1 16:1 17:0 18:-2 19:-2 20:0 21:4 22:0 23:-1 24:1 25:1 26:-1 27:1 28:0 29:0 30:0 31:0 32:1 33:0 34:0 35:-1 36:0 37:2 38:-1 39:1 40:-1 41:0 42:4 43:1 44:-1 45:-3 46:0 47:-1 48:0 49:1 50:0 51:0 52:-2 53:0 54:4 55:1 56:0 57:-3 58:0 59:0 60:0 
-81.73850603261951 1:1 2:-1 3:1 4:2 5:0 6:-1 7:-1 8:1 9:2 10:0 11:-1 12:1 13:2 14:-1 15:1 16:1 17:0 18:3 19:0 20:-1 21:-1 22:0 23:-1 24:1 25:1 26:0 27:0 28:0 29:0 30:3 31:0 32:0 33:-1 34:0 35:0 36:1 37:0 38:-1 39:0 40:-1 41:-1 42:0 43:1 44:0 45:0 46:0 47:0 48:0 49:-1 50:0 51:1 52:-2 53:0 54:-2 55:2 56:0 57:2 58:0 59:1 60:0 
-274.5749181339842 1:3 2:0 3:0 4:3 5:0 6:4 7:-2 8:0 9:-2 10:0 11:0 12:1 13:2 14:-1 15:0 16:2 17:-1 18:1 19:-1 20:0 21:-1 22:0 23:0 24:0 25:1 26:0 27:1 28:1 29:0 30:-1 31:0 32:0 33:1 34:0 35:1 36:0 37:-1 38:-1 39:0 40:-2 41:0 42:-1 43:2 44:0 45:1 46:0 47:0 48:0 49:-1 50:0 51:1 52:-6 53:-1 54:-1 55:4 56:-1 57:2 58:0 59:0 60:0 
-580.7994790647973 1:0 2:0 3:2 4:7 5:0 6:-4 7:-6 8:-2 9:-1 10:0 11:0 12:0 13:0 14:1 15:1 16:4 17:0 18:-1 19:-3 20:-2 21:-3 22:0 23:1 24:0 25:1 26:1 27:0 28:-1 29:0 30:1 31:1 32:0 33:-1 34:0 35:1 36:0 37:1 38:1 39:0 40:-4 41:-1 42:3 43:4 44:0 45:1 46:1 47:1 48:0 49:2 50:0 51:0 52:-6 53:1 54:4 55:6 56:0 57:4 58:1 59:0 60:0 
-425.8291028747588 1:-1 2:1 3:1 4:7 5:0 6:-3 7:-6 8:-2 9:-4 10:0 11:1 12:0 13:0 14:1 15:0 16:2 17:0 18:-1 19:-2 20:0 21:-2 22:0 23:1 24:0 25:0 26:1 27:0 28:-1 29:-1 30:1 31:1 32:0 33:0 34:1 35:1 36:0 37:1 38:0 39:0 40:-3 41:1 42:2 43:3 44:0 45:3 46:1 47:0 48:0 49:1 50:0 51:0 52:-5 53:1 54:4 55:5 56:0 57:4 58:1 59:0 60:0 
-102.3509461005007 1:0 2:0 3:1 4:2 5:0 6:-4 7:-2 8:1 9:-4 10:0 11:0 12:0 13:0 14:0 15:1 16:1 17:0 18:-3 19:0 20:0 21:-2 22:0 23:0 24:0 25:0 26:0 27:0 28:0 29:1 30:0 31:1 32:2 33:0 34:0 35:0 36:0 37:0 38:0 39:-1 40:-2 41:2 42:4 43:2 44:1 45:2 46:0 47:0 48:0 49:0 50:0 51:-1 52:-4 53:0 54:6 55:3 56:0 57:5 58:0 59:0 60:0 
-580.7994790647973 1:0 2:0 3:2 4:3 5:0 6:-6 7:-2 8:-1 9:-4 10:0 11:0 12:0 13:0 14:0 15:1 16:2 17:1 18:-3 19:-1 20:1 21:-2 22:0 23:0 24:0 25:0 26:0 27:0 28:0 29:2 30:1 31:0 32:0 33:0 34:0 35:0 36:0 37:0 38:0 39:0 40:-2 41:0 42:3 43:1 44:-1 45:3 46:0 47:0 48:0 49:0 50:0 51:0 52:-4 53:0 54:6 55:2 56:1 57:5 58:0 59:0 60:0 
-5.065746530455706 1:0 2:0 3:1 4:3 5:0 6:-6 7:-2 8:1 9:-4 10:0 11:0 12:0 13:0 14:0 15:0 16:1 17:1 18:-2 19:-1 20:0 21:-2 22:0 23:0 24:0 25:0 26:0 27:0 28:-1 29:-1 30:0 31:0 32:-1 33:1 34:0 35:0 36:0 37:0 38:0 39:0 40:-3 41:-1 42:3 43:1 44:1 45:3 46:0 47:0 48:0 49:0 50:0 51:0 52:-4 53:1 54:6 55:2 56:1 57:6 58:0 59:0 60:0 
-337.2035659294943 1:0 2:0 3:0 4:1 5:1 6:-4 7:0 8:1 9:-2 10:0 11:0 12:0 13:0 14:0 15:0 16:0 17:0 18:-1 19:0 20:1 21:0 22:0 23:0 24:0 25:0 26:0 27:0 28:-1 29:0 30:1 31:0 32:1 33:0 34:0 35:0 36:0 37:0 38:0 39:0 40:-1 41:0 42:2 43:0 44:0 45:1 46:0 47:0 48:0 49:0 50:0 51:0 52:-1 53:0 54:4 55:0 56:0 57:2 58:0 59:0 60:0 
-580.7994790647973 1:0 2:0 3:0 4:0 5:1 6:-3 7:0 8:1 9:-1 10:0 11:0 12:0 13:0 14:0 15:0 16:-1 17:1 18:-1 19:0 20:1 21:-1 22:0 23:0 24:0 25:0 26:0 27:0 28:-1 29:1 30:0 31:0 32:0 33:0 34:0 35:0 36:0 37:0 38:0 39:0 40:-1 41:1 42:2 43:0 44:0 45:1 46:0 47:0 48:0 49:0 50:0 51:0 52:-1 53:0 54:3 55:0 56:1 57:2 58:0 59:0 60:0 
-368.8095493002668 1:0 2:0 3:0 4:-1 5:1 6:-2 7:0 8:0 9:-1 10:0 11:0 12:0 13:0 14:0 15:0 16:-1 17:1 18:0 19:0 20:0 21:0 22:0 23:0 24:0 25:0 26:0 27:0 28:-1 29:0 30:1 31:0 32:1 33:1 34:0 35:0 36:0 37:0 38:0 39:0 40:-1 41:0 42:1 43:0 44:1 45:1 46:0 47:0 48:0 49:0 50:0 51:0 52:0 53:0 54:1 55:0 56:0 57:2 58:0 59:0 60:0 
-580.7994790647973 1:0 2:0 3:0 4:-1 5:1 6:0 7:1 8:1 9:-1 10:0 11:0 12:0 13:0 14:0 15:0 16:0 17:1 18:0 19:1 20:0 21:0 22:0 23:0 24:0 25:0 26:0 27:0 28:0 29:1 30:1 31:1 32:0 33:0 34:0 35:0 36:0 37:0 38:0 39:0 40:0 41:1 42:1 43:1 44:0 45:0 46:0 47:0 48:0 49:0 50:0 51:0 52:0 53:0 54:1 55:0 56:0 57:1 58:0 59:0 60:0 
-580.7994790647973 1:0 2:-1 3:0 4:-5 5:0 6:0 7:5 8:1 9:1 10:0 11:-1 12:0 13:0 14:-1 15:0 16:-2 17:0 18:0 19:2 20:0 21:1 22:0 23:-1 24:1 25:0 26:0 27:0 28:0 29:1 30:1 31:0 32:1 33:1 34:0 35:0 36:1 37:0 38:0 39:0 40:2 41:1 42:0 43:-1 44:0 45:1 46:0 47:0 48:1 49:0 50:0 51:0 52:4 53:1 54:0 55:-3 56:1 57:0 58:0 59:0 60:1 
-580.7994790647973 1:0 2:-1 3:0 4:-4 5:0 6:0 7:4 8:0 9:1 10:0 11:-1 12:0 13:0 14:0 15:0 16:-2 17:1 18:1 19:2 20:1 21:1 22:0 23:0 24:0 25:0 26:0 27:0 28:0 29:1 30:0 31:1 32:0 33:1 34:0 35:0 36:0 37:0 38:0 39:0 40:2 41:1 42:0 43:-1 44:1 45:0 46:0 47:0 48:0 49:2 50:0 51:1 52:3 53:0 54:-1 55:-2 56:1 57:0 58:0 59:0 60:0 
-580.7994790647973 1:0 2:0 3:0 4:-4 5:1 6:2 7:3 8:1 9:1 10:0 11:0 12:0 13:0 14:0 15:0 16:-2 17:1 18:1 19:2 20:0 21:1 22:0 23:0 24:0 25:0 26:0 27:0 28:0 29:1 30:1 31:0 32:1 33:0 34:0 35:0 36:0 37:2 38:0 39:1 40:1 41:0 42:0 43:-1 44:1 45:0 46:0 47:0 48:0 49:2 50:0 51:1 52:4 53:0 54:-1 55:-2 56:0 57:-1 58:0 59:0 60:0 
-580.7994790647973 1:-1 2:0 3:0 4:-4 5:1 6:2 7:3 8:0 9:2 10:0 11:0 12:0 13:-1 14:0 15:0 16:-2 17:1 18:2 19:1 20:1 21:1 22:0 23:0 24:0 25:1 26:0 27:1 28:-1 29:0 30:1 31:0 32:1 33:1 34:0 35:0 36:0 37:1 38:0 39:1 40:2 41:0 42:0 43:-1 44:0 45:0 46:0 47:0 48:0 49:1 50:0 51:1 52:4 53:0 54:-3 55:0 56:1 57:-3 58:0 59:0 60:0 
-574.2421041556411 1:0 2:0 3:0 4:-1 5:0 6:7 7:0 8:1 9:6 10:0 11:0 12:0 13:1 14:0 15:0 16:-1 17:0 18:6 19:1 20:0 21:3 22:0 23:0 24:0 25:1 26:0 27:0 28:0 29:0 30:2 31:1 32:-1 33:2 34:0 35:0 36:0 37:1 38:0 39:0 40:0 41:-1 42:-4 43:1 44:0 45:-3 46:0 47:0 48:0 49:1 50:0 51:0 52:2 53:-1 54:-7 55:0 56:0 57:-7 58:0 59:0 60:0 
-577.5977748672835 1:1 2:0 3:1 4:-2 5:0 6:8 7:1 8:0 9:6 10:0 11:0 12:0 13:1 14:0 15:1 16:-1 17:0 18:4 19:1 20:-1 21:5 22:0 23:0 24:0 25:1 26:0 27:1 28:-1 29:-1 30:-2 31:1 32:0 33:0 34:0 35:0 36:0 37:1 38:0 39:1 40:1 41:-1 42:-5 43:0 44:0 45:-4 46:0 47:0 48:0 49:-1 50:0 51:-1 52:2 53:0 54:-5 55:-1 56:1 57:-4 58:0 59:0 60:0 
-580.7994790647973 1:1 2:0 3:1 4:-2 5:0 6:7 7:2 8:-1 9:7 10:0 11:0 12:1 13:1 14:0 15:1 16:-2 17:-1 18:1 19:2 20:0 21:2 22:0 23:0 24:1 25:1 26:0 27:1 28:0 29:-1 30:-2 31:1 32:0 33:-2 34:0 35:0 36:1 37:-1 38:0 39:-1 40:1 41:0 42:-2 43:0 44:1 45:-2 46:0 47:0 48:1 49:-1 50:-1 51:-2 52:1 53:-1 54:-2 55:-2 56:1 57:-3 58:0 59:-1 60:0 
-580.7994790647973 1:2 2:0 3:2 4:-3 5:-1 6:3 7:3 8:0 9:4 10:1 11:0 12:1 13:2 14:0 15:2 16:-1 17:-1 18:0 19:2 20:0 21:0 22:1 23:0 24:1 25:0 26:0 27:0 28:0 29:0 30:0 31:1 32:1 33:0 34:1 35:0 36:1 37:0 38:-1 39:-1 40:0 41:-1 42:0 43:-1 44:1 45:-1 46:1 47:-1 48:0 49:0 50:-1 51:-1 52:2 53:-1 54:-2 55:-5 56:-2 57:-2 58:0 59:-1 60:-1 
-580.7994790647973 1:2 2:0 3:3 4:-2 5:0 6:2 7:5 8:0 9:3 10:1 11:0 12:1 13:0 14:0 15:1 16:-1 17:1 18:2 19:4 20:1 21:3 22:1 23:0 24:1 25:0 26:-1 27:0 28:-1 29:0 30:2 31:2 32:1 33:2 34:1 35:-1 36:0 37:0 38:-1 39:0 40:1 41:0 42:0 43:-2 44:-2 45:1 46:0 47:-1 48:-1 49:-1 50:-1 51:-1 52:1 53:-1 54:-4 55:-7 56:-2 57:-5 58:0 59:-1 60:-1 
-580.7994790647973 1:1 2:0 3:2 4:-2 5:1 6:4 7:6 8:1 9:5 10:1 11:0 12:2 13:1 14:-1 15:1 16:-2 17:0 18:4 19:4 20:1 21:4 22:1 23:-1 24:1 25:1 26:-1 27:1 28:0 29:0 30:2 31:0 32:-2 33:3 34:0 35:-1 36:0 37:0 38:-1 39:0 40:0 41:-1 42:-2 43:-5 44:-2 45:-3 46:0 47:-1 48:0 49:0 50:-1 51:0 52:3 53:-2 54:-7 55:-5 56:0 57:-5 58:0 59:-1 60:-1 
-580.7994790647973 1:1 2:-1 3:1 4:-4 5:0 6:8 7:9 8:1 9:6 10:1 11:-1 12:2 13:1 14:-1 15:1 16:-2 17:0 18:6 19:5 20:-2 21:5 22:0 23:-1 24:1 25:0 26:-1 27:0 28:-2 29:-1 30:2 31:0 32:-2 33:-1 34:0 35:-1 36:1 37:0 38:-1 39:0 40:1 41:-2 42:-3 43:0 44:0 45:-3 46:0 47:-1 48:0 49:0 50:0 51:0 52:4 53:1 54:-9 55:-10 56:1 57:-3 58:0 59:0 60:0 
-580.7994790647973 1:0 2:0 3:1 4:-2 5:1 6:7 7:-1 8:0 9:0 10:0 11:0 12:1 13:0 14:0 15:1 16:-2 17:1 18:4 19:-1 20:0 21:1 22:0 23:0 24:1 25:0 26:1 27:1 28:-1 29:-2 30:0 31:0 32:0 33:1 34:0 35:1 36:0 37:1 38:1 39:1 40:1 41:-2 42:-4 43:0 44:0 45:1 46:0 47:1 48:0 49:1 50:1 51:0 52:3 53:1 54:-5 55:0 56:0 57:0 58:1 59:1 60:-1 
-580.7994790647973 1:0 2:0 3:1 4:-3 5:1 6:6 7:-1 8:0 9:1 10:0 11:0 12:2 13:0 14:1 15:1 16:-2 17:-2 18:2 19:0 20:0 21:1 22:0 23:1 24:1 25:1 26:1 27:1 28:0 29:-2 30:-2 31:0 32:0 33:1 34:0 35:1 36:1 37:1 38:1 39:0 40:2 41:1 42:-3 43:0 44:0 45:0 46:1 47:1 48:0 49:0 50:1 51:0 52:3 53:-1 54:-3 55:0 56:0 57:0 58:1 59:1 60:-1 
-580.7994790647973 1:0 2:1 3:1 4:-3 5:-2 6:4 7:0 8:0 9:1 10:0 11:1 12:1 13:1 14:1 15:1 16:-1 17:-2 18:0 19:0 20:0 21:1 22:0 23:1 24:1 25:1 26:1 27:0 28:1 29:1 30:-1 31:0 32:0 33:0 34:1 35:1 36:0 37:0 38:1 39:0 40:2 41:-1 42:-1 43:0 44:0 45:0 46:1 47:1 48:-1 49:0 50:0 51:-1 52:1 53:0 54:-1 55:0 56:0 57:0 58:1 59:0 60:-1 
-318.9993329621286 1:1 2:1 3:2 4:-2 5:-2 6:1 7:-1 8:3 9:5 10:0 11:1 12:2 13:1 14:1 15:1 16:0 17:1 18:0 19:-1 20:3 21:4 22:1 23:1 24:1 25:0 26:1 27:1 28:1 29:-1 30:0 31:-1 32:3 33:4 34:1 35:1 36:0 37:0 38:0 39:0 40:0 41:0 42:0 43:-1 44:3 45:4 46:1 47:0 48:0 49:1 50:0 51:0 52:0 53:-1 54:0 55:7 56:-16 57:-17 58:1 59:0 60:0 
-66.451239428516 1:1 2:1 3:1 4:0 5:1 6:1 7:-5 8:7 9:13 10:0 11:1 12:1 13:0 14:1 15:1 16:1 17:-1 18:1 19:-5 20:7 21:13 22:0 23:1 24:0 25:0 26:0 27:0 28:0 29:0 30:1 31:-5 32:7 33:13 34:0 35:0 36:0 37:1 38:0 39:0 40:0 41:-1 42:1 43:3 44:-12 45:-8 46:0 47:0 48:0 49:1 50:0 51:-1 52:-1 53:-1 54:0 55:13 56:-13 57:-28 58:0 59:0 60:-1 
-113.6562016464437 1:0 2:1 3:2 4:1 5:-1 6:2 7:-8 8:8 9:21 10:1 11:1 12:1 13:0 14:0 15:1 16:0 17:0 18:2 19:-8 20:8 21:21 22:1 23:0 24:1 25:1 26:0 27:1 28:0 29:-1 30:2 31:0 32:-11 33:0 34:1 35:0 36:1 37:1 38:0 39:0 40:-1 41:-1 42:1 43:10 44:-12 45:-20 46:1 47:0 48:0 49:2 50:0 51:0 52:-2 53:0 54:-6 55:10 56:5 57:-19 58:0 59:0 60:-1 
-158.1141886620694 1:-1 2:0 3:1 4:1 5:0 6:5 7:-12 8:8 9:28 10:1 11:0 12:2 13:0 14:0 15:1 16:1 17:-1 18:5 19:-4 20:-11 21:7 22:1 23:0 24:2 25:0 26:0 27:0 28:0 29:-1 30:4 31:6 32:-12 33:-13 34:1 35:0 36:1 37:1 38:0 39:0 40:-1 41:0 42:-3 43:6 44:5 45:-12 46:0 47:0 48:0 49:1 50:0 51:0 52:-2 53:1 54:-7 55:5 56:6 57:-6 58:0 59:0 60:-1 
-269.2155047393464 1:0 2:0 3:1 4:1 5:-2 6:7 7:-7 8:-10 9:13 10:1 11:0 12:2 13:0 14:0 15:0 16:0 17:-2 18:6 19:3 20:-11 21:-7 22:1 23:0 24:1 25:1 26:0 27:0 28:-1 29:-1 30:-1 31:3 32:6 33:-6 34:0 35:0 36:0 37:1 38:0 39:0 40:-2 41:0 42:-5 43:2 44:7 45:0 46:0 47:0 48:-1 49:1 50:0 51:0 52:-2 53:1 54:-6 55:2 56:7 57:3 58:0 59:0 60:-1 
-18.08913215364699 1:-1 2:0 3:0 4:1 5:-2 6:9 7:1 8:-15 9:-5 10:1 11:0 12:2 13:0 14:0 15:0 16:0 17:-1 18:2 19:1 20:2 21:-4 22:0 23:0 24:1 25:0 26:0 27:0 28:-1 29:0 30:-2 31:0 32:3 33:2 34:0 35:0 36:0 37:0 38:0 39:0 40:-1 41:1 42:-3 43:0 44:3 45:5 46:0 47:0 48:0 49:1 50:-1 51:0 52:-2 53:1 54:-3 55:-2 56:4 57:5 58:0 59:-1 60:0 
-234.6399733740312 1:-1 2:0 3:0 4:1 5:-1 6:0 7:1 8:-1 9:0 10:0 11:0 12:1 13:-1 14:0 15:0 16:1 17:0 18:-1 19:1 20:-1 21:3 22:0 23:0 24:1 25:0 26:-1 27:0 28:0 29:0 30:-1 31:-1 32:0 33:3 34:0 35:-1 36:1 37:2 38:-1 39:0 40:-1 41:0 42:1 43:1 44:1 45:-1 46:0 47:-1 48:0 49:3 50:-1 51:0 52:-2 53:0 54:5 55:2 56:-1 57:-4 58:0 59:-1 60:0 
-177.5878170136342 1:-2 2:0 3:1 4:2 5:0 6:-2 7:0 8:-1 9:4 10:0 11:0 12:1 13:-1 14:-1 15:1 16:1 17:0 18:-2 19:-2 20:0 21:4 22:0 23:-1 24:1 25:1 26:-1 27:1 28:0 29:0 30:0 31:0 32:1 33:0 34:0 35:-1 36:0 37:2 38:-1 39:1 40:-1 41:0 42:4 43:1 44:-1 45:-3 46:0 47:-1 48:0 49:1 50:0 51:0 52:-2 53:0 54:4 55:1 56:0 57:-3 58:0 59:0 60:0 
-580.7994790647973 1:1 2:-1 3:1 4:2 5:0 6:-1 7:-1 8:1 9:2 10:0 11:-1 12:1 13:2 14:-1 15:1 16:1 17:0 18:3 19:0 20:-1 21:-1 22:0 23:-1 24:1 25:1 26:0 27:0 28:0 29:0 30:3 31:0 32:0 33:-1 34:0 35:0 36:1 37:0 38:-1 39:0 40:-1 41:-1 42:0 43:1 44:0 45:0 46:0 47:0 48:0 49:-1 50:0 51:1 52:-2 53:0 54:-2 55:2 56:0 57:2 58:0 59:1 60:0 
-580.7994790647973 1:3 2:0 3:0 4:3 5:0 6:4 7:-2 8:0 9:-2 10:0 11:0 12:1 13:2 14:-1 15:0 16:2 17:-1 18:1 19:-1 20:0 21:-1 22:0 23:0 24:0 25:1 26:0 27:1 28:1 29:0 30:-1 31:0 32:0 33:1 34:0 35:1 36:0 37:-1 38:-1 39:0 40:-2 41:0 42:-1 43:2 44:0 45:1 46:0 47:0 48:0 49:-1 50:0 51:1 52:-6 53:-1 54:-1 55:4 56:-1 57:2 58:0 59:0 60:0 
-356.8943347729585 1:2 2:-1 3:0 4:5 5:-1 6:2 7:-3 8:0 9:-2 10:0 11:0 12:0 13:1 14:0 15:1 16:4 17:0 18:0 19:-2 20:0 21:0 22:0 23:1 24:0 25:-1 26:-1 27:0 28:1 29:0 30:0 31:0 32:0 33:0 34:0 35:0 36:0 37:-1 38:0 39:1 40:-3 41:-1 42:0 43:2 44:-1 45:1 46:0 47:0 48:0 49:-1 50:0 51:1 52:-7 53:0 54:2 55:5 56:0 57:3 58:0 59:0 60:0 
-527.5073989231196 1:0 2:-1 3:-1 4:7 5:0 6:-1 7:-4 8:0 9:-2 10:0 11:0 12:1 13:0 14:0 15:0 16:3 17:-1 18:-1 19:-2 20:-1 21:-1 22:0 23:0 24:1 25:0 26:0 27:0 28:-1 29:0 30:1 31:1 32:0 33:1 34:0 35:0 36:1 37:0 38:-1 39:1 40:-4 41:0 42:1 43:4 44:1 45:2 46:0 47:-1 48:1 49:0 50:0 51:1 52:-6 53:1 54:2 55:5 56:0 57:2 58:0 59:0 60:0 
-218.4634101224494 1:1 2:0 3:0 4:6 5:-2 6:-2 7:-5 8:-1 9:-1 10:0 11:0 12:1 13:1 14:0 15:0 16:2 17:-1 18:0 19:-2 20:0 21:1 22:0 23:0 24:1 25:1 26:-1 27:1 28:-1 29:-1 30:0 31:1 32:1 33:2 34:0 35:-1 36:1 37:1 38:0 39:1 40:-3 41:0 42:1 43:2 44:0 45:2 46:0 47:0 48:0 49:0 50:0 51:1 52:-4 53:0 54:3 55:6 56:-1 57:0 58:0 59:0 60:0 
-9.482256292075572 1:1 2:0 3:0 4:4 5:-1 6:-2 7:-5 8:0 9:1 10:0 11:0 12:1 13:1 14:-1 15:1 16:1 17:-1 18:-2 19:-2 20:1 21:2 22:0 23:-1 24:1 25:1 26:0 27:1 28:-1 29:0 30:-1 31:-1 32:0 33:2 34:0 35:0 36:0 37:0 38:0 39:1 40:-2 41:0 42:1 43:3 44:-1 45:0 46:0 47:0 48:0 49:0 50:1 51:0 52:-5 53:0 54:4 55:6 56:-1 57:-2 58:0 59:1 60:0 
-91.76333685396152 1:1 2:-1 3:1 4:4 5:-1 6:-3 7:-5 8:1 9:2 10:0 11:-1 12:1 13:1 14:0 15:1 16:2 17:0 18:-2 19:-4 20:0 21:2 22:0 23:0 24:0 25:0 26:0 27:1 28:1 29:0 30:0 31:0 32:-1 33:0 34:0 35:0 36:0 37:0 38:1 39:0 40:-2 41:0 42:3 43:3 44:-1 45:-2 46:0 47:1 48:0 49:1 50:1 51:-1 52:-7 53:0 54:5 55:7 56:1 57:0 58:0 59:1 60:0 
-580.7994790647973 1:0 2:0 3:2 4:7 5:0 6:-4 7:-6 8:-2 9:-1 10:0 11:0 12:0 13:0 14:1 15:1 16:4 17:0 18:-1 19:-3 20:-2 21:-3 22:0 23:1 24:0 25:1 26:1 27:0 28:-1 29:0 30:1 31:1 32:0 33:-1 34:0 35:1 36:0 37:1 38:1 39:0 40:-4 41:-1 42:3 43:4 44:0 45:1 46:1 47:1 48:0 49:2 50:0 51:0 52:-6 53:1 54:4 55:6 56:0 57:4 58:1 59:0 60:0 
-580.7994790647973 1:-1 2:1 3:1 4:7 5:0 6:-3 7:-6 8:-2 9:-4 10:0 11:1 12:0 13:0 14:1 15:0 16:2 17:0 18:-1 19:-2 20:0 21:-2 22:0 23:1 24:0 25:0 26:1 27:0 28:-1 29:-1 30:1 31:1 32:0 33:0 34:1 35:1 36:0 37:1 38:0 39:0 40:-3 41:1 42:2 43:3 44:0 45:3 46:1 47:0 48:0 49:1 50:0 51:0 52:-5 53:1 54:4 55:5 56:0 57:4 58:1 59:0 60:0 
-444.2742434363149 1:0 2:0 3:2 4:3 5:0 6:-5 7:-2 8:0 9:-4 10:0 11:0 12:0 13:0 14:0 15:1 16:0 17:0 18:-2 19:-1 20:1 21:-1 22:0 23:0 24:0 25:0 26:0 27:1 28:-1 29:0 30:-1 31:1 32:0 33:1 34:0 35:0 36:0 37:0 38:0 39:0 40:-2 41:1 42:2 43:2 44:2 45:3 46:0 47:0 48:0 49:0 50:0 51:-1 52:-4 53:2 54:6 55:3 56:1 57:5 58:0 59:0 60:0 
-263.5560557809108 1:0 2:0 3:1 4:2 5:0 6:-4 7:-2 8:1 9:-4 10:0 11:0 12:0 13:0 14:0 15:1 16:1 17:0 18:-3 19:0 20:0 21:-2 22:0 23:0 24:0 25:0 26:0 27:0 28:0 29:1 30:0 31:1 32:2 33:0 34:0 35:0 36:0 37:0 38:0 39:-1 40:-2 41:2 42:4 43:2 44:1 45:2 46:0 47:0 48:0 49:0 50:0 51:-1 52:-4 53:0 54:6 55:3 56:0 57:5 58:0 59:0 60:0 
-580.7994790647973 1:0 2:0 3:2 4:3 5:0 6:-6 7:-2 8:-1 9:-4 10:0 11:0 12:0 13:0 14:0 15:1 16:2 17:1 18:-3 19:-1 20:1 21:-2 22:0 23:0 24:0 25:0 26:0 27:0 28:0 29:2 30:1 31:0 32:0 33:0 34:0 35:0 36:0 37:0 38:0 39:0 40:-2 41:0 42:3 43:1 44:-1 45:3 46:0 47:0 48:0 49:0 50:0 51:0 52:-4 53:0 54:6 55:2 56:1 57:5 58:0 59:0 60:0 
-503.2880619801807 1:0 2:0 3:1 4:3 5:0 6:-6 7:-2 8:1 9:-4 10:0 11:0 12:0 13:0 14:0 15:0 16:1 17:1 18:-2 19:-1 20:0 21:-2 22:0 23:0 24:0 25:0 26:0 27:0 28:-1 29:-1 30:0 31:0 32:-1 33:1 34:0 35:0 36:0 37:0 38:0 39:0 40:-3 41:-1 42:3 43:1 44:1 45:3 46:0 47:0 48:0 49:0 50:0 51:0 52:-4 53:1 54:6 55:2 56:1 57:6 58:0 59:0 60:0 
-294.1240657771655 1:0 2:0 3:0 4:2 5:0 6:-5 7:-1 8:-1 9:-4 10:0 11:0 12:0 13:0 14:0 15:0 16:0 17:0 18:-2 19:0 20:1 21:-2 22:0 23:0 24:0 25:0 26:0 27:0 28:-1 29:2 30:1 31:1 32:1 33:1 34:0 35:0 36:0 37:0 38:0 39:0 40:-2 41:1 42:4 43:1 44:1 45:3 46:0 47:0 48:0 49:0 50:0 51:0 52:-3 53:1 54:6 55:1 56:1 57:3 58:0 59:0 60:0 
-41.4155563951788 1:0 2:0 3:0 4:1 5:1 6:-4 7:0 8:1 9:-2 10:0 11:0 12:0 13:0 14:0 15:0 16:0 17:0 18:-1 19:0 20:1 21:0 22:0 23:0 24:0 25:0 26:0 27:0 28:-1 29:0 30:1 31:0 32:1 33:0 34:0 35:0 36:0 37:0 38:0 39:0 40:-1 41:0 42:2 43:0 44:0 45:1 46:0 47:0 48:0 49:0 50:0 51:0 52:-1 53:0 54:4 55:0 56:0 57:2 58:0 59:0 60:0 
-580.7994790647973 1:0 2:0 3:0 4:0 5:1 6:-3 7:0 8:1 9:-1 10:0 11:0 12:0 13:0 14:0 15:0 16:-1 17:1 18:-1 19:0 20:1 21:-1 22:0 23:0 24:0 25:0 26:0 27:0 28:-1 29:1 30:0 31:0 32:0 33:0 34:0 35:0 36:0 37:0 38:0 39:0 40:-1 41:1 42:2 43:0 44:0 45:1 46:0 47:0 48:0 49:0 50:0 51:0 52:-1 53:0 54:3 55:0 56:1 57:2 58:0 59:0 60:0 
-580.7994790647973 1:0 2:0 3:0 4:-1 5:1 6:-2 7:0 8:0 9:-1 10:0 11:0 12:0 13:0 14:0 15:0 16:-1 17:1 18:0 19:0 20:0 21:0 22:0 23:0 24:0 25:0 26:0 27:0 28:-1 29:0 30:1 31:0 32:1 33:1 34:0 35:0 36:0 37:0 38:0 39:0 40:-1 41:0 42:1 43:0 44:1 45:1 46:0 47:0 48:0 49:0 50:0 51:0 52:0 53:0 54:1 55:0 56:0 57:2 58:0 59:0 60:0 
-580.7994790647973 1:0 2:0 3:0 4:-1 5:1 6:0 7:1 8:1 9:-1 10:0 11:0 12:0 13:0 14:0 15:0 16:0 17:1 18:0 19:1 20:0 21:0 22:0 23:0 24:0 25:0 26:0 27:0 28:0 29:1 30:1 31:1 32:0 33:0 34:0 35:0 36:0 37:0 38:0 39:0 40:0 41:1 42:1 43:1 44:0 45:0 46:0 47:0 48:0 49:0 50:0 51:0 52:0 53:0 54:1 55:0 56:0 57:1 58:0 59:0 60:0 
-366.3749931019299 1:0 2:0 3:0 4:-1 5:0 6:1 7:0 8:1 9:-1 10:0 11:0 12:0 13:0 14:0 15:0 16:-1 17:1 18:1 19:1 20:0 21:0 22:0 23:0 24:0 25:0 26:0 27:0 28:0 29:0 30:0 31:1 32:0 33:0 34:0 35:0 36:0 37:0 38:0 39:0 40:0 41:0 42:0 43:1 44:0 45:0 46:0 47:0 48:0 49:0 50:0 51:0 52:-1 53:0 54:1 55:1 56:0 57:1 58:0 59:0 60:0 
