svm_type c_svc
kernel_type rbf
gamma 0.00012207
nr_class 2
total_sv 25
rho -15.2929
label 1 3
nr_sv 16 9
SV
90.09928926508478 1:-1 2:-153 3:200 4:-28 5:-13 6:-3 7:20 8:74 9:-10 10:3 11:64 12:-5 13:-1 14:-153 15:200 16:-28 17:-12 18:-3 19:20 20:74 21:-10 22:3 23:64 24:-5 25:-1 26:-153 27:200 28:-27 29:-11 30:-4 31:20 32:74 33:-10 34:3 35:64 36:-5 37:-1 38:-153 39:200 40:-27 41:-11 42:-4 43:20 44:74 45:-10 46:3 47:64 48:-5 49:-1 50:-153 51:200 52:-27 53:-11 54:-4 55:20 56:74 57:-10 58:3 59:64 60:-5 
83.81463565276141 1:-1 2:-153 3:200 4:-13 5:-10 6:-1 7:21 8:72 9:-8 10:4 11:64 12:-4 13:-1 14:-153 15:200 16:-13 17:-10 18:-1 19:21 20:72 21:-8 22:4 23:64 24:-4 25:-1 26:-153 27:200 28:-13 29:-10 30:-1 31:21 32:72 33:-8 34:4 35:64 36:-4 37:-1 38:-153 39:200 40:-13 41:-10 42:-1 43:21 44:72 45:-8 46:4 47:64 48:-4 49:-1 50:-153 51:200 52:-13 53:-9 54:-1 55:20 56:74 57:-7 58:4 59:64 60:-5 
12.51922956239956 1:-1 2:-153 3:200 4:-19 5:-14 6:-1 7:18 8:74 9:-12 10:3 11:64 12:-5 13:-1 14:-153 15:200 16:-20 17:-13 18:-1 19:18 20:74 21:-12 22:3 23:64 24:-5 25:-1 26:-153 27:200 28:-21 29:-14 30:0 31:18 32:74 33:-12 34:3 35:64 36:-5 37:-1 38:-153 39:200 40:-21 41:-14 42:-1 43:18 44:74 45:-12 46:3 47:64 48:-5 49:-1 50:-153 51:200 52:-23 53:-13 54:-2 55:18 56:74 57:-12 58:3 59:64 60:-5 
69.66916843054361 1:-1 2:-153 3:200 4:-30 5:-10 6:-5 7:21 8:73 9:-10 10:3 11:64 12:-5 13:-1 14:-153 15:200 16:-30 17:-10 18:-5 19:21 20:73 21:-10 22:3 23:64 24:-5 25:-1 26:-153 27:200 28:-30 29:-10 30:-5 31:21 32:73 33:-10 34:3 35:64 36:-5 37:-1 38:-153 39:200 40:-30 41:-10 42:-5 43:20 44:74 45:-10 46:3 47:64 48:-5 49:-1 50:-153 51:200 52:-31 53:-12 54:-4 55:20 56:74 57:-10 58:3 59:64 60:-5 
81.85565424348211 1:-1 2:-153 3:200 4:-28 5:-13 6:-3 7:20 8:74 9:-10 10:3 11:64 12:-5 13:-1 14:-153 15:200 16:-28 17:-13 18:-3 19:20 20:74 21:-10 22:3 23:64 24:-5 25:-1 26:-153 27:200 28:-28 29:-12 30:-3 31:20 32:74 33:-10 34:3 35:64 36:-5 37:-1 38:-153 39:200 40:-27 41:-11 42:-4 43:20 44:74 45:-10 46:3 47:64 48:-5 49:-1 50:-153 51:200 52:-27 53:-11 54:-4 55:20 56:74 57:-10 58:3 59:64 60:-5 
90.09928926508478 1:-1 2:-153 3:200 4:-28 5:-13 6:-3 7:20 8:74 9:-10 10:3 11:64 12:-5 13:-1 14:-153 15:200 16:-28 17:-12 18:-3 19:20 20:74 21:-10 22:3 23:64 24:-5 25:-1 26:-153 27:200 28:-27 29:-11 30:-4 31:20 32:74 33:-10 34:3 35:64 36:-5 37:-1 38:-153 39:200 40:-27 41:-11 42:-4 43:20 44:74 45:-10 46:3 47:64 48:-5 49:-1 50:-153 51:200 52:-27 53:-11 54:-4 55:20 56:74 57:-10 58:3 59:64 60:-5 
4.897016569592081 1:-1 2:-172 3:200 4:-25 5:-7 6:-14 7:21 8:76 9:-15 10:5 11:72 12:-6 13:-1 14:-171 15:200 16:-24 17:-8 18:-11 19:20 20:73 21:-13 22:4 23:72 24:-5 25:-1 26:-169 27:200 28:-21 29:-9 30:-9 31:20 32:73 33:-13 34:2 35:71 36:-5 37:-1 38:-168 39:200 40:-21 41:-11 42:-8 43:19 44:73 45:-11 46:0 47:71 48:-5 49:0 50:-167 51:200 52:-20 53:-11 54:-7 55:19 56:73 57:-10 58:-1 59:70 60:-5 
43.16648644832037 1:0 2:-154 3:199 4:-18 5:-13 6:0 7:18 8:74 9:-11 10:3 11:63 12:-5 13:-1 14:-153 15:200 16:-19 17:-14 18:-1 19:18 20:74 21:-12 22:3 23:64 24:-5 25:-1 26:-153 27:200 28:-20 29:-13 30:-1 31:18 32:74 33:-12 34:3 35:64 36:-5 37:-1 38:-153 39:200 40:-21 41:-14 42:0 43:18 44:74 45:-12 46:3 47:64 48:-5 49:-1 50:-153 51:200 52:-21 53:-14 54:-1 55:18 56:74 57:-12 58:3 59:64 60:-5 
28.32748397298236 1:-1 2:-153 3:200 4:-29 5:-12 6:-4 7:18 8:73 9:-12 10:3 11:64 12:-5 13:-1 14:-153 15:200 16:-29 17:-12 18:-4 19:18 20:73 21:-12 22:3 23:64 24:-5 25:-1 26:-153 27:200 28:-29 29:-12 30:-4 31:18 32:73 33:-12 34:3 35:64 36:-5 37:-1 38:-153 39:200 40:-29 41:-13 42:-4 43:18 44:73 45:-12 46:3 47:64 48:-5 49:-1 50:-153 51:200 52:-29 53:-13 54:-4 55:18 56:73 57:-12 58:3 59:64 60:-5 
90.09928926508478 1:-1 2:-153 3:200 4:-30 5:-10 6:-5 7:21 8:73 9:-10 10:3 11:64 12:-5 13:-1 14:-153 15:200 16:-30 17:-10 18:-5 19:21 20:73 21:-10 22:3 23:64 24:-5 25:-1 26:-153 27:200 28:-30 29:-10 30:-5 31:21 32:73 33:-10 34:3 35:64 36:-5 37:-1 38:-153 39:200 40:-30 41:-10 42:-5 43:20 44:74 45:-10 46:3 47:64 48:-5 49:-1 50:-153 51:200 52:-31 53:-12 54:-4 55:20 56:74 57:-10 58:3 59:64 60:-5 
32.49726941930248 1:-1 2:-153 3:200 4:-30 5:-10 6:-5 7:20 8:74 9:-10 10:3 11:64 12:-5 13:-1 14:-153 15:200 16:-31 17:-12 18:-4 19:20 20:74 21:-10 22:3 23:64 24:-5 25:-1 26:-153 27:200 28:-31 29:-13 30:-4 31:20 32:74 33:-10 34:3 35:64 36:-5 37:-1 38:-153 39:200 40:-30 41:-13 42:-3 43:20 44:74 45:-10 46:3 47:64 48:-5 49:-1 50:-153 51:200 52:-28 53:-13 54:-3 55:20 56:74 57:-10 58:3 59:64 60:-5 
90.09928926508478 1:-1 2:-153 3:200 4:-28 5:-13 6:-3 7:20 8:74 9:-10 10:3 11:64 12:-5 13:-1 14:-153 15:200 16:-28 17:-13 18:-3 19:20 20:74 21:-10 22:3 23:64 24:-5 25:-1 26:-153 27:200 28:-28 29:-12 30:-3 31:20 32:74 33:-10 34:3 35:64 36:-5 37:-1 38:-153 39:200 40:-27 41:-11 42:-4 43:20 44:74 45:-10 46:3 47:64 48:-5 49:-1 50:-153 51:200 52:-27 53:-11 54:-4 55:20 56:74 57:-10 58:3 59:64 60:-5 
90.09928926508478 1:-1 2:-153 3:200 4:-28 5:-13 6:-3 7:20 8:74 9:-10 10:3 11:64 12:-5 13:-1 14:-153 15:200 16:-28 17:-12 18:-3 19:20 20:74 21:-10 22:3 23:64 24:-5 25:-1 26:-153 27:200 28:-27 29:-11 30:-4 31:20 32:74 33:-10 34:3 35:64 36:-5 37:-1 38:-153 39:200 40:-27 41:-11 42:-4 43:20 44:74 45:-10 46:3 47:64 48:-5 49:-1 50:-153 51:200 52:-27 53:-11 54:-4 55:20 56:74 57:-10 58:3 59:64 60:-5 
2.445960905775494 1:2 2:-154 3:198 4:-14 5:-11 6:-3 7:17 8:76 9:-9 10:-1 11:63 12:-3 13:2 14:-155 15:198 16:-14 17:-11 18:-2 19:17 20:76 21:-9 22:-1 23:64 24:-3 25:2 26:-157 27:197 28:-14 29:-8 30:-1 31:17 32:78 33:-8 34:-2 35:64 36:-2 37:2 38:-158 39:197 40:-15 41:-7 42:-1 43:16 44:78 45:-8 46:-3 47:64 48:-3 49:3 50:-159 51:196 52:-17 53:-5 54:-2 55:16 56:79 57:-7 58:-3 59:64 60:-4 
18.31897683060311 1:2 2:-158 3:197 4:-15 5:-7 6:-1 7:16 8:78 9:-8 10:-3 11:64 12:-3 13:3 14:-159 15:196 16:-17 17:-5 18:-2 19:16 20:79 21:-7 22:-3 23:64 24:-4 25:3 26:-160 27:196 28:-17 29:-5 30:-2 31:16 32:79 33:-7 34:-3 35:64 36:-4 37:3 38:-160 39:196 40:-17 41:-5 42:-2 43:16 44:79 45:-7 46:-3 47:64 48:-4 49:3 50:-162 51:196 52:-18 53:-3 54:-1 55:16 56:79 57:-7 58:-3 59:64 60:-4 
1.738274460081291 1:3 2:-159 3:196 4:-17 5:-5 6:-2 7:16 8:79 9:-7 10:-3 11:64 12:-4 13:3 14:-160 15:196 16:-17 17:-5 18:-2 19:16 20:79 21:-7 22:-3 23:64 24:-4 25:3 26:-160 27:196 28:-17 29:-5 30:-2 31:16 32:79 33:-7 34:-3 35:64 36:-4 37:3 38:-162 39:196 40:-18 41:-3 42:-1 43:16 44:79 45:-7 46:-3 47:64 48:-4 49:3 50:-162 51:196 52:-17 53:4 54:-1 55:14 56:78 57:-5 58:-3 59:64 60:-4 
-141.9007088275666 1:-1 2:-153 3:200 4:-27 5:-11 6:-4 7:20 8:74 9:-10 10:3 11:64 12:-5 13:-1 14:-153 15:200 16:-27 17:-11 18:-4 19:20 20:74 21:-10 22:3 23:64 24:-5 25:-1 26:-153 27:200 28:-26 29:-11 30:-4 31:20 32:74 33:-10 34:3 35:64 36:-5 37:-1 38:-153 39:200 40:-26 41:-11 42:-4 43:20 44:74 45:-10 46:3 47:64 48:-5 49:-1 50:-153 51:200 52:-26 53:-11 54:-4 55:20 56:74 57:-10 58:3 59:64 60:-5 
-51.90055922585371 1:-1 2:-153 3:200 4:-27 5:-11 6:-4 7:20 8:74 9:-10 10:3 11:64 12:-5 13:-1 14:-153 15:200 16:-26 17:-11 18:-4 19:20 20:74 21:-10 22:3 23:64 24:-5 25:-1 26:-153 27:200 28:-26 29:-11 30:-4 31:20 32:74 33:-10 34:3 35:64 36:-5 37:-1 38:-153 39:200 40:-26 41:-11 42:-4 43:20 44:74 45:-10 46:3 47:64 48:-5 49:-1 50:-153 51:200 52:-25 53:-11 54:-3 55:19 56:73 57:-11 58:3 59:64 60:-5 
-141.9007088275666 1:-1 2:-153 3:200 4:-27 5:-11 6:-4 7:20 8:74 9:-10 10:3 11:64 12:-5 13:-1 14:-153 15:200 16:-27 17:-11 18:-4 19:20 20:74 21:-10 22:3 23:64 24:-5 25:-1 26:-153 27:200 28:-26 29:-11 30:-4 31:20 32:74 33:-10 34:3 35:64 36:-5 37:-1 38:-153 39:200 40:-26 41:-11 42:-4 43:20 44:74 45:-10 46:3 47:64 48:-5 49:-1 50:-153 51:200 52:-26 53:-11 54:-4 55:20 56:74 57:-10 58:3 59:64 60:-5 
-141.9007088275666 1:-1 2:-153 3:200 4:-27 5:-11 6:-4 7:20 8:74 9:-10 10:3 11:64 12:-5 13:-1 14:-153 15:200 16:-26 17:-11 18:-4 19:20 20:74 21:-10 22:3 23:64 24:-5 25:-1 26:-153 27:200 28:-26 29:-11 30:-4 31:20 32:74 33:-10 34:3 35:64 36:-5 37:-1 38:-153 39:200 40:-26 41:-11 42:-4 43:20 44:74 45:-10 46:3 47:64 48:-5 49:-1 50:-153 51:200 52:-25 53:-11 54:-3 55:19 56:73 57:-11 58:3 59:64 60:-5 
-141.9007088275666 1:-1 2:-153 3:200 4:-27 5:-11 6:-4 7:20 8:74 9:-10 10:3 11:64 12:-5 13:-1 14:-153 15:200 16:-27 17:-11 18:-4 19:20 20:74 21:-10 22:3 23:64 24:-5 25:-1 26:-153 27:200 28:-26 29:-11 30:-4 31:20 32:74 33:-10 34:3 35:64 36:-5 37:-1 38:-153 39:200 40:-26 41:-11 42:-4 43:20 44:74 45:-10 46:3 47:64 48:-5 49:-1 50:-153 51:200 52:-26 53:-11 54:-4 55:20 56:74 57:-10 58:3 59:64 60:-5 
-141.9007088275666 1:-1 2:-153 3:200 4:-27 5:-11 6:-4 7:20 8:74 9:-10 10:3 11:64 12:-5 13:-1 14:-153 15:200 16:-26 17:-11 18:-4 19:20 20:74 21:-10 22:3 23:64 24:-5 25:-1 26:-153 27:200 28:-26 29:-11 30:-4 31:20 32:74 33:-10 34:3 35:64 36:-5 37:-1 38:-153 39:200 40:-26 41:-11 42:-4 43:20 44:74 45:-10 46:3 47:64 48:-5 49:-1 50:-153 51:200 52:-25 53:-11 54:-3 55:19 56:73 57:-11 58:3 59:64 60:-5 
-23.99930658315834 1:-1 2:-153 3:200 4:-26 5:-11 6:-4 7:20 8:74 9:-10 10:3 11:64 12:-5 13:-1 14:-153 15:200 16:-26 17:-11 18:-4 19:20 20:74 21:-10 22:3 23:64 24:-5 25:-1 26:-153 27:200 28:-26 29:-11 30:-4 31:20 32:74 33:-10 34:3 35:64 36:-5 37:-1 38:-153 39:200 40:-25 41:-11 42:-3 43:19 44:73 45:-11 46:3 47:64 48:-5 49:0 50:-154 51:199 52:-24 53:-10 54:-3 55:19 56:73 57:-9 58:1 59:63 60:-4 
-16.02049708941706 1:0 2:-153 3:199 4:-21 5:-11 6:-2 7:19 8:72 9:-8 10:0 11:63 12:-4 13:0 14:-153 15:199 16:-20 17:-11 18:-2 19:19 20:72 21:-8 22:0 23:63 24:-4 25:0 26:-153 27:199 28:-20 29:-11 30:-2 31:19 32:72 33:-8 34:0 35:63 36:-4 37:0 38:-153 39:199 40:-19 41:-11 42:-3 43:19 44:72 45:-8 46:0 47:63 48:-4 49:0 50:-153 51:199 52:-19 53:-11 54:-4 55:19 56:73 57:-8 58:0 59:63 60:-4 
-28.3226957850056 1:0 2:-155 3:199 4:-13 5:-11 6:-4 7:19 8:74 9:-9 10:1 11:64 12:-4 13:0 14:-154 15:199 16:-13 17:-10 18:-4 19:19 20:74 21:-9 22:1 23:64 24:-4 25:2 26:-154 27:198 28:-14 29:-11 30:-3 31:17 32:74 33:-8 34:-1 35:63 36:-3 37:2 38:-154 39:198 40:-14 41:-11 42:-3 43:17 44:76 45:-9 46:-1 47:63 48:-3 49:2 50:-155 51:198 52:-14 53:-11 54:-2 55:17 56:76 57:-9 58:-1 59:64 60:-3 
