svm_type c_svc
kernel_type rbf
gamma 0.00012207
nr_class 2
total_sv 24
rho -2.40737
label 1 3
nr_sv 15 9
SV
67.46490154387237 1:8 2:-153 3:208 4:-25 5:10 6:4 7:-18 8:47 9:-12 10:5 11:63 12:-9 13:8 14:-153 15:208 16:-25 17:10 18:4 19:-13 20:47 21:-13 22:5 23:63 24:-9 25:8 26:-153 27:208 28:-25 29:10 30:4 31:-8 32:46 33:-14 34:5 35:63 36:-9 37:7 38:-153 39:209 40:-26 41:10 42:4 43:-8 44:46 45:-15 46:5 47:63 48:-10 49:7 50:-153 51:209 52:-26 53:10 54:5 55:-8 56:46 57:-15 58:5 59:63 60:-10 
189.2440905356777 1:8 2:-153 3:208 4:-25 5:10 6:4 7:-8 8:46 9:-14 10:5 11:63 12:-9 13:7 14:-153 15:209 16:-26 17:10 18:4 19:-8 20:46 21:-15 22:5 23:63 24:-10 25:7 26:-153 27:209 28:-26 29:10 30:5 31:-8 32:46 33:-15 34:5 35:63 36:-10 37:7 38:-153 39:209 40:-26 41:10 42:6 43:-8 44:46 45:-15 46:5 47:63 48:-10 49:7 50:-153 51:209 52:-26 53:10 54:6 55:-8 56:46 57:-15 58:5 59:63 60:-10 
12.92929245425558 1:2 2:-151 3:211 4:-4 5:7 6:-50 7:-11 8:35 9:-28 10:5 11:61 12:-13 13:2 14:-151 15:211 16:-4 17:7 18:-50 19:-11 20:35 21:-28 22:5 23:61 24:-13 25:2 26:-151 27:211 28:-4 29:7 30:-50 31:-7 32:37 33:-29 34:5 35:61 36:-13 37:2 38:-151 39:211 40:-4 41:7 42:-50 43:-3 44:38 45:-30 46:5 47:61 48:-13 49:2 50:-151 51:211 52:-4 53:7 54:-50 55:-3 56:38 57:-30 58:5 59:61 60:-13 
4.998719408353721 1:7 2:-157 3:209 4:-23 5:8 6:-7 7:-14 8:46 9:-16 10:5 11:64 12:-9 13:7 14:-158 15:209 16:-24 17:9 18:-5 19:-13 20:47 21:-17 22:5 23:64 24:-9 25:7 26:-158 27:209 28:-24 29:11 30:-4 31:-13 32:47 33:-17 34:5 35:64 36:-9 37:7 38:-156 39:209 40:-24 41:11 42:-3 43:-14 44:46 45:-16 46:5 47:64 48:-9 49:7 50:-155 51:209 52:-24 53:11 54:-1 55:-17 56:47 57:-13 58:5 59:64 60:-9 
28.97651736689913 1:7 2:-153 3:209 4:-28 5:9 6:2 7:-18 8:48 9:-9 10:5 11:63 12:-10 13:7 14:-153 15:209 16:-28 17:9 18:2 19:-18 20:48 21:-9 22:5 23:63 24:-10 25:7 26:-153 27:209 28:-28 29:9 30:2 31:-18 32:48 33:-9 34:5 35:63 36:-10 37:8 38:-153 39:208 40:-28 41:9 42:3 43:-18 44:48 45:-8 46:5 47:63 48:-9 49:8 50:-153 51:208 52:-28 53:9 54:3 55:-14 56:47 57:-11 58:5 59:63 60:-8 
11.57586699062097 1:9 2:-152 3:210 4:-10 5:6 6:-26 7:-13 8:44 9:-21 10:5 11:62 12:-12 13:9 14:-152 15:210 16:-11 17:5 18:-28 19:-10 20:43 21:-23 22:5 23:62 24:-12 25:9 26:-153 27:210 28:-11 29:5 30:-30 31:-8 32:42 33:-25 34:5 35:62 36:-12 37:8 38:-153 39:210 40:-11 41:5 42:-32 43:-8 44:41 45:-25 46:5 47:62 48:-13 49:7 50:-153 51:210 52:-11 53:5 54:-33 55:-8 56:41 57:-26 58:5 59:62 60:-13 
9.720380974356782 1:2 2:-151 3:211 4:-4 5:7 6:-50 7:-11 8:35 9:-28 10:5 11:61 12:-13 13:2 14:-151 15:211 16:-4 17:7 18:-50 19:-7 20:37 21:-29 22:5 23:61 24:-13 25:2 26:-151 27:211 28:-4 29:7 30:-50 31:-3 32:38 33:-30 34:5 35:61 36:-13 37:2 38:-151 39:211 40:-4 41:7 42:-50 43:-3 44:38 45:-30 46:5 47:61 48:-13 49:4 50:-150 51:210 52:-3 53:9 54:-49 55:-3 56:39 57:-29 58:5 59:61 60:-12 
125.7884434411059 1:8 2:-153 3:208 4:-25 5:10 6:4 7:-13 8:47 9:-13 10:5 11:63 12:-9 13:8 14:-153 15:208 16:-25 17:10 18:4 19:-8 20:46 21:-14 22:5 23:63 24:-9 25:7 26:-153 27:209 28:-26 29:10 30:4 31:-8 32:46 33:-15 34:5 35:63 36:-10 37:7 38:-153 39:209 40:-26 41:10 42:5 43:-8 44:46 45:-15 46:5 47:63 48:-10 49:7 50:-153 51:209 52:-26 53:10 54:6 55:-8 56:46 57:-15 58:5 59:63 60:-10 
189.2440905356777 1:8 2:-153 3:208 4:-25 5:10 6:4 7:-8 8:46 9:-14 10:5 11:63 12:-9 13:7 14:-153 15:209 16:-26 17:10 18:4 19:-8 20:46 21:-15 22:5 23:63 24:-10 25:7 26:-153 27:209 28:-26 29:10 30:5 31:-8 32:46 33:-15 34:5 35:63 36:-10 37:7 38:-153 39:209 40:-26 41:10 42:6 43:-8 44:46 45:-15 46:5 47:63 48:-10 49:7 50:-153 51:209 52:-26 53:10 54:6 55:-8 56:46 57:-15 58:5 59:63 60:-10 
57.40972492593118 1:7 2:-153 3:209 4:-27 5:10 6:3 7:-13 8:47 9:-12 10:5 11:63 12:-10 13:7 14:-153 15:209 16:-28 17:9 18:2 19:-18 20:48 21:-9 22:5 23:63 24:-10 25:7 26:-153 27:209 28:-28 29:9 30:2 31:-18 32:48 33:-9 34:5 35:63 36:-10 37:7 38:-153 39:209 40:-28 41:9 42:2 43:-18 44:48 45:-9 46:5 47:63 48:-10 49:7 50:-153 51:209 52:-28 53:9 54:2 55:-18 56:48 57:-9 58:5 59:63 60:-10 
5.299033777367714 1:7 2:-151 3:204 4:-28 5:7 6:5 7:-20 8:42 9:-3 10:5 11:62 12:-4 13:7 14:-151 15:204 16:-27 17:7 18:4 19:-15 20:42 21:-9 22:5 23:62 24:-4 25:7 26:-151 27:204 28:-26 29:7 30:4 31:-15 32:42 33:-9 34:5 35:62 36:-4 37:7 38:-151 39:204 40:-25 41:7 42:4 43:-15 44:42 45:-9 46:5 47:62 48:-4 49:7 50:-151 51:204 52:-25 53:7 54:4 55:-19 56:42 57:-5 58:5 59:62 60:-4 
166.828649680043 1:7 2:-151 3:204 4:-27 5:7 6:4 7:-15 8:42 9:-9 10:5 11:62 12:-4 13:7 14:-151 15:204 16:-26 17:7 18:4 19:-15 20:42 21:-9 22:5 23:62 24:-4 25:7 26:-151 27:204 28:-25 29:7 30:4 31:-15 32:42 33:-9 34:5 35:62 36:-4 37:7 38:-151 39:204 40:-25 41:7 42:4 43:-19 44:42 45:-5 46:5 47:62 48:-4 49:7 50:-151 51:204 52:-25 53:7 54:2 55:-23 56:43 57:0 58:5 59:62 60:-4 
52.1162652634845 1:7 2:-151 3:204 4:-17 5:5 6:-11 7:-19 8:43 9:-6 10:5 11:60 12:-6 13:7 14:-152 15:203 16:-17 17:6 18:-13 19:-19 20:44 21:-5 22:5 23:61 24:-6 25:7 26:-152 27:203 28:-16 29:6 30:-13 31:-15 32:43 33:-8 34:5 35:61 36:-6 37:7 38:-153 39:205 40:-14 41:6 42:-16 43:-10 44:43 45:-15 46:5 47:62 48:-7 49:8 50:-153 51:206 52:-12 53:6 54:-18 55:-10 56:43 57:-19 58:5 59:62 60:-9 
15.87907620736891 1:7 2:-153 3:211 4:-11 5:5 6:-35 7:-11 8:40 9:-25 10:5 11:62 12:-13 13:7 14:-151 15:211 16:-10 17:5 18:-37 19:-11 20:40 21:-25 22:5 23:62 24:-14 25:7 26:-151 27:211 28:-10 29:4 30:-37 31:-14 32:39 33:-25 34:5 35:61 36:-14 37:7 38:-151 39:211 40:-8 41:4 42:-37 43:-14 44:36 45:-27 46:5 47:61 48:-14 49:8 50:-150 51:211 52:-8 53:4 54:-39 55:-13 56:35 57:-27 58:5 59:61 60:-13 
31.13503126816505 1:7 2:-150 3:211 4:-5 5:5 6:-45 7:-3 8:39 9:-28 10:5 11:62 12:-12 13:6 14:-150 15:211 16:-5 17:5 18:-46 19:-3 20:39 21:-29 22:5 23:62 24:-12 25:6 26:-150 27:211 28:-5 29:5 30:-46 31:-3 32:39 33:-29 34:5 35:62 36:-12 37:6 38:-150 39:211 40:-5 41:6 42:-47 43:-3 44:39 45:-29 46:5 47:62 48:-12 49:6 50:-150 51:211 52:-5 53:6 54:-48 55:-1 56:39 57:-29 58:5 59:62 60:-12 
-418.8278291965247 1:7 2:-153 3:209 4:-26 5:10 6:6 7:-8 8:46 9:-15 10:5 11:63 12:-10 13:7 14:-153 15:209 16:-26 17:10 18:6 19:-8 20:46 21:-15 22:5 23:63 24:-10 25:7 26:-153 27:209 28:-26 29:10 30:6 31:-8 32:46 33:-15 34:5 35:63 36:-10 37:7 38:-153 39:209 40:-27 41:10 42:5 43:-8 44:46 45:-15 46:5 47:63 48:-10 49:7 50:-153 51:209 52:-27 53:10 54:4 55:-8 56:46 57:-15 58:5 59:63 60:-10 
-114.1893882256797 1:8 2:-153 3:208 4:-28 5:9 6:3 7:-18 8:48 9:-8 10:5 11:63 12:-9 13:8 14:-153 15:208 16:-28 17:9 18:3 19:-14 20:47 21:-11 22:5 23:63 24:-8 25:8 26:-153 27:208 28:-28 29:9 30:3 31:-11 32:46 33:-14 34:5 35:63 36:-8 37:9 38:-153 39:207 40:-28 41:9 42:4 43:-11 44:45 45:-13 46:5 47:63 48:-8 49:9 50:-153 51:207 52:-27 53:9 54:4 55:-11 56:45 57:-13 58:5 59:63 60:-8 
-118.5634294448202 1:9 2:-153 3:207 4:-26 5:9 6:4 7:-11 8:45 9:-13 10:5 11:63 12:-8 13:9 14:-153 15:207 16:-26 17:9 18:4 19:-11 20:45 21:-13 22:5 23:63 24:-8 25:9 26:-153 27:207 28:-26 29:10 30:4 31:-11 32:45 33:-13 34:5 35:63 36:-8 37:9 38:-153 39:207 40:-26 41:10 42:4 43:-11 44:45 45:-13 46:5 47:63 48:-8 49:9 50:-153 51:207 52:-26 53:10 54:4 55:-11 56:45 57:-13 58:5 59:63 60:-8 
-94.80835506356362 1:9 2:-153 3:207 4:-26 5:10 6:4 7:-11 8:45 9:-13 10:5 11:63 12:-8 13:9 14:-153 15:207 16:-26 17:10 18:4 19:-11 20:45 21:-13 22:5 23:63 24:-8 25:9 26:-153 27:207 28:-26 29:10 30:4 31:-11 32:45 33:-13 34:5 35:63 36:-8 37:9 38:-153 39:207 40:-26 41:10 42:4 43:-18 44:45 45:-7 46:5 47:63 48:-8 49:8 50:-152 51:206 52:-26 53:9 54:5 55:-24 56:44 57:1 58:5 59:62 60:-7 
-68.37697189919908 1:7 2:-151 3:204 4:-25 5:6 6:0 7:-23 8:43 9:0 10:5 11:62 12:-4 13:7 14:-151 15:204 16:-25 17:6 18:-1 19:-19 20:42 21:-5 22:5 23:62 24:-4 25:7 26:-151 27:204 28:-24 29:6 30:-2 31:-15 32:40 33:-9 34:5 35:62 36:-4 37:7 38:-151 39:204 40:-23 41:6 42:-3 43:-15 44:40 45:-9 46:5 47:62 48:-4 49:7 50:-152 51:204 52:-22 53:6 54:-5 55:-16 56:43 57:-9 58:5 59:62 60:-4 
-35.38624958380441 1:7 2:-152 3:204 4:-21 5:6 6:-7 7:-16 8:45 9:-9 10:5 11:62 12:-4 13:7 14:-151 15:204 16:-21 17:6 18:-8 19:-18 20:45 21:-9 22:5 23:62 24:-4 25:7 26:-152 27:204 28:-20 29:6 30:-9 31:-18 32:43 33:-7 34:5 35:61 36:-5 37:7 38:-152 39:204 40:-18 41:5 42:-11 43:-19 44:43 45:-6 46:5 47:61 48:-6 49:7 50:-151 51:204 52:-17 53:5 54:-11 55:-19 56:43 57:-6 58:5 59:60 60:-6 
-36.77009624695275 1:7 2:-151 3:204 4:-21 5:6 6:-8 7:-18 8:45 9:-9 10:5 11:62 12:-4 13:7 14:-152 15:204 16:-20 17:6 18:-9 19:-18 20:43 21:-7 22:5 23:61 24:-5 25:7 26:-152 27:204 28:-18 29:5 30:-11 31:-19 32:43 33:-6 34:5 35:61 36:-6 37:7 38:-151 39:204 40:-17 41:5 42:-11 43:-19 44:43 45:-6 46:5 47:60 48:-6 49:7 50:-152 51:203 52:-17 53:6 54:-13 55:-19 56:44 57:-5 58:5 59:61 60:-6 
-14.22671081747239 1:7 2:-151 3:211 4:-8 5:4 6:-37 7:-14 8:36 9:-27 10:5 11:61 12:-14 13:8 14:-150 15:211 16:-8 17:4 18:-39 19:-13 20:35 21:-27 22:5 23:61 24:-13 25:8 26:-150 27:211 28:-5 29:5 30:-42 31:-13 32:34 33:-27 34:5 35:61 36:-13 37:8 38:-150 39:211 40:-3 41:5 42:-43 43:-7 44:37 45:-27 46:5 47:61 48:-13 49:7 50:-150 51:211 52:-3 53:5 54:-44 55:-3 56:38 57:-28 58:5 59:61 60:-12 
-67.4610538951633 1:8 2:-150 3:211 4:-5 5:5 6:-42 7:-13 8:34 9:-27 10:5 11:61 12:-13 13:8 14:-150 15:211 16:-3 17:5 18:-43 19:-7 20:37 21:-27 22:5 23:61 24:-13 25:7 26:-150 27:211 28:-3 29:5 30:-44 31:-3 32:38 33:-28 34:5 35:61 36:-12 37:7 38:-150 39:211 40:-5 41:5 42:-45 43:-3 44:39 45:-28 46:5 47:62 48:-12 49:6 50:-150 51:211 52:-5 53:5 54:-46 55:-3 56:39 57:-29 58:5 59:62 60:-12 
