svm_type c_svc
kernel_type rbf
gamma 6.10352e-005
nr_class 2
total_sv 355
rho -1.06713
label 1 3
nr_sv 223 132
SV
18.61386138613861 1:-17 2:4 
18.61386138613861 1:-17 2:4 
18.61386138613861 1:-17 2:4 
18.61386138613861 1:-17 2:4 
18.61386138613861 1:-17 2:4 
18.61386138613861 1:-17 2:4 
18.61386138613861 1:-17 2:4 
18.61386138613861 1:-17 2:4 
18.61386138613861 1:-17 2:4 
18.61386138613861 1:-17 2:5 
18.61386138613861 1:-18 2:6 
18.61386138613861 1:-18 2:6 
18.61386138613861 1:-18 2:4 
18.61386138613861 1:-18 2:4 
18.61386138613861 1:-18 2:4 
18.61386138613861 1:-18 2:4 
18.61386138613861 1:-18 2:4 
18.61386138613861 1:-18 2:4 
18.61386138613861 1:-18 2:4 
18.61386138613861 1:-18 2:4 
18.61386138613861 1:-18 2:4 
18.61386138613861 1:-18 2:4 
18.61386138613861 1:-18 2:4 
18.61386138613861 1:-18 2:4 
18.61386138613861 1:-18 2:4 
18.61386138613861 1:-18 2:4 
18.61386138613861 1:-18 2:4 
18.61386138613861 1:-18 2:4 
18.61386138613861 1:-18 2:4 
18.61386138613861 1:-18 2:4 
18.61386138613861 1:-19 2:4 
18.61386138613861 1:-19 2:4 
18.61386138613861 1:-19 2:4 
18.61386138613861 1:-19 2:4 
18.61386138613861 1:-19 2:4 
18.61386138613861 1:-20 2:8 
18.61386138613861 1:-16 2:6 
18.61386138613861 1:-16 2:6 
18.61386138613861 1:-16 2:6 
18.61386138613861 1:-15 2:6 
18.61386138613861 1:-15 2:5 
18.61386138613861 1:-15 2:5 
18.61386138613861 1:-15 2:6 
18.61386138613861 1:-15 2:6 
18.61386138613861 1:-15 2:6 
18.61386138613861 1:-15 2:6 
18.61386138613861 1:-15 2:6 
18.61386138613861 1:-15 2:6 
18.61386138613861 1:-15 2:6 
18.61386138613861 1:-15 2:6 
18.61386138613861 1:-15 2:6 
18.61386138613861 1:-15 2:6 
18.61386138613861 1:-15 2:6 
18.61386138613861 1:-15 2:6 
18.61386138613861 1:-15 2:6 
18.61386138613861 1:-15 2:6 
18.61386138613861 1:-15 2:6 
18.61386138613861 1:-15 2:5 
18.61386138613861 1:-17 2:4 
18.61386138613861 1:-17 2:4 
18.61386138613861 1:-17 2:4 
18.61386138613861 1:-17 2:4 
18.61386138613861 1:-17 2:4 
18.61386138613861 1:-17 2:4 
18.61386138613861 1:-17 2:4 
18.61386138613861 1:-17 2:4 
18.61386138613861 1:-17 2:4 
18.61386138613861 1:-17 2:5 
18.61386138613861 1:-18 2:6 
18.61386138613861 1:-18 2:6 
18.61386138613861 1:-18 2:4 
18.61386138613861 1:-18 2:4 
18.61386138613861 1:-18 2:4 
18.61386138613861 1:-18 2:4 
18.61386138613861 1:-18 2:4 
18.61386138613861 1:-18 2:4 
18.61386138613861 1:-18 2:4 
18.61386138613861 1:-18 2:4 
18.61386138613861 1:-18 2:4 
18.61386138613861 1:-18 2:4 
18.61386138613861 1:-18 2:4 
18.61386138613861 1:-18 2:4 
18.61386138613861 1:-18 2:4 
18.61386138613861 1:-18 2:4 
18.61386138613861 1:-18 2:4 
18.61386138613861 1:-18 2:4 
18.61386138613861 1:-18 2:4 
18.61386138613861 1:-18 2:4 
18.61386138613861 1:-19 2:4 
18.61386138613861 1:-19 2:4 
18.61386138613861 1:-19 2:4 
18.61386138613861 1:-19 2:4 
18.61386138613861 1:-19 2:4 
18.61386138613861 1:-20 2:8 
18.61386138613861 1:-16 2:6 
18.61386138613861 1:-16 2:6 
18.61386138613861 1:-16 2:6 
18.61386138613861 1:-15 2:6 
18.61386138613861 1:-15 2:5 
18.61386138613861 1:-15 2:5 
18.61386138613861 1:-15 2:6 
18.61386138613861 1:-15 2:6 
18.61386138613861 1:-15 2:6 
18.61386138613861 1:-15 2:6 
18.61386138613861 1:-15 2:6 
18.61386138613861 1:-15 2:6 
18.61386138613861 1:-15 2:6 
18.61386138613861 1:-15 2:6 
18.61386138613861 1:-15 2:6 
18.61386138613861 1:-15 2:6 
18.61386138613861 1:-15 2:6 
18.61386138613861 1:-15 2:6 
18.61386138613861 1:-15 2:6 
18.61386138613861 1:-15 2:6 
18.61386138613861 1:-15 2:6 
18.61386138613861 1:-15 2:5 
10.69306930693112 1:-14 2:5 
18.61386138613861 1:-14 2:5 
18.61386138613861 1:-14 2:5 
18.61386138613861 1:-14 2:5 
18.61386138613861 1:-14 2:5 
18.61386138613861 1:-14 2:5 
18.61386138613861 1:-14 2:5 
18.61386138613861 1:-14 2:5 
18.61386138613861 1:-14 2:5 
18.61386138613861 1:-14 2:5 
18.61386138613861 1:-14 2:5 
18.61386138613861 1:-14 2:5 
18.61386138613861 1:-14 2:5 
18.61386138613861 1:-14 2:5 
18.61386138613861 1:-14 2:5 
18.61386138613861 1:-14 2:5 
18.61386138613861 1:-17 2:4 
18.61386138613861 1:-17 2:4 
18.61386138613861 1:-17 2:4 
18.61386138613861 1:-17 2:4 
18.61386138613861 1:-17 2:4 
18.61386138613861 1:-17 2:4 
18.61386138613861 1:-17 2:4 
18.61386138613861 1:-17 2:4 
18.61386138613861 1:-17 2:4 
18.61386138613861 1:-17 2:5 
18.61386138613861 1:-18 2:6 
18.61386138613861 1:-18 2:6 
18.61386138613861 1:-18 2:4 
18.61386138613861 1:-18 2:4 
18.61386138613861 1:-18 2:4 
18.61386138613861 1:-18 2:4 
18.61386138613861 1:-18 2:4 
18.61386138613861 1:-18 2:4 
18.61386138613861 1:-18 2:4 
18.61386138613861 1:-18 2:4 
18.61386138613861 1:-18 2:4 
18.61386138613861 1:-18 2:4 
18.61386138613861 1:-18 2:4 
18.61386138613861 1:-18 2:4 
18.61386138613861 1:-18 2:4 
18.61386138613861 1:-18 2:4 
18.61386138613861 1:-18 2:4 
18.61386138613861 1:-18 2:4 
18.61386138613861 1:-18 2:4 
18.61386138613861 1:-18 2:4 
18.61386138613861 1:-19 2:4 
18.61386138613861 1:-19 2:4 
18.61386138613861 1:-19 2:4 
18.61386138613861 1:-19 2:4 
18.61386138613861 1:-19 2:4 
18.61386138613861 1:-20 2:8 
18.61386138613861 1:-16 2:6 
18.61386138613861 1:-16 2:6 
18.61386138613861 1:-16 2:6 
18.61386138613861 1:-15 2:6 
18.61386138613861 1:-14 2:5 
18.61386138613861 1:-14 2:5 
18.61386138613861 1:-14 2:5 
18.61386138613861 1:-15 2:5 
18.61386138613861 1:-15 2:5 
18.61386138613861 1:-15 2:6 
18.61386138613861 1:-15 2:6 
18.61386138613861 1:-15 2:6 
18.61386138613861 1:-15 2:6 
18.61386138613861 1:-15 2:6 
18.61386138613861 1:-15 2:6 
18.61386138613861 1:-15 2:6 
18.61386138613861 1:-15 2:6 
18.61386138613861 1:-15 2:6 
18.61386138613861 1:-15 2:6 
18.61386138613861 1:-15 2:6 
18.61386138613861 1:-15 2:6 
18.61386138613861 1:-15 2:6 
18.61386138613861 1:-15 2:6 
18.61386138613861 1:-15 2:6 
18.61386138613861 1:-14 2:5 
18.61386138613861 1:-14 2:5 
18.61386138613861 1:-14 2:5 
18.61386138613861 1:-15 2:5 
18.61386138613861 1:-14 2:5 
18.61386138613861 1:-14 2:5 
18.61386138613861 1:-14 2:5 
18.61386138613861 1:-14 2:5 
18.61386138613861 1:-14 2:5 
18.61386138613861 1:-14 2:5 
18.61386138613861 1:-14 2:5 
18.61386138613861 1:-14 2:5 
18.61386138613861 1:-14 2:5 
18.61386138613861 1:-14 2:5 
18.61386138613861 1:-14 2:5 
18.61386138613861 1:-14 2:5 
18.61386138613861 1:-14 2:5 
18.61386138613861 1:-14 2:5 
18.61386138613861 1:-14 2:5 
18.61386138613861 1:-14 2:5 
18.61386138613861 1:-14 2:5 
18.61386138613861 1:-14 2:5 
18.61386138613861 1:-14 2:5 
18.61386138613861 1:-14 2:5 
18.61386138613861 1:-14 2:5 
18.61386138613861 1:-14 2:5 
18.61386138613861 1:-14 2:5 
18.61386138613861 1:-14 2:5 
18.61386138613861 1:-14 2:5 
18.61386138613861 1:-14 2:5 
18.61386138613861 1:-14 2:5 
-31.38613861386139 1:-18 2:6 
-31.38613861386139 1:-17 2:6 
-31.38613861386139 1:-17 2:6 
-31.38613861386139 1:-17 2:6 
-31.38613861386139 1:-17 2:6 
-31.38613861386139 1:-17 2:6 
-31.38613861386139 1:-17 2:6 
-31.38613861386139 1:-17 2:6 
-31.38613861386139 1:-17 2:6 
-31.38613861386139 1:-17 2:6 
-31.38613861386139 1:-17 2:6 
-31.38613861386139 1:-17 2:6 
-31.38613861386139 1:-17 2:6 
-31.38613861386139 1:-17 2:6 
-31.38613861386139 1:-17 2:6 
-31.38613861386139 1:-17 2:6 
-31.38613861386139 1:-17 2:6 
-31.38613861386139 1:-17 2:6 
-31.38613861386139 1:-17 2:6 
-31.38613861386139 1:-17 2:6 
-31.38613861386139 1:-17 2:6 
-31.38613861386139 1:-17 2:6 
-31.38613861386139 1:-17 2:6 
-31.38613861386139 1:-17 2:6 
-31.38613861386139 1:-17 2:6 
-31.38613861386139 1:-17 2:6 
-31.38613861386139 1:-17 2:6 
-31.38613861386139 1:-17 2:6 
-31.38613861386139 1:-17 2:6 
-31.38613861386139 1:-17 2:6 
-31.38613861386139 1:-17 2:6 
-31.38613861386139 1:-16 2:6 
-31.38613861386139 1:-16 2:6 
-31.38613861386139 1:-16 2:6 
-31.38613861386139 1:-16 2:6 
-31.38613861386139 1:-16 2:6 
-31.38613861386139 1:-16 2:6 
-31.38613861386139 1:-16 2:6 
-31.38613861386139 1:-16 2:6 
-31.38613861386139 1:-16 2:6 
-31.38613861386139 1:-16 2:6 
-31.38613861386139 1:-16 2:6 
-31.38613861386139 1:-16 2:6 
-31.38613861386139 1:-16 2:6 
-31.38613861386139 1:-18 2:6 
-31.38613861386139 1:-17 2:6 
-31.38613861386139 1:-17 2:6 
-31.38613861386139 1:-17 2:6 
-31.38613861386139 1:-17 2:6 
-31.38613861386139 1:-17 2:6 
-31.38613861386139 1:-17 2:6 
-31.38613861386139 1:-17 2:6 
-31.38613861386139 1:-17 2:6 
-31.38613861386139 1:-17 2:6 
-31.38613861386139 1:-17 2:6 
-31.38613861386139 1:-17 2:6 
-31.38613861386139 1:-17 2:6 
-31.38613861386139 1:-17 2:6 
-31.38613861386139 1:-17 2:6 
-31.38613861386139 1:-17 2:6 
-31.38613861386139 1:-17 2:6 
-31.38613861386139 1:-17 2:6 
-31.38613861386139 1:-17 2:6 
-31.38613861386139 1:-17 2:6 
-31.38613861386139 1:-17 2:6 
-31.38613861386139 1:-17 2:6 
-31.38613861386139 1:-17 2:6 
-31.38613861386139 1:-17 2:6 
-31.38613861386139 1:-17 2:6 
-31.38613861386139 1:-17 2:6 
-31.38613861386139 1:-17 2:6 
-31.38613861386139 1:-17 2:6 
-31.38613861386139 1:-17 2:6 
-31.38613861386139 1:-17 2:6 
-31.38613861386139 1:-17 2:6 
-31.38613861386139 1:-16 2:6 
-31.38613861386139 1:-16 2:6 
-31.38613861386139 1:-16 2:6 
-31.38613861386139 1:-16 2:6 
-31.38613861386139 1:-16 2:6 
-31.38613861386139 1:-16 2:6 
-31.38613861386139 1:-16 2:6 
-31.38613861386139 1:-16 2:6 
-31.38613861386139 1:-16 2:6 
-31.38613861386139 1:-16 2:6 
-31.38613861386139 1:-16 2:6 
-31.38613861386139 1:-16 2:6 
-31.38613861386139 1:-16 2:6 
-31.38613861386139 1:-18 2:6 
-31.38613861386139 1:-17 2:6 
-31.38613861386139 1:-17 2:6 
-31.38613861386139 1:-17 2:6 
-31.38613861386139 1:-17 2:6 
-31.38613861386139 1:-17 2:6 
-31.38613861386139 1:-17 2:6 
-31.38613861386139 1:-17 2:6 
-31.38613861386139 1:-17 2:6 
-31.38613861386139 1:-17 2:6 
-31.38613861386139 1:-17 2:6 
-31.38613861386139 1:-17 2:6 
-31.38613861386139 1:-17 2:6 
-31.38613861386139 1:-17 2:6 
-31.38613861386139 1:-17 2:6 
-31.38613861386139 1:-17 2:6 
-31.38613861386139 1:-17 2:6 
-31.38613861386139 1:-17 2:6 
-31.38613861386139 1:-17 2:6 
-31.38613861386139 1:-17 2:6 
-31.38613861386139 1:-17 2:6 
-31.38613861386139 1:-17 2:6 
-31.38613861386139 1:-17 2:6 
-31.38613861386139 1:-17 2:6 
-31.38613861386139 1:-17 2:6 
-31.38613861386139 1:-17 2:6 
-31.38613861386139 1:-17 2:6 
-31.38613861386139 1:-17 2:6 
-31.38613861386139 1:-17 2:6 
-31.38613861386139 1:-17 2:6 
-31.38613861386139 1:-17 2:6 
-31.38613861386139 1:-16 2:6 
-31.38613861386139 1:-16 2:6 
-31.38613861386139 1:-16 2:6 
-31.38613861386139 1:-16 2:6 
-31.38613861386139 1:-16 2:6 
-31.38613861386139 1:-16 2:6 
-31.38613861386139 1:-16 2:6 
-31.38613861386139 1:-16 2:6 
-31.38613861386139 1:-16 2:6 
-31.38613861386139 1:-16 2:6 
-31.38613861386139 1:-16 2:6 
-31.38613861386139 1:-16 2:6 
-31.38613861386139 1:-16 2:6 
