svm_type c_svc
kernel_type rbf
gamma 6.10352e-005
nr_class 2
total_sv 273
rho -5.95899
label 1 3
nr_sv 220 53
SV
0.9522026406468044 1:-4 2:-37 3:-13 4:-55 5:18 6:-7 7:42 8:24 9:-3 10:2 11:34 12:-2 13:-4 14:-37 15:-14 16:-52 17:21 18:-9 19:38 20:24 21:-2 22:2 23:34 24:-2 25:-3 26:-38 27:-13 28:-48 29:19 30:-10 31:36 32:24 33:0 34:2 35:34 36:-2 
1.561752988047809 1:-4 2:-37 3:-14 4:-52 5:21 6:-9 7:38 8:24 9:-2 10:2 11:34 12:-2 13:-3 14:-38 15:-13 16:-48 17:19 18:-10 19:36 20:24 21:0 22:2 23:34 24:-2 25:-3 26:-38 27:-13 28:-46 29:19 30:-11 31:34 32:24 33:3 34:2 35:34 36:-1 
1.561752988047809 1:-3 2:-38 3:-13 4:-48 5:19 6:-10 7:36 8:24 9:0 10:2 11:34 12:-2 13:-3 14:-38 15:-13 16:-46 17:19 18:-11 19:34 20:24 21:3 22:2 23:34 24:-1 25:-3 26:-38 27:-13 28:-43 29:20 30:-11 31:33 32:24 33:5 34:2 35:34 36:-1 
1.561752988047809 1:-3 2:-38 3:-13 4:-46 5:19 6:-11 7:34 8:24 9:3 10:2 11:34 12:-1 13:-3 14:-38 15:-13 16:-43 17:20 18:-11 19:33 20:24 21:5 22:2 23:34 24:-1 25:-3 26:-38 27:-13 28:-40 29:21 30:-11 31:32 32:24 33:8 34:3 35:34 36:-1 
0.2394782510573687 1:-3 2:-38 3:-13 4:-43 5:20 6:-11 7:33 8:24 9:5 10:2 11:34 12:-1 13:-3 14:-38 15:-13 16:-40 17:21 18:-11 19:32 20:24 21:8 22:3 23:34 24:-1 25:-3 26:-39 27:-13 28:-38 29:21 30:-10 31:31 32:23 33:11 34:3 35:34 36:-1 
1.561752988047809 1:1 2:-36 3:-15 4:-30 5:23 6:-3 7:18 8:21 9:0 10:1 11:33 12:-1 13:2 14:-36 15:-16 16:-29 17:24 18:-2 19:16 20:21 21:6 22:1 23:33 24:0 25:1 26:-35 27:-16 28:-29 29:24 30:-1 31:14 32:21 33:9 34:2 35:33 36:0 
1.561752988047809 1:2 2:-36 3:-16 4:-29 5:24 6:-2 7:16 8:21 9:6 10:1 11:33 12:0 13:1 14:-35 15:-16 16:-29 17:24 18:-1 19:14 20:21 21:9 22:2 23:33 24:0 25:2 26:-35 27:-15 28:-27 29:23 30:0 31:14 32:21 33:9 34:2 35:33 36:0 
1.561752988047809 1:1 2:-35 3:-16 4:-29 5:24 6:-1 7:14 8:21 9:9 10:2 11:33 12:0 13:2 14:-35 15:-15 16:-27 17:23 18:0 19:14 20:21 21:9 22:2 23:33 24:0 25:2 26:-35 27:-15 28:-26 29:21 30:1 31:13 32:21 33:9 34:2 35:33 36:-1 
1.561752988047809 1:2 2:-35 3:-15 4:-27 5:23 6:0 7:14 8:21 9:9 10:2 11:33 12:0 13:2 14:-35 15:-15 16:-26 17:21 18:1 19:13 20:21 21:9 22:2 23:33 24:-1 25:2 26:-35 27:-15 28:-26 29:20 30:1 31:13 32:21 33:8 34:2 35:33 36:-1 
1.561752988047809 1:2 2:-35 3:-15 4:-26 5:20 6:1 7:13 8:21 9:8 10:2 11:33 12:-1 13:3 14:-36 15:-14 16:-26 17:20 18:1 19:14 20:20 21:8 22:1 23:33 24:-1 25:4 26:-36 27:-13 28:-24 29:19 30:2 31:14 32:20 33:9 34:1 35:32 36:-1 
1.561752988047809 1:7 2:-32 3:-6 4:-16 5:14 6:-1 7:17 8:16 9:21 10:-1 11:27 12:-2 13:6 14:-32 15:-6 16:-16 17:14 18:-1 19:17 20:16 21:21 22:-1 23:27 24:-2 25:7 26:-31 27:-6 28:-17 29:15 30:3 31:17 32:17 33:18 34:-1 35:26 36:-2 
1.561752988047809 1:6 2:-32 3:-6 4:-16 5:14 6:-1 7:17 8:16 9:21 10:-1 11:27 12:-2 13:7 14:-31 15:-6 16:-17 17:15 18:3 19:17 20:17 21:18 22:-1 23:26 24:-2 25:7 26:-30 27:-6 28:-18 29:16 30:6 31:16 32:19 33:15 34:-1 35:26 36:-3 
1.561752988047809 1:8 2:-29 3:-7 4:-18 5:19 6:6 7:13 8:24 9:13 10:-1 11:26 12:-2 13:8 14:-28 15:-8 16:-18 17:21 18:6 19:10 20:30 21:12 22:-1 23:26 24:-2 25:8 26:-28 27:-8 28:-18 29:21 30:6 31:10 32:30 33:12 34:-1 35:26 36:-2 
1.561752988047809 1:8 2:-28 3:-8 4:-18 5:21 6:6 7:10 8:30 9:12 10:-1 11:26 12:-2 13:8 14:-28 15:-8 16:-18 17:21 18:6 19:10 20:30 21:12 22:-1 23:26 24:-2 25:8 26:-27 27:-9 28:-18 29:21 30:6 31:11 32:25 33:10 34:-1 35:26 36:-2 
1.561752988047809 1:8 2:-28 3:-8 4:-18 5:21 6:6 7:10 8:30 9:12 10:-1 11:26 12:-2 13:8 14:-27 15:-9 16:-18 17:21 18:6 19:11 20:25 21:10 22:-1 23:26 24:-2 25:7 26:-27 27:-9 28:-17 29:21 30:6 31:13 32:20 33:9 34:-1 35:26 36:-2 
1.561752988047809 1:8 2:-27 3:-9 4:-18 5:21 6:6 7:11 8:25 9:10 10:-1 11:26 12:-2 13:7 14:-27 15:-9 16:-17 17:21 18:6 19:13 20:20 21:9 22:-1 23:26 24:-2 25:7 26:-26 27:-9 28:-18 29:21 30:5 31:13 32:20 33:8 34:-1 35:26 36:-3 
1.561752988047809 1:7 2:-27 3:-9 4:-17 5:21 6:6 7:13 8:20 9:9 10:-1 11:26 12:-2 13:7 14:-26 15:-9 16:-18 17:21 18:5 19:13 20:20 21:8 22:-1 23:26 24:-3 25:7 26:-26 27:-9 28:-20 29:21 30:5 31:13 32:20 33:8 34:-1 35:26 36:-3 
1.561752988047809 1:7 2:-26 3:-9 4:-18 5:21 6:5 7:13 8:20 9:8 10:-1 11:26 12:-3 13:7 14:-26 15:-9 16:-20 17:21 18:5 19:13 20:20 21:8 22:-1 23:26 24:-3 25:6 26:-26 27:-9 28:-21 29:20 30:6 31:13 32:20 33:8 34:-1 35:26 36:-3 
1.561752988047809 1:7 2:-26 3:-9 4:-20 5:21 6:5 7:13 8:20 9:8 10:-1 11:26 12:-3 13:6 14:-26 15:-9 16:-21 17:20 18:6 19:13 20:20 21:8 22:-1 23:26 24:-3 25:6 26:-26 27:-9 28:-21 29:20 30:6 31:13 32:20 33:8 34:-1 35:26 36:-3 
1.561752988047809 1:6 2:-26 3:-9 4:-21 5:20 6:6 7:13 8:20 9:8 10:-1 11:26 12:-3 13:6 14:-26 15:-9 16:-21 17:20 18:6 19:13 20:20 21:8 22:-1 23:26 24:-3 25:6 26:-26 27:-9 28:-22 29:20 30:5 31:13 32:20 33:8 34:-1 35:26 36:-3 
1.561752988047809 1:6 2:-26 3:-9 4:-21 5:20 6:6 7:13 8:20 9:8 10:-1 11:26 12:-3 13:6 14:-26 15:-9 16:-22 17:20 18:5 19:13 20:20 21:8 22:-1 23:26 24:-3 25:6 26:-26 27:-9 28:-22 29:20 30:5 31:13 32:20 33:8 34:-1 35:26 36:-3 
1.561752988047809 1:6 2:-26 3:-9 4:-22 5:20 6:5 7:13 8:20 9:8 10:-1 11:26 12:-3 13:6 14:-26 15:-9 16:-22 17:20 18:5 19:13 20:20 21:8 22:-1 23:26 24:-3 25:6 26:-26 27:-9 28:-22 29:20 30:5 31:13 32:20 33:8 34:-1 35:26 36:-3 
1.561752988047809 1:6 2:-26 3:-9 4:-22 5:20 6:5 7:13 8:20 9:8 10:-1 11:26 12:-3 13:6 14:-26 15:-9 16:-22 17:20 18:5 19:13 20:20 21:8 22:-1 23:26 24:-3 25:6 26:-26 27:-9 28:-22 29:20 30:5 31:13 32:20 33:8 34:-1 35:27 36:-3 
1.561752988047809 1:6 2:-27 3:-10 4:-22 5:21 6:4 7:14 8:18 9:8 10:-1 11:27 12:-3 13:7 14:-28 15:-10 16:-21 17:23 18:4 19:14 20:19 21:7 22:-1 23:27 24:-3 25:7 26:-30 27:-8 28:-10 29:-7 30:0 31:13 32:16 33:6 34:-1 35:27 36:-3 
1.561752988047809 1:6 2:-29 3:-9 4:-18 5:23 6:6 7:11 8:16 9:4 10:-1 11:27 12:-3 13:6 14:-28 15:-9 16:-18 17:23 18:6 19:12 20:16 21:4 22:-1 23:27 24:-3 25:6 26:-27 27:-9 28:-18 29:23 30:5 31:12 32:16 33:3 34:-1 35:27 36:-4 
1.561752988047809 1:6 2:-28 3:-9 4:-18 5:23 6:6 7:12 8:16 9:4 10:-1 11:27 12:-3 13:6 14:-27 15:-9 16:-18 17:23 18:5 19:12 20:16 21:3 22:-1 23:27 24:-4 25:6 26:-27 27:-8 28:-18 29:23 30:5 31:12 32:16 33:3 34:-1 35:27 36:-4 
1.561752988047809 1:6 2:-27 3:-8 4:-18 5:23 6:5 7:12 8:16 9:3 10:-1 11:27 12:-4 13:6 14:-27 15:-8 16:-18 17:23 18:5 19:12 20:16 21:3 22:-1 23:27 24:-4 25:6 26:-27 27:-8 28:-18 29:23 30:5 31:12 32:16 33:3 34:-1 35:27 36:-4 
1.561752988047809 1:6 2:-27 3:-8 4:-18 5:23 6:5 7:12 8:16 9:3 10:-1 11:27 12:-4 13:6 14:-27 15:-8 16:-18 17:23 18:5 19:12 20:16 21:3 22:-1 23:27 24:-4 25:6 26:-27 27:-8 28:-18 29:23 30:5 31:12 32:16 33:3 34:-1 35:27 36:-4 
1.561752988047809 1:6 2:-27 3:-8 4:-18 5:23 6:5 7:12 8:16 9:3 10:-1 11:27 12:-4 13:6 14:-27 15:-8 16:-18 17:23 18:5 19:12 20:16 21:3 22:-1 23:27 24:-4 25:6 26:-27 27:-8 28:-18 29:23 30:5 31:12 32:16 33:3 34:-1 35:27 36:-4 
1.561752988047809 1:6 2:-27 3:-8 4:-18 5:23 6:5 7:12 8:16 9:3 10:-1 11:27 12:-4 13:6 14:-27 15:-8 16:-18 17:23 18:5 19:12 20:16 21:3 22:-1 23:27 24:-4 25:6 26:-27 27:-8 28:-18 29:23 30:5 31:12 32:16 33:3 34:-1 35:27 36:-4 
1.561752988047809 1:6 2:-27 3:-8 4:-18 5:23 6:5 7:12 8:16 9:3 10:-1 11:27 12:-4 13:6 14:-27 15:-8 16:-18 17:23 18:5 19:12 20:16 21:3 22:-1 23:27 24:-4 25:6 26:-27 27:-8 28:-18 29:23 30:5 31:12 32:16 33:3 34:-1 35:27 36:-4 
1.561752988047809 1:6 2:-27 3:-8 4:-18 5:23 6:5 7:12 8:16 9:3 10:-1 11:27 12:-4 13:6 14:-27 15:-8 16:-18 17:23 18:5 19:12 20:16 21:3 22:-1 23:27 24:-4 25:6 26:-27 27:-8 28:-18 29:23 30:5 31:12 32:16 33:3 34:-1 35:27 36:-4 
1.561752988047809 1:6 2:-27 3:-8 4:-18 5:23 6:5 7:12 8:16 9:3 10:-1 11:27 12:-4 13:6 14:-27 15:-8 16:-18 17:23 18:5 19:12 20:16 21:3 22:-1 23:27 24:-4 25:6 26:-27 27:-8 28:-18 29:23 30:5 31:12 32:16 33:3 34:-1 35:27 36:-4 
1.561752988047809 1:6 2:-27 3:-8 4:-18 5:23 6:5 7:12 8:16 9:3 10:-1 11:27 12:-4 13:6 14:-27 15:-8 16:-18 17:23 18:5 19:12 20:16 21:3 22:-1 23:27 24:-4 25:6 26:-27 27:-8 28:-18 29:23 30:5 31:12 32:16 33:3 34:-1 35:27 36:-4 
1.561752988047809 1:6 2:-27 3:-8 4:-18 5:23 6:5 7:12 8:16 9:3 10:-1 11:27 12:-4 13:6 14:-27 15:-8 16:-18 17:23 18:5 19:12 20:16 21:3 22:-1 23:27 24:-4 25:5 26:-27 27:-8 28:-18 29:23 30:5 31:12 32:16 33:3 34:-1 35:27 36:-4 
1.561752988047809 1:6 2:-27 3:-8 4:-18 5:23 6:5 7:12 8:16 9:3 10:-1 11:27 12:-4 13:5 14:-27 15:-8 16:-18 17:23 18:5 19:12 20:16 21:3 22:-1 23:27 24:-4 25:6 26:-28 27:-9 28:-18 29:23 30:6 31:12 32:16 33:4 34:-1 35:27 36:-4 
1.561752988047809 1:5 2:-27 3:-8 4:-18 5:23 6:5 7:12 8:16 9:3 10:-1 11:27 12:-4 13:6 14:-28 15:-9 16:-18 17:23 18:6 19:12 20:16 21:4 22:-1 23:27 24:-4 25:6 26:-28 27:-9 28:-18 29:23 30:6 31:11 32:16 33:4 34:-1 35:27 36:-4 
1.561752988047809 1:6 2:-28 3:-9 4:-18 5:23 6:6 7:11 8:16 9:4 10:-1 11:27 12:-4 13:6 14:-28 15:-9 16:-18 17:23 18:6 19:11 20:16 21:4 22:-1 23:27 24:-4 25:6 26:-28 27:-9 28:-18 29:23 30:6 31:11 32:16 33:4 34:-1 35:27 36:-4 
1.561752988047809 1:6 2:-28 3:-9 4:-18 5:23 6:6 7:11 8:16 9:4 10:-1 11:27 12:-4 13:6 14:-28 15:-9 16:-18 17:23 18:6 19:11 20:16 21:4 22:-1 23:27 24:-4 25:6 26:-28 27:-9 28:-18 29:23 30:6 31:11 32:16 33:4 34:-1 35:27 36:-4 
1.561752988047809 1:6 2:-28 3:-9 4:-18 5:23 6:6 7:11 8:16 9:4 10:-1 11:27 12:-4 13:6 14:-28 15:-9 16:-18 17:23 18:6 19:11 20:16 21:4 22:-1 23:27 24:-4 25:6 26:-27 27:-9 28:-18 29:23 30:6 31:11 32:16 33:4 34:-1 35:27 36:-4 
1.561752988047809 1:6 2:-28 3:-9 4:-18 5:23 6:6 7:11 8:16 9:4 10:-1 11:27 12:-4 13:6 14:-27 15:-9 16:-18 17:23 18:6 19:11 20:16 21:4 22:-1 23:27 24:-4 25:6 26:-27 27:-9 28:-18 29:23 30:6 31:11 32:16 33:4 34:-1 35:27 36:-4 
1.561752988047809 1:6 2:-27 3:-9 4:-18 5:23 6:6 7:11 8:16 9:4 10:-1 11:27 12:-4 13:6 14:-27 15:-9 16:-18 17:23 18:6 19:11 20:16 21:4 22:-1 23:27 24:-4 25:6 26:-27 27:-9 28:-18 29:23 30:6 31:11 32:16 33:4 34:-1 35:27 36:-4 
1.561752988047809 1:6 2:-27 3:-9 4:-18 5:23 6:6 7:11 8:16 9:4 10:-1 11:27 12:-4 13:6 14:-27 15:-9 16:-18 17:23 18:6 19:12 20:16 21:4 22:-1 23:27 24:-4 25:6 26:-27 27:-9 28:-18 29:23 30:6 31:12 32:16 33:4 34:-1 35:27 36:-4 
1.561752988047809 1:6 2:-27 3:-9 4:-18 5:23 6:6 7:12 8:16 9:4 10:-1 11:27 12:-4 13:6 14:-27 15:-9 16:-18 17:23 18:6 19:12 20:16 21:4 22:-1 23:27 24:-4 25:6 26:-27 27:-9 28:-18 29:23 30:6 31:12 32:16 33:4 34:-1 35:27 36:-4 
1.561752988047809 1:6 2:-27 3:-9 4:-18 5:23 6:6 7:12 8:16 9:4 10:-1 11:27 12:-4 13:6 14:-27 15:-9 16:-18 17:23 18:6 19:12 20:16 21:4 22:-1 23:27 24:-4 25:6 26:-27 27:-9 28:-18 29:23 30:6 31:12 32:16 33:4 34:-1 35:27 36:-4 
1.561752988047809 1:6 2:-27 3:-9 4:-18 5:23 6:6 7:12 8:16 9:4 10:-1 11:27 12:-4 13:6 14:-27 15:-9 16:-18 17:23 18:6 19:12 20:16 21:4 22:-1 23:27 24:-4 25:6 26:-27 27:-9 28:-18 29:23 30:6 31:12 32:16 33:4 34:-1 35:27 36:-4 
1.561752988047809 1:6 2:-27 3:-9 4:-18 5:23 6:6 7:12 8:16 9:4 10:-1 11:27 12:-4 13:6 14:-27 15:-9 16:-18 17:23 18:6 19:12 20:16 21:4 22:-1 23:27 24:-4 25:6 26:-27 27:-9 28:-18 29:23 30:6 31:12 32:16 33:4 34:-1 35:27 36:-4 
1.561752988047809 1:6 2:-27 3:-9 4:-18 5:23 6:6 7:12 8:16 9:4 10:-1 11:27 12:-4 13:6 14:-27 15:-9 16:-18 17:23 18:6 19:12 20:16 21:4 22:-1 23:27 24:-4 25:6 26:-27 27:-9 28:-18 29:23 30:6 31:12 32:16 33:4 34:-1 35:27 36:-4 
1.561752988047809 1:6 2:-27 3:-9 4:-18 5:23 6:6 7:12 8:16 9:4 10:-1 11:27 12:-4 13:6 14:-27 15:-9 16:-18 17:23 18:6 19:12 20:16 21:4 22:-1 23:27 24:-4 25:6 26:-27 27:-9 28:-18 29:23 30:6 31:12 32:16 33:4 34:-1 35:27 36:-4 
1.561752988047809 1:6 2:-27 3:-9 4:-18 5:23 6:6 7:12 8:16 9:4 10:-1 11:27 12:-4 13:6 14:-27 15:-9 16:-18 17:23 18:6 19:12 20:16 21:4 22:-1 23:27 24:-4 25:6 26:-27 27:-9 28:-18 29:23 30:6 31:12 32:16 33:4 34:-1 35:27 36:-4 
1.561752988047809 1:6 2:-27 3:-9 4:-18 5:23 6:6 7:12 8:16 9:4 10:-1 11:27 12:-4 13:6 14:-27 15:-9 16:-18 17:23 18:6 19:12 20:16 21:4 22:-1 23:27 24:-4 25:6 26:-27 27:-9 28:-18 29:23 30:6 31:12 32:16 33:4 34:-1 35:27 36:-4 
1.561752988047809 1:6 2:-27 3:-9 4:-18 5:23 6:6 7:12 8:16 9:4 10:-1 11:27 12:-4 13:6 14:-27 15:-9 16:-18 17:23 18:6 19:12 20:16 21:4 22:-1 23:27 24:-4 25:6 26:-27 27:-9 28:-18 29:23 30:6 31:12 32:16 33:4 34:-1 35:27 36:-4 
1.561752988047809 1:6 2:-27 3:-9 4:-18 5:23 6:6 7:12 8:16 9:4 10:-1 11:27 12:-4 13:6 14:-27 15:-9 16:-18 17:23 18:6 19:12 20:16 21:4 22:-1 23:27 24:-4 25:6 26:-27 27:-9 28:-18 29:23 30:6 31:12 32:16 33:4 34:-1 35:27 36:-4 
1.561752988047809 1:6 2:-27 3:-9 4:-18 5:23 6:6 7:12 8:16 9:4 10:-1 11:27 12:-4 13:6 14:-27 15:-9 16:-18 17:23 18:6 19:12 20:16 21:4 22:-1 23:27 24:-4 25:6 26:-27 27:-9 28:-18 29:23 30:6 31:12 32:16 33:4 34:-1 35:27 36:-4 
1.561752988047809 1:6 2:-27 3:-9 4:-18 5:23 6:6 7:12 8:16 9:4 10:-1 11:27 12:-4 13:6 14:-27 15:-9 16:-18 17:23 18:6 19:12 20:16 21:4 22:-1 23:27 24:-4 25:6 26:-27 27:-9 28:-18 29:23 30:6 31:12 32:16 33:4 34:-1 35:27 36:-4 
1.561752988047809 1:6 2:-27 3:-9 4:-18 5:23 6:6 7:12 8:16 9:4 10:-1 11:27 12:-4 13:6 14:-27 15:-9 16:-18 17:23 18:6 19:12 20:16 21:4 22:-1 23:27 24:-4 25:6 26:-27 27:-9 28:-18 29:22 30:5 31:12 32:16 33:4 34:-1 35:27 36:-4 
1.561752988047809 1:6 2:-27 3:-9 4:-18 5:23 6:6 7:12 8:16 9:4 10:-1 11:27 12:-4 13:6 14:-27 15:-9 16:-18 17:22 18:5 19:12 20:16 21:4 22:-1 23:27 24:-4 25:6 26:-27 27:-9 28:-18 29:22 30:5 31:12 32:16 33:4 34:-1 35:27 36:-4 
1.561752988047809 1:6 2:-27 3:-9 4:-18 5:22 6:5 7:12 8:16 9:4 10:-1 11:27 12:-4 13:6 14:-27 15:-9 16:-18 17:22 18:5 19:12 20:16 21:4 22:-1 23:27 24:-4 25:6 26:-27 27:-9 28:-18 29:22 30:5 31:12 32:16 33:4 34:-1 35:27 36:-4 
1.561752988047809 1:6 2:-27 3:-9 4:-18 5:22 6:5 7:12 8:16 9:4 10:-1 11:27 12:-4 13:6 14:-27 15:-9 16:-18 17:22 18:5 19:12 20:16 21:4 22:-1 23:27 24:-4 25:6 26:-27 27:-9 28:-19 29:23 30:6 31:12 32:16 33:4 34:-1 35:27 36:-4 
1.561752988047809 1:6 2:-27 3:-9 4:-20 5:23 6:6 7:12 8:16 9:4 10:-1 11:27 12:-4 13:6 14:-27 15:-9 16:-20 17:23 18:6 19:12 20:16 21:4 22:-1 23:27 24:-4 25:6 26:-27 27:-9 28:-20 29:23 30:6 31:12 32:16 33:4 34:-1 35:27 36:-4 
1.561752988047809 1:6 2:-27 3:-9 4:-20 5:23 6:6 7:12 8:16 9:4 10:-1 11:27 12:-4 13:6 14:-27 15:-9 16:-20 17:23 18:6 19:12 20:16 21:4 22:-1 23:27 24:-4 25:6 26:-27 27:-9 28:-20 29:23 30:6 31:12 32:16 33:4 34:-1 35:27 36:-4 
1.561752988047809 1:6 2:-27 3:-9 4:-20 5:23 6:6 7:12 8:16 9:4 10:-1 11:27 12:-4 13:6 14:-27 15:-9 16:-20 17:23 18:6 19:12 20:16 21:4 22:-1 23:27 24:-4 25:6 26:-27 27:-9 28:-20 29:23 30:6 31:12 32:16 33:4 34:-1 35:27 36:-4 
0.8003968181459856 1:6 2:-27 3:-9 4:-20 5:23 6:6 7:6 8:-36 9:-8 10:-1 11:27 12:-4 13:6 14:-27 15:-9 16:-20 17:23 18:6 19:10 20:-7 21:-1 22:-1 23:27 24:-4 25:6 26:-27 27:-9 28:-20 29:23 30:6 31:13 32:23 33:6 34:-1 35:27 36:-4 
1.561752988047809 1:6 2:-27 3:-9 4:-20 5:23 6:6 7:13 8:23 9:6 10:-1 11:27 12:-4 13:6 14:-27 15:-9 16:-19 17:22 18:5 19:13 20:23 21:6 22:-1 23:27 24:-4 25:6 26:-27 27:-9 28:-19 29:22 30:5 31:13 32:23 33:6 34:-1 35:27 36:-4 
1.561752988047809 1:6 2:-27 3:-9 4:-19 5:22 6:5 7:13 8:23 9:6 10:-1 11:27 12:-4 13:6 14:-27 15:-9 16:-19 17:22 18:5 19:13 20:23 21:6 22:-1 23:27 24:-4 25:6 26:-27 27:-9 28:-19 29:22 30:5 31:13 32:23 33:6 34:-1 35:27 36:-4 
1.561752988047809 1:6 2:-27 3:-9 4:-19 5:22 6:5 7:13 8:23 9:6 10:-1 11:27 12:-4 13:6 14:-27 15:-9 16:-19 17:22 18:5 19:13 20:23 21:6 22:-1 23:27 24:-4 25:6 26:-27 27:-9 28:-19 29:22 30:5 31:13 32:23 33:6 34:-1 35:27 36:-4 
1.561752988047809 1:6 2:-27 3:-9 4:-19 5:22 6:5 7:13 8:23 9:6 10:-1 11:27 12:-4 13:6 14:-27 15:-9 16:-19 17:22 18:5 19:13 20:23 21:6 22:-1 23:27 24:-4 25:6 26:-27 27:-9 28:-19 29:22 30:5 31:13 32:23 33:6 34:-1 35:27 36:-4 
1.561752988047809 1:6 2:-27 3:-9 4:-19 5:22 6:5 7:13 8:23 9:6 10:-1 11:27 12:-4 13:6 14:-27 15:-9 16:-19 17:22 18:5 19:13 20:23 21:6 22:-1 23:27 24:-4 25:6 26:-27 27:-9 28:-19 29:22 30:5 31:13 32:23 33:6 34:-1 35:27 36:-4 
1.561752988047809 1:6 2:-27 3:-9 4:-19 5:22 6:5 7:13 8:23 9:6 10:-1 11:27 12:-4 13:6 14:-27 15:-9 16:-19 17:22 18:5 19:13 20:23 21:6 22:-1 23:27 24:-4 25:6 26:-27 27:-9 28:-19 29:22 30:5 31:13 32:23 33:6 34:-1 35:27 36:-4 
1.561752988047809 1:6 2:-27 3:-9 4:-19 5:22 6:5 7:13 8:23 9:6 10:-1 11:27 12:-4 13:6 14:-27 15:-9 16:-19 17:22 18:5 19:13 20:23 21:6 22:-1 23:27 24:-4 25:6 26:-27 27:-9 28:-19 29:22 30:5 31:13 32:23 33:6 34:-1 35:27 36:-4 
1.561752988047809 1:6 2:-27 3:-9 4:-19 5:22 6:5 7:13 8:23 9:6 10:-1 11:27 12:-4 13:6 14:-27 15:-9 16:-19 17:22 18:5 19:13 20:23 21:6 22:-1 23:27 24:-4 25:6 26:-27 27:-9 28:-19 29:22 30:5 31:13 32:23 33:6 34:-1 35:27 36:-4 
1.561752988047809 1:6 2:-27 3:-9 4:-19 5:22 6:5 7:13 8:23 9:6 10:-1 11:27 12:-4 13:6 14:-27 15:-9 16:-19 17:22 18:5 19:13 20:23 21:6 22:-1 23:27 24:-4 25:6 26:-27 27:-9 28:-19 29:22 30:5 31:13 32:23 33:6 34:-1 35:27 36:-4 
1.561752988047809 1:6 2:-27 3:-9 4:-19 5:22 6:5 7:13 8:23 9:6 10:-1 11:27 12:-4 13:6 14:-27 15:-9 16:-19 17:22 18:5 19:13 20:23 21:6 22:-1 23:27 24:-4 25:6 26:-27 27:-9 28:-19 29:22 30:5 31:13 32:23 33:6 34:-1 35:27 36:-4 
1.561752988047809 1:6 2:-27 3:-9 4:-19 5:22 6:5 7:13 8:23 9:6 10:-1 11:27 12:-4 13:6 14:-27 15:-9 16:-19 17:22 18:5 19:13 20:23 21:6 22:-1 23:27 24:-4 25:6 26:-27 27:-9 28:-19 29:22 30:5 31:13 32:23 33:6 34:-1 35:27 36:-4 
1.561752988047809 1:6 2:-27 3:-9 4:-19 5:22 6:5 7:13 8:23 9:6 10:-1 11:27 12:-4 13:6 14:-27 15:-9 16:-19 17:22 18:5 19:13 20:23 21:6 22:-1 23:27 24:-4 25:6 26:-27 27:-9 28:-19 29:22 30:5 31:13 32:23 33:6 34:-1 35:27 36:-4 
1.561752988047809 1:6 2:-27 3:-9 4:-19 5:22 6:5 7:13 8:23 9:6 10:-1 11:27 12:-4 13:6 14:-27 15:-9 16:-19 17:22 18:5 19:13 20:23 21:6 22:-1 23:27 24:-4 25:6 26:-27 27:-9 28:-19 29:22 30:5 31:13 32:23 33:6 34:-1 35:27 36:-4 
1.561752988047809 1:6 2:-27 3:-9 4:-19 5:22 6:5 7:13 8:23 9:6 10:-1 11:27 12:-4 13:6 14:-27 15:-9 16:-19 17:22 18:5 19:13 20:23 21:6 22:-1 23:27 24:-4 25:6 26:-27 27:-9 28:-19 29:22 30:5 31:13 32:23 33:6 34:-1 35:27 36:-4 
1.561752988047809 1:6 2:-27 3:-9 4:-19 5:22 6:5 7:13 8:23 9:6 10:-1 11:27 12:-4 13:6 14:-27 15:-9 16:-19 17:22 18:5 19:13 20:23 21:6 22:-1 23:27 24:-4 25:6 26:-27 27:-9 28:-19 29:22 30:5 31:9 32:-5 33:-2 34:-1 35:27 36:-4 
1.561752988047809 1:6 2:-26 3:-9 4:-18 5:22 6:5 7:12 8:19 9:8 10:0 11:27 12:-4 13:6 14:-26 15:-9 16:-18 17:22 18:5 19:12 20:19 21:8 22:0 23:27 24:-4 25:6 26:-26 27:-9 28:-18 29:22 30:5 31:12 32:19 33:8 34:0 35:27 36:-4 
1.561752988047809 1:6 2:-26 3:-9 4:-18 5:22 6:5 7:12 8:19 9:8 10:0 11:27 12:-4 13:6 14:-26 15:-9 16:-18 17:22 18:5 19:12 20:19 21:8 22:0 23:27 24:-4 25:6 26:-27 27:-9 28:-17 29:21 30:5 31:13 32:18 33:8 34:-1 35:27 36:-4 
1.561752988047809 1:6 2:-26 3:-9 4:-18 5:22 6:5 7:12 8:19 9:8 10:0 11:27 12:-4 13:6 14:-27 15:-9 16:-17 17:21 18:5 19:13 20:18 21:8 22:-1 23:27 24:-4 25:6 26:-29 27:-9 28:-17 29:20 30:5 31:12 32:17 33:8 34:-1 35:27 36:-3 
1.561752988047809 1:6 2:-27 3:-9 4:-17 5:21 6:5 7:13 8:18 9:8 10:-1 11:27 12:-4 13:6 14:-29 15:-9 16:-17 17:20 18:5 19:12 20:17 21:8 22:-1 23:27 24:-3 25:6 26:-29 27:-8 28:-17 29:18 30:5 31:13 32:16 33:8 34:-1 35:27 36:-3 
1.037473356854542 1:6 2:-29 3:-8 4:-17 5:18 6:5 7:13 8:16 9:8 10:-1 11:27 12:-3 13:6 14:-30 15:-8 16:-17 17:18 18:5 19:12 20:16 21:8 22:-1 23:27 24:-3 25:6 26:-29 27:-8 28:-17 29:18 30:5 31:13 32:16 33:8 34:-1 35:27 36:-3 
1.561752988047809 1:6 2:-30 3:-8 4:-17 5:18 6:5 7:12 8:16 9:8 10:-1 11:27 12:-3 13:6 14:-29 15:-8 16:-17 17:18 18:5 19:13 20:16 21:8 22:-1 23:27 24:-3 25:6 26:-29 27:-8 28:-17 29:18 30:5 31:13 32:16 33:8 34:-1 35:27 36:-3 
1.561752988047809 1:6 2:-29 3:-8 4:-17 5:18 6:5 7:13 8:16 9:8 10:-1 11:27 12:-3 13:6 14:-29 15:-8 16:-17 17:18 18:5 19:13 20:16 21:8 22:-1 23:27 24:-3 25:6 26:-30 27:-8 28:-17 29:18 30:5 31:13 32:16 33:8 34:-1 35:27 36:-3 
1.561752988047809 1:6 2:-30 3:-8 4:-17 5:18 6:5 7:13 8:16 9:8 10:-1 11:27 12:-3 13:6 14:-30 15:-8 16:-19 17:19 18:5 19:13 20:16 21:8 22:-1 23:27 24:-3 25:6 26:-30 27:-8 28:-20 29:19 30:4 31:13 32:16 33:8 34:-1 35:27 36:-3 
1.561752988047809 1:6 2:-30 3:-8 4:-19 5:19 6:5 7:13 8:16 9:8 10:-1 11:27 12:-3 13:6 14:-30 15:-8 16:-20 17:19 18:4 19:13 20:16 21:8 22:-1 23:27 24:-3 25:6 26:-30 27:-8 28:-20 29:19 30:4 31:13 32:16 33:8 34:-1 35:27 36:-3 
1.561752988047809 1:6 2:-30 3:-8 4:-20 5:19 6:4 7:13 8:16 9:8 10:-1 11:27 12:-3 13:6 14:-30 15:-8 16:-20 17:19 18:4 19:13 20:16 21:8 22:-1 23:27 24:-3 25:7 26:-29 27:-8 28:-19 29:19 30:4 31:13 32:16 33:8 34:-1 35:27 36:-3 
1.561752988047809 1:6 2:-30 3:-8 4:-20 5:19 6:4 7:13 8:16 9:8 10:-1 11:27 12:-3 13:7 14:-29 15:-8 16:-19 17:19 18:4 19:13 20:16 21:8 22:-1 23:27 24:-3 25:7 26:-29 27:-8 28:-19 29:19 30:4 31:13 32:16 33:8 34:0 35:27 36:-3 
1.561752988047809 1:7 2:-29 3:-8 4:-19 5:19 6:4 7:13 8:16 9:8 10:-1 11:27 12:-3 13:7 14:-29 15:-8 16:-19 17:19 18:4 19:13 20:16 21:8 22:0 23:27 24:-3 25:7 26:-29 27:-8 28:-19 29:19 30:5 31:14 32:16 33:8 34:0 35:27 36:-3 
1.561752988047809 1:7 2:-29 3:-8 4:-19 5:19 6:4 7:13 8:16 9:8 10:0 11:27 12:-3 13:7 14:-29 15:-8 16:-19 17:19 18:5 19:14 20:16 21:8 22:0 23:27 24:-3 25:7 26:-29 27:-8 28:-19 29:19 30:5 31:14 32:16 33:8 34:0 35:27 36:-3 
1.561752988047809 1:7 2:-29 3:-8 4:-19 5:19 6:5 7:14 8:16 9:8 10:0 11:27 12:-3 13:7 14:-29 15:-8 16:-19 17:19 18:5 19:14 20:16 21:8 22:0 23:27 24:-3 25:7 26:-29 27:-8 28:-19 29:20 30:5 31:13 32:17 33:9 34:0 35:27 36:-3 
1.561752988047809 1:7 2:-29 3:-8 4:-19 5:19 6:5 7:14 8:16 9:8 10:0 11:27 12:-3 13:7 14:-29 15:-8 16:-19 17:20 18:5 19:13 20:17 21:9 22:0 23:27 24:-3 25:7 26:-29 27:-8 28:-19 29:20 30:5 31:13 32:17 33:9 34:0 35:27 36:-3 
1.561752988047809 1:7 2:-29 3:-8 4:-19 5:20 6:5 7:13 8:17 9:9 10:0 11:27 12:-3 13:7 14:-29 15:-8 16:-19 17:20 18:5 19:13 20:17 21:9 22:0 23:27 24:-3 25:7 26:-29 27:-8 28:-19 29:20 30:5 31:13 32:17 33:9 34:0 35:27 36:-3 
1.561752988047809 1:7 2:-29 3:-8 4:-19 5:20 6:5 7:13 8:17 9:9 10:0 11:27 12:-3 13:7 14:-29 15:-8 16:-19 17:20 18:5 19:13 20:17 21:9 22:0 23:27 24:-3 25:7 26:-29 27:-8 28:-19 29:20 30:5 31:13 32:17 33:9 34:0 35:27 36:-3 
1.561752988047809 1:7 2:-29 3:-8 4:-19 5:20 6:5 7:13 8:17 9:9 10:0 11:27 12:-3 13:7 14:-29 15:-8 16:-19 17:20 18:5 19:13 20:17 21:9 22:0 23:27 24:-3 25:7 26:-29 27:-8 28:-20 29:20 30:4 31:13 32:17 33:8 34:-1 35:27 36:-3 
1.561752988047809 1:7 2:-29 3:-8 4:-19 5:20 6:5 7:13 8:17 9:9 10:0 11:27 12:-3 13:7 14:-29 15:-8 16:-20 17:20 18:4 19:13 20:17 21:8 22:-1 23:27 24:-3 25:7 26:-29 27:-8 28:-20 29:20 30:4 31:13 32:17 33:8 34:-1 35:27 36:-3 
1.561752988047809 1:7 2:-29 3:-8 4:-20 5:20 6:4 7:13 8:17 9:8 10:-1 11:27 12:-3 13:7 14:-29 15:-8 16:-20 17:20 18:4 19:13 20:17 21:8 22:-1 23:27 24:-3 25:7 26:-29 27:-8 28:-20 29:20 30:4 31:13 32:17 33:8 34:-1 35:27 36:-3 
1.561752988047809 1:7 2:-29 3:-8 4:-20 5:20 6:4 7:13 8:17 9:8 10:-1 11:27 12:-3 13:7 14:-29 15:-8 16:-20 17:20 18:4 19:13 20:17 21:8 22:-1 23:27 24:-3 25:7 26:-29 27:-8 28:-20 29:20 30:4 31:13 32:17 33:8 34:-1 35:27 36:-3 
1.561752988047809 1:7 2:-29 3:-8 4:-20 5:20 6:4 7:13 8:17 9:8 10:-1 11:27 12:-3 13:7 14:-29 15:-8 16:-20 17:20 18:4 19:13 20:17 21:8 22:-1 23:27 24:-3 25:7 26:-29 27:-8 28:-20 29:20 30:4 31:13 32:17 33:8 34:-1 35:27 36:-3 
1.561752988047809 1:7 2:-29 3:-8 4:-20 5:20 6:4 7:13 8:17 9:8 10:-1 11:27 12:-3 13:7 14:-29 15:-8 16:-20 17:20 18:4 19:13 20:17 21:8 22:-1 23:27 24:-3 25:7 26:-29 27:-8 28:-19 29:20 30:5 31:13 32:17 33:8 34:-1 35:27 36:-3 
1.561752988047809 1:7 2:-29 3:-8 4:-20 5:20 6:4 7:13 8:17 9:8 10:-1 11:27 12:-3 13:7 14:-29 15:-8 16:-19 17:20 18:5 19:13 20:17 21:8 22:-1 23:27 24:-3 25:7 26:-29 27:-8 28:-19 29:20 30:5 31:13 32:17 33:8 34:-1 35:27 36:-3 
1.561752988047809 1:7 2:-29 3:-8 4:-19 5:20 6:5 7:13 8:17 9:8 10:-1 11:27 12:-3 13:7 14:-29 15:-8 16:-19 17:20 18:5 19:13 20:17 21:8 22:-1 23:27 24:-3 25:6 26:-29 27:-9 28:-19 29:20 30:5 31:13 32:17 33:8 34:-1 35:27 36:-3 
1.561752988047809 1:7 2:-29 3:-8 4:-19 5:20 6:5 7:13 8:17 9:8 10:-1 11:27 12:-3 13:6 14:-29 15:-9 16:-19 17:20 18:5 19:13 20:17 21:8 22:-1 23:27 24:-3 25:6 26:-29 27:-8 28:-18 29:20 30:5 31:13 32:17 33:9 34:0 35:27 36:-3 
1.561752988047809 1:6 2:-29 3:-9 4:-19 5:20 6:5 7:13 8:17 9:8 10:-1 11:27 12:-3 13:6 14:-29 15:-8 16:-18 17:20 18:5 19:13 20:17 21:9 22:0 23:27 24:-3 25:5 26:-30 27:-8 28:-18 29:20 30:5 31:13 32:17 33:9 34:0 35:27 36:-3 
1.561752988047809 1:6 2:-29 3:-8 4:-18 5:20 6:5 7:13 8:17 9:9 10:0 11:27 12:-3 13:5 14:-30 15:-8 16:-18 17:20 18:5 19:13 20:17 21:9 22:0 23:27 24:-3 25:5 26:-30 27:-8 28:-18 29:20 30:5 31:14 32:17 33:9 34:0 35:27 36:-3 
1.561752988047809 1:5 2:-30 3:-8 4:-18 5:20 6:5 7:13 8:17 9:9 10:0 11:27 12:-3 13:5 14:-30 15:-8 16:-18 17:20 18:5 19:14 20:17 21:9 22:0 23:27 24:-3 25:5 26:-30 27:-8 28:-18 29:20 30:5 31:14 32:17 33:9 34:0 35:27 36:-3 
1.561752988047809 1:5 2:-30 3:-8 4:-18 5:20 6:5 7:14 8:17 9:9 10:0 11:27 12:-3 13:5 14:-30 15:-8 16:-18 17:20 18:5 19:14 20:17 21:9 22:0 23:27 24:-3 25:5 26:-30 27:-8 28:-18 29:20 30:5 31:14 32:17 33:9 34:0 35:27 36:-3 
1.04770661259275 1:-4 2:-37 3:-13 4:-55 5:18 6:-7 7:42 8:24 9:-3 10:2 11:34 12:-2 13:-4 14:-37 15:-14 16:-52 17:21 18:-9 19:38 20:24 21:-2 22:2 23:34 24:-2 25:-3 26:-38 27:-13 28:-48 29:19 30:-10 31:36 32:24 33:0 34:2 35:34 36:-2 
1.561752988047809 1:-4 2:-37 3:-14 4:-52 5:21 6:-9 7:38 8:24 9:-2 10:2 11:34 12:-2 13:-3 14:-38 15:-13 16:-48 17:19 18:-10 19:36 20:24 21:0 22:2 23:34 24:-2 25:-3 26:-38 27:-13 28:-46 29:19 30:-11 31:34 32:24 33:3 34:2 35:34 36:-1 
1.561752988047809 1:-3 2:-38 3:-13 4:-48 5:19 6:-10 7:36 8:24 9:0 10:2 11:34 12:-2 13:-3 14:-38 15:-13 16:-46 17:19 18:-11 19:34 20:24 21:3 22:2 23:34 24:-1 25:-3 26:-38 27:-13 28:-43 29:20 30:-11 31:33 32:24 33:5 34:2 35:34 36:-1 
1.561752988047809 1:-3 2:-38 3:-13 4:-46 5:19 6:-11 7:34 8:24 9:3 10:2 11:34 12:-1 13:-3 14:-38 15:-13 16:-43 17:20 18:-11 19:33 20:24 21:5 22:2 23:34 24:-1 25:-3 26:-38 27:-13 28:-40 29:21 30:-11 31:32 32:24 33:8 34:3 35:34 36:-1 
1.561752988047809 1:-3 2:-38 3:-13 4:-43 5:20 6:-11 7:33 8:24 9:5 10:2 11:34 12:-1 13:-3 14:-38 15:-13 16:-40 17:21 18:-11 19:32 20:24 21:8 22:3 23:34 24:-1 25:-3 26:-39 27:-13 28:-38 29:21 30:-10 31:31 32:23 33:11 34:3 35:34 36:-1 
1.561752988047809 1:1 2:-36 3:-15 4:-30 5:23 6:-3 7:18 8:21 9:0 10:1 11:33 12:-1 13:2 14:-36 15:-16 16:-29 17:24 18:-2 19:16 20:21 21:6 22:1 23:33 24:0 25:1 26:-35 27:-16 28:-29 29:24 30:-1 31:14 32:21 33:9 34:2 35:33 36:0 
1.561752988047809 1:2 2:-36 3:-16 4:-29 5:24 6:-2 7:16 8:21 9:6 10:1 11:33 12:0 13:1 14:-35 15:-16 16:-29 17:24 18:-1 19:14 20:21 21:9 22:2 23:33 24:0 25:2 26:-35 27:-15 28:-27 29:23 30:0 31:14 32:21 33:9 34:2 35:33 36:0 
1.561752988047809 1:1 2:-35 3:-16 4:-29 5:24 6:-1 7:14 8:21 9:9 10:2 11:33 12:0 13:2 14:-35 15:-15 16:-27 17:23 18:0 19:14 20:21 21:9 22:2 23:33 24:0 25:2 26:-35 27:-15 28:-26 29:21 30:1 31:13 32:21 33:9 34:2 35:33 36:-1 
1.561752988047809 1:2 2:-35 3:-15 4:-27 5:23 6:0 7:14 8:21 9:9 10:2 11:33 12:0 13:2 14:-35 15:-15 16:-26 17:21 18:1 19:13 20:21 21:9 22:2 23:33 24:-1 25:2 26:-35 27:-15 28:-26 29:20 30:1 31:13 32:21 33:8 34:2 35:33 36:-1 
1.561752988047809 1:2 2:-35 3:-15 4:-26 5:20 6:1 7:13 8:21 9:8 10:2 11:33 12:-1 13:3 14:-36 15:-14 16:-26 17:20 18:1 19:14 20:20 21:8 22:1 23:33 24:-1 25:4 26:-36 27:-13 28:-24 29:19 30:2 31:14 32:20 33:9 34:1 35:32 36:-1 
1.561752988047809 1:3 2:-36 3:-14 4:-26 5:20 6:1 7:14 8:20 9:8 10:1 11:33 12:-1 13:4 14:-36 15:-13 16:-24 17:19 18:2 19:14 20:20 21:9 22:1 23:32 24:-1 25:6 26:-36 27:-12 28:-24 29:18 30:3 31:14 32:20 33:9 34:1 35:32 36:-1 
0.7828217876085021 1:8 2:-32 3:-6 4:-16 5:14 6:0 7:14 8:15 9:19 10:0 11:27 12:-2 13:7 14:-32 15:-7 16:-16 17:14 18:-1 19:17 20:16 21:21 22:-1 23:27 24:-1 25:7 26:-32 27:-6 28:-16 29:14 30:-1 31:17 32:16 33:21 34:-1 35:27 36:-2 
1.561752988047809 1:7 2:-32 3:-6 4:-16 5:14 6:-1 7:17 8:16 9:21 10:-1 11:27 12:-2 13:6 14:-32 15:-6 16:-16 17:14 18:-1 19:17 20:16 21:21 22:-1 23:27 24:-2 25:7 26:-31 27:-6 28:-17 29:15 30:3 31:17 32:17 33:18 34:-1 35:26 36:-2 
1.561752988047809 1:6 2:-32 3:-6 4:-16 5:14 6:-1 7:17 8:16 9:21 10:-1 11:27 12:-2 13:7 14:-31 15:-6 16:-17 17:15 18:3 19:17 20:17 21:18 22:-1 23:26 24:-2 25:7 26:-30 27:-6 28:-18 29:16 30:6 31:16 32:19 33:15 34:-1 35:26 36:-3 
1.561752988047809 1:7 2:-31 3:-6 4:-17 5:15 6:3 7:17 8:17 9:18 10:-1 11:26 12:-2 13:7 14:-30 15:-6 16:-18 17:16 18:6 19:16 20:19 21:15 22:-1 23:26 24:-3 25:8 26:-29 27:-7 28:-18 29:19 30:6 31:13 32:24 33:13 34:-1 35:26 36:-2 
1.561752988047809 1:7 2:-30 3:-6 4:-18 5:16 6:6 7:16 8:19 9:15 10:-1 11:26 12:-3 13:8 14:-29 15:-7 16:-18 17:19 18:6 19:13 20:24 21:13 22:-1 23:26 24:-2 25:8 26:-28 27:-8 28:-18 29:21 30:6 31:10 32:30 33:12 34:-1 35:26 36:-2 
1.561752988047809 1:8 2:-29 3:-7 4:-18 5:19 6:6 7:13 8:24 9:13 10:-1 11:26 12:-2 13:8 14:-28 15:-8 16:-18 17:21 18:6 19:10 20:30 21:12 22:-1 23:26 24:-2 25:8 26:-28 27:-8 28:-18 29:21 30:6 31:10 32:30 33:12 34:-1 35:26 36:-2 
0.7417783579132148 1:8 2:-28 3:-8 4:-18 5:21 6:6 7:10 8:30 9:12 10:-1 11:26 12:-2 13:8 14:-28 15:-8 16:-18 17:21 18:6 19:10 20:30 21:12 22:-1 23:26 24:-2 25:8 26:-28 27:-8 28:-18 29:21 30:6 31:10 32:30 33:12 34:-1 35:26 36:-2 
1.561752988047809 1:8 2:-28 3:-8 4:-18 5:21 6:6 7:10 8:30 9:12 10:-1 11:26 12:-2 13:8 14:-27 15:-9 16:-18 17:21 18:6 19:11 20:25 21:10 22:-1 23:26 24:-2 25:7 26:-27 27:-9 28:-17 29:21 30:6 31:13 32:20 33:9 34:-1 35:26 36:-2 
1.561752988047809 1:8 2:-27 3:-9 4:-18 5:21 6:6 7:11 8:25 9:10 10:-1 11:26 12:-2 13:7 14:-27 15:-9 16:-17 17:21 18:6 19:13 20:20 21:9 22:-1 23:26 24:-2 25:7 26:-26 27:-9 28:-18 29:21 30:5 31:13 32:20 33:8 34:-1 35:26 36:-3 
1.561752988047809 1:7 2:-27 3:-9 4:-17 5:21 6:6 7:13 8:20 9:9 10:-1 11:26 12:-2 13:7 14:-26 15:-9 16:-18 17:21 18:5 19:13 20:20 21:8 22:-1 23:26 24:-3 25:7 26:-26 27:-9 28:-20 29:21 30:5 31:13 32:20 33:8 34:-1 35:26 36:-3 
1.561752988047809 1:7 2:-26 3:-9 4:-18 5:21 6:5 7:13 8:20 9:8 10:-1 11:26 12:-3 13:7 14:-26 15:-9 16:-20 17:21 18:5 19:13 20:20 21:8 22:-1 23:26 24:-3 25:6 26:-26 27:-9 28:-21 29:20 30:6 31:13 32:20 33:8 34:-1 35:26 36:-3 
1.561752988047809 1:7 2:-26 3:-9 4:-20 5:21 6:5 7:13 8:20 9:8 10:-1 11:26 12:-3 13:6 14:-26 15:-9 16:-21 17:20 18:6 19:13 20:20 21:8 22:-1 23:26 24:-3 25:6 26:-26 27:-9 28:-21 29:20 30:6 31:13 32:20 33:8 34:-1 35:26 36:-3 
1.561752988047809 1:6 2:-26 3:-9 4:-21 5:20 6:6 7:13 8:20 9:8 10:-1 11:26 12:-3 13:6 14:-26 15:-9 16:-21 17:20 18:6 19:13 20:20 21:8 22:-1 23:26 24:-3 25:6 26:-26 27:-9 28:-22 29:20 30:5 31:13 32:20 33:8 34:-1 35:26 36:-3 
1.561752988047809 1:6 2:-26 3:-9 4:-21 5:20 6:6 7:13 8:20 9:8 10:-1 11:26 12:-3 13:6 14:-26 15:-9 16:-22 17:20 18:5 19:13 20:20 21:8 22:-1 23:26 24:-3 25:6 26:-26 27:-9 28:-22 29:20 30:5 31:13 32:20 33:8 34:-1 35:26 36:-3 
1.561752988047809 1:6 2:-27 3:-10 4:-22 5:21 6:4 7:14 8:18 9:8 10:-1 11:27 12:-3 13:7 14:-28 15:-10 16:-21 17:23 18:4 19:14 20:19 21:7 22:-1 23:27 24:-3 25:7 26:-30 27:-8 28:-10 29:-7 30:0 31:13 32:16 33:6 34:-1 35:27 36:-3 
1.561752988047809 1:6 2:-29 3:-9 4:-18 5:23 6:6 7:11 8:16 9:4 10:-1 11:27 12:-3 13:6 14:-28 15:-9 16:-18 17:23 18:6 19:12 20:16 21:4 22:-1 23:27 24:-3 25:6 26:-27 27:-9 28:-18 29:23 30:5 31:12 32:16 33:3 34:-1 35:27 36:-4 
1.561752988047809 1:6 2:-27 3:-9 4:-18 5:23 6:5 7:12 8:16 9:3 10:-1 11:27 12:-4 13:6 14:-27 15:-8 16:-18 17:23 18:5 19:12 20:16 21:3 22:-1 23:27 24:-4 25:6 26:-27 27:-8 28:-18 29:23 30:5 31:12 32:16 33:3 34:-1 35:27 36:-4 
1.561752988047809 1:6 2:-27 3:-8 4:-18 5:23 6:5 7:12 8:16 9:3 10:-1 11:27 12:-4 13:6 14:-27 15:-8 16:-18 17:23 18:5 19:12 20:16 21:3 22:-1 23:27 24:-4 25:6 26:-27 27:-8 28:-18 29:23 30:5 31:12 32:16 33:3 34:-1 35:27 36:-4 
1.561752988047809 1:6 2:-27 3:-8 4:-18 5:23 6:5 7:12 8:16 9:3 10:-1 11:27 12:-4 13:6 14:-27 15:-8 16:-18 17:23 18:5 19:12 20:16 21:3 22:-1 23:27 24:-4 25:6 26:-27 27:-8 28:-18 29:23 30:5 31:12 32:16 33:3 34:-1 35:27 36:-4 
1.561752988047809 1:6 2:-27 3:-8 4:-18 5:23 6:5 7:12 8:16 9:3 10:-1 11:27 12:-4 13:6 14:-27 15:-8 16:-18 17:23 18:5 19:12 20:16 21:3 22:-1 23:27 24:-4 25:6 26:-27 27:-8 28:-18 29:23 30:5 31:12 32:16 33:3 34:-1 35:27 36:-4 
1.561752988047809 1:6 2:-27 3:-8 4:-18 5:23 6:5 7:12 8:16 9:3 10:-1 11:27 12:-4 13:6 14:-27 15:-8 16:-18 17:23 18:5 19:12 20:16 21:3 22:-1 23:27 24:-4 25:6 26:-27 27:-8 28:-18 29:23 30:5 31:12 32:16 33:3 34:-1 35:27 36:-4 
1.561752988047809 1:6 2:-27 3:-8 4:-18 5:23 6:5 7:12 8:16 9:3 10:-1 11:27 12:-4 13:6 14:-27 15:-8 16:-18 17:23 18:5 19:12 20:16 21:3 22:-1 23:27 24:-4 25:6 26:-27 27:-8 28:-18 29:23 30:5 31:12 32:16 33:3 34:-1 35:27 36:-4 
1.561752988047809 1:6 2:-27 3:-8 4:-18 5:23 6:5 7:12 8:16 9:3 10:-1 11:27 12:-4 13:6 14:-27 15:-8 16:-18 17:23 18:5 19:12 20:16 21:3 22:-1 23:27 24:-4 25:6 26:-27 27:-8 28:-18 29:23 30:5 31:12 32:16 33:3 34:-1 35:27 36:-4 
1.561752988047809 1:6 2:-27 3:-8 4:-18 5:23 6:5 7:12 8:16 9:3 10:-1 11:27 12:-4 13:6 14:-27 15:-8 16:-18 17:23 18:5 19:12 20:16 21:3 22:-1 23:27 24:-4 25:6 26:-27 27:-8 28:-18 29:23 30:5 31:12 32:16 33:3 34:-1 35:27 36:-4 
1.561752988047809 1:6 2:-27 3:-8 4:-18 5:23 6:5 7:12 8:16 9:3 10:-1 11:27 12:-4 13:6 14:-27 15:-8 16:-18 17:23 18:5 19:12 20:16 21:3 22:-1 23:27 24:-4 25:5 26:-27 27:-8 28:-18 29:23 30:5 31:12 32:16 33:3 34:-1 35:27 36:-4 
1.561752988047809 1:6 2:-27 3:-8 4:-18 5:23 6:5 7:12 8:16 9:3 10:-1 11:27 12:-4 13:5 14:-27 15:-8 16:-18 17:23 18:5 19:12 20:16 21:3 22:-1 23:27 24:-4 25:6 26:-28 27:-9 28:-18 29:23 30:6 31:12 32:16 33:4 34:-1 35:27 36:-4 
1.561752988047809 1:5 2:-27 3:-8 4:-18 5:23 6:5 7:12 8:16 9:3 10:-1 11:27 12:-4 13:6 14:-28 15:-9 16:-18 17:23 18:6 19:12 20:16 21:4 22:-1 23:27 24:-4 25:6 26:-28 27:-9 28:-18 29:23 30:6 31:11 32:16 33:4 34:-1 35:27 36:-4 
1.561752988047809 1:6 2:-28 3:-9 4:-18 5:23 6:6 7:12 8:16 9:4 10:-1 11:27 12:-4 13:6 14:-28 15:-9 16:-18 17:23 18:6 19:11 20:16 21:4 22:-1 23:27 24:-4 25:6 26:-28 27:-9 28:-18 29:23 30:6 31:11 32:16 33:4 34:-1 35:27 36:-4 
1.561752988047809 1:6 2:-28 3:-9 4:-18 5:23 6:6 7:11 8:16 9:4 10:-1 11:27 12:-4 13:6 14:-28 15:-9 16:-18 17:23 18:6 19:11 20:16 21:4 22:-1 23:27 24:-4 25:6 26:-28 27:-9 28:-18 29:23 30:6 31:11 32:16 33:4 34:-1 35:27 36:-4 
1.561752988047809 1:6 2:-28 3:-9 4:-18 5:23 6:6 7:11 8:16 9:4 10:-1 11:27 12:-4 13:6 14:-28 15:-9 16:-18 17:23 18:6 19:11 20:16 21:4 22:-1 23:27 24:-4 25:6 26:-28 27:-9 28:-18 29:23 30:6 31:11 32:16 33:4 34:-1 35:27 36:-4 
1.561752988047809 1:6 2:-28 3:-9 4:-18 5:23 6:6 7:11 8:16 9:4 10:-1 11:27 12:-4 13:6 14:-28 15:-9 16:-18 17:23 18:6 19:11 20:16 21:4 22:-1 23:27 24:-4 25:6 26:-27 27:-9 28:-18 29:23 30:6 31:11 32:16 33:4 34:-1 35:27 36:-4 
1.561752988047809 1:6 2:-28 3:-9 4:-18 5:23 6:6 7:11 8:16 9:4 10:-1 11:27 12:-4 13:6 14:-27 15:-9 16:-18 17:23 18:6 19:11 20:16 21:4 22:-1 23:27 24:-4 25:6 26:-27 27:-9 28:-18 29:23 30:6 31:11 32:16 33:4 34:-1 35:27 36:-4 
1.561752988047809 1:6 2:-27 3:-9 4:-18 5:23 6:6 7:11 8:16 9:4 10:-1 11:27 12:-4 13:6 14:-27 15:-9 16:-18 17:23 18:6 19:11 20:16 21:4 22:-1 23:27 24:-4 25:6 26:-27 27:-9 28:-18 29:23 30:6 31:11 32:16 33:4 34:-1 35:27 36:-4 
1.561752988047809 1:6 2:-27 3:-9 4:-18 5:23 6:6 7:11 8:16 9:4 10:-1 11:27 12:-4 13:6 14:-27 15:-9 16:-18 17:23 18:6 19:11 20:16 21:4 22:-1 23:27 24:-4 25:6 26:-27 27:-9 28:-18 29:23 30:6 31:12 32:16 33:4 34:-1 35:27 36:-4 
1.561752988047809 1:6 2:-27 3:-9 4:-18 5:23 6:6 7:11 8:16 9:4 10:-1 11:27 12:-4 13:6 14:-27 15:-9 16:-18 17:23 18:6 19:12 20:16 21:4 22:-1 23:27 24:-4 25:6 26:-27 27:-9 28:-18 29:23 30:6 31:12 32:16 33:4 34:-1 35:27 36:-4 
1.561752988047809 1:6 2:-27 3:-9 4:-18 5:23 6:6 7:12 8:16 9:4 10:-1 11:27 12:-4 13:6 14:-27 15:-9 16:-18 17:23 18:6 19:12 20:16 21:4 22:-1 23:27 24:-4 25:6 26:-27 27:-9 28:-18 29:23 30:6 31:12 32:16 33:4 34:-1 35:27 36:-4 
1.561752988047809 1:6 2:-27 3:-9 4:-18 5:23 6:6 7:12 8:16 9:4 10:-1 11:27 12:-4 13:6 14:-27 15:-9 16:-18 17:23 18:6 19:12 20:16 21:4 22:-1 23:27 24:-4 25:6 26:-27 27:-9 28:-18 29:23 30:6 31:12 32:16 33:4 34:-1 35:27 36:-4 
1.561752988047809 1:6 2:-27 3:-9 4:-18 5:23 6:6 7:12 8:16 9:4 10:-1 11:27 12:-4 13:6 14:-27 15:-9 16:-18 17:23 18:6 19:12 20:16 21:4 22:-1 23:27 24:-4 25:6 26:-27 27:-9 28:-18 29:23 30:6 31:12 32:16 33:4 34:-1 35:27 36:-4 
1.561752988047809 1:6 2:-27 3:-9 4:-18 5:23 6:6 7:12 8:16 9:4 10:-1 11:27 12:-4 13:6 14:-27 15:-9 16:-18 17:23 18:6 19:12 20:16 21:4 22:-1 23:27 24:-4 25:6 26:-27 27:-9 28:-18 29:23 30:6 31:12 32:16 33:4 34:-1 35:27 36:-4 
1.561752988047809 1:6 2:-27 3:-9 4:-18 5:23 6:6 7:12 8:16 9:4 10:-1 11:27 12:-4 13:6 14:-27 15:-9 16:-18 17:23 18:6 19:12 20:16 21:4 22:-1 23:27 24:-4 25:6 26:-27 27:-9 28:-18 29:23 30:6 31:12 32:16 33:4 34:-1 35:27 36:-4 
1.561752988047809 1:6 2:-27 3:-9 4:-18 5:23 6:6 7:12 8:16 9:4 10:-1 11:27 12:-4 13:6 14:-27 15:-9 16:-18 17:23 18:6 19:12 20:16 21:4 22:-1 23:27 24:-4 25:6 26:-27 27:-9 28:-18 29:23 30:6 31:12 32:16 33:4 34:-1 35:27 36:-4 
1.561752988047809 1:6 2:-27 3:-9 4:-18 5:23 6:6 7:12 8:16 9:4 10:-1 11:27 12:-4 13:6 14:-27 15:-9 16:-18 17:23 18:6 19:12 20:16 21:4 22:-1 23:27 24:-4 25:6 26:-27 27:-9 28:-18 29:23 30:6 31:12 32:16 33:4 34:-1 35:27 36:-4 
1.561752988047809 1:6 2:-27 3:-9 4:-18 5:23 6:6 7:12 8:16 9:4 10:-1 11:27 12:-4 13:6 14:-27 15:-9 16:-18 17:23 18:6 19:12 20:16 21:4 22:-1 23:27 24:-4 25:6 26:-27 27:-9 28:-18 29:23 30:6 31:12 32:16 33:4 34:-1 35:27 36:-4 
1.561752988047809 1:6 2:-27 3:-9 4:-18 5:23 6:6 7:12 8:16 9:4 10:-1 11:27 12:-4 13:6 14:-27 15:-9 16:-18 17:23 18:6 19:12 20:16 21:4 22:-1 23:27 24:-4 25:6 26:-27 27:-9 28:-18 29:23 30:6 31:12 32:16 33:4 34:-1 35:27 36:-4 
1.561752988047809 1:6 2:-27 3:-9 4:-18 5:23 6:6 7:12 8:16 9:4 10:-1 11:27 12:-4 13:6 14:-27 15:-9 16:-18 17:23 18:6 19:12 20:16 21:4 22:-1 23:27 24:-4 25:6 26:-27 27:-9 28:-18 29:23 30:6 31:12 32:16 33:4 34:-1 35:27 36:-4 
1.561752988047809 1:6 2:-27 3:-9 4:-18 5:23 6:6 7:12 8:16 9:4 10:-1 11:27 12:-4 13:6 14:-27 15:-9 16:-18 17:23 18:6 19:12 20:16 21:4 22:-1 23:27 24:-4 25:6 26:-27 27:-9 28:-18 29:23 30:6 31:12 32:16 33:4 34:-1 35:27 36:-4 
1.561752988047809 1:6 2:-27 3:-9 4:-18 5:23 6:6 7:12 8:16 9:4 10:-1 11:27 12:-4 13:6 14:-27 15:-9 16:-18 17:23 18:6 19:12 20:16 21:4 22:-1 23:27 24:-4 25:6 26:-27 27:-9 28:-18 29:23 30:6 31:12 32:16 33:4 34:-1 35:27 36:-4 
1.561752988047809 1:6 2:-27 3:-9 4:-18 5:23 6:6 7:12 8:16 9:4 10:-1 11:27 12:-4 13:6 14:-27 15:-9 16:-18 17:23 18:6 19:12 20:16 21:4 22:-1 23:27 24:-4 25:6 26:-27 27:-9 28:-18 29:23 30:6 31:12 32:16 33:4 34:-1 35:27 36:-4 
1.561752988047809 1:6 2:-27 3:-9 4:-18 5:23 6:6 7:12 8:16 9:4 10:-1 11:27 12:-4 13:6 14:-27 15:-9 16:-18 17:23 18:6 19:12 20:16 21:4 22:-1 23:27 24:-4 25:6 26:-27 27:-9 28:-18 29:22 30:5 31:12 32:16 33:4 34:-1 35:27 36:-4 
1.561752988047809 1:6 2:-27 3:-9 4:-18 5:23 6:6 7:12 8:16 9:4 10:-1 11:27 12:-4 13:6 14:-27 15:-9 16:-18 17:22 18:5 19:12 20:16 21:4 22:-1 23:27 24:-4 25:6 26:-27 27:-9 28:-18 29:22 30:5 31:12 32:16 33:4 34:-1 35:27 36:-4 
1.561752988047809 1:6 2:-27 3:-9 4:-18 5:22 6:5 7:12 8:16 9:4 10:-1 11:27 12:-4 13:6 14:-27 15:-9 16:-18 17:22 18:5 19:12 20:16 21:4 22:-1 23:27 24:-4 25:6 26:-27 27:-9 28:-18 29:22 30:5 31:12 32:16 33:4 34:-1 35:27 36:-4 
1.561752988047809 1:6 2:-27 3:-9 4:-18 5:22 6:5 7:12 8:16 9:4 10:-1 11:27 12:-4 13:6 14:-27 15:-9 16:-18 17:22 18:5 19:12 20:16 21:4 22:-1 23:27 24:-4 25:6 26:-27 27:-9 28:-19 29:23 30:6 31:12 32:16 33:4 34:-1 35:27 36:-4 
1.561752988047809 1:6 2:-27 3:-9 4:-18 5:22 6:5 7:12 8:16 9:4 10:-1 11:27 12:-4 13:6 14:-27 15:-9 16:-19 17:23 18:6 19:12 20:16 21:4 22:-1 23:27 24:-4 25:6 26:-27 27:-9 28:-20 29:23 30:6 31:12 32:16 33:4 34:-1 35:27 36:-4 
1.561752988047809 1:6 2:-27 3:-9 4:-19 5:23 6:6 7:12 8:16 9:4 10:-1 11:27 12:-4 13:6 14:-27 15:-9 16:-20 17:23 18:6 19:12 20:16 21:4 22:-1 23:27 24:-4 25:6 26:-27 27:-9 28:-20 29:23 30:6 31:12 32:16 33:4 34:-1 35:27 36:-4 
1.561752988047809 1:6 2:-27 3:-9 4:-20 5:23 6:6 7:12 8:16 9:4 10:-1 11:27 12:-4 13:6 14:-27 15:-9 16:-20 17:23 18:6 19:12 20:16 21:4 22:-1 23:27 24:-4 25:6 26:-27 27:-9 28:-20 29:23 30:6 31:12 32:16 33:4 34:-1 35:27 36:-4 
1.561752988047809 1:6 2:-27 3:-9 4:-20 5:23 6:6 7:12 8:16 9:4 10:-1 11:27 12:-4 13:6 14:-27 15:-9 16:-20 17:23 18:6 19:12 20:16 21:4 22:-1 23:27 24:-4 25:6 26:-27 27:-9 28:-20 29:23 30:6 31:12 32:16 33:4 34:-1 35:27 36:-4 
1.561752988047809 1:6 2:-27 3:-9 4:-20 5:23 6:6 7:12 8:16 9:4 10:-1 11:27 12:-4 13:6 14:-27 15:-9 16:-20 17:23 18:6 19:12 20:16 21:4 22:-1 23:27 24:-4 25:6 26:-27 27:-9 28:-20 29:23 30:6 31:12 32:16 33:4 34:-1 35:27 36:-4 
1.561752988047809 1:6 2:-27 3:-9 4:-20 5:23 6:6 7:12 8:16 9:4 10:-1 11:27 12:-4 13:6 14:-27 15:-9 16:-20 17:23 18:6 19:12 20:16 21:4 22:-1 23:27 24:-4 25:6 26:-27 27:-9 28:-20 29:23 30:6 31:9 32:-10 33:-2 34:-1 35:27 36:-4 
1.561752988047809 1:6 2:-27 3:-9 4:-20 5:23 6:6 7:10 8:-7 9:-1 10:-1 11:27 12:-4 13:6 14:-27 15:-9 16:-20 17:23 18:6 19:13 20:23 21:6 22:-1 23:27 24:-4 25:6 26:-27 27:-9 28:-19 29:22 30:5 31:13 32:23 33:6 34:-1 35:27 36:-4 
1.561752988047809 1:6 2:-27 3:-9 4:-20 5:23 6:6 7:13 8:23 9:6 10:-1 11:27 12:-4 13:6 14:-27 15:-9 16:-19 17:22 18:5 19:13 20:23 21:6 22:-1 23:27 24:-4 25:6 26:-27 27:-9 28:-19 29:22 30:5 31:13 32:23 33:6 34:-1 35:27 36:-4 
1.561752988047809 1:6 2:-27 3:-9 4:-19 5:22 6:5 7:13 8:23 9:6 10:-1 11:27 12:-4 13:6 14:-27 15:-9 16:-19 17:22 18:5 19:13 20:23 21:6 22:-1 23:27 24:-4 25:6 26:-27 27:-9 28:-19 29:22 30:5 31:13 32:23 33:6 34:-1 35:27 36:-4 
1.561752988047809 1:6 2:-27 3:-9 4:-19 5:22 6:5 7:13 8:23 9:6 10:-1 11:27 12:-4 13:6 14:-27 15:-9 16:-19 17:22 18:5 19:13 20:23 21:6 22:-1 23:27 24:-4 25:6 26:-27 27:-9 28:-19 29:22 30:5 31:13 32:23 33:6 34:-1 35:27 36:-4 
1.561752988047809 1:6 2:-27 3:-9 4:-19 5:22 6:5 7:13 8:23 9:6 10:-1 11:27 12:-4 13:6 14:-27 15:-9 16:-19 17:22 18:5 19:13 20:23 21:6 22:-1 23:27 24:-4 25:6 26:-27 27:-9 28:-19 29:22 30:5 31:13 32:23 33:6 34:-1 35:27 36:-4 
1.561752988047809 1:6 2:-27 3:-9 4:-19 5:22 6:5 7:13 8:23 9:6 10:-1 11:27 12:-4 13:6 14:-27 15:-9 16:-19 17:22 18:5 19:13 20:23 21:6 22:-1 23:27 24:-4 25:6 26:-27 27:-9 28:-19 29:22 30:5 31:13 32:23 33:6 34:-1 35:27 36:-4 
1.561752988047809 1:6 2:-27 3:-9 4:-19 5:22 6:5 7:13 8:23 9:6 10:-1 11:27 12:-4 13:6 14:-27 15:-9 16:-19 17:22 18:5 19:13 20:23 21:6 22:-1 23:27 24:-4 25:6 26:-27 27:-9 28:-19 29:22 30:5 31:13 32:23 33:6 34:-1 35:27 36:-4 
1.561752988047809 1:6 2:-27 3:-9 4:-19 5:22 6:5 7:13 8:23 9:6 10:-1 11:27 12:-4 13:6 14:-27 15:-9 16:-19 17:22 18:5 19:13 20:23 21:6 22:-1 23:27 24:-4 25:6 26:-27 27:-9 28:-19 29:22 30:5 31:13 32:23 33:6 34:-1 35:27 36:-4 
1.561752988047809 1:6 2:-27 3:-9 4:-19 5:22 6:5 7:13 8:23 9:6 10:-1 11:27 12:-4 13:6 14:-27 15:-9 16:-19 17:22 18:5 19:13 20:23 21:6 22:-1 23:27 24:-4 25:6 26:-27 27:-9 28:-19 29:22 30:5 31:13 32:23 33:6 34:-1 35:27 36:-4 
1.561752988047809 1:6 2:-27 3:-9 4:-19 5:22 6:5 7:13 8:23 9:6 10:-1 11:27 12:-4 13:6 14:-27 15:-9 16:-19 17:22 18:5 19:13 20:23 21:6 22:-1 23:27 24:-4 25:6 26:-27 27:-9 28:-19 29:22 30:5 31:13 32:23 33:6 34:-1 35:27 36:-4 
1.561752988047809 1:6 2:-27 3:-9 4:-19 5:22 6:5 7:13 8:23 9:6 10:-1 11:27 12:-4 13:6 14:-27 15:-9 16:-19 17:22 18:5 19:13 20:23 21:6 22:-1 23:27 24:-4 25:6 26:-27 27:-9 28:-19 29:22 30:5 31:13 32:23 33:6 34:-1 35:27 36:-4 
1.561752988047809 1:6 2:-27 3:-9 4:-19 5:22 6:5 7:13 8:23 9:6 10:-1 11:27 12:-4 13:6 14:-27 15:-9 16:-19 17:22 18:5 19:13 20:23 21:6 22:-1 23:27 24:-4 25:6 26:-27 27:-9 28:-19 29:22 30:5 31:13 32:23 33:6 34:-1 35:27 36:-4 
1.561752988047809 1:6 2:-27 3:-9 4:-19 5:22 6:5 7:13 8:23 9:6 10:-1 11:27 12:-4 13:6 14:-27 15:-9 16:-19 17:22 18:5 19:13 20:23 21:6 22:-1 23:27 24:-4 25:6 26:-27 27:-9 28:-19 29:22 30:5 31:13 32:23 33:6 34:-1 35:27 36:-4 
1.561752988047809 1:6 2:-27 3:-9 4:-19 5:22 6:5 7:13 8:23 9:6 10:-1 11:27 12:-4 13:6 14:-27 15:-9 16:-19 17:22 18:5 19:13 20:23 21:6 22:-1 23:27 24:-4 25:6 26:-27 27:-9 28:-19 29:22 30:5 31:13 32:23 33:6 34:-1 35:27 36:-4 
1.561752988047809 1:6 2:-27 3:-9 4:-19 5:22 6:5 7:13 8:23 9:6 10:-1 11:27 12:-4 13:6 14:-27 15:-9 16:-19 17:22 18:5 19:13 20:23 21:6 22:-1 23:27 24:-4 25:6 26:-27 27:-9 28:-19 29:22 30:5 31:9 32:-5 33:-2 34:-1 35:27 36:-4 
1.561752988047809 1:6 2:-26 3:-9 4:-18 5:22 6:5 7:12 8:19 9:8 10:0 11:27 12:-4 13:6 14:-26 15:-9 16:-18 17:22 18:5 19:12 20:19 21:8 22:0 23:27 24:-4 25:6 26:-26 27:-9 28:-18 29:22 30:5 31:12 32:19 33:8 34:0 35:27 36:-4 
1.561752988047809 1:6 2:-26 3:-9 4:-18 5:22 6:5 7:12 8:19 9:8 10:0 11:27 12:-4 13:6 14:-26 15:-9 16:-18 17:22 18:5 19:12 20:19 21:8 22:0 23:27 24:-4 25:6 26:-26 27:-9 28:-18 29:22 30:5 31:12 32:19 33:8 34:0 35:27 36:-4 
1.561752988047809 1:6 2:-26 3:-9 4:-18 5:22 6:5 7:12 8:19 9:8 10:0 11:27 12:-4 13:6 14:-27 15:-9 16:-17 17:21 18:5 19:13 20:18 21:8 22:-1 23:27 24:-4 25:6 26:-29 27:-9 28:-17 29:20 30:5 31:12 32:17 33:8 34:-1 35:27 36:-3 
1.561752988047809 1:6 2:-27 3:-9 4:-17 5:21 6:5 7:13 8:18 9:8 10:-1 11:27 12:-4 13:6 14:-29 15:-9 16:-17 17:20 18:5 19:12 20:17 21:8 22:-1 23:27 24:-3 25:6 26:-29 27:-8 28:-17 29:18 30:5 31:13 32:16 33:8 34:-1 35:27 36:-3 
1.561752988047809 1:6 2:-29 3:-8 4:-17 5:18 6:5 7:13 8:16 9:8 10:-1 11:27 12:-3 13:6 14:-30 15:-8 16:-17 17:18 18:5 19:12 20:16 21:8 22:-1 23:27 24:-3 25:6 26:-29 27:-8 28:-17 29:18 30:5 31:13 32:16 33:8 34:-1 35:27 36:-3 
1.561752988047809 1:6 2:-30 3:-8 4:-17 5:18 6:5 7:12 8:16 9:8 10:-1 11:27 12:-3 13:6 14:-29 15:-8 16:-17 17:18 18:5 19:13 20:16 21:8 22:-1 23:27 24:-3 25:6 26:-29 27:-8 28:-17 29:18 30:5 31:13 32:16 33:8 34:-1 35:27 36:-3 
1.561752988047809 1:6 2:-29 3:-8 4:-17 5:18 6:5 7:13 8:16 9:8 10:-1 11:27 12:-3 13:6 14:-29 15:-8 16:-17 17:18 18:5 19:13 20:16 21:8 22:-1 23:27 24:-3 25:6 26:-30 27:-8 28:-17 29:18 30:5 31:13 32:16 33:8 34:-1 35:27 36:-3 
1.561752988047809 1:6 2:-30 3:-8 4:-17 5:18 6:5 7:13 8:16 9:8 10:-1 11:27 12:-3 13:6 14:-30 15:-8 16:-17 17:18 18:5 19:13 20:16 21:8 22:-1 23:27 24:-3 25:6 26:-30 27:-8 28:-19 29:19 30:5 31:13 32:16 33:8 34:-1 35:27 36:-3 
1.561752988047809 1:6 2:-30 3:-8 4:-17 5:18 6:5 7:13 8:16 9:8 10:-1 11:27 12:-3 13:6 14:-30 15:-8 16:-19 17:19 18:5 19:13 20:16 21:8 22:-1 23:27 24:-3 25:6 26:-30 27:-8 28:-20 29:19 30:4 31:13 32:16 33:8 34:-1 35:27 36:-3 
1.561752988047809 1:6 2:-30 3:-8 4:-20 5:19 6:4 7:13 8:16 9:8 10:-1 11:27 12:-3 13:6 14:-30 15:-8 16:-20 17:19 18:4 19:13 20:16 21:8 22:-1 23:27 24:-3 25:7 26:-29 27:-8 28:-19 29:19 30:4 31:13 32:16 33:8 34:-1 35:27 36:-3 
1.561752988047809 1:7 2:-29 3:-8 4:-19 5:19 6:4 7:13 8:16 9:8 10:0 11:27 12:-3 13:7 14:-29 15:-8 16:-19 17:19 18:5 19:14 20:16 21:8 22:0 23:27 24:-3 25:7 26:-29 27:-8 28:-19 29:19 30:5 31:14 32:16 33:8 34:0 35:27 36:-3 
1.561752988047809 1:7 2:-29 3:-8 4:-19 5:19 6:5 7:14 8:16 9:8 10:0 11:27 12:-3 13:7 14:-29 15:-8 16:-19 17:19 18:5 19:14 20:16 21:8 22:0 23:27 24:-3 25:7 26:-29 27:-8 28:-19 29:19 30:5 31:14 32:16 33:8 34:0 35:27 36:-3 
1.561752988047809 1:7 2:-29 3:-8 4:-19 5:19 6:5 7:14 8:16 9:8 10:0 11:27 12:-3 13:7 14:-29 15:-8 16:-19 17:19 18:5 19:14 20:16 21:8 22:0 23:27 24:-3 25:7 26:-29 27:-8 28:-19 29:20 30:5 31:13 32:17 33:9 34:0 35:27 36:-3 
1.561752988047809 1:7 2:-29 3:-8 4:-19 5:19 6:5 7:14 8:16 9:8 10:0 11:27 12:-3 13:7 14:-29 15:-8 16:-19 17:20 18:5 19:13 20:17 21:9 22:0 23:27 24:-3 25:7 26:-29 27:-8 28:-19 29:20 30:5 31:13 32:17 33:9 34:0 35:27 36:-3 
1.561752988047809 1:7 2:-29 3:-8 4:-19 5:20 6:5 7:13 8:17 9:9 10:0 11:27 12:-3 13:7 14:-29 15:-8 16:-19 17:20 18:5 19:13 20:17 21:9 22:0 23:27 24:-3 25:7 26:-29 27:-8 28:-19 29:20 30:5 31:13 32:17 33:9 34:0 35:27 36:-3 
1.561752988047809 1:7 2:-29 3:-8 4:-19 5:20 6:5 7:13 8:17 9:9 10:0 11:27 12:-3 13:7 14:-29 15:-8 16:-19 17:20 18:5 19:13 20:17 21:9 22:0 23:27 24:-3 25:7 26:-29 27:-8 28:-19 29:20 30:5 31:13 32:17 33:9 34:0 35:27 36:-3 
1.561752988047809 1:7 2:-29 3:-8 4:-19 5:20 6:5 7:13 8:17 9:9 10:0 11:27 12:-3 13:7 14:-29 15:-8 16:-19 17:20 18:5 19:13 20:17 21:9 22:0 23:27 24:-3 25:7 26:-29 27:-8 28:-19 29:20 30:5 31:13 32:17 33:9 34:0 35:27 36:-3 
1.561752988047809 1:7 2:-29 3:-8 4:-19 5:20 6:5 7:13 8:17 9:9 10:0 11:27 12:-3 13:7 14:-29 15:-8 16:-19 17:20 18:5 19:13 20:17 21:9 22:0 23:27 24:-3 25:7 26:-29 27:-8 28:-20 29:20 30:4 31:13 32:17 33:8 34:-1 35:27 36:-3 
1.561752988047809 1:7 2:-29 3:-8 4:-19 5:20 6:5 7:13 8:17 9:9 10:0 11:27 12:-3 13:7 14:-29 15:-8 16:-20 17:20 18:4 19:13 20:17 21:8 22:-1 23:27 24:-3 25:7 26:-29 27:-8 28:-20 29:20 30:4 31:13 32:17 33:8 34:-1 35:27 36:-3 
1.561752988047809 1:7 2:-29 3:-8 4:-20 5:20 6:4 7:13 8:17 9:8 10:-1 11:27 12:-3 13:7 14:-29 15:-8 16:-20 17:20 18:4 19:13 20:17 21:8 22:-1 23:27 24:-3 25:7 26:-29 27:-8 28:-20 29:20 30:4 31:13 32:17 33:8 34:-1 35:27 36:-3 
1.561752988047809 1:7 2:-29 3:-8 4:-20 5:20 6:4 7:13 8:17 9:8 10:-1 11:27 12:-3 13:7 14:-29 15:-8 16:-20 17:20 18:4 19:13 20:17 21:8 22:-1 23:27 24:-3 25:7 26:-29 27:-8 28:-20 29:20 30:4 31:13 32:17 33:8 34:-1 35:27 36:-3 
1.561752988047809 1:7 2:-29 3:-8 4:-20 5:20 6:4 7:13 8:17 9:8 10:-1 11:27 12:-3 13:7 14:-29 15:-8 16:-20 17:20 18:4 19:13 20:17 21:8 22:-1 23:27 24:-3 25:7 26:-29 27:-8 28:-20 29:20 30:4 31:13 32:17 33:8 34:-1 35:27 36:-3 
1.561752988047809 1:7 2:-29 3:-8 4:-20 5:20 6:4 7:13 8:17 9:8 10:-1 11:27 12:-3 13:7 14:-29 15:-8 16:-20 17:20 18:4 19:13 20:17 21:8 22:-1 23:27 24:-3 25:7 26:-29 27:-8 28:-19 29:20 30:5 31:13 32:17 33:8 34:-1 35:27 36:-3 
1.561752988047809 1:7 2:-29 3:-8 4:-20 5:20 6:4 7:13 8:17 9:8 10:-1 11:27 12:-3 13:7 14:-29 15:-8 16:-19 17:20 18:5 19:13 20:17 21:8 22:-1 23:27 24:-3 25:7 26:-29 27:-8 28:-19 29:20 30:5 31:13 32:17 33:8 34:-1 35:27 36:-3 
1.561752988047809 1:7 2:-29 3:-8 4:-19 5:20 6:5 7:13 8:17 9:8 10:-1 11:27 12:-3 13:7 14:-29 15:-8 16:-19 17:20 18:5 19:13 20:17 21:8 22:-1 23:27 24:-3 25:6 26:-29 27:-9 28:-19 29:20 30:5 31:13 32:17 33:8 34:-1 35:27 36:-3 
1.561752988047809 1:6 2:-29 3:-9 4:-19 5:20 6:5 7:13 8:17 9:8 10:-1 11:27 12:-3 13:6 14:-29 15:-8 16:-18 17:20 18:5 19:13 20:17 21:9 22:0 23:27 24:-3 25:5 26:-30 27:-8 28:-18 29:20 30:5 31:13 32:17 33:9 34:0 35:27 36:-3 
1.561752988047809 1:6 2:-29 3:-8 4:-18 5:20 6:5 7:13 8:17 9:9 10:0 11:27 12:-3 13:5 14:-30 15:-8 16:-18 17:20 18:5 19:13 20:17 21:9 22:0 23:27 24:-3 25:5 26:-30 27:-8 28:-18 29:20 30:5 31:14 32:17 33:9 34:0 35:27 36:-3 
1.561752988047809 1:5 2:-30 3:-8 4:-18 5:20 6:5 7:13 8:17 9:9 10:0 11:27 12:-3 13:5 14:-30 15:-8 16:-18 17:20 18:5 19:14 20:17 21:9 22:0 23:27 24:-3 25:5 26:-30 27:-8 28:-18 29:20 30:5 31:14 32:17 33:9 34:0 35:27 36:-3 
-6.438247011952191 1:6 2:-26 3:-9 4:-22 5:20 6:5 7:13 8:20 9:8 10:-1 11:27 12:-3 13:6 14:-26 15:-9 16:-22 17:20 18:5 19:13 20:20 21:8 22:-1 23:27 24:-4 25:6 26:-26 27:-9 28:-22 29:20 30:5 31:12 32:20 33:7 34:-1 35:27 36:-4 
-6.438247011952191 1:6 2:-26 3:-9 4:-22 5:20 6:5 7:13 8:20 9:8 10:-1 11:27 12:-4 13:6 14:-26 15:-9 16:-22 17:20 18:5 19:12 20:20 21:7 22:-1 23:27 24:-4 25:6 26:-26 27:-9 28:-22 29:20 30:5 31:12 32:20 33:7 34:-1 35:27 36:-4 
-6.438247011952191 1:6 2:-26 3:-9 4:-22 5:20 6:5 7:12 8:20 9:7 10:-1 11:27 12:-4 13:6 14:-26 15:-9 16:-22 17:20 18:5 19:12 20:20 21:7 22:-1 23:27 24:-4 25:6 26:-26 27:-9 28:-22 29:20 30:5 31:12 32:20 33:7 34:-1 35:27 36:-4 
-6.438247011952191 1:6 2:-26 3:-9 4:-22 5:20 6:5 7:12 8:20 9:7 10:-1 11:27 12:-4 13:6 14:-26 15:-9 16:-22 17:20 18:5 19:12 20:20 21:7 22:-1 23:27 24:-4 25:6 26:-26 27:-9 28:-22 29:20 30:5 31:12 32:20 33:7 34:-1 35:27 36:-4 
-6.438247011952191 1:6 2:-26 3:-9 4:-22 5:20 6:5 7:12 8:20 9:7 10:-1 11:27 12:-4 13:6 14:-26 15:-9 16:-22 17:20 18:5 19:12 20:20 21:7 22:-1 23:27 24:-4 25:6 26:-26 27:-9 28:-22 29:20 30:5 31:13 32:18 33:7 34:-1 35:27 36:-4 
-6.438247011952191 1:6 2:-26 3:-9 4:-22 5:20 6:5 7:12 8:20 9:7 10:-1 11:27 12:-4 13:6 14:-26 15:-9 16:-22 17:20 18:5 19:13 20:18 21:7 22:-1 23:27 24:-4 25:6 26:-26 27:-9 28:-22 29:20 30:5 31:14 32:16 33:7 34:-1 35:27 36:-4 
-6.438247011952191 1:6 2:-26 3:-9 4:-22 5:21 6:5 7:14 8:16 9:7 10:-2 11:27 12:-4 13:7 14:-27 15:-10 16:-22 17:21 18:5 19:14 20:17 21:7 22:-1 23:27 24:-4 25:7 26:-27 27:-10 28:-22 29:21 30:5 31:14 32:17 33:7 34:-1 35:27 36:-4 
-6.438247011952191 1:7 2:-27 3:-10 4:-22 5:21 6:5 7:14 8:17 9:7 10:-1 11:27 12:-4 13:7 14:-27 15:-10 16:-22 17:21 18:5 19:14 20:17 21:7 22:-1 23:27 24:-4 25:7 26:-27 27:-10 28:-22 29:21 30:5 31:14 32:17 33:7 34:-1 35:27 36:-4 
-6.438247011952191 1:7 2:-27 3:-10 4:-22 5:21 6:5 7:14 8:17 9:7 10:-1 11:27 12:-4 13:7 14:-27 15:-10 16:-22 17:21 18:5 19:14 20:17 21:7 22:-1 23:27 24:-4 25:7 26:-27 27:-10 28:-22 29:21 30:5 31:14 32:17 33:7 34:-1 35:27 36:-4 
-6.438247011952191 1:7 2:-27 3:-10 4:-22 5:21 6:5 7:14 8:17 9:7 10:-1 11:27 12:-4 13:7 14:-27 15:-10 16:-22 17:21 18:5 19:14 20:17 21:7 22:-1 23:27 24:-4 25:7 26:-27 27:-10 28:-22 29:21 30:5 31:14 32:17 33:7 34:-1 35:27 36:-4 
-6.438247011952191 1:7 2:-27 3:-10 4:-22 5:21 6:5 7:14 8:17 9:7 10:-1 11:27 12:-4 13:7 14:-27 15:-10 16:-22 17:21 18:5 19:14 20:17 21:7 22:-1 23:27 24:-4 25:7 26:-27 27:-10 28:-22 29:21 30:5 31:14 32:17 33:7 34:-1 35:27 36:-4 
-6.438247011952191 1:7 2:-27 3:-10 4:-22 5:21 6:5 7:14 8:17 9:7 10:-1 11:27 12:-4 13:7 14:-27 15:-10 16:-22 17:21 18:5 19:14 20:17 21:7 22:-1 23:27 24:-4 25:6 26:-28 27:-9 28:-22 29:19 30:5 31:14 32:15 33:7 34:-1 35:27 36:-3 
-6.438247011952191 1:7 2:-27 3:-10 4:-22 5:21 6:5 7:14 8:17 9:7 10:-1 11:27 12:-4 13:6 14:-28 15:-9 16:-22 17:19 18:5 19:14 20:15 21:7 22:-1 23:27 24:-3 25:6 26:-28 27:-9 28:-22 29:19 30:5 31:14 32:15 33:7 34:-1 35:27 36:-3 
-6.438247011952191 1:6 2:-28 3:-9 4:-22 5:19 6:5 7:14 8:15 9:7 10:-1 11:27 12:-3 13:6 14:-28 15:-9 16:-22 17:19 18:5 19:14 20:15 21:7 22:-1 23:27 24:-3 25:6 26:-28 27:-9 28:-22 29:19 30:5 31:14 32:15 33:7 34:-1 35:27 36:-3 
-6.438247011952191 1:6 2:-28 3:-9 4:-22 5:19 6:5 7:14 8:15 9:7 10:-1 11:27 12:-3 13:6 14:-28 15:-9 16:-22 17:19 18:5 19:14 20:15 21:7 22:-1 23:27 24:-3 25:6 26:-28 27:-9 28:-22 29:19 30:5 31:14 32:15 33:7 34:-1 35:27 36:-3 
-6.438247011952191 1:6 2:-28 3:-9 4:-22 5:19 6:5 7:14 8:15 9:7 10:-1 11:27 12:-3 13:6 14:-28 15:-9 16:-22 17:19 18:5 19:14 20:15 21:7 22:-1 23:27 24:-3 25:7 26:-26 27:-10 28:-22 29:21 30:5 31:14 32:17 33:7 34:-1 35:27 36:-3 
-6.438247011952191 1:6 2:-28 3:-9 4:-22 5:19 6:5 7:14 8:15 9:7 10:-1 11:27 12:-3 13:7 14:-26 15:-10 16:-22 17:21 18:5 19:14 20:17 21:7 22:-1 23:27 24:-3 25:6 26:-26 27:-10 28:-22 29:21 30:5 31:14 32:17 33:7 34:-1 35:27 36:-3 
-3.466399657488593 1:6 2:-26 3:-11 4:-22 5:23 6:4 7:13 8:18 9:7 10:-1 11:27 12:-3 13:6 14:-26 15:-11 16:-22 17:23 18:4 19:13 20:18 21:7 22:-1 23:27 24:-3 25:6 26:-26 27:-11 28:-22 29:23 30:4 31:13 32:18 33:7 34:-1 35:27 36:-3 
-6.438247011952191 1:6 2:-26 3:-11 4:-22 5:23 6:4 7:13 8:18 9:7 10:-1 11:27 12:-3 13:6 14:-26 15:-11 16:-22 17:23 18:4 19:13 20:18 21:7 22:-1 23:27 24:-3 25:6 26:-26 27:-11 28:-22 29:23 30:4 31:13 32:18 33:7 34:-1 35:27 36:-3 
-6.438247011952191 1:6 2:-26 3:-11 4:-22 5:23 6:4 7:13 8:18 9:7 10:-1 11:27 12:-3 13:6 14:-26 15:-11 16:-22 17:23 18:4 19:13 20:18 21:7 22:-1 23:27 24:-3 25:6 26:-26 27:-11 28:-22 29:23 30:4 31:13 32:19 33:7 34:-1 35:27 36:-3 
-6.438247011952191 1:6 2:-26 3:-11 4:-22 5:23 6:4 7:13 8:18 9:7 10:-1 11:27 12:-3 13:6 14:-26 15:-11 16:-22 17:23 18:4 19:13 20:19 21:7 22:-1 23:27 24:-3 25:6 26:-27 27:-10 28:-22 29:21 30:4 31:14 32:18 33:8 34:-1 35:27 36:-3 
-6.438247011952191 1:6 2:-26 3:-11 4:-22 5:23 6:4 7:13 8:19 9:7 10:-1 11:27 12:-3 13:6 14:-27 15:-10 16:-22 17:21 18:4 19:14 20:18 21:8 22:-1 23:27 24:-3 25:6 26:-27 27:-10 28:-22 29:21 30:4 31:14 32:18 33:8 34:-1 35:27 36:-3 
-6.438247011952191 1:6 2:-27 3:-10 4:-22 5:21 6:4 7:14 8:18 9:8 10:-1 11:27 12:-3 13:6 14:-27 15:-10 16:-22 17:21 18:4 19:14 20:18 21:8 22:-1 23:27 24:-3 25:6 26:-27 27:-10 28:-22 29:21 30:4 31:14 32:18 33:8 34:-1 35:27 36:-3 
-6.438247011952191 1:6 2:-27 3:-10 4:-22 5:21 6:4 7:14 8:18 9:8 10:-1 11:27 12:-3 13:6 14:-27 15:-10 16:-22 17:21 18:4 19:14 20:18 21:8 22:-1 23:27 24:-3 25:6 26:-27 27:-10 28:-22 29:21 30:4 31:14 32:18 33:8 34:-1 35:27 36:-3 
-6.438247011952191 1:6 2:-26 3:-9 4:-22 5:20 6:5 7:13 8:20 9:8 10:-1 11:27 12:-3 13:6 14:-26 15:-9 16:-22 17:20 18:5 19:13 20:20 21:8 22:-1 23:27 24:-4 25:6 26:-26 27:-9 28:-22 29:20 30:5 31:12 32:20 33:7 34:-1 35:27 36:-4 
-6.438247011952191 1:6 2:-26 3:-9 4:-22 5:20 6:5 7:13 8:20 9:8 10:-1 11:27 12:-4 13:6 14:-26 15:-9 16:-22 17:20 18:5 19:12 20:20 21:7 22:-1 23:27 24:-4 25:6 26:-26 27:-9 28:-22 29:20 30:5 31:12 32:20 33:7 34:-1 35:27 36:-4 
-6.438247011952191 1:6 2:-26 3:-9 4:-22 5:20 6:5 7:12 8:20 9:7 10:-1 11:27 12:-4 13:6 14:-26 15:-9 16:-22 17:20 18:5 19:12 20:20 21:7 22:-1 23:27 24:-4 25:6 26:-26 27:-9 28:-22 29:20 30:5 31:12 32:20 33:7 34:-1 35:27 36:-4 
-6.438247011952191 1:6 2:-26 3:-9 4:-22 5:20 6:5 7:12 8:20 9:7 10:-1 11:27 12:-4 13:6 14:-26 15:-9 16:-22 17:20 18:5 19:12 20:20 21:7 22:-1 23:27 24:-4 25:6 26:-26 27:-9 28:-22 29:20 30:5 31:12 32:20 33:7 34:-1 35:27 36:-4 
-6.438247011952191 1:6 2:-26 3:-9 4:-22 5:20 6:5 7:12 8:20 9:7 10:-1 11:27 12:-4 13:6 14:-26 15:-9 16:-22 17:20 18:5 19:12 20:20 21:7 22:-1 23:27 24:-4 25:6 26:-26 27:-9 28:-22 29:20 30:5 31:13 32:18 33:7 34:-1 35:27 36:-4 
-6.438247011952191 1:6 2:-26 3:-9 4:-22 5:20 6:5 7:12 8:20 9:7 10:-1 11:27 12:-4 13:6 14:-26 15:-9 16:-22 17:20 18:5 19:13 20:18 21:7 22:-1 23:27 24:-4 25:6 26:-26 27:-9 28:-22 29:20 30:5 31:14 32:16 33:7 34:-1 35:27 36:-4 
-6.438247011952191 1:6 2:-26 3:-9 4:-22 5:21 6:5 7:14 8:16 9:7 10:-2 11:27 12:-4 13:7 14:-27 15:-10 16:-22 17:21 18:5 19:14 20:17 21:7 22:-1 23:27 24:-4 25:7 26:-27 27:-10 28:-22 29:21 30:5 31:14 32:17 33:7 34:-1 35:27 36:-4 
-6.438247011952191 1:7 2:-27 3:-10 4:-22 5:21 6:5 7:14 8:17 9:7 10:-1 11:27 12:-4 13:7 14:-27 15:-10 16:-22 17:21 18:5 19:14 20:17 21:7 22:-1 23:27 24:-4 25:7 26:-27 27:-10 28:-22 29:21 30:5 31:14 32:17 33:7 34:-1 35:27 36:-4 
-6.438247011952191 1:7 2:-27 3:-10 4:-22 5:21 6:5 7:14 8:17 9:7 10:-1 11:27 12:-4 13:7 14:-27 15:-10 16:-22 17:21 18:5 19:14 20:17 21:7 22:-1 23:27 24:-4 25:7 26:-27 27:-10 28:-22 29:21 30:5 31:14 32:17 33:7 34:-1 35:27 36:-4 
-6.438247011952191 1:7 2:-27 3:-10 4:-22 5:21 6:5 7:14 8:17 9:7 10:-1 11:27 12:-4 13:7 14:-27 15:-10 16:-22 17:21 18:5 19:14 20:17 21:7 22:-1 23:27 24:-4 25:7 26:-27 27:-10 28:-22 29:21 30:5 31:14 32:17 33:7 34:-1 35:27 36:-4 
-6.438247011952191 1:7 2:-27 3:-10 4:-22 5:21 6:5 7:14 8:17 9:7 10:-1 11:27 12:-4 13:7 14:-27 15:-10 16:-22 17:21 18:5 19:14 20:17 21:7 22:-1 23:27 24:-4 25:7 26:-27 27:-10 28:-22 29:21 30:5 31:14 32:17 33:7 34:-1 35:27 36:-4 
-6.438247011952191 1:7 2:-27 3:-10 4:-22 5:21 6:5 7:14 8:17 9:7 10:-1 11:27 12:-4 13:7 14:-27 15:-10 16:-22 17:21 18:5 19:14 20:17 21:7 22:-1 23:27 24:-4 25:6 26:-28 27:-9 28:-22 29:19 30:5 31:14 32:15 33:7 34:-1 35:27 36:-3 
-6.438247011952191 1:7 2:-27 3:-10 4:-22 5:21 6:5 7:14 8:17 9:7 10:-1 11:27 12:-4 13:6 14:-28 15:-9 16:-22 17:19 18:5 19:14 20:15 21:7 22:-1 23:27 24:-3 25:6 26:-28 27:-9 28:-22 29:19 30:5 31:14 32:15 33:7 34:-1 35:27 36:-3 
-6.438247011952191 1:6 2:-28 3:-9 4:-22 5:19 6:5 7:14 8:15 9:7 10:-1 11:27 12:-3 13:6 14:-28 15:-9 16:-22 17:19 18:5 19:14 20:15 21:7 22:-1 23:27 24:-3 25:6 26:-28 27:-9 28:-22 29:19 30:5 31:14 32:15 33:7 34:-1 35:27 36:-3 
-6.438247011952191 1:6 2:-28 3:-9 4:-22 5:19 6:5 7:14 8:15 9:7 10:-1 11:27 12:-3 13:6 14:-28 15:-9 16:-22 17:19 18:5 19:14 20:15 21:7 22:-1 23:27 24:-3 25:6 26:-28 27:-9 28:-22 29:19 30:5 31:14 32:15 33:7 34:-1 35:27 36:-3 
-6.438247011952191 1:6 2:-28 3:-9 4:-22 5:19 6:5 7:14 8:15 9:7 10:-1 11:27 12:-3 13:6 14:-28 15:-9 16:-22 17:19 18:5 19:14 20:15 21:7 22:-1 23:27 24:-3 25:7 26:-26 27:-10 28:-22 29:21 30:5 31:14 32:17 33:7 34:-1 35:27 36:-3 
-6.438247011952191 1:6 2:-28 3:-9 4:-22 5:19 6:5 7:14 8:15 9:7 10:-1 11:27 12:-3 13:7 14:-26 15:-10 16:-22 17:21 18:5 19:14 20:17 21:7 22:-1 23:27 24:-3 25:6 26:-26 27:-10 28:-22 29:21 30:5 31:14 32:17 33:7 34:-1 35:27 36:-3 
-6.438247011952191 1:6 2:-26 3:-11 4:-22 5:23 6:4 7:13 8:18 9:7 10:-1 11:27 12:-3 13:6 14:-26 15:-11 16:-22 17:23 18:4 19:13 20:18 21:7 22:-1 23:27 24:-3 25:6 26:-26 27:-11 28:-22 29:23 30:4 31:13 32:18 33:7 34:-1 35:27 36:-3 
-6.438247011952191 1:6 2:-26 3:-11 4:-22 5:23 6:4 7:13 8:18 9:7 10:-1 11:27 12:-3 13:6 14:-26 15:-11 16:-22 17:23 18:4 19:13 20:18 21:7 22:-1 23:27 24:-3 25:6 26:-26 27:-11 28:-22 29:23 30:4 31:13 32:18 33:7 34:-1 35:27 36:-3 
-6.438247011952191 1:6 2:-26 3:-11 4:-22 5:23 6:4 7:13 8:18 9:7 10:-1 11:27 12:-3 13:6 14:-26 15:-11 16:-22 17:23 18:4 19:13 20:18 21:7 22:-1 23:27 24:-3 25:6 26:-26 27:-11 28:-22 29:23 30:4 31:13 32:18 33:7 34:-1 35:27 36:-3 
-6.438247011952191 1:6 2:-26 3:-11 4:-22 5:23 6:4 7:13 8:18 9:7 10:-1 11:27 12:-3 13:6 14:-26 15:-11 16:-22 17:23 18:4 19:13 20:18 21:7 22:-1 23:27 24:-3 25:6 26:-26 27:-11 28:-22 29:23 30:4 31:13 32:18 33:7 34:-1 35:27 36:-3 
-6.438247011952191 1:6 2:-26 3:-11 4:-22 5:23 6:4 7:13 8:18 9:7 10:-1 11:27 12:-3 13:6 14:-26 15:-11 16:-22 17:23 18:4 19:13 20:18 21:7 22:-1 23:27 24:-3 25:6 26:-26 27:-11 28:-22 29:23 30:4 31:13 32:18 33:7 34:-1 35:27 36:-3 
-6.438247011952191 1:6 2:-26 3:-11 4:-22 5:23 6:4 7:13 8:18 9:7 10:-1 11:27 12:-3 13:6 14:-26 15:-11 16:-22 17:23 18:4 19:13 20:18 21:7 22:-1 23:27 24:-3 25:6 26:-26 27:-11 28:-22 29:23 30:4 31:13 32:18 33:7 34:-1 35:27 36:-3 
-6.438247011952191 1:6 2:-26 3:-11 4:-22 5:23 6:4 7:13 8:18 9:7 10:-1 11:27 12:-3 13:6 14:-26 15:-11 16:-22 17:23 18:4 19:13 20:18 21:7 22:-1 23:27 24:-3 25:6 26:-26 27:-11 28:-22 29:23 30:4 31:13 32:18 33:7 34:-1 35:27 36:-3 
-6.438247011952191 1:6 2:-26 3:-11 4:-22 5:23 6:4 7:13 8:18 9:7 10:-1 11:27 12:-3 13:6 14:-26 15:-11 16:-22 17:23 18:4 19:13 20:18 21:7 22:-1 23:27 24:-3 25:6 26:-26 27:-11 28:-22 29:23 30:4 31:13 32:19 33:7 34:-1 35:27 36:-3 
-6.438247011952191 1:6 2:-26 3:-11 4:-22 5:23 6:4 7:13 8:18 9:7 10:-1 11:27 12:-3 13:6 14:-26 15:-11 16:-22 17:23 18:4 19:13 20:19 21:7 22:-1 23:27 24:-3 25:6 26:-27 27:-10 28:-22 29:21 30:4 31:14 32:18 33:8 34:-1 35:27 36:-3 
-6.438247011952191 1:6 2:-26 3:-11 4:-22 5:23 6:4 7:13 8:19 9:7 10:-1 11:27 12:-3 13:6 14:-27 15:-10 16:-22 17:21 18:4 19:14 20:18 21:8 22:-1 23:27 24:-3 25:6 26:-27 27:-10 28:-22 29:21 30:4 31:14 32:18 33:8 34:-1 35:27 36:-3 
-6.438247011952191 1:6 2:-27 3:-10 4:-22 5:21 6:4 7:14 8:18 9:8 10:-1 11:27 12:-3 13:6 14:-27 15:-10 16:-22 17:21 18:4 19:14 20:18 21:8 22:-1 23:27 24:-3 25:6 26:-27 27:-10 28:-22 29:21 30:4 31:14 32:18 33:8 34:-1 35:27 36:-3 
-6.438247011952191 1:6 2:-27 3:-10 4:-22 5:21 6:4 7:14 8:18 9:8 10:-1 11:27 12:-3 13:6 14:-27 15:-10 16:-22 17:21 18:4 19:14 20:18 21:8 22:-1 23:27 24:-3 25:6 26:-27 27:-10 28:-22 29:21 30:4 31:14 32:18 33:8 34:-1 35:27 36:-3 
