svm_type c_svc
kernel_type rbf
gamma 0.00012207
nr_class 2
total_sv 53
rho 11.983
label 1 3
nr_sv 23 30
SV
430.5908032988846 1:0 2:0 3:0 4:0 5:0 6:0 7:0 8:0 9:-3 10:0 11:0 12:0 13:0 14:0 15:0 16:0 17:0 18:1 19:0 20:0 21:-1 22:0 23:0 24:0 25:0 26:0 27:0 28:0 29:0 30:1 31:0 32:0 33:2 34:0 35:0 36:0 37:0 38:0 39:0 40:0 41:0 42:1 43:0 44:0 45:1 46:0 47:0 48:0 49:0 50:0 51:0 52:0 53:0 54:1 55:0 56:0 57:4 58:0 59:0 60:0 
430.5908032988846 1:0 2:0 3:0 4:0 5:0 6:0 7:0 8:0 9:-3 10:0 11:0 12:0 13:0 14:0 15:0 16:0 17:0 18:0 19:0 20:0 21:0 22:0 23:0 24:0 25:0 26:0 27:0 28:0 29:0 30:0 31:0 32:0 33:-1 34:0 35:0 36:0 37:0 38:0 39:0 40:0 41:0 42:0 43:0 44:0 45:2 46:0 47:0 48:0 49:0 50:0 51:0 52:0 53:0 54:0 55:0 56:0 57:6 58:0 59:0 60:0 
204.9338233139899 1:0 2:0 3:0 4:0 5:0 6:0 7:0 8:0 9:-3 10:0 11:0 12:0 13:0 14:0 15:0 16:0 17:0 18:0 19:0 20:0 21:-4 22:0 23:0 24:0 25:0 26:0 27:0 28:0 29:0 30:0 31:0 32:0 33:-1 34:0 35:0 36:0 37:0 38:0 39:0 40:0 41:0 42:0 43:0 44:0 45:3 46:0 47:0 48:0 49:0 50:0 51:0 52:0 53:0 54:0 55:0 56:0 57:8 58:0 59:0 60:0 
26.72491949741152 1:0 2:0 3:0 4:0 5:0 6:0 7:0 8:0 9:-17 10:0 11:0 12:0 13:0 14:0 15:0 16:0 17:0 18:0 19:0 20:0 21:-12 22:0 23:0 24:0 25:0 26:0 27:0 28:1 29:0 30:0 31:1 32:0 33:-1 34:0 35:0 36:0 37:0 38:0 39:0 40:2 41:0 42:0 43:0 44:0 45:17 46:0 47:0 48:0 49:0 50:0 51:0 52:0 53:0 54:0 55:0 56:0 57:17 58:0 59:0 60:0 
100.9217276414456 1:0 2:0 3:0 4:0 5:0 6:0 7:0 8:0 9:-18 10:0 11:0 12:0 13:0 14:0 15:0 16:1 17:0 18:0 19:1 20:0 21:-7 22:0 23:0 24:0 25:0 26:0 27:0 28:2 29:0 30:0 31:0 32:0 33:11 34:0 35:0 36:0 37:0 38:0 39:0 40:0 41:0 42:0 43:0 44:0 45:11 46:0 47:0 48:0 49:0 50:0 51:0 52:0 53:0 54:0 55:-1 56:0 57:7 58:0 59:0 60:0 
430.5908032988846 1:0 2:0 3:0 4:2 5:0 6:0 7:0 8:0 9:4 10:0 11:0 12:0 13:0 14:0 15:0 16:0 17:0 18:0 19:0 20:0 21:4 22:0 23:0 24:0 25:0 26:0 27:0 28:0 29:0 30:0 31:-1 32:0 33:0 34:0 35:0 36:0 37:0 38:0 39:0 40:0 41:0 42:0 43:0 44:0 45:-4 46:0 47:0 48:0 49:0 50:0 51:0 52:0 53:0 54:0 55:0 56:0 57:-4 58:0 59:0 60:0 
1.008312044807498 1:0 2:0 3:0 4:0 5:0 6:0 7:0 8:0 9:6 10:0 11:0 12:0 13:0 14:0 15:0 16:0 17:0 18:0 19:-1 20:0 21:2 22:0 23:0 24:0 25:0 26:0 27:0 28:0 29:0 30:0 31:0 32:0 33:-2 34:0 35:0 36:0 37:0 38:0 39:0 40:0 41:0 42:0 43:0 44:0 45:-2 46:0 47:0 48:0 49:0 50:0 51:0 52:0 53:0 54:0 55:4 56:0 57:-2 58:0 59:0 60:0 
411.6771169467656 1:0 2:0 3:0 4:0 5:0 6:2 7:-2 8:0 9:0 10:0 11:0 12:0 13:0 14:0 15:0 16:0 17:0 18:2 19:-2 20:0 21:0 22:0 23:0 24:0 25:0 26:0 27:0 28:0 29:0 30:2 31:2 32:0 33:0 34:0 35:0 36:0 37:0 38:0 39:0 40:0 41:0 42:2 43:2 44:0 45:1 46:0 47:0 48:0 49:0 50:0 51:0 52:4 53:0 54:-6 55:1 56:0 57:3 58:0 59:0 60:0 
430.5908032988846 1:-1 2:0 3:0 4:0 5:0 6:1 7:0 8:0 9:0 10:0 11:0 12:0 13:0 14:0 15:1 16:1 17:0 18:0 19:0 20:0 21:0 22:0 23:0 24:0 25:0 26:0 27:1 28:1 29:0 30:0 31:0 32:0 33:0 34:0 35:0 36:0 37:0 38:0 39:1 40:0 41:0 42:0 43:0 44:0 45:0 46:0 47:0 48:0 49:0 50:0 51:1 52:0 53:0 54:0 55:0 56:0 57:0 58:0 59:0 60:0 
430.5908032988846 1:0 2:0 3:0 4:1 5:0 6:0 7:0 8:0 9:1 10:0 11:0 12:0 13:0 14:0 15:0 16:1 17:0 18:0 19:0 20:0 21:1 22:0 23:0 24:0 25:0 26:0 27:0 28:0 29:0 30:0 31:0 32:0 33:1 34:0 35:0 36:0 37:0 38:0 39:0 40:0 41:0 42:0 43:0 44:0 45:1 46:0 47:0 48:0 49:0 50:0 51:0 52:0 53:0 54:0 55:0 56:0 57:0 58:0 59:0 60:0 
430.5908032988846 1:0 2:0 3:0 4:1 5:0 6:0 7:0 8:0 9:1 10:0 11:0 12:0 13:0 14:0 15:0 16:0 17:0 18:0 19:0 20:0 21:1 22:0 23:0 24:0 25:0 26:0 27:0 28:0 29:0 30:0 31:0 32:0 33:1 34:0 35:0 36:0 37:0 38:0 39:0 40:0 41:0 42:0 43:0 44:0 45:0 46:0 47:0 48:0 49:0 50:0 51:0 52:0 53:0 54:1 55:0 56:0 57:0 58:0 59:0 60:0 
430.5908032988846 1:0 2:0 3:0 4:0 5:0 6:0 7:0 8:0 9:1 10:0 11:0 12:0 13:0 14:0 15:0 16:0 17:0 18:0 19:0 20:0 21:1 22:0 23:0 24:0 25:0 26:0 27:0 28:0 29:0 30:0 31:0 32:0 33:0 34:0 35:0 36:0 37:0 38:0 39:0 40:0 41:0 42:1 43:0 44:0 45:0 46:0 47:0 48:0 49:0 50:0 51:0 52:0 53:0 54:1 55:0 56:0 57:0 58:0 59:0 60:0 
430.5908032988846 1:0 2:0 3:1 4:0 5:0 6:0 7:0 8:0 9:1 10:0 11:0 12:0 13:0 14:0 15:1 16:0 17:0 18:0 19:0 20:0 21:0 22:0 23:0 24:0 25:0 26:0 27:1 28:0 29:0 30:1 31:0 32:0 33:0 34:0 35:0 36:0 37:0 38:0 39:1 40:0 41:0 42:1 43:0 44:0 45:0 46:0 47:0 48:0 49:1 50:0 51:-1 52:0 53:0 54:1 55:0 56:0 57:0 58:0 59:0 60:0 
430.5908032988846 1:0 2:0 3:1 4:0 5:0 6:0 7:0 8:0 9:0 10:0 11:0 12:0 13:0 14:0 15:1 16:0 17:0 18:1 19:0 20:0 21:0 22:0 23:0 24:0 25:0 26:0 27:1 28:0 29:0 30:1 31:0 32:0 33:0 34:0 35:0 36:0 37:1 38:0 39:-1 40:0 41:0 42:1 43:0 44:0 45:0 46:0 47:0 48:0 49:0 50:0 51:-1 52:-1 53:0 54:1 55:0 56:0 57:0 58:0 59:0 60:0 
430.5908032988846 1:0 2:0 3:2 4:0 5:0 6:1 7:0 8:0 9:0 10:0 11:0 12:0 13:0 14:0 15:2 16:0 17:0 18:1 19:0 20:0 21:0 22:0 23:0 24:0 25:1 26:0 27:0 28:0 29:0 30:1 31:0 32:0 33:0 34:0 35:0 36:0 37:0 38:0 39:0 40:-1 41:0 42:1 43:0 44:0 45:0 46:0 47:0 48:0 49:0 50:0 51:0 52:-1 53:0 54:0 55:0 56:0 57:0 58:0 59:0 60:0 
430.5908032988846 1:0 2:0 3:2 4:0 5:0 6:1 7:0 8:0 9:0 10:0 11:0 12:0 13:1 14:0 15:0 16:0 17:0 18:1 19:0 20:0 21:0 22:0 23:0 24:0 25:0 26:0 27:0 28:-1 29:0 30:1 31:0 32:0 33:0 34:0 35:0 36:0 37:0 38:0 39:0 40:-1 41:0 42:0 43:0 44:0 45:0 46:0 47:0 48:0 49:0 50:0 51:0 52:0 53:0 54:0 55:0 56:0 57:0 58:0 59:0 60:0 
430.5908032988846 1:1 2:0 3:0 4:0 5:0 6:1 7:0 8:0 9:0 10:0 11:0 12:0 13:0 14:0 15:0 16:-1 17:0 18:1 19:0 20:0 21:0 22:0 23:0 24:0 25:0 26:0 27:0 28:-1 29:0 30:0 31:0 32:0 33:0 34:0 35:0 36:0 37:0 38:0 39:0 40:0 41:0 42:0 43:0 44:0 45:0 46:0 47:0 48:0 49:0 50:0 51:0 52:0 53:0 54:0 55:1 56:0 57:0 58:0 59:0 60:0 
430.5908032988846 1:0 2:0 3:0 4:0 5:0 6:0 7:1 8:0 9:0 10:0 11:0 12:0 13:0 14:0 15:0 16:0 17:0 18:0 19:0 20:0 21:0 22:0 23:0 24:0 25:0 26:0 27:0 28:0 29:0 30:0 31:0 32:0 33:0 34:0 35:0 36:0 37:0 38:0 39:0 40:0 41:0 42:0 43:0 44:0 45:0 46:0 47:0 48:0 49:0 50:0 51:0 52:0 53:0 54:0 55:0 56:0 57:0 58:0 59:0 60:0 
430.5908032988846 1:0 2:0 3:0 4:0 5:0 6:0 7:0 8:0 9:0 10:0 11:0 12:0 13:0 14:0 15:0 16:0 17:0 18:0 19:0 20:0 21:0 22:0 23:0 24:0 25:0 26:0 27:0 28:0 29:0 30:0 31:0 32:0 33:0 34:0 35:0 36:0 37:0 38:0 39:0 40:0 41:0 42:0 43:0 44:0 45:0 46:0 47:0 48:0 49:0 50:0 51:0 52:0 53:0 54:0 55:0 56:0 57:0 58:0 59:0 60:0 
430.5908032988846 1:0 2:0 3:0 4:0 5:0 6:0 7:0 8:0 9:0 10:0 11:0 12:0 13:0 14:0 15:0 16:0 17:0 18:0 19:0 20:0 21:0 22:0 23:0 24:0 25:0 26:0 27:0 28:0 29:0 30:0 31:0 32:0 33:0 34:0 35:0 36:0 37:0 38:0 39:0 40:0 41:0 42:0 43:0 44:0 45:0 46:0 47:0 48:0 49:0 50:0 51:0 52:-1 53:0 54:0 55:0 56:0 57:0 58:0 59:0 60:0 
430.5908032988846 1:0 2:0 3:0 4:0 5:0 6:0 7:0 8:0 9:0 10:0 11:0 12:0 13:0 14:0 15:0 16:-1 17:0 18:0 19:0 20:0 21:0 22:0 23:0 24:0 25:0 26:0 27:0 28:-1 29:0 30:0 31:0 32:0 33:0 34:0 35:0 36:0 37:0 38:0 39:0 40:0 41:0 42:0 43:0 44:0 45:0 46:0 47:0 48:0 49:0 50:0 51:0 52:0 53:0 54:0 55:0 56:0 57:0 58:0 59:0 60:0 
430.5908032988846 1:0 2:0 3:0 4:-1 5:0 6:0 7:0 8:0 9:0 10:0 11:0 12:0 13:0 14:0 15:0 16:-1 17:0 18:0 19:0 20:0 21:0 22:0 23:0 24:0 25:0 26:0 27:0 28:0 29:0 30:0 31:0 32:0 33:0 34:0 35:0 36:0 37:0 38:0 39:0 40:0 41:0 42:0 43:0 44:0 45:0 46:0 47:0 48:0 49:0 50:0 51:0 52:0 53:0 54:0 55:0 56:0 57:0 58:0 59:0 60:0 
430.5908032988846 1:0 2:0 3:0 4:-1 5:0 6:0 7:0 8:0 9:0 10:0 11:0 12:0 13:0 14:0 15:0 16:0 17:0 18:0 19:0 20:0 21:0 22:0 23:0 24:0 25:0 26:0 27:0 28:0 29:0 30:0 31:0 32:0 33:0 34:0 35:0 36:0 37:0 38:0 39:0 40:0 41:0 42:0 43:0 44:0 45:0 46:0 47:0 48:0 49:0 50:0 51:0 52:1 53:0 54:0 55:0 56:0 57:0 58:0 59:0 60:0 
-17.49941709241304 1:0 2:0 3:0 4:2 5:0 6:10 7:1 8:0 9:0 10:0 11:0 12:0 13:0 14:0 15:0 16:2 17:0 18:0 19:2 20:0 21:1 22:0 23:0 24:0 25:0 26:0 27:0 28:-2 29:0 30:-2 31:1 32:0 33:1 34:0 35:0 36:0 37:0 38:0 39:0 40:-1 41:0 42:-2 43:1 44:0 45:0 46:0 47:0 48:0 49:0 50:0 51:0 52:-1 53:0 54:-2 55:-1 56:0 57:0 58:0 59:0 60:0 
-389.6530420961391 1:0 2:0 3:1 4:2 5:0 6:2 7:2 8:0 9:1 10:0 11:0 12:0 13:0 14:0 15:1 16:-2 17:0 18:0 19:1 20:0 21:1 22:0 23:0 24:0 25:0 26:0 27:1 28:-1 29:0 30:0 31:1 32:0 33:0 34:0 35:0 36:0 37:0 38:0 39:1 40:-1 41:0 42:0 43:-1 44:0 45:0 46:0 47:0 48:0 49:-1 50:0 51:-1 52:3 53:0 54:0 55:-1 56:0 57:-1 58:0 59:0 60:0 
-389.6530420961391 1:0 2:0 3:1 4:-1 5:0 6:0 7:2 8:0 9:1 10:0 11:0 12:0 13:0 14:0 15:1 16:0 17:0 18:0 19:2 20:0 21:0 22:0 23:0 24:0 25:0 26:0 27:1 28:0 29:0 30:0 31:0 32:0 33:0 34:0 35:0 36:0 37:-1 38:0 39:-1 40:4 41:0 42:0 43:0 44:0 45:-1 46:0 47:0 48:0 49:0 50:0 51:-1 52:-1 53:0 54:1 55:-1 56:0 57:0 58:0 59:0 60:0 
-389.6530420961391 1:0 2:0 3:2 4:1 5:0 6:0 7:3 8:0 9:1 10:0 11:0 12:0 13:0 14:0 15:2 16:1 17:0 18:0 19:1 20:0 21:1 22:0 23:0 24:0 25:-1 26:0 27:0 28:5 29:0 30:0 31:1 32:0 33:0 34:0 35:0 36:0 37:0 38:0 39:0 40:0 41:0 42:1 43:0 44:0 45:1 46:0 47:0 48:0 49:0 50:0 51:0 52:-3 53:0 54:1 55:-1 56:0 57:1 58:0 59:0 60:0 
-389.6530420961391 1:0 2:0 3:2 4:1 5:0 6:0 7:1 8:0 9:0 10:0 11:0 12:0 13:-1 14:0 15:0 16:5 17:0 18:0 19:1 20:0 21:-1 22:0 23:0 24:0 25:0 26:0 27:0 28:0 29:0 30:1 31:0 32:0 33:0 34:0 35:0 36:0 37:0 38:0 39:0 40:-3 41:0 42:1 43:-1 44:0 45:0 46:0 47:0 48:0 49:0 50:0 51:0 52:-4 53:0 54:1 55:-1 56:0 57:2 58:0 59:0 60:0 
-389.6530420961391 1:-1 2:0 3:0 4:5 5:0 6:0 7:1 8:0 9:-1 10:0 11:0 12:0 13:0 14:0 15:0 16:0 17:0 18:1 19:0 20:0 21:0 22:0 23:0 24:0 25:0 26:0 27:0 28:-3 29:0 30:1 31:-1 32:0 33:0 34:0 35:0 36:0 37:0 38:0 39:0 40:-4 41:0 42:1 43:-1 44:0 45:2 46:0 47:0 48:0 49:0 50:0 51:0 52:0 53:0 54:1 55:-1 56:0 57:2 58:0 59:0 60:0 
-389.6530420961391 1:0 2:0 3:0 4:1 5:0 6:1 7:0 8:0 9:-1 10:0 11:0 12:0 13:0 14:0 15:0 16:-2 17:0 18:1 19:-1 20:0 21:-1 22:0 23:0 24:0 25:0 26:0 27:0 28:-3 29:0 30:1 31:-1 32:0 33:1 34:0 35:0 36:0 37:0 38:0 39:0 40:1 41:0 42:1 43:-1 44:0 45:1 46:0 47:0 48:0 49:0 50:0 51:0 52:3 53:0 54:-2 55:-1 56:0 57:1 58:0 59:0 60:0 
-389.6530420961391 1:0 2:0 3:0 4:-3 5:0 6:2 7:0 8:0 9:-1 10:0 11:0 12:0 13:0 14:0 15:0 16:-4 17:0 18:2 19:0 20:0 21:1 22:0 23:0 24:0 25:0 26:0 27:0 28:0 29:0 30:2 31:0 32:0 33:1 34:0 35:0 36:0 37:0 38:0 39:0 40:2 41:0 42:-1 43:0 44:0 45:1 46:0 47:0 48:0 49:0 50:0 51:0 52:1 53:0 54:-3 55:0 56:0 57:1 58:0 59:0 60:0 
-296.3807600240739 1:0 2:0 3:0 4:-4 5:0 6:3 7:0 8:0 9:0 10:0 11:0 12:0 13:0 14:0 15:0 16:0 17:0 18:3 19:0 20:0 21:0 22:0 23:0 24:0 25:0 26:0 27:0 28:2 29:0 30:0 31:0 32:0 33:0 34:0 35:0 36:0 37:0 38:0 39:0 40:1 41:0 42:-2 43:0 44:0 45:0 46:0 47:0 48:0 49:0 50:0 51:0 52:0 53:0 54:-2 55:-1 56:0 57:0 58:0 59:0 60:0 
-166.4250166632141 1:0 2:0 3:0 4:1 5:0 6:0 7:0 8:0 9:0 10:0 11:0 12:0 13:0 14:0 15:0 16:0 17:0 18:0 19:-1 20:0 21:0 22:0 23:0 24:0 25:1 26:0 27:1 28:0 29:0 30:0 31:-1 32:0 33:1 34:0 35:0 36:0 37:0 38:0 39:1 40:0 41:0 42:0 43:0 44:0 45:1 46:0 47:0 48:0 49:0 50:0 51:1 52:0 53:0 54:0 55:0 56:0 57:1 58:0 59:0 60:0 
-389.6530420961391 1:0 2:0 3:0 4:0 5:0 6:0 7:-1 8:0 9:0 10:0 11:0 12:0 13:1 14:0 15:1 16:0 17:0 18:0 19:-1 20:0 21:1 22:0 23:0 24:0 25:0 26:0 27:1 28:0 29:0 30:0 31:0 32:0 33:1 34:0 35:0 36:0 37:0 38:0 39:1 40:0 41:0 42:0 43:0 44:0 45:1 46:0 47:0 48:0 49:0 50:0 51:1 52:0 53:0 54:0 55:1 56:0 57:0 58:0 59:0 60:0 
-90.25105272936995 1:0 2:0 3:1 4:6 5:0 6:-10 7:0 8:0 9:3 10:0 11:0 12:1 13:0 14:0 15:1 16:6 17:0 18:-10 19:1 20:0 21:2 22:0 23:0 24:1 25:0 26:0 27:1 28:-7 29:0 30:-1 31:0 32:0 33:0 34:1 35:0 36:1 37:0 38:0 39:1 40:-9 41:0 42:10 43:-2 44:0 45:-1 46:1 47:0 48:0 49:0 50:0 51:0 52:2 53:0 54:12 55:-3 56:0 57:-1 58:1 59:0 60:0 
-42.94659842508123 1:0 2:0 3:1 4:-6 5:0 6:-11 7:2 8:0 9:2 10:1 11:0 12:1 13:0 14:0 15:1 16:-8 17:0 18:0 19:0 20:0 21:1 22:1 23:0 24:0 25:0 26:0 27:0 28:3 29:0 30:2 31:-1 32:0 33:1 34:1 35:0 36:0 37:0 38:0 39:-1 40:4 41:0 42:4 43:-2 44:0 45:0 46:1 47:0 48:0 49:0 50:0 51:0 52:4 53:0 54:5 55:-2 56:0 57:-2 58:0 59:0 60:0 
-63.90454300813844 1:0 2:0 3:1 4:-10 5:0 6:-3 7:0 8:0 9:2 10:1 11:0 12:0 13:0 14:0 15:0 16:1 17:0 18:-1 19:-1 20:0 21:2 22:1 23:0 24:0 25:0 26:0 27:-1 28:2 29:0 30:1 31:-2 32:0 33:1 34:1 35:0 36:0 37:0 38:0 39:0 40:2 41:0 42:2 43:-2 44:0 45:-1 46:0 47:0 48:0 49:0 50:0 51:0 52:2 53:0 54:2 55:1 56:0 57:-2 58:0 59:0 60:0 
-231.4814472443242 1:0 2:0 3:1 4:-1 5:0 6:-2 7:-1 8:0 9:3 10:1 11:0 12:0 13:0 14:0 15:0 16:0 17:0 18:0 19:-2 20:0 21:2 22:1 23:0 24:0 25:0 26:0 27:1 28:0 29:0 30:1 31:-2 32:0 33:0 34:0 35:0 36:0 37:0 38:0 39:1 40:0 41:0 42:1 43:1 44:0 45:-1 46:0 47:0 48:0 49:-1 50:0 51:1 52:1 53:0 54:2 55:2 56:0 57:-3 58:0 59:0 60:0 
-312.2775091727499 1:0 2:0 3:0 4:-1 5:0 6:-1 7:-2 8:0 9:4 10:1 11:0 12:0 13:0 14:0 15:1 16:-1 17:0 18:0 19:-2 20:0 21:2 22:0 23:0 24:0 25:0 26:0 27:1 28:-1 29:0 30:0 31:1 32:0 33:1 34:0 35:0 36:0 37:-1 38:0 39:1 40:0 41:0 42:1 43:2 44:0 45:-1 46:0 47:0 48:0 49:0 50:0 51:1 52:-1 53:0 54:2 55:1 56:0 57:-2 58:0 59:0 60:0 
-17.80036368824971 1:0 2:0 3:0 4:0 5:0 6:-1 7:-3 8:0 9:3 10:0 11:0 12:0 13:0 14:0 15:0 16:0 17:0 18:-1 19:0 20:0 21:2 22:0 23:0 24:0 25:-1 26:0 27:0 28:1 29:0 30:0 31:1 32:0 33:0 34:0 35:0 36:0 37:0 38:0 39:0 40:0 41:0 42:1 43:0 44:0 45:-1 46:0 47:0 48:0 49:0 50:0 51:1 52:-1 53:0 54:2 55:-1 56:0 57:-1 58:0 59:0 60:0 
-389.6530420961391 1:0 2:0 3:0 4:-1 5:0 6:1 7:-2 8:0 9:1 10:0 11:0 12:0 13:0 14:0 15:0 16:0 17:0 18:0 19:-3 20:0 21:1 22:-1 23:0 24:0 25:0 26:0 27:0 28:-1 29:0 30:0 31:0 32:0 33:0 34:-1 35:0 36:0 37:0 38:0 39:0 40:-1 41:0 42:0 43:1 44:0 45:-1 46:-1 47:0 48:0 49:0 50:0 51:0 52:0 53:0 54:0 55:0 56:0 57:-1 58:-1 59:0 60:1 
-285.2936364762281 1:0 2:0 3:0 4:0 5:0 6:1 7:-3 8:0 9:2 10:-1 11:0 12:0 13:0 14:0 15:0 16:-1 17:0 18:1 19:0 20:0 21:1 22:-1 23:0 24:0 25:0 26:0 27:0 28:-1 29:0 30:1 31:1 32:0 33:0 34:-1 35:0 36:0 37:0 38:0 39:0 40:0 41:0 42:1 43:0 44:0 45:0 46:-1 47:0 48:1 49:0 50:0 51:0 52:0 53:0 54:0 55:1 56:0 57:0 58:0 59:0 60:1 
-275.2713740518682 1:0 2:0 3:0 4:-1 5:0 6:1 7:-1 8:0 9:1 10:-1 11:0 12:0 13:0 14:0 15:0 16:-1 17:0 18:1 19:0 20:0 21:0 22:-1 23:0 24:0 25:0 26:0 27:0 28:0 29:0 30:1 31:-1 32:0 33:0 34:-1 35:0 36:1 37:0 38:0 39:0 40:0 41:0 42:0 43:0 44:0 45:0 46:0 47:0 48:1 49:0 50:0 51:0 52:1 53:0 54:0 55:1 56:0 57:1 58:0 59:0 60:1 
-5.131554587796933 1:0 2:0 3:0 4:-2 5:0 6:1 7:-1 8:0 9:0 10:-1 11:0 12:0 13:0 14:0 15:0 16:-1 17:0 18:1 19:-2 20:0 21:0 22:-1 23:0 24:1 25:0 26:0 27:0 28:-1 29:0 30:0 31:-1 32:0 33:0 34:0 35:0 36:1 37:0 38:0 39:0 40:0 41:0 42:0 43:0 44:0 45:1 46:0 47:0 48:1 49:0 50:0 51:0 52:0 53:0 54:-1 55:0 56:0 57:1 58:0 59:0 60:1 
-389.6530420961391 1:0 2:0 3:0 4:-1 5:0 6:1 7:-1 8:0 9:-1 10:0 11:0 12:0 13:0 14:0 15:0 16:0 17:0 18:1 19:0 20:0 21:0 22:0 23:0 24:0 25:0 26:0 27:0 28:0 29:0 30:0 31:0 32:0 33:0 34:0 35:0 36:0 37:0 38:0 39:0 40:2 41:0 42:-1 43:0 44:0 45:0 46:0 47:0 48:0 49:0 50:0 51:0 52:2 53:0 54:-1 55:0 56:0 57:1 58:0 59:0 60:0 
-389.6530420961391 1:0 2:0 3:0 4:-1 5:0 6:1 7:-1 8:0 9:-1 10:0 11:0 12:0 13:0 14:0 15:0 16:1 17:0 18:0 19:-1 20:0 21:-1 22:0 23:0 24:0 25:0 26:0 27:0 28:1 29:0 30:0 31:-1 32:0 33:0 34:0 35:0 36:0 37:0 38:0 39:0 40:0 41:0 42:0 43:0 44:0 45:1 46:0 47:0 48:0 49:0 50:0 51:0 52:-1 53:0 54:0 55:0 56:0 57:2 58:0 59:0 60:0 
-389.6530420961391 1:0 2:0 3:0 4:1 5:0 6:0 7:-1 8:0 9:-1 10:0 11:0 12:0 13:0 14:0 15:0 16:1 17:0 18:0 19:-1 20:0 21:0 22:0 23:0 24:0 25:0 26:0 27:0 28:0 29:0 30:0 31:0 32:0 33:1 34:0 35:0 36:0 37:0 38:0 39:0 40:-1 41:0 42:0 43:0 44:0 45:2 46:0 47:0 48:0 49:0 50:0 51:0 52:0 53:0 54:0 55:0 56:0 57:2 58:0 59:0 60:0 
-389.6530420961391 1:0 2:0 3:0 4:2 5:0 6:0 7:-1 8:0 9:-1 10:0 11:0 12:0 13:0 14:0 15:0 16:1 17:0 18:0 19:0 20:0 21:0 22:0 23:0 24:0 25:0 26:0 27:0 28:0 29:0 30:0 31:0 32:0 33:1 34:0 35:0 36:0 37:0 38:0 39:0 40:1 41:0 42:0 43:0 44:0 45:1 46:0 47:0 48:0 49:1 50:0 51:0 52:0 53:0 54:0 55:1 56:0 57:2 58:0 59:0 60:0 
-389.6530420961391 1:0 2:0 3:0 4:1 5:0 6:0 7:0 8:0 9:-1 10:0 11:0 12:0 13:0 14:0 15:0 16:0 17:0 18:0 19:0 20:0 21:0 22:0 23:0 24:0 25:0 26:0 27:0 28:1 29:0 30:0 31:0 32:0 33:0 34:0 35:0 36:0 37:1 38:0 39:0 40:0 41:0 42:0 43:1 44:0 45:1 46:0 47:0 48:0 49:0 50:0 51:0 52:0 53:0 54:0 55:0 56:0 57:2 58:0 59:0 60:0 
-389.6530420961391 1:0 2:0 3:0 4:0 5:0 6:1 7:0 8:0 9:-1 10:0 11:0 12:0 13:0 14:0 15:0 16:1 17:0 18:1 19:0 20:0 21:-1 22:0 23:0 24:0 25:1 26:0 27:0 28:0 29:0 30:1 31:1 32:0 33:0 34:0 35:0 36:0 37:0 38:0 39:0 40:0 41:0 42:1 43:0 44:0 45:1 46:0 47:0 48:0 49:0 50:0 51:0 52:1 53:0 54:0 55:0 56:0 57:3 58:0 59:0 60:0 
-389.6530420961391 1:0 2:0 3:0 4:1 5:0 6:1 7:0 8:0 9:-2 10:0 11:0 12:0 13:1 14:0 15:0 16:0 17:0 18:1 19:1 20:0 21:-1 22:0 23:0 24:0 25:0 26:0 27:0 28:0 29:0 30:1 31:0 32:0 33:0 34:0 35:0 36:0 37:0 38:0 39:0 40:1 41:0 42:0 43:0 44:0 45:2 46:0 47:0 48:0 49:0 50:0 51:0 52:0 53:0 54:0 55:0 56:0 57:2 58:0 59:0 60:0 
-389.6530420961391 1:1 2:0 3:0 4:0 5:0 6:1 7:1 8:0 9:-2 10:0 11:0 12:0 13:0 14:0 15:0 16:0 17:0 18:1 19:0 20:0 21:-1 22:0 23:0 24:0 25:0 26:0 27:0 28:1 29:0 30:0 31:0 32:0 33:1 34:0 35:0 36:0 37:0 38:0 39:0 40:0 41:0 42:0 43:0 44:0 45:1 46:0 47:0 48:0 49:0 50:0 51:1 52:1 53:0 54:0 55:0 56:0 57:1 58:0 59:0 60:0 
-67.13537002647026 1:0 2:0 3:-1 4:1 5:0 6:1 7:0 8:0 9:0 10:0 11:0 12:0 13:0 14:0 15:-1 16:0 17:0 18:1 19:0 20:0 21:0 22:0 23:0 24:0 25:0 26:0 27:0 28:1 29:0 30:1 31:0 32:0 33:0 34:0 35:0 36:0 37:-1 38:0 39:1 40:0 41:0 42:1 43:0 44:0 45:0 46:0 47:0 48:0 49:0 50:0 51:2 52:1 53:0 54:0 55:0 56:0 57:0 58:0 59:0 60:0 
