svm_type c_svc
kernel_type rbf
gamma 6.10352e-005
nr_class 2
total_sv 200
rho -10.0611
label 1 3
nr_sv 125 75
SV
48.44137862633015 1:1 2:-1 3:0 4:2 5:2 6:0 7:-1 8:1 9:-1 10:1 11:0 12:0 13:1 14:-1 15:0 16:1 17:2 18:0 19:-1 20:1 21:-1 22:1 23:0 24:0 25:0 26:-1 27:0 28:-2 29:1 30:0 31:1 32:1 33:-1 34:1 35:0 36:0 37:0 38:-1 39:-1 40:-2 41:0 42:0 43:1 44:0 45:-1 46:0 47:0 48:0 49:0 50:0 51:-2 52:-3 53:-1 54:0 55:2 56:-2 57:0 58:0 59:0 60:-1 
45.57425097420297 1:1 2:-1 3:1 4:2 5:2 6:0 7:-2 8:2 9:-1 10:1 11:0 12:0 13:0 14:-1 15:1 16:-1 17:1 18:0 19:0 20:2 21:-1 22:1 23:0 24:0 25:0 26:-1 27:0 28:-1 29:0 30:0 31:0 32:1 33:-1 34:0 35:0 36:0 37:0 38:0 39:-1 40:-2 41:-1 42:0 43:1 44:-1 45:0 46:0 47:0 48:-1 49:0 50:0 51:-1 52:-1 53:-2 54:0 55:1 56:-2 57:1 58:0 59:0 60:-1 
48.44137862633015 1:1 2:-1 3:1 4:0 5:2 6:0 7:0 8:3 9:-1 10:1 11:0 12:0 13:1 14:-1 15:0 16:0 17:1 18:0 19:0 20:2 21:-1 22:0 23:0 24:0 25:1 26:0 27:-1 28:-1 29:0 30:0 31:1 32:0 33:0 34:0 35:0 36:-1 37:1 38:0 39:-1 40:0 41:-1 42:0 43:1 44:-1 45:1 46:0 47:0 48:-1 49:0 50:0 51:-2 52:-1 53:0 54:-1 55:1 56:0 57:1 58:1 59:0 60:-1 
48.44137862633015 1:1 2:-1 3:1 4:0 5:1 6:0 7:0 8:1 9:-1 10:0 11:0 12:-1 13:1 14:-1 15:1 16:1 17:0 18:0 19:0 20:0 21:0 22:0 23:0 24:-1 25:0 26:-1 27:0 28:0 29:1 30:-1 31:0 32:1 33:0 34:1 35:0 36:-1 37:0 38:0 39:-1 40:-2 41:1 42:-1 43:1 44:0 45:0 46:1 47:0 48:-1 49:0 50:0 51:-1 52:-3 53:1 54:-1 55:1 56:-1 57:1 58:1 59:0 60:0 
25.03981888556355 1:1 2:-1 3:-1 4:2 5:2 6:-1 7:-1 8:4 9:-2 10:0 11:0 12:-1 13:1 14:0 15:-2 16:0 17:2 18:-1 19:0 20:3 21:-2 22:0 23:0 24:-1 25:1 26:0 27:-2 28:-1 29:2 30:-1 31:0 32:2 33:-1 34:0 35:0 36:0 37:1 38:-1 39:-1 40:-1 41:0 42:-1 43:1 44:-1 45:0 46:0 47:0 48:0 49:0 50:-2 51:3 52:-1 53:-2 54:2 55:2 56:-4 57:2 58:0 59:0 60:0 
48.44137862633015 1:2 2:0 3:0 4:3 5:5 6:0 7:0 8:0 9:0 10:0 11:1 12:0 13:0 14:0 15:0 16:1 17:2 18:0 19:0 20:-1 21:0 22:0 23:1 24:0 25:-1 26:0 27:0 28:-1 29:-1 30:0 31:0 32:-1 33:0 34:0 35:1 36:0 37:-1 38:0 39:0 40:-3 41:-3 42:0 43:1 44:-1 45:-1 46:0 47:1 48:0 49:-2 50:0 51:-1 52:-4 53:-3 54:0 55:2 56:0 57:-1 58:0 59:0 60:-1 
48.44137862633015 1:1 2:-1 3:0 4:3 5:3 6:0 7:-1 8:-1 9:0 10:0 11:1 12:0 13:0 14:-1 15:0 16:1 17:0 18:0 19:-1 20:-1 21:0 22:0 23:1 24:0 25:0 26:-1 27:0 28:-1 29:-2 30:0 31:0 32:-1 33:-1 34:0 35:1 36:0 37:-1 38:-1 39:-1 40:-2 41:-2 42:0 43:1 44:0 45:-1 46:0 47:0 48:-1 49:-1 50:0 51:-1 52:-4 53:-2 54:-1 55:2 56:2 57:-2 58:0 59:0 60:-1 
48.44137862633015 1:0 2:-2 3:0 4:1 5:-5 6:0 7:1 8:-5 9:2 10:1 11:1 12:0 13:0 14:-1 15:0 16:-1 17:-5 18:-1 19:2 20:-3 21:1 22:1 23:1 24:0 25:0 26:-1 27:0 28:-1 29:-1 30:-1 31:1 32:-1 33:0 34:1 35:1 36:0 37:0 38:0 39:0 40:-2 41:3 42:-1 43:0 44:2 45:-1 46:0 47:0 48:0 49:0 50:1 51:-1 52:0 53:4 54:-1 55:-2 56:5 57:-2 58:0 59:0 60:0 
31.26069177904199 1:0 2:-2 3:0 4:-1 5:5 6:-5 7:4 8:5 9:-2 10:0 11:1 12:-1 13:1 14:-1 15:0 16:-1 17:1 18:-3 19:2 20:1 21:0 22:0 23:1 24:-1 25:1 26:0 27:1 28:0 29:-1 30:0 31:0 32:0 33:-1 34:0 35:0 36:-1 37:1 38:0 39:1 40:-1 41:-3 42:2 43:-3 44:-3 45:0 46:0 47:0 48:0 49:1 50:1 51:1 52:-1 53:-3 54:3 55:-3 56:-4 57:1 58:0 59:0 60:0 
48.44137862633015 1:0 2:-1 3:0 4:0 5:1 6:-2 7:2 8:2 9:-2 10:0 11:1 12:-1 13:0 14:-1 15:0 16:-1 17:-1 18:0 19:-1 20:-1 21:-1 22:0 23:1 24:0 25:0 26:0 27:0 28:-1 29:-1 30:1 31:-1 32:-2 33:0 34:0 35:1 36:0 37:0 38:0 39:0 40:0 41:-1 42:0 43:0 44:-2 45:0 46:0 47:0 48:0 49:0 50:0 51:0 52:1 53:0 54:1 55:2 56:-1 57:0 58:0 59:0 60:0 
48.44137862633015 1:0 2:-1 3:0 4:-2 5:-1 6:-1 7:-2 8:0 9:-1 10:0 11:1 12:0 13:0 14:0 15:0 16:-2 17:-1 18:0 19:-2 20:-1 21:0 22:0 23:1 24:0 25:0 26:0 27:0 28:-1 29:-1 30:-1 31:-1 32:-1 33:0 34:0 35:0 36:0 37:0 38:0 39:0 40:0 41:0 42:0 43:1 44:0 45:0 46:0 47:0 48:0 49:1 50:0 51:1 52:1 53:1 54:2 55:4 56:2 57:1 58:0 59:0 60:0 
48.44137862633015 1:-1 2:0 3:0 4:-2 5:-3 6:-3 7:-2 8:-4 9:-1 10:0 11:0 12:0 13:0 14:0 15:1 16:-1 17:-2 18:-1 19:1 20:-2 21:0 22:0 23:0 24:0 25:1 26:0 27:1 28:0 29:0 30:0 31:1 32:-1 33:-1 34:0 35:0 36:0 37:1 38:0 39:1 40:0 41:2 42:1 43:2 44:1 45:0 46:0 47:0 48:0 49:2 50:0 51:1 52:0 53:3 54:2 55:1 56:2 57:-1 58:0 59:1 60:0 
48.44137862633015 1:1 2:0 3:-2 4:0 5:0 6:0 7:0 8:0 9:0 10:0 11:0 12:1 13:1 14:0 15:0 16:0 17:0 18:0 19:0 20:0 21:0 22:0 23:0 24:0 25:0 26:0 27:0 28:0 29:0 30:0 31:0 32:0 33:0 34:0 35:0 36:0 37:0 38:0 39:-1 40:0 41:0 42:0 43:0 44:0 45:0 46:0 47:0 48:0 49:0 50:0 51:-1 52:0 53:0 54:0 55:0 56:1 57:0 58:0 59:0 60:0 
48.44137862633015 1:1 2:0 3:0 4:0 5:0 6:0 7:0 8:0 9:1 10:0 11:0 12:0 13:0 14:0 15:0 16:0 17:0 18:0 19:0 20:0 21:1 22:0 23:0 24:0 25:0 26:0 27:-1 28:0 29:0 30:0 31:0 32:0 33:1 34:0 35:0 36:0 37:0 38:0 39:-1 40:0 41:0 42:0 43:0 44:1 45:1 46:0 47:0 48:0 49:0 50:0 51:-1 52:0 53:0 54:0 55:2 56:1 57:0 58:0 59:0 60:0 
48.44137862633015 1:0 2:0 3:1 4:0 5:0 6:0 7:0 8:0 9:1 10:0 11:0 12:0 13:0 14:0 15:0 16:0 17:0 18:0 19:0 20:0 21:1 22:0 23:0 24:0 25:0 26:0 27:0 28:0 29:0 30:0 31:0 32:1 33:1 34:0 35:0 36:0 37:0 38:0 39:0 40:0 41:0 42:0 43:2 44:1 45:0 46:0 47:0 48:0 49:0 50:0 51:-1 52:0 53:0 54:0 55:2 56:1 57:0 58:0 59:0 60:0 
48.44137862633015 1:0 2:0 3:0 4:0 5:0 6:0 7:-1 8:0 9:1 10:0 11:0 12:0 13:0 14:0 15:0 16:0 17:0 18:0 19:-1 20:1 21:1 22:0 23:0 24:0 25:0 26:0 27:0 28:0 29:0 30:0 31:1 32:1 33:0 34:0 35:0 36:0 37:0 38:0 39:-1 40:0 41:0 42:0 43:1 44:1 45:0 46:0 47:0 48:0 49:0 50:0 51:-2 52:0 53:1 54:0 55:1 56:1 57:0 58:0 59:0 60:0 
48.44137862633015 1:0 2:0 3:1 4:0 5:0 6:0 7:-1 8:0 9:1 10:0 11:0 12:0 13:0 14:0 15:1 16:0 17:0 18:0 19:1 20:0 21:0 22:0 23:0 24:0 25:0 26:0 27:0 28:0 29:0 30:0 31:1 32:0 33:0 34:0 35:0 36:0 37:0 38:0 39:-1 40:0 41:1 42:0 43:1 44:0 45:0 46:0 47:0 48:0 49:0 50:0 51:-1 52:0 53:1 54:0 55:1 56:0 57:0 58:0 59:0 60:0 
48.44137862633015 1:0 2:0 3:1 4:0 5:0 6:1 7:0 8:0 9:0 10:0 11:0 12:0 13:0 14:0 15:0 16:0 17:0 18:1 19:0 20:0 21:0 22:0 23:0 24:0 25:0 26:0 27:-1 28:0 29:1 30:1 31:0 32:0 33:0 34:0 35:0 36:0 37:0 38:0 39:-1 40:0 41:1 42:1 43:0 44:0 45:0 46:0 47:0 48:0 49:0 50:0 51:-1 52:-1 53:1 54:0 55:0 56:0 57:0 58:0 59:0 60:0 
48.44137862633015 1:0 2:0 3:0 4:0 5:-1 6:1 7:1 8:0 9:1 10:0 11:0 12:0 13:0 14:0 15:-1 16:0 17:0 18:1 19:1 20:0 21:1 22:0 23:0 24:0 25:0 26:0 27:-1 28:0 29:0 30:1 31:1 32:0 33:1 34:0 35:0 36:0 37:0 38:0 39:-1 40:-1 41:0 42:0 43:1 44:0 45:1 46:0 47:0 48:0 49:0 50:0 51:-1 52:-1 53:1 54:0 55:0 56:1 57:0 58:0 59:0 60:0 
48.44137862633015 1:0 2:0 3:0 4:0 5:0 6:1 7:1 8:0 9:1 10:0 11:0 12:0 13:0 14:0 15:0 16:0 17:0 18:1 19:1 20:0 21:1 22:0 23:0 24:0 25:0 26:0 27:0 28:-1 29:0 30:0 31:1 32:0 33:1 34:0 35:0 36:0 37:0 38:0 39:0 40:-1 41:1 42:0 43:0 44:1 45:0 46:0 47:0 48:0 49:0 50:0 51:0 52:-1 53:1 54:-1 55:0 56:2 57:-1 58:0 59:0 60:0 
48.44137862633015 1:0 2:0 3:0 4:0 5:0 6:2 7:1 8:-1 9:2 10:0 11:0 12:0 13:0 14:0 15:0 16:-1 17:0 18:1 19:1 20:-1 21:2 22:0 23:0 24:0 25:0 26:0 27:0 28:-1 29:1 30:1 31:0 32:0 33:1 34:0 35:0 36:0 37:0 38:0 39:0 40:-1 41:1 42:0 43:0 44:1 45:0 46:0 47:0 48:0 49:0 50:0 51:0 52:-1 53:1 54:-2 55:0 56:2 57:-1 58:0 59:0 60:0 
48.44137862633015 1:0 2:0 3:0 4:0 5:-1 6:2 7:1 8:-1 9:2 10:0 11:0 12:0 13:0 14:0 15:0 16:0 17:0 18:2 19:0 20:0 21:1 22:0 23:0 24:0 25:0 26:0 27:0 28:0 29:0 30:1 31:0 32:1 33:0 34:0 35:0 36:0 37:0 38:0 39:0 40:0 41:0 42:-1 43:0 44:2 45:-1 46:0 47:0 48:0 49:0 50:0 51:0 52:0 53:1 54:-2 55:0 56:2 57:-2 58:0 59:0 60:0 
0.6789093312123288 1:0 2:0 3:0 4:0 5:0 6:3 7:0 8:-1 9:3 10:0 11:0 12:0 13:0 14:0 15:0 16:0 17:0 18:2 19:0 20:0 21:2 22:0 23:0 24:0 25:0 26:0 27:0 28:0 29:0 30:0 31:0 32:1 33:1 34:0 35:0 36:0 37:0 38:0 39:0 40:0 41:1 42:-1 43:0 44:1 45:0 46:0 47:0 48:0 49:1 50:0 51:0 52:0 53:2 54:-3 55:0 56:2 57:-2 58:0 59:0 60:0 
48.44137862633015 1:0 2:0 3:-1 4:0 5:-1 6:4 7:0 8:-1 9:3 10:0 11:0 12:0 13:0 14:0 15:-1 16:0 17:-1 18:2 19:0 20:0 21:2 22:0 23:0 24:0 25:0 26:0 27:-1 28:0 29:0 30:1 31:0 32:0 33:1 34:0 35:0 36:0 37:1 38:0 39:-1 40:0 41:1 42:-1 43:0 44:1 45:-1 46:0 47:0 48:0 49:1 50:-1 51:1 52:0 53:1 54:-2 55:0 56:1 57:-3 58:0 59:0 60:1 
30.74504374372948 1:0 2:-1 3:-1 4:-5 5:2 6:6 7:1 8:0 9:5 10:0 11:0 12:1 13:0 14:-1 15:0 16:-2 17:1 18:4 19:1 20:1 21:3 22:0 23:0 24:0 25:0 26:-1 27:0 28:0 29:0 30:-1 31:1 32:2 33:-1 34:0 35:0 36:0 37:0 38:0 39:-2 40:1 41:-1 42:-3 43:-1 44:-1 45:-3 46:0 47:0 48:0 49:0 50:-1 51:0 52:3 53:-1 54:-3 55:-1 56:-1 57:-4 58:0 59:0 60:0 
48.44137862633015 1:1 2:0 3:-1 4:-10 5:-1 6:-1 7:0 8:0 9:2 10:0 11:0 12:0 13:1 14:0 15:-1 16:1 17:1 18:-1 19:1 20:0 21:0 22:0 23:0 24:0 25:1 26:0 27:-1 28:2 29:1 30:0 31:1 32:0 33:-1 34:0 35:0 36:0 37:0 38:0 39:0 40:3 41:0 42:2 43:1 44:0 45:0 46:0 47:0 48:0 49:0 50:0 51:1 52:3 53:-1 54:0 55:0 56:0 57:0 58:0 59:0 60:0 
0.01858991335411839 1:0 2:0 3:-2 4:3 5:0 6:-1 7:3 8:-2 9:2 10:0 11:0 12:0 13:0 14:0 15:-1 16:3 17:0 18:1 19:2 20:0 21:2 22:0 23:0 24:0 25:0 26:0 27:1 28:3 29:0 30:3 31:0 32:2 33:-2 34:0 35:0 36:0 37:0 38:0 39:1 40:3 41:-1 42:4 43:-1 44:1 45:-3 46:0 47:0 48:0 49:0 50:0 51:1 52:-9 53:3 54:-7 55:-2 56:1 57:-3 58:0 59:0 60:0 
48.44137862633015 1:2 2:-1 3:1 4:0 5:2 6:1 7:3 8:2 9:-2 10:0 11:0 12:0 13:1 14:-1 15:0 16:-1 17:1 18:-1 19:1 20:1 21:-1 22:1 23:0 24:0 25:0 26:-1 27:0 28:-1 29:0 30:0 31:0 32:0 33:0 34:1 35:0 36:0 37:0 38:-1 39:0 40:0 41:0 42:-1 43:-1 44:0 45:2 46:1 47:0 48:0 49:-1 50:0 51:0 52:-1 53:1 54:-2 55:-2 56:0 57:1 58:1 59:0 60:-1 
29.43940862903412 1:1 2:-1 3:1 4:-1 5:0 6:0 7:2 8:1 9:-2 10:0 11:0 12:0 13:0 14:-1 15:1 16:-1 17:-1 18:1 19:1 20:0 21:-1 22:0 23:0 24:0 25:0 26:-1 27:1 28:0 29:-1 30:0 31:0 32:0 33:1 34:0 35:0 36:0 37:-1 38:0 39:1 40:-1 41:0 42:-1 43:-1 44:0 45:0 46:0 47:0 48:-1 49:0 50:0 51:0 52:0 53:4 54:-2 55:-2 56:1 57:-1 58:0 59:0 60:-1 
48.44137862633015 1:0 2:-1 3:1 4:0 5:-4 6:1 7:2 8:0 9:0 10:1 11:0 12:1 13:-1 14:0 15:1 16:-1 17:-3 18:0 19:1 20:0 21:-1 22:1 23:0 24:0 25:0 26:0 27:0 28:0 29:1 30:-1 31:0 32:1 33:-2 34:1 35:0 36:0 37:1 38:0 39:1 40:0 41:2 42:-1 43:0 44:0 45:1 46:0 47:0 48:0 49:3 50:0 51:1 52:1 53:4 54:-1 55:-1 56:1 57:4 58:0 59:0 60:-1 
48.33496357335116 1:-2 2:-1 3:1 4:-2 5:-4 6:0 7:2 8:-1 9:-2 10:1 11:0 12:0 13:-1 14:-1 15:0 16:-1 17:0 18:-1 19:1 20:0 21:-3 22:1 23:0 24:0 25:0 26:-1 27:1 28:-1 29:1 30:-1 31:1 32:-1 33:0 34:0 35:0 36:0 37:2 38:-1 39:1 40:0 41:3 42:-1 43:0 44:0 45:3 46:0 47:0 48:-1 49:5 50:0 51:1 52:0 53:4 54:0 55:-1 56:2 57:6 58:0 59:0 60:-1 
48.44137862633015 1:-3 2:-2 3:1 4:-1 5:0 6:0 7:4 8:-1 9:-1 10:1 11:0 12:-1 13:-1 14:-1 15:0 16:-1 17:1 18:1 19:3 20:-1 21:0 22:0 23:0 24:-1 25:0 26:-1 27:0 28:-1 29:1 30:1 31:2 32:0 33:2 34:0 35:0 36:0 37:2 38:0 39:-1 40:0 41:1 42:0 43:-1 44:1 45:1 46:-1 47:0 48:0 49:4 50:1 51:-3 52:1 53:1 54:-2 55:-4 56:1 57:2 58:-2 59:0 60:0 
0.09487882180586227 1:-2 2:-2 3:1 4:-3 5:1 6:2 7:2 8:0 9:-2 10:1 11:1 12:-1 13:0 14:-1 15:0 16:-1 17:0 18:0 19:1 20:1 21:-2 22:0 23:1 24:-1 25:1 26:0 27:-1 28:2 29:0 30:-3 31:-1 32:0 33:0 34:0 35:1 36:-1 37:2 38:1 39:-2 40:2 41:1 42:-2 43:-1 44:-1 45:3 46:-1 47:1 48:0 49:3 50:1 51:-2 52:3 53:2 54:0 55:0 56:1 57:4 58:-1 59:0 60:0 
48.44137862633015 1:0 2:0 3:0 4:4 5:1 6:-3 7:-2 8:1 9:0 10:0 11:0 12:0 13:0 14:0 15:0 16:0 17:0 18:0 19:1 20:0 21:1 22:0 23:0 24:0 25:0 26:0 27:0 28:0 29:0 30:0 31:1 32:0 33:1 34:0 35:0 36:0 37:0 38:0 39:0 40:0 41:0 42:0 43:1 44:0 45:1 46:0 47:0 48:0 49:0 50:0 51:0 52:0 53:0 54:0 55:1 56:0 57:1 58:0 59:0 60:0 
48.44137862633015 1:0 2:0 3:0 4:0 5:0 6:0 7:0 8:0 9:0 10:0 11:0 12:0 13:0 14:0 15:0 16:0 17:0 18:0 19:0 20:0 21:0 22:0 23:0 24:0 25:0 26:0 27:0 28:0 29:0 30:0 31:0 32:0 33:0 34:0 35:0 36:0 37:0 38:0 39:0 40:0 41:0 42:0 43:0 44:0 45:0 46:0 47:0 48:0 49:0 50:0 51:0 52:0 53:0 54:0 55:0 56:0 57:0 58:0 59:0 60:0 
21.114946663944 1:0 2:0 3:0 4:0 5:-5 6:7 7:0 8:0 9:0 10:0 11:0 12:0 13:0 14:0 15:0 16:0 17:-5 18:7 19:0 20:0 21:0 22:0 23:0 24:0 25:0 26:0 27:0 28:0 29:1 30:-1 31:0 32:0 33:0 34:1 35:0 36:0 37:1 38:0 39:0 40:0 41:5 42:-8 43:0 44:0 45:0 46:1 47:0 48:0 49:1 50:0 51:0 52:-1 53:5 54:-8 55:0 56:0 57:0 58:1 59:0 60:0 
1.457056641737412 1:0 2:0 3:0 4:1 5:-2 6:5 7:0 8:1 9:0 10:1 11:0 12:0 13:1 14:0 15:0 16:1 17:2 18:-2 19:0 20:1 21:0 22:1 23:0 24:0 25:1 26:0 27:0 28:0 29:2 30:-2 31:0 32:1 33:0 34:1 35:0 36:0 37:0 38:0 39:0 40:-3 41:1 42:-2 43:2 44:1 45:0 46:1 47:0 48:0 49:0 50:0 51:-1 52:-3 53:0 54:-2 55:2 56:0 57:0 58:0 59:0 60:0 
48.44137862633015 1:1 2:-1 3:0 4:2 5:2 6:0 7:-1 8:1 9:-1 10:1 11:0 12:0 13:1 14:-1 15:0 16:1 17:2 18:0 19:-1 20:1 21:-1 22:1 23:0 24:0 25:0 26:-1 27:0 28:-2 29:1 30:0 31:1 32:1 33:-1 34:1 35:0 36:0 37:0 38:-1 39:-1 40:-2 41:0 42:0 43:1 44:0 45:-1 46:0 47:0 48:0 49:0 50:0 51:-2 52:-3 53:-1 54:0 55:2 56:-2 57:0 58:0 59:0 60:-1 
45.49900756065397 1:1 2:-1 3:1 4:2 5:2 6:0 7:-2 8:2 9:-1 10:1 11:0 12:0 13:0 14:-1 15:1 16:-1 17:1 18:0 19:0 20:2 21:-1 22:1 23:0 24:0 25:0 26:-1 27:0 28:-1 29:0 30:0 31:0 32:1 33:-1 34:0 35:0 36:0 37:0 38:0 39:-1 40:-2 41:-1 42:0 43:1 44:-1 45:0 46:0 47:0 48:-1 49:0 50:0 51:-1 52:-1 53:-2 54:0 55:1 56:-2 57:1 58:0 59:0 60:-1 
48.44137862633015 1:1 2:-1 3:1 4:0 5:2 6:0 7:0 8:3 9:-1 10:1 11:0 12:0 13:1 14:-1 15:0 16:0 17:1 18:0 19:0 20:2 21:-1 22:0 23:0 24:0 25:1 26:0 27:-1 28:-1 29:0 30:0 31:1 32:0 33:0 34:0 35:0 36:-1 37:1 38:0 39:-1 40:0 41:-1 42:0 43:1 44:-1 45:1 46:0 47:0 48:-1 49:0 50:0 51:-2 52:-1 53:0 54:-1 55:1 56:0 57:1 58:1 59:0 60:-1 
0.07429025349694116 1:1 2:-1 3:1 4:1 5:1 6:0 7:-1 8:2 9:-2 10:0 11:0 12:0 13:1 14:0 15:0 16:0 17:0 18:0 19:0 20:0 21:-1 22:0 23:0 24:-1 25:1 26:0 27:0 28:1 29:-1 30:0 31:0 32:-1 33:0 34:0 35:0 36:-1 37:0 38:0 39:-1 40:0 41:0 42:-1 43:0 44:0 45:0 46:1 47:0 48:-1 49:0 50:1 51:-2 52:-2 53:0 54:-1 55:1 56:-1 57:0 58:1 59:0 60:-1 
48.44137862633015 1:1 2:-1 3:1 4:0 5:1 6:0 7:0 8:1 9:-1 10:0 11:0 12:-1 13:1 14:-1 15:1 16:1 17:0 18:0 19:0 20:0 21:0 22:0 23:0 24:-1 25:0 26:-1 27:0 28:0 29:1 30:-1 31:0 32:1 33:0 34:1 35:0 36:-1 37:0 38:0 39:-1 40:-2 41:1 42:-1 43:1 44:0 45:0 46:1 47:0 48:-1 49:0 50:0 51:-1 52:-3 53:1 54:-1 55:1 56:-1 57:1 58:1 59:0 60:0 
48.44137862633015 1:1 2:-1 3:-1 4:2 5:2 6:-1 7:-1 8:4 9:-2 10:0 11:0 12:-1 13:1 14:0 15:-2 16:0 17:2 18:-1 19:0 20:3 21:-2 22:0 23:0 24:-1 25:1 26:0 27:-2 28:-1 29:2 30:-1 31:0 32:2 33:-1 34:0 35:0 36:0 37:1 38:-1 39:-1 40:-1 41:0 42:-1 43:1 44:-1 45:0 46:0 47:0 48:0 49:0 50:-2 51:3 52:-1 53:-2 54:2 55:2 56:-4 57:2 58:0 59:0 60:0 
48.44137862633015 1:2 2:0 3:0 4:3 5:5 6:0 7:0 8:0 9:0 10:0 11:1 12:0 13:0 14:0 15:0 16:1 17:2 18:0 19:0 20:-1 21:0 22:0 23:1 24:0 25:-1 26:0 27:0 28:-1 29:-1 30:0 31:0 32:-1 33:0 34:0 35:1 36:0 37:-1 38:0 39:0 40:-3 41:-3 42:0 43:1 44:-1 45:-1 46:0 47:1 48:0 49:-2 50:0 51:-1 52:-4 53:-3 54:0 55:2 56:0 57:-1 58:0 59:0 60:-1 
48.44137862633015 1:1 2:-1 3:0 4:3 5:3 6:0 7:-1 8:-1 9:0 10:0 11:1 12:0 13:0 14:-1 15:0 16:1 17:0 18:0 19:-1 20:-1 21:0 22:0 23:1 24:0 25:0 26:-1 27:0 28:-1 29:-2 30:0 31:0 32:-1 33:-1 34:0 35:1 36:0 37:-1 38:-1 39:-1 40:-2 41:-2 42:0 43:1 44:0 45:-1 46:0 47:0 48:-1 49:-1 50:0 51:-1 52:-4 53:-2 54:-1 55:2 56:2 57:-2 58:0 59:0 60:-1 
48.44137862633015 1:0 2:-2 3:0 4:1 5:-5 6:0 7:1 8:-5 9:2 10:1 11:1 12:0 13:0 14:-1 15:0 16:-1 17:-5 18:-1 19:2 20:-3 21:1 22:1 23:1 24:0 25:0 26:-1 27:0 28:-1 29:-1 30:-1 31:1 32:-1 33:0 34:1 35:1 36:0 37:0 38:0 39:0 40:-2 41:3 42:-1 43:0 44:2 45:-1 46:0 47:0 48:0 49:0 50:1 51:-1 52:0 53:4 54:-1 55:-2 56:5 57:-2 58:0 59:0 60:0 
48.37296544353551 1:0 2:-1 3:0 4:-1 5:-7 6:0 7:3 8:-5 9:2 10:1 11:1 12:0 13:0 14:-1 15:0 16:-1 17:-3 18:0 19:2 20:-3 21:1 22:1 23:1 24:0 25:0 26:0 27:0 28:-2 29:1 30:0 31:1 32:0 33:0 34:0 35:0 36:0 37:0 38:1 39:-1 40:0 41:2 42:0 43:-1 44:3 45:-1 46:0 47:0 48:0 49:0 50:1 51:0 52:1 53:4 54:-2 55:-2 56:5 57:-5 58:0 59:-1 60:0 
0.02329983695599043 1:0 2:-2 3:0 4:-1 5:5 6:-5 7:4 8:5 9:-2 10:0 11:1 12:-1 13:1 14:-1 15:0 16:-1 17:1 18:-3 19:2 20:1 21:0 22:0 23:1 24:-1 25:1 26:0 27:1 28:0 29:-1 30:0 31:0 32:0 33:-1 34:0 35:0 36:-1 37:1 38:0 39:1 40:-1 41:-3 42:2 43:-3 44:-3 45:0 46:0 47:0 48:0 49:1 50:1 51:1 52:-1 53:-3 54:3 55:-3 56:-4 57:1 58:0 59:0 60:0 
48.44137862633015 1:0 2:-1 3:0 4:0 5:1 6:-2 7:2 8:2 9:-2 10:0 11:1 12:-1 13:0 14:-1 15:0 16:-1 17:-1 18:0 19:-1 20:-1 21:-1 22:0 23:1 24:0 25:0 26:0 27:0 28:-1 29:-1 30:1 31:-1 32:-2 33:0 34:0 35:1 36:0 37:0 38:0 39:0 40:0 41:-1 42:0 43:0 44:-2 45:0 46:0 47:0 48:0 49:0 50:0 51:0 52:1 53:0 54:1 55:2 56:-1 57:0 58:0 59:0 60:0 
48.44137862633015 1:0 2:-1 3:0 4:-2 5:-1 6:-1 7:-2 8:0 9:-1 10:0 11:1 12:0 13:0 14:0 15:0 16:-2 17:-1 18:0 19:-2 20:-1 21:0 22:0 23:1 24:0 25:0 26:0 27:0 28:-1 29:-1 30:-1 31:-1 32:-1 33:0 34:0 35:0 36:0 37:0 38:0 39:0 40:0 41:0 42:0 43:1 44:0 45:0 46:0 47:0 48:0 49:1 50:0 51:1 52:1 53:1 54:2 55:4 56:2 57:1 58:0 59:0 60:0 
0.3601735946082272 1:-1 2:0 3:0 4:-2 5:-3 6:-3 7:-3 8:-3 9:-1 10:0 11:0 12:0 13:-1 14:0 15:0 16:-1 17:-2 18:-2 19:-1 20:-2 21:-1 22:0 23:0 24:0 25:0 26:0 27:1 28:0 29:-1 30:0 31:2 32:0 33:0 34:0 35:0 36:0 37:1 38:0 39:1 40:1 41:1 42:1 43:2 44:1 45:-1 46:0 47:0 48:0 49:1 50:0 51:1 52:1 53:3 54:2 55:3 56:3 57:0 58:0 59:0 60:0 
48.44137862633015 1:-1 2:0 3:0 4:-2 5:-3 6:-3 7:-2 8:-4 9:-1 10:0 11:0 12:0 13:0 14:0 15:1 16:-1 17:-2 18:-1 19:1 20:-2 21:0 22:0 23:0 24:0 25:1 26:0 27:1 28:0 29:0 30:0 31:1 32:-1 33:-1 34:0 35:0 36:0 37:1 38:0 39:1 40:0 41:2 42:1 43:2 44:1 45:0 46:0 47:0 48:0 49:2 50:0 51:1 52:0 53:3 54:2 55:1 56:2 57:-1 58:0 59:1 60:0 
48.44137862633015 1:1 2:0 3:-2 4:0 5:0 6:0 7:0 8:0 9:0 10:0 11:0 12:1 13:1 14:0 15:0 16:0 17:0 18:0 19:0 20:0 21:0 22:0 23:0 24:0 25:0 26:0 27:0 28:0 29:0 30:0 31:0 32:0 33:0 34:0 35:0 36:0 37:0 38:0 39:-1 40:0 41:0 42:0 43:0 44:0 45:0 46:0 47:0 48:0 49:0 50:0 51:-1 52:0 53:0 54:0 55:0 56:1 57:0 58:0 59:0 60:0 
48.44137862633015 1:1 2:0 3:0 4:0 5:0 6:0 7:0 8:0 9:1 10:0 11:0 12:0 13:0 14:0 15:0 16:0 17:0 18:0 19:0 20:0 21:1 22:0 23:0 24:0 25:0 26:0 27:-1 28:0 29:0 30:0 31:0 32:0 33:1 34:0 35:0 36:0 37:0 38:0 39:-1 40:0 41:0 42:0 43:0 44:1 45:1 46:0 47:0 48:0 49:0 50:0 51:-1 52:0 53:0 54:0 55:2 56:1 57:0 58:0 59:0 60:0 
48.44137862633015 1:0 2:0 3:1 4:0 5:0 6:0 7:0 8:0 9:1 10:0 11:0 12:0 13:0 14:0 15:0 16:0 17:0 18:0 19:0 20:0 21:1 22:0 23:0 24:0 25:0 26:0 27:0 28:0 29:0 30:0 31:0 32:1 33:1 34:0 35:0 36:0 37:0 38:0 39:0 40:0 41:0 42:0 43:2 44:1 45:0 46:0 47:0 48:0 49:0 50:0 51:-1 52:0 53:0 54:0 55:2 56:1 57:0 58:0 59:0 60:0 
48.44137862633015 1:0 2:0 3:0 4:0 5:0 6:0 7:-1 8:0 9:1 10:0 11:0 12:0 13:0 14:0 15:0 16:0 17:0 18:0 19:-1 20:1 21:1 22:0 23:0 24:0 25:0 26:0 27:0 28:0 29:0 30:0 31:1 32:1 33:0 34:0 35:0 36:0 37:0 38:0 39:-1 40:0 41:0 42:0 43:1 44:1 45:0 46:0 47:0 48:0 49:0 50:0 51:-2 52:0 53:1 54:0 55:1 56:1 57:0 58:0 59:0 60:0 
48.44137862633015 1:0 2:0 3:1 4:0 5:0 6:0 7:-1 8:0 9:1 10:0 11:0 12:0 13:0 14:0 15:1 16:0 17:0 18:0 19:1 20:0 21:0 22:0 23:0 24:0 25:0 26:0 27:0 28:0 29:0 30:0 31:1 32:0 33:0 34:0 35:0 36:0 37:0 38:0 39:-1 40:0 41:1 42:0 43:1 44:0 45:0 46:0 47:0 48:0 49:0 50:0 51:-1 52:0 53:1 54:0 55:1 56:0 57:0 58:0 59:0 60:0 
48.44137862633015 1:0 2:0 3:1 4:0 5:0 6:1 7:0 8:0 9:0 10:0 11:0 12:0 13:0 14:0 15:0 16:0 17:0 18:1 19:0 20:0 21:0 22:0 23:0 24:0 25:0 26:0 27:-1 28:0 29:1 30:1 31:0 32:0 33:0 34:0 35:0 36:0 37:0 38:0 39:-1 40:0 41:1 42:1 43:0 44:0 45:0 46:0 47:0 48:0 49:0 50:0 51:-1 52:-1 53:1 54:0 55:0 56:0 57:0 58:0 59:0 60:0 
48.44137862633015 1:0 2:0 3:0 4:0 5:-1 6:1 7:1 8:0 9:1 10:0 11:0 12:0 13:0 14:0 15:-1 16:0 17:0 18:1 19:1 20:0 21:1 22:0 23:0 24:0 25:0 26:0 27:-1 28:0 29:0 30:1 31:1 32:0 33:1 34:0 35:0 36:0 37:0 38:0 39:-1 40:-1 41:0 42:0 43:1 44:0 45:1 46:0 47:0 48:0 49:0 50:0 51:-1 52:-1 53:1 54:0 55:0 56:1 57:0 58:0 59:0 60:0 
48.44137862633015 1:0 2:0 3:0 4:0 5:0 6:1 7:1 8:0 9:1 10:0 11:0 12:0 13:0 14:0 15:0 16:0 17:0 18:1 19:1 20:0 21:1 22:0 23:0 24:0 25:0 26:0 27:0 28:-1 29:0 30:0 31:1 32:0 33:1 34:0 35:0 36:0 37:0 38:0 39:0 40:-1 41:1 42:0 43:0 44:1 45:0 46:0 47:0 48:0 49:0 50:0 51:0 52:-1 53:1 54:-1 55:0 56:2 57:-1 58:0 59:0 60:0 
48.44137862633015 1:0 2:0 3:0 4:0 5:0 6:2 7:1 8:-1 9:2 10:0 11:0 12:0 13:0 14:0 15:0 16:-1 17:0 18:1 19:1 20:-1 21:2 22:0 23:0 24:0 25:0 26:0 27:0 28:-1 29:1 30:1 31:0 32:0 33:1 34:0 35:0 36:0 37:0 38:0 39:0 40:-1 41:1 42:0 43:0 44:1 45:0 46:0 47:0 48:0 49:0 50:0 51:0 52:-1 53:1 54:-2 55:0 56:2 57:-1 58:0 59:0 60:0 
48.44137862633015 1:0 2:0 3:0 4:0 5:-1 6:2 7:1 8:-1 9:2 10:0 11:0 12:0 13:0 14:0 15:0 16:0 17:0 18:2 19:0 20:0 21:1 22:0 23:0 24:0 25:0 26:0 27:0 28:0 29:0 30:1 31:0 32:1 33:0 34:0 35:0 36:0 37:0 38:0 39:0 40:0 41:0 42:-1 43:0 44:2 45:-1 46:0 47:0 48:0 49:0 50:0 51:0 52:0 53:1 54:-2 55:0 56:2 57:-2 58:0 59:0 60:0 
48.44137862633015 1:0 2:0 3:-1 4:0 5:-1 6:4 7:0 8:-1 9:3 10:0 11:0 12:0 13:0 14:0 15:-1 16:0 17:-1 18:2 19:0 20:0 21:2 22:0 23:0 24:0 25:0 26:0 27:-1 28:0 29:0 30:1 31:0 32:0 33:1 34:0 35:0 36:0 37:1 38:0 39:-1 40:0 41:1 42:-1 43:0 44:1 45:-1 46:0 47:0 48:0 49:1 50:-1 51:1 52:0 53:1 54:-2 55:0 56:1 57:-3 58:0 59:0 60:1 
48.44137862633015 1:0 2:-1 3:-1 4:-5 5:2 6:6 7:1 8:0 9:5 10:0 11:0 12:1 13:0 14:-1 15:0 16:-2 17:1 18:4 19:1 20:1 21:3 22:0 23:0 24:0 25:0 26:-1 27:0 28:0 29:0 30:-1 31:1 32:2 33:-1 34:0 35:0 36:0 37:0 38:0 39:-2 40:1 41:-1 42:-3 43:-1 44:-1 45:-3 46:0 47:0 48:0 49:0 50:-1 51:0 52:3 53:-1 54:-3 55:-1 56:-1 57:-4 58:0 59:0 60:0 
48.44137862633015 1:1 2:0 3:-1 4:-10 5:-1 6:-1 7:0 8:0 9:2 10:0 11:0 12:0 13:1 14:0 15:-1 16:1 17:1 18:-1 19:1 20:0 21:0 22:0 23:0 24:0 25:1 26:0 27:-1 28:2 29:1 30:0 31:1 32:0 33:-1 34:0 35:0 36:0 37:0 38:0 39:0 40:3 41:0 42:2 43:1 44:0 45:0 46:0 47:0 48:0 49:0 50:0 51:1 52:3 53:-1 54:0 55:0 56:0 57:0 58:0 59:0 60:0 
15.85634053445371 1:1 2:0 3:-1 4:0 5:2 6:-1 7:1 8:0 9:0 10:0 11:0 12:0 13:1 14:0 15:-1 16:1 17:2 18:0 19:1 20:0 21:-1 22:0 23:0 24:0 25:0 26:0 27:0 28:2 29:1 30:2 31:1 32:0 33:0 34:0 35:0 36:0 37:0 38:0 39:1 40:2 41:0 42:0 43:0 44:0 45:0 46:0 47:0 48:0 49:1 50:-1 51:1 52:-6 53:-3 54:-3 55:1 56:0 57:1 58:0 59:0 60:0 
13.43931668781937 1:0 2:0 3:-2 4:1 5:3 6:2 7:2 8:0 9:1 10:0 11:0 12:0 13:0 14:0 15:-1 16:1 17:2 18:0 19:1 20:0 21:1 22:0 23:0 24:0 25:1 26:-1 27:-1 28:-7 29:-1 30:-3 31:2 32:0 33:2 34:0 35:0 36:0 37:1 38:-1 39:0 40:-5 41:-1 42:-1 43:0 44:1 45:0 46:0 47:0 48:0 49:1 50:-1 51:1 52:7 53:-1 54:2 55:-2 56:1 57:-3 58:0 59:0 60:-1 
48.34377620252203 1:1 2:0 3:1 4:13 5:2 6:12 7:2 8:4 9:-3 10:0 11:0 12:0 13:1 14:0 15:1 16:-3 17:1 18:-2 19:2 20:1 21:-1 22:0 23:0 24:0 25:0 26:0 27:0 28:-4 29:0 30:-4 31:0 32:0 33:0 34:1 35:0 36:0 37:-1 38:0 39:0 40:-4 41:-1 42:-3 43:-1 44:-1 45:1 46:1 47:0 48:0 49:-1 50:0 51:0 52:-3 53:-1 54:-4 55:-2 56:-1 57:3 58:1 59:0 60:0 
48.44137862633015 1:2 2:-1 3:1 4:0 5:2 6:1 7:3 8:2 9:-2 10:0 11:0 12:0 13:1 14:-1 15:0 16:-1 17:1 18:-1 19:1 20:1 21:-1 22:1 23:0 24:0 25:0 26:-1 27:0 28:-1 29:0 30:0 31:0 32:0 33:0 34:1 35:0 36:0 37:0 38:-1 39:0 40:0 41:0 42:-1 43:-1 44:0 45:2 46:1 47:0 48:0 49:-1 50:0 51:0 52:-1 53:1 54:-2 55:-2 56:0 57:1 58:1 59:0 60:-1 
48.44137862633015 1:1 2:-1 3:1 4:-1 5:0 6:0 7:2 8:1 9:-2 10:0 11:0 12:0 13:0 14:-1 15:1 16:-1 17:-1 18:1 19:1 20:0 21:-1 22:0 23:0 24:0 25:0 26:-1 27:1 28:0 29:-1 30:0 31:0 32:0 33:1 34:0 35:0 36:0 37:-1 38:0 39:1 40:-1 41:0 42:-1 43:-1 44:0 45:0 46:0 47:0 48:-1 49:0 50:0 51:0 52:0 53:4 54:-2 55:-2 56:1 57:-1 58:0 59:0 60:-1 
48.44137862633015 1:0 2:-1 3:1 4:0 5:-4 6:1 7:2 8:0 9:0 10:1 11:0 12:1 13:-1 14:0 15:1 16:-1 17:-3 18:0 19:1 20:0 21:-1 22:1 23:0 24:0 25:0 26:0 27:0 28:0 29:1 30:-1 31:0 32:1 33:-2 34:1 35:0 36:0 37:1 38:0 39:1 40:0 41:2 42:-1 43:0 44:0 45:1 46:0 47:0 48:0 49:3 50:0 51:1 52:1 53:4 54:-1 55:-1 56:1 57:4 58:0 59:0 60:-1 
48.44137862633015 1:-2 2:-1 3:1 4:-2 5:-4 6:0 7:2 8:-1 9:-2 10:1 11:0 12:0 13:-1 14:-1 15:0 16:-1 17:0 18:-1 19:1 20:0 21:-3 22:1 23:0 24:0 25:0 26:-1 27:1 28:-1 29:1 30:-1 31:1 32:-1 33:0 34:0 35:0 36:0 37:2 38:-1 39:1 40:0 41:3 42:-1 43:0 44:0 45:3 46:0 47:0 48:-1 49:5 50:0 51:1 52:0 53:4 54:0 55:-1 56:2 57:6 58:0 59:0 60:-1 
48.44137862633015 1:-3 2:-2 3:1 4:-1 5:0 6:0 7:4 8:-1 9:-1 10:1 11:0 12:-1 13:-1 14:-1 15:0 16:-1 17:1 18:1 19:3 20:-1 21:0 22:0 23:0 24:-1 25:0 26:-1 27:0 28:-1 29:1 30:1 31:2 32:0 33:2 34:0 35:0 36:0 37:2 38:0 39:-1 40:0 41:1 42:0 43:-1 44:1 45:1 46:-1 47:0 48:0 49:4 50:1 51:-3 52:1 53:1 54:-2 55:-4 56:1 57:2 58:-2 59:0 60:0 
35.13585320126506 1:-1 2:-2 3:1 4:-2 5:0 6:-1 7:0 8:0 9:-3 10:0 11:1 12:-1 13:0 14:-1 15:0 16:1 17:0 18:-4 19:-2 20:-1 21:-1 22:0 23:1 24:-1 25:1 26:0 27:-1 28:1 29:1 30:-3 31:-2 32:-2 33:2 34:-1 35:1 36:0 37:2 38:0 39:-1 40:2 41:2 42:-1 43:-1 44:0 45:3 46:-1 47:0 48:0 49:1 50:0 51:-1 52:2 53:0 54:6 55:7 56:3 57:3 58:-1 59:1 60:-1 
18.97650513435028 1:-1 2:-1 3:0 4:1 5:0 6:-6 7:-4 8:-1 9:-3 10:0 11:1 12:-1 13:0 14:0 15:-1 16:1 17:1 18:-5 19:-4 20:-2 21:0 22:-1 23:1 24:0 25:1 26:0 27:-1 28:2 29:2 30:-3 31:-3 32:0 33:1 34:-1 35:0 36:0 37:0 38:0 39:-1 40:2 41:0 42:4 43:5 44:3 45:1 46:-1 47:1 48:-1 49:0 50:0 51:-1 52:-2 53:-1 54:7 55:8 56:2 57:2 58:-1 59:1 60:-1 
15.36545184562245 1:0 2:0 3:0 4:1 5:1 6:-7 7:-6 8:-3 9:-1 10:0 11:1 12:0 13:1 14:0 15:0 16:2 17:2 18:-5 19:-5 20:-1 21:0 22:0 23:0 24:0 25:0 26:0 27:0 28:2 29:0 30:2 31:3 32:2 33:0 34:0 35:1 36:-1 37:0 38:0 39:0 40:-2 41:-1 42:5 43:6 44:1 45:1 46:0 47:1 48:-1 49:0 50:0 51:0 52:-2 53:-1 54:5 55:6 56:1 57:1 58:0 59:1 60:-1 
48.44137862633015 1:0 2:0 3:0 4:4 5:1 6:-3 7:-2 8:1 9:0 10:0 11:0 12:0 13:0 14:0 15:0 16:0 17:0 18:0 19:1 20:0 21:1 22:0 23:0 24:0 25:0 26:0 27:0 28:0 29:0 30:0 31:1 32:0 33:1 34:0 35:0 36:0 37:0 38:0 39:0 40:0 41:0 42:0 43:1 44:0 45:1 46:0 47:0 48:0 49:0 50:0 51:0 52:0 53:0 54:0 55:1 56:0 57:1 58:0 59:0 60:0 
48.44137862633015 1:0 2:0 3:0 4:0 5:0 6:0 7:0 8:0 9:0 10:0 11:0 12:0 13:0 14:0 15:0 16:0 17:0 18:0 19:0 20:0 21:0 22:0 23:0 24:0 25:0 26:0 27:0 28:0 29:0 30:0 31:0 32:0 33:0 34:0 35:0 36:0 37:0 38:0 39:0 40:0 41:0 42:0 43:0 44:0 45:0 46:0 47:0 48:0 49:0 50:0 51:0 52:0 53:0 54:0 55:0 56:0 57:0 58:0 59:0 60:0 
24.94693237594187 1:-1 2:0 3:0 4:-1 5:-4 6:4 7:0 8:0 9:0 10:0 11:0 12:0 13:0 14:0 15:0 16:0 17:-3 18:4 19:1 20:1 21:0 22:0 23:0 24:0 25:0 26:0 27:0 28:0 29:-3 30:4 31:1 32:1 33:0 34:0 35:0 36:0 37:0 38:0 39:0 40:0 41:3 42:-4 43:1 44:1 45:0 46:1 47:0 48:0 49:1 50:0 51:0 52:0 53:7 54:-11 55:1 56:1 57:0 58:1 59:0 60:0 
48.44137862633015 1:0 2:0 3:0 4:1 5:-2 6:5 7:0 8:1 9:0 10:1 11:0 12:0 13:1 14:0 15:0 16:1 17:2 18:-2 19:0 20:1 21:0 22:1 23:0 24:0 25:1 26:0 27:0 28:0 29:2 30:-2 31:0 32:1 33:0 34:1 35:0 36:0 37:0 38:0 39:0 40:-3 41:1 42:-2 43:2 44:1 45:0 46:1 47:0 48:0 49:0 50:0 51:-1 52:-3 53:0 54:-2 55:2 56:0 57:0 58:0 59:0 60:0 
48.44137862633015 1:1 2:-1 3:0 4:2 5:2 6:0 7:-1 8:1 9:-1 10:1 11:0 12:0 13:1 14:-1 15:0 16:1 17:2 18:0 19:-1 20:1 21:-1 22:1 23:0 24:0 25:0 26:-1 27:0 28:-2 29:1 30:0 31:1 32:1 33:-1 34:1 35:0 36:0 37:0 38:-1 39:-1 40:-2 41:0 42:0 43:1 44:0 45:-1 46:0 47:0 48:0 49:0 50:0 51:-2 52:-3 53:-1 54:0 55:2 56:-2 57:0 58:0 59:0 60:-1 
48.44137862633015 1:1 2:-1 3:1 4:0 5:2 6:0 7:0 8:3 9:-1 10:1 11:0 12:0 13:1 14:-1 15:0 16:0 17:1 18:0 19:0 20:2 21:-1 22:0 23:0 24:0 25:1 26:0 27:-1 28:-1 29:0 30:0 31:1 32:0 33:0 34:0 35:0 36:-1 37:1 38:0 39:-1 40:0 41:-1 42:0 43:1 44:-1 45:1 46:0 47:0 48:-1 49:0 50:0 51:-2 52:-1 53:0 54:-1 55:1 56:0 57:1 58:1 59:0 60:-1 
27.91094459047131 1:1 2:-1 3:1 4:1 5:1 6:0 7:-1 8:2 9:-2 10:0 11:0 12:0 13:1 14:0 15:0 16:0 17:0 18:0 19:0 20:0 21:-1 22:0 23:0 24:-1 25:1 26:0 27:0 28:1 29:-1 30:0 31:0 32:-1 33:0 34:0 35:0 36:-1 37:0 38:0 39:-1 40:0 41:0 42:-1 43:0 44:0 45:0 46:1 47:0 48:-1 49:0 50:1 51:-2 52:-2 53:0 54:-1 55:1 56:-1 57:0 58:1 59:0 60:-1 
48.44137862633015 1:1 2:-1 3:1 4:0 5:1 6:0 7:0 8:1 9:-1 10:0 11:0 12:-1 13:1 14:-1 15:1 16:1 17:0 18:0 19:0 20:0 21:0 22:0 23:0 24:-1 25:0 26:-1 27:0 28:0 29:1 30:-1 31:0 32:1 33:0 34:1 35:0 36:-1 37:0 38:0 39:-1 40:-2 41:1 42:-1 43:1 44:0 45:0 46:1 47:0 48:-1 49:0 50:0 51:-1 52:-3 53:1 54:-1 55:1 56:-1 57:1 58:1 59:0 60:0 
48.44137862633015 1:1 2:-1 3:-1 4:2 5:2 6:-1 7:-1 8:4 9:-2 10:0 11:0 12:-1 13:1 14:0 15:-2 16:0 17:2 18:-1 19:0 20:3 21:-2 22:0 23:0 24:-1 25:1 26:0 27:-2 28:-1 29:2 30:-1 31:0 32:2 33:-1 34:0 35:0 36:0 37:1 38:-1 39:-1 40:-1 41:0 42:-1 43:1 44:-1 45:0 46:0 47:0 48:0 49:0 50:-2 51:3 52:-1 53:-2 54:2 55:2 56:-4 57:2 58:0 59:0 60:0 
48.44137862633015 1:2 2:0 3:0 4:3 5:5 6:0 7:0 8:0 9:0 10:0 11:1 12:0 13:0 14:0 15:0 16:1 17:2 18:0 19:0 20:-1 21:0 22:0 23:1 24:0 25:-1 26:0 27:0 28:-1 29:-1 30:0 31:0 32:-1 33:0 34:0 35:1 36:0 37:-1 38:0 39:0 40:-3 41:-3 42:0 43:1 44:-1 45:-1 46:0 47:1 48:0 49:-2 50:0 51:-1 52:-4 53:-3 54:0 55:2 56:0 57:-1 58:0 59:0 60:-1 
48.44137862633015 1:1 2:-1 3:0 4:3 5:3 6:0 7:-1 8:-1 9:0 10:0 11:1 12:0 13:0 14:-1 15:0 16:1 17:0 18:0 19:-1 20:-1 21:0 22:0 23:1 24:0 25:0 26:-1 27:0 28:-1 29:-2 30:0 31:0 32:-1 33:-1 34:0 35:1 36:0 37:-1 38:-1 39:-1 40:-2 41:-2 42:0 43:1 44:0 45:-1 46:0 47:0 48:-1 49:-1 50:0 51:-1 52:-4 53:-2 54:-1 55:2 56:2 57:-2 58:0 59:0 60:-1 
48.44137862633015 1:0 2:-2 3:0 4:1 5:-5 6:0 7:1 8:-5 9:2 10:1 11:1 12:0 13:0 14:-1 15:0 16:-1 17:-5 18:-1 19:2 20:-3 21:1 22:1 23:1 24:0 25:0 26:-1 27:0 28:-1 29:-1 30:-1 31:1 32:-1 33:0 34:1 35:1 36:0 37:0 38:0 39:0 40:-2 41:3 42:-1 43:0 44:2 45:-1 46:0 47:0 48:0 49:0 50:1 51:-1 52:0 53:4 54:-1 55:-2 56:5 57:-2 58:0 59:0 60:0 
45.30705376037979 1:0 2:-1 3:0 4:-1 5:-7 6:0 7:3 8:-5 9:2 10:1 11:1 12:0 13:0 14:-1 15:0 16:-1 17:-3 18:0 19:2 20:-3 21:1 22:1 23:1 24:0 25:0 26:0 27:0 28:-2 29:1 30:0 31:1 32:0 33:0 34:0 35:0 36:0 37:0 38:1 39:-1 40:0 41:2 42:0 43:-1 44:3 45:-1 46:0 47:0 48:0 49:0 50:1 51:0 52:1 53:4 54:-2 55:-2 56:5 57:-5 58:0 59:-1 60:0 
48.44137862633015 1:0 2:-1 3:0 4:0 5:1 6:-2 7:2 8:2 9:-2 10:0 11:1 12:-1 13:0 14:-1 15:0 16:-1 17:-1 18:0 19:-1 20:-1 21:-1 22:0 23:1 24:0 25:0 26:0 27:0 28:-1 29:-1 30:1 31:-1 32:-2 33:0 34:0 35:1 36:0 37:0 38:0 39:0 40:0 41:-1 42:0 43:0 44:-2 45:0 46:0 47:0 48:0 49:0 50:0 51:0 52:1 53:0 54:1 55:2 56:-1 57:0 58:0 59:0 60:0 
48.44137862633015 1:0 2:-1 3:0 4:-2 5:-1 6:-1 7:-2 8:0 9:-1 10:0 11:1 12:0 13:0 14:0 15:0 16:-2 17:-1 18:0 19:-2 20:-1 21:0 22:0 23:1 24:0 25:0 26:0 27:0 28:-1 29:-1 30:-1 31:-1 32:-1 33:0 34:0 35:0 36:0 37:0 38:0 39:0 40:0 41:0 42:0 43:1 44:0 45:0 46:0 47:0 48:0 49:1 50:0 51:1 52:1 53:1 54:2 55:4 56:2 57:1 58:0 59:0 60:0 
13.70852375771173 1:-1 2:0 3:0 4:-2 5:-3 6:-3 7:-3 8:-3 9:-1 10:0 11:0 12:0 13:-1 14:0 15:0 16:-1 17:-2 18:-2 19:-1 20:-2 21:-1 22:0 23:0 24:0 25:0 26:0 27:1 28:0 29:-1 30:0 31:2 32:0 33:0 34:0 35:0 36:0 37:1 38:0 39:1 40:1 41:1 42:1 43:2 44:1 45:-1 46:0 47:0 48:0 49:1 50:0 51:1 52:1 53:3 54:2 55:3 56:3 57:0 58:0 59:0 60:0 
48.44137862633015 1:-1 2:0 3:0 4:-2 5:-3 6:-3 7:-2 8:-4 9:-1 10:0 11:0 12:0 13:0 14:0 15:1 16:-1 17:-2 18:-1 19:1 20:-2 21:0 22:0 23:0 24:0 25:1 26:0 27:1 28:0 29:0 30:0 31:1 32:-1 33:-1 34:0 35:0 36:0 37:1 38:0 39:1 40:0 41:2 42:1 43:2 44:1 45:0 46:0 47:0 48:0 49:2 50:0 51:1 52:0 53:3 54:2 55:1 56:2 57:-1 58:0 59:1 60:0 
48.44137862633015 1:1 2:0 3:-2 4:0 5:0 6:0 7:0 8:0 9:0 10:0 11:0 12:1 13:1 14:0 15:0 16:0 17:0 18:0 19:0 20:0 21:0 22:0 23:0 24:0 25:0 26:0 27:0 28:0 29:0 30:0 31:0 32:0 33:0 34:0 35:0 36:0 37:0 38:0 39:-1 40:0 41:0 42:0 43:0 44:0 45:0 46:0 47:0 48:0 49:0 50:0 51:-1 52:0 53:0 54:0 55:0 56:1 57:0 58:0 59:0 60:0 
48.44137862633015 1:1 2:0 3:0 4:0 5:0 6:0 7:0 8:0 9:1 10:0 11:0 12:0 13:0 14:0 15:0 16:0 17:0 18:0 19:0 20:0 21:1 22:0 23:0 24:0 25:0 26:0 27:-1 28:0 29:0 30:0 31:0 32:0 33:1 34:0 35:0 36:0 37:0 38:0 39:-1 40:0 41:0 42:0 43:0 44:1 45:1 46:0 47:0 48:0 49:0 50:0 51:-1 52:0 53:0 54:0 55:2 56:1 57:0 58:0 59:0 60:0 
48.44137862633015 1:0 2:0 3:1 4:0 5:0 6:0 7:0 8:0 9:1 10:0 11:0 12:0 13:0 14:0 15:0 16:0 17:0 18:0 19:0 20:0 21:1 22:0 23:0 24:0 25:0 26:0 27:0 28:0 29:0 30:0 31:0 32:1 33:1 34:0 35:0 36:0 37:0 38:0 39:0 40:0 41:0 42:0 43:2 44:1 45:0 46:0 47:0 48:0 49:0 50:0 51:-1 52:0 53:0 54:0 55:2 56:1 57:0 58:0 59:0 60:0 
48.44137862633015 1:0 2:0 3:0 4:0 5:0 6:0 7:-1 8:0 9:1 10:0 11:0 12:0 13:0 14:0 15:0 16:0 17:0 18:0 19:-1 20:1 21:1 22:0 23:0 24:0 25:0 26:0 27:0 28:0 29:0 30:0 31:1 32:1 33:0 34:0 35:0 36:0 37:0 38:0 39:-1 40:0 41:0 42:0 43:1 44:1 45:0 46:0 47:0 48:0 49:0 50:0 51:-2 52:0 53:1 54:0 55:1 56:1 57:0 58:0 59:0 60:0 
48.44137862633015 1:0 2:0 3:1 4:0 5:0 6:0 7:-1 8:0 9:1 10:0 11:0 12:0 13:0 14:0 15:1 16:0 17:0 18:0 19:1 20:0 21:0 22:0 23:0 24:0 25:0 26:0 27:0 28:0 29:0 30:0 31:1 32:0 33:0 34:0 35:0 36:0 37:0 38:0 39:-1 40:0 41:1 42:0 43:1 44:0 45:0 46:0 47:0 48:0 49:0 50:0 51:-1 52:0 53:1 54:0 55:1 56:0 57:0 58:0 59:0 60:0 
48.44137862633015 1:0 2:0 3:1 4:0 5:0 6:1 7:0 8:0 9:0 10:0 11:0 12:0 13:0 14:0 15:0 16:0 17:0 18:1 19:0 20:0 21:0 22:0 23:0 24:0 25:0 26:0 27:-1 28:0 29:1 30:1 31:0 32:0 33:0 34:0 35:0 36:0 37:0 38:0 39:-1 40:0 41:1 42:1 43:0 44:0 45:0 46:0 47:0 48:0 49:0 50:0 51:-1 52:-1 53:1 54:0 55:0 56:0 57:0 58:0 59:0 60:0 
48.44137862633015 1:0 2:0 3:0 4:0 5:-1 6:1 7:1 8:0 9:1 10:0 11:0 12:0 13:0 14:0 15:-1 16:0 17:0 18:1 19:1 20:0 21:1 22:0 23:0 24:0 25:0 26:0 27:-1 28:0 29:0 30:1 31:1 32:0 33:1 34:0 35:0 36:0 37:0 38:0 39:-1 40:-1 41:0 42:0 43:1 44:0 45:1 46:0 47:0 48:0 49:0 50:0 51:-1 52:-1 53:1 54:0 55:0 56:1 57:0 58:0 59:0 60:0 
48.44137862633015 1:0 2:0 3:0 4:0 5:0 6:1 7:1 8:0 9:1 10:0 11:0 12:0 13:0 14:0 15:0 16:0 17:0 18:1 19:1 20:0 21:1 22:0 23:0 24:0 25:0 26:0 27:0 28:-1 29:0 30:0 31:1 32:0 33:1 34:0 35:0 36:0 37:0 38:0 39:0 40:-1 41:1 42:0 43:0 44:1 45:0 46:0 47:0 48:0 49:0 50:0 51:0 52:-1 53:1 54:-1 55:0 56:2 57:-1 58:0 59:0 60:0 
48.44137862633015 1:0 2:0 3:0 4:0 5:0 6:2 7:1 8:-1 9:2 10:0 11:0 12:0 13:0 14:0 15:0 16:-1 17:0 18:1 19:1 20:-1 21:2 22:0 23:0 24:0 25:0 26:0 27:0 28:-1 29:1 30:1 31:0 32:0 33:1 34:0 35:0 36:0 37:0 38:0 39:0 40:-1 41:1 42:0 43:0 44:1 45:0 46:0 47:0 48:0 49:0 50:0 51:0 52:-1 53:1 54:-2 55:0 56:2 57:-1 58:0 59:0 60:0 
48.44137862633015 1:0 2:0 3:0 4:0 5:-1 6:2 7:1 8:-1 9:2 10:0 11:0 12:0 13:0 14:0 15:0 16:0 17:0 18:2 19:0 20:0 21:1 22:0 23:0 24:0 25:0 26:0 27:0 28:0 29:0 30:1 31:0 32:1 33:0 34:0 35:0 36:0 37:0 38:0 39:0 40:0 41:0 42:-1 43:0 44:2 45:-1 46:0 47:0 48:0 49:0 50:0 51:0 52:0 53:1 54:-2 55:0 56:2 57:-2 58:0 59:0 60:0 
16.93218984813731 1:0 2:0 3:0 4:0 5:0 6:3 7:0 8:-1 9:3 10:0 11:0 12:0 13:0 14:0 15:0 16:0 17:0 18:2 19:0 20:0 21:2 22:0 23:0 24:0 25:0 26:0 27:0 28:0 29:0 30:0 31:0 32:1 33:1 34:0 35:0 36:0 37:0 38:0 39:0 40:0 41:1 42:-1 43:0 44:1 45:0 46:0 47:0 48:0 49:1 50:0 51:0 52:0 53:2 54:-3 55:0 56:2 57:-2 58:0 59:0 60:0 
48.44137862633015 1:0 2:0 3:-1 4:0 5:-1 6:4 7:0 8:-1 9:3 10:0 11:0 12:0 13:0 14:0 15:-1 16:0 17:-1 18:2 19:0 20:0 21:2 22:0 23:0 24:0 25:0 26:0 27:-1 28:0 29:0 30:1 31:0 32:0 33:1 34:0 35:0 36:0 37:1 38:0 39:-1 40:0 41:1 42:-1 43:0 44:1 45:-1 46:0 47:0 48:0 49:1 50:-1 51:1 52:0 53:1 54:-2 55:0 56:1 57:-3 58:0 59:0 60:1 
2.582265863993252 1:0 2:-1 3:-1 4:-5 5:2 6:6 7:1 8:0 9:5 10:0 11:0 12:1 13:0 14:-1 15:0 16:-2 17:1 18:4 19:1 20:1 21:3 22:0 23:0 24:0 25:0 26:-1 27:0 28:0 29:0 30:-1 31:1 32:2 33:-1 34:0 35:0 36:0 37:0 38:0 39:-2 40:1 41:-1 42:-3 43:-1 44:-1 45:-3 46:0 47:0 48:0 49:0 50:-1 51:0 52:3 53:-1 54:-3 55:-1 56:-1 57:-4 58:0 59:0 60:0 
34.54086572739573 1:1 2:0 3:-1 4:-18 5:-3 6:1 7:-1 8:1 9:2 10:0 11:0 12:0 13:1 14:-1 15:-1 16:-5 17:0 18:-2 19:0 20:0 21:2 22:0 23:1 24:0 25:1 26:-1 27:-1 28:6 29:2 30:-2 31:1 32:0 33:0 34:0 35:1 36:0 37:1 38:-1 39:-1 40:7 41:2 42:-1 43:1 44:0 45:-1 46:0 47:1 48:0 49:0 50:-1 51:0 52:8 53:1 54:1 55:1 56:0 57:0 58:0 59:1 60:0 
48.44137862633015 1:1 2:0 3:-1 4:-10 5:-1 6:-1 7:0 8:0 9:2 10:0 11:0 12:0 13:1 14:0 15:-1 16:1 17:1 18:-1 19:1 20:0 21:0 22:0 23:0 24:0 25:1 26:0 27:-1 28:2 29:1 30:0 31:1 32:0 33:-1 34:0 35:0 36:0 37:0 38:0 39:0 40:3 41:0 42:2 43:1 44:0 45:0 46:0 47:0 48:0 49:0 50:0 51:1 52:3 53:-1 54:0 55:0 56:0 57:0 58:0 59:0 60:0 
46.39291811325618 1:1 2:0 3:-1 4:0 5:2 6:-1 7:1 8:0 9:0 10:0 11:0 12:0 13:1 14:0 15:-1 16:1 17:2 18:0 19:1 20:0 21:-1 22:0 23:0 24:0 25:0 26:0 27:0 28:2 29:1 30:2 31:1 32:0 33:0 34:0 35:0 36:0 37:0 38:0 39:1 40:2 41:0 42:0 43:0 44:0 45:0 46:0 47:0 48:0 49:1 50:-1 51:1 52:-6 53:-3 54:-3 55:1 56:0 57:1 58:0 59:0 60:0 
15.18880759070677 1:1 2:0 3:-2 4:2 5:3 6:0 7:1 8:0 9:0 10:0 11:0 12:0 13:0 14:0 15:-1 16:3 17:2 18:2 19:1 20:0 21:1 22:0 23:0 24:0 25:0 26:0 27:0 28:3 29:1 30:0 31:0 32:0 33:1 34:0 35:0 36:0 37:1 38:-1 39:0 40:-5 41:-2 42:-3 43:1 44:0 45:2 46:0 47:0 48:0 49:1 50:-1 51:1 52:-3 53:-2 54:-1 55:-1 56:1 57:0 58:0 59:0 60:0 
37.15885743867454 1:0 2:0 3:-2 4:1 5:3 6:2 7:2 8:0 9:1 10:0 11:0 12:0 13:0 14:0 15:-1 16:1 17:2 18:0 19:1 20:0 21:1 22:0 23:0 24:0 25:1 26:-1 27:-1 28:-7 29:-1 30:-3 31:2 32:0 33:2 34:0 35:0 36:0 37:1 38:-1 39:0 40:-5 41:-1 42:-1 43:0 44:1 45:0 46:0 47:0 48:0 49:1 50:-1 51:1 52:7 53:-1 54:2 55:-2 56:1 57:-3 58:0 59:0 60:-1 
2.020022027132042 1:0 2:0 3:-2 4:3 5:0 6:-1 7:3 8:-2 9:2 10:0 11:0 12:0 13:0 14:0 15:-1 16:3 17:0 18:1 19:2 20:0 21:2 22:0 23:0 24:0 25:0 26:0 27:1 28:3 29:0 30:3 31:0 32:2 33:-2 34:0 35:0 36:0 37:0 38:0 39:1 40:3 41:-1 42:4 43:-1 44:1 45:-3 46:0 47:0 48:0 49:0 50:0 51:1 52:-9 53:3 54:-7 55:-2 56:1 57:-3 58:0 59:0 60:0 
41.43663940514481 1:1 2:0 3:1 4:13 5:2 6:12 7:2 8:4 9:-3 10:0 11:0 12:0 13:1 14:0 15:1 16:-3 17:1 18:-2 19:2 20:1 21:-1 22:0 23:0 24:0 25:0 26:0 27:0 28:-4 29:0 30:-4 31:0 32:0 33:0 34:1 35:0 36:0 37:-1 38:0 39:0 40:-4 41:-1 42:-3 43:-1 44:-1 45:1 46:1 47:0 48:0 49:-1 50:0 51:0 52:-3 53:-1 54:-4 55:-2 56:-1 57:3 58:1 59:0 60:0 
48.44137862633015 1:2 2:-1 3:1 4:0 5:2 6:1 7:3 8:2 9:-2 10:0 11:0 12:0 13:1 14:-1 15:0 16:-1 17:1 18:-1 19:1 20:1 21:-1 22:1 23:0 24:0 25:0 26:-1 27:0 28:-1 29:0 30:0 31:0 32:0 33:0 34:1 35:0 36:0 37:0 38:-1 39:0 40:0 41:0 42:-1 43:-1 44:0 45:2 46:1 47:0 48:0 49:-1 50:0 51:0 52:-1 53:1 54:-2 55:-2 56:0 57:1 58:1 59:0 60:-1 
48.44137862633015 1:1 2:-1 3:1 4:-1 5:0 6:0 7:2 8:1 9:-2 10:0 11:0 12:0 13:0 14:-1 15:1 16:-1 17:-1 18:1 19:1 20:0 21:-1 22:0 23:0 24:0 25:0 26:-1 27:1 28:0 29:-1 30:0 31:0 32:0 33:1 34:0 35:0 36:0 37:-1 38:0 39:1 40:-1 41:0 42:-1 43:-1 44:0 45:0 46:0 47:0 48:-1 49:0 50:0 51:0 52:0 53:4 54:-2 55:-2 56:1 57:-1 58:0 59:0 60:-1 
48.44137862633015 1:0 2:-1 3:1 4:0 5:-4 6:1 7:2 8:0 9:0 10:1 11:0 12:1 13:-1 14:0 15:1 16:-1 17:-3 18:0 19:1 20:0 21:-1 22:1 23:0 24:0 25:0 26:0 27:0 28:0 29:1 30:-1 31:0 32:1 33:-2 34:1 35:0 36:0 37:1 38:0 39:1 40:0 41:2 42:-1 43:0 44:0 45:1 46:0 47:0 48:0 49:3 50:0 51:1 52:1 53:4 54:-1 55:-1 56:1 57:4 58:0 59:0 60:-1 
40.57613481219406 1:-2 2:-1 3:1 4:-2 5:-4 6:0 7:2 8:-1 9:-2 10:1 11:0 12:0 13:-1 14:-1 15:0 16:-1 17:0 18:-1 19:1 20:0 21:-3 22:1 23:0 24:0 25:0 26:-1 27:1 28:-1 29:1 30:-1 31:1 32:-1 33:0 34:0 35:0 36:0 37:2 38:-1 39:1 40:0 41:3 42:-1 43:0 44:0 45:3 46:0 47:0 48:-1 49:5 50:0 51:1 52:0 53:4 54:0 55:-1 56:2 57:6 58:0 59:0 60:-1 
35.0771567795661 1:-4 2:-1 3:1 4:-1 5:-2 6:-1 7:2 8:-2 9:-5 10:1 11:0 12:0 13:-2 14:-1 15:1 16:0 17:0 18:-1 19:1 20:-1 21:-2 22:1 23:0 24:-1 25:1 26:0 27:1 28:0 29:1 30:0 31:0 32:1 33:1 34:1 35:0 36:-1 37:3 38:1 39:0 40:0 41:2 42:1 43:-1 44:1 45:2 46:0 47:0 48:-1 49:4 50:1 51:0 52:0 53:2 54:1 55:-2 56:2 57:4 58:0 59:0 60:0 
48.44137862633015 1:-3 2:-2 3:1 4:-1 5:0 6:0 7:4 8:-1 9:-1 10:1 11:0 12:-1 13:-1 14:-1 15:0 16:-1 17:1 18:1 19:3 20:-1 21:0 22:0 23:0 24:-1 25:0 26:-1 27:0 28:-1 29:1 30:1 31:2 32:0 33:2 34:0 35:0 36:0 37:2 38:0 39:-1 40:0 41:1 42:0 43:-1 44:1 45:1 46:-1 47:0 48:0 49:4 50:1 51:-3 52:1 53:1 54:-2 55:-4 56:1 57:2 58:-2 59:0 60:0 
9.543355039598335 1:-2 2:-2 3:1 4:-3 5:1 6:2 7:2 8:0 9:-2 10:1 11:1 12:-1 13:0 14:-1 15:0 16:-1 17:0 18:0 19:1 20:1 21:-2 22:0 23:1 24:-1 25:1 26:0 27:-1 28:2 29:0 30:-3 31:-1 32:0 33:0 34:0 35:1 36:-1 37:2 38:1 39:-2 40:2 41:1 42:-2 43:-1 44:-1 45:3 46:-1 47:1 48:0 49:3 50:1 51:-2 52:3 53:2 54:0 55:0 56:1 57:4 58:-1 59:0 60:0 
45.74534414743857 1:-1 2:-2 3:1 4:-2 5:0 6:-1 7:0 8:0 9:-3 10:0 11:1 12:-1 13:0 14:-1 15:0 16:1 17:0 18:-4 19:-2 20:-1 21:-1 22:0 23:1 24:-1 25:1 26:0 27:-1 28:1 29:1 30:-3 31:-2 32:-2 33:2 34:-1 35:1 36:0 37:2 38:0 39:-1 40:2 41:2 42:-1 43:-1 44:0 45:3 46:-1 47:0 48:0 49:1 50:0 51:-1 52:2 53:0 54:6 55:7 56:3 57:3 58:-1 59:1 60:-1 
1.608998294632263 1:-1 2:-1 3:0 4:1 5:0 6:-6 7:-4 8:-1 9:-3 10:0 11:1 12:-1 13:0 14:0 15:-1 16:1 17:1 18:-5 19:-4 20:-2 21:0 22:-1 23:1 24:0 25:1 26:0 27:-1 28:2 29:2 30:-3 31:-3 32:0 33:1 34:-1 35:0 36:0 37:0 38:0 39:-1 40:2 41:0 42:4 43:5 44:3 45:1 46:-1 47:1 48:-1 49:0 50:0 51:-1 52:-2 53:-1 54:7 55:8 56:2 57:2 58:-1 59:1 60:-1 
16.99963501067115 1:0 2:0 3:0 4:1 5:1 6:-7 7:-6 8:-3 9:-1 10:0 11:1 12:0 13:1 14:0 15:0 16:2 17:2 18:-5 19:-5 20:-1 21:0 22:0 23:0 24:0 25:0 26:0 27:0 28:2 29:0 30:2 31:3 32:2 33:0 34:0 35:1 36:-1 37:0 38:0 39:0 40:-2 41:-1 42:5 43:6 44:1 45:1 46:0 47:1 48:-1 49:0 50:0 51:0 52:-2 53:-1 54:5 55:6 56:1 57:1 58:0 59:1 60:-1 
48.44137862633015 1:0 2:0 3:0 4:4 5:1 6:-3 7:-2 8:1 9:0 10:0 11:0 12:0 13:0 14:0 15:0 16:0 17:0 18:0 19:1 20:0 21:1 22:0 23:0 24:0 25:0 26:0 27:0 28:0 29:0 30:0 31:1 32:0 33:1 34:0 35:0 36:0 37:0 38:0 39:0 40:0 41:0 42:0 43:1 44:0 45:1 46:0 47:0 48:0 49:0 50:0 51:0 52:0 53:0 54:0 55:1 56:0 57:1 58:0 59:0 60:0 
48.44137862633015 1:0 2:0 3:0 4:0 5:0 6:0 7:0 8:0 9:0 10:0 11:0 12:0 13:0 14:0 15:0 16:0 17:0 18:0 19:0 20:0 21:0 22:0 23:0 24:0 25:0 26:0 27:0 28:0 29:0 30:0 31:0 32:0 33:0 34:0 35:0 36:0 37:0 38:0 39:0 40:0 41:0 42:0 43:0 44:0 45:0 46:0 47:0 48:0 49:0 50:0 51:0 52:0 53:0 54:0 55:0 56:0 57:0 58:0 59:0 60:0 
-67.55862041999554 1:0 2:0 3:1 4:0 5:-2 6:-1 7:1 8:-2 9:1 10:0 11:0 12:0 13:1 14:0 15:1 16:0 17:-1 18:0 19:0 20:-1 21:0 22:0 23:1 24:0 25:1 26:0 27:0 28:0 29:0 30:0 31:1 32:0 33:0 34:0 35:1 36:0 37:0 38:0 39:0 40:0 41:0 42:0 43:1 44:1 45:0 46:0 47:1 48:0 49:0 50:0 51:-1 52:0 53:1 54:0 55:-1 56:1 57:-1 58:0 59:1 60:0 
-67.55862041999554 1:1 2:0 3:2 4:0 5:-2 6:0 7:1 8:-2 9:0 10:0 11:0 12:0 13:1 14:0 15:1 16:0 17:-1 18:0 19:2 20:-1 21:0 22:0 23:0 24:0 25:0 26:0 27:1 28:0 29:-1 30:0 31:2 32:0 33:0 34:0 35:0 36:0 37:0 38:0 39:0 40:0 41:0 42:0 43:0 44:0 45:-1 46:0 47:0 48:0 49:0 50:0 51:0 52:0 53:0 54:-1 55:-2 56:0 57:-1 58:0 59:0 60:0 
-67.55862041999554 1:1 2:0 3:1 4:0 5:-1 6:0 7:2 8:-1 9:0 10:0 11:0 12:0 13:0 14:0 15:1 16:0 17:-1 18:0 19:2 20:0 21:0 22:0 23:0 24:0 25:0 26:0 27:0 28:0 29:0 30:0 31:0 32:0 33:-1 34:0 35:0 36:0 37:0 38:0 39:0 40:0 41:0 42:-1 43:-2 44:0 45:-1 46:0 47:0 48:0 49:1 50:0 51:-1 52:0 53:1 54:-2 55:-1 56:0 57:-1 58:0 59:0 60:0 
-67.55862041999554 1:0 2:0 3:2 4:0 5:-2 6:1 7:3 8:0 9:1 10:0 11:0 12:0 13:0 14:0 15:1 16:0 17:-1 18:1 19:1 20:0 21:0 22:0 23:0 24:0 25:0 26:0 27:1 28:0 29:-1 30:0 31:-1 32:0 33:0 34:0 35:0 36:0 37:1 38:0 39:0 40:0 41:0 42:-1 43:0 44:0 45:0 46:0 47:0 48:0 49:1 50:0 51:-1 52:-1 53:0 54:-2 55:0 56:0 57:-3 58:0 59:0 60:0 
-67.55862041999554 1:0 2:0 3:1 4:0 5:-1 6:2 7:2 8:0 9:1 10:0 11:0 12:0 13:0 14:0 15:1 16:0 17:-1 18:1 19:0 20:0 21:1 22:0 23:0 24:0 25:1 26:0 27:0 28:0 29:0 30:0 31:1 32:0 33:1 34:0 35:0 36:0 37:1 38:0 39:-1 40:-1 41:0 42:-1 43:1 44:0 45:-2 46:0 47:0 48:0 49:1 50:0 51:-1 52:-2 53:1 54:-3 55:0 56:0 57:-2 58:0 59:0 60:0 
-67.55862041999554 1:0 2:0 3:1 4:1 5:-2 6:2 7:0 8:-1 9:1 10:0 11:0 12:-1 13:1 14:0 15:0 16:1 17:-1 18:1 19:1 20:-1 21:1 22:0 23:0 24:-1 25:1 26:0 27:-1 28:0 29:-1 30:0 31:1 32:-1 33:-2 34:0 35:0 36:-1 37:1 38:0 39:-1 40:-1 41:0 42:-2 43:0 44:-1 45:-2 46:0 47:0 48:-1 49:0 50:-1 51:-1 52:-1 53:0 54:-2 55:1 56:0 57:-2 58:0 59:0 60:0 
-67.55862041999554 1:1 2:0 3:1 4:0 5:-1 6:2 7:1 8:-1 9:2 10:0 11:0 12:-1 13:1 14:0 15:0 16:-1 17:-1 18:1 19:1 20:-1 21:-1 22:0 23:0 24:-1 25:1 26:0 27:0 28:-2 29:0 30:-1 31:0 32:-1 33:-1 34:0 35:0 36:-1 37:0 38:-1 39:0 40:-2 41:0 42:-1 43:1 44:0 45:-1 46:0 47:0 48:0 49:0 50:-1 51:-1 52:2 53:1 54:-1 55:-1 56:0 57:1 58:0 59:0 60:0 
-67.55862041999554 1:1 2:0 3:0 4:-2 5:-2 6:1 7:1 8:-2 9:-2 10:0 11:0 12:-1 13:1 14:0 15:0 16:-3 17:-1 18:-1 19:0 20:-2 21:-2 22:0 23:0 24:-1 25:0 26:-1 27:0 28:-3 29:-1 30:-1 31:1 32:-1 33:-2 34:0 35:0 36:0 37:0 38:-1 39:-1 40:1 41:0 42:-1 43:-1 44:-1 45:0 46:0 47:0 48:0 49:1 50:-1 51:-1 52:3 53:3 54:0 55:-1 56:2 57:2 58:0 59:1 60:0 
-67.55862041999554 1:-1 2:-1 3:1 4:-5 5:-6 6:-3 7:2 8:-5 9:-5 10:0 11:0 12:0 13:-1 14:-1 15:0 16:-1 17:-5 18:-3 19:0 20:-5 21:-3 22:0 23:0 24:0 25:0 26:-1 27:0 28:1 29:-2 30:-2 31:0 32:-2 33:-1 34:0 35:1 36:0 37:1 38:0 39:-1 40:1 41:4 42:1 43:0 44:4 45:1 46:0 47:1 48:-1 49:1 50:0 51:0 52:1 53:7 54:5 55:2 56:8 57:6 58:0 59:1 60:-1 
-64.15063957614223 1:1 2:0 3:-1 4:1 5:2 6:0 7:2 8:4 9:-7 10:0 11:1 12:0 13:0 14:-1 15:-1 16:1 17:1 18:-1 19:1 20:1 21:1 22:0 23:1 24:0 25:0 26:-1 27:-1 28:0 29:0 30:0 31:0 32:0 33:3 34:0 35:1 36:1 37:1 38:-1 39:0 40:-1 41:-1 42:1 43:0 44:0 45:3 46:0 47:1 48:0 49:1 50:-1 51:0 52:-2 53:-1 54:0 55:1 56:-1 57:2 58:0 59:0 60:1 
-67.55862041999554 1:0 2:0 3:-1 4:1 5:2 6:-1 7:0 8:2 9:-1 10:0 11:1 12:0 13:0 14:0 15:-1 16:0 17:1 18:0 19:-1 20:1 21:1 22:0 23:1 24:1 25:1 26:0 27:0 28:-1 29:0 30:1 31:-1 32:1 33:1 34:0 35:1 36:0 37:1 38:0 39:0 40:-2 41:0 42:0 43:0 44:0 45:0 46:0 47:0 48:1 49:1 50:0 51:0 52:-2 53:0 54:1 55:2 56:-1 57:0 58:0 59:0 60:1 
-67.55862041999554 1:0 2:0 3:-1 4:1 5:1 6:0 7:-1 8:1 9:1 10:0 11:1 12:1 13:1 14:0 15:0 16:0 17:0 18:1 19:-1 20:1 21:1 22:0 23:1 24:0 25:1 26:0 27:0 28:-1 29:0 30:0 31:0 32:0 33:0 34:0 35:0 36:1 37:1 38:0 39:0 40:-1 41:0 42:1 43:2 44:-1 45:0 46:0 47:0 48:1 49:1 50:0 51:0 52:-2 53:-1 54:1 55:2 56:0 57:1 58:0 59:0 60:1 
-67.55862041999554 1:0 2:-1 3:0 4:1 5:1 6:1 7:-2 8:1 9:1 10:0 11:1 12:0 13:0 14:-1 15:0 16:0 17:1 18:0 19:-1 20:0 21:0 22:0 23:0 24:1 25:0 26:-1 27:0 28:0 29:1 30:1 31:1 32:-1 33:0 34:0 35:0 36:1 37:0 38:-1 39:0 40:-1 41:0 42:1 43:1 44:0 45:1 46:0 47:0 48:1 49:0 50:0 51:-1 52:-1 53:0 54:1 55:1 56:0 57:1 58:0 59:0 60:0 
-67.55862041999554 1:0 2:-1 3:-1 4:0 5:1 6:0 7:-1 8:1 9:0 10:0 11:0 12:1 13:0 14:-1 15:-1 16:0 17:1 18:1 19:1 20:0 21:0 22:0 23:0 24:1 25:0 26:-1 27:-1 28:-1 29:0 30:1 31:1 32:1 33:1 34:0 35:0 36:1 37:0 38:0 39:-2 40:-1 41:0 42:1 43:1 44:1 45:1 46:0 47:0 48:0 49:0 50:-1 51:1 52:-2 53:0 54:1 55:1 56:0 57:2 58:0 59:1 60:0 
-67.55862041999554 1:0 2:-1 3:-1 4:1 5:1 6:0 7:0 8:0 9:-1 10:0 11:0 12:1 13:0 14:-1 15:-1 16:0 17:0 18:0 19:0 20:1 21:0 22:0 23:0 24:1 25:0 26:0 27:-2 28:0 29:0 30:0 31:0 32:1 33:0 34:0 35:0 36:0 37:0 38:-1 39:1 40:-1 41:0 42:0 43:0 44:0 45:1 46:0 47:1 48:0 49:0 50:-1 51:0 52:-1 53:0 54:0 55:0 56:0 57:1 58:0 59:1 60:0 
-67.55862041999554 1:0 2:-1 3:-1 4:0 5:1 6:0 7:0 8:1 9:0 10:0 11:0 12:1 13:0 14:0 15:-2 16:0 17:1 18:0 19:0 20:1 21:0 22:0 23:0 24:0 25:0 26:-1 27:1 28:-1 29:1 30:0 31:0 32:0 33:1 34:0 35:1 36:0 37:0 38:-1 39:0 40:-1 41:1 42:0 43:0 44:0 45:1 46:0 47:1 48:0 49:0 50:-1 51:0 52:-1 53:0 54:1 55:0 56:0 57:1 58:0 59:1 60:0 
-67.55862041999554 1:0 2:0 3:-2 4:0 5:1 6:0 7:0 8:1 9:0 10:0 11:0 12:0 13:0 14:-1 15:1 16:-1 17:1 18:0 19:0 20:0 21:1 22:0 23:1 24:0 25:0 26:-1 27:0 28:-1 29:1 30:0 31:0 32:0 33:1 34:0 35:1 36:0 37:0 38:-1 39:0 40:-1 41:0 42:1 43:0 44:0 45:1 46:0 47:1 48:0 49:0 50:-1 51:0 52:-1 53:0 54:2 55:1 56:0 57:1 58:0 59:1 60:0 
-67.55862041999554 1:0 2:0 3:0 4:0 5:1 6:-1 7:0 8:0 9:0 10:0 11:0 12:0 13:0 14:0 15:-1 16:0 17:1 18:-1 19:0 20:0 21:0 22:0 23:0 24:0 25:0 26:0 27:-1 28:0 29:0 30:0 31:0 32:0 33:0 34:0 35:0 36:0 37:0 38:0 39:-1 40:0 41:0 42:1 43:1 44:0 45:0 46:0 47:0 48:0 49:0 50:0 51:-1 52:0 53:0 54:1 55:1 56:0 57:0 58:0 59:0 60:0 
-67.55862041999554 1:1 2:0 3:0 4:0 5:1 6:-1 7:0 8:1 9:1 10:0 11:1 12:0 13:1 14:0 15:0 16:0 17:0 18:0 19:0 20:1 21:1 22:0 23:1 24:0 25:1 26:0 27:0 28:0 29:0 30:1 31:1 32:1 33:1 34:0 35:1 36:0 37:1 38:0 39:0 40:0 41:0 42:1 43:1 44:1 45:1 46:0 47:1 48:0 49:0 50:0 51:-1 52:0 53:1 54:0 55:2 56:0 57:0 58:0 59:0 60:1 
-67.55862041999554 1:1 2:0 3:0 4:0 5:0 6:0 7:-1 8:1 9:1 10:0 11:1 12:0 13:1 14:0 15:0 16:0 17:0 18:1 19:0 20:1 21:1 22:0 23:1 24:0 25:1 26:0 27:0 28:0 29:0 30:1 31:0 32:1 33:1 34:0 35:1 36:0 37:0 38:0 39:-1 40:0 41:1 42:0 43:1 44:0 45:0 46:0 47:0 48:1 49:0 50:0 51:-1 52:-1 53:1 54:0 55:1 56:0 57:-1 58:0 59:0 60:1 
-67.55862041999554 1:1 2:-1 3:1 4:0 5:-1 6:2 7:-1 8:1 9:2 10:0 11:1 12:-1 13:0 14:-1 15:0 16:0 17:0 18:1 19:0 20:0 21:1 22:0 23:0 24:0 25:0 26:-1 27:0 28:-1 29:0 30:1 31:0 32:0 33:0 34:0 35:0 36:0 37:0 38:0 39:-1 40:-1 41:1 42:0 43:1 44:0 45:-1 46:0 47:0 48:1 49:0 50:0 51:-3 52:-1 53:1 54:-3 55:1 56:1 57:-2 58:0 59:0 60:1 
-67.55862041999554 1:0 2:-1 3:1 4:0 5:0 6:2 7:0 8:0 9:2 10:0 11:0 12:0 13:0 14:-1 15:1 16:-1 17:0 18:2 19:0 20:0 21:1 22:0 23:0 24:0 25:0 26:0 27:0 28:-1 29:1 30:1 31:1 32:0 33:0 34:0 35:0 36:1 37:0 38:0 39:-2 40:-1 41:1 42:-2 43:1 44:1 45:-1 46:0 47:0 48:1 49:0 50:0 51:-2 52:-1 53:1 54:-2 55:1 56:1 57:0 58:0 59:0 60:0 
-67.55862041999554 1:0 2:-1 3:2 4:0 5:0 6:3 7:0 8:0 9:1 10:0 11:0 12:0 13:0 14:0 15:1 16:0 17:1 18:2 19:1 20:0 21:0 22:0 23:0 24:1 25:0 26:0 27:-1 28:0 29:1 30:-1 31:1 32:1 33:-1 34:0 35:0 36:1 37:0 38:0 39:-1 40:0 41:1 42:-1 43:1 44:1 45:0 46:0 47:0 48:0 49:0 50:0 51:-1 52:0 53:1 54:-1 55:0 56:1 57:1 58:0 59:0 60:0 
-55.44080882450339 1:0 2:0 3:1 4:-1 5:1 6:3 7:1 8:-1 9:0 10:0 11:0 12:1 13:0 14:0 15:-1 16:-1 17:1 18:0 19:1 20:0 21:-1 22:0 23:0 24:1 25:0 26:0 27:-1 28:-1 29:1 30:0 31:1 32:0 33:0 34:0 35:0 36:0 37:0 38:0 39:-1 40:-1 41:1 42:0 43:0 44:0 45:1 46:0 47:0 48:0 49:0 50:0 51:-2 52:0 53:0 54:0 55:-1 56:1 57:1 58:0 59:1 60:0 
-67.55862041999554 1:0 2:0 3:0 4:-1 5:1 6:0 7:1 8:0 9:-1 10:0 11:0 12:1 13:0 14:0 15:0 16:-1 17:1 18:0 19:1 20:0 21:0 22:0 23:0 24:0 25:0 26:0 27:0 28:-1 29:1 30:0 31:0 32:0 33:1 34:0 35:0 36:0 37:0 38:0 39:-1 40:0 41:0 42:0 43:-1 44:1 45:1 46:0 47:1 48:0 49:0 50:0 51:1 52:0 53:0 54:0 55:-1 56:1 57:1 58:0 59:1 60:-1 
-67.55862041999554 1:0 2:0 3:1 4:0 5:-2 6:-1 7:1 8:-2 9:1 10:0 11:0 12:0 13:1 14:0 15:1 16:0 17:-1 18:0 19:0 20:-1 21:0 22:0 23:1 24:0 25:1 26:0 27:0 28:0 29:0 30:0 31:1 32:0 33:0 34:0 35:1 36:0 37:0 38:0 39:0 40:0 41:0 42:0 43:1 44:1 45:0 46:0 47:1 48:0 49:0 50:0 51:-1 52:0 53:1 54:0 55:-1 56:1 57:-1 58:0 59:1 60:0 
-67.55862041999554 1:1 2:0 3:2 4:0 5:-2 6:0 7:1 8:-2 9:0 10:0 11:0 12:0 13:1 14:0 15:1 16:0 17:-1 18:0 19:2 20:-1 21:0 22:0 23:0 24:0 25:0 26:0 27:1 28:0 29:-1 30:0 31:2 32:0 33:0 34:0 35:0 36:0 37:0 38:0 39:0 40:0 41:0 42:0 43:0 44:0 45:-1 46:0 47:0 48:0 49:0 50:0 51:0 52:0 53:0 54:-1 55:-2 56:0 57:-1 58:0 59:0 60:0 
-67.55862041999554 1:1 2:0 3:1 4:0 5:-1 6:0 7:2 8:-1 9:0 10:0 11:0 12:0 13:0 14:0 15:1 16:0 17:-1 18:0 19:2 20:0 21:0 22:0 23:0 24:0 25:0 26:0 27:0 28:0 29:0 30:0 31:0 32:0 33:-1 34:0 35:0 36:0 37:0 38:0 39:0 40:0 41:0 42:-1 43:-2 44:0 45:-1 46:0 47:0 48:0 49:1 50:0 51:-1 52:0 53:1 54:-2 55:-1 56:0 57:-1 58:0 59:0 60:0 
-67.55862041999554 1:0 2:0 3:2 4:0 5:-2 6:1 7:3 8:0 9:1 10:0 11:0 12:0 13:0 14:0 15:1 16:0 17:-1 18:1 19:1 20:0 21:0 22:0 23:0 24:0 25:0 26:0 27:1 28:0 29:-1 30:0 31:-1 32:0 33:0 34:0 35:0 36:0 37:1 38:0 39:0 40:0 41:0 42:-1 43:0 44:0 45:0 46:0 47:0 48:0 49:1 50:0 51:-1 52:-1 53:0 54:-2 55:0 56:0 57:-3 58:0 59:0 60:0 
-67.55862041999554 1:0 2:0 3:1 4:0 5:-1 6:2 7:2 8:0 9:1 10:0 11:0 12:0 13:0 14:0 15:1 16:0 17:-1 18:1 19:0 20:0 21:1 22:0 23:0 24:0 25:1 26:0 27:0 28:0 29:0 30:0 31:1 32:0 33:1 34:0 35:0 36:0 37:1 38:0 39:-1 40:-1 41:0 42:-1 43:1 44:0 45:-2 46:0 47:0 48:0 49:1 50:0 51:-1 52:-2 53:1 54:-3 55:0 56:0 57:-2 58:0 59:0 60:0 
-67.55862041999554 1:0 2:0 3:1 4:1 5:-2 6:2 7:0 8:-1 9:1 10:0 11:0 12:-1 13:1 14:0 15:0 16:1 17:-1 18:1 19:1 20:-1 21:1 22:0 23:0 24:-1 25:1 26:0 27:-1 28:0 29:-1 30:0 31:1 32:-1 33:-2 34:0 35:0 36:-1 37:1 38:0 39:-1 40:-1 41:0 42:-2 43:0 44:-1 45:-2 46:0 47:0 48:-1 49:0 50:-1 51:-1 52:-1 53:0 54:-2 55:1 56:0 57:-2 58:0 59:0 60:0 
-67.55862041999554 1:1 2:0 3:1 4:0 5:-1 6:2 7:1 8:-1 9:2 10:0 11:0 12:-1 13:1 14:0 15:0 16:-1 17:-1 18:1 19:1 20:-1 21:-1 22:0 23:0 24:-1 25:1 26:0 27:0 28:-2 29:0 30:-1 31:0 32:-1 33:-1 34:0 35:0 36:-1 37:0 38:-1 39:0 40:-2 41:0 42:-1 43:1 44:0 45:-1 46:0 47:0 48:0 49:0 50:-1 51:-1 52:2 53:1 54:-1 55:-1 56:0 57:1 58:0 59:0 60:0 
-67.55862041999554 1:1 2:0 3:0 4:-2 5:-2 6:1 7:1 8:-2 9:-2 10:0 11:0 12:-1 13:1 14:0 15:0 16:-3 17:-1 18:-1 19:0 20:-2 21:-2 22:0 23:0 24:-1 25:0 26:-1 27:0 28:-3 29:-1 30:-1 31:1 32:-1 33:-2 34:0 35:0 36:0 37:0 38:-1 39:-1 40:1 41:0 42:-1 43:-1 44:-1 45:0 46:0 47:0 48:0 49:1 50:-1 51:-1 52:3 53:3 54:0 55:-1 56:2 57:2 58:0 59:1 60:0 
-67.55862041999554 1:-1 2:-1 3:1 4:-5 5:-6 6:-3 7:2 8:-5 9:-5 10:0 11:0 12:0 13:-1 14:-1 15:0 16:-1 17:-5 18:-3 19:0 20:-5 21:-3 22:0 23:0 24:0 25:0 26:-1 27:0 28:1 29:-2 30:-2 31:0 32:-2 33:-1 34:0 35:1 36:0 37:1 38:0 39:-1 40:1 41:4 42:1 43:0 44:4 45:1 46:0 47:1 48:-1 49:1 50:0 51:0 52:1 53:7 54:5 55:2 56:8 57:6 58:0 59:1 60:-1 
-67.55862041999554 1:1 2:0 3:-1 4:1 5:2 6:0 7:2 8:4 9:-7 10:0 11:1 12:0 13:0 14:-1 15:-1 16:1 17:1 18:-1 19:1 20:1 21:1 22:0 23:1 24:0 25:0 26:-1 27:-1 28:0 29:0 30:0 31:0 32:0 33:3 34:0 35:1 36:1 37:1 38:-1 39:0 40:-1 41:-1 42:1 43:0 44:0 45:3 46:0 47:1 48:0 49:1 50:-1 51:0 52:-2 53:-1 54:0 55:1 56:-1 57:2 58:0 59:0 60:1 
-67.55862041999554 1:0 2:0 3:-1 4:1 5:2 6:-1 7:0 8:2 9:-1 10:0 11:1 12:0 13:0 14:0 15:-1 16:0 17:1 18:0 19:-1 20:1 21:1 22:0 23:1 24:1 25:1 26:0 27:0 28:-1 29:0 30:1 31:-1 32:1 33:1 34:0 35:1 36:0 37:1 38:0 39:0 40:-2 41:0 42:0 43:0 44:0 45:0 46:0 47:0 48:1 49:1 50:0 51:0 52:-2 53:0 54:1 55:2 56:-1 57:0 58:0 59:0 60:1 
-67.55862041999554 1:0 2:0 3:-1 4:1 5:1 6:0 7:-1 8:1 9:1 10:0 11:1 12:1 13:1 14:0 15:0 16:0 17:0 18:1 19:-1 20:1 21:1 22:0 23:1 24:0 25:1 26:0 27:0 28:-1 29:0 30:0 31:0 32:0 33:0 34:0 35:0 36:1 37:1 38:0 39:0 40:-1 41:0 42:1 43:2 44:-1 45:0 46:0 47:0 48:1 49:1 50:0 51:0 52:-2 53:-1 54:1 55:2 56:0 57:1 58:0 59:0 60:1 
-67.55862041999554 1:0 2:-1 3:0 4:1 5:1 6:1 7:-2 8:1 9:1 10:0 11:1 12:0 13:0 14:-1 15:0 16:0 17:1 18:0 19:-1 20:0 21:0 22:0 23:0 24:1 25:0 26:-1 27:0 28:0 29:1 30:1 31:1 32:-1 33:0 34:0 35:0 36:1 37:0 38:-1 39:0 40:-1 41:0 42:1 43:1 44:0 45:1 46:0 47:0 48:1 49:0 50:0 51:-1 52:-1 53:0 54:1 55:1 56:0 57:1 58:0 59:0 60:0 
-67.55862041999554 1:0 2:-1 3:-1 4:0 5:1 6:0 7:-1 8:1 9:0 10:0 11:0 12:1 13:0 14:-1 15:-1 16:0 17:1 18:1 19:1 20:0 21:0 22:0 23:0 24:1 25:0 26:-1 27:-1 28:-1 29:0 30:1 31:1 32:1 33:1 34:0 35:0 36:1 37:0 38:0 39:-2 40:-1 41:0 42:1 43:1 44:1 45:1 46:0 47:0 48:0 49:0 50:-1 51:1 52:-2 53:0 54:1 55:1 56:0 57:2 58:0 59:1 60:0 
-67.55862041999554 1:0 2:-1 3:-1 4:1 5:1 6:0 7:0 8:0 9:-1 10:0 11:0 12:1 13:0 14:-1 15:-1 16:0 17:0 18:0 19:0 20:1 21:0 22:0 23:0 24:1 25:0 26:0 27:-2 28:0 29:0 30:0 31:0 32:1 33:0 34:0 35:0 36:0 37:0 38:-1 39:1 40:-1 41:0 42:0 43:0 44:0 45:1 46:0 47:1 48:0 49:0 50:-1 51:0 52:-1 53:0 54:0 55:0 56:0 57:1 58:0 59:1 60:0 
-67.55862041999554 1:0 2:-1 3:-1 4:0 5:1 6:0 7:0 8:1 9:0 10:0 11:0 12:1 13:0 14:0 15:-2 16:0 17:1 18:0 19:0 20:1 21:0 22:0 23:0 24:0 25:0 26:-1 27:1 28:-1 29:1 30:0 31:0 32:0 33:1 34:0 35:1 36:0 37:0 38:-1 39:0 40:-1 41:1 42:0 43:0 44:0 45:1 46:0 47:1 48:0 49:0 50:-1 51:0 52:-1 53:0 54:1 55:0 56:0 57:1 58:0 59:1 60:0 
-67.55862041999554 1:0 2:0 3:-2 4:0 5:1 6:0 7:0 8:1 9:0 10:0 11:0 12:0 13:0 14:-1 15:1 16:-1 17:1 18:0 19:0 20:0 21:1 22:0 23:1 24:0 25:0 26:-1 27:0 28:-1 29:1 30:0 31:0 32:0 33:1 34:0 35:1 36:0 37:0 38:-1 39:0 40:-1 41:0 42:1 43:0 44:0 45:1 46:0 47:1 48:0 49:0 50:-1 51:0 52:-1 53:0 54:2 55:1 56:0 57:1 58:0 59:1 60:0 
-67.55862041999554 1:0 2:0 3:0 4:0 5:1 6:-1 7:0 8:0 9:0 10:0 11:0 12:0 13:0 14:0 15:-1 16:0 17:1 18:-1 19:0 20:0 21:0 22:0 23:0 24:0 25:0 26:0 27:-1 28:0 29:0 30:0 31:0 32:0 33:0 34:0 35:0 36:0 37:0 38:0 39:-1 40:0 41:0 42:1 43:1 44:0 45:0 46:0 47:0 48:0 49:0 50:0 51:-1 52:0 53:0 54:1 55:1 56:0 57:0 58:0 59:0 60:0 
-67.55862041999554 1:1 2:0 3:0 4:0 5:1 6:-1 7:0 8:1 9:1 10:0 11:1 12:0 13:1 14:0 15:0 16:0 17:0 18:0 19:0 20:1 21:1 22:0 23:1 24:0 25:1 26:0 27:0 28:0 29:0 30:1 31:1 32:1 33:1 34:0 35:1 36:0 37:1 38:0 39:0 40:0 41:0 42:1 43:1 44:1 45:1 46:0 47:1 48:0 49:0 50:0 51:-1 52:0 53:1 54:0 55:2 56:0 57:0 58:0 59:0 60:1 
-67.55862041999554 1:1 2:0 3:0 4:0 5:0 6:0 7:-1 8:1 9:1 10:0 11:1 12:0 13:1 14:0 15:0 16:0 17:0 18:1 19:0 20:1 21:1 22:0 23:1 24:0 25:1 26:0 27:0 28:0 29:0 30:1 31:0 32:1 33:1 34:0 35:1 36:0 37:0 38:0 39:-1 40:0 41:1 42:0 43:1 44:0 45:0 46:0 47:0 48:1 49:0 50:0 51:-1 52:-1 53:1 54:0 55:1 56:0 57:-1 58:0 59:0 60:1 
-67.55862041999554 1:1 2:-1 3:1 4:0 5:-1 6:2 7:-1 8:1 9:2 10:0 11:1 12:-1 13:0 14:-1 15:0 16:0 17:0 18:1 19:0 20:0 21:1 22:0 23:0 24:0 25:0 26:-1 27:0 28:-1 29:0 30:1 31:0 32:0 33:0 34:0 35:0 36:0 37:0 38:0 39:-1 40:-1 41:1 42:0 43:1 44:0 45:-1 46:0 47:0 48:1 49:0 50:0 51:-3 52:-1 53:1 54:-3 55:1 56:1 57:-2 58:0 59:0 60:1 
-67.55862041999554 1:0 2:-1 3:1 4:0 5:0 6:2 7:0 8:0 9:2 10:0 11:0 12:0 13:0 14:-1 15:1 16:-1 17:0 18:2 19:0 20:0 21:1 22:0 23:0 24:0 25:0 26:0 27:0 28:-1 29:1 30:1 31:1 32:0 33:0 34:0 35:0 36:1 37:0 38:0 39:-2 40:-1 41:1 42:-2 43:1 44:1 45:-1 46:0 47:0 48:1 49:0 50:0 51:-2 52:-1 53:1 54:-2 55:1 56:1 57:0 58:0 59:0 60:0 
-67.55862041999554 1:0 2:-1 3:2 4:0 5:0 6:3 7:0 8:0 9:1 10:0 11:0 12:0 13:0 14:0 15:1 16:0 17:1 18:2 19:1 20:0 21:0 22:0 23:0 24:1 25:0 26:0 27:-1 28:0 29:1 30:-1 31:1 32:1 33:-1 34:0 35:0 36:1 37:0 38:0 39:-1 40:0 41:1 42:-1 43:1 44:1 45:0 46:0 47:0 48:0 49:0 50:0 51:-1 52:0 53:1 54:-1 55:0 56:1 57:1 58:0 59:0 60:0 
-67.55862041999554 1:0 2:0 3:1 4:-1 5:1 6:3 7:1 8:-1 9:0 10:0 11:0 12:1 13:0 14:0 15:-1 16:-1 17:1 18:0 19:1 20:0 21:-1 22:0 23:0 24:1 25:0 26:0 27:-1 28:-1 29:1 30:0 31:1 32:0 33:0 34:0 35:0 36:0 37:0 38:0 39:-1 40:-1 41:1 42:0 43:0 44:0 45:1 46:0 47:0 48:0 49:0 50:0 51:-2 52:0 53:0 54:0 55:-1 56:1 57:1 58:0 59:1 60:0 
-67.55862041999554 1:0 2:0 3:0 4:-1 5:1 6:0 7:1 8:0 9:-1 10:0 11:0 12:1 13:0 14:0 15:0 16:-1 17:1 18:0 19:1 20:0 21:0 22:0 23:0 24:0 25:0 26:0 27:0 28:-1 29:1 30:0 31:0 32:0 33:1 34:0 35:0 36:0 37:0 38:0 39:-1 40:0 41:0 42:0 43:-1 44:1 45:1 46:0 47:1 48:0 49:0 50:0 51:1 52:0 53:0 54:0 55:-1 56:1 57:1 58:0 59:1 60:-1 
-67.55862041999554 1:0 2:0 3:1 4:0 5:-2 6:-1 7:1 8:-2 9:1 10:0 11:0 12:0 13:1 14:0 15:1 16:0 17:-1 18:0 19:0 20:-1 21:0 22:0 23:1 24:0 25:1 26:0 27:0 28:0 29:0 30:0 31:1 32:0 33:0 34:0 35:1 36:0 37:0 38:0 39:0 40:0 41:0 42:0 43:1 44:1 45:0 46:0 47:1 48:0 49:0 50:0 51:-1 52:0 53:1 54:0 55:-1 56:1 57:-1 58:0 59:1 60:0 
-67.55862041999554 1:1 2:0 3:2 4:0 5:-2 6:0 7:1 8:-2 9:0 10:0 11:0 12:0 13:1 14:0 15:1 16:0 17:-1 18:0 19:2 20:-1 21:0 22:0 23:0 24:0 25:0 26:0 27:1 28:0 29:-1 30:0 31:2 32:0 33:0 34:0 35:0 36:0 37:0 38:0 39:0 40:0 41:0 42:0 43:0 44:0 45:-1 46:0 47:0 48:0 49:0 50:0 51:0 52:0 53:0 54:-1 55:-2 56:0 57:-1 58:0 59:0 60:0 
-67.55862041999554 1:1 2:0 3:1 4:0 5:-1 6:0 7:2 8:-1 9:0 10:0 11:0 12:0 13:0 14:0 15:1 16:0 17:-1 18:0 19:2 20:0 21:0 22:0 23:0 24:0 25:0 26:0 27:0 28:0 29:0 30:0 31:0 32:0 33:-1 34:0 35:0 36:0 37:0 38:0 39:0 40:0 41:0 42:-1 43:-2 44:0 45:-1 46:0 47:0 48:0 49:1 50:0 51:-1 52:0 53:1 54:-2 55:-1 56:0 57:-1 58:0 59:0 60:0 
-67.55862041999554 1:0 2:0 3:2 4:0 5:-2 6:1 7:3 8:0 9:1 10:0 11:0 12:0 13:0 14:0 15:1 16:0 17:-1 18:1 19:1 20:0 21:0 22:0 23:0 24:0 25:0 26:0 27:1 28:0 29:-1 30:0 31:-1 32:0 33:0 34:0 35:0 36:0 37:1 38:0 39:0 40:0 41:0 42:-1 43:0 44:0 45:0 46:0 47:0 48:0 49:1 50:0 51:-1 52:-1 53:0 54:-2 55:0 56:0 57:-3 58:0 59:0 60:0 
-67.55862041999554 1:0 2:0 3:1 4:0 5:-1 6:2 7:2 8:0 9:1 10:0 11:0 12:0 13:0 14:0 15:1 16:0 17:-1 18:1 19:0 20:0 21:1 22:0 23:0 24:0 25:1 26:0 27:0 28:0 29:0 30:0 31:1 32:0 33:1 34:0 35:0 36:0 37:1 38:0 39:-1 40:-1 41:0 42:-1 43:1 44:0 45:-2 46:0 47:0 48:0 49:1 50:0 51:-1 52:-2 53:1 54:-3 55:0 56:0 57:-2 58:0 59:0 60:0 
-67.55862041999554 1:0 2:0 3:1 4:1 5:-2 6:2 7:0 8:-1 9:1 10:0 11:0 12:-1 13:1 14:0 15:0 16:1 17:-1 18:1 19:1 20:-1 21:1 22:0 23:0 24:-1 25:1 26:0 27:-1 28:0 29:-1 30:0 31:1 32:-1 33:-2 34:0 35:0 36:-1 37:1 38:0 39:-1 40:-1 41:0 42:-2 43:0 44:-1 45:-2 46:0 47:0 48:-1 49:0 50:-1 51:-1 52:-1 53:0 54:-2 55:1 56:0 57:-2 58:0 59:0 60:0 
-67.55862041999554 1:1 2:0 3:1 4:0 5:-1 6:2 7:1 8:-1 9:2 10:0 11:0 12:-1 13:1 14:0 15:0 16:-1 17:-1 18:1 19:1 20:-1 21:-1 22:0 23:0 24:-1 25:1 26:0 27:0 28:-2 29:0 30:-1 31:0 32:-1 33:-1 34:0 35:0 36:-1 37:0 38:-1 39:0 40:-2 41:0 42:-1 43:1 44:0 45:-1 46:0 47:0 48:0 49:0 50:-1 51:-1 52:2 53:1 54:-1 55:-1 56:0 57:1 58:0 59:0 60:0 
-67.55862041999554 1:1 2:0 3:0 4:-2 5:-2 6:1 7:1 8:-2 9:-2 10:0 11:0 12:-1 13:1 14:0 15:0 16:-3 17:-1 18:-1 19:0 20:-2 21:-2 22:0 23:0 24:-1 25:0 26:-1 27:0 28:-3 29:-1 30:-1 31:1 32:-1 33:-2 34:0 35:0 36:0 37:0 38:-1 39:-1 40:1 41:0 42:-1 43:-1 44:-1 45:0 46:0 47:0 48:0 49:1 50:-1 51:-1 52:3 53:3 54:0 55:-1 56:2 57:2 58:0 59:1 60:0 
-67.55862041999554 1:-1 2:-1 3:1 4:-5 5:-6 6:-3 7:2 8:-5 9:-5 10:0 11:0 12:0 13:-1 14:-1 15:0 16:-1 17:-5 18:-3 19:0 20:-5 21:-3 22:0 23:0 24:0 25:0 26:-1 27:0 28:1 29:-2 30:-2 31:0 32:-2 33:-1 34:0 35:1 36:0 37:1 38:0 39:-1 40:1 41:4 42:1 43:0 44:4 45:1 46:0 47:1 48:-1 49:1 50:0 51:0 52:1 53:7 54:5 55:2 56:8 57:6 58:0 59:1 60:-1 
-67.17684369426095 1:1 2:0 3:-1 4:1 5:2 6:0 7:2 8:4 9:-7 10:0 11:1 12:0 13:0 14:-1 15:-1 16:1 17:1 18:-1 19:1 20:1 21:1 22:0 23:1 24:0 25:0 26:-1 27:-1 28:0 29:0 30:0 31:0 32:0 33:3 34:0 35:1 36:1 37:1 38:-1 39:0 40:-1 41:-1 42:1 43:0 44:0 45:3 46:0 47:1 48:0 49:1 50:-1 51:0 52:-2 53:-1 54:0 55:1 56:-1 57:2 58:0 59:0 60:1 
-67.55862041999554 1:0 2:0 3:-1 4:1 5:2 6:-1 7:0 8:2 9:-1 10:0 11:1 12:0 13:0 14:0 15:-1 16:0 17:1 18:0 19:-1 20:1 21:1 22:0 23:1 24:1 25:1 26:0 27:0 28:-1 29:0 30:1 31:-1 32:1 33:1 34:0 35:1 36:0 37:1 38:0 39:0 40:-2 41:0 42:0 43:0 44:0 45:0 46:0 47:0 48:1 49:1 50:0 51:0 52:-2 53:0 54:1 55:2 56:-1 57:0 58:0 59:0 60:1 
-67.55862041999554 1:0 2:0 3:-1 4:1 5:1 6:0 7:-1 8:1 9:1 10:0 11:1 12:1 13:1 14:0 15:0 16:0 17:0 18:1 19:-1 20:1 21:1 22:0 23:1 24:0 25:1 26:0 27:0 28:-1 29:0 30:0 31:0 32:0 33:0 34:0 35:0 36:1 37:1 38:0 39:0 40:-1 41:0 42:1 43:2 44:-1 45:0 46:0 47:0 48:1 49:1 50:0 51:0 52:-2 53:-1 54:1 55:2 56:0 57:1 58:0 59:0 60:1 
-67.55862041999554 1:0 2:-1 3:0 4:1 5:1 6:1 7:-2 8:1 9:1 10:0 11:1 12:0 13:0 14:-1 15:0 16:0 17:1 18:0 19:-1 20:0 21:0 22:0 23:0 24:1 25:0 26:-1 27:0 28:0 29:1 30:1 31:1 32:-1 33:0 34:0 35:0 36:1 37:0 38:-1 39:0 40:-1 41:0 42:1 43:1 44:0 45:1 46:0 47:0 48:1 49:0 50:0 51:-1 52:-1 53:0 54:1 55:1 56:0 57:1 58:0 59:0 60:0 
-67.55862041999554 1:0 2:-1 3:-1 4:0 5:1 6:0 7:-1 8:1 9:0 10:0 11:0 12:1 13:0 14:-1 15:-1 16:0 17:1 18:1 19:1 20:0 21:0 22:0 23:0 24:1 25:0 26:-1 27:-1 28:-1 29:0 30:1 31:1 32:1 33:1 34:0 35:0 36:1 37:0 38:0 39:-2 40:-1 41:0 42:1 43:1 44:1 45:1 46:0 47:0 48:0 49:0 50:-1 51:1 52:-2 53:0 54:1 55:1 56:0 57:2 58:0 59:1 60:0 
-67.55862041999554 1:0 2:-1 3:-1 4:1 5:1 6:0 7:0 8:0 9:-1 10:0 11:0 12:1 13:0 14:-1 15:-1 16:0 17:0 18:0 19:0 20:1 21:0 22:0 23:0 24:1 25:0 26:0 27:-2 28:0 29:0 30:0 31:0 32:1 33:0 34:0 35:0 36:0 37:0 38:-1 39:1 40:-1 41:0 42:0 43:0 44:0 45:1 46:0 47:1 48:0 49:0 50:-1 51:0 52:-1 53:0 54:0 55:0 56:0 57:1 58:0 59:1 60:0 
-67.55862041999554 1:0 2:-1 3:-1 4:0 5:1 6:0 7:0 8:1 9:0 10:0 11:0 12:1 13:0 14:0 15:-2 16:0 17:1 18:0 19:0 20:1 21:0 22:0 23:0 24:0 25:0 26:-1 27:1 28:-1 29:1 30:0 31:0 32:0 33:1 34:0 35:1 36:0 37:0 38:-1 39:0 40:-1 41:1 42:0 43:0 44:0 45:1 46:0 47:1 48:0 49:0 50:-1 51:0 52:-1 53:0 54:1 55:0 56:0 57:1 58:0 59:1 60:0 
-67.55862041999554 1:0 2:0 3:-2 4:0 5:1 6:0 7:0 8:1 9:0 10:0 11:0 12:0 13:0 14:-1 15:1 16:-1 17:1 18:0 19:0 20:0 21:1 22:0 23:1 24:0 25:0 26:-1 27:0 28:-1 29:1 30:0 31:0 32:0 33:1 34:0 35:1 36:0 37:0 38:-1 39:0 40:-1 41:0 42:1 43:0 44:0 45:1 46:0 47:1 48:0 49:0 50:-1 51:0 52:-1 53:0 54:2 55:1 56:0 57:1 58:0 59:1 60:0 
-67.55862041999554 1:0 2:0 3:0 4:0 5:1 6:-1 7:0 8:0 9:0 10:0 11:0 12:0 13:0 14:0 15:-1 16:0 17:1 18:-1 19:0 20:0 21:0 22:0 23:0 24:0 25:0 26:0 27:-1 28:0 29:0 30:0 31:0 32:0 33:0 34:0 35:0 36:0 37:0 38:0 39:-1 40:0 41:0 42:1 43:1 44:0 45:0 46:0 47:0 48:0 49:0 50:0 51:-1 52:0 53:0 54:1 55:1 56:0 57:0 58:0 59:0 60:0 
-67.55862041999554 1:1 2:0 3:0 4:0 5:1 6:-1 7:0 8:1 9:1 10:0 11:1 12:0 13:1 14:0 15:0 16:0 17:0 18:0 19:0 20:1 21:1 22:0 23:1 24:0 25:1 26:0 27:0 28:0 29:0 30:1 31:1 32:1 33:1 34:0 35:1 36:0 37:1 38:0 39:0 40:0 41:0 42:1 43:1 44:1 45:1 46:0 47:1 48:0 49:0 50:0 51:-1 52:0 53:1 54:0 55:2 56:0 57:0 58:0 59:0 60:1 
-67.55862041999554 1:1 2:0 3:0 4:0 5:0 6:0 7:-1 8:1 9:1 10:0 11:1 12:0 13:1 14:0 15:0 16:0 17:0 18:1 19:0 20:1 21:1 22:0 23:1 24:0 25:1 26:0 27:0 28:0 29:0 30:1 31:0 32:1 33:1 34:0 35:1 36:0 37:0 38:0 39:-1 40:0 41:1 42:0 43:1 44:0 45:0 46:0 47:0 48:1 49:0 50:0 51:-1 52:-1 53:1 54:0 55:1 56:0 57:-1 58:0 59:0 60:1 
-67.55862041999554 1:1 2:-1 3:1 4:0 5:-1 6:2 7:-1 8:1 9:2 10:0 11:1 12:-1 13:0 14:-1 15:0 16:0 17:0 18:1 19:0 20:0 21:1 22:0 23:0 24:0 25:0 26:-1 27:0 28:-1 29:0 30:1 31:0 32:0 33:0 34:0 35:0 36:0 37:0 38:0 39:-1 40:-1 41:1 42:0 43:1 44:0 45:-1 46:0 47:0 48:1 49:0 50:0 51:-3 52:-1 53:1 54:-3 55:1 56:1 57:-2 58:0 59:0 60:1 
-67.55862041999554 1:0 2:-1 3:1 4:0 5:0 6:2 7:0 8:0 9:2 10:0 11:0 12:0 13:0 14:-1 15:1 16:-1 17:0 18:2 19:0 20:0 21:1 22:0 23:0 24:0 25:0 26:0 27:0 28:-1 29:1 30:1 31:1 32:0 33:0 34:0 35:0 36:1 37:0 38:0 39:-2 40:-1 41:1 42:-2 43:1 44:1 45:-1 46:0 47:0 48:1 49:0 50:0 51:-2 52:-1 53:1 54:-2 55:1 56:1 57:0 58:0 59:0 60:0 
-67.55862041999554 1:0 2:-1 3:2 4:0 5:0 6:3 7:0 8:0 9:1 10:0 11:0 12:0 13:0 14:0 15:1 16:0 17:1 18:2 19:1 20:0 21:0 22:0 23:0 24:1 25:0 26:0 27:-1 28:0 29:1 30:-1 31:1 32:1 33:-1 34:0 35:0 36:1 37:0 38:0 39:-1 40:0 41:1 42:-1 43:1 44:1 45:0 46:0 47:0 48:0 49:0 50:0 51:-1 52:0 53:1 54:-1 55:0 56:1 57:1 58:0 59:0 60:0 
-66.96902515877947 1:0 2:0 3:1 4:-1 5:1 6:3 7:1 8:-1 9:0 10:0 11:0 12:1 13:0 14:0 15:-1 16:-1 17:1 18:0 19:1 20:0 21:-1 22:0 23:0 24:1 25:0 26:0 27:-1 28:-1 29:1 30:0 31:1 32:0 33:0 34:0 35:0 36:0 37:0 38:0 39:-1 40:-1 41:1 42:0 43:0 44:0 45:1 46:0 47:0 48:0 49:0 50:0 51:-2 52:0 53:0 54:0 55:-1 56:1 57:1 58:0 59:1 60:0 
-67.55862041999554 1:0 2:0 3:0 4:-1 5:1 6:0 7:1 8:0 9:-1 10:0 11:0 12:1 13:0 14:0 15:0 16:-1 17:1 18:0 19:1 20:0 21:0 22:0 23:0 24:0 25:0 26:0 27:0 28:-1 29:1 30:0 31:0 32:0 33:1 34:0 35:0 36:0 37:0 38:0 39:-1 40:0 41:0 42:0 43:-1 44:1 45:1 46:0 47:1 48:0 49:0 50:0 51:1 52:0 53:0 54:0 55:-1 56:1 57:1 58:0 59:1 60:-1 
