svm_type c_svc
kernel_type rbf
gamma 6.10352e-005
nr_class 2
total_sv 29
rho -3.32089
label 1 3
nr_sv 18 11
SV
68.51999888420104 1:0 2:-1 3:1 4:-2 5:-1 6:-4 7:4 8:0 9:-2 10:0 11:0 12:0 13:0 14:-1 15:1 16:0 17:-1 18:-4 19:3 20:0 21:-1 22:0 23:0 24:0 25:0 26:-1 27:1 28:0 29:-1 30:-3 31:0 32:1 33:0 34:0 35:0 36:0 37:0 38:-1 39:0 40:0 41:0 42:2 43:-3 44:-3 45:0 46:0 47:0 48:0 49:1 50:0 51:-3 52:0 53:3 54:6 55:-4 56:-2 57:-1 58:0 59:0 60:-1 
68.51999888420104 1:0 2:-1 3:2 4:-1 5:-2 6:-6 7:5 8:1 9:-1 10:0 11:0 12:0 13:0 14:-1 15:2 16:-1 17:-2 18:-5 19:2 20:2 21:0 22:0 23:0 24:0 25:0 26:-1 27:1 28:-1 29:-1 30:0 31:-1 32:-2 33:0 34:0 35:0 36:0 37:1 38:0 39:-2 40:-1 41:2 42:4 43:-2 44:-1 45:-1 46:0 47:0 48:-1 49:1 50:1 51:-3 52:1 53:3 54:3 55:-3 56:-1 57:-1 58:0 59:0 60:-2 
68.51999888420104 1:0 2:0 3:0 4:5 5:-5 6:3 7:-4 8:-3 9:2 10:0 11:0 12:0 13:0 14:0 15:0 16:3 17:-4 18:1 19:0 20:-3 21:1 22:0 23:0 24:0 25:0 26:0 27:0 28:-1 29:-2 30:0 31:2 32:-1 33:0 34:0 35:0 36:0 37:0 38:-1 39:0 40:-4 41:2 42:-2 43:2 44:2 45:-1 46:0 47:0 48:0 49:0 50:-1 51:0 52:-4 53:5 54:-4 55:3 56:4 57:-2 58:0 59:0 60:0 
68.51999888420104 1:0 2:0 3:0 4:2 5:-7 6:2 7:0 8:-5 9:1 10:0 11:0 12:-1 13:0 14:-1 15:0 16:-1 17:-3 18:0 19:0 20:-2 21:0 22:0 23:0 24:-1 25:0 26:-1 27:0 28:-1 29:0 30:-2 31:1 32:0 33:-1 34:0 35:0 36:-1 37:0 38:-1 39:0 40:-1 41:3 42:-2 43:1 44:2 45:-1 46:0 47:0 48:0 49:0 50:-1 51:0 52:0 53:5 54:-2 55:1 56:4 57:1 58:0 59:0 60:0 
68.51999888420104 1:0 2:-1 3:-1 4:-2 5:2 6:0 7:4 8:2 9:0 10:0 11:1 12:0 13:0 14:-1 15:-1 16:0 17:1 18:0 19:1 20:1 21:0 22:0 23:1 24:0 25:0 26:0 27:-1 28:1 29:0 30:0 31:-1 32:0 33:-1 34:0 35:1 36:0 37:0 38:0 39:0 40:0 41:-1 42:0 43:-1 44:-2 45:-1 46:0 47:0 48:0 49:0 50:1 51:0 52:0 53:-2 54:0 55:-1 56:-4 57:-1 58:0 59:0 60:0 
68.51999888420104 1:0 2:-2 3:-1 4:-1 5:1 6:0 7:2 8:3 9:0 10:0 11:1 12:0 13:0 14:-1 15:-1 16:0 17:0 18:0 19:0 20:2 21:-1 22:0 23:1 24:0 25:0 26:-1 27:0 28:-1 29:-1 30:0 31:0 32:0 33:-1 34:0 35:0 36:0 37:0 38:0 39:0 40:-1 41:-2 42:0 43:0 44:-2 45:-1 46:0 47:0 48:0 49:0 50:0 51:0 52:-1 53:-2 54:0 55:-1 56:-4 57:-1 58:0 59:0 60:0 
68.51999888420104 1:0 2:-1 3:-1 4:0 5:1 6:0 7:1 8:4 9:0 10:0 11:1 12:0 13:0 14:-1 15:0 16:-1 17:0 18:0 19:1 20:2 21:0 22:0 23:0 24:0 25:0 26:0 27:0 28:-1 29:-1 30:0 31:1 32:0 33:0 34:0 35:0 36:0 37:0 38:0 39:0 40:-1 41:-1 42:0 43:0 44:-2 45:0 46:0 47:0 48:0 49:0 50:1 51:0 52:-1 53:0 54:0 55:0 56:-5 57:0 58:0 59:-1 60:0 
68.51999888420104 1:-1 2:-1 3:0 4:0 5:-1 6:-1 7:1 8:0 9:0 10:0 11:0 12:0 13:-1 14:-1 15:0 16:0 17:-1 18:-1 19:1 20:-1 21:1 22:0 23:0 24:0 25:-1 26:-1 27:0 28:0 29:0 30:0 31:1 32:-1 33:0 34:0 35:0 36:0 37:-1 38:-1 39:0 40:0 41:1 42:0 43:0 44:-1 45:-1 46:0 47:0 48:0 49:1 50:0 51:0 52:0 53:3 54:0 55:0 56:1 57:-1 58:0 59:0 60:0 
55.16828355801309 1:-1 2:-1 3:0 4:0 5:-2 6:-1 7:1 8:-2 9:1 10:0 11:0 12:0 13:-1 14:-1 15:0 16:0 17:-1 18:0 19:1 20:-2 21:0 22:0 23:0 24:0 25:-1 26:-1 27:0 28:0 29:0 30:0 31:0 32:-2 33:-1 34:0 35:0 36:0 37:1 38:0 39:0 40:0 41:2 42:0 43:0 44:0 45:-1 46:0 47:0 48:0 49:1 50:0 51:-1 52:0 53:4 54:0 55:0 56:3 57:-1 58:0 59:0 60:0 
68.51999888420104 1:0 2:0 3:0 4:-1 5:0 6:0 7:0 8:0 9:0 10:0 11:0 12:0 13:1 14:0 15:0 16:-1 17:0 18:0 19:1 20:0 21:0 22:0 23:0 24:0 25:1 26:0 27:0 28:-1 29:0 30:0 31:1 32:0 33:0 34:0 35:0 36:0 37:1 38:0 39:0 40:0 41:2 42:-1 43:1 44:0 45:0 46:0 47:0 48:0 49:1 50:0 51:0 52:0 53:2 54:-1 55:1 56:0 57:0 58:0 59:0 60:0 
68.51999888420104 1:0 2:0 3:0 4:-1 5:-1 6:-1 7:2 8:-1 9:-2 10:0 11:0 12:-1 13:0 14:-1 15:0 16:-1 17:0 18:-1 19:2 20:-1 21:-2 22:0 23:0 24:-1 25:0 26:-1 27:0 28:-1 29:1 30:-1 31:1 32:-1 33:-1 34:0 35:0 36:0 37:0 38:-1 39:0 40:-1 41:1 42:1 43:-1 44:-1 45:1 46:0 47:0 48:0 49:0 50:-1 51:0 52:0 53:2 54:2 55:-2 56:0 57:2 58:0 59:0 60:0 
12.14105482602961 1:0 2:0 3:0 4:0 5:1 6:2 7:1 8:1 9:-1 10:0 11:0 12:-1 13:0 14:0 15:0 16:0 17:1 18:2 19:1 20:1 21:0 22:0 23:0 24:0 25:0 26:0 27:0 28:0 29:1 30:1 31:1 32:0 33:0 34:0 35:0 36:0 37:1 38:0 39:-1 40:0 41:1 42:-1 43:0 44:0 45:0 46:-1 47:0 48:0 49:1 50:0 51:-1 52:-1 53:0 54:-4 55:0 56:-1 57:1 58:-1 59:0 60:0 
43.04072342706072 1:3 2:-1 3:-1 4:-5 5:-2 6:1 7:-3 8:0 9:0 10:-2 11:0 12:1 13:2 14:0 15:0 16:-6 17:-2 18:2 19:-3 20:0 21:0 22:-2 23:0 24:1 25:1 26:0 27:0 28:0 29:1 30:1 31:0 32:1 33:0 34:-1 35:1 36:0 37:-1 38:0 39:0 40:5 41:3 42:0 43:4 44:1 45:-1 46:0 47:1 48:0 49:-3 50:0 51:0 52:4 53:2 54:0 55:3 56:0 57:0 58:2 59:1 60:0 
8.620567522330408 1:3 2:0 3:-1 4:-7 5:-2 6:2 7:-4 8:0 9:0 10:-3 11:0 12:1 13:2 14:0 15:-1 16:-1 17:1 18:1 19:-1 20:1 21:0 22:-2 23:1 24:0 25:0 26:0 27:-1 28:4 29:3 30:0 31:3 32:1 33:-1 34:-1 35:1 36:0 37:-2 38:0 39:-1 40:3 41:2 42:0 43:2 44:0 45:0 46:1 47:1 48:0 49:-3 50:-1 51:0 52:1 53:-1 54:0 55:0 56:-1 57:1 58:2 59:1 60:0 
68.51999888420104 1:0 2:0 3:0 4:-2 5:0 6:1 7:0 8:1 9:0 10:0 11:0 12:0 13:0 14:0 15:0 16:0 17:1 18:-1 19:0 20:0 21:-1 22:0 23:0 24:0 25:0 26:0 27:0 28:0 29:1 30:-1 31:0 32:0 33:-1 34:0 35:0 36:0 37:0 38:0 39:0 40:0 41:1 42:-1 43:0 44:0 45:-1 46:0 47:0 48:0 49:0 50:0 51:0 52:0 53:1 54:-1 55:0 56:0 57:-1 58:0 59:0 60:0 
5.316990741504927 1:0 2:-1 3:0 4:0 5:0 6:0 7:0 8:0 9:0 10:0 11:0 12:0 13:0 14:-1 15:0 16:0 17:0 18:0 19:0 20:0 21:0 22:0 23:0 24:0 25:0 26:-1 27:0 28:0 29:0 30:0 31:0 32:0 33:0 34:0 35:0 36:0 37:0 38:-1 39:0 40:0 41:0 42:0 43:0 44:0 45:0 46:0 47:0 48:0 49:0 50:0 51:0 52:-3 53:1 54:-2 55:0 56:0 57:0 58:0 59:0 60:-1 
68.51999888420104 1:0 2:-1 3:0 4:1 5:0 6:1 7:0 8:0 9:0 10:0 11:0 12:0 13:0 14:-1 15:0 16:1 17:0 18:1 19:0 20:0 21:0 22:0 23:0 24:0 25:0 26:0 27:0 28:-2 29:1 30:-1 31:0 32:0 33:0 34:0 35:0 36:-1 37:0 38:0 39:0 40:-2 41:1 42:-1 43:0 44:0 45:0 46:0 47:0 48:-1 49:0 50:0 51:0 52:-2 53:1 54:-1 55:0 56:0 57:0 58:0 59:0 60:-1 
68.51999888420104 1:0 2:-1 3:0 4:2 5:0 6:1 7:0 8:0 9:0 10:0 11:0 12:0 13:0 14:0 15:0 16:-1 17:1 18:-1 19:0 20:0 21:0 22:0 23:0 24:-1 25:0 26:0 27:0 28:-1 29:1 30:-1 31:0 32:0 33:0 34:0 35:0 36:-1 37:0 38:0 39:0 40:-1 41:1 42:-1 43:0 44:0 45:0 46:0 47:0 48:-1 49:0 50:0 51:0 52:-1 53:1 54:-1 55:0 56:0 57:0 58:0 59:0 60:-1 
-18.50544150919032 1:0 2:-1 3:0 4:1 5:-5 6:-1 7:0 8:1 9:-1 10:0 11:1 12:0 13:0 14:-1 15:0 16:0 17:-4 18:-1 19:0 20:-1 21:-1 22:0 23:0 24:0 25:0 26:0 27:0 28:0 29:-2 30:-1 31:0 32:-3 33:-1 34:0 35:0 36:0 37:-1 38:0 39:0 40:0 41:2 42:0 43:0 44:-1 45:0 46:0 47:0 48:0 49:-1 50:1 51:0 52:-1 53:5 54:0 55:0 56:0 57:0 58:0 59:-1 60:0 
-88.33201727153532 1:0 2:-2 3:0 4:0 5:-6 6:-1 7:1 8:-1 9:-1 10:0 11:1 12:0 13:0 14:-1 15:0 16:0 17:-4 18:-1 19:1 20:-3 21:-1 22:0 23:1 24:0 25:-1 26:-1 27:0 28:0 29:0 30:0 31:1 32:-1 33:0 34:0 35:1 36:0 37:-1 38:0 39:0 40:-1 41:3 42:0 43:1 44:0 45:0 46:0 47:0 48:0 49:-1 50:1 51:0 52:-1 53:6 54:0 55:0 56:1 57:-1 58:0 59:0 60:-1 
-105.4799996852875 1:1 2:-2 3:0 4:0 5:-7 6:-1 7:1 8:-3 9:-1 10:0 11:1 12:0 13:0 14:-2 15:0 16:0 17:-3 18:0 19:1 20:-1 21:0 22:0 23:1 24:0 25:0 26:-1 27:0 28:-1 29:0 30:0 31:1 32:0 33:0 34:0 35:0 36:0 37:0 38:0 39:0 40:-1 41:3 42:0 43:0 44:1 45:-1 46:0 47:0 48:-1 49:-1 50:1 51:0 52:-2 53:6 54:0 55:-1 56:0 57:-1 58:0 59:-1 60:-2 
-76.62558427673278 1:0 2:-2 3:0 4:-1 5:-3 6:1 7:1 8:2 9:-1 10:0 11:2 12:0 13:-1 14:-1 15:0 16:-2 17:0 18:1 19:0 20:1 21:-1 22:0 23:1 24:-1 25:-1 26:0 27:0 28:-1 29:0 30:0 31:0 32:-2 33:-1 34:0 35:1 36:-1 37:-1 38:0 39:0 40:0 41:1 42:-1 43:0 44:-2 45:-1 46:0 47:0 48:-1 49:-1 50:0 51:0 52:0 53:3 54:-1 55:0 56:-3 57:0 58:0 59:0 60:-1 
-105.4799996852875 1:0 2:-1 3:0 4:-2 5:-1 6:1 7:0 8:3 9:-1 10:0 11:1 12:0 13:0 14:0 15:0 16:-1 17:-1 18:0 19:0 20:0 21:-1 22:0 23:1 24:0 25:0 26:0 27:0 28:0 29:0 30:-1 31:0 32:0 33:-1 34:0 35:0 36:0 37:0 38:0 39:0 40:0 41:2 42:-1 43:0 44:-1 45:0 46:0 47:0 48:0 49:0 50:0 51:0 52:0 53:4 54:-1 55:0 56:-3 57:-1 58:0 59:0 60:0 
-93.22456471508153 1:0 2:0 3:0 4:0 5:-2 6:-1 7:1 8:3 9:1 10:0 11:0 12:0 13:0 14:0 15:0 16:0 17:0 18:-1 19:1 20:1 21:0 22:0 23:0 24:0 25:0 26:0 27:0 28:0 29:0 30:-1 31:0 32:-1 33:0 34:0 35:0 36:0 37:0 38:0 39:0 40:-1 41:2 42:0 43:-1 44:-2 45:0 46:0 47:0 48:0 49:0 50:0 51:0 52:-1 53:3 54:0 55:-1 56:-3 57:-1 58:0 59:0 60:0 
-105.4799996852875 1:0 2:0 3:0 4:0 5:-1 6:-1 7:2 8:2 9:0 10:0 11:0 12:0 13:0 14:0 15:0 16:0 17:-1 18:-1 19:1 20:0 21:0 22:0 23:0 24:0 25:0 26:0 27:0 28:-1 29:1 30:0 31:0 32:-1 33:0 34:0 35:0 36:0 37:0 38:0 39:0 40:-1 41:2 42:0 43:0 44:-2 45:-1 46:0 47:0 48:0 49:0 50:0 51:0 52:-1 53:3 54:0 55:-1 56:-3 57:-1 58:0 59:0 60:0 
-105.4799996852875 1:0 2:0 3:0 4:1 5:-2 6:-1 7:2 8:2 9:0 10:0 11:0 12:0 13:0 14:0 15:0 16:0 17:0 18:0 19:1 20:1 21:0 22:0 23:0 24:0 25:0 26:0 27:0 28:0 29:1 30:0 31:1 32:0 33:-1 34:0 35:0 36:0 37:0 38:0 39:0 40:0 41:2 42:0 43:0 44:-1 45:-1 46:0 47:0 48:0 49:0 50:0 51:0 52:-1 53:3 54:0 55:-1 56:-2 57:-2 58:0 59:0 60:0 
-105.4799996852875 1:0 2:0 3:0 4:0 5:-1 6:0 7:1 8:1 9:1 10:0 11:0 12:0 13:0 14:0 15:0 16:0 17:0 18:0 19:1 20:0 21:0 22:0 23:0 24:0 25:0 26:0 27:0 28:0 29:1 30:0 31:0 32:-1 33:0 34:0 35:0 36:0 37:0 38:0 39:0 40:-1 41:2 42:0 43:-1 44:-2 45:-1 46:0 47:0 48:0 49:0 50:0 51:0 52:-1 53:2 54:0 55:-1 56:-2 57:-1 58:0 59:0 60:0 
-105.4799996852875 1:0 2:0 3:0 4:0 5:-1 6:-1 7:2 8:1 9:0 10:0 11:0 12:0 13:0 14:0 15:0 16:0 17:0 18:-1 19:1 20:0 21:0 22:0 23:0 24:0 25:0 26:0 27:0 28:-1 29:1 30:-1 31:0 32:-1 33:-1 34:0 35:0 36:0 37:0 38:0 39:0 40:-1 41:1 42:-1 43:0 44:-1 45:-1 46:0 47:0 48:0 49:0 50:0 51:0 52:-2 53:0 54:0 55:1 56:-2 57:0 58:0 59:0 60:0 
-105.4799996852875 1:0 2:0 3:0 4:1 5:0 6:-1 7:1 8:1 9:0 10:0 11:0 12:0 13:0 14:0 15:0 16:0 17:1 18:-1 19:0 20:0 21:-1 22:0 23:0 24:0 25:0 26:0 27:0 28:0 29:1 30:-1 31:0 32:0 33:-1 34:0 35:0 36:0 37:0 38:0 39:0 40:-1 41:0 42:0 43:1 44:-1 45:0 46:0 47:0 48:0 49:0 50:0 51:0 52:-1 53:0 54:0 55:2 56:-3 57:0 58:0 59:0 60:0 
