svm_type c_svc
kernel_type rbf
gamma 6.10352e-005
nr_class 2
total_sv 38
rho 0.183596
label 1 3
nr_sv 21 17
SV
129.7881774907874 1:0 2:0 3:0 4:-1 5:-8 6:-1 7:0 8:-1 9:0 10:0 11:0 12:0 13:0 14:0 15:0 16:-2 17:-2 18:1 19:0 20:0 21:3 22:0 23:0 24:0 25:0 26:0 27:0 28:-3 29:4 30:2 31:0 32:0 33:0 34:0 35:0 36:0 37:0 38:0 39:0 40:-2 41:-1 42:-3 43:0 44:0 45:0 46:0 47:0 48:0 49:0 50:0 51:0 52:4 53:6 54:4 55:0 56:0 57:0 58:0 59:0 60:0 
18.29522423747847 1:0 2:0 3:0 4:-3 5:-3 6:-6 7:0 8:0 9:3 10:0 11:0 12:0 13:0 14:0 15:0 16:-4 17:3 18:-5 19:0 20:0 21:0 22:0 23:0 24:0 25:0 26:0 27:0 28:-3 29:-2 30:-10 31:0 32:0 33:0 34:0 35:0 36:0 37:0 38:0 39:0 40:3 41:5 42:-3 43:0 44:0 45:0 46:0 47:0 48:0 49:0 50:0 51:0 52:5 53:-3 54:24 55:0 56:0 57:0 58:0 59:0 60:0 
14.59062407636943 1:0 2:0 3:0 4:-6 5:3 6:-4 7:0 8:0 9:0 10:0 11:0 12:0 13:0 14:0 15:0 16:-5 17:-2 18:-9 19:0 20:0 21:0 22:0 23:0 24:0 25:0 26:0 27:0 28:1 29:5 30:-2 31:0 32:0 33:0 34:0 35:0 36:0 37:0 38:0 39:0 40:3 41:-3 42:25 43:0 44:0 45:0 46:0 47:0 48:0 49:0 50:0 51:0 52:3 53:-3 54:-7 55:0 56:0 57:0 58:0 59:0 60:0 
4.021232345983707 1:0 2:0 3:0 4:-6 5:-1 6:-9 7:0 8:0 9:0 10:0 11:0 12:0 13:0 14:0 15:0 16:0 17:6 18:-2 19:0 20:0 21:0 22:0 23:0 24:0 25:0 26:0 27:0 28:2 29:-2 30:25 31:0 32:0 33:0 34:0 35:0 36:0 37:0 38:0 39:0 40:2 41:-2 42:-7 43:0 44:0 45:0 46:0 47:0 48:0 49:0 50:0 51:0 52:2 53:-2 54:-7 55:0 56:0 57:0 58:0 59:0 60:0 
18.86882213045525 1:0 2:0 3:0 4:-2 5:6 6:-2 7:0 8:0 9:0 10:0 11:0 12:0 13:0 14:0 15:0 16:0 17:-2 18:25 19:0 20:0 21:0 22:0 23:0 24:0 25:0 26:0 27:0 28:0 29:-2 30:-7 31:0 32:0 33:0 34:0 35:0 36:0 37:0 38:0 39:0 40:0 41:-2 42:-7 43:0 44:0 45:0 46:0 47:0 48:0 49:0 50:0 51:0 52:0 53:-2 54:-7 55:0 56:0 57:0 58:0 59:0 60:0 
17.23680255067368 1:0 2:-1 3:0 4:0 5:0 6:26 7:-3 8:0 9:0 10:0 11:-1 12:0 13:0 14:-1 15:0 16:0 17:0 18:-6 19:-3 20:0 21:0 22:0 23:-1 24:0 25:0 26:-1 27:0 28:0 29:0 30:-6 31:-3 32:0 33:0 34:0 35:-1 36:0 37:0 38:-1 39:0 40:0 41:0 42:-6 43:-3 44:0 45:0 46:0 47:-1 48:0 49:-1 50:1 51:1 52:0 53:0 54:-6 55:8 56:0 57:1 58:0 59:2 60:0 
46.59019994537887 1:0 2:-1 3:0 4:0 5:0 6:0 7:-8 8:-2 9:0 10:0 11:-2 12:0 13:0 14:-1 15:0 16:0 17:0 18:0 19:-8 20:-2 21:0 22:0 23:-2 24:0 25:0 26:-1 27:0 28:0 29:0 30:0 31:-8 32:-2 33:0 34:0 35:-2 36:0 37:-1 38:1 39:1 40:0 41:0 42:0 43:3 44:-2 45:1 46:0 47:1 48:0 49:-1 50:1 51:0 52:0 53:0 54:0 55:18 56:4 57:0 58:0 59:2 60:0 
66.72248196932742 1:0 2:-2 3:0 4:0 5:0 6:2 7:-13 8:-4 9:0 10:0 11:-3 12:0 13:0 14:-2 15:0 16:0 17:0 18:2 19:-13 20:-4 21:0 22:0 23:-3 24:0 25:-1 26:0 27:1 28:0 29:0 30:2 31:-2 32:-4 33:1 34:0 35:0 36:0 37:-1 38:0 39:0 40:0 41:0 42:2 43:13 44:2 45:0 46:0 47:1 48:0 49:-2 50:0 51:0 52:-3 53:-2 54:-10 55:15 56:8 57:1 58:0 59:2 60:0 
27.40363698595125 1:1 2:0 3:1 4:3 5:1 6:4 7:-13 8:-10 9:1 10:0 11:-2 12:0 13:1 14:0 15:0 16:3 17:1 18:4 19:2 20:-4 21:0 22:0 23:-1 24:0 25:0 26:0 27:0 28:0 29:-1 30:-8 31:4 32:2 33:1 34:0 35:0 36:0 37:-1 38:0 39:0 40:-4 41:-2 42:-8 43:4 44:5 45:0 46:0 47:0 48:0 49:-1 50:0 51:-1 52:-4 53:-3 54:4 55:3 56:6 57:0 58:0 59:0 60:0 
136.3157880933661 1:0 2:0 3:-1 4:-1 5:3 6:0 7:3 8:-3 9:-1 10:0 11:-1 12:0 13:-1 14:0 15:0 16:0 17:1 18:0 19:2 20:-2 21:0 22:0 23:-1 24:0 25:-1 26:0 27:0 28:0 29:-1 30:0 31:0 32:0 33:1 34:0 35:-1 36:0 37:-1 38:0 39:0 40:0 41:-2 42:0 43:-1 44:0 45:1 46:-1 47:-1 48:-1 49:-1 50:0 51:0 52:1 53:-3 54:-1 55:-1 56:1 57:-1 58:-2 59:0 60:-1 
53.22995570400779 1:-1 2:-1 3:0 4:-2 5:1 6:0 7:1 8:-2 9:2 10:1 11:-1 12:-1 13:-1 14:-1 15:0 16:-1 17:0 18:-1 19:1 20:-1 21:0 22:0 23:0 24:-1 25:0 26:0 27:0 28:0 29:-1 30:-1 31:1 32:-1 33:-1 34:-1 35:0 36:-1 37:0 38:0 39:0 40:1 41:-1 42:0 43:-1 44:1 45:-1 46:-2 47:0 48:-1 49:0 50:0 51:0 52:1 53:0 54:0 55:-3 56:3 57:0 58:-2 59:0 60:0 
136.3157880933661 1:-1 2:-1 3:0 4:-2 5:0 6:-1 7:2 8:-2 9:0 10:1 11:0 12:-1 13:0 14:0 15:0 16:-1 17:-1 18:-1 19:2 20:-2 21:-1 22:0 23:0 24:-1 25:0 26:0 27:0 28:0 29:-1 30:0 31:0 32:0 33:-1 34:-1 35:0 36:-1 37:0 38:0 39:0 40:0 41:0 42:0 43:-2 44:2 45:0 46:-1 47:0 48:0 49:0 50:0 51:0 52:0 53:0 54:0 55:-2 56:2 57:0 58:-1 59:0 60:0 
136.3157880933661 1:-1 2:0 3:1 4:-1 5:0 6:0 7:1 8:0 9:0 10:0 11:0 12:0 13:-1 14:0 15:0 16:-1 17:0 18:0 19:1 20:-1 21:0 22:0 23:0 24:0 25:-1 26:0 27:0 28:-1 29:0 30:0 31:1 32:-1 33:0 34:0 35:0 36:0 37:0 38:0 39:0 40:-1 41:-1 42:0 43:0 44:-1 45:-1 46:0 47:0 48:0 49:1 50:0 51:0 52:0 53:-1 54:0 55:-1 56:1 57:-1 58:0 59:0 60:0 
136.3157880933661 1:-2 2:0 3:0 4:-1 5:0 6:0 7:1 8:-1 9:0 10:0 11:0 12:0 13:-2 14:0 15:0 16:-1 17:0 18:0 19:1 20:-1 21:0 22:0 23:0 24:0 25:-1 26:0 27:0 28:-1 29:-1 30:0 31:0 32:-1 33:-1 34:0 35:0 36:0 37:0 38:0 39:0 40:0 41:-1 42:0 43:-1 44:1 45:-1 46:0 47:0 48:0 49:1 50:0 51:0 52:0 53:-1 54:0 55:-1 56:2 57:0 58:0 59:0 60:0 
136.3157880933661 1:-2 2:0 3:0 4:-1 5:0 6:0 7:2 8:-2 9:0 10:0 11:0 12:0 13:-1 14:0 15:0 16:-1 17:-1 18:0 19:1 20:-2 21:-1 22:0 23:0 24:0 25:0 26:0 27:0 28:0 29:-1 30:0 31:0 32:0 33:-1 34:0 35:0 36:0 37:1 38:0 39:0 40:0 41:-1 42:0 43:0 44:1 45:0 46:0 47:0 48:0 49:1 50:0 51:0 52:0 53:-1 54:0 55:0 56:1 57:0 58:0 59:0 60:0 
136.3157880933661 1:-1 2:0 3:0 4:-1 5:0 6:0 7:1 8:-3 9:-1 10:0 11:0 12:0 13:0 14:0 15:0 16:0 17:0 18:0 19:0 20:-1 21:-1 22:0 23:0 24:0 25:1 26:0 27:0 28:0 29:0 30:0 31:0 32:0 33:0 34:0 35:0 36:0 37:1 38:0 39:0 40:0 41:0 42:0 43:0 44:0 45:0 46:0 47:0 48:0 49:1 50:0 51:0 52:0 53:0 54:0 55:0 56:0 57:0 58:0 59:0 60:0 
136.3157880933661 1:0 2:0 3:0 4:0 5:0 6:0 7:1 8:0 9:0 10:0 11:0 12:0 13:0 14:0 15:0 16:0 17:0 18:0 19:1 20:0 21:0 22:0 23:0 24:0 25:0 26:0 27:0 28:0 29:0 30:0 31:1 32:0 33:0 34:0 35:0 36:0 37:0 38:0 39:0 40:0 41:0 42:0 43:0 44:0 45:0 46:0 47:0 48:0 49:0 50:0 51:0 52:0 53:0 54:0 55:0 56:0 57:0 58:0 59:0 60:0 
62.45783697865608 1:0 2:0 3:0 4:0 5:0 6:0 7:1 8:0 9:0 10:0 11:0 12:0 13:0 14:0 15:0 16:0 17:0 18:0 19:1 20:0 21:0 22:0 23:0 24:0 25:0 26:0 27:0 28:0 29:0 30:0 31:0 32:0 33:0 34:0 35:0 36:0 37:0 38:0 39:0 40:0 41:0 42:0 43:0 44:0 45:0 46:0 47:0 48:0 49:1 50:0 51:0 52:0 53:0 54:0 55:1 56:0 57:0 58:0 59:0 60:0 
136.3157880933661 1:0 2:0 3:0 4:0 5:-1 6:0 7:1 8:0 9:0 10:0 11:0 12:0 13:0 14:0 15:0 16:0 17:-1 18:0 19:0 20:0 21:0 22:0 23:0 24:0 25:0 26:0 27:0 28:0 29:-1 30:0 31:0 32:0 33:0 34:0 35:0 36:0 37:1 38:0 39:0 40:0 41:-1 42:0 43:1 44:0 45:0 46:0 47:0 48:0 49:1 50:0 51:0 52:-1 53:0 54:1 55:1 56:0 57:0 58:0 59:0 60:0 
72.70610230902446 1:0 2:0 3:0 4:0 5:-1 6:0 7:0 8:0 9:0 10:0 11:0 12:0 13:0 14:0 15:0 16:0 17:-1 18:0 19:0 20:0 21:0 22:0 23:0 24:0 25:1 26:0 27:0 28:0 29:-1 30:0 31:1 32:0 33:0 34:0 35:0 36:0 37:1 38:0 39:0 40:-1 41:0 42:1 43:1 44:0 45:0 46:0 47:0 48:0 49:1 50:0 51:0 52:-3 53:0 54:1 55:1 56:0 57:0 58:0 59:0 60:0 
136.3157880933661 1:0 2:0 3:0 4:0 5:0 6:1 7:0 8:0 9:0 10:0 11:0 12:0 13:0 14:0 15:0 16:0 17:0 18:0 19:0 20:-1 21:1 22:0 23:0 24:0 25:0 26:0 27:0 28:0 29:0 30:0 31:0 32:-1 33:1 34:0 35:0 36:0 37:0 38:0 39:0 40:0 41:0 42:0 43:0 44:-1 45:0 46:0 47:0 48:0 49:0 50:0 51:0 52:0 53:0 54:0 55:0 56:-1 57:0 58:0 59:0 60:0 
-153.6842095224481 1:0 2:1 3:0 4:-1 5:0 6:-1 7:-6 8:3 9:0 10:-1 11:1 12:0 13:0 14:1 15:0 16:0 17:0 18:0 19:0 20:3 21:0 22:-1 23:1 24:0 25:0 26:-2 27:0 28:0 29:-3 30:-1 31:0 32:-2 33:0 34:-1 35:-3 36:0 37:0 38:-1 39:0 40:0 41:0 42:0 43:3 44:-3 45:0 46:-1 47:-2 48:0 49:0 50:1 51:-1 52:0 53:1 54:1 55:6 56:-3 57:-2 58:0 59:-1 60:-1 
-121.8522692221484 1:0 2:0 3:0 4:0 5:-1 6:0 7:-3 8:4 9:0 10:-1 11:2 12:0 13:0 14:-3 15:0 16:0 17:-4 18:-1 19:-3 20:-1 21:0 22:-1 23:-2 24:0 25:0 26:-2 27:0 28:0 29:-1 30:0 31:0 32:-2 33:0 34:-1 35:-1 36:0 37:0 38:0 39:-1 40:0 41:0 42:1 43:3 44:-2 45:-2 46:0 47:0 48:-1 49:0 50:1 51:-1 52:0 53:3 54:1 55:4 56:-2 57:-1 58:1 59:1 60:-1 
-11.95854513589665 1:-1 2:-3 3:0 4:-3 5:0 6:2 7:-1 8:-3 9:0 10:-2 11:-2 12:0 13:-1 14:-2 15:1 16:-3 17:1 18:1 19:1 20:-2 21:0 22:-1 23:-1 24:0 25:0 26:0 27:1 28:-1 29:0 30:0 31:1 32:-1 33:0 34:0 35:0 36:0 37:0 38:2 39:1 40:1 41:-1 42:-1 43:0 44:1 45:0 46:1 47:1 48:0 49:0 50:3 51:1 52:2 53:-2 54:-1 55:-1 56:5 57:2 58:1 59:2 60:0 
-18.12271911334925 1:-1 2:-4 3:1 4:-4 5:2 6:1 7:2 8:-5 9:0 10:-2 11:-2 12:0 13:0 14:-2 15:1 16:-2 17:1 18:0 19:2 20:-4 21:0 22:-1 23:-1 24:0 25:0 26:0 27:1 28:0 29:0 30:-1 31:1 32:-2 33:0 34:0 35:0 36:0 37:0 38:1 39:1 40:1 41:-1 42:-1 43:0 44:2 45:2 46:0 47:1 48:0 49:0 50:2 51:0 52:2 53:-3 54:-2 55:-2 56:7 57:0 58:0 59:2 60:0 
-153.6842095224481 1:-1 2:-3 3:1 4:-3 5:2 6:1 7:3 8:-7 9:-1 10:-1 11:-2 12:0 13:-1 14:-1 15:1 16:-1 17:1 18:0 19:2 20:-5 21:-1 22:0 23:-1 24:0 25:-1 26:0 27:1 28:0 29:0 30:0 31:1 32:-1 33:1 34:0 35:0 36:0 37:-1 38:1 39:0 40:1 41:-2 42:-1 43:-1 44:4 45:-1 46:0 47:1 48:0 49:0 50:2 51:0 52:2 53:-4 54:0 55:-5 56:8 57:2 58:0 59:1 60:0 
-94.77665205664802 1:-1 2:-3 3:1 4:-2 5:3 6:0 7:4 8:-9 9:-1 10:-1 11:-2 12:0 13:-1 14:-2 15:1 16:-1 17:2 18:0 19:3 20:-5 21:1 22:-1 23:-1 24:0 25:-1 26:-1 27:0 28:0 29:0 30:-1 31:1 32:0 33:-1 34:-1 35:0 36:0 37:0 38:0 39:0 40:1 41:-2 42:0 43:-3 44:4 45:2 46:-1 47:0 48:0 49:0 50:2 51:0 52:1 53:-3 54:0 55:-5 56:8 57:2 58:0 59:0 60:0 
-82.28058629644958 1:-1 2:-3 3:0 4:-2 5:2 6:-1 7:6 8:-8 9:-1 10:-1 11:-1 12:0 13:0 14:-2 15:0 16:-1 17:0 18:0 19:2 20:-4 21:2 22:-1 23:-1 24:0 25:0 26:0 27:0 28:-1 29:-1 30:0 31:0 32:0 33:2 34:0 35:-1 36:0 37:0 38:2 39:0 40:0 41:-1 42:0 43:-2 44:3 45:0 46:0 47:1 48:0 49:1 50:3 51:0 52:0 53:0 54:1 55:-4 56:6 57:-1 58:-1 59:1 60:0 
-22.93682376372638 1:-1 2:-4 3:0 4:0 5:-1 6:-1 7:4 8:-7 9:2 10:-1 11:-2 12:0 13:-1 14:-2 15:0 16:0 17:-2 18:-1 19:2 20:-3 21:2 22:0 23:-2 24:0 25:-1 26:0 27:0 28:1 29:-2 30:-1 31:0 32:0 33:0 34:0 35:0 36:0 37:0 38:1 39:0 40:1 41:-1 42:0 43:-2 44:3 45:-1 46:-1 47:0 48:0 49:0 50:4 51:0 52:-4 53:2 54:0 55:-2 56:6 57:-1 58:-1 59:2 60:0 
-153.6842095224481 1:-1 2:-4 3:0 4:1 5:-2 6:-1 7:3 8:-6 9:3 10:0 11:-3 12:0 13:-1 14:-2 15:0 16:2 17:-2 18:-1 19:1 20:-3 21:1 22:0 23:-1 24:0 25:0 26:-1 27:0 28:2 29:-1 30:0 31:-1 32:0 33:0 34:-1 35:-1 36:0 37:0 38:2 39:0 40:-3 41:2 42:0 43:-1 44:3 45:0 46:-1 47:1 48:0 49:1 50:4 51:0 52:-3 53:3 54:0 55:2 56:4 57:-1 58:-2 59:2 60:0 
-153.6842095224481 1:-2 2:-3 3:0 4:3 5:-4 6:-1 7:0 8:-5 9:1 10:1 11:-1 12:0 13:-1 14:-2 15:0 16:3 17:-3 18:0 19:-2 20:-2 21:0 22:0 23:-1 24:0 25:-1 26:1 27:0 28:-2 29:0 30:0 31:-2 32:1 33:0 34:0 35:1 36:0 37:0 38:3 39:0 40:-2 41:1 42:0 43:1 44:2 45:-1 46:-1 47:2 48:0 49:0 50:1 51:0 52:-2 53:4 54:1 55:3 56:0 57:-2 58:-1 59:-1 60:0 
-29.17257265568813 1:-1 2:-4 3:0 4:3 5:-6 6:0 7:-3 8:-3 9:0 10:0 11:-2 12:0 13:-1 14:-1 15:0 16:-2 17:-3 18:0 19:-3 20:0 21:0 22:0 23:0 24:0 25:0 26:1 27:0 28:-2 29:-2 30:0 31:0 32:1 33:-1 34:-1 35:1 36:0 37:0 38:-1 39:0 40:-2 41:1 42:1 43:2 44:-1 45:-2 46:-1 47:-2 48:0 49:1 50:2 51:-1 52:2 53:9 54:2 55:6 56:-1 57:-1 58:-1 59:0 60:0 
-14.57328724621794 1:-3 2:0 3:-1 4:0 5:-3 6:0 7:-3 8:4 9:-1 10:-4 11:-1 12:0 13:-1 14:0 15:-1 16:0 17:0 18:0 19:0 20:2 21:0 22:-2 23:-1 24:0 25:0 26:0 27:0 28:-1 29:1 30:2 31:1 32:-1 33:0 34:0 35:0 36:0 37:1 38:0 39:0 40:-1 41:1 42:1 43:2 44:-3 45:0 46:1 47:0 48:0 49:1 50:-1 51:0 52:0 53:0 54:0 55:2 56:-4 57:0 58:2 59:-1 60:0 
-153.6842095224481 1:-2 2:0 3:-1 4:0 5:-1 6:0 7:-1 8:4 9:-1 10:-3 11:-1 12:0 13:-1 14:0 15:0 16:-1 17:0 18:2 19:0 20:1 21:-1 22:-1 23:0 24:0 25:0 26:0 27:0 28:-1 29:0 30:1 31:1 32:-1 33:-1 34:0 35:0 36:0 37:0 38:-1 39:0 40:0 41:-1 42:0 43:1 44:-2 45:-1 46:1 47:-1 48:0 49:0 50:-2 51:0 52:2 53:-2 54:0 55:2 56:-2 57:0 58:2 59:-1 60:0 
-153.6842095224481 1:-1 2:1 3:0 4:-2 5:1 6:2 7:-1 8:2 9:-1 10:-2 11:0 12:0 13:0 14:1 15:0 16:-2 17:1 18:1 19:0 20:0 21:-1 22:-1 23:0 24:0 25:0 26:0 27:0 28:-1 29:0 30:0 31:0 32:-1 33:-1 34:0 35:-1 36:0 37:0 38:-1 39:0 40:1 41:-1 42:0 43:1 44:-1 45:0 46:1 47:-1 48:0 49:0 50:-2 51:0 52:1 53:-1 54:-1 55:1 56:-1 57:0 58:2 59:-2 60:0 
-153.6842095224481 1:0 2:1 3:0 4:-3 5:1 6:2 7:0 8:0 9:-1 10:-2 11:1 12:0 13:0 14:0 15:0 16:-2 17:0 18:1 19:0 20:-1 21:-1 22:-1 23:0 24:0 25:0 26:-1 27:0 28:0 29:-1 30:1 31:1 32:-1 33:0 34:0 35:0 36:0 37:0 38:-2 39:0 40:0 41:-1 42:0 43:1 44:-1 45:0 46:1 47:-1 48:0 49:0 50:-2 51:1 52:1 53:-1 54:0 55:1 56:-1 57:0 58:2 59:-2 60:0 
-133.6060578946803 1:-1 2:1 3:0 4:-3 5:0 6:1 7:0 8:0 9:-1 10:-2 11:1 12:0 13:-1 14:0 15:0 16:-1 17:-1 18:1 19:1 20:0 21:0 22:-1 23:1 24:0 25:-1 26:-1 27:0 28:-1 29:-1 30:0 31:1 32:0 33:0 34:0 35:0 36:0 37:-1 38:-1 39:1 40:0 41:-1 42:0 43:1 44:0 45:0 46:1 47:-1 48:0 49:0 50:-2 51:1 52:1 53:0 54:0 55:1 56:0 57:0 58:2 59:-2 60:0 
-153.6842095224481 1:-1 2:1 3:0 4:-1 5:-1 6:1 7:0 8:0 9:0 10:-2 11:1 12:0 13:-1 14:0 15:0 16:-1 17:-1 18:0 19:0 20:0 21:0 22:-1 23:0 24:0 25:-1 26:0 27:1 28:0 29:-1 30:0 31:0 32:0 33:0 34:0 35:-1 36:0 37:0 38:-1 39:1 40:1 41:0 42:0 43:0 44:0 45:0 46:1 47:-2 48:0 49:0 50:-1 51:0 52:1 53:0 54:0 55:0 56:-1 57:0 58:1 59:-2 60:0 
