svm_type c_svc
kernel_type rbf
gamma 6.10352e-005
nr_class 2
total_sv 93
rho -1.00503
label 1 3
nr_sv 62 31
SV
17.6 1:0 2:0 3:0 4:-2 5:1 6:0 7:1 8:0 9:1 10:0 11:0 12:0 13:0 14:0 15:0 16:-1 17:0 18:-1 19:1 20:-1 21:0 22:0 23:0 24:0 25:0 26:0 27:0 28:0 29:0 30:0 31:1 32:-1 33:0 34:0 35:0 36:0 37:0 38:0 39:0 40:0 41:0 42:-1 43:1 44:-1 45:0 46:0 47:0 48:0 49:0 50:0 51:0 52:0 53:0 54:-1 55:0 56:-1 57:-1 58:0 59:0 60:0 
17.6 1:0 2:0 3:0 4:-1 5:0 6:-1 7:1 8:0 9:0 10:0 11:0 12:0 13:0 14:0 15:0 16:0 17:0 18:0 19:1 20:0 21:0 22:0 23:0 24:0 25:0 26:0 27:0 28:0 29:0 30:-1 31:1 32:0 33:0 34:0 35:0 36:0 37:0 38:0 39:0 40:0 41:0 42:-1 43:0 44:0 45:-1 46:0 47:0 48:0 49:0 50:0 51:0 52:0 53:-3 54:-1 55:-1 56:-3 57:-1 58:0 59:0 60:0 
17.6 1:1 2:0 3:0 4:-2 5:4 6:0 7:3 8:4 9:0 10:0 11:0 12:0 13:1 14:0 15:0 16:-2 17:4 18:0 19:2 20:4 21:-1 22:0 23:0 24:0 25:1 26:0 27:0 28:-2 29:1 30:0 31:1 32:1 33:-1 34:0 35:0 36:0 37:0 38:0 39:1 40:0 41:-3 42:0 43:-2 44:-4 45:0 46:0 47:0 48:0 49:0 50:0 51:1 52:2 53:-7 54:0 55:-4 56:-7 57:0 58:0 59:0 60:0 
17.6 1:1 2:0 3:0 4:-3 5:7 6:0 7:4 8:7 9:-1 10:0 11:0 12:0 13:1 14:0 15:0 16:-3 17:4 18:0 19:3 20:4 21:-1 22:0 23:0 24:0 25:0 26:0 27:1 28:-1 29:0 30:0 31:0 32:-1 33:0 34:0 35:0 36:0 37:0 38:0 39:1 40:1 41:-4 42:0 43:-2 44:-4 45:0 46:0 47:0 48:0 49:-1 50:0 51:1 52:3 53:-7 54:0 55:-3 56:-6 57:1 58:0 59:0 60:0 
17.6 1:2 2:0 3:-1 4:-4 5:7 6:-1 7:5 8:7 9:-2 10:0 11:0 12:0 13:1 14:0 15:0 16:-2 17:3 18:-1 19:2 20:2 21:-1 22:0 23:0 24:0 25:1 26:0 27:0 28:0 29:-1 30:-1 31:0 32:-1 33:-1 34:0 35:0 36:0 37:0 38:0 39:0 40:2 41:-4 42:-1 43:-1 44:-3 45:0 46:0 47:0 48:0 49:0 50:0 51:1 52:4 53:-5 54:0 55:-2 56:-6 57:0 58:0 59:0 60:0 
17.6 1:1 2:0 3:0 4:-5 5:5 6:-1 7:3 8:5 9:-1 10:0 11:1 12:0 13:1 14:0 15:0 16:-3 17:1 18:-1 19:1 20:2 21:-1 22:0 23:1 24:0 25:0 26:0 27:0 28:-1 29:-2 30:-1 31:0 32:0 33:0 34:0 35:1 36:0 37:0 38:0 39:1 40:1 41:-3 42:0 43:-1 44:-3 45:0 46:0 47:1 48:0 49:-1 50:0 51:0 52:4 53:-3 54:1 55:-3 56:-5 57:-2 58:0 59:0 60:0 
17.6 1:1 2:-1 3:0 4:0 5:-2 6:-2 7:-1 8:-4 9:-1 10:1 11:1 12:0 13:0 14:-1 15:0 16:0 17:-1 18:-1 19:0 20:-2 21:0 22:1 23:1 24:0 25:0 26:0 27:1 28:0 29:0 30:0 31:1 32:-2 33:0 34:1 35:0 36:0 37:0 38:0 39:1 40:0 41:0 42:0 43:2 44:1 45:-1 46:0 47:0 48:0 49:0 50:0 51:1 52:0 53:1 54:0 55:2 56:3 57:-2 58:0 59:0 60:0 
17.6 1:0 2:-1 3:0 4:0 5:-2 6:-1 7:-1 8:-3 9:1 10:1 11:1 12:0 13:0 14:0 15:1 16:0 17:-1 18:0 19:0 20:-3 21:1 22:1 23:0 24:0 25:0 26:0 27:1 28:0 29:-1 30:0 31:1 32:0 33:0 34:0 35:0 36:0 37:0 38:0 39:1 40:0 41:0 42:0 43:1 44:2 45:-1 46:0 47:0 48:0 49:0 50:0 51:0 52:0 53:1 54:-1 55:1 56:2 57:-1 58:0 59:0 60:0 
17.6 1:0 2:-1 3:2 4:0 5:-2 6:0 7:0 8:-2 9:-1 10:0 11:1 12:0 13:0 14:-1 15:1 16:0 17:-1 18:-1 19:0 20:-2 21:-1 22:0 23:1 24:0 25:1 26:-1 27:0 28:0 29:0 30:-1 31:0 32:-1 33:0 34:1 35:1 36:0 37:1 38:0 39:-1 40:0 41:0 42:-1 43:0 44:0 45:0 46:1 47:1 48:0 49:1 50:0 51:-2 52:0 53:0 54:-1 55:0 56:1 57:1 58:1 59:0 60:0 
17.6 1:0 2:-1 3:2 4:0 5:-1 6:0 7:0 8:-2 9:-2 10:0 11:1 12:0 13:1 14:-1 15:1 16:0 17:0 18:0 19:0 20:-1 21:-1 22:1 23:1 24:0 25:1 26:0 27:0 28:0 29:0 30:0 31:0 32:0 33:-1 34:1 35:1 36:0 37:1 38:0 39:-1 40:0 41:0 42:0 43:0 44:1 45:0 46:1 47:0 48:0 49:1 50:0 51:-1 52:0 53:0 54:0 55:0 56:2 57:1 58:1 59:0 60:0 
17.6 1:0 2:-1 3:2 4:0 5:0 6:0 7:0 8:-2 9:-1 10:0 11:1 12:0 13:0 14:0 15:1 16:0 17:0 18:0 19:0 20:-1 21:-1 22:0 23:1 24:0 25:0 26:0 27:0 28:0 29:0 30:0 31:0 32:0 33:0 34:0 35:0 36:0 37:0 38:0 39:0 40:0 41:0 42:0 43:0 44:1 45:1 46:0 47:0 48:0 49:0 50:0 51:0 52:0 53:0 54:0 55:0 56:1 57:1 58:0 59:0 60:0 
17.6 1:0 2:0 3:1 4:0 5:0 6:0 7:0 8:-2 9:-2 10:0 11:1 12:0 13:0 14:0 15:0 16:0 17:0 18:0 19:0 20:-1 21:-1 22:0 23:0 24:0 25:0 26:0 27:0 28:0 29:0 30:0 31:0 32:0 33:0 34:0 35:0 36:0 37:0 38:0 39:0 40:0 41:0 42:0 43:0 44:0 45:0 46:0 47:0 48:0 49:0 50:0 51:0 52:0 53:0 54:0 55:0 56:0 57:0 58:0 59:0 60:0 
17.6 1:0 2:0 3:0 4:0 5:0 6:0 7:1 8:-1 9:-1 10:0 11:0 12:0 13:0 14:0 15:0 16:0 17:0 18:0 19:1 20:0 21:0 22:0 23:0 24:0 25:0 26:0 27:0 28:0 29:0 30:0 31:1 32:0 33:0 34:0 35:0 36:0 37:0 38:0 39:0 40:0 41:0 42:0 43:1 44:0 45:0 46:0 47:0 48:0 49:0 50:0 51:0 52:0 53:0 54:0 55:0 56:1 57:0 58:0 59:0 60:0 
17.6 1:0 2:-1 3:0 4:0 5:0 6:-1 7:1 8:0 9:-1 10:0 11:0 12:-1 13:0 14:-1 15:0 16:0 17:0 18:-1 19:1 20:0 21:-1 22:0 23:0 24:-1 25:0 26:-1 27:0 28:0 29:0 30:-1 31:0 32:1 33:-1 34:0 35:0 36:-1 37:0 38:-1 39:1 40:0 41:0 42:0 43:0 44:1 45:0 46:0 47:0 48:0 49:0 50:0 51:1 52:0 53:0 54:0 55:0 56:1 57:0 58:0 59:0 60:0 
17.6 1:0 2:-1 3:0 4:0 5:0 6:-1 7:1 8:0 9:-1 10:0 11:0 12:-1 13:0 14:-1 15:0 16:0 17:0 18:-1 19:0 20:1 21:-1 22:0 23:0 24:-1 25:0 26:-1 27:1 28:0 29:0 30:0 31:0 32:1 33:0 34:0 35:0 36:0 37:0 38:0 39:1 40:0 41:0 42:0 43:0 44:1 45:0 46:0 47:0 48:0 49:0 50:0 51:1 52:0 53:0 54:0 55:0 56:1 57:0 58:0 59:0 60:0 
17.6 1:1 2:-1 3:0 4:0 5:0 6:0 7:0 8:0 9:0 10:0 11:1 12:0 13:1 14:-1 15:0 16:0 17:0 18:0 19:0 20:0 21:0 22:0 23:0 24:0 25:1 26:-1 27:0 28:0 29:-1 30:0 31:0 32:0 33:0 34:0 35:0 36:0 37:0 38:-1 39:0 40:0 41:-1 42:0 43:0 44:0 45:0 46:0 47:0 48:0 49:0 50:0 51:0 52:0 53:-1 54:0 55:0 56:0 57:0 58:0 59:0 60:0 
17.6 1:0 2:-1 3:0 4:-1 5:-1 6:1 7:0 8:0 9:0 10:0 11:1 12:0 13:0 14:-1 15:1 16:0 17:0 18:0 19:0 20:0 21:0 22:0 23:1 24:0 25:-1 26:-1 27:1 28:0 29:0 30:0 31:0 32:0 33:0 34:0 35:1 36:0 37:-1 38:-1 39:1 40:0 41:0 42:-1 43:0 44:0 45:-1 46:0 47:0 48:-1 49:-1 50:0 51:1 52:0 53:-1 54:-1 55:0 56:0 57:-1 58:0 59:0 60:-2 
2.115587643218118 1:0 2:-1 3:0 4:0 5:0 6:0 7:0 8:0 9:0 10:0 11:1 12:1 13:-1 14:-1 15:0 16:0 17:0 18:0 19:0 20:0 21:0 22:0 23:1 24:1 25:-1 26:-1 27:0 28:0 29:0 30:-1 31:0 32:0 33:-1 34:0 35:0 36:0 37:-1 38:0 39:0 40:0 41:-1 42:-1 43:0 44:0 45:-1 46:0 47:0 48:-1 49:-1 50:0 51:0 52:0 53:-1 54:-2 55:0 56:0 57:-2 58:0 59:0 60:-1 
17.6 1:0 2:0 3:0 4:-1 5:-1 6:0 7:0 8:-1 9:0 10:0 11:0 12:0 13:0 14:-1 15:0 16:0 17:-1 18:0 19:0 20:-1 21:0 22:0 23:0 24:0 25:0 26:-1 27:0 28:0 29:-1 30:0 31:0 32:-1 33:0 34:0 35:0 36:0 37:0 38:-1 39:0 40:0 41:-1 42:0 43:0 44:-1 45:0 46:1 47:0 48:0 49:0 50:-1 51:0 52:0 53:0 54:0 55:0 56:0 57:0 58:1 59:0 60:0 
17.6 1:0 2:0 3:0 4:-2 5:1 6:0 7:1 8:0 9:1 10:0 11:0 12:0 13:0 14:0 15:0 16:-1 17:0 18:-1 19:1 20:-1 21:0 22:0 23:0 24:0 25:0 26:0 27:0 28:0 29:0 30:0 31:1 32:-1 33:0 34:0 35:0 36:0 37:0 38:0 39:0 40:0 41:0 42:-1 43:1 44:-1 45:0 46:0 47:0 48:0 49:0 50:0 51:0 52:0 53:0 54:-1 55:0 56:-1 57:-1 58:0 59:0 60:0 
17.6 1:0 2:0 3:0 4:-1 5:0 6:-1 7:1 8:0 9:0 10:0 11:0 12:0 13:0 14:0 15:0 16:0 17:0 18:0 19:1 20:0 21:0 22:0 23:0 24:0 25:0 26:0 27:0 28:0 29:0 30:-1 31:1 32:0 33:0 34:0 35:0 36:0 37:0 38:0 39:0 40:0 41:0 42:-1 43:0 44:0 45:-1 46:0 47:0 48:0 49:0 50:0 51:0 52:0 53:-3 54:-1 55:-1 56:-3 57:-1 58:0 59:0 60:0 
17.6 1:1 2:0 3:0 4:-1 5:2 6:0 7:2 8:2 9:0 10:0 11:0 12:0 13:1 14:0 15:0 16:-1 17:2 18:-1 19:2 20:2 21:0 22:0 23:0 24:0 25:1 26:0 27:0 28:-1 29:2 30:-1 31:1 32:2 33:-1 34:0 35:0 36:0 37:1 38:0 39:0 40:-1 41:-1 42:-1 43:0 44:-1 45:-1 46:0 47:0 48:0 49:0 50:0 51:1 52:1 53:-5 54:-1 55:-3 56:-6 57:0 58:0 59:0 60:0 
17.6 1:1 2:0 3:0 4:-2 5:4 6:0 7:3 8:4 9:0 10:0 11:0 12:0 13:1 14:0 15:0 16:-2 17:4 18:0 19:2 20:4 21:-1 22:0 23:0 24:0 25:1 26:0 27:0 28:-2 29:1 30:0 31:1 32:1 33:-1 34:0 35:0 36:0 37:0 38:0 39:1 40:0 41:-3 42:0 43:-2 44:-4 45:0 46:0 47:0 48:0 49:0 50:0 51:1 52:2 53:-7 54:0 55:-4 56:-7 57:0 58:0 59:0 60:0 
17.6 1:1 2:0 3:0 4:-3 5:7 6:0 7:4 8:7 9:-1 10:0 11:0 12:0 13:1 14:0 15:0 16:-3 17:4 18:0 19:3 20:4 21:-1 22:0 23:0 24:0 25:0 26:0 27:1 28:-1 29:0 30:0 31:0 32:-1 33:0 34:0 35:0 36:0 37:0 38:0 39:1 40:1 41:-4 42:0 43:-2 44:-4 45:0 46:0 47:0 48:0 49:-1 50:0 51:1 52:3 53:-7 54:0 55:-3 56:-6 57:1 58:0 59:0 60:0 
17.6 1:2 2:0 3:-1 4:-4 5:7 6:-1 7:5 8:7 9:-2 10:0 11:0 12:0 13:1 14:0 15:0 16:-2 17:3 18:-1 19:2 20:2 21:-1 22:0 23:0 24:0 25:1 26:0 27:0 28:0 29:-1 30:-1 31:0 32:-1 33:-1 34:0 35:0 36:0 37:0 38:0 39:0 40:2 41:-4 42:-1 43:-1 44:-3 45:0 46:0 47:0 48:0 49:0 50:0 51:1 52:4 53:-5 54:0 55:-2 56:-6 57:0 58:0 59:0 60:0 
17.6 1:1 2:0 3:0 4:-5 5:5 6:-1 7:3 8:5 9:-1 10:0 11:1 12:0 13:1 14:0 15:0 16:-3 17:1 18:-1 19:1 20:2 21:-1 22:0 23:1 24:0 25:0 26:0 27:0 28:-1 29:-2 30:-1 31:0 32:0 33:0 34:0 35:1 36:0 37:0 38:0 39:1 40:1 41:-3 42:0 43:-1 44:-3 45:0 46:0 47:1 48:0 49:-1 50:0 51:0 52:4 53:-3 54:1 55:-3 56:-5 57:-2 58:0 59:0 60:0 
17.6 1:1 2:-1 3:0 4:0 5:-2 6:-2 7:-1 8:-4 9:-1 10:1 11:1 12:0 13:0 14:-1 15:0 16:0 17:-1 18:-1 19:0 20:-2 21:0 22:1 23:1 24:0 25:0 26:0 27:1 28:0 29:0 30:0 31:1 32:-2 33:0 34:1 35:0 36:0 37:0 38:0 39:1 40:0 41:0 42:0 43:2 44:1 45:-1 46:0 47:0 48:0 49:0 50:0 51:1 52:0 53:1 54:0 55:2 56:3 57:-2 58:0 59:0 60:0 
1.251192862395695 1:0 2:-1 3:0 4:0 5:-2 6:-1 7:-1 8:-3 9:1 10:1 11:1 12:0 13:0 14:0 15:1 16:0 17:-1 18:0 19:0 20:-3 21:1 22:1 23:0 24:0 25:0 26:0 27:1 28:0 29:-1 30:0 31:1 32:0 33:0 34:0 35:0 36:0 37:0 38:0 39:1 40:0 41:0 42:0 43:1 44:2 45:-1 46:0 47:0 48:0 49:0 50:0 51:0 52:0 53:1 54:-1 55:1 56:2 57:-1 58:0 59:0 60:0 
17.6 1:0 2:-1 3:2 4:0 5:-2 6:0 7:0 8:-2 9:-1 10:0 11:1 12:0 13:0 14:-1 15:1 16:0 17:-1 18:-1 19:0 20:-2 21:-1 22:0 23:1 24:0 25:1 26:-1 27:0 28:0 29:0 30:-1 31:0 32:-1 33:0 34:1 35:1 36:0 37:1 38:0 39:-1 40:0 41:0 42:-1 43:0 44:0 45:0 46:1 47:1 48:0 49:1 50:0 51:-2 52:0 53:0 54:-1 55:0 56:1 57:1 58:1 59:0 60:0 
17.6 1:0 2:-1 3:2 4:0 5:-1 6:0 7:0 8:-2 9:-2 10:0 11:1 12:0 13:1 14:-1 15:1 16:0 17:0 18:0 19:0 20:-1 21:-1 22:1 23:1 24:0 25:1 26:0 27:0 28:0 29:0 30:0 31:0 32:0 33:-1 34:1 35:1 36:0 37:1 38:0 39:-1 40:0 41:0 42:0 43:0 44:1 45:0 46:1 47:0 48:0 49:1 50:0 51:-1 52:0 53:0 54:0 55:0 56:2 57:1 58:1 59:0 60:0 
17.6 1:0 2:-1 3:2 4:0 5:0 6:0 7:0 8:-2 9:-1 10:0 11:1 12:0 13:0 14:0 15:1 16:0 17:0 18:0 19:0 20:-1 21:-1 22:0 23:1 24:0 25:0 26:0 27:0 28:0 29:0 30:0 31:0 32:0 33:0 34:0 35:0 36:0 37:0 38:0 39:0 40:0 41:0 42:0 43:0 44:1 45:1 46:0 47:0 48:0 49:0 50:0 51:0 52:0 53:0 54:0 55:0 56:1 57:1 58:0 59:0 60:0 
17.6 1:0 2:0 3:1 4:0 5:0 6:0 7:0 8:-2 9:-2 10:0 11:1 12:0 13:0 14:0 15:0 16:0 17:0 18:0 19:0 20:-1 21:-1 22:0 23:0 24:0 25:0 26:0 27:0 28:0 29:0 30:0 31:0 32:0 33:0 34:0 35:0 36:0 37:0 38:0 39:0 40:0 41:0 42:0 43:0 44:0 45:0 46:0 47:0 48:0 49:0 50:0 51:0 52:0 53:0 54:0 55:0 56:0 57:0 58:0 59:0 60:0 
17.6 1:0 2:0 3:0 4:0 5:0 6:0 7:1 8:-1 9:-1 10:0 11:0 12:0 13:0 14:0 15:0 16:0 17:0 18:0 19:1 20:0 21:0 22:0 23:0 24:0 25:0 26:0 27:0 28:0 29:0 30:0 31:1 32:0 33:0 34:0 35:0 36:0 37:0 38:0 39:0 40:0 41:0 42:0 43:1 44:0 45:0 46:0 47:0 48:0 49:0 50:0 51:0 52:0 53:0 54:0 55:0 56:1 57:0 58:0 59:0 60:0 
2.685999095057351 1:0 2:0 3:0 4:0 5:0 6:-1 7:1 8:0 9:-1 10:0 11:0 12:-1 13:0 14:0 15:0 16:0 17:0 18:-1 19:1 20:0 21:-1 22:0 23:0 24:-1 25:0 26:0 27:0 28:0 29:0 30:-1 31:1 32:0 33:-1 34:0 35:0 36:-1 37:0 38:0 39:0 40:0 41:0 42:-1 43:0 44:1 45:-1 46:0 47:0 48:-1 49:0 50:0 51:1 52:0 53:0 54:0 55:0 56:1 57:0 58:0 59:0 60:0 
17.6 1:0 2:-1 3:0 4:0 5:0 6:-1 7:1 8:0 9:-1 10:0 11:0 12:-1 13:0 14:-1 15:0 16:0 17:0 18:-1 19:1 20:0 21:-1 22:0 23:0 24:-1 25:0 26:-1 27:0 28:0 29:0 30:-1 31:0 32:1 33:-1 34:0 35:0 36:-1 37:0 38:-1 39:1 40:0 41:0 42:0 43:0 44:1 45:0 46:0 47:0 48:0 49:0 50:0 51:1 52:0 53:0 54:0 55:0 56:1 57:0 58:0 59:0 60:0 
17.6 1:0 2:-1 3:0 4:0 5:0 6:-1 7:1 8:0 9:-1 10:0 11:0 12:-1 13:0 14:-1 15:0 16:0 17:0 18:-1 19:0 20:1 21:-1 22:0 23:0 24:-1 25:0 26:-1 27:1 28:0 29:0 30:0 31:0 32:1 33:0 34:0 35:0 36:0 37:0 38:0 39:1 40:0 41:0 42:0 43:0 44:1 45:0 46:0 47:0 48:0 49:0 50:0 51:1 52:0 53:0 54:0 55:0 56:1 57:0 58:0 59:0 60:0 
17.6 1:1 2:-1 3:0 4:0 5:0 6:0 7:0 8:0 9:0 10:0 11:1 12:0 13:1 14:-1 15:0 16:0 17:0 18:0 19:0 20:0 21:0 22:0 23:0 24:0 25:1 26:-1 27:0 28:0 29:-1 30:0 31:0 32:0 33:0 34:0 35:0 36:0 37:0 38:-1 39:0 40:0 41:-1 42:0 43:0 44:0 45:0 46:0 47:0 48:0 49:0 50:0 51:0 52:0 53:-1 54:0 55:0 56:0 57:0 58:0 59:0 60:0 
10.86527639263626 1:0 2:-1 3:0 4:-1 5:-1 6:1 7:0 8:0 9:0 10:0 11:1 12:0 13:0 14:-1 15:1 16:0 17:0 18:0 19:0 20:0 21:0 22:0 23:1 24:0 25:-1 26:-1 27:1 28:0 29:0 30:0 31:0 32:0 33:0 34:0 35:1 36:0 37:-1 38:-1 39:1 40:0 41:0 42:-1 43:0 44:0 45:-1 46:0 47:0 48:-1 49:-1 50:0 51:1 52:0 53:-1 54:-1 55:0 56:0 57:-1 58:0 59:0 60:-2 
17.6 1:0 2:-1 3:0 4:0 5:0 6:0 7:0 8:0 9:0 10:0 11:1 12:1 13:-1 14:-1 15:0 16:0 17:0 18:0 19:0 20:0 21:0 22:0 23:1 24:1 25:-1 26:-1 27:0 28:0 29:0 30:-1 31:0 32:0 33:-1 34:0 35:0 36:0 37:-1 38:0 39:0 40:0 41:-1 42:-1 43:0 44:0 45:-1 46:0 47:0 48:-1 49:-1 50:0 51:0 52:0 53:-1 54:-2 55:0 56:0 57:-2 58:0 59:0 60:-1 
17.6 1:0 2:0 3:0 4:-1 5:-1 6:0 7:0 8:-1 9:0 10:0 11:0 12:0 13:0 14:-1 15:0 16:0 17:-1 18:0 19:0 20:-1 21:0 22:0 23:0 24:0 25:0 26:-1 27:0 28:0 29:-1 30:0 31:0 32:-1 33:0 34:0 35:0 36:0 37:0 38:-1 39:0 40:0 41:-1 42:0 43:0 44:-1 45:0 46:1 47:0 48:0 49:0 50:-1 51:0 52:0 53:0 54:0 55:0 56:0 57:0 58:1 59:0 60:0 
1.44243158848901 1:0 2:0 3:-1 4:-1 5:1 6:-2 7:-23 8:-3 9:-28 10:0 11:0 12:0 13:0 14:0 15:-1 16:-1 17:0 18:0 19:10 20:3 21:17 22:0 23:0 24:0 25:0 26:0 27:-1 28:0 29:1 30:-1 31:-10 32:3 33:-24 34:0 35:0 36:0 37:3 38:0 39:1 40:0 41:0 42:0 43:11 44:0 45:16 46:0 47:0 48:0 49:0 50:0 51:0 52:0 53:-1 54:0 55:13 56:-3 57:18 58:0 59:0 60:0 
3.215923831270494 1:0 2:0 3:-1 4:-1 5:1 6:0 7:3 8:3 9:8 10:0 11:0 12:0 13:0 14:0 15:-1 16:0 17:2 18:-1 19:-17 20:3 21:-33 22:0 23:0 24:0 25:3 26:0 27:1 28:0 29:1 30:0 31:4 32:0 33:7 34:0 35:0 36:0 37:0 38:0 39:0 40:0 41:0 42:0 43:6 44:-3 45:9 46:0 47:0 48:0 49:1 50:0 51:0 52:0 53:-1 54:-1 55:6 56:-3 57:9 58:0 59:0 60:0 
17.6 1:0 2:0 3:0 4:-2 5:1 6:0 7:1 8:0 9:1 10:0 11:0 12:0 13:0 14:0 15:0 16:-1 17:0 18:-1 19:1 20:-1 21:0 22:0 23:0 24:0 25:0 26:0 27:0 28:0 29:0 30:0 31:1 32:-1 33:0 34:0 35:0 36:0 37:0 38:0 39:0 40:0 41:0 42:-1 43:1 44:-1 45:0 46:0 47:0 48:0 49:0 50:0 51:0 52:0 53:0 54:-1 55:0 56:-1 57:-1 58:0 59:0 60:0 
17.6 1:0 2:0 3:0 4:-1 5:0 6:-1 7:1 8:0 9:0 10:0 11:0 12:0 13:0 14:0 15:0 16:0 17:0 18:0 19:1 20:0 21:0 22:0 23:0 24:0 25:0 26:0 27:0 28:0 29:0 30:-1 31:1 32:0 33:0 34:0 35:0 36:0 37:0 38:0 39:0 40:0 41:0 42:-1 43:0 44:0 45:-1 46:0 47:0 48:0 49:0 50:0 51:0 52:0 53:-3 54:-1 55:-1 56:-3 57:-1 58:0 59:0 60:0 
11.14897721491072 1:1 2:0 3:0 4:-1 5:2 6:0 7:2 8:2 9:0 10:0 11:0 12:0 13:1 14:0 15:0 16:-1 17:2 18:-1 19:2 20:2 21:0 22:0 23:0 24:0 25:1 26:0 27:0 28:-1 29:2 30:-1 31:1 32:2 33:-1 34:0 35:0 36:0 37:1 38:0 39:0 40:-1 41:-1 42:-1 43:0 44:-1 45:-1 46:0 47:0 48:0 49:0 50:0 51:1 52:1 53:-5 54:-1 55:-3 56:-6 57:0 58:0 59:0 60:0 
17.6 1:1 2:0 3:0 4:-2 5:4 6:0 7:3 8:4 9:0 10:0 11:0 12:0 13:1 14:0 15:0 16:-2 17:4 18:0 19:2 20:4 21:-1 22:0 23:0 24:0 25:1 26:0 27:0 28:-2 29:1 30:0 31:1 32:1 33:-1 34:0 35:0 36:0 37:0 38:0 39:1 40:0 41:-3 42:0 43:-2 44:-4 45:0 46:0 47:0 48:0 49:0 50:0 51:1 52:2 53:-7 54:0 55:-4 56:-7 57:0 58:0 59:0 60:0 
17.6 1:1 2:0 3:0 4:-3 5:7 6:0 7:4 8:7 9:-1 10:0 11:0 12:0 13:1 14:0 15:0 16:-3 17:4 18:0 19:3 20:4 21:-1 22:0 23:0 24:0 25:0 26:0 27:1 28:-1 29:0 30:0 31:0 32:-1 33:0 34:0 35:0 36:0 37:0 38:0 39:1 40:1 41:-4 42:0 43:-2 44:-4 45:0 46:0 47:0 48:0 49:-1 50:0 51:1 52:3 53:-7 54:0 55:-3 56:-6 57:1 58:0 59:0 60:0 
17.6 1:2 2:0 3:-1 4:-4 5:7 6:-1 7:5 8:7 9:-2 10:0 11:0 12:0 13:1 14:0 15:0 16:-2 17:3 18:-1 19:2 20:2 21:-1 22:0 23:0 24:0 25:1 26:0 27:0 28:0 29:-1 30:-1 31:0 32:-1 33:-1 34:0 35:0 36:0 37:0 38:0 39:0 40:2 41:-4 42:-1 43:-1 44:-3 45:0 46:0 47:0 48:0 49:0 50:0 51:1 52:4 53:-5 54:0 55:-2 56:-6 57:0 58:0 59:0 60:0 
17.6 1:1 2:0 3:0 4:-5 5:5 6:-1 7:3 8:5 9:-1 10:0 11:1 12:0 13:1 14:0 15:0 16:-3 17:1 18:-1 19:1 20:2 21:-1 22:0 23:1 24:0 25:0 26:0 27:0 28:-1 29:-2 30:-1 31:0 32:0 33:0 34:0 35:1 36:0 37:0 38:0 39:1 40:1 41:-3 42:0 43:-1 44:-3 45:0 46:0 47:1 48:0 49:-1 50:0 51:0 52:4 53:-3 54:1 55:-3 56:-5 57:-2 58:0 59:0 60:0 
17.6 1:1 2:-1 3:0 4:0 5:-2 6:-2 7:-1 8:-4 9:-1 10:1 11:1 12:0 13:0 14:-1 15:0 16:0 17:-1 18:-1 19:0 20:-2 21:0 22:1 23:1 24:0 25:0 26:0 27:1 28:0 29:0 30:0 31:1 32:-2 33:0 34:1 35:0 36:0 37:0 38:0 39:1 40:0 41:0 42:0 43:2 44:1 45:-1 46:0 47:0 48:0 49:0 50:0 51:1 52:0 53:1 54:0 55:2 56:3 57:-2 58:0 59:0 60:0 
17.6 1:0 2:-1 3:2 4:0 5:-2 6:0 7:0 8:-2 9:-1 10:0 11:1 12:0 13:0 14:-1 15:1 16:0 17:-1 18:-1 19:0 20:-2 21:-1 22:0 23:1 24:0 25:1 26:-1 27:0 28:0 29:0 30:-1 31:0 32:-1 33:0 34:1 35:1 36:0 37:1 38:0 39:-1 40:0 41:0 42:-1 43:0 44:0 45:0 46:1 47:1 48:0 49:1 50:0 51:-2 52:0 53:0 54:-1 55:0 56:1 57:1 58:1 59:0 60:0 
17.6 1:0 2:-1 3:2 4:0 5:-1 6:0 7:0 8:-2 9:-2 10:0 11:1 12:0 13:1 14:-1 15:1 16:0 17:0 18:0 19:0 20:-1 21:-1 22:1 23:1 24:0 25:1 26:0 27:0 28:0 29:0 30:0 31:0 32:0 33:-1 34:1 35:1 36:0 37:1 38:0 39:-1 40:0 41:0 42:0 43:0 44:1 45:0 46:1 47:0 48:0 49:1 50:0 51:-1 52:0 53:0 54:0 55:0 56:2 57:1 58:1 59:0 60:0 
17.6 1:0 2:-1 3:2 4:0 5:0 6:0 7:0 8:-2 9:-1 10:0 11:1 12:0 13:0 14:0 15:1 16:0 17:0 18:0 19:0 20:-1 21:-1 22:0 23:1 24:0 25:0 26:0 27:0 28:0 29:0 30:0 31:0 32:0 33:0 34:0 35:0 36:0 37:0 38:0 39:0 40:0 41:0 42:0 43:0 44:1 45:1 46:0 47:0 48:0 49:0 50:0 51:0 52:0 53:0 54:0 55:0 56:1 57:1 58:0 59:0 60:0 
17.6 1:0 2:0 3:1 4:0 5:0 6:0 7:0 8:-2 9:-2 10:0 11:1 12:0 13:0 14:0 15:0 16:0 17:0 18:0 19:0 20:-1 21:-1 22:0 23:0 24:0 25:0 26:0 27:0 28:0 29:0 30:0 31:0 32:0 33:0 34:0 35:0 36:0 37:0 38:0 39:0 40:0 41:0 42:0 43:0 44:0 45:0 46:0 47:0 48:0 49:0 50:0 51:0 52:0 53:0 54:0 55:0 56:0 57:0 58:0 59:0 60:0 
17.6 1:0 2:0 3:0 4:0 5:0 6:0 7:1 8:-1 9:-1 10:0 11:0 12:0 13:0 14:0 15:0 16:0 17:0 18:0 19:1 20:0 21:0 22:0 23:0 24:0 25:0 26:0 27:0 28:0 29:0 30:0 31:1 32:0 33:0 34:0 35:0 36:0 37:0 38:0 39:0 40:0 41:0 42:0 43:1 44:0 45:0 46:0 47:0 48:0 49:0 50:0 51:0 52:0 53:0 54:0 55:0 56:1 57:0 58:0 59:0 60:0 
17.6 1:0 2:0 3:0 4:0 5:0 6:-1 7:1 8:0 9:-1 10:0 11:0 12:-1 13:0 14:0 15:0 16:0 17:0 18:-1 19:1 20:0 21:-1 22:0 23:0 24:-1 25:0 26:0 27:0 28:0 29:0 30:-1 31:1 32:0 33:-1 34:0 35:0 36:-1 37:0 38:0 39:0 40:0 41:0 42:-1 43:0 44:1 45:-1 46:0 47:0 48:-1 49:0 50:0 51:1 52:0 53:0 54:0 55:0 56:1 57:0 58:0 59:0 60:0 
17.6 1:0 2:-1 3:0 4:0 5:0 6:-1 7:1 8:0 9:-1 10:0 11:0 12:-1 13:0 14:-1 15:0 16:0 17:0 18:-1 19:1 20:0 21:-1 22:0 23:0 24:-1 25:0 26:-1 27:0 28:0 29:0 30:-1 31:0 32:1 33:-1 34:0 35:0 36:-1 37:0 38:-1 39:1 40:0 41:0 42:0 43:0 44:1 45:0 46:0 47:0 48:0 49:0 50:0 51:1 52:0 53:0 54:0 55:0 56:1 57:0 58:0 59:0 60:0 
17.6 1:0 2:-1 3:0 4:0 5:0 6:-1 7:1 8:0 9:-1 10:0 11:0 12:-1 13:0 14:-1 15:0 16:0 17:0 18:-1 19:0 20:1 21:-1 22:0 23:0 24:-1 25:0 26:-1 27:1 28:0 29:0 30:0 31:0 32:1 33:0 34:0 35:0 36:0 37:0 38:0 39:1 40:0 41:0 42:0 43:0 44:1 45:0 46:0 47:0 48:0 49:0 50:0 51:1 52:0 53:0 54:0 55:0 56:1 57:0 58:0 59:0 60:0 
17.6 1:1 2:-1 3:0 4:0 5:0 6:0 7:0 8:0 9:0 10:0 11:1 12:0 13:1 14:-1 15:0 16:0 17:0 18:0 19:0 20:0 21:0 22:0 23:0 24:0 25:1 26:-1 27:0 28:0 29:-1 30:0 31:0 32:0 33:0 34:0 35:0 36:0 37:0 38:-1 39:0 40:0 41:-1 42:0 43:0 44:0 45:0 46:0 47:0 48:0 49:0 50:0 51:0 52:0 53:-1 54:0 55:0 56:0 57:0 58:0 59:0 60:0 
0.004498223082662185 1:0 2:-1 3:0 4:-1 5:-1 6:1 7:0 8:0 9:0 10:0 11:1 12:0 13:0 14:-1 15:1 16:0 17:0 18:0 19:0 20:0 21:0 22:0 23:1 24:0 25:-1 26:-1 27:1 28:0 29:0 30:0 31:0 32:0 33:0 34:0 35:1 36:0 37:-1 38:-1 39:1 40:0 41:0 42:-1 43:0 44:0 45:-1 46:0 47:0 48:-1 49:-1 50:0 51:1 52:0 53:-1 54:-1 55:0 56:0 57:-1 58:0 59:0 60:-2 
17.6 1:0 2:-1 3:0 4:0 5:0 6:0 7:0 8:0 9:0 10:0 11:1 12:1 13:-1 14:-1 15:0 16:0 17:0 18:0 19:0 20:0 21:0 22:0 23:1 24:1 25:-1 26:-1 27:0 28:0 29:0 30:-1 31:0 32:0 33:-1 34:0 35:0 36:0 37:-1 38:0 39:0 40:0 41:-1 42:-1 43:0 44:0 45:-1 46:0 47:0 48:-1 49:-1 50:0 51:0 52:0 53:-1 54:-2 55:0 56:0 57:-2 58:0 59:0 60:-1 
17.6 1:0 2:0 3:0 4:-1 5:-1 6:0 7:0 8:-1 9:0 10:0 11:0 12:0 13:0 14:-1 15:0 16:0 17:-1 18:0 19:0 20:-1 21:0 22:0 23:0 24:0 25:0 26:-1 27:0 28:0 29:-1 30:0 31:0 32:-1 33:0 34:0 35:0 36:0 37:0 38:-1 39:0 40:0 41:-1 42:0 43:0 44:-1 45:0 46:1 47:0 48:0 49:0 50:-1 51:0 52:0 53:0 54:0 55:0 56:0 57:0 58:1 59:0 60:0 
-32.40000000000001 1:1 2:-1 3:1 4:-5 5:-1 6:-2 7:4 8:2 9:2 10:0 11:1 12:0 13:0 14:-1 15:0 16:-2 17:-1 18:-1 19:2 20:0 21:0 22:0 23:0 24:0 25:-1 26:0 27:0 28:1 29:0 30:-1 31:0 32:-1 33:-1 34:0 35:0 36:0 37:-2 38:0 39:0 40:1 41:0 42:0 43:-2 44:-2 45:-1 46:0 47:0 48:0 49:-2 50:1 51:0 52:1 53:1 54:0 55:-3 56:-3 57:0 58:1 59:-1 60:0 
-32.40000000000001 1:1 2:-2 3:0 4:-3 5:-2 6:-1 7:4 8:2 9:0 10:0 11:1 12:0 13:0 14:-1 15:0 16:0 17:-1 18:-1 19:2 20:1 21:-1 22:0 23:1 24:0 25:-1 26:-1 27:0 28:0 29:-1 30:0 31:0 32:0 33:-1 34:0 35:1 36:0 37:-1 38:0 39:0 40:0 41:0 42:0 43:-1 44:-1 45:0 46:1 47:0 48:0 49:-1 50:0 51:0 52:0 53:0 54:0 55:-2 56:-3 57:1 58:1 59:0 60:0 
-32.40000000000001 1:0 2:-1 3:0 4:-1 5:-1 6:-1 7:3 8:2 9:-2 10:0 11:1 12:0 13:-1 14:-1 15:0 16:-1 17:-1 18:0 19:1 20:1 21:-2 22:0 23:1 24:0 25:-1 26:0 27:0 28:-1 29:0 30:0 31:0 32:0 33:-1 34:1 35:0 36:0 37:-1 38:0 39:0 40:-1 41:0 42:0 43:-1 44:-2 45:0 46:1 47:0 48:0 49:-1 50:0 51:0 52:0 53:-1 54:0 55:-2 56:-4 57:1 58:1 59:0 60:0 
-32.40000000000001 1:0 2:-1 3:0 4:-1 5:-1 6:0 7:3 8:2 9:-2 10:0 11:1 12:0 13:0 14:0 15:0 16:-1 17:0 18:0 19:2 20:1 21:-1 22:1 23:0 24:0 25:0 26:0 27:0 28:-1 29:0 30:0 31:1 32:-1 33:0 34:1 35:0 36:0 37:0 38:0 39:0 40:0 41:-1 42:0 43:0 44:-3 45:1 46:1 47:0 48:0 49:0 50:1 51:0 52:1 53:-2 54:0 55:-2 56:-3 57:2 58:1 59:-1 60:0 
-32.40000000000001 1:0 2:-1 3:0 4:-2 5:1 6:0 7:3 8:2 9:-2 10:0 11:1 12:0 13:0 14:-1 15:0 16:-2 17:1 18:0 19:2 20:0 21:-1 22:0 23:1 24:0 25:0 26:-1 27:0 28:-1 29:0 30:0 31:1 32:-2 33:0 34:0 35:1 36:0 37:0 38:0 39:0 40:0 41:-1 42:0 43:-1 44:-2 45:1 46:0 47:0 48:0 49:0 50:0 51:0 52:2 53:-3 54:0 55:-4 56:-2 57:2 58:0 59:0 60:0 
-32.40000000000001 1:-1 2:-2 3:-1 4:-2 5:5 6:-1 7:-1 8:-4 9:-1 10:0 11:1 12:0 13:-1 14:-1 15:0 16:-2 17:0 18:-1 19:-1 20:0 21:-1 22:0 23:1 24:0 25:0 26:-1 27:1 28:-1 29:-1 30:-1 31:1 32:0 33:0 34:0 35:0 36:0 37:2 38:0 39:1 40:2 41:-2 42:0 43:2 44:1 45:0 46:0 47:0 48:0 49:2 50:0 51:1 52:2 53:-4 54:0 55:2 56:3 57:-1 58:0 59:0 60:0 
-32.40000000000001 1:-1 2:-1 3:-1 4:-3 5:2 6:-1 7:-2 8:-2 9:-1 10:0 11:1 12:0 13:0 14:-1 15:0 16:-2 17:1 18:-1 19:0 20:-2 21:0 22:0 23:0 24:0 25:2 26:0 27:0 28:1 29:0 30:0 31:1 32:-1 33:0 34:0 35:0 36:0 37:2 38:0 39:0 40:1 41:-2 42:0 43:1 44:1 45:-1 46:0 47:0 48:0 49:1 50:1 51:1 52:0 53:-5 54:1 55:2 56:1 57:-1 58:0 59:-1 60:0 
-32.40000000000001 1:-1 2:-2 3:0 4:-2 5:3 6:-2 7:-1 8:-3 9:0 10:0 11:1 12:0 13:1 14:-1 15:0 16:1 17:2 18:-1 19:0 20:-2 21:0 22:0 23:1 24:0 25:1 26:-1 27:0 28:1 29:0 30:-1 31:0 32:0 33:-1 34:0 35:1 36:0 37:0 38:0 39:1 40:0 41:-3 42:0 43:1 44:0 45:-1 46:0 47:0 48:0 49:0 50:0 51:1 52:-1 53:-3 54:0 55:1 56:1 57:-1 58:0 59:0 60:0 
-32.40000000000001 1:1 2:-1 3:0 4:1 5:3 6:-1 7:0 8:-3 9:0 10:0 11:1 12:0 13:1 14:-1 15:0 16:1 17:1 18:-1 19:0 20:-1 21:-1 22:0 23:1 24:0 25:0 26:0 27:1 28:0 29:-2 30:0 31:1 32:-1 33:-1 34:0 35:0 36:0 37:0 38:0 39:1 40:-1 41:-2 42:0 43:1 44:0 45:-1 46:0 47:0 48:0 49:-1 50:0 51:1 52:-1 53:-1 54:1 55:2 56:2 57:0 58:0 59:0 60:0 
-32.40000000000001 1:1 2:-1 3:1 4:-5 5:-1 6:-2 7:4 8:2 9:2 10:0 11:1 12:0 13:0 14:-1 15:0 16:-2 17:-1 18:-1 19:2 20:0 21:0 22:0 23:0 24:0 25:-1 26:0 27:0 28:1 29:0 30:-1 31:0 32:-1 33:-1 34:0 35:0 36:0 37:-2 38:0 39:0 40:1 41:0 42:0 43:-2 44:-2 45:-1 46:0 47:0 48:0 49:-2 50:1 51:0 52:1 53:1 54:0 55:-3 56:-3 57:0 58:1 59:-1 60:0 
-32.40000000000001 1:1 2:-2 3:0 4:-3 5:-2 6:-1 7:4 8:2 9:0 10:0 11:1 12:0 13:0 14:-1 15:0 16:0 17:-1 18:-1 19:2 20:1 21:-1 22:0 23:1 24:0 25:-1 26:-1 27:0 28:0 29:-1 30:0 31:0 32:0 33:-1 34:0 35:1 36:0 37:-1 38:0 39:0 40:0 41:0 42:0 43:-1 44:-1 45:0 46:1 47:0 48:0 49:-1 50:0 51:0 52:0 53:0 54:0 55:-2 56:-3 57:1 58:1 59:0 60:0 
-32.40000000000001 1:0 2:-1 3:0 4:-1 5:-1 6:-1 7:3 8:2 9:-2 10:0 11:1 12:0 13:-1 14:-1 15:0 16:-1 17:-1 18:0 19:1 20:1 21:-2 22:0 23:1 24:0 25:-1 26:0 27:0 28:-1 29:0 30:0 31:0 32:0 33:-1 34:1 35:0 36:0 37:-1 38:0 39:0 40:-1 41:0 42:0 43:-1 44:-2 45:0 46:1 47:0 48:0 49:-1 50:0 51:0 52:0 53:-1 54:0 55:-2 56:-4 57:1 58:1 59:0 60:0 
-32.40000000000001 1:0 2:-1 3:0 4:-1 5:-1 6:0 7:3 8:2 9:-2 10:0 11:1 12:0 13:0 14:0 15:0 16:-1 17:0 18:0 19:2 20:1 21:-1 22:1 23:0 24:0 25:0 26:0 27:0 28:-1 29:0 30:0 31:1 32:-1 33:0 34:1 35:0 36:0 37:0 38:0 39:0 40:0 41:-1 42:0 43:0 44:-3 45:1 46:1 47:0 48:0 49:0 50:1 51:0 52:1 53:-2 54:0 55:-2 56:-3 57:2 58:1 59:-1 60:0 
-32.40000000000001 1:0 2:-1 3:0 4:-2 5:1 6:0 7:3 8:2 9:-2 10:0 11:1 12:0 13:0 14:-1 15:0 16:-2 17:1 18:0 19:2 20:0 21:-1 22:0 23:1 24:0 25:0 26:-1 27:0 28:-1 29:0 30:0 31:1 32:-2 33:0 34:0 35:1 36:0 37:0 38:0 39:0 40:0 41:-1 42:0 43:-1 44:-2 45:1 46:0 47:0 48:0 49:0 50:0 51:0 52:2 53:-3 54:0 55:-4 56:-2 57:2 58:0 59:0 60:0 
-26.57283774173671 1:0 2:-1 3:0 4:-3 5:3 6:0 7:4 8:1 9:-3 10:0 11:1 12:0 13:0 14:-1 15:0 16:-2 17:2 18:0 19:3 20:-1 21:-2 22:0 23:1 24:0 25:0 26:0 27:0 28:-1 29:1 30:0 31:1 32:-1 33:-1 34:0 35:0 36:0 37:0 38:0 39:0 40:1 41:-1 42:0 43:-2 44:-1 45:0 46:0 47:0 48:0 49:0 50:1 51:0 52:1 53:-5 54:0 55:-4 56:-1 57:2 58:0 59:0 60:0 
-32.40000000000001 1:-1 2:-2 3:-1 4:-2 5:5 6:-1 7:-1 8:-4 9:-1 10:0 11:1 12:0 13:-1 14:-1 15:0 16:-2 17:0 18:-1 19:-1 20:0 21:-1 22:0 23:1 24:0 25:0 26:-1 27:1 28:-1 29:-1 30:-1 31:1 32:0 33:0 34:0 35:0 36:0 37:2 38:0 39:1 40:2 41:-2 42:0 43:2 44:1 45:0 46:0 47:0 48:0 49:2 50:0 51:1 52:2 53:-4 54:0 55:2 56:3 57:-1 58:0 59:0 60:0 
-32.40000000000001 1:-1 2:-1 3:-1 4:-3 5:2 6:-1 7:-2 8:-2 9:-1 10:0 11:1 12:0 13:0 14:-1 15:0 16:-2 17:1 18:-1 19:0 20:-2 21:0 22:0 23:0 24:0 25:2 26:0 27:0 28:1 29:0 30:0 31:1 32:-1 33:0 34:0 35:0 36:0 37:2 38:0 39:0 40:1 41:-2 42:0 43:1 44:1 45:-1 46:0 47:0 48:0 49:1 50:1 51:1 52:0 53:-5 54:1 55:2 56:1 57:-1 58:0 59:-1 60:0 
-32.40000000000001 1:-1 2:-2 3:0 4:-2 5:3 6:-2 7:-1 8:-3 9:0 10:0 11:1 12:0 13:1 14:-1 15:0 16:1 17:2 18:-1 19:0 20:-2 21:0 22:0 23:1 24:0 25:1 26:-1 27:0 28:1 29:0 30:-1 31:0 32:0 33:-1 34:0 35:1 36:0 37:0 38:0 39:1 40:0 41:-3 42:0 43:1 44:0 45:-1 46:0 47:0 48:0 49:0 50:0 51:1 52:-1 53:-3 54:0 55:1 56:1 57:-1 58:0 59:0 60:0 
-32.40000000000001 1:1 2:-1 3:0 4:1 5:3 6:-1 7:0 8:-3 9:0 10:0 11:1 12:0 13:1 14:-1 15:0 16:1 17:1 18:-1 19:0 20:-1 21:-1 22:0 23:1 24:0 25:0 26:0 27:1 28:0 29:-2 30:0 31:1 32:-1 33:-1 34:0 35:0 36:0 37:0 38:0 39:1 40:-1 41:-2 42:0 43:1 44:0 45:-1 46:0 47:0 48:0 49:-1 50:0 51:1 52:-1 53:-1 54:1 55:2 56:2 57:0 58:0 59:0 60:0 
-32.40000000000001 1:1 2:-1 3:1 4:-5 5:-1 6:-2 7:4 8:2 9:2 10:0 11:1 12:0 13:0 14:-1 15:0 16:-2 17:-1 18:-1 19:2 20:0 21:0 22:0 23:0 24:0 25:-1 26:0 27:0 28:1 29:0 30:-1 31:0 32:-1 33:-1 34:0 35:0 36:0 37:-2 38:0 39:0 40:1 41:0 42:0 43:-2 44:-2 45:-1 46:0 47:0 48:0 49:-2 50:1 51:0 52:1 53:1 54:0 55:-3 56:-3 57:0 58:1 59:-1 60:0 
-32.40000000000001 1:1 2:-2 3:0 4:-3 5:-2 6:-1 7:4 8:2 9:0 10:0 11:1 12:0 13:0 14:-1 15:0 16:0 17:-1 18:-1 19:2 20:1 21:-1 22:0 23:1 24:0 25:-1 26:-1 27:0 28:0 29:-1 30:0 31:0 32:0 33:-1 34:0 35:1 36:0 37:-1 38:0 39:0 40:0 41:0 42:0 43:-1 44:-1 45:0 46:1 47:0 48:0 49:-1 50:0 51:0 52:0 53:0 54:0 55:-2 56:-3 57:1 58:1 59:0 60:0 
-32.40000000000001 1:0 2:-1 3:0 4:-1 5:-1 6:-1 7:3 8:2 9:-2 10:0 11:1 12:0 13:-1 14:-1 15:0 16:-1 17:-1 18:0 19:1 20:1 21:-2 22:0 23:1 24:0 25:-1 26:0 27:0 28:-1 29:0 30:0 31:0 32:0 33:-1 34:1 35:0 36:0 37:-1 38:0 39:0 40:-1 41:0 42:0 43:-1 44:-2 45:0 46:1 47:0 48:0 49:-1 50:0 51:0 52:0 53:-1 54:0 55:-2 56:-4 57:1 58:1 59:0 60:0 
-32.40000000000001 1:0 2:-1 3:0 4:-1 5:-1 6:0 7:3 8:2 9:-2 10:0 11:1 12:0 13:0 14:0 15:0 16:-1 17:0 18:0 19:2 20:1 21:-1 22:1 23:0 24:0 25:0 26:0 27:0 28:-1 29:0 30:0 31:1 32:-1 33:0 34:1 35:0 36:0 37:0 38:0 39:0 40:0 41:-1 42:0 43:0 44:-3 45:1 46:1 47:0 48:0 49:0 50:1 51:0 52:1 53:-2 54:0 55:-2 56:-3 57:2 58:1 59:-1 60:0 
-32.40000000000001 1:0 2:-1 3:0 4:-2 5:1 6:0 7:3 8:2 9:-2 10:0 11:1 12:0 13:0 14:-1 15:0 16:-2 17:1 18:0 19:2 20:0 21:-1 22:0 23:1 24:0 25:0 26:-1 27:0 28:-1 29:0 30:0 31:1 32:-2 33:0 34:0 35:1 36:0 37:0 38:0 39:0 40:0 41:-1 42:0 43:-1 44:-2 45:1 46:0 47:0 48:0 49:0 50:0 51:0 52:2 53:-3 54:0 55:-4 56:-2 57:2 58:0 59:0 60:0 
-31.26147635908588 1:0 2:-1 3:0 4:-3 5:3 6:0 7:4 8:1 9:-3 10:0 11:1 12:0 13:0 14:-1 15:0 16:-2 17:2 18:0 19:3 20:-1 21:-2 22:0 23:1 24:0 25:0 26:0 27:0 28:-1 29:1 30:0 31:1 32:-1 33:-1 34:0 35:0 36:0 37:0 38:0 39:0 40:1 41:-1 42:0 43:-2 44:-1 45:0 46:0 47:0 48:0 49:0 50:1 51:0 52:1 53:-5 54:0 55:-4 56:-1 57:2 58:0 59:0 60:0 
-28.28443794379512 1:0 2:-2 3:1 4:-2 5:4 6:0 7:5 8:0 9:-3 10:0 11:1 12:0 13:0 14:-1 15:1 16:-1 17:3 18:0 19:3 20:0 21:-2 22:0 23:0 24:0 25:0 26:-1 27:1 28:1 29:1 30:0 31:0 32:0 33:-1 34:0 35:0 36:0 37:0 38:0 39:1 40:1 41:-3 42:0 43:-2 44:0 45:1 46:0 47:0 48:0 49:-1 50:0 51:0 52:1 53:-6 54:-1 55:-4 56:0 57:1 58:0 59:-1 60:0 
-22.21113480644233 1:-1 2:-1 3:-1 4:-1 5:6 6:0 7:-1 8:-8 9:0 10:0 11:1 12:0 13:-1 14:-1 15:-1 16:-1 17:2 18:-1 19:-1 20:-2 21:-1 22:0 23:1 24:-1 25:-1 26:0 27:0 28:-1 29:-3 30:-1 31:-1 32:2 33:-1 34:0 35:1 36:-1 37:0 38:0 39:1 40:0 41:-4 42:-1 43:1 44:2 45:0 46:0 47:0 48:-1 49:2 50:1 51:1 52:3 53:-5 54:0 55:2 56:3 57:0 58:0 59:0 60:-1 
-32.40000000000001 1:-1 2:-2 3:-1 4:-2 5:5 6:-1 7:-1 8:-4 9:-1 10:0 11:1 12:0 13:-1 14:-1 15:0 16:-2 17:0 18:-1 19:-1 20:0 21:-1 22:0 23:1 24:0 25:0 26:-1 27:1 28:-1 29:-1 30:-1 31:1 32:0 33:0 34:0 35:0 36:0 37:2 38:0 39:1 40:2 41:-2 42:0 43:2 44:1 45:0 46:0 47:0 48:0 49:2 50:0 51:1 52:2 53:-4 54:0 55:2 56:3 57:-1 58:0 59:0 60:0 
-32.40000000000001 1:-1 2:-1 3:-1 4:-3 5:2 6:-1 7:-2 8:-2 9:-1 10:0 11:1 12:0 13:0 14:-1 15:0 16:-2 17:1 18:-1 19:0 20:-2 21:0 22:0 23:0 24:0 25:2 26:0 27:0 28:1 29:0 30:0 31:1 32:-1 33:0 34:0 35:0 36:0 37:2 38:0 39:0 40:1 41:-2 42:0 43:1 44:1 45:-1 46:0 47:0 48:0 49:1 50:1 51:1 52:0 53:-5 54:1 55:2 56:1 57:-1 58:0 59:-1 60:0 
-32.40000000000001 1:-1 2:-2 3:0 4:-2 5:3 6:-2 7:-1 8:-3 9:0 10:0 11:1 12:0 13:1 14:-1 15:0 16:1 17:2 18:-1 19:0 20:-2 21:0 22:0 23:1 24:0 25:1 26:-1 27:0 28:1 29:0 30:-1 31:0 32:0 33:-1 34:0 35:1 36:0 37:0 38:0 39:1 40:0 41:-3 42:0 43:1 44:0 45:-1 46:0 47:0 48:0 49:0 50:0 51:1 52:-1 53:-3 54:0 55:1 56:1 57:-1 58:0 59:0 60:0 
-32.40000000000001 1:1 2:-1 3:0 4:1 5:3 6:-1 7:0 8:-3 9:0 10:0 11:1 12:0 13:1 14:-1 15:0 16:1 17:1 18:-1 19:0 20:-1 21:-1 22:0 23:1 24:0 25:0 26:0 27:1 28:0 29:-2 30:0 31:1 32:-1 33:-1 34:0 35:0 36:0 37:0 38:0 39:1 40:-1 41:-2 42:0 43:1 44:0 45:-1 46:0 47:0 48:0 49:-1 50:0 51:1 52:-1 53:-1 54:1 55:2 56:2 57:0 58:0 59:0 60:0 
