svm_type c_svc
kernel_type rbf
gamma 6.10352e-005
nr_class 2
total_sv 17
rho -1.87542
label 1 3
nr_sv 14 3
SV
2.186131614914548 1:-12 2:-152 3:2 4:-53 5:-99 6:-21 7:40 8:-134 9:5 10:-14 11:-86 12:-1 13:-12 14:-149 15:2 16:-53 17:-97 18:-21 19:40 20:-132 21:5 22:-14 23:-84 24:-1 25:-13 26:-146 27:2 28:-53 29:-94 30:-21 31:40 32:-129 33:5 34:-14 35:-81 36:-1 37:-13 38:-143 39:2 40:-53 41:-92 42:-22 43:40 44:-128 45:4 46:-14 47:-79 48:-1 49:-13 50:-140 51:2 52:-53 53:-90 54:-22 55:40 56:-126 57:3 58:-14 59:-77 60:-1 
2.859467918259194 1:-8 2:-128 3:-1 4:14 5:-81 6:-20 7:36 8:-103 9:5 10:-15 11:-75 12:0 13:-7 14:-128 15:-1 16:19 17:-86 18:-19 19:34 20:-105 21:5 22:-13 23:-76 24:0 25:-7 26:-129 27:-1 28:21 29:-88 30:-18 31:35 32:-106 33:5 34:-12 35:-76 36:0 37:-7 38:-130 39:-1 40:23 41:-92 42:-17 43:35 44:-107 45:5 46:-10 47:-77 48:0 49:-7 50:-129 51:-1 52:25 53:-94 54:-17 55:35 56:-104 57:5 58:-10 59:-76 60:0 
4.086808472233715 1:-2 2:-151 3:3 4:33 5:-125 6:-14 7:47 8:-123 9:5 10:-5 11:-89 12:-2 13:-1 14:-151 15:2 16:28 17:-120 18:-15 19:46 20:-119 21:4 22:-5 23:-89 24:-2 25:-1 26:-151 27:1 28:23 29:-116 30:-18 31:45 32:-112 33:5 34:-5 35:-89 36:-2 37:-1 38:-151 39:0 40:18 41:-109 42:-20 43:43 44:-103 45:6 46:-5 47:-90 48:-2 49:0 50:-152 51:0 52:14 53:-101 54:-21 55:42 56:-96 57:7 58:-5 59:-90 60:-2 
0.4126235777445146 1:-12 2:-124 3:2 4:-32 5:-65 6:-20 7:36 8:-101 9:5 10:-16 11:-72 12:-1 13:-11 14:-124 15:2 16:-27 17:-64 18:-20 19:35 20:-102 21:6 22:-16 23:-73 24:-1 25:-11 26:-124 27:3 28:-22 29:-64 30:-21 31:34 32:-100 33:6 34:-16 35:-73 36:0 37:-11 38:-125 39:3 40:-16 41:-65 42:-22 43:36 44:-103 45:5 46:-16 47:-74 48:0 49:-10 50:-125 51:1 52:-13 53:-66 54:-21 55:37 56:-103 57:5 58:-16 59:-74 60:0 
67.16985267486506 1:-5 2:-150 3:5 4:31 5:-123 6:-12 7:46 8:-128 9:-7 10:-10 11:-88 12:-2 13:-6 14:-150 15:5 16:31 17:-123 18:-12 19:48 20:-129 21:-1 22:-10 23:-88 24:-2 25:-6 26:-150 27:5 28:31 29:-123 30:-12 31:48 32:-130 33:-1 34:-9 35:-88 36:-2 37:-6 38:-151 39:5 40:31 41:-123 42:-12 43:50 44:-130 45:5 46:-7 47:-89 48:-2 49:-6 50:-151 51:6 52:32 53:-123 54:-11 55:50 56:-130 57:5 58:-6 59:-89 60:-2 
2.071719759333051 1:-6 2:-138 3:3 4:24 5:-116 6:-5 7:32 8:-110 9:1 10:-10 11:-81 12:-1 13:-7 14:-139 15:3 16:26 17:-119 18:-3 19:35 20:-115 21:-7 22:-10 23:-82 24:-1 25:-8 26:-140 27:3 28:26 29:-120 30:-3 31:38 32:-118 33:-7 34:-10 35:-83 36:-1 37:-8 38:-141 39:4 40:27 41:-121 42:-3 43:40 44:-120 45:-6 46:-10 47:-84 48:-1 49:-8 50:-142 51:5 52:27 53:-123 54:-3 55:40 56:-121 57:-6 58:-10 59:-84 60:-1 
12.63282698559912 1:-7 2:-139 3:3 4:26 5:-119 6:-3 7:35 8:-115 9:-7 10:-10 11:-82 12:-1 13:-8 14:-140 15:3 16:26 17:-120 18:-3 19:38 20:-118 21:-7 22:-10 23:-83 24:-1 25:-8 26:-141 27:4 28:27 29:-121 30:-3 31:40 32:-120 33:-6 34:-10 35:-84 36:-1 37:-8 38:-142 39:5 40:27 41:-123 42:-3 43:40 44:-121 45:-6 46:-10 47:-84 48:-1 49:-8 50:-143 51:5 52:28 53:-124 54:-2 55:39 56:-123 57:-5 58:-10 59:-85 60:-1 
0.4905103946685274 1:-5 2:-147 3:5 4:27 5:-129 6:-2 7:37 8:-128 9:-5 10:-10 11:-88 12:-1 13:-4 14:-148 15:6 16:27 17:-130 18:-2 19:37 20:-128 21:-5 22:-10 23:-89 24:-1 25:-4 26:-149 27:6 28:27 29:-130 30:-2 31:37 32:-129 33:-5 34:-10 35:-90 36:-1 37:-4 38:-149 39:5 40:27 41:-130 42:-2 43:38 44:-130 45:-6 46:-10 47:-90 48:-1 49:-4 50:-149 51:5 52:27 53:-130 54:-2 55:38 56:-130 57:-6 58:-10 59:-90 60:-1 
1.371489870903168 1:-4 2:-149 3:6 4:27 5:-130 6:-2 7:37 8:-129 9:-5 10:-10 11:-90 12:-1 13:-4 14:-149 15:5 16:27 17:-130 18:-2 19:38 20:-130 21:-6 22:-10 23:-90 24:-1 25:-4 26:-149 27:5 28:27 29:-130 30:-2 31:38 32:-130 33:-6 34:-10 35:-90 36:-1 37:-5 38:-149 39:6 40:27 41:-131 42:-2 43:36 44:-128 45:-5 46:-10 47:-90 48:-1 49:-5 50:-149 51:6 52:26 53:-130 54:-3 55:35 56:-126 57:-4 58:-10 59:-90 60:-1 
5.777639304152105 1:-8 2:-144 3:7 4:6 5:-110 6:-16 7:42 8:-127 9:7 10:-9 11:-85 12:-1 13:-8 14:-144 15:7 16:4 17:-104 18:-18 19:42 20:-125 21:7 22:-9 23:-85 24:-1 25:-8 26:-144 27:5 28:0 29:-101 30:-21 31:43 32:-125 33:7 34:-9 35:-85 36:-2 37:-8 38:-144 39:3 40:-5 41:-100 42:-23 43:44 44:-125 45:7 46:-9 47:-85 48:-2 49:-8 50:-144 51:1 52:-12 53:-97 54:-25 55:44 56:-125 57:7 58:-9 59:-85 60:-2 
0.3891693198923097 1:-8 2:-144 3:1 4:-12 5:-97 6:-25 7:44 8:-125 9:7 10:-9 11:-85 12:-2 13:-7 14:-144 15:2 16:-23 17:-95 18:-26 19:43 20:-123 21:8 22:-9 23:-85 24:-2 25:-7 26:-144 27:1 28:-30 29:-94 30:-25 31:41 32:-121 33:10 34:-10 35:-85 36:-2 37:-7 38:-144 39:1 40:-33 41:-91 42:-21 43:41 44:-121 45:10 46:-10 47:-85 48:-2 49:-9 50:-145 51:1 52:-38 53:-85 54:-17 55:41 56:-121 57:9 58:-11 59:-85 60:-2 
8.774641576170369 1:-15 2:-148 3:-1 4:-56 5:-84 6:-15 7:39 8:-127 9:6 10:-20 11:-88 12:-1 13:-15 14:-149 15:-1 16:-56 17:-84 18:-15 19:39 20:-127 21:6 22:-19 23:-88 24:-1 25:-16 26:-149 27:-1 28:-55 29:-85 30:-15 31:39 32:-127 33:6 34:-18 35:-88 36:0 37:-17 38:-149 39:-1 40:-54 41:-84 42:-15 43:39 44:-127 45:7 46:-18 47:-87 48:0 49:-17 50:-148 51:0 52:-54 53:-85 54:-15 55:39 56:-126 57:8 58:-18 59:-86 60:0 
3.049455807093641 1:-16 2:-149 3:1 4:-55 5:-86 6:-16 7:39 8:-126 9:9 10:-18 11:-86 12:0 13:-16 14:-149 15:1 16:-55 17:-86 18:-16 19:40 20:-126 21:9 22:-18 23:-86 24:0 25:-16 26:-149 27:1 28:-55 29:-86 30:-16 31:40 32:-125 33:9 34:-18 35:-86 36:0 37:-16 38:-149 39:1 40:-55 41:-86 42:-16 43:40 44:-126 45:9 46:-18 47:-86 48:0 49:-16 50:-149 51:1 52:-55 53:-86 54:-17 55:40 56:-126 57:8 58:-18 59:-86 60:0 
20.99038844918701 1:-15 2:-148 3:-1 4:-58 5:-89 6:-19 7:41 8:-128 9:11 10:-18 11:-86 12:0 13:-14 14:-148 15:-1 16:-58 17:-89 18:-19 19:41 20:-128 21:11 22:-18 23:-86 24:0 25:-14 26:-148 27:-1 28:-58 29:-89 30:-19 31:41 32:-128 33:11 34:-18 35:-86 36:0 37:-14 38:-148 39:-1 40:-58 41:-89 42:-19 43:41 44:-128 45:11 46:-18 47:-86 48:0 49:-14 50:-148 51:-1 52:-58 53:-89 54:-20 55:41 56:-128 57:11 58:-18 59:-86 60:0 
-38.41177523364856 1:-14 2:-148 3:-1 4:-58 5:-89 6:-19 7:41 8:-128 9:11 10:-18 11:-86 12:0 13:-14 14:-148 15:-1 16:-58 17:-89 18:-20 19:41 20:-128 21:11 22:-18 23:-86 24:0 25:-14 26:-148 27:-1 28:-54 29:-88 30:-21 31:42 32:-128 33:11 34:-18 35:-86 36:0 37:-14 38:-148 39:1 40:-47 41:-85 42:-22 43:42 44:-128 45:11 46:-18 47:-86 48:0 49:-14 50:-148 51:1 52:-40 53:-83 54:-22 55:42 56:-128 57:11 58:-18 59:-86 60:0 
-21.57772168548749 1:-9 2:-148 3:0 4:29 5:-104 6:-18 7:42 8:-123 9:10 10:-13 11:-86 12:0 13:-8 14:-148 15:0 16:29 17:-105 18:-18 19:46 20:-123 21:9 22:-13 23:-86 24:0 25:-8 26:-149 27:0 28:24 29:-110 30:-17 31:47 32:-123 33:9 34:-12 35:-87 36:0 37:-8 38:-149 39:0 40:26 41:-113 42:-16 43:47 44:-121 45:9 46:-11 47:-87 48:-1 49:-7 50:-150 51:1 52:27 53:-115 54:-16 55:44 56:-119 57:8 58:-11 59:-88 60:-1 
-72.27322880588027 1:-6 2:-150 3:4 4:31 5:-122 6:-12 7:43 8:-127 9:-10 10:-10 11:-88 12:-1 13:-6 14:-150 15:4 16:30 17:-123 18:-11 19:45 20:-127 21:-8 22:-10 23:-88 24:-1 25:-5 26:-150 27:4 28:30 29:-123 30:-12 31:46 32:-128 33:-7 34:-10 35:-88 36:-1 37:-5 38:-150 39:5 40:31 41:-123 42:-12 43:46 44:-128 45:-7 46:-10 47:-88 48:-2 49:-6 50:-150 51:5 52:31 53:-123 54:-12 55:48 56:-129 57:-1 58:-10 59:-88 60:-2 
