svm_type c_svc
kernel_type rbf
gamma 6.10352e-005
nr_class 2
total_sv 91
rho 19.7705
label 1 3
nr_sv 33 58
SV
177.8630147568167 1:0 2:0 3:0 4:0 5:1 6:0 7:0 8:-1 9:0 10:0 11:0 12:0 13:0 14:0 15:0 16:0 17:0 18:0 19:0 20:0 21:-1 22:0 23:0 24:0 25:0 26:0 27:0 28:0 29:0 30:0 31:0 32:0 33:-1 34:0 35:0 36:0 37:0 38:0 39:0 40:-1 41:0 42:0 43:0 44:0 45:-1 46:0 47:0 48:0 49:0 50:0 51:0 52:-1 53:-1 54:0 55:0 56:0 57:-1 58:0 59:0 60:0 
177.8630147568167 1:0 2:0 3:0 4:0 5:0 6:0 7:0 8:0 9:0 10:0 11:0 12:0 13:0 14:0 15:0 16:0 17:0 18:0 19:0 20:0 21:0 22:0 23:0 24:0 25:0 26:0 27:0 28:-1 29:0 30:0 31:0 32:0 33:0 34:0 35:0 36:0 37:0 38:0 39:0 40:-1 41:-1 42:0 43:0 44:0 45:0 46:0 47:0 48:0 49:0 50:0 51:0 52:-1 53:-1 54:0 55:0 56:0 57:0 58:0 59:0 60:0 
177.8630147568167 1:0 2:0 3:0 4:0 5:0 6:0 7:0 8:0 9:0 10:0 11:0 12:0 13:0 14:0 15:0 16:-1 17:0 18:0 19:0 20:0 21:0 22:0 23:0 24:0 25:0 26:0 27:0 28:-1 29:-1 30:0 31:0 32:0 33:0 34:0 35:0 36:0 37:0 38:0 39:0 40:-1 41:-1 42:0 43:0 44:0 45:0 46:0 47:0 48:0 49:0 50:0 51:0 52:-1 53:-1 54:0 55:0 56:0 57:0 58:0 59:0 60:0 
177.8630147568167 1:0 2:0 3:0 4:-1 5:0 6:0 7:0 8:0 9:0 10:0 11:0 12:0 13:0 14:0 15:0 16:-1 17:-1 18:0 19:0 20:0 21:0 22:0 23:0 24:0 25:0 26:0 27:0 28:-1 29:-1 30:0 31:0 32:0 33:0 34:0 35:0 36:0 37:0 38:0 39:0 40:-1 41:-1 42:0 43:0 44:0 45:0 46:0 47:0 48:0 49:0 50:-1 51:1 52:0 53:0 54:0 55:0 56:0 57:0 58:0 59:0 60:0 
177.8630147568167 1:0 2:0 3:0 4:0 5:-1 6:0 7:0 8:0 9:0 10:0 11:0 12:0 13:0 14:0 15:0 16:0 17:0 18:0 19:0 20:0 21:0 22:0 23:0 24:0 25:0 26:0 27:0 28:0 29:0 30:0 31:0 32:0 33:0 34:0 35:0 36:0 37:0 38:0 39:0 40:0 41:0 42:0 43:0 44:0 45:0 46:0 47:0 48:0 49:0 50:0 51:0 52:0 53:0 54:0 55:0 56:0 57:0 58:0 59:0 60:0 
177.8630147568167 1:0 2:0 3:0 4:0 5:0 6:0 7:0 8:0 9:0 10:0 11:0 12:0 13:0 14:0 15:0 16:0 17:0 18:0 19:0 20:0 21:0 22:0 23:0 24:0 25:0 26:0 27:0 28:0 29:0 30:0 31:0 32:0 33:0 34:0 35:0 36:0 37:0 38:0 39:0 40:0 41:0 42:0 43:0 44:0 45:0 46:0 47:0 48:0 49:0 50:0 51:0 52:0 53:0 54:0 55:0 56:0 57:0 58:0 59:0 60:0 
177.8630147568167 1:0 2:0 3:0 4:-1 5:0 6:0 7:0 8:0 9:0 10:0 11:0 12:0 13:0 14:0 15:0 16:-1 17:0 18:0 19:0 20:0 21:0 22:0 23:0 24:0 25:0 26:0 27:0 28:-1 29:0 30:0 31:0 32:0 33:0 34:0 35:0 36:0 37:0 38:0 39:0 40:-1 41:0 42:0 43:0 44:0 45:0 46:0 47:0 48:0 49:0 50:0 51:0 52:0 53:-1 54:-1 55:0 56:0 57:0 58:0 59:0 60:0 
177.8630147568167 1:0 2:0 3:0 4:-1 5:0 6:0 7:0 8:0 9:0 10:0 11:0 12:0 13:0 14:0 15:0 16:-1 17:0 18:0 19:0 20:0 21:0 22:0 23:0 24:0 25:0 26:0 27:0 28:-1 29:0 30:0 31:0 32:0 33:0 34:0 35:0 36:0 37:0 38:0 39:0 40:0 41:-1 42:-1 43:0 44:0 45:0 46:0 47:0 48:0 49:0 50:0 51:0 52:0 53:-1 54:-1 55:0 56:0 57:0 58:0 59:0 60:0 
177.8630147568167 1:0 2:0 3:0 4:-1 5:0 6:0 7:0 8:0 9:0 10:0 11:0 12:0 13:0 14:0 15:0 16:-1 17:0 18:0 19:0 20:0 21:0 22:0 23:0 24:0 25:0 26:0 27:0 28:0 29:-1 30:-1 31:0 32:0 33:0 34:0 35:0 36:0 37:0 38:0 39:0 40:0 41:-1 42:-1 43:0 44:0 45:0 46:0 47:0 48:0 49:1 50:0 51:0 52:0 53:-1 54:-1 55:0 56:0 57:0 58:0 59:0 60:0 
118.1026708028236 1:0 2:0 3:0 4:0 5:-8 6:-3 7:1 8:-4 9:-3 10:0 11:0 12:0 13:1 14:0 15:0 16:0 17:-2 18:-2 19:0 20:1 21:0 22:0 23:0 24:0 25:1 26:0 27:0 28:-1 29:4 30:1 31:0 32:1 33:0 34:0 35:0 36:0 37:1 38:0 39:0 40:0 41:1 42:-1 43:0 44:1 45:0 46:0 47:0 48:0 49:1 50:0 51:0 52:-1 53:7 54:2 55:0 56:1 57:0 58:0 59:0 60:0 
177.8630147568167 1:0 2:0 3:0 4:0 5:1 6:0 7:0 8:-1 9:0 10:0 11:0 12:0 13:0 14:0 15:0 16:0 17:0 18:0 19:0 20:0 21:-1 22:0 23:0 24:0 25:0 26:0 27:0 28:0 29:0 30:0 31:0 32:0 33:-1 34:0 35:0 36:0 37:0 38:0 39:0 40:-1 41:0 42:0 43:0 44:0 45:-1 46:0 47:0 48:0 49:0 50:0 51:0 52:-1 53:-1 54:0 55:0 56:0 57:-1 58:0 59:0 60:0 
177.8630147568167 1:0 2:0 3:0 4:0 5:0 6:0 7:0 8:0 9:0 10:0 11:0 12:0 13:0 14:0 15:0 16:0 17:0 18:0 19:0 20:0 21:0 22:0 23:0 24:0 25:0 26:0 27:0 28:-1 29:0 30:0 31:0 32:0 33:0 34:0 35:0 36:0 37:0 38:0 39:0 40:-1 41:-1 42:0 43:0 44:0 45:0 46:0 47:0 48:0 49:0 50:0 51:0 52:-1 53:-1 54:0 55:0 56:0 57:0 58:0 59:0 60:0 
177.8630147568167 1:0 2:0 3:0 4:0 5:0 6:0 7:0 8:0 9:0 10:0 11:0 12:0 13:0 14:0 15:0 16:-1 17:0 18:0 19:0 20:0 21:0 22:0 23:0 24:0 25:0 26:0 27:0 28:-1 29:-1 30:0 31:0 32:0 33:0 34:0 35:0 36:0 37:0 38:0 39:0 40:-1 41:-1 42:0 43:0 44:0 45:0 46:0 47:0 48:0 49:0 50:0 51:0 52:-1 53:-1 54:0 55:0 56:0 57:0 58:0 59:0 60:0 
177.8630147568167 1:0 2:0 3:0 4:-1 5:0 6:0 7:0 8:0 9:0 10:0 11:0 12:0 13:0 14:0 15:0 16:-1 17:-1 18:0 19:0 20:0 21:0 22:0 23:0 24:0 25:0 26:0 27:0 28:-1 29:-1 30:0 31:0 32:0 33:0 34:0 35:0 36:0 37:0 38:0 39:0 40:-1 41:-1 42:0 43:0 44:0 45:0 46:0 47:0 48:0 49:0 50:-1 51:1 52:0 53:0 54:0 55:0 56:0 57:0 58:0 59:0 60:0 
46.6849347989853 1:0 2:0 3:0 4:-1 5:-2 6:0 7:0 8:0 9:0 10:0 11:0 12:0 13:0 14:-1 15:1 16:0 17:-1 18:0 19:0 20:0 21:0 22:0 23:0 24:0 25:0 26:-1 27:1 28:0 29:0 30:0 31:0 32:0 33:0 34:0 35:0 36:0 37:0 38:-1 39:1 40:0 41:0 42:0 43:0 44:0 45:0 46:0 47:0 48:0 49:0 50:-1 51:1 52:0 53:0 54:0 55:0 56:0 57:0 58:0 59:0 60:0 
177.8630147568167 1:0 2:0 3:0 4:0 5:-1 6:0 7:0 8:0 9:0 10:0 11:0 12:0 13:0 14:0 15:0 16:0 17:0 18:0 19:0 20:0 21:0 22:0 23:0 24:0 25:0 26:0 27:0 28:0 29:0 30:0 31:0 32:0 33:0 34:0 35:0 36:0 37:0 38:0 39:0 40:0 41:0 42:0 43:0 44:0 45:0 46:0 47:0 48:0 49:0 50:0 51:0 52:0 53:0 54:0 55:0 56:0 57:0 58:0 59:0 60:0 
177.8630147568167 1:0 2:0 3:0 4:0 5:0 6:0 7:0 8:0 9:0 10:0 11:0 12:0 13:0 14:0 15:0 16:0 17:0 18:0 19:0 20:0 21:0 22:0 23:0 24:0 25:0 26:0 27:0 28:0 29:0 30:0 31:0 32:0 33:0 34:0 35:0 36:0 37:0 38:0 39:0 40:0 41:0 42:0 43:0 44:0 45:0 46:0 47:0 48:0 49:0 50:0 51:0 52:0 53:0 54:0 55:0 56:0 57:0 58:0 59:0 60:0 
177.8630147568167 1:0 2:0 3:0 4:-1 5:0 6:0 7:0 8:0 9:0 10:0 11:0 12:0 13:0 14:0 15:0 16:-1 17:0 18:0 19:0 20:0 21:0 22:0 23:0 24:0 25:0 26:0 27:0 28:-1 29:0 30:0 31:0 32:0 33:0 34:0 35:0 36:0 37:0 38:0 39:0 40:-1 41:0 42:0 43:0 44:0 45:0 46:0 47:0 48:0 49:0 50:0 51:0 52:0 53:-1 54:-1 55:0 56:0 57:0 58:0 59:0 60:0 
177.8630147568167 1:0 2:0 3:0 4:-1 5:0 6:0 7:0 8:0 9:0 10:0 11:0 12:0 13:0 14:0 15:0 16:-1 17:0 18:0 19:0 20:0 21:0 22:0 23:0 24:0 25:0 26:0 27:0 28:-1 29:0 30:0 31:0 32:0 33:0 34:0 35:0 36:0 37:0 38:0 39:0 40:0 41:-1 42:-1 43:0 44:0 45:0 46:0 47:0 48:0 49:0 50:0 51:0 52:0 53:-1 54:-1 55:0 56:0 57:0 58:0 59:0 60:0 
177.8630147568167 1:0 2:0 3:0 4:-1 5:0 6:0 7:0 8:0 9:0 10:0 11:0 12:0 13:0 14:0 15:0 16:-1 17:0 18:0 19:0 20:0 21:0 22:0 23:0 24:0 25:0 26:0 27:0 28:0 29:-1 30:-1 31:0 32:0 33:0 34:0 35:0 36:0 37:0 38:0 39:0 40:0 41:-1 42:-1 43:0 44:0 45:0 46:0 47:0 48:0 49:1 50:0 51:0 52:0 53:-1 54:-1 55:0 56:0 57:0 58:0 59:0 60:0 
115.7225472926678 1:0 2:0 3:0 4:0 5:-8 6:-3 7:1 8:-4 9:-3 10:0 11:0 12:0 13:1 14:0 15:0 16:0 17:-2 18:-2 19:0 20:1 21:0 22:0 23:0 24:0 25:1 26:0 27:0 28:-1 29:4 30:1 31:0 32:1 33:0 34:0 35:0 36:0 37:1 38:0 39:0 40:0 41:1 42:-1 43:0 44:1 45:0 46:0 47:0 48:0 49:1 50:0 51:0 52:-1 53:7 54:2 55:0 56:1 57:0 58:0 59:0 60:0 
93.629857876766 1:0 2:0 3:0 4:0 5:-4 6:-3 7:0 8:0 9:0 10:0 11:0 12:0 13:0 14:0 15:0 16:1 17:-7 18:-5 19:0 20:0 21:0 22:0 23:0 24:0 25:0 26:0 27:0 28:0 29:-1 30:-2 31:0 32:0 33:0 34:0 35:0 36:0 37:0 38:0 39:0 40:-1 41:5 42:3 43:0 44:0 45:0 46:0 47:0 48:0 49:0 50:0 51:0 52:-1 53:11 54:7 55:0 56:0 57:0 58:0 59:0 60:0 
96.31012933197324 1:0 2:0 3:0 4:-2 5:15 6:3 7:-3 8:9 9:0 10:0 11:0 12:0 13:0 14:0 15:0 16:-3 17:16 18:4 19:-2 20:4 21:0 22:0 23:0 24:0 25:0 26:0 27:0 28:-3 29:16 30:4 31:0 32:-2 33:0 34:0 35:0 36:0 37:0 38:0 39:0 40:2 41:-6 42:-4 43:3 44:-6 45:-1 46:0 47:0 48:0 49:0 50:0 51:0 52:6 53:-41 54:-11 55:5 56:-7 57:-2 58:0 59:0 60:0 
177.8630147568167 1:0 2:0 3:0 4:0 5:1 6:0 7:0 8:-1 9:0 10:0 11:0 12:0 13:0 14:0 15:0 16:0 17:0 18:0 19:0 20:0 21:-1 22:0 23:0 24:0 25:0 26:0 27:0 28:0 29:0 30:0 31:0 32:0 33:-1 34:0 35:0 36:0 37:0 38:0 39:0 40:-1 41:0 42:0 43:0 44:0 45:-1 46:0 47:0 48:0 49:0 50:0 51:0 52:-1 53:-1 54:0 55:0 56:0 57:-1 58:0 59:0 60:0 
177.8630147568167 1:0 2:0 3:0 4:0 5:0 6:0 7:0 8:0 9:0 10:0 11:0 12:0 13:0 14:0 15:0 16:0 17:0 18:0 19:0 20:0 21:0 22:0 23:0 24:0 25:0 26:0 27:0 28:-1 29:0 30:0 31:0 32:0 33:0 34:0 35:0 36:0 37:0 38:0 39:0 40:-1 41:-1 42:0 43:0 44:0 45:0 46:0 47:0 48:0 49:0 50:0 51:0 52:-1 53:-1 54:0 55:0 56:0 57:0 58:0 59:0 60:0 
177.8630147568167 1:0 2:0 3:0 4:0 5:0 6:0 7:0 8:0 9:0 10:0 11:0 12:0 13:0 14:0 15:0 16:-1 17:0 18:0 19:0 20:0 21:0 22:0 23:0 24:0 25:0 26:0 27:0 28:-1 29:-1 30:0 31:0 32:0 33:0 34:0 35:0 36:0 37:0 38:0 39:0 40:-1 41:-1 42:0 43:0 44:0 45:0 46:0 47:0 48:0 49:0 50:0 51:0 52:-1 53:-1 54:0 55:0 56:0 57:0 58:0 59:0 60:0 
177.8630147568167 1:0 2:0 3:0 4:-1 5:0 6:0 7:0 8:0 9:0 10:0 11:0 12:0 13:0 14:0 15:0 16:-1 17:-1 18:0 19:0 20:0 21:0 22:0 23:0 24:0 25:0 26:0 27:0 28:-1 29:-1 30:0 31:0 32:0 33:0 34:0 35:0 36:0 37:0 38:0 39:0 40:-1 41:-1 42:0 43:0 44:0 45:0 46:0 47:0 48:0 49:0 50:-1 51:1 52:0 53:0 54:0 55:0 56:0 57:0 58:0 59:0 60:0 
83.7898768203512 1:0 2:0 3:0 4:-1 5:-2 6:0 7:0 8:0 9:0 10:0 11:0 12:0 13:0 14:-1 15:1 16:0 17:-1 18:0 19:0 20:0 21:0 22:0 23:0 24:0 25:0 26:-1 27:1 28:0 29:0 30:0 31:0 32:0 33:0 34:0 35:0 36:0 37:0 38:-1 39:1 40:0 41:0 42:0 43:0 44:0 45:0 46:0 47:0 48:0 49:0 50:-1 51:1 52:0 53:0 54:0 55:0 56:0 57:0 58:0 59:0 60:0 
177.8630147568167 1:0 2:0 3:0 4:0 5:-1 6:0 7:0 8:0 9:0 10:0 11:0 12:0 13:0 14:0 15:0 16:0 17:0 18:0 19:0 20:0 21:0 22:0 23:0 24:0 25:0 26:0 27:0 28:0 29:0 30:0 31:0 32:0 33:0 34:0 35:0 36:0 37:0 38:0 39:0 40:0 41:0 42:0 43:0 44:0 45:0 46:0 47:0 48:0 49:0 50:0 51:0 52:0 53:0 54:0 55:0 56:0 57:0 58:0 59:0 60:0 
177.8630147568167 1:0 2:0 3:0 4:0 5:0 6:0 7:0 8:0 9:0 10:0 11:0 12:0 13:0 14:0 15:0 16:0 17:0 18:0 19:0 20:0 21:0 22:0 23:0 24:0 25:0 26:0 27:0 28:0 29:0 30:0 31:0 32:0 33:0 34:0 35:0 36:0 37:0 38:0 39:0 40:0 41:0 42:0 43:0 44:0 45:0 46:0 47:0 48:0 49:0 50:0 51:0 52:0 53:0 54:0 55:0 56:0 57:0 58:0 59:0 60:0 
177.8630147568167 1:0 2:0 3:0 4:-1 5:0 6:0 7:0 8:0 9:0 10:0 11:0 12:0 13:0 14:0 15:0 16:-1 17:0 18:0 19:0 20:0 21:0 22:0 23:0 24:0 25:0 26:0 27:0 28:-1 29:0 30:0 31:0 32:0 33:0 34:0 35:0 36:0 37:0 38:0 39:0 40:-1 41:0 42:0 43:0 44:0 45:0 46:0 47:0 48:0 49:0 50:0 51:0 52:0 53:-1 54:-1 55:0 56:0 57:0 58:0 59:0 60:0 
177.8630147568167 1:0 2:0 3:0 4:-1 5:0 6:0 7:0 8:0 9:0 10:0 11:0 12:0 13:0 14:0 15:0 16:-1 17:0 18:0 19:0 20:0 21:0 22:0 23:0 24:0 25:0 26:0 27:0 28:-1 29:0 30:0 31:0 32:0 33:0 34:0 35:0 36:0 37:0 38:0 39:0 40:0 41:-1 42:-1 43:0 44:0 45:0 46:0 47:0 48:0 49:0 50:0 51:0 52:0 53:-1 54:-1 55:0 56:0 57:0 58:0 59:0 60:0 
177.8630147568167 1:0 2:0 3:0 4:-1 5:0 6:0 7:0 8:0 9:0 10:0 11:0 12:0 13:0 14:0 15:0 16:-1 17:0 18:0 19:0 20:0 21:0 22:0 23:0 24:0 25:0 26:0 27:0 28:0 29:-1 30:-1 31:0 32:0 33:0 34:0 35:0 36:0 37:0 38:0 39:0 40:0 41:-1 42:-1 43:0 44:0 45:0 46:0 47:0 48:0 49:1 50:0 51:0 52:0 53:-1 54:-1 55:0 56:0 57:0 58:0 59:0 60:0 
-134.1369881042062 1:0 2:0 3:0 4:-1 5:-1 6:0 7:-4 8:0 9:-1 10:0 11:0 12:0 13:0 14:0 15:0 16:-1 17:-2 18:0 19:-2 20:-1 21:-1 22:0 23:0 24:0 25:0 26:0 27:0 28:0 29:-2 30:0 31:0 32:-1 33:-1 34:0 35:0 36:0 37:0 38:0 39:0 40:0 41:-2 42:-1 43:2 44:0 45:-1 46:0 47:0 48:0 49:0 50:0 51:0 52:1 53:3 54:-2 55:6 56:2 57:1 58:0 59:0 60:0 
-0.1303182077791789 1:0 2:0 3:0 4:-2 5:-3 6:1 7:-5 8:-2 9:-2 10:0 11:0 12:0 13:0 14:0 15:0 16:-1 17:-3 18:1 19:-3 20:-2 21:-2 22:0 23:0 24:0 25:0 26:0 27:0 28:-1 29:-3 30:0 31:-1 32:-1 33:-2 34:0 35:0 36:0 37:0 38:0 39:0 40:0 41:2 42:-1 43:3 44:1 45:0 46:0 47:0 48:0 49:0 50:0 51:0 52:2 53:6 54:-1 55:6 56:2 57:2 58:0 59:0 60:0 
-8.736998336032583 1:0 2:0 3:0 4:-2 5:-5 6:1 7:-5 8:-3 9:-2 10:0 11:0 12:0 13:0 14:0 15:0 16:-2 17:-5 18:0 19:-3 20:-2 21:-2 22:0 23:0 24:0 25:0 26:0 27:0 28:-1 29:0 30:-1 31:1 32:0 33:0 34:0 35:0 36:0 37:0 38:0 39:0 40:1 41:4 42:-1 43:4 44:1 45:2 46:0 47:0 48:0 49:0 50:0 51:0 52:1 53:4 54:-1 55:5 56:4 57:2 58:0 59:0 60:0 
-122.3724591290942 1:1 2:0 3:0 4:-2 5:-7 6:0 7:-5 8:-4 9:-3 10:0 11:0 12:0 13:1 14:0 15:0 16:-1 17:-2 18:-1 19:-1 20:-2 21:-1 22:0 23:0 24:0 25:1 26:0 27:0 28:1 29:2 30:-1 31:2 32:-1 33:1 34:0 35:0 36:0 37:1 38:0 39:0 40:1 41:2 42:-1 43:3 44:2 45:1 46:0 47:0 48:0 49:0 50:0 51:0 52:1 53:1 54:-1 55:5 56:5 57:1 58:0 59:0 60:0 
-22.51321491743685 1:1 2:-1 3:0 4:0 5:1 6:0 7:-1 8:-8 9:1 10:0 11:1 12:0 13:0 14:-1 15:0 16:0 17:0 18:0 19:1 20:-5 21:1 22:0 23:1 24:0 25:0 26:0 27:0 28:0 29:0 30:0 31:1 32:1 33:0 34:0 35:0 36:0 37:0 38:0 39:0 40:0 41:0 42:0 43:1 44:6 45:-1 46:0 47:0 48:0 49:0 50:0 51:0 52:0 53:-1 54:0 55:1 56:9 57:-1 58:0 59:0 60:0 
-134.1369881042062 1:0 2:-1 3:2 4:0 5:1 6:0 7:2 8:-4 9:-1 10:0 11:1 12:0 13:-1 14:-1 15:1 16:0 17:0 18:0 19:1 20:1 21:-1 22:0 23:1 24:0 25:-1 26:0 27:-1 28:0 29:0 30:0 31:0 32:2 33:0 34:0 35:0 36:0 37:-1 38:1 39:-1 40:0 41:0 42:0 43:-1 44:1 45:0 46:0 47:0 48:0 49:-1 50:1 51:-1 52:0 53:-1 54:0 55:-2 56:1 57:1 58:1 59:0 60:0 
-0.125941669673801 1:0 2:-2 3:2 4:0 5:0 6:0 7:2 8:0 9:-2 10:0 11:1 12:0 13:0 14:-1 15:0 16:0 17:0 18:0 19:1 20:1 21:-1 22:0 23:0 24:0 25:0 26:0 27:0 28:0 29:0 30:0 31:0 32:0 33:-1 34:0 35:0 36:0 37:0 38:0 39:0 40:0 41:-1 42:0 43:-1 44:0 45:0 46:1 47:0 48:0 49:0 50:1 51:0 52:0 53:-1 54:0 55:-2 56:-1 57:0 58:0 59:-1 60:0 
-2.885431821429153 1:0 2:-2 3:0 4:9 5:1 6:-4 7:9 8:0 9:1 10:0 11:1 12:0 13:0 14:-1 15:0 16:3 17:2 18:-2 19:4 20:1 21:1 22:0 23:1 24:0 25:0 26:-1 27:-1 28:-2 29:1 30:0 31:-1 32:2 33:-1 34:0 35:0 36:0 37:-1 38:0 39:0 40:-5 41:-1 42:2 43:-3 44:0 45:-1 46:0 47:0 48:0 49:-1 50:0 51:0 52:-8 53:-3 54:3 55:-6 56:-2 57:-1 58:0 59:0 60:0 
-15.68616182559422 1:-1 2:-1 3:0 4:4 5:3 6:-2 7:6 8:3 9:1 10:1 11:1 12:0 13:-1 14:-1 15:0 16:1 17:1 18:-1 19:3 20:1 21:1 22:1 23:1 24:0 25:0 26:0 27:-1 28:-1 29:2 30:-1 31:-1 32:1 33:1 34:1 35:0 36:0 37:0 38:0 39:-1 40:-2 41:0 42:1 43:-2 44:-1 45:-1 46:1 47:0 48:0 49:0 50:1 51:-2 52:-4 53:-2 54:1 55:-5 56:-4 57:-3 58:0 59:0 60:0 
-8.918590496564052 1:-1 2:-2 3:1 4:3 5:2 6:-2 7:6 8:3 9:2 10:1 11:1 12:0 13:0 14:-1 15:0 16:1 17:3 18:-2 19:2 20:3 21:2 22:1 23:0 24:0 25:0 26:-1 27:0 28:0 29:1 30:0 31:1 32:1 33:0 34:1 35:0 36:0 37:0 38:0 39:-1 40:-2 41:-1 42:0 43:-2 44:-2 45:-2 46:0 47:0 48:0 49:1 50:1 51:-2 52:-5 53:-5 54:0 55:-9 56:-2 57:-2 58:0 59:-1 60:0 
-5.684649538830604 1:0 2:-1 3:-1 4:0 5:8 6:0 7:4 8:9 9:1 10:0 11:1 12:0 13:0 14:0 15:-1 16:-1 17:4 18:0 19:2 20:5 21:0 22:0 23:0 24:0 25:-1 26:0 27:-1 28:-1 29:0 30:0 31:0 32:0 33:-1 34:0 35:0 36:0 37:-1 38:0 39:0 40:-1 41:-5 42:0 43:-2 44:-3 45:0 46:0 47:0 48:0 49:-1 50:0 51:0 52:-1 53:-10 54:-1 55:-4 56:-9 57:0 58:0 59:0 60:0 
-8.167308161341113 1:0 2:0 3:-1 4:-1 5:9 6:1 7:3 8:9 9:-1 10:0 11:0 12:0 13:0 14:0 15:0 16:-1 17:4 18:1 19:1 20:6 21:0 22:0 23:0 24:0 25:0 26:0 27:0 28:-1 29:-1 30:0 31:-1 32:0 33:0 34:0 35:0 36:0 37:0 38:0 39:0 40:-1 41:-6 42:-1 43:-2 44:-6 45:0 46:0 47:0 48:0 49:0 50:0 51:0 52:1 53:-8 54:-1 55:-2 56:-10 57:-1 58:0 59:0 60:0 
-0.5093876222585617 1:-1 2:-1 3:1 4:-3 5:6 6:0 7:-2 8:7 9:-1 10:0 11:0 12:0 13:-1 14:-1 15:1 16:-1 17:4 18:0 19:-2 20:3 21:-2 22:0 23:0 24:0 25:-1 26:0 27:-1 28:0 29:-1 30:0 31:0 32:-1 33:-2 34:0 35:0 36:0 37:-1 38:0 39:-1 40:1 41:-6 42:0 43:1 44:-5 45:0 46:0 47:0 48:0 49:0 50:0 51:-2 52:1 53:-6 54:0 55:0 56:-5 57:2 58:0 59:0 60:0 
-0.8156906270476547 1:-1 2:0 3:0 4:-3 5:3 6:0 7:-1 8:3 9:-4 10:0 11:0 12:0 13:-1 14:0 15:0 16:-2 17:-2 18:0 19:0 20:-1 21:-2 22:0 23:0 24:0 25:0 26:0 27:-1 28:-2 29:-2 30:0 31:-1 32:-1 33:0 34:0 35:0 36:0 37:1 38:0 39:-1 40:1 41:-1 42:0 43:0 44:-1 45:1 46:0 47:0 48:0 49:2 50:0 51:-1 52:4 53:-1 54:0 55:0 56:0 57:3 58:1 59:0 60:0 
-134.1369881042062 1:0 2:0 3:-2 4:-1 5:-1 6:0 7:0 8:-2 9:-2 10:0 11:0 12:-1 13:1 14:0 15:-2 16:-1 17:0 18:0 19:0 20:0 21:-1 22:0 23:0 24:-1 25:1 26:0 27:0 28:0 29:0 30:0 31:0 32:0 33:0 34:0 35:0 36:0 37:1 38:0 39:1 40:-1 41:0 42:0 43:0 44:0 45:0 46:0 47:0 48:0 49:1 50:0 51:2 52:-1 53:0 54:0 55:0 56:0 57:1 58:0 59:0 60:0 
-134.1369881042062 1:0 2:0 3:-3 4:-1 5:0 6:0 7:0 8:0 9:-1 10:0 11:0 12:-1 13:0 14:0 15:-1 16:0 17:0 18:0 19:0 20:0 21:0 22:0 23:0 24:0 25:0 26:0 27:0 28:-1 29:0 30:0 31:0 32:0 33:0 34:0 35:0 36:0 37:0 38:0 39:1 40:-1 41:0 42:0 43:0 44:0 45:1 46:0 47:0 48:0 49:0 50:0 51:1 52:-1 53:0 54:0 55:0 56:0 57:0 58:0 59:0 60:0 
-134.1369881042062 1:0 2:0 3:-1 4:0 5:-1 6:0 7:0 8:0 9:-1 10:0 11:0 12:0 13:0 14:0 15:0 16:-1 17:-1 18:0 19:0 20:0 21:-1 22:0 23:0 24:0 25:0 26:0 27:1 28:-1 29:-1 30:0 31:0 32:0 33:0 34:0 35:0 36:0 37:0 38:0 39:1 40:-1 41:-1 42:0 43:0 44:0 45:-1 46:0 47:0 48:0 49:0 50:0 51:1 52:0 53:0 54:0 55:0 56:-1 57:-1 58:0 59:0 60:0 
-134.1369881042062 1:0 2:0 3:0 4:-1 5:-1 6:0 7:0 8:0 9:-1 10:0 11:0 12:0 13:0 14:0 15:1 16:-1 17:-1 18:0 19:0 20:0 21:0 22:0 23:0 24:0 25:0 26:0 27:1 28:-1 29:-1 30:0 31:0 32:0 33:-1 34:0 35:0 36:0 37:0 38:0 39:1 40:0 41:0 42:0 43:0 44:-1 45:-1 46:0 47:0 48:0 49:0 50:0 51:1 52:0 53:0 54:-1 55:0 56:-1 57:-1 58:0 59:0 60:0 
-134.1369881042062 1:0 2:0 3:0 4:-1 5:-1 6:0 7:-1 8:0 9:1 10:0 11:0 12:0 13:0 14:0 15:0 16:-1 17:-1 18:0 19:-1 20:0 21:0 22:0 23:0 24:0 25:0 26:0 27:0 28:0 29:0 30:0 31:-1 32:-1 33:0 34:0 35:0 36:0 37:0 38:0 39:0 40:0 41:0 42:-1 43:-1 44:-1 45:0 46:0 47:0 48:0 49:0 50:0 51:0 52:0 53:0 54:-1 55:0 56:-1 57:-1 58:0 59:0 60:0 
-134.1369881042062 1:0 2:0 3:0 4:-1 5:-1 6:0 7:-1 8:0 9:0 10:0 11:0 12:0 13:0 14:0 15:0 16:0 17:0 18:0 19:-1 20:-1 21:0 22:0 23:0 24:0 25:0 26:0 27:0 28:0 29:0 30:-1 31:-1 32:-1 33:0 34:0 35:0 36:0 37:0 38:0 39:0 40:0 41:0 42:-1 43:0 44:-1 45:-1 46:0 47:0 48:0 49:0 50:0 51:0 52:0 53:-1 54:-1 55:0 56:0 57:-2 58:0 59:0 60:0 
-134.1369881042062 1:0 2:0 3:0 4:-1 5:-1 6:0 7:-4 8:0 9:-1 10:0 11:0 12:0 13:0 14:0 15:0 16:-1 17:-2 18:0 19:-2 20:-1 21:-1 22:0 23:0 24:0 25:0 26:0 27:0 28:0 29:-2 30:0 31:0 32:-1 33:-1 34:0 35:0 36:0 37:0 38:0 39:0 40:0 41:-2 42:-1 43:2 44:0 45:-1 46:0 47:0 48:0 49:0 50:0 51:0 52:1 53:3 54:-2 55:6 56:2 57:1 58:0 59:0 60:0 
-4.637531044155442 1:0 2:0 3:0 4:-2 5:-5 6:1 7:-5 8:-3 9:-2 10:0 11:0 12:0 13:0 14:0 15:0 16:-2 17:-5 18:0 19:-3 20:-2 21:-2 22:0 23:0 24:0 25:0 26:0 27:0 28:-1 29:0 30:-1 31:1 32:0 33:0 34:0 35:0 36:0 37:0 38:0 39:0 40:1 41:4 42:-1 43:4 44:1 45:2 46:0 47:0 48:0 49:0 50:0 51:0 52:1 53:4 54:-1 55:5 56:4 57:2 58:0 59:0 60:0 
-134.1369881042062 1:1 2:0 3:0 4:-2 5:-7 6:0 7:-5 8:-4 9:-3 10:0 11:0 12:0 13:1 14:0 15:0 16:-1 17:-2 18:-1 19:-1 20:-2 21:-1 22:0 23:0 24:0 25:1 26:0 27:0 28:1 29:2 30:-1 31:2 32:-1 33:1 34:0 35:0 36:0 37:1 38:0 39:0 40:1 41:2 42:-1 43:3 44:2 45:1 46:0 47:0 48:0 49:0 50:0 51:0 52:1 53:1 54:-1 55:5 56:5 57:1 58:0 59:0 60:0 
-83.00034881369386 1:1 2:-1 3:0 4:0 5:1 6:0 7:-1 8:-8 9:1 10:0 11:1 12:0 13:0 14:-1 15:0 16:0 17:0 18:0 19:1 20:-5 21:1 22:0 23:1 24:0 25:0 26:0 27:0 28:0 29:0 30:0 31:1 32:1 33:0 34:0 35:0 36:0 37:0 38:0 39:0 40:0 41:0 42:0 43:1 44:6 45:-1 46:0 47:0 48:0 49:0 50:0 51:0 52:0 53:-1 54:0 55:1 56:9 57:-1 58:0 59:0 60:0 
-134.1369881042062 1:0 2:-1 3:2 4:0 5:1 6:0 7:2 8:-4 9:-1 10:0 11:1 12:0 13:-1 14:-1 15:1 16:0 17:0 18:0 19:1 20:1 21:-1 22:0 23:1 24:0 25:-1 26:0 27:-1 28:0 29:0 30:0 31:0 32:2 33:0 34:0 35:0 36:0 37:-1 38:1 39:-1 40:0 41:0 42:0 43:-1 44:1 45:0 46:0 47:0 48:0 49:-1 50:1 51:-1 52:0 53:-1 54:0 55:-2 56:1 57:1 58:1 59:0 60:0 
-58.6143998469049 1:0 2:-2 3:2 4:0 5:0 6:0 7:2 8:0 9:-2 10:0 11:1 12:0 13:0 14:-1 15:0 16:0 17:0 18:0 19:1 20:1 21:-1 22:0 23:0 24:0 25:0 26:0 27:0 28:0 29:0 30:0 31:0 32:0 33:-1 34:0 35:0 36:0 37:0 38:0 39:0 40:0 41:-1 42:0 43:-1 44:0 45:0 46:1 47:0 48:0 49:0 50:1 51:0 52:0 53:-1 54:0 55:-2 56:-1 57:0 58:0 59:-1 60:0 
-134.1369881042062 1:-1 2:-1 3:0 4:4 5:3 6:-2 7:6 8:3 9:1 10:1 11:1 12:0 13:-1 14:-1 15:0 16:1 17:1 18:-1 19:3 20:1 21:1 22:1 23:1 24:0 25:0 26:0 27:-1 28:-1 29:2 30:-1 31:-1 32:1 33:1 34:1 35:0 36:0 37:0 38:0 39:-1 40:-2 41:0 42:1 43:-2 44:-1 45:-1 46:1 47:0 48:0 49:0 50:1 51:-2 52:-4 53:-2 54:1 55:-5 56:-4 57:-3 58:0 59:0 60:0 
-86.97900083577427 1:-1 2:-2 3:1 4:3 5:2 6:-2 7:6 8:3 9:2 10:1 11:1 12:0 13:0 14:-1 15:0 16:1 17:3 18:-2 19:2 20:3 21:2 22:1 23:0 24:0 25:0 26:-1 27:0 28:0 29:1 30:0 31:1 32:1 33:0 34:1 35:0 36:0 37:0 38:0 39:-1 40:-2 41:-1 42:0 43:-2 44:-2 45:-2 46:0 47:0 48:0 49:1 50:1 51:-2 52:-5 53:-5 54:0 55:-9 56:-2 57:-2 58:0 59:-1 60:0 
-82.06242495692597 1:0 2:-1 3:-1 4:0 5:8 6:0 7:4 8:9 9:1 10:0 11:1 12:0 13:0 14:0 15:-1 16:-1 17:4 18:0 19:2 20:5 21:0 22:0 23:0 24:0 25:-1 26:0 27:-1 28:-1 29:0 30:0 31:0 32:0 33:-1 34:0 35:0 36:0 37:-1 38:0 39:0 40:-1 41:-5 42:0 43:-2 44:-3 45:0 46:0 47:0 48:0 49:-1 50:0 51:0 52:-1 53:-10 54:-1 55:-4 56:-9 57:0 58:0 59:0 60:0 
-134.1369881042062 1:0 2:0 3:-2 4:-1 5:-1 6:0 7:0 8:-2 9:-2 10:0 11:0 12:-1 13:1 14:0 15:-2 16:-1 17:0 18:0 19:0 20:0 21:-1 22:0 23:0 24:-1 25:1 26:0 27:0 28:0 29:0 30:0 31:0 32:0 33:0 34:0 35:0 36:0 37:1 38:0 39:1 40:-1 41:0 42:0 43:0 44:0 45:0 46:0 47:0 48:0 49:1 50:0 51:2 52:-1 53:0 54:0 55:0 56:0 57:1 58:0 59:0 60:0 
-134.1369881042062 1:0 2:0 3:-3 4:-1 5:0 6:0 7:0 8:0 9:-1 10:0 11:0 12:-1 13:0 14:0 15:-1 16:0 17:0 18:0 19:0 20:0 21:0 22:0 23:0 24:0 25:0 26:0 27:0 28:-1 29:0 30:0 31:0 32:0 33:0 34:0 35:0 36:0 37:0 38:0 39:1 40:-1 41:0 42:0 43:0 44:0 45:1 46:0 47:0 48:0 49:0 50:0 51:1 52:-1 53:0 54:0 55:0 56:0 57:0 58:0 59:0 60:0 
-134.1369881042062 1:0 2:0 3:-1 4:0 5:-1 6:0 7:0 8:0 9:-1 10:0 11:0 12:0 13:0 14:0 15:0 16:-1 17:-1 18:0 19:0 20:0 21:-1 22:0 23:0 24:0 25:0 26:0 27:1 28:-1 29:-1 30:0 31:0 32:0 33:0 34:0 35:0 36:0 37:0 38:0 39:1 40:-1 41:-1 42:0 43:0 44:0 45:-1 46:0 47:0 48:0 49:0 50:0 51:1 52:0 53:0 54:0 55:0 56:-1 57:-1 58:0 59:0 60:0 
-134.1369881042062 1:0 2:0 3:0 4:-1 5:-1 6:0 7:0 8:0 9:-1 10:0 11:0 12:0 13:0 14:0 15:1 16:-1 17:-1 18:0 19:0 20:0 21:0 22:0 23:0 24:0 25:0 26:0 27:1 28:-1 29:-1 30:0 31:0 32:0 33:-1 34:0 35:0 36:0 37:0 38:0 39:1 40:0 41:0 42:0 43:0 44:-1 45:-1 46:0 47:0 48:0 49:0 50:0 51:1 52:0 53:0 54:-1 55:0 56:-1 57:-1 58:0 59:0 60:0 
-134.1369881042062 1:0 2:0 3:0 4:-1 5:-1 6:0 7:-1 8:0 9:1 10:0 11:0 12:0 13:0 14:0 15:0 16:-1 17:-1 18:0 19:-1 20:0 21:0 22:0 23:0 24:0 25:0 26:0 27:0 28:0 29:0 30:0 31:-1 32:-1 33:0 34:0 35:0 36:0 37:0 38:0 39:0 40:0 41:0 42:-1 43:-1 44:-1 45:0 46:0 47:0 48:0 49:0 50:0 51:0 52:0 53:0 54:-1 55:0 56:-1 57:-1 58:0 59:0 60:0 
-134.1369881042062 1:0 2:0 3:0 4:-1 5:-1 6:0 7:-1 8:0 9:0 10:0 11:0 12:0 13:0 14:0 15:0 16:0 17:0 18:0 19:-1 20:-1 21:0 22:0 23:0 24:0 25:0 26:0 27:0 28:0 29:0 30:-1 31:-1 32:-1 33:0 34:0 35:0 36:0 37:0 38:0 39:0 40:0 41:0 42:-1 43:0 44:-1 45:-1 46:0 47:0 48:0 49:0 50:0 51:0 52:0 53:-1 54:-1 55:0 56:0 57:-2 58:0 59:0 60:0 
-134.1369881042062 1:0 2:0 3:0 4:-1 5:-1 6:0 7:-4 8:0 9:-1 10:0 11:0 12:0 13:0 14:0 15:0 16:-1 17:-2 18:0 19:-2 20:-1 21:-1 22:0 23:0 24:0 25:0 26:0 27:0 28:0 29:-2 30:0 31:0 32:-1 33:-1 34:0 35:0 36:0 37:0 38:0 39:0 40:0 41:-2 42:-1 43:2 44:0 45:-1 46:0 47:0 48:0 49:0 50:0 51:0 52:1 53:3 54:-2 55:6 56:2 57:1 58:0 59:0 60:0 
-84.52419554168296 1:0 2:0 3:0 4:-2 5:-3 6:1 7:-5 8:-2 9:-2 10:0 11:0 12:0 13:0 14:0 15:0 16:-1 17:-3 18:1 19:-3 20:-2 21:-2 22:0 23:0 24:0 25:0 26:0 27:0 28:-1 29:-3 30:0 31:-1 32:-1 33:-2 34:0 35:0 36:0 37:0 38:0 39:0 40:0 41:2 42:-1 43:3 44:1 45:0 46:0 47:0 48:0 49:0 50:0 51:0 52:2 53:6 54:-1 55:6 56:2 57:2 58:0 59:0 60:0 
-134.1369881042062 1:0 2:0 3:0 4:-2 5:-5 6:1 7:-5 8:-3 9:-2 10:0 11:0 12:0 13:0 14:0 15:0 16:-2 17:-5 18:0 19:-3 20:-2 21:-2 22:0 23:0 24:0 25:0 26:0 27:0 28:-1 29:0 30:-1 31:1 32:0 33:0 34:0 35:0 36:0 37:0 38:0 39:0 40:1 41:4 42:-1 43:4 44:1 45:2 46:0 47:0 48:0 49:0 50:0 51:0 52:1 53:4 54:-1 55:5 56:4 57:2 58:0 59:0 60:0 
-118.5897903000778 1:1 2:0 3:0 4:-2 5:-7 6:0 7:-5 8:-4 9:-3 10:0 11:0 12:0 13:1 14:0 15:0 16:-1 17:-2 18:-1 19:-1 20:-2 21:-1 22:0 23:0 24:0 25:1 26:0 27:0 28:1 29:2 30:-1 31:2 32:-1 33:1 34:0 35:0 36:0 37:1 38:0 39:0 40:1 41:2 42:-1 43:3 44:2 45:1 46:0 47:0 48:0 49:0 50:0 51:0 52:1 53:1 54:-1 55:5 56:5 57:1 58:0 59:0 60:0 
-134.1369881042062 1:1 2:-1 3:0 4:0 5:1 6:0 7:-1 8:-8 9:1 10:0 11:1 12:0 13:0 14:-1 15:0 16:0 17:0 18:0 19:1 20:-5 21:1 22:0 23:1 24:0 25:0 26:0 27:0 28:0 29:0 30:0 31:1 32:1 33:0 34:0 35:0 36:0 37:0 38:0 39:0 40:0 41:0 42:0 43:1 44:6 45:-1 46:0 47:0 48:0 49:0 50:0 51:0 52:0 53:-1 54:0 55:1 56:9 57:-1 58:0 59:0 60:0 
-77.65326611749481 1:0 2:-1 3:0 4:0 5:0 6:0 7:1 8:-9 9:1 10:0 11:1 12:0 13:0 14:0 15:0 16:0 17:0 18:0 19:1 20:-3 21:0 22:0 23:0 24:0 25:0 26:0 27:0 28:0 29:0 30:0 31:1 32:2 33:-1 34:0 35:0 36:0 37:0 38:0 39:0 40:0 41:-1 42:0 43:1 44:5 45:-1 46:0 47:0 48:0 49:0 50:1 51:0 52:0 53:-1 54:0 55:0 56:9 57:-1 58:0 59:-1 60:0 
-134.1369881042062 1:0 2:-1 3:2 4:0 5:1 6:0 7:2 8:-4 9:-1 10:0 11:1 12:0 13:-1 14:-1 15:1 16:0 17:0 18:0 19:1 20:1 21:-1 22:0 23:1 24:0 25:-1 26:0 27:-1 28:0 29:0 30:0 31:0 32:2 33:0 34:0 35:0 36:0 37:-1 38:1 39:-1 40:0 41:0 42:0 43:-1 44:1 45:0 46:0 47:0 48:0 49:-1 50:1 51:-1 52:0 53:-1 54:0 55:-2 56:1 57:1 58:1 59:0 60:0 
-25.95849427681999 1:0 2:-1 3:0 4:20 5:-21 6:-8 7:7 8:-2 9:0 10:0 11:1 12:0 13:0 14:-1 15:0 16:8 17:-7 18:-3 19:5 20:-2 21:0 22:0 23:1 24:0 25:0 26:0 27:0 28:-5 29:9 30:2 31:1 32:1 33:0 34:1 35:1 36:0 37:-1 38:0 39:0 40:-9 41:11 42:2 43:-3 44:3 45:0 46:1 47:0 48:-1 49:-1 50:1 51:0 52:-15 53:12 54:4 55:-8 56:4 57:0 58:1 59:0 60:-1 
-21.14529015504882 1:0 2:-2 3:0 4:9 5:1 6:-4 7:9 8:0 9:1 10:0 11:1 12:0 13:0 14:-1 15:0 16:3 17:2 18:-2 19:4 20:1 21:1 22:0 23:1 24:0 25:0 26:-1 27:-1 28:-2 29:1 30:0 31:-1 32:2 33:-1 34:0 35:0 36:0 37:-1 38:0 39:0 40:-5 41:-1 42:2 43:-3 44:0 45:-1 46:0 47:0 48:0 49:-1 50:0 51:0 52:-8 53:-3 54:3 55:-6 56:-2 57:-1 58:0 59:0 60:0 
-131.095494494493 1:-1 2:-1 3:0 4:4 5:3 6:-2 7:6 8:3 9:1 10:1 11:1 12:0 13:-1 14:-1 15:0 16:1 17:1 18:-1 19:3 20:1 21:1 22:1 23:1 24:0 25:0 26:0 27:-1 28:-1 29:2 30:-1 31:-1 32:1 33:1 34:1 35:0 36:0 37:0 38:0 39:-1 40:-2 41:0 42:1 43:-2 44:-1 45:-1 46:1 47:0 48:0 49:0 50:1 51:-2 52:-4 53:-2 54:1 55:-5 56:-4 57:-3 58:0 59:0 60:0 
-134.1369881042062 1:-1 2:-2 3:1 4:3 5:2 6:-2 7:6 8:3 9:2 10:1 11:1 12:0 13:0 14:-1 15:0 16:1 17:3 18:-2 19:2 20:3 21:2 22:1 23:0 24:0 25:0 26:-1 27:0 28:0 29:1 30:0 31:1 32:1 33:0 34:1 35:0 36:0 37:0 38:0 39:-1 40:-2 41:-1 42:0 43:-2 44:-2 45:-2 46:0 47:0 48:0 49:1 50:1 51:-2 52:-5 53:-5 54:0 55:-9 56:-2 57:-2 58:0 59:-1 60:0 
-134.1369881042062 1:0 2:-1 3:-1 4:0 5:8 6:0 7:4 8:9 9:1 10:0 11:1 12:0 13:0 14:0 15:-1 16:-1 17:4 18:0 19:2 20:5 21:0 22:0 23:0 24:0 25:-1 26:0 27:-1 28:-1 29:0 30:0 31:0 32:0 33:-1 34:0 35:0 36:0 37:-1 38:0 39:0 40:-1 41:-5 42:0 43:-2 44:-3 45:0 46:0 47:0 48:0 49:-1 50:0 51:0 52:-1 53:-10 54:-1 55:-4 56:-9 57:0 58:0 59:0 60:0 
-100.43742647005 1:0 2:0 3:-1 4:-1 5:9 6:1 7:3 8:9 9:-1 10:0 11:0 12:0 13:0 14:0 15:0 16:-1 17:4 18:1 19:1 20:6 21:0 22:0 23:0 24:0 25:0 26:0 27:0 28:-1 29:-1 30:0 31:-1 32:0 33:0 34:0 35:0 36:0 37:0 38:0 39:0 40:-1 41:-6 42:-1 43:-2 44:-6 45:0 46:0 47:0 48:0 49:0 50:0 51:0 52:1 53:-8 54:-1 55:-2 56:-10 57:-1 58:0 59:0 60:0 
-63.32937375400134 1:0 2:-1 3:0 4:-2 5:8 6:0 7:-1 8:9 9:0 10:0 11:0 12:0 13:0 14:-1 15:0 16:-2 17:3 18:-1 19:-2 20:3 21:0 22:0 23:0 24:0 25:0 26:-1 27:0 28:0 29:1 30:-1 31:-2 32:-1 33:-1 34:0 35:0 36:0 37:0 38:0 39:-2 40:1 41:-4 42:-1 43:0 44:-5 45:-1 46:0 47:0 48:0 49:0 50:0 51:-2 52:2 53:-9 54:-1 55:1 56:-9 57:1 58:0 59:0 60:0 
-93.89789259557128 1:-1 2:-1 3:1 4:-3 5:6 6:0 7:-2 8:7 9:-1 10:0 11:0 12:0 13:-1 14:-1 15:1 16:-1 17:4 18:0 19:-2 20:3 21:-2 22:0 23:0 24:0 25:-1 26:0 27:-1 28:0 29:-1 30:0 31:0 32:-1 33:-2 34:0 35:0 36:0 37:-1 38:0 39:-1 40:1 41:-6 42:0 43:1 44:-5 45:0 46:0 47:0 48:0 49:0 50:0 51:-2 52:1 53:-6 54:0 55:0 56:-5 57:2 58:0 59:0 60:0 
-92.69198752896939 1:-1 2:0 3:0 4:-3 5:3 6:0 7:-1 8:3 9:-4 10:0 11:0 12:0 13:-1 14:0 15:0 16:-2 17:-2 18:0 19:0 20:-1 21:-2 22:0 23:0 24:0 25:0 26:0 27:-1 28:-2 29:-2 30:0 31:-1 32:-1 33:0 34:0 35:0 36:0 37:1 38:0 39:-1 40:1 41:-1 42:0 43:0 44:-1 45:1 46:0 47:0 48:0 49:2 50:0 51:-1 52:4 53:-1 54:0 55:0 56:0 57:3 58:1 59:0 60:0 
-11.26870314668523 1:-1 2:0 3:-1 4:-3 5:-1 6:0 7:0 8:-2 9:-3 10:0 11:0 12:-1 13:0 14:0 15:-1 16:0 17:-1 18:0 19:0 20:-1 21:-1 22:1 23:0 24:-1 25:1 26:0 27:-1 28:0 29:0 30:0 31:0 32:1 33:0 34:1 35:0 36:-1 37:1 38:0 39:1 40:1 41:0 42:0 43:0 44:1 45:1 46:1 47:0 48:0 49:1 50:0 51:2 52:0 53:0 54:0 55:0 56:1 57:1 58:1 59:0 60:0 
-134.1369881042062 1:0 2:0 3:-2 4:-1 5:-1 6:0 7:0 8:-2 9:-2 10:0 11:0 12:-1 13:1 14:0 15:-2 16:-1 17:0 18:0 19:0 20:0 21:-1 22:0 23:0 24:-1 25:1 26:0 27:0 28:0 29:0 30:0 31:0 32:0 33:0 34:0 35:0 36:0 37:1 38:0 39:1 40:-1 41:0 42:0 43:0 44:0 45:0 46:0 47:0 48:0 49:1 50:0 51:2 52:-1 53:0 54:0 55:0 56:0 57:1 58:0 59:0 60:0 
-134.1369881042062 1:0 2:0 3:-3 4:-1 5:0 6:0 7:0 8:0 9:-1 10:0 11:0 12:-1 13:0 14:0 15:-1 16:0 17:0 18:0 19:0 20:0 21:0 22:0 23:0 24:0 25:0 26:0 27:0 28:-1 29:0 30:0 31:0 32:0 33:0 34:0 35:0 36:0 37:0 38:0 39:1 40:-1 41:0 42:0 43:0 44:0 45:1 46:0 47:0 48:0 49:0 50:0 51:1 52:-1 53:0 54:0 55:0 56:0 57:0 58:0 59:0 60:0 
-134.1369881042062 1:0 2:0 3:-1 4:0 5:-1 6:0 7:0 8:0 9:-1 10:0 11:0 12:0 13:0 14:0 15:0 16:-1 17:-1 18:0 19:0 20:0 21:-1 22:0 23:0 24:0 25:0 26:0 27:1 28:-1 29:-1 30:0 31:0 32:0 33:0 34:0 35:0 36:0 37:0 38:0 39:1 40:-1 41:-1 42:0 43:0 44:0 45:-1 46:0 47:0 48:0 49:0 50:0 51:1 52:0 53:0 54:0 55:0 56:-1 57:-1 58:0 59:0 60:0 
-134.1369881042062 1:0 2:0 3:0 4:-1 5:-1 6:0 7:0 8:0 9:-1 10:0 11:0 12:0 13:0 14:0 15:1 16:-1 17:-1 18:0 19:0 20:0 21:0 22:0 23:0 24:0 25:0 26:0 27:1 28:-1 29:-1 30:0 31:0 32:0 33:-1 34:0 35:0 36:0 37:0 38:0 39:1 40:0 41:0 42:0 43:0 44:-1 45:-1 46:0 47:0 48:0 49:0 50:0 51:1 52:0 53:0 54:-1 55:0 56:-1 57:-1 58:0 59:0 60:0 
-134.1369881042062 1:0 2:0 3:0 4:-1 5:-1 6:0 7:-1 8:0 9:1 10:0 11:0 12:0 13:0 14:0 15:0 16:-1 17:-1 18:0 19:-1 20:0 21:0 22:0 23:0 24:0 25:0 26:0 27:0 28:0 29:0 30:0 31:-1 32:-1 33:0 34:0 35:0 36:0 37:0 38:0 39:0 40:0 41:0 42:-1 43:-1 44:-1 45:0 46:0 47:0 48:0 49:0 50:0 51:0 52:0 53:0 54:-1 55:0 56:-1 57:-1 58:0 59:0 60:0 
-134.1369881042062 1:0 2:0 3:0 4:-1 5:-1 6:0 7:-1 8:0 9:0 10:0 11:0 12:0 13:0 14:0 15:0 16:0 17:0 18:0 19:-1 20:-1 21:0 22:0 23:0 24:0 25:0 26:0 27:0 28:0 29:0 30:-1 31:-1 32:-1 33:0 34:0 35:0 36:0 37:0 38:0 39:0 40:0 41:0 42:-1 43:0 44:-1 45:-1 46:0 47:0 48:0 49:0 50:0 51:0 52:0 53:-1 54:-1 55:0 56:0 57:-2 58:0 59:0 60:0 
