svm_type c_svc
kernel_type rbf
gamma 0.00012207
nr_class 2
total_sv 183
rho -10.4422
label 1 3
nr_sv 108 75
SV
69.84194244564321 1:1 2:0 3:0 4:0 5:2 6:0 7:0 8:0 9:0 10:0 11:0 12:0 13:1 14:0 15:0 16:0 17:2 18:0 19:0 20:0 21:0 22:0 23:0 24:0 25:-2 26:0 27:1 28:0 29:1 30:0 31:0 32:0 33:0 34:0 35:0 36:0 37:1 38:0 39:0 40:-1 41:-1 42:0 43:0 44:0 45:0 46:0 47:0 48:0 49:0 50:0 51:0 52:-1 53:-1 54:0 55:0 56:0 57:0 58:1 59:0 60:-1 
119.1627889455751 1:0 2:0 3:0 4:0 5:0 6:0 7:5 8:-6 9:2 10:0 11:0 12:0 13:0 14:0 15:0 16:0 17:0 18:0 19:2 20:-2 21:1 22:0 23:0 24:0 25:0 26:0 27:0 28:0 29:0 30:0 31:-1 32:3 33:-1 34:0 35:0 36:0 37:0 38:0 39:0 40:0 41:0 42:0 43:-1 44:3 45:-1 46:0 47:0 48:0 49:-2 50:0 51:0 52:0 53:0 54:0 55:-1 56:3 57:-1 58:0 59:0 60:0 
39.72919880300387 1:0 2:-2 3:1 4:4 5:5 6:0 7:0 8:1 9:0 10:0 11:1 12:0 13:-1 14:-1 15:1 16:3 17:3 18:-1 19:0 20:0 21:0 22:0 23:1 24:0 25:-1 26:-1 27:1 28:3 29:1 30:-1 31:0 32:0 33:0 34:0 35:0 36:0 37:0 38:0 39:1 40:-3 41:-3 42:-1 43:0 44:0 45:0 46:0 47:0 48:0 49:0 50:0 51:0 52:-3 53:-3 54:-1 55:0 56:-1 57:0 58:0 59:0 60:0 
119.1627889455751 1:-1 2:-2 3:1 4:3 5:3 6:-1 7:1 8:1 9:0 10:0 11:1 12:0 13:0 14:-1 15:1 16:-3 17:-1 18:-1 19:1 20:1 21:0 22:0 23:1 24:0 25:0 26:-1 27:0 28:-3 29:-1 30:-1 31:1 32:0 33:0 34:0 35:1 36:0 37:0 38:0 39:0 40:-1 41:-1 42:-1 43:0 44:0 45:0 46:-1 47:0 48:0 49:0 50:0 51:0 52:6 53:1 54:0 55:0 56:0 57:0 58:-1 59:0 60:0 
119.1627889455751 1:0 2:-1 3:0 4:1 5:6 6:4 7:0 8:0 9:-1 10:-1 11:1 12:0 13:0 14:0 15:0 16:2 17:4 18:2 19:0 20:0 21:0 22:-1 23:1 24:0 25:0 26:0 27:0 28:0 29:0 30:-1 31:0 32:0 33:0 34:-1 35:1 36:0 37:0 38:0 39:0 40:0 41:-5 42:-3 43:0 44:0 45:0 46:0 47:0 48:0 49:0 50:1 51:0 52:0 53:-9 54:-5 55:0 56:1 57:0 58:0 59:0 60:0 
119.1627889455751 1:0 2:-1 3:0 4:3 5:8 6:4 7:0 8:0 9:0 10:-1 11:1 12:0 13:0 14:-1 15:0 16:1 17:4 18:1 19:0 20:0 21:0 22:-1 23:1 24:0 25:0 26:-1 27:0 28:1 29:-1 30:-1 31:0 32:0 33:0 34:0 35:0 36:0 37:0 38:0 39:0 40:1 41:-5 42:-3 43:0 44:1 45:0 46:0 47:0 48:0 49:0 50:0 51:1 52:-2 53:-8 54:-5 55:0 56:2 57:0 58:0 59:0 60:0 
24.1380440825847 1:-2 2:-1 3:1 4:0 5:1 6:6 7:-1 8:-1 9:2 10:0 11:0 12:0 13:-1 14:-1 15:0 16:0 17:1 18:3 19:-1 20:0 21:2 22:0 23:1 24:0 25:0 26:0 27:-1 28:-1 29:0 30:1 31:0 32:1 33:0 34:0 35:1 36:0 37:1 38:0 39:-2 40:0 41:-1 42:-3 43:1 44:1 45:-2 46:0 47:1 48:0 49:2 50:0 51:-2 52:0 53:-1 54:-6 55:2 56:1 57:-2 58:0 59:1 60:0 
119.1627889455751 1:0 2:0 3:0 4:0 5:-1 6:0 7:2 8:-2 9:2 10:0 11:0 12:0 13:0 14:0 15:0 16:0 17:-1 18:0 19:2 20:-3 21:2 22:0 23:0 24:0 25:0 26:0 27:0 28:0 29:-1 30:0 31:0 32:3 33:0 34:0 35:0 36:0 37:0 38:0 39:0 40:0 41:-1 42:0 43:-1 44:2 45:-1 46:0 47:0 48:0 49:0 50:0 51:0 52:0 53:0 54:0 55:-1 56:2 57:-1 58:0 59:0 60:0 
119.1627889455751 1:0 2:0 3:0 4:0 5:-1 6:0 7:3 8:-4 9:3 10:0 11:0 12:0 13:0 14:0 15:0 16:0 17:-1 18:0 19:1 20:2 21:1 22:0 23:0 24:0 25:0 26:0 27:0 28:0 29:-1 30:0 31:0 32:1 33:0 34:0 35:0 36:0 37:0 38:0 39:0 40:0 41:0 42:0 43:0 44:1 45:0 46:0 47:0 48:0 49:0 50:0 51:0 52:0 53:1 54:0 55:0 56:1 57:0 58:0 59:0 60:0 
119.1627889455751 1:0 2:0 3:0 4:1 5:-1 6:0 7:1 8:1 9:1 10:0 11:0 12:0 13:0 14:0 15:0 16:1 17:-1 18:0 19:0 20:0 21:0 22:0 23:0 24:0 25:0 26:0 27:0 28:1 29:0 30:0 31:0 32:0 33:0 34:0 35:0 36:0 37:0 38:0 39:0 40:1 41:1 42:0 43:0 44:0 45:0 46:0 47:0 48:0 49:0 50:0 51:0 52:0 53:1 54:0 55:0 56:0 57:0 58:0 59:0 60:0 
119.1627889455751 1:0 2:0 3:0 4:1 5:-2 6:0 7:0 8:0 9:0 10:0 11:0 12:0 13:0 14:0 15:0 16:1 17:-1 18:0 19:0 20:0 21:0 22:0 23:0 24:0 25:0 26:0 27:0 28:1 29:0 30:0 31:0 32:0 33:0 34:0 35:0 36:0 37:0 38:0 39:0 40:0 41:0 42:0 43:0 44:0 45:0 46:0 47:0 48:0 49:0 50:0 51:0 52:0 53:0 54:0 55:0 56:0 57:0 58:0 59:0 60:0 
119.1627889455751 1:-1 2:0 3:0 4:1 5:-1 6:0 7:0 8:0 9:0 10:0 11:0 12:0 13:-1 14:0 15:0 16:1 17:0 18:0 19:0 20:0 21:0 22:0 23:0 24:0 25:-1 26:0 27:0 28:0 29:0 30:0 31:0 32:0 33:0 34:0 35:0 36:0 37:-1 38:0 39:0 40:0 41:0 42:0 43:0 44:0 45:0 46:0 47:0 48:0 49:0 50:0 51:0 52:0 53:0 54:0 55:0 56:0 57:0 58:0 59:0 60:0 
119.1627889455751 1:0 2:-1 3:1 4:0 5:0 6:0 7:0 8:0 9:0 10:0 11:0 12:0 13:0 14:-1 15:0 16:0 17:-1 18:0 19:0 20:0 21:0 22:0 23:0 24:0 25:0 26:0 27:0 28:0 29:-1 30:0 31:0 32:0 33:0 34:0 35:0 36:0 37:0 38:0 39:1 40:0 41:-1 42:0 43:0 44:0 45:0 46:0 47:0 48:0 49:0 50:0 51:1 52:0 53:-1 54:0 55:0 56:0 57:0 58:0 59:0 60:0 
119.1627889455751 1:0 2:-1 3:0 4:0 5:-1 6:0 7:0 8:0 9:0 10:0 11:0 12:0 13:0 14:0 15:0 16:0 17:-1 18:0 19:0 20:0 21:0 22:0 23:0 24:0 25:0 26:0 27:1 28:0 29:-1 30:0 31:0 32:0 33:0 34:0 35:0 36:0 37:0 38:0 39:1 40:0 41:-1 42:0 43:0 44:0 45:0 46:0 47:0 48:0 49:0 50:-1 51:0 52:0 53:0 54:0 55:1 56:0 57:0 58:0 59:0 60:0 
119.1627889455751 1:0 2:0 3:0 4:0 5:-1 6:-1 7:0 8:1 9:0 10:1 11:0 12:-1 13:0 14:0 15:1 16:0 17:-1 18:-1 19:0 20:1 21:0 22:1 23:0 24:-1 25:0 26:0 27:1 28:0 29:-1 30:-1 31:0 32:1 33:0 34:1 35:0 36:-1 37:0 38:-1 39:0 40:0 41:0 42:-1 43:1 44:1 45:0 46:1 47:0 48:-1 49:-1 50:-1 51:-1 52:0 53:1 54:0 55:1 56:0 57:-1 58:0 59:0 60:0 
119.1627889455751 1:0 2:0 3:1 4:1 5:-2 6:-1 7:0 8:1 9:0 10:1 11:0 12:-1 13:0 14:0 15:1 16:1 17:-2 18:-1 19:0 20:1 21:0 22:1 23:0 24:-1 25:0 26:-1 27:0 28:1 29:-1 30:-1 31:1 32:1 33:0 34:1 35:0 36:-1 37:-1 38:-1 39:-1 40:1 41:0 42:0 43:1 44:0 45:-1 46:0 47:0 48:0 49:-1 50:-1 51:-1 52:-1 53:1 54:1 55:1 56:1 57:-1 58:0 59:0 60:0 
92.19877485034033 1:0 2:0 3:1 4:2 5:-3 6:-2 7:0 8:1 9:0 10:1 11:0 12:-1 13:0 14:-1 15:0 16:2 17:-2 18:-2 19:1 20:1 21:0 22:1 23:0 24:-1 25:-1 26:-1 27:-1 28:2 29:-1 30:-1 31:1 32:0 33:-1 34:0 35:0 36:0 37:-1 38:-1 39:-1 40:0 41:0 42:0 43:1 44:1 45:-1 46:0 47:0 48:0 49:0 50:-1 51:-2 52:-2 53:4 54:2 55:1 56:1 57:-1 58:1 59:0 60:0 
119.1627889455751 1:1 2:0 3:-1 4:1 5:2 6:-6 7:1 8:0 9:-1 10:0 11:0 12:0 13:1 14:0 15:0 16:0 17:2 18:-2 19:1 20:0 21:-1 22:0 23:0 24:0 25:0 26:0 27:-1 28:-1 29:0 30:2 31:0 32:0 33:-1 34:0 35:0 36:0 37:-1 38:0 39:-1 40:0 41:0 42:3 43:-1 44:0 45:0 46:1 47:0 48:0 49:-1 50:-1 51:-1 52:0 53:0 54:4 55:-1 56:0 57:1 58:1 59:0 60:0 
6.229899998924185 1:2 2:0 3:-1 4:1 5:0 6:11 7:1 8:7 9:1 10:0 11:0 12:0 13:1 14:0 15:0 16:1 17:0 18:11 19:1 20:-1 21:-2 22:0 23:0 24:0 25:0 26:0 27:0 28:0 29:2 30:1 31:0 32:-1 33:-2 34:1 35:0 36:0 37:-1 38:-1 39:0 40:-1 41:1 42:-11 43:0 44:-1 45:-1 46:1 47:0 48:0 49:-2 50:-1 51:1 52:-1 53:0 54:-13 55:0 56:-2 57:1 58:1 59:0 60:0 
77.82165949394621 1:2 2:0 3:0 4:1 5:0 6:16 7:1 8:1 9:-2 10:0 11:0 12:0 13:1 14:0 15:0 16:0 17:2 18:6 19:0 20:1 21:-2 22:1 23:0 24:0 25:0 26:-1 27:0 28:-1 29:1 30:-6 31:0 32:1 33:-1 34:1 35:0 36:0 37:-1 38:-1 39:1 40:-1 41:0 42:-8 43:0 44:0 45:1 46:1 47:0 48:0 49:-2 50:-1 51:0 52:0 53:0 54:-10 55:0 56:-1 57:2 58:1 59:0 60:0 
48.51783231841777 1:2 2:0 3:0 4:0 5:2 6:11 7:0 8:1 9:-3 10:1 11:0 12:0 13:1 14:-1 15:0 16:-1 17:1 18:-1 19:0 20:1 21:-2 22:1 23:0 24:0 25:0 26:-1 27:1 28:-1 29:0 30:-3 31:0 32:0 33:0 34:1 35:0 36:0 37:-1 38:-1 39:0 40:0 41:0 42:-5 43:0 44:-1 45:1 46:1 47:0 48:0 49:0 50:-1 51:0 52:1 53:-1 54:-6 55:1 56:1 57:2 58:0 59:0 60:0 
119.1627889455751 1:-1 2:-1 3:-1 4:-6 5:1 6:-1 7:2 8:3 9:-4 10:0 11:0 12:0 13:0 14:-1 15:-1 16:-4 17:1 18:1 19:2 20:2 21:-2 22:-1 23:0 24:0 25:1 26:0 27:0 28:-1 29:1 30:0 31:1 32:1 33:-1 34:-1 35:0 36:0 37:1 38:0 39:-1 40:3 41:1 42:-1 43:0 44:0 45:2 46:0 47:0 48:-1 49:1 50:1 51:-1 52:4 53:0 54:-2 55:-2 56:-2 57:5 58:0 59:0 60:-1 
5.758754229042457 1:0 2:-1 3:0 4:-4 5:2 6:-1 7:3 8:3 9:-4 10:-1 11:0 12:0 13:0 14:-1 15:-1 16:0 17:2 18:-2 19:2 20:2 21:-1 22:0 23:0 24:-1 25:0 26:0 27:-1 28:1 29:1 30:-3 31:0 32:0 33:2 34:0 35:0 36:-1 37:2 38:1 39:-1 40:1 41:0 42:0 43:0 44:0 45:3 46:0 47:0 48:-1 49:2 50:0 51:0 52:-1 53:-1 54:2 55:-2 56:-2 57:3 58:0 59:0 60:0 
0.1956989946169974 1:-1 2:-2 3:-1 4:-7 5:2 6:2 7:-2 8:-6 9:2 10:0 11:0 12:0 13:-1 14:-1 15:-1 16:-7 17:2 18:3 19:0 20:-2 21:4 22:0 23:0 24:0 25:0 26:-1 27:0 28:-1 29:2 30:0 31:0 32:-2 33:4 34:0 35:0 36:0 37:1 38:0 39:0 40:8 41:-1 42:-4 43:0 44:3 45:-2 46:0 47:0 48:-1 49:3 50:2 51:0 52:11 53:-1 54:-3 55:-1 56:8 57:-6 58:-1 59:0 60:-1 
119.1627889455751 1:0 2:0 3:0 4:0 5:0 6:0 7:0 8:0 9:0 10:0 11:0 12:0 13:0 14:0 15:0 16:0 17:0 18:0 19:0 20:0 21:0 22:0 23:0 24:0 25:0 26:0 27:0 28:0 29:0 30:0 31:0 32:0 33:0 34:0 35:0 36:0 37:0 38:0 39:0 40:0 41:0 42:0 43:0 44:0 45:0 46:0 47:0 48:0 49:0 50:0 51:0 52:0 53:0 54:0 55:0 56:0 57:0 58:0 59:0 60:0 
119.1627889455751 1:1 2:0 3:0 4:0 5:2 6:0 7:0 8:0 9:0 10:0 11:0 12:0 13:1 14:0 15:0 16:0 17:2 18:0 19:0 20:0 21:0 22:0 23:0 24:0 25:-2 26:0 27:1 28:0 29:1 30:0 31:0 32:0 33:0 34:0 35:0 36:0 37:1 38:0 39:0 40:-1 41:-1 42:0 43:0 44:0 45:0 46:0 47:0 48:0 49:0 50:0 51:0 52:-1 53:-1 54:0 55:0 56:0 57:0 58:1 59:0 60:-1 
45.11917087151069 1:1 2:0 3:0 4:0 5:0 6:0 7:3 8:-4 9:1 10:0 11:0 12:0 13:0 14:0 15:0 16:0 17:0 18:0 19:3 20:-4 21:1 22:1 23:0 24:-1 25:0 26:0 27:0 28:0 29:0 30:0 31:0 32:0 33:0 34:1 35:0 36:-1 37:0 38:0 39:0 40:0 41:0 42:0 43:-3 44:5 45:-2 46:1 47:0 48:-1 49:0 50:0 51:0 52:0 53:0 54:0 55:-3 56:5 57:-2 58:1 59:0 60:-1 
119.1627889455751 1:0 2:0 3:0 4:0 5:0 6:0 7:5 8:-6 9:2 10:0 11:0 12:0 13:0 14:0 15:0 16:0 17:0 18:0 19:2 20:-2 21:1 22:0 23:0 24:0 25:0 26:0 27:0 28:0 29:0 30:0 31:-1 32:3 33:-1 34:0 35:0 36:0 37:0 38:0 39:0 40:0 41:0 42:0 43:-1 44:3 45:-1 46:0 47:0 48:0 49:-2 50:0 51:0 52:0 53:0 54:0 55:-1 56:3 57:-1 58:0 59:0 60:0 
0.9912040344707292 1:0 2:0 3:-2 4:-9 5:12 6:1 7:2 8:3 9:-1 10:1 11:1 12:-1 13:0 14:0 15:-1 16:-9 17:13 18:1 19:1 20:2 21:0 22:1 23:1 24:0 25:1 26:0 27:1 28:1 29:4 30:0 31:1 32:0 33:0 34:1 35:1 36:0 37:0 38:0 39:1 40:8 41:-12 42:0 43:0 44:-1 45:-1 46:1 47:1 48:0 49:-1 50:0 51:1 52:8 53:-14 54:-4 55:0 56:-1 57:-1 58:0 59:0 60:-1 
1.01781703823024 1:1 2:-1 3:0 4:-5 5:16 6:3 7:2 8:1 9:1 10:1 11:1 12:1 13:0 14:-1 15:0 16:2 17:0 18:3 19:1 20:0 21:0 22:1 23:1 24:1 25:-1 26:-1 27:0 28:2 29:-2 30:-1 31:1 32:0 33:0 34:0 35:0 36:0 37:-1 38:0 39:0 40:1 41:-5 42:-3 43:0 44:0 45:-1 46:-1 47:0 48:-1 49:-2 50:1 51:0 52:0 53:-7 54:-4 55:0 56:-1 57:-1 58:-1 59:0 60:-1 
104.4934115759251 1:0 2:-2 3:1 4:4 5:5 6:0 7:0 8:1 9:0 10:0 11:1 12:0 13:-1 14:-1 15:1 16:3 17:3 18:-1 19:0 20:0 21:0 22:0 23:1 24:0 25:-1 26:-1 27:1 28:3 29:1 30:-1 31:0 32:0 33:0 34:0 35:0 36:0 37:0 38:0 39:1 40:-3 41:-3 42:-1 43:0 44:0 45:0 46:0 47:0 48:0 49:0 50:0 51:0 52:-3 53:-3 54:-1 55:0 56:-1 57:0 58:0 59:0 60:0 
119.1627889455751 1:-1 2:-2 3:1 4:3 5:3 6:-1 7:1 8:1 9:0 10:0 11:1 12:0 13:0 14:-1 15:1 16:-3 17:-1 18:-1 19:1 20:1 21:0 22:0 23:1 24:0 25:0 26:-1 27:0 28:-3 29:-1 30:-1 31:1 32:0 33:0 34:0 35:1 36:0 37:0 38:0 39:0 40:-1 41:-1 42:-1 43:0 44:0 45:0 46:-1 47:0 48:0 49:0 50:0 51:0 52:6 53:1 54:0 55:0 56:0 57:0 58:-1 59:0 60:0 
21.49481487098313 1:-1 2:-1 3:0 4:-1 5:2 6:0 7:0 8:1 9:0 10:0 11:1 12:0 13:-1 14:-1 15:0 16:-1 17:2 18:0 19:0 20:1 21:0 22:0 23:1 24:0 25:0 26:0 27:1 28:0 29:1 30:-1 31:0 32:0 33:0 34:0 35:1 36:0 37:0 38:0 39:1 40:1 41:-1 42:0 43:0 44:0 45:0 46:0 47:0 48:0 49:0 50:0 51:1 52:1 53:-3 54:-2 55:0 56:-2 57:0 58:0 59:0 60:0 
66.77703899428184 1:0 2:-2 3:1 4:-2 5:0 6:2 7:0 8:-2 9:0 10:0 11:1 12:-1 13:0 14:-1 15:0 16:-1 17:1 18:1 19:0 20:0 21:0 22:0 23:1 24:-1 25:0 26:-1 27:0 28:1 29:2 30:0 31:0 32:1 33:-1 34:0 35:0 36:0 37:0 38:0 39:0 40:2 41:0 42:-2 43:0 44:1 45:0 46:0 47:0 48:0 49:0 50:0 51:0 52:0 53:-4 54:-5 55:0 56:1 57:0 58:0 59:0 60:0 
119.1627889455751 1:0 2:-1 3:0 4:1 5:6 6:4 7:0 8:0 9:-1 10:-1 11:1 12:0 13:0 14:0 15:0 16:2 17:4 18:2 19:0 20:0 21:0 22:-1 23:1 24:0 25:0 26:0 27:0 28:0 29:0 30:-1 31:0 32:0 33:0 34:-1 35:1 36:0 37:0 38:0 39:0 40:0 41:-5 42:-3 43:0 44:0 45:0 46:0 47:0 48:0 49:0 50:1 51:0 52:0 53:-9 54:-5 55:0 56:1 57:0 58:0 59:0 60:0 
119.1627889455751 1:0 2:-1 3:0 4:3 5:8 6:4 7:0 8:0 9:0 10:-1 11:1 12:0 13:0 14:-1 15:0 16:1 17:4 18:1 19:0 20:0 21:0 22:-1 23:1 24:0 25:0 26:-1 27:0 28:1 29:-1 30:-1 31:0 32:0 33:0 34:0 35:0 36:0 37:0 38:0 39:0 40:1 41:-5 42:-3 43:0 44:1 45:0 46:0 47:0 48:0 49:0 50:0 51:1 52:-2 53:-8 54:-5 55:0 56:2 57:0 58:0 59:0 60:0 
4.562000232557188 1:0 2:-1 3:-1 4:7 5:8 6:3 7:0 8:-1 9:0 10:0 11:1 12:-1 13:0 14:0 15:-1 16:7 17:4 18:1 19:0 20:0 21:0 22:0 23:1 24:-1 25:0 26:0 27:0 28:4 29:1 30:-1 31:0 32:1 33:0 34:0 35:1 36:-1 37:1 38:0 39:1 40:-4 41:-6 42:0 43:1 44:2 45:0 46:1 47:1 48:0 49:1 50:1 51:1 52:-12 53:-11 54:-3 55:2 56:2 57:0 58:1 59:0 60:0 
6.922308320082136 1:0 2:-1 3:-1 4:11 5:8 6:2 7:-1 8:-1 9:0 10:0 11:1 12:-1 13:0 14:-1 15:0 16:8 17:5 18:0 19:-1 20:0 21:0 22:0 23:1 24:-1 25:1 26:-1 27:1 28:0 29:-2 30:1 31:0 32:1 33:0 34:1 35:1 36:0 37:1 38:0 39:1 40:-8 41:-7 42:-2 43:1 44:1 45:0 46:1 47:0 48:0 49:2 50:0 51:2 52:-12 53:-7 54:-4 55:2 56:2 57:0 58:1 59:0 60:0 
0.02081652247517786 1:1 2:-1 3:1 4:1 5:-9 6:-13 7:1 8:0 9:0 10:0 11:1 12:0 13:0 14:-1 15:1 16:-2 17:-3 18:-6 19:0 20:0 21:0 22:0 23:1 24:0 25:0 26:-1 27:0 28:-1 29:3 30:0 31:1 32:1 33:0 34:0 35:1 36:0 37:1 38:0 39:1 40:0 41:6 42:7 43:0 44:1 45:0 46:0 47:0 48:0 49:-1 50:0 51:1 52:0 53:7 54:11 55:0 56:0 57:0 58:0 59:0 60:0 
6.04103418136259 1:1 2:-2 3:0 4:2 5:0 6:-1 7:4 8:-2 9:-3 10:-1 11:1 12:0 13:1 14:-1 15:-1 16:1 17:1 18:1 19:2 20:0 21:-1 22:0 23:1 24:0 25:0 26:0 27:-1 28:0 29:2 30:0 31:0 32:1 33:0 34:1 35:0 36:-1 37:-1 38:1 39:-1 40:-2 41:1 42:0 43:-1 44:1 45:0 46:2 47:0 48:-1 49:-1 50:1 51:0 52:-2 53:0 54:0 55:-1 56:1 57:1 58:2 59:0 60:0 
45.31105016401575 1:0 2:1 3:1 4:0 5:0 6:2 7:-2 8:0 9:-3 10:1 11:0 12:0 13:0 14:0 15:0 16:0 17:0 18:1 19:-1 20:1 21:-3 22:1 23:1 24:0 25:0 26:0 27:0 28:0 29:0 30:1 31:0 32:1 33:-1 34:1 35:1 36:0 37:0 38:-1 39:1 40:0 41:0 42:0 43:2 44:1 45:2 46:0 47:1 48:0 49:0 50:-1 51:1 52:0 53:-1 54:-1 55:3 56:1 57:3 58:0 59:1 60:0 
54.42086923373354 1:0 2:0 3:0 4:0 5:0 6:2 7:-2 8:0 9:-4 10:1 11:0 12:0 13:0 14:0 15:0 16:0 17:0 18:2 19:-1 20:0 21:-2 22:1 23:0 24:0 25:0 26:-1 27:1 28:0 29:0 30:1 31:1 32:0 33:1 34:0 35:0 36:0 37:0 38:-1 39:1 40:0 41:-1 42:0 43:2 44:0 45:2 46:0 47:0 48:0 49:0 50:-2 51:0 52:-1 53:-3 54:-3 55:3 56:1 57:2 58:-1 59:0 60:0 
119.1627889455751 1:-2 2:-1 3:1 4:0 5:1 6:6 7:-1 8:-1 9:2 10:0 11:0 12:0 13:-1 14:-1 15:0 16:0 17:1 18:3 19:-1 20:0 21:2 22:0 23:1 24:0 25:0 26:0 27:-1 28:-1 29:0 30:1 31:0 32:1 33:0 34:0 35:1 36:0 37:1 38:0 39:-2 40:0 41:-1 42:-3 43:1 44:1 45:-2 46:0 47:1 48:0 49:2 50:0 51:-2 52:0 53:-1 54:-6 55:2 56:1 57:-2 58:0 59:1 60:0 
119.1627889455751 1:0 2:0 3:0 4:0 5:-1 6:0 7:2 8:-2 9:2 10:0 11:0 12:0 13:0 14:0 15:0 16:0 17:-1 18:0 19:2 20:-3 21:2 22:0 23:0 24:0 25:0 26:0 27:0 28:0 29:-1 30:0 31:0 32:3 33:0 34:0 35:0 36:0 37:0 38:0 39:0 40:0 41:-1 42:0 43:-1 44:2 45:-1 46:0 47:0 48:0 49:0 50:0 51:0 52:0 53:0 54:0 55:-1 56:2 57:-1 58:0 59:0 60:0 
119.1627889455751 1:0 2:0 3:0 4:0 5:-1 6:0 7:3 8:-4 9:3 10:0 11:0 12:0 13:0 14:0 15:0 16:0 17:-1 18:0 19:1 20:2 21:1 22:0 23:0 24:0 25:0 26:0 27:0 28:0 29:-1 30:0 31:0 32:1 33:0 34:0 35:0 36:0 37:0 38:0 39:0 40:0 41:0 42:0 43:0 44:1 45:0 46:0 47:0 48:0 49:0 50:0 51:0 52:0 53:1 54:0 55:0 56:1 57:0 58:0 59:0 60:0 
119.1627889455751 1:0 2:0 3:0 4:1 5:-1 6:0 7:1 8:1 9:1 10:0 11:0 12:0 13:0 14:0 15:0 16:1 17:-1 18:0 19:0 20:0 21:0 22:0 23:0 24:0 25:0 26:0 27:0 28:1 29:0 30:0 31:0 32:0 33:0 34:0 35:0 36:0 37:0 38:0 39:0 40:1 41:1 42:0 43:0 44:0 45:0 46:0 47:0 48:0 49:0 50:0 51:0 52:0 53:1 54:0 55:0 56:0 57:0 58:0 59:0 60:0 
119.1627889455751 1:0 2:0 3:0 4:1 5:-2 6:0 7:0 8:0 9:0 10:0 11:0 12:0 13:0 14:0 15:0 16:1 17:-1 18:0 19:0 20:0 21:0 22:0 23:0 24:0 25:0 26:0 27:0 28:1 29:0 30:0 31:0 32:0 33:0 34:0 35:0 36:0 37:0 38:0 39:0 40:0 41:0 42:0 43:0 44:0 45:0 46:0 47:0 48:0 49:0 50:0 51:0 52:0 53:0 54:0 55:0 56:0 57:0 58:0 59:0 60:0 
119.1627889455751 1:-1 2:0 3:0 4:1 5:-1 6:0 7:0 8:0 9:0 10:0 11:0 12:0 13:-1 14:0 15:0 16:1 17:0 18:0 19:0 20:0 21:0 22:0 23:0 24:0 25:-1 26:0 27:0 28:0 29:0 30:0 31:0 32:0 33:0 34:0 35:0 36:0 37:-1 38:0 39:0 40:0 41:0 42:0 43:0 44:0 45:0 46:0 47:0 48:0 49:0 50:0 51:0 52:0 53:0 54:0 55:0 56:0 57:0 58:0 59:0 60:0 
119.1627889455751 1:0 2:-1 3:1 4:0 5:0 6:0 7:0 8:0 9:0 10:0 11:0 12:0 13:0 14:-1 15:0 16:0 17:-1 18:0 19:0 20:0 21:0 22:0 23:0 24:0 25:0 26:0 27:0 28:0 29:-1 30:0 31:0 32:0 33:0 34:0 35:0 36:0 37:0 38:0 39:1 40:0 41:-1 42:0 43:0 44:0 45:0 46:0 47:0 48:0 49:0 50:0 51:1 52:0 53:-1 54:0 55:0 56:0 57:0 58:0 59:0 60:0 
119.1627889455751 1:0 2:-1 3:0 4:0 5:-1 6:0 7:0 8:0 9:0 10:0 11:0 12:0 13:0 14:0 15:0 16:0 17:-1 18:0 19:0 20:0 21:0 22:0 23:0 24:0 25:0 26:0 27:1 28:0 29:-1 30:0 31:0 32:0 33:0 34:0 35:0 36:0 37:0 38:0 39:1 40:0 41:-1 42:0 43:0 44:0 45:0 46:0 47:0 48:0 49:0 50:-1 51:0 52:0 53:0 54:0 55:1 56:0 57:0 58:0 59:0 60:0 
119.1627889455751 1:0 2:0 3:0 4:0 5:-1 6:-1 7:0 8:1 9:0 10:1 11:0 12:-1 13:0 14:0 15:1 16:0 17:-1 18:-1 19:0 20:1 21:0 22:1 23:0 24:-1 25:0 26:0 27:1 28:0 29:-1 30:-1 31:0 32:1 33:0 34:1 35:0 36:-1 37:0 38:-1 39:0 40:0 41:0 42:-1 43:1 44:1 45:0 46:1 47:0 48:-1 49:-1 50:-1 51:-1 52:0 53:1 54:0 55:1 56:0 57:-1 58:0 59:0 60:0 
119.1627889455751 1:0 2:0 3:1 4:1 5:-2 6:-1 7:0 8:1 9:0 10:1 11:0 12:-1 13:0 14:0 15:1 16:1 17:-2 18:-1 19:0 20:1 21:0 22:1 23:0 24:-1 25:0 26:-1 27:0 28:1 29:-1 30:-1 31:1 32:1 33:0 34:1 35:0 36:-1 37:-1 38:-1 39:-1 40:1 41:0 42:0 43:1 44:0 45:-1 46:0 47:0 48:0 49:-1 50:-1 51:-1 52:-1 53:1 54:1 55:1 56:1 57:-1 58:0 59:0 60:0 
119.1627889455751 1:0 2:0 3:1 4:2 5:-3 6:-2 7:0 8:1 9:0 10:1 11:0 12:-1 13:0 14:-1 15:0 16:2 17:-2 18:-2 19:1 20:1 21:0 22:1 23:0 24:-1 25:-1 26:-1 27:-1 28:2 29:-1 30:-1 31:1 32:0 33:-1 34:0 35:0 36:0 37:-1 38:-1 39:-1 40:0 41:0 42:0 43:1 44:1 45:-1 46:0 47:0 48:0 49:0 50:-1 51:-2 52:-2 53:4 54:2 55:1 56:1 57:-1 58:1 59:0 60:0 
119.1627889455751 1:1 2:0 3:-1 4:1 5:2 6:-6 7:1 8:0 9:-1 10:0 11:0 12:0 13:1 14:0 15:0 16:0 17:2 18:-2 19:1 20:0 21:-1 22:0 23:0 24:0 25:0 26:0 27:-1 28:-1 29:0 30:2 31:0 32:0 33:-1 34:0 35:0 36:0 37:-1 38:0 39:-1 40:0 41:0 42:3 43:-1 44:0 45:0 46:1 47:0 48:0 49:-1 50:-1 51:-1 52:0 53:0 54:4 55:-1 56:0 57:1 58:1 59:0 60:0 
1.052892505703784 1:0 2:0 3:-1 4:-2 5:-1 6:3 7:-10 8:0 9:4 10:-1 11:0 12:0 13:0 14:0 15:-1 16:-1 17:0 18:0 19:2 20:0 21:2 22:0 23:0 24:0 25:1 26:0 27:-1 28:0 29:0 30:-1 31:3 32:0 33:-1 34:0 35:0 36:0 37:1 38:0 39:0 40:1 41:1 42:-1 43:3 44:0 45:-3 46:0 47:0 48:0 49:2 50:-1 51:1 52:2 53:0 54:0 55:3 56:0 57:-4 58:-1 59:0 60:0 
45.92160750947227 1:2 2:0 3:-1 4:0 5:-1 6:8 7:2 8:8 9:3 10:-1 11:0 12:-1 13:2 14:0 15:-1 16:0 17:0 18:7 19:1 20:5 21:1 22:0 23:0 24:0 25:1 26:0 27:0 28:0 29:0 30:7 31:1 32:-3 33:-2 34:0 35:0 36:0 37:0 38:0 39:0 40:-1 41:2 42:-3 43:0 44:-3 45:-2 46:1 47:0 48:0 49:-1 50:-1 51:0 52:-2 53:1 54:-15 55:0 56:-3 57:-1 58:1 59:0 60:0 
35.02087579574114 1:2 2:0 3:-1 4:1 5:0 6:11 7:1 8:7 9:1 10:0 11:0 12:0 13:1 14:0 15:0 16:1 17:0 18:11 19:1 20:-1 21:-2 22:0 23:0 24:0 25:0 26:0 27:0 28:0 29:2 30:1 31:0 32:-1 33:-2 34:1 35:0 36:0 37:-1 38:-1 39:0 40:-1 41:1 42:-11 43:0 44:-1 45:-1 46:1 47:0 48:0 49:-2 50:-1 51:1 52:-1 53:0 54:-13 55:0 56:-2 57:1 58:1 59:0 60:0 
119.1627889455751 1:2 2:0 3:0 4:1 5:0 6:16 7:1 8:1 9:-2 10:0 11:0 12:0 13:1 14:0 15:0 16:0 17:2 18:6 19:0 20:1 21:-2 22:1 23:0 24:0 25:0 26:-1 27:0 28:-1 29:1 30:-6 31:0 32:1 33:-1 34:1 35:0 36:0 37:-1 38:-1 39:1 40:-1 41:0 42:-8 43:0 44:0 45:1 46:1 47:0 48:0 49:-2 50:-1 51:0 52:0 53:0 54:-10 55:0 56:-1 57:2 58:1 59:0 60:0 
119.1627889455751 1:2 2:0 3:0 4:0 5:2 6:11 7:0 8:1 9:-3 10:1 11:0 12:0 13:1 14:-1 15:0 16:-1 17:1 18:-1 19:0 20:1 21:-2 22:1 23:0 24:0 25:0 26:-1 27:1 28:-1 29:0 30:-3 31:0 32:0 33:0 34:1 35:0 36:0 37:-1 38:-1 39:0 40:0 41:0 42:-5 43:0 44:-1 45:1 46:1 47:0 48:0 49:0 50:-1 51:0 52:1 53:-1 54:-6 55:1 56:1 57:2 58:0 59:0 60:0 
119.1627889455751 1:-1 2:-1 3:-1 4:-6 5:1 6:-1 7:2 8:3 9:-4 10:0 11:0 12:0 13:0 14:-1 15:-1 16:-4 17:1 18:1 19:2 20:2 21:-2 22:-1 23:0 24:0 25:1 26:0 27:0 28:-1 29:1 30:0 31:1 32:1 33:-1 34:-1 35:0 36:0 37:1 38:0 39:-1 40:3 41:1 42:-1 43:0 44:0 45:2 46:0 47:0 48:-1 49:1 50:1 51:-1 52:4 53:0 54:-2 55:-2 56:-2 57:5 58:0 59:0 60:-1 
47.01243998030384 1:0 2:-1 3:0 4:-4 5:2 6:-1 7:3 8:3 9:-4 10:-1 11:0 12:0 13:0 14:-1 15:-1 16:0 17:2 18:-2 19:2 20:2 21:-1 22:0 23:0 24:-1 25:0 26:0 27:-1 28:1 29:1 30:-3 31:0 32:0 33:2 34:0 35:0 36:-1 37:2 38:1 39:-1 40:1 41:0 42:0 43:0 44:0 45:3 46:0 47:0 48:-1 49:2 50:0 51:0 52:-1 53:-1 54:2 55:-2 56:-2 57:3 58:0 59:0 60:0 
46.39583703289215 1:-1 2:-1 3:0 4:-5 5:1 6:0 7:0 8:-2 9:0 10:0 11:0 12:0 13:0 14:-1 15:-1 16:-5 17:1 18:1 19:-2 20:-3 21:1 22:-1 23:0 24:0 25:0 26:0 27:-1 28:-5 29:1 30:2 31:0 32:1 33:3 34:-1 35:0 36:0 37:1 38:0 39:0 40:1 41:1 42:-1 43:0 44:1 45:3 46:-1 47:0 48:0 49:2 50:1 51:0 52:10 53:-2 54:-5 55:0 56:6 57:-3 58:-1 59:0 60:-1 
119.1627889455751 1:0 2:0 3:0 4:0 5:0 6:0 7:0 8:0 9:0 10:0 11:0 12:0 13:0 14:0 15:0 16:0 17:0 18:0 19:0 20:0 21:0 22:0 23:0 24:0 25:0 26:0 27:0 28:0 29:0 30:0 31:0 32:0 33:0 34:0 35:0 36:0 37:0 38:0 39:0 40:0 41:0 42:0 43:0 44:0 45:0 46:0 47:0 48:0 49:0 50:0 51:0 52:0 53:0 54:0 55:0 56:0 57:0 58:0 59:0 60:0 
119.1627889455751 1:1 2:0 3:0 4:0 5:2 6:0 7:0 8:0 9:0 10:0 11:0 12:0 13:1 14:0 15:0 16:0 17:2 18:0 19:0 20:0 21:0 22:0 23:0 24:0 25:-2 26:0 27:1 28:0 29:1 30:0 31:0 32:0 33:0 34:0 35:0 36:0 37:1 38:0 39:0 40:-1 41:-1 42:0 43:0 44:0 45:0 46:0 47:0 48:0 49:0 50:0 51:0 52:-1 53:-1 54:0 55:0 56:0 57:0 58:1 59:0 60:-1 
119.1627889455751 1:1 2:0 3:0 4:0 5:0 6:0 7:3 8:-4 9:1 10:0 11:0 12:0 13:0 14:0 15:0 16:0 17:0 18:0 19:3 20:-4 21:1 22:1 23:0 24:-1 25:0 26:0 27:0 28:0 29:0 30:0 31:0 32:0 33:0 34:1 35:0 36:-1 37:0 38:0 39:0 40:0 41:0 42:0 43:-3 44:5 45:-2 46:1 47:0 48:-1 49:0 50:0 51:0 52:0 53:0 54:0 55:-3 56:5 57:-2 58:1 59:0 60:-1 
119.1627889455751 1:0 2:0 3:0 4:0 5:0 6:0 7:5 8:-6 9:2 10:0 11:0 12:0 13:0 14:0 15:0 16:0 17:0 18:0 19:2 20:-2 21:1 22:0 23:0 24:0 25:0 26:0 27:0 28:0 29:0 30:0 31:-1 32:3 33:-1 34:0 35:0 36:0 37:0 38:0 39:0 40:0 41:0 42:0 43:-1 44:3 45:-1 46:0 47:0 48:0 49:-2 50:0 51:0 52:0 53:0 54:0 55:-1 56:3 57:-1 58:0 59:0 60:0 
13.11381535978621 1:1 2:0 3:1 4:-1 5:0 6:0 7:0 8:2 9:-1 10:0 11:0 12:0 13:1 14:0 15:1 16:-1 17:0 18:0 19:0 20:2 21:-1 22:0 23:0 24:0 25:-1 26:0 27:1 28:-1 29:0 30:0 31:0 32:2 33:-1 34:0 35:0 36:0 37:-1 38:0 39:0 40:-1 41:-1 42:0 43:0 44:2 45:-1 46:0 47:0 48:0 49:-2 50:0 51:0 52:0 53:1 54:0 55:3 56:-8 57:1 58:0 59:0 60:0 
8.434842355557551 1:0 2:0 3:-2 4:-9 5:12 6:1 7:2 8:3 9:-1 10:1 11:1 12:-1 13:0 14:0 15:-1 16:-9 17:13 18:1 19:1 20:2 21:0 22:1 23:1 24:0 25:1 26:0 27:1 28:1 29:4 30:0 31:1 32:0 33:0 34:1 35:1 36:0 37:0 38:0 39:1 40:8 41:-12 42:0 43:0 44:-1 45:-1 46:1 47:1 48:0 49:-1 50:0 51:1 52:8 53:-14 54:-4 55:0 56:-1 57:-1 58:0 59:0 60:-1 
8.497460683964802 1:1 2:-1 3:0 4:-5 5:16 6:3 7:2 8:1 9:1 10:1 11:1 12:1 13:0 14:-1 15:0 16:2 17:0 18:3 19:1 20:0 21:0 22:1 23:1 24:1 25:-1 26:-1 27:0 28:2 29:-2 30:-1 31:1 32:0 33:0 34:0 35:0 36:0 37:-1 38:0 39:0 40:1 41:-5 42:-3 43:0 44:0 45:-1 46:-1 47:0 48:-1 49:-2 50:1 51:0 52:0 53:-7 54:-4 55:0 56:-1 57:-1 58:-1 59:0 60:-1 
116.5074237225355 1:0 2:-2 3:1 4:4 5:5 6:0 7:0 8:1 9:0 10:0 11:1 12:0 13:-1 14:-1 15:1 16:3 17:3 18:-1 19:0 20:0 21:0 22:0 23:1 24:0 25:-1 26:-1 27:1 28:3 29:1 30:-1 31:0 32:0 33:0 34:0 35:0 36:0 37:0 38:0 39:1 40:-3 41:-3 42:-1 43:0 44:0 45:0 46:0 47:0 48:0 49:0 50:0 51:0 52:-3 53:-3 54:-1 55:0 56:-1 57:0 58:0 59:0 60:0 
119.1627889455751 1:-1 2:-2 3:1 4:3 5:3 6:-1 7:1 8:1 9:0 10:0 11:1 12:0 13:0 14:-1 15:1 16:-3 17:-1 18:-1 19:1 20:1 21:0 22:0 23:1 24:0 25:0 26:-1 27:0 28:-3 29:-1 30:-1 31:1 32:0 33:0 34:0 35:1 36:0 37:0 38:0 39:0 40:-1 41:-1 42:-1 43:0 44:0 45:0 46:-1 47:0 48:0 49:0 50:0 51:0 52:6 53:1 54:0 55:0 56:0 57:0 58:-1 59:0 60:0 
118.3411112199787 1:-1 2:-1 3:0 4:-1 5:2 6:0 7:0 8:1 9:0 10:0 11:1 12:0 13:-1 14:-1 15:0 16:-1 17:2 18:0 19:0 20:1 21:0 22:0 23:1 24:0 25:0 26:0 27:1 28:0 29:1 30:-1 31:0 32:0 33:0 34:0 35:1 36:0 37:0 38:0 39:1 40:1 41:-1 42:0 43:0 44:0 45:0 46:0 47:0 48:0 49:0 50:0 51:1 52:1 53:-3 54:-2 55:0 56:-2 57:0 58:0 59:0 60:0 
113.5477081137379 1:0 2:-2 3:1 4:-2 5:0 6:2 7:0 8:-2 9:0 10:0 11:1 12:-1 13:0 14:-1 15:0 16:-1 17:1 18:1 19:0 20:0 21:0 22:0 23:1 24:-1 25:0 26:-1 27:0 28:1 29:2 30:0 31:0 32:1 33:-1 34:0 35:0 36:0 37:0 38:0 39:0 40:2 41:0 42:-2 43:0 44:1 45:0 46:0 47:0 48:0 49:0 50:0 51:0 52:0 53:-4 54:-5 55:0 56:1 57:0 58:0 59:0 60:0 
47.18720032074615 1:0 2:-1 3:0 4:-1 5:3 6:3 7:0 8:0 9:0 10:-1 11:1 12:-1 13:0 14:-1 15:0 16:1 17:4 18:2 19:0 20:1 21:-1 22:-1 23:0 24:0 25:0 26:0 27:0 28:2 29:2 30:0 31:0 32:1 33:0 34:-1 35:0 36:0 37:0 38:0 39:0 40:0 41:-2 42:-3 43:0 44:1 45:0 46:-1 47:0 48:0 49:0 50:0 51:0 52:0 53:-7 54:-5 55:0 56:1 57:0 58:0 59:-1 60:0 
119.1627889455751 1:0 2:-1 3:0 4:1 5:6 6:4 7:0 8:0 9:-1 10:-1 11:1 12:0 13:0 14:0 15:0 16:2 17:4 18:2 19:0 20:0 21:0 22:-1 23:1 24:0 25:0 26:0 27:0 28:0 29:0 30:-1 31:0 32:0 33:0 34:-1 35:1 36:0 37:0 38:0 39:0 40:0 41:-5 42:-3 43:0 44:0 45:0 46:0 47:0 48:0 49:0 50:1 51:0 52:0 53:-9 54:-5 55:0 56:1 57:0 58:0 59:0 60:0 
119.1627889455751 1:0 2:-1 3:0 4:3 5:8 6:4 7:0 8:0 9:0 10:-1 11:1 12:0 13:0 14:-1 15:0 16:1 17:4 18:1 19:0 20:0 21:0 22:-1 23:1 24:0 25:0 26:-1 27:0 28:1 29:-1 30:-1 31:0 32:0 33:0 34:0 35:0 36:0 37:0 38:0 39:0 40:1 41:-5 42:-3 43:0 44:1 45:0 46:0 47:0 48:0 49:0 50:0 51:1 52:-2 53:-8 54:-5 55:0 56:2 57:0 58:0 59:0 60:0 
73.56560029135021 1:0 2:-1 3:-1 4:7 5:8 6:3 7:0 8:-1 9:0 10:0 11:1 12:-1 13:0 14:0 15:-1 16:7 17:4 18:1 19:0 20:0 21:0 22:0 23:1 24:-1 25:0 26:0 27:0 28:4 29:1 30:-1 31:0 32:1 33:0 34:0 35:1 36:-1 37:1 38:0 39:1 40:-4 41:-6 42:0 43:1 44:2 45:0 46:1 47:1 48:0 49:1 50:1 51:1 52:-12 53:-11 54:-3 55:2 56:2 57:0 58:1 59:0 60:0 
7.135910059301997 1:0 2:-1 3:-1 4:11 5:8 6:2 7:-1 8:-1 9:0 10:0 11:1 12:-1 13:0 14:-1 15:0 16:8 17:5 18:0 19:-1 20:0 21:0 22:0 23:1 24:-1 25:1 26:-1 27:1 28:0 29:-2 30:1 31:0 32:1 33:0 34:1 35:1 36:0 37:1 38:0 39:1 40:-8 41:-7 42:-2 43:1 44:1 45:0 46:1 47:0 48:0 49:2 50:0 51:2 52:-12 53:-7 54:-4 55:2 56:2 57:0 58:1 59:0 60:0 
12.41217939817909 1:1 2:-1 3:1 4:1 5:-9 6:-13 7:1 8:0 9:0 10:0 11:1 12:0 13:0 14:-1 15:1 16:-2 17:-3 18:-6 19:0 20:0 21:0 22:0 23:1 24:0 25:0 26:-1 27:0 28:-1 29:3 30:0 31:1 32:1 33:0 34:0 35:1 36:0 37:1 38:0 39:1 40:0 41:6 42:7 43:0 44:1 45:0 46:0 47:0 48:0 49:-1 50:0 51:1 52:0 53:7 54:11 55:0 56:0 57:0 58:0 59:0 60:0 
42.12046007908538 1:1 2:-2 3:0 4:2 5:0 6:-1 7:4 8:-2 9:-3 10:-1 11:1 12:0 13:1 14:-1 15:-1 16:1 17:1 18:1 19:2 20:0 21:-1 22:0 23:1 24:0 25:0 26:0 27:-1 28:0 29:2 30:0 31:0 32:1 33:0 34:1 35:0 36:-1 37:-1 38:1 39:-1 40:-2 41:1 42:0 43:-1 44:1 45:0 46:2 47:0 48:-1 49:-1 50:1 51:0 52:-2 53:0 54:0 55:-1 56:1 57:1 58:2 59:0 60:0 
31.00233974547216 1:-1 2:0 3:-1 4:2 5:3 6:-1 7:-2 8:2 9:-1 10:0 11:0 12:-1 13:0 14:0 15:0 16:1 17:2 18:0 19:0 20:1 21:0 22:1 23:0 24:-1 25:0 26:0 27:1 28:0 29:0 30:1 31:2 32:0 33:0 34:1 35:0 36:-1 37:1 38:0 39:1 40:-1 41:-1 42:1 43:2 44:0 45:0 46:1 47:1 48:-1 49:1 50:-1 51:1 52:-2 53:-3 54:0 55:2 56:-1 57:-1 58:1 59:1 60:0 
14.78813680795948 1:0 2:0 3:1 4:0 5:0 6:1 7:2 8:-2 9:-5 10:0 11:0 12:0 13:0 14:1 15:1 16:-1 17:-1 18:1 19:-2 20:0 21:-1 22:1 23:0 24:0 25:0 26:0 27:0 28:-1 29:-1 30:0 31:-1 32:1 33:-1 34:1 35:1 36:0 37:0 38:0 39:0 40:-1 41:-1 42:0 43:0 44:1 45:1 46:1 47:1 48:0 49:0 50:-1 51:1 52:-1 53:-1 54:-1 55:2 56:1 57:4 58:0 59:1 60:0 
119.1627889455751 1:0 2:1 3:1 4:0 5:0 6:2 7:-2 8:0 9:-3 10:1 11:0 12:0 13:0 14:0 15:0 16:0 17:0 18:1 19:-1 20:1 21:-3 22:1 23:1 24:0 25:0 26:0 27:0 28:0 29:0 30:1 31:0 32:1 33:-1 34:1 35:1 36:0 37:0 38:-1 39:1 40:0 41:0 42:0 43:2 44:1 45:2 46:0 47:1 48:0 49:0 50:-1 51:1 52:0 53:-1 54:-1 55:3 56:1 57:3 58:0 59:1 60:0 
119.1627889455751 1:0 2:0 3:0 4:0 5:0 6:2 7:-2 8:0 9:-4 10:1 11:0 12:0 13:0 14:0 15:0 16:0 17:0 18:2 19:-1 20:0 21:-2 22:1 23:0 24:0 25:0 26:-1 27:1 28:0 29:0 30:1 31:1 32:0 33:1 34:0 35:0 36:0 37:0 38:-1 39:1 40:0 41:-1 42:0 43:2 44:0 45:2 46:0 47:0 48:0 49:0 50:-2 51:0 52:-1 53:-3 54:-3 55:3 56:1 57:2 58:-1 59:0 60:0 
1.341099432004333 1:0 2:1 3:0 4:0 5:1 6:4 7:-2 8:0 9:-3 10:2 11:0 12:0 13:0 14:0 15:1 16:0 17:1 18:3 19:0 20:0 21:0 22:1 23:0 24:0 25:0 26:0 27:1 28:0 29:0 30:2 31:1 32:0 33:1 34:1 35:0 36:0 37:0 38:-1 39:0 40:-1 41:-2 42:-1 43:2 44:1 45:1 46:0 47:0 48:0 49:1 50:-1 51:-1 52:-1 53:-2 54:-4 55:2 56:2 57:1 58:0 59:1 60:0 
119.1627889455751 1:-2 2:-1 3:1 4:0 5:1 6:6 7:-1 8:-1 9:2 10:0 11:0 12:0 13:-1 14:-1 15:0 16:0 17:1 18:3 19:-1 20:0 21:2 22:0 23:1 24:0 25:0 26:0 27:-1 28:-1 29:0 30:1 31:0 32:1 33:0 34:0 35:1 36:0 37:1 38:0 39:-2 40:0 41:-1 42:-3 43:1 44:1 45:-2 46:0 47:1 48:0 49:2 50:0 51:-2 52:0 53:-1 54:-6 55:2 56:1 57:-2 58:0 59:1 60:0 
119.1627889455751 1:0 2:0 3:0 4:0 5:-1 6:0 7:2 8:-2 9:2 10:0 11:0 12:0 13:0 14:0 15:0 16:0 17:-1 18:0 19:2 20:-3 21:2 22:0 23:0 24:0 25:0 26:0 27:0 28:0 29:-1 30:0 31:0 32:3 33:0 34:0 35:0 36:0 37:0 38:0 39:0 40:0 41:-1 42:0 43:-1 44:2 45:-1 46:0 47:0 48:0 49:0 50:0 51:0 52:0 53:0 54:0 55:-1 56:2 57:-1 58:0 59:0 60:0 
119.1627889455751 1:0 2:0 3:0 4:0 5:-1 6:0 7:3 8:-4 9:3 10:0 11:0 12:0 13:0 14:0 15:0 16:0 17:-1 18:0 19:1 20:2 21:1 22:0 23:0 24:0 25:0 26:0 27:0 28:0 29:-1 30:0 31:0 32:1 33:0 34:0 35:0 36:0 37:0 38:0 39:0 40:0 41:0 42:0 43:0 44:1 45:0 46:0 47:0 48:0 49:0 50:0 51:0 52:0 53:1 54:0 55:0 56:1 57:0 58:0 59:0 60:0 
119.1627889455751 1:0 2:0 3:0 4:1 5:-1 6:0 7:1 8:1 9:1 10:0 11:0 12:0 13:0 14:0 15:0 16:1 17:-1 18:0 19:0 20:0 21:0 22:0 23:0 24:0 25:0 26:0 27:0 28:1 29:0 30:0 31:0 32:0 33:0 34:0 35:0 36:0 37:0 38:0 39:0 40:1 41:1 42:0 43:0 44:0 45:0 46:0 47:0 48:0 49:0 50:0 51:0 52:0 53:1 54:0 55:0 56:0 57:0 58:0 59:0 60:0 
119.1627889455751 1:0 2:0 3:0 4:1 5:-2 6:0 7:0 8:0 9:0 10:0 11:0 12:0 13:0 14:0 15:0 16:1 17:-1 18:0 19:0 20:0 21:0 22:0 23:0 24:0 25:0 26:0 27:0 28:1 29:0 30:0 31:0 32:0 33:0 34:0 35:0 36:0 37:0 38:0 39:0 40:0 41:0 42:0 43:0 44:0 45:0 46:0 47:0 48:0 49:0 50:0 51:0 52:0 53:0 54:0 55:0 56:0 57:0 58:0 59:0 60:0 
119.1627889455751 1:-1 2:0 3:0 4:1 5:-1 6:0 7:0 8:0 9:0 10:0 11:0 12:0 13:-1 14:0 15:0 16:1 17:0 18:0 19:0 20:0 21:0 22:0 23:0 24:0 25:-1 26:0 27:0 28:0 29:0 30:0 31:0 32:0 33:0 34:0 35:0 36:0 37:-1 38:0 39:0 40:0 41:0 42:0 43:0 44:0 45:0 46:0 47:0 48:0 49:0 50:0 51:0 52:0 53:0 54:0 55:0 56:0 57:0 58:0 59:0 60:0 
119.1627889455751 1:0 2:-1 3:1 4:0 5:0 6:0 7:0 8:0 9:0 10:0 11:0 12:0 13:0 14:-1 15:0 16:0 17:-1 18:0 19:0 20:0 21:0 22:0 23:0 24:0 25:0 26:0 27:0 28:0 29:-1 30:0 31:0 32:0 33:0 34:0 35:0 36:0 37:0 38:0 39:1 40:0 41:-1 42:0 43:0 44:0 45:0 46:0 47:0 48:0 49:0 50:0 51:1 52:0 53:-1 54:0 55:0 56:0 57:0 58:0 59:0 60:0 
119.1627889455751 1:0 2:-1 3:0 4:0 5:-1 6:0 7:0 8:0 9:0 10:0 11:0 12:0 13:0 14:0 15:0 16:0 17:-1 18:0 19:0 20:0 21:0 22:0 23:0 24:0 25:0 26:0 27:1 28:0 29:-1 30:0 31:0 32:0 33:0 34:0 35:0 36:0 37:0 38:0 39:1 40:0 41:-1 42:0 43:0 44:0 45:0 46:0 47:0 48:0 49:0 50:-1 51:0 52:0 53:0 54:0 55:1 56:0 57:0 58:0 59:0 60:0 
119.1627889455751 1:0 2:0 3:0 4:0 5:-1 6:-1 7:0 8:1 9:0 10:1 11:0 12:-1 13:0 14:0 15:1 16:0 17:-1 18:-1 19:0 20:1 21:0 22:1 23:0 24:-1 25:0 26:0 27:1 28:0 29:-1 30:-1 31:0 32:1 33:0 34:1 35:0 36:-1 37:0 38:-1 39:0 40:0 41:0 42:-1 43:1 44:1 45:0 46:1 47:0 48:-1 49:-1 50:-1 51:-1 52:0 53:1 54:0 55:1 56:0 57:-1 58:0 59:0 60:0 
119.1627889455751 1:0 2:0 3:1 4:1 5:-2 6:-1 7:0 8:1 9:0 10:1 11:0 12:-1 13:0 14:0 15:1 16:1 17:-2 18:-1 19:0 20:1 21:0 22:1 23:0 24:-1 25:0 26:-1 27:0 28:1 29:-1 30:-1 31:1 32:1 33:0 34:1 35:0 36:-1 37:-1 38:-1 39:-1 40:1 41:0 42:0 43:1 44:0 45:-1 46:0 47:0 48:0 49:-1 50:-1 51:-1 52:-1 53:1 54:1 55:1 56:1 57:-1 58:0 59:0 60:0 
119.1627889455751 1:0 2:0 3:1 4:2 5:-3 6:-2 7:0 8:1 9:0 10:1 11:0 12:-1 13:0 14:-1 15:0 16:2 17:-2 18:-2 19:1 20:1 21:0 22:1 23:0 24:-1 25:-1 26:-1 27:-1 28:2 29:-1 30:-1 31:1 32:0 33:-1 34:0 35:0 36:0 37:-1 38:-1 39:-1 40:0 41:0 42:0 43:1 44:1 45:-1 46:0 47:0 48:0 49:0 50:-1 51:-2 52:-2 53:4 54:2 55:1 56:1 57:-1 58:1 59:0 60:0 
15.08259479357578 1:0 2:-1 3:0 4:6 5:2 6:-16 7:-1 8:0 9:-1 10:0 11:0 12:0 13:1 14:0 15:-1 16:-1 17:1 18:-1 19:0 20:0 21:0 22:0 23:0 24:0 25:1 26:0 27:0 28:-2 29:1 30:3 31:0 32:0 33:0 34:0 35:0 36:0 37:0 38:0 39:-1 40:-3 41:-1 42:7 43:-1 44:0 45:0 46:0 47:0 48:0 49:-1 50:0 51:-1 52:-2 53:-1 54:8 55:-2 56:0 57:1 58:1 59:0 60:0 
119.1627889455751 1:1 2:0 3:-1 4:1 5:2 6:-6 7:1 8:0 9:-1 10:0 11:0 12:0 13:1 14:0 15:0 16:0 17:2 18:-2 19:1 20:0 21:-1 22:0 23:0 24:0 25:0 26:0 27:-1 28:-1 29:0 30:2 31:0 32:0 33:-1 34:0 35:0 36:0 37:-1 38:0 39:-1 40:0 41:0 42:3 43:-1 44:0 45:0 46:1 47:0 48:0 49:-1 50:-1 51:-1 52:0 53:0 54:4 55:-1 56:0 57:1 58:1 59:0 60:0 
76.35202231739363 1:0 2:0 3:-1 4:-2 5:-1 6:3 7:-10 8:0 9:4 10:-1 11:0 12:0 13:0 14:0 15:-1 16:-1 17:0 18:0 19:2 20:0 21:2 22:0 23:0 24:0 25:1 26:0 27:-1 28:0 29:0 30:-1 31:3 32:0 33:-1 34:0 35:0 36:0 37:1 38:0 39:0 40:1 41:1 42:-1 43:3 44:0 45:-3 46:0 47:0 48:0 49:2 50:-1 51:1 52:2 53:0 54:0 55:3 56:0 57:-4 58:-1 59:0 60:0 
119.1627889455751 1:2 2:0 3:-1 4:0 5:-1 6:8 7:2 8:8 9:3 10:-1 11:0 12:-1 13:2 14:0 15:-1 16:0 17:0 18:7 19:1 20:5 21:1 22:0 23:0 24:0 25:1 26:0 27:0 28:0 29:0 30:7 31:1 32:-3 33:-2 34:0 35:0 36:0 37:0 38:0 39:0 40:-1 41:2 42:-3 43:0 44:-3 45:-2 46:1 47:0 48:0 49:-1 50:-1 51:0 52:-2 53:1 54:-15 55:0 56:-3 57:-1 58:1 59:0 60:0 
100.3196669604265 1:2 2:0 3:-1 4:1 5:0 6:11 7:1 8:7 9:1 10:0 11:0 12:0 13:1 14:0 15:0 16:1 17:0 18:11 19:1 20:-1 21:-2 22:0 23:0 24:0 25:0 26:0 27:0 28:0 29:2 30:1 31:0 32:-1 33:-2 34:1 35:0 36:0 37:-1 38:-1 39:0 40:-1 41:1 42:-11 43:0 44:-1 45:-1 46:1 47:0 48:0 49:-2 50:-1 51:1 52:-1 53:0 54:-13 55:0 56:-2 57:1 58:1 59:0 60:0 
114.7711399669139 1:2 2:0 3:0 4:1 5:0 6:16 7:1 8:1 9:-2 10:0 11:0 12:0 13:1 14:0 15:0 16:0 17:2 18:6 19:0 20:1 21:-2 22:1 23:0 24:0 25:0 26:-1 27:0 28:-1 29:1 30:-6 31:0 32:1 33:-1 34:1 35:0 36:0 37:-1 38:-1 39:1 40:-1 41:0 42:-8 43:0 44:0 45:1 46:1 47:0 48:0 49:-2 50:-1 51:0 52:0 53:0 54:-10 55:0 56:-1 57:2 58:1 59:0 60:0 
119.1627889455751 1:2 2:0 3:0 4:0 5:2 6:11 7:0 8:1 9:-3 10:1 11:0 12:0 13:1 14:-1 15:0 16:-1 17:1 18:-1 19:0 20:1 21:-2 22:1 23:0 24:0 25:0 26:-1 27:1 28:-1 29:0 30:-3 31:0 32:0 33:0 34:1 35:0 36:0 37:-1 38:-1 39:0 40:0 41:0 42:-5 43:0 44:-1 45:1 46:1 47:0 48:0 49:0 50:-1 51:0 52:1 53:-1 54:-6 55:1 56:1 57:2 58:0 59:0 60:0 
119.1627889455751 1:-1 2:-1 3:-1 4:-6 5:1 6:-1 7:2 8:3 9:-4 10:0 11:0 12:0 13:0 14:-1 15:-1 16:-4 17:1 18:1 19:2 20:2 21:-2 22:-1 23:0 24:0 25:1 26:0 27:0 28:-1 29:1 30:0 31:1 32:1 33:-1 34:-1 35:0 36:0 37:1 38:0 39:-1 40:3 41:1 42:-1 43:0 44:0 45:2 46:0 47:0 48:-1 49:1 50:1 51:-1 52:4 53:0 54:-2 55:-2 56:-2 57:5 58:0 59:0 60:-1 
119.1627889455751 1:0 2:-1 3:0 4:-4 5:2 6:-1 7:3 8:3 9:-4 10:-1 11:0 12:0 13:0 14:-1 15:-1 16:0 17:2 18:-2 19:2 20:2 21:-1 22:0 23:0 24:-1 25:0 26:0 27:-1 28:1 29:1 30:-3 31:0 32:0 33:2 34:0 35:0 36:-1 37:2 38:1 39:-1 40:1 41:0 42:0 43:0 44:0 45:3 46:0 47:0 48:-1 49:2 50:0 51:0 52:-1 53:-1 54:2 55:-2 56:-2 57:3 58:0 59:0 60:0 
114.1222523255274 1:-1 2:-1 3:0 4:-5 5:1 6:0 7:0 8:-2 9:0 10:0 11:0 12:0 13:0 14:-1 15:-1 16:-5 17:1 18:1 19:-2 20:-3 21:1 22:-1 23:0 24:0 25:0 26:0 27:-1 28:-5 29:1 30:2 31:0 32:1 33:3 34:-1 35:0 36:0 37:1 38:0 39:0 40:1 41:1 42:-1 43:0 44:1 45:3 46:-1 47:0 48:0 49:2 50:1 51:0 52:10 53:-2 54:-5 55:0 56:6 57:-3 58:-1 59:0 60:-1 
46.27786931716114 1:-1 2:-2 3:-1 4:-7 5:2 6:2 7:-2 8:-6 9:2 10:0 11:0 12:0 13:-1 14:-1 15:-1 16:-7 17:2 18:3 19:0 20:-2 21:4 22:0 23:0 24:0 25:0 26:-1 27:0 28:-1 29:2 30:0 31:0 32:-2 33:4 34:0 35:0 36:0 37:1 38:0 39:0 40:8 41:-1 42:-4 43:0 44:3 45:-2 46:0 47:0 48:-1 49:3 50:2 51:0 52:11 53:-1 54:-3 55:-1 56:8 57:-6 58:-1 59:0 60:-1 
119.1627889455751 1:0 2:0 3:0 4:0 5:0 6:0 7:0 8:0 9:0 10:0 11:0 12:0 13:0 14:0 15:0 16:0 17:0 18:0 19:0 20:0 21:0 22:0 23:0 24:0 25:0 26:0 27:0 28:0 29:0 30:0 31:0 32:0 33:0 34:0 35:0 36:0 37:0 38:0 39:0 40:0 41:0 42:0 43:0 44:0 45:0 46:0 47:0 48:0 49:0 50:0 51:0 52:0 53:0 54:0 55:0 56:0 57:0 58:0 59:0 60:0 
-170.8372086702391 1:-2 2:-1 3:0 4:-1 5:3 6:8 7:0 8:-1 9:-1 10:0 11:0 12:0 13:-1 14:-1 15:0 16:-1 17:3 18:5 19:1 20:-1 21:-1 22:0 23:0 24:0 25:0 26:-1 27:0 28:-1 29:0 30:1 31:2 32:-1 33:-2 34:-1 35:0 36:0 37:1 38:-1 39:0 40:-1 41:-3 42:-5 43:1 44:1 45:-1 46:-1 47:1 48:0 49:2 50:0 51:0 52:1 53:-3 54:-10 55:0 56:3 57:1 58:0 59:1 60:0 
-1.709499214587166 1:-1 2:-1 3:0 4:-1 5:4 6:9 7:1 8:-2 9:-1 10:0 11:0 12:0 13:0 14:-1 15:0 16:-1 17:1 18:5 19:2 20:-2 21:-2 22:-1 23:0 24:0 25:1 26:-1 27:0 28:-1 29:-2 30:-1 31:1 32:0 33:-1 34:-1 35:1 36:0 37:2 38:0 39:0 40:1 41:-2 42:-6 43:0 44:2 45:1 46:0 47:1 48:0 49:2 50:0 51:-1 52:2 53:-2 54:-11 55:0 56:3 57:0 58:0 59:1 60:0 
-170.8372086702391 1:-1 2:-1 3:0 4:-3 5:2 6:11 7:1 8:-2 9:-3 10:-1 11:0 12:0 13:0 14:-1 15:0 16:-3 17:-1 18:5 19:0 20:0 21:-2 22:-1 23:1 24:0 25:1 26:0 27:0 28:-1 29:-1 30:0 31:-1 32:2 33:0 34:0 35:1 36:0 37:1 38:0 39:-1 40:0 41:-1 42:-5 43:-1 44:3 45:-1 46:0 47:1 48:0 49:1 50:0 51:-1 52:4 53:-1 54:-11 55:1 56:1 57:2 58:0 59:1 60:-1 
-0.07173770480360191 1:1 2:0 3:0 4:-10 5:-1 6:12 7:-2 8:3 9:-4 10:0 11:0 12:0 13:1 14:0 15:0 16:-6 17:-1 18:6 19:0 20:1 21:-1 22:0 23:0 24:-1 25:1 26:0 27:0 28:-2 29:0 30:0 31:2 32:-1 33:1 34:0 35:0 36:-1 37:0 38:-1 39:0 40:5 41:1 42:-7 43:2 44:-1 45:1 46:-1 47:0 48:-1 49:0 50:-1 51:0 52:11 53:1 54:-11 55:1 56:-1 57:1 58:-1 59:0 60:-1 
-0.04851539334816171 1:1 2:0 3:-1 4:-11 5:-2 6:11 7:-1 8:2 9:-2 10:0 11:0 12:0 13:1 14:0 15:-1 16:-7 17:-1 18:5 19:1 20:0 21:0 22:0 23:0 24:0 25:0 26:-1 27:-1 28:0 29:0 30:-2 31:1 32:0 33:0 34:-1 35:0 36:0 37:0 38:-1 39:-1 40:6 41:0 42:-6 43:0 44:0 45:0 46:-1 47:0 48:0 49:-2 50:-2 51:0 52:10 53:1 54:-10 55:-1 56:-1 57:0 58:0 59:0 60:0 
-7.59814062975218 1:-1 2:0 3:0 4:-18 5:-6 6:-7 7:4 8:1 9:0 10:1 11:0 12:-1 13:0 14:0 15:-1 16:-9 17:-4 18:-7 19:1 20:0 21:0 22:0 23:0 24:-1 25:1 26:0 27:-1 28:3 29:0 30:-2 31:-2 32:0 33:0 34:0 35:0 36:-1 37:2 38:0 39:0 40:11 41:5 42:4 43:-2 44:0 45:0 46:0 47:0 48:0 49:2 50:0 51:-1 52:14 53:6 54:8 55:0 56:-1 57:1 58:0 59:0 60:0 
-0.1204255317780394 1:0 2:0 3:0 4:-4 5:0 6:-6 7:0 8:0 9:0 10:0 11:0 12:0 13:1 14:0 15:0 16:-1 17:1 18:-4 19:0 20:0 21:-1 22:0 23:1 24:0 25:1 26:-1 27:0 28:1 29:1 30:0 31:0 32:0 33:0 34:0 35:1 36:0 37:0 38:-1 39:0 40:2 41:0 42:4 43:1 44:0 45:1 46:0 47:1 48:0 49:0 50:-1 51:0 52:2 53:1 54:5 55:2 56:0 57:1 58:0 59:1 60:0 
-168.6444199283731 1:1 2:0 3:-1 4:-1 5:0 6:-4 7:1 8:0 9:1 10:0 11:1 12:0 13:1 14:0 15:-1 16:-1 17:1 18:-3 19:2 20:0 21:1 22:0 23:1 24:0 25:0 26:0 27:0 28:0 29:1 30:-2 31:0 32:0 33:0 34:0 35:1 36:0 37:-1 38:0 39:0 40:1 41:1 42:1 43:-1 44:0 45:0 46:1 47:0 48:0 49:0 50:0 51:-1 52:1 53:0 54:4 55:-1 56:0 57:0 58:0 59:1 60:0 
-152.1663107602599 1:2 2:0 3:-1 4:-1 5:1 6:-5 7:2 8:0 9:1 10:0 11:1 12:0 13:1 14:0 15:0 16:0 17:1 18:-4 19:0 20:0 21:0 22:0 23:1 24:0 25:0 26:0 27:0 28:1 29:1 30:-1 31:-1 32:0 33:0 34:1 35:0 36:0 37:1 38:0 39:-1 40:1 41:0 42:2 43:-1 44:0 45:0 46:0 47:1 48:0 49:0 50:0 51:-1 52:0 53:0 54:4 55:0 56:0 57:0 58:0 59:0 60:0 
-162.2474519769759 1:1 2:-1 3:0 4:1 5:1 6:-3 7:-1 8:0 9:1 10:0 11:1 12:0 13:0 14:-1 15:0 16:0 17:1 18:-1 19:0 20:0 21:1 22:0 23:0 24:0 25:0 26:-1 27:0 28:0 29:1 30:0 31:2 32:0 33:0 34:0 35:0 36:0 37:0 38:-1 39:-1 40:1 41:0 42:1 43:1 44:0 45:0 46:1 47:0 48:0 49:-1 50:0 51:-2 52:1 53:0 54:3 55:0 56:1 57:0 58:1 59:0 60:0 
-170.8372086702391 1:1 2:-1 3:1 4:-1 5:2 6:-2 7:2 8:0 9:0 10:0 11:0 12:0 13:1 14:-1 15:0 16:0 17:1 18:-1 19:1 20:0 21:0 22:1 23:0 24:0 25:0 26:0 27:-1 28:0 29:1 30:1 31:0 32:1 33:0 34:1 35:0 36:0 37:1 38:0 39:-1 40:1 41:-1 42:1 43:0 44:1 45:0 46:0 47:0 48:0 49:0 50:0 51:-2 52:2 53:-2 54:1 55:0 56:1 57:0 58:0 59:0 60:0 
-23.60208127095445 1:1 2:0 3:-1 4:1 5:6 6:-1 7:1 8:0 9:0 10:0 11:0 12:0 13:1 14:-1 15:-1 16:2 17:4 18:0 19:2 20:1 21:-1 22:0 23:0 24:0 25:1 26:-1 27:0 28:2 29:1 30:0 31:1 32:1 33:0 34:0 35:1 36:0 37:0 38:-1 39:1 40:-1 41:-4 42:0 43:0 44:1 45:0 46:0 47:0 48:0 49:-1 50:-1 51:1 52:-2 53:-8 54:1 55:-1 56:1 57:1 58:0 59:0 60:-1 
-2.477272826105713 1:1 2:0 3:-2 4:3 5:7 6:-1 7:2 8:0 9:-1 10:0 11:0 12:0 13:1 14:0 15:-1 16:3 17:4 18:-1 19:1 20:0 21:0 22:0 23:1 24:0 25:0 26:0 27:0 28:0 29:-1 30:-1 31:0 32:0 33:0 34:0 35:0 36:0 37:-1 38:0 39:0 40:-1 41:-5 42:0 43:-1 44:0 45:1 46:0 47:0 48:-1 49:-1 50:0 51:0 52:-3 53:-8 54:-1 55:-2 56:0 57:0 58:0 59:0 60:-1 
-21.88934164479764 1:0 2:-1 3:0 4:3 5:6 6:1 7:2 8:0 9:0 10:0 11:0 12:0 13:-1 14:-1 15:0 16:2 17:2 18:2 19:1 20:0 21:1 22:0 23:0 24:-1 25:-1 26:-1 27:0 28:0 29:-1 30:1 31:0 32:0 33:0 34:0 35:0 36:-1 37:-1 38:0 39:0 40:0 41:-3 42:-1 43:0 44:0 45:0 46:0 47:0 48:-1 49:-1 50:0 51:0 52:-1 53:-6 54:-4 55:0 56:0 57:0 58:0 59:0 60:-1 
-5.069678486138264 1:0 2:-1 3:-1 4:2 5:5 6:3 7:1 8:0 9:1 10:0 11:0 12:0 13:0 14:-1 15:-1 16:0 17:2 18:2 19:0 20:0 21:0 22:0 23:0 24:0 25:0 26:0 27:-1 28:0 29:0 30:0 31:0 32:0 33:0 34:0 35:0 36:0 37:0 38:0 39:-1 40:-1 41:-3 42:-3 43:0 44:0 45:0 46:0 47:0 48:0 49:0 50:-1 51:0 52:-1 53:-4 54:-5 55:0 56:0 57:1 58:0 59:0 60:0 
-170.8372086702391 1:0 2:-1 3:-1 4:1 5:4 6:4 7:0 8:0 9:0 10:0 11:0 12:-1 13:0 14:0 15:-1 16:1 17:2 18:2 19:0 20:0 21:0 22:0 23:0 24:-1 25:0 26:0 27:-1 28:0 29:-1 30:-1 31:0 32:0 33:0 34:0 35:0 36:-1 37:0 38:-1 39:0 40:0 41:-2 42:-3 43:0 44:0 45:1 46:0 47:0 48:-1 49:-1 50:-2 51:1 52:-1 53:-3 54:-4 55:0 56:0 57:1 58:0 59:0 60:0 
-170.8372086702391 1:0 2:0 3:0 4:2 5:-2 6:5 7:0 8:1 9:0 10:0 11:0 12:0 13:0 14:0 15:0 16:2 17:-2 18:3 19:0 20:1 21:0 22:0 23:0 24:0 25:0 26:0 27:0 28:0 29:-1 30:0 31:0 32:1 33:0 34:0 35:0 36:0 37:0 38:0 39:0 40:-1 41:0 42:-3 43:0 44:1 45:0 46:0 47:0 48:0 49:-1 50:0 51:1 52:-1 53:2 54:-5 55:1 56:0 57:0 58:0 59:0 60:0 
-20.74107042003213 1:1 2:-1 3:0 4:1 5:-5 6:4 7:-1 8:1 9:0 10:0 11:1 12:0 13:0 14:-1 15:1 16:1 17:-3 18:2 19:0 20:0 21:0 22:0 23:1 24:0 25:-1 26:-1 27:1 28:1 29:-1 30:0 31:0 32:-1 33:1 34:0 35:1 36:0 37:-1 38:-1 39:1 40:0 41:1 42:-2 43:0 44:-1 45:1 46:1 47:0 48:0 49:-1 50:0 51:0 52:-2 53:4 54:-4 55:1 56:1 57:1 58:1 59:0 60:0 
-116.6588447363721 1:0 2:-1 3:2 4:3 5:-4 6:3 7:0 8:-2 9:1 10:0 11:0 12:0 13:0 14:0 15:1 16:1 17:-1 18:1 19:1 20:0 21:1 22:0 23:0 24:0 25:0 26:0 27:0 28:0 29:1 30:-2 31:1 32:2 33:1 34:0 35:0 36:0 37:-1 38:0 39:0 40:0 41:2 42:-2 43:1 44:1 45:0 46:1 47:0 48:0 49:-1 50:0 51:0 52:-2 53:2 54:-2 55:0 56:0 57:0 58:1 59:0 60:0 
-152.8293735852523 1:0 2:0 3:1 4:2 5:-3 6:2 7:1 8:0 9:1 10:0 11:0 12:0 13:0 14:0 15:0 16:1 17:-1 18:-1 19:1 20:2 21:1 22:0 23:0 24:0 25:-1 26:0 27:0 28:1 29:0 30:-1 31:1 32:1 33:0 34:1 35:0 36:0 37:-1 38:0 39:0 40:-1 41:0 42:-1 43:0 44:0 45:0 46:1 47:0 48:0 49:-1 50:0 51:0 52:-2 53:0 54:0 55:0 56:0 57:0 58:1 59:0 60:0 
-16.18268872676563 1:0 2:0 3:0 4:2 5:-1 6:-1 7:1 8:2 9:1 10:0 11:0 12:0 13:-1 14:0 15:0 16:2 17:0 18:-1 19:1 20:1 21:0 22:1 23:0 24:0 25:-1 26:0 27:0 28:0 29:0 30:-1 31:0 32:0 33:0 34:1 35:0 36:0 37:-1 38:0 39:0 40:-1 41:0 42:0 43:0 44:0 45:0 46:1 47:0 48:0 49:-1 50:0 51:0 52:-1 53:1 54:0 55:1 56:0 57:0 58:1 59:0 60:-1 
-147.9071350706435 1:0 2:0 3:1 4:3 5:-1 6:-1 7:1 8:1 9:0 10:0 11:0 12:0 13:0 14:0 15:1 16:1 17:-1 18:-1 19:0 20:0 21:0 22:0 23:0 24:0 25:0 26:0 27:1 28:0 29:-1 30:0 31:0 32:0 33:0 34:0 35:0 36:0 37:0 38:0 39:1 40:0 41:0 42:0 43:1 44:0 45:0 46:0 47:0 48:-1 49:0 50:0 51:0 52:0 53:0 54:-1 55:1 56:0 57:0 58:0 59:0 60:-1 
-170.8372086702391 1:0 2:0 3:1 4:1 5:-1 6:-1 7:0 8:0 9:0 10:0 11:0 12:0 13:0 14:0 15:1 16:0 17:-1 18:0 19:0 20:0 21:0 22:0 23:0 24:0 25:0 26:0 27:1 28:0 29:0 30:0 31:1 32:0 33:0 34:0 35:0 36:-1 37:0 38:0 39:0 40:0 41:0 42:-1 43:1 44:0 45:0 46:0 47:0 48:-1 49:0 50:0 51:0 52:-1 53:0 54:-1 55:1 56:0 57:0 58:0 59:0 60:-1 
-170.8372086702391 1:0 2:0 3:1 4:1 5:0 6:0 7:0 8:0 9:0 10:0 11:0 12:0 13:0 14:0 15:0 16:1 17:0 18:-1 19:0 20:0 21:0 22:0 23:0 24:0 25:0 26:0 27:0 28:0 29:0 30:-1 31:0 32:0 33:0 34:0 35:0 36:0 37:0 38:0 39:0 40:0 41:-1 42:-1 43:0 44:0 45:0 46:0 47:0 48:0 49:0 50:0 51:1 52:0 53:-1 54:-1 55:0 56:0 57:0 58:0 59:0 60:0 
-170.8372086702391 1:0 2:0 3:0 4:1 5:0 6:0 7:0 8:1 9:0 10:0 11:0 12:0 13:0 14:0 15:0 16:0 17:0 18:0 19:0 20:1 21:0 22:0 23:0 24:0 25:0 26:0 27:0 28:0 29:-1 30:0 31:0 32:1 33:0 34:0 35:0 36:0 37:0 38:0 39:1 40:0 41:-1 42:0 43:0 44:1 45:0 46:0 47:0 48:0 49:0 50:0 51:1 52:0 53:-1 54:0 55:0 56:0 57:0 58:0 59:0 60:0 
-170.8372086702391 1:-2 2:-1 3:0 4:-1 5:3 6:8 7:0 8:-1 9:-1 10:0 11:0 12:0 13:-1 14:-1 15:0 16:-1 17:3 18:5 19:1 20:-1 21:-1 22:0 23:0 24:0 25:0 26:-1 27:0 28:-1 29:0 30:1 31:2 32:-1 33:-2 34:-1 35:0 36:0 37:1 38:-1 39:0 40:-1 41:-3 42:-5 43:1 44:1 45:-1 46:-1 47:1 48:0 49:2 50:0 51:0 52:1 53:-3 54:-10 55:0 56:3 57:1 58:0 59:1 60:0 
-9.141107301876252 1:-1 2:-1 3:0 4:-1 5:4 6:9 7:1 8:-2 9:-1 10:0 11:0 12:0 13:0 14:-1 15:0 16:-1 17:1 18:5 19:2 20:-2 21:-2 22:-1 23:0 24:0 25:1 26:-1 27:0 28:-1 29:-2 30:-1 31:1 32:0 33:-1 34:-1 35:1 36:0 37:2 38:0 39:0 40:1 41:-2 42:-6 43:0 44:2 45:1 46:0 47:1 48:0 49:2 50:0 51:-1 52:2 53:-2 54:-11 55:0 56:3 57:0 58:0 59:1 60:0 
-170.8372086702391 1:-1 2:-1 3:0 4:-3 5:2 6:11 7:1 8:-2 9:-3 10:-1 11:0 12:0 13:0 14:-1 15:0 16:-3 17:-1 18:5 19:0 20:0 21:-2 22:-1 23:1 24:0 25:1 26:0 27:0 28:-1 29:-1 30:0 31:-1 32:2 33:0 34:0 35:1 36:0 37:1 38:0 39:-1 40:0 41:-1 42:-5 43:-1 44:3 45:-1 46:0 47:1 48:0 49:1 50:0 51:-1 52:4 53:-1 54:-11 55:1 56:1 57:2 58:0 59:1 60:-1 
-170.8372086702391 1:1 2:0 3:-1 4:-1 5:0 6:-4 7:1 8:0 9:1 10:0 11:1 12:0 13:1 14:0 15:-1 16:-1 17:1 18:-3 19:2 20:0 21:1 22:0 23:1 24:0 25:0 26:0 27:0 28:0 29:1 30:-2 31:0 32:0 33:0 34:0 35:1 36:0 37:-1 38:0 39:0 40:1 41:1 42:1 43:-1 44:0 45:0 46:1 47:0 48:0 49:0 50:0 51:-1 52:1 53:0 54:4 55:-1 56:0 57:0 58:0 59:1 60:0 
-170.8372086702391 1:2 2:0 3:-1 4:-1 5:1 6:-5 7:2 8:0 9:1 10:0 11:1 12:0 13:1 14:0 15:0 16:0 17:1 18:-4 19:0 20:0 21:0 22:0 23:1 24:0 25:0 26:0 27:0 28:1 29:1 30:-1 31:-1 32:0 33:0 34:1 35:0 36:0 37:1 38:0 39:-1 40:1 41:0 42:2 43:-1 44:0 45:0 46:0 47:1 48:0 49:0 50:0 51:-1 52:0 53:0 54:4 55:0 56:0 57:0 58:0 59:0 60:0 
-170.8372086702391 1:1 2:-1 3:0 4:1 5:1 6:-3 7:-1 8:0 9:1 10:0 11:1 12:0 13:0 14:-1 15:0 16:0 17:1 18:-1 19:0 20:0 21:1 22:0 23:0 24:0 25:0 26:-1 27:0 28:0 29:1 30:0 31:2 32:0 33:0 34:0 35:0 36:0 37:0 38:-1 39:-1 40:1 41:0 42:1 43:1 44:0 45:0 46:1 47:0 48:0 49:-1 50:0 51:-2 52:1 53:0 54:3 55:0 56:1 57:0 58:1 59:0 60:0 
-170.8372086702391 1:1 2:-1 3:1 4:-1 5:2 6:-2 7:2 8:0 9:0 10:0 11:0 12:0 13:1 14:-1 15:0 16:0 17:1 18:-1 19:1 20:0 21:0 22:1 23:0 24:0 25:0 26:0 27:-1 28:0 29:1 30:1 31:0 32:1 33:0 34:1 35:0 36:0 37:1 38:0 39:-1 40:1 41:-1 42:1 43:0 44:1 45:0 46:0 47:0 48:0 49:0 50:0 51:-2 52:2 53:-2 54:1 55:0 56:1 57:0 58:0 59:0 60:0 
-157.1596854041112 1:1 2:-1 3:1 4:-1 5:2 6:-2 7:1 8:-1 9:1 10:1 11:0 12:0 13:0 14:0 15:0 16:-1 17:2 18:0 19:0 20:0 21:1 22:1 23:0 24:0 25:1 26:0 27:0 28:0 29:0 30:0 31:0 32:0 33:1 34:0 35:0 36:0 37:0 38:0 39:-1 40:1 41:-1 42:0 43:0 44:0 45:1 46:0 47:0 48:0 49:0 50:-1 51:-1 52:2 53:-3 54:1 55:1 56:1 57:0 58:0 59:0 60:0 
-30.95036667700034 1:1 2:0 3:-1 4:1 5:6 6:-1 7:1 8:0 9:0 10:0 11:0 12:0 13:1 14:-1 15:-1 16:2 17:4 18:0 19:2 20:1 21:-1 22:0 23:0 24:0 25:1 26:-1 27:0 28:2 29:1 30:0 31:1 32:1 33:0 34:0 35:1 36:0 37:0 38:-1 39:1 40:-1 41:-4 42:0 43:0 44:1 45:0 46:0 47:0 48:0 49:-1 50:-1 51:1 52:-2 53:-8 54:1 55:-1 56:1 57:1 58:0 59:0 60:-1 
-161.854554588769 1:1 2:-1 3:-1 4:4 5:8 6:0 7:2 8:0 9:0 10:0 11:1 12:0 13:0 14:-1 15:0 16:1 17:3 18:0 19:1 20:0 21:0 22:0 23:0 24:0 25:-1 26:-1 27:0 28:0 29:-1 30:1 31:0 32:0 33:1 34:0 35:0 36:-1 37:-1 38:-1 39:0 40:-2 41:-4 42:0 43:-1 44:0 45:0 46:0 47:0 48:-1 49:-1 50:0 51:0 52:-2 53:-6 54:-2 55:-1 56:0 57:0 58:0 59:0 60:-1 
-170.8372086702391 1:0 2:-1 3:-1 4:1 5:4 6:4 7:0 8:0 9:0 10:0 11:0 12:-1 13:0 14:0 15:-1 16:1 17:2 18:2 19:0 20:0 21:0 22:0 23:0 24:-1 25:0 26:0 27:-1 28:0 29:-1 30:-1 31:0 32:0 33:0 34:0 35:0 36:-1 37:0 38:-1 39:0 40:0 41:-2 42:-3 43:0 44:0 45:1 46:0 47:0 48:-1 49:-1 50:-2 51:1 52:-1 53:-3 54:-4 55:0 56:0 57:1 58:0 59:0 60:0 
-168.0816191941764 1:0 2:1 3:-2 4:1 5:2 6:3 7:0 8:0 9:-1 10:0 11:0 12:-1 13:0 14:0 15:-1 16:1 17:1 18:1 19:0 20:0 21:0 22:0 23:0 24:-1 25:-1 26:-1 27:0 28:0 29:0 30:0 31:0 32:0 33:0 34:0 35:0 36:0 37:-1 38:-1 39:2 40:-1 41:-3 42:-1 43:0 44:0 45:1 46:0 47:1 48:0 49:-1 50:-1 51:2 52:-1 53:-3 54:-3 55:0 56:0 57:1 58:0 59:1 60:0 
-170.8372086702391 1:0 2:0 3:0 4:2 5:-2 6:5 7:0 8:1 9:0 10:0 11:0 12:0 13:0 14:0 15:0 16:2 17:-2 18:3 19:0 20:1 21:0 22:0 23:0 24:0 25:0 26:0 27:0 28:0 29:-1 30:0 31:0 32:1 33:0 34:0 35:0 36:0 37:0 38:0 39:0 40:-1 41:0 42:-3 43:0 44:1 45:0 46:0 47:0 48:0 49:-1 50:0 51:1 52:-1 53:2 54:-5 55:1 56:0 57:0 58:0 59:0 60:0 
-170.8372086702391 1:0 2:-1 3:2 4:3 5:-4 6:3 7:0 8:-2 9:1 10:0 11:0 12:0 13:0 14:0 15:1 16:1 17:-1 18:1 19:1 20:0 21:1 22:0 23:0 24:0 25:0 26:0 27:0 28:0 29:1 30:-2 31:1 32:2 33:1 34:0 35:0 36:0 37:-1 38:0 39:0 40:0 41:2 42:-2 43:1 44:1 45:0 46:1 47:0 48:0 49:-1 50:0 51:0 52:-2 53:2 54:-2 55:0 56:0 57:0 58:1 59:0 60:0 
-170.8372086702391 1:0 2:0 3:1 4:2 5:-3 6:2 7:1 8:0 9:1 10:0 11:0 12:0 13:0 14:0 15:0 16:1 17:-1 18:-1 19:1 20:2 21:1 22:0 23:0 24:0 25:-1 26:0 27:0 28:1 29:0 30:-1 31:1 32:1 33:0 34:1 35:0 36:0 37:-1 38:0 39:0 40:-1 41:0 42:-1 43:0 44:0 45:0 46:1 47:0 48:0 49:-1 50:0 51:0 52:-2 53:0 54:0 55:0 56:0 57:0 58:1 59:0 60:0 
-154.5315907090069 1:0 2:0 3:0 4:2 5:-1 6:-1 7:1 8:2 9:1 10:0 11:0 12:0 13:-1 14:0 15:0 16:2 17:0 18:-1 19:1 20:1 21:0 22:1 23:0 24:0 25:-1 26:0 27:0 28:0 29:0 30:-1 31:0 32:0 33:0 34:1 35:0 36:0 37:-1 38:0 39:0 40:-1 41:0 42:0 43:0 44:0 45:0 46:1 47:0 48:0 49:-1 50:0 51:0 52:-1 53:1 54:0 55:1 56:0 57:0 58:1 59:0 60:-1 
-170.8372086702391 1:0 2:0 3:1 4:3 5:-1 6:-1 7:1 8:1 9:0 10:0 11:0 12:0 13:0 14:0 15:1 16:1 17:-1 18:-1 19:0 20:0 21:0 22:0 23:0 24:0 25:0 26:0 27:1 28:0 29:-1 30:0 31:0 32:0 33:0 34:0 35:0 36:0 37:0 38:0 39:1 40:0 41:0 42:0 43:1 44:0 45:0 46:0 47:0 48:-1 49:0 50:0 51:0 52:0 53:0 54:-1 55:1 56:0 57:0 58:0 59:0 60:-1 
-170.8372086702391 1:0 2:0 3:1 4:1 5:-1 6:-1 7:0 8:0 9:0 10:0 11:0 12:0 13:0 14:0 15:1 16:0 17:-1 18:0 19:0 20:0 21:0 22:0 23:0 24:0 25:0 26:0 27:1 28:0 29:0 30:0 31:1 32:0 33:0 34:0 35:0 36:-1 37:0 38:0 39:0 40:0 41:0 42:-1 43:1 44:0 45:0 46:0 47:0 48:-1 49:0 50:0 51:0 52:-1 53:0 54:-1 55:1 56:0 57:0 58:0 59:0 60:-1 
-170.8372086702391 1:0 2:0 3:1 4:1 5:0 6:0 7:0 8:0 9:0 10:0 11:0 12:0 13:0 14:0 15:0 16:1 17:0 18:-1 19:0 20:0 21:0 22:0 23:0 24:0 25:0 26:0 27:0 28:0 29:0 30:-1 31:0 32:0 33:0 34:0 35:0 36:0 37:0 38:0 39:0 40:0 41:-1 42:-1 43:0 44:0 45:0 46:0 47:0 48:0 49:0 50:0 51:1 52:0 53:-1 54:-1 55:0 56:0 57:0 58:0 59:0 60:0 
-170.8372086702391 1:0 2:0 3:0 4:1 5:0 6:0 7:0 8:1 9:0 10:0 11:0 12:0 13:0 14:0 15:0 16:0 17:0 18:0 19:0 20:1 21:0 22:0 23:0 24:0 25:0 26:0 27:0 28:0 29:-1 30:0 31:0 32:1 33:0 34:0 35:0 36:0 37:0 38:0 39:1 40:0 41:-1 42:0 43:0 44:1 45:0 46:0 47:0 48:0 49:0 50:0 51:1 52:0 53:-1 54:0 55:0 56:0 57:0 58:0 59:0 60:0 
-170.8372086702391 1:-2 2:-1 3:0 4:-1 5:3 6:8 7:0 8:-1 9:-1 10:0 11:0 12:0 13:-1 14:-1 15:0 16:-1 17:3 18:5 19:1 20:-1 21:-1 22:0 23:0 24:0 25:0 26:-1 27:0 28:-1 29:0 30:1 31:2 32:-1 33:-2 34:-1 35:0 36:0 37:1 38:-1 39:0 40:-1 41:-3 42:-5 43:1 44:1 45:-1 46:-1 47:1 48:0 49:2 50:0 51:0 52:1 53:-3 54:-10 55:0 56:3 57:1 58:0 59:1 60:0 
-170.8372086702391 1:-1 2:-1 3:0 4:-1 5:4 6:9 7:1 8:-2 9:-1 10:0 11:0 12:0 13:0 14:-1 15:0 16:-1 17:1 18:5 19:2 20:-2 21:-2 22:-1 23:0 24:0 25:1 26:-1 27:0 28:-1 29:-2 30:-1 31:1 32:0 33:-1 34:-1 35:1 36:0 37:2 38:0 39:0 40:1 41:-2 42:-6 43:0 44:2 45:1 46:0 47:1 48:0 49:2 50:0 51:-1 52:2 53:-2 54:-11 55:0 56:3 57:0 58:0 59:1 60:0 
-170.8372086702391 1:-1 2:-1 3:0 4:-3 5:2 6:11 7:1 8:-2 9:-3 10:-1 11:0 12:0 13:0 14:-1 15:0 16:-3 17:-1 18:5 19:0 20:0 21:-2 22:-1 23:1 24:0 25:1 26:0 27:0 28:-1 29:-1 30:0 31:-1 32:2 33:0 34:0 35:1 36:0 37:1 38:0 39:-1 40:0 41:-1 42:-5 43:-1 44:3 45:-1 46:0 47:1 48:0 49:1 50:0 51:-1 52:4 53:-1 54:-11 55:1 56:1 57:2 58:0 59:1 60:-1 
-69.88647300605709 1:1 2:0 3:0 4:-10 5:-1 6:12 7:-2 8:3 9:-4 10:0 11:0 12:0 13:1 14:0 15:0 16:-6 17:-1 18:6 19:0 20:1 21:-1 22:0 23:0 24:-1 25:1 26:0 27:0 28:-2 29:0 30:0 31:2 32:-1 33:1 34:0 35:0 36:-1 37:0 38:-1 39:0 40:5 41:1 42:-7 43:2 44:-1 45:1 46:-1 47:0 48:-1 49:0 50:-1 51:0 52:11 53:1 54:-11 55:1 56:-1 57:1 58:-1 59:0 60:-1 
-34.3076312333111 1:1 2:0 3:-1 4:-11 5:-2 6:11 7:-1 8:2 9:-2 10:0 11:0 12:0 13:1 14:0 15:-1 16:-7 17:-1 18:5 19:1 20:0 21:0 22:0 23:0 24:0 25:0 26:-1 27:-1 28:0 29:0 30:-2 31:1 32:0 33:0 34:-1 35:0 36:0 37:0 38:-1 39:-1 40:6 41:0 42:-6 43:0 44:0 45:0 46:-1 47:0 48:0 49:-2 50:-2 51:0 52:10 53:1 54:-10 55:-1 56:-1 57:0 58:0 59:0 60:0 
-107.7576187238515 1:-1 2:0 3:0 4:-18 5:-6 6:-7 7:4 8:1 9:0 10:1 11:0 12:-1 13:0 14:0 15:-1 16:-9 17:-4 18:-7 19:1 20:0 21:0 22:0 23:0 24:-1 25:1 26:0 27:-1 28:3 29:0 30:-2 31:-2 32:0 33:0 34:0 35:0 36:-1 37:2 38:0 39:0 40:11 41:5 42:4 43:-2 44:0 45:0 46:0 47:0 48:0 49:2 50:0 51:-1 52:14 53:6 54:8 55:0 56:-1 57:1 58:0 59:0 60:0 
-28.39160391098148 1:-1 2:0 3:-1 4:-16 5:-6 6:-10 7:2 8:1 9:0 10:0 11:0 12:-1 13:0 14:0 15:-1 16:-4 17:-2 18:-5 19:-1 20:1 21:0 22:0 23:0 24:-1 25:1 26:0 27:0 28:4 29:3 30:1 31:-1 32:1 33:0 34:0 35:0 36:0 37:1 38:0 39:-1 40:7 41:4 42:5 43:1 44:0 45:1 46:0 47:0 48:0 49:1 50:0 51:-1 52:11 53:5 54:9 55:2 56:-1 57:1 58:0 59:1 60:0 
-24.34878854212099 1:0 2:0 3:0 4:-4 5:0 6:-6 7:0 8:0 9:0 10:0 11:0 12:0 13:1 14:0 15:0 16:-1 17:1 18:-4 19:0 20:0 21:-1 22:0 23:1 24:0 25:1 26:-1 27:0 28:1 29:1 30:0 31:0 32:0 33:0 34:0 35:1 36:0 37:0 38:-1 39:0 40:2 41:0 42:4 43:1 44:0 45:1 46:0 47:1 48:0 49:0 50:-1 51:0 52:2 53:1 54:5 55:2 56:0 57:1 58:0 59:1 60:0 
-135.4924911209354 1:1 2:0 3:-1 4:-1 5:0 6:-4 7:1 8:0 9:1 10:0 11:1 12:0 13:1 14:0 15:-1 16:-1 17:1 18:-3 19:2 20:0 21:1 22:0 23:1 24:0 25:0 26:0 27:0 28:0 29:1 30:-2 31:0 32:0 33:0 34:0 35:1 36:0 37:-1 38:0 39:0 40:1 41:1 42:1 43:-1 44:0 45:0 46:1 47:0 48:0 49:0 50:0 51:-1 52:1 53:0 54:4 55:-1 56:0 57:0 58:0 59:1 60:0 
-170.8372086702391 1:2 2:0 3:-1 4:-1 5:1 6:-5 7:2 8:0 9:1 10:0 11:1 12:0 13:1 14:0 15:0 16:0 17:1 18:-4 19:0 20:0 21:0 22:0 23:1 24:0 25:0 26:0 27:0 28:1 29:1 30:-1 31:-1 32:0 33:0 34:1 35:0 36:0 37:1 38:0 39:-1 40:1 41:0 42:2 43:-1 44:0 45:0 46:0 47:1 48:0 49:0 50:0 51:-1 52:0 53:0 54:4 55:0 56:0 57:0 58:0 59:0 60:0 
-161.1440016098601 1:1 2:-1 3:0 4:1 5:1 6:-3 7:-1 8:0 9:1 10:0 11:1 12:0 13:0 14:-1 15:0 16:0 17:1 18:-1 19:0 20:0 21:1 22:0 23:0 24:0 25:0 26:-1 27:0 28:0 29:1 30:0 31:2 32:0 33:0 34:0 35:0 36:0 37:0 38:-1 39:-1 40:1 41:0 42:1 43:1 44:0 45:0 46:1 47:0 48:0 49:-1 50:0 51:-2 52:1 53:0 54:3 55:0 56:1 57:0 58:1 59:0 60:0 
-170.8372086702391 1:1 2:-1 3:1 4:-1 5:2 6:-2 7:2 8:0 9:0 10:0 11:0 12:0 13:1 14:-1 15:0 16:0 17:1 18:-1 19:1 20:0 21:0 22:1 23:0 24:0 25:0 26:0 27:-1 28:0 29:1 30:1 31:0 32:1 33:0 34:1 35:0 36:0 37:1 38:0 39:-1 40:1 41:-1 42:1 43:0 44:1 45:0 46:0 47:0 48:0 49:0 50:0 51:-2 52:2 53:-2 54:1 55:0 56:1 57:0 58:0 59:0 60:0 
-155.7655795682462 1:1 2:-1 3:1 4:-1 5:2 6:-2 7:1 8:-1 9:1 10:1 11:0 12:0 13:0 14:0 15:0 16:-1 17:2 18:0 19:0 20:0 21:1 22:1 23:0 24:0 25:1 26:0 27:0 28:0 29:0 30:0 31:0 32:0 33:1 34:0 35:0 36:0 37:0 38:0 39:-1 40:1 41:-1 42:0 43:0 44:0 45:1 46:0 47:0 48:0 49:0 50:-1 51:-1 52:2 53:-3 54:1 55:1 56:1 57:0 58:0 59:0 60:0 
-170.8372086702391 1:1 2:0 3:-1 4:1 5:6 6:-1 7:1 8:0 9:0 10:0 11:0 12:0 13:1 14:-1 15:-1 16:2 17:4 18:0 19:2 20:1 21:-1 22:0 23:0 24:0 25:1 26:-1 27:0 28:2 29:1 30:0 31:1 32:1 33:0 34:0 35:1 36:0 37:0 38:-1 39:1 40:-1 41:-4 42:0 43:0 44:1 45:0 46:0 47:0 48:0 49:-1 50:-1 51:1 52:-2 53:-8 54:1 55:-1 56:1 57:1 58:0 59:0 60:-1 
-12.92449829257543 1:1 2:0 3:-2 4:3 5:7 6:-1 7:2 8:0 9:-1 10:0 11:0 12:0 13:1 14:0 15:-1 16:3 17:4 18:-1 19:1 20:0 21:0 22:0 23:1 24:0 25:0 26:0 27:0 28:0 29:-1 30:-1 31:0 32:0 33:0 34:0 35:0 36:0 37:-1 38:0 39:0 40:-1 41:-5 42:0 43:-1 44:0 45:1 46:0 47:0 48:-1 49:-1 50:0 51:0 52:-3 53:-8 54:-1 55:-2 56:0 57:0 58:0 59:0 60:-1 
-151.824199431815 1:1 2:-1 3:-1 4:4 5:8 6:0 7:2 8:0 9:0 10:0 11:1 12:0 13:0 14:-1 15:0 16:1 17:3 18:0 19:1 20:0 21:0 22:0 23:0 24:0 25:-1 26:-1 27:0 28:0 29:-1 30:1 31:0 32:0 33:1 34:0 35:0 36:-1 37:-1 38:-1 39:0 40:-2 41:-4 42:0 43:-1 44:0 45:0 46:0 47:0 48:-1 49:-1 50:0 51:0 52:-2 53:-6 54:-2 55:-1 56:0 57:0 58:0 59:0 60:-1 
-99.41215890713457 1:0 2:-1 3:0 4:3 5:6 6:1 7:2 8:0 9:0 10:0 11:0 12:0 13:-1 14:-1 15:0 16:2 17:2 18:2 19:1 20:0 21:1 22:0 23:0 24:-1 25:-1 26:-1 27:0 28:0 29:-1 30:1 31:0 32:0 33:0 34:0 35:0 36:-1 37:-1 38:0 39:0 40:0 41:-3 42:-1 43:0 44:0 45:0 46:0 47:0 48:-1 49:-1 50:0 51:0 52:-1 53:-6 54:-4 55:0 56:0 57:0 58:0 59:0 60:-1 
-95.53822529779096 1:0 2:-1 3:-1 4:2 5:5 6:3 7:1 8:0 9:1 10:0 11:0 12:0 13:0 14:-1 15:-1 16:0 17:2 18:2 19:0 20:0 21:0 22:0 23:0 24:0 25:0 26:0 27:-1 28:0 29:0 30:0 31:0 32:0 33:0 34:0 35:0 36:0 37:0 38:0 39:-1 40:-1 41:-3 42:-3 43:0 44:0 45:0 46:0 47:0 48:0 49:0 50:-1 51:0 52:-1 53:-4 54:-5 55:0 56:0 57:1 58:0 59:0 60:0 
-170.8372086702391 1:0 2:-1 3:-1 4:1 5:4 6:4 7:0 8:0 9:0 10:0 11:0 12:-1 13:0 14:0 15:-1 16:1 17:2 18:2 19:0 20:0 21:0 22:0 23:0 24:-1 25:0 26:0 27:-1 28:0 29:-1 30:-1 31:0 32:0 33:0 34:0 35:0 36:-1 37:0 38:-1 39:0 40:0 41:-2 42:-3 43:0 44:0 45:1 46:0 47:0 48:-1 49:-1 50:-2 51:1 52:-1 53:-3 54:-4 55:0 56:0 57:1 58:0 59:0 60:0 
-170.8372086702391 1:0 2:1 3:-2 4:1 5:2 6:3 7:0 8:0 9:-1 10:0 11:0 12:-1 13:0 14:0 15:-1 16:1 17:1 18:1 19:0 20:0 21:0 22:0 23:0 24:-1 25:-1 26:-1 27:0 28:0 29:0 30:0 31:0 32:0 33:0 34:0 35:0 36:0 37:-1 38:-1 39:2 40:-1 41:-3 42:-1 43:0 44:0 45:1 46:0 47:1 48:0 49:-1 50:-1 51:2 52:-1 53:-3 54:-3 55:0 56:0 57:1 58:0 59:1 60:0 
-170.8372086702391 1:0 2:0 3:0 4:2 5:-2 6:5 7:0 8:1 9:0 10:0 11:0 12:0 13:0 14:0 15:0 16:2 17:-2 18:3 19:0 20:1 21:0 22:0 23:0 24:0 25:0 26:0 27:0 28:0 29:-1 30:0 31:0 32:1 33:0 34:0 35:0 36:0 37:0 38:0 39:0 40:-1 41:0 42:-3 43:0 44:1 45:0 46:0 47:0 48:0 49:-1 50:0 51:1 52:-1 53:2 54:-5 55:1 56:0 57:0 58:0 59:0 60:0 
-150.8970784125443 1:1 2:-1 3:0 4:1 5:-5 6:4 7:-1 8:1 9:0 10:0 11:1 12:0 13:0 14:-1 15:1 16:1 17:-3 18:2 19:0 20:0 21:0 22:0 23:1 24:0 25:-1 26:-1 27:1 28:1 29:-1 30:0 31:0 32:-1 33:1 34:0 35:1 36:0 37:-1 38:-1 39:1 40:0 41:1 42:-2 43:0 44:-1 45:1 46:1 47:0 48:0 49:-1 50:0 51:0 52:-2 53:4 54:-4 55:1 56:1 57:1 58:1 59:0 60:0 
-6.214388190868394 1:0 2:-1 3:1 4:2 5:-5 6:4 7:0 8:0 9:0 10:0 11:1 12:0 13:-1 14:-1 15:1 16:2 17:-3 18:2 19:0 20:-1 21:1 22:0 23:1 24:0 25:-1 26:-1 27:1 28:1 29:-1 30:0 31:0 32:-1 33:1 34:1 35:0 36:0 37:-1 38:0 39:0 40:-1 41:2 42:-2 43:1 44:1 45:1 46:1 47:0 48:0 49:-1 50:0 51:-1 52:-2 53:4 54:-5 55:1 56:3 57:1 58:1 59:0 60:0 
-170.8372086702391 1:0 2:-1 3:2 4:3 5:-4 6:3 7:0 8:-2 9:1 10:0 11:0 12:0 13:0 14:0 15:1 16:1 17:-1 18:1 19:1 20:0 21:1 22:0 23:0 24:0 25:0 26:0 27:0 28:0 29:1 30:-2 31:1 32:2 33:1 34:0 35:0 36:0 37:-1 38:0 39:0 40:0 41:2 42:-2 43:1 44:1 45:0 46:1 47:0 48:0 49:-1 50:0 51:0 52:-2 53:2 54:-2 55:0 56:0 57:0 58:1 59:0 60:0 
-167.2110594378939 1:0 2:0 3:1 4:2 5:-3 6:2 7:1 8:0 9:1 10:0 11:0 12:0 13:0 14:0 15:0 16:1 17:-1 18:-1 19:1 20:2 21:1 22:0 23:0 24:0 25:-1 26:0 27:0 28:1 29:0 30:-1 31:1 32:1 33:0 34:1 35:0 36:0 37:-1 38:0 39:0 40:-1 41:0 42:-1 43:0 44:0 45:0 46:1 47:0 48:0 49:-1 50:0 51:0 52:-2 53:0 54:0 55:0 56:0 57:0 58:1 59:0 60:0 
-170.8372086702391 1:0 2:0 3:0 4:2 5:-1 6:-1 7:1 8:2 9:1 10:0 11:0 12:0 13:-1 14:0 15:0 16:2 17:0 18:-1 19:1 20:1 21:0 22:1 23:0 24:0 25:-1 26:0 27:0 28:0 29:0 30:-1 31:0 32:0 33:0 34:1 35:0 36:0 37:-1 38:0 39:0 40:-1 41:0 42:0 43:0 44:0 45:0 46:1 47:0 48:0 49:-1 50:0 51:0 52:-1 53:1 54:0 55:1 56:0 57:0 58:1 59:0 60:-1 
-127.0825223800995 1:0 2:0 3:1 4:3 5:-1 6:-1 7:1 8:1 9:0 10:0 11:0 12:0 13:0 14:0 15:1 16:1 17:-1 18:-1 19:0 20:0 21:0 22:0 23:0 24:0 25:0 26:0 27:1 28:0 29:-1 30:0 31:0 32:0 33:0 34:0 35:0 36:0 37:0 38:0 39:1 40:0 41:0 42:0 43:1 44:0 45:0 46:0 47:0 48:-1 49:0 50:0 51:0 52:0 53:0 54:-1 55:1 56:0 57:0 58:0 59:0 60:-1 
-170.8372086702391 1:0 2:0 3:1 4:1 5:-1 6:-1 7:0 8:0 9:0 10:0 11:0 12:0 13:0 14:0 15:1 16:0 17:-1 18:0 19:0 20:0 21:0 22:0 23:0 24:0 25:0 26:0 27:1 28:0 29:0 30:0 31:1 32:0 33:0 34:0 35:0 36:-1 37:0 38:0 39:0 40:0 41:0 42:-1 43:1 44:0 45:0 46:0 47:0 48:-1 49:0 50:0 51:0 52:-1 53:0 54:-1 55:1 56:0 57:0 58:0 59:0 60:-1 
-170.8372086702391 1:0 2:0 3:1 4:1 5:0 6:0 7:0 8:0 9:0 10:0 11:0 12:0 13:0 14:0 15:0 16:1 17:0 18:-1 19:0 20:0 21:0 22:0 23:0 24:0 25:0 26:0 27:0 28:0 29:0 30:-1 31:0 32:0 33:0 34:0 35:0 36:0 37:0 38:0 39:0 40:0 41:-1 42:-1 43:0 44:0 45:0 46:0 47:0 48:0 49:0 50:0 51:1 52:0 53:-1 54:-1 55:0 56:0 57:0 58:0 59:0 60:0 
-170.8372086702391 1:0 2:0 3:0 4:1 5:0 6:0 7:0 8:1 9:0 10:0 11:0 12:0 13:0 14:0 15:0 16:0 17:0 18:0 19:0 20:1 21:0 22:0 23:0 24:0 25:0 26:0 27:0 28:0 29:-1 30:0 31:0 32:1 33:0 34:0 35:0 36:0 37:0 38:0 39:1 40:0 41:-1 42:0 43:0 44:1 45:0 46:0 47:0 48:0 49:0 50:0 51:1 52:0 53:-1 54:0 55:0 56:0 57:0 58:0 59:0 60:0 
